999,999,999,999,999,999,999;-0.15382981,9.883566,0.6537767,-0.96143633,9.729735,-0.34611708,0.0;-0.15382981,9.883566,0.6537767,-0.26920217,9.268247,0.76914907,100.6633;-0.15382981,9.883566,0.6537767,-0.4999469,9.460533,1.4613832,134.21773;-0.15382981,9.883566,-0.53840435,-0.76914907,9.998938,-0.53840435,134.21773;-0.15382981,9.883566,-0.53840435,-1.0768087,9.383618,0.30765963,134.21773;-0.15382981,8.15298,-0.53840435,-1.0383513,8.15298,0.34611708,134.21773;-0.15382981,8.15298,0.5768618,-0.76914907,8.999044,0.5768618,167.77216;-0.15382981,9.998938,0.5768618,-0.69223416,9.998938,0.61531925,167.77216;-0.15382981,9.998938,0.5768618,-0.96143633,9.960481,-0.038457453,167.77216;-0.15382981,9.998938,-0.76914907,-0.46148944,10.537342,-0.76914907,167.77216;-0.15382981,9.998938,-0.76914907,-0.23074472,9.845108,-0.038457453,201.3266;-0.15382981,9.998938,0.46148944,-0.15382981,9.768193,0.46148944,201.3266;-1.3844683,9.998938,0.46148944,-1.3844683,8.999044,-0.07691491,201.3266;-1.3844683,9.998938,-0.61531925,-1.0383513,10.229683,-0.61531925,234.88103;-1.3844683,9.998938,-0.61531925,-0.4999469,10.691172,-0.38457453,234.88103;0.07691491,9.998938,-0.61531925,0.07691491,10.652715,0.11537236,234.88103;0.07691491,9.998938,-0.61531925,-0.19228727,10.652715,0.11537236,234.88103;0.07691491,9.998938,-0.61531925,-0.61531925,10.11431,0.34611708,268.43546;-1.3844683,8.229895,-0.61531925,-1.3844683,8.229895,-0.038457453,268.43546;-1.3844683,10.306598,-0.61531925,-0.6537767,10.306598,-0.4999469,268.43546;0.038457453,10.306598,-0.61531925,0.038457453,9.768193,-0.07691491,268.43546;0.038457453,10.306598,0.96143633,0.19228727,9.768193,0.96143633,301.9899;0.038457453,10.306598,0.96143633,-0.46148944,10.11431,0.15382981,301.9899;-1.0383513,8.383725,-0.38457453,-1.0383513,8.383725,-0.38457453,301.9899;0.19228727,9.845108,-0.38457453,0.19228727,9.845108,-0.038457453,335.5443;0.19228727,9.845108,0.76914907,-0.07691491,9.152874,0.76914907,335.5443;0.19228727,9.845108,0.76914907,-0.5768618,10.614257,0.11537236,335.5443;0.19228727,9.845108,-0.4999469,-0.34611708,10.845002,-0.4999469,369.09875;-0.9229789,8.499097,-0.4999469,-0.9229789,8.499097,-0.61531925,369.09875;-0.9229789,9.80665,0.6537767,-0.9229789,9.80665,0.6537767,369.09875;-0.9229789,9.80665,0.6537767,-0.11537236,9.922023,1.1537236,369.09875;-0.9229789,9.80665,0.6537767,-0.423032,10.3835125,-0.23074472,402.6532;-0.9229789,9.80665,-0.4999469,-0.423032,10.537342,-0.4999469,402.6532;-0.9229789,9.80665,-0.4999469,-0.6537767,9.652821,0.30765963,402.6532;0.11537236,9.80665,0.53840435,0.11537236,9.998938,0.53840435,436.2076;0.11537236,9.80665,0.53840435,0.11537236,9.883566,0.34611708,436.2076;-1.4229257,8.30681,0.53840435,-1.4229257,8.30681,-0.26920217,436.2076;-0.30765963,9.998938,0.53840435,-0.30765963,9.998938,-0.11537236,469.76205;-0.30765963,9.998938,0.53840435,-0.38457453,10.3835125,0.8845214,469.76205;-0.30765963,9.998938,0.53840435,-0.15382981,9.845108,0.76914907,469.76205;-1.3460109,8.845214,0.53840435,-1.3460109,8.845214,0.19228727,469.76205;-1.3460109,8.845214,0.53840435,-1.4998407,9.768193,-0.26920217,503.31647;0.846064,10.960374,-0.53840435,0.846064,10.960374,-0.53840435,503.31647;0.846064,10.960374,0.5768618,0.038457453,10.26814,0.5768618,503.31647;-0.53840435,9.614364,0.5768618,-0.53840435,9.614364,0.26920217,536.8709;-0.53840435,9.614364,-0.5768618,-0.5768618,9.883566,-0.5768618,536.8709;-0.53840435,9.614364,-0.5768618,-0.4999469,10.3835125,-0.5768618,536.8709;-0.53840435,9.614364,-0.5768618,0.0,9.80665,0.19228727,570.42535;-0.53840435,9.614364,-0.5768618,-0.23074472,10.11431,0.423032,570.42535;-0.53840435,10.691172,-0.5768618,-0.15382981,10.691172,-0.15382981,570.42535;-0.53840435,8.61447,-0.5768618,-1.3460109,8.61447,-0.4999469,570.42535;-0.53840435,8.61447,-0.5768618,-0.69223416,9.383618,-0.46148944,603.9798;-0.53840435,10.152767,0.6537767,0.07691491,10.152767,0.6537767,603.9798;-0.53840435,10.152767,0.6537767,-0.38457453,9.691278,0.69223416,603.9798;-0.53840435,10.152767,-0.4999469,-0.846064,10.3835125,-0.4999469,637.5342;-0.53840435,10.152767,-0.4999469,-0.846064,9.845108,-0.4999469,637.5342;-0.53840435,8.806757,-0.4999469,-0.07691491,8.806757,0.4999469,637.5342;-0.53840435,8.806757,0.9998938,0.0,9.422076,0.9998938,637.5342;-1.9997876,8.806757,0.9998938,-1.9997876,9.037501,0.4999469,671.0886;-0.4999469,10.191225,-0.30765963,-0.4999469,10.191225,-0.30765963,671.0886;-0.4999469,10.191225,-0.30765963,-0.5768618,9.80665,0.46148944,671.0886;-0.4999469,10.191225,0.8845214,0.38457453,9.768193,0.8845214,704.64307;-0.4999469,10.191225,0.8845214,-0.96143633,9.537449,0.26920217,704.64307;-0.4999469,10.191225,-0.69223416,-0.26920217,10.0373955,-0.69223416,738.1975;-0.4999469,10.191225,0.846064,0.07691491,9.922023,0.846064,738.1975;-0.4999469,10.191225,0.846064,-0.7306916,9.575906,0.46148944,738.1975;-0.4999469,10.191225,-0.69223416,-1.4229257,9.652821,-0.69223416,738.1975;-0.4999469,8.729842,-0.69223416,-0.96143633,8.729842,-0.15382981,771.75195;-0.4999469,10.26814,-0.69223416,0.38457453,10.26814,0.26920217,771.75195;-0.4999469,10.26814,0.9998938,0.038457453,9.922023,0.9998938,771.75195;-0.4999469,10.26814,0.9998938,-0.34611708,10.691172,0.11537236,805.3064;-0.4999469,10.26814,-0.76914907,-0.8845214,9.729735,-0.76914907,805.3064;-0.4999469,8.960587,-0.76914907,-1.0383513,8.960587,-0.11537236,805.3064;-0.4999469,8.960587,0.6537767,-0.4999469,9.537449,0.6537767,838.8608;-0.4999469,10.460427,0.6537767,-0.07691491,10.460427,0.69223416,838.8608;-0.4999469,10.460427,-0.76914907,-0.5768618,10.460427,-0.76914907,838.8608;-0.4999469,10.460427,-0.76914907,-0.26920217,9.691278,-0.6537767,838.8608;-0.4999469,10.460427,0.423032,0.0,9.922023,0.423032,872.4152;-0.4999469,10.460427,0.423032,-0.9998938,9.729735,0.9229789,872.4152;-1.8459578,8.537555,0.423032,-1.8459578,8.537555,0.7306916,872.4152;-1.8459578,10.921917,0.423032,-0.8845214,10.921917,-0.23074472,905.96967;0.19228727,10.921917,0.423032,0.19228727,10.152767,0.23074472,905.96967;0.19228727,10.921917,0.423032,0.34611708,10.3835125,0.11537236,905.96967;0.19228727,9.691278,0.423032,-0.07691491,9.691278,-0.11537236,939.5241;-1.8459578,8.422182,0.423032,-1.8459578,8.422182,-0.4999469,939.5241;-0.26920217,10.652715,0.423032,-0.26920217,10.652715,-0.34611708,939.5241;-0.26920217,10.652715,0.423032,-0.30765963,10.229683,0.38457453,939.5241;-0.26920217,10.652715,0.423032,0.0,9.80665,0.846064,973.07855;-0.26920217,10.652715,0.423032,-0.5768618,10.537342,-0.30765963,973.07855;-0.26920217,8.922129,0.423032,-0.76914907,8.922129,-0.5768618,973.07855;-0.26920217,10.614257,0.423032,0.30765963,10.614257,-0.23074472,1006.63293;-0.26920217,9.345161,0.423032,-0.34611708,9.345161,1.3844683,1006.63293;-0.26920217,9.345161,0.423032,-0.4999469,8.999044,0.8845214,1006.63293;-0.26920217,10.7296295,-0.6537767,-0.9229789,10.7296295,-0.6537767,1040.1874;-0.26920217,8.30681,-0.6537767,-0.96143633,8.30681,-0.8076065,1040.1874;-0.26920217,8.30681,0.53840435,0.0,8.922129,0.53840435,1040.1874;-0.26920217,9.652821,0.53840435,-0.7306916,9.652821,0.5768618,1040.1874;-0.26920217,9.652821,0.53840435,-1.1152661,10.152767,0.53840435,1073.7418;-0.26920217,9.652821,-0.9229789,-0.846064,9.80665,-0.9229789,1073.7418;-0.26920217,9.652821,0.4999469,-1.0383513,9.345161,0.4999469,1073.7418;-0.26920217,9.652821,0.4999469,-0.15382981,10.345055,0.53840435,1107.2963;-0.26920217,9.652821,0.4999469,-0.61531925,9.306704,1.0383513,1107.2963;-1.3460109,9.652821,-0.69223416,-1.3460109,10.152767,-0.69223416,1107.2963;-0.30765963,9.652821,-0.69223416,-0.30765963,10.421969,-0.5768618,1140.8507;-0.30765963,9.652821,0.423032,-0.11537236,9.998938,0.423032,1140.8507;-0.30765963,9.652821,0.423032,-0.5768618,9.768193,0.9229789,1140.8507;-0.30765963,9.652821,0.423032,-0.96143633,9.383618,0.11537236,1140.8507;-0.30765963,9.652821,0.423032,-0.69223416,9.537449,-0.5768618,1174.4052;-0.30765963,10.7296295,0.423032,0.15382981,10.7296295,0.34611708,1174.4052;-0.30765963,10.7296295,0.423032,0.19228727,10.11431,0.69223416,1174.4052;-0.30765963,10.7296295,0.423032,-0.6537767,10.345055,0.423032,1207.9596;-0.30765963,9.152874,-0.7306916,-1.0768087,9.152874,-0.7306916,1207.9596;-0.30765963,9.152874,-0.7306916,-0.46148944,8.960587,-0.69223416,1207.9596;-0.30765963,9.152874,0.4999469,-0.23074472,9.729735,0.4999469,1207.9596;-0.30765963,10.229683,0.4999469,-0.19228727,10.229683,0.5768618,1241.514;-0.30765963,10.229683,-0.846064,-0.34611708,10.11431,-0.846064,1241.514;-0.30765963,8.883672,-0.846064,-1.0768087,8.883672,-1.0383513,1241.514;-0.30765963,9.998938,0.34611708,-0.423032,9.998938,0.34611708,1275.0684;-0.30765963,9.998938,0.34611708,-0.038457453,9.845108,0.846064,1275.0684;-0.30765963,9.998938,0.34611708,-0.69223416,9.883566,0.26920217,1275.0684;-0.30765963,9.998938,-0.8845214,-0.846064,10.11431,-0.8845214,1308.6228;-0.30765963,8.768299,0.26920217,-0.9229789,8.768299,0.26920217,1308.6228;-0.30765963,9.845108,0.26920217,0.19228727,9.845108,-0.15382981,1308.6228;-0.30765963,9.845108,0.26920217,-0.846064,9.345161,0.15382981,1308.6228;-1.5382981,9.845108,0.26920217,-1.5382981,9.691278,-0.19228727,1342.1772;-1.5382981,9.845108,0.26920217,-0.61531925,10.498885,-0.11537236,1342.1772;-1.5382981,9.845108,0.26920217,-0.61531925,9.268247,0.76914907,1342.1772;-0.26920217,9.845108,0.26920217,-0.26920217,9.960481,0.9998938,1375.7317;-1.8844151,8.537555,0.26920217,-1.8844151,8.537555,0.6537767,1375.7317;-1.8844151,8.537555,0.26920217,-0.96143633,8.960587,-0.4999469,1375.7317;0.5768618,11.575693,0.26920217,0.5768618,11.575693,-0.07691491,1409.2861;0.5768618,9.768193,0.26920217,-0.15382981,9.768193,0.6537767,1409.2861;-0.69223416,9.768193,0.26920217,-0.69223416,10.26814,0.9229789,1409.2861;-0.69223416,9.768193,-0.9229789,-0.8076065,9.575906,-0.9229789,1409.2861;-0.69223416,9.768193,-0.9229789,0.07691491,9.922023,-0.23074472,1442.8406;-0.69223416,9.768193,-0.9229789,0.0,10.26814,-0.26920217,1442.8406;-0.69223416,9.768193,0.9998938,0.11537236,10.306598,0.9998938,1442.8406;-0.69223416,11.037289,-0.5768618,-0.8076065,11.037289,-0.5768618,1476.395;-0.69223416,8.691384,-0.5768618,-0.6537767,8.691384,-0.8845214,1476.395;-0.69223416,8.691384,-0.5768618,-0.61531925,9.191331,-0.19228727,1476.395;-0.69223416,8.691384,1.1921811,0.07691491,9.537449,1.1921811,1509.9495;-0.69223416,9.80665,1.1921811,-0.38457453,9.80665,0.5768618,1509.9495;-0.69223416,10.845002,-0.6537767,-0.4999469,10.845002,-0.6537767,1509.9495;-0.69223416,8.729842,-0.6537767,-0.76914907,8.729842,-0.34611708,1509.9495;-0.69223416,9.922023,0.5768618,-0.26920217,9.922023,0.5768618,1543.5039;-0.69223416,9.922023,0.5768618,-0.38457453,9.152874,0.4999469,1543.5039;-1.9228727,9.922023,0.5768618,-1.9228727,9.229789,-0.30765963,1543.5039;-0.76914907,9.922023,-0.76914907,-0.76914907,10.691172,-0.76914907,1577.0583;-0.76914907,9.922023,-0.76914907,-0.7306916,9.537449,-0.038457453,1577.0583;-0.76914907,9.922023,0.9998938,-0.15382981,10.5758,0.9998938,1577.0583;-0.76914907,9.922023,0.9998938,-0.038457453,9.883566,0.8076065,1610.6128;-0.76914907,9.922023,-0.9229789,-1.5382981,9.191331,-0.9229789,1610.6128;-0.76914907,9.922023,-0.9229789,-0.61531925,10.075852,-0.4999469,1610.6128;-0.76914907,9.922023,0.46148944,-0.23074472,10.229683,0.46148944,1610.6128;-0.76914907,9.922023,0.46148944,-0.26920217,10.883459,1.0383513,1644.1671;-0.76914907,9.922023,0.46148944,-0.69223416,9.614364,-0.11537236,1644.1671;-1.9613302,8.537555,-0.6537767,-1.9613302,8.537555,-0.6537767,1644.1671;0.30765963,10.614257,-0.6537767,0.30765963,10.614257,-0.11537236,1677.7216;0.30765963,10.614257,-0.6537767,0.0,10.11431,0.34611708,1677.7216;0.30765963,10.614257,-0.6537767,-0.15382981,10.768087,0.0,1677.7216;0.30765963,9.575906,-0.6537767,-0.6537767,9.575906,-0.15382981,1677.7216;-0.76914907,9.575906,-0.6537767,-0.76914907,9.498991,-0.423032,1711.276;-0.76914907,9.575906,0.7306916,0.038457453,9.729735,0.7306916,1711.276;-0.76914907,9.575906,0.7306916,-0.038457453,9.80665,0.423032,1711.276;-0.76914907,9.575906,0.7306916,-0.69223416,9.922023,0.11537236,1744.8304;-0.76914907,9.575906,-0.6537767,-0.4999469,9.575906,-0.6537767,1744.8304;-0.76914907,9.575906,0.846064,-0.96143633,9.614364,0.846064,1744.8304;-0.76914907,9.575906,0.846064,0.19228727,9.498991,0.846064,1778.3849;-1.8075004,8.30681,0.846064,-1.8075004,8.30681,0.5768618,1778.3849;-0.53840435,10.460427,-0.69223416,-0.53840435,10.460427,-0.69223416,1778.3849;-0.53840435,10.460427,-0.69223416,-0.5768618,10.075852,-0.8076065,1778.3849;-0.53840435,10.460427,-0.69223416,0.30765963,10.26814,-0.038457453,1811.9393;-0.53840435,9.114416,0.6537767,-0.61531925,9.114416,0.6537767,1811.9393;-1.6536705,9.114416,0.6537767,-1.6536705,8.883672,0.6537767,1811.9393;-0.26920217,10.652715,-0.53840435,-0.26920217,10.652715,-0.53840435,1845.4938;-0.26920217,10.652715,-0.53840435,-0.4999469,9.729735,-0.11537236,1845.4938;-0.26920217,10.652715,0.9998938,0.38457453,9.768193,0.9998938,1845.4938;-0.26920217,10.652715,-0.26920217,-0.76914907,10.075852,-0.26920217,1879.0482;-0.26920217,8.960587,-0.26920217,-1.0768087,8.960587,-0.53840435,1879.0482;-0.26920217,10.537342,-0.26920217,0.5768618,10.537342,-0.8076065,1879.0482;-0.26920217,9.422076,-0.26920217,0.0,9.422076,0.7306916,1879.0482;-0.26920217,9.422076,0.8845214,0.19228727,9.883566,0.8845214,1912.6027;-0.26920217,9.422076,-0.8845214,-0.423032,10.26814,-0.8845214,1912.6027;-0.26920217,9.422076,-0.8845214,-0.61531925,9.498991,-0.7306916,1912.6027;-0.26920217,9.422076,0.46148944,-0.15382981,9.883566,0.46148944,1946.1571;-0.26920217,9.422076,0.46148944,-0.46148944,9.345161,0.96143633,1946.1571;-0.26920217,9.422076,0.46148944,-0.6537767,9.80665,-0.038457453,1946.1571;-0.26920217,10.614257,-0.8845214,-0.46148944,10.614257,-0.8845214,1979.7115;-1.4613832,8.806757,-0.8845214,-1.4613832,8.806757,-0.038457453,1979.7115;-0.038457453,10.0373955,1.1152661,-0.038457453,10.0373955,1.1152661,1979.7115;-0.038457453,10.0373955,1.1152661,-0.4999469,9.845108,0.8845214,1979.7115;-1.692128,10.0373955,-0.11537236,-1.692128,9.268247,-0.11537236,2013.2659;-0.4999469,10.0373955,-0.11537236,-0.4999469,9.383618,-0.34611708,2013.2659;-0.4999469,10.0373955,0.9998938,0.19228727,10.306598,0.9998938,2013.2659;-0.4999469,10.0373955,0.9998938,0.15382981,10.152767,1.1152661,2046.8203;-1.692128,8.883672,0.9998938,-1.692128,8.883672,0.4999469,2046.8203;-1.692128,8.883672,-0.26920217,-1.5382981,9.652821,-0.26920217,2046.8203;-0.6537767,8.883672,-0.26920217,-0.6537767,9.845108,-0.11537236,2080.3748;-0.6537767,10.0373955,-0.26920217,-0.19228727,10.0373955,0.53840435,2080.3748;-0.6537767,10.0373955,-0.26920217,0.07691491,10.191225,0.15382981,2080.3748;-0.6537767,10.0373955,-0.26920217,-1.0383513,9.229789,-0.846064,2080.3748;-0.6537767,10.0373955,-0.26920217,-0.07691491,9.80665,-0.5768618,2113.9292;-0.6537767,10.0373955,-0.26920217,-0.53840435,9.191331,0.6537767,2113.9292;-0.6537767,10.0373955,1.1152661,-0.423032,10.498885,1.1152661,2113.9292;-0.6537767,10.0373955,1.1152661,-0.4999469,10.26814,0.15382981,2147.4836;-0.6537767,8.652927,-0.96143633,-1.1152661,8.652927,-0.96143633,2147.4836;-0.6537767,9.691278,0.38457453,-0.11537236,9.691278,0.38457453,2147.4836;-0.6537767,9.691278,0.38457453,-0.19228727,9.80665,0.8845214,2181.038;-0.6537767,9.691278,0.38457453,-0.846064,9.883566,0.7306916,2181.038;-0.6537767,9.691278,0.38457453,-0.30765963,10.614257,-0.46148944,2181.038;-0.6537767,9.691278,-1.1152661,-0.69223416,8.729842,-1.1152661,2181.038;-0.6537767,9.691278,0.846064,0.30765963,9.960481,0.846064,2214.5925;-0.6537767,9.691278,0.846064,-0.19228727,9.383618,0.15382981,2214.5925;-0.6537767,9.691278,0.846064,-1.0383513,9.80665,0.23074472,2214.5925;-0.6537767,9.691278,-0.61531925,-0.46148944,10.614257,-0.61531925,2248.147;-0.6537767,9.691278,-0.61531925,-0.19228727,9.229789,0.38457453,2248.147;-0.6537767,9.691278,0.69223416,-0.38457453,10.306598,0.69223416,2248.147;-0.6537767,9.691278,0.69223416,-1.0768087,9.422076,0.6537767,2248.147;-0.6537767,9.691278,-0.61531925,-1.3460109,8.960587,-0.61531925,2281.7014;-0.6537767,9.691278,0.46148944,-0.11537236,10.306598,0.46148944,2281.7014;-0.6537767,9.691278,0.46148944,0.15382981,10.460427,0.69223416,2281.7014;-0.6537767,9.691278,0.46148944,-0.423032,9.998938,1.2690959,2315.2559;-0.6537767,9.691278,0.46148944,-1.3460109,9.075959,0.61531925,2315.2559;-0.6537767,9.691278,0.46148944,-0.7306916,9.652821,-0.15382981,2315.2559;-0.6537767,9.691278,0.46148944,-0.07691491,10.306598,0.0,2348.8103;-0.6537767,9.691278,0.46148944,-0.38457453,10.152767,0.96143633,2348.8103;-0.6537767,9.691278,0.46148944,-0.46148944,9.729735,0.26920217,2348.8103;-0.6537767,9.691278,-0.8845214,-1.0383513,9.575906,-0.8845214,2348.8103;-0.6537767,9.691278,-0.8845214,-0.423032,9.883566,-0.34611708,2382.3647;-0.6537767,9.691278,0.30765963,0.0,8.883672,0.30765963,2382.3647;-0.6537767,9.691278,0.30765963,-0.15382981,9.768193,0.38457453,2382.3647;-0.6537767,9.691278,-1.1152661,-1.0383513,10.691172,-1.1152661,2415.9192;-0.6537767,9.691278,-1.1152661,-0.76914907,9.768193,-0.9229789,2415.9192;-0.6537767,9.691278,0.23074472,-0.61531925,10.306598,0.23074472,2415.9192;-0.6537767,9.691278,0.23074472,0.30765963,9.922023,0.9998938,2449.4736;-0.6537767,9.691278,0.23074472,-1.6536705,9.037501,0.61531925,2449.4736;-0.6537767,9.691278,-0.8076065,-0.9998938,10.421969,-0.8076065,2449.4736;-0.6537767,9.691278,-0.8076065,-0.07691491,9.883566,-0.423032,2449.4736;-0.6537767,9.691278,-0.8076065,0.15382981,9.998938,0.15382981,2483.028;-0.6537767,9.691278,0.5768618,-0.38457453,9.998938,0.5768618,2483.028;-1.8844151,8.576012,0.5768618,-1.8844151,8.576012,0.30765963,2483.028;-0.7306916,9.998938,0.5768618,-0.7306916,9.998938,-0.34611708,2516.5825;0.34611708,9.998938,0.5768618,0.34611708,9.80665,0.61531925,2516.5825;0.34611708,9.998938,0.5768618,-0.23074472,9.652821,0.423032,2516.5825;0.34611708,9.998938,0.5768618,-0.4999469,10.806544,0.4999469,2550.1367;-1.2690959,9.998938,-0.53840435,-1.2690959,9.306704,-0.53840435,2550.1367;-1.2690959,9.998938,-0.53840435,-0.26920217,9.998938,-0.07691491,2550.1367;-1.2690959,9.998938,1.1537236,-0.69223416,9.460533,1.1537236,2550.1367;-1.2690959,9.998938,1.1537236,-0.9998938,9.960481,1.1152661,2583.6912;-1.2690959,9.998938,-0.4999469,-0.34611708,10.0373955,-0.4999469,2583.6912;-1.2690959,9.998938,-0.4999469,-0.38457453,9.152874,-0.6537767,2583.6912;-1.2690959,9.998938,-0.4999469,-0.423032,9.268247,0.11537236,2617.2456;0.038457453,9.998938,-0.4999469,0.038457453,9.575906,0.423032,2617.2456;0.038457453,9.998938,-0.4999469,-0.11537236,10.460427,-0.26920217,2617.2456;0.038457453,9.998938,-0.4999469,-0.46148944,9.422076,-0.69223416,2650.8;-1.692128,8.806757,-0.4999469,-1.692128,8.806757,0.46148944,2650.8;-0.038457453,10.11431,0.8845214,-0.038457453,10.11431,0.8845214,2650.8;-0.038457453,10.11431,0.8845214,-0.4999469,10.191225,0.30765963,2650.8;-1.0768087,10.11431,-0.53840435,-1.0768087,9.114416,-0.53840435,2684.3545;-1.0768087,10.11431,-0.53840435,-0.38457453,9.652821,-0.30765963,2684.3545;-0.038457453,10.11431,0.69223416,-0.038457453,10.229683,0.69223416,2684.3545;-0.038457453,10.11431,0.69223416,0.038457453,10.345055,1.1152661,2717.909;-1.3844683,10.11431,0.69223416,-1.3844683,9.152874,-0.15382981,2717.909;-1.3844683,10.11431,0.69223416,-0.8076065,10.11431,0.23074472,2717.909;0.5768618,10.11431,0.69223416,0.5768618,10.345055,0.07691491,2717.909;-0.7306916,10.11431,0.69223416,-0.7306916,10.498885,0.6537767,2751.4634;-0.7306916,10.11431,0.69223416,-1.3075534,9.729735,0.423032,2751.4634;-0.7306916,10.11431,-0.8076065,-1.4998407,9.575906,-0.8076065,2751.4634;-0.7306916,10.11431,-0.8076065,-0.5768618,10.345055,-0.07691491,2785.0178;0.30765963,10.11431,1.2690959,0.30765963,9.729735,1.2690959,2785.0178;0.30765963,10.11431,1.2690959,-0.23074472,10.0373955,1.3075534,2785.0178;0.30765963,10.11431,-0.6537767,0.19228727,10.921917,-0.6537767,2818.5723;0.30765963,8.61447,-0.6537767,-0.69223416,8.61447,-0.4999469,2818.5723;0.30765963,9.729735,-0.6537767,-0.61531925,9.729735,-0.07691491,2818.5723;0.30765963,9.729735,0.69223416,-0.34611708,9.191331,0.69223416,2818.5723;0.30765963,9.729735,0.69223416,-0.6537767,9.960481,0.23074472,2852.1267;0.30765963,9.729735,-0.46148944,-0.34611708,10.537342,-0.46148944,2852.1267;-0.9229789,9.729735,-0.46148944,-0.9229789,9.768193,-0.07691491,2852.1267;-0.9229789,9.729735,0.69223416,-0.23074472,9.383618,0.69223416,2885.6812;-0.9229789,9.729735,0.69223416,-0.69223416,9.306704,0.38457453,2885.6812;-0.9229789,9.729735,0.69223416,-1.4998407,9.845108,-0.038457453,2885.6812;-0.9229789,9.729735,-0.46148944,-0.038457453,9.652821,-0.46148944,2919.2356;-0.9229789,9.729735,-0.46148944,-0.46148944,9.075959,0.30765963,2919.2356;-0.9229789,9.729735,0.96143633,-0.69223416,9.729735,0.96143633,2919.2356;-0.9229789,9.729735,0.96143633,-1.4613832,8.845214,0.423032,2919.2356;-0.9229789,9.729735,-0.4999469,-1.5382981,9.498991,-0.4999469,2952.79;-0.9229789,9.729735,-0.4999469,-0.23074472,10.152767,-0.4999469,2952.79;-0.9229789,9.729735,1.2306385,0.07691491,10.614257,1.2306385,2952.79;-0.9229789,9.729735,1.2306385,-0.38457453,9.883566,0.34611708,2986.3445;-0.9229789,9.729735,-0.30765963,-0.8845214,9.306704,-0.30765963,2986.3445;-0.9229789,9.729735,-0.30765963,-1.0383513,9.498991,-0.423032,2986.3445;-0.9229789,9.729735,-0.30765963,-0.19228727,10.0373955,0.46148944,3019.899;-0.9229789,10.960374,1.0768087,-0.07691491,10.960374,1.0768087,3019.899;-0.9229789,10.960374,1.0768087,-0.11537236,10.498885,0.8076065,3019.899;-0.9229789,8.61447,-0.53840435,-1.0383513,8.61447,-0.53840435,3019.899;-0.9229789,9.80665,-0.53840435,-0.19228727,9.80665,-0.34611708,3053.4534;-0.9229789,9.80665,-0.53840435,-0.038457453,9.037501,0.07691491,3053.4534;-0.9229789,9.80665,1.3075534,-0.76914907,9.537449,1.3075534,3053.4534;-0.9229789,10.845002,-0.7306916,-0.26920217,10.845002,-0.7306916,3087.0078;-0.9229789,9.075959,-0.7306916,-0.69223416,9.075959,-0.7306916,3087.0078;-0.9229789,9.075959,0.846064,-0.19228727,9.191331,0.846064,3087.0078;-0.9229789,9.075959,0.846064,-0.23074472,9.691278,0.7306916,3120.5623;-0.9229789,9.075959,0.846064,-1.1921811,9.537449,0.11537236,3120.5623;-0.9229789,10.229683,-0.9998938,-0.038457453,10.229683,-0.9998938,3120.5623;-0.9229789,10.229683,0.53840435,-0.423032,9.575906,0.53840435,3120.5623;-0.9229789,10.229683,0.53840435,0.0,9.498991,0.846064,3154.1167;-0.9229789,10.229683,0.53840435,-1.1537236,9.652821,0.34611708,3154.1167;-0.9229789,10.229683,-0.7306916,-0.8845214,9.422076,-0.7306916,3154.1167;-0.9229789,10.229683,-0.7306916,-0.34611708,10.11431,-0.53840435,3187.6711;-0.9229789,9.075959,0.7306916,0.07691491,9.075959,0.7306916,3187.6711;0.30765963,9.075959,0.7306916,0.30765963,9.614364,0.96143633,3187.6711;-1.3460109,9.075959,0.7306916,-1.3460109,8.960587,0.07691491,3187.6711;-1.3460109,9.075959,-0.53840435,-1.2690959,9.768193,-0.53840435,3221.2256;0.07691491,10.845002,-0.53840435,0.07691491,10.845002,0.07691491,3221.2256;0.07691491,10.845002,0.9229789,0.19228727,9.883566,0.9229789,3221.2256;0.07691491,10.845002,0.9229789,-0.23074472,10.537342,0.61531925,3254.7798;-0.96143633,9.729735,-0.26920217,-0.96143633,9.729735,-0.26920217,3254.7798;-0.96143633,9.729735,-0.26920217,-0.96143633,9.498991,-0.53840435,3254.7798;-0.96143633,9.729735,-0.26920217,-0.038457453,9.498991,0.69223416,3288.3342;-0.96143633,9.729735,0.8845214,0.038457453,9.383618,0.8845214,3288.3342;0.07691491,11.191119,-0.423032,0.07691491,11.191119,-0.423032,3288.3342;0.07691491,9.498991,-0.423032,-0.7306916,9.498991,-0.61531925,3288.3342;0.07691491,9.498991,-0.423032,-0.5768618,9.422076,0.30765963,3321.8887;0.07691491,9.498991,-0.423032,-0.30765963,9.883566,0.46148944,3321.8887;-1.0768087,9.498991,-0.423032,-1.0768087,9.575906,-0.19228727,3321.8887;-1.0768087,9.498991,-0.423032,-0.846064,10.498885,-0.34611708,3355.443;-1.0768087,9.498991,-0.423032,-0.15382981,10.306598,-0.69223416,3355.443;0.11537236,9.498991,0.8076065,0.11537236,10.421969,0.8076065,3355.443;-1.1152661,9.498991,0.8076065,-1.1152661,9.922023,0.53840435,3388.9976;-1.1152661,7.9991503,0.8076065,-1.6536705,7.9991503,0.6537767,3388.9976;-1.1152661,10.537342,-0.34611708,-0.9998938,10.537342,-0.34611708,3388.9976;0.15382981,10.537342,-0.34611708,0.15382981,10.152767,-0.038457453,3388.9976;0.15382981,10.537342,1.1152661,-0.15382981,10.691172,1.1152661,3422.552;-1.4229257,8.883672,1.1152661,-1.4229257,8.883672,0.46148944,3422.552;-1.4229257,8.883672,-0.423032,-1.3844683,8.999044,-0.423032,3422.552;-1.4229257,10.345055,-0.423032,-0.6537767,10.345055,0.15382981,3456.1064;-0.19228727,10.345055,0.8076065,-0.19228727,9.729735,0.8076065,3456.1064;-0.19228727,10.345055,0.8076065,-0.61531925,10.345055,0.8845214,3456.1064;-0.19228727,10.345055,-0.61531925,-0.11537236,10.460427,-0.61531925,3489.661;-1.4613832,8.960587,-0.61531925,-1.4613832,8.960587,-0.34611708,3489.661;0.11537236,10.460427,-0.61531925,0.11537236,10.460427,-0.23074472,3489.661;0.11537236,10.460427,-0.61531925,0.46148944,9.768193,0.38457453,3489.661;0.11537236,10.460427,-0.61531925,0.23074472,10.537342,-0.038457453,3523.2153;0.11537236,10.460427,-0.61531925,-0.8845214,10.0373955,-1.0383513,3523.2153;0.11537236,9.037501,-0.61531925,-0.61531925,9.037501,0.26920217,3523.2153;0.11537236,9.037501,-0.61531925,0.11537236,9.80665,0.34611708,3556.7698;0.11537236,9.037501,0.5768618,-0.26920217,10.0373955,0.5768618,3556.7698;-1.6536705,9.037501,0.5768618,-1.6536705,9.498991,-0.11537236,3556.7698;-0.4999469,10.075852,-0.8845214,-0.4999469,10.075852,-0.8845214,3590.3242;-0.4999469,10.075852,0.30765963,-0.6537767,9.383618,0.30765963,3590.3242;-0.4999469,10.075852,0.30765963,-0.26920217,9.729735,0.846064,3590.3242;-2.3459046,8.46064,0.30765963,-2.3459046,8.46064,0.30765963,3590.3242;-0.8076065,10.11431,0.30765963,-0.8076065,10.11431,-0.38457453,3623.8787;-0.8076065,10.11431,0.30765963,-0.26920217,10.152767,-0.34611708,3623.8787;-0.8076065,10.11431,0.30765963,-0.4999469,10.229683,0.9998938,3623.8787;-0.8076065,10.11431,0.30765963,-0.30765963,9.729735,0.5768618,3657.433;-0.8076065,10.11431,0.30765963,-0.7306916,9.691278,-0.26920217,3657.433;-0.8076065,10.11431,0.30765963,-1.1537236,10.26814,-0.23074472,3657.433;0.23074472,10.11431,0.30765963,0.23074472,10.345055,0.34611708,3657.433;0.23074472,10.11431,0.30765963,-0.15382981,10.306598,1.0383513,3690.9875;0.23074472,10.11431,0.30765963,-0.61531925,11.114204,-0.46148944,3690.9875;-1.0768087,8.960587,0.30765963,-1.0768087,8.960587,-0.38457453,3690.9875;0.0,8.960587,0.30765963,0.0,9.845108,-0.23074472,3724.542;0.0,8.960587,0.30765963,0.19228727,9.922023,0.846064,3724.542;0.0,8.960587,0.30765963,-0.4999469,9.768193,0.4999469,3724.542;0.0,8.960587,0.30765963,-0.9229789,9.614364,-0.4999469,3758.0964;0.0,8.960587,0.30765963,-0.69223416,9.575906,-0.61531925,3758.0964;0.0,10.0373955,0.30765963,-0.38457453,10.0373955,0.423032,3758.0964;0.0,10.0373955,0.30765963,-0.34611708,9.960481,1.0768087,3758.0964;-1.1921811,10.0373955,0.30765963,-1.1921811,9.460533,0.0,3791.651;-1.1921811,10.0373955,-1.1537236,-1.1537236,10.5758,-1.1537236,3791.651;-1.1921811,10.0373955,0.07691491,-0.61531925,9.037501,0.07691491,3791.651;0.11537236,10.0373955,0.07691491,0.11537236,9.845108,0.96143633,3825.2053;-1.0383513,8.999044,0.07691491,-1.0383513,8.999044,1.0383513,3825.2053;-1.0383513,8.999044,0.07691491,-1.0383513,9.960481,-0.38457453,3825.2053;0.0,10.652715,0.07691491,0.0,10.652715,0.30765963,3858.7598;0.0,10.652715,0.07691491,-0.46148944,9.960481,0.8076065,3858.7598;0.0,9.575906,0.07691491,-0.8845214,9.575906,0.5768618,3858.7598;-1.1537236,9.575906,0.07691491,-1.1537236,9.152874,-0.15382981,3858.7598;-1.1537236,9.575906,0.07691491,-1.2690959,9.114416,-0.8076065,3892.3142;-0.11537236,9.575906,0.07691491,-0.11537236,10.191225,0.038457453,3892.3142;-0.11537236,9.575906,0.07691491,0.30765963,9.922023,0.4999469,3892.3142;-0.11537236,9.575906,1.2306385,-0.5768618,10.498885,1.2306385,3925.8687;-1.1921811,9.575906,-0.5768618,-1.1921811,8.960587,-0.5768618,3925.8687;-1.1921811,9.575906,-0.5768618,-0.34611708,9.768193,-0.61531925,3925.8687;0.038457453,9.575906,-0.5768618,0.038457453,9.537449,0.423032,3959.423;0.038457453,9.575906,0.8845214,-0.23074472,9.998938,0.8845214,3959.423;0.038457453,10.921917,-0.53840435,-0.7306916,10.921917,-0.53840435,3959.423;-1.3075534,9.306704,-0.53840435,-1.3075534,9.306704,-0.76914907,3959.423;-1.3075534,9.306704,-0.53840435,-0.61531925,9.845108,0.34611708,3992.9773;0.23074472,9.306704,-0.53840435,0.23074472,9.114416,0.11537236,3992.9773;0.23074472,9.306704,-0.53840435,-0.46148944,9.460533,0.11537236,3992.9773;-0.8076065,9.306704,-0.53840435,-0.8076065,9.80665,-1.0383513,4026.5317;-0.8076065,9.306704,-0.53840435,-0.7306916,9.845108,-0.30765963,4026.5317;0.53840435,9.306704,-0.53840435,0.53840435,10.306598,0.46148944,4026.5317;-0.5768618,9.306704,-0.53840435,-0.5768618,9.537449,0.34611708,4060.0862;-0.5768618,9.306704,-0.53840435,-1.5767555,9.152874,0.0,4060.0862;-0.5768618,10.768087,-0.53840435,-0.30765963,10.768087,-0.69223416,4060.0862;-0.5768618,10.768087,-0.53840435,-0.11537236,9.922023,-0.34611708,4060.0862;-0.5768618,10.768087,1.0383513,-0.423032,9.998938,1.0383513,4093.6406;-0.5768618,9.306704,1.0383513,-1.2306385,9.306704,0.38457453,4093.6406;-0.5768618,9.306704,-0.7306916,-1.4998407,8.652927,-0.7306916,4093.6406;-0.5768618,10.421969,-0.7306916,-0.11537236,10.421969,-0.23074472,4127.1953;-0.5768618,10.421969,1.4613832,-0.38457453,9.845108,1.4613832,4127.1953;-0.5768618,10.421969,1.4613832,-0.4999469,9.729735,0.8076065,4127.1953;-0.5768618,10.421969,-0.53840435,-0.423032,9.845108,-0.53840435,4160.7495;-0.5768618,8.883672,-0.53840435,-0.61531925,8.883672,-0.46148944,4160.7495;-0.5768618,8.883672,-0.53840435,-0.423032,9.768193,0.11537236,4160.7495;-0.5768618,10.306598,1.0768087,0.11537236,10.306598,1.0768087,4160.7495;-0.5768618,11.383406,-0.11537236,-0.46148944,11.383406,-0.11537236,4194.304;-0.5768618,9.575906,-0.11537236,-0.76914907,9.575906,-0.9229789,4194.304;-0.5768618,9.575906,-0.11537236,-0.96143633,9.075959,0.11537236,4194.304;-0.5768618,9.575906,-0.11537236,0.11537236,9.960481,0.4999469,4227.8584;-0.5768618,9.575906,-0.11537236,-0.423032,10.0373955,0.26920217,4227.8584;-0.5768618,9.575906,-0.11537236,-1.4613832,9.922023,-0.34611708,4227.8584;-0.5768618,9.575906,-0.11537236,-0.30765963,10.26814,0.8845214,4261.413;-0.5768618,9.575906,-0.11537236,-0.34611708,9.575906,0.7306916,4261.413;-1.692128,9.575906,-0.11537236,-1.692128,8.806757,0.34611708,4261.413;-1.692128,9.575906,-0.11537236,-0.8845214,10.0373955,-0.8076065,4294.9673;-0.038457453,9.575906,-0.11537236,-0.038457453,10.421969,-0.11537236,4294.9673;-0.038457453,9.575906,-0.11537236,0.26920217,9.922023,0.46148944,4294.9673;-1.692128,9.575906,0.9229789,-1.692128,8.729842,0.9229789,4328.5215;-1.692128,9.575906,-0.30765963,-1.4229257,9.422076,-0.30765963,4328.5215;-0.46148944,9.575906,-0.30765963,-0.46148944,10.11431,0.038457453,4328.5215;-0.46148944,9.575906,-0.30765963,0.038457453,10.191225,0.53840435,4328.5215;-0.46148944,9.575906,0.9998938,-0.07691491,10.306598,0.9998938,4362.076;-0.46148944,9.575906,-0.11537236,-0.38457453,9.883566,-0.11537236,4362.076;-0.46148944,8.46064,-0.11537236,-1.1537236,8.46064,-0.30765963,4362.076;-0.46148944,9.80665,-0.11537236,-0.15382981,9.80665,-0.34611708,4395.6304;-0.46148944,9.80665,-0.11537236,0.07691491,9.422076,0.6537767,4395.6304;-0.46148944,9.80665,-0.11537236,-0.8076065,10.652715,0.69223416,4395.6304;-0.46148944,9.80665,-0.11537236,-0.6537767,10.191225,-0.96143633,4429.185;-0.46148944,9.80665,-0.11537236,-0.4999469,10.075852,-0.69223416,4429.185;-0.46148944,9.80665,-0.11537236,-0.53840435,10.075852,0.26920217,4429.185;-0.46148944,9.80665,-0.11537236,-0.423032,10.152767,0.69223416,4429.185;-0.46148944,9.80665,-0.11537236,-1.1921811,9.460533,-0.423032,4462.7393;-0.46148944,9.80665,-0.11537236,-0.846064,9.960481,-0.61531925,4462.7393;-0.46148944,9.80665,-0.11537236,-1.0383513,9.229789,0.46148944,4462.7393;-0.46148944,9.80665,0.9229789,0.11537236,9.498991,0.9229789,4496.294;-0.46148944,9.80665,0.9229789,-0.6537767,9.691278,0.46148944,4496.294;-0.46148944,9.80665,-0.53840435,-0.61531925,9.960481,-0.53840435,4496.294;-0.46148944,9.80665,-0.53840435,-0.5768618,9.691278,-0.07691491,4529.848;-0.46148944,9.80665,0.8845214,-0.07691491,10.5758,0.8845214,4529.848;-0.46148944,9.80665,0.8845214,-0.8845214,9.922023,0.26920217,4529.848;-0.46148944,9.80665,-0.38457453,-1.3844683,9.422076,-0.38457453,4529.848;-0.46148944,9.80665,-0.38457453,-1.1537236,9.729735,-0.038457453,4563.403;-0.46148944,9.80665,-0.38457453,0.19228727,10.306598,0.46148944,4563.403;-0.46148944,9.80665,1.4998407,0.15382981,10.691172,1.4998407,4563.403;-0.46148944,9.80665,1.4998407,-1.1537236,9.422076,0.7306916,4596.957;-1.9228727,8.30681,-0.9998938,-1.9228727,8.30681,-0.9998938,4596.957;0.23074472,10.0373955,-0.9998938,0.23074472,10.0373955,-0.76914907,4596.957;0.23074472,10.0373955,0.423032,0.038457453,9.614364,0.423032,4630.5117;0.23074472,10.0373955,0.423032,-0.38457453,10.0373955,0.5768618,4630.5117;-0.846064,10.0373955,0.423032,-0.846064,10.998832,-0.26920217,4630.5117;-0.846064,10.0373955,-0.76914907,-0.69223416,9.306704,-0.76914907,4630.5117;-0.846064,10.0373955,0.423032,-0.9229789,9.691278,0.423032,4664.066;0.34611708,10.0373955,0.423032,0.34611708,10.345055,0.6537767,4664.066;0.34611708,10.0373955,0.423032,-0.46148944,10.0373955,0.11537236,4664.066;0.34611708,10.0373955,-1.0383513,-0.19228727,10.883459,-1.0383513,4697.6206;-0.9998938,10.0373955,-1.0383513,-0.9998938,9.537449,-0.07691491,4697.6206;0.038457453,10.0373955,0.5768618,0.038457453,9.80665,0.5768618,4697.6206;0.038457453,10.0373955,0.5768618,-0.11537236,9.883566,-0.15382981,4697.6206;-1.1152661,10.0373955,-0.61531925,-1.1152661,9.614364,-0.61531925,4731.175;-1.1152661,10.0373955,-0.61531925,-0.8845214,10.191225,-0.8076065,4731.175;-1.1152661,8.768299,0.9998938,-0.96143633,8.768299,0.9998938,4731.175;-1.1152661,8.768299,0.9998938,-0.19228727,9.614364,0.5768618,4764.7295;-1.1152661,8.768299,0.9998938,-1.1921811,8.61447,0.26920217,4764.7295;-1.1152661,8.768299,-0.46148944,-1.3075534,9.768193,-0.46148944,4764.7295;0.26920217,10.883459,-0.46148944,0.26920217,10.883459,-0.30765963,4798.2837;0.26920217,10.883459,1.0768087,-0.30765963,10.460427,1.0768087,4798.2837;-1.1921811,9.037501,1.0768087,-1.1921811,9.037501,1.1921811,4798.2837;-1.1921811,9.037501,-0.38457453,-0.46148944,9.037501,-0.38457453,4798.2837;-1.1921811,9.037501,-0.38457453,-1.3460109,9.80665,-0.69223416,4831.8384;0.23074472,9.037501,-0.38457453,0.23074472,9.80665,-0.53840435,4831.8384;0.23074472,10.306598,1.3460109,0.07691491,10.306598,1.3460109,4831.8384;0.23074472,10.306598,-0.26920217,-0.038457453,10.960374,-0.26920217,4865.3926;-0.8845214,9.229789,-0.26920217,-0.8845214,9.229789,-1.0383513,4865.3926;-0.8845214,9.229789,-0.26920217,-0.76914907,9.537449,0.46148944,4865.3926;0.46148944,9.229789,0.76914907,0.46148944,9.768193,0.76914907,4898.9473;-0.846064,10.691172,0.76914907,-0.846064,10.691172,0.69223416,4898.9473;-0.846064,10.691172,-0.61531925,-1.0383513,10.652715,-0.61531925,4898.9473;-0.846064,9.152874,-0.61531925,-0.8076065,9.152874,-0.9998938,4898.9473;-0.846064,10.460427,1.1152661,0.038457453,10.460427,1.1152661,4932.5015;-0.846064,10.460427,1.1152661,-0.34611708,9.998938,0.846064,4932.5015;-1.9613302,8.768299,1.1152661,-1.9613302,8.768299,0.46148944,4932.5015;-0.4999469,10.152767,-0.9998938,-0.4999469,10.152767,-0.9998938,4966.056;-0.4999469,10.152767,0.19228727,-0.15382981,9.268247,0.19228727,4966.056;-0.4999469,10.152767,0.19228727,-0.11537236,10.152767,1.1537236,4966.056;-0.4999469,10.152767,0.19228727,-0.9998938,9.691278,0.15382981,4999.6104;-0.4999469,8.576012,0.19228727,-1.2306385,8.576012,-0.19228727,4999.6104;-0.4999469,9.883566,0.19228727,-0.19228727,9.883566,-0.23074472,4999.6104;-0.4999469,9.883566,0.19228727,0.38457453,10.075852,1.0383513,4999.6104;-0.4999469,9.883566,0.19228727,-0.8845214,10.652715,0.96143633,5033.165;-0.4999469,9.883566,0.19228727,-0.8845214,9.422076,-0.6537767,5033.165;-0.4999469,8.729842,0.19228727,-1.3075534,8.729842,0.038457453,5033.165;-0.4999469,10.614257,0.19228727,0.11537236,10.614257,-0.46148944,5066.719;-0.4999469,10.614257,0.19228727,-0.26920217,10.075852,0.423032,5066.719;-0.4999469,10.614257,0.19228727,-0.38457453,10.498885,0.19228727,5066.719;-0.4999469,9.422076,0.19228727,-1.0768087,9.422076,-0.53840435,5100.2734;-0.4999469,9.422076,0.19228727,-0.11537236,9.037501,-0.46148944,5100.2734;-0.4999469,9.422076,0.19228727,-0.038457453,9.037501,0.53840435,5100.2734;-0.4999469,9.422076,0.19228727,-0.23074472,9.614364,0.8076065,5100.2734;-0.4999469,9.422076,-0.96143633,-0.4999469,9.768193,-0.96143633,5133.828;-0.4999469,9.422076,-0.96143633,-0.53840435,9.729735,-0.8845214,5133.828;-0.4999469,9.422076,0.8076065,-0.4999469,9.537449,0.8076065,5133.828;-0.4999469,9.422076,0.8076065,-0.11537236,8.960587,0.38457453,5167.3823;-0.4999469,9.422076,0.8076065,-1.4613832,9.037501,-0.038457453,5167.3823;-0.4999469,9.422076,-0.8845214,-0.69223416,9.883566,-0.8845214,5167.3823;-0.4999469,9.422076,0.38457453,-0.53840435,9.998938,0.38457453,5167.3823;-0.4999469,9.422076,0.38457453,0.038457453,10.345055,0.9998938,5200.937;-0.4999469,9.422076,0.38457453,-0.6537767,9.075959,0.4999469,5200.937;-0.4999469,9.422076,0.38457453,-1.4613832,9.80665,0.07691491,5200.937;-0.4999469,9.422076,0.38457453,-0.96143633,10.345055,-0.11537236,5234.491;-0.4999469,9.422076,0.38457453,-0.19228727,10.0373955,0.038457453,5234.491;-0.4999469,9.422076,0.38457453,-0.76914907,9.691278,1.0768087,5234.491;-0.4999469,9.422076,0.38457453,0.0,10.3835125,0.038457453,5268.046;-0.4999469,9.422076,0.38457453,-1.3844683,8.883672,-0.26920217,5268.046;-0.4999469,11.191119,0.38457453,0.23074472,11.191119,-0.423032,5268.046;-0.4999469,9.614364,0.38457453,-0.19228727,9.614364,0.76914907,5268.046;-0.4999469,9.614364,0.38457453,-0.19228727,9.998938,1.3460109,5301.6;-0.4999469,9.614364,-0.76914907,-0.69223416,9.998938,-0.76914907,5301.6;-0.4999469,9.614364,-0.76914907,-0.07691491,9.498991,-0.6537767,5301.6;-0.4999469,9.614364,-0.76914907,-0.61531925,9.80665,0.15382981,5335.155;-0.4999469,9.614364,0.69223416,-0.11537236,9.768193,0.69223416,5335.155;-0.4999469,9.614364,0.69223416,-0.61531925,10.0373955,-0.23074472,5335.155;-0.4999469,9.614364,-0.6537767,-0.34611708,10.306598,-0.6537767,5368.709;-0.4999469,9.614364,-0.6537767,-1.1537236,8.806757,0.19228727,5368.709;-0.4999469,9.614364,0.8076065,0.30765963,10.075852,0.8076065,5368.709;-0.4999469,9.614364,0.8076065,-0.34611708,10.075852,0.26920217,5368.709;-0.4999469,9.614364,-0.46148944,-1.0383513,9.460533,-0.46148944,5402.2637;-0.4999469,9.614364,-0.46148944,-0.76914907,9.498991,-0.6537767,5402.2637;-0.4999469,9.614364,-0.46148944,-0.07691491,10.229683,0.46148944,5402.2637;-0.4999469,9.614364,1.0768087,-0.4999469,10.0373955,1.0768087,5435.818;-0.4999469,9.614364,-0.26920217,-1.4998407,9.152874,-0.26920217,5435.818;-0.4999469,9.614364,-0.26920217,-0.46148944,9.614364,-0.61531925,5435.818;-0.4999469,10.768087,-0.26920217,0.38457453,10.768087,-0.07691491,5469.3726;-0.4999469,10.768087,1.0768087,0.07691491,10.345055,1.0768087,5469.3726;-0.4999469,10.768087,1.0768087,-0.9229789,10.0373955,0.5768618,5469.3726;-0.4999469,9.075959,-0.26920217,-1.3844683,9.075959,-0.26920217,5469.3726;-0.4999469,9.075959,-0.26920217,-0.11537236,10.0373955,-0.6537767,5502.927;-0.4999469,9.075959,0.76914907,-0.53840435,9.537449,0.76914907,5502.927;-0.4999469,10.191225,0.76914907,-0.61531925,10.191225,0.9998938,5502.927;-0.4999469,11.306491,-0.4999469,0.19228727,11.306491,-0.4999469,5536.4814;-0.4999469,9.191331,-0.4999469,-1.1152661,9.191331,-0.8076065,5536.4814;-0.4999469,9.191331,-0.4999469,-0.5768618,9.460533,0.23074472,5536.4814;-0.4999469,9.191331,0.9229789,-0.30765963,9.422076,0.9229789,5570.0356;-0.4999469,10.306598,-0.11537236,-0.61531925,10.306598,-0.11537236,5570.0356;-0.4999469,10.306598,-0.11537236,-0.19228727,10.460427,-1.1152661,5570.0356;-0.4999469,10.306598,-0.11537236,-0.5768618,9.691278,-0.38457453,5570.0356;-0.4999469,10.306598,-0.11537236,0.423032,9.652821,0.53840435,5603.5903;-0.4999469,10.306598,-0.11537236,-0.26920217,9.729735,0.26920217,5603.5903;-1.692128,9.114416,-0.11537236,-1.692128,9.114416,0.53840435,5603.5903;-0.34611708,10.306598,-0.11537236,-0.34611708,10.306598,-0.26920217,5637.1445;-0.34611708,10.306598,-0.11537236,-0.07691491,9.691278,0.30765963,5637.1445;-0.34611708,10.306598,0.9998938,0.30765963,10.152767,0.9998938,5637.1445;-1.7690428,9.268247,0.9998938,-1.7690428,9.268247,0.30765963,5670.699;-1.7690428,9.268247,-0.53840435,-1.5382981,9.383618,-0.53840435,5670.699;-0.11537236,10.3835125,-0.53840435,-0.11537236,10.3835125,-0.15382981,5670.699;-0.11537236,10.3835125,0.76914907,-0.23074472,10.152767,0.76914907,5670.699;-0.11537236,10.3835125,0.76914907,-0.76914907,9.498991,1.1921811,5704.2534;-0.11537236,10.3835125,0.76914907,-0.69223416,9.845108,-0.07691491,5704.2534;-0.11537236,10.3835125,0.76914907,-0.846064,9.460533,-0.23074472,5704.2534;-0.11537236,10.3835125,0.76914907,-0.11537236,9.768193,0.53840435,5737.808;-0.11537236,10.3835125,0.76914907,0.11537236,9.960481,1.1921811,5737.808;-0.11537236,11.691066,-0.26920217,-0.19228727,11.691066,-0.26920217,5737.808;-0.11537236,9.652821,-0.26920217,-0.846064,9.652821,-0.9229789,5737.808;-0.11537236,9.652821,-0.26920217,-0.34611708,9.652821,-0.15382981,5771.3623;-0.11537236,9.652821,0.8076065,-0.7306916,9.883566,0.8076065,5771.3623;-0.11537236,9.652821,0.8076065,-0.30765963,9.960481,0.4999469,5771.3623;-0.11537236,9.652821,-0.423032,-0.76914907,9.652821,-0.423032,5804.9165;-0.11537236,9.652821,-0.423032,-0.423032,10.0373955,-1.3460109,5804.9165;-0.11537236,9.652821,-0.423032,-0.34611708,9.652821,-0.11537236,5804.9165;-0.11537236,9.652821,0.9229789,-0.26920217,9.422076,0.9229789,5838.471;-1.6536705,8.499097,0.9229789,-1.6536705,8.499097,0.23074472,5838.471;-1.6536705,10.3835125,-0.38457453,-1.0383513,10.3835125,-0.38457453,5838.471;-1.6536705,9.345161,-0.38457453,-1.2306385,9.345161,-0.038457453,5838.471;-0.07691491,10.537342,0.96143633,-0.07691491,10.537342,0.96143633,5872.0254;-0.07691491,10.537342,0.96143633,-0.34611708,9.883566,0.69223416,5872.0254;-1.3460109,9.191331,-0.8076065,-1.3460109,9.191331,-0.8076065,5872.0254;-0.30765963,9.191331,-0.8076065,-0.30765963,9.229789,-0.61531925,5905.58;-0.30765963,10.421969,0.61531925,0.23074472,10.421969,0.61531925,5905.58;-0.30765963,10.421969,0.61531925,-0.38457453,10.0373955,0.846064,5905.58;-0.30765963,10.421969,0.61531925,-0.96143633,9.768193,-0.38457453,5939.1343;-1.6536705,8.768299,0.61531925,-1.6536705,8.768299,-0.07691491,5939.1343;0.61531925,10.806544,-0.5768618,0.61531925,10.806544,-0.5768618,5939.1343;0.61531925,9.768193,0.7306916,-0.26920217,9.768193,0.7306916,5939.1343;0.61531925,9.768193,0.7306916,-0.38457453,10.498885,0.4999469,5972.689;-0.69223416,9.768193,-0.4999469,-0.69223416,9.729735,-0.4999469,5972.689;-0.69223416,9.768193,-0.4999469,-0.38457453,10.0373955,-0.423032,5972.689;-0.69223416,9.768193,-0.4999469,-0.038457453,9.306704,0.423032,6006.243;-0.69223416,9.768193,-0.4999469,-0.423032,10.345055,0.38457453,6006.243;-0.69223416,9.768193,-0.4999469,-0.46148944,10.3835125,-0.19228727,6006.243;-0.69223416,9.768193,-0.4999469,-0.846064,9.80665,-1.1921811,6039.798;-0.69223416,9.768193,-0.4999469,-1.0383513,9.691278,0.34611708,6039.798;-0.69223416,9.768193,-0.4999469,0.19228727,9.037501,0.46148944,6039.798;-0.69223416,9.768193,-0.4999469,-0.8845214,9.345161,0.30765963,6039.798;-0.69223416,9.768193,-0.4999469,-1.1537236,9.922023,-0.423032,6073.352;-0.69223416,9.768193,-0.4999469,-0.61531925,10.191225,-0.76914907,6073.352;-0.69223416,9.768193,-0.4999469,0.15382981,10.075852,0.26920217,6073.352;-0.69223416,9.768193,0.53840435,-0.7306916,9.845108,0.53840435,6106.9067;-0.69223416,9.768193,0.53840435,-1.1921811,9.191331,0.38457453,6106.9067;-0.69223416,9.768193,-0.4999469,-1.5767555,10.26814,-0.4999469,6106.9067;0.38457453,9.768193,-0.4999469,0.38457453,10.229683,-0.038457453,6140.461;0.38457453,9.768193,0.9229789,-0.38457453,9.960481,0.9229789,6140.461;-1.0768087,9.768193,0.9229789,-1.0768087,9.422076,0.76914907,6140.461;-1.0768087,9.768193,-0.26920217,-0.15382981,10.306598,-0.26920217,6174.0156;-1.0768087,9.768193,0.76914907,-0.30765963,9.383618,0.76914907,6174.0156;-1.0768087,9.768193,0.76914907,-0.34611708,10.152767,0.5768618,6174.0156;0.038457453,9.768193,-1.1921811,0.038457453,10.498885,-1.1921811,6207.57;0.038457453,8.691384,-1.1921811,-0.8845214,8.691384,-0.6537767,6207.57;0.038457453,9.960481,0.19228727,-0.6537767,9.960481,0.19228727,6207.57;0.038457453,9.960481,0.19228727,-0.846064,9.575906,0.76914907,6207.57;0.038457453,11.075747,0.19228727,-0.5768618,11.075747,0.19228727,6241.1245;0.038457453,11.075747,0.19228727,-0.423032,10.229683,-0.61531925,6241.1245;0.038457453,9.345161,0.19228727,-0.8076065,9.345161,-0.19228727,6241.1245;0.038457453,9.345161,0.19228727,0.0,10.152767,0.4999469,6274.6787;0.038457453,9.345161,0.19228727,-0.19228727,9.998938,0.6537767,6274.6787;-1.3460109,9.345161,0.19228727,-1.3460109,9.460533,-0.11537236,6274.6787;-1.3460109,9.345161,-1.0768087,-0.8845214,9.691278,-1.0768087,6308.2334;-0.30765963,9.345161,0.61531925,-0.30765963,9.498991,0.61531925,6308.2334;-0.30765963,9.345161,0.61531925,-0.34611708,9.998938,0.9998938,6308.2334;-2.11516,9.345161,0.61531925,-2.11516,8.499097,0.30765963,6341.7876;-0.9229789,9.345161,0.61531925,-0.9229789,10.306598,-0.38457453,6341.7876;-0.9229789,9.345161,0.61531925,-0.4999469,9.498991,-0.30765963,6341.7876;-0.9229789,9.345161,0.61531925,-0.23074472,10.0373955,1.1152661,6341.7876;-0.9229789,9.345161,0.61531925,-1.1921811,9.729735,0.4999469,6375.3423;-0.9229789,9.345161,0.61531925,-0.846064,9.422076,-0.038457453,6375.3423;-0.9229789,9.345161,0.61531925,-0.96143633,9.229789,-0.19228727,6375.3423;0.11537236,9.345161,0.61531925,0.11537236,10.306598,0.4999469,6408.8965;0.11537236,9.345161,0.61531925,-0.5768618,10.152767,0.9229789,6408.8965;0.11537236,10.421969,-0.69223416,0.76914907,10.421969,-0.69223416,6408.8965;-1.9228727,8.422182,-0.69223416,-1.9228727,8.422182,-0.34611708,6408.8965;0.15382981,10.26814,-0.69223416,0.15382981,10.26814,-0.26920217,6442.451;0.15382981,10.26814,1.1152661,0.423032,10.152767,1.1152661,6442.451;0.15382981,10.26814,1.1152661,-0.30765963,10.460427,0.53840435,6442.451;0.15382981,10.26814,-0.8076065,-0.423032,10.498885,-0.8076065,6476.0054;0.15382981,9.229789,-0.8076065,-0.76914907,9.229789,-0.4999469,6476.0054;0.15382981,10.768087,0.8076065,-0.19228727,10.768087,0.8076065,6476.0054;0.15382981,9.652821,0.8076065,0.0,9.652821,0.30765963,6509.5596;0.15382981,9.652821,0.8076065,-0.34611708,10.075852,-0.11537236,6509.5596;0.15382981,10.921917,-0.9229789,-0.15382981,10.921917,-0.9229789,6509.5596;-0.9229789,8.960587,0.61531925,-0.9229789,8.960587,0.61531925,6509.5596;0.46148944,8.960587,0.61531925,0.46148944,9.845108,0.11537236,6543.1143;-0.69223416,8.960587,0.61531925,-0.69223416,9.614364,0.038457453,6543.1143;-0.69223416,10.11431,0.61531925,-1.1921811,10.11431,-0.19228727,6543.1143;-0.69223416,10.11431,0.61531925,-0.76914907,10.345055,-0.23074472,6576.6685;-0.69223416,10.11431,0.61531925,-0.26920217,10.191225,0.423032,6576.6685;-0.69223416,10.11431,0.61531925,-0.07691491,10.306598,0.8076065,6576.6685;-0.69223416,10.11431,0.61531925,-1.2306385,9.422076,-0.038457453,6610.223;-0.69223416,10.11431,-0.7306916,-1.0383513,9.575906,-0.7306916,6610.223;0.61531925,10.11431,-0.7306916,0.61531925,10.460427,-0.423032,6610.223;0.61531925,10.11431,1.0383513,0.11537236,10.421969,1.0383513,6610.223;-1.1152661,10.11431,1.0383513,-1.1152661,9.383618,0.61531925,6643.7773;-1.1152661,10.11431,1.0383513,-1.1537236,9.114416,0.07691491,6643.7773;-1.1152661,10.11431,-0.23074472,-0.5768618,9.883566,-0.23074472,6643.7773;-1.1152661,10.11431,-0.23074472,-0.19228727,9.229789,0.34611708,6677.332;-1.1152661,10.11431,0.8845214,-0.5768618,10.3835125,0.8845214,6677.332;-1.1152661,10.11431,-0.69223416,-0.34611708,10.460427,-0.69223416,6677.332;-1.1152661,9.037501,-0.69223416,-0.9229789,9.037501,-0.26920217,6710.886;0.26920217,9.037501,-0.69223416,0.26920217,9.614364,0.23074472,6710.886;0.26920217,9.037501,0.69223416,0.11537236,9.80665,0.69223416,6710.886;0.26920217,10.421969,0.69223416,0.11537236,10.421969,-0.26920217,6710.886;-0.846064,10.421969,-1.1152661,-0.846064,9.691278,-1.1152661,6744.441;-0.846064,10.421969,-1.1152661,-1.0383513,10.0373955,-0.53840435,6744.441;-0.846064,10.421969,0.38457453,-0.19228727,9.691278,0.38457453,6744.441;-0.846064,10.421969,0.38457453,-0.69223416,10.11431,0.423032,6777.995;-0.846064,9.075959,-0.6537767,-1.6536705,9.075959,-0.6537767,6777.995;-0.846064,9.075959,-0.6537767,-0.46148944,9.652821,-0.846064,6777.995;-0.846064,9.075959,0.96143633,-0.15382981,9.614364,0.96143633,6777.995;-0.846064,9.075959,0.96143633,0.15382981,9.998938,0.4999469,6811.55;-0.846064,9.075959,0.96143633,-1.3844683,8.883672,0.30765963,6811.55;-0.846064,10.229683,-0.69223416,-0.30765963,10.229683,-0.69223416,6811.55;0.846064,10.229683,-0.69223416,0.846064,9.998938,0.038457453,6845.104;-0.23074472,10.229683,0.76914907,-0.23074472,10.537342,0.76914907,6845.104;-0.23074472,10.229683,0.76914907,-0.8076065,9.80665,0.8076065,6845.104;-0.23074472,10.229683,-0.53840435,-0.9229789,9.498991,-0.53840435,6878.6587;-1.3844683,10.229683,-0.53840435,-1.3844683,9.80665,-0.26920217,6878.6587;-0.30765963,10.229683,-0.53840435,-0.30765963,10.152767,-0.30765963,6878.6587;-0.30765963,10.229683,1.1152661,-0.34611708,10.26814,1.1152661,6878.6587;-0.30765963,10.229683,1.1152661,-0.4999469,10.26814,0.53840435,6912.213;-1.7305853,8.729842,-0.76914907,-1.7305853,8.729842,-0.76914907,6912.213;-0.34611708,10.306598,-0.76914907,-0.34611708,10.306598,-0.038457453,6912.213;-0.34611708,10.306598,1.0383513,-0.38457453,9.652821,1.0383513,6945.7676;-0.34611708,9.191331,1.0383513,-0.38457453,9.191331,0.4999469,6945.7676;-0.34611708,10.26814,-0.8076065,-1.0768087,10.26814,-0.8076065,6945.7676;-0.34611708,10.26814,-0.8076065,-0.96143633,9.729735,-0.15382981,6979.322;-0.34611708,10.26814,0.6537767,0.0,9.575906,0.6537767,6979.322;-0.34611708,10.26814,0.6537767,-0.19228727,10.191225,0.6537767,6979.322;-1.6536705,10.26814,0.6537767,-1.6536705,9.422076,0.30765963,6979.322;-0.34611708,10.26814,0.6537767,-0.34611708,10.075852,-0.26920217,7012.8765;-0.34611708,8.845214,0.6537767,-1.1152661,8.845214,-0.15382981,7012.8765;-0.34611708,10.11431,0.6537767,0.038457453,10.11431,0.61531925,7012.8765;-0.34611708,10.11431,0.6537767,-0.26920217,9.845108,0.46148944,7046.4307;-0.34611708,10.11431,-0.53840435,-0.9998938,9.345161,-0.53840435,7046.4307;-0.34611708,10.11431,-0.53840435,-0.23074472,10.152767,-0.19228727,7046.4307;-0.34611708,10.11431,-0.53840435,-0.07691491,10.421969,0.423032,7079.9854;-0.34611708,10.11431,1.1152661,0.038457453,9.614364,1.1152661,7079.9854;-1.6536705,8.422182,1.1152661,-1.6536705,8.422182,0.7306916,7079.9854;-1.6536705,9.768193,-0.53840435,-1.1152661,9.768193,-0.53840435,7079.9854;0.038457453,9.768193,-0.53840435,0.038457453,10.537342,-0.23074472,7113.5396;0.038457453,9.768193,1.0768087,-0.038457453,9.729735,1.0768087,7113.5396;-0.9998938,9.768193,1.0768087,-0.9998938,9.845108,0.69223416,7113.5396;-0.9998938,9.768193,-0.30765963,-1.1921811,8.999044,-0.30765963,7147.094;-0.9998938,9.768193,-0.30765963,-0.69223416,9.883566,-0.38457453,7147.094;-0.9998938,9.768193,-0.30765963,-0.8845214,9.845108,-0.15382981,7147.094;-0.9998938,9.768193,0.8845214,-0.26920217,10.691172,0.8845214,7180.6484;-0.9998938,10.806544,0.8845214,-0.423032,10.806544,-0.038457453,7180.6484;-0.9998938,8.883672,-0.7306916,-1.1152661,8.883672,-0.7306916,7180.6484;-0.9998938,8.883672,-0.7306916,-1.3844683,8.999044,0.15382981,7180.6484;-0.9998938,8.883672,0.5768618,-0.46148944,9.729735,0.5768618,7214.2026;-0.9998938,10.460427,0.5768618,-0.11537236,10.460427,-0.19228727,7214.2026;-0.9998938,10.460427,-0.69223416,-1.2690959,10.421969,-0.69223416,7214.2026;-0.9998938,9.268247,-0.69223416,-1.1152661,9.268247,-0.23074472,7247.7573;0.23074472,9.268247,0.38457453,0.23074472,10.191225,0.38457453,7247.7573;0.23074472,9.268247,0.38457453,0.038457453,9.460533,0.96143633,7247.7573;-1.5382981,9.268247,0.38457453,-1.5382981,9.691278,0.038457453,7247.7573;-1.5382981,9.268247,-1.0383513,-0.61531925,10.26814,-1.0383513,7281.3115;-1.5382981,9.268247,-1.0383513,-0.76914907,9.729735,-0.11537236,7281.3115;0.11537236,9.268247,0.61531925,0.11537236,9.383618,0.61531925,7281.3115;-1.692128,9.268247,0.61531925,-1.692128,8.922129,0.7306916,7314.866;-1.692128,9.268247,0.61531925,-1.0383513,10.075852,-0.34611708,7314.866;0.46148944,10.306598,0.61531925,0.46148944,10.306598,-0.15382981,7314.866;0.46148944,10.306598,0.61531925,0.19228727,9.845108,0.7306916,7348.4204;-0.8076065,10.306598,0.61531925,-0.8076065,9.652821,1.1537236,7348.4204;-0.8076065,10.306598,-0.46148944,-0.8076065,9.80665,-0.46148944,7348.4204;-0.8076065,9.268247,-0.46148944,-1.4229257,9.268247,0.11537236,7348.4204;-0.8076065,9.268247,-0.46148944,-0.038457453,9.537449,0.15382981,7381.975;0.26920217,10.3835125,0.846064,0.26920217,10.3835125,0.846064,7381.975;0.26920217,10.3835125,0.846064,-0.5768618,10.11431,0.26920217,7381.975;-1.4613832,8.922129,-0.69223416,-1.4613832,8.922129,-0.69223416,7415.5293;-1.4613832,8.922129,-0.69223416,-0.96143633,9.422076,-0.6537767,7415.5293;-1.4613832,8.922129,0.69223416,-0.8076065,9.383618,0.69223416,7415.5293;0.038457453,8.922129,0.69223416,0.038457453,9.537449,0.46148944,7449.084;0.038457453,10.498885,0.69223416,-0.8076065,10.498885,-0.30765963,7449.084;0.038457453,9.460533,-0.4999469,-0.76914907,9.460533,-0.4999469,7449.084;0.038457453,9.460533,0.53840435,-0.46148944,9.229789,0.53840435,7449.084;0.038457453,9.460533,0.53840435,-0.19228727,9.80665,0.7306916,7482.638;0.038457453,9.460533,0.53840435,-0.76914907,9.498991,0.038457453,7482.638;-0.9998938,10.652715,-0.9998938,-0.9998938,10.652715,-0.9998938,7482.638;-0.9998938,10.652715,-0.9998938,-0.15382981,9.80665,-0.53840435,7516.193;-0.9998938,10.652715,0.8845214,-0.19228727,9.998938,0.8845214,7516.193;-0.9998938,10.652715,0.8845214,-1.2306385,9.768193,0.9998938,7516.193;-0.9998938,9.037501,-0.19228727,-1.5767555,9.037501,-0.19228727,7549.747;-0.9998938,10.229683,-0.19228727,0.0,10.229683,-0.8076065,7549.747;0.423032,10.229683,-0.19228727,0.423032,10.460427,0.34611708,7549.747;0.423032,10.229683,0.8845214,-0.423032,10.3835125,0.8845214,7549.747;-1.3460109,10.229683,0.8845214,-1.3460109,9.498991,0.30765963,7583.302;-1.3460109,10.229683,-0.19228727,-1.3844683,9.845108,-0.19228727,7583.302;0.38457453,10.229683,-0.19228727,0.38457453,10.5758,-0.61531925,7583.302;0.38457453,10.229683,-0.19228727,-0.07691491,9.80665,0.76914907,7616.856;-0.8845214,10.229683,-0.19228727,-0.8845214,10.229683,0.423032,7616.856;-0.8845214,10.229683,-0.19228727,-0.7306916,9.460533,-0.53840435,7616.856;-0.8845214,9.114416,-0.19228727,-0.9229789,9.114416,-0.61531925,7650.4106;-0.8845214,9.114416,-0.19228727,-0.5768618,9.883566,0.423032,7650.4106;0.34611708,10.26814,-0.19228727,0.34611708,10.26814,0.6537767,7650.4106;0.34611708,10.26814,-0.19228727,0.038457453,10.921917,-0.6537767,7650.4106;-0.8076065,10.26814,-1.4613832,-0.8076065,9.345161,-1.4613832,7683.965;-0.8076065,9.114416,0.038457453,-1.0383513,9.114416,0.038457453,7683.965;-0.8076065,9.114416,0.038457453,-0.07691491,9.614364,0.07691491,7683.965;-0.8076065,10.3835125,0.038457453,-0.4999469,10.3835125,0.34611708,7717.5195;-0.8076065,10.3835125,0.038457453,-0.4999469,9.883566,-0.7306916,7717.5195;-0.8076065,10.3835125,0.038457453,-0.23074472,9.998938,0.5768618,7751.0737;-0.8076065,9.075959,0.038457453,-1.3075534,9.075959,0.0,7751.0737;-0.8076065,9.075959,0.038457453,-0.8845214,9.80665,-0.5768618,7751.0737;0.423032,10.345055,0.038457453,0.423032,10.345055,0.23074472,7784.6284;0.423032,10.345055,1.1537236,-0.19228727,9.960481,1.1537236,7784.6284;-0.8845214,10.345055,1.1537236,-0.8845214,9.691278,0.61531925,7784.6284;-0.8845214,8.999044,-0.15382981,-1.4998407,8.999044,-0.15382981,7818.1826;0.53840435,10.26814,-0.15382981,0.53840435,10.26814,-0.61531925,7818.1826;0.53840435,10.26814,1.1152661,0.19228727,10.11431,1.1152661,7818.1826;-0.6537767,10.26814,1.1152661,-0.6537767,9.768193,0.53840435,7818.1826;-0.6537767,10.26814,-0.07691491,-1.3075534,9.537449,-0.07691491,7851.7373;-0.6537767,8.999044,-0.07691491,-1.4998407,8.999044,-0.11537236,7851.7373;-0.6537767,10.537342,-0.07691491,0.19228727,10.537342,0.38457453,7851.7373;-0.6537767,10.537342,1.1152661,0.0,10.11431,1.1152661,7885.2915;-0.6537767,10.537342,-0.07691491,0.15382981,10.7296295,-0.07691491,7885.2915;-0.6537767,10.537342,-0.07691491,-1.4613832,9.575906,-0.423032,7885.2915;-0.6537767,8.806757,-0.07691491,-0.846064,8.806757,0.38457453,7918.846;-0.6537767,8.806757,-0.07691491,-0.07691491,8.537555,0.423032,7918.846;-0.6537767,10.26814,-0.07691491,-0.5768618,10.26814,0.53840435,7918.846;-0.6537767,10.26814,-0.07691491,-0.61531925,10.26814,-0.38457453,7918.846;-0.6537767,10.26814,-0.07691491,-0.9229789,10.152767,-0.8845214,7952.4004;-0.6537767,10.26814,-0.07691491,-0.30765963,9.691278,0.69223416,7952.4004;-0.6537767,10.26814,-0.07691491,0.07691491,9.306704,0.61531925,7952.4004;-1.8844151,8.729842,-0.07691491,-1.8844151,8.729842,0.6537767,7985.9546;-1.8844151,10.652715,-0.07691491,-1.1537236,10.652715,-0.846064,7985.9546;-0.19228727,10.652715,-0.07691491,-0.19228727,10.191225,-0.423032,7985.9546;-0.19228727,10.652715,-0.07691491,0.19228727,10.691172,0.423032,8019.5093;-0.19228727,9.537449,0.9998938,-0.4999469,9.537449,0.9998938,8019.5093;-1.5382981,9.537449,-0.6537767,-1.5382981,9.114416,-0.6537767,8019.5093;-1.5382981,9.537449,-0.6537767,-0.53840435,10.075852,-0.6537767,8019.5093;0.15382981,9.537449,-0.6537767,0.15382981,10.26814,-0.07691491,8053.0635;0.15382981,9.537449,1.0768087,-0.30765963,9.883566,1.0768087,8053.0635;0.15382981,9.537449,0.0,-0.69223416,9.845108,0.0,8053.0635;-1.5382981,9.537449,0.0,-1.5382981,8.845214,-0.30765963,8086.618;0.15382981,9.537449,0.0,0.15382981,10.0373955,-0.11537236,8086.618;0.15382981,9.537449,0.0,-0.19228727,9.614364,0.9229789,8086.618;0.15382981,9.537449,0.0,-0.19228727,9.768193,0.8076065,8120.1724;-0.9998938,9.537449,0.0,-0.9998938,9.883566,-0.38457453,8120.1724;-0.9998938,9.537449,-1.0383513,-0.8076065,9.268247,-1.0383513,8120.1724;-0.9998938,9.537449,0.23074472,-0.15382981,9.652821,0.23074472,8120.1724;-0.9998938,9.537449,0.23074472,-0.19228727,9.960481,0.846064,8153.727;-0.9998938,9.537449,0.23074472,-0.423032,10.229683,-0.19228727,8153.727;-0.9998938,9.537449,-1.1921811,-0.7306916,9.80665,-1.1921811,8153.727;-0.9998938,9.537449,0.07691491,-1.2690959,9.229789,0.07691491,8187.2813;0.30765963,9.537449,0.07691491,0.30765963,10.0373955,0.7306916,8187.2813;0.30765963,9.537449,0.07691491,-0.38457453,10.075852,0.46148944,8187.2813;-1.2306385,9.537449,0.07691491,-1.2306385,10.306598,-0.61531925,8220.836;0.0,9.537449,0.07691491,0.0,9.537449,-0.7306916,8220.836;0.0,9.537449,0.07691491,-0.46148944,9.652821,0.26920217,8220.836;0.0,9.537449,0.07691491,-0.69223416,9.729735,0.61531925,8220.836;-1.0768087,9.537449,0.07691491,-1.0768087,9.345161,-0.11537236,8254.391;-1.0768087,9.537449,0.07691491,-0.53840435,9.691278,-0.30765963,8254.391;0.7306916,9.537449,0.07691491,0.7306916,10.0373955,0.11537236,8254.391;-0.6537767,9.537449,0.07691491,-0.6537767,10.191225,0.4999469,8287.944;-0.6537767,9.537449,0.07691491,-1.1921811,9.383618,0.26920217,8287.944;-1.8075004,9.537449,0.07691491,-1.8075004,8.883672,-0.46148944,8287.944;-0.69223416,9.537449,0.07691491,-0.69223416,10.306598,-0.26920217,8287.944;0.38457453,9.537449,0.07691491,0.38457453,8.768299,0.46148944,8321.499;0.38457453,9.537449,0.07691491,-0.30765963,9.922023,0.9229789,8321.499;0.38457453,11.114204,0.07691491,-0.038457453,11.114204,-0.53840435,8321.499;-1.1537236,9.383618,-1.0768087,-1.1537236,9.383618,-1.0768087,8355.054;-1.1537236,9.383618,0.34611708,-0.69223416,9.652821,0.34611708,8355.054;0.0,9.383618,0.34611708,0.0,9.998938,0.76914907,8355.054;0.0,11.421864,0.34611708,-0.4999469,11.421864,0.038457453,8388.608;0.0,10.3835125,-1.1152661,-0.69223416,10.3835125,-1.1152661,8388.608;0.0,10.3835125,-1.1152661,-0.8076065,9.537449,-0.34611708,8388.608;0.0,10.3835125,0.30765963,0.423032,10.191225,0.30765963,8388.608;0.0,10.3835125,0.30765963,-0.23074472,9.845108,0.23074472,8422.162;-1.4998407,10.3835125,0.30765963,-1.4998407,9.383618,-0.423032,8422.162;-0.23074472,10.3835125,0.30765963,-0.23074472,10.998832,-0.46148944,8422.162;-0.23074472,10.3835125,0.30765963,0.0,10.075852,0.23074472,8455.717;-0.23074472,10.3835125,0.30765963,-0.26920217,9.768193,0.4999469,8455.717;-1.4229257,8.845214,0.30765963,-1.4229257,8.845214,0.46148944,8455.717;-1.4229257,8.845214,0.30765963,-1.1537236,9.152874,-0.423032,8489.271;-0.19228727,10.345055,-0.846064,-0.19228727,10.345055,-0.846064,8489.271;-0.19228727,10.345055,0.846064,0.0,10.26814,0.846064,8489.271;-0.19228727,10.345055,0.846064,-0.4999469,9.691278,0.9229789,8489.271;-1.2690959,10.345055,-0.9998938,-1.2690959,9.460533,-0.9998938,8522.826;-1.2690959,10.345055,-0.9998938,-0.96143633,9.845108,-0.34611708,8522.826;-0.11537236,10.345055,-0.9998938,-0.11537236,9.80665,0.0,8522.826;-0.11537236,10.345055,1.4998407,-0.53840435,10.345055,1.4998407,8556.38;-0.11537236,10.345055,-0.26920217,-0.6537767,11.268034,-0.26920217,8556.38;-0.11537236,9.229789,-0.26920217,-1.0768087,9.229789,-0.53840435,8556.38;-1.1537236,9.229789,-0.26920217,-1.1537236,9.229789,-0.07691491,8589.935;0.15382981,9.229789,-0.26920217,0.15382981,10.229683,0.5768618,8589.935;0.15382981,9.229789,-0.26920217,0.26920217,10.191225,0.69223416,8589.935;0.15382981,10.498885,-0.26920217,-0.61531925,10.498885,-0.96143633,8589.935;0.15382981,8.960587,-0.26920217,0.0,8.960587,-1.1537236,8623.489;0.15382981,8.960587,-0.26920217,-0.4999469,9.537449,0.6537767,8623.489;0.15382981,10.152767,-0.26920217,0.07691491,10.152767,0.30765963,8623.489;-1.8844151,8.46064,-0.26920217,-1.8844151,8.46064,0.7306916,8657.043;-0.8076065,10.498885,-0.26920217,-0.8076065,10.498885,-0.19228727,8657.043;-0.8076065,9.422076,-0.26920217,-0.423032,9.422076,-0.11537236,8657.043;-0.8076065,9.422076,-0.26920217,0.11537236,10.306598,0.34611708,8690.598;-0.8076065,9.422076,0.846064,-1.0383513,9.652821,0.846064,8690.598;-0.8076065,9.422076,-0.7306916,-1.4229257,9.229789,-0.7306916,8690.598;-0.8076065,9.422076,-0.7306916,-1.0383513,9.575906,-0.9998938,8690.598;0.53840435,9.422076,0.53840435,0.53840435,9.614364,0.53840435,8724.152;-0.61531925,9.422076,0.53840435,-0.61531925,9.614364,1.1537236,8724.152;-0.61531925,9.422076,0.53840435,-0.46148944,10.306598,-0.38457453,8724.152;-0.61531925,9.422076,-0.6537767,-1.1152661,9.075959,-0.6537767,8757.707;0.46148944,9.422076,-0.6537767,0.46148944,10.3835125,0.15382981,8757.707;0.46148944,10.460427,0.7306916,-0.038457453,10.460427,0.7306916,8757.707;0.46148944,10.460427,0.7306916,-0.4999469,9.960481,1.1921811,8791.261;-0.8845214,10.460427,-0.76914907,-0.8845214,9.537449,-0.76914907,8791.261;-0.8845214,10.460427,-0.76914907,-0.30765963,10.0373955,-0.9998938,8791.261;-0.8845214,10.460427,0.34611708,-0.34611708,9.614364,0.34611708,8791.261;-0.8845214,10.460427,0.34611708,0.038457453,10.229683,0.11537236,8824.815;-0.8845214,10.460427,0.34611708,-0.61531925,9.883566,-0.53840435,8824.815;-0.8845214,8.999044,-1.1152661,-1.1921811,8.999044,-1.1152661,8824.815;-0.8845214,8.999044,-1.1152661,-1.1921811,9.460533,-0.30765963,8858.37;-0.8845214,8.999044,0.30765963,0.038457453,9.768193,0.30765963,8858.37;-0.8845214,10.152767,0.30765963,-0.5768618,10.152767,0.7306916,8858.37;-0.8845214,10.152767,0.30765963,-0.38457453,10.191225,-0.34611708,8858.37;-0.8845214,10.152767,0.30765963,-1.0768087,9.922023,0.15382981,8891.925;-0.8845214,10.152767,0.30765963,0.038457453,9.575906,0.423032,8891.925;-0.8845214,10.152767,0.30765963,-0.46148944,9.575906,1.1152661,8891.925;-0.8845214,8.960587,0.30765963,-1.4998407,8.960587,-0.07691491,8925.479;-0.8845214,10.229683,0.30765963,-0.96143633,10.229683,0.30765963,8925.479;0.26920217,10.229683,0.30765963,0.26920217,10.11431,0.23074472,8925.479;0.26920217,10.229683,0.30765963,0.23074472,9.691278,1.2690959,8959.033;-1.4613832,10.229683,0.30765963,-1.4613832,10.26814,0.038457453,8959.033;-1.4613832,9.037501,-0.76914907,-1.4998407,9.037501,-0.76914907,8959.033;-0.038457453,10.7296295,-0.76914907,-0.038457453,10.7296295,-0.61531925,8959.033;-0.038457453,10.7296295,0.61531925,0.11537236,9.845108,0.61531925,8992.588;-0.038457453,10.7296295,0.61531925,-0.5768618,9.998938,0.8845214,8992.588;-0.038457453,10.7296295,-0.5768618,-1.0383513,9.883566,-0.5768618,8992.588;-0.038457453,10.7296295,-0.5768618,-0.846064,9.960481,-0.26920217,9026.143;-0.038457453,9.691278,-0.5768618,-0.5768618,9.691278,-0.23074472,9026.143;-0.038457453,9.691278,0.7306916,-0.23074472,10.11431,0.7306916,9026.143;-0.038457453,11.037289,-0.423032,-0.19228727,11.037289,-0.423032,9059.696;-0.038457453,11.037289,-0.423032,-0.61531925,10.421969,-0.61531925,9059.696;-0.038457453,9.114416,-0.423032,-0.96143633,9.114416,-0.5768618,9059.696;-0.038457453,9.114416,-0.423032,0.846064,9.845108,0.46148944,9059.696;-0.038457453,9.114416,1.0768087,-0.26920217,9.383618,1.0768087,9093.251;-1.1537236,9.114416,-0.30765963,-1.1537236,9.922023,-0.30765963,9093.251;-1.1537236,10.26814,-0.30765963,-0.846064,10.26814,-1.1537236,9093.251;0.19228727,10.26814,-0.30765963,0.19228727,10.075852,0.15382981,9126.806;0.19228727,10.26814,0.8076065,0.07691491,9.691278,0.8076065,9126.806;-1.8844151,9.037501,0.8076065,-1.8844151,9.037501,0.26920217,9126.806;-0.61531925,9.037501,-0.5768618,-0.61531925,9.614364,-0.5768618,9160.36;-0.61531925,10.152767,-0.5768618,-0.07691491,10.152767,-0.34611708,9160.36;-0.61531925,10.152767,1.0383513,0.38457453,10.498885,1.0383513,9160.36;-0.61531925,10.152767,1.0383513,-0.76914907,10.075852,0.846064,9160.36;-1.6536705,10.152767,-0.7306916,-1.6536705,9.345161,-0.7306916,9193.914;-0.23074472,10.152767,-0.7306916,-0.23074472,9.652821,-0.34611708,9193.914;-0.23074472,10.152767,-0.7306916,0.07691491,9.268247,0.038457453,9193.914;-0.23074472,10.152767,0.846064,0.038457453,10.421969,0.846064,9227.469;-0.23074472,10.152767,-0.53840435,-0.38457453,10.845002,-0.53840435,9227.469;-0.23074472,8.999044,-0.53840435,-1.1152661,8.999044,-0.5768618,9227.469;-0.23074472,10.3835125,-0.53840435,0.38457453,10.3835125,-0.26920217,9227.469;-0.23074472,10.3835125,0.9998938,-0.23074472,10.306598,0.9998938,9261.023;-0.23074472,10.3835125,0.9998938,0.07691491,10.229683,0.6537767,9261.023;-1.2690959,10.3835125,-0.4999469,-1.2690959,10.498885,-0.4999469,9261.023;-1.2690959,10.3835125,-0.4999469,-0.7306916,9.537449,-0.7306916,9294.578;-0.23074472,10.3835125,0.6537767,-0.23074472,9.691278,0.6537767,9294.578;-0.23074472,10.3835125,0.6537767,-0.38457453,10.345055,0.7306916,9294.578;-1.2690959,10.3835125,0.6537767,-1.2690959,9.845108,0.15382981,9328.132;-1.2690959,10.3835125,-0.423032,-0.34611708,9.998938,-0.423032,9328.132;-1.2690959,10.3835125,-0.423032,-0.6537767,9.537449,0.53840435,9328.132;0.26920217,10.3835125,0.8845214,0.26920217,9.845108,0.8845214,9328.132;-1.8844151,8.729842,0.8845214,-1.8844151,8.729842,0.7306916,9361.687;-1.8844151,9.768193,-0.30765963,-1.2690959,9.768193,-0.30765963,9361.687;-1.8844151,9.768193,-0.30765963,-0.9229789,10.191225,0.11537236,9361.687;-0.34611708,9.768193,0.7306916,-0.34611708,9.614364,0.7306916,9395.241;-0.34611708,9.768193,0.7306916,-0.5768618,9.345161,1.1152661,9395.241;-0.34611708,9.768193,0.7306916,-0.9998938,9.691278,0.23074472,9395.241;-1.4229257,9.768193,-0.30765963,-1.4229257,9.883566,-0.30765963,9428.795;-0.23074472,9.768193,-0.30765963,-0.23074472,9.383618,-0.15382981,9428.795;-0.23074472,9.768193,1.5767555,-0.6537767,9.883566,1.5767555,9428.795;-0.23074472,9.768193,1.5767555,-0.46148944,10.345055,0.61531925,9428.795;-0.23074472,9.768193,-0.846064,-1.1152661,8.883672,-0.846064,9462.35;-0.23074472,9.768193,-0.846064,-0.30765963,10.075852,-0.46148944,9462.35;-0.23074472,9.768193,1.3844683,-0.423032,10.152767,1.3844683,9462.35;-0.23074472,9.768193,1.3844683,-0.34611708,9.845108,0.9229789,9495.904;-0.23074472,9.768193,-0.038457453,-0.53840435,9.80665,-0.038457453,9495.904;-1.5382981,8.537555,-0.038457453,-1.5382981,8.537555,-0.53840435,9495.904;-1.5382981,9.691278,-0.038457453,-0.53840435,9.691278,0.23074472,9529.459;-0.23074472,9.691278,-0.038457453,-0.23074472,9.768193,0.8845214,9529.459;-0.23074472,9.691278,-0.038457453,-0.5768618,9.691278,0.53840435,9529.459;-0.23074472,9.691278,-1.0768087,-0.46148944,10.691172,-1.0768087,9529.459;-0.23074472,9.691278,-1.0768087,-0.9998938,9.152874,-0.26920217,9563.013;-0.23074472,9.691278,0.4999469,0.038457453,9.998938,0.4999469,9563.013;-0.23074472,9.691278,0.4999469,-0.96143633,9.883566,0.8076065,9563.013;-0.23074472,9.691278,0.4999469,-1.2306385,9.306704,-0.46148944,9596.567;-0.23074472,9.691278,-0.76914907,-0.23074472,10.191225,-0.76914907,9596.567;-0.23074472,9.691278,-0.76914907,-0.53840435,9.960481,0.038457453,9596.567;-0.23074472,9.691278,0.7306916,-0.23074472,9.960481,0.7306916,9630.122;-1.3460109,9.691278,0.7306916,-1.3460109,9.422076,0.11537236,9630.122;-1.3460109,9.691278,-0.8845214,-1.3460109,9.306704,-0.8845214,9630.122;0.038457453,9.691278,-0.8845214,0.038457453,9.960481,-0.19228727,9630.122;0.038457453,9.691278,1.1152661,0.23074472,9.80665,1.1152661,9663.677;0.038457453,9.691278,1.1152661,-0.8845214,10.152767,0.69223416,9663.677;0.038457453,9.691278,-0.76914907,-0.76914907,9.729735,-0.76914907,9663.677;0.038457453,9.691278,-0.76914907,-0.8845214,9.960481,-0.26920217,9697.23;0.038457453,9.691278,0.30765963,-0.46148944,9.691278,0.30765963,9697.23;0.038457453,9.691278,0.30765963,-0.11537236,10.345055,1.2306385,9697.23;0.038457453,11.152661,0.30765963,0.4999469,11.152661,-0.69223416,9730.785;0.038457453,8.999044,-1.1152661,-0.69223416,8.999044,-1.1152661,9730.785;-1.1537236,8.999044,0.26920217,-1.1537236,9.460533,0.26920217,9730.785;-1.1537236,8.999044,0.26920217,-0.26920217,9.691278,0.69223416,9730.785;0.11537236,8.999044,0.26920217,0.11537236,9.998938,0.5768618,9764.34;0.11537236,10.26814,0.26920217,-0.26920217,10.26814,-0.15382981,9764.34;0.11537236,10.26814,0.26920217,-0.30765963,9.845108,-0.4999469,9797.895;0.11537236,10.26814,0.26920217,0.23074472,10.26814,0.8076065,9797.895;-1.1537236,8.46064,0.26920217,-1.1537236,8.46064,-0.61531925,9797.895;-1.1537236,9.845108,-1.3460109,-0.6537767,9.845108,-1.3460109,9797.895;-1.1537236,9.845108,-1.3460109,-0.5768618,9.152874,-0.34611708,9831.448;0.11537236,9.845108,1.1537236,0.11537236,10.152767,1.1537236,9831.448;-1.5767555,8.652927,1.1537236,-1.5767555,8.652927,0.96143633,9831.448;-1.5767555,8.652927,-0.26920217,-1.2690959,9.498991,-0.26920217,9865.003;-0.53840435,10.652715,-0.26920217,-0.53840435,10.652715,-0.53840435,9865.003;-0.53840435,10.652715,-0.26920217,0.34611708,10.075852,0.69223416,9865.003;-0.53840435,9.229789,-0.26920217,-0.34611708,9.229789,0.4999469,9898.558;-0.53840435,9.229789,-0.26920217,-0.8076065,10.11431,-0.7306916,9898.558;-0.53840435,9.229789,-0.26920217,-1.4613832,9.575906,-0.423032,9898.558;-0.53840435,9.229789,-0.26920217,-0.038457453,10.152767,-0.4999469,9932.112;-0.53840435,9.229789,1.4613832,-0.46148944,9.691278,1.4613832,9932.112;-0.53840435,10.7296295,0.11537236,-0.11537236,10.7296295,0.11537236,9932.112;-0.53840435,10.7296295,0.11537236,-1.3460109,9.883566,-0.8845214,9932.112;-0.53840435,10.7296295,0.11537236,-0.423032,9.80665,-0.53840435,9965.666;-0.53840435,9.691278,0.11537236,-0.53840435,9.691278,0.69223416,9965.666;-0.53840435,9.691278,1.3075534,-0.423032,9.883566,1.3075534,9965.666;-0.53840435,9.691278,-0.69223416,-0.9998938,10.191225,-0.69223416,9999.221;-0.53840435,9.691278,-0.69223416,-0.53840435,9.075959,-0.8076065,9999.221;-0.53840435,9.691278,0.69223416,-0.19228727,9.575906,0.69223416,9999.221;-0.53840435,9.691278,0.69223416,0.38457453,9.537449,0.4999469,9999.221;-0.53840435,9.691278,0.69223416,-0.846064,9.075959,0.846064,10032.775;-0.53840435,9.691278,0.69223416,-0.8076065,10.26814,-0.30765963,10032.775;-0.53840435,9.691278,0.69223416,-0.15382981,9.345161,0.0,10032.775;-0.53840435,9.691278,0.69223416,-0.4999469,9.960481,1.0768087,10066.33;-0.53840435,9.691278,0.69223416,-0.038457453,10.0373955,0.69223416,10066.33;-0.53840435,9.691278,-0.423032,-1.3075534,9.345161,-0.423032,10066.33;-0.53840435,9.691278,-0.423032,-0.53840435,10.421969,-0.846064,10099.884;-0.53840435,9.691278,-0.423032,-0.07691491,9.883566,-0.34611708,10099.884;-0.53840435,9.691278,-0.423032,-0.11537236,10.26814,0.46148944,10099.884;-0.53840435,9.691278,-0.423032,-1.3075534,9.845108,0.4999469,10099.884;-0.53840435,8.345267,-0.423032,-1.4613832,8.345267,-0.8076065,10133.438;-0.53840435,9.460533,-0.423032,-0.38457453,9.460533,0.038457453,10133.438;-0.53840435,9.460533,0.7306916,0.23074472,9.537449,0.7306916,10133.438;-0.53840435,9.460533,0.7306916,-0.8845214,9.883566,0.9998938,10166.993;-0.53840435,10.537342,-0.53840435,-0.9998938,10.537342,-0.53840435,10166.993;-0.53840435,9.268247,-0.53840435,-1.4998407,9.268247,-0.30765963,10166.993;-0.53840435,9.268247,-0.53840435,-0.11537236,9.883566,0.38457453,10200.547;-0.53840435,10.7296295,0.69223416,-0.23074472,10.7296295,0.69223416,10200.547;-0.53840435,10.7296295,0.69223416,-0.07691491,10.7296295,-0.23074472,10200.547;-0.53840435,9.614364,-0.69223416,-0.61531925,9.614364,-0.69223416,10200.547;-0.53840435,9.614364,-0.69223416,-1.0383513,9.460533,0.30765963,10234.102;-0.53840435,9.614364,0.9998938,-0.11537236,9.80665,0.9998938,10234.102;-0.53840435,9.614364,0.9998938,-0.96143633,9.845108,0.61531925,10234.102;-0.53840435,9.614364,-0.5768618,-0.8845214,9.922023,-0.5768618,10267.656;-0.53840435,9.614364,-0.5768618,0.23074472,10.537342,-1.4229257,10267.656;-0.53840435,9.614364,-0.5768618,0.11537236,10.0373955,0.34611708,10267.656;-0.53840435,9.614364,0.53840435,-0.19228727,9.729735,0.53840435,10267.656;-0.53840435,8.383725,0.53840435,-1.3460109,8.383725,0.4999469,10301.211;-0.53840435,10.345055,-0.4999469,-0.69223416,10.345055,-0.4999469,10301.211;-0.53840435,10.345055,-0.4999469,0.26920217,10.960374,-0.07691491,10301.211;-0.53840435,10.345055,1.0768087,-0.38457453,10.5758,1.0768087,10334.765;-0.53840435,10.345055,1.0768087,-1.1152661,9.498991,0.423032,10334.765;-1.7690428,9.152874,-0.038457453,-1.7690428,9.152874,-0.038457453,10334.765;-1.7690428,9.152874,-0.038457453,-1.4613832,9.037501,-0.11537236,10368.319;0.07691491,9.152874,-0.038457453,0.07691491,9.460533,0.53840435,10368.319;0.07691491,9.152874,-0.038457453,-0.11537236,9.383618,0.7306916,10368.319;0.07691491,10.652715,-0.038457453,0.38457453,10.652715,-0.34611708,10368.319;-1.3460109,9.075959,-0.038457453,-1.3460109,9.075959,-0.61531925,10401.874;-1.3460109,10.191225,-0.038457453,-0.6537767,10.191225,0.07691491,10401.874;-0.038457453,10.191225,-0.038457453,-0.038457453,9.345161,0.8076065,10401.874;-0.038457453,10.191225,-0.038457453,-0.07691491,10.5758,0.23074472,10435.429;-1.3460109,10.191225,-0.038457453,-1.3460109,10.345055,-0.53840435,10435.429;-1.3460109,8.922129,-0.038457453,-0.4999469,8.922129,-0.8845214,10435.429;0.038457453,9.960481,-0.038457453,0.038457453,9.960481,0.19228727,10468.982;0.038457453,9.960481,-0.038457453,-0.30765963,9.960481,0.8845214,10468.982;-1.2306385,9.960481,-0.038457453,-1.2306385,9.191331,0.23074472,10468.982;-0.07691491,9.960481,-0.038457453,-0.07691491,10.26814,-0.9998938,10468.982;-0.07691491,9.960481,-0.038457453,-0.11537236,9.614364,-0.11537236,10502.537;-0.07691491,9.960481,-0.038457453,0.07691491,10.306598,0.11537236,10502.537;-1.8459578,8.922129,-0.038457453,-1.8459578,8.922129,0.7306916,10502.537;-1.8459578,8.922129,-0.038457453,-1.5382981,9.80665,-0.26920217,10536.092;-0.23074472,10.498885,-0.038457453,-0.23074472,10.498885,-0.34611708,10536.092;-0.23074472,10.498885,-0.038457453,-0.11537236,9.960481,0.61531925,10536.092;-0.23074472,10.498885,-0.038457453,-0.4999469,10.191225,0.46148944,10569.646;-0.23074472,10.498885,-0.038457453,-1.0383513,9.729735,-0.34611708,10569.646;-0.23074472,10.498885,-0.038457453,-0.9229789,9.845108,-0.423032,10569.646;-0.23074472,10.498885,-0.038457453,-0.11537236,10.075852,0.5768618,10569.646;-0.23074472,10.498885,1.4229257,0.23074472,10.3835125,1.4229257,10603.2;-0.23074472,10.498885,1.4229257,0.07691491,11.037289,0.423032,10603.2;-1.4998407,9.075959,-0.61531925,-1.4998407,9.075959,-0.61531925,10603.2;-0.19228727,9.075959,-0.61531925,-0.19228727,9.498991,-0.038457453,10636.755;-0.19228727,9.075959,0.96143633,-0.34611708,9.691278,0.96143633,10636.755;-0.19228727,10.11431,0.96143633,-0.423032,10.11431,0.9229789,10636.755;-0.19228727,10.11431,-0.4999469,-0.7306916,10.652715,-0.4999469,10670.31;-0.19228727,10.11431,-0.4999469,-0.8845214,9.460533,-1.1921811,10670.31;-0.19228727,10.11431,-0.4999469,-0.38457453,9.883566,0.15382981,10670.31;-0.19228727,10.11431,0.76914907,-0.19228727,10.537342,0.76914907,10670.31;-0.19228727,10.11431,0.76914907,-0.9229789,9.845108,-0.038457453,10703.864;-0.19228727,10.11431,-0.8076065,-0.6537767,10.537342,-0.8076065,10703.864;-0.19228727,10.11431,-0.8076065,-0.61531925,9.729735,0.11537236,10703.864;-0.19228727,10.11431,0.69223416,0.23074472,10.229683,0.69223416,10737.418;-1.2306385,10.11431,0.69223416,-1.2306385,9.268247,0.19228727,10737.418;-1.2306385,10.11431,-0.61531925,-1.4613832,9.191331,-0.61531925,10737.418;-1.2306385,10.11431,-0.61531925,-0.9229789,10.11431,-0.8076065,10737.418;-1.2306385,10.11431,-0.61531925,-0.23074472,10.075852,0.34611708,10770.973;0.11537236,10.11431,-0.61531925,0.11537236,9.460533,0.30765963,10770.973;-1.2690959,8.922129,-0.61531925,-1.2690959,8.922129,0.11537236,10770.973;-1.2690959,8.922129,-0.61531925,-1.4229257,8.883672,-0.34611708,10804.527;0.07691491,10.998832,-0.61531925,0.07691491,10.998832,-0.15382981,10804.527;0.07691491,10.998832,0.76914907,0.38457453,9.998938,0.76914907,10804.527;0.07691491,9.652821,0.76914907,-0.53840435,9.652821,1.0768087,10838.081;-1.5767555,9.652821,-0.7306916,-1.5767555,9.383618,-0.7306916,10838.081;-1.5767555,8.576012,-0.7306916,-0.9998938,8.576012,-0.69223416,10838.081;-0.038457453,9.768193,-0.7306916,-0.038457453,9.768193,-0.423032,10838.081;-0.038457453,9.768193,0.846064,-0.15382981,9.345161,0.846064,10871.636;-0.038457453,11.537236,-0.846064,0.15382981,11.537236,-0.846064,10871.636;-0.038457453,9.152874,-0.846064,-0.76914907,9.152874,-1.3460109,10871.636;-0.038457453,9.152874,-0.846064,-0.69223416,9.537449,0.15382981,10905.19;-0.038457453,9.152874,0.846064,0.19228727,9.960481,0.846064,10905.19;-0.038457453,10.229683,0.846064,-0.15382981,10.229683,0.4999469,10905.19;-0.038457453,10.229683,-0.9229789,-0.8076065,10.421969,-0.9229789,10938.745;-0.038457453,10.229683,-0.9229789,-0.19228727,9.268247,-0.8076065,10938.745;-0.038457453,10.229683,0.9998938,-0.26920217,9.845108,0.9998938,10938.745;-0.038457453,10.229683,0.9998938,0.07691491,10.691172,1.0768087,10938.745;-1.9228727,8.845214,0.9998938,-1.9228727,8.845214,0.30765963,10972.299;-0.30765963,10.691172,-0.69223416,-0.30765963,10.691172,-0.69223416,10972.299;-0.30765963,10.691172,0.61531925,-0.23074472,9.80665,0.61531925,10972.299;-0.30765963,9.498991,0.61531925,0.423032,9.498991,0.8845214,11005.854;-0.30765963,9.498991,0.61531925,-0.9998938,9.229789,0.76914907,11005.854;-0.30765963,9.498991,-1.3075534,-1.3075534,9.460533,-1.3075534,11005.854;-0.30765963,9.498991,-0.23074472,-0.46148944,10.306598,-0.23074472,11039.408;-0.30765963,9.498991,1.0768087,-0.11537236,9.80665,1.0768087,11039.408;-0.30765963,9.498991,1.0768087,-0.7306916,9.960481,0.846064,11039.408;-0.30765963,10.845002,-0.30765963,-0.53840435,10.845002,-0.30765963,11039.408;-0.30765963,9.422076,-0.30765963,-1.2690959,9.422076,0.19228727,11072.963;-0.30765963,9.422076,-0.30765963,0.07691491,10.191225,0.11537236,11072.963;-0.30765963,9.422076,1.0768087,0.038457453,9.845108,1.0768087,11072.963;-0.30765963,11.306491,-0.38457453,-0.30765963,11.306491,-0.38457453,11106.517;-0.30765963,9.498991,-0.38457453,-0.53840435,9.498991,-0.76914907,11106.517;-0.30765963,9.498991,-0.38457453,-0.61531925,10.191225,-0.8845214,11106.517;-0.30765963,9.498991,-0.38457453,-0.30765963,9.498991,0.38457453,11140.071;-0.30765963,9.498991,0.69223416,-0.8845214,9.998938,0.69223416,11140.071;-0.30765963,9.498991,0.69223416,-0.9229789,9.922023,0.46148944,11140.071;-0.30765963,9.498991,-1.1152661,-0.46148944,10.26814,-1.1152661,11140.071;-0.30765963,9.498991,0.38457453,-0.46148944,9.768193,0.38457453,11173.626;-0.30765963,9.498991,0.38457453,0.15382981,9.306704,0.6537767,11173.626;-2.1920748,9.498991,0.38457453,-2.1920748,9.075959,0.26920217,11173.626;-0.8076065,9.498991,-1.1537236,-0.8076065,10.229683,-1.1537236,11207.181;-0.8076065,9.498991,-1.1537236,-0.19228727,9.691278,-0.61531925,11207.181;0.34611708,9.498991,1.3075534,0.34611708,10.229683,1.3075534,11207.181;0.34611708,9.498991,1.3075534,-0.30765963,9.691278,0.76914907,11240.734;-1.0768087,9.498991,-0.46148944,-1.0768087,8.806757,-0.46148944,11240.734;-1.0768087,9.498991,-0.46148944,-0.9229789,10.306598,-0.8076065,11240.734;-1.0768087,9.498991,-0.46148944,-0.11537236,9.922023,-0.15382981,11240.734;0.07691491,9.498991,0.9229789,0.07691491,10.191225,0.9229789,11274.289;0.07691491,9.498991,-0.30765963,-0.46148944,10.229683,-0.30765963,11274.289;-1.8844151,8.345267,-0.30765963,-1.8844151,8.345267,-0.11537236,11274.289;-0.15382981,9.845108,-0.30765963,-0.15382981,9.845108,-0.23074472,11307.844;-0.15382981,9.845108,1.1537236,-0.07691491,9.729735,1.1537236,11307.844;-1.2690959,9.845108,1.1537236,-1.2690959,10.7296295,0.69223416,11307.844;-1.2690959,9.845108,-0.8076065,-0.8076065,10.421969,-0.8076065,11307.844;-1.2690959,8.537555,-0.8076065,-0.96143633,8.537555,-0.61531925,11341.398;-1.2690959,9.80665,-0.8076065,-0.61531925,9.80665,0.038457453,11341.398;-1.2690959,9.80665,1.0383513,-0.53840435,9.998938,1.0383513,11341.398;-1.2690959,9.80665,-0.19228727,-0.26920217,9.845108,-0.19228727,11374.952;-1.2690959,9.80665,-0.19228727,-0.34611708,9.691278,-1.1921811,11374.952;-1.2690959,9.80665,-0.19228727,-0.76914907,9.422076,0.15382981,11374.952;0.53840435,9.80665,-0.19228727,0.53840435,9.845108,0.53840435,11408.507;-0.53840435,9.80665,-0.19228727,-0.53840435,9.537449,0.038457453,11408.507;-0.53840435,9.80665,-0.19228727,-0.9998938,9.960481,-0.7306916,11408.507;-0.53840435,9.80665,-0.19228727,-0.5768618,9.691278,-0.46148944,11408.507;-0.53840435,9.80665,-0.19228727,-0.34611708,9.460533,0.46148944,11442.062;-0.53840435,9.80665,-0.19228727,0.26920217,10.075852,0.07691491,11442.062;-1.7305853,8.2683525,-0.19228727,-1.7305853,8.2683525,0.19228727,11442.062;-1.7305853,10.421969,-0.19228727,-1.3844683,10.421969,-0.23074472,11475.616;0.423032,10.421969,-0.19228727,0.423032,10.3835125,0.19228727,11475.616;0.423032,10.421969,0.9229789,-0.46148944,10.460427,0.9229789,11475.616;0.423032,8.883672,0.9229789,-0.38457453,8.883672,0.38457453,11509.17;-1.8459578,8.883672,-0.11537236,-1.8459578,8.46064,-0.11537236,11509.17;-0.6537767,10.26814,-0.11537236,-0.6537767,10.26814,-0.46148944,11509.17;-0.6537767,10.26814,-0.11537236,-0.11537236,9.883566,-0.15382981,11509.17;-0.6537767,10.26814,-0.11537236,-0.30765963,10.306598,0.30765963,11542.725;-0.6537767,10.26814,-0.11537236,-0.5768618,10.498885,-0.4999469,11542.725;-0.6537767,8.652927,-0.11537236,-1.3844683,8.652927,-0.69223416,11542.725;-0.6537767,8.652927,1.0768087,-0.15382981,9.422076,1.0768087,11576.279;-0.6537767,9.845108,1.0768087,0.26920217,9.845108,1.3075534,11576.279;-0.6537767,11.075747,1.0768087,-0.07691491,11.075747,0.23074472,11576.279;-0.6537767,11.075747,-0.96143633,-0.9998938,10.883459,-0.96143633,11609.833;-0.6537767,9.345161,-0.96143633,-0.4999469,9.345161,-0.76914907,11609.833;-0.6537767,9.345161,0.26920217,-0.07691491,9.729735,0.26920217,11609.833;-0.6537767,9.345161,0.26920217,-0.8845214,9.345161,0.6537767,11609.833;-0.6537767,9.345161,0.26920217,-1.1152661,8.960587,-0.11537236,11643.388;-0.6537767,9.345161,-0.8076065,-0.846064,9.268247,-0.8076065,11643.388;-0.6537767,9.345161,-0.8076065,0.15382981,10.0373955,-0.11537236,11643.388;-0.6537767,9.345161,1.2690959,0.038457453,9.80665,1.2690959,11676.942;-0.6537767,9.345161,1.2690959,-1.6536705,9.229789,0.423032,11676.942;-0.6537767,9.345161,-0.9998938,-1.3460109,9.922023,-0.9998938,11676.942;-0.6537767,9.345161,-0.9998938,-0.23074472,9.652821,-0.7306916,11710.497;0.38457453,9.345161,0.11537236,0.38457453,9.729735,0.11537236,11710.497;0.38457453,9.345161,0.11537236,-0.53840435,9.922023,0.4999469,11710.497;-1.3075534,9.345161,0.11537236,-1.3075534,9.537449,-0.4999469,11710.497;-1.3075534,9.345161,0.11537236,-1.3460109,9.768193,-0.26920217,11744.051;-0.15382981,9.345161,0.11537236,-0.15382981,10.075852,-0.07691491,11744.051;-0.15382981,9.345161,0.11537236,-0.6537767,10.191225,0.9229789,11744.051;-0.15382981,11.191119,0.11537236,0.34611708,11.191119,0.038457453,11777.605;-1.4613832,8.806757,0.11537236,-1.4613832,8.806757,-0.6537767,11777.605;-1.4613832,8.806757,0.11537236,-0.53840435,8.960587,0.038457453,11777.605;0.38457453,8.806757,0.11537236,0.38457453,9.345161,0.9998938,11811.16;0.38457453,10.306598,0.11537236,-0.11537236,10.306598,0.846064,11811.16;-0.846064,10.306598,0.11537236,-0.846064,10.075852,-0.6537767,11811.16;-0.846064,10.306598,-1.1537236,-0.96143633,9.652821,-1.1537236,11811.16;0.30765963,9.037501,0.46148944,0.30765963,9.037501,0.46148944,11844.715;0.30765963,10.191225,0.46148944,-0.34611708,10.191225,0.53840435,11844.715;-1.3844683,8.999044,0.46148944,-1.3844683,8.999044,0.26920217,11844.715;-1.3844683,10.498885,-0.8076065,-0.7306916,10.498885,-0.8076065,11878.269;-1.3844683,10.498885,-0.8076065,-0.38457453,9.845108,-0.038457453,11878.269;0.61531925,10.498885,0.8845214,0.61531925,9.845108,0.8845214,11878.269;-0.4999469,9.268247,0.8845214,-0.4999469,9.268247,0.30765963,11878.269;-0.4999469,9.268247,-0.6537767,-0.8845214,9.845108,-0.6537767,11911.823;-0.4999469,9.268247,-0.6537767,-0.46148944,9.383618,-0.34611708,11911.823;-0.4999469,10.421969,-0.6537767,-0.038457453,10.421969,0.30765963,11911.823;-0.4999469,10.421969,0.4999469,0.11537236,9.80665,0.4999469,11945.378;-0.4999469,10.421969,0.4999469,-0.69223416,9.614364,-0.11537236,11945.378;-0.4999469,10.421969,0.4999469,-1.4613832,10.075852,-0.46148944,11945.378;-0.4999469,10.421969,0.4999469,0.07691491,10.3835125,-0.15382981,11978.933;-0.4999469,10.421969,0.4999469,-0.61531925,10.191225,1.1152661,11978.933;-0.4999469,10.421969,0.4999469,-0.423032,10.652715,0.53840435,11978.933;-0.4999469,10.421969,-0.8076065,-1.3075534,9.922023,-0.8076065,11978.933;-0.4999469,10.421969,-0.8076065,-0.846064,10.306598,-0.38457453,12012.486;-0.4999469,10.421969,0.4999469,-0.038457453,9.998938,0.4999469,12012.486;-0.4999469,10.421969,0.4999469,-0.15382981,9.883566,1.0383513,12012.486;-0.4999469,10.421969,0.4999469,-0.5768618,10.768087,-0.11537236,12046.041;-0.4999469,9.075959,-0.846064,-1.0383513,9.075959,-0.846064,12046.041;-0.4999469,9.075959,0.26920217,-0.9229789,8.999044,0.26920217,12046.041;-0.4999469,9.075959,0.26920217,-0.61531925,9.460533,0.61531925,12079.596;-0.4999469,9.075959,0.26920217,-0.8845214,8.960587,0.53840435,12079.596;-0.4999469,10.537342,-0.76914907,-0.76914907,10.537342,-0.76914907,12079.596;-0.4999469,10.537342,-0.76914907,-0.46148944,9.652821,-0.846064,12079.596;-0.4999469,10.537342,0.6537767,-0.07691491,9.614364,0.6537767,12113.15;-0.4999469,10.537342,0.6537767,-0.6537767,9.652821,0.6537767,12113.15;-1.6536705,8.960587,0.6537767,-1.6536705,8.960587,0.15382981,12113.15;-1.6536705,9.998938,-0.38457453,-1.3075534,9.998938,-0.38457453,12146.704;0.15382981,9.998938,-0.38457453,0.15382981,10.421969,-0.34611708,12146.704;0.15382981,9.998938,1.0768087,-0.23074472,9.460533,1.0768087,12146.704;0.15382981,9.998938,1.0768087,-0.69223416,9.998938,0.846064,12180.259;-1.5382981,9.998938,-0.9229789,-1.5382981,9.037501,-0.9229789,12180.259;0.38457453,9.998938,-0.9229789,0.38457453,10.345055,-0.9998938,12180.259;0.38457453,9.998938,0.4999469,-0.61531925,10.191225,0.4999469,12180.259;0.38457453,9.998938,0.4999469,-0.26920217,10.306598,0.8076065,12213.813;0.38457453,9.998938,0.4999469,-0.23074472,9.922023,-0.38457453,12213.813;-1.9997876,8.806757,0.4999469,-1.9997876,8.806757,-0.46148944,12213.813;-0.76914907,8.806757,0.4999469,-0.76914907,9.575906,0.23074472,12247.368;-0.76914907,10.0373955,0.4999469,0.038457453,10.0373955,1.2690959,12247.368;-0.76914907,10.0373955,0.4999469,-0.38457453,10.614257,-0.038457453,12247.368;-0.76914907,10.0373955,0.4999469,-0.9229789,9.498991,-0.38457453,12280.922;-0.76914907,8.422182,0.4999469,-0.9998938,8.422182,0.19228727,12280.922;-0.76914907,9.80665,0.4999469,0.11537236,9.80665,0.15382981,12280.922;-0.76914907,9.80665,0.4999469,-0.30765963,9.922023,-0.23074472,12280.922;-0.76914907,9.80665,0.4999469,-0.15382981,10.191225,-0.423032,12314.477;-0.76914907,9.80665,-1.3075534,0.038457453,9.845108,-1.3075534,12314.477;-0.76914907,9.80665,0.30765963,0.11537236,10.26814,0.30765963,12314.477;-0.76914907,9.80665,0.30765963,-0.19228727,9.652821,0.69223416,12348.031;-0.76914907,9.80665,0.30765963,-1.615213,9.383618,-0.038457453,12348.031;-0.76914907,9.80665,-0.7306916,-0.9998938,10.421969,-0.7306916,12348.031;-0.76914907,9.80665,-0.7306916,0.15382981,10.498885,-0.26920217,12348.031;-0.76914907,9.80665,0.6537767,-0.11537236,10.152767,0.6537767,12381.585;-0.76914907,9.80665,0.6537767,-0.846064,9.729735,0.8076065,12381.585;-0.76914907,9.80665,0.6537767,-1.4998407,9.383618,-0.30765963,12381.585;-0.76914907,9.80665,0.6537767,-0.8845214,9.960481,0.15382981,12415.14;-0.76914907,9.80665,0.6537767,0.0,9.922023,0.5768618,12415.14;-0.76914907,9.80665,0.6537767,-0.38457453,9.80665,0.61531925,12415.14;-0.76914907,9.80665,-0.5768618,-0.6537767,10.768087,-0.5768618,12448.694;-0.76914907,8.383725,-0.5768618,-1.4229257,8.383725,-0.846064,12448.694;-0.76914907,9.845108,-0.5768618,-0.30765963,9.845108,-0.30765963,12448.694;-0.76914907,9.845108,1.1921811,-0.46148944,9.729735,1.1921811,12448.694;-0.76914907,9.845108,1.1921811,-0.23074472,10.3835125,0.69223416,12482.249;-0.76914907,9.845108,-0.30765963,-0.8076065,10.075852,-0.30765963,12482.249;-0.76914907,9.845108,-0.30765963,-0.6537767,9.80665,-1.1152661,12482.249;-0.76914907,9.845108,-0.30765963,-0.38457453,9.652821,0.53840435,12515.803;0.4999469,9.845108,-0.30765963,0.4999469,9.652821,0.26920217,12515.803;-1.5382981,9.845108,-0.30765963,-1.5382981,9.345161,0.07691491,12515.803;-1.5382981,9.845108,-1.3460109,-0.9998938,9.383618,-1.3460109,12549.357;-1.5382981,8.576012,-0.038457453,-1.1921811,8.576012,-0.038457453,12549.357;0.15382981,9.845108,-0.038457453,0.15382981,9.845108,0.23074472,12549.357;-1.3075534,8.576012,-0.038457453,-1.3075534,8.576012,0.96143633,12549.357;-1.3075534,9.768193,-0.038457453,-1.5382981,9.768193,-0.038457453,12582.912;-1.3075534,9.768193,-0.038457453,-0.4999469,8.960587,-0.8076065,12582.912;-1.3075534,9.768193,-0.038457453,-0.34611708,10.26814,0.69223416,12582.912;-1.3075534,9.768193,-0.038457453,-0.76914907,9.345161,0.8845214,12616.467;-1.3075534,9.768193,-0.038457453,-1.0383513,9.960481,-0.038457453,12616.467;-1.3075534,9.768193,-0.038457453,-0.53840435,9.845108,-0.423032,12616.467;0.34611708,10.845002,-0.038457453,0.34611708,10.845002,-0.5768618,12650.0205;0.34611708,10.845002,1.2306385,0.19228727,10.652715,1.2306385,12650.0205;0.34611708,10.845002,1.2306385,0.34611708,10.998832,0.23074472,12650.0205;-1.4613832,9.037501,-0.53840435,-1.4613832,9.037501,-0.53840435,12650.0205;-1.4613832,9.037501,-0.53840435,-0.4999469,10.0373955,-0.96143633,12683.575;0.0,9.037501,0.8076065,0.0,9.691278,0.8076065,12683.575;0.0,10.11431,0.8076065,-0.846064,10.11431,1.1921811,12683.575;0.0,10.11431,-0.69223416,-0.9229789,10.152767,-0.69223416,12717.13;-1.1152661,8.729842,-0.69223416,-1.1152661,8.729842,-0.7306916,12717.13;-1.1152661,8.729842,0.61531925,-0.96143633,9.383618,0.61531925,12717.13;0.15382981,9.768193,0.61531925,0.15382981,9.768193,0.9229789,12750.685;-0.96143633,9.768193,0.61531925,-0.96143633,9.614364,0.69223416,12750.685;-0.96143633,9.768193,-1.1152661,-0.38457453,10.460427,-1.1152661,12750.685;-0.96143633,8.499097,-1.1152661,-1.4613832,8.499097,-0.53840435,12750.685;0.23074472,9.998938,0.61531925,0.23074472,9.998938,0.61531925,12784.238;0.23074472,9.998938,0.61531925,0.038457453,9.998938,0.4999469,12784.238;-1.3075534,9.998938,-0.7306916,-1.3075534,9.614364,-0.7306916,12784.238;-1.3075534,9.998938,-0.7306916,-0.4999469,10.345055,-0.53840435,12817.793;-1.3075534,9.998938,0.30765963,-0.34611708,9.691278,0.30765963,12817.793;-0.23074472,9.998938,0.30765963,-0.23074472,9.768193,0.23074472,12817.793;-0.23074472,8.806757,0.30765963,-1.1152661,8.806757,0.11537236,12817.793;-1.5382981,8.806757,0.30765963,-1.5382981,8.922129,-0.61531925,12851.348;0.038457453,9.922023,0.30765963,0.038457453,9.922023,-0.38457453,12851.348;0.038457453,9.922023,0.30765963,0.038457453,10.075852,0.5768618,12851.348;0.038457453,9.922023,0.30765963,-0.76914907,9.614364,0.69223416,12884.902;-1.3844683,9.922023,0.30765963,-1.3844683,9.383618,-0.34611708,12884.902;-1.3844683,9.922023,0.30765963,-1.3844683,9.575906,-0.19228727,12884.902;-1.3844683,9.922023,0.30765963,-0.61531925,10.0373955,0.423032,12918.456;-1.3844683,9.922023,0.30765963,-0.46148944,10.3835125,0.9998938,12918.456;-0.15382981,9.922023,0.30765963,-0.15382981,10.152767,-0.038457453,12918.456;-0.15382981,9.922023,-1.1921811,-0.53840435,9.575906,-1.1921811,12918.456;-0.15382981,9.922023,-0.038457453,-0.38457453,10.152767,-0.038457453,12952.011;-0.15382981,9.922023,-0.038457453,-0.11537236,9.691278,0.846064,12952.011;-0.15382981,9.922023,-0.038457453,-0.46148944,9.422076,0.30765963,12952.011;-0.15382981,9.922023,-0.038457453,-0.038457453,10.460427,-0.8845214,12985.565;-0.15382981,9.922023,-1.3460109,-0.07691491,10.537342,-1.3460109,12985.565;-0.15382981,9.922023,-0.11537236,-0.61531925,10.191225,-0.11537236,12985.565;-0.15382981,9.922023,-0.11537236,0.423032,9.729735,0.26920217,13019.119;-1.1921811,9.922023,-0.11537236,-1.1921811,8.999044,0.11537236,13019.119;-1.1921811,9.922023,-0.11537236,-0.76914907,10.11431,-0.8845214,13019.119;-1.1921811,9.922023,-0.11537236,-0.5768618,9.614364,0.07691491,13019.119;0.15382981,9.922023,0.9998938,0.15382981,10.11431,0.9998938,13052.674;-0.96143633,9.922023,0.9998938,-0.96143633,9.229789,0.5768618,13052.674;-0.96143633,8.729842,-0.30765963,-1.4998407,8.729842,-0.30765963,13052.674;-0.96143633,8.729842,-0.30765963,-0.8076065,9.075959,-0.76914907,13086.229;0.34611708,9.998938,-0.30765963,0.34611708,9.998938,0.46148944,13086.229;0.34611708,9.998938,-0.30765963,-0.19228727,9.114416,0.38457453,13086.229;0.34611708,9.998938,-0.30765963,-0.38457453,9.729735,-0.11537236,13119.783;-1.3844683,8.922129,-0.30765963,-1.3844683,8.922129,-0.30765963,13119.783;0.23074472,9.960481,-0.30765963,0.23074472,9.960481,-0.423032,13119.783;0.23074472,9.960481,-0.30765963,0.53840435,9.80665,0.69223416,13119.783;0.23074472,9.960481,-0.30765963,-0.61531925,10.883459,-0.30765963,13153.337;0.23074472,9.960481,-0.30765963,-0.423032,9.922023,-0.96143633,13153.337;0.23074472,8.768299,-0.30765963,-0.26920217,8.768299,-0.53840435,13153.337;0.23074472,10.11431,0.8845214,-0.19228727,10.11431,0.8845214,13186.892;0.23074472,10.11431,0.8845214,-0.34611708,10.306598,1.0383513,13186.892;0.23074472,10.11431,-0.19228727,-0.4999469,10.191225,-0.19228727,13186.892;-0.8845214,10.11431,-0.19228727,-0.8845214,9.114416,-0.9229789,13220.446;-0.8845214,10.11431,-0.19228727,-0.038457453,9.652821,0.15382981,13220.446;-0.8845214,8.845214,-0.19228727,-1.692128,8.845214,0.46148944,13220.446;-0.8845214,10.537342,-0.19228727,-1.1921811,10.537342,-1.1921811,13254.001;-0.8845214,10.537342,-0.19228727,-0.7306916,9.998938,-0.34611708,13254.001;0.53840435,10.537342,-0.19228727,0.53840435,10.229683,0.5768618,13254.001;0.53840435,10.537342,-0.19228727,0.07691491,9.691278,0.5768618,13287.555;-1.3075534,10.537342,-0.19228727,-1.3075534,9.691278,-0.15382981,13287.555;-1.3075534,10.537342,-0.19228727,-0.34611708,9.845108,-0.846064,13287.555;0.19228727,10.537342,-0.19228727,0.19228727,10.191225,0.07691491,13287.555;0.19228727,10.537342,1.1921811,-0.23074472,10.498885,1.1921811,13321.109;0.19228727,10.537342,-0.19228727,-0.19228727,9.922023,-0.19228727,13321.109;-1.4229257,9.268247,-0.19228727,-1.4229257,9.268247,-0.30765963,13321.109;-1.4229257,9.268247,-0.19228727,-0.423032,10.26814,-0.19228727,13354.664;0.15382981,9.268247,-0.19228727,0.15382981,9.883566,0.30765963,13354.664;0.15382981,9.268247,-0.19228727,-0.4999469,10.11431,0.7306916,13354.664;-0.9998938,10.498885,-0.19228727,-0.9998938,10.498885,0.11537236,13388.219;-0.9998938,9.306704,-0.19228727,-1.4998407,9.306704,-0.11537236,13388.219;-0.9998938,9.306704,-0.19228727,-0.11537236,9.768193,0.15382981,13388.219;-0.9998938,9.306704,1.0768087,0.0,9.768193,1.0768087,13388.219;-0.9998938,9.306704,-0.11537236,-0.38457453,10.191225,-0.11537236,13421.772;-0.9998938,9.306704,-0.11537236,-0.6537767,9.845108,-0.9998938,13421.772;-0.9998938,9.306704,-0.11537236,-0.19228727,9.729735,-0.76914907,13421.772;0.23074472,9.306704,-0.11537236,0.23074472,9.268247,0.46148944,13455.327;-1.1152661,9.306704,-0.11537236,-1.1152661,9.345161,0.038457453,13455.327;-1.1152661,9.306704,-0.11537236,-0.7306916,9.691278,-0.4999469,13455.327;0.30765963,10.806544,-1.6536705,0.30765963,10.806544,-1.6536705,13488.882;0.30765963,10.806544,0.46148944,-0.07691491,9.922023,0.46148944,13488.882;0.30765963,9.537449,0.46148944,-0.038457453,9.537449,0.26920217,13488.882;-1.7690428,9.537449,0.46148944,-1.7690428,9.460533,0.23074472,13488.882;-1.7690428,9.537449,-0.6537767,-1.1921811,10.11431,-0.6537767,13522.437;-0.19228727,9.537449,-0.6537767,-0.19228727,9.537449,-0.07691491,13522.437;-0.19228727,9.537449,-0.6537767,-0.34611708,9.960481,0.26920217,13522.437;-0.19228727,9.537449,1.1152661,-0.846064,9.729735,1.1152661,13555.99;-0.19228727,9.537449,-0.7306916,-1.1921811,9.114416,-0.7306916,13555.99;-0.19228727,9.537449,-0.7306916,-0.7306916,9.037501,-0.69223416,13555.99;-0.19228727,9.537449,-0.7306916,0.0,10.0373955,0.19228727,13589.545;-0.19228727,9.537449,0.96143633,-0.69223416,9.614364,0.96143633,13589.545;-0.19228727,9.537449,-0.5768618,-0.4999469,10.460427,-0.5768618,13589.545;-1.692128,9.537449,-0.5768618,-1.692128,8.537555,-0.30765963,13589.545;-0.6537767,9.537449,-0.5768618,-0.6537767,9.537449,0.38457453,13623.1;-0.6537767,9.537449,1.2690959,0.0,10.11431,1.2690959,13623.1;0.38457453,10.806544,-0.038457453,0.38457453,10.806544,-0.038457453,13623.1;0.38457453,10.806544,-0.038457453,-0.53840435,10.5758,-0.69223416,13656.654;-0.846064,9.191331,-0.038457453,-0.846064,9.191331,-0.96143633,13656.654;-0.846064,9.191331,-0.038457453,-0.11537236,10.075852,0.26920217,13656.654;0.53840435,10.26814,-0.038457453,0.53840435,10.26814,0.34611708,13690.208;-0.9998938,10.26814,-0.038457453,-0.9998938,9.383618,0.19228727,13690.208;0.15382981,10.26814,-1.1152661,0.15382981,10.306598,-1.1152661,13690.208;0.15382981,10.26814,0.11537236,-0.11537236,9.960481,0.11537236,13690.208;0.15382981,10.26814,1.1921811,0.23074472,9.998938,1.1921811,13723.763;-1.5767555,8.845214,1.1921811,-1.5767555,8.845214,0.9229789,13723.763;-1.5767555,8.845214,-0.46148944,-1.2690959,9.80665,-0.46148944,13723.763;-0.423032,10.537342,-0.46148944,-0.423032,10.537342,-0.07691491,13757.317;-0.423032,10.537342,0.69223416,0.4999469,10.191225,0.69223416,13757.317;-0.423032,10.537342,0.69223416,-0.19228727,9.652821,0.69223416,13757.317;-0.423032,9.114416,0.69223416,-1.1921811,9.114416,0.038457453,13790.871;-1.4998407,9.114416,-0.34611708,-1.4998407,9.998938,-0.34611708,13790.871;-0.23074472,9.114416,-0.34611708,-0.23074472,9.845108,-0.038457453,13790.871;-0.23074472,10.498885,0.9229789,0.15382981,10.498885,0.9229789,13790.871;-0.23074472,10.498885,0.9229789,-0.5768618,10.152767,0.53840435,13824.426;-1.9613302,8.883672,-0.423032,-1.9613302,8.883672,-0.423032,13824.426;-0.8076065,10.075852,-0.423032,-0.8076065,10.075852,-0.34611708,13824.426;-0.8076065,10.075852,-0.423032,-0.30765963,9.268247,0.038457453,13857.98;-0.8076065,10.075852,0.69223416,-0.19228727,9.691278,0.69223416,13857.98;-0.8076065,10.075852,-0.423032,-0.15382981,10.191225,-0.423032,13857.98;-0.8076065,8.691384,-0.423032,-0.9229789,8.691384,-1.0768087,13857.98;-0.8076065,10.075852,-0.423032,-0.30765963,10.075852,0.11537236,13891.535;-0.8076065,10.075852,1.0383513,-0.846064,9.114416,1.0383513,13891.535;-0.8076065,10.075852,1.0383513,-0.9229789,10.5758,0.38457453,13891.535;-0.8076065,10.075852,