999,999,999,999,999,999,999;0.11537236,0.038457453,9.075959,-0.38457453,0.038457453,9.460533,0.0;0.11537236,0.038457453,9.075959,-0.5768618,-0.423032,9.691278,33.554432;0.11537236,0.038457453,9.075959,-0.07691491,-0.19228727,9.422076,33.554432;0.11537236,0.038457453,9.075959,-0.23074472,0.19228727,9.883566,67.108864;0.11537236,0.038457453,9.075959,-0.038457453,0.30765963,9.575906,67.108864;0.11537236,0.038457453,9.075959,-0.15382981,0.38457453,9.729735,67.108864;0.11537236,0.038457453,9.075959,-0.6537767,-0.30765963,9.075959,100.6633;0.11537236,0.038457453,9.075959,-0.61531925,-0.19228727,8.768299,100.6633;0.11537236,0.038457453,9.075959,-0.15382981,-0.30765963,9.345161,100.6633;0.11537236,0.038457453,9.075959,-0.6537767,0.4999469,9.229789,100.6633;0.11537236,0.038457453,9.075959,-0.19228727,0.30765963,8.999044,134.21773;-1.5767555,0.038457453,9.075959,-1.5767555,-0.07691491,9.037501,134.21773;-0.15382981,0.038457453,9.075959,-0.15382981,0.0,9.652821,134.21773;-0.15382981,0.038457453,9.075959,-0.038457453,-0.38457453,9.691278,167.77216;-0.15382981,0.038457453,9.075959,-0.9229789,0.19228727,9.229789,167.77216;-0.15382981,0.038457453,9.075959,-0.30765963,0.0,9.691278,167.77216;-1.2690959,0.038457453,10.768087,-1.2690959,0.30765963,10.768087,201.3266;-1.2690959,0.038457453,8.922129,-0.30765963,-0.23074472,8.922129,201.3266;-0.15382981,0.038457453,8.922129,-0.15382981,-0.46148944,9.652821,201.3266;-0.15382981,0.038457453,10.652715,-0.53840435,0.34611708,10.652715,201.3266;-0.15382981,0.038457453,8.229895,-0.8076065,-0.30765963,8.229895,234.88103;-0.15382981,0.038457453,8.229895,-0.6537767,-0.15382981,8.691384,234.88103;-0.15382981,0.038457453,9.845108,-0.423032,-0.11537236,9.845108,234.88103;-0.15382981,0.038457453,9.845108,-0.69223416,0.0,9.498991,268.43546;-0.15382981,0.038457453,9.845108,-0.53840435,-0.34611708,9.498991,268.43546;-0.15382981,0.038457453,9.845108,-0.69223416,0.5768618,9.191331,268.43546;-0.15382981,0.038457453,8.768299,-0.61531925,-0.30765963,8.768299,301.9899;-0.15382981,0.038457453,8.768299,-0.46148944,0.5768618,9.114416,301.9899;-0.15382981,0.038457453,8.768299,-0.34611708,-0.30765963,9.422076,301.9899;-0.15382981,0.038457453,8.768299,-0.46148944,0.38457453,9.460533,301.9899;-0.15382981,0.038457453,8.768299,-0.4999469,0.61531925,9.768193,335.5443;-0.15382981,0.038457453,8.768299,-0.4999469,-0.038457453,8.345267,335.5443;-0.15382981,0.038457453,10.0373955,-0.34611708,-0.11537236,10.0373955,335.5443;-0.15382981,0.038457453,10.0373955,0.46148944,-0.19228727,9.422076,369.09875;-0.15382981,0.038457453,10.0373955,0.11537236,0.15382981,9.691278,369.09875;-0.15382981,0.038457453,10.0373955,-0.19228727,-0.07691491,9.460533,369.09875;-0.15382981,0.038457453,10.0373955,-0.38457453,-0.15382981,9.845108,369.09875;-0.15382981,0.038457453,10.0373955,-0.38457453,0.15382981,9.80665,402.6532;-0.15382981,0.038457453,8.999044,-0.038457453,-0.23074472,8.999044,402.6532;-0.15382981,0.038457453,10.3835125,0.34611708,-0.6537767,10.3835125,402.6532;-0.15382981,0.038457453,10.3835125,0.26920217,-0.423032,9.922023,436.2076;-1.3075534,0.038457453,8.652927,-1.3075534,-0.46148944,8.652927,436.2076;-1.3075534,0.038457453,8.652927,-0.4999469,-0.15382981,8.845214,436.2076;-1.3075534,0.038457453,9.922023,-0.34611708,0.26920217,9.922023,469.76205;-1.3075534,0.038457453,9.922023,-0.8845214,-0.15382981,9.729735,469.76205;-1.3075534,0.038457453,9.922023,-0.61531925,-0.38457453,9.345161,469.76205;-1.3075534,0.038457453,9.922023,-0.61531925,0.38457453,10.498885,469.76205;-1.3075534,0.038457453,9.922023,-1.0383513,0.0,9.537449,503.31647;-1.3075534,0.038457453,8.691384,-0.38457453,0.61531925,8.691384,503.31647;-1.3075534,0.038457453,10.229683,-0.69223416,0.07691491,10.229683,503.31647;-0.15382981,0.038457453,10.229683,-0.15382981,0.5768618,9.306704,536.8709;-1.1921811,0.038457453,10.229683,-1.1921811,0.423032,10.229683,536.8709;-0.15382981,0.038457453,10.229683,-0.15382981,0.23074472,9.460533,536.8709;-0.15382981,0.038457453,10.229683,-0.19228727,-0.19228727,9.883566,570.42535;-0.15382981,0.038457453,9.152874,-1.0768087,0.23074472,9.152874,570.42535;-0.15382981,0.038457453,9.152874,-0.69223416,0.0,8.999044,570.42535;-0.15382981,0.038457453,9.152874,0.038457453,-0.53840435,9.229789,570.42535;-0.15382981,0.038457453,9.152874,0.038457453,-0.038457453,9.960481,603.9798;-0.15382981,0.038457453,9.152874,-0.23074472,-0.11537236,8.999044,603.9798;-0.15382981,0.038457453,9.152874,-0.07691491,-0.38457453,9.345161,603.9798;-0.15382981,0.038457453,10.652715,0.846064,-0.11537236,10.652715,637.5342;-0.15382981,0.038457453,8.999044,-0.846064,0.19228727,8.999044,637.5342;-0.15382981,0.038457453,8.999044,-0.8076065,0.0,9.075959,637.5342;-0.15382981,0.038457453,10.152767,-0.30765963,-0.19228727,10.152767,671.0886;-0.15382981,0.038457453,10.152767,-0.38457453,-0.038457453,10.075852,671.0886;-0.15382981,0.038457453,10.152767,-0.4999469,0.0,9.998938,671.0886;-0.15382981,0.038457453,9.075959,-0.23074472,0.26920217,9.075959,671.0886;-0.15382981,0.038457453,9.075959,-0.23074472,0.23074472,9.229789,704.64307;-0.15382981,0.038457453,9.075959,-1.1152661,0.30765963,9.345161,704.64307;-0.15382981,0.038457453,9.075959,-0.61531925,0.46148944,8.422182,704.64307;-0.15382981,0.038457453,10.345055,0.15382981,-0.4999469,10.345055,738.1975;-0.15382981,0.038457453,10.345055,0.46148944,0.07691491,9.537449,738.1975;-0.15382981,0.038457453,10.345055,-0.34611708,0.53840435,9.845108,738.1975;-0.15382981,0.038457453,10.345055,0.038457453,0.0,9.691278,771.75195;-0.15382981,0.038457453,10.345055,-0.19228727,0.07691491,9.768193,771.75195;-0.15382981,0.038457453,10.345055,-0.53840435,0.15382981,9.691278,771.75195;-0.15382981,0.038457453,9.306704,0.19228727,0.30765963,9.306704,771.75195;-0.15382981,0.038457453,9.306704,-0.07691491,0.07691491,9.922023,805.3064;-0.15382981,0.038457453,9.306704,-0.038457453,-0.15382981,9.537449,805.3064;-0.15382981,0.038457453,9.306704,-0.4999469,-0.38457453,8.960587,805.3064;-0.15382981,0.038457453,9.306704,-0.34611708,-0.5768618,9.191331,838.8608;-0.15382981,0.038457453,9.306704,0.11537236,0.30765963,9.306704,838.8608;-0.15382981,0.038457453,9.306704,-0.5768618,0.34611708,9.191331,838.8608;-0.15382981,0.038457453,9.306704,-0.69223416,0.038457453,9.691278,872.4152;-0.15382981,0.038457453,9.306704,-0.846064,0.15382981,9.614364,872.4152;-0.15382981,0.038457453,9.306704,0.26920217,0.038457453,9.80665,872.4152;-0.15382981,0.038457453,9.306704,-0.69223416,0.15382981,9.075959,872.4152;-0.15382981,0.038457453,9.306704,-0.7306916,-0.19228727,10.0373955,905.96967;-0.15382981,0.038457453,9.306704,0.11537236,-0.07691491,9.960481,905.96967;-0.15382981,0.038457453,9.306704,-0.8845214,0.53840435,9.383618,905.96967;-0.15382981,0.038457453,9.306704,-0.34611708,-0.38457453,10.229683,939.5241;-0.15382981,0.038457453,9.306704,0.19228727,-0.53840435,9.998938,939.5241;-0.15382981,0.038457453,9.306704,-0.23074472,0.15382981,9.80665,939.5241;-0.15382981,0.038457453,9.306704,-0.5768618,0.0,9.268247,939.5241;-0.15382981,0.038457453,9.306704,-0.11537236,0.7306916,8.768299,973.07855;-0.15382981,0.038457453,9.306704,-0.38457453,-0.15382981,9.422076,973.07855;-0.15382981,0.038457453,9.306704,-0.8845214,0.26920217,9.037501,973.07855;-1.2306385,0.038457453,9.306704,-1.2306385,0.11537236,9.037501,1006.63293;0.34611708,0.038457453,10.3835125,0.34611708,0.07691491,10.3835125,1006.63293;-0.846064,0.038457453,8.61447,-0.846064,0.038457453,8.61447,1006.63293;-0.846064,0.038457453,8.61447,-0.69223416,0.0,8.922129,1040.1874;-0.846064,0.038457453,10.537342,-0.9229789,-0.11537236,10.537342,1040.1874;-0.846064,0.038457453,10.537342,-0.38457453,0.19228727,9.80665,1040.1874;-0.846064,0.038457453,8.883672,-1.0383513,-0.19228727,8.883672,1040.1874;-0.846064,0.038457453,10.0373955,-0.423032,0.4999469,10.0373955,1073.7418;-0.846064,0.038457453,10.0373955,-0.5768618,-0.4999469,9.498991,1073.7418;-0.846064,0.038457453,10.0373955,-0.23074472,0.07691491,10.306598,1073.7418;-0.846064,0.038457453,10.0373955,-0.34611708,0.19228727,9.998938,1107.2963;-0.846064,0.038457453,10.0373955,-0.423032,0.6537767,9.422076,1107.2963;-0.846064,0.038457453,10.0373955,-0.34611708,0.26920217,9.383618,1107.2963;-0.846064,0.038457453,10.0373955,-0.11537236,1.0383513,9.229789,1140.8507;-0.846064,0.038457453,10.0373955,-0.30765963,0.26920217,9.498991,1140.8507;-0.846064,0.038457453,10.0373955,0.15382981,-0.30765963,9.729735,1140.8507;-0.846064,0.038457453,10.0373955,-0.11537236,0.69223416,9.114416,1140.8507;-0.846064,0.038457453,10.0373955,-0.76914907,-0.15382981,9.460533,1174.4052;-0.846064,0.038457453,10.0373955,-0.4999469,0.07691491,9.652821,1174.4052;-0.846064,0.038457453,10.0373955,-0.5768618,0.38457453,9.652821,1174.4052;-0.846064,0.038457453,10.0373955,-0.4999469,-0.11537236,9.575906,1207.9596;-0.846064,0.038457453,10.0373955,-0.038457453,-0.26920217,9.152874,1207.9596;-0.846064,0.038457453,10.0373955,-0.6537767,0.34611708,9.422076,1207.9596;-0.846064,0.038457453,8.537555,-0.61531925,0.6537767,8.537555,1241.514;-0.846064,0.038457453,8.537555,-1.3460109,0.11537236,8.652927,1241.514;-0.846064,0.038457453,9.614364,0.038457453,-0.34611708,9.614364,1241.514;-0.846064,0.038457453,9.614364,-0.23074472,0.34611708,9.691278,1241.514;-0.846064,0.038457453,9.614364,-0.19228727,-0.423032,8.883672,1275.0684;-0.846064,0.038457453,9.614364,0.0,-0.15382981,9.460533,1275.0684;-0.846064,0.038457453,9.614364,-0.15382981,0.23074472,9.306704,1275.0684;-0.846064,0.038457453,9.614364,-0.61531925,0.07691491,9.268247,1308.6228;-0.846064,0.038457453,9.614364,-0.19228727,-0.26920217,9.729735,1308.6228;-0.846064,0.038457453,9.614364,-0.15382981,-0.19228727,9.960481,1308.6228;-0.846064,0.038457453,9.614364,-0.07691491,0.846064,9.306704,1308.6228;-0.846064,0.038457453,9.614364,-0.423032,0.0,8.999044,1342.1772;-0.846064,0.038457453,9.614364,0.11537236,0.19228727,9.729735,1342.1772;-0.846064,0.038457453,9.614364,-0.30765963,-0.6537767,9.037501,1342.1772;-0.846064,0.038457453,9.614364,-0.46148944,0.53840435,9.922023,1375.7317;-0.846064,0.038457453,9.614364,-0.07691491,0.38457453,9.383618,1375.7317;-0.846064,0.038457453,9.614364,0.0,0.23074472,10.0373955,1375.7317;-0.846064,0.038457453,8.576012,-0.15382981,0.15382981,8.576012,1409.2861;-0.846064,0.038457453,8.576012,-0.34611708,0.46148944,9.345161,1409.2861;-0.846064,0.038457453,8.576012,0.0,-0.46148944,9.306704,1409.2861;-0.846064,0.038457453,8.576012,-0.30765963,0.23074472,9.422076,1409.2861;-0.846064,0.038457453,8.576012,-0.8845214,0.038457453,8.768299,1442.8406;-0.846064,0.038457453,8.576012,-0.9229789,-0.038457453,9.498991,1442.8406;-0.846064,0.038457453,8.576012,0.07691491,0.038457453,9.152874,1442.8406;-0.846064,0.038457453,10.11431,0.15382981,0.07691491,10.11431,1476.395;-0.846064,0.038457453,10.11431,-1.1921811,-0.34611708,9.614364,1476.395;0.19228727,0.038457453,10.11431,0.19228727,-0.69223416,9.691278,1476.395;0.19228727,0.038457453,10.11431,0.4999469,-0.07691491,9.498991,1509.9495;0.19228727,0.038457453,8.960587,0.423032,-0.53840435,8.960587,1509.9495;0.19228727,0.038457453,8.960587,-0.423032,-0.11537236,9.845108,1509.9495;0.19228727,0.038457453,10.152767,0.038457453,0.07691491,10.152767,1509.9495;-0.96143633,0.038457453,10.152767,-0.96143633,-0.30765963,9.345161,1543.5039;-0.96143633,0.038457453,8.61447,-0.9998938,-0.38457453,8.61447,1543.5039;-0.96143633,0.038457453,10.0373955,-0.34611708,0.26920217,10.0373955,1543.5039;-0.96143633,0.038457453,10.0373955,-0.5768618,0.11537236,9.460533,1577.0583;-0.96143633,0.038457453,10.0373955,-0.34611708,0.19228727,9.191331,1577.0583;-0.96143633,0.038457453,10.0373955,-0.5768618,0.07691491,9.191331,1577.0583;-0.96143633,0.038457453,10.0373955,-0.7306916,-0.34611708,9.652821,1610.6128;-0.96143633,0.038457453,8.845214,-0.6537767,0.11537236,8.845214,1610.6128;-0.96143633,0.038457453,8.845214,-0.61531925,0.0,8.768299,1610.6128;0.11537236,0.038457453,8.845214,0.11537236,-0.11537236,9.845108,1610.6128;0.11537236,0.038457453,10.0373955,-0.26920217,0.4999469,10.0373955,1644.1671;0.11537236,0.038457453,10.0373955,-0.46148944,0.30765963,9.383618,1644.1671;0.11537236,0.038457453,10.0373955,-0.6537767,-0.23074472,9.268247,1644.1671;0.11537236,0.038457453,10.0373955,-0.53840435,0.26920217,9.037501,1677.7216;0.11537236,0.038457453,10.0373955,-0.30765963,-0.26920217,9.614364,1677.7216;0.11537236,0.038457453,10.0373955,0.23074472,-0.07691491,9.460533,1677.7216;0.11537236,0.038457453,10.0373955,-0.38457453,0.11537236,11.037289,1711.276;0.11537236,0.038457453,10.0373955,-0.423032,-0.26920217,9.614364,1711.276;0.11537236,0.038457453,10.0373955,-0.5768618,-0.46148944,9.229789,1711.276;0.11537236,0.038457453,10.0373955,0.19228727,-0.7306916,9.422076,1711.276;0.11537236,0.038457453,10.0373955,0.11537236,-0.69223416,9.575906,1744.8304;-1.2690959,0.038457453,10.0373955,-1.2690959,0.53840435,9.075959,1744.8304;-1.2690959,0.038457453,8.922129,-0.4999469,-0.6537767,8.922129,1744.8304;-1.2690959,0.038457453,8.922129,-0.34611708,0.038457453,9.152874,1778.3849;-0.23074472,0.038457453,8.922129,-0.23074472,-0.26920217,9.075959,1778.3849;-0.23074472,0.038457453,8.922129,-0.8845214,0.46148944,9.422076,1778.3849;0.9229789,0.038457453,8.922129,0.9229789,0.423032,8.345267,1811.9393;-0.8076065,0.038457453,8.922129,-0.8076065,0.30765963,9.768193,1811.9393;-0.8076065,0.038457453,8.922129,-0.38457453,0.423032,8.806757,1811.9393;-0.8076065,0.038457453,10.0373955,0.0,-0.38457453,10.0373955,1811.9393;-0.8076065,0.038457453,10.0373955,-0.34611708,0.34611708,9.498991,1845.4938;-0.8076065,0.038457453,10.0373955,-0.15382981,0.34611708,9.422076,1845.4938;-0.8076065,0.038457453,10.0373955,-0.34611708,-0.26920217,10.075852,1845.4938;-0.8076065,0.038457453,10.0373955,0.038457453,-0.19228727,9.306704,1879.0482;-0.8076065,0.038457453,10.0373955,-0.53840435,-0.423032,9.652821,1879.0482;-0.8076065,0.038457453,10.0373955,-0.23074472,0.26920217,9.152874,1879.0482;0.8845214,0.038457453,8.999044,0.8845214,-0.34611708,8.999044,1879.0482;0.8845214,0.038457453,8.999044,0.19228727,0.26920217,9.960481,1912.6027;-0.76914907,0.038457453,8.999044,-0.76914907,-0.038457453,8.691384,1912.6027;-0.76914907,0.038457453,8.999044,-0.4999469,-0.15382981,9.652821,1912.6027;-0.76914907,0.038457453,10.152767,-0.38457453,-0.11537236,10.152767,1946.1571;-0.76914907,0.038457453,9.075959,-0.96143633,-0.38457453,9.075959,1946.1571;-0.76914907,0.038457453,9.075959,-0.30765963,0.38457453,9.537449,1946.1571;-0.76914907,0.038457453,9.075959,-0.34611708,-0.15382981,9.229789,1979.7115;-0.76914907,0.038457453,9.075959,-0.23074472,0.0,9.345161,1979.7115;-0.76914907,0.038457453,9.075959,-0.038457453,0.53840435,9.729735,1979.7115;-0.76914907,0.038457453,10.421969,-0.46148944,0.46148944,10.421969,1979.7115;-0.76914907,0.038457453,10.421969,-0.15382981,0.4999469,9.537449,2013.2659;-0.76914907,0.038457453,10.421969,-0.8845214,0.7306916,9.537449,2013.2659;-0.76914907,0.038457453,9.345161,-0.76914907,0.423032,9.345161,2013.2659;-0.76914907,0.038457453,9.345161,-0.038457453,-0.11537236,9.652821,2046.8203;-0.76914907,0.038457453,9.345161,-0.38457453,-0.23074472,9.883566,2046.8203;0.61531925,0.038457453,9.345161,0.61531925,0.19228727,9.229789,2046.8203;0.61531925,0.038457453,9.345161,-0.30765963,0.34611708,9.152874,2080.3748;0.61531925,0.038457453,9.345161,-0.11537236,-0.30765963,9.306704,2080.3748;-0.53840435,0.038457453,9.345161,-0.53840435,-0.38457453,8.883672,2080.3748;-0.53840435,0.038457453,9.345161,-0.7306916,0.07691491,8.999044,2080.3748;-0.53840435,0.038457453,9.345161,0.0,0.23074472,9.768193,2113.9292;-0.53840435,0.038457453,9.345161,0.11537236,-0.4999469,8.922129,2113.9292;-0.53840435,0.038457453,9.345161,-0.7306916,0.07691491,8.383725,2113.9292;-0.53840435,0.038457453,9.345161,-0.46148944,-0.11537236,9.268247,2147.4836;-0.53840435,0.038457453,9.345161,-0.4999469,0.26920217,9.383618,2147.4836;-0.53840435,0.038457453,9.345161,-0.46148944,0.038457453,9.306704,2147.4836;-0.53840435,0.038457453,9.345161,-0.23074472,0.15382981,9.652821,2181.038;-0.53840435,0.038457453,9.345161,-0.846064,-0.07691491,9.268247,2181.038;-0.53840435,0.038457453,9.345161,-0.19228727,-0.15382981,9.537449,2181.038;-0.53840435,0.038457453,9.345161,-0.4999469,0.19228727,9.075959,2181.038;-0.53840435,0.038457453,9.345161,0.23074472,0.46148944,10.26814,2214.5925;-0.53840435,0.038457453,9.345161,-0.23074472,0.34611708,9.845108,2214.5925;-0.53840435,0.038457453,9.345161,-0.9998938,0.5768618,10.11431,2214.5925;-0.53840435,0.038457453,9.345161,-0.07691491,-0.34611708,10.075852,2248.147;-0.53840435,0.038457453,9.345161,0.15382981,-0.38457453,9.383618,2248.147;-0.53840435,0.038457453,9.345161,-0.19228727,0.15382981,9.498991,2248.147;-0.53840435,0.038457453,9.345161,-0.5768618,0.07691491,9.998938,2281.7014;-0.53840435,0.038457453,9.345161,-0.11537236,0.7306916,9.498991,2281.7014;-0.53840435,0.038457453,9.345161,-0.30765963,0.4999469,9.075959,2281.7014;-0.53840435,0.038457453,9.345161,-0.96143633,0.038457453,9.306704,2281.7014;-0.53840435,0.038457453,9.345161,-0.30765963,-0.46148944,9.191331,2315.2559;-0.53840435,0.038457453,9.345161,-0.15382981,-0.30765963,9.498991,2315.2559;-0.53840435,1.2690959,9.345161,-0.38457453,1.2690959,9.383618,2315.2559;-0.53840435,1.2690959,9.345161,-1.1537236,0.30765963,8.576012,2348.8103;-0.53840435,0.11537236,9.345161,-0.61531925,0.11537236,9.383618,2348.8103;-0.53840435,0.11537236,9.345161,-0.423032,-0.15382981,9.768193,2348.8103;-0.53840435,0.11537236,9.345161,-0.46148944,-0.46148944,8.691384,2348.8103;-0.53840435,0.11537236,9.345161,-0.4999469,-0.38457453,9.037501,2382.3647;-0.53840435,0.11537236,9.345161,-1.2306385,-0.15382981,8.729842,2382.3647;-0.53840435,0.11537236,9.345161,-0.8845214,0.34611708,9.80665,2382.3647;-0.53840435,0.11537236,9.345161,-1.3460109,-0.26920217,8.999044,2415.9192;-0.53840435,0.11537236,9.345161,-0.07691491,-0.61531925,10.345055,2415.9192;-0.53840435,0.11537236,9.345161,0.46148944,-0.038457453,9.691278,2415.9192;-0.53840435,0.11537236,9.345161,-0.23074472,0.23074472,9.768193,2449.4736;-0.53840435,0.11537236,9.345161,-0.61531925,-0.30765963,9.498991,2449.4736;-0.53840435,0.11537236,9.345161,-0.26920217,0.6537767,9.345161,2449.4736;-0.53840435,0.11537236,9.345161,0.07691491,1.0768087,9.575906,2449.4736;-0.53840435,0.11537236,9.345161,-0.53840435,0.0,9.345161,2483.028;-0.53840435,0.11537236,9.345161,-0.423032,0.30765963,9.422076,2483.028;-0.53840435,0.11537236,9.345161,-0.4999469,0.30765963,9.229789,2483.028;-0.53840435,0.11537236,9.345161,-0.5768618,0.30765963,9.422076,2516.5825;-0.53840435,0.11537236,9.345161,-1.0768087,-0.4999469,9.037501,2516.5825;-0.53840435,0.11537236,9.345161,-0.423032,0.69223416,9.652821,2516.5825;-0.53840435,0.11537236,9.345161,-0.76914907,0.8076065,8.922129,2550.1367;-0.53840435,0.11537236,9.345161,-1.1921811,0.23074472,8.768299,2550.1367;-0.53840435,0.11537236,9.345161,-0.11537236,0.038457453,10.0373955,2550.1367;-0.53840435,0.11537236,9.345161,-0.4999469,0.07691491,9.268247,2550.1367;-0.53840435,0.11537236,9.345161,-0.46148944,0.19228727,10.229683,2583.6912;-0.53840435,0.11537236,9.345161,0.423032,0.4999469,9.80665,2583.6912;-0.53840435,0.11537236,9.345161,-0.19228727,-0.69223416,9.883566,2583.6912;-0.53840435,0.11537236,9.345161,-0.69223416,0.5768618,10.0373955,2617.2456;-0.53840435,0.11537236,9.345161,-0.6537767,-0.07691491,9.383618,2617.2456;-0.53840435,0.11537236,9.345161,0.30765963,-0.53840435,10.191225,2617.2456;-0.53840435,0.11537236,9.345161,0.0,0.69223416,10.191225,2650.8;-0.53840435,0.11537236,9.345161,-0.26920217,0.4999469,8.537555,2650.8;-0.53840435,0.11537236,9.345161,-0.07691491,0.30765963,9.306704,2650.8;-0.53840435,0.11537236,9.345161,-0.4999469,-0.846064,9.306704,2650.8;-0.53840435,0.11537236,9.345161,0.11537236,0.15382981,9.306704,2684.3545;-0.53840435,0.11537236,9.345161,-0.34611708,0.8076065,9.460533,2684.3545;-0.53840435,0.11537236,9.345161,-0.30765963,-0.19228727,10.229683,2684.3545;-0.53840435,0.11537236,9.345161,-0.46148944,0.07691491,9.037501,2717.909;-0.53840435,0.11537236,9.345161,-0.9998938,0.6537767,9.229789,2717.909;-0.53840435,0.11537236,9.345161,-0.23074472,0.34611708,8.960587,2717.909;-0.53840435,0.11537236,10.3835125,-0.19228727,0.23074472,10.3835125,2751.4634;-0.53840435,0.11537236,10.3835125,-0.34611708,0.19228727,9.960481,2751.4634;-0.53840435,0.11537236,8.999044,-0.5768618,-0.038457453,8.999044,2751.4634;-0.53840435,0.11537236,8.999044,-0.30765963,0.30765963,9.306704,2751.4634;-0.53840435,0.11537236,10.11431,-0.53840435,-0.07691491,10.11431,2785.0178;-0.53840435,0.11537236,10.11431,-0.61531925,0.6537767,9.729735,2785.0178;-0.53840435,0.11537236,10.11431,-0.15382981,-0.19228727,9.845108,2785.0178;-0.53840435,0.11537236,9.075959,0.26920217,0.15382981,9.075959,2818.5723;-0.53840435,0.11537236,9.075959,-1.0768087,-0.07691491,9.229789,2818.5723;-0.53840435,0.11537236,9.075959,-0.76914907,-0.23074472,9.422076,2818.5723;-0.53840435,-1.1152661,9.075959,-0.53840435,-1.1152661,9.614364,2818.5723;-0.53840435,0.19228727,9.075959,-0.07691491,0.19228727,8.845214,2852.1267;-0.53840435,0.19228727,9.075959,-0.07691491,0.4999469,8.806757,2852.1267;-0.53840435,0.19228727,9.075959,-0.9998938,0.7306916,9.460533,2852.1267;-0.53840435,0.19228727,9.075959,-0.30765963,-0.07691491,9.80665,2885.6812;-0.53840435,0.19228727,9.075959,-0.6537767,0.07691491,9.575906,2885.6812;-0.53840435,0.19228727,9.075959,-0.30765963,0.7306916,8.883672,2885.6812;-0.53840435,0.19228727,9.075959,-0.4999469,-0.53840435,9.729735,2919.2356;-0.53840435,0.19228727,9.075959,-0.26920217,0.46148944,8.960587,2919.2356;-0.53840435,0.19228727,9.075959,-1.4229257,-0.07691491,9.229789,2919.2356;-0.53840435,0.19228727,10.26814,0.11537236,-0.30765963,10.26814,2919.2356;-0.53840435,0.19228727,10.26814,-0.4999469,-0.7306916,9.422076,2952.79;-0.53840435,0.19228727,10.26814,-0.30765963,0.07691491,9.80665,2952.79;-0.53840435,0.19228727,10.26814,-0.07691491,0.038457453,9.498991,2952.79;-0.53840435,0.19228727,8.999044,-0.15382981,0.30765963,8.999044,2986.3445;-0.53840435,0.19228727,8.999044,0.11537236,0.07691491,9.845108,2986.3445;-0.53840435,0.19228727,8.999044,-0.07691491,-0.15382981,9.037501,2986.3445;-0.53840435,0.19228727,8.999044,-0.19228727,0.11537236,9.575906,3019.899;-0.53840435,0.19228727,8.999044,0.07691491,0.19228727,9.191331,3019.899;-0.53840435,0.19228727,8.999044,-0.9229789,-0.34611708,9.383618,3019.899;-0.53840435,0.19228727,8.999044,-0.15382981,-0.38457453,9.691278,3019.899;-0.53840435,0.19228727,8.999044,-0.69223416,0.38457453,9.422076,3053.4534;-0.53840435,0.19228727,8.999044,-0.9229789,0.30765963,9.80665,3053.4534;-0.53840435,0.19228727,8.999044,-0.69223416,-0.15382981,9.229789,3053.4534;-0.53840435,0.19228727,8.999044,-0.15382981,0.61531925,9.768193,3087.0078;-0.53840435,0.19228727,8.999044,-0.4999469,-0.7306916,9.229789,3087.0078;-0.53840435,0.19228727,8.999044,-0.6537767,-0.46148944,9.614364,3087.0078;-0.53840435,0.19228727,8.999044,-0.19228727,0.4999469,9.460533,3120.5623;-0.53840435,0.19228727,8.999044,-0.6537767,0.07691491,9.922023,3120.5623;-0.53840435,0.19228727,8.999044,-0.6537767,0.15382981,9.152874,3120.5623;-0.53840435,0.19228727,8.999044,-0.9998938,-0.26920217,9.922023,3120.5623;-0.53840435,0.19228727,8.999044,0.34611708,-0.23074472,9.845108,3154.1167;-0.53840435,0.19228727,8.999044,-0.23074472,0.34611708,9.306704,3154.1167;-0.53840435,0.19228727,8.999044,-0.423032,0.38457453,9.460533,3154.1167;-0.53840435,0.19228727,8.999044,-0.30765963,0.15382981,9.268247,3187.6711;-0.53840435,0.19228727,8.999044,0.38457453,0.11537236,8.845214,3187.6711;-0.53840435,0.19228727,8.999044,-0.6537767,0.19228727,9.345161,3187.6711;-0.53840435,0.19228727,8.999044,-0.038457453,-0.038457453,8.652927,3221.2256;-0.53840435,0.19228727,8.999044,-0.8845214,-0.30765963,9.922023,3221.2256;-0.53840435,0.19228727,8.999044,-1.0383513,0.7306916,8.652927,3221.2256;-0.53840435,0.19228727,8.999044,-0.53840435,-0.19228727,8.922129,3221.2256;-0.53840435,0.19228727,8.999044,-0.46148944,0.34611708,9.460533,3254.7798;-0.53840435,0.19228727,8.999044,0.26920217,-0.038457453,9.383618,3254.7798;-0.53840435,0.19228727,8.999044,-0.46148944,-0.11537236,9.383618,3254.7798;-0.53840435,0.19228727,8.999044,-0.34611708,-0.038457453,9.037501,3288.3342;-0.53840435,0.19228727,10.075852,0.0,0.0,10.075852,3288.3342;-0.53840435,0.19228727,9.037501,-0.8076065,0.5768618,9.037501,3288.3342;-0.53840435,0.19228727,9.037501,-0.7306916,0.4999469,9.575906,3321.8887;-0.53840435,0.19228727,9.037501,0.34611708,-0.34611708,9.883566,3321.8887;-0.53840435,0.19228727,10.191225,0.15382981,-0.038457453,10.191225,3321.8887;-0.53840435,0.19228727,10.191225,0.0,0.30765963,9.537449,3321.8887;-0.53840435,0.19228727,10.191225,-0.7306916,-0.07691491,9.229789,3355.443;-0.53840435,0.19228727,10.191225,-0.23074472,0.423032,9.652821,3355.443;-0.53840435,0.19228727,10.191225,0.11537236,0.34611708,9.652821,3355.443;-0.53840435,0.19228727,9.075959,-0.15382981,1.1537236,9.075959,3388.9976;-0.53840435,0.19228727,9.075959,-0.8076065,0.07691491,9.306704,3388.9976;-0.53840435,0.19228727,10.191225,0.0,0.34611708,10.191225,3388.9976;-0.53840435,0.19228727,10.191225,-0.46148944,0.53840435,9.883566,3388.9976;-0.53840435,0.19228727,10.191225,-0.23074472,-0.38457453,9.345161,3422.552;-0.53840435,0.19228727,10.191225,-0.26920217,0.23074472,9.729735,3422.552;-0.53840435,0.19228727,10.191225,-1.1921811,0.6537767,9.306704,3422.552;-0.53840435,0.19228727,8.845214,-0.53840435,0.30765963,8.845214,3456.1064;-0.53840435,0.19228727,10.306598,-0.4999469,0.46148944,10.306598,3456.1064;-0.53840435,0.19228727,9.152874,-0.07691491,0.30765963,9.152874,3456.1064;-0.53840435,0.19228727,9.152874,-0.11537236,0.19228727,9.614364,3489.661;-0.53840435,0.19228727,9.152874,-1.1152661,0.11537236,9.306704,3489.661;-0.53840435,0.19228727,10.26814,-0.30765963,-0.11537236,10.26814,3489.661;-0.53840435,0.19228727,10.26814,-0.4999469,0.423032,10.152767,3489.661;-0.53840435,0.19228727,10.26814,-0.34611708,0.07691491,10.191225,3523.2153;-0.53840435,0.19228727,10.26814,0.34611708,-0.15382981,9.729735,3523.2153;-0.53840435,0.19228727,10.26814,0.07691491,0.34611708,9.268247,3523.2153;-0.53840435,0.19228727,10.26814,-0.69223416,0.19228727,9.383618,3556.7698;-0.53840435,0.19228727,10.26814,-0.69223416,0.19228727,9.575906,3556.7698;-0.53840435,0.19228727,10.26814,0.07691491,0.46148944,9.345161,3556.7698;-0.53840435,0.19228727,8.960587,-0.38457453,0.038457453,8.960587,3590.3242;-0.53840435,0.19228727,8.960587,-0.423032,0.423032,9.691278,3590.3242;-0.53840435,0.19228727,8.960587,-0.46148944,-0.11537236,8.768299,3590.3242;-0.53840435,0.19228727,8.960587,-0.5768618,-0.038457453,8.883672,3590.3242;-0.53840435,0.19228727,8.960587,-0.6537767,0.07691491,9.152874,3623.8787;-0.53840435,0.19228727,8.960587,-0.76914907,0.038457453,8.845214,3623.8787;-0.53840435,0.19228727,8.960587,0.0,0.846064,9.229789,3623.8787;-0.53840435,0.19228727,8.960587,-1.1537236,0.6537767,9.575906,3657.433;-0.53840435,0.19228727,8.960587,-0.23074472,0.11537236,8.922129,3657.433;-0.53840435,0.19228727,8.960587,0.11537236,-0.11537236,9.729735,3657.433;-0.53840435,0.19228727,8.960587,-0.61531925,-0.15382981,9.306704,3690.9875;-0.53840435,0.19228727,8.960587,-0.38457453,-0.30765963,9.537449,3690.9875;-0.53840435,0.19228727,8.960587,-0.26920217,-0.23074472,9.768193,3690.9875;-0.53840435,0.19228727,8.960587,-0.5768618,0.15382981,9.652821,3690.9875;-0.53840435,0.19228727,10.11431,-0.8076065,0.4999469,10.11431,3724.542;-0.53840435,0.19228727,10.11431,-0.15382981,-0.07691491,9.768193,3724.542;-0.53840435,0.19228727,10.11431,-0.30765963,-0.26920217,9.614364,3724.542;-0.53840435,0.19228727,8.537555,-1.1921811,0.038457453,8.537555,3758.0964;-0.53840435,0.19228727,9.922023,-1.2690959,0.38457453,9.922023,3758.0964;-0.53840435,0.19228727,9.922023,-0.34611708,-0.34611708,9.345161,3758.0964;-0.53840435,0.19228727,9.922023,-0.423032,0.5768618,9.729735,3791.651;-0.53840435,0.19228727,9.922023,-0.8845214,0.61531925,9.075959,3791.651;-0.53840435,0.19228727,9.922023,-0.46148944,0.19228727,9.614364,3791.651;-0.53840435,0.19228727,9.922023,0.038457453,-0.038457453,10.614257,3791.651;-0.53840435,0.19228727,9.922023,-0.5768618,-0.07691491,9.229789,3825.2053;-0.53840435,0.19228727,9.922023,-0.8076065,0.30765963,9.075959,3825.2053;-0.53840435,0.19228727,9.922023,-0.38457453,0.53840435,9.729735,3825.2053;-0.53840435,0.19228727,9.922023,0.0,-0.23074472,9.960481,3858.7598;-0.53840435,0.19228727,9.922023,-0.61531925,0.5768618,9.152874,3858.7598;-0.53840435,0.19228727,9.922023,-0.423032,0.07691491,9.345161,3858.7598;-0.53840435,0.19228727,9.922023,-0.69223416,-0.11537236,9.268247,3858.7598;-0.53840435,0.19228727,9.922023,-0.5768618,0.038457453,9.152874,3892.3142;-0.53840435,0.19228727,8.691384,-0.53840435,0.15382981,8.691384,3892.3142;-0.53840435,0.19228727,8.691384,-0.19228727,0.26920217,9.075959,3892.3142;-0.53840435,0.19228727,9.883566,0.038457453,-0.038457453,9.883566,3925.8687;-0.53840435,0.19228727,9.883566,-0.76914907,-0.30765963,8.883672,3925.8687;-0.53840435,0.19228727,9.883566,-0.61531925,-0.6537767,9.768193,3925.8687;-0.53840435,0.19228727,9.883566,0.15382981,-0.38457453,9.614364,3959.423;-0.53840435,0.19228727,8.61447,-0.8076065,-0.30765963,8.61447,3959.423;-0.53840435,0.19228727,8.61447,-0.4999469,0.34611708,9.268247,3959.423;-0.53840435,0.19228727,8.61447,-0.30765963,0.34611708,8.845214,3959.423;-0.53840435,0.19228727,8.61447,-0.76914907,0.19228727,9.614364,3992.9773;-0.53840435,0.19228727,8.61447,-0.19228727,0.46148944,9.114416,3992.9773;-0.53840435,0.19228727,8.61447,-0.6537767,-0.11537236,8.499097,3992.9773;-0.53840435,0.19228727,8.61447,-0.4999469,0.11537236,9.460533,4026.5317;-0.53840435,0.19228727,8.61447,-0.7306916,0.34611708,8.768299,4026.5317;-0.53840435,0.19228727,8.61447,-0.4999469,-0.26920217,8.922129,4026.5317;-0.53840435,0.19228727,8.61447,-0.423032,-0.69223416,9.383618,4060.0862;-0.53840435,0.19228727,8.61447,0.26920217,-0.38457453,9.460533,4060.0862;-0.53840435,0.19228727,8.61447,-0.46148944,1.0383513,9.575906,4060.0862;-0.53840435,0.19228727,8.61447,-0.53840435,0.19228727,8.729842,4060.0862;-0.53840435,0.19228727,8.61447,-0.46148944,0.07691491,9.345161,4093.6406;-0.53840435,0.19228727,8.61447,-0.07691491,0.038457453,9.268247,4093.6406;-0.53840435,0.19228727,8.61447,0.0,0.19228727,9.306704,4093.6406;-0.53840435,0.19228727,8.61447,0.26920217,0.07691491,9.614364,4127.1953;-0.53840435,0.19228727,8.61447,-0.26920217,-0.34611708,8.806757,4127.1953;-0.53840435,0.19228727,8.61447,-0.5768618,-0.6537767,9.191331,4127.1953;-0.53840435,0.19228727,10.0373955,-0.53840435,-0.69223416,10.0373955,4160.7495;-0.53840435,0.19228727,10.0373955,0.15382981,0.423032,9.422076,4160.7495;-0.53840435,0.19228727,10.0373955,-0.6537767,0.15382981,9.075959,4160.7495;-0.53840435,0.19228727,10.0373955,0.19228727,0.34611708,10.075852,4160.7495;-0.53840435,0.19228727,10.0373955,-0.11537236,0.61531925,9.075959,4194.304;-0.53840435,0.19228727,10.0373955,-0.9229789,-0.30765963,9.729735,4194.304;-0.53840435,0.19228727,10.0373955,-0.9229789,-0.07691491,9.498991,4194.304;-0.53840435,0.19228727,10.0373955,-1.1537236,-0.07691491,9.845108,4227.8584;-0.53840435,0.19228727,10.0373955,-0.07691491,0.61531925,9.883566,4227.8584;-0.53840435,0.19228727,10.0373955,-1.2690959,0.30765963,9.075959,4227.8584;-0.53840435,0.19228727,10.0373955,0.11537236,-0.34611708,10.075852,4261.413;-0.53840435,0.19228727,10.0373955,0.0,-0.11537236,9.845108,4261.413;-0.53840435,0.19228727,10.0373955,-0.11537236,0.34611708,9.575906,4261.413;-0.53840435,0.19228727,10.0373955,-0.69223416,-0.19228727,9.152874,4261.413;-0.53840435,0.19228727,8.883672,0.07691491,-0.07691491,8.883672,4294.9673;-0.53840435,0.19228727,8.883672,0.15382981,-0.15382981,9.691278,4294.9673;-0.53840435,0.19228727,8.883672,-0.8076065,0.30765963,9.268247,4294.9673;-0.53840435,0.19228727,8.883672,-0.26920217,-0.4999469,9.845108,4328.5215;-0.53840435,0.19228727,8.883672,-0.07691491,0.26920217,9.729735,4328.5215;-0.53840435,0.19228727,8.883672,-0.26920217,0.038457453,8.652927,4328.5215;-0.53840435,0.19228727,8.883672,-0.46148944,0.34611708,9.268247,4362.076;-0.53840435,0.19228727,8.883672,-0.5768618,0.0,8.845214,4362.076;-0.53840435,0.19228727,8.883672,-0.15382981,-0.07691491,8.922129,4362.076;-0.53840435,0.19228727,8.883672,-1.1152661,-0.4999469,9.191331,4362.076;-0.53840435,0.19228727,8.883672,-0.19228727,0.19228727,9.80665,4395.6304;-0.53840435,0.19228727,8.883672,-0.038457453,-0.19228727,9.691278,4395.6304;-0.53840435,0.19228727,8.883672,-0.61531925,-0.07691491,9.229789,4395.6304;-0.53840435,0.19228727,8.883672,0.0,0.038457453,9.037501,4429.185;-0.53840435,0.19228727,10.537342,-0.11537236,-0.11537236,10.537342,4429.185;-0.53840435,0.19228727,10.537342,-0.69223416,0.46148944,10.0373955,4429.185;-0.53840435,0.19228727,9.460533,-0.07691491,-0.26920217,9.460533,4429.185;-0.53840435,0.19228727,9.460533,-0.96143633,-0.34611708,9.80665,4462.7393;-0.53840435,0.19228727,9.460533,0.23074472,0.38457453,10.11431,4462.7393;-0.53840435,0.19228727,9.460533,-0.423032,-0.15382981,10.229683,4462.7393;-0.53840435,0.19228727,9.460533,-0.8845214,0.7306916,9.268247,4496.294;-0.53840435,0.19228727,9.460533,-0.26920217,-0.11537236,9.306704,4496.294;-0.53840435,0.19228727,9.460533,-0.7306916,0.69223416,9.268247,4496.294;-0.53840435,0.19228727,9.460533,-0.76914907,-0.038457453,8.883672,4529.848;-0.53840435,0.19228727,9.460533,-0.61531925,-0.26920217,9.575906,4529.848;-0.53840435,0.19228727,9.460533,-0.9229789,0.4999469,9.460533,4529.848;-0.53840435,0.19228727,8.191438,-0.69223416,0.11537236,8.191438,4529.848;-0.53840435,0.19228727,8.191438,-0.23074472,0.19228727,8.729842,4563.403;-0.53840435,0.19228727,9.652821,-0.38457453,0.7306916,9.652821,4563.403;-0.53840435,0.19228727,9.652821,-0.30765963,-0.038457453,9.845108,4563.403;-0.53840435,0.19228727,9.652821,-0.46148944,-0.07691491,9.768193,4596.957;-0.53840435,0.19228727,9.652821,-0.53840435,-0.26920217,10.152767,4596.957;-0.53840435,0.19228727,9.652821,0.19228727,0.30765963,9.80665,4596.957;-0.53840435,0.19228727,9.652821,-0.69223416,0.07691491,9.345161,4630.5117;-0.53840435,-1.0768087,9.652821,0.19228727,-1.0768087,9.80665,4630.5117;-0.53840435,-1.0768087,9.652821,-0.8076065,-0.46148944,9.80665,4630.5117;-0.53840435,0.34611708,9.652821,-0.34611708,0.34611708,9.614364,4630.5117;-0.53840435,0.34611708,8.345267,-0.69223416,-0.07691491,8.345267,4664.066;-0.53840435,0.34611708,9.691278,-0.61531925,-0.26920217,9.691278,4664.066;-0.53840435,0.34611708,9.691278,0.0,-0.19228727,9.460533,4664.066;-0.53840435,0.34611708,9.691278,-0.5768618,0.46148944,9.691278,4697.6206;-0.53840435,0.34611708,9.691278,-1.1537236,0.34611708,9.460533,4697.6206;-0.53840435,0.34611708,9.691278,-0.38457453,0.19228727,9.345161,4697.6206;-0.53840435,0.34611708,9.691278,-0.26920217,0.4999469,8.806757,4731.175;-0.53840435,0.34611708,8.499097,-0.19228727,0.0,8.499097,4731.175;-0.53840435,0.34611708,10.421969,-0.423032,0.61531925,10.421969,4731.175;-0.53840435,0.34611708,10.421969,-0.19228727,0.53840435,9.575906,4731.175;-0.53840435,0.34611708,8.691384,-0.19228727,-0.15382981,8.691384,4764.7295;-0.53840435,0.34611708,8.691384,-0.46148944,-0.30765963,9.614364,4764.7295;-0.53840435,0.34611708,8.691384,-0.30765963,0.6537767,9.575906,4764.7295;-0.53840435,0.34611708,8.691384,-0.23074472,0.11537236,9.075959,4798.2837;-0.53840435,0.34611708,8.691384,-0.07691491,-0.34611708,8.999044,4798.2837;-0.53840435,0.34611708,9.845108,-0.26920217,-0.19228727,9.845108,4798.2837;-0.53840435,0.34611708,9.845108,-0.19228727,-0.5768618,9.998938,4831.8384;-0.53840435,0.34611708,9.845108,-0.423032,-0.23074472,9.191331,4831.8384;-0.53840435,0.34611708,9.845108,0.07691491,-0.26920217,9.614364,4831.8384;-0.53840435,0.34611708,9.845108,-0.07691491,0.11537236,9.460533,4831.8384;-0.53840435,0.34611708,9.845108,-0.5768618,0.23074472,9.422076,4865.3926;-0.53840435,0.34611708,9.845108,-0.53840435,0.26920217,8.922129,4865.3926;-0.53840435,0.34611708,9.845108,-0.23074472,-0.30765963,9.691278,4865.3926;-0.53840435,0.34611708,9.845108,-0.7306916,0.423032,9.652821,4898.9473;-0.53840435,0.34611708,9.845108,-0.23074472,0.53840435,9.691278,4898.9473;-0.53840435,0.34611708,9.845108,-0.846064,0.34611708,8.922129,4898.9473;-0.53840435,0.34611708,9.845108,-0.34611708,-0.23074472,9.80665,4898.9473;-0.53840435,0.34611708,9.845108,-0.846064,0.5768618,8.845214,4932.5015;-0.53840435,0.34611708,8.46064,-0.5768618,0.26920217,8.46064,4932.5015;-0.53840435,0.34611708,10.537342,0.423032,0.23074472,10.537342,4932.5015;-0.53840435,0.34611708,10.537342,-0.19228727,0.4999469,9.768193,4966.056;-0.53840435,0.34611708,9.191331,-0.53840435,0.7306916,9.191331,4966.056;-0.53840435,0.34611708,9.191331,-0.423032,0.15382981,9.960481,4966.056;-0.53840435,0.34611708,9.191331,-0.038457453,0.30765963,9.114416,4999.6104;-0.53840435,0.34611708,9.191331,-0.46148944,-0.34611708,9.845108,4999.6104;-0.53840435,0.34611708,9.191331,-0.6537767,0.26920217,9.152874,4999.6104;-0.53840435,0.34611708,9.191331,-0.76914907,-0.15382981,9.306704,4999.6104;-0.53840435,0.34611708,9.191331,-0.26920217,-0.34611708,8.46064,5033.165;-0.53840435,0.34611708,9.191331,-0.6537767,-0.038457453,8.691384,5033.165;-0.53840435,0.34611708,10.229683,-0.46148944,-0.61531925,10.229683,5033.165;-0.53840435,0.34611708,8.576012,-0.53840435,0.423032,8.576012,5066.719;-0.53840435,0.34611708,9.652821,-1.0768087,0.23074472,9.652821,5066.719;-0.53840435,0.34611708,9.652821,-0.846064,-0.4999469,9.114416,5066.719;-0.53840435,0.34611708,9.652821,-0.23074472,-0.19228727,9.460533,5100.2734;-0.53840435,0.34611708,9.652821,-0.61531925,0.0,9.614364,5100.2734;-0.53840435,0.34611708,9.652821,-0.23074472,0.69223416,9.114416,5100.2734;-0.53840435,0.34611708,9.652821,-0.46148944,0.15382981,9.768193,5100.2734;-0.53840435,0.34611708,9.652821,-0.96143633,-0.07691491,9.998938,5133.828;-0.53840435,0.34611708,9.652821,-0.38457453,0.53840435,8.806757,5133.828;-0.53840435,0.34611708,9.652821,0.0,-0.07691491,9.768193,5167.3823;0.53840435,0.34611708,9.652821,0.53840435,0.30765963,9.306704,5167.3823;-0.4999469,0.34611708,9.652821,-0.4999469,0.07691491,9.306704,5167.3823;-0.4999469,0.34611708,9.652821,-0.34611708,0.23074472,9.306704,5200.937;-0.4999469,0.34611708,9.652821,0.11537236,0.038457453,9.537449,5200.937;-0.4999469,0.34611708,9.652821,-0.30765963,0.4999469,9.114416,5200.937;-0.4999469,0.34611708,9.652821,-0.4999469,0.038457453,9.306704,5200.937;-0.4999469,0.34611708,9.652821,-0.15382981,0.0,10.26814,5234.491;-0.4999469,0.34611708,8.499097,-0.7306916,0.38457453,8.499097,5234.491;-0.4999469,0.34611708,8.499097,-0.9229789,-0.23074472,8.2683525,5234.491;-0.4999469,0.34611708,8.499097,-0.96143633,-0.38457453,8.729842,5268.046;-0.4999469,0.34611708,8.499097,-0.6537767,0.38457453,8.960587,5268.046;-0.4999469,0.34611708,8.499097,-0.30765963,0.0,9.229789,5268.046;-0.4999469,0.34611708,8.499097,-0.8076065,0.07691491,9.114416,5301.6;-0.4999469,0.34611708,9.575906,0.0,0.46148944,9.575906,5301.6;-0.4999469,0.34611708,9.575906,-0.69223416,0.15382981,10.152767,5301.6;-0.4999469,0.34611708,9.575906,-0.30765963,0.19228727,8.999044,5301.6;-0.4999469,0.34611708,9.575906,-0.423032,-0.038457453,10.0373955,5335.155;-0.4999469,0.34611708,9.575906,-0.19228727,-0.26920217,10.191225,5335.155;-0.4999469,0.34611708,9.575906,-0.846064,-0.38457453,9.306704,5335.155;-0.4999469,0.34611708,9.575906,-0.34611708,-0.46148944,9.460533,5368.709;-0.4999469,0.34611708,10.7296295,0.038457453,-0.4999469,10.7296295,5368.709;-0.4999469,0.34611708,9.691278,-0.61531925,0.46148944,9.691278,5368.709;-0.4999469,0.34611708,9.691278,-0.5768618,0.07691491,9.306704,5368.709;-0.4999469,0.34611708,9.691278,-0.76914907,0.23074472,9.383618,5402.2637;-0.4999469,0.34611708,9.691278,0.30765963,0.11537236,9.80665,5402.2637;-0.4999469,0.34611708,9.691278,-1.2306385,-0.23074472,9.229789,5402.2637;-0.4999469,0.34611708,9.691278,-0.46148944,-0.15382981,9.537449,5435.818;-0.4999469,0.34611708,9.691278,-0.8076065,0.46148944,9.075959,5435.818;-0.4999469,0.34611708,9.691278,-0.69223416,0.15382981,8.883672,5435.818;-0.4999469,0.34611708,8.576012,-0.76914907,0.38457453,8.576012,5469.3726;-0.4999469,0.34611708,10.498885,0.07691491,0.53840435,10.498885,5469.3726;-0.4999469,0.34611708,10.498885,-0.30765963,-0.53840435,9.691278,5469.3726;-0.4999469,0.34611708,10.498885,-0.038457453,0.0,9.922023,5469.3726;-0.4999469,0.34611708,9.268247,0.11537236,-0.34611708,9.268247,5502.927;-0.4999469,0.34611708,9.268247,-0.26920217,0.11537236,8.845214,5502.927;-0.4999469,0.34611708,10.421969,-0.7306916,0.423032,10.421969,5502.927;-0.4999469,0.34611708,10.421969,-0.34611708,-0.038457453,9.537449,5536.4814;-0.4999469,0.34611708,10.421969,-0.15382981,-0.423032,10.3835125,5536.4814;-0.4999469,0.34611708,10.421969,-0.30765963,0.7306916,10.075852,5536.4814;-0.4999469,0.34611708,8.960587,-0.4999469,-0.11537236,8.960587,5570.0356;-0.4999469,0.34611708,8.960587,-0.19228727,-0.15382981,9.460533,5570.0356;-0.4999469,0.34611708,8.960587,-0.07691491,-0.23074472,9.037501,5570.0356;-0.4999469,0.34611708,8.960587,-0.7306916,0.34611708,9.80665,5570.0356;-0.4999469,0.34611708,8.960587,-0.46148944,0.38457453,8.883672,5603.5903;-0.4999469,0.34611708,10.075852,-0.423032,-0.07691491,10.075852,5603.5903;-0.4999469,0.34611708,8.729842,0.11537236,-0.038457453,8.729842,5603.5903;-0.4999469,0.34611708,8.729842,-0.5768618,0.15382981,9.037501,5637.1445;-0.4999469,0.34611708,10.3835125,-0.8076065,-0.07691491,10.3835125,5637.1445;-0.4999469,0.34611708,8.883672,-0.038457453,0.46148944,8.883672,5637.1445;-0.4999469,0.34611708,8.883672,-0.8076065,0.30765963,9.268247,5670.699;-0.4999469,0.34611708,8.883672,0.26920217,0.15382981,9.691278,5670.699;-0.4999469,0.34611708,9.922023,-0.23074472,0.38457453,9.922023,5670.699;-0.4999469,0.34611708,9.922023,-0.30765963,-0.4999469,9.345161,5670.699;-0.4999469,0.34611708,9.922023,-0.19228727,-0.30765963,9.960481,5704.2534;-0.4999469,0.34611708,9.922023,-0.15382981,-0.15382981,10.075852,5704.2534;-0.4999469,0.34611708,9.922023,-0.9229789,0.19228727,9.229789,5704.2534;-0.4999469,0.34611708,9.922023,-0.26920217,-0.15382981,9.229789,5737.808;-0.4999469,0.34611708,9.922023,-0.53840435,-0.038457453,10.0373955,5737.808;-0.4999469,0.34611708,9.922023,0.30765963,0.0,10.691172,5737.808;-0.4999469,0.34611708,8.383725,-0.7306916,0.7306916,8.383725,5771.3623;-0.4999469,0.34611708,8.383725,-0.7306916,0.38457453,9.306704,5771.3623;-0.4999469,0.34611708,8.383725,-0.19228727,-0.15382981,9.191331,5771.3623;-0.4999469,0.34611708,9.537449,-0.19228727,0.34611708,9.537449,5771.3623;-0.4999469,0.34611708,9.537449,-0.34611708,0.34611708,9.922023,5804.9165;-0.4999469,0.34611708,8.15298,-0.4999469,-0.07691491,8.15298,5804.9165;-0.4999469,0.34611708,10.537342,-0.19228727,1.0768087,10.537342,5804.9165;-0.4999469,0.34611708,9.268247,-0.34611708,-0.19228727,9.268247,5838.471;-0.4999469,0.34611708,9.268247,-0.9229789,-0.11537236,9.998938,5838.471;-0.4999469,0.34611708,9.268247,-0.423032,0.4999469,10.152767,5838.471;-0.4999469,0.34611708,9.268247,-0.07691491,0.19228727,9.191331,5872.0254;-0.4999469,0.34611708,9.268247,-0.69223416,0.07691491,9.345161,5872.0254;-0.4999469,0.34611708,9.268247,-0.15382981,0.19228727,9.614364,5872.0254;-0.4999469,0.34611708,9.268247,-0.07691491,-0.19228727,9.383618,5872.0254;-0.4999469,0.34611708,9.268247,-0.8845214,0.15382981,9.191331,5905.58;-0.4999469,0.34611708,9.268247,0.038457453,0.26920217,9.845108,5905.58;-0.4999469,0.34611708,9.268247,-0.6537767,-0.07691491,9.345161,5905.58;-0.4999469,0.34611708,9.268247,-0.34611708,0.038457453,9.075959,5939.1343;-0.4999469,0.34611708,9.268247,0.38457453,0.19228727,9.229789,5939.1343;-0.4999469,0.34611708,9.268247,-0.07691491,-0.423032,9.345161,5939.1343;-0.4999469,0.34611708,9.268247,-1.2306385,0.26920217,9.614364,5939.1343;-0.4999469,0.34611708,9.268247,-0.5768618,0.23074472,8.46064,5972.689;-0.4999469,0.34611708,9.268247,-0.4999469,0.53840435,8.960587,5972.689;-0.4999469,0.34611708,9.268247,-0.23074472,-0.26920217,9.422076,5972.689;-0.4999469,0.34611708,9.268247,0.07691491,0.07691491,9.498991,6006.243;-0.4999469,0.34611708,9.268247,-0.6537767,0.07691491,9.883566,6006.243;-0.4999469,0.34611708,9.268247,-0.30765963,-0.23074472,9.229789,6006.243;-0.4999469,0.34611708,11.268034,-0.7306916,0.0,11.268034,6039.798;-0.4999469,0.34611708,9.114416,-0.8845214,-0.15382981,9.114416,6039.798;-0.4999469,0.34611708,9.114416,0.07691491,0.038457453,10.0373955,6039.798;-0.4999469,0.34611708,9.114416,0.15382981,0.5768618,9.960481,6039.798;-0.4999469,0.34611708,9.114416,0.23074472,0.846064,9.114416,6073.352;-0.4999469,0.34611708,9.114416,-0.69223416,-0.07691491,8.922129,6073.352;-0.4999469,0.34611708,9.114416,0.07691491,0.038457453,9.037501,6073.352;-0.4999469,0.34611708,9.114416,-0.46148944,0.19228727,9.575906,6106.9067;-0.4999469,0.34611708,9.114416,-1.1152661,-0.07691491,9.114416,6106.9067;-0.4999469,0.34611708,9.114416,-1.1152661,0.23074472,9.191331,6106.9067;-0.4999469,0.34611708,9.114416,-0.19228727,0.07691491,9.075959,6140.461;-0.4999469,0.34611708,9.114416,-0.423032,0.26920217,9.191331,6140.461;-0.4999469,0.34611708,9.114416,-0.6537767,-0.5768618,8.883672,6140.461;-0.4999469,0.34611708,9.114416,0.0,0.23074472,9.768193,6140.461;-0.4999469,0.34611708,9.114416,-0.19228727,0.19228727,9.268247,6174.0156;-0.4999469,0.34611708,9.114416,-0.53840435,0.26920217,9.229789,6174.0156;-0.4999469,0.34611708,9.114416,-0.038457453,0.07691491,9.383618,6174.0156;-0.4999469,0.34611708,9.114416,-0.53840435,-0.038457453,8.960587,6207.57;-0.4999469,0.34611708,9.114416,-0.7306916,-0.11537236,9.306704,6207.57;-1.5767555,0.34611708,10.614257,-1.5767555,-0.38457453,10.614257,6207.57;-0.34611708,0.34611708,9.383618,-0.34611708,0.19228727,9.383618,6241.1245;-0.34611708,0.34611708,9.383618,-0.846064,0.15382981,9.345161,6241.1245;-0.34611708,0.34611708,9.383618,-0.6537767,-0.34611708,9.114416,6241.1245;-0.34611708,0.34611708,9.383618,0.038457453,-0.038457453,9.575906,6241.1245;-0.34611708,0.34611708,9.383618,0.423032,0.19228727,9.075959,6274.6787;-0.34611708,0.34611708,9.383618,-0.9229789,0.26920217,9.268247,6274.6787;-0.34611708,0.34611708,9.383618,-0.15382981,0.15382981,9.575906,6274.6787;-0.34611708,0.34611708,9.383618,-0.38457453,0.11537236,9.306704,6308.2334;-0.34611708,0.34611708,9.383618,-0.30765963,0.8076065,9.691278,6308.2334;-0.34611708,0.34611708,9.383618,-0.34611708,0.26920217,9.498991,6308.2334;-0.34611708,0.34611708,9.383618,-0.038457453,0.15382981,9.152874,6341.7876;-0.34611708,0.34611708,9.383618,-0.26920217,0.23074472,9.422076,6341.7876;-0.34611708,0.34611708,9.383618,-0.69223416,0.15382981,8.729842,6341.7876;-0.34611708,0.34611708,9.383618,-0.9998938,0.26920217,8.691384,6341.7876;-0.34611708,0.34611708,9.383618,0.26920217,0.6537767,10.11431,6375.3423;-0.34611708,0.34611708,9.383618,-0.423032,0.5768618,9.691278,6375.3423;-0.34611708,0.34611708,9.383618,-0.4999469,-0.038457453,8.922129,6375.3423;-0.34611708,0.34611708,9.383618,-0.07691491,0.23074472,8.960587,6408.8965;-0.34611708,0.34611708,9.383618,-0.76914907,0.15382981,9.614364,6408.8965;-0.34611708,0.34611708,9.383618,-0.30765963,-0.038457453,8.691384,6408.8965;-0.34611708,0.34611708,9.383618,-0.7306916,0.19228727,9.652821,6408.8965;-0.34611708,0.34611708,9.383618,-0.46148944,0.4999469,9.80665,6442.451;-0.34611708,0.34611708,9.383618,-0.15382981,-0.34611708,8.960587,6442.451;-0.34611708,0.34611708,9.383618,-0.46148944,-0.6537767,8.499097,6442.451;-0.34611708,0.34611708,9.383618,-0.11537236,0.038457453,9.152874,6476.0054;-0.34611708,0.34611708,9.383618,-0.61531925,0.34611708,9.345161,6476.0054;-0.34611708,0.34611708,9.383618,-0.8845214,-0.07691491,9.652821,6476.0054;-0.34611708,0.34611708,9.383618,-0.4999469,0.0,9.229789,6509.5596;-0.34611708,0.34611708,9.383618,-0.38457453,0.11537236,9.229789,6509.5596;-0.34611708,0.34611708,9.383618,-0.5768618,-0.07691491,9.537449,6509.5596;-0.34611708,0.34611708,9.383618,-1.1152661,0.0,8.691384,6509.5596;-0.34611708,0.34611708,9.383618,-0.846064,0.76914907,9.729735,6543.1143;-0.34611708,0.34611708,9.383618,-1.0768087,0.61531925,9.537449,6543.1143;-0.34611708,0.34611708,9.383618,-1.2690959,0.38457453,8.61447,6543.1143;-0.34611708,0.34611708,9.383618,0.19228727,-0.26920217,9.614364,6576.6685;-0.34611708,0.34611708,9.383618,-0.38457453,-0.15382981,9.922023,6576.6685;-0.34611708,0.34611708,9.383618,-0.46148944,0.53840435,10.11431,6576.6685;-0.34611708,0.34611708,9.383618,-0.61531925,0.423032,8.922129,6610.223;-0.34611708,0.34611708,9.383618,-0.26920217,-0.038457453,9.998938,6610.223;-0.34611708,0.34611708,9.383618,-0.4999469,-0.07691491,9.691278,6610.223;-0.34611708,0.34611708,9.383618,-0.423032,-0.38457453,9.729735,6610.223;-0.34611708,0.34611708,9.383618,-0.07691491,-0.07691491,9.383618,6643.7773;-0.34611708,0.34611708,9.383618,-0.6537767,0.0,9.883566,6643.7773;-0.34611708,0.34611708,9.383618,-0.26920217,-0.38457453,9.383618,6643.7773;-0.34611708,0.34611708,9.383618,-1.0383513,0.38457453,8.922129,6677.332;-0.34611708,0.34611708,9.383618,-0.38457453,0.038457453,9.537449,6677.332;-0.34611708,0.34611708,9.383618,-0.5768618,-0.07691491,9.345161,6677.332;-0.34611708,0.34611708,9.383618,-0.38457453,0.423032,9.268247,6710.886;-0.34611708,0.34611708,9.383618,-0.76914907,-0.4999469,9.075959,6710.886;-0.34611708,0.34611708,9.383618,-0.34611708,0.038457453,9.768193,6710.886;-0.34611708,0.34611708,9.383618,-0.423032,-0.26920217,9.191331,6710.886;-0.34611708,0.34611708,9.383618,-0.423032,-0.30765963,9.614364,6744.441;-0.34611708,0.34611708,9.383618,-0.15382981,0.11537236,9.537449,6744.441;-0.34611708,0.34611708,9.383618,-0.423032,0.76914907,9.229789,6744.441;-0.34611708,0.34611708,9.383618,-0.38457453,-0.038457453,9.383618,6777.995;-0.34611708,0.34611708,9.383618,-0.07691491,0.30765963,9.306704,6777.995;-0.34611708,0.34611708,9.383618,-0.038457453,0.11537236,9.306704,6777.995;-0.34611708,0.34611708,9.383618,0.038457453,0.423032,9.498991,6811.55;-0.34611708,0.34611708,9.383618,0.15382981,0.5768618,9.191331,6811.55;-0.34611708,0.34611708,9.383618,-0.6537767,-0.30765963,9.80665,6811.55;-0.34611708,0.34611708,9.383618,-0.23074472,0.07691491,8.960587,6811.55;-0.34611708,0.34611708,9.383618,-0.8845214,-0.15382981,9.691278,6845.104;-0.34611708,0.34611708,9.383618,-0.26920217,0.038457453,9.498991,6845.104;-0.34611708,0.34611708,9.383618,-0.46148944,-0.11537236,8.806757,6845.104;-0.34611708,0.34611708,9.383618,-0.53840435,-0.15382981,9.498991,6878.6587;-0.34611708,0.34611708,9.383618,-0.4999469,0.19228727,9.537449,6878.6587;-0.34611708,0.34611708,9.383618,-0.6537767,-0.038457453,9.998938,6878.6587;-0.34611708,0.34611708,9.383618,-0.53840435,-0.30765963,9.768193,6878.6587;-0.34611708,0.34611708,9.383618,-0.69223416,0.11537236,9.498991,6912.213;-0.34611708,0.34611708,9.383618,-0.9229789,-0.23074472,9.575906,6912.213;-0.34611708,0.34611708,9.383618,-0.423032,0.46148944,9.729735,6912.213;-0.34611708,0.34611708,9.383618,-0.26920217,0.423032,8.383725,6945.7676;-0.34611708,0.34611708,9.383618,-0.038457453,-0.38457453,9.229789,6945.7676;-0.34611708,0.34611708,9.383618,-0.11537236,0.76914907,10.0373955,6945.7676;-0.34611708,0.34611708,9.383618,-0.34611708,0.46148944,10.0373955,6979.322;-0.34611708,0.34611708,9.383618,-0.15382981,0.53840435,9.960481,6979.322;-0.34611708,0.34611708,9.383618,-0.26920217,-0.38457453,9.498991,6979.322;-0.34611708,0.34611708,9.383618,-0.69223416,-0.038457453,9.345161,6979.322;-0.34611708,0.34611708,9.383618,-0.53840435,0.61531925,9.075959,7012.8765;-0.34611708,0.34611708,9.383618,0.423032,-0.23074472,9.075959,7012.8765;-0.34611708,0.34611708,9.383618,-0.846064,-0.11537236,9.152874,7012.8765;-0.34611708,0.34611708,9.383618,-0.07691491,-0.26920217,9.306704,7046.4307;-0.34611708,0.34611708,9.383618,-0.30765963,0.038457453,8.845214,7046.4307;-0.34611708,0.34611708,9.383618,-0.53840435,0.4999469,9.229789,7046.4307;-0.34611708,0.34611708,9.383618,-0.5768618,0.038457453,8.883672,7079.9854;-0.34611708,0.34611708,9.383618,-0.69223416,-0.46148944,9.422076,7079.9854;-0.34611708,0.34611708,9.383618,0.19228727,-0.38457453,9.306704,7079.9854;-0.34611708,0.34611708,9.383618,-0.23074472,-0.30765963,9.691278,7079.9854;-0.34611708,0.34611708,9.383618,-0.9229789,0.15382981,9.845108,7113.5396;-0.34611708,0.34611708,9.383618,-0.30765963,-0.26920217,8.768299,7113.5396;-0.34611708,0.34611708,9.383618,-0.53840435,0.07691491,8.883672,7113.5396;-0.34611708,0.34611708,9.383618,-0.23074472,0.38457453,9.575906,7147.094;-0.34611708,0.34611708,9.383618,-0.76914907,-0.26920217,9.460533,7147.094;-0.34611708,0.34611708,9.383618,-0.423032,0.30765963,10.075852,7147.094;-0.34611708,0.34611708,9.383618,0.53840435,0.53840435,10.191225,7180.6484;-0.34611708,0.34611708,9.383618,-0.038457453,-0.26920217,9.037501,7180.6484;-0.34611708,0.34611708,9.383618,-0.38457453,0.30765963,9.537449,7180.6484;-0.34611708,0.34611708,9.383618,-0.23074472,-0.15382981,9.537449,7180.6484;-0.34611708,0.34611708,9.383618,-0.34611708,-0.23074472,9.383618,7214.2026;-0.34611708,0.34611708,9.383618,-0.07691491,-0.07691491,9.422076,7214.2026;-0.34611708,0.34611708,9.383618,0.5768618,0.53840435,10.345055,7214.2026;-0.34611708,0.34611708,9.383618,-0.26920217,0.34611708,8.768299,7247.7573;-0.34611708,0.34611708,9.383618,-0.61531925,-0.11537236,9.306704,7247.7573;-0.34611708,0.34611708,9.383618,-0.61531925,-0.15382981,9.614364,7247.7573;-0.34611708,0.34611708,9.383618,-0.15382981,0.38457453,9.537449,7281.3115;-0.34611708,0.34611708,9.383618,0.11537236,0.15382981,9.575906,7281.3115;-0.34611708,0.34611708,9.383618,-1.2306385,0.038457453,9.80665,7281.3115;-0.34611708,0.34611708,9.383618,-0.34611708,0.34611708,9.422076,7281.3115;-0.34611708,0.34611708,9.383618,-0.4999469,0.46148944,9.691278,7314.866;-0.34611708,0.34611708,9.383618,-0.5768618,0.38457453,9.422076,7314.866;-0.34611708,0.34611708,9.383618,-0.26920217,0.26920217,9.345161,7314.866;-0.34611708,0.34611708,9.383618,-0.19228727,-0.11537236,8.806757,7348.4204;-0.34611708,0.34611708,9.383618,-0.9229789,-0.07691491,9.768193,7348.4204;-0.34611708,0.34611708,9.383618,-0.07691491,-0.07691491,9.768193,7348.4204;-0.34611708,0.34611708,9.383618,-0.5768618,-0.19228727,9.691278,7381.975;-0.34611708,0.34611708,9.383618,-0.30765963,-0.19228727,9.037501,7381.975;-0.34611708,0.34611708,9.383618,-0.38457453,0.26920217,8.922129,7381.975;-0.34611708,0.34611708,9.383618,-0.11537236,0.846064,9.883566,7381.975;-0.34611708,0.34611708,9.383618,-0.23074472,0.26920217,9.729735,7415.5293;-0.34611708,0.34611708,9.383618,0.19228727,0.30765963,8.46064,7415.5293;-0.34611708,0.34611708,9.383618,-0.423032,-0.61531925,9.152874,7415.5293;-0.34611708,0.34611708,9.383618,-0.9229789,0.34611708,9.422076,7449.084;-0.34611708,0.34611708,9.383618,-0.5768618,0.34611708,9.306704,7449.084;-0.34611708,0.34611708,9.383618,-1.1537236,-0.26920217,8.537555,7449.084;-0.34611708,0.34611708,9.383618,-0.38457453,-0.15382981,9.229789,7449.084;-0.34611708,0.34611708,9.383618,-0.5768618,-0.11537236,9.691278,7482.638;-0.34611708,0.34611708,9.383618,-0.423032,-0.15382981,9.80665,7482.638;-0.34611708,0.34611708,9.383618,-0.038457453,0.38457453,9.768193,7482.638;-0.34611708,0.34611708,9.383618,-0.23074472,0.19228727,9.460533,7516.193;-0.34611708,0.34611708,9.383618,-0.4999469,0.423032,10.3835125,7516.193;-0.34611708,0.34611708,10.537342,-0.11537236,0.0,10.537342,7516.193;-0.34611708,0.34611708,10.537342,-0.15382981,0.26920217,10.152767,7549.747;-0.34611708,0.34611708,10.537342,0.0,0.38457453,9.537449,7549.747;-0.34611708,0.34611708,10.537342,-0.5768618,-0.423032,9.691278,7549.747;-0.34611708,0.34611708,10.537342,0.0,-0.19228727,9.729735,7549.747;-0.34611708,0.34611708,10.537342,-0.34611708,0.23074472,9.537449,7583.302;-0.34611708,0.34611708,9.152874,-0.423032,-0.11537236,9.152874,7583.302;-0.34611708,0.34611708,9.152874,-0.34611708,0.423032,9.422076,7583.302;-0.34611708,0.34611708,9.152874,-0.423032,0.4999469,9.229789,7616.856;-0.34611708,0.34611708,9.152874,0.0,0.423032,9.845108,7616.856;-0.34611708,0.34611708,9.152874,-0.23074472,0.26920217,9.114416,7616.856;-0.34611708,0.34611708,9.152874,-0.53840435,0.07691491,9.114416,7650.4106;-0.34611708,0.34611708,9.152874,-0.4999469,0.423032,9.768193,7650.4106;-0.34611708,0.34611708,9.152874,-0.61531925,0.30765963,9.345161,7650.4106;-0.34611708,0.34611708,9.152874,-0.61531925,-0.23074472,10.11431,7650.4106;-0.34611708,0.34611708,9.152874,0.38457453,-0.5768618,9.268247,7683.965;-0.34611708,0.34611708,9.152874,-0.15382981,0.26920217,9.422076,7683.965;-0.34611708,0.34611708,9.152874,-0.76914907,0.15382981,9.883566,7683.965;-0.34611708,0.34611708,9.152874,-0.19228727,0.0,9.345161,7717.5195;-0.34611708,0.34611708,9.152874,-0.038457453,-0.19228727,9.268247,7717.5195;-0.34611708,0.34611708,7.499203,0.11537236,-0.30765963,7.499203,7717.5195;-0.34611708,0.34611708,9.422076,-0.38457453,-0.53840435,9.422076,7751.0737;-0.34611708,0.34611708,9.422076,-0.11537236,-0.19228727,10.075852,7751.0737;-1.4998407,0.34611708,9.422076,-1.4998407,0.0,8.691384,7751.0737;-1.4998407,0.34611708,9.422076,-0.76914907,-0.4999469,9.691278,7751.0737;0.19228727,0.34611708,9.422076,0.19228727,-0.23074472,9.845108,7784.6284;0.19228727,0.34611708,9.422076,-0.8076065,0.15382981,9.498991,7784.6284;0.19228727,0.34611708,9.422076,-0.34611708,0.423032,9.229789,7784.6284;0.19228727,0.34611708,9.422076,-0.5768618,-0.15382981,9.345161,7818.1826;0.19228727,0.34611708,9.422076,-0.46148944,-0.34611708,9.691278,7818.1826;0.19228727,0.34611708,9.422076,0.07691491,0.61531925,9.498991,7818.1826;0.19228727,0.34611708,9.422076,-0.53840435,0.61531925,9.114416,7851.7373;0.19228727,0.34611708,9.422076,-0.53840435,0.5768618,10.152767,7851.7373;0.19228727,0.34611708,9.422076,-0.69223416,0.76914907,9.537449,7851.7373;0.19228727,0.34611708,8.30681,-0.69223416,0.38457453,8.30681,7851.7373;0.19228727,0.34611708,9.691278,-0.61531925,0.4999469,9.691278,7885.2915;0.19228727,0.34611708,9.691278,-0.69223416,0.4999469,9.883566,7885.2915;0.19228727,0.34611708,9.691278,-0.15382981,0.23074472,9.691278,7885.2915;0.19228727,0.34611708,9.691278,-0.34611708,0.038457453,9.729735,7918.846;0.19228727,0.34611708,9.691278,-0.038457453,-0.038457453,9.614364,7918.846;0.19228727,0.34611708,9.691278,-0.34611708,-0.6537767,9.460533,7918.846;0.19228727,0.34611708,9.691278,0.19228727,-0.07691491,9.268247,7918.846;0.19228727,0.34611708,9.691278,-0.11537236,-0.23074472,9.729735,7952.4004;0.19228727,0.34611708,9.691278,-0.038457453,-0.6537767,9.691278,7952.4004;0.19228727,0.34611708,9.691278,-0.53840435,0.53840435,9.191331,7952.4004;0.19228727,0.34611708,9.691278,0.11537236,-0.07691491,8.729842,7985.9546;0.19228727,0.34611708,9.691278,-0.19228727,-0.26920217,9.383618,7985.9546;0.19228727,0.34611708,8.61447,-0.19228727,-0.30765963,8.61447,7985.9546;-0.8845214,0.34611708,8.61447,-0.8845214,0.7306916,9.537449,8019.5093;-0.8845214,0.34611708,8.61447,-0.07691491,-0.15382981,9.422076,8019.5093;-2.038245,0.34611708,9.845108,-2.038245,0.15382981,9.845108,8019.5093;-0.07691491,0.34611708,9.845108,-0.07691491,0.34611708,9.498991,8019.5093;-0.07691491,0.34611708,9.845108,-0.23074472,-0.46148944,9.614364,8053.0635;-0.07691491,0.34611708,9.845108,0.0,-0.19228727,9.960481,8053.0635;-0.07691491,0.34611708,9.845108,-0.8076065,0.34611708,10.152767,8053.0635;-0.07691491,-0.7306916,9.845108,0.15382981,-0.7306916,9.614364,8086.618;-0.07691491,-0.7306916,9.845108,-0.38457453,0.19228727,9.383618,8086.618;-0.07691491,-0.7306916,9.845108,-0.4999469,0.07691491,9.075959,8086.618;-0.07691491,0.30765963,9.845108,0.038457453,0.30765963,9.229789,8120.1724;-0.07691491,0.30765963,9.845108,-0.7306916,-0.038457453,9.037501,8120.1724;-0.07691491,0.30765963,9.845108,0.11537236,-0.07691491,9.922023,8120.1724;-0.07691491,0.30765963,9.845108,-0.53840435,0.07691491,9.537449,8120.1724;-0.07691491,0.30765963,9.845108,-0.5768618,0.0,8.960587,8153.727;-0.07691491,0.30765963,9.845108,-0.38457453,-0.61531925,9.306704,8153.727;-0.07691491,0.30765963,9.845108,-0.8845214,0.6537767,9.075959,8153.727;-1.3844683,0.30765963,9.845108,-1.3844683,0.038457453,9.422076,8187.2813;0.11537236,0.30765963,9.845108,0.11537236,-0.46148944,9.114416,8187.2813;0.11537236,0.30765963,9.845108,0.0,0.0,9.498991,8187.2813;0.11537236,0.30765963,9.845108,-0.76914907,0.038457453,9.537449,8220.836;0.11537236,0.30765963,9.845108,-0.15382981,0.34611708,9.498991,8220.836;0.11537236,0.30765963,9.845108,0.11537236,0.0,9.883566,8220.836;0.11537236,0.30765963,9.845108,-0.46148944,-0.07691491,9.883566,8220.836;0.11537236,0.30765963,8.576012,-0.15382981,0.15382981,8.576012,8254.391;0.11537236,0.30765963,9.883566,-0.7306916,-0.6537767,9.883566,8254.391;0.11537236,0.30765963,9.883566,0.4999469,0.15382981,9.691278,8254.391;0.11537236,0.30765963,9.883566,-0.11537236,-0.19228727,9.729735,8287.944;0.11537236,0.30765963,9.883566,-0.69223416,0.19228727,9.729735,8287.944;0.11537236,0.30765963,9.883566,-0.07691491,0.34611708,9.037501,8287.944;0.11537236,0.30765963,9.883566,-0.4999469,0.11537236,9.345161,8321.499;0.11537236,0.30765963,9.883566,-0.23074472,0.30765963,9.422076,8321.499;0.11537236,0.30765963,9.883566,-0.19228727,0.11537236,9.306704,8321.499;0.11537236,0.30765963,9.883566,-0.19228727,-0.30765963,10.11431,8321.499;0.11537236,0.30765963,9.883566,-0.30765963,-0.038457453,9.306704,8355.054;0.11537236,0.30765963,9.883566,-0.46148944,-0.038457453,9.229789,8355.054;0.11537236,0.30765963,9.883566,-0.30765963,0.038457453,9.537449,8355.054;0.11537236,0.30765963,9.883566,0.26920217,0.76914907,9.960481,8388.608;-1.4998407,0.30765963,9.883566,-1.4998407,-0.30765963,9.345161,8388.608;-0.19228727,0.30765963,9.883566,-0.19228727,0.11537236,9.614364,8388.608;-0.19228727,0.30765963,9.883566,0.23074472,0.07691491,10.460427,8388.608;-0.19228727,0.30765963,9.883566,-0.5768618,0.11537236,9.345161,8422.162;-0.19228727,0.30765963,8.845214,0.0,-0.423032,8.845214,8422.162;-0.19228727,0.30765963,8.845214,-0.26920217,0.6537767,9.614364,8422.162;-0.19228727,0.30765963,10.0373955,-0.5768618,0.4999469,10.0373955,8455.717;-0.19228727,0.30765963,8.960587,0.11537236,-0.23074472,8.960587,8455.717;-0.19228727,0.30765963,8.960587,-0.53840435,-0.69223416,9.883566,8455.717;-0.19228727,0.30765963,10.229683,0.07691491,-0.38457453,10.229683,8489.271;-0.19228727,0.30765963,8.922129,-0.11537236,0.19228727,8.922129,8489.271;-0.19228727,0.30765963,8.922129,-0.23074472,0.11537236,9.345161,8489.271;-0.19228727,0.30765963,8.922129,-0.9998938,-0.53840435,8.999044,8489.271;-0.19228727,0.30765963,8.922129,-0.23074472,-0.038457453,9.152874,8522.826;-0.19228727,0.30765963,9.960481,-0.23074472,0.38457453,9.960481,8522.826;-0.19228727,0.30765963,9.960481,-0.038457453,0.07691491,9.075959,8522.826;-0.19228727,0.30765963,8.883672,-0.53840435,0.423032,8.883672,8556.38;-0.19228727,0.30765963,8.883672,-0.96143633,0.0,9.229789,8556.38;-0.19228727,-0.7306916,8.883672,0.038457453,-0.7306916,8.806757,8556.38;-0.19228727,0.6537767,8.883672,-0.11537236,0.6537767,8.883672,8589.935;-0.19228727,0.6537767,8.883672,0.19228727,0.26920217,9.114416,8589.935;-0.19228727,0.6537767,8.883672,-0.30765963,0.07691491,9.075959,8589.935;-0.19228727,0.6537767,8.883672,-0.19228727,0.34611708,9.460533,8589.935;-0.19228727,0.6537767,8.883672,0.038457453,-0.07691491,9.652821,8623.489;-0.19228727,0.6537767,8.883672,-0.15382981,0.26920217,9.883566,8623.489;-0.19228727,0.6537767,8.883672,-0.53840435,-0.23074472,9.575906,8623.489;-0.19228727,0.6537767,8.883672,0.07691491,0.0,9.268247,8657.043;-0.19228727,0.6537767,8.883672,-0.5768618,0.15382981,9.80665,8657.043;-0.19228727,-0.61531925,10.152767,-0.46148944,-0.61531925,10.152767,8657.043;-0.19228727,-0.61531925,10.152767,-0.423032,-0.23074472,9.498991,8690.598;-0.19228727,-0.61531925,10.152767,-0.26920217,0.11537236,10.26814,8690.598;-0.19228727,-0.61531925,8.922129,-0.53840435,0.038457453,8.922129,8690.598;-0.19228727,-0.61531925,10.075852,-0.61531925,0.30765963,10.075852,8690.598;-0.19228727,-0.61531925,10.075852,-0.76914907,0.26920217,10.191225,8724.152;-0.19228727,-0.61531925,8.999044,-0.30765963,-0.30765963,8.999044,8724.152;-0.19228727,-0.61531925,8.999044,-0.5768618,0.30765963,9.498991,8724.152;-0.19228727,-0.61531925,8.999044,-0.4999469,0.038457453,9.498991,8757.707;-0.19228727,-0.61531925,8.999044,-0.6537767,0.23074472,9.422076,8757.707;-0.19228727,0.53840435,8.999044,-0.7306916,0.53840435,9.114416,8757.707;-0.19228727,0.53840435,8.999044,-0.5768618,0.038457453,9.460533,8791.261;-0.19228727,0.53840435,8.999044,-0.61531925,-0.19228727,9.960481,8791.261;-0.19228727,0.53840435,8.999044,-0.9229789,-0.038457453,9.422076,8791.261;-0.19228727,0.53840435,8.999044,0.038457453,0.15382981,9.422076,8791.261;-0.19228727,0.53840435,8.999044,-0.34611708,0.11537236,9.075959,8824.815;-0.19228727,0.53840435,8.999044,-0.19228727,-0.07691491,9.575906,8824.815;-0.19228727,0.53840435,8.999044,0.26920217,0.038457453,9.075959,8824.815;-0.19228727,0.53840435,8.999044,-0.5768618,-0.34611708,9.152874,8858.37;-0.19228727,0.53840435,8.999044,0.23074472,0.46148944,9.537449,8858.37;-0.19228727,0.53840435,8.999044,-0.46148944,0.0,8.691384,8858.37;-0.19228727,0.53840435,8.999044,-0.11537236,0.30765963,9.883566,8891.925;-0.19228727,0.53840435,8.999044,-0.34611708,-0.423032,9.345161,8891.925;-0.19228727,0.53840435,8.999044,-0.7306916,0.8076065,9.383618,8891.925;-0.19228727,0.53840435,8.999044,-0.30765963,0.26920217,8.768299,8891.925;-0.19228727,0.53840435,8.999044,0.19228727,0.46148944,9.075959,8925.479;-0.19228727,0.53840435,8.999044,-0.423032,0.30765963,9.729735,8925.479;-0.19228727,0.53840435,8.999044,-0.53840435,-0.11537236,9.114416,8925.479;-0.19228727,0.53840435,8.999044,-0.5768618,-0.26920217,8.806757,8959.033;-0.19228727,0.53840435,8.999044,-0.7306916,-0.038457453,9.729735,8959.033;-0.19228727,0.53840435,8.999044,-0.53840435,0.6537767,9.075959,8959.033;-0.19228727,0.53840435,8.999044,-0.30765963,0.34611708,9.075959,8959.033;-0.19228727,0.53840435,8.999044,-0.19228727,-0.15382981,9.80665,8992.588;-0.19228727,0.53840435,8.999044,-0.19228727,0.19228727,9.691278,8992.588;-0.19228727,0.53840435,8.999044,-0.5768618,0.23074472,9.152874,8992.588;-0.19228727,0.53840435,8.999044,-0.23074472,0.30765963,9.80665,9026.143;-0.19228727,0.53840435,8.999044,0.0,-0.38457453,8.806757,9026.143;-0.19228727,0.53840435,10.998832,-0.7306916,-0.15382981,10.998832,9026.143;-0.19228727,-0.8076065,9.460533,-0.34611708,-0.8076065,9.460533,9059.696;-0.19228727,-0.8076065,9.460533,-0.38457453,-0.53840435,9.922023,9059.696;-0.19228727,-0.8076065,9.460533,0.38457453,-0.30765963,9.114416,9059.696;-0.19228727,-0.8076065,9.460533,-0.61531925,-0.038457453,9.037501,9059.696;-0.19228727,-0.8076065,9.460533,-1.0768087,0.11537236,9.691278,9093.251;-0.19228727,0.26920217,9.460533,-0.30765963,0.26920217,9.575906,9093.251;-0.19228727,0.26920217,9.460533,-0.38457453,0.038457453,9.575906,9093.251;-0.19228727,0.26920217,9.460533,-0.423032,0.46148944,9.575906,9126.806;-0.19228727,0.26920217,9.460533,0.23074472,0.26920217,9.80665,9126.806;-0.19228727,0.26920217,9.460533,-0.38457453,0.53840435,9.922023,9126.806;-0.19228727,0.26920217,9.460533,-0.76914907,0.26920217,9.80665,9160.36;-0.19228727,0.26920217,9.460533,-0.07691491,-0.26920217,9.998938,9160.36;-0.19228727,0.26920217,9.460533,0.11537236,0.423032,9.652821,9160.36;-0.19228727,0.26920217,9.460533,-0.19228727,0.19228727,9.383618,9160.36;-0.19228727,0.26920217,9.460533,-0.26920217,-0.11537236,9.075959,9193.914;-0.19228727,0.26920217,9.460533,-0.423032,0.26920217,9.498991,9193.914;-0.19228727,0.26920217,9.460533,0.038457453,-0.19228727,9.114416,9193.914;-0.19228727,0.26920217,9.460533,-0.15382981,0.34611708,9.191331,9227.469;-0.19228727,0.26920217,9.460533,-0.69223416,-0.15382981,9.575906,9227.469;-0.19228727,0.26920217,9.460533,0.07691491,-0.23074472,9.152874,9227.469;-0.19228727,0.26920217,9.460533,-0.26920217,0.07691491,9.075959,9261.023;-0.19228727,0.26920217,9.460533,-0.5768618,-0.19228727,9.114416,9261.023;-0.19228727,0.26920217,9.460533,-0.4999469,-0.07691491,10.152767,9261.023;-1.2690959,0.26920217,9.460533,-1.2690959,0.26920217,8.922129,9261.023;-1.2690959,0.26920217,9.460533,-0.38457453,-0.15382981,8.806757,9294.578;-1.2690959,0.26920217,9.460533,-0.6537767,-0.23074472,9.345161,9294.578;-1.2690959,0.26920217,9.460533,-0.8076065,-0.11537236,8.729842,9294.578;0.30765963,0.26920217,9.460533,0.30765963,0.07691491,9.498991,9328.132;0.30765963,0.26920217,9.460533,-0.46148944,-0.23074472,9.191331,9328.132;0.30765963,0.26920217,9.460533,-0.4999469,-0.53840435,9.652821,9328.132;-0.8845214,0.26920217,9.460533,-0.8845214,0.4999469,9.460533,9361.687;-0.8845214,0.26920217,9.460533,-0.69223416,0.7306916,9.191331,9361.687;-0.8845214,0.26920217,9.460533,0.11537236,-0.423032,9.998938,9361.687;0.15382981,0.26920217,9.460533,0.15382981,0.53840435,9.80665,9361.687;0.15382981,0.26920217,9.460533,-0.38457453,0.423032,9.691278,9395.241;0.15382981,0.26920217,9.460533,-0.11537236,-0.23074472,9.229789,9395.241;0.15382981,0.26920217,9.460533,-0.53840435,0.038457453,9.691278,9395.241;0.15382981,0.26920217,9.460533,-0.423032,0.46148944,9.614364,9428.795;0.15382981,0.26920217,9.460533,0.19228727,0.7306916,9.229789,9428.795;0.15382981,0.26920217,9.460533,-0.46148944,0.34611708,9.998938,9428.795;0.15382981,0.26920217,9.460533,-0.8076065,0.23074472,9.191331,9428.795;0.15382981,0.26920217,9.460533,-0.30765963,-0.038457453,9.268247,9462.35;0.15382981,0.26920217,9.460533,-0.038457453,0.15382981,8.845214,9462.35;0.15382981,0.26920217,9.460533,-0.38457453,0.38457453,9.960481,9462.35;0.15382981,0.26920217,9.460533,-0.6537767,0.8076065,9.191331,9495.904;0.15382981,0.26920217,9.460533,-0.69223416,-0.19228727,9.345161,9495.904;0.15382981,0.26920217,9.460533,-0.26920217,-0.11537236,9.422076,9495.904;0.15382981,0.26920217,9.460533,-0.423032,-0.6537767,9.345161,9529.459;0.15382981,0.26920217,9.460533,-0.46148944,0.30765963,9.383618,9529.459;0.15382981,0.26920217,9.460533,0.19228727,-0.11537236,8.61447,9529.459;-0.9998938,0.26920217,9.460533,-0.9998938,0.30765963,9.883566,9529.459;-0.9998938,0.26920217,9.460533,-0.34611708,0.0,8.691384,9563.013;-0.9998938,0.26920217,9.460533,-0.61531925,-0.69223416,9.768193,9563.013;0.26920217,0.26920217,9.460533,0.26920217,0.07691491,10.191225,9563.013;0.26920217,0.26920217,9.460533,0.30765963,0.11537236,9.883566,9596.567;0.26920217,0.26920217,9.460533,-0.7306916,0.0,9.306704,9596.567;0.26920217,0.26920217,9.460533,-0.34611708,0.038457453,9.268247,9596.567;0.26920217,0.26920217,9.460533,0.07691491,-0.53840435,9.191331,9630.122;-0.8845214,0.26920217,9.460533,-0.8845214,-0.19228727,9.306704,9630.122;0.23074472,0.26920217,9.460533,0.23074472,0.46148944,8.845214,9630.122;0.23074472,0.26920217,9.460533,-0.07691491,-0.30765963,8.922129,9630.122;-1.3075534,0.26920217,9.460533,-1.3075534,0.423032,9.191331,9663.677;-1.3075534,0.26920217,9.460533,-0.61531925,-0.23074472,8.46064,9663.677;-1.3075534,0.26920217,9.460533,-0.76914907,-0.30765963,9.229789,9663.677;-0.26920217,0.26920217,9.460533,-0.26920217,0.34611708,9.114416,9697.23;-0.26920217,0.26920217,9.460533,-0.4999469,0.5768618,9.729735,9697.23;-0.26920217,0.26920217,9.460533,-0.53840435,-0.26920217,8.960587,9697.23;-0.26920217,0.26920217,9.460533,-0.30765963,-0.26920217,9.575906,9730.785;-0.26920217,0.26920217,9.460533,-0.38457453,0.07691491,9.537449,9730.785;-0.26920217,0.26920217,9.460533,-0.19228727,0.07691491,9.960481,9730.785;-0.26920217,0.26920217,9.460533,-0.23074472,0.0,9.345161,9730.785;-0.26920217,0.26920217,9.460533,-0.4999469,0.8076065,9.768193,9764.34;-0.26920217,0.26920217,9.460533,-0.34611708,-0.5768618,9.729735,9764.34;-0.26920217,0.26920217,9.460533,-0.34611708,-0.53840435,9.422076,9764.34;-0.26920217,0.26920217,9.460533,0.15382981,-0.07691491,9.998938,9797.895;-0.26920217,0.26920217,9.460533,-0.69223416,-0.19228727,8.883672,9797.895;-0.26920217,0.26920217,9.460533,0.11537236,0.19228727,9.268247,9797.895;-0.26920217,0.26920217,9.460533,-0.4999469,0.46148944,9.191331,9831.448;-0.26920217,0.26920217,9.460533,-0.53840435,0.8076065,9.345161,9831.448;-0.26920217,0.26920217,9.460533,-0.8076065,0.46148944,9.729735,9831.448;-0.26920217,0.26920217,9.460533,-0.19228727,0.07691491,8.845214,9831.448;-0.26920217,0.26920217,9.460533,-0.11537236,0.9229789,9.883566,9865.003;-0.26920217,0.26920217,9.460533,-0.8845214,-0.07691491,8.61447,9865.003;-0.26920217,0.26920217,9.460533,-0.846064,-0.423032,9.114416,9865.003;-0.26920217,0.26920217,9.460533,-0.423032,0.26920217,10.152767,9898.558;-0.26920217,0.26920217,9.460533,-0.34611708,0.15382981,9.075959,9898.558;-0.26920217,0.26920217,9.460533,-0.38457453,0.19228727,9.037501,9898.558;-0.26920217,0.26920217,9.460533,-0.423032,0.0,9.268247,9932.112;-0.26920217,0.26920217,9.460533,0.0,-0.26920217,10.11431,9932.112;-0.26920217,0.26920217,9.460533,-0.30765963,0.46148944,9.383618,9932.112;-0.26920217,0.26920217,9.460533,-0.69223416,-0.423032,9.575906,9932.112;-0.26920217,0.26920217,9.460533,0.30765963,-0.15382981,9.614364,9965.666;-0.26920217,0.26920217,10.537342,0.0,0.76914907,10.537342,9965.666;-0.26920217,0.26920217,9.229789,-0.07691491,-0.46148944,9.229789,9965.666;-0.26920217,0.26920217,9.229789,-0.15382981,-0.34611708,8.806757,9999.221;-0.26920217,0.26920217,9.229789,0.19228727,-0.11537236,9.883566,9999.221;-1.4229257,-0.8076065,9.229789,-1.4229257,-0.8076065,9.306704,9999.221;-0.34611708,-0.8076065,9.229789,-0.34611708,0.07691491,9.422076,9999.221;-0.34611708,0.23074472,9.229789,-0.15382981,0.23074472,9.729735,10032.775;-0.34611708,0.23074472,9.229789,-0.9229789,-0.11537236,9.114416,10032.775;-0.34611708,0.23074472,9.229789,-0.423032,-0.30765963,9.498991,10032.775;-0.34611708,0.23074472,9.229789,-0.423032,0.5768618,10.0373955,10066.33;-0.34611708,0.23074472,9.229789,-0.53840435,0.5768618,9.460533,10066.33;-0.34611708,0.23074472,9.229789,-0.61531925,0.4999469,8.729842,10066.33;-0.34611708,0.23074472,9.229789,-0.07691491,0.038457453,9.614364,10099.884;-0.34611708,0.23074472,9.229789,-0.07691491,0.423032,9.768193,10099.884;-0.34611708,0.23074472,9.229789,-0.7306916,0.19228727,9.152874,10099.884;-0.34611708,0.23074472,9.229789,-0.8076065,-0.15382981,9.268247,10099.884;-0.34611708,0.23074472,9.229789,-0.423032,-0.5768618,9.306704,10133.438;-0.34611708,0.23074472,9.229789,-0.46148944,-0.423032,9.960481,10133.438;-0.34611708,0.23074472,9.229789,-0.4999469,0.26920217,9.152874,10133.438;-0.34611708,0.23074472,9.229789,-0.26920217,-0.07691491,9.729735,10166.993;-0.34611708,0.23074472,9.229789,-0.423032,-0.34611708,9.383618,10166.993;-0.34611708,0.23074472,9.229789,-0.69223416,0.038457453,8.499097,10166.993;-0.34611708,0.23074472,9.229789,-0.38457453,0.30765963,9.80665,10200.547;-0.34611708,0.23074472,9.229789,-0.07691491,0.15382981,9.883566,10200.547;-0.34611708,0.23074472,9.229789,-0.7306916,0.30765963,9.768193,10200.547;-0.34611708,0.23074472,9.229789,-0.5768618,-0.11537236,9.537449,10200.547;-0.34611708,0.23074472,9.229789,-0.26920217,-0.07691491,10.0373955,10234.102;-0.34611708,0.23074472,9.229789,-0.30765963,-0.4999469,9.883566,10234.102;-0.34611708,0.23074472,9.229789,-0.69223416,0.15382981,9.691278,10234.102;-0.34611708,0.23074472,9.229789,-0.30765963,0.30765963,8.999044,10267.656;-0.34611708,0.23074472,10.306598,0.0,0.07691491,10.306598,10267.656;-0.34611708,0.23074472,10.306598,-0.38457453,0.423032,9.575906,10267.656;-0.34611708,0.23074472,9.075959,-1.1537236,0.46148944,9.075959,10301.211;-0.34611708,0.23074472,9.075959,-0.07691491,-0.11537236,9.729735,10301.211;-0.34611708,0.23074472,9.075959,0.38457453,0.69223416,9.268247,10301.211;-0.34611708,0.23074472,9.075959,-0.07691491,-0.38457453,9.229789,10301.211;-0.34611708,0.23074472,9.075959,-0.5768618,-0.26920217,8.768299,10334.765;-0.34611708,0.23074472,9.075959,0.07691491,-0.07691491,9.268247,10334.765;-0.34611708,0.23074472,9.075959,-0.7306916,-0.38457453,9.768193,10334.765;-0.34611708,0.23074472,9.075959,0.038457453,-0.038457453,9.345161,10368.319;-0.34611708,0.23074472,9.075959,-0.4999469,-0.07691491,9.729735,10368.319;-0.34611708,0.23074472,9.075959,0.07691491,-0.5768618,8.729842,10368.319;-0.34611708,0.23074472,9.075959,-0.5768618,0.15382981,8.729842,10401.874;-0.34611708,0.23074472,9.075959,-0.07691491,-0.38457453,8.806757,10401.874;-0.34611708,0.23074472,9.075959,-0.11537236,0.19228727,9.191331,10401.874;-0.34611708,0.23074472,9.075959,-0.76914907,0.15382981,9.575906,10401.874;-0.34611708,0.23074472,9.075959,-0.15382981,0.7306916,9.306704,10435.429;-0.34611708,0.23074472,10.3835125,-0.423032,0.26920217,10.3835125,10435.429;-0.34611708,0.23074472,10.3835125,-0.46148944,0.07691491,9.498991,10435.429;-0.34611708,0.23074472,10.3835125,-0.46148944,0.23074472,9.498991,10468.982;-0.34611708,0.23074472,10.3835125,-0.19228727,-0.26920217,9.460533,10468.982;-0.34611708,0.23074472,10.3835125,-0.11537236,0.038457453,10.421969,10468.982;-0.34611708,0.23074472,10.3835125,-0.11537236,0.423032,10.152767,10468.982;-0.34611708,0.23074472,10.3835125,-0.19228727,-0.15382981,9.691278,10502.537;-0.34611708,0.23074472,10.3835125,-0.34611708,0.11537236,10.537342,10502.537;-0.34611708,0.23074472,9.229789,0.26920217,0.46148944,9.229789,10502.537;-0.34611708,0.23074472,9.229789,-0.423032,0.23074472,9.998938,10536.092;-0.34611708,0.23074472,9.229789,-0.423032,0.19228727,9.152874,10536.092;-0.34611708,0.23074472,10.26814,-0.46148944,0.07691491,10.26814,10536.092;-0.34611708,0.23074472,9.075959,-0.07691491,-0.34611708,9.075959,10569.646;-0.34611708,0.23074472,9.075959,-0.4999469,-0.07691491,9.422076,10569.646;-0.34611708,0.23074472,9.075959,0.038457453,-0.07691491,9.922023,10569.646;-0.34611708,0.23074472,9.075959,-1.2690959,0.53840435,9.152874,10569.646;-0.34611708,0.23074472,9.075959,-0.7306916,-0.69223416,8.845214,10603.2;-0.34611708,0.23074472,9.075959,-0.61531925,-0.26920217,9.460533,10603.2;-0.34611708,0.23074472,9.075959,-0.6537767,-0.46148944,9.037501,10603.2;-0.34611708,0.23074472,9.075959,-0.38457453,0.30765963,9.345161,10636.755;-0.34611708,0.23074472,9.075959,-0.61531925,0.61531925,9.383618,10636.755;-0.34611708,0.23074472,10.11431,-0.423032,0.19228727,10.11431,10636.755;-0.34611708,0.23074472,8.999044,-0.8076065,0.6537767,8.999044,10670.31;-0.34611708,0.23074472,8.999044,-0.38457453,0.38457453,9.306704,10670.31;-0.34611708,0.23074472,8.999044,-0.7306916,-0.23074472,9.383618,10670.31;-0.34611708,0.23074472,10.152767,-0.038457453,0.0,10.152767,10670.31;-0.34611708,0.23074472,10.152767,0.0,0.38457453,9.614364,10703.864;-0.34611708,0.23074472,9.037501,-0.19228727,-0.23074472,9.037501,10703.864;-0.34611708,0.23074472,9.037501,-0.8076065,-0.07691491,10.0373955,10703.864;-0.34611708,0.23074472,9.037501,-0.46148944,0.23074472,8.768299,10737.418;-0.34611708,0.23074472,9.037501,-0.46148944,-0.15382981,8.691384,10737.418;-0.34611708,0.23074472,9.037501,-0.30765963,0.34611708,9.422076,10737.418;-0.34611708,0.23074472,9.037501,-0.038457453,0.46148944,9.037501,10770.973;-0.34611708,0.23074472,9.037501,-0.7306916,-0.23074472,9.229789,10770.973;-0.34611708,0.23074472,9.037501,-0.34611708,-0.46148944,9.345161,10770.973;-0.34611708,0.23074472,9.037501,0.34611708,0.19228727,9.498991,10770.973;-0.34611708,0.23074472,9.037501,-0.46148944,0.15382981,9.306704,10804.527;-0.34611708,0.23074472,9.037501,-0.61531925,0.38457453,9.575906,10804.527;-0.34611708,0.23074472,9.037501,-1.0768087,-0.07691491,9.80665,10804.527;-0.34611708,0.23074472,9.037501,-0.6537767,-0.23074472,9.998938,10838.081;-0.34611708,0.23074472,9.037501,-0.38457453,-0.11537236,9.191331,10838.081;-0.34611708,0.23074472,9.037501,0.34611708,-0.30765963,9.960481,10838.081;-0.34611708,0.23074472,9.037501,0.038457453,-0.07691491,9.845108,10871.636;-0.34611708,0.23074472,9.037501,-0.38457453,0.23074472,9.191331,10871.636;-0.34611708,0.23074472,9.037501,-0.19228727,-0.7306916,9.422076,10871.636;-0.34611708,0.23074472,9.037501,-0.30765963,-0.15382981,9.845108,10871.636;-0.34611708,0.23074472,9.037501,0.23074472,-0.11537236,9.883566,10905.19;-0.34611708,0.23074472,9.037501,-0.4999469,0.30765963,9.460533,10905.19;-0.34611708,0.23074472,9.037501,-0.19228727,0.30765963,8.960587,10905.19;-0.34611708,0.23074472,9.037501,-0.038457453,-0.19228727,9.691278,10938.745;-0.34611708,0.23074472,9.037501,-0.69223416,0.19228727,9.537449,10938.745;-0.34611708,0.23074472,9.037501,-0.9998938,-0.423032,8.922129,10938.745;-0.34611708,0.23074472,9.037501,0.11537236,-0.07691491,9.460533,10938.745;-0.34611708,0.23074472,9.037501,-0.4999469,0.19228727,9.191331,10972.299;-0.34611708,0.23074472,9.037501,-0.7306916,-0.19228727,8.922129,10972.299;-0.34611708,0.23074472,10.229683,-0.5768618,0.30765963,10.229683,11005.854;-0.34611708,0.23074472,9.152874,-0.8076065,0.34611708,9.152874,11005.854;-0.34611708,0.23074472,9.152874,-0.423032,0.11537236,9.383618,11039.408;-0.34611708,0.23074472,9.152874,-0.76914907,0.0,9.306704,11039.408;-0.34611708,0.23074472,9.152874,-0.423032,-0.11537236,9.460533,11039.408;-0.34611708,0.23074472,9.152874,0.11537236,0.038457453,9.498991,11039.408;-0.34611708,0.23074472,9.152874,0.46148944,-0.26920217,9.575906,11072.963;-0.34611708,0.23074472,9.152874,-0.34611708,0.76914907,9.229789,11072.963;-0.34611708,0.23074472,9.152874,-1.0383513,-0.4999469,9.80665,11072.963;-0.34611708,0.23074472,9.152874,-0.038457453,-0.15382981,9.575906,11106.517;-0.34611708,0.23074472,9.152874,-0.423032,0.0,8.768299,11106.517;-0.34611708,0.23074472,9.152874,-0.30765963,0.11537236,9.383618,11106.517;-0.34611708,0.23074472,9.152874,-0.11537236,0.30765963,8.61447,11140.071;-0.34611708,0.23074472,9.152874,0.0,0.15382981,9.306704,11140.071;-0.34611708,0.23074472,9.152874,-0.34611708,-0.038457453,8.30681,11140.071;-0.34611708,0.23074472,9.152874,-0.34611708,-0.38457453,8.999044,11140.071;-0.34611708,0.23074472,9.152874,-0.30765963,0.15382981,9.268247,11173.626;-0.34611708,0.23074472,9.152874,-0.53840435,0.34611708,8.422182,11173.626;-0.34611708,0.23074472,9.152874,-0.38457453,0.69223416,9.383618,11173.626;-0.34611708,0.23074472,9.152874,-0.11537236,0.11537236,9.960481,11207.181;-0.34611708,0.23074472,9.152874,-0.4999469,0.5768618,9.922023,11207.181;-0.34611708,0.23074472,9.152874,-0.6537767,-0.15382981,9.383618,11207.181;-0.34611708,0.23074472,9.152874,0.038457453,-0.38457453,9.768193,11240.734;-0.34611708,0.23074472,9.152874,0.19228727,-0.19228727,9.691278,11240.734;-0.34611708,0.23074472,10.537342,-0.11537236,0.423032,10.537342,11240.734;-0.34611708,0.23074472,10.537342,-0.61531925,0.15382981,9.575906,11240.734;-0.34611708,0.23074472,10.537342,-0.53840435,0.38457453,9.768193,11274.289;-0.34611708,0.23074472,10.537342,-0.8076065,0.23074472,10.5758,11274.289;-0.34611708,0.23074472,8.999044,-0.53840435,-0.34611708,8.999044,11274.289;-0.34611708,0.23074472,8.999044,-0.61531925,-0.15382981,9.152874,11307.844;-0.34611708,0.23074472,8.999044,-0.61531925,-0.26920217,9.960481,11307.844;-0.34611708,0.23074472,8.999044,0.19228727,0.15382981,8.922129,11307.844;-0.34611708,0.23074472,8.999044,-0.26920217,0.30765963,9.614364,11341.398;-0.34611708,0.23074472,8.999044,-0.26920217,-0.038457453,9.075959,11341.398;-0.34611708,0.23074472,8.999044,-0.30765963,0.038457453,9.845108,11341.398;-0.34611708,0.23074472,8.999044,-0.846064,0.15382981,8.61447,11341.398;-0.34611708,0.23074472,8.999044,-0.38457453,-0.19228727,9.883566,11374.952;-0.34611708,0.23074472,8.999044,-0.8076065,0.11537236,9.652821,11374.952;-0.34611708,0.23074472,8.999044,-0.4999469,0.30765963,8.883672,11374.952;-0.34611708,0.23074472,8.999044,-0.038457453,0.23074472,9.80665,11408.507;-0.34611708,0.23074472,10.0373955,0.15382981,0.07691491,10.0373955,11408.507;-0.34611708,0.23074472,8.999044,-0.5768618,-0.15382981,8.999044,11408.507;-0.34611708,0.23074472,8.999044,-0.9998938,-0.11537236,9.191331,11442.062;-0.34611708,0.23074472,8.999044,-0.4999469,0.038457453,9.422076,11442.062;-0.34611708,0.23074472,8.999044,-0.34611708,0.15382981,8.729842,11442.062;-0.34611708,-0.8076065,8.999044,-0.8076065,-0.8076065,8.806757,11442.062;-0.34611708,-0.8076065,8.999044,0.0,-0.11537236,9.229789,11475.616;-0.34611708,0.26920217,8.999044,0.11537236,0.26920217,9.729735,11475.616;-0.34611708,0.26920217,8.999044,-0.15382981,0.38457453,8.768299,11475.616;-0.34611708,0.26920217,8.999044,-0.61531925,-0.46148944,8.768299,11509.17;-0.34611708,0.26920217,8.999044,-0.6537767,0.26920217,9.229789,11509.17;-0.34611708,0.26920217,8.999044,-0.6537767,-0.30765963,9.345161,11509.17;-0.34611708,0.26920217,8.999044,-0.30765963,0.26920217,9.998938,11509.17;-0.34611708,0.26920217,8.999044,-0.61531925,0.19228727,9.460533,11542.725;-0.34611708,0.26920217,10.0373955,-0.19228727,0.4999469,10.0373955,11542.725;-0.34611708,0.26920217,10.0373955,-0.46148944,0.34611708,9.575906,11542.725;-0.34611708,0.26920217,8.537555,-0.9229789,-0.07691491,8.537555,11576.279;-0.34611708,0.26920217,10.229683,-0.19228727,-0.11537236,10.229683,11576.279;-0.34611708,0.26920217,10.229683,-0.76914907,0.19228727,9.845108,11576.279;-0.34611708,0.26920217,10.229683,-0.30765963,0.4999469,9.229789,11609.833;-0.34611708,0.26920217,10.229683,-0.69223416,-0.15382981,9.383618,11609.833;-0.34611708,0.26920217,9.191331,-0.30765963,0.34611708,9.191331,11609.833;-0.34611708,0.26920217,9.191331,-0.846064,-0.30765963,9.614364,11609.833;-0.34611708,0.26920217,9.191331,-0.30765963,0.0,9.268247,11643.388;-0.34611708,0.26920217,9.191331,-0.53840435,-0.038457453,9.922023,11643.388;-0.34611708,0.26920217,9.191331,-0.26920217,0.15382981,9.345161,11643.388;-0.34611708,0.26920217,9.191331,-0.26920217,0.038457453,9.075959,11676.942;-0.34611708,0.26920217,9.191331,0.07691491,0.0,9.498991,11676.942;-0.34611708,0.26920217,9.191331,0.26920217,-0.23074472,9.768193,11676.942;-0.34611708,0.26920217,9.191331,-0.76914907,0.15382981,10.075852,11710.497;-0.34611708,0.26920217,9.191331,-0.7306916,-0.038457453,9.345161,11710.497;-0.34611708,0.26920217,9.191331,-0.38457453,0.38457453,8.999044,11710.497;-0.34611708,0.26920217,9.191331,-0.76914907,-0.15382981,8.576012,11710.497;-0.34611708,0.26920217,9.191331,-0.26920217,0.423032,9.768193,11744.051;-0.34611708,0.26920217,9.191331,-0.53840435,-0.26920217,9.075959,11744.051;-0.34611708,0.26920217,9.191331,-0.30765963,0.07691491,9.422076,11744.051;-0.34611708,0.26920217,9.191331,-0.5768618,-0.15382981,9.460533,11777.605;-0.34611708,0.26920217,9.191331,-0.26920217,-0.23074472,9.422076,11777.605;-0.34611708,0.26920217,9.191331,-0.07691491,0.8076065,9.80665,11777.605;-0.34611708,0.26920217,9.191331,-0.846064,0.4999469,9.768193,11811.16;-0.34611708,0.26920217,9.191331,-0.38457453,-0.038457453,8.806757,11811.16;-0.34611708,0.26920217,9.191331,0.19228727,0.423032,9.768193,11811.16;-0.34611708,0.26920217,9.191331,-0.07691491,0.30765963,9.422076,11811.16;-0.34611708,0.26920217,9.191331,-0.423032,0.23074472,9.422076,11844.715;-0.34611708,0.26920217,9.191331,-0.23074472,0.07691491,9.114416,11844.715;-0.34611708,0.26920217,9.191331,0.11537236,0.038457453,9.575906,11844.715;-0.34611708,0.26920217,9.191331,-0.423032,-0.038457453,9.345161,11878.269;-0.34611708,0.26920217,9.191331,-0.30765963,-0.038457453,9.575906,11878.269;-0.34611708,0.26920217,9.191331,-0.38457453,-0.423032,9.575906,11878.269;-0.34611708,0.26920217,9.191331,-0.11537236,0.8076065,8.576012,11911.823;-0.34611708,0.26920217,9.191331,-0.76914907,-0.038457453,9.537449,11911.823;-0.34611708,0.26920217,9.191331,0.0,0.23074472,9.422076,11911.823;-0.34611708,0.26920217,9.191331,-1.0768087,-0.15382981,9.883566,11911.823;-0.34611708,0.26920217,9.191331,-0.96143633,0.23074472,9.575906,11945.378;-0.34611708,0.26920217,9.191331,-1.0768087,0.5768618,9.498991,11945.378;-0.34611708,0.26920217,9.191331,-0.34611708,0.53840435,10.0373955,11945.378;-0.34611708,0.26920217,9.191331,-0.69223416,0.38457453,10.191225,11978.933;-0.34611708,0.26920217,9.191331,-0.7306916,0.76914907,8.922129,11978.933;-0.34611708,0.26920217,9.191331,0.26920217,-0.26920217,9.614364,11978.933;-0.34611708,0.26920217,9.191331,0.30765963,-0.38457453,8.883672,11978.933;-0.34611708,0.26920217,9.191331,0.07691491,-0.07691491,8.922129,12012.486;-0.34611708,0.26920217,9.191331,-0.23074472,0.7306916,9.845108,12012.486;-0.34611708,0.26920217,9.191331,-0.6537767,0.15382981,9.614364,12012.486;-0.34611708,0.26920217,9.191331,-0.5768618,0.26920217,9.80665,12046.041;-0.34611708,0.26920217,9.191331,-0.30765963,0.11537236,9.229789,12046.041;-0.34611708,0.26920217,9.191331,0.34611708,-0.423032,9.345161,12046.041;-0.34611708,0.26920217,9.191331,0.26920217,-0.23074472,9.652821,12079.596;-0.34611708,0.26920217,9.191331,-0.6537767,0.23074472,9.345161,12079.596;-0.34611708,0.26920217,9.191331,-0.61531925,-0.19228727,8.652927,12079.596;-0.34611708,0.26920217,9.191331,-0.423032,-0.15382981,9.268247,12079.596;-0.34611708,0.26920217,9.191331,-0.30765963,0.30765963,8.999044,12113.15;-0.34611708,0.26920217,9.191331,-0.46148944,-0.15382981,9.229789,12113.15;-0.34611708,0.26920217,9.191331,-1.1152661,-0.69223416,8.729842,12113.15;-0.34611708,0.26920217,9.191331,-0.846064,-0.11537236,9.998938,12146.704;-0.34611708,0.26920217,9.191331,-0.38457453,0.19228727,9.422076,12146.704;-0.34611708,0.26920217,9.191331,-0.23074472,0.26920217,10.11431,12146.704;-0.34611708,0.26920217,9.191331,0.30765963,0.53840435,9.691278,12180.259;-0.34611708,0.26920217,9.191331,-0.34611708,0.38457453,9.460533,12180.259;-0.34611708,0.26920217,9.191331,-0.846064,-0.423032,9.575906,12180.259;-0.34611708,0.26920217,9.191331,-0.19228727,-0.34611708,9.729735,12180.259;-0.34611708,0.26920217,9.191331,0.19228727,0.23074472,9.422076,12213.813;-0.34611708,0.26920217,9.191331,-1.1921811,0.34611708,9.152874,12213.813;-0.34611708,0.26920217,9.191331,0.07691491,-0.11537236,8.691384,12213.813;-0.34611708,0.26920217,9.191331,-0.19228727,0.07691491,9.229789,12247.368;-0.34611708,0.26920217,9.191331,-0.8845214,-0.038457453,8.999044,12247.368;-0.34611708,0.26920217,9.191331,-0.34611708,0.0,9.383618,12280.922;-0.34611708,0.26920217,9.191331,-0.423032,0.34611708,9.075959,12280.922;-0.34611708,0.26920217,9.191331,-0.846064,0.7306916,9.729735,12280.922;-0.34611708,0.26920217,9.191331,-0.8845214,-0.34611708,9.306704,12280.922;-0.34611708,0.26920217,9.191331,-0.423032,0.07691491,9.80665,12314.477;-0.34611708,0.26920217,9.191331,-0.69223416,0.46148944,9.306704,12314.477;-0.34611708,0.26920217,9.191331,-0.5768618,0.11537236,9.729735,12314.477;-0.34611708,0.26920217,9.191331,-0.38457453,0.26920217,9.152874,12348.031;-0.34611708,0.26920217,9.191331,-0.69223416,-0.4999469,9.729735,12348.031;-0.34611708,0.26920217,9.191331,-0.76914907,-0.23074472,9.614364,12348.031;-0.34611708,0.26920217,9.191331,-0.11537236,-0.61531925,9.498991,12381.585;-0.34611708,0.26920217,9.191331,-0.19228727,0.038457453,9.306704,12381.585;-0.34611708,0.26920217,9.191331,-0.76914907,0.38457453,9.075959,12381.585;-0.34611708,0.26920217,9.191331,-0.5768618,-0.23074472,8.960587,12381.585;-0.34611708,0.26920217,9.191331,-0.46148944,-0.38457453,9.768193,12415.14;-0.34611708,0.26920217,9.191331,0.038457453,0.07691491,9.422076,12415.14;-0.34611708,0.26920217,9.191331,-0.61531925,0.34611708,9.383618,12415.14;-0.34611708,0.26920217,9.191331,-0.11537236,0.30765963,9.229789,12448.694;-0.34611708,0.26920217,9.191331,-0.26920217,-0.07691491,9.306704,12448.694;-0.34611708,0.26920217,9.191331,-0.11537236,0.34611708,9.268247,12448.694;-0.34611708,0.26920217,9.191331,-0.46148944,-0.4999469,9.729735,12448.694;-0.34611708,0.26920217,9.191331,-0.34611708,-0.423032,9.537449,12482.249;-0.34611708,0.26920217,9.191331,-0.34611708,0.19228727,8.806757,12482.249;-0.34611708,0.26920217,9.191331,-0.11537236,0.30765963,8.768299,12482.249;-0.34611708,0.26920217,9.191331,-0.19228727,0.7306916,9.422076,12515.803;-0.34611708,0.26920217,9.191331,-0.19228727,0.0,9.268247,12515.803;-0.34611708,0.26920217,9.191331,-0.07691491,-0.26920217,9.768193,12515.803;-0.34611708,0.26920217,9.191331,-0.038457453,-0.038457453,9.768193,12549.357;-0.34611708,0.26920217,9.191331,-0.23074472,-0.34611708,9.268247,12549.357;-0.34611708,0.26920217,9.191331,-1.0768087,0.26920217,8.845214,12549.357;-0.34611708,0.26920217,9.191331,0.038457453,0.038457453,9.537449,12549.357;-0.34611708,0.26920217,9.191331,-0.53840435,-0.11537236,9.652821,12582.912;-0.34611708,0.26920217,10.229683,0.23074472,0.19228727,10.229683,12582.912;-0.34611708,0.26920217,8.499097,-0.23074472,-0.26920217,8.499097,12582.912;-0.34611708,0.26920217,9.729735,-0.423032,-0.07691491,9.729735,12616.467;-0.34611708,0.26920217,9.729735,0.23074472,0.038457453,9.845108,12616.467;-0.34611708,0.26920217,9.729735,-0.423032,0.038457453,9.691278,12616.467;-0.34611708,0.26920217,9.729735,-0.8845214,-0.07691491,9.422076,12650.0205;-0.34611708,0.26920217,9.729735,-0.23074472,0.30765963,8.922129,12650.0205;-0.34611708,0.26920217,9.729735,-0.96143633,-0.23074472,9.229789,12650.0205;-0.34611708,0.26920217,9.729735,-0.34611708,0.6537767,8.922129,12650.0205;-0.34611708,0.26920217,9.729735,-0.69223416,-0.23074472,9.114416,12683.575;-0.34611708,0.26920217,9.729735,-0.5768618,0.4999469,9.691278,12683.575;-0.34611708,0.26920217,9.729735,-0.96143633,0.61531925,9.80665,12683.575;-0.34611708,0.26920217,9.729735,-0.53840435,0.19228727,9.114416,12717.13;-0.34611708,0.26920217,9.729735,-0.15382981,0.30765963,9.960481,12717.13;-0.34611708,0.26920217,9.729735,-0.30765963,-0.34611708,9.268247,12717.13;-0.34611708,0.26920217,9.729735,-0.423032,0.0,9.768193,12750.685;-0.34611708,0.26920217,9.729735,-0.38457453,-0.11537236,9.460533,12750.685;-0.34611708,0.26920217,9.729735,-0.26920217,-0.46148944,9.729735,12750.685;-0.34611708,0.26920217,9.729735,-0.11537236,0.23074472,9.152874,12750.685;-0.34611708,0.26920217,9.729735,-0.15382981,-0.69223416,9.306704,12784.238;-0.34611708,0.26920217,9.729735,-0.23074472,-0.30765963,9.768193,12784.238;-0.34611708,0.26920217,9.729735,0.15382981,-0.11537236,10.191225,12784.238;-0.34611708,0.26920217,9.729735,-0.8845214,0.038457453,9.191331,12817.793;-0.34611708,0.26920217,9.729735,-0.4999469,-0.11537236,9.652821,12817.793;-0.34611708,0.26920217,9.729735,-0.53840435,0.19228727,9.345161,12817.793;-0.34611708,0.26920217,9.729735,-0.46148944,0.4999469,9.652821,12851.348;-0.34611708,0.26920217,9.729735,-0.5768618,0.26920217,9.152874,12851.348;-0.34611708,0.26920217,9.729735,-0.30765963,-0.19228727,9.306704,12851.348;-0.34611708,0.26920217,9.729735,-0.34611708,0.38457453,9.729735,12851.348;-0.34611708,0.26920217,9.729735,-0.38457453,0.76914907,8.883672,12884.902;-0.34611708,0.26920217,9.729735,-0.9998938,0.19228727,9.998938,12884.902;-0.34611708,0.26920217,9.729735,-0.46148944,0.423032,9.114416,12884.902;-0.34611708,0.26920217,9.729735,-0.38457453,0.5768618,9.614364,12918.456;-0.34611708,0.26920217,9.729735,-0.38457453,-0.07691491,9.768193,12918.456;-0.34611708,0.26920217,8.537555,-0.34611708,0.07691491,8.537555,12918.456;-0.34611708,0.26920217,8.537555,-0.23074472,-0.23074472,9.460533,12952.011;-0.34611708,0.26920217,8.537555,-0.38457453,0.38457453,8.883672,12952.011;-0.34611708,0.26920217,9.998938,-0.46148944,0.0,9.998938,12952.011;-0.34611708,0.26920217,9.998938,-0.423032,0.15382981,9.845108,12952.011;-0.34611708,0.26920217,9.998938,-0.38457453,-0.53840435,9.229789,12985.565;-0.34611708,-0.8845214,9.998938,-0.53840435,-0.8845214,9.075959,12985.565;-0.34611708,-0.8845214,9.998938,-0.19228727,-0.46148944,9.614364,12985.565;-0.34611708,0.34611708,8.691384,-0.9998938,0.34611708,8.691384,13019.119;-0.34611708,0.34611708,8.691384,-0.61531925,-0.19228727,9.306704,13019.119;-0.34611708,0.34611708,9.845108,-0.46148944,0.38457453,9.845108,13019.119;-0.34611708,0.34611708,9.845108,-0.76914907,0.11537236,9.614364,13019.119;-0.34611708,0.34611708,9.845108,-0.423032,0.23074472,9.575906,13052.674;-0.34611708,0.34611708,8.383725,-0.53840435,0.0,8.383725,13052.674;-0.34611708,0.34611708,8.383725,-0.846064,0.53840435,9.383618,13052.674;-0.34611708,0.34611708,8.383725,-1.1537236,0.19228727,9.114416,13086.229;-0.34611708,0.34611708,8.383725,-0.69223416,0.07691491,8.61447,13086.229;-0.34611708,0.34611708,10.11431,0.46148944,0.423032,10.11431,13086.229;-0.34611708,0.34611708,10.11431,0.26920217,0.19228727,9.768193,13119.783;-0.34611708,0.34611708,10.11431,-0.34611708,0.5768618,9.268247,13119.783;-0.34611708,0.34611708,10.11431,-0.8076065,0.34611708,9.998938,13119.783;-0.34611708,0.34611708,8.806757,0.15382981,0.0,8.806757,13119.783;-0.34611708,0.34611708,8.806757,-0.96143633,0.038457453,9.80665,13153.337;-0.34611708,0.34611708,8.806757,-0.38457453,0.0,8.922129,13153.337;-0.34611708,0.34611708,9.883566,0.038457453,-0.11537236,9.883566,13153.337;-0.34611708,0.34611708,9.883566,-0.6537767,-0.07691491,9.575906,13186.892;-0.34611708,0.34611708,8.768299,-0.6537767,0.0,8.768299,13186.892;-0.34611708,0.34611708,8.768299,-0.61531925,-0.19228727,9.306704,13186.892;-0.34611708,0.34611708,9.922023,-0.19228727,0.15382981,9.922023,13220.446;-0.34611708,0.34611708,8.768299,-0.34611708,0.4999469,8.768299,13220.446;-0.34611708,0.34611708,8.768299,-0.07691491,-0.07691491,8.960587,13220.446;-0.34611708,0.34611708,8.768299,-0.11537236,0.11537236,9.229789,13220.446;-0.34611708,0.34611708,8.768299,-0.23074472,-0.19228727,9.345161,13254.001;-0.34611708,0.34611708,10.152767,-0.30765963,0.53840435,10.152767,13254.001;-0.34611708,0.34611708,10.152767,-0.23074472,0.11537236,9.422076,13254.001;-0.34611708,0.34611708,10.152767,0.19228727,0.69223416,9.575906,13287.555;-0.34611708,0.34611708,10.152767,-0.846064,0.34611708,9.498991,13287.555;-0.34611708,0.34611708,10.152767,-0.4999469,-0.34611708,9.768193,13287.555;-0.34611708,0.34611708,10.152767,-0.11537236,-0.038457453,9.345161,13321.109;-0.34611708,0.34611708,10.152767,-0.61531925,0.30765963,9.345161,13321.109;-0.34611708,0.34611708,10.152767,-0.07691491,0.53840435,9.268247,13321.109;-0.34611708,0.34611708,10.152767,-0.26920217,0.0,9.422076,13321.109;-0.34611708,0.34611708,10.152767,0.07691491,-0.34611708,9.883566,13354.664;-0.34611708,0.34611708,9.037501,-0.038457453,0.15382981,9.037501,13354.664;-0.34611708,0.34611708,9.037501,-0.26920217,-0.19228727,9.306704,13354.664;-0.34611708,-0.69223416,9.037501,0.15382981,-0.69223416,9.537449,13388.219;-0.34611708,-0.69223416,9.037501,-0.6537767,-0.26920217,9.229789,13388.219;-0.34611708,-0.69223416,9.037501,-0.4999469,-0.19228727,9.345161,13388.219;-0.34611708,0.423032,9.037501,-0.15382981,0.423032,9.191331,13421.772;-0.34611708,0.423032,9.037501,-0.8076065,0.30765963,9.345161,13421.772;-0.34611708,0.423032,9.037501,0.19228727,0.11537236,9.152874,13421.772;-0.34611708,0.423032,9.037501,-0.26920217,0.4999469,9.114416,13421.772;-0.34611708,0.423032,9.037501,-0.46148944,-0.4999469,9.922023,13455.327;-0.34611708,0.423032,9.037501,-0.38457453,-0.34611708,9.383618,13455.327;-0.34611708,0.423032,9.037501,0.15382981,-0.11537236,8.768299,13455.327;-0.34611708,0.423032,9.037501,-0.07691491,-0.11537236,9.575906,13488.882;-0.34611708,0.423032,9.037501,-0.423032,0.30765963,9.345161,13488.882;-0.34611708,0.423032,9.037501,-0.61531925,0.423032,10.0373955,13488.882;-0.34611708,0.423032,9.037501,-0.30765963,-0.15382981,9.652821,13522.437;-0.34611708,0.423032,9.037501,0.11537236,-0.11537236,9.498991,13522.437;-0.34611708,0.423032,9.037501,-0.4999469,0.0,9.075959,13522.437;-0.34611708,0.423032,9.037501,-0.26920217,-0.07691491,9.960481,13522.437;-0.34611708,0.423032,9.037501,-0.34611708,0.07691491,9.152874,13555.99;-0.34611708,0.423032,9.037501,0.0,-0.34611708,9.998938,13555.99;-0.34611708,0.423032,9.037501,-0.69223416,-0.26920217,9.460533,13555.99;-0.34611708,0.423032,9.037501,-0.4999469,-0.30765963,9.306704,13589.545;-0.34611708,0.423032,9.037501,0.0,0.11537236,9.114416,13589.545;-0.34611708,0.423032,9.037501,-0.6537767,0.61531925,8.845214,13589.545;-0.34611708,0.423032,9.037501,-0.96143633,0.53840435,9.229789,13589.545;-0.34611708,0.423032,9.037501,-0.30765963,-0.34611708,9.845108,13623.1;-0.34611708,0.423032,9.037501,-0.61531925,0.15382981,9.383618,13623.1;-0.34611708,0.423032,9.037501,-0.423032,-0.038457453,9.306704,13623.1;-0.34611708,0.423032,9.037501,-0.38457453,0.07691491,9.498991,13656.654;-0.34611708,0.423032,9.037501,-0.69223416,-0.26920217,9.268247,13656.654;-0.34611708,0.423032,9.037501,-0.9998938,0.38457453,9.037501,13656.654;-0.34611708,0.423032,9.037501,0.0,-0.07691491,9.922023,13690.208;-0.34611708,0.423032,9.037501,-0.15382981,-0.23074472,9.614364,13690.208;-0.34611708,0.423032,9.037501,0.11537236,0.46148944,8.999044,13690.208;-0.34611708,0.423032,9.037501,-0.38457453,0.34611708,8.61447,13690.208;-0.34611708,0.423032,9.037501,-0.26920217,0.26920217,10.0373955,13723.763;-0.34611708,0.423032,9.037501,-0.423032,0.69223416,9.691278,13723.763;-0.34611708,0.423032,9.037501,-0.96143633,0.07691491,9.306704,13723.763;-0.34611708,0.423032,9.037501,0.26920217,0.23074472,9.114416,