999,999,999,999,999,999,999;-0.76914907,0.23074472,9.498991,-0.6537767,0.07691491,9.575906,0.0;-0.76914907,0.23074472,9.498991,-0.15382981,0.61531925,9.075959,100.6633;-0.76914907,0.23074472,9.498991,-0.5768618,0.76914907,9.498991,134.21773;-0.76914907,0.23074472,9.498991,-1.3844683,0.038457453,9.922023,134.21773;-0.76914907,0.23074472,9.498991,-0.61531925,-0.23074472,8.729842,134.21773;1.2690959,0.23074472,8.30681,1.2690959,-0.5768618,8.30681,134.21773;-0.846064,-1.1921811,8.30681,-0.846064,-1.1921811,9.306704,167.77216;-0.846064,0.96143633,9.883566,-0.423032,0.96143633,9.883566,167.77216;-0.846064,0.96143633,9.883566,-0.15382981,0.5768618,9.422076,167.77216;0.6537767,-0.76914907,9.883566,0.6537767,-0.76914907,9.537449,201.3266;-0.76914907,0.38457453,9.883566,-0.76914907,0.38457453,9.729735,201.3266;-0.76914907,0.38457453,9.883566,-0.61531925,0.23074472,9.652821,201.3266;-0.76914907,0.38457453,9.883566,-0.53840435,0.11537236,9.345161,234.88103;-0.76914907,0.38457453,9.883566,-0.11537236,0.423032,8.960587,234.88103;-0.76914907,0.38457453,9.883566,-0.96143633,0.5768618,8.960587,234.88103;-0.76914907,0.38457453,9.883566,-0.61531925,1.2306385,9.460533,234.88103;-0.76914907,0.38457453,9.883566,0.15382981,0.34611708,9.998938,268.43546;-0.76914907,-0.96143633,9.883566,-0.61531925,-0.96143633,8.960587,268.43546;-0.76914907,0.69223416,9.883566,-0.7306916,0.69223416,10.229683,268.43546;-0.76914907,0.69223416,9.883566,-0.07691491,-0.26920217,9.191331,301.9899;-0.76914907,-0.61531925,9.883566,0.07691491,-0.61531925,9.729735,301.9899;-0.76914907,-0.61531925,9.883566,-0.423032,0.0,9.537449,301.9899;-0.76914907,1.3460109,9.883566,-0.846064,1.3460109,9.768193,335.5443;-0.76914907,-0.34611708,9.883566,-0.4999469,-0.34611708,9.422076,335.5443;-0.76914907,-0.34611708,9.883566,-0.5768618,-0.07691491,9.268247,335.5443;-0.76914907,-0.34611708,9.883566,-1.2690959,0.53840435,9.460533,335.5443;-0.76914907,0.7306916,8.537555,0.23074472,0.7306916,8.537555,369.09875;0.846064,0.7306916,8.537555,0.846064,-0.15382981,8.345267,369.09875;-0.8076065,0.7306916,8.537555,-0.8076065,0.0,9.460533,369.09875;-0.8076065,0.7306916,8.537555,-0.30765963,0.15382981,9.537449,402.6532;0.7306916,0.7306916,9.922023,0.7306916,1.3844683,9.922023,402.6532;-0.34611708,-0.9229789,9.922023,-0.34611708,-0.9229789,9.383618,402.6532;-0.34611708,0.5768618,9.922023,-0.7306916,0.5768618,9.922023,436.2076;-0.34611708,0.5768618,8.845214,-0.8076065,0.07691491,8.845214,436.2076;-0.34611708,0.5768618,8.845214,-0.7306916,-0.423032,9.306704,436.2076;-0.34611708,0.5768618,8.845214,0.07691491,0.69223416,9.229789,436.2076;-0.34611708,0.5768618,8.845214,-0.46148944,0.15382981,9.383618,469.76205;-0.34611708,0.5768618,8.845214,-0.423032,0.038457453,9.383618,469.76205;-0.34611708,0.5768618,8.845214,0.5768618,0.26920217,9.075959,469.76205;-0.34611708,0.5768618,8.845214,0.6537767,0.53840435,9.537449,469.76205;-0.34611708,-0.96143633,10.537342,-0.38457453,-0.96143633,10.537342,503.31647;-0.34611708,0.07691491,10.537342,-0.26920217,0.07691491,9.652821,503.31647;-0.34611708,0.07691491,10.537342,-0.423032,0.69223416,9.768193,503.31647;-0.34611708,0.07691491,8.768299,-0.34611708,-0.23074472,8.768299,536.8709;-2.0767026,0.07691491,8.768299,-2.0767026,-0.26920217,9.460533,536.8709;-0.5768618,0.07691491,8.768299,-0.5768618,0.423032,9.191331,536.8709;0.9229789,0.07691491,8.768299,0.9229789,-0.38457453,8.191438,536.8709;0.9229789,0.07691491,8.768299,-0.07691491,-0.15382981,9.306704,570.42535;-1.0768087,0.07691491,8.768299,-1.0768087,0.8076065,9.575906,570.42535;-1.0768087,0.07691491,10.652715,-0.846064,0.76914907,10.652715,570.42535;0.30765963,-1.0768087,9.306704,0.30765963,-1.0768087,9.306704,603.9798;0.30765963,-1.0768087,9.306704,-0.46148944,-0.38457453,9.306704,603.9798;-1.4229257,0.7306916,9.306704,-1.4229257,0.7306916,9.383618,603.9798;0.5768618,-0.30765963,9.306704,0.5768618,-0.30765963,8.499097,603.9798;0.5768618,-0.30765963,9.306704,0.11537236,-1.0383513,8.999044,637.5342;-0.96143633,1.0768087,9.306704,-0.96143633,1.0768087,9.422076,637.5342;-0.96143633,1.0768087,9.306704,-0.8076065,0.846064,10.075852,637.5342;-0.96143633,-0.19228727,9.306704,-0.19228727,-0.19228727,8.960587,671.0886;-0.96143633,-0.19228727,9.306704,-0.19228727,-0.19228727,10.191225,671.0886;-0.96143633,-0.19228727,9.306704,-0.38457453,-0.9229789,9.883566,671.0886;-0.96143633,-0.19228727,9.306704,-0.96143633,-0.19228727,9.729735,671.0886;-0.96143633,-0.19228727,9.306704,-0.34611708,-0.34611708,8.960587,704.64307;-0.96143633,-0.19228727,9.306704,-0.53840435,0.38457453,9.460533,704.64307;-0.96143633,-0.19228727,9.306704,-0.6537767,-0.34611708,8.806757,704.64307;-0.96143633,-0.19228727,9.306704,-0.11537236,0.423032,9.268247,704.64307;-0.96143633,-0.19228727,9.306704,-0.07691491,-0.23074472,9.575906,738.1975;-0.96143633,-0.19228727,9.306704,-0.15382981,-0.46148944,9.652821,738.1975;-0.96143633,-0.19228727,9.306704,-0.61531925,0.0,8.922129,738.1975;-0.96143633,-0.19228727,9.306704,-0.038457453,0.19228727,8.768299,771.75195;1.5382981,-0.19228727,9.306704,1.5382981,-0.53840435,8.537555,771.75195;-0.26920217,-0.19228727,9.306704,-0.26920217,-0.8076065,9.229789,771.75195;-0.26920217,-0.19228727,8.191438,0.11537236,-0.038457453,8.191438,805.3064;-0.26920217,-0.19228727,8.191438,-0.7306916,0.4999469,8.691384,805.3064;-0.26920217,-0.19228727,10.0373955,-0.5768618,0.4999469,10.0373955,805.3064;-0.26920217,-0.19228727,8.652927,-0.15382981,-0.5768618,8.652927,805.3064;-1.4229257,-0.19228727,9.845108,-1.4229257,0.07691491,9.845108,838.8608;-1.4229257,-0.19228727,9.845108,-1.8459578,0.19228727,9.614364,838.8608;-1.4229257,-0.19228727,9.845108,-0.76914907,-0.26920217,9.075959,838.8608;-1.4229257,1.0768087,10.998832,-1.3844683,1.0768087,10.998832,872.4152;-1.4229257,1.0768087,10.998832,-1.615213,0.8845214,10.921917,872.4152;0.7306916,-0.76914907,10.998832,0.7306916,-0.76914907,10.075852,872.4152;-0.46148944,-0.76914907,9.537449,-0.46148944,-0.9998938,9.537449,905.96967;-2.7304792,1.2306385,11.537236,-2.7304792,1.2306385,11.537236,905.96967;0.11537236,1.2306385,10.460427,0.11537236,1.0768087,10.460427,905.96967;0.11537236,-1.0383513,9.383618,-0.11537236,-1.0383513,9.383618,905.96967;-1.0768087,-1.0383513,9.383618,-1.0768087,-0.6537767,9.345161,939.5241;-1.0768087,1.6536705,11.92181,-1.8075004,1.6536705,11.92181,939.5241;0.15382981,0.26920217,7.729948,0.15382981,0.26920217,7.729948,939.5241;0.15382981,0.26920217,9.422076,0.15382981,-0.15382981,9.422076,973.07855;-2.11516,0.26920217,11.652608,-2.11516,0.8076065,11.652608,973.07855;0.0,1.3075534,10.0373955,0.0,1.3075534,10.0373955,973.07855;0.0,0.26920217,10.0373955,0.19228727,0.26920217,10.421969,973.07855;0.0,0.26920217,8.999044,0.26920217,0.53840435,8.999044,1006.63293;-1.3075534,0.26920217,10.921917,-1.3075534,0.6537767,10.921917,1006.63293;0.53840435,0.26920217,9.191331,0.53840435,0.5768618,9.191331,1006.63293;-0.8076065,0.26920217,9.191331,-0.8076065,-0.423032,9.845108,1040.1874;-0.8076065,0.26920217,9.191331,-0.423032,0.38457453,9.960481,1040.1874;-0.8076065,0.26920217,9.191331,-1.1152661,0.38457453,9.768193,1040.1874;0.26920217,0.26920217,8.037608,0.26920217,-0.19228727,8.037608,1073.7418;0.26920217,0.26920217,9.998938,0.15382981,-0.038457453,9.998938,1073.7418;0.26920217,0.26920217,8.383725,0.46148944,-0.26920217,8.383725,1073.7418;0.26920217,-0.8076065,6.9223413,0.038457453,-0.8076065,6.9223413,1073.7418;0.26920217,-0.8076065,8.037608,-0.26920217,-0.53840435,8.037608,1107.2963;0.26920217,-0.8076065,9.80665,-0.038457453,-0.11537236,9.80665,1107.2963;1.5382981,-0.8076065,5.3071284,1.5382981,-0.846064,5.3071284,1107.2963;0.07691491,-0.8076065,9.152874,0.07691491,-0.34611708,9.152874,1140.8507;0.07691491,0.53840435,9.152874,-0.7306916,0.53840435,8.61447,1140.8507;0.07691491,0.53840435,9.152874,0.46148944,0.038457453,8.46064,1140.8507;0.07691491,-0.8845214,5.960905,0.9998938,-0.8845214,5.960905,1174.4052;1.3844683,0.15382981,9.383618,1.3844683,0.15382981,9.383618,1174.4052;0.038457453,0.15382981,9.383618,0.038457453,-0.61531925,9.306704,1174.4052;-1.2690959,0.15382981,9.383618,-1.2690959,1.0383513,9.691278,1174.4052;-1.2690959,0.15382981,9.383618,-0.76914907,0.34611708,9.537449,1207.9596;0.8076065,-0.96143633,9.383618,0.8076065,-0.96143633,9.537449,1207.9596;0.8076065,-0.96143633,8.2683525,0.038457453,-1.3844683,8.2683525,1207.9596;-0.8845214,1.6536705,10.306598,-0.8845214,1.6536705,10.306598,1241.514;-0.8845214,0.5768618,10.306598,-1.8075004,0.5768618,10.498885,1241.514;-0.8845214,-1.692128,9.075959,-0.423032,-1.692128,9.075959,1241.514;-2.4997344,0.26920217,11.037289,-2.4997344,0.26920217,11.037289,1275.0684;-2.4997344,2.9612238,12.652502,-2.2689898,2.9612238,12.652502,1275.0684;-2.4997344,-1.9613302,8.576012,-1.615213,-1.9613302,8.576012,1275.0684;-0.846064,-1.9613302,10.075852,-0.846064,-1.1152661,10.075852,1275.0684;-3.230426,1.692128,12.998619,-3.230426,1.692128,12.998619,1308.6228;-1.5382981,1.692128,10.421969,-1.5382981,1.6536705,10.421969,1308.6228;-1.5382981,-0.46148944,10.421969,-0.5768618,-0.46148944,10.614257,1308.6228;-0.46148944,0.846064,10.421969,-0.46148944,0.846064,10.614257,1342.1772;-0.46148944,0.846064,9.229789,-1.0383513,0.26920217,9.229789,1342.1772;1.3075534,0.846064,9.229789,1.3075534,0.15382981,9.422076,1342.1772;1.3075534,0.846064,10.960374,0.5768618,1.3075534,10.960374,1375.7317;1.3075534,-0.30765963,6.9992566,0.5768618,-0.30765963,6.9992566,1375.7317;-0.34611708,-0.30765963,9.114416,-0.34611708,0.07691491,9.114416,1375.7317;1.3460109,2.9996815,10.652715,1.3460109,2.9996815,10.652715,1375.7317;0.11537236,0.07691491,9.614364,0.11537236,0.07691491,9.614364,1409.2861;0.11537236,0.07691491,7.6914907,0.61531925,-0.26920217,7.6914907,1409.2861;0.11537236,-1.1921811,6.6531396,0.15382981,-1.1921811,6.6531396,1409.2861;0.11537236,-1.1921811,8.806757,-0.19228727,-0.9998938,8.806757,1442.8406;0.11537236,0.30765963,8.806757,-0.34611708,0.30765963,8.2683525,1442.8406;0.11537236,-1.4998407,4.9610114,0.8076065,-1.4998407,4.9610114,1442.8406;-1.7305853,-1.4998407,8.768299,-1.7305853,-0.96143633,8.768299,1476.395;-1.7305853,-0.15382981,8.768299,-0.96143633,-0.15382981,7.7684054,1476.395;0.26920217,-0.15382981,7.729948,0.26920217,0.423032,7.729948,1476.395;0.26920217,-0.15382981,5.999363,0.19228727,0.8076065,5.999363,1476.395;-1.3844683,-1.3460109,8.076065,-1.3844683,-1.3460109,8.076065,1509.9495;-1.3844683,-1.3460109,9.229789,-0.8076065,-1.2306385,9.229789,1509.9495;-1.3844683,0.038457453,5.4609585,-1.7305853,0.038457453,5.4609585,1509.9495;-0.038457453,0.038457453,9.652821,-0.038457453,0.38457453,9.652821,1543.5039;-0.038457453,-0.9998938,9.652821,0.4999469,-0.9998938,8.768299,1543.5039;-1.8844151,0.4999469,9.652821,-1.8844151,0.4999469,9.460533,1543.5039;-1.8844151,2.5381918,10.845002,-1.6536705,2.5381918,10.845002,1543.5039;-0.46148944,-0.61531925,10.845002,-0.46148944,-0.61531925,11.037289,1577.0583;-0.46148944,-1.7305853,8.30681,0.26920217,-1.7305853,8.30681,1577.0583;-3.230426,1.1921811,13.575481,-3.230426,1.1921811,13.575481,1577.0583;-1.9997876,1.1921811,13.575481,-1.9997876,2.038245,12.614044,1610.6128;0.07691491,-0.76914907,9.80665,0.07691491,-0.76914907,9.80665,1610.6128;0.07691491,-0.76914907,8.729842,-0.23074472,-0.26920217,8.729842,1610.6128;-2.4997344,1.7305853,14.267715,-2.4997344,1.7305853,14.267715,1644.1671;0.846064,1.7305853,11.575693,0.846064,1.5382981,11.575693,1644.1671;-0.8076065,-0.9998938,11.575693,-0.8076065,-0.9998938,11.114204,1644.1671;-2.3459046,0.38457453,11.575693,-2.3459046,0.38457453,11.460321,1644.1671;-2.3459046,1.4229257,11.575693,-1.4613832,1.4229257,11.498778,1677.7216;2.11516,1.4229257,7.5761185,2.11516,0.7306916,7.5761185,1677.7216;-0.7306916,0.34611708,10.075852,-0.7306916,0.34611708,10.075852,1677.7216;-0.7306916,0.34611708,10.075852,-0.96143633,0.23074472,10.229683,1711.276;-0.7306916,0.34611708,7.8453207,-0.34611708,-0.23074472,7.8453207,1711.276;0.38457453,0.34611708,7.8453207,0.38457453,-0.23074472,7.806863,1711.276;0.38457453,0.34611708,10.11431,0.07691491,0.8845214,10.11431,1744.8304;0.38457453,0.34611708,5.5763307,1.0383513,-0.4999469,5.5763307,1744.8304;0.38457453,0.34611708,7.806863,0.26920217,-0.07691491,7.806863,1744.8304;-0.846064,0.34611708,10.845002,-0.846064,0.26920217,10.845002,1744.8304;0.9229789,0.34611708,7.5376606,0.9229789,0.9229789,7.5376606,1778.3849;0.9229789,0.34611708,6.1531925,0.8076065,0.0,6.1531925,1778.3849;0.9229789,0.34611708,9.422076,1.692128,0.423032,9.422076,1778.3849;0.9229789,0.34611708,9.422076,-0.038457453,-0.423032,8.537555,1811.9393;-1.0768087,0.34611708,9.422076,-1.0768087,0.9998938,8.61447,1811.9393;-1.0768087,-0.96143633,7.1915436,-0.38457453,-0.96143633,7.1915436,1811.9393;1.1152661,0.61531925,7.1915436,1.1152661,0.61531925,7.5376606,1845.4938;-0.423032,-0.6537767,9.229789,-0.423032,-0.6537767,9.229789,1845.4938;-0.423032,0.6537767,8.114523,0.53840435,0.6537767,8.114523,1845.4938;-0.423032,-1.1152661,11.691066,-0.846064,-1.1152661,11.691066,1845.4938;0.76914907,-1.1152661,9.229789,0.76914907,-0.846064,9.229789,1879.0482;-1.9613302,0.61531925,10.960374,-1.9613302,0.61531925,10.960374,1879.0482;-1.9613302,2.7304792,12.767875,-2.11516,2.7304792,12.767875,1879.0482;-0.6537767,-1.0383513,9.845108,-0.6537767,-1.0383513,9.845108,1912.6027;-0.6537767,-1.0383513,9.845108,-1.3844683,-2.038245,9.268247,1912.6027;-3.9611177,0.8845214,13.690853,-3.9611177,0.8845214,13.690853,1912.6027;-0.9229789,0.8845214,12.460215,-0.9229789,1.3844683,12.460215,1946.1571;-0.9229789,-0.846064,9.460533,-0.4999469,-0.846064,9.460533,1946.1571;-0.9229789,-0.846064,9.460533,-1.1537236,-0.8076065,9.691278,1946.1571;-2.2689898,0.9998938,12.806332,-2.2689898,0.9998938,12.806332,1946.1571;-0.423032,0.9998938,8.845214,-0.423032,0.07691491,8.845214,1979.7115;-0.423032,-0.53840435,11.191119,-0.69223416,-0.53840435,11.191119,1979.7115;0.8076065,-0.53840435,9.575906,0.8076065,0.26920217,9.575906,1979.7115;-0.53840435,-0.53840435,9.575906,-0.53840435,0.423032,9.922023,2013.2659;2.2689898,0.61531925,9.575906,2.2689898,0.61531925,9.537449,2013.2659;-0.5768618,0.61531925,9.575906,-0.5768618,0.46148944,9.229789,2013.2659;-0.5768618,0.61531925,9.575906,-0.96143633,0.11537236,9.345161,2013.2659;-0.5768618,-1.615213,6.691597,-0.26920217,-1.615213,6.691597,2046.8203;-0.5768618,0.46148944,10.345055,-0.26920217,0.46148944,10.345055,2046.8203;-0.5768618,0.46148944,9.229789,-0.11537236,1.1537236,9.229789,2046.8203;0.846064,-1.5382981,5.2302136,0.846064,-1.5382981,5.2302136,2080.3748;2.11516,0.846064,7.037714,2.11516,0.846064,7.037714,2080.3748;-0.4999469,0.846064,8.960587,-0.4999469,0.34611708,8.960587,2080.3748;0.76914907,0.846064,7.153086,0.76914907,0.9229789,7.153086,2113.9292;0.76914907,-1.615213,7.153086,0.11537236,-1.615213,6.1531925,2113.9292;0.76914907,0.30765963,7.153086,0.69223416,0.30765963,7.153086,2113.9292;-0.69223416,-0.9229789,8.960587,-0.69223416,-0.9229789,8.960587,2113.9292;0.8076065,-0.9229789,5.691703,0.8076065,0.0,5.691703,2147.4836;-1.3844683,-0.9229789,8.114523,-1.3844683,-0.11537236,8.114523,2147.4836;1.2306385,-0.9229789,8.114523,1.2306385,-1.3075534,8.345267,2147.4836;-1.2690959,0.34611708,8.114523,-1.2690959,0.34611708,9.075959,2181.038;-1.2690959,1.5382981,9.998938,-0.423032,1.5382981,9.998938,2181.038;-1.2690959,0.34611708,12.652502,-0.30765963,0.34611708,12.652502,2181.038;-1.2690959,-1.4613832,8.845214,-0.423032,-1.4613832,8.845214,2214.5925;-3.1150537,0.9998938,12.191012,-3.1150537,0.9998938,12.191012,2214.5925;-1.0768087,3.1150537,12.191012,-1.0768087,3.1150537,12.767875,2214.5925;-1.0768087,-1.3460109,9.268247,-0.6537767,-1.3460109,9.268247,2248.147;-1.0768087,-1.3460109,9.268247,-0.8845214,-0.61531925,9.268247,2248.147;-2.3459046,1.8075004,14.536918,-2.3459046,1.8075004,14.536918,2248.147;0.76914907,1.8075004,14.536918,0.76914907,0.846064,13.690853,2248.147;0.76914907,-0.423032,10.11431,0.0,-0.423032,10.11431,2281.7014;0.76914907,-0.423032,10.11431,0.038457453,0.15382981,10.806544,2281.7014;-1.8459578,2.038245,13.075534,-1.8459578,2.038245,13.075534,2281.7014;0.423032,-0.07691491,7.499203,0.423032,-0.07691491,7.499203,2315.2559;0.423032,-0.07691491,10.5758,0.038457453,0.46148944,10.5758,2315.2559;-2.6920218,-0.07691491,12.037183,-2.6920218,0.19228727,12.037183,2315.2559;0.15382981,-0.07691491,8.806757,0.15382981,-0.38457453,8.806757,2315.2559;0.15382981,-0.07691491,10.537342,0.038457453,0.4999469,10.537342,2348.8103;0.15382981,1.4998407,10.537342,-0.61531925,1.4998407,10.191225,2348.8103;-0.96143633,-0.8845214,8.30681,-0.96143633,-0.8845214,8.30681,2348.8103;0.8845214,-0.8845214,6.8454266,0.8845214,-0.038457453,6.8454266,2382.3647;-0.9229789,0.19228727,10.152767,-0.9229789,0.19228727,10.152767,2382.3647;-0.9229789,0.19228727,7.5761185,-0.61531925,-0.26920217,7.5761185,2382.3647;0.76914907,-1.1537236,5.345586,0.76914907,-1.1537236,5.345586,2415.9192;2.038245,1.8459578,8.652927,2.038245,1.8459578,8.652927,2415.9192;-0.9998938,-0.7306916,8.652927,-0.9998938,-0.7306916,8.61447,2415.9192;0.9229789,0.9998938,6.960799,0.9229789,0.9998938,6.960799,2415.9192;0.9229789,-1.1537236,6.960799,0.30765963,-1.1537236,6.5762243,2449.4736;0.9229789,-1.1537236,6.960799,0.7306916,-0.69223416,7.268459,2449.4736;-0.4999469,-1.1537236,8.383725,-0.4999469,-0.96143633,8.383725,2449.4736;-0.4999469,-0.038457453,5.5378733,0.30765963,-0.038457453,5.5378733,2483.028;-1.7690428,-0.038457453,11.383406,-1.7690428,-0.846064,11.383406,2483.028;-0.7306916,-1.4613832,8.652927,-0.7306916,-1.4613832,8.652927,2483.028;-0.7306916,0.6537767,10.5758,-1.5382981,0.6537767,10.5758,2483.028;-0.7306916,2.6920218,12.267927,-0.53840435,2.6920218,12.267927,2516.5825;-0.7306916,-2.3074472,9.768193,-1.4998407,-2.3074472,9.768193,2516.5825;-0.7306916,-2.3074472,9.768193,-0.69223416,-1.9613302,9.922023,2516.5825;-3.4227133,1.3460109,13.306279,-3.4227133,1.3460109,13.306279,2550.1367;-1.4998407,1.3460109,13.306279,-1.4998407,2.11516,12.460215,2550.1367;-0.19228727,-1.3460109,10.152767,-0.19228727,-1.3460109,10.152767,2550.1367;-0.19228727,-1.3460109,10.152767,-0.6537767,-0.34611708,10.460427,2583.6912;-2.038245,3.0381389,14.113885,-2.038245,3.0381389,14.113885,2583.6912;0.38457453,0.0,9.922023,0.38457453,0.0,9.922023,2583.6912;0.38457453,0.0,11.344949,-0.23074472,0.4999469,11.344949,2583.6912;-3.4227133,0.0,12.652502,-3.4227133,0.07691491,12.652502,2617.2456;-0.4999469,0.0,9.729735,-0.4999469,0.4999469,9.729735,2617.2456;2.1536174,1.1921811,9.729735,2.1536174,1.1921811,9.114416,2617.2456;-0.30765963,0.11537236,9.729735,-0.30765963,0.11537236,10.075852,2650.8;-1.8075004,0.11537236,9.729735,-1.8075004,1.0768087,10.7296295,2650.8;-0.23074472,0.11537236,7.4222884,-0.23074472,-0.19228727,7.4222884,2650.8;-1.2690959,0.11537236,10.691172,-1.2690959,-0.69223416,10.691172,2684.3545;0.6537767,1.1537236,8.729842,0.6537767,1.1537236,8.729842,2684.3545;1.8459578,-1.615213,4.576437,1.8459578,-1.615213,4.576437,2684.3545;1.8459578,1.1921811,7.1915436,1.8459578,1.1921811,7.1915436,2684.3545;-0.26920217,1.1921811,8.30681,-0.26920217,0.26920217,8.30681,2717.909;-0.26920217,1.1921811,8.30681,0.15382981,0.8845214,7.729948,2717.909;-0.26920217,-1.1921811,5.5378733,0.15382981,-1.1921811,5.5378733,2717.909;-0.26920217,0.15382981,8.576012,0.038457453,0.15382981,8.576012,2751.4634;-0.26920217,0.15382981,8.576012,-0.8845214,-0.8076065,9.075959,2751.4634;1.7305853,0.15382981,4.4610643,1.7305853,-0.19228727,4.4610643,2751.4634;-0.846064,0.15382981,9.075959,-0.846064,0.8845214,9.075959,2785.0178;0.34611708,0.15382981,7.960693,0.34611708,-0.8076065,7.960693,2785.0178;-1.8844151,0.15382981,7.960693,-1.8844151,0.6537767,8.2683525,2785.0178;-0.6537767,1.4998407,10.152767,-0.6537767,1.4998407,10.152767,2785.0178;-0.6537767,-1.0768087,12.767875,-0.23074472,-1.0768087,12.767875,2818.5723;-0.6537767,-1.0768087,8.30681,-0.46148944,-1.5382981,8.30681,2818.5723;-2.9612238,0.23074472,12.152555,-2.9612238,0.23074472,12.152555,2818.5723;-1.692128,2.5381918,12.152555,-1.692128,2.5381918,12.344843,2852.1267;0.34611708,-0.96143633,9.422076,0.34611708,-0.96143633,9.422076,2852.1267;0.34611708,-0.96143633,9.422076,-0.423032,-1.2306385,10.3835125,2852.1267;-2.7304792,1.9228727,15.690641,-2.7304792,1.9228727,15.690641,2885.6812;1.3460109,3.384256,13.537024,1.3460109,3.384256,13.537024,2885.6812;-0.9229789,-1.3460109,10.152767,-0.9229789,-1.3460109,10.152767,2885.6812;-0.9229789,0.34611708,10.152767,-1.8844151,0.34611708,11.114204,2885.6812;-0.9229789,1.8459578,12.652502,-1.4998407,1.8459578,12.652502,2919.2356;-0.9229789,-0.23074472,6.307022,0.038457453,-0.23074472,6.307022,2919.2356;-0.9229789,-0.23074472,9.998938,-0.34611708,0.07691491,9.998938,2919.2356;-2.1920748,-0.23074472,11.306491,-2.1920748,0.30765963,11.306491,2952.79;-0.30765963,-0.23074472,7.114629,-0.30765963,-0.8076065,7.114629,2952.79;0.7306916,-0.23074472,9.729735,0.7306916,0.61531925,9.729735,2952.79;0.7306916,1.0383513,9.729735,0.19228727,1.0383513,9.960481,2986.3445;0.7306916,-1.0768087,5.614788,0.23074472,-1.0768087,5.614788,2986.3445;-0.38457453,-1.0768087,5.614788,-0.38457453,-0.11537236,5.3071284,2986.3445;-0.38457453,0.15382981,9.845108,-0.53840435,0.15382981,9.845108,2986.3445;-0.38457453,0.15382981,8.2683525,-0.53840435,0.6537767,8.2683525,3019.899;-0.38457453,0.15382981,5.614788,0.26920217,-0.7306916,5.614788,3019.899;1.2306385,0.15382981,9.768193,1.2306385,0.69223416,9.768193,3019.899;-0.846064,0.15382981,9.768193,-0.846064,-0.34611708,8.999044,3053.4534;1.0383513,0.15382981,3.4611707,1.0383513,-0.7306916,3.4611707,3053.4534;1.0383513,0.15382981,8.345267,0.19228727,-0.423032,8.345267,3053.4534;1.0383513,-1.1152661,8.345267,1.1152661,-1.1152661,8.2683525,3053.4534;-0.07691491,-1.1152661,8.345267,-0.07691491,-0.846064,9.152874,3087.0078;-0.07691491,1.2306385,8.345267,-0.423032,1.2306385,8.076065,3087.0078;-1.615213,1.2306385,12.806332,-1.615213,0.30765963,12.806332,3087.0078;-0.15382981,-0.46148944,7.9222355,-0.15382981,-0.46148944,7.9222355,3120.5623;-1.3075534,1.0768087,11.037289,-1.3075534,1.0768087,11.037289,3120.5623;-1.3075534,3.153511,13.190907,-1.4613832,3.153511,13.190907,3120.5623;-1.3075534,-1.5382981,10.421969,-1.692128,-1.5382981,10.421969,3154.1167;0.07691491,-1.5382981,10.421969,0.07691491,-1.2306385,9.768193,3154.1167;-3.8842027,1.3460109,14.383087,-3.8842027,1.3460109,14.383087,3154.1167;-1.692128,1.3460109,14.383087,-1.692128,2.3074472,13.460109,3154.1167;-1.692128,-1.0768087,10.845002,-1.0383513,-1.0768087,10.845002,3187.6711;-0.30765963,0.69223416,10.845002,-0.30765963,0.69223416,10.3835125,3187.6711;-2.9227664,1.8459578,14.383087,-2.9227664,1.8459578,14.383087,3187.6711;1.4613832,-0.8076065,7.883778,1.4613832,-0.8076065,7.883778,3221.2256;-0.4999469,-0.8076065,11.152661,-0.4999469,0.15382981,11.152661,3221.2256;-0.4999469,-0.8076065,11.152661,0.07691491,0.0,10.460427,3221.2256;-0.4999469,-0.8076065,7.960693,-0.61531925,-0.61531925,7.960693,3254.7798;1.9228727,1.1537236,7.960693,1.9228727,1.1537236,8.345267,3254.7798;-0.19228727,1.1537236,9.191331,-0.19228727,0.8845214,9.191331,3254.7798;0.846064,-0.76914907,6.0378203,0.846064,-0.76914907,6.0378203,3254.7798;0.846064,-0.76914907,4.999469,0.34611708,-0.9998938,4.999469,3288.3342;-0.69223416,-0.76914907,9.422076,-0.69223416,-0.15382981,9.422076,3288.3342;-0.69223416,-0.76914907,9.422076,-0.30765963,-0.038457453,9.075959,3288.3342;-0.69223416,-0.76914907,5.268671,0.23074472,-0.4999469,5.268671,3321.8887;-0.69223416,1.4613832,8.61447,-0.53840435,1.4613832,8.61447,3321.8887;-0.69223416,-0.76914907,8.61447,-0.34611708,-0.76914907,8.191438,3321.8887;-0.69223416,-0.76914907,8.61447,-1.0383513,-0.4999469,8.383725,3355.443;-0.69223416,-0.76914907,6.9992566,0.19228727,-0.23074472,6.9992566,3355.443;-0.69223416,-0.76914907,9.922023,-1.5767555,-1.2690959,9.922023,3355.443;-0.69223416,-1.9228727,8.15298,-0.69223416,-1.9228727,8.15298,3355.443;0.423032,0.30765963,6.0762777,0.423032,0.30765963,6.0762777,3388.9976;-1.2306385,1.4998407,10.998832,-1.2306385,1.4998407,10.998832,3388.9976;-1.2306385,-0.53840435,7.4222884,-0.30765963,-0.53840435,7.4222884,3388.9976;-2.807394,-1.8075004,9.345161,-2.807394,-1.8075004,9.345161,3422.552;-1.3844683,2.4997344,13.652396,-1.3844683,2.4997344,13.652396,3422.552;-2.5381918,-1.1921811,10.845002,-2.5381918,-1.1921811,10.845002,3422.552;-0.9229789,-2.461277,8.2683525,-0.9229789,-2.461277,8.2683525,3456.1064;-3.153511,0.11537236,13.921598,-3.153511,0.11537236,13.921598,3456.1064;-0.96143633,3.1919687,13.921598,-0.96143633,3.1919687,12.998619,3456.1064;-0.96143633,-1.7305853,9.152874,-0.69223416,-1.7305853,9.152874,3456.1064;-0.96143633,-0.038457453,10.5758,-0.11537236,-0.038457453,10.5758,3489.661;-2.6920218,2.3459046,15.344523,-2.6920218,2.3459046,15.344523,3489.661;2.11516,2.3459046,10.3835125,2.11516,1.5382981,10.3835125,3489.661;-0.8845214,-0.9229789,10.3835125,-0.8845214,-0.9229789,10.998832,3523.2153;-0.8845214,0.11537236,11.767981,-0.038457453,0.11537236,11.767981,3523.2153;-0.8845214,0.11537236,9.191331,-0.9229789,0.11537236,9.191331,3523.2153;1.1921811,1.3075534,7.153086,1.1921811,1.3075534,7.153086,3523.2153;0.11537236,0.26920217,11.191119,0.11537236,0.26920217,11.191119,3556.7698;1.5382981,0.26920217,6.768512,1.5382981,0.5768618,6.768512,3556.7698;-0.26920217,-2.0767026,6.768512,-0.26920217,-2.0767026,6.1531925,3556.7698;0.846064,-0.11537236,8.768299,0.846064,-0.11537236,8.768299,3590.3242;0.846064,-0.11537236,8.768299,-0.038457453,0.7306916,8.883672,3590.3242;0.846064,-0.11537236,3.8842027,1.4613832,-0.11537236,3.8842027,3590.3242;-2.3459046,-0.11537236,7.729948,-2.3459046,0.038457453,7.729948,3623.8787;-0.423032,-0.11537236,7.729948,-0.423032,-0.423032,8.46064,3623.8787;-1.7305853,-0.11537236,7.729948,-1.7305853,-0.423032,7.114629,3623.8787;0.8076065,-1.1537236,7.729948,0.8076065,-1.1537236,6.806969,3623.8787;-2.038245,-1.1537236,11.460321,-2.038245,-0.15382981,11.460321,3657.433;-0.23074472,-1.1537236,7.960693,-0.23074472,-1.2306385,7.960693,3657.433;-0.23074472,1.2690959,7.960693,0.15382981,1.2690959,6.960799,3657.433;-0.23074472,1.2690959,10.11431,-0.6537767,1.8459578,10.11431,3690.9875;-0.23074472,-0.5768618,10.11431,-0.46148944,-0.5768618,9.652821,3690.9875;-0.23074472,-0.5768618,10.11431,-0.15382981,-0.7306916,9.80665,3690.9875;-0.23074472,2.6920218,12.075641,-1.1921811,2.6920218,12.075641,3724.542;0.9998938,2.6920218,13.229364,0.9998938,1.8844151,13.229364,3724.542;0.9998938,-0.19228727,8.499097,0.30765963,-0.19228727,8.499097,3724.542;-1.7690428,1.0383513,12.767875,-1.7690428,1.0383513,12.767875,3724.542;-1.7690428,2.5381918,13.883141,-2.1536174,2.5381918,13.883141,3758.0964;1.0383513,-0.96143633,9.691278,1.0383513,-0.96143633,9.691278,3758.0964;1.0383513,-0.96143633,9.691278,0.19228727,-1.3844683,10.5758,3758.0964;-3.4611707,-0.96143633,12.22947,-3.4611707,-0.15382981,12.22947,3791.651;-0.76914907,1.5382981,10.537342,-0.76914907,1.5382981,10.537342,3791.651;-0.76914907,-2.2689898,10.537342,-0.8076065,-2.2689898,10.3835125,3791.651;0.26920217,0.96143633,10.537342,0.26920217,0.96143633,9.537449,3825.2053;-2.0767026,0.96143633,12.729417,-2.0767026,1.7690428,12.729417,3825.2053;-0.038457453,-0.423032,6.5762243,-0.038457453,-0.423032,6.5762243,3825.2053;-1.1537236,-0.423032,9.614364,-1.1537236,-0.07691491,9.614364,3825.2053;-1.1537236,-0.423032,9.614364,-0.846064,-1.4229257,8.691384,3858.7598;-1.1537236,-1.9613302,7.4222884,-0.53840435,-1.9613302,7.4222884,3858.7598;-1.1537236,-0.4999469,8.46064,-0.23074472,-0.4999469,8.46064,3858.7598;-1.1537236,-0.4999469,8.46064,-0.34611708,0.34611708,8.883672,3892.3142;1.692128,-0.4999469,5.8070755,1.692128,-0.846064,5.8070755,3892.3142;-0.34611708,-0.4999469,7.306916,-0.34611708,-0.30765963,7.306916,3892.3142;-0.34611708,-0.4999469,8.768299,-0.26920217,-0.15382981,8.768299,3925.8687;-0.34611708,-0.4999469,8.768299,0.46148944,-0.26920217,9.422076,3925.8687;1.2690959,-0.4999469,4.1149473,1.2690959,-1.3460109,4.1149473,3925.8687;-0.423032,-0.4999469,11.268034,-0.423032,0.15382981,11.268034,3925.8687;-0.423032,-0.4999469,9.037501,0.0,-0.6537767,9.037501,3959.423;1.8459578,1.3460109,6.1531925,1.8459578,1.3460109,6.1531925,3959.423;-0.07691491,-0.19228727,7.268459,-0.07691491,-0.19228727,7.268459,3959.423;-0.07691491,-0.19228727,10.614257,-0.11537236,-0.8845214,10.614257,3992.9773;-0.07691491,-0.19228727,9.268247,-0.423032,-1.1152661,9.268247,3992.9773;-0.07691491,1.3460109,10.3835125,-0.46148944,1.3460109,10.3835125,3992.9773;-1.1152661,2.3843622,12.306385,-1.1152661,2.3843622,12.306385,3992.9773;0.5768618,-1.3075534,8.46064,0.5768618,-1.3075534,8.46064,4026.5317;-3.4227133,-1.3075534,8.46064,-3.4227133,-0.69223416,8.537555,4026.5317;-1.9613302,2.7689366,14.536918,-1.9613302,2.7689366,14.536918,4026.5317;-1.9613302,-1.3460109,10.0373955,-1.1921811,-1.3460109,10.0373955,4060.0862;0.23074472,-1.3460109,10.0373955,0.23074472,-0.96143633,9.037501,4060.0862;-1.7690428,0.46148944,13.575481,-1.7690428,0.46148944,13.575481,4060.0862;-1.7690428,2.3459046,13.575481,-1.0768087,2.3459046,13.113992,4093.6406;-1.7690428,-1.8075004,9.691278,-1.4998407,-1.8075004,9.691278,4093.6406;-0.23074472,0.423032,9.691278,-0.23074472,0.423032,10.075852,4093.6406;-1.5767555,1.8459578,14.613832,-1.5767555,1.8459578,14.613832,4093.6406;-0.038457453,1.8459578,8.114523,-0.038457453,1.1152661,8.114523,4127.1953;-1.4998407,0.61531925,9.537449,-1.4998407,0.61531925,9.537449,4127.1953;1.1152661,0.61531925,11.614151,1.1152661,-0.23074472,11.614151,4127.1953;-0.61531925,0.61531925,7.9991503,-0.61531925,-0.11537236,7.9991503,4160.7495;0.96143633,0.61531925,7.9991503,0.96143633,0.76914907,8.768299,4160.7495;0.96143633,0.61531925,10.075852,-0.038457453,1.1537236,10.075852,4160.7495;2.2305322,0.61531925,5.2302136,2.2305322,0.30765963,5.2302136,4194.304;0.76914907,-1.3075534,5.2302136,0.76914907,-1.3075534,4.922554,4194.304;0.76914907,0.423032,8.729842,1.2306385,0.423032,8.729842,4194.304;-0.30765963,0.423032,8.729842,-0.30765963,-0.38457453,7.883778,4194.304;1.1921811,0.423032,4.1149473,1.1921811,0.11537236,4.1149473,4227.8584;-0.07691491,-0.846064,8.2683525,-0.07691491,-0.846064,8.2683525,4227.8584;-0.07691491,-0.846064,8.2683525,0.26920217,-0.76914907,8.114523,4227.8584;-1.9613302,-0.846064,5.153299,-1.9613302,-1.2690959,5.153299,4261.413;0.46148944,-0.846064,7.499203,0.46148944,-0.19228727,7.499203,4261.413;-2.038245,-0.846064,9.652821,-2.038245,-0.30765963,9.652821,4261.413;-0.8845214,-0.846064,9.652821,-0.8845214,-0.8845214,8.806757,4294.9673;-0.8845214,0.5768618,9.652821,-1.3844683,0.5768618,8.845214,4294.9673;-0.8845214,0.5768618,13.190907,-1.0383513,1.4998407,13.190907,4294.9673;0.34611708,0.5768618,8.345267,0.34611708,0.423032,8.345267,4294.9673;0.34611708,-1.5382981,8.345267,-0.15382981,-1.5382981,9.152874,4328.5215;-2.11516,2.807394,14.613832,-2.11516,2.807394,14.613832,4328.5215;-2.11516,0.07691491,11.421864,-2.1920748,0.07691491,11.421864,4328.5215;0.15382981,-1.7690428,8.46064,0.15382981,-1.7690428,8.46064,4362.076;-1.4229257,0.69223416,13.498566,-1.4229257,0.69223416,13.498566,4362.076;-1.4229257,3.3457985,13.498566,-1.6536705,3.3457985,13.844683,4362.076;-1.4229257,-1.3844683,11.229576,-0.5768618,-1.3844683,11.229576,4395.6304;-0.23074472,0.19228727,11.229576,-0.23074472,0.19228727,10.460427,4395.6304;-0.23074472,0.19228727,9.845108,-0.26920217,1.1537236,9.845108,4395.6304;-0.23074472,0.19228727,9.845108,-0.34611708,0.038457453,10.3835125,4429.185;-1.5382981,1.2306385,9.845108,-1.5382981,1.2306385,9.960481,4429.185;-1.5382981,-0.8076065,9.845108,-1.7305853,-0.8076065,9.691278,4429.185;1.9997876,-0.8076065,7.153086,1.9997876,0.0,7.153086,4462.7393;-0.19228727,-0.8076065,9.998938,-0.19228727,-0.11537236,9.998938,4462.7393;-0.19228727,-0.8076065,6.2301073,0.46148944,-0.46148944,6.2301073,4462.7393;-0.19228727,-1.8459578,6.2301073,0.34611708,-1.8459578,5.345586,4496.294;0.9229789,0.15382981,7.8453207,0.9229789,0.15382981,7.8453207,4496.294;0.9229789,0.15382981,9.114416,0.0,0.34611708,9.114416,4496.294;0.9229789,0.15382981,5.8839903,1.7305853,0.23074472,5.8839903,4496.294;0.9229789,0.15382981,7.383831,0.11537236,-0.6537767,7.383831,4529.848;0.9229789,0.15382981,7.383831,0.76914907,0.61531925,7.8453207,4529.848;0.9229789,0.15382981,9.498991,0.11537236,-0.423032,9.498991,4529.848;0.9229789,-1.3460109,5.5763307,0.8845214,-1.3460109,5.5763307,4563.403;-2.1536174,1.1152661,11.114204,-2.1536174,1.1152661,11.114204,4563.403;0.61531925,-0.9229789,6.7300544,0.61531925,-0.9229789,6.7300544,4563.403;0.61531925,1.9228727,9.614364,0.5768618,1.9228727,9.614364,4563.403;-0.5768618,1.9228727,10.768087,-0.5768618,2.2305322,10.768087,4596.957;-1.7690428,-0.9998938,10.768087,-1.7690428,-0.9998938,10.998832,4596.957;-0.5768618,-0.9998938,8.30681,-0.5768618,-0.9229789,8.30681,4596.957;-3.153511,2.038245,13.690853,-3.153511,2.038245,13.690853,4630.5117;-0.8845214,2.038245,10.652715,-0.8845214,2.1920748,10.652715,4630.5117;-0.8845214,-1.4229257,8.114523,-0.76914907,-1.4229257,8.114523,4630.5117;-2.4997344,0.19228727,10.191225,-2.4997344,0.19228727,10.191225,4664.066;-2.4997344,2.3843622,13.806226,-2.11516,2.3843622,13.806226,4664.066;-0.61531925,0.0,11.575693,-0.61531925,0.0,11.575693,4664.066;0.5768618,0.0,10.152767,0.5768618,-0.11537236,10.152767,4664.066;-3.576543,0.0,12.883246,-3.576543,0.038457453,12.883246,4697.6206;-0.9229789,1.692128,11.537236,-0.9229789,1.692128,11.537236,4697.6206;0.61531925,-0.8076065,9.498991,0.61531925,-0.8076065,9.498991,4697.6206;-0.7306916,-0.8076065,9.498991,-0.7306916,-0.4999469,9.883566,4731.175;-0.7306916,-0.8076065,9.498991,-1.2306385,-0.07691491,10.421969,4731.175;-0.7306916,-0.8076065,7.153086,-0.30765963,-0.846064,7.153086,4731.175;-0.7306916,0.30765963,11.691066,0.15382981,0.30765963,11.691066,4764.7295;1.0768087,0.30765963,8.46064,1.0768087,0.15382981,8.46064,4764.7295;1.0768087,-1.6536705,6.19165,0.38457453,-1.6536705,6.19165,4764.7295;2.1536174,1.1152661,7.499203,2.1536174,1.1152661,7.499203,4764.7295;-0.26920217,-0.19228727,8.576012,-0.26920217,-0.19228727,8.576012,4798.2837;1.8844151,-0.19228727,6.806969,1.8844151,0.423032,6.806969,4798.2837;-0.26920217,-1.2690959,6.806969,-0.26920217,-1.2690959,7.0761714,4798.2837;-0.26920217,0.61531925,8.845214,0.46148944,0.61531925,8.845214,4831.8384;-0.26920217,-0.69223416,8.845214,-0.23074472,-0.69223416,8.422182,4831.8384;1.0383513,-0.69223416,4.691809,1.0383513,-0.4999469,4.691809,4831.8384;-1.615213,-0.69223416,9.460533,-1.615213,-0.23074472,9.460533,4865.3926;-0.19228727,-0.69223416,7.9222355,-0.19228727,-0.9998938,7.9222355,4865.3926;-0.19228727,-0.69223416,9.037501,-1.1921811,0.11537236,9.037501,4865.3926;-0.19228727,1.5767555,9.037501,-0.07691491,1.5767555,9.460533,4865.3926;-0.19228727,-0.76914907,12.306385,-0.4999469,-0.76914907,12.306385,4898.9473;-0.19228727,-1.9228727,8.652927,-0.423032,-1.9228727,8.652927,4898.9473;-2.5381918,2.1920748,13.113992,-2.5381918,2.1920748,13.113992,4898.9473;-1.2306385,2.1920748,13.113992,-1.2306385,2.4997344,12.652502,4932.5015;0.0,-1.9228727,8.729842,0.0,-1.9228727,8.729842,4932.5015;0.0,-1.9228727,10.421969,0.0,-1.3844683,10.421969,4932.5015;-2.9612238,1.5382981,14.9599495,-2.9612238,1.5382981,14.9599495,4966.056;1.0768087,1.5382981,12.3833,1.0768087,0.9998938,12.3833,4966.056;-0.11537236,-0.69223416,12.3833,-0.11537236,-0.69223416,11.767981,4966.056;-0.11537236,0.4999469,10.498885,0.038457453,0.4999469,10.498885,4966.056;-1.5382981,2.3459046,12.998619,-1.5382981,2.3459046,12.998619,4999.6104;1.1152661,0.69223416,8.845214,1.1152661,0.69223416,8.845214,4999.6104;-0.9229789,0.69223416,8.845214,-0.9229789,0.34611708,9.306704,4999.6104;-0.9229789,0.69223416,10.883459,-1.3460109,-0.038457453,10.883459,5033.165;-0.9229789,-0.7306916,8.229895,-0.846064,-0.7306916,8.229895,5033.165;-0.9229789,-0.7306916,11.575693,-0.46148944,-0.61531925,11.575693,5033.165;0.26920217,2.3074472,10.11431,0.26920217,2.3074472,10.11431,5033.165;0.26920217,-1.3075534,5.2302136,0.5768618,-1.3075534,5.2302136,5066.719;0.26920217,-1.3075534,5.2302136,-0.07691491,-0.76914907,5.4609585,5066.719;0.26920217,0.76914907,10.191225,-0.38457453,0.76914907,10.191225,5066.719;0.26920217,-0.423032,7.7684054,1.1152661,-0.423032,7.7684054,5100.2734;0.26920217,-1.5382981,6.0762777,-0.53840435,-1.5382981,6.0762777,5100.2734;0.26920217,0.19228727,7.460746,-0.15382981,0.19228727,7.460746,5100.2734;-0.76914907,0.19228727,7.460746,-0.76914907,0.07691491,8.383725,5133.828;1.4998407,0.19228727,4.8840966,1.4998407,-0.53840435,4.8840966,5133.828;-0.30765963,0.19228727,7.0761714,-0.30765963,0.07691491,7.0761714,5133.828;1.5382981,0.19228727,7.0761714,1.5382981,-0.38457453,7.3453736,5133.828;-2.0767026,0.19228727,8.191438,-2.0767026,0.15382981,8.191438,5167.3823;0.9229789,0.19228727,8.191438,0.9229789,1.1152661,7.499203,5167.3823;-1.0383513,0.19228727,11.691066,-1.0383513,0.846064,11.691066,5167.3823;0.26920217,-1.6536705,8.345267,0.26920217,-1.6536705,8.345267,5200.937;-2.3459046,1.0768087,11.498778,-2.3459046,1.0768087,11.498778,5200.937;-1.2306385,2.9996815,14.229258,-1.2306385,2.9996815,14.229258,5200.937;0.7306916,-0.38457453,11.268034,0.7306916,-0.38457453,11.268034,5234.491;-0.69223416,-0.38457453,9.691278,-0.69223416,-0.8845214,9.691278,5234.491;-2.6920218,1.1921811,14.383087,-2.6920218,1.1921811,14.383087,5234.491;-1.4613832,-0.4999469,10.806544,-1.4613832,-0.4999469,10.806544,5268.046;-1.4613832,-0.4999469,10.806544,-1.1152661,-0.61531925,10.229683,5268.046;0.30765963,-0.4999469,8.15298,0.30765963,0.0,8.15298,5301.6;-0.8076065,-0.4999469,11.652608,-0.8076065,-0.846064,11.652608,5301.6;-2.3459046,-0.4999469,11.652608,-2.3459046,-0.846064,11.691066,5301.6;-2.3459046,-0.4999469,9.114416,-1.3844683,0.038457453,9.114416,5335.155;1.7690428,-0.4999469,9.114416,1.7690428,-0.15382981,8.768299,5335.155;-0.23074472,0.5768618,10.306598,-0.23074472,0.5768618,10.306598,5335.155;-0.23074472,-1.3075534,8.46064,-0.9229789,-1.3075534,8.46064,5335.155;-0.23074472,-1.3075534,6.5762243,0.07691491,-1.3460109,6.5762243,5368.709;-0.23074472,-0.15382981,9.614364,-0.34611708,-0.15382981,9.614364,5368.709;-0.23074472,-0.15382981,9.614364,-0.38457453,0.0,9.114416,5368.709;1.1152661,-0.15382981,4.1918626,1.1152661,-0.8845214,4.1918626,5402.2637;2.9612238,2.0767026,8.729842,2.9612238,2.0767026,8.729842,5402.2637;-0.4999469,-0.19228727,8.729842,-0.4999469,-0.19228727,9.345161,5402.2637;-0.4999469,-0.19228727,8.729842,-0.5768618,0.8076065,8.576012,5435.818;0.8076065,-0.19228727,6.1531925,0.8076065,-0.9998938,6.1531925,5435.818;0.8076065,-0.19228727,9.075959,1.3844683,0.46148944,9.075959,5435.818;0.8076065,-0.19228727,9.075959,-0.038457453,0.26920217,9.614364,5435.818;0.8076065,-0.19228727,5.037926,0.96143633,0.53840435,5.037926,5469.3726;-1.2306385,-0.19228727,9.537449,-1.2306385,0.0,9.537449,5469.3726;-1.2306385,-2.2305322,7.499203,-0.23074472,-2.2305322,7.499203,5469.3726;-1.2306385,-0.11537236,9.152874,-1.2306385,-0.11537236,9.152874,5502.927;-1.2306385,2.2689898,11.575693,-0.5768618,2.2689898,11.575693,5502.927;-1.2306385,-1.8075004,11.575693,-1.1921811,-1.8075004,10.960374,5502.927;-1.2306385,-1.8075004,8.499097,-0.4999469,-1.3844683,8.499097,5536.4814;-2.884309,0.4999469,13.113992,-2.884309,0.4999469,13.113992,5536.4814;-1.6536705,2.3843622,11.92181,-1.6536705,2.3843622,11.92181,5536.4814;-1.6536705,-1.6536705,11.92181,-0.9998938,-1.6536705,11.075747,5536.4814;-0.038457453,0.11537236,9.845108,-0.038457453,0.11537236,9.845108,5570.0356;-2.1536174,2.6151068,14.113885,-2.1536174,2.6151068,14.113885,5570.0356;3.1150537,1.5382981,14.113885,3.1150537,1.5382981,13.421651,5570.0356;0.26920217,0.30765963,10.229683,0.26920217,0.30765963,10.229683,5603.5903;-1.4613832,0.30765963,10.229683,-1.4613832,0.53840435,10.883459,5603.5903;-1.4613832,1.9228727,10.229683,-0.53840435,1.9228727,11.152661,5603.5903;2.4997344,0.8845214,6.614682,2.4997344,0.8845214,6.614682,5603.5903;0.38457453,0.8845214,10.691172,0.38457453,0.34611708,10.691172,5637.1445;-1.692128,-0.15382981,10.691172,-1.692128,-0.15382981,10.421969,5637.1445;0.038457453,-1.4998407,6.5762243,0.038457453,-1.4998407,6.5762243,5637.1445;-0.9998938,0.5768618,11.691066,-0.9998938,0.5768618,11.691066,5670.699;-0.9998938,0.5768618,9.691278,-0.26920217,1.1921811,9.691278,5670.699;0.69223416,-1.2306385,5.2302136,0.69223416,-1.2306385,5.2302136,5670.699;0.69223416,-0.11537236,5.2302136,-0.15382981,-0.11537236,5.153299,5704.2534;-0.4999469,-0.11537236,7.7684054,-0.4999469,-0.8076065,7.7684054,5704.2534;0.76914907,-0.11537236,7.7684054,0.76914907,0.61531925,8.499097,5704.2534;0.76914907,-1.5767555,5.5378733,0.34611708,-1.5767555,5.5378733,5704.2534;0.76914907,0.9229789,8.037608,-0.07691491,0.9229789,8.037608,5737.808;-0.846064,-1.5382981,8.037608,-0.846064,-1.5382981,8.960587,5737.808;1.6536705,0.15382981,4.1149473,1.6536705,0.15382981,4.1149473,5737.808;-0.30765963,0.15382981,7.729948,-0.30765963,0.53840435,7.729948,5771.3623;-0.30765963,0.15382981,7.729948,-0.15382981,-0.5768618,8.076065,5771.3623;-1.4229257,-1.2690959,7.729948,-1.4229257,-1.2690959,8.114523,5771.3623;-1.4229257,0.4999469,7.729948,-1.1152661,0.4999469,8.499097,5804.9165;-0.23074472,0.4999469,13.767768,-0.23074472,0.9229789,13.767768,5804.9165;-0.23074472,0.4999469,8.30681,0.5768618,-0.07691491,8.30681,5804.9165;-1.7305853,0.4999469,11.998726,-1.7305853,-0.07691491,11.998726,5804.9165;-1.7305853,3.4996283,13.806226,-1.3844683,3.4996283,13.806226,5838.471;-0.46148944,-1.4998407,9.691278,-0.46148944,-1.4998407,9.691278,5838.471;-0.46148944,-1.4998407,9.691278,-0.34611708,-1.2690959,10.26814,5838.471;-3.8457453,1.1921811,14.267715,-3.8457453,1.1921811,14.267715,5872.0254;-0.96143633,2.4228196,12.69096,-0.96143633,2.4228196,12.69096,5872.0254;-0.96143633,-0.30765963,12.69096,-0.423032,-0.30765963,11.92181,5872.0254;-0.96143633,-0.30765963,10.26814,-0.846064,0.11537236,10.26814,5905.58;-2.3459046,2.11516,15.113779,-2.3459046,2.11516,15.113779,5905.58;0.15382981,-0.5768618,7.0761714,0.15382981,-0.5768618,7.0761714,5905.58;0.15382981,-0.5768618,10.306598,-0.6537767,-0.423032,10.306598,5905.58;0.15382981,-0.5768618,10.306598,-0.26920217,-0.23074472,10.614257,5939.1343;0.15382981,-0.5768618,7.614576,-0.423032,-0.69223416,7.614576,5939.1343;1.6536705,-0.5768618,10.306598,1.6536705,-0.19228727,10.306598,5939.1343;-0.76914907,0.53840435,10.306598,-0.76914907,0.53840435,9.845108,5972.689;0.53840435,-1.4229257,6.307022,0.53840435,-1.4229257,6.307022,5972.689;2.884309,-1.4229257,6.307022,2.884309,-0.46148944,6.806969,5972.689;-0.53840435,-1.4229257,9.152874,-0.53840435,-1.2690959,9.152874,6006.243;-0.53840435,1.2690959,9.152874,-0.46148944,1.2690959,8.537555,6006.243;-0.53840435,-0.76914907,5.614788,0.15382981,-0.76914907,5.614788,6006.243;0.96143633,0.846064,8.883672,0.96143633,0.846064,8.883672,6006.243;0.96143633,0.846064,7.7684054,0.30765963,0.34611708,7.7684054,6039.798;2.807394,0.846064,3.9995751,2.807394,0.30765963,3.9995751,6039.798;0.19228727,-0.61531925,7.268459,0.19228727,-0.61531925,7.268459,6039.798;0.19228727,-0.61531925,7.268459,-0.46148944,-0.9229789,8.15298,6073.352;0.19228727,-0.61531925,8.806757,0.38457453,-0.23074472,8.806757,6073.352;0.19228727,0.76914907,5.499416,0.4999469,0.76914907,5.499416,6073.352;-0.9229789,0.76914907,10.614257,-0.9229789,1.1152661,10.614257,6073.352;0.846064,-1.4998407,8.46064,0.846064,-1.4998407,8.46064,6106.9067;-2.1920748,0.423032,9.498991,-2.1920748,0.423032,9.498991,6106.9067;-2.1920748,2.9612238,13.575481,-1.8075004,2.9612238,13.575481,6106.9067;-2.1920748,-1.4998407,11.652608,-1.9228727,-1.4998407,11.652608,6140.461;-0.038457453,-1.4998407,7.7684054,-0.038457453,-1.2306385,7.7684054,6140.461;-3.576543,1.1152661,14.49846,-3.576543,1.1152661,14.49846,6140.461;-1.5382981,2.3074472,14.49846,-1.5382981,2.3074472,13.613938,6174.0156;-1.5382981,-0.38457453,11.268034,-0.61531925,-0.38457453,11.268034,6174.0156;0.7306916,-0.38457453,9.652821,0.7306916,0.423032,9.652821,6174.0156;-1.9228727,2.8458514,15.613726,-1.9228727,2.8458514,15.613726,6174.0156;1.4998407,0.5768618,11.306491,1.4998407,0.5768618,11.306491,6207.57;-1.1152661,0.5768618,11.306491,-1.1152661,-0.423032,11.652608,6207.57;-1.1152661,0.5768618,11.306491,-0.96143633,0.9998938,11.767981,6207.57;-1.1152661,0.5768618,9.460533,-0.7306916,0.423032,9.460533,6241.1245;1.615213,0.5768618,6.614682,1.615213,1.0383513,6.614682,6241.1245;0.23074472,0.5768618,10.229683,0.23074472,0.11537236,10.229683,6241.1245;-0.8845214,-0.76914907,8.922129,-0.8845214,-0.76914907,8.922129,6274.6787;-0.8845214,-1.8844151,6.6531396,0.07691491,-1.8844151,6.6531396,6274.6787;-0.8845214,-0.4999469,10.191225,-1.3075534,-0.4999469,10.191225,6274.6787;0.423032,-0.4999469,9.152874,0.423032,0.423032,9.152874,6274.6787;0.423032,-1.7305853,4.6148944,1.4229257,-1.7305853,4.6148944,6308.2334;-0.8076065,-0.53840435,4.6148944,-0.8076065,-0.53840435,4.576437,6308.2334;-0.8076065,-0.53840435,9.729735,-0.46148944,-0.76914907,9.729735,6308.2334;-0.8076065,-0.53840435,7.306916,-0.23074472,-0.96143633,7.306916,6341.7876;0.69223416,-0.53840435,5.499416,0.69223416,-1.5382981,5.499416,6341.7876;-0.53840435,-0.53840435,11.152661,-0.53840435,-0.038457453,11.152661,6341.7876;-0.53840435,-0.53840435,8.576012,-0.30765963,-0.9998938,8.576012,6375.3423;1.2306385,-0.53840435,5.1917562,1.2306385,0.038457453,5.1917562,6375.3423;-0.9229789,1.0383513,10.229683,-0.9229789,1.0383513,10.229683,6375.3423;0.61531925,-1.615213,7.037714,0.61531925,-1.615213,7.037714,6375.3423;-0.8845214,-0.15382981,9.229789,-0.8845214,-0.15382981,9.229789,6408.8965;-0.8845214,2.1536174,11.421864,-1.2690959,2.1536174,11.421864,6408.8965;0.26920217,-0.30765963,13.883141,0.26920217,-0.30765963,13.883141,6408.8965;0.26920217,-0.30765963,9.037501,0.6537767,-0.76914907,9.037501,6442.451;-2.6151068,0.7306916,11.883353,-2.6151068,0.7306916,11.883353,6442.451;-0.846064,2.11516,11.883353,-0.846064,2.11516,12.8447895,6442.451;-0.846064,-0.846064,9.845108,0.038457453,-0.846064,9.845108,6476.0054;-0.846064,-0.846064,9.845108,-0.34611708,-0.423032,9.960481,6476.0054;-2.7689366,2.4997344,14.883035,-2.7689366,2.4997344,14.883035,6476.0054;-0.96143633,2.4997344,12.191012,-0.96143633,1.8075004,12.191012,6476.0054;-0.96143633,0.07691491,11.075747,-1.3844683,0.07691491,11.075747,6509.5596;-2.9227664,0.07691491,11.075747,-2.9227664,-0.23074472,10.614257,6509.5596;-2.9227664,1.8075004,13.037077,-2.0767026,1.8075004,13.037077,6509.5596;0.15382981,0.11537236,6.614682,0.15382981,0.11537236,6.614682,6543.1143;0.15382981,0.11537236,9.883566,0.15382981,-0.07691491,9.883566,6543.1143;0.15382981,0.11537236,11.075747,0.038457453,0.30765963,11.075747,6543.1143;0.15382981,-1.0768087,6.5762243,-0.76914907,-1.0768087,6.5762243,6543.1143;0.15382981,-1.0768087,8.729842,0.8845214,-0.15382981,8.729842,6576.6685;-0.8845214,0.53840435,8.729842,-0.8845214,0.53840435,9.422076,6576.6685;1.5767555,-1.1921811,4.576437,1.5767555,-1.1921811,4.576437,6576.6685;1.5767555,0.07691491,4.576437,1.4998407,0.07691491,5.5378733,6610.223;0.0,0.07691491,8.076065,0.0,1.0383513,8.076065,6610.223;0.0,0.07691491,9.575906,-0.19228727,-0.46148944,9.575906,6610.223;0.0,-1.8075004,4.345692,0.19228727,-1.8075004,4.345692,6643.7773;0.0,0.26920217,11.191119,-0.38457453,0.26920217,11.191119,6643.7773;0.0,-1.3460109,8.383725,-0.6537767,-1.3460109,8.383725,6643.7773;2.3843622,-0.11537236,2.807394,2.3843622,-0.11537236,2.807394,6643.7773;0.46148944,-0.11537236,7.7684054,0.46148944,-0.96143633,7.7684054,6677.332;-1.1152661,-1.6536705,9.229789,-1.1152661,-1.6536705,9.229789,6677.332;-1.1152661,-1.6536705,9.229789,-0.61531925,-0.96143633,9.152874,6677.332;-1.1152661,1.2690959,8.191438,-0.5768618,1.2690959,8.191438,6710.886;-1.1152661,2.3843622,13.460109,-1.4229257,2.3843622,13.460109,6710.886;0.19228727,-1.8844151,8.422182,0.19228727,-1.8844151,8.422182,6710.886;-3.807288,-0.8076065,8.422182,-3.807288,-0.8076065,9.075959,6744.441;-2.3459046,2.2689898,14.383087,-2.3459046,2.2689898,14.383087,6744.441;-2.3459046,-1.6536705,8.61447,-1.6536705,-1.6536705,8.61447,6744.441;-0.11537236,-1.6536705,8.61447,-0.11537236,-1.6536705,8.691384,6744.441;-3.1150537,-0.23074472,14.613832,-3.1150537,-0.23074472,14.613832,6777.995;-0.8076065,2.7304792,14.613832,-0.8076065,2.7304792,14.421545,6777.995;-0.8076065,-1.2690959,10.3835125,-0.15382981,-1.2690959,10.3835125,6777.995;-0.8076065,0.8076065,10.3835125,-0.23074472,0.8076065,10.498885,6811.55;-3.1150537,2.1920748,15.459896,-3.1150537,2.1920748,15.459896,6811.55;1.7305853,2.1920748,10.229683,1.7305853,1.3460109,10.229683,6811.55;0.34611708,-0.07691491,10.229683,0.34611708,-0.07691491,10.11431,6845.104;0.34611708,-0.07691491,12.075641,0.46148944,0.6537767,12.075641,6845.104;-0.9229789,-0.07691491,9.422076,-0.9229789,-0.07691491,9.422076,6845.104;0.11537236,-0.07691491,9.422076,0.11537236,0.76914907,9.80665,6845.104;0.11537236,1.5382981,9.422076,0.4999469,1.5382981,10.306598,6878.6587;0.11537236,-0.96143633,6.4223948,1.0768087,-0.96143633,6.4223948,6878.6587;0.11537236,-0.96143633,6.4223948,0.34611708,-0.34611708,6.691597,6878.6587;0.11537236,0.53840435,11.229576,-0.11537236,0.53840435,11.229576,6912.213;-1.0768087,0.53840435,8.691384,-1.0768087,0.423032,8.691384,6912.213;-1.0768087,-1.1537236,6.460852,-0.46148944,-1.1537236,6.460852,6912.213;-1.0768087,-0.038457453,7.5761185,-0.6537767,-0.038457453,7.5761185,6945.7676;-1.0768087,-0.038457453,7.5761185,-1.2690959,0.0,7.883778,6945.7676;1.615213,-1.2306385,4.922554,1.615213,-1.2306385,4.922554,6945.7676;1.615213,-1.2306385,6.1531925,0.8845214,-1.4998407,6.1531925,6945.7676;-1.2690959,-1.2306385,7.729948,-1.2690959,-1.1152661,7.729948,6979.322;0.038457453,-0.15382981,7.729948,0.038457453,-0.15382981,8.691384,6979.322;0.038457453,-0.15382981,5.6532454,0.9229789,0.38457453,5.6532454,6979.322;0.038457453,1.8075004,10.845002,0.26920217,1.8075004,10.845002,7012.8765;0.038457453,-1.7305853,6.8454266,-0.19228727,-1.7305853,6.8454266,7012.8765;0.038457453,-1.7305853,9.537449,0.0,-1.1152661,9.537449,7012.8765;0.038457453,3.2688835,11.806438,-0.9229789,3.2688835,11.806438,7046.4307;0.038457453,0.07691491,9.306704,-0.69223416,0.07691491,9.306704,7046.4307;0.038457453,-0.96143633,9.306704,0.423032,-0.96143633,8.46064,7046.4307;-3.0765963,1.0383513,12.537129,-3.0765963,1.0383513,12.537129,7046.4307;-1.4613832,2.5766494,12.537129,-1.4613832,2.5766494,13.113992,7079.9854;-0.038457453,0.038457453,10.614257,-0.038457453,0.038457453,10.614257,7079.9854;-0.038457453,0.038457453,10.614257,-0.038457453,-0.53840435,10.652715,7079.9854;-2.6535642,2.0767026,15.344523,-2.6535642,2.0767026,15.344523,7113.5396;-1.0383513,2.0767026,11.229576,-1.0383513,1.8844151,11.229576,7113.5396;-1.0383513,-0.26920217,12.4986725,-0.07691491,-0.26920217,12.4986725,7113.5396;-2.884309,-0.26920217,9.768193,-2.884309,-0.07691491,9.768193,7113.5396;-2.884309,-0.26920217,12.075641,-1.9228727,0.61531925,12.075641,7147.094;-0.53840435,-0.26920217,8.806757,-0.53840435,-0.8076065,8.806757,7147.094;-0.53840435,-0.26920217,9.845108,-0.30765963,0.26920217,9.845108,7147.094;-0.53840435,-0.26920217,9.845108,-0.7306916,-0.76914907,10.26814,7180.6484;-0.53840435,-1.4229257,5.960905,-0.46148944,-1.4229257,5.960905,7180.6484;-0.53840435,-1.4229257,9.191331,0.038457453,-0.423032,9.191331,7180.6484;-0.53840435,0.4999469,9.191331,0.38457453,0.4999469,9.498991,7214.2026;2.0767026,0.4999469,5.2302136,2.0767026,-0.07691491,5.2302136,7214.2026;-0.15382981,-1.0768087,6.806969,-0.15382981,-1.0768087,6.806969,7214.2026;-1.1921811,-0.038457453,6.806969,-1.1921811,-0.038457453,7.6530333,7214.2026;-1.1921811,-0.038457453,9.114416,-0.19228727,-0.26920217,9.114416,7247.7573;0.61531925,-2.2689898,3.3457985,0.61531925,-2.2689898,3.3457985,7247.7573;-0.4999469,-2.2689898,9.075959,-0.4999469,-1.2690959,9.075959,7247.7573;-0.4999469,-1.0768087,9.075959,0.19228727,-1.0768087,8.61447,7281.3115;2.6920218,0.23074472,4.8840966,2.6920218,0.23074472,4.8840966,7281.3115;0.0,0.23074472,8.30681,0.0,-0.30765963,8.30681,7281.3115;0.0,-0.9998938,9.652821,-0.26920217,-0.9998938,9.652821,7314.866;-1.3844683,-0.9998938,9.652821,-1.3844683,-1.1537236,8.960587,7314.866;-1.3844683,0.8845214,9.652821,-0.8076065,0.8845214,10.191225,7314.866;-1.3844683,0.8845214,10.883459,-0.9229789,1.5767555,10.883459,7314.866;1.3075534,-1.7305853,8.922129,1.3075534,-1.7305853,8.922129,7348.4204;-3.1919687,-0.5768618,8.922129,-3.1919687,-0.5768618,8.46064,7348.4204;-3.1919687,1.7305853,11.383406,-2.5766494,1.7305853,11.383406,7348.4204;0.38457453,0.11537236,11.383406,0.38457453,0.11537236,10.7296295,7381.975;0.38457453,-1.3460109,9.345161,-0.26920217,-1.3460109,9.345161,7381.975;-2.5766494,2.6920218,13.498566,-2.5766494,2.6920218,13.498566,7381.975;-0.846064,2.6920218,12.152555,-0.846064,2.3459046,12.152555,7415.5293;-0.846064,-1.0768087,9.768193,-1.1537236,-1.0768087,9.768193,7415.5293;0.26920217,-1.0768087,9.768193,0.26920217,-1.0768087,10.306598,7415.5293;-2.0767026,2.5766494,15.113779,-2.0767026,2.5766494,15.113779,7415.5293;-0.07691491,0.23074472,9.422076,-0.07691491,0.23074472,9.422076,7449.084;-0.07691491,0.23074472,10.537342,-0.9229789,-0.46148944,10.537342,7449.084;-0.07691491,0.23074472,12.191012,0.19228727,1.1921811,12.191012,7449.084;-0.07691491,0.23074472,8.960587,-0.4999469,-0.038457453,8.960587,7482.638;-0.07691491,0.23074472,7.6914907,0.11537236,-0.30765963,7.6914907,7482.638;-0.07691491,0.23074472,10.768087,-0.46148944,0.69223416,10.768087,7482.638;-0.07691491,0.23074472,6.537767,0.8076065,-0.46148944,6.537767,7516.193;-0.07691491,0.23074472,7.6530333,-0.038457453,-0.19228727,7.6530333,7516.193;-0.07691491,0.23074472,9.422076,0.38457453,0.15382981,9.422076,7516.193;-0.07691491,0.23074472,9.422076,-0.8076065,0.4999469,8.883672,7516.193;-0.07691491,-2.0767026,5.614788,0.0,-2.0767026,5.614788,7549.747;0.96143633,-0.34611708,7.460746,0.96143633,-0.34611708,7.460746,7549.747;0.96143633,-0.34611708,7.460746,0.26920217,-0.96143633,7.729948,7549.747;0.96143633,-0.34611708,5.345586,0.15382981,-0.8076065,5.345586,7583.302;0.96143633,-0.34611708,5.345586,0.34611708,-0.76914907,6.0762777,7583.302;-0.11537236,-0.34611708,10.7296295,-0.11537236,-0.423032,10.7296295,7583.302;-0.11537236,-0.34611708,8.2683525,-0.38457453,0.19228727,8.2683525,7583.302;-0.11537236,-0.34611708,7.037714,-0.19228727,0.6537767,7.037714,7616.856;-0.11537236,2.6920218,12.267927,-0.8845214,2.6920218,12.267927,7616.856;-0.11537236,-0.96143633,6.691597,0.6537767,-0.96143633,6.691597,7616.856;-0.11537236,-0.96143633,8.537555,-0.38457453,-0.9998938,8.537555,7650.4106;-1.3844683,2.1920748,12.921704,-1.3844683,2.1920748,12.921704,7650.4106;-1.3844683,0.15382981,11.652608,-1.5767555,0.15382981,11.652608,7650.4106;0.53840435,-1.0768087,8.229895,0.53840435,-1.0768087,8.229895,7683.965;-1.3460109,0.26920217,12.3833,-1.3460109,0.26920217,12.3833,7683.965;-1.3460109,2.8458514,12.3833,-0.6537767,2.8458514,12.8447895,7683.965;-2.4228196,-2.5381918,9.345161,-2.4228196,-2.5381918,9.345161,7683.965;-0.38457453,0.15382981,10.7296295,-0.38457453,0.15382981,10.7296295,7717.5195;-4.0380325,1.4613832,15.267609,-4.0380325,1.4613832,15.267609,7717.5195;-0.30765963,1.4613832,10.998832,-0.30765963,1.3075534,10.998832,7717.5195;-0.30765963,0.11537236,12.921704,-1.3075534,0.11537236,12.921704,7751.0737;-1.615213,0.11537236,10.921917,-1.615213,0.53840435,10.921917,7751.0737;-1.615213,0.11537236,12.306385,-2.5766494,0.34611708,12.306385,7751.0737;1.4613832,0.11537236,8.768299,1.4613832,0.46148944,8.768299,7784.6284;-0.15382981,0.11537236,10.460427,-0.15382981,0.0,10.460427,7784.6284;-0.15382981,0.11537236,10.460427,0.38457453,-0.038457453,9.498991,7784.6284;-0.15382981,-1.9997876,5.960905,-0.038457453,-1.9997876,5.960905,7784.6284;1.8459578,1.3075534,10.3835125,1.8459578,1.3075534,10.3835125,7818.1826;-0.76914907,1.3075534,9.268247,-0.76914907,0.5768618,9.268247,7818.1826;1.9228727,0.15382981,9.268247,1.9228727,0.15382981,9.883566,7818.1826;0.07691491,0.15382981,6.768512,0.07691491,-0.8076065,6.768512,7851.7373;0.07691491,0.15382981,8.114523,-0.69223416,-0.15382981,8.114523,7851.7373;0.07691491,0.15382981,9.652821,-0.6537767,-0.07691491,9.652821,7851.7373;0.07691491,-1.1537236,5.1917562,0.9998938,-1.1537236,5.1917562,7885.2915;-1.5767555,-0.07691491,7.729948,-1.5767555,-0.07691491,7.729948,7885.2915;0.038457453,-0.07691491,9.191331,0.038457453,-0.61531925,9.191331,7885.2915;1.8844151,0.96143633,4.922554,1.8844151,0.96143633,4.922554,7885.2915;0.26920217,0.96143633,9.114416,0.26920217,0.6537767,9.114416,7918.846;-1.8459578,-1.8075004,7.499203,-1.8459578,-1.8075004,7.499203,7918.846;-0.07691491,-1.8075004,7.499203,-0.07691491,-1.3460109,7.806863,7918.846;-0.07691491,1.692128,8.960587,-0.4999469,1.692128,8.960587,7952.4004;-0.07691491,0.19228727,8.960587,-0.46148944,0.19228727,8.383725,7952.4004;0.96143633,-0.8845214,8.960587,0.96143633,-0.8845214,8.652927,7952.4004;-2.1920748,-0.8845214,8.960587,-2.1920748,-1.4998407,8.806757,7985.9546;-0.846064,1.3075534,10.11431,-0.846064,1.3075534,10.11431,7985.9546;-0.846064,-1.0383513,11.191119,-0.38457453,-1.0383513,11.191119,7985.9546;-0.846064,-1.0383513,9.075959,0.11537236,-1.0383513,9.075959,7985.9546;-2.5766494,1.8459578,12.22947,-2.5766494,1.8459578,12.22947,8019.5093;-2.5766494,1.8459578,12.22947,-1.615213,2.0767026,12.998619,8019.5093;-0.11537236,-0.34611708,10.191225,-0.11537236,-0.34611708,10.191225,8019.5093;-0.11537236,-0.34611708,10.191225,-0.38457453,-1.2690959,9.80665,8053.0635;-2.6920218,2.1920748,15.729098,-2.6920218,2.1920748,15.729098,8053.0635;-0.19228727,0.96143633,10.075852,-0.19228727,0.96143633,10.075852,8053.0635;-0.19228727,-0.76914907,10.075852,-0.30765963,-0.76914907,9.345161,8053.0635;-0.19228727,1.4613832,12.460215,-0.07691491,1.4613832,12.460215,8086.618;-0.19228727,0.23074472,10.691172,-0.5768618,0.23074472,10.691172,8086.618;-0.19228727,0.23074472,8.729842,0.26920217,0.7306916,8.729842,8086.618;-0.19228727,0.23074472,10.229683,-0.61531925,0.07691491,10.229683,8120.1724;1.0768087,0.23074472,7.3453736,1.0768087,0.23074472,7.3453736,8120.1724;-0.8845214,0.23074472,8.960587,-0.8845214,0.15382981,8.960587,8120.1724;-0.8845214,0.23074472,8.960587,-0.07691491,0.6537767,8.30681,8153.727;-0.8845214,0.23074472,8.960587,-0.53840435,0.038457453,9.575906,8153.727;-0.8845214,-1.6536705,6.8454266,-0.423032,-1.6536705,6.8454266,8153.727;0.96143633,-1.6536705,5.614788,0.96143633,-0.96143633,5.614788,8153.727;0.96143633,0.38457453,10.075852,0.23074472,0.38457453,10.075852,8187.2813;0.96143633,0.38457453,6.460852,0.9229789,-0.46148944,6.460852,8187.2813;0.96143633,-0.96143633,5.2302136,0.07691491,-0.96143633,5.2302136,8187.2813;0.96143633,-0.96143633,11.614151,0.15382981,-1.1921811,11.614151,8220.836;-0.34611708,-0.96143633,7.960693,-0.34611708,0.0,7.960693,8220.836;-0.34611708,0.4999469,7.960693,0.5768618,0.4999469,6.9992566,8220.836;-0.34611708,0.4999469,10.306598,-1.3075534,1.1537236,10.306598,8254.391;1.4229257,0.4999469,8.422182,1.4229257,0.53840435,8.422182,8254.391;0.0,-1.8075004,8.422182,0.0,-1.8075004,8.076065,8254.391;0.0,1.9613302,9.922023,-0.8845214,1.9613302,9.922023,8254.391;0.0,1.9613302,12.652502,-0.34611708,0.96143633,12.652502,8287.944;0.0,-1.4229257,7.6914907,-0.423032,-1.4229257,7.6914907,8287.944;-1.1921811,-0.19228727,11.614151,-1.1921811,-0.19228727,11.614151,8287.944;-1.1921811,2.6535642,12.729417,-0.34611708,2.6535642,12.729417,8321.499;-1.1921811,-1.9228727,8.806757,-1.5382981,-1.9228727,8.806757,8321.499;-0.15382981,-0.5768618,10.345055,-0.15382981,-0.5768618,10.345055,8321.499;-2.3843622,2.8458514,14.383087,-2.3843622,2.8458514,14.383087,8355.054;-2.3843622,2.8458514,13.190907,-1.3844683,1.9997876,13.190907,8355.054;-0.9998938,-1.4998407,9.345161,-0.9998938,-1.4998407,9.345161,8355.054;-2.1536174,0.11537236,9.345161,-2.1536174,0.11537236,9.768193,8355.054;-2.1536174,1.7305853,14.536918,-3.0765963,1.7305853,14.536918,8388.608;1.615213,0.5768618,9.152874,1.615213,0.5768618,9.152874,8388.608;0.07691491,-0.4999469,11.075747,0.07691491,-0.4999469,11.075747,8388.608;0.07691491,-0.4999469,9.345161,-0.07691491,-0.07691491,9.345161,8422.162;0.07691491,-0.4999469,6.8454266,0.69223416,-0.9229789,6.8454266,8422.162;0.07691491,1.0383513,10.614257,1.0768087,1.0383513,10.614257,8422.162;0.07691491,1.0383513,10.614257,-0.038457453,0.4999469,9.960481,8455.717;1.1921811,1.0383513,5.8070755,1.1921811,0.11537236,5.8070755,8455.717;0.11537236,-1.1152661,5.8070755,0.11537236,-1.1152661,6.2301073,8455.717;0.11537236,0.423032,9.268247,0.26920217,0.423032,9.268247,8455.717;0.11537236,0.423032,9.268247,-0.26920217,1.1152661,8.845214,8489.271;0.11537236,-1.4998407,6.3839374,0.8845214,-1.4998407,6.3839374,8489.271;-1.1537236,0.26920217,6.3839374,-1.1537236,0.26920217,7.037714,8489.271;-1.1537236,0.26920217,8.883672,-0.69223416,1.2306385,8.883672,8522.826;1.7305853,0.26920217,6.614682,1.7305853,0.11537236,6.614682,8522.826;0.5768618,0.26920217,8.191438,0.5768618,0.0,8.191438,8522.826;-1.8459578,0.26920217,8.191438,-1.8459578,0.30765963,8.652927,8556.38;-0.038457453,-1.2690959,8.191438,-0.038457453,-1.2690959,8.652927,8556.38;-0.038457453,0.26920217,6.806969,0.26920217,0.26920217,6.806969,8556.38;-1.3075534,0.26920217,7.9222355,-1.3075534,-0.69223416,7.9222355,8556.38;0.6537767,-1.615213,6.0378203,0.6537767,-1.615213,6.0378203,8589.935;-1.9228727,-0.26920217,9.80665,-1.9228727,-0.26920217,9.80665,8589.935;-0.34611708,1.1152661,8.229895,-0.34611708,1.1152661,8.229895,8589.935;-0.34611708,-1.3844683,10.345055,-1.2690959,-1.3844683,10.345055,8623.489;-0.34611708,-1.3844683,10.345055,-0.11537236,-1.8459578,10.306598,8623.489;-1.9228727,0.69223416,10.345055,-1.9228727,0.69223416,10.306598,8623.489;-1.9228727,2.1920748,12.22947,-2.038245,2.1920748,12.22947,8623.489;-0.15382981,-0.9998938,10.921917,-0.15382981,-0.9998938,10.921917,8657.043;-0.15382981,-0.9998938,9.768193,-0.9998938,-1.1152661,9.768193,8657.043;-2.3843622,1.6536705,16.61362,-2.3843622,1.6536705,16.61362,8657.043;-0.23074472,1.6536705,11.498778,-0.23074472,1.0383513,11.498778,8690.598;-0.23074472,-1.5767555,11.498778,0.15382981,-1.5767555,11.152661,8690.598;-0.23074472,0.15382981,11.498778,-0.15382981,0.15382981,10.806544,8690.598;-1.615213,0.15382981,11.498778,-1.615213,0.53840435,11.767981,8724.152;-0.53840435,0.15382981,9.383618,-0.53840435,-0.76914907,9.383618,8724.152;-0.53840435,0.15382981,9.383618,0.07691491,1.1152661,10.075852,8724.152;0.8845214,1.4998407,9.383618,0.8845214,1.4998407,9.498991,8724.152;-0.23074472,0.19228727,9.383618,-0.23074472,0.19228727,9.614364,8757.707;-0.23074472,0.19228727,9.383618,0.07691491,0.46148944,9.460533,8757.707;-0.23074472,0.19228727,9.383618,-0.53840435,1.0383513,9.152874,8757.707;-0.23074472,0.19228727,9.383618,-0.34611708,-0.76914907,9.691278,8791.261;0.8845214,0.19228727,5.8839903,0.8845214,0.5768618,5.8839903,8791.261;-0.15382981,0.19228727,8.15298,-0.15382981,0.38457453,8.15298,8791.261;-0.15382981,0.19228727,8.15298,0.15382981,0.11537236,8.076065,8824.815;-0.15382981,-1.3844683,4.7302666,0.46148944,-1.3844683,4.7302666,8824.815;-0.15382981,0.5768618,10.498885,0.46148944,0.5768618,10.498885,8824.815;-0.15382981,0.5768618,7.9222355,0.11537236,0.23074472,7.9222355,8824.815;-0.15382981,-0.76914907,4.6148944,0.53840435,-0.76914907,4.6148944,8858.37;-0.15382981,0.8845214,9.383618,-0.38457453,0.8845214,9.383618,8858.37;0.8845214,0.8845214,9.383618,0.8845214,0.5768618,8.652927,8858.37;-0.6537767,-0.38457453,9.383618,-0.6537767,-0.38457453,9.345161,8891.925;0.61531925,1.692128,7.306916,0.61531925,1.692128,7.306916,8891.925;-0.6537767,-0.76914907,9.152874,-0.6537767,-0.76914907,9.152874,8891.925;0.46148944,-0.76914907,7.2300014,0.46148944,-1.6536705,7.2300014,8925.479;-0.6537767,-0.76914907,9.498991,-0.6537767,-0.61531925,9.498991,8925.479;-0.6537767,1.7305853,9.498991,-0.23074472,1.7305853,10.11431,8925.479;-2.807394,-1.9997876,9.498991,-2.807394,-1.9997876,10.460427,8925.479;0.15382981,-1.9997876,9.498991,0.15382981,-1.3844683,9.691278,8959.033;-1.5767555,2.1920748,12.614044,-1.5767555,2.1920748,12.614044,8959.033;-1.5767555,2.1920748,12.614044,-1.4998407,2.2305322,13.537024,8959.033;0.23074472,-2.2305322,9.075959,0.23074472,-2.2305322,9.075959,8992.588;0.23074472,-0.96143633,9.075959,-0.34611708,-0.96143633,9.345161,8992.588;-1.9997876,3.1150537,15.113779,-1.9997876,3.1150537,15.113779,8992.588;1.4998407,0.846064,11.114204,1.4998407,0.846064,11.114204,9026.143;1.4998407,-0.4999469,11.114204,0.61531925,-0.4999469,10.691172,9026.143;-1.7305853,-0.4999469,11.114204,-1.7305853,0.0,10.537342,9026.143;-0.61531925,0.9229789,10.075852,-0.61531925,0.9229789,10.075852,9026.143;0.69223416,-0.8076065,8.960587,0.69223416,-0.8076065,8.960587,9059.696;0.69223416,-0.8076065,8.960587,-0.19228727,-0.9229789,9.229789,9059.696;-0.46148944,-0.8076065,8.960587,-0.46148944,-1.0768087,8.191438,9059.696;-0.46148944,-0.8076065,8.960587,0.0,0.038457453,8.076065,9093.251;-0.46148944,-0.8076065,10.229683,-0.30765963,-0.423032,10.229683,9093.251;-0.46148944,0.9998938,10.229683,-0.26920217,0.9998938,11.152661,9093.251;-0.46148944,0.9998938,8.883672,-0.15382981,0.26920217,8.883672,9093.251;-0.46148944,-0.15382981,5.0763836,-0.26920217,-0.15382981,5.0763836,9126.806;-0.46148944,-0.15382981,9.229789,-1.3844683,-0.76914907,9.229789,9126.806;1.1537236,-0.15382981,7.306916,1.1537236,0.46148944,7.306916,9126.806;1.1537236,-0.15382981,5.4609585,0.4999469,-0.9998938,5.4609585,9160.36;0.0,-0.15382981,9.80665,0.0,-0.26920217,9.80665,9160.36;0.0,-0.15382981,9.80665,0.11537236,-0.19228727,8.806757,9160.36;1.7305853,0.9229789,4.3841496,1.7305853,0.9229789,4.3841496,9193.914;0.5768618,-1.4613832,4.3841496,0.5768618,-1.4613832,4.653352,9193.914;0.5768618,-1.4613832,7.1915436,-0.038457453,-0.53840435,7.1915436,9193.914;-1.615213,-1.4613832,7.1915436,-1.615213,-0.61531925,8.114523,9193.914;0.46148944,-0.19228727,5.6532454,0.46148944,-0.19228727,5.6532454,9227.469;-1.2306385,0.9229789,11.498778,-1.2306385,0.9229789,11.498778,9227.469;-1.2306385,-1.9997876,8.037608,-0.23074472,-1.9997876,8.037608,9227.469;-1.2306385,1.1152661,8.037608,-0.76914907,1.1152661,7.0761714,9261.023;-1.2306385,2.4228196,12.421758,-1.1152661,2.4228196,12.421758,9261.023;-1.2306385,-0.8076065,9.614364,-0.76914907,-0.8076065,9.614364,9261.023;-1.2306385,-0.8076065,8.114523,-0.423032,-1.3460109,8.114523,9294.578;-1.2306385,1.4998407,11.575693,-1.8844151,1.4998407,11.575693,9294.578;-1.2306385,1.4998407,14.9599495,-1.4998407,1.9613302,14.9599495,9294.578;0.96143633,-1.2306385,7.9991503,0.96143633,-1.2306385,7.9991503,9294.578;-0.8076065,-1.2306385,9.960481,-0.8076065,-1.2306385,9.960481,9328.132;-0.8076065,2.6535642,14.421545,-1.2690959,2.6535642,14.421545,9328.132;-0.8076065,-1.2690959,7.960693,-0.8845214,-1.2690959,7.960693,9328.132;-0.8076065,-1.2690959,10.7296295,-0.26920217,-0.9998938,10.7296295,9361.687;-0.8076065,0.61531925,12.883246,-0.9998938,0.61531925,12.883246,9361.687;-0.8076065,1.7305853,12.883246,-0.846064,1.7305853,12.652502,9361.687;0.846064,-0.46148944,9.191331,0.846064,-0.46148944,9.191331,9395.241;-0.38457453,-0.46148944,9.191331,-0.38457453,0.38457453,10.075852,9395.241;-1.5767555,1.9997876,13.267821,-1.5767555,1.9997876,13.267821,9395.241;1.9613302,0.38457453,7.268459,1.9613302,0.38457453,7.268459,9395.241;0.38457453,0.38457453,11.460321,0.38457453,0.19228727,11.460321,9428.795;0.38457453,0.38457453,9.614364,0.0,0.4999469,9.614364,9428.795;0.38457453,-1.1537236,7.153086,0.34611708,-1.1537236,7.153086,9428.795;0.38457453,0.6537767,7.153086,1.2306385,0.6537767,7.7684054,9462.35;0.38457453,0.6537767,9.383618,-0.15382981,0.23074472,9.383618,9462.35;0.38457453,-0.53840435,6.0762777,0.26920217,-0.53840435,6.0762777,9462.35;0.38457453,-0.53840435,6.0762777,-0.11537236,-0.9998938,6.6531396,9495.904;0.38457453,1.2690959,11.075747,0.038457453,1.2690959,11.075747,9495.904;0.38457453,0.07691491,8.960587,0.34611708,0.07691491,8.960587,9495.904;0.38457453,0.07691491,4.807182,1.1921811,0.53840435,4.807182,9495.904;-1.8844151,0.07691491,8.076065,-1.8844151,0.07691491,8.076065,9529.459;-1.8844151,0.07691491,7.037714,-0.8845214,-0.9229789,7.037714,9529.459;-1.8844151,0.07691491,9.383618,-1.4998407,0.11537236,9.383618,9529.459;0.26920217,0.07691491,8.345267,0.26920217,0.46148944,8.345267,9563.013;-2.038245,0.07691491,10.806544,-2.038245,-0.76914907,10.806544,9563.013;-0.30765963,-1.4998407,9.268247,-0.30765963,-1.4998407,9.268247,9563.013;-0.30765963,1.4998407,7.3453736,0.61531925,1.4998407,7.3453736,9596.567;-0.30765963,1.4998407,12.69096,-0.26920217,2.1920748,12.69096,9596.567;-0.30765963,-1.3844683,8.076065,0.46148944,-1.3844683,8.076065,9596.567;-0.30765963,-1.3844683,9.345161,-1.0768087,-1.0768087,9.345161,9596.567;-1.9997876,1.9997876,12.960162,-1.9997876,1.9997876,12.960162,9630.122;1.7305853,1.9997876,12.960162,1.7305853,1.2306385,12.69096,9630.122;1.7305853,-0.19228727,9.80665,1.2690959,-0.19228727,9.80665,9630.122;-2.7304792,-0.19228727,11.498778,-2.7304792,0.6537767,11.498778,9663.677;-0.46148944,1.615213,13.306279,-0.46148944,1.615213,13.306279,9663.677;0.61531925,-0.26920217,8.537555,0.61531925,-0.26920217,8.537555,9663.677;0.61531925,-0.26920217,8.537555,0.23074472,0.69223416,9.422076,9663.677;-1.1152661,1.6536705,15.229152,-1.1152661,1.6536705,15.229152,9697.23;-1.1152661,1.6536705,9.80665,-1.0768087,0.8845214,9.80665,9697.23;-1.1152661,-0.6537767,9.80665,-0.8076065,-0.6537767,9.960481,9697.23;-1.1152661,1.4229257,9.80665,-0.5768618,1.4229257,9.883566,9730.785;-1.1152661,0.07691491,9.80665,-0.69223416,0.07691491,10.191225,9730.785;-1.1152661,0.07691491,4.999469,-0.96143633,-0.9229789,4.999469,9730.785;-1.1152661,1.3075534,9.152874,-0.23074472,1.3075534,9.152874,9764.34;0.0,1.3075534,9.152874,0.0,0.38457453,9.614364,9764.34;0.0,-1.0383513,6.19165,-0.38457453,-1.0383513,6.19165,9764.34;0.0,0.423032,8.883672,0.6537767,0.423032,8.883672,9764.34;0.0,0.423032,8.883672,0.4999469,-0.11537236,9.345161,9797.895;1.2306385,-0.8845214,3.8457453,1.2306385,-0.8845214,3.8457453,9797.895;0.11537236,-0.8845214,5.5763307,0.11537236,-1.1152661,5.5763307,9797.895;0.11537236,-0.8845214,8.383725,-0.30765963,0.038457453,8.383725,9831.448;-1.1537236,-0.8845214,8.383725,-1.1537236,0.038457453,8.61447,9831.448;-0.038457453,-0.8845214,4.653352,-0.038457453,-0.76914907,4.653352,9831.448;-0.038457453,-0.8845214,12.614044,-0.30765963,-0.4999469,12.614044,9865.003;-0.038457453,-0.8845214,9.345161,0.07691491,-1.0383513,9.345161,9865.003;-0.038457453,-0.8845214,5.614788,0.038457453,-0.30765963,5.614788,9865.003;-0.038457453,1.5382981,11.114204,-0.76914907,1.5382981,11.114204,9865.003;-0.038457453,-1.6536705,8.999044,-0.5768618,-1.6536705,8.999044,9898.558;-0.038457453,-1.6536705,8.999044,-0.5768618,-1.5767555,8.883672,9898.558;-1.3460109,1.9613302,13.152449,-1.3460109,1.9613302,13.152449,9898.558;-1.3460109,1.9613302,13.152449,-1.7690428,2.038245,13.190907,9932.112;-0.07691491,-1.1921811,9.614364,-0.07691491,-1.1921811,9.614364,9932.112;-0.07691491,-0.15382981,9.614364,-0.9229789,-0.15382981,8.960587,9932.112;-2.3074472,2.5381918,14.921492,-2.3074472,2.5381918,14.921492,9965.666;-0.53840435,-1.1152661,8.422182,-0.53840435,-1.1152661,8.422182,9965.666;-0.53840435,0.0,9.729735,0.30765963,0.0,9.729735,9965.666;-0.53840435,1.2690959,13.960055,-1.4998407,1.2690959,13.960055,9965.666;-1.7690428,1.2690959,13.960055,-1.7690428,1.2306385,13.152449,9999.221;0.9998938,-0.23074472,8.422182,0.9998938,-0.23074472,8.422182,9999.221;-0.11537236,1.1537236,10.421969,-0.11537236,1.1537236,10.421969,9999.221;-2.4997344,1.1537236,14.383087,-2.4997344,0.8076065,14.383087,10032.775;0.8076065,1.1537236,7.306916,0.8076065,0.26920217,7.306916,10032.775;-0.53840435,1.1537236,10.7296295,-0.53840435,1.4998407,10.7296295,10032.775;-0.53840435,1.1537236,10.7296295,0.19228727,1.6536705,10.345055,10066.33;-0.53840435,-1.1921811,6.768512,-0.4999469,-1.1921811,6.768512,10066.33;-0.53840435,0.9998938,10.7296295,0.11537236,0.9998938,10.7296295,10066.33;-0.53840435,0.9998938,10.7296295,-0.76914907,0.15382981,9.883566,10066.33;-0.53840435,-1.5767555,8.729842,-1.1152661,-1.5767555,8.729842,10099.884;-0.53840435,-1.5767555,6.2301073,0.30765963,-0.846064,6.2301073,10099.884;0.5768618,1.8075004,10.421969,0.5768618,1.8075004,10.421969,10099.884;0.5768618,-0.423032,8.2683525,-0.15382981,-0.423032,8.2683525,10133.438;0.5768618,0.846064,5.0763836,0.53840435,0.846064,5.0763836,10133.438;-0.8076065,-0.9998938,8.345267,-0.8076065,-0.9998938,8.345267,10133.438;-0.8076065,-0.9998938,8.345267,-0.038457453,-1.2306385,7.7684054,10133.438;0.96143633,0.23074472,6.8454266,0.96143633,0.23074472,6.8454266,10166.993;-0.53840435,0.23074472,8.46064,-0.53840435,0.61531925,8.46064,10166.993;-0.53840435,0.23074472,9.768193,-1.4613832,-0.6537767,9.768193,10166.993;-0.53840435,-1.1152661,8.61447,0.11537236,-1.1152661,8.61447,10200.547;-0.53840435,1.7690428,8.61447,-1.1537236,1.7690428,8.922129,10200.547;-1.7305853,1.7690428,15.421439,-1.7305853,2.1536174,15.421439,10200.547;0.038457453,-1.7305853,6.8454266,0.038457453,-1.7305853,6.8454266,10234.102;0.038457453,-1.7305853,9.575906,-0.4999469,-1.7690428,9.575906,10234.102;-2.807394,1.4998407,14.767662,-2.807394,1.4998407,14.767662,10234.102;-0.30765963,1.4998407,10.998832,-0.30765963,0.53840435,10.998832,10234.102;0.9229789,-0.6537767,9.306704,0.9229789,-0.6537767,9.306704,10267.656;-1.9228727,-0.6537767,11.344949,-1.9228727,0.0,11.344949,10267.656;-1.9228727,2.7689366,13.883141,-1.0383513,2.7689366,13.883141,10267.656;-0.26920217,-1.3844683,9.229789,-0.26920217,-1.3844683,9.229789,10301.211;-0.26920217,0.846064,10.537342,-0.07691491,0.846064,10.537342,10301.211;-3.384256,0.846064,14.152343,-3.384256,0.0,14.152343,10301.211;-0.61531925,0.846064,8.729842,-0.61531925,0.26920217,8.729842,10334.765;-0.61531925,0.846064,11.306491,-0.5768618,0.23074472,11.306491,10334.765;-0.61531925,0.846064,10.075852,-0.4999469,0.8076065,10.075852,10334.765;-0.61531925,-0.23074472,10.075852,-0.9998938,-0.23074472,9.383618,10334.765;1.0768087,-0.23074472,6.9992566,1.0768087,-0.46148944,6.9992566,10368.319;-0.69223416,-0.23074472,9.80665,-0.69223416,0.15382981,9.80665,10368.319;1.3844683,-0.23074472,7.883778,1.3844683,0.34611708,7.883778,10368.319;1.3844683,-0.23074472,4.653352,0.38457453,-0.53840435,4.653352,10401.874;1.3844683,-0.23074472,9.729735,0.8845214,0.34611708,9.729735,10401.874;-0.23074472,-0.23074472,9.729735,-0.23074472,0.5768618,8.845214,10401.874;1.5382981,-0.23074472,4.307235,1.5382981,0.15382981,4.307235,10435.429;0.4999469,-0.23074472,5.8070755,0.4999469,-1.0768087,5.8070755,10435.429;0.4999469,-0.23074472,7.8453207,0.30765963,-0.07691491,7.8453207,10435.429;-1.8075004,-0.23074472,7.8453207,-1.8075004,-0.26920217,8.61447,10435.429;-0.38457453,-0.23074472,5.845533,-0.38457453,-0.5768618,5.845533,10468.982;-1.5767555,-0.23074472,9.537449,-1.5767555,0.5768618,9.537449,10468.982;1.0768087,-0.23074472,7.729948,1.0768087,-1.0383513,7.729948,10468.982;-0.038457453,-0.23074472,7.729948,-0.038457453,0.69223416,8.15298,10502.537;-0.038457453,2.11516,12.152555,-0.9998938,2.11516,12.152555,10502.537;-0.038457453,-1.4229257,9.268247,-0.9998938,-1.4229257,9.268247,10502.537;-0.038457453,-1.4229257,9.268247,0.38457453,-0.846064,9.460533,10536.092;-1.1537236,2.9612238,13.613938,-1.1537236,2.9612238,13.613938,10536.092;-1.1537236,1.2306385,13.613938,-1.1537236,1.2306385,12.767875,10536.092;0.53840435,-0.38457453,9.498991,0.53840435,-0.38457453,9.498991,10536.092;-1.3075534,-0.38457453,9.498991,-1.3075534,-0.9229789,10.306598,10569.646;-1.3075534,2.8458514,14.03697,-1.7690428,2.8458514,14.03697,10569.646;0.6537767,0.76914907,10.7296295,0.6537767,0.76914907,10.7296295,10569.646;0.6537767,0.76914907,10.7296295,-0.11537236,-0.038457453,10.11431,10603.2;-2.5766494,0.76914907,15.113779,-2.5766494,1.1537236,15.113779,10603.2;-0.6537767,0.76914907,10.3835125,-0.6537767,0.96143633,10.3835125,10603.2;1.3075534,-0.34611708,8.537555,1.3075534,-0.34611708,8.537555,10603.2;-0.8076065,-0.34611708,10.26814,-0.8076065,0.26920217,10.26814,10636.755;-0.8076065,-0.34611708,10.26814,-1.6536705,-0.4999469,10.921917,10636.755;0.61531925,-1.4229257,6.2301073,0.61531925,-1.4229257,6.2301073,10636.755;-0.8076065,0.0,10.26814,-0.8076065,0.0,10.26814,10670.31;-0.8076065,0.0,9.037501,0.0,0.96143633,9.037501,10670.31;0.34611708,-1.4229257,5.8070755,0.34611708,-1.4229257,5.8070755,10670.31;0.34611708,-1.4229257,7.614576,0.0,-0.46148944,7.614576,10703.864;0.34611708,-0.34611708,8.883672,-0.46148944,-0.34611708,8.883672,10703.864;0.34611708,-0.34611708,4.8840966,1.2690959,-0.11537236,4.8840966,10703.864;0.34611708,-0.34611708,4.8840966,0.9229789,-0.38457453,5.6532454,10703.864;0.34611708,-0.34611708,8.422182,0.30765963,-0.15382981,8.422182,10737.418;0.34611708,-0.34611708,8.422182,-0.34611708,-1.0768087,9.422076,10737.418;0.34611708,-0.34611708,3.730373,1.1537236,-0.38457453,3.730373,10737.418;0.34611708,-0.34611708,9.575906,-0.4999469,-0.5768618,9.575906,10770.973;0.34611708,-0.34611708,9.575906,0.69223416,-0.69223416,8.61447,10770.973;0.34611708,-0.34611708,8.076065,-0.46148944,-0.038457453,8.076065,10770.973;0.34611708,1.3844683,10.11431,-0.53840435,1.3844683,10.11431,10804.527;0.34611708,-0.53840435,10.11431,-0.11537236,-0.53840435,10.921917,10804.527;0.34611708,-0.53840435,8.46064,-0.23074472,-1.0383513,8.46064,10804.527;-2.3843622,1.7305853,12.960162,-2.3843622,1.7305853,12.960162,10804.527;-2.3843622,1.7305853,12.960162,-1.3844683,2.6535642,12.421758,10838.081;-0.038457453,-1.3844683,8.383725,-0.038457453,-1.3844683,8.383725,10838.081;-0.038457453,-1.3844683,8.383725,-0.5768618,-0.38457453,8.999044,10838.081;-3.3457985,2.5381918,15.267609,-3.3457985,2.5381918,15.267609,10871.636;0.4999469,2.5381918,14.229258,0.4999469,2.2305322,14.229258,10871.636;0.4999469,-0.46148944,9.537449,0.26920217,-0.46148944,9.537449,10871.636;-0.96143633,-0.46148944,11.268034,-0.96143633,0.15382981,11.268034,10905.19;-0.96143633,1.8459578,13.537024,-1.692128,1.8459578,13.537024,10905.19;-0.96143633,-0.19228727,7.6914907,0.038457453,-0.19228727,7.6914907,10905.19;-0.96143633,-0.19228727,10.152767,-0.23074472,0.53840435,10.152767,10905.19;-2.1920748,-0.19228727,12.652502,-2.1920748,-0.07691491,12.652502,10938.745;0.5768618,-0.19228727,8.037608,0.5768618,0.11537236,8.037608,10938.745;0.5768618,-1.5767555,11.383406,0.11537236,-1.5767555,11.383406,10938.745;0.5768618,1.2690959,10.191225,0.30765963,1.2690959,10.191225,10972.299;0.5768618,-1.5767555,7.960693,0.26920217,-1.5767555,7.960693,10972.299;0.5768618,-1.5767555,5.3840437,1.2690959,-0.7306916,5.3840437,10972.299;-0.69223416,-0.4999469,10.229683,-0.69223416,-0.4999469,10.229683,11005.854;1.4613832,0.8076065,7.5761185,1.4613832,0.8076065,7.5761185,11005.854;-0.15382981,-1.8459578,6.0762777,-0.15382981,-1.8459578,6.0762777,11005.854;1.1921811,0.9229789,9.229789,1.1921811,0.9229789,9.229789,11005.854;1.1921811,-0.38457453,7.5376606,0.34611708,-0.38457453,7.5376606,11039.408;1.1921811,-0.38457453,3.9995751,1.1537236,-0.8845214,3.9995751,11039.408;-0.038457453,0.9998938,6.9992566,-0.038457453,0.9998938,6.9992566,11039.408;1.0768087,-0.11537236,6.9992566,1.0768087,-0.11537236,7.2300014,11072.963;-0.38457453,-0.11537236,6.9992566,-0.38457453,0.4999469,7.383831,11072.963;-0.38457453,-0.11537236,6.9992566,0.038457453,0.38457453,6.614682,11072.963;-1.4613832,-0.11537236,13.383194,-1.4613832,0.38457453,13.383194,11072.963;-0.30765963,-0.11537236,9.075959,-0.30765963,-0.8845214,9.075959,11106.517;-2.3843622,-0.11537236,9.075959,-2.3843622,0.34611708,10.0373955,11106.517;-0.76914907,3.1150537,13.960055,-0.76914907,3.1150537,13.960055,11106.517;-0.76914907,-0.8076065,9.498991,-0.69223416,-0.8076065,9.498991,11140.071;-0.76914907,-0.8076065,9.498991,-0.19228727,-0.69223416,9.614364,11140.071;-3.307341,1.2306385,14.767662,-3.307341,1.2306385,14.767662,11140.071;-3.307341,1.2306385,14.767662,-2.461277,1.4229257,14.152343,11173.626;-0.8845214,-1.1921811,10.075852,-0.8845214,-1.1921811,10.075852,11173.626;-0.8845214,-0.038457453,10.075852,-0.7306916,-0.038457453,10.691172,11173.626;-0.8845214,2.7304792,13.690853,-1.0768087,2.7304792,13.690853,11173.626;0.846064,-0.46148944,7.3453736,0.846064,-0.46148944,7.3453736,11207.181;-0.846064,-0.46148944,10.460427,-0.846064,-0.34611708,10.460427,11207.181;-2.1536174,-0.46148944,11.806438,-2.1536174,0.15382981,11.806438,11207.181;-0.69223416,-0.46148944,8.345267,-0.69223416,-0.846064,8.345267,11240.734;1.0383513,0.76914907,10.614257,1.0383513,0.76914907,10.614257,11240.734;-0.23074472,0.76914907,10.614257,-0.23074472,0.8845214,10.614257,11240.734;-1.2690959,-1.3075534,8.806757,-1.2690959,-1.3075534,8.806757,11274.289;0.0,-1.3075534,7.4222884,0.0,-1.6536705,7.4222884,11274.289;0.0,-0.19228727,9.614364,-0.19228727,-0.19228727,9.614364,11274.289;0.0,-0.19228727,4.576437,0.038457453,-1.1537236,4.576437,11307.844;2.2689898,1.4613832,9.768193,2.2689898,1.4613832,9.768193,11307.844;-0.96143633,-0.846064,9.768193,-0.96143633,-0.846064,8.922129,11307.844;0.423032,0.69223416,7.0761714,0.423032,0.69223416,7.0761714,11341.398;0.423032,0.69223416,7.0761714,0.038457453,0.76914907,7.0761714,11341.398;0.423032,-1.1537236,7.0761714,0.11537236,-1.1537236,7.614576,11341.398;0.423032,-1.1537236,7.0761714,-0.5768618,-1.7305853,8.076065,11374.952;0.423032,0.9998938,4.845639,0.53840435,0.9998938,4.845639,11374.952;-1.3075534,0.9998938,10.3835125,-1.3075534,0.69223416,10.3835125,11374.952;0.0,-0.96143633,6.7300544,0.0,-0.96143633,6.7300544,11374.952;-1.8844151,0.11537236,9.191331,-1.8844151,0.11537236,9.191331,11408.507;-0.6537767,2.3843622,11.998726,-0.6537767,2.3843622,11.998726,11408.507;-2.7689366,-1.6536705,10.883459,-2.7689366,-1.6536705,10.883459,11408.507;-0.07691491,-0.19228727,9.614364,-0.07691491,-0.19228727,9.614364,11442.062;-3.3457985,1.1921811,13.460109,-3.3457985,1.1921811,13.460109,11442.062;-1.0768087,2.807394,13.460109,-1.0768087,2.807394,13.383194,11442.062;0.038457453,-0.7306916,10.460427,0.038457453,-0.7306916,10.460427,11475.616;0.038457453,0.61531925,10.460427,-0.846064,0.61531925,10.921917,11475.616;-2.2305322,2.3074472,14.729204,-2.2305322,2.3074472,14.729204,11475.616;1.8844151,0.53840435,11.767981,1.8844151,0.53840435,11.767981,11475.616;-0.34611708,0.53840435,10.3835125,-0.34611708,0.34611708,10.3835125,11509.17;-0.34611708,0.53840435,12.267927,-1.2306385,0.11537236,12.267927,11509.17;-0.34611708,0.53840435,10.345055,-1.3075534,0.23074472,10.345055,11509.17;1.0383513,0.53840435,7.806863,1.0383513,0.846064,7.806863,11542.725;-0.5768618,0.53840435,10.11431,-0.5768618,0.30765963,10.11431,11542.725;-0.5768618,-0.53840435,10.11431,-0.4999469,-0.53840435,9.537449,11542.725;0.8076065,-0.53840435,6.0378203,0.8076065,-0.76914907,6.0378203,11576.279;-0.7306916,-0.53840435,9.037501,-0.7306916,-0.8076065,9.037501,11576.279;-0.7306916,0.7306916,9.037501,-0.69223416,0.7306916,8.999044,11576.279;0.9998938,-1.692128,5.422501,0.9998938,-1.692128,5.422501,11576.279;0.9998938,0.76914907,5.422501,0.11537236,0.76914907,6.1531925,11609.833;-0.96143633,-1.3460109,8.729842,-0.96143633,-1.3460109,8.729842,11609.833;-0.96143633,0.34611708,8.729842,-0.7306916,0.34611708,8.229895,11609.833;0.846064,-1.3075534,6.460852,0.846064,-1.3075534,6.460852,11643.388;0.846064,0.26920217,8.845214,-0.07691491,0.26920217,8.845214,11643.388;-0.34611708,-1.4613832,8.845214,-0.34611708,-1.4613832,8.652927,11643.388;1.4613832,0.846064,4.499522,1.4613832,0.846064,4.499522,11643.388;-0.11537236,0.846064,8.652927,-0.11537236,1.4998407,8.652927,11676.942;-0.11537236,-0.8076065,8.652927,0.34611708,-0.8076065,8.806757,11676.942;-0.11537236,-0.8076065,7.5376606,-0.5768618,-0.76914907,7.5376606,11676.942;-0.11537236,0.8076065,9.345161,-0.8076065,0.8076065,9.345161,11710.497;-0.11537236,1.8459578,14.421545,-0.15382981,1.8459578,14.421545,11710.497;-0.11537236,-1.6536705,8.768299,0.23074472,-1.6536705,8.768299,11710.497;-2.4228196,-0.61531925,12.344843,-2.4228196,-0.61531925,12.344843,11744.051;-2.4228196,2.2305322,12.344843,-1.692128,2.2305322,11.537236,11744.051;-0.4999469,-1.5382981,8.806757,-0.4999469,-1.5382981,8.806757,11744.051;-0.4999469,-0.34611708,9.845108,-1.3075534,-0.34611708,9.845108,11744.051;-2.038245,1.2690959,12.537129,-2.038245,1.2690959,12.537129,11777.605;-2.038245,1.2690959,14.306172,-1.7690428,2.1920748,14.306172,11777.605;-0.61531925,-1.6536705,9.383618,-0.61531925,-1.6536705,9.383618,11777.605;-0.61531925,-0.11537236,10.883459,-1.2690959,-0.11537236,10.883459,11811.16;-0.61531925,1.5767555,12.8447895,-1.1921811,1.5767555,12.8447895,11811.16;0.846064,-0.34611708,7.268459,0.846064,-0.34611708,7.268459,11811.16;0.846064,-0.34611708,11.191119,0.8845214,0.26920217,11.191119,11844.715;-0.8076065,-0.34611708,10.11431,-0.8076065,0.61531925,10.11431,11844.715;-0.8076065,-0.34611708,6.614682,0.038457453,-1.3460109,6.614682,11844.715;0.26920217,-0.34611708,10.806544,0.26920217,0.038457453,10.806544,11844.715;0.26920217,1.2306385,10.806544,-0.46148944,1.2306385,11.152661,11878.269;0.26920217,-0.53840435,6.768512,0.11537236,-0.53840435,6.768512,11878.269;1.5767555,-0.53840435,5.614788,1.5767555,-0.9998938,5.614788,11878.269;-0.11537236,0.5768618,10.537342,-0.11537236,0.5768618,10.537342,11911.823;-0.11537236,0.5768618,7.9991503,0.30765963,0.5768618,7.9991503,11911.823;-0.11537236,-0.96143633,6.537767,-0.11537236,-0.96143633,6.537767,11911.823;1.8459578,0.46148944,9.537449,1.8459578,0.46148944,9.537449,11945.378;0.0,-1.1152661,6.7300544,0.0,-1.1152661,6.7300544,11945.378;1.615213,0.07691491,5.0763836,1.615213,0.07691491,5.0763836,11945.378;-0.07691491,0.07691491,8.191438,-0.07691491,0.61531925,8.191438,11945.378;-0.07691491,0.07691491,8.191438,-0.038457453,0.34611708,8.729842,11978.933;-0.07691491,0.07691491,8.191438,0.423032,-0.76914907,8.30681,11978.933;1.0768087,0.07691491,5.2302136,1.0768087,0.846064,5.2302136,11978.933;-1.1537236,2.461277,12.729417,-1.1537236,2.461277,12.729417,12012.486;0.11537236,-0.46148944,7.6530333,0.11537236,-0.46148944,7.6530333,12012.486;-1.692128,-0.46148944,10.421969,-1.692128,-0.07691491,10.421969,12012.486;-1.692128,1.9613302,12.22947,-1.7305853,1.9613302,12.22947,12046.041;-1.692128,-0.6537767,8.46064,-0.8076065,-0.6537767,8.46064,12046.041;0.23074472,-0.6537767,10.5758,0.23074472,-0.4999469,10.5758,12046.041;-3.0381389,0.96143633,13.421651,-3.0381389,0.96143633,13.421651,12046.041;-1.9997876,2.3843622,14.729204,-1.9997876,2.3843622,14.729204,12079.596;-0.34611708,-0.07691491,11.037289,-0.34611708,-0.07691491,11.037289,12079.596;-0.34611708,-0.07691491,11.037289,-0.846064,0.423032,10.191225,12079.596;-1.9613302,1.2690959,13.344736,-1.9613302,1.2690959,13.344736,12113.15;2.0767026,1.2690959,9.922023,2.0767026,0.6537767,9.922023,12113.15;-1.2690959,-0.846064,11.037289,-1.2690959,-0.846064,11.037289,12113.15;-2.4997344,0.19228727,11.037289,-2.4997344,0.19228727,10.3835125,12113.15;-0.6537767,0.19228727,8.999044,-0.6537767,-0.15382981,8.999044,12146.704;1.1921811,0.19228727,7.5376606,1.1921811,0.38457453,7.5376606,12146.704;-0.19228727,0.19228727,8.999044,-0.19228727,0.8845214,8.999044,12146.704;-0.19228727,0.19228727,8.999044,0.07691491,-0.61531925,8.960587,12180.259;-0.19228727,0.19228727,6.114735,0.5768618,-0.5768618,6.114735,12180.259;-0.19228727,-1.1152661,8.2683525,-1.0768087,-1.1152661,8.2683525,12180.259;-0.19228727,0.34611708,10.075852,-0.23074472,0.34611708,10.075852,12213.813;0.9998938,0.34611708,4.8840966,0.9998938,0.0,4.8840966,12213.813;0.9998938,0.34611708,4.8840966,0.15382981,0.23074472,5.3840437,12213.813;-0.8076065,0.34611708,8.729842,-0.8076065,-0.26920217,8.729842,12213.813;-0.8076065,0.34611708,8.729842,-0.5768618,-0.38457453,8.383725,12247.368;0.423032,0.34611708,6.5762243,0.423032,-0.30765963,6.5762243,12247.368;-0.69223416,0.34611708,11.075747,-0.69223416,-0.11537236,11.075747,12247.368;-0.69223416,-0.7306916,9.268247,0.15382981,-0.7306916,9.268247,12280.922;0.69223416,0.30765963,4.6148944,0.69223416,0.30765963,4.6148944,12280.922;-1.1537236,2.461277,11.691066,-1.1537236,2.461277,11.691066,12280.922;1.2690959,-0.19228727,9.152874,1.2690959,-0.19228727,9.152874,12314.477;-1.5767555,-0.19228727,9.152874,-1.5767555,-0.76914907,8.2683525,12314.477;-1.5767555,1.0383513,9.152874,-1.1921811,1.0383513,9.537449,12314.477;-1.5767555,1.0383513,12.614044,-0.69223416,0.23074472,12.614044,12314.477;-0.23074472,-1.8459578,9.614364,-0.23074472,-1.8459578,9.614364,12348.031;-1.8459578,0.23074472,9.614364,-1.8459578,0.23074472,9.922023,12348.031;-1.8459578,2.3843622,12.460215,-1.9997876,2.3843622,12.460215,12348.031;-0.69223416,-1.3075534,9.306704,-0.69223416,-1.3075534,9.306704,12381.585;-0.69223416,-0.038457453,9.306704,-0.46148944,-0.038457453,9.845108,12381.585;-2.1536174,1.5767555,13.806226,-2.1536174,1.5767555,13.806226,12381.585;-2.1536174,1.5767555,13.806226,-1.2690959,1.615213,13.460109,12415.14;-0.61531925,-1.1152661,8.576012,-0.61531925,-1.1152661,8.576012,12415.14;-0.61531925,-1.1152661,11.114204,-0.6537767,-0.8076065,11.114204,12415.14;-0.61531925,1.6536705,13.113992,-1.615213,1.6536705,13.113992,12415.14;0.4999469,-0.53840435,6.7300544,0.4999469,-0.53840435,6.7300544,12448.694;-0.5768618,-0.53840435,10.652715,-0.5768618,0.15382981,10.652715,12448.694;-0.5768618,1.1537236,10.652715,-0.038457453,1.1537236,11.229576,12448.694;-0.5768618,-1.3075534,6.460852,-0.30765963,-1.3075534,6.460852,12482.249;1.4998407,0.846064,9.191331,1.4998407,0.846064,9.191331,12482.249;-1.0383513,0.846064,9.191331,-1.0383513,0.4999469,9.691278,12482.249;-1.0383513,-0.7306916,6.691597,-0.26920217,-0.7306916,6.691597,12515.803;1.8075004,-0.7306916,5.4609585,1.8075004,-0.6537767,5.4609585,12515.803;0.15382981,0.38457453,10.3835125,0.15382981,0.38457453,10.3835125,12515.803;0.15382981,-0.76914907,8.691384,-0.8076065,-0.76914907,8.691384,12515.803;0.15382981,-0.76914907,5.5378733,0.0,-0.9229789,5.5378733,12549.357;0.15382981,1.0768087,9.268247,-0.23074472,1.0768087,9.268247,12549.357;-0.96143633,-1.615213,9.268247,-0.96143633,-1.615213,8.2683525,12549.357;1.3075534,0.23074472,4.807182,1.3075534,0.23074472,4.807182,12582.912;-0.38457453,0.23074472,8.2683525,-0.38457453,-0.07691491,8.2683525,12582.912;-0.38457453,0.23074472,8.2683525,-0.19228727,-0.26920217,7.614576,12582.912;-0.38457453,-1.0383513,8.2683525,-0.34611708,-1.0383513,8.999044,12582.912;-0.38457453,1.4229257,5.999363,0.26920217,1.4229257,5.999363,12616.467;-0.38457453,1.4229257,12.3833,-1.0383513,2.2305322,12.3833,12616.467;-0.38457453,-0.6537767,7.460746,0.23074472,-0.6537767,7.460746,12616.467;-1.5382981,-0.6537767,9.922023,-1.5382981,-0.96143633,9.922023,12650.0205;-1.5382981,1.8844151,12.460215,-1.1921811,1.8844151,12.460215,12650.0205;-1.5382981,-1.1537236,10.691172,-1.8844151,-1.1537236,10.691172,12650.0205;0.5768618,-1.1537236,10.691172,0.5768618,-0.5768618,10.11431,12683.575;-2.5381918,1.3460109,13.037077,-2.5381918,1.3460109,13.037077,12683.575;-2.5381918,3.1919687,14.229258,-2.1536174,3.1919687,14.229258,12683.575;-0.19228727,-0.6537767,11.421864,-0.19228727,-0.6537767,11.421864,12683.575;-0.19228727,-0.6537767,9.998938,-0.7306916,-0.038457453,9.998938,12717.13;-1.6536705,1.3460109,13.806226,-1.6536705,1.3460109,13.806226,12717.13;1.1152661,1.3460109,11.575693,1.1152661,0.8076065,11.575693,12717.13;-0.69223416,-0.423032,10.0373955,-0.69223416,-0.423032,10.0373955,12750.685;-1.8459578,-0.423032,10.0373955,-1.8459578,-0.30765963,10.460427,12750.685;-1.8459578,0.7306916,10.0373955,-0.96143633,0.7306916,10.075852,12750.685;0.61531925,-0.9998938,8.576012,0.61531925,-0.9998938,8.576012,12784.238;-0.423032,0.038457453,8.576012,-0.423032,0.038457453,9.152874,12784.238;-0.423032,0.038457453,10.806544,-1.0768087,-0.53840435,10.806544,12784.238;0.69223416,0.038457453,8.076065,0.69223416,-0.07691491,8.076065,12784.238;-1.2690959,-1.2690959,9.729735,-1.2690959,-1.2690959,9.729735,12817.793;-0.038457453,1.3844683,9.729735,-0.038457453,1.3844683,9.845108,12817.793;-0.038457453,0.0,9.729735,-0.53840435,0.0,9.768193,12817.793;-0.038457453,0.0,5.268671,0.038457453,-0.11537236,5.268671,12851.348;-0.038457453,0.0,8.576012,-0.5768618,-0.038457453,8.576012,12851.348;1.9228727,0.0,8.576012,1.9228727,0.53840435,8.345267,12851.348;0.07691491,0.0,5.8839903,0.07691491,-0.9229789,5.8839903,12884.902;0.07691491,1.1537236,11.691066,0.23074472,1.1537236,11.691066,12884.902;0.07691491,-0.423032,9.652821,-0.4999469,-0.423032,9.652821,12884.902;1.3460109,-0.423032,3.8457453,1.3460109,0.11537236,3.8457453,12884.902;-0.53840435,2.038245,11.114204,-0.53840435,2.038245,11.114204,12918.456;0.5768618,-0.38457453,9.306704,0.5768618,-0.38457453,9.306704,12918.456;-1.615213,-0.38457453,9.306704,-1.615213,-0.9998938,8.422182,12918.456;-0.34611708,-0.38457453,7.806863,-0.34611708,0.423032,7.806863,12952.011;-0.34611708,0.9998938,12.575587,-0.69223416,0.9998938,12.575587,12952.011;-0.34611708,-1.5382981,8.922129,-0.38457453,-1.5382981,8.922129,12952.011;-2.5381918,-0.30765963,8.922129,-2.5381918,-0.30765963,9.652821,12985.565;-2.5381918,2.3074472,12.191012,-1.6536705,2.3074472,12.191012,12985.565;-0.69223416,-1.1152661,8.883672,-0.69223416,-1.1152661,8.883672,12985.565;-0.69223416,-1.1152661,10.152767,-0.53840435,-1.1152661,10.152767,12985.565;-0.69223416,1.1921811,10.152767,-0.8845214,1.1921811,9.498991,13019.119;-0.69223416,1.1921811,14.34463,-1.3460109,1.4613832,14.34463,13019.119;-0.69223416,-1.3075534,9.614364,-0.46148944,-1.3075534,9.614364,13019.119;-0.69223416,-1.3075534,9.614364,-0.5768618,-0.38457453,10.421969,13052.674;-0.69223416,1.8075004,13.613938,-1.4229257,1.8075004,13.613938,13052.674;-0.69223416,-0.8076065,7.614576,0.07691491,-0.8076065,7.614576,13052.674;0.61531925,0.46148944,9.691278,0.61531925,0.46148944,9.691278,13086.229;-1.7690428,0.46148944,12.575587,-1.7690428,0.15382981,12.575587,13086.229;-0.34611708,-1.3075534,6.537767,-0.34611708,-1.3075534,6.537767,13086.229;-0.34611708,-1.3075534,9.998938,0.0,-0.38457453,9.998938,13086.229;-0.34611708,0.53840435,9.998938,-0.846064,0.53840435,10.075852,13119.783;-0.34611708,-0.53840435,8.652927,-0.61531925,-0.53840435,8.652927,13119.783;-0.34611708,-0.53840435,6.5762243,0.15382981,-0.9229789,6.5762243,13119.783;-0.34611708,-0.53840435,9.383618,-1.1537236,0.07691491,9.383618,13153.337;-0.34611708,1.1537236,9.383618,-0.61531925,1.1537236,9.191331,13153.337;-0.34611708,-0.7306916,6.768512,-0.6537767,-0.7306916,6.768512,13153.337;-0.34611708,0.34611708,8.960587,0.30765963,0.34611708,8.960587,13153.337;-0.34611708,-0.76914907,8.960587,-0.38457453,-0.76914907,9.306704,13186.892;-0.34611708,-0.76914907,6.4223948,0.46148944,0.038457453,6.4223948,13186.892;-0.34611708,-0.76914907,6.4223948,0.34611708,-0.46148944,5.960905,13186.892;1.2690959,1.0768087,8.999044,1.2690959,1.0768087,8.999044,13220.446;-0.15382981,-0.15382981,8.999044,-0.15382981,-0.15382981,8.768299,13220.446;-0.15382981,-0.15382981,5.268671,0.46148944,0.038457453,5.268671,13220.446;-1.3844683,1.4998407,10.691172,-1.3844683,1.4998407,10.691172,13254.001;0.423032,-0.61531925,7.9222355,0.423032,-0.61531925,7.9222355,13254.001;-1.692128,-0.61531925,8.960587,-1.692128,-0.07691491,8.960587,13254.001;-1.692128,1.3844683,8.960587,-0.96143633,1.3844683,9.075959,13254.001;-1.692128,-0.5768618,8.960587,-1.2306385,-0.5768618,9.845108,13287.555;-0.46148944,-0.5768618,8.960587,-0.46148944,-1.2690959,9.691278,13287.555;-2.461277,-0.5768618,8.960587,-2.461277,0.34611708,7.9991503,13287.555;-2.461277,3.307341,13.690853,-1.8075004,3.307341,13.690853,13321.109;-0.96143633,-0.9229789,9.498991,-0.96143633,-0.9229789,9.498991,13321.109;-0.96143633,-0.9229789,9.498991,-0.9229789,-0.8845214,9.075959,13321.109;-0.96143633,1.5382981,13.037077,-1.4998407,1.5382981,13.037077,13354.664;-0.96143633,0.4999469,14.113885,-0.23074472,0.4999469,14.113885,13354.664;-0.96143633,-0.9229789,9.998938,-0.19228727,-0.9229789,9.998938,13354.664;-0.96143633,0.69223416,11.344949,-1.4998407,0.69223416,11.344949,13354.664;-0.96143633,0.69223416,11.344949,-1.7690428,1.0768087,12.267927,13388.219;-0.96143633,-1.9228727,8.652927,-0.23074472,-1.9228727,8.652927,13388.219;-0.96143633,0.96143633,10.152767,-0.30765963,0.96143633,10.152767,13388.219;-0.96143633,0.96143633,10.152767,-0.69223416,-0.038457453,10.883459,13421.772;0.19228727,-0.423032,10.152767,0.19228727,-0.423032,9.960481,13421.772;0.19228727,-0.423032,10.152767,0.46148944,-0.038457453,10.5758,13421.772;0.19228727,-0.423032,10.152767,-0.423032,-0.038457453,10.5758,13455.327;0.19228727,-0.423032,10.152767,-0.69223416,0.34611708,11.114204,13455.327;0.19228727,-0.423032,5.5378733,1.1921811,-0.30765963,5.5378733,13455.327;-1.1537236,-0.423032,8.30681,-1.1537236,-0.5768618,8.30681,13455.327;0.19228727,0.9998938,8.30681,0.19228727,0.9998938,8.883672,13488.882;0.19228727,-1.2690959,5.768618,0.53840435,-1.2690959,5.768618,13488.882;0.19228727,0.30765963,9.922023,-0.5768618,0.30765963,9.922023,13488.882;0.19228727,0.30765963,8.883672,-0.23074472,-0.38457453,8.883672,13522.437;1.9997876,0.30765963,4.2687774,1.9997876,-0.69223416,4.2687774,13522.437;-0.9998938,1.5382981,9.537449,-0.9998938,1.5382981,9.537449,13522.437;-0.9998938,-1.0383513,7.9222355,-0.15382981,-1.0383513,7.9222355,13555.99;-0.9998938,-1.0383513,7.9222355,-0.76914907,-0.34611708,8.46064,13555.99;-0.9998938,1.1537236,7.9222355,-0.4999469,1.1537236,7.1915436,13555.99;-0.9998938,1.1537236,9.922023,-1.3075534,0.6537767,9.922023,13555.99;0.7306916,-1.1537236,8.2683525,0.7306916,-1.1537236,8.2683525,13589.545;-2.1536174,-1.1537236,10.306598,-2.1536174,-0.26920217,10.306598,13589.545;-2.1536174,2.2689898,11.344949,-1.3075534,2.2689898,11.344949,13589.545;-0.6537767,-1.5767555,9.960481,-0.6537767,-1.5767555,9.960481,13623.1;0.846064,-0.07691491,8.883672,0.846064,-0.07691491,8.883672,13623.1;-1.4229257,1.692128,11.460321,-1.4229257,1.692128,11.460321,13623.1;-1.4229257,1.692128,13.421651,-0.8076065,2.1536174,13.421651,13656.654;0.07691491,-0.61531925,11.344949,0.07691491,-0.61531925,11.344949,13656.654;-1.8075004,-0.61531925,11.344949,-1.8075004,-0.61531925,10.614257,13656.654;-1.8075004,1.9997876,13.844683,-1.7690428,1.9997876,13.844683,13656.654;1.2306385,-0.26920217,10.768087,1.2306385,-0.26920217,10.768087,13690.208;0.11537236,-0.26920217,10.768087,0.11537236,-0.19228727,10.921917,13690.208;-1.3844683,1.6536705,12.421758,-1.3844683,1.6536705,12.421758,13690.208;-1.3844683,0.30765963,10.537342,-0.46148944,0.30765963,10.537342,13723.763;-0.26920217,0.30765963,10.537342,-0.26920217,0.23074472,10.26814,13723.763;-0.26920217,0.30765963,10.537342,-1.0768087,0.423032,10.537342,13723.763;-1.8075004,0.30765963,13.498566,-1.8075004,0.423032,13.498566,13723.763;-0.23074472,-1.2690959,5.1148415,-0.23074472,-1.2690959,5.1148415,13757.317;-0.23074472,-0.23074472,8.883672,-1.2306385,-0.23074472,8.883672,13757.317;-0.23074472,-0.23074472,8.883672,-0.46148944,0.53840435,9.80665,13757.317;-0.23074472,-1.2690959,6.537767,-0.423032,-1.2690959,6.537767,13790.871;-0.23074472,0.69223416,8.037608,-0.9229789,0.69223416,8.037608,13790.871;-0.23074472,0.69223416,8.037608,-0.76914907,0.11537236,8.845214,13790.871;-0.23074472,0.69223416,5.5378733,0.61531925,0.26920217,5.5378733,13824.426;-0.23074472,0.69223416,8.729842,-0.53840435,0.0,8.729842,13824.426;-0.23074472,-0.8845214,8.729842,0.30765963,-0.8845214,7.9222355,13824.426;-0.23074472,-0.8845214,8.729842,-0.9229789,-1.2306385,8.883672,13824.426;1.1152661,0.61531925,5.422501,1.1152661,0.61531925,5.422501,13857.98;-0.8076065,0.61531925,9.80665,-0.8076065,1.0768087,9.80665,13857.98;0.5768618,0.61531925,8.422182,0.5768618,-0.15382981,8.422182,13857.98;-1.5767555,-0.69223416,8.422182,-1.5767555,-0.69223416,8.15298,13891.535;0.19228727,0.6537767,8.422182,0.19228727,0.6537767,8.845214,13891.535;0.19228727,0.6537767,11.614151,-0.53840435,0.23074472,11.614151,13891.535;0.19228727,-0.61531925,10.075852,0.19228727,-0.61531925,10.075852,13925.089;-1.6536705,1.692128,10.075852,-1.6536705,1.692128,11.075747,13925.089;-1.6536705,1.692128,13.421651,-1.8459578,2.6151068,13.421651,13925.089;-1.6536705,-0.53840435,9.960481,-1.1537236,-0.53840435,9.960481,13925.089;-0.23074472,-0.53840435,8.576012,-0.23074472,0.038457453,8.576012,13958.644;-2.3843622,1.7690428,14.421545,-2.3843622,1.7690428,14.421545,13958.644;-0.4999469,0.23074472,9.614364,-0.4999469,0.23074472,9.614364,13958.644;-0.4999469,-0.96143633,9.614364,-0.15382981,-0.96143633,8.960587,13992.198;-1.9613302,0.76914907,11.806438,-1.9613302,0.76914907,11.806438,13992.198;-1.9613302,0.76914907,10.652715,-1.6536705,0.423032,10.652715,13992.198;-0.846064,-1.2690959,7.7684054,-0.846064,-1.2690959,7.7684054,14025.753;-0.846064,