999,999,999,999,999,999,999;-0.34611708,9.768193,0.4999469,-0.69223416,9.383618,-0.11537236,0.0;-0.34611708,9.768193,0.4999469,-0.23074472,10.498885,0.4999469,100.6633;-0.34611708,9.768193,0.4999469,-0.38457453,10.152767,0.53840435,100.6633;-0.34611708,9.768193,0.4999469,-0.11537236,9.345161,-0.038457453,134.21773;-0.34611708,9.768193,0.4999469,-1.2690959,9.498991,0.38457453,134.21773;-0.34611708,9.768193,-0.53840435,0.07691491,9.268247,-0.53840435,134.21773;-0.34611708,9.768193,-0.53840435,-0.8076065,9.80665,0.34611708,134.21773;-0.34611708,9.768193,-0.53840435,-0.23074472,10.306598,0.30765963,167.77216;-0.34611708,9.768193,0.4999469,-0.11537236,10.3835125,0.4999469,167.77216;-0.34611708,10.921917,0.4999469,0.07691491,10.921917,0.038457453,167.77216;-0.34611708,9.80665,0.4999469,-0.38457453,9.80665,0.30765963,201.3266;-0.34611708,9.80665,0.4999469,-0.26920217,9.498991,0.23074472,201.3266;-0.34611708,9.80665,0.4999469,-0.7306916,9.422076,0.23074472,201.3266;-0.34611708,9.80665,0.4999469,-0.96143633,9.460533,-0.15382981,201.3266;-0.34611708,9.80665,0.4999469,-1.1537236,10.0373955,0.11537236,234.88103;-0.34611708,9.80665,0.4999469,-0.7306916,9.922023,0.07691491,234.88103;-0.34611708,9.80665,0.4999469,-0.30765963,10.498885,0.23074472,234.88103;-0.34611708,9.80665,0.4999469,-0.30765963,9.80665,0.76914907,268.43546;-0.34611708,9.80665,0.4999469,-0.8845214,9.883566,-0.038457453,268.43546;-0.34611708,9.80665,0.4999469,-0.69223416,9.152874,0.038457453,268.43546;-0.34611708,9.80665,0.4999469,-0.23074472,9.691278,0.038457453,301.9899;-0.34611708,9.80665,0.4999469,-1.0768087,9.191331,-0.30765963,301.9899;-0.34611708,9.80665,0.4999469,-0.9229789,9.80665,0.11537236,301.9899;-0.34611708,9.80665,0.4999469,-0.61531925,10.26814,0.30765963,301.9899;-0.34611708,9.80665,0.4999469,0.19228727,10.537342,0.038457453,335.5443;-0.34611708,9.80665,0.4999469,-0.30765963,10.191225,0.46148944,335.5443;-0.34611708,9.80665,0.4999469,-0.8845214,9.80665,0.6537767,335.5443;-0.34611708,9.80665,0.4999469,-0.61531925,9.229789,0.26920217,369.09875;-0.34611708,9.80665,0.4999469,-0.8076065,9.460533,0.0,369.09875;-0.34611708,9.80665,0.4999469,-1.2690959,9.498991,0.23074472,369.09875;-0.34611708,9.80665,0.4999469,-0.30765963,9.575906,0.30765963,402.6532;-0.34611708,9.80665,0.4999469,-0.96143633,10.26814,0.423032,402.6532;-0.34611708,9.80665,0.4999469,0.038457453,10.460427,0.26920217,402.6532;-0.34611708,9.80665,0.4999469,-0.61531925,10.11431,0.9229789,402.6532;-0.34611708,9.80665,0.4999469,0.15382981,9.845108,0.30765963,436.2076;-0.34611708,9.80665,0.4999469,-0.6537767,9.268247,0.61531925,436.2076;-0.34611708,9.80665,0.4999469,-0.9229789,9.537449,0.23074472,436.2076;-0.34611708,9.80665,0.4999469,-0.61531925,9.575906,-0.26920217,469.76205;-0.34611708,9.80665,0.4999469,-0.38457453,9.922023,-0.23074472,469.76205;-0.34611708,9.80665,0.4999469,-0.846064,9.922023,0.15382981,469.76205;-0.34611708,9.80665,0.4999469,-0.5768618,10.26814,0.53840435,503.31647;-0.34611708,9.80665,0.4999469,-0.19228727,10.191225,0.53840435,503.31647;-0.34611708,9.80665,0.4999469,-0.19228727,9.498991,0.26920217,503.31647;-0.34611708,9.80665,0.4999469,-0.61531925,9.768193,0.038457453,503.31647;-0.34611708,9.80665,0.4999469,-0.4999469,9.422076,-0.23074472,536.8709;-0.34611708,9.80665,-0.53840435,-0.6537767,9.575906,-0.53840435,536.8709;-0.34611708,9.80665,-0.53840435,-0.423032,9.729735,-0.69223416,536.8709;-0.34611708,9.80665,-0.53840435,-1.2690959,10.11431,-0.038457453,570.42535;-0.34611708,9.80665,0.6537767,-0.846064,9.498991,0.6537767,570.42535;-0.34611708,9.80665,0.6537767,-0.19228727,9.883566,0.6537767,570.42535;-0.34611708,9.80665,0.6537767,0.0,9.691278,0.7306916,603.9798;-0.34611708,9.80665,0.6537767,0.23074472,9.883566,0.46148944,603.9798;-0.34611708,9.80665,0.6537767,-0.69223416,9.191331,-0.15382981,603.9798;-0.34611708,9.80665,-0.46148944,-0.9998938,9.80665,-0.46148944,603.9798;-0.34611708,9.80665,-0.46148944,-0.4999469,9.614364,0.30765963,637.5342;-0.34611708,9.80665,1.2690959,-1.2306385,9.575906,1.2690959,637.5342;-0.34611708,9.80665,1.2690959,-0.846064,10.614257,1.1537236,637.5342;-0.34611708,9.80665,1.2690959,-0.11537236,9.960481,0.96143633,671.0886;-0.34611708,9.80665,1.2690959,0.038457453,10.152767,0.26920217,671.0886;-0.34611708,9.80665,1.2690959,-0.038457453,9.383618,0.69223416,671.0886;-0.34611708,9.80665,0.038457453,-0.53840435,9.575906,0.038457453,671.0886;-0.34611708,9.80665,0.038457453,-0.7306916,9.037501,-0.38457453,704.64307;-0.34611708,9.80665,0.038457453,-0.9229789,9.691278,0.038457453,704.64307;-0.34611708,9.80665,0.038457453,-0.8076065,10.229683,0.26920217,704.64307;-0.34611708,9.80665,0.038457453,-0.96143633,10.0373955,0.11537236,738.1975;-0.34611708,9.80665,0.038457453,-0.26920217,10.152767,0.4999469,738.1975;-0.34611708,9.80665,0.038457453,-0.15382981,9.768193,0.11537236,738.1975;-0.34611708,9.80665,0.038457453,-0.5768618,10.152767,-0.26920217,771.75195;-0.34611708,9.80665,0.038457453,-0.23074472,9.383618,-0.07691491,771.75195;-0.34611708,9.80665,0.038457453,-1.1152661,9.691278,0.30765963,771.75195;-0.34611708,9.80665,0.038457453,-0.76914907,9.998938,0.23074472,771.75195;-0.34611708,10.998832,0.038457453,0.038457453,10.998832,0.5768618,805.3064;-0.34611708,10.998832,0.038457453,-0.6537767,10.421969,0.6537767,805.3064;-0.34611708,10.998832,0.038457453,-0.07691491,10.960374,0.38457453,805.3064;-0.34611708,9.883566,1.1537236,0.19228727,9.883566,1.1537236,838.8608;-0.34611708,9.883566,1.1537236,-0.46148944,9.768193,0.7306916,838.8608;-0.34611708,9.883566,0.07691491,-0.7306916,9.345161,0.07691491,838.8608;-0.34611708,9.883566,0.07691491,-0.15382981,9.922023,-0.15382981,872.4152;-0.34611708,9.883566,0.07691491,-0.8845214,9.575906,0.34611708,872.4152;-0.34611708,9.883566,0.07691491,-0.30765963,10.075852,-0.19228727,872.4152;-0.34611708,9.883566,0.07691491,-0.19228727,10.3835125,0.38457453,872.4152;-0.34611708,9.883566,0.07691491,-0.30765963,10.5758,0.69223416,905.96967;-0.34611708,9.883566,0.07691491,-0.15382981,9.691278,0.26920217,905.96967;-0.34611708,9.883566,0.07691491,-0.53840435,9.152874,0.23074472,905.96967;-0.34611708,9.883566,0.07691491,-0.76914907,8.999044,0.53840435,939.5241;-0.34611708,9.883566,0.07691491,-0.5768618,9.537449,0.0,939.5241;-0.34611708,9.883566,0.07691491,-0.5768618,10.5758,-0.23074472,939.5241;-0.34611708,9.883566,0.07691491,-0.46148944,9.80665,-0.038457453,973.07855;-0.34611708,9.883566,0.07691491,-0.23074472,10.3835125,0.30765963,973.07855;-0.34611708,9.883566,0.07691491,-0.8076065,10.7296295,0.96143633,973.07855;-0.34611708,9.883566,0.07691491,-0.34611708,9.729735,0.423032,973.07855;-0.34611708,9.883566,0.07691491,-0.30765963,9.768193,0.11537236,1006.63293;-0.34611708,9.883566,0.07691491,-0.9229789,9.537449,-0.038457453,1006.63293;-0.34611708,9.883566,0.07691491,-0.46148944,9.268247,0.34611708,1006.63293;-0.34611708,9.883566,0.07691491,-0.23074472,10.229683,-0.11537236,1040.1874;-0.34611708,9.883566,0.07691491,-0.46148944,9.691278,-0.11537236,1040.1874;-0.34611708,9.883566,0.07691491,-0.7306916,10.614257,0.19228727,1040.1874;-0.34611708,9.883566,0.07691491,-0.76914907,10.537342,0.423032,1073.7418;-0.34611708,9.883566,0.07691491,-0.423032,9.729735,0.30765963,1073.7418;-0.34611708,9.883566,0.07691491,0.0,9.345161,0.61531925,1073.7418;-0.34611708,8.652927,0.07691491,-0.4999469,8.652927,0.07691491,1073.7418;-0.34611708,8.652927,0.07691491,-0.9998938,9.191331,-0.038457453,1107.2963;-0.34611708,10.075852,0.07691491,-0.6537767,10.075852,0.07691491,1107.2963;-0.34611708,10.075852,0.07691491,-0.846064,9.729735,0.69223416,1107.2963;-0.34611708,10.075852,0.07691491,0.11537236,10.768087,0.34611708,1140.8507;-0.34611708,10.075852,1.1152661,-0.38457453,9.922023,1.1152661,1140.8507;-0.34611708,10.075852,1.1152661,-0.38457453,10.191225,0.846064,1140.8507;-0.34611708,10.075852,1.1152661,-0.26920217,9.191331,0.5768618,1174.4052;-0.34611708,10.075852,1.1152661,-0.423032,9.460533,0.11537236,1174.4052;-0.34611708,8.922129,-0.9998938,-0.8845214,8.922129,-0.9998938,1174.4052;-0.34611708,8.922129,-0.9998938,-0.8076065,9.845108,-0.19228727,1174.4052;-0.34611708,10.152767,-0.9998938,-0.96143633,10.152767,-0.038457453,1207.9596;-0.34611708,10.152767,0.34611708,-0.34611708,11.075747,0.34611708,1207.9596;-0.34611708,10.152767,0.34611708,0.038457453,9.883566,0.46148944,1207.9596;-0.34611708,10.152767,0.34611708,-0.5768618,9.845108,0.6537767,1241.514;-0.34611708,10.152767,0.34611708,-0.15382981,9.498991,0.46148944,1241.514;-0.34611708,10.152767,0.34611708,-0.53840435,9.306704,-0.30765963,1241.514;-0.34611708,10.152767,0.34611708,-0.61531925,9.345161,-0.23074472,1241.514;-0.34611708,10.152767,0.34611708,-0.8845214,9.883566,-0.038457453,1275.0684;-0.34611708,10.152767,0.34611708,-0.7306916,9.652821,-0.11537236,1275.0684;-0.34611708,10.152767,0.34611708,-0.846064,9.845108,0.34611708,1275.0684;-0.34611708,10.152767,0.34611708,-0.26920217,10.537342,0.38457453,1308.6228;-0.34611708,10.152767,0.34611708,-0.423032,9.652821,0.61531925,1308.6228;-0.34611708,10.152767,0.34611708,-0.23074472,10.0373955,0.0,1308.6228;-0.34611708,10.152767,0.34611708,-0.26920217,9.422076,0.07691491,1342.1772;-0.34611708,10.152767,0.34611708,-0.53840435,9.422076,-0.30765963,1342.1772;-0.34611708,10.152767,0.34611708,-0.30765963,10.075852,0.34611708,1342.1772;-0.34611708,10.152767,0.34611708,-0.8076065,10.0373955,-0.07691491,1342.1772;-0.34611708,10.152767,0.34611708,-0.76914907,10.421969,0.8845214,1375.7317;-0.34611708,10.152767,0.34611708,-0.46148944,10.460427,0.69223416,1375.7317;-0.34611708,10.152767,0.34611708,-0.846064,9.691278,0.76914907,1375.7317;-0.34611708,10.152767,0.34611708,0.0,9.883566,0.19228727,1409.2861;-0.34611708,10.152767,0.34611708,-1.0768087,9.460533,-0.19228727,1409.2861;-0.34611708,10.152767,0.34611708,-0.61531925,9.498991,-0.34611708,1409.2861;-0.34611708,10.152767,0.34611708,-0.61531925,9.422076,-0.34611708,1442.8406;-0.34611708,10.152767,0.34611708,-0.69223416,10.3835125,-0.46148944,1442.8406;-0.34611708,10.152767,0.34611708,-0.26920217,9.883566,0.46148944,1442.8406;-0.34611708,10.152767,0.34611708,-0.4999469,9.922023,1.1152661,1442.8406;-0.34611708,10.152767,0.34611708,-0.5768618,9.729735,0.423032,1476.395;-0.34611708,10.152767,0.34611708,-0.26920217,9.498991,0.15382981,1476.395;-0.34611708,10.152767,0.34611708,-0.23074472,9.229789,-0.15382981,1476.395;-0.34611708,10.152767,0.34611708,-0.38457453,9.383618,0.23074472,1509.9495;-0.34611708,10.152767,0.34611708,-0.5768618,9.845108,-0.07691491,1509.9495;-0.34611708,10.152767,0.34611708,-0.76914907,9.883566,0.69223416,1509.9495;-0.34611708,10.152767,0.34611708,-0.15382981,10.345055,0.38457453,1543.5039;-0.34611708,10.152767,0.34611708,-0.34611708,9.883566,0.5768618,1543.5039;-0.34611708,10.152767,0.34611708,-0.038457453,10.0373955,0.23074472,1543.5039;-0.34611708,9.114416,0.34611708,-0.4999469,9.114416,0.69223416,1543.5039;-0.34611708,9.114416,0.34611708,-0.6537767,9.691278,0.15382981,1577.0583;-0.34611708,9.114416,0.34611708,-0.96143633,9.037501,-0.423032,1577.0583;-0.34611708,9.114416,0.34611708,-0.61531925,9.922023,0.15382981,1577.0583;-0.34611708,9.114416,0.34611708,-0.4999469,10.075852,0.4999469,1610.6128;-0.34611708,10.7296295,0.34611708,-0.46148944,10.7296295,0.34611708,1610.6128;-0.34611708,9.460533,0.34611708,-0.46148944,9.460533,0.4999469,1610.6128;-0.34611708,9.460533,0.34611708,-0.038457453,9.691278,0.26920217,1644.1671;-0.34611708,9.460533,0.34611708,-0.38457453,10.075852,0.8845214,1644.1671;-0.34611708,9.460533,0.34611708,-0.76914907,9.383618,-0.038457453,1644.1671;-0.34611708,9.460533,0.34611708,-1.0768087,8.999044,0.038457453,1644.1671;-0.34611708,9.460533,0.34611708,-0.4999469,10.11431,0.0,1677.7216;-0.34611708,9.460533,0.34611708,-0.61531925,10.152767,0.26920217,1677.7216;-0.34611708,9.460533,0.34611708,-0.846064,9.922023,0.69223416,1677.7216;-0.34611708,9.460533,0.34611708,-0.23074472,10.0373955,0.76914907,1711.276;-0.34611708,9.460533,0.34611708,-0.53840435,9.691278,0.34611708,1711.276;-0.34611708,9.460533,0.34611708,-0.07691491,10.0373955,0.38457453,1711.276;-0.34611708,9.460533,0.34611708,-0.4999469,8.960587,-0.11537236,1744.8304;-0.34611708,9.460533,0.34611708,-0.846064,8.999044,-0.4999469,1744.8304;-0.34611708,9.460533,0.34611708,-0.23074472,9.306704,-0.26920217,1744.8304;-0.34611708,9.460533,0.34611708,-0.46148944,10.460427,-0.19228727,1744.8304;-0.34611708,9.460533,0.34611708,-0.26920217,10.306598,0.76914907,1778.3849;-0.34611708,10.614257,0.34611708,-0.19228727,10.614257,0.7306916,1778.3849;-0.34611708,9.498991,0.34611708,-0.23074472,9.498991,-0.19228727,1778.3849;-0.34611708,9.498991,0.34611708,-0.11537236,9.575906,0.19228727,1811.9393;-0.34611708,9.498991,0.34611708,-0.07691491,9.575906,0.038457453,1811.9393;-0.34611708,9.498991,0.34611708,-0.53840435,10.0373955,0.19228727,1811.9393;-0.34611708,9.498991,0.34611708,-1.0383513,9.922023,-0.038457453,1811.9393;-0.34611708,9.498991,0.34611708,-0.9229789,9.998938,-0.23074472,1845.4938;-0.34611708,9.498991,0.34611708,-0.53840435,10.191225,0.6537767,1845.4938;-0.34611708,9.498991,0.34611708,-0.38457453,10.421969,0.26920217,1845.4938;-0.34611708,9.498991,0.34611708,-0.34611708,10.191225,0.4999469,1879.0482;-0.34611708,9.498991,0.34611708,-0.6537767,9.922023,0.11537236,1879.0482;-0.34611708,9.498991,0.34611708,-0.46148944,9.80665,0.07691491,1879.0482;-0.34611708,9.498991,0.34611708,-0.8845214,9.422076,0.15382981,1912.6027;-0.34611708,9.498991,0.34611708,-0.6537767,9.922023,-0.53840435,1912.6027;-0.34611708,9.498991,0.34611708,-0.61531925,9.998938,0.4999469,1912.6027;-0.34611708,9.498991,0.34611708,-0.69223416,9.80665,0.5768618,1912.6027;-0.34611708,9.498991,0.34611708,-0.34611708,10.26814,0.5768618,1946.1571;-0.34611708,10.806544,0.34611708,-0.6537767,10.806544,0.5768618,1946.1571;-0.34611708,10.806544,0.34611708,-0.34611708,10.075852,0.5768618,1946.1571;-0.34611708,10.806544,0.34611708,-0.38457453,9.845108,0.46148944,1979.7115;-0.34611708,9.729735,0.34611708,-1.0383513,9.729735,-0.46148944,1979.7115;-0.34611708,9.729735,0.34611708,-0.76914907,9.614364,0.19228727,1979.7115;-0.34611708,9.729735,0.34611708,-0.423032,9.883566,0.26920217,2013.2659;-0.34611708,9.729735,0.34611708,-0.7306916,9.998938,0.53840435,2013.2659;-0.34611708,9.729735,0.34611708,-0.846064,9.768193,0.7306916,2013.2659;-0.34611708,9.729735,0.34611708,-0.76914907,9.883566,0.26920217,2013.2659;-0.34611708,9.729735,0.34611708,-0.46148944,9.652821,0.4999469,2046.8203;-0.34611708,9.729735,0.34611708,-0.11537236,9.691278,-0.038457453,2046.8203;-0.34611708,8.576012,0.34611708,-0.8076065,8.576012,-0.38457453,2046.8203;-0.34611708,8.576012,0.34611708,-0.8076065,9.498991,-0.30765963,2080.3748;-0.34611708,10.229683,0.34611708,-0.26920217,10.229683,-0.46148944,2080.3748;-0.34611708,10.229683,0.34611708,-0.23074472,10.421969,0.19228727,2080.3748;-0.34611708,10.229683,0.34611708,-0.846064,10.3835125,0.6537767,2113.9292;-0.34611708,10.229683,0.34611708,-0.61531925,9.80665,0.4999469,2113.9292;-0.34611708,10.229683,0.34611708,-0.26920217,9.883566,0.038457453,2113.9292;-0.34611708,10.229683,0.34611708,-0.4999469,9.498991,-0.15382981,2147.4836;-0.34611708,10.229683,0.34611708,-0.15382981,9.345161,0.23074472,2147.4836;-0.34611708,10.229683,0.34611708,-0.76914907,10.11431,-0.34611708,2147.4836;-0.34611708,10.229683,0.34611708,-0.96143633,10.11431,0.4999469,2181.038;-0.34611708,10.229683,0.34611708,-0.07691491,10.421969,-0.07691491,2181.038;-0.34611708,10.229683,0.34611708,-0.5768618,9.460533,0.423032,2181.038;-0.34611708,10.229683,0.34611708,-0.4999469,9.614364,0.38457453,2181.038;-0.34611708,9.114416,0.34611708,-0.53840435,9.114416,-0.11537236,2214.5925;-0.34611708,9.114416,0.34611708,-0.8076065,9.075959,-0.11537236,2214.5925;-0.34611708,9.114416,0.34611708,-0.6537767,8.729842,-0.23074472,2214.5925;-0.34611708,10.229683,0.34611708,-0.38457453,10.229683,0.15382981,2248.147;-0.34611708,10.229683,0.34611708,-0.5768618,10.26814,0.46148944,2248.147;-0.34611708,10.229683,0.34611708,-0.19228727,10.652715,0.4999469,2248.147;-0.34611708,10.229683,0.34611708,-0.26920217,9.691278,0.6537767,2281.7014;-0.34611708,10.229683,0.34611708,-0.38457453,9.422076,0.46148944,2281.7014;-0.34611708,10.229683,0.34611708,-0.9229789,9.422076,0.46148944,2281.7014;-0.34611708,10.229683,0.34611708,-0.61531925,9.422076,-0.23074472,2281.7014;-0.34611708,10.229683,0.34611708,-0.5768618,9.883566,-0.26920217,2315.2559;-0.34611708,10.229683,0.34611708,-0.846064,10.152767,-0.11537236,2315.2559;-0.34611708,10.229683,0.34611708,-0.5768618,10.229683,0.38457453,2315.2559;-0.34611708,10.229683,0.34611708,-0.7306916,9.998938,0.7306916,2348.8103;-0.34611708,10.229683,0.34611708,-0.46148944,10.537342,0.38457453,2348.8103;-0.34611708,10.229683,0.34611708,-0.38457453,9.306704,0.4999469,2348.8103;-0.34611708,10.229683,0.34611708,-1.0768087,9.652821,0.07691491,2382.3647;-0.34611708,10.229683,0.34611708,-0.7306916,9.498991,-0.038457453,2382.3647;-0.34611708,10.229683,0.34611708,-0.38457453,9.729735,0.038457453,2382.3647;-0.34611708,10.229683,0.34611708,-0.53840435,10.614257,-0.15382981,2382.3647;-0.34611708,10.229683,0.34611708,-0.11537236,10.768087,0.15382981,2415.9192;-0.34611708,10.229683,0.34611708,-0.46148944,9.883566,0.6537767,2415.9192;-0.34611708,10.229683,0.34611708,-0.30765963,10.3835125,0.61531925,2415.9192;-0.34611708,10.229683,0.34611708,-0.38457453,9.268247,0.423032,2449.4736;-0.34611708,10.229683,0.34611708,-0.6537767,9.614364,0.038457453,2449.4736;-0.34611708,10.229683,0.34611708,-0.8076065,9.460533,-0.15382981,2449.4736;-0.34611708,10.229683,0.34611708,-0.38457453,9.691278,-0.38457453,2483.028;-0.34611708,10.229683,0.34611708,-0.423032,10.26814,0.11537236,2483.028;-0.34611708,10.229683,0.34611708,-0.96143633,9.729735,0.53840435,2483.028;-0.34611708,10.229683,0.34611708,-0.61531925,10.152767,0.9229789,2483.028;-0.34611708,10.229683,0.34611708,0.038457453,10.345055,0.76914907,2516.5825;-0.34611708,10.229683,0.34611708,-0.46148944,9.729735,0.34611708,2516.5825;-0.34611708,10.229683,0.34611708,-0.7306916,9.960481,0.30765963,2516.5825;-0.34611708,10.229683,0.34611708,-0.6537767,9.229789,-0.46148944,2550.1367;-0.34611708,10.229683,0.34611708,-0.46148944,9.883566,0.38457453,2550.1367;-0.34611708,10.229683,0.34611708,-0.423032,10.075852,-0.19228727,2550.1367;-0.34611708,10.229683,0.34611708,-1.0383513,10.26814,0.9229789,2583.6912;-0.34611708,10.229683,0.34611708,-0.69223416,10.691172,1.1152661,2583.6912;-0.34611708,10.229683,0.34611708,-0.23074472,10.345055,1.0768087,2583.6912;-0.34611708,10.229683,0.34611708,-0.61531925,10.11431,0.6537767,2583.6912;-0.34611708,9.075959,0.34611708,-0.61531925,9.075959,0.038457453,2617.2456;-0.34611708,9.075959,0.34611708,-0.4999469,9.575906,0.038457453,2617.2456;-0.34611708,9.075959,0.34611708,-0.53840435,9.383618,-0.30765963,2617.2456;-0.34611708,9.075959,0.34611708,-0.76914907,9.845108,-0.07691491,2650.8;-0.34611708,10.11431,0.34611708,-0.423032,10.11431,0.423032,2650.8;-0.34611708,10.11431,0.34611708,-0.4999469,10.614257,0.46148944,2650.8;-0.34611708,10.11431,0.34611708,-0.26920217,10.075852,1.0383513,2684.3545;-0.34611708,10.11431,0.34611708,-0.69223416,9.998938,0.4999469,2684.3545;-0.34611708,10.11431,0.34611708,-0.423032,9.691278,-0.19228727,2684.3545;-0.34611708,10.11431,0.34611708,-0.69223416,9.422076,-0.19228727,2684.3545;-0.34611708,10.11431,0.34611708,-1.2690959,9.537449,0.46148944,2717.909;-0.34611708,10.11431,0.34611708,-0.61531925,9.691278,0.0,2717.909;-0.34611708,10.11431,0.34611708,-0.46148944,10.0373955,0.846064,2717.909;-0.34611708,10.11431,0.34611708,0.038457453,10.191225,0.8076065,2751.4634;-0.34611708,10.11431,0.34611708,-0.30765963,10.460427,0.6537767,2751.4634;-0.34611708,10.11431,0.34611708,-0.34611708,10.11431,0.76914907,2751.4634;-0.34611708,10.11431,0.34611708,-0.76914907,9.345161,0.11537236,2751.4634;-0.34611708,10.11431,0.34611708,-0.846064,9.345161,-0.11537236,2785.0178;-0.34611708,10.11431,0.34611708,-0.6537767,9.80665,-0.07691491,2785.0178;-0.34611708,10.11431,0.34611708,-0.69223416,9.498991,0.038457453,2785.0178;-0.34611708,10.11431,0.34611708,-0.5768618,9.575906,-0.038457453,2818.5723;-0.34611708,10.11431,0.34611708,-0.30765963,10.421969,0.11537236,2818.5723;-0.34611708,10.11431,0.34611708,-0.23074472,10.921917,0.4999469,2818.5723;-0.34611708,10.11431,0.34611708,-0.423032,9.729735,0.76914907,2852.1267;-0.34611708,10.11431,0.34611708,-0.423032,9.845108,0.30765963,2852.1267;-0.34611708,8.691384,0.34611708,-0.23074472,8.691384,-0.4999469,2852.1267;-0.34611708,8.691384,0.34611708,-0.9998938,9.152874,-0.19228727,2852.1267;-0.34611708,9.845108,0.34611708,-0.69223416,9.845108,0.23074472,2885.6812;-0.34611708,9.845108,0.34611708,-0.53840435,9.998938,0.53840435,2885.6812;-0.34611708,9.845108,0.34611708,-0.26920217,10.229683,0.6537767,2885.6812;-0.34611708,9.845108,0.34611708,-0.34611708,10.614257,0.26920217,2919.2356;-0.34611708,9.845108,0.34611708,-0.8076065,9.460533,0.46148944,2919.2356;-0.34611708,9.845108,0.34611708,-0.34611708,9.614364,0.23074472,2919.2356;-0.34611708,9.845108,0.34611708,-0.46148944,9.614364,0.4999469,2952.79;-0.34611708,8.46064,0.34611708,-0.8845214,8.46064,-0.53840435,2952.79;-0.34611708,9.80665,0.34611708,-0.7306916,9.80665,-0.19228727,2952.79;-0.34611708,9.80665,0.34611708,-0.5768618,9.845108,-0.19228727,2952.79;-0.34611708,9.80665,0.34611708,-0.46148944,10.229683,0.6537767,2986.3445;-0.34611708,9.80665,0.34611708,-0.38457453,10.421969,0.46148944,2986.3445;-0.34611708,9.80665,0.34611708,-0.53840435,9.845108,0.07691491,2986.3445;-0.34611708,9.80665,0.34611708,0.15382981,9.652821,0.38457453,3019.899;-0.34611708,9.80665,0.34611708,-0.19228727,9.191331,-0.19228727,3019.899;-0.34611708,9.80665,0.34611708,-1.1152661,8.922129,-0.46148944,3019.899;-0.34611708,9.80665,-1.4998407,-0.46148944,9.152874,-1.4998407,3053.4534;-0.34611708,9.80665,0.11537236,-0.61531925,10.498885,0.11537236,3053.4534;-0.34611708,9.80665,0.11537236,-0.19228727,10.421969,0.19228727,3053.4534;-0.34611708,9.80665,0.11537236,-0.38457453,9.998938,0.9998938,3053.4534;-0.34611708,9.80665,0.11537236,-0.038457453,10.0373955,0.9229789,3087.0078;-0.34611708,9.80665,0.11537236,-0.423032,9.268247,0.8076065,3087.0078;-0.34611708,9.80665,0.11537236,-0.9998938,9.383618,0.0,3087.0078;-0.34611708,9.80665,0.11537236,-0.5768618,8.806757,-0.5768618,3120.5623;-0.34611708,9.80665,0.11537236,-0.69223416,10.421969,-0.11537236,3120.5623;-0.34611708,11.268034,0.11537236,-0.23074472,11.268034,0.23074472,3120.5623;-0.34611708,11.268034,0.11537236,-0.5768618,10.345055,0.53840435,3154.1167;-0.34611708,9.460533,0.11537236,-0.46148944,9.460533,0.19228727,3154.1167;-0.34611708,9.460533,0.11537236,-0.4999469,9.768193,0.7306916,3154.1167;-0.34611708,9.460533,0.11537236,-0.34611708,9.152874,0.30765963,3154.1167;-0.34611708,9.460533,0.11537236,-0.61531925,9.268247,0.15382981,3187.6711;-0.34611708,9.460533,0.11537236,-0.30765963,10.229683,-0.11537236,3187.6711;-0.34611708,9.460533,0.11537236,-0.46148944,9.883566,0.19228727,3187.6711;-0.34611708,10.960374,0.11537236,0.0,10.960374,0.53840435,3221.2256;-0.34611708,9.768193,0.11537236,-0.9998938,9.768193,0.4999469,3221.2256;-0.34611708,9.768193,0.11537236,-0.96143633,9.922023,0.846064,3221.2256;-0.34611708,9.768193,0.11537236,-0.53840435,9.229789,0.7306916,3221.2256;-0.34611708,9.768193,0.11537236,-0.38457453,9.80665,0.19228727,3254.7798;-0.34611708,9.768193,0.11537236,-0.53840435,9.268247,-0.4999469,3254.7798;-0.34611708,9.768193,0.11537236,-0.07691491,9.883566,-0.11537236,3254.7798;-0.34611708,9.768193,0.11537236,-0.38457453,9.729735,-0.07691491,3288.3342;-0.34611708,9.768193,0.11537236,-0.07691491,9.960481,0.19228727,3288.3342;-0.34611708,9.768193,0.11537236,-0.61531925,9.845108,0.423032,3288.3342;-0.34611708,9.768193,0.11537236,-0.26920217,10.3835125,0.8845214,3321.8887;-0.34611708,9.768193,0.11537236,-0.76914907,9.80665,0.96143633,3321.8887;-0.34611708,9.768193,0.11537236,-0.30765963,9.691278,0.26920217,3321.8887;-0.34611708,9.768193,0.11537236,-0.53840435,9.768193,0.23074472,3321.8887;-0.34611708,9.768193,0.11537236,-0.6537767,9.652821,-0.07691491,3355.443;-0.34611708,9.768193,0.11537236,-0.4999469,9.268247,0.38457453,3355.443;-0.34611708,9.768193,0.11537236,-0.53840435,9.691278,0.8076065,3355.443;-0.34611708,9.768193,0.11537236,-0.8845214,10.421969,0.7306916,3388.9976;-0.34611708,9.768193,0.11537236,-0.76914907,10.498885,0.23074472,3388.9976;-0.34611708,9.768193,0.11537236,-0.26920217,9.729735,0.38457453,3388.9976;-0.34611708,9.768193,0.11537236,-0.7306916,9.498991,-0.15382981,3422.552;-0.34611708,9.768193,0.11537236,-0.15382981,9.883566,-0.23074472,3422.552;-0.34611708,9.768193,0.11537236,-0.846064,9.306704,-0.07691491,3422.552;-0.34611708,9.768193,0.11537236,-0.6537767,9.537449,-0.423032,3422.552;-0.34611708,9.768193,0.11537236,-0.19228727,10.537342,0.26920217,3456.1064;-0.34611708,9.768193,0.11537236,-0.23074472,9.691278,0.7306916,3456.1064;-0.34611708,9.768193,0.11537236,-0.76914907,9.652821,0.846064,3456.1064;-0.34611708,9.768193,0.11537236,0.038457453,10.26814,0.7306916,3489.661;-0.34611708,9.768193,0.11537236,-0.76914907,9.729735,0.07691491,3489.661;-0.34611708,9.768193,0.11537236,-0.69223416,9.268247,0.30765963,3489.661;-0.34611708,9.768193,0.11537236,-0.7306916,9.422076,-0.11537236,3523.2153;-0.34611708,9.768193,0.11537236,-0.96143633,10.152767,0.30765963,3523.2153;-0.34611708,9.768193,0.11537236,-0.30765963,9.883566,0.34611708,3523.2153;-0.34611708,9.768193,0.11537236,-0.53840435,10.26814,0.423032,3523.2153;-0.34611708,9.768193,0.11537236,-0.38457453,9.729735,0.76914907,3556.7698;-0.34611708,9.768193,0.11537236,-0.423032,10.11431,0.8845214,3556.7698;-0.34611708,9.768193,0.11537236,-0.423032,9.460533,0.23074472,3556.7698;-0.34611708,9.768193,0.11537236,-0.9229789,9.460533,-0.23074472,3590.3242;-0.34611708,8.691384,0.11537236,-0.846064,8.691384,-0.19228727,3590.3242;-0.34611708,9.845108,0.11537236,-0.30765963,9.845108,-0.038457453,3590.3242;-0.34611708,9.845108,0.11537236,-0.69223416,10.229683,0.26920217,3623.8787;-0.34611708,9.845108,0.11537236,-0.423032,9.922023,0.038457453,3623.8787;-0.34611708,9.845108,0.11537236,-0.38457453,10.152767,0.4999469,3623.8787;-0.34611708,9.845108,0.11537236,-0.15382981,10.421969,0.69223416,3623.8787;-0.34611708,9.845108,0.11537236,-0.6537767,9.422076,0.5768618,3657.433;-0.34611708,9.845108,0.11537236,-0.8076065,9.460533,0.23074472,3657.433;-0.34611708,8.768299,0.11537236,-0.4999469,8.768299,-0.23074472,3657.433;-0.34611708,8.768299,0.11537236,-0.76914907,9.191331,0.0,3690.9875;-0.34611708,10.26814,0.11537236,-0.4999469,10.26814,0.30765963,3690.9875;-0.34611708,10.26814,0.11537236,-0.846064,9.729735,0.7306916,3690.9875;-0.34611708,10.26814,0.11537236,0.23074472,10.614257,0.69223416,3724.542;-0.34611708,10.26814,0.11537236,0.19228727,9.883566,0.23074472,3724.542;-0.34611708,10.26814,0.11537236,-0.7306916,9.729735,0.38457453,3724.542;-0.34611708,10.26814,0.11537236,-0.19228727,9.729735,0.038457453,3724.542;-0.34611708,10.26814,0.11537236,-0.07691491,9.614364,-0.19228727,3758.0964;-0.34611708,10.26814,0.11537236,-1.0383513,9.268247,0.26920217,3758.0964;-0.34611708,10.26814,0.11537236,-0.6537767,10.345055,-0.23074472,3758.0964;-0.34611708,10.26814,0.11537236,-0.6537767,10.806544,0.6537767,3791.651;-0.34611708,10.26814,0.11537236,-0.23074472,11.268034,0.30765963,3791.651;-0.34611708,10.26814,0.11537236,-0.38457453,10.152767,0.4999469,3791.651;-0.34611708,10.26814,0.11537236,-0.53840435,9.768193,0.11537236,3791.651;-0.34611708,9.229789,0.11537236,-0.61531925,9.229789,0.07691491,3825.2053;-0.34611708,9.229789,0.11537236,-0.423032,9.422076,-0.6537767,3825.2053;-0.34611708,9.229789,0.11537236,-0.38457453,9.998938,-0.5768618,3825.2053;-0.34611708,9.229789,0.11537236,-0.23074472,10.152767,-0.23074472,3858.7598;-0.34611708,10.498885,0.11537236,-0.9229789,10.498885,0.30765963,3858.7598;-0.34611708,10.498885,0.11537236,-0.6537767,10.3835125,0.6537767,3858.7598;-0.34611708,10.498885,0.11537236,-0.23074472,9.768193,0.423032,3892.3142;-0.34611708,9.075959,0.11537236,-0.61531925,9.075959,0.61531925,3892.3142;-0.34611708,9.075959,0.11537236,-0.61531925,8.652927,-0.038457453,3892.3142;-0.34611708,9.075959,0.11537236,-0.5768618,9.152874,-0.34611708,3892.3142;-0.34611708,9.075959,0.11537236,-0.61531925,9.460533,0.30765963,3925.8687;-0.34611708,9.075959,0.11537236,-0.7306916,9.80665,0.53840435,3925.8687;-0.34611708,9.075959,0.11537236,-1.3460109,9.80665,0.46148944,3959.423;-0.34611708,9.075959,0.11537236,-0.19228727,9.768193,0.5768618,3959.423;-0.34611708,9.075959,0.11537236,-0.5768618,9.268247,0.038457453,3959.423;-0.34611708,9.075959,0.11537236,-0.15382981,9.422076,0.038457453,3992.9773;-0.34611708,9.075959,0.11537236,-0.9998938,9.691278,-0.34611708,3992.9773;-0.34611708,9.075959,0.11537236,-0.69223416,9.922023,-0.423032,3992.9773;-0.34611708,10.229683,0.11537236,-0.46148944,10.229683,-0.11537236,3992.9773;-0.34611708,10.229683,0.11537236,-0.07691491,10.998832,-0.07691491,4026.5317;-0.34611708,10.229683,0.11537236,-0.5768618,10.11431,0.26920217,4026.5317;-0.34611708,10.229683,0.11537236,-0.423032,9.998938,0.23074472,4026.5317;-0.34611708,8.806757,0.11537236,-0.8076065,8.806757,0.23074472,4060.0862;-0.34611708,8.806757,0.11537236,-0.96143633,9.460533,-0.19228727,4060.0862;-0.34611708,8.806757,0.11537236,-0.846064,9.691278,-0.34611708,4060.0862;-0.34611708,8.806757,0.11537236,-0.5768618,9.537449,-0.4999469,4093.6406;-0.34611708,10.0373955,0.11537236,-0.61531925,10.0373955,-0.038457453,4093.6406;-0.34611708,10.0373955,0.11537236,0.07691491,10.460427,0.8845214,4093.6406;-0.34611708,10.0373955,0.11537236,-1.0383513,9.883566,0.5768618,4093.6406;-0.34611708,10.0373955,0.11537236,-0.038457453,9.652821,0.9998938,4127.1953;-0.34611708,10.0373955,0.11537236,-0.53840435,9.614364,0.4999469,4127.1953;-0.34611708,10.0373955,0.11537236,-0.9998938,9.460533,0.0,4127.1953;-0.34611708,10.0373955,0.11537236,-0.5768618,9.268247,-0.11537236,4160.7495;-0.34611708,10.0373955,0.11537236,-0.34611708,9.037501,-0.4999469,4160.7495;-0.34611708,10.0373955,0.11537236,-0.46148944,10.26814,0.07691491,4160.7495;-0.34611708,10.0373955,0.11537236,-1.0768087,10.0373955,0.4999469,4194.304;-0.34611708,10.0373955,0.11537236,-0.38457453,10.498885,0.19228727,4194.304;-0.34611708,10.0373955,0.11537236,-0.07691491,10.3835125,0.46148944,4194.304;-0.34611708,10.0373955,0.11537236,-0.46148944,9.537449,0.53840435,4194.304;-0.34611708,10.0373955,0.11537236,-0.6537767,9.383618,0.11537236,4227.8584;-0.34611708,10.0373955,0.11537236,-0.7306916,9.383618,-0.23074472,4227.8584;-0.34611708,8.845214,0.11537236,-1.3075534,8.845214,-0.34611708,4227.8584;-0.34611708,8.845214,0.11537236,-0.9229789,9.498991,0.19228727,4261.413;-0.34611708,10.498885,0.11537236,-0.6537767,10.498885,0.69223416,4261.413;-0.34611708,10.498885,0.11537236,-0.46148944,10.191225,0.53840435,4261.413;-0.34611708,10.498885,0.11537236,-0.34611708,10.614257,0.8845214,4261.413;-0.34611708,10.498885,0.11537236,-0.423032,9.845108,0.15382981,4294.9673;-0.34611708,9.191331,0.11537236,-0.4999469,9.191331,-0.19228727,4294.9673;-0.34611708,9.191331,0.11537236,-0.846064,9.768193,-0.30765963,4294.9673;-0.34611708,9.191331,0.11537236,-0.8845214,9.306704,0.07691491,4328.5215;-0.34611708,9.191331,0.11537236,-0.61531925,9.883566,0.76914907,4328.5215;-0.34611708,10.768087,0.11537236,-0.76914907,10.768087,0.846064,4328.5215;-0.34611708,10.768087,0.11537236,-0.15382981,10.229683,0.423032,4362.076;-0.34611708,10.768087,0.11537236,-0.4999469,10.26814,0.34611708,4362.076;-0.34611708,9.691278,0.11537236,0.038457453,9.691278,0.423032,4362.076;-0.34611708,9.691278,0.11537236,-0.7306916,8.691384,-0.23074472,4362.076;-0.34611708,9.691278,0.11537236,-0.38457453,8.883672,-0.4999469,4395.6304;-0.34611708,9.691278,0.11537236,-0.61531925,9.345161,-0.07691491,4395.6304;-0.34611708,9.691278,0.11537236,-0.69223416,9.80665,-0.23074472,4395.6304;-0.34611708,9.691278,0.11537236,-0.30765963,10.498885,0.61531925,4429.185;-0.34611708,9.691278,0.11537236,-0.423032,10.26814,0.423032,4429.185;-0.34611708,10.806544,0.11537236,-0.26920217,10.806544,0.15382981,4429.185;-0.34611708,9.652821,0.11537236,-0.846064,9.652821,0.423032,4462.7393;-0.34611708,9.652821,0.11537236,-0.7306916,9.729735,-0.34611708,4462.7393;-0.34611708,8.61447,0.11537236,-0.76914907,8.61447,0.5768618,4462.7393;-0.34611708,9.729735,0.11537236,-0.6537767,9.729735,0.423032,4462.7393;-0.34611708,9.729735,0.11537236,-0.61531925,9.80665,0.26920217,4496.294;-0.34611708,9.729735,0.11537236,-0.46148944,10.345055,0.46148944,4496.294;-0.34611708,9.729735,0.11537236,-0.23074472,10.3835125,0.6537767,4496.294;-0.34611708,9.729735,0.11537236,-0.30765963,10.306598,0.5768618,4529.848;-0.34611708,9.729735,0.11537236,-0.6537767,9.80665,0.30765963,4529.848;-0.34611708,9.729735,0.11537236,-0.69223416,9.422076,0.46148944,4529.848;-0.34611708,9.729735,0.11537236,-0.96143633,8.768299,-0.15382981,4563.403;-0.34611708,9.729735,0.11537236,-1.0768087,9.422076,0.11537236,4563.403;-0.34611708,9.729735,0.11537236,-0.423032,9.537449,-0.26920217,4563.403;-0.34611708,9.729735,0.11537236,-0.46148944,10.3835125,0.46148944,4563.403;-0.34611708,10.845002,0.11537236,-0.038457453,10.845002,0.53840435,4596.957;-0.34611708,9.80665,0.11537236,-0.8845214,9.80665,1.0383513,4596.957;-0.34611708,9.80665,0.11537236,-0.30765963,9.883566,-0.07691491,4596.957;-0.34611708,9.80665,0.11537236,-0.26920217,8.806757,0.15382981,4630.5117;-0.34611708,9.80665,0.11537236,-1.2306385,9.498991,-0.15382981,4630.5117;-0.34611708,9.80665,0.11537236,-0.61531925,9.268247,-0.26920217,4630.5117;-0.34611708,9.80665,0.11537236,-0.6537767,10.3835125,-0.038457453,4664.066;-0.34611708,9.80665,0.11537236,-0.76914907,10.11431,0.038457453,4664.066;-0.34611708,9.80665,0.11537236,-0.23074472,10.7296295,0.423032,4664.066;-0.34611708,9.80665,0.11537236,-0.5768618,10.3835125,0.46148944,4664.066;-0.34611708,9.80665,0.11537236,-0.23074472,9.114416,0.07691491,4697.6206;-0.34611708,9.80665,0.11537236,-0.69223416,9.383618,0.038457453,4697.6206;-0.34611708,9.80665,0.11537236,-0.69223416,9.883566,0.4999469,4697.6206;-0.34611708,9.80665,0.11537236,-1.1152661,9.345161,0.53840435,4731.175;-0.34611708,9.80665,0.11537236,-1.0383513,9.652821,0.0,4731.175;-0.34611708,9.80665,0.11537236,-0.61531925,9.922023,0.4999469,4731.175;-0.34611708,9.80665,0.11537236,-0.9998938,9.652821,0.30765963,4764.7295;-0.34611708,9.80665,0.11537236,-0.30765963,9.960481,0.26920217,4764.7295;-0.34611708,9.80665,0.11537236,-0.26920217,9.80665,0.9229789,4764.7295;-0.34611708,9.80665,0.11537236,-0.38457453,9.037501,0.423032,4764.7295;-0.34611708,9.80665,0.11537236,-0.34611708,9.075959,-0.38457453,4798.2837;-0.34611708,9.80665,0.11537236,-0.76914907,9.460533,0.0,4798.2837;-0.34611708,9.80665,0.11537236,-0.8845214,9.614364,0.07691491,4798.2837;-0.34611708,9.80665,0.11537236,-0.46148944,10.152767,0.4999469,4831.8384;-0.34611708,9.80665,0.11537236,-0.76914907,9.998938,0.6537767,4831.8384;-0.34611708,9.80665,0.11537236,-0.5768618,10.3835125,0.19228727,4831.8384;-0.34611708,9.80665,0.11537236,-0.846064,9.691278,0.6537767,4831.8384;-0.34611708,9.80665,0.11537236,-0.9998938,9.422076,0.61531925,4865.3926;-0.34611708,9.80665,0.11537236,-0.9229789,8.883672,0.19228727,4865.3926;-0.34611708,9.80665,0.11537236,-0.46148944,9.691278,-0.38457453,4865.3926;-0.34611708,9.80665,0.11537236,-0.6537767,10.191225,0.19228727,4898.9473;-0.34611708,9.80665,0.11537236,-0.34611708,10.26814,-0.30765963,4898.9473;-0.34611708,9.80665,0.11537236,-0.038457453,10.229683,0.6537767,4898.9473;-0.34611708,9.80665,0.11537236,-0.53840435,10.537342,0.23074472,4932.5015;-0.34611708,9.80665,0.11537236,-0.96143633,9.614364,0.69223416,4932.5015;-0.34611708,9.80665,0.11537236,-0.34611708,9.498991,0.11537236,4932.5015;-0.34611708,9.80665,0.11537236,-0.30765963,9.652821,-0.46148944,4932.5015;-0.34611708,9.80665,0.11537236,-0.423032,9.345161,-0.30765963,4966.056;-0.34611708,9.80665,0.11537236,-0.53840435,9.922023,0.038457453,4966.056;-0.34611708,9.80665,0.11537236,-0.9998938,10.460427,0.53840435,4966.056;-0.34611708,9.80665,0.11537236,-0.8845214,10.3835125,0.34611708,4999.6104;-0.34611708,9.80665,0.11537236,-0.7306916,10.191225,0.423032,4999.6104;-0.34611708,9.80665,0.11537236,-0.34611708,9.845108,0.423032,4999.6104;-0.34611708,9.80665,0.11537236,-0.46148944,9.498991,0.07691491,5033.165;-0.34611708,9.80665,0.11537236,-0.96143633,9.191331,-0.34611708,5033.165;-0.34611708,9.80665,0.11537236,-0.96143633,9.306704,0.0,5033.165;-0.34611708,9.80665,0.11537236,-0.7306916,9.614364,0.19228727,5033.165;-0.34611708,9.80665,0.11537236,-0.5768618,10.229683,0.53840435,5066.719;-0.34611708,9.80665,0.11537236,-0.423032,10.306598,-0.07691491,5066.719;-0.34611708,9.80665,0.11537236,0.19228727,9.922023,0.6537767,5066.719;-0.34611708,9.80665,0.11537236,0.038457453,9.768193,0.9229789,5100.2734;-0.34611708,9.80665,0.11537236,-0.61531925,9.422076,0.07691491,5100.2734;-0.34611708,9.80665,0.11537236,-0.53840435,9.845108,-0.07691491,5100.2734;-0.34611708,9.80665,0.11537236,-0.4999469,9.345161,-0.46148944,5133.828;-0.34611708,9.80665,0.11537236,-0.76914907,9.80665,-0.19228727,5133.828;-0.34611708,9.80665,0.11537236,-0.7306916,10.26814,0.846064,5133.828;-0.34611708,9.80665,0.11537236,-0.8845214,10.191225,0.38457453,5133.828;-0.34611708,9.80665,0.11537236,-0.15382981,10.460427,0.4999469,5167.3823;-0.34611708,9.80665,0.11537236,-0.19228727,9.498991,0.26920217,5167.3823;-0.34611708,9.80665,0.11537236,-0.38457453,9.80665,-0.15382981,5167.3823;-0.34611708,9.80665,0.11537236,-0.96143633,9.845108,-0.038457453,5200.937;-0.34611708,9.80665,0.11537236,-0.46148944,10.191225,0.0,5200.937;-0.34611708,9.80665,0.11537236,-0.423032,9.960481,0.26920217,5200.937;-0.34611708,9.80665,0.11537236,-0.8845214,10.229683,0.0,5200.937;-0.34611708,9.80665,0.11537236,-0.38457453,9.998938,0.69223416,5234.491;-0.34611708,9.80665,0.11537236,-0.423032,10.5758,0.38457453,5234.491;-0.34611708,9.80665,0.11537236,-0.4999469,9.845108,0.423032,5234.491;-0.34611708,9.80665,0.11537236,-0.46148944,9.229789,-0.038457453,5268.046;-0.34611708,9.80665,0.11537236,-1.1152661,9.345161,0.5768618,5268.046;-0.34611708,9.80665,0.11537236,-0.7306916,9.883566,-0.26920217,5268.046;-0.34611708,9.80665,0.11537236,-0.07691491,10.152767,0.07691491,5301.6;-0.34611708,9.80665,0.11537236,-0.53840435,10.0373955,0.07691491,5301.6;-0.34611708,9.80665,0.11537236,-0.11537236,10.0373955,0.23074472,5301.6;-0.34611708,9.80665,0.11537236,-0.38457453,10.5758,0.7306916,5301.6;-0.34611708,9.80665,0.11537236,-0.34611708,9.960481,0.11537236,5335.155;-0.34611708,9.80665,0.11537236,-0.4999469,9.80665,0.15382981,5335.155;-0.34611708,9.80665,0.11537236,-0.9229789,9.152874,0.38457453,5335.155;-0.34611708,9.80665,0.11537236,-0.34611708,9.229789,-0.7306916,5368.709;-0.34611708,9.80665,0.11537236,-0.26920217,10.152767,0.30765963,5368.709;-0.34611708,9.80665,0.11537236,-0.23074472,9.80665,0.23074472,5368.709;-0.34611708,9.80665,0.11537236,-0.23074472,10.075852,0.9998938,5402.2637;-0.34611708,9.80665,0.11537236,-0.46148944,10.3835125,0.38457453,5402.2637;-0.34611708,9.80665,0.11537236,-0.423032,9.922023,0.7306916,5402.2637;-0.34611708,9.80665,0.11537236,-0.23074472,9.345161,0.423032,5402.2637;-0.34611708,9.80665,0.11537236,-0.96143633,9.152874,0.15382981,5435.818;-0.34611708,9.80665,0.11537236,-0.5768618,9.037501,-0.038457453,5435.818;-0.34611708,9.80665,0.11537236,-1.1152661,9.614364,0.07691491,5435.818;-0.34611708,9.80665,0.11537236,-0.61531925,9.768193,0.4999469,5469.3726;-0.34611708,9.80665,0.11537236,-0.8845214,10.498885,0.46148944,5469.3726;-0.34611708,9.80665,0.11537236,-0.61531925,10.11431,0.46148944,5469.3726;-0.34611708,9.80665,0.11537236,-0.96143633,10.191225,0.11537236,5502.927;-0.34611708,9.80665,0.11537236,-0.423032,9.922023,0.23074472,5502.927;-0.34611708,9.80665,0.11537236,-0.5768618,9.114416,0.0,5502.927;-0.34611708,9.80665,0.11537236,-0.7306916,9.345161,-0.19228727,5502.927;-0.34611708,9.80665,0.11537236,-0.53840435,10.11431,0.07691491,5536.4814;-0.34611708,9.80665,0.11537236,-0.07691491,10.191225,0.34611708,5536.4814;-0.34611708,9.80665,0.11537236,-0.4999469,10.652715,0.61531925,5536.4814;-0.34611708,9.80665,0.11537236,-0.30765963,10.345055,0.5768618,5570.0356;-0.34611708,9.80665,0.11537236,-0.4999469,9.614364,0.6537767,5570.0356;-0.34611708,9.80665,0.11537236,-0.34611708,9.537449,0.038457453,5570.0356;-0.34611708,9.80665,0.11537236,-0.5768618,9.537449,-0.038457453,5603.5903;-0.34611708,9.80665,0.11537236,-0.423032,9.383618,-0.038457453,5603.5903;-0.34611708,9.80665,0.11537236,-0.6537767,10.421969,0.23074472,5603.5903;-0.34611708,9.80665,0.11537236,-0.26920217,10.191225,0.5768618,5637.1445;-0.34611708,9.80665,0.11537236,-0.07691491,10.3835125,0.53840435,5637.1445;-0.34611708,9.80665,0.11537236,-0.96143633,9.498991,0.34611708,5637.1445;-0.34611708,9.80665,0.11537236,-0.30765963,9.768193,0.5768618,5670.699;-0.34611708,9.80665,0.11537236,-0.11537236,9.80665,0.038457453,5670.699;-0.34611708,9.80665,0.11537236,-0.5768618,9.768193,0.07691491,5670.699;-1.3844683,9.80665,0.11537236,-1.3844683,9.729735,-0.15382981,5704.2534;0.038457453,9.80665,0.11537236,0.038457453,10.0373955,0.15382981,5704.2534;0.038457453,9.80665,0.11537236,-0.61531925,10.5758,0.96143633,5704.2534;0.038457453,9.80665,0.11537236,-0.6537767,10.614257,0.46148944,5704.2534;0.038457453,9.80665,0.11537236,-0.8076065,9.537449,0.69223416,5737.808;0.038457453,9.80665,0.11537236,-0.23074472,9.537449,0.46148944,5737.808;0.038457453,8.691384,0.11537236,-0.15382981,8.691384,0.038457453,5737.808;0.038457453,8.691384,0.11537236,-0.96143633,9.152874,-0.46148944,5771.3623;0.038457453,10.11431,0.11537236,-0.19228727,10.11431,0.15382981,5771.3623;0.038457453,10.11431,0.11537236,-0.8076065,9.998938,0.038457453,5771.3623;0.038457453,10.11431,0.11537236,-0.53840435,10.345055,0.9229789,5771.3623;0.038457453,10.11431,0.11537236,-0.6537767,10.0373955,0.5768618,5804.9165;0.038457453,10.11431,0.11537236,-0.23074472,9.691278,0.69223416,5804.9165;0.038457453,10.11431,0.11537236,0.30765963,9.422076,0.11537236,5804.9165;0.038457453,10.11431,0.11537236,-0.5768618,9.614364,0.19228727,5838.471;0.038457453,10.11431,0.11537236,-0.38457453,9.114416,-0.69223416,5838.471;0.038457453,10.11431,0.11537236,-0.61531925,9.922023,-0.11537236,5838.471;0.038457453,10.11431,0.11537236,-0.8076065,10.652715,0.69223416,5872.0254;-0.9998938,10.11431,0.11537236,-0.9998938,10.345055,0.53840435,5872.0254;-0.9998938,10.11431,0.11537236,-0.6537767,10.075852,0.5768618,5872.0254;-0.9998938,10.11431,0.11537236,-0.34611708,9.998938,0.5768618,5872.0254;-0.9998938,10.11431,0.11537236,-0.6537767,9.460533,0.19228727,5905.58;-0.9998938,10.11431,0.11537236,-0.038457453,9.422076,-0.038457453,5905.58;-0.9998938,10.11431,0.11537236,-0.46148944,9.922023,-0.038457453,5905.58;-0.9998938,10.11431,0.11537236,-0.34611708,10.11431,0.0,5939.1343;-0.9998938,10.11431,0.11537236,-0.15382981,10.537342,0.4999469,5939.1343;-0.9998938,10.11431,0.11537236,-0.46148944,10.26814,0.69223416,5939.1343;0.23074472,10.11431,0.11537236,0.23074472,9.498991,0.69223416,5972.689;0.23074472,10.11431,0.11537236,-0.38457453,9.268247,0.34611708,5972.689;0.23074472,10.11431,0.11537236,-0.7306916,9.422076,0.34611708,5972.689;0.23074472,10.11431,0.11537236,-0.30765963,9.383618,0.038457453,5972.689;-0.9229789,10.11431,0.11537236,-0.9229789,9.652821,0.11537236,6006.243;-0.9229789,10.11431,0.11537236,-0.61531925,9.998938,0.19228727,6006.243;-0.9229789,10.11431,0.11537236,-0.846064,10.3835125,0.23074472,6006.243;-0.9229789,10.11431,0.11537236,-0.4999469,10.345055,0.4999469,6039.798;-0.9229789,10.11431,0.11537236,-0.19228727,10.306598,0.76914907,6039.798;-0.9229789,10.11431,0.11537236,-0.15382981,9.768193,0.846064,6039.798;-0.9229789,10.11431,0.11537236,-0.038457453,9.922023,0.038457453,6073.352;-0.9229789,10.11431,0.11537236,-0.96143633,9.691278,0.07691491,6073.352;-0.9229789,10.11431,0.11537236,-0.53840435,9.729735,-0.30765963,6073.352;-0.9229789,10.11431,0.11537236,-0.5768618,9.729735,0.038457453,6073.352;-0.9229789,10.11431,0.11537236,-0.5768618,9.652821,0.07691491,6106.9067;-0.9229789,10.11431,0.11537236,-0.6537767,10.075852,0.96143633,6106.9067;-0.9229789,10.11431,0.11537236,-0.11537236,10.3835125,0.76914907,6106.9067;-0.9229789,10.11431,0.11537236,-0.30765963,10.229683,0.53840435,6140.461;-0.9229789,10.11431,0.11537236,-0.5768618,9.422076,0.5768618,6140.461;-0.9229789,10.11431,0.11537236,-0.5768618,9.114416,0.19228727,6140.461;-0.9229789,10.11431,0.11537236,-0.8845214,9.306704,-0.038457453,6174.0156;-0.9229789,10.11431,0.11537236,-0.53840435,9.152874,0.07691491,6174.0156;-0.9229789,10.11431,0.11537236,-0.11537236,9.768193,0.34611708,6174.0156;-0.9229789,10.11431,0.11537236,-0.61531925,10.191225,0.423032,6174.0156;-0.9229789,10.11431,0.11537236,-0.19228727,10.229683,0.53840435,6207.57;0.11537236,10.11431,0.11537236,0.11537236,10.768087,0.76914907,6207.57;0.11537236,9.075959,0.11537236,-0.5768618,9.075959,0.423032,6207.57;0.11537236,9.075959,0.11537236,-0.8845214,9.498991,0.30765963,6241.1245;0.11537236,9.075959,0.11537236,-0.76914907,8.61447,0.07691491,6241.1245;0.11537236,9.075959,0.11537236,-0.8076065,8.883672,-0.46148944,6241.1245;0.11537236,9.075959,0.11537236,-0.53840435,10.0373955,0.30765963,6241.1245;0.11537236,10.191225,0.11537236,-0.69223416,10.191225,0.23074472,6274.6787;0.11537236,10.191225,1.2306385,-0.6537767,9.845108,1.2306385,6274.6787;0.11537236,10.191225,1.2306385,-0.23074472,10.614257,0.26920217,6274.6787;0.11537236,10.191225,1.2306385,-0.846064,9.614364,0.8845214,6308.2334;0.11537236,10.191225,0.07691491,-0.53840435,9.614364,0.07691491,6308.2334;-0.9229789,8.576012,0.07691491,-0.9229789,8.576012,0.07691491,6308.2334;-0.9229789,8.576012,0.07691491,-0.07691491,9.229789,-0.19228727,6341.7876;-0.9229789,10.075852,0.07691491,-0.8076065,10.075852,0.423032,6341.7876;-0.9229789,10.075852,0.07691491,-0.30765963,10.229683,0.38457453,6341.7876;-0.9229789,10.075852,0.07691491,-0.4999469,9.845108,0.34611708,6341.7876;-0.9229789,10.075852,0.07691491,-0.53840435,10.26814,0.76914907,6375.3423;-0.9229789,10.075852,0.07691491,0.07691491,10.0373955,0.30765963,6375.3423;-0.9229789,10.075852,0.07691491,-0.15382981,9.306704,0.423032,6375.3423;-0.9229789,8.768299,0.07691491,-0.7306916,8.768299,0.15382981,6408.8965;-0.9229789,8.768299,0.07691491,-1.0383513,9.498991,-0.23074472,6408.8965;-0.9229789,9.883566,0.07691491,-0.5768618,9.883566,0.07691491,6408.8965;-0.9229789,9.883566,0.07691491,-0.34611708,10.498885,0.69223416,6442.451;0.15382981,9.883566,0.07691491,0.15382981,10.3835125,0.38457453,6442.451;0.15382981,9.883566,0.07691491,0.07691491,9.883566,0.423032,6442.451;0.15382981,9.883566,0.07691491,-0.5768618,9.152874,0.19228727,6442.451;-0.9998938,9.883566,0.07691491,-0.9998938,9.575906,-0.15382981,6476.0054;-0.9998938,9.883566,0.07691491,-0.76914907,9.383618,-0.53840435,6476.0054;-0.9998938,9.883566,0.07691491,-1.1152661,9.729735,0.07691491,6476.0054;0.19228727,9.883566,0.07691491,0.19228727,9.729735,-0.07691491,6509.5596;0.19228727,9.883566,0.07691491,-0.26920217,10.306598,0.19228727,6509.5596;0.19228727,9.883566,0.07691491,-0.38457453,10.5758,0.46148944,6509.5596;0.19228727,9.883566,0.07691491,-0.423032,10.075852,0.9229789,6543.1143;0.19228727,9.883566,0.07691491,-0.19228727,9.460533,0.23074472,6543.1143;0.19228727,9.883566,0.07691491,-0.4999469,9.614364,-0.15382981,6543.1143;0.19228727,9.883566,0.07691491,-0.46148944,9.537449,-0.4999469,6543.1143;0.19228727,9.883566,0.07691491,-0.7306916,9.960481,-0.11537236,6576.6685;0.19228727,9.883566,0.07691491,-0.6537767,9.883566,0.11537236,6576.6685;0.19228727,9.883566,0.07691491,0.0,10.191225,0.38457453,6576.6685;0.19228727,9.883566,0.07691491,-0.8076065,10.498885,0.69223416,6610.223;0.19228727,9.883566,0.07691491,-0.4999469,9.80665,0.15382981,6610.223;0.19228727,9.883566,0.07691491,-0.23074472,9.537449,0.4999469,6610.223;0.19228727,9.883566,0.07691491,0.34611708,9.114416,0.38457453,6643.7773;-0.9229789,9.883566,0.07691491,-0.9229789,9.652821,0.30765963,6643.7773;-0.9229789,9.883566,0.07691491,-0.6537767,9.845108,0.038457453,6643.7773;-0.9229789,9.883566,0.07691491,-0.34611708,9.960481,0.0,6643.7773;-0.9229789,9.883566,0.07691491,-0.34611708,10.191225,0.53840435,6677.332;-0.9229789,9.883566,0.07691491,-0.61531925,9.922023,0.34611708,6677.332;-0.9229789,9.883566,0.07691491,0.0,9.768193,0.61531925,6677.332;-0.9229789,9.883566,0.07691491,-0.9229789,9.498991,0.38457453,6710.886;-0.9229789,9.883566,0.07691491,-0.6537767,8.999044,-0.26920217,6710.886;-0.9229789,9.883566,0.07691491,-0.26920217,9.652821,-0.38457453,6710.886;-0.9229789,9.883566,0.07691491,-0.76914907,9.960481,-0.4999469,6710.886;-0.9229789,9.883566,0.07691491,-0.9998938,10.26814,0.07691491,6744.441;-0.9229789,9.883566,0.07691491,-0.23074472,9.998938,0.9229789,6744.441;-0.9229789,9.883566,0.07691491,-0.46148944,10.3835125,0.69223416,6744.441;-0.9229789,9.883566,0.07691491,-0.8845214,10.075852,0.61531925,6777.995;-0.9229789,9.883566,0.07691491,-0.5768618,9.345161,0.19228727,6777.995;-0.9229789,9.883566,0.07691491,-0.8076065,9.575906,-0.19228727,6777.995;-0.9229789,9.883566,0.07691491,-0.69223416,9.460533,-0.11537236,6811.55;-0.9229789,9.883566,0.07691491,-1.1152661,9.498991,-0.15382981,6811.55;-0.9229789,9.883566,0.07691491,-1.0768087,10.11431,0.038457453,6811.55;-0.9229789,9.883566,0.07691491,-0.38457453,10.229683,0.69223416,6811.55;-0.9229789,9.883566,0.07691491,-0.34611708,10.0373955,0.38457453,6845.104;-0.9229789,9.883566,1.3844683,-0.26920217,10.191225,1.3844683,6845.104;-0.9229789,9.883566,1.3844683,-0.96143633,10.152767,0.61531925,6845.104;-0.9229789,9.883566,0.038457453,-0.846064,9.306704,0.038457453,6878.6587;-0.9229789,9.883566,0.038457453,-0.846064,8.960587,0.15382981,6878.6587;-0.9229789,9.883566,0.038457453,-0.8845214,9.652821,0.15382981,6878.6587;-0.9229789,9.883566,0.038457453,-0.846064,10.075852,-0.19228727,6912.213;-0.9229789,9.883566,0.038457453,-0.69223416,9.845108,0.038457453,6912.213;-0.9229789,9.883566,0.038457453,-0.38457453,9.922023,0.423032,6912.213;-0.9229789,9.883566,0.038457453,-0.26920217,10.0373955,0.5768618,6912.213;-0.9229789,9.883566,0.038457453,-0.53840435,9.729735,0.7306916,6945.7676;-0.9229789,9.883566,0.038457453,-0.96143633,9.114416,-0.23074472,6945.7676;-0.9229789,9.883566,0.038457453,-0.53840435,8.999044,-0.19228727,6945.7676;-0.9229789,9.883566,0.038457453,-0.26920217,9.768193,-0.26920217,6979.322;-0.9229789,9.883566,0.038457453,-0.7306916,9.729735,-0.038457453,6979.322;-0.9229789,9.883566,0.038457453,-0.4999469,10.229683,0.53840435,6979.322;-0.9229789,9.883566,0.038457453,-0.53840435,10.345055,0.038457453,7012.8765;-0.9229789,9.883566,0.038457453,-0.5768618,10.537342,0.30765963,7012.8765;-0.9229789,9.883566,0.038457453,-0.38457453,9.80665,0.0,7012.8765;-0.9229789,9.883566,0.038457453,-0.34611708,9.075959,-0.07691491,7012.8765;-0.9229789,9.883566,0.038457453,-0.69223416,9.383618,0.0,7046.4307;-0.9229789,9.883566,0.038457453,-0.6537767,9.729735,-0.26920217,7046.4307;-0.9229789,9.883566,0.038457453,-0.34611708,10.0373955,0.30765963,7046.4307;-0.9229789,9.883566,0.038457453,-0.7306916,10.460427,0.34611708,7079.9854;-0.9229789,9.883566,0.038457453,-0.15382981,9.960481,0.11537236,7079.9854;-0.9229789,9.883566,0.038457453,-0.423032,10.11431,0.30765963,7079.9854;-0.9229789,9.883566,0.038457453,0.0,9.768193,0.30765963,7113.5396;-0.9229789,9.883566,0.038457453,-0.38457453,9.614364,-0.19228727,7113.5396;-0.9229789,9.883566,0.038457453,-0.9229789,9.268247,0.15382981,7113.5396;-0.9229789,9.883566,0.038457453,-1.0383513,9.229789,-0.46148944,7113.5396;-0.9229789,9.883566,0.038457453,-0.61531925,9.845108,-0.07691491,7147.094;-0.9229789,9.883566,0.038457453,-0.46148944,10.075852,0.53840435,7147.094;-0.9229789,9.883566,0.038457453,-0.7306916,10.229683,0.5768618,7147.094;-0.9229789,9.883566,0.038457453,-0.30765963,10.229683,0.30765963,7180.6484;-0.9229789,9.883566,0.038457453,-0.07691491,10.0373955,0.07691491,7180.6484;-0.9229789,9.883566,0.038457453,-0.23074472,9.229789,0.11537236,7180.6484;-0.9229789,8.576012,0.038457453,-0.8845214,8.576012,0.07691491,7214.2026;-0.9229789,8.576012,0.038457453,-0.61531925,9.422076,-0.19228727,7214.2026;-0.9229789,8.576012,0.038457453,-0.8076065,9.152874,-0.07691491,7214.2026;-0.9229789,9.691278,0.038457453,-0.23074472,9.691278,-0.30765963,7214.2026;0.11537236,10.921917,0.038457453,0.11537236,10.921917,0.34611708,7247.7573;0.11537236,10.921917,0.038457453,-0.423032,9.922023,0.7306916,7247.7573;0.11537236,10.921917,0.038457453,-0.6537767,10.3835125,0.69223416,7247.7573;0.11537236,9.460533,0.038457453,-0.5768618,9.460533,0.38457453,7281.3115;0.11537236,9.460533,0.038457453,-0.76914907,8.883672,-0.19228727,7281.3115;0.11537236,9.460533,0.038457453,-0.53840435,9.498991,0.423032,7281.3115;-0.96143633,9.460533,0.038457453,-0.96143633,9.345161,-0.23074472,7281.3115;-0.96143633,10.5758,0.038457453,-0.7306916,10.5758,-0.07691491,7314.866;-0.96143633,10.5758,0.038457453,0.038457453,10.806544,-0.15382981,7314.866;-0.96143633,10.5758,0.038457453,-0.38457453,10.229683,0.6537767,7314.866;-0.96143633,10.5758,0.038457453,-0.15382981,9.768193,0.5768618,7348.4204;-0.96143633,10.5758,0.038457453,-0.846064,9.691278,0.423032,7348.4204;-0.96143633,10.5758,0.038457453,-0.76914907,9.652821,0.07691491,7348.4204;-0.96143633,10.5758,0.038457453,-0.76914907,9.575906,-0.26920217,7381.975;-0.96143633,10.5758,0.038457453,-0.26920217,9.768193,0.23074472,7381.975;-0.96143633,10.5758,0.038457453,-0.4999469,9.998938,0.34611708,7381.975;-0.96143633,10.5758,0.038457453,-0.46148944,10.421969,0.34611708,7381.975;-0.96143633,10.5758,1.0768087,0.0,10.152767,1.0768087,7415.5293;-0.96143633,10.5758,1.0768087,-0.07691491,9.922023,0.9998938,7415.5293;-0.96143633,10.5758,1.0768087,-0.61531925,9.729735,0.23074472,7415.5293;-0.96143633,9.460533,-0.15382981,-0.76914907,9.460533,-0.15382981,7449.084;-0.96143633,9.460533,-0.15382981,-0.53840435,9.191331,-0.7306916,7449.084;-0.96143633,9.460533,-0.15382981,-1.4229257,10.421969,0.07691491,7449.084;-0.96143633,9.460533,-0.15382981,-0.61531925,10.11431,0.038457453,7482.638;-0.96143633,11.075747,-0.15382981,-0.423032,11.075747,0.15382981,7482.638;-0.96143633,11.075747,-0.15382981,0.0,10.26814,0.46148944,7482.638;-0.96143633,9.652821,-0.15382981,-0.423032,9.652821,0.53840435,7482.638;-0.96143633,9.652821,-0.15382981,-0.53840435,9.691278,0.19228727,7516.193;-0.96143633,9.652821,-0.15382981,-0.9229789,9.191331,-0.5768618,7516.193;-0.96143633,9.652821,-0.15382981,-0.38457453,10.11431,-0.4999469,7549.747;-0.96143633,9.652821,-0.15382981,-0.19228727,9.960481,0.15382981,7549.747;-0.96143633,10.7296295,0.9229789,-0.846064,10.7296295,0.9229789,7549.747;0.15382981,10.7296295,0.9229789,0.15382981,9.922023,0.53840435,7583.302;-0.96143633,10.7296295,0.9229789,-0.96143633,9.960481,0.34611708,7583.302;-0.96143633,9.537449,0.9229789,-0.61531925,9.537449,0.46148944,7583.302;-0.96143633,9.537449,0.9229789,-0.423032,9.075959,0.15382981,7583.302;-0.96143633,9.537449,-0.46148944,-1.1537236,8.999044,-0.46148944,7616.856;-0.96143633,9.537449,-0.46148944,-0.53840435,9.998938,-0.11537236,7616.856;-0.96143633,9.537449,-0.46148944,-0.7306916,10.152767,0.4999469,7616.856;-0.96143633,9.537449,0.96143633,-0.23074472,9.845108,0.96143633,7650.4106;-0.96143633,10.652715,0.96143633,-0.15382981,10.652715,0.7306916,7650.4106;-0.96143633,10.652715,0.96143633,-0.26920217,10.306598,0.46148944,7650.4106;-0.96143633,9.422076,0.96143633,-0.5768618,9.422076,0.23074472,7683.965;-0.96143633,9.422076,0.96143633,-0.69223416,9.768193,0.0,7683.965;-0.96143633,9.422076,-0.30765963,-0.07691491,9.960481,-0.30765963,7683.965;-0.96143633,9.422076,-0.30765963,-0.038457453,10.11431,0.15382981,7683.965;-0.96143633,9.422076,-0.30765963,-1.1152661,9.845108,0.61531925,7717.5195;-0.96143633,10.921917,-0.30765963,-0.5768618,10.921917,0.038457453,7717.5195;-0.96143633,10.921917,0.8076065,-0.38457453,10.460427,0.8076065,7717.5195;-0.96143633,10.921917,0.8076065,-0.8845214,10.229683,0.846064,7751.0737;-0.96143633,9.768193,0.8076065,-0.6537767,9.768193,0.61531925,7751.0737;-0.96143633,9.768193,-0.23074472,-0.69223416,9.383618,-0.23074472,7751.0737;-0.96143633,9.768193,-0.23074472,-0.46148944,9.998938,-0.26920217,7751.0737;-0.96143633,9.768193,-0.23074472,-0.23074472,9.460533,-0.11537236,7784.6284;-0.96143633,9.768193,-0.23074472,-0.15382981,10.075852,0.53840435,7784.6284;-0.96143633,9.768193,0.8845214,-1.4229257,9.614364,0.8845214,7784.6284;-0.96143633,9.768193,0.8845214,-0.26920217,10.537342,0.53840435,7818.1826;-0.96143633,9.768193,0.8845214,-0.34611708,9.114416,0.76914907,7818.1826;-0.96143633,9.768193,-0.26920217,-0.11537236,9.614364,-0.26920217,7818.1826;-0.96143633,9.768193,-0.26920217,-0.8076065,8.960587,0.038457453,7851.7373;-0.96143633,9.768193,-0.26920217,-0.61531925,9.845108,-0.26920217,7851.7373;-0.96143633,9.768193,-0.26920217,-0.61531925,9.498991,0.61531925,7851.7373;-0.96143633,9.768193,-0.26920217,-0.26920217,9.768193,0.15382981,7851.7373;-0.96143633,9.768193,-0.26920217,-1.0768087,10.0373955,0.61531925,7885.2915;-0.96143633,9.768193,-0.26920217,0.0,10.345055,0.61531925,7885.2915;-0.96143633,9.768193,0.8076065,-0.07691491,9.922023,0.8076065,7885.2915;-0.96143633,9.768193,0.8076065,-0.34611708,9.614364,0.07691491,7918.846;-0.96143633,9.768193,0.8076065,-0.46148944,9.191331,0.07691491,7918.846;-0.96143633,9.768193,0.8076065,-0.4999469,8.922129,0.07691491,7918.846;-0.96143633,9.768193,0.8076065,-0.69223416,9.575906,0.038457453,7952.4004;-0.96143633,9.768193,0.8076065,-0.8076065,9.768193,0.53840435,7952.4004;0.11537236,9.768193,0.8076065,0.11537236,10.26814,0.46148944,7952.4004;0.11537236,9.768193,0.8076065,-0.8845214,10.26814,0.46148944,7952.4004;0.11537236,9.768193,0.8076065,-0.6537767,10.0373955,0.423032,7985.9546;0.11537236,9.768193,0.8076065,-0.4999469,9.306704,0.5768618,7985.9546;0.11537236,9.768193,-0.23074472,-0.6537767,9.460533,-0.23074472,7985.9546;0.11537236,9.768193,-0.23074472,-0.53840435,8.999044,-0.11537236,8019.5093;0.11537236,9.768193,-0.23074472,-0.846064,9.575906,-0.038457453,8019.5093;0.11537236,9.768193,-0.23074472,-0.846064,9.883566,0.7306916,8019.5093;0.11537236,9.768193,-0.23074472,-0.34611708,10.345055,0.11537236,8053.0635;0.11537236,9.768193,-0.23074472,-0.11537236,10.3835125,0.15382981,8053.0635;0.11537236,9.768193,-0.23074472,-0.46148944,9.960481,0.34611708,8053.0635;0.11537236,9.768193,-0.23074472,-0.5768618,9.537449,0.69223416,8053.0635;0.11537236,9.768193,-0.23074472,-0.38457453,9.229789,-0.07691491,8086.618;0.11537236,9.768193,-0.23074472,-0.6537767,9.422076,0.19228727,8086.618;0.11537236,9.768193,-0.23074472,-0.23074472,9.652821,0.19228727,8086.618;0.11537236,9.768193,-0.23074472,-0.7306916,10.0373955,0.46148944,8120.1724;0.11537236,9.768193,-0.23074472,0.038457453,10.768087,0.34611708,8120.1724;0.11537236,9.768193,-0.23074472,-0.11537236,10.26814,0.5768618,8120.1724;0.11537236,9.768193,-0.23074472,-0.6537767,10.537342,0.38457453,8153.727;0.11537236,9.768193,-0.23074472,-0.76914907,10.191225,0.26920217,8153.727;0.11537236,9.768193,-0.23074472,-0.61531925,9.037501,0.038457453,8153.727;0.11537236,9.768193,-0.23074472,-0.5768618,9.345161,-0.423032,8153.727;0.11537236,9.768193,-0.23074472,-0.4999469,9.883566,-0.30765963,8187.2813;0.11537236,9.768193,-0.23074472,-0.53840435,9.845108,-0.423032,8187.2813;0.11537236,9.768193,-0.23074472,0.26920217,10.5758,0.0,8187.2813;0.11537236,10.845002,-0.23074472,-0.19228727,10.845002,0.15382981,8220.836;0.11537236,10.845002,-0.23074472,-0.19228727,9.883566,0.6537767,8220.836;0.11537236,10.845002,-0.23074472,-0.76914907,10.075852,-0.038457453,8220.836;0.11537236,9.652821,-0.23074472,-0.07691491,9.652821,-0.26920217,8254.391;0.11537236,9.652821,-0.23074472,-0.8076065,9.345161,-0.26920217,8254.391;0.11537236,9.652821,-0.23074472,-0.846064,9.537449,0.038457453,8254.391;0.11537236,9.652821,-0.23074472,-0.38457453,9.537449,0.11537236,8254.391;0.11537236,9.652821,0.8076065,-0.423032,10.11431,0.8076065,8287.944;0.11537236,10.883459,0.8076065,-0.7306916,10.883459,0.423032,8287.944;0.11537236,9.845108,0.8076065,-0.46148944,9.845108,0.5768618,8287.944;-0.96143633,9.845108,-0.26920217,-0.96143633,9.652821,-0.26920217,8321.499;-0.96143633,9.845108,-0.26920217,-0.38457453,8.960587,-0.23074472,8321.499;-0.96143633,9.845108,-0.26920217,-0.6537767,9.229789,0.038457453,8321.499;-0.96143633,9.845108,-0.26920217,-0.46148944,9.691278,-0.30765963,8321.499;-0.96143633,9.845108,-0.26920217,-0.38457453,10.075852,0.23074472,8355.054;-0.96143633,9.845108,-0.26920217,-0.46148944,10.498885,0.61531925,8355.054;-0.96143633,9.845108,-0.26920217,-0.38457453,9.883566,0.4999469,8355.054;-0.96143633,9.845108,-0.26920217,-0.19228727,9.460533,0.30765963,8388.608;-0.96143633,9.845108,-0.26920217,-1.1152661,8.922129,0.61531925,8388.608;-0.96143633,9.845108,-0.26920217,-0.34611708,9.729735,0.038457453,8388.608;-0.96143633,9.845108,-0.26920217,-0.9998938,9.345161,-0.34611708,8422.162;-0.96143633,9.845108,-0.26920217,-0.7306916,9.729735,-0.30765963,8422.162;-0.96143633,9.845108,-0.26920217,-0.61531925,10.075852,0.30765963,8422.162;-0.96143633,9.845108,-0.26920217,-0.46148944,10.537342,0.6537767,8422.162;-0.96143633,9.845108,-0.26920217,0.0,10.11431,0.15382981,8455.717;-0.96143633,9.845108,0.76914907,-0.34611708,9.729735,0.76914907,8455.717;-0.96143633,9.845108,0.76914907,-0.11537236,8.960587,0.15382981,8455.717;-0.96143633,9.845108,-0.26920217,-0.5768618,9.614364,-0.26920217,8489.271;-0.96143633,9.845108,-0.26920217,-0.6537767,9.075959,-0.69223416,8489.271;-0.96143633,9.845108,-0.26920217,-0.6537767,9.152874,-0.26920217,8489.271;-0.96143633,9.845108,-0.26920217,0.0,9.960481,0.19228727,8522.826;-0.96143633,9.845108,0.8076065,-0.8845214,9.422076,0.8076065,8522.826;-0.96143633,9.845108,0.8076065,-0.6537767,9.729735,0.53840435,8522.826;-0.96143633,9.845108,0.8076065,-0.038457453,9.614364,0.76914907,8522.826;-0.96143633,9.845108,0.8076065,-0.38457453,9.883566,0.34611708,8556.38;-0.96143633,9.845108,0.8076065,-0.61531925,9.768193,0.07691491,8556.38;-0.96143633,9.845108,0.8076065,-1.1152661,9.075959,0.038457453,8556.38;-0.96143633,9.845108,-0.46148944,-0.6537767,9.498991,-0.46148944,8589.935;-0.96143633,9.845108,-0.46148944,-0.7306916,10.345055,0.0,8589.935;-0.96143633,9.845108,-0.46148944,-0.46148944,10.075852,0.423032,8589.935;-0.96143633,9.845108,0.61531925,-0.53840435,10.345055,0.61531925,8623.489;0.15382981,9.845108,0.61531925,0.15382981,9.845108,0.38457453,8623.489;0.15382981,9.845108,0.61531925,-0.11537236,9.652821,-0.26920217,8623.489;0.15382981,9.845108,0.61531925,-0.15382981,9.652821,0.19228727,8623.489;0.15382981,9.845108,0.61531925,-0.5768618,9.268247,0.38457453,8657.043;0.15382981,9.845108,0.61531925,-0.07691491,9.268247,0.038457453,8657.043;-1.3075534,9.845108,-0.4999469,-1.3075534,9.383618,-0.4999469,8657.043;-1.3075534,9.845108,-0.4999469,-0.5768618,10.614257,0.038457453,8690.598;-1.3075534,9.845108,0.61531925,-0.7306916,10.7296295,0.61531925,8690.598;-1.3075534,9.845108,0.61531925,-0.4999469,10.421969,0.9998938,8690.598;0.19228727,9.845108,0.61531925,0.19228727,9.998938,0.38457453,8724.152;0.19228727,9.845108,0.61531925,0.23074472,9.345161,-0.038457453,8724.152;0.19228727,9.845108,0.61531925,-0.5768618,9.729735,-0.30765963,8724.152;0.19228727,9.845108,0.61531925,-0.6537767,9.537449,-0.07691491,8724.152;0.19228727,9.845108,0.61531925,-0.69223416,9.537449,-0.23074472,8757.707;0.19228727,9.845108,0.61531925,-0.8076065,10.152767,0.53840435,8757.707;0.19228727,9.845108,0.61531925,-0.038457453,9.883566,0.7306916,8757.707;0.19228727,9.845108,0.61531925,-0.30765963,9.998938,0.5768618,8791.261;0.19228727,9.845108,0.61531925,-0.11537236,9.922023,0.34611708,8791.261;0.19228727,9.845108,0.61531925,-0.6537767,9.883566,0.30765963,8791.261;-0.9998938,9.845108,-0.423032,-0.9998938,9.345161,-0.423032,8791.261;-0.9998938,9.845108,-0.423032,-0.76914907,9.729735,0.19228727,8824.815;-0.9998938,9.845108,-0.423032,-0.8076065,9.614364,-0.11537236,8824.815;-0.9998938,9.845108,-0.423032,-0.23074472,10.345055,0.07691491,8824.815;-0.9998938,9.845108,-0.423032,-0.26920217,10.191225,0.38457453,8858.37;0.423032,9.845108,0.69223416,0.423032,10.5758,0.69223416,8858.37;-0.69223416,9.845108,0.69223416,-0.69223416,9.691278,0.61531925,8858.37;-0.69223416,9.845108,0.69223416,-0.4999469,9.152874,0.38457453,8891.925;-0.69223416,9.845108,0.69223416,-0.6537767,8.999044,-0.23074472,8891.925;-0.69223416,9.845108,0.69223416,-0.6537767,9.383618,0.07691491,8891.925;-0.69223416,9.845108,0.69223416,-0.76914907,9.652821,0.423032,8891.925;-0.69223416,9.845108,0.69223416,-0.23074472,10.229683,0.07691491,8925.479;-0.69223416,10.883459,0.69223416,-0.34611708,10.883459,0.5768618,8925.479;-0.69223416,10.883459,0.69223416,0.0,10.3835125,0.26920217,8925.479;-0.69223416,9.383618,0.69223416,-0.34611708,9.383618,0.46148944,8959.033;-0.69223416,9.383618,0.69223416,-1.2306385,9.575906,0.07691491,8959.033;-0.69223416,9.383618,0.69223416,-1.0768087,9.537449,-0.038457453,8959.033;-0.69223416,9.383618,0.69223416,-0.846064,9.075959,-0.23074472,8992.588;-0.69223416,9.383618,0.69223416,-0.76914907,9.883566,-0.26920217,8992.588;-0.69223416,9.383618,0.69223416,-0.38457453,10.191225,0.4999469,8992.588;-0.69223416,10.421969,0.69223416,-0.7306916,10.421969,0.19228727,8992.588;-0.69223416,10.421969,0.69223416,-0.46148944,9.80665,0.423032,9026.143;-0.69223416,10.421969,0.69223416,-0.46148944,10.191225,0.4999469,9026.143;-0.69223416,8.960587,0.69223416,-0.76914907,8.960587,0.19228727,9026.143;-0.69223416,8.960587,0.69223416,-0.846064,9.691278,-0.15382981,9059.696;-0.69223416,8.960587,0.69223416,-0.53840435,9.345161,-0.07691491,9059.696;-0.69223416,8.960587,0.69223416,-0.61531925,9.845108,-0.23074472,9059.696;-0.69223416,10.691172,0.69223416,-0.61531925,10.691172,0.423032,9093.251;-0.69223416,10.691172,0.69223416,-0.423032,10.806544,0.76914907,9093.251;-0.69223416,10.691172,0.69223416,-0.23074472,10.229683,-0.19228727,9093.251;-0.69223416,10.691172,0.69223416,-0.26920217,9.80665,0.9229789,9093.251;-0.69223416,9.075959,0.69223416,-0.8076065,9.075959,0.46148944,9126.806;-0.69223416,9.075959,0.69223416,-0.8076065,9.729735,0.038457453,9126.806;-0.69223416,9.075959,0.69223416,-0.9998938,9.960481,0.038457453,9126.806;-0.69223416,9.075959,0.69223416,-1.1152661,9.652821,-0.07691491,9160.36;-0.69223416,10.345055,0.69223416,-0.34611708,10.345055,0.23074472,9160.36;-0.69223416,10.345055,0.69223416,-0.30765963,10.11431,0.34611708,9160.36;-0.69223416,10.345055,0.69223416,-0.11537236,9.768193,0.69223416,9193.914;-0.69223416,10.345055,0.69223416,-0.11537236,9.768193,0.7306916,9193.914;-0.69223416,10.345055,0.69223416,-0.61531925,9.383618,0.30765963,9193.914;-0.69223416,9.229789,0.69223416,-0.26920217,9.229789,-0.038457453,9193.914;-0.69223416,9.229789,0.69223416,-0.6537767,9.614364,-0.11537236,9227.469;-0.69223416,9.229789,0.69223416,-0.96143633,9.729735,0.0,9227.469;-0.69223416,10.3835125,0.69223416,-0.6537767,10.3835125,-0.038457453,9227.469;-0.69223416,10.3835125,0.69223416,-0.6537767,10.229683,0.61531925,9261.023;-0.69223416,10.3835125,0.69223416,-0.38457453,10.537342,0.76914907,9261.023;-0.69223416,10.3835125,0.69223416,-0.423032,9.422076,0.9229789,9261.023;-0.69223416,10.3835125,0.69223416,0.0,9.575906,0.46148944,9261.023;-0.69223416,10.3835125,0.69223416,-0.53840435,9.498991,-0.30765963,9294.578;-0.69223416,9.345161,0.69223416,-0.34611708,9.345161,0.11537236,9294.578;-0.69223416,9.345161,0.69223416,-1.0383513,10.0373955,0.0,9294.578;-0.69223416,9.345161,0.69223416,-1.1152661,9.883566,0.76914907,9328.132;-0.69223416,10.3835125,0.69223416,-0.423032,10.3835125,0.69223416,9328.132;0.38457453,10.3835125,0.69223416,0.38457453,10.229683,0.23074472,9328.132;0.38457453,10.3835125,0.69223416,-0.46148944,9.998938,0.5768618,9361.687;0.38457453,10.3835125,0.69223416,-0.30765963,9.498991,0.26920217,9361.687;-1.1537236,10.3835125,0.69223416,-1.1537236,9.460533,0.423032,9361.687;-1.1537236,9.268247,0.69223416,-1.0768087,9.268247,-0.038457453,9361.687;-1.1537236,9.268247,-0.38457453,-0.96143633,9.691278,-0.38457453,9395.241;-1.1537236,9.268247,0.69223416,-0.6537767,9.998938,0.69223416,9395.241;-1.1537236,9.268247,0.69223416,-0.61531925,10.152767,0.76914907,9395.241;-1.1537236,9.268247,0.69223416,-0.4999469,9.537449,0.8076065,9428.795;0.07691491,9.268247,0.69223416,0.07691491,10.229683,0.5768618,9428.795;0.07691491,9.268247,0.69223416,-0.30765963,9.229789,0.11537236,9428.795;-1.0383513,9.268247,0.69223416,-1.0383513,8.922129,-0.11537236,9462.35;-1.0383513,9.268247,0.69223416,-0.7306916,9.614364,0.038457453,9462.35;-1.0383513,9.268247,0.69223416,-0.61531925,10.229683,0.0,9462.35;-1.0383513,9.268247,0.69223416,-0.4999469,9.652821,0.26920217,9462.35;-1.0383513,10.498885,0.69223416,-0.23074472,10.498885,0.4999469,9495.904;-1.0383513,10.498885,0.69223416,-0.46148944,10.11431,1.0383513,9495.904;-1.0383513,10.498885,0.69223416,-0.5768618,10.152767,0.5768618,9495.904;-1.0383513,10.498885,0.69223416,-0.61531925,9.691278,0.19228727,9529.459;-1.0383513,9.268247,-0.38457453,-0.9998938,9.268247,-0.38457453,9529.459;-1.0383513,9.268247,-0.38457453,-0.61531925,9.922023,-0.07691491,9529.459;-1.0383513,9.268247,-0.38457453,-0.76914907,9.960481,-0.038457453,9563.013;-1.0383513,9.268247,0.9229789,-0.7306916,10.26814,0.9229789,9563.013;-1.0383513,9.268247,0.9229789,-0.38457453,10.11431,0.38457453,9563.013;-1.0383513,10.614257,0.9229789,-0.34611708,10.614257,0.61531925,9563.013;-1.0383513,10.614257,0.9229789,-0.23074472,9.652821,1.1537236,9596.567;-1.0383513,9.229789,-0.11537236,-0.9998938,9.229789,-0.11537236,9596.567;-1.0383513,9.229789,-0.11537236,-0.8845214,8.806757,-0.11537236,9596.567;-1.0383513,9.229789,-0.11537236,-0.423032,9.845108,-0.038457453,9630.122;-1.0383513,9.229789,-0.11537236,-0.34611708,9.960481,0.38457453,9630.122;-1.0383513,9.229789,-0.11537236,-1.3075534,10.152767,0.0,9630.122;-1.0383513,9.229789,-0.11537236,-0.38457453,9.652821,0.26920217,9663.677;-1.0383513,10.26814,-0.11537236,-0.423032,10.26814,0.423032,9663.677;-1.0383513,10.26814,-0.11537236,-0.19228727,10.3835125,0.69223416,9663.677;-1.0383513,9.152874,-0.11537236,-0.423032,9.152874,0.23074472,9663.677;-1.0383513,9.152874,-0.11537236,-0.4999469,9.114416,-0.038457453,9697.23;-1.0383513,9.152874,-0.11537236,-0.7306916,9.037501,0.26920217,9697.23;-1.0383513,10.460427,-0.11537236,-0.69223416,10.460427,0.34611708,9697.23;-1.0383513,10.460427,-0.11537236,-0.423032,10.191225,0.53840435,9730.785;-1.0383513,10.460427,-0.11537236,-0.76914907,10.845002,0.76914907,9730.785;-1.0383513,10.460427,1.1537236,-0.38457453,10.345055,1.1537236,9730.785;-1.0383513,10.460427,1.1537236,-0.53840435,9.883566,0.69223416,9764.34;-1.0383513,9.383618,1.1537236,-0.30765963,9.383618,0.19228727,9764.34;-1.0383513,9.383618,1.1537236,-0.8076065,9.114416,0.30765963,9764.34;-1.0383513,9.383618,0.038457453,-0.46148944,9.075959,0.038457453,9764.34;-1.0383513,9.383618,0.038457453,-0.69223416,9.691278,0.038457453,9797.895;-1.0383513,9.383618,0.038457453,-0.9229789,9.960481,0.19228727,9797.895;-1.0383513,10.691172,0.038457453,-0.23074472,10.691172,0.34611708,9797.895;-1.0383513,10.691172,0.038457453,-0.5768618,10.229683,0.7306916,9831.448;-1.0383513,9.652821,0.038457453,-0.30765963,9.652821,0.53840435,9831.448;-1.0383513,9.652821,0.038457453,-0.30765963,9.845108,0.11537236,9831.448;-1.0383513,9.652821,0.038457453,-0.15382981,9.652821,-0.15382981,9831.448;-1.0383513,9.652821,0.038457453,-0.9229789,9.229789,0.07691491,9865.003;-1.0383513,9.652821,0.038457453,-0.30765963,9.306704,-0.26920217,9865.003;-1.0383513,9.652821,0.038457453,-0.69223416,10.075852,0.46148944,9865.003;-1.0383513,9.652821,0.038457453,-0.26920217,10.152767,0.6537767,9898.558;-1.0383513,9.652821,0.038457453,-0.423032,10.11431,0.61531925,9898.558;-1.0383513,9.652821,0.038457453,-0.11537236,9.614364,0.26920217,9898.558;-1.0383513,9.652821,0.038457453,-0.38457453,9.383618,0.19228727,9932.112;-1.0383513,9.652821,0.038457453,-0.15382981,9.460533,-0.4999469,9932.112;-1.0383513,9.652821,0.038457453,-0.7306916,9.652821,-0.23074472,9932.112;-1.0383513,9.652821,0.038457453,-0.53840435,9.883566,0.26920217,9932.112;-1.0383513,9.652821,0.038457453,-0.69223416,10.229683,-0.38457453,9965.666;-1.0383513,9.652821,0.038457453,-0.8845214,10.3835125,0.34611708,9965.666;-1.0383513,9.652821,0.038457453,-0.30765963,10.345055,0.26920217,9965.666;-1.0383513,9.652821,0.038457453,-0.23074472,9.691278,0.34611708,9999.221;-1.0383513,9.652821,0.038457453,-0.30765963,9.575906,0.0,9999.221;-1.0383513,9.652821,0.038457453,-0.61531925,9.152874,0.038457453,9999.221;-1.0383513,9.652821,0.038457453,-0.5768618,9.191331,-0.038457453,10032.775;-1.0383513,9.652821,0.038457453,-0.23074472,10.306598,0.26920217,10032.775;-1.0383513,9.652821,0.038457453,-0.76914907,9.845108,-0.11537236,10032.775;-1.0383513,9.652821,0.038457453,-0.76914907,10.26814,0.4999469,10032.775;-1.0383513,9.652821,0.038457453,-0.46148944,10.537342,0.6537767,10066.33;-1.0383513,9.652821,0.038457453,-0.7306916,9.460533,0.53840435,10066.33;-1.0383513,9.652821,0.038457453,-0.38457453,9.614364,0.38457453,10066.33;-1.0383513,9.652821,0.038457453,-0.26920217,9.268247,-0.038457453,10099.884;-1.0383513,9.652821,0.038457453,-0.38457453,9.229789,-0.19228727,10099.884;-1.0383513,9.652821,0.038457453,-0.4999469,9.460533,0.30765963,10099.884;-1.0383513,9.652821,0.038457453,-0.6537767,9.537449,0.07691491,10133.438;-1.0383513,9.652821,0.038457453,-0.846064,10.152767,0.46148944,10133.438;-1.0383513,9.652821,0.038457453,-0.5768618,10.191225,0.23074472,10133.438;-1.0383513,9.652821,0.038457453,-1.1921811,9.575906,0.15382981,10133.438;-1.0383513,9.652821,0.038457453,-0.46148944,9.652821,0.34611708,10166.993;0.11537236,9.652821,0.038457453,0.11537236,9.652821,-0.11537236,10166.993;0.11537236,9.652821,0.038457453,-0.46148944,9.037501,-0.30765963,10166.993;-1.1921811,9.652821,0.038457453,-1.1921811,10.075852,-0.38457453,10200.547;-1.1921811,9.652821,0.038457453,-0.34611708,10.460427,0.11537236,10200.547;-1.1921811,9.652821,0.038457453,-1.0768087,10.345055,0.53840435,10200.547;-0.038457453,9.652821,0.038457453,-0.038457453,9.691278,0.69223416,10234.102;-0.038457453,9.652821,0.038457453,-0.23074472,10.5758,0.46148944,10234.102;-0.038457453,9.652821,0.038457453,-0.6537767,9.537449,0.9229789,10234.102;-0.038457453,9.652821,0.038457453,-0.6537767,9.383618,0.11537236,10234.102;-0.038457453,9.652821,0.038457453,-0.5768618,9.383618,0.26920217,10267.656;-0.038457453,9.652821,0.038457453,-0.15382981,10.075852,-0.30765963,10267.656;-0.038457453,9.652821,0.038457453,-0.34611708,10.229683,0.11537236,10267.656;-1.1152661,9.652821,0.038457453,-1.1152661,10.191225,0.5768618,10301.211;-1.1152661,9.652821,0.038457453,-0.30765963,9.729735,0.9229789,10301.211;-1.1152661,9.652821,0.038457453,-0.15382981,9.498991,0.8076065,10301.211;-1.1152661,9.652821,0.038457453,-0.34611708,9.229789,0.07691491,10301.211;-1.1152661,9.652821,0.038457453,-0.5768618,9.229789,-0.30765963,10334.765;-1.1152661,9.652821,0.038457453,-0.69223416,9.922023,0.26920217,10334.765;-1.1152661,9.652821,0.038457453,-0.7306916,9.729735,0.19228727,10334.765;-0.07691491,9.652821,0.038457453,-0.07691491,10.191225,-0.26920217,10368.319;-0.07691491,9.652821,0.038457453,-0.8076065,9.922023,0.9229789,10368.319;-0.07691491,9.652821,0.038457453,-0.19228727,10.26814,0.34611708,10368.319;-0.07691491,9.652821,0.038457453,-0.11537236,9.191331,0.7306916,10401.874;-0.07691491,9.652821,0.038457453,-0.23074472,9.537449,0.19228727,10401.874;-0.07691491,9.652821,0.038457453,-0.96143633,9.729735,0.19228727,10401.874;-0.07691491,9.652821,0.038457453,-0.26920217,9.345161,-0.30765963,10401.874;-0.07691491,9.652821,0.038457453,-0.46148944,9.998938,0.0,10435.429;-0.07691491,9.652821,0.038457453,-0.038457453,9.768193,0.0,10435.429;-0.07691491,9.652821,0.038457453,-0.30765963,10.5758,0.19228727,10435.429;-0.07691491,9.652821,0.038457453,0.038457453,10.614257,0.8076065,10468.982;-0.07691491,9.652821,0.038457453,-0.23074472,10.460427,0.34611708,10468.982;-0.07691491,9.652821,0.038457453,-0.46148944,9.345161,0.15382981,10468.982;-0.07691491,9.652821,0.038457453,-0.423032,9.537449,0.0,10502.537;-0.07691491,9.652821,0.038457453,-0.38457453,9.345161,-0.19228727,10502.537;-1.1921811,9.652821,0.038457453,-1.1921811,9.922023,-0.23074472,10502.537;-1.1921811,9.652821,0.038457453,-0.6537767,9.883566,0.76914907,10502.537;0.07691491,9.652821,0.038457453,0.07691491,10.460427,-0.11537236,10536.092;0.07691491,9.652821,0.038457453,-0.11537236,10.191225,0.26920217,10536.092;0.07691491,9.652821,0.038457453,-0.15382981,9.922023,0.23074472,10536.092;-1.1152661,9.652821,0.038457453,-1.1152661,9.652821,-0.11537236,10569.646;-1.1152661,9.652821,0.038457453,-0.38457453,9.960481,0.07691491,10569.646;-1.1152661,9.652821,0.038457453,-1.1152661,9.037501,0.038457453,10569.646;-1.1152661,9.652821,0.038457453,-0.8845214,9.268247,-0.19228727,10603.2;-1.1152661,9.652821,0.038457453,-0.23074472,9.998938,0.23074472,10603.2;0.0,11.075747,0.038457453,0.0,11.075747,0.23074472,10603.2;0.0,11.075747,0.038457453,-0.38457453,10.421969,0.38457453,10603.2;0.0,11.075747,0.038457453,-0.5768618,10.845002,0.4999469,10636.755;0.0,9.652821,0.038457453,0.038457453,9.652821,0.423032,10636.755;0.0,9.652821,0.038457453,-0.53840435,8.806757,0.423032,10636.755;0.0,9.652821,0.038457453,-0.53840435,8.960587,0.0,10670.31;0.0,9.652821,0.038457453,-0.53840435,9.075959,0.0,10670.31;0.0,9.652821,0.038457453,-0.423032,10.229683,-0.15382981,10670.31;0.0,9.652821,0.038457453,-0.5768618,10.537342,0.19228727,10703.864;0.0,9.652821,0.038457453,-0.30765963,10.229683,0.15382981,10703.864;0.0,10.845002,0.038457453,-0.6537767,10.845002,0.07691491,10703.864;-1.0383513,9.768193,0.038457453,-1.0383513,9.768193,0.423032,10703.864;-1.0383513,9.768193,0.038457453,-0.61531925,9.383618,0.423032,10737.418;-1.0383513,9.768193,0.038457453,-0.7306916,9.114416,-0.846064,10737.418;-1.0383513,9.768193,0.038457453,-0.6537767,9.229789,0.34611708,10737.418;-1.0383513,9.768193,0.038457453,-0.9229789,9.998938,0.30765963,10770.973;-1.0383513,9.768193,0.038457453,-0.76914907,10.11431,0.423032,10770.973;0.07691491,9.768193,0.038457453,0.07691491,10.691172,0.61531925,10770.973;0.07691491,9.768193,0.038457453,-0.5768618,9.575906,0.46148944,10770.973;0.07691491,9.768193,0.038457453,-0.5768618,9.883566,0.15382981,10804.527;0.07691491,9.768193,0.038457453,-0.5768618,9.229789,0.61531925,10804.527;0.07691491,9.768193,0.038457453,-0.69223416,9.460533,-0.26920217,10804.527;0.07691491,9.768193,0.038457453,-0.53840435,9.152874,-0.11537236,10838.081;0.07691491,9.768193,0.038457453,-0.7306916,10.191225,-0.5768618,10838.081;0.07691491,9.768193,0.038457453,-0.5768618,10.075852,0.15382981,10838.081;0.07691491,9.768193,0.038457453,-0.34611708,10.306598,0.4999469,10871.636;0.07691491,9.768193,0.038457453,0.038457453,9.960481,0.5768618,10871.636;0.07691491,9.768193,0.038457453,-0.34611708,9.191331,0.38457453,10871.636;0.07691491,9.768193,0.038457453,-0.76914907,9.114416,-0.15382981,10871.636;0.07691491,9.768193,0.038457453,-0.38457453,9.075959,-0.46148944,10905.19;0.07691491,9.768193,0.038457453,-0.61531925,9.575906,0.30765963,10905.19;0.07691491,9.768193,0.038457453,-0.34611708,10.191225,0.46148944,10938.745;0.07691491,9.768193,0.038457453,-0.61531925,10.26814,0.76914907,10938.745;0.07691491,9.768193,0.038457453,-0.19228727,9.998938,0.23074472,10938.745;0.07691491,9.768193,0.038457453,-0.4999469,9.460533,-0.15382981,10972.299;-1.1152661,9.768193,0.038457453,-1.1152661,9.306704,0.07691491,10972.299;-1.1152661,9.768193,0.038457453,-0.4999469,9.229789,0.26920217,10972.299;-1.1152661,9.768193,0.038457453,-0.69223416,9.460533,-0.15382981,10972.299;-1.1152661,9.768193,0.038457453,-0.7306916,10.11431,0.23074472,11005.854;-1.1152661,9.768193,0.038457453,-0.7306916,10.075852,0.46148944,11005.854;-1.1152661,9.768193,0.038457453,-0.19228727,10.152767,-0.038457453,11005.854;-1.1152661,9.768193,0.038457453,-0.23074472,9.691278,0.6537767,11039.408;-1.1152661,9.768193,0.038457453,-0.6537767,9.383618,0.0,11039.408;-1.1152661,9.768193,0.038457453,-0.5768618,9.345161,0.23074472,11039.408;-1.1152661,9.768193,0.038457453,-0.46148944,9.998938,0.07691491,11072.963;-1.1152661,9.768193,0.038457453,-0.76914907,9.614364,-0.23074472,11072.963;-1.1152661,9.768193,0.038457453,-0.61531925,9.80665,0.26920217,11072.963;-1.1152661,9.768193,0.038457453,-0.7306916,10.075852,0.38457453,11072.963;-1.1152661,9.768193,0.038457453,-0.19228727,9.998938,0.69223416,11106.517;0.0,9.768193,0.038457453,0.0,9.960481,0.9229789,11106.517;0.0,9.768193,0.038457453,0.11537236,9.845108,0.11537236,11106.517;0.0,9.768193,0.038457453,-0.11537236,9.383618,0.15382981,11140.071;0.0,9.768193,0.038457453,-0.19228727,9.652821,-0.38457453,11140.071;0.0,9.768193,0.038457453,-0.423032,9.652821,-0.19228727,11140.071;0.0,9.768193,0.038457453,-0.7306916,10.306598,0.15382981,11173.626;0.0,9.768193,0.038457453,-0.69223416,10.460427,0.7306916,11173.626;0.0,9.768193,0.038457453,-0.69223416,10.5758,0.07691491,11173.626;0.0,9.768193,0.038457453,-0.8076065,9.614364,0.61531925,11173.626;0.0,9.768193,0.038457453,-0.26920217,10.306598,0.30765963,11207.181;0.0,9.768193,0.038457453,-0.61531925,9.037501,-0.19228727,11207.181;0.0,9.768193,0.038457453,0.0,9.575906,-0.26920217,11207.181;0.0,9.768193,0.038457453,-0.4999469,9.652821,0.11537236,11240.734;0.0,9.768193,0.038457453,-0.6537767,9.652821,-0.46148944,11240.734;0.0,9.768193,0.038457453,-0.4999469,10.3835125,0.038457453,11240.734;0.0,9.768193,0.038457453,-0.46148944,10.229683,0.69223416,11274.289;0.0,9.768193,0.038457453,-0.9998938,10.5758,0.8845214,11274.289;0.0,9.768193,0.038457453,-0.11537236,9.729735,0.96143633,11274.289;-1.0768087,9.768193,0.038457453,-1.0768087,9.460533,0.61531925,11274.289;-1.0768087,9.768193,0.038457453,-0.69223416,9.691278,-0.19228727,11307.844;-1.0768087,9.768193,0.038457453,-0.38457453,10.152767,-0.30765963,11307.844;-1.0768087,9.768193,0.038457453,-0.76914907,10.075852,0.61531925,11307.844;-1.0768087,9.768193,0.038457453,-0.46148944,10.075852,0.53840435,11341.398;-1.0768087,9.768193,0.038457453,-0.53840435,10.460427,0.15382981,11341.398;-1.0768087,9.768193,0.038457453,-0.23074472,10.768087,0.4999469,11341.398;0.11537236,9.768193,0.038457453,0.11537236,10.152767,-0.07691491,11341.398;0.11537236,9.768193,0.038457453,-0.8076065,9.268247,0.26920217,11374.952;0.11537236,9.768193,0.038457453,-0.7306916,9.691278,-0.11537236,11374.952;0.11537236,9.768193,0.038457453,-0.4999469,9.268247,0.07691491,11374.952;0.11537236,9.768193,0.038457453,-0.5768618,10.11431,0.6537767,11408.507;0.11537236,9.768193,0.038457453,-0.76914907,10.3835125,0.61531925,11408.507;0.11537236,9.768193,0.038457453,-0.8076065,9.729735,0.46148944,11408.507;0.11537236,9.768193,0.038457453,-0.61531925,10.421969,0.53840435,11442.062;0.11537236,9.768193,0.038457453,0.15382981,9.845108,0.7306916,11442.062;0.11537236,9.768193,0.038457453,-0.8076065,9.498991,-0.038457453,11442.062;-0.9998938,9.768193,0.038457453,-0.9998938,9.191331,-0.423032,11442.062;-0.9998938,9.768193,0.038457453,-0.5768618,9.229789,-0.61531925,11475.616;-0.9998938,9.768193,0.038457453,-0.76914907,9.729735,-0.30765963,11475.616;-0.9998938,9.768193,0.038457453,-0.38457453,10.345055,0.34611708,11475.616;-0.9998938,10.806544,0.038457453,-0.423032,10.806544,0.38457453,11509.17;-0.9998938,9.652821,0.038457453,-0.26920217,9.652821,0.34611708,11509.17;-0.9998938,9.652821,0.038457453,-0.15382981,10.229683,0.34611708,11509.17;-0.9998938,9.652821,0.038457453,-0.7306916,9.152874,0.0,11542.725;-0.9998938,9.652821,0.038457453,-0.96143633,9.383618,-0.30765963,11542.725;-0.9998938,9.652821,0.038457453,-0.8845214,9.537449,0.07691491,11542.725;-0.9998938,9.652821,0.038457453,-0.53840435,9.960481,-0.15382981,11542.725;-0.9998938,9.652821,0.038457453,-0.76914907,10.345055,0.46148944,11576.279;-0.9998938,10.7296295,0.038457453,-0.26920217,10.7296295,0.038457453,11576.279;0.15382981,10.7296295,0.038457453,0.15382981,10.152767,0.30765963,11576.279;0.15382981,9.422076,0.038457453,-0.423032,9.422076,0.34611708,11609.833;0.15382981,9.422076,0.038457453,-0.846064,9.575906,0.19228727,11609.833;0.15382981,9.422076,0.038457453,-0.423032,9.229789,-0.15382981,11609.833;-1.0383513,9.422076,0.038457453,-1.0383513,9.498991,-0.038457453,11643.388;-1.0383513,9.422076,0.038457453,-0.7306916,9.537449,0.038457453,11643.388;-1.0383513,9.422076,0.038457453,-0.38457453,10.191225,0.26920217,11643.388;-1.0383513,10.460427,0.038457453,-0.11537236,10.460427,0.46148944,11643.388;-1.0383513,10.460427,0.038457453,-0.30765963,10.306598,0.26920217,11676.942;-1.0383513,9.268247,0.038457453,-0.46148944,9.268247,0.34611708,11676.942;-1.0383513,9.268247,0.038457453,-0.46148944,9.268247,0.0,11676.942;-1.0383513,9.268247,0.038457453,-0.8076065,9.652821,-0.11537236,11710.497;-1.0383513,9.268247,0.038457453,-0.423032,10.191225,-0.07691491,11710.497;-1.0383513,9.268247,0.038457453,-1.0768087,9.998938,-0.23074472,11710.497;-1.0383513,10.345055,0.038457453,-0.76914907,10.345055,-0.038457453,11744.051;-1.0383513,10.345055,0.038457453,-0.26920217,10.306598,-0.07691491,11744.051;-1.0383513,10.345055,0.038457453,-0.23074472,10.652715,0.38457453,11744.051;-1.0383513,10.345055,0.038457453,-0.76914907,9.422076,0.423032,11744.051;-1.0383513,10.345055,0.038457453,-0.7306916,9.575906,0.11537236,11777.605;-1.0383513,8.922129,0.038457453,-0.26920217,8.922129,-0.34611708,11777.605;-1.0383513,8.922129,0.038457453,-0.61531925,9.729735,0.53840435,11777.605;-1.0383513,10.11431,0.038457453,-0.8076065,10.11431,0.11537236,11811.16;-1.0383513,10.11431,0.038457453,-0.7306916,9.768193,0.30765963,11811.16;-1.0383513,10.11431,0.038457453,-0.19228727,9.998938,0.4999469,11811.16;-1.0383513,10.11431,0.038457453,-0.5768618,10.537342,0.4999469,11811.16;-1.0383513,10.11431,0.038457453,-0.34611708,9.460533,0.38457453,11844.715;-1.0383513,10.11431,0.038457453,-0.76914907,9.498991,0.34611708,11844.715;-1.0383513,10.11431,0.038457453,-0.8076065,9.498991,-0.423032,11844.715;-1.0383513,10.11431,0.038457453,-0.5768618,9.498991,-0.53840435,11878.269;-1.0383513,10.11431,0.038457453,-0.61531925,9.729735,0.15382981,11878.269;-1.0383513,10.11431,0.038457453,-0.34611708,10.345055,-0.038457453,11878.269;-1.0383513,10.11431,0.038457453,-0.8076065,9.998938,0.96143633,11911.823;-1.0383513,10.11431,0.038457453,-0.7306916,9.960481,0.69223416,11911.823;-1.0383513,10.11431,0.038457453,-0.19228727,9.80665,0.19228727,11911.823;-1.0383513,10.11431,0.038457453,-0.19228727,9.306704,0.38457453,11911.823;-1.0383513,10.11431,0.038457453,-0.15382981,9.383618,-0.4999469,11945.378;-1.0383513,10.11431,0.038457453,-0.7306916,9.575906,-0.53840435,11945.378;-1.0383513,10.11431,0.038457453,-0.23074472,9.614364,-0.423032,11945.378;-1.0383513,10.11431,0.038457453,-0.7306916,9.922023,0.61531925,11978.933;-1.0383513,10.11431,0.038457453,-0.6537767,10.421969,0.9229789,11978.933;-1.0383513,10.11431,0.038457453,-0.5768618,9.460533,0.38457453,11978.933;-1.0383513,10.11431,0.038457453,-0.5768618,9.998938,0.846064,12012.486;-1.0383513,10.11431,0.038457453,-0.4999469,9.345161,0.423032,12012.486;-1.0383513,10.11431,0.038457453,-0.8076065,9.460533,-0.34611708,12012.486;-1.0383513,10.11431,0.038457453,-0.038457453,9.729735,-0.11537236,12012.486;-1.0383513,10.11431,0.038457453,-0.38457453,10.345055,-0.423032,12046.041;-1.0383513,10.11431,0.038457453,-0.9229789,9.960481,0.7306916,12046.041;-1.0383513,10.11431,1.1537236,-0.9229789,10.0373955,1.1537236,12046.041;-1.0383513,10.11431,1.1537236,-0.5768618,10.345055,0.96143633,12079.596;-1.0383513,10.11431,1.1537236,-0.07691491,9.498991,0.26920217,12079.596;-1.0383513,10.11431,0.07691491,-0.5768618,9.691278,0.07691491,12079.596;-1.0383513,10.11431,0.07691491,-0.7306916,9.691278,-0.4999469,12113.15;-1.0383513,10.11431,0.07691491,-0.7306916,9.422076,-0.4999469,12113.15;-1.0383513,10.11431,0.07691491,-0.46148944,9.768193,0.15382981,12113.15;-1.0383513,10.11431,0.07691491,-0.4999469,10.3835125,0.038457453,12113.15;-1.0383513,10.11431,0.07691491,-0.30765963,9.883566,0.4999469,12146.704;-1.0383513,10.11431,0.07691491,-0.5768618,10.691172,0.6537767,12146.704;-1.0383513,10.11431,0.07691491,-0.7306916,10.0373955,0.6537767,12146.704;-1.0383513,10.11431,0.07691491,-0.26920217,9.537449,-0.15382981,12180.259;-1.0383513,8.806757,0.07691491,-0.38457453,8.806757,-0.07691491,12180.259;-1.0383513,8.806757,0.07691491,-0.46148944,9.460533,0.038457453,12180.259;-1.0383513,10.345055,0.07691491,-0.7306916,10.345055,0.15382981,12213.813;-1.0383513,10.345055,0.07691491,-1.0383513,9.845108,-0.038457453,12213.813;-1.0383513,10.345055,0.07691491,-0.6537767,9.883566,0.34611708,12213.813;-1.0383513,10.345055,0.07691491,-0.423032,9.998938,0.6537767,12213.813;-1.0383513,10.345055,0.07691491,-0.423032,9.80665,0.07691491,12247.368;-1.0383513,10.345055,0.07691491,-0.7306916,9.80665,-0.30765963,12247.368;-1.0383513,10.345055,0.07691491,-0.846064,9.537449,-0.23074472,12247.368;-1.0383513,9.306704,0.07691491,-0.423032,9.306704,0.26920217,12280.922;-1.0383513,9.306704,0.07691491,-0.423032,9.998938,0.423032,12280.922;-1.0383513,9.306704,0.07691491,-0.6537767,9.845108,0.19228727,12280.922;-1.0383513,9.306704,0.07691491,-0.11537236,10.306598,0.038457453,12280.922;0.11537236,10.421969,0.07691491,0.11537236,10.421969,0.46148944,12314.477;0.11537236,10.421969,0.07691491,-0.26920217,10.0373955,0.46148944,12314.477;0.11537236,10.421969,0.07691491,-0.5768618,9.614364,0.5768618,12314.477;-0.9998938,9.383618,0.07691491,-0.9998938,9.383618,0.15382981,12348.031;-0.9998938,9.383618,0.07691491,-0.53840435,9.345161,-0.11537236,12348.031;-0.9998938,9.383618,0.07691491,-0.53840435,9.306704,-0.26920217,12348.031;-0.9998938,9.383618,0.07691491,-0.9998938,9.883566,0.19228727,12381.585;0.19228727,10.806544,0.07691491,0.19228727,10.806544,-0.15382981,12381.585;0.19228727,10.806544,0.07691491,-0.34611708,10.229683,0.5768618,12381.585;0.19228727,10.806544,0.07691491,-0.34611708,10.614257,0.34611708,12381.585;0.19228727,9.537449,0.07691491,-0.6537767,9.537449,0.53840435,12415.14;0.19228727,9.537449,0.07691491,-0.038457453,9.229789,-0.038457453,12415.14;-1.0383513,9.537449,0.07691491,-1.0383513,8.768299,-0.15382981,12415.14;-1.0383513,9.537449,0.07691491,-0.76914907,9.460533,-0.34611708,12448.694;-1.0383513,9.537449,0.07691491,-0.4999469,9.998938,0.23074472,12448.694;-1.0383513,11.114204,0.07691491,-0.23074472,11.114204,0.846064,12448.694;-1.0383513,11.114204,0.07691491,-0.8076065,10.345055,0.423032,12482.249;-1.0383513,9.691278,0.07691491,-0.4999469,9.691278,0.15382981,12482.249;-1.0383513,9.691278,0.07691491,-0.7306916,9.883566,0.038457453,12482.249;-1.0383513,9.691278,0.07691491,-1.0383513,9.768193,0.038457453,12482.249;-1.0383513,9.691278,0.07691491,-0.76914907,9.729735,-0.7306916,12515.803;-1.0383513,9.691278,0.07691491,-0.8076065,9.075959,-0.4999469,12515.803;-1.0383513,9.691278,0.07691491,-0.5768618,9.768193,-0.15382981,12515.803;-1.0383513,9.691278,0.07691491,-0.6537767,10.0373955,0.6537767,12549.357;-1.0383513,9.691278,0.07691491,-0.34611708,10.421969,0.26920217,12549.357;-1.0383513,9.691278,0.07691491,-0.038457453,9.80665,0.26920217,12549.357;-1.0383513,9.691278,0.07691491,-0.5768618,9.691278,0.9229789,12582.912;-1.0383513,9.691278,0.07691491,-0.038457453,9.614364,0.34611708,12582.912;-1.0383513,9.691278,0.07691491,-0.38457453,9.729735,-0.15382981,12582.912;-1.0383513,9.691278,0.07691491,-0.61531925,9.422076,-0.38457453,12582.912;-1.0383513,9.691278,0.07691491,-1.1152661,9.960481,0.19228727,12616.467;-1.0383513,9.691278,0.07691491,-0.7306916,10.498885,0.19228727,12616.467;-1.0383513,9.691278,0.07691491,-0.76914907,10.26814,0.34611708,12650.0205;-1.0383513,9.691278,0.07691491,-0.46148944,9.768193,0.7306916,12650.0205;-1.0383513,9.691278,0.07691491,-0.9998938,9.191331,0.07691491,12650.0205;-1.0383513,9.691278,0.07691491,-0.23074472,9.229789,-0.38457453,12683.575;-1.0383513,9.691278,0.07691491,-0.7306916,10.191225,-0.038457453,12683.575;-1.0383513,9.691278,0.07691491,-0.846064,9.998938,0.46148944,12683.575;-1.0383513,9.691278,0.07691491,-1.3075534,9.998938,0.34611708,12683.575;-1.0383513,9.691278,0.07691491,-0.9229789,9.729735,0.61531925,12717.13;-1.0383513,9.691278,0.07691491,-0.11537236,9.922023,0.38457453,12717.13;-1.0383513,9.691278,0.07691491,-0.4999469,8.883672,0.30765963,12717.13;-1.0383513,9.691278,0.07691491,-0.53840435,9.960481,0.038457453,12750.685;-1.0383513,9.691278,0.07691491,-0.4999469,9.075959,-0.038457453,12750.685;0.15382981,9.691278,0.07691491,0.15382981,10.0373955,-0.46148944,12750.685;0.15382981,9.691278,0.07691491,-0.4999469,9.960481,0.0,12784.238;-1.0383513,9.691278,0.07691491,-1.0383513,10.191225,-0.19228727,12784.238;-1.0383513,9.691278,0.07691491,-0.46148944,10.0373955,0.46148944,12784.238;-1.0383513,9.691278,0.07691491,-0.5768618,9.768193,0.76914907,12784.238;-1.0383513,9.691278,0.07691491,-0.46148944,8.999044,0.23074472,12817.793;-1.0383513,9.691278,0.07691491,-0.7306916,9.883566,-0.38457453,12817.793;-1.0383513,9.691278,0.07691491,-0.61531925,9.191331,-0.23074472,12817.793;-1.0383513,9.691278,0.07691491,-0.34611708,9.768193,-0.38457453,12851.348;-1.0383513,9.691278,0.07691491,-0.46148944,10.498885,0.26920217,12851.348;-1.0383513,9.691278,0.07691491,-0.4999469,10.0373955,0.38457453,12851.348;-1.0383513,9.691278,0.07691491,-0.53840435,9.960481,0.19228727,12851.348;-1.0383513,9.691278,0.07691491,-0.26920217,10.11431,0.61531925,12884.902;-1.0383513,9.691278,0.07691491,-0.6537767,9.883566,0.15382981,12884.902;-1.0383513,9.691278,0.07691491,-0.423032,9.614364,-0.38457453,12884.902;-1.0383513,9.691278,0.07691491,-0.46148944,9.575906,0.26920217,12918.456;-1.0383513,9.691278,0.07691491,-0.53840435,9.306704,-0.23074472,12918.456;-1.0383513,9.691278,0.07691491,-0.38457453,10.26814,0.038457453,12918.456;-1.0383513,9.691278,0.07691491,-0.5768618,9.883566,0.846064,12952.011;-1.0383513,9.691278,0.07691491,-0.76914907,9.768193,0.423032,12952.011;-1.0383513,9.691278,0.07691491,-0.038457453,9.768193,0.7306916,12952.011;-1.0383513,9.691278,0.07691491,-0.11537236,9.883566,0.30765963,12952.011;-1.0383513,9.691278,0.07691491,-0.69223416,9.345161,-0.07691491,12985.565;-1.0383513,9.691278,0.07691491,-0.34611708,9.652821,0.11537236,12985.565;-1.0383513,9.691278,0.07691491,-0.5768618,9.80665,-0.15382981,12985.565;-1.0383513,9.691278,0.07691491,-1.1152661,10.460427,0.19228727,13019.119;-1.0383513,9.691278,0.07691491,-1.1921811,10.26814,0.46148944,13019.119;-1.0383513,9.691278,0.07691491,-0.61531925,9.922023,0.46148944,13019.119;-1.0383513,9.691278,0.07691491,-0.6537767,10.229683,0.61531925,13052.674;-1.0383513,9.691278,0.07691491,-0.15382981,9.652821,0.423032,13052.674;-1.0383513,9.691278,0.07691491,-0.53840435,9.460533,-0.11537236,13052.674;-1.0383513,9.691278,0.07691491,-0.038457453,9.229789,-0.423032,13052.674;-1.0383513,9.691278,0.07691491,-0.9998938,9.575906,0.0,13086.229;-1.0383513,9.691278,0.07691491,-1.0383513,9.691278,0.423032,13086.229;-1.0383513,9.691278,0.07691491,-0.26920217,10.26814,0.19228727,13086.229;-1.0383513,9.691278,0.07691491,-0.23074472,10.191225,0.76914907,13119.783;0.038457453,9.691278,0.07691491,0.038457453,10.5758,0.53840435,13119.783;0.038457453,9.691278,0.07691491,-0.15382981,9.114416,0.53840435,13119.783;0.038457453,9.691278,0.07691491,-0.46148944,9.345161,-0.11537236,13153.337;-1.0768087,9.691278,0.07691491,-1.0768087,9.114416,-0.26920217,13153.337;-1.0768087,9.691278,0.07691491,-1.1537236,9.191331,-0.46148944,13153.337;-1.0768087,9.691278,0.07691491,-0.26920217,9.729735,0.07691491,13153.337;-1.0768087,9.691278,0.07691491,-0.15382981,9.960481,0.0,13186.892;0.07691491,9.691278,0.07691491,0.07691491,9.960481,0.69223416,13186.892;0.07691491,9.691278,0.07691491,-0.07691491,10.191225,0.19228727,13186.892;0.07691491,9.691278,0.07691491,-0.6537767,9.883566,0.19228727,13220.446;0.07691491,9.691278,0.07691491,-0.6537767,9.114416,0.07691491,13220.446;-1.1537236,9.691278,0.07691491,-1.1537236,9.575906,0.07691491,13220.446;-1.1537236,9.691278,0.07691491,-0.8076065,8.999044,-0.26920217,13254.001;-1.1537236,9.691278,0.07691491,-0.6537767,9.80665,0.19228727,13254.001;-1.1537236,9.691278,0.07691491,-0.46148944,10.460427,0.07691491,13254.001;-0.07691491,10.7296295,0.07691491,-0.07691491,10.7296295,0.423032,13254.001;-0.07691491,10.7296295,0.07691491,-0.15382981,10.26814,0.423032,13287.555;-0.07691491,9.691278,0.07691491,-0.19228727,9.691278,0.69223416,13287.555;-0.07691491,9.691278,0.07691491,-0.76914907,9.345161,0.15382981,13287.555;-0.07691491,9.691278,0.07691491,-0.8076065,9.114416,0.19228727,13321.109;-0.07691491,9.691278,0.07691491,-0.61531925,9.537449,-0.26920217,13321.109;-1.1152661,9.691278,0.07691491,-1.1152661,9.729735,0.15382981,13321.109;-1.1152661,9.691278,0.07691491,-0.19228727,10.191225,0.26920217,13321.109;-1.1152661,9.691278,0.07691491,-0.11537236,10.614257,0.34611708,13354.664;-1.1152661,9.691278,0.07691491,-0.23074472,9.998938,0.846064,13354.664;-1.1152661,9.691278,0.07691491,-0.423032,9.652821,0.4999469,13354.664;-1.1152661,9.691278,0.07691491,-0.846064,9.345161,0.15382981,13388.219;-1.1152661,9.691278,0.07691491,-0.76914907,9.575906,-0.34611708,13388.219;-1.1152661,9.691278,0.07691491,-0.8076065,9.422076,0.30765963,13388.219;-1.1152661,9.691278,0.07691491,-0.34611708,9.729735,0.26920217,13421.772;-1.1152661,9.691278,0.07691491,-0.8845214,10.421969,0.0,13421.772;-1.1152661,9.691278,0.07691491,-0.23074472,10.5758,0.4999469,13421.772;0.0,9.691278,0.07691491,0.0,10.537342,0.38457453,13421.772;0.0,9.691278,0.07691491,-0.61531925,9.306704,0.19228727,13455.327;0.0,9.691278,0.07691491,-0.53840435,9.268247,0.38457453,13455.327;0.0,9.691278,0.07691491,-0.69223416,9.306704,0.15382981,13455.327;0.0,9.691278,0.07691491,-0.5768618,9.691278,-0.07691491,13488.882;0.0,9.691278,0.07691491,-0.61531925,9.614364,0.30765963,13488.882;0.0,9.691278,0.07691491,-0.4999469,9.998938,0.23074472,13488.882;0.0,9.691278,0.07691491,-0.4999469,9.80665,0.30765963,13522.437;0.0,9.691278,0.07691491,-0.34611708,10.075852,0.69223416,13522.437;0.0,9.691278,0.07691491,-0.07691491,9.768193,0.5768618,13522.437;0.0,9.691278,0.07691491,-0.4999469,9.422076,0.0,13522.437;0.0,9.691278,0.07691491,-0.846064,9.498991,-0.46148944,13555.99;0.0,9.691278,0.07691491,-0.8845214,9.422076,-0.26920217,13555.99;0.0,9.691278,0.07691491,-0.76914907,9.768193,-0.23074472,13555.99;0.0,9.691278,0.07691491,-0.7306916,10.3835125,0.038457453,13589.545;0.0,9.691278,0.07691491,-0.15382981,10.229683,0.76914907,13589.545;0.0,9.691278,0.07691491,-0.15382981,9.80665,0.846064,13589.545;0.0,9.691278,0.07691491,-0.07691491,9.80665,0.46148944,13623.1;0.0,9.691278,0.07691491,-0.69223416,9.498991,0.34611708,13623.1;0.0,9.691278,0.07691491,-0.11537236,9.383618,0.19228727,13623.1;-1.1152661,9.691278,0.07691491,-1.1152661,8.883672,-0.11537236,13623.1;-1.1152661,9.691278,0.07691491,-0.846064,10.11431,-0.19228727,13656.654;-1.1152661,9.691278,0.07691491,-0.846064,9.922023,0.038457453,13656.654;-1.1152661,9.691278,0.07691491,-0.4999469,10.075852,1.0383513,13656.654;-1.1152661,9.691278,1.1152661,-0.69223416,10.11431,1.1152661,13690.208;-1.1152661,9.691278,1.1152661,-0.46148944,10.652715,0.423032,13690.208;0.15382981,9.691278,1.1152661,0.15382981,9.152874,0.61531925,13690.208;-1.0768087,9.691278,-0.11537236,-1.0768087,9.191331,-0.11537236,13723.763;-1.0768087,9.691278,-0.11537236,-0.423032,9.960481,0.11537236,13723.763;-1.0768087,9.691278,-0.11537236,-0.53840435,10.075852,0.11537236,13723.763;-1.0768087,9.691278,-0.11537236,-1.3844683,10.345055,0.8845214,13723.763;-1.0768087,9.691278,-0.11537236,-0.846064,10.075852,0.69223416,13757.317;-1.0768087,9.691278,1.2306385,-0.30765963,9.883566,1.2306385,13757.317;0.0,9.691278,1.2306385,0.0,10.075852,0.76914907,13757.317;-1.0768087,9.691278,1.2306385,-1.0768087,9.537449,0.23074472,13790.871;-1.0768087,9.691278,-0.53840435,-0.6537767,8.806757,-0.53840435,13790.871;-1.0768087,9.691278,-0.53840435,-0.76914907,9.460533,-0.11537236,13790.871;-1.0768087,9.691278,0.4999469,-0.8845214,9.998938,0.4999469,13824.426;-1.0768087,9.691278,0.4999469,-0.30765963,10.614257,0.26920217,13824.426;-1.0768087,9.691278,0.4999469,-0.15382981,10.306598,0.7306916,13824.426;-0.038457453,9.691278,0.4999469,-0.038457453,10.537342,0.23074472,13824.426;-0.038457453,9.691278,0.4999469,-0.38457453,9.768193,1.1152661,13857.98;-0.038457453,9.691278,0.4999469,-0.6537767,9.422076,-0.19228727,13857.98;-0.038457453,9.691278,0.4999469,-0.7306916,9.037501,-0.07691491,13857.98;-0.038457453,9.691278,0.4999469,-0.46148944,9.998938,0.11537236,13891.535;-0.038457453,9.691278,0.4999469,-1.0383513,10.421969,0.423032,13891.535;-0.038457453,9.691278,