999,999,999,999,999,999,999;-0.69223416,0.19228727,9.460533,0.038457453,-0.07691491,9.422076,0.0;-0.69223416,0.19228727,9.460533,-0.423032,0.4999469,8.845214,0.0;-0.69223416,-0.8845214,9.460533,-0.038457453,-0.8845214,9.422076,33.554432;-0.69223416,-0.8845214,9.460533,-0.19228727,-0.96143633,9.037501,33.554432;-0.69223416,0.846064,9.460533,-0.96143633,0.846064,10.26814,33.554432;-0.69223416,0.846064,9.460533,-1.0768087,0.846064,9.114416,33.554432;-0.69223416,0.846064,9.460533,-0.34611708,0.46148944,8.61447,67.108864;-0.69223416,-0.30765963,9.460533,0.15382981,-0.30765963,9.575906,67.108864;-0.69223416,-0.30765963,9.460533,-1.1152661,0.15382981,9.345161,67.108864;-0.69223416,-0.30765963,9.460533,-0.61531925,0.07691491,9.460533,100.6633;-0.69223416,-0.30765963,9.460533,-0.76914907,0.30765963,9.037501,100.6633;-0.69223416,-0.30765963,9.460533,0.15382981,0.0,8.883672,100.6633;0.53840435,-0.30765963,9.460533,0.53840435,-0.846064,9.268247,134.21773;0.53840435,-0.30765963,8.422182,-0.19228727,-0.038457453,8.422182,134.21773;-1.2690959,-0.30765963,8.422182,-1.2690959,-0.423032,8.883672,134.21773;-1.2690959,-0.30765963,9.729735,-0.7306916,0.4999469,9.729735,134.21773;0.11537236,-0.30765963,9.729735,0.11537236,-0.4999469,9.575906,167.77216;0.11537236,-0.30765963,9.729735,-0.07691491,-0.4999469,8.883672,167.77216;-1.1537236,-0.30765963,9.729735,-1.1537236,0.38457453,9.729735,167.77216;-1.1537236,-0.30765963,9.729735,-1.4613832,0.423032,9.729735,201.3266;-1.1537236,-0.30765963,9.729735,-0.5768618,-0.5768618,9.691278,201.3266;0.19228727,-0.30765963,9.729735,0.19228727,-0.15382981,9.652821,201.3266;0.19228727,-0.30765963,9.729735,-0.38457453,-0.11537236,8.845214,234.88103;0.19228727,0.76914907,9.729735,-0.6537767,0.76914907,9.306704,234.88103;0.19228727,0.76914907,9.729735,-0.76914907,-0.11537236,9.114416,234.88103;0.19228727,0.76914907,9.729735,0.46148944,-0.038457453,8.768299,234.88103;0.19228727,-0.5768618,9.729735,0.76914907,-0.5768618,9.114416,234.88103;0.19228727,-0.5768618,9.729735,-0.423032,-0.23074472,9.575906,268.43546;-0.9229789,0.69223416,9.729735,-0.9229789,0.69223416,9.268247,268.43546;-0.9229789,0.69223416,8.422182,-0.46148944,0.61531925,8.422182,268.43546;0.15382981,0.69223416,8.422182,0.15382981,0.0,9.229789,301.9899;0.15382981,-0.8845214,8.422182,-0.11537236,-0.8845214,9.345161,301.9899;-0.96143633,0.38457453,9.729735,-0.96143633,0.38457453,9.729735,301.9899;-0.96143633,0.38457453,9.729735,-1.0383513,0.23074472,9.652821,335.5443;-0.96143633,0.38457453,9.729735,-1.0768087,0.46148944,10.191225,335.5443;-0.96143633,0.38457453,9.729735,-0.07691491,0.5768618,9.383618,335.5443;0.46148944,0.38457453,9.729735,0.46148944,-0.07691491,9.691278,335.5443;0.46148944,0.38457453,9.729735,-0.34611708,-0.038457453,9.729735,335.5443;-1.6536705,0.38457453,9.729735,-1.6536705,0.34611708,9.729735,369.09875;-1.6536705,0.38457453,9.729735,-1.0768087,0.15382981,9.960481,369.09875;-0.038457453,0.38457453,9.729735,-0.038457453,-0.38457453,10.075852,369.09875;-0.038457453,0.38457453,9.729735,0.26920217,0.46148944,9.306704,402.6532;-0.038457453,0.38457453,9.729735,-0.6537767,0.38457453,9.883566,402.6532;-0.038457453,0.38457453,9.729735,-0.26920217,0.11537236,9.152874,402.6532;-0.038457453,0.38457453,9.729735,-0.23074472,0.19228727,9.498991,402.6532;-0.038457453,-1.1537236,9.729735,0.23074472,-1.1537236,9.152874,436.2076;-0.038457453,-1.1537236,9.729735,0.15382981,-0.6537767,9.614364,436.2076;-0.038457453,0.19228727,9.729735,-0.53840435,0.19228727,9.652821,436.2076;-0.038457453,0.19228727,9.729735,-0.9229789,0.19228727,9.383618,469.76205;-0.038457453,0.19228727,9.729735,0.0,0.11537236,9.152874,469.76205;-0.038457453,0.19228727,10.921917,-0.34611708,-0.38457453,10.921917,469.76205;-0.038457453,0.19228727,8.46064,-0.5768618,-0.038457453,8.46064,503.31647;-0.038457453,0.19228727,8.46064,-0.61531925,0.69223416,9.075959,503.31647;-0.038457453,0.19228727,8.46064,0.76914907,-0.7306916,8.499097,503.31647;-0.038457453,0.19228727,9.845108,-0.8076065,-0.07691491,9.845108,503.31647;-0.038457453,0.19228727,9.845108,-0.9229789,0.69223416,10.5758,536.8709;-1.5382981,0.19228727,9.845108,-1.5382981,-0.15382981,9.422076,536.8709;-1.5382981,0.19228727,9.845108,-0.8845214,-0.038457453,9.306704,536.8709;0.15382981,0.19228727,9.845108,0.15382981,0.34611708,9.152874,570.42535;0.15382981,0.19228727,8.806757,-0.11537236,-0.5768618,8.806757,570.42535;0.15382981,0.19228727,8.806757,-0.69223416,0.38457453,8.922129,570.42535;-0.8845214,0.19228727,8.806757,-0.8845214,0.38457453,9.152874,603.9798;-0.8845214,1.3460109,11.114204,-0.96143633,1.3460109,11.114204,603.9798;0.69223416,-0.6537767,9.422076,0.69223416,-0.6537767,9.422076,603.9798;0.69223416,-0.6537767,9.422076,-0.038457453,0.11537236,9.460533,603.9798;-0.6537767,-0.6537767,9.422076,-0.6537767,0.11537236,9.460533,603.9798;-0.6537767,1.2306385,9.422076,-0.53840435,1.2306385,9.229789,637.5342;0.69223416,-0.23074472,7.6914907,0.69223416,-0.23074472,7.6914907,637.5342;-0.4999469,-0.23074472,10.537342,-0.4999469,0.38457453,10.537342,637.5342;-0.4999469,-0.23074472,10.537342,-0.5768618,-0.07691491,10.5758,671.0886;-0.4999469,-0.23074472,10.537342,-1.3844683,-0.11537236,9.998938,671.0886;-0.4999469,-0.23074472,9.345161,-0.30765963,0.23074472,9.345161,671.0886;-0.4999469,-0.23074472,6.883884,0.46148944,-1.1152661,6.883884,704.64307;-0.4999469,-0.23074472,9.883566,-1.3460109,-0.038457453,9.883566,704.64307;-0.4999469,-0.23074472,9.883566,-0.38457453,0.69223416,10.152767,704.64307;-0.4999469,-0.23074472,9.883566,-1.4998407,0.038457453,9.575906,704.64307;-1.9613302,-0.23074472,11.383406,-1.9613302,0.61531925,11.383406,738.1975;-0.23074472,-0.23074472,8.15298,-0.23074472,-1.1152661,8.15298,738.1975;-0.23074472,-0.23074472,8.15298,-0.19228727,0.19228727,8.768299,738.1975;-0.23074472,-0.23074472,8.15298,-0.76914907,-0.15382981,8.729842,771.75195;-1.692128,1.4998407,10.960374,-1.692128,1.4998407,10.960374,771.75195;0.15382981,1.4998407,10.960374,0.15382981,1.9228727,11.844895,771.75195;0.15382981,-0.61531925,9.306704,0.30765963,-0.61531925,9.306704,805.3064;0.15382981,0.846064,9.306704,-0.30765963,0.846064,9.383618,805.3064;0.15382981,0.846064,9.306704,0.038457453,1.0768087,9.114416,805.3064;0.15382981,-0.6537767,7.6914907,-0.38457453,-0.6537767,7.6914907,805.3064;1.6536705,1.4613832,10.960374,1.6536705,1.4613832,10.960374,838.8608;-0.846064,-1.2690959,9.691278,-0.846064,-1.2690959,9.691278,838.8608;-0.846064,1.1921811,9.691278,-0.53840435,1.1921811,10.152767,838.8608;0.8076065,-0.38457453,6.5762243,0.8076065,-0.38457453,6.5762243,872.4152;0.8076065,-1.4998407,6.5762243,0.69223416,-1.4998407,6.768512,872.4152;-1.692128,-0.19228727,10.883459,-1.692128,-0.19228727,10.883459,872.4152;-0.46148944,-0.19228727,9.691278,-0.46148944,-0.8076065,9.691278,905.96967;-0.46148944,-0.19228727,10.883459,-0.9998938,-0.6537767,10.883459,905.96967;-0.46148944,-0.19228727,10.883459,-0.7306916,-0.7306916,9.922023,905.96967;-0.46148944,-0.19228727,7.729948,-0.8845214,-0.23074472,7.729948,905.96967;-0.46148944,-0.19228727,9.80665,-0.11537236,0.76914907,9.80665,939.5241;-0.46148944,-0.19228727,9.80665,-1.3460109,-0.038457453,8.883672,939.5241;-0.46148944,1.0768087,13.537024,-1.3460109,1.0768087,13.537024,939.5241;-0.46148944,1.0768087,10.421969,-0.6537767,0.96143633,10.421969,973.07855;0.9229789,-0.07691491,7.960693,0.9229789,-0.07691491,7.960693,973.07855;-1.3075534,-0.07691491,9.075959,-1.3075534,0.846064,9.075959,973.07855;-1.3075534,-0.07691491,9.075959,-1.3075534,0.30765963,9.152874,973.07855;-1.3075534,-0.07691491,10.11431,-0.96143633,0.07691491,10.11431,1006.63293;1.615213,-0.07691491,10.11431,1.615213,0.4999469,10.075852,1006.63293;-0.423032,-0.07691491,10.11431,-0.423032,0.038457453,9.306704,1006.63293;-0.423032,-0.07691491,8.999044,-0.846064,0.8076065,8.999044,1040.1874;1.0768087,-0.07691491,4.999469,1.0768087,-0.5768618,4.999469,1040.1874;1.0768087,-0.07691491,10.691172,0.7306916,0.4999469,10.691172,1040.1874;1.0768087,-0.07691491,10.691172,0.53840435,-0.15382981,10.921917,1073.7418;1.0768087,-0.07691491,10.691172,0.26920217,0.8845214,9.80665,1073.7418;1.0768087,-0.07691491,10.691172,0.26920217,-0.15382981,9.845108,1073.7418;1.0768087,-0.07691491,6.537767,0.15382981,-0.38457453,6.537767,1073.7418;-1.2690959,-0.07691491,10.845002,-1.2690959,-0.5768618,10.845002,1107.2963;0.423032,-0.07691491,9.306704,0.423032,-0.846064,9.306704,1107.2963;-1.4998407,-0.07691491,9.306704,-1.4998407,0.11537236,9.268247,1107.2963;-1.4998407,-0.07691491,12.69096,-1.8075004,0.23074472,12.69096,1140.8507;-1.4998407,-1.2306385,6.883884,-0.96143633,-1.2306385,6.883884,1140.8507;-1.4998407,-0.11537236,8.15298,-0.8076065,-0.11537236,8.15298,1140.8507;-1.4998407,-0.11537236,9.729735,-2.2305322,0.038457453,9.729735,1174.4052;-1.4998407,-0.11537236,9.729735,-1.615213,0.53840435,9.729735,1174.4052;-1.4998407,1.7305853,11.998726,-0.61531925,1.7305853,11.998726,1174.4052;0.8076065,-0.69223416,7.499203,0.8076065,-0.69223416,7.499203,1174.4052;0.8076065,0.8076065,9.114416,0.19228727,0.8076065,9.114416,1207.9596;-1.1152661,0.8076065,9.114416,-1.1152661,1.0383513,8.922129,1207.9596;0.07691491,0.8076065,7.499203,0.07691491,0.26920217,7.499203,1207.9596;0.07691491,0.8076065,12.4986725,-0.11537236,1.615213,12.4986725,1241.514;0.07691491,-0.30765963,10.998832,-0.6537767,-0.30765963,10.998832,1241.514;0.07691491,0.8076065,10.998832,0.038457453,0.8076065,10.229683,1241.514;-1.0383513,0.8076065,7.153086,-1.0383513,0.6537767,7.153086,1275.0684;0.07691491,-0.30765963,8.30681,0.07691491,-0.30765963,8.30681,1275.0684;0.07691491,-0.30765963,11.114204,-0.07691491,0.0,11.114204,1275.0684;-1.0768087,0.76914907,11.114204,-1.0768087,0.76914907,10.768087,1275.0684;-1.0768087,0.76914907,11.114204,-0.11537236,0.34611708,10.614257,1308.6228;-1.0768087,-0.53840435,8.960587,-0.38457453,-0.53840435,8.960587,1308.6228;-1.0768087,-1.8844151,7.0761714,-0.19228727,-1.8844151,7.0761714,1308.6228;-1.0768087,0.6537767,10.152767,-0.34611708,0.6537767,10.152767,1342.1772;-1.0768087,-1.0768087,10.152767,-1.5382981,-1.0768087,9.191331,1342.1772;-1.0768087,0.0,13.729311,-0.69223416,0.0,13.729311,1342.1772;-1.0768087,0.0,9.114416,-0.6537767,-0.846064,9.114416,1375.7317;-1.0768087,0.0,6.537767,-0.34611708,-0.9229789,6.537767,1375.7317;-1.0768087,0.0,6.537767,-1.1152661,0.07691491,7.153086,1375.7317;-1.0768087,0.0,8.191438,-1.8459578,-0.23074472,8.191438,1375.7317;0.26920217,0.0,11.229576,0.26920217,0.846064,11.229576,1409.2861;0.26920217,1.2306385,11.229576,0.0,1.2306385,11.229576,1409.2861;0.26920217,-0.07691491,8.576012,-0.34611708,-0.07691491,8.576012,1409.2861;0.26920217,-0.07691491,8.576012,-0.69223416,0.9229789,8.960587,1442.8406;-1.9997876,-0.07691491,8.576012,-1.9997876,0.69223416,8.2683525,1442.8406;0.6537767,1.5382981,12.037183,0.6537767,1.5382981,12.037183,1442.8406;0.6537767,0.46148944,12.037183,0.8845214,0.46148944,11.498778,1442.8406;-0.38457453,0.46148944,10.921917,-0.38457453,0.9229789,10.921917,1476.395;-0.38457453,0.46148944,9.152874,-0.038457453,0.46148944,9.152874,1476.395;-0.38457453,-0.8076065,7.037714,-0.76914907,-0.8076065,7.037714,1476.395;0.8076065,-0.8076065,10.11431,0.8076065,0.038457453,10.11431,1509.9495;0.8076065,-0.8076065,10.11431,-0.07691491,-0.7306916,9.229789,1509.9495;-1.3075534,-0.8076065,10.11431,-1.3075534,0.0,10.845002,1509.9495;0.26920217,-0.8076065,8.537555,0.26920217,-0.9998938,8.537555,1543.5039;-0.76914907,-0.8076065,6.4993095,-0.76914907,-1.692128,6.4993095,1543.5039;-0.76914907,-0.8076065,8.15298,-0.6537767,-0.61531925,8.15298,1543.5039;-0.76914907,-0.8076065,8.15298,-1.1537236,-0.038457453,8.345267,1543.5039;-0.76914907,-0.8076065,10.11431,-1.1152661,0.038457453,10.11431,1577.0583;1.0383513,-0.8076065,10.11431,1.0383513,-0.11537236,11.037289,1577.0583;-0.46148944,0.23074472,5.1917562,-0.46148944,0.23074472,5.1917562,1577.0583;-0.46148944,0.23074472,8.652927,0.15382981,-0.46148944,8.652927,1610.6128;-0.46148944,0.23074472,8.652927,-0.7306916,0.69223416,7.960693,1610.6128;-0.46148944,1.3075534,11.191119,-0.6537767,1.3075534,11.191119,1610.6128;-0.46148944,0.19228727,11.191119,0.19228727,0.19228727,10.806544,1644.1671;0.7306916,0.19228727,8.922129,0.7306916,-0.4999469,8.922129,1644.1671;-0.9229789,0.19228727,8.922129,-0.9229789,0.8076065,9.498991,1644.1671;-0.9229789,0.19228727,7.883778,-1.3460109,0.61531925,7.883778,1644.1671;-0.9229789,0.19228727,10.460427,-0.7306916,0.423032,10.460427,1677.7216;1.2306385,-1.0383513,13.190907,1.2306385,-1.0383513,13.190907,1677.7216;-1.1921811,0.15382981,11.306491,-1.1921811,0.15382981,11.306491,1677.7216;-1.1921811,0.15382981,11.306491,-0.6537767,0.53840435,10.845002,1711.276;0.6537767,0.15382981,5.3840437,0.6537767,-0.30765963,5.3840437,1711.276;-0.69223416,0.15382981,9.460533,-0.69223416,-0.23074472,9.460533,1711.276;-0.69223416,0.15382981,11.268034,0.26920217,-0.19228727,11.268034,1744.8304;-0.69223416,0.15382981,11.268034,-0.30765963,-0.07691491,10.26814,1744.8304;-0.69223416,0.15382981,10.152767,-0.19228727,-0.4999469,10.152767,1744.8304;-0.69223416,-1.0383513,7.383831,-0.26920217,-1.0383513,7.383831,1744.8304;-0.69223416,0.26920217,7.383831,-0.30765963,0.26920217,7.306916,1778.3849;-0.69223416,-0.8076065,7.383831,-0.6537767,-0.8076065,7.4222884,1778.3849;-0.69223416,0.26920217,8.845214,-1.1152661,0.26920217,8.845214,1778.3849;-0.69223416,0.26920217,12.4986725,-0.34611708,0.96143633,12.4986725,1811.9393;-0.69223416,0.26920217,7.037714,-0.5768618,-0.61531925,7.037714,1811.9393;-0.69223416,0.26920217,8.499097,-0.61531925,-0.30765963,8.499097,1811.9393;-0.69223416,0.26920217,8.499097,-1.4229257,0.76914907,8.15298,1845.4938;-0.69223416,1.6536705,11.037289,-0.6537767,1.6536705,11.037289,1845.4938;-0.69223416,1.6536705,11.037289,0.30765963,1.9228727,11.691066,1845.4938;-0.69223416,0.19228727,11.037289,0.30765963,0.19228727,10.5758,1845.4938;-0.69223416,0.19228727,11.037289,-0.69223416,1.1152661,10.229683,1879.0482;-0.69223416,1.2690959,9.691278,-0.5768618,1.2690959,9.691278,1879.0482;-0.69223416,1.2690959,8.076065,-0.038457453,0.38457453,8.076065,1879.0482;1.5767555,1.2690959,11.767981,1.5767555,1.1152661,11.767981,1912.6027;-0.38457453,-0.11537236,11.767981,-0.38457453,-0.11537236,11.344949,1912.6027;-0.38457453,0.9998938,11.767981,0.07691491,0.9998938,10.806544,1912.6027;-0.38457453,-0.76914907,5.9224477,-0.38457453,-0.76914907,5.9224477,1946.1571;-0.38457453,-0.76914907,7.3453736,-0.53840435,-1.1921811,7.3453736,1946.1571;-0.38457453,0.46148944,9.768193,0.423032,0.46148944,9.768193,1946.1571;-0.38457453,0.46148944,9.768193,-0.46148944,0.53840435,9.768193,1946.1571;-0.38457453,0.46148944,9.768193,-0.7306916,-0.23074472,9.998938,1979.7115;0.6537767,-0.76914907,8.499097,0.6537767,-0.76914907,8.499097,1979.7115;-1.1537236,-0.76914907,8.499097,-1.1537236,-0.9229789,8.345267,1979.7115;-1.1537236,-0.76914907,7.1915436,-1.2306385,-0.9998938,7.1915436,2013.2659;-1.1537236,0.38457453,9.229789,-0.96143633,0.38457453,9.229789,2013.2659;-1.1537236,0.38457453,12.344843,-0.6537767,0.4999469,12.344843,2013.2659;1.1921811,0.38457453,9.922023,1.1921811,0.0,9.922023,2013.2659;-0.46148944,-1.2690959,7.729948,-0.46148944,-1.2690959,7.729948,2046.8203;-0.46148944,0.4999469,7.729948,-1.3844683,0.4999469,8.729842,2046.8203;-0.46148944,0.4999469,7.729948,-1.3460109,1.3844683,8.2683525,2046.8203;-0.46148944,0.4999469,12.3833,-0.23074472,1.2690959,12.3833,2080.3748;1.1921811,0.4999469,8.229895,1.1921811,0.38457453,8.229895,2080.3748;-0.7306916,0.4999469,10.883459,-0.7306916,-0.23074472,10.883459,2080.3748;-0.7306916,1.5382981,9.075959,-0.423032,1.5382981,9.075959,2113.9292;0.38457453,0.34611708,6.614682,0.38457453,0.34611708,6.614682,2113.9292;0.38457453,1.8459578,12.22947,0.19228727,1.8459578,12.22947,2113.9292;0.38457453,0.15382981,11.114204,0.46148944,0.15382981,11.114204,2113.9292;-0.7306916,1.2306385,11.114204,-0.7306916,1.2306385,10.498885,2147.4836;-0.7306916,-0.26920217,8.076065,-0.8845214,-0.26920217,8.076065,2147.4836;-0.7306916,-0.26920217,5.6532454,0.07691491,-0.7306916,5.6532454,2147.4836;-1.7690428,-0.26920217,12.267927,-1.7690428,-1.2306385,12.267927,2181.038;-1.7690428,-0.26920217,9.268247,-0.9998938,-0.6537767,9.268247,2181.038;-1.7690428,-0.26920217,10.3835125,-1.3460109,-0.423032,10.3835125,2181.038;-0.6537767,-0.26920217,10.3835125,-0.6537767,-0.11537236,9.575906,2214.5925;-0.6537767,-0.26920217,6.5762243,-0.5768618,-1.2306385,6.5762243,2214.5925;-0.6537767,-0.26920217,10.152767,-1.3460109,0.0,10.152767,2214.5925;-0.6537767,-0.26920217,8.422182,-1.1152661,-0.34611708,8.422182,2214.5925;0.46148944,-0.26920217,11.191119,0.46148944,0.26920217,11.191119,2248.147;-0.69223416,-0.26920217,11.191119,-0.69223416,0.4999469,11.575693,2248.147;0.69223416,-0.26920217,7.2300014,0.69223416,0.11537236,7.2300014,2248.147;-0.4999469,-0.26920217,7.2300014,-0.4999469,0.038457453,8.191438,2281.7014;-0.4999469,-0.26920217,8.2683525,-0.9229789,-0.11537236,8.2683525,2281.7014;-0.4999469,1.615213,11.806438,-0.9229789,1.615213,11.806438,2281.7014;-0.4999469,1.615213,10.652715,-0.23074472,0.8076065,10.652715,2315.2559;-0.4999469,-0.34611708,8.652927,-0.5768618,-0.34611708,8.652927,2315.2559;-0.4999469,-0.34611708,10.345055,-0.76914907,0.5768618,10.345055,2315.2559;-1.9613302,-0.34611708,8.883672,-1.9613302,0.6537767,8.883672,2315.2559;-0.19228727,0.846064,8.883672,-0.19228727,0.846064,9.845108,2348.8103;-0.19228727,0.846064,11.575693,-0.19228727,0.0,11.575693,2348.8103;-0.19228727,-0.23074472,11.575693,-0.53840435,-0.23074472,10.883459,2348.8103;-0.19228727,-0.23074472,10.306598,0.038457453,0.34611708,10.306598,2382.3647;-0.19228727,-0.23074472,5.9224477,0.61531925,-0.9229789,5.9224477,2382.3647;1.9228727,-0.23074472,10.691172,1.9228727,0.07691491,10.691172,2382.3647;0.0,-0.23074472,9.498991,0.0,-0.69223416,9.498991,2415.9192;0.0,-0.23074472,9.498991,-0.5768618,-0.26920217,10.152767,2415.9192;0.0,-0.23074472,8.46064,-0.69223416,-0.6537767,8.46064,2415.9192;-1.4229257,-1.4613832,8.46064,-1.4229257,-1.4613832,7.960693,2415.9192;-1.4229257,-0.34611708,8.46064,-0.46148944,-0.34611708,8.191438,2449.4736;-1.4229257,-0.34611708,7.4222884,-1.1152661,-0.07691491,7.4222884,2449.4736;-1.4229257,-0.34611708,10.345055,-1.0383513,0.423032,10.345055,2449.4736;-0.26920217,-0.34611708,10.345055,-0.26920217,-0.11537236,11.344949,2483.028;-1.5767555,-0.34611708,8.383725,-1.5767555,-1.1152661,8.383725,2483.028;-0.23074472,-0.34611708,8.383725,-0.23074472,0.19228727,8.960587,2483.028;-1.5382981,-0.34611708,8.383725,-1.5382981,0.23074472,7.960693,2483.028;-1.5382981,0.846064,11.806438,-1.1152661,0.846064,11.806438,2516.5825;1.0768087,0.846064,11.806438,1.0768087,1.1537236,11.806438,2516.5825;-0.9229789,-0.96143633,9.191331,-0.9229789,-0.96143633,9.191331,2516.5825;-0.9229789,1.1152661,9.191331,-0.4999469,1.1152661,9.883566,2550.1367;-0.9229789,1.1152661,9.191331,-1.1152661,0.7306916,8.806757,2550.1367;-0.9229789,1.1152661,10.652715,-0.76914907,0.9229789,10.652715,2550.1367;1.3460109,1.1152661,10.652715,1.3460109,0.46148944,10.421969,2583.6912;-0.423032,-0.15382981,10.652715,-0.423032,-0.15382981,10.883459,2583.6912;-0.423032,-0.15382981,10.652715,-0.9229789,0.76914907,10.3835125,2583.6912;-0.423032,-0.15382981,5.999363,0.5768618,-0.15382981,5.999363,2583.6912;-0.423032,-0.15382981,8.960587,-1.1921811,-0.4999469,8.960587,2617.2456;-0.423032,-0.15382981,11.421864,-0.07691491,0.8076065,11.421864,2617.2456;-0.423032,-0.15382981,9.960481,0.0,0.423032,9.960481,2617.2456;-0.423032,-0.15382981,9.960481,0.26920217,0.23074472,10.652715,2650.8;-0.423032,-1.9997876,6.34548,-0.96143633,-1.9997876,6.34548,2650.8;-1.8844151,-0.38457453,9.960481,-1.8844151,-0.38457453,9.960481,2650.8;-0.76914907,-0.38457453,8.30681,-0.76914907,-0.11537236,8.30681,2684.3545;-0.76914907,-0.38457453,9.422076,-0.8076065,-0.6537767,9.422076,2684.3545;-0.76914907,-0.38457453,12.037183,-0.4999469,0.26920217,12.037183,2684.3545;-0.76914907,-1.5767555,7.5761185,-0.5768618,-1.5767555,7.5761185,2684.3545;-0.76914907,0.23074472,7.5761185,-0.53840435,0.23074472,7.4222884,2717.909;-1.8844151,0.23074472,7.5761185,-1.8844151,-0.423032,8.15298,2717.909;-1.8844151,0.23074472,9.729735,-1.0383513,0.7306916,9.729735,2717.909;1.0768087,1.615213,13.190907,1.0768087,1.615213,13.190907,2751.4634;1.0768087,-0.61531925,7.6914907,1.3075534,-0.61531925,7.6914907,2751.4634;-1.1152661,-0.61531925,10.11431,-1.1152661,-0.34611708,10.11431,2751.4634;-1.1152661,0.53840435,8.076065,-0.4999469,0.53840435,8.076065,2785.0178;-1.1152661,0.53840435,8.076065,-0.8076065,0.46148944,8.499097,2785.0178;1.0383513,0.53840435,12.614044,1.0383513,1.3075534,12.614044,2785.0178;-0.61531925,-0.9229789,10.152767,-0.61531925,-0.9229789,10.152767,2785.0178;-0.61531925,1.1537236,10.152767,-0.53840435,1.1537236,9.922023,2818.5723;-0.61531925,-0.23074472,7.883778,-1.0768087,-0.23074472,7.883778,2818.5723;-0.61531925,-0.23074472,6.0762777,-0.69223416,-0.26920217,6.0762777,2818.5723;-0.61531925,-0.23074472,11.614151,-1.4229257,0.038457453,11.614151,2852.1267;-0.61531925,-0.23074472,10.0373955,-0.07691491,0.07691491,10.0373955,2852.1267;-0.61531925,-0.23074472,10.0373955,-0.46148944,0.38457453,10.306598,2852.1267;-0.61531925,-1.4998407,7.0761714,0.11537236,-1.4998407,7.0761714,2885.6812;-0.61531925,-1.4998407,7.0761714,-1.5382981,-0.9998938,8.076065,2885.6812;-0.61531925,-0.07691491,9.383618,-0.038457453,-0.07691491,9.383618,2885.6812;-0.61531925,-0.07691491,9.383618,-1.0768087,-0.7306916,9.152874,2885.6812;-0.61531925,-0.07691491,10.960374,-0.11537236,-0.07691491,10.960374,2919.2356;-0.61531925,-0.07691491,9.306704,-0.11537236,0.0,9.306704,2919.2356;-0.61531925,-0.07691491,7.729948,-0.4999469,-0.53840435,7.729948,2919.2356;-0.61531925,-0.07691491,7.729948,-0.34611708,-0.38457453,7.268459,2952.79;-0.61531925,-0.07691491,7.729948,-1.3844683,0.34611708,8.61447,2952.79;-0.61531925,1.6536705,13.075534,-0.4999469,1.6536705,13.075534,2952.79;-0.61531925,-0.19228727,9.691278,0.07691491,-0.19228727,9.691278,2952.79;-0.61531925,-0.19228727,9.691278,0.19228727,-0.15382981,9.537449,2986.3445;-0.61531925,0.8845214,9.691278,-0.8845214,0.8845214,8.768299,2986.3445;-1.9228727,0.8845214,9.691278,-1.9228727,0.5768618,10.11431,2986.3445;0.30765963,0.8845214,11.383406,0.30765963,0.9998938,11.383406,3019.899;0.30765963,-0.46148944,11.383406,0.46148944,-0.46148944,11.960268,3019.899;-0.846064,0.7306916,11.383406,-0.846064,0.7306916,11.114204,3019.899;-0.846064,0.7306916,8.922129,-0.38457453,0.11537236,8.922129,3053.4534;-0.846064,-0.34611708,5.5378733,-0.38457453,-0.34611708,5.5378733,3053.4534;0.34611708,-0.34611708,10.5758,0.34611708,-0.5768618,10.5758,3053.4534;0.34611708,-0.34611708,10.5758,-0.15382981,-0.11537236,9.80665,3053.4534;0.34611708,-0.34611708,10.5758,-0.26920217,0.30765963,10.614257,3087.0078;0.34611708,-0.34611708,6.9223413,0.46148944,-0.4999469,6.9223413,3087.0078;-1.0383513,-1.692128,6.9223413,-1.0383513,-1.692128,7.037714,3087.0078;-1.0383513,0.30765963,8.422182,-0.9998938,0.30765963,8.422182,3120.5623;-1.0383513,0.30765963,8.422182,-1.615213,-0.5768618,8.576012,3120.5623;-1.0383513,0.30765963,10.306598,-0.96143633,0.7306916,10.306598,3120.5623;-1.0383513,0.30765963,11.729524,-0.23074472,0.11537236,11.729524,3154.1167;-1.0383513,0.30765963,8.037608,-0.96143633,-0.61531925,8.037608,3154.1167;0.7306916,1.8459578,8.037608,0.7306916,1.8459578,8.61447,3154.1167;-1.1921811,0.038457453,8.037608,-1.1921811,0.038457453,7.9222355,3154.1167;-1.1921811,1.1152661,12.960162,-1.0383513,1.1152661,12.960162,3187.6711;0.8845214,1.1152661,11.806438,0.8845214,0.23074472,11.806438,3187.6711;-0.4999469,-0.34611708,9.575906,-0.4999469,-0.34611708,9.575906,3187.6711;-0.4999469,-0.34611708,9.575906,-1.0383513,0.6537767,8.883672,3221.2256;-1.692128,1.2690959,7.806863,-1.692128,1.2690959,7.806863,3221.2256;-0.30765963,1.2690959,9.075959,-0.30765963,0.26920217,9.075959,3221.2256;1.2690959,-0.46148944,10.691172,1.2690959,-0.46148944,10.691172,3254.7798;-0.6537767,-0.46148944,10.691172,-0.6537767,-0.4999469,10.537342,3254.7798;-0.6537767,1.1921811,10.691172,-0.6537767,1.1921811,10.3835125,3254.7798;-0.6537767,-0.46148944,5.345586,0.15382981,-0.46148944,5.345586,3254.7798;-0.6537767,-0.46148944,9.075959,-0.30765963,-0.038457453,9.075959,3288.3342;-0.6537767,1.1537236,11.460321,-0.7306916,1.1537236,11.460321,3288.3342;-0.6537767,1.1537236,11.460321,0.0,0.53840435,10.498885,3288.3342;0.5768618,1.1537236,9.922023,0.5768618,0.61531925,9.922023,3321.8887;-0.8845214,-0.61531925,8.076065,-0.8845214,-0.61531925,8.076065,3321.8887;-0.8845214,-0.61531925,8.076065,-1.0768087,0.038457453,8.037608,3321.8887;-0.8845214,-0.61531925,8.076065,-0.30765963,-0.19228727,8.30681,3355.443;-0.8845214,-0.61531925,8.076065,-1.2690959,0.038457453,8.922129,3355.443;-0.8845214,0.96143633,12.883246,-0.9229789,0.96143633,12.883246,3355.443;-0.8845214,-0.69223416,7.883778,-0.11537236,-0.69223416,7.883778,3355.443;-0.8845214,-0.69223416,7.883778,-0.34611708,-0.9229789,8.15298,3388.9976;-0.8845214,-0.69223416,7.883778,-1.3844683,0.26920217,8.499097,3388.9976;-0.8845214,0.61531925,9.422076,-1.1152661,0.61531925,9.422076,3388.9976;0.423032,0.61531925,11.460321,0.423032,1.0383513,11.460321,3422.552;0.423032,0.61531925,8.960587,1.1152661,-0.26920217,8.960587,3422.552;-0.61531925,0.61531925,8.960587,-0.61531925,0.38457453,9.614364,3422.552;-0.61531925,0.61531925,8.960587,-0.4999469,0.76914907,8.46064,3456.1064;-0.61531925,0.61531925,8.960587,-0.11537236,0.38457453,8.576012,3456.1064;0.6537767,0.61531925,11.883353,0.6537767,1.2306385,11.883353,3456.1064;-0.96143633,-0.53840435,9.922023,-0.96143633,-0.53840435,9.922023,3456.1064;-0.96143633,0.846064,9.922023,-0.6537767,0.846064,9.960481,3489.661;-0.96143633,-0.34611708,8.15298,-1.1921811,-0.34611708,8.15298,3489.661;-0.96143633,-0.34611708,8.15298,-1.1921811,-0.26920217,8.576012,3489.661;-0.96143633,-0.34611708,11.152661,-0.19228727,0.423032,11.152661,3523.2153;-0.96143633,-0.34611708,10.0373955,-0.423032,0.26920217,10.0373955,3523.2153;-0.96143633,-0.34611708,11.114204,-0.423032,-0.23074472,11.114204,3523.2153;-0.96143633,-0.34611708,8.191438,-0.038457453,-0.38457453,8.191438,3523.2153;-0.96143633,-1.8075004,8.191438,-0.15382981,-1.8075004,7.306916,3556.7698;-0.96143633,0.30765963,9.229789,-0.30765963,0.30765963,9.229789,3556.7698;-0.96143633,0.30765963,9.229789,-1.1152661,-0.038457453,9.422076,3556.7698;-0.96143633,0.30765963,11.268034,0.038457453,-0.11537236,11.268034,3590.3242;-0.96143633,0.30765963,7.9222355,-0.038457453,-0.19228727,7.9222355,3590.3242;-0.96143633,0.30765963,7.9222355,-0.30765963,-0.423032,7.153086,3590.3242;-0.96143633,0.30765963,7.9222355,0.0,0.07691491,7.8453207,3623.8787;-0.96143633,0.30765963,9.191331,-1.6536705,0.34611708,9.191331,3623.8787;-0.96143633,0.30765963,12.306385,-1.0768087,1.2690959,12.306385,3623.8787;0.11537236,0.30765963,9.998938,0.11537236,0.46148944,9.998938,3623.8787;0.11537236,0.30765963,9.998938,-0.6537767,0.38457453,9.80665,3657.433;0.11537236,0.30765963,8.499097,-0.26920217,0.6537767,8.499097,3657.433;-1.5767555,0.30765963,9.575906,-1.5767555,1.0383513,9.575906,3657.433;0.15382981,1.5767555,12.575587,0.15382981,1.5767555,12.575587,3690.9875;0.15382981,0.19228727,10.498885,0.69223416,0.19228727,10.498885,3690.9875;0.15382981,0.19228727,10.498885,-0.6537767,0.9229789,10.614257,3690.9875;0.15382981,0.19228727,8.229895,-0.46148944,0.5768618,8.229895,3724.542;0.15382981,0.19228727,5.768618,-0.38457453,-0.7306916,5.768618,3724.542;0.15382981,-1.0768087,9.960481,0.846064,-1.0768087,9.960481,3724.542;-1.0768087,-1.0768087,9.960481,-1.0768087,-0.07691491,9.883566,3724.542;-1.0768087,0.23074472,11.344949,-0.61531925,0.23074472,11.344949,3758.0964;-1.0768087,0.23074472,7.153086,-0.07691491,-0.7306916,7.153086,3758.0964;-1.0768087,-1.4229257,6.0762777,-0.7306916,-1.4229257,6.0762777,3758.0964;-1.0768087,-0.11537236,9.422076,-0.96143633,-0.11537236,9.422076,3791.651;-1.0768087,-0.11537236,8.30681,-0.61531925,0.30765963,8.30681,3791.651;0.0,-0.11537236,11.152661,0.0,0.26920217,11.152661,3791.651;0.0,-0.11537236,11.152661,0.23074472,0.30765963,11.152661,3825.2053;-1.1921811,-0.11537236,6.691597,-1.1921811,-0.07691491,6.691597,3825.2053;-1.1921811,-0.11537236,9.383618,-0.9229789,0.26920217,9.383618,3825.2053;-1.1921811,-0.11537236,8.076065,-1.7690428,0.15382981,8.076065,3825.2053;-1.1921811,0.9229789,12.998619,-1.2690959,0.9229789,12.998619,3858.7598;-1.1921811,0.9229789,9.883566,-0.26920217,0.15382981,9.883566,3858.7598;-1.1921811,-0.5768618,7.614576,-0.61531925,-0.5768618,7.614576,3858.7598;-1.1921811,1.2690959,7.614576,-0.69223416,1.2690959,8.576012,3892.3142;-2.461277,1.2690959,7.614576,-2.461277,0.61531925,8.61447,3892.3142;0.69223416,1.2690959,10.26814,0.69223416,0.34611708,10.26814,3892.3142;0.69223416,1.2690959,10.26814,0.69223416,0.34611708,11.229576,3925.8687;0.69223416,-0.038457453,10.26814,-0.30765963,-0.038457453,9.922023,3925.8687;-0.46148944,-0.038457453,10.26814,-0.46148944,0.7306916,10.345055,3925.8687;-0.46148944,-0.038457453,5.999363,-0.30765963,-0.61531925,5.999363,3925.8687;0.9998938,1.0768087,11.383406,0.9998938,1.0768087,11.383406,3959.423;0.9998938,-0.7306916,11.383406,0.23074472,-0.7306916,10.806544,3959.423;-1.2690959,0.6537767,11.383406,-1.2690959,0.6537767,10.652715,3959.423;-1.2690959,0.6537767,8.191438,-0.61531925,0.038457453,8.191438,3992.9773;-1.2690959,-0.6537767,6.806969,-1.2306385,-0.6537767,6.806969,3992.9773;-1.2690959,-0.6537767,10.498885,-0.8845214,-0.19228727,10.498885,3992.9773;-1.2690959,-0.6537767,10.498885,-0.34611708,0.07691491,9.922023,3992.9773;-1.2690959,-0.6537767,10.498885,-0.69223416,-0.423032,9.498991,4026.5317;0.15382981,0.6537767,10.498885,0.15382981,0.6537767,10.5758,4026.5317;0.15382981,-1.4998407,6.691597,-0.846064,-1.4998407,6.691597,4026.5317;0.15382981,1.1537236,8.845214,-0.26920217,1.1537236,8.845214,4060.0862;-0.9229789,1.1537236,8.845214,-0.9229789,0.30765963,7.8453207,4060.0862;-0.9229789,1.1537236,12.69096,-0.30765963,0.38457453,12.69096,4060.0862;1.1921811,1.1537236,11.460321,1.1921811,0.38457453,11.460321,4093.6406;0.11537236,-0.11537236,7.2300014,0.11537236,-0.11537236,7.2300014,4093.6406;0.11537236,-0.11537236,9.460533,-0.26920217,-0.61531925,9.460533,4093.6406;-1.5382981,-0.11537236,8.30681,-1.5382981,0.846064,8.30681,4093.6406;-0.38457453,-0.11537236,10.0373955,-0.38457453,0.30765963,10.0373955,4127.1953;1.3075534,-0.11537236,10.0373955,1.3075534,0.8076065,10.614257,4127.1953;-0.846064,-0.11537236,8.999044,-0.846064,-0.6537767,8.999044,4127.1953;-0.846064,-0.11537236,8.999044,0.0,0.8076065,9.768193,4160.7495;-0.846064,-0.11537236,7.3453736,-0.69223416,0.5768618,7.3453736,4160.7495;-0.846064,-0.11537236,9.229789,-0.6537767,-0.038457453,9.229789,4160.7495;0.7306916,-0.11537236,11.344949,0.7306916,0.0,11.344949,4194.304;-0.9998938,1.1152661,11.344949,-0.9998938,1.1152661,10.998832,4194.304;0.30765963,1.1152661,8.999044,0.30765963,0.6537767,8.999044,4194.304;0.30765963,-1.0768087,6.6531396,-0.4999469,-1.0768087,6.6531396,4194.304;0.30765963,-1.0768087,9.037501,-0.5768618,-1.1537236,9.037501,4227.8584;0.30765963,0.11537236,10.26814,0.53840435,0.11537236,10.26814,4227.8584;-1.3844683,0.11537236,10.26814,-1.3844683,-0.11537236,10.345055,4227.8584;-1.3844683,-1.0768087,10.26814,-0.846064,-1.0768087,9.691278,4261.413;-0.15382981,-1.0768087,5.8839903,-0.15382981,-1.4998407,5.8839903,4261.413;-1.4229257,-1.0768087,7.7684054,-1.4229257,-0.9229789,7.7684054,4261.413;0.11537236,0.46148944,7.7684054,0.11537236,0.46148944,7.499203,4294.9673;0.11537236,0.46148944,10.691172,-0.07691491,0.15382981,10.691172,4294.9673;0.11537236,0.46148944,12.767875,0.69223416,0.6537767,12.767875,4294.9673;0.11537236,0.46148944,8.883672,0.4999469,-0.11537236,8.883672,4294.9673;0.11537236,0.46148944,8.883672,-0.15382981,0.423032,8.806757,4328.5215;-1.1921811,0.46148944,8.883672,-1.1921811,0.38457453,8.229895,4328.5215;-1.1921811,0.46148944,10.845002,-0.76914907,1.4229257,10.845002,4328.5215;0.46148944,0.46148944,12.806332,0.46148944,0.46148944,12.806332,4362.076;0.46148944,0.46148944,9.306704,0.15382981,-0.038457453,9.306704,4362.076;-0.76914907,0.46148944,10.7296295,-0.76914907,0.61531925,10.7296295,4362.076;-1.8075004,0.46148944,7.960693,-1.8075004,0.0,7.960693,4395.6304;-1.8075004,-0.846064,7.960693,-1.1537236,-0.846064,7.7684054,4395.6304;0.15382981,-0.846064,10.691172,0.15382981,0.11537236,10.691172,4395.6304;-1.1152661,0.8845214,10.691172,-1.1152661,0.8845214,9.922023,4395.6304;0.4999469,0.8845214,10.691172,0.4999469,0.38457453,10.460427,4429.185;0.4999469,0.8845214,6.307022,0.9998938,-0.038457453,6.307022,4429.185;0.4999469,-0.846064,8.383725,0.76914907,-0.846064,8.383725,4429.185;0.4999469,0.46148944,11.383406,-0.19228727,0.46148944,11.383406,4462.7393;0.4999469,0.46148944,10.26814,0.26920217,0.69223416,10.26814,4462.7393;-0.5768618,-0.61531925,10.26814,-0.5768618,-0.61531925,9.268247,4462.7393;-0.5768618,-0.61531925,8.383725,-0.46148944,-0.6537767,8.383725,4462.7393;-0.5768618,-0.61531925,8.383725,-0.6537767,-0.6537767,7.806863,4496.294;-0.5768618,-0.61531925,8.383725,-0.7306916,-0.11537236,8.537555,4496.294;-0.5768618,-0.61531925,8.383725,-1.3460109,0.15382981,9.037501,4496.294;-0.5768618,1.9997876,13.229364,-0.846064,1.9997876,13.229364,4529.848;-0.5768618,-0.46148944,9.152874,-0.7306916,-0.46148944,9.152874,4529.848;-0.5768618,-0.46148944,9.152874,-0.5768618,0.23074472,8.883672,4529.848;-0.5768618,1.1921811,9.152874,-0.53840435,1.1921811,9.460533,4563.403;-0.5768618,1.1921811,10.768087,-0.7306916,0.8845214,10.768087,4563.403;0.61531925,1.1921811,11.998726,0.61531925,0.8076065,11.998726,4563.403;0.61531925,-0.26920217,9.845108,1.0383513,-0.26920217,9.845108,4563.403;0.61531925,-0.26920217,9.845108,-0.23074472,0.19228727,10.229683,4596.957;-1.3075534,-0.26920217,8.537555,-1.3075534,0.423032,8.537555,4596.957;-1.3075534,-0.26920217,6.960799,-0.69223416,-0.5768618,6.960799,4596.957;1.615213,0.9229789,10.883459,1.615213,0.9229789,10.883459,4630.5117;-1.1921811,-0.9229789,10.883459,-1.1921811,-0.9229789,10.26814,4630.5117;-1.1921811,-0.9229789,10.883459,-0.23074472,-0.19228727,11.152661,4630.5117;0.0,-0.9229789,7.1915436,0.0,-0.30765963,7.1915436,4664.066;0.0,-0.9229789,7.1915436,-0.30765963,-0.76914907,6.4223948,4664.066;0.0,0.30765963,11.344949,-0.9229789,0.30765963,11.344949,4664.066;0.0,0.30765963,9.652821,-0.69223416,0.11537236,9.652821,4664.066;0.0,0.30765963,9.652821,-0.5768618,-0.23074472,10.537342,4697.6206;0.0,0.30765963,8.2683525,0.34611708,-0.61531925,8.2683525,4697.6206;-1.4998407,-1.5767555,8.2683525,-1.4998407,-1.5767555,8.576012,4697.6206;0.23074472,0.4999469,9.575906,0.23074472,0.4999469,9.575906,4731.175;-1.5382981,0.4999469,9.575906,-1.5382981,0.038457453,8.999044,4731.175;-1.5382981,0.4999469,12.114098,-0.69223416,0.38457453,12.114098,4731.175;0.19228727,-0.6537767,10.0373955,0.19228727,-0.6537767,10.0373955,4764.7295;0.19228727,-0.6537767,7.8453207,-0.69223416,-0.23074472,7.8453207,4764.7295;-1.0383513,0.423032,7.8453207,-1.0383513,0.423032,7.9991503,4764.7295;-1.0383513,0.423032,9.075959,-1.7305853,-0.15382981,9.075959,4764.7295;0.5768618,0.423032,12.075641,0.5768618,0.61531925,12.075641,4798.2837;1.615213,0.423032,9.422076,1.615213,-0.038457453,9.422076,4798.2837;0.5768618,0.423032,9.422076,0.5768618,-0.34611708,8.499097,4798.2837;-1.1152661,0.423032,9.422076,-1.1152661,0.8845214,8.652927,4831.8384;-1.1152661,0.423032,7.6530333,-0.23074472,0.8845214,7.6530333,4831.8384;0.76914907,0.423032,11.537236,0.76914907,0.423032,11.537236,4831.8384;-0.76914907,0.423032,11.537236,-0.76914907,-0.23074472,11.191119,4865.3926;-0.76914907,0.423032,11.537236,0.15382981,0.7306916,10.5758,4865.3926;-0.76914907,0.423032,9.306704,-0.4999469,0.846064,9.306704,4865.3926;-0.76914907,0.423032,6.2301073,-0.38457453,-0.4999469,6.2301073,4865.3926;-0.76914907,-0.846064,12.537129,-1.3460109,-0.846064,12.537129,4898.9473;-0.76914907,0.7306916,9.845108,-0.61531925,0.7306916,9.845108,4898.9473;-0.76914907,0.7306916,9.845108,-0.5768618,0.4999469,9.80665,4898.9473;-0.76914907,-0.7306916,9.845108,-0.69223416,-0.7306916,8.883672,4932.5015;-0.76914907,-1.9228727,5.8070755,-1.4998407,-1.9228727,5.8070755,4932.5015;-0.76914907,0.8076065,9.614364,-0.53840435,0.8076065,9.614364,4932.5015;-0.76914907,0.8076065,8.537555,-1.2306385,0.0,8.537555,4966.056;-0.76914907,0.8076065,11.114204,-0.69223416,0.0,11.114204,4966.056;0.69223416,0.8076065,11.114204,0.69223416,0.6537767,11.421864,4966.056;0.69223416,-0.846064,6.960799,0.423032,-0.846064,6.960799,4966.056;0.69223416,-0.846064,9.075959,0.038457453,-0.11537236,9.075959,4999.6104;-1.4998407,0.6537767,8.037608,-1.4998407,0.6537767,8.037608,4999.6104;-1.4998407,0.6537767,11.806438,-1.3075534,0.96143633,11.806438,4999.6104;0.4999469,0.6537767,10.537342,0.4999469,0.7306916,10.537342,5033.165;-0.96143633,0.6537767,8.883672,-0.96143633,-0.34611708,8.883672,5033.165;-0.96143633,0.6537767,8.883672,-1.1152661,1.2306385,9.652821,5033.165;-0.96143633,0.6537767,8.883672,-1.4998407,0.07691491,8.15298,5033.165;-0.96143633,0.6537767,8.883672,-0.4999469,0.0,9.729735,5066.719;-0.96143633,0.6537767,12.614044,-0.038457453,0.11537236,12.614044,5066.719;-0.96143633,0.6537767,10.7296295,-0.5768618,1.6536705,10.7296295,5066.719;-0.96143633,0.6537767,9.614364,-1.0383513,0.53840435,9.614364,5100.2734;0.15382981,-0.76914907,6.4993095,0.15382981,-0.76914907,6.4993095,5100.2734;0.15382981,-0.76914907,10.921917,0.53840435,-0.038457453,10.921917,5100.2734;0.15382981,-0.76914907,10.921917,-0.61531925,-0.9229789,11.152661,5133.828;0.15382981,-0.76914907,10.921917,-0.23074472,0.11537236,10.306598,5133.828;0.15382981,-0.76914907,9.306704,-0.30765963,-1.615213,9.306704,5133.828;0.15382981,-0.76914907,6.614682,-0.34611708,-0.76914907,6.614682,5133.828;0.15382981,-0.76914907,6.614682,-0.6537767,-0.07691491,7.383831,5167.3823;0.15382981,-0.76914907,8.037608,-0.76914907,-0.846064,8.037608,5167.3823;0.15382981,-0.76914907,10.614257,-0.76914907,-0.8845214,10.614257,5167.3823;0.15382981,1.3075534,12.614044,0.11537236,1.3075534,12.614044,5200.937;0.15382981,-0.423032,7.2300014,-0.38457453,-0.423032,7.2300014,5200.937;0.15382981,-0.423032,8.960587,0.38457453,0.53840435,8.960587,5200.937;0.15382981,-0.423032,8.960587,-0.26920217,0.15382981,8.691384,5234.491;-1.2306385,1.9228727,11.191119,-1.2306385,1.9228727,11.191119,5234.491;0.69223416,1.9228727,12.306385,0.69223416,1.1537236,12.306385,5234.491;0.69223416,-0.30765963,8.806757,0.4999469,-0.30765963,8.806757,5234.491;-0.846064,-0.30765963,8.806757,-0.846064,0.53840435,9.306704,5268.046;-0.846064,-0.30765963,8.806757,-0.8845214,0.5768618,8.499097,5268.046;-0.846064,-0.30765963,7.306916,-0.38457453,-0.34611708,7.306916,5268.046;0.26920217,-0.30765963,11.575693,0.26920217,-0.038457453,11.575693,5301.6;0.26920217,-0.30765963,10.11431,-0.61531925,-0.23074472,10.11431,5301.6;-1.1921811,-0.30765963,10.11431,-1.1921811,0.07691491,10.537342,5301.6;0.46148944,-0.30765963,5.614788,0.46148944,-0.8845214,5.614788,5335.155;-1.1152661,-0.30765963,8.229895,-1.1152661,-0.8076065,8.229895,5335.155;-1.1152661,-0.30765963,11.92181,-0.15382981,-0.34611708,11.92181,5335.155;-1.1152661,-0.30765963,9.768193,-0.23074472,0.26920217,9.768193,5335.155;-1.1152661,-0.30765963,9.768193,-0.5768618,0.23074472,9.960481,5368.709;-1.1152661,-0.30765963,9.768193,-0.15382981,-0.07691491,9.037501,5368.709;-1.1152661,-0.30765963,7.883778,-0.53840435,-0.46148944,7.883778,5368.709;0.11537236,-0.30765963,9.075959,0.11537236,0.15382981,9.075959,5402.2637;-1.2306385,-0.30765963,9.075959,-1.2306385,0.30765963,8.883672,5402.2637;-1.2306385,1.692128,13.690853,-1.2690959,1.692128,13.690853,5402.2637;-0.11537236,-0.53840435,9.80665,-0.11537236,-0.53840435,9.80665,5435.818;-0.11537236,-0.53840435,6.6531396,-0.6537767,-0.53840435,6.6531396,5435.818;-1.4613832,-0.53840435,9.383618,-1.4613832,0.26920217,9.383618,5435.818;-1.4613832,-0.53840435,9.383618,-1.615213,0.423032,9.075959,5435.818;0.11537236,-0.53840435,11.037289,0.11537236,0.46148944,11.037289,5469.3726;1.5767555,-0.53840435,9.152874,1.5767555,-0.19228727,9.152874,5469.3726;-0.4999469,-0.53840435,9.152874,-0.4999469,-0.07691491,9.229789,5469.3726;-0.4999469,1.2690959,9.152874,-0.8076065,1.2690959,9.306704,5502.927;-0.4999469,-0.038457453,5.768618,0.19228727,-0.038457453,5.768618,5502.927;-0.4999469,-0.038457453,12.729417,-0.38457453,0.423032,12.729417,5502.927;-0.4999469,-0.038457453,9.575906,0.38457453,0.038457453,9.575906,5536.4814;-0.4999469,-0.038457453,9.575906,-0.30765963,0.26920217,10.191225,5536.4814;-0.4999469,-0.038457453,8.114523,0.038457453,0.4999469,8.114523,5536.4814;-0.4999469,-0.038457453,10.460427,-1.3075534,-0.11537236,10.460427,5570.0356;-1.6536705,-0.038457453,10.460427,-1.6536705,-0.19228727,9.460533,5570.0356;-0.61531925,-0.038457453,10.460427,-0.61531925,0.38457453,10.460427,5603.5903;-0.61531925,-1.4998407,6.307022,-1.3460109,-1.4998407,6.307022,5603.5903;1.615213,0.038457453,8.46064,1.615213,0.038457453,8.46064,5603.5903;-1.0768087,0.038457453,8.46064,-1.0768087,0.23074472,9.037501,5603.5903;-1.0768087,0.038457453,12.22947,-1.0768087,0.15382981,12.22947,5637.1445;0.8076065,0.038457453,10.306598,0.8076065,0.5768618,10.306598,5637.1445;0.8076065,0.038457453,6.614682,0.11537236,-0.7306916,6.614682,5637.1445;-0.9229789,0.038457453,9.845108,-0.9229789,0.76914907,9.845108,5670.699;-0.9229789,0.038457453,9.845108,-1.3460109,0.6537767,9.152874,5670.699;-0.9229789,0.038457453,9.845108,-0.19228727,0.46148944,10.7296295,5670.699;1.1152661,1.6536705,11.114204,1.1152661,1.6536705,11.114204,5704.2534;-0.038457453,0.38457453,11.114204,-0.038457453,0.38457453,10.3835125,5704.2534;-0.038457453,0.38457453,9.460533,-0.5768618,0.61531925,9.460533,5704.2534;-1.3844683,0.38457453,6.8454266,-1.3844683,-0.11537236,6.8454266,5704.2534;-0.15382981,0.38457453,10.152767,-0.15382981,-0.15382981,10.152767,5737.808;-0.15382981,0.38457453,12.075641,0.15382981,0.8845214,12.075641,5737.808;-0.15382981,0.38457453,9.152874,0.30765963,0.846064,9.152874,5771.3623;-0.15382981,-1.3844683,6.34548,0.038457453,-1.3844683,6.34548,5771.3623;-0.15382981,-1.3844683,9.614364,-0.038457453,-1.0383513,9.614364,5771.3623;-0.15382981,-0.15382981,9.614364,-0.53840435,-0.15382981,9.614364,5804.9165;-0.15382981,-0.15382981,9.614364,-1.1152661,-0.96143633,9.691278,5804.9165;-0.15382981,-0.15382981,9.614364,-0.11537236,-0.11537236,9.845108,5804.9165;-0.15382981,-0.15382981,7.383831,-0.34611708,-0.8076065,7.383831,5804.9165;-0.15382981,-0.15382981,7.383831,-0.9229789,-0.15382981,7.383831,5838.471;-0.15382981,-0.15382981,7.383831,-0.69223416,-0.61531925,8.191438,5838.471;-2.038245,-0.15382981,10.345055,-2.038245,0.38457453,10.345055,5838.471;0.46148944,-0.15382981,11.729524,0.46148944,0.7306916,11.729524,5872.0254;-0.61531925,-0.15382981,8.845214,-0.61531925,0.038457453,8.845214,5872.0254;-0.61531925,-0.15382981,8.845214,0.38457453,0.69223416,8.652927,5872.0254;-0.61531925,-0.15382981,8.845214,-0.46148944,0.46148944,8.768299,5905.58;-0.61531925,1.5767555,8.845214,-0.8845214,1.5767555,9.422076,5905.58;1.3460109,1.5767555,11.614151,1.3460109,0.8845214,11.614151,5905.58;1.3460109,-0.30765963,9.537449,0.4999469,-0.30765963,9.537449,5905.58;-0.23074472,0.9229789,9.537449,-0.23074472,0.9229789,9.883566,5939.1343;-0.23074472,0.9229789,8.076065,-0.423032,-0.038457453,8.076065,5939.1343;-0.23074472,-0.5768618,6.8454266,0.038457453,-0.5768618,6.8454266,5939.1343;-0.23074472,-0.5768618,11.960268,0.7306916,-0.30765963,11.960268,5972.689;-0.23074472,-0.5768618,9.80665,-1.0383513,-0.53840435,9.80665,5972.689;-0.23074472,-0.5768618,9.80665,-0.34611708,0.07691491,9.960481,5972.689;-0.23074472,-0.5768618,7.960693,0.11537236,-0.23074472,7.960693,5972.689;-0.23074472,-0.5768618,7.960693,-0.5768618,-0.6537767,7.5376606,6006.243;-0.23074472,0.61531925,11.152661,-0.8076065,0.61531925,11.152661,6006.243;-0.23074472,0.61531925,9.498991,-0.9229789,-0.038457453,9.498991,6006.243;-0.23074472,-0.4999469,11.844895,-0.96143633,-0.4999469,11.844895,6039.798;-0.23074472,-0.4999469,10.537342,-0.11537236,-0.07691491,10.537342,6039.798;-1.4613832,-0.4999469,6.9223413,-1.4613832,-1.2306385,6.9223413,6039.798;-1.4613832,-0.4999469,8.2683525,-1.2306385,-0.8845214,8.2683525,6073.352;-1.4613832,-0.4999469,8.2683525,-1.2306385,-0.46148944,8.576012,6073.352;-1.4613832,1.4229257,13.113992,-0.6537767,1.4229257,13.113992,6073.352;0.46148944,0.26920217,9.037501,0.46148944,0.26920217,9.037501,6073.352;-1.615213,0.26920217,9.037501,-1.615213,0.15382981,8.191438,6106.9067;-1.615213,0.26920217,9.037501,-0.9229789,0.61531925,8.537555,6106.9067;-0.11537236,0.26920217,9.037501,-0.11537236,0.38457453,8.191438,6106.9067;-0.11537236,0.26920217,10.652715,-0.11537236,-0.15382981,10.652715,6140.461;1.1537236,0.26920217,10.652715,1.1537236,-0.07691491,11.229576,6140.461;-0.8845214,0.26920217,10.652715,-0.8845214,0.4999469,10.7296295,6140.461;-0.8845214,0.26920217,10.652715,-0.9998938,0.6537767,9.960481,6174.0156;-0.8845214,-0.9229789,6.1531925,-0.53840435,-0.9229789,6.1531925,6174.0156;0.76914907,-0.9229789,9.845108,0.76914907,-0.19228727,9.845108,6174.0156;0.76914907,-0.9229789,9.845108,-0.07691491,-0.96143633,10.11431,6174.0156;-0.76914907,0.15382981,9.845108,-0.76914907,0.15382981,10.614257,6207.57;-0.76914907,0.15382981,8.576012,0.19228727,-0.61531925,8.576012,6207.57;-0.76914907,-1.4998407,7.460746,-0.9998938,-1.4998407,7.460746,6207.57;-0.76914907,1.1921811,9.152874,-0.30765963,1.1921811,9.152874,6241.1245;-0.76914907,-0.07691491,7.460746,-0.76914907,-0.07691491,7.460746,6241.1245;-0.76914907,-0.07691491,10.460427,-0.9229789,-0.34611708,10.460427,6241.1245;-0.76914907,-0.07691491,10.460427,-0.46148944,0.30765963,10.921917,6274.6787;-0.76914907,-0.07691491,7.037714,-1.6536705,-0.9229789,7.037714,6274.6787;1.8075004,1.0383513,8.576012,1.8075004,1.0383513,8.576012,6274.6787;-0.846064,-0.34611708,8.576012,-0.846064,-0.34611708,8.2683525,6274.6787;-0.846064,1.3075534,11.498778,-0.76914907,1.3075534,11.498778,6308.2334;0.8076065,1.3075534,11.498778,0.8076065,1.0383513,12.344843,6308.2334;-0.423032,-0.76914907,7.5761185,-0.423032,-0.76914907,7.5761185,6308.2334;-0.423032,0.61531925,9.537449,-1.4229257,0.61531925,9.537449,6341.7876;-0.423032,0.61531925,9.537449,-0.5768618,1.2690959,9.114416,6341.7876;-0.423032,1.7305853,9.537449,0.30765963,1.7305853,9.883566,6341.7876;0.6537767,-0.07691491,11.460321,0.6537767,-0.07691491,11.460321,6375.3423;-1.0383513,-0.07691491,11.460321,-1.0383513,-0.38457453,10.883459,6375.3423;-1.0383513,1.4613832,9.80665,-0.6537767,1.4613832,9.80665,6375.3423;-1.0383513,0.38457453,7.037714,-0.38457453,0.38457453,7.037714,6375.3423;-1.0383513,0.38457453,9.075959,-1.0768087,-0.23074472,9.075959,6408.8965;0.0,0.38457453,13.806226,0.0,0.76914907,13.806226,6408.8965;0.0,0.38457453,10.652715,-0.19228727,-0.11537236,10.652715,6408.8965;0.0,0.38457453,9.422076,-0.07691491,0.30765963,9.422076,6442.451;0.0,-1.4613832,6.614682,-0.9229789,-1.4613832,6.614682,6442.451;-1.1921811,-1.4613832,9.422076,-1.1921811,-0.846064,9.422076,6442.451;-1.1921811,-0.26920217,9.422076,-0.76914907,-0.26920217,8.537555,6476.0054;-1.1921811,-0.26920217,9.422076,-0.38457453,-0.34611708,9.152874,6476.0054;0.26920217,-0.26920217,11.114204,0.26920217,0.69223416,11.114204,6476.0054;0.26920217,-1.3844683,7.114629,-0.15382981,-1.3844683,7.114629,6476.0054;0.26920217,0.6537767,7.114629,-0.23074472,0.6537767,7.7684054,6509.5596;-1.5382981,0.6537767,8.15298,-1.5382981,-0.07691491,8.15298,6509.5596;-1.5382981,0.6537767,11.229576,-1.9613302,0.38457453,11.229576,6509.5596;0.4999469,0.6537767,12.69096,0.4999469,1.2306385,12.69096,6543.1143;0.4999469,0.6537767,8.037608,0.30765963,0.07691491,8.037608,6543.1143;0.4999469,0.6537767,8.037608,-0.38457453,0.15382981,8.729842,6543.1143;-0.96143633,0.6537767,8.037608,-0.96143633,0.30765963,8.61447,6543.1143;-0.96143633,0.6537767,10.0373955,-1.2690959,1.2690959,10.0373955,6576.6685;0.6537767,0.6537767,11.344949,0.6537767,1.3075534,11.344949,6576.6685;-1.692128,-0.8076065,9.460533,-1.692128,-0.8076065,9.460533,6576.6685;-0.19228727,0.34611708,9.460533,-0.19228727,0.34611708,10.11431,6610.223;-0.19228727,0.34611708,6.691597,-0.34611708,0.0,6.691597,6610.223;-0.19228727,0.34611708,6.691597,-0.4999469,-0.038457453,6.883884,6610.223;-0.19228727,0.34611708,11.92181,0.76914907,0.15382981,11.92181,6643.7773;-0.19228727,0.34611708,11.92181,-0.4999469,0.30765963,11.152661,6643.7773;-0.19228727,0.34611708,9.883566,-0.423032,0.9998938,9.883566,6643.7773;-0.19228727,-1.0768087,6.537767,-0.26920217,-1.0768087,6.537767,6677.332;-0.19228727,-1.0768087,8.2683525,-1.1537236,-1.9613302,8.2683525,6677.332;0.8845214,-1.0768087,8.2683525,0.8845214,-0.11537236,8.691384,6677.332;-1.9228727,-1.0768087,8.2683525,-1.9228727,-0.38457453,8.537555,6677.332;-0.8076065,0.0,11.614151,-0.8076065,0.0,11.614151,6710.886;-0.8076065,0.0,10.11431,0.07691491,0.0,10.11431,6710.886;-0.8076065,0.0,7.153086,-1.3075534,-0.8845214,7.153086,6710.886;-0.8076065,0.0,7.153086,-0.96143633,0.038457453,7.729948,6744.441;-0.8076065,0.0,9.422076,-1.1537236,-0.11537236,9.422076,6744.441;-0.8076065,1.3460109,13.729311,-1.3844683,1.3460109,13.729311,6744.441;0.23074472,0.23074472,9.575906,0.23074472,0.23074472,9.575906,6744.441;0.23074472,0.23074472,9.575906,-0.30765963,-0.11537236,9.960481,6777.995;0.23074472,0.23074472,9.575906,-0.76914907,0.846064,8.845214,6777.995;-0.96143633,0.23074472,9.575906,-0.96143633,0.0,8.806757,6777.995;-0.96143633,0.23074472,10.883459,-0.46148944,0.61531925,10.883459,6811.55;0.69223416,0.23074472,10.883459,0.69223416,0.38457453,10.652715,6811.55;0.69223416,1.3460109,10.883459,-0.11537236,1.3460109,10.498885,6811.55;-1.3075534,1.3460109,9.460533,-1.3075534,0.46148944,9.460533,6845.104;-0.23074472,-0.96143633,5.5378733,-0.23074472,-0.96143633,5.5378733,6845.104;-0.23074472,0.53840435,12.114098,0.23074472,0.53840435,12.114098,6845.104;-0.23074472,-1.0768087,9.306704,-1.1537236,-1.0768087,9.306704,6845.104;-0.23074472,0.30765963,9.306704,-0.5768618,0.30765963,10.0373955,6878.6587;-0.23074472,0.30765963,9.306704,0.07691491,-0.423032,8.652927,6878.6587;-0.23074472,-1.0383513,6.806969,-0.61531925,-1.0383513,6.806969,6878.6587;-0.23074472,0.8076065,10.691172,-1.1537236,0.8076065,10.691172,6912.213;-0.23074472,-0.34611708,8.999044,-0.53840435,-0.34611708,8.999044,6912.213;-0.23074472,-0.34611708,8.999044,-0.26920217,0.30765963,9.845108,6912.213;-0.23074472,-0.34611708,12.152555,-1.2306385,-0.15382981,12.152555,6945.7676;-0.23074472,-1.4229257,6.9223413,-0.846064,-1.4229257,6.9223413,6945.7676;-0.23074472,0.96143633,9.037501,0.11537236,0.96143633,9.037501,6945.7676;-0.23074472,-0.11537236,9.037501,-0.9229789,-0.11537236,8.576012,6945.7676;-0.23074472,1.4229257,11.960268,-0.53840435,1.4229257,11.960268,6979.322;0.846064,0.15382981,10.498885,0.846064,0.15382981,10.498885,6979.322;0.846064,0.15382981,6.460852,0.69223416,0.07691491,6.460852,6979.322;-0.9998938,0.15382981,9.652821,-0.9998938,0.46148944,9.652821,7012.8765;-0.9998938,0.15382981,8.61447,-1.3075534,0.423032,8.61447,7012.8765;0.9998938,0.15382981,9.883566,0.9998938,0.07691491,9.883566,7012.8765;0.9998938,0.15382981,11.114204,1.3075534,0.34611708,11.114204,7012.8765;-0.8845214,0.15382981,10.0373955,-0.8845214,-0.61531925,10.0373955,7046.4307;-0.8845214,0.15382981,10.0373955,-0.69223416,0.38457453,9.960481,7046.4307;-0.8845214,0.15382981,6.114735,-0.038457453,-0.423032,6.114735,7046.4307;-0.8845214,0.15382981,10.537342,-0.26920217,0.26920217,10.537342,7079.9854;-0.8845214,-1.1921811,10.537342,-0.9998938,-1.1921811,10.960374,7079.9854;-0.8845214,-1.1921811,10.537342,-0.8845214,-0.23074472,10.075852,7079.9854;0.30765963,0.26920217,9.422076,0.30765963,0.26920217,9.422076,7113.5396;0.30765963,-0.8076065,6.9223413,-0.423032,-0.8076065,6.9223413,7113.5396;-1.2690959,-0.8076065,9.422076,-1.2690959,-0.423032,9.422076,7113.5396;-1.2690959,-0.8076065,9.422076,-0.38457453,0.11537236,9.114416,7113.5396;-1.2690959,-0.8076065,9.422076,-0.7306916,-0.46148944,10.229683,7147.094;-1.2690959,-0.8076065,11.383406,-0.846064,-1.1537236,11.383406,7147.094;-1.2690959,-0.8076065,7.3453736,-1.0383513,-0.9998938,7.3453736,7147.094;0.423032,0.423032,9.268247,0.423032,0.423032,9.268247,7180.6484;0.423032,0.423032,9.268247,-0.46148944,0.53840435,8.30681,7180.6484;-1.2306385,0.423032,10.921917,-1.2306385,0.5768618,10.921917,7180.6484;0.38457453,0.423032,10.921917,0.38457453,0.7306916,11.306491,7214.2026;0.38457453,0.423032,7.5376606,0.6537767,-0.15382981,7.5376606,7214.2026;0.38457453,0.423032,9.229789,0.34611708,0.46148944,9.229789,7214.2026;-0.8845214,0.423032,9.229789,-0.8845214,0.846064,8.729842,7214.2026;-0.8845214,0.423032,9.229789,0.0,0.8076065,8.922129,7247.7573;1.0383513,0.423032,11.383406,1.0383513,1.1921811,11.383406,7247.7573;1.0383513,0.423032,9.537449,0.19228727,-0.23074472,9.537449,7247.7573;-1.1152661,0.423032,9.537449,-1.1152661,0.423032,10.229683,7281.3115;0.15382981,0.423032,6.537767,0.15382981,0.038457453,6.537767,7281.3115;-0.9229789,0.423032,8.61447,-0.9229789,0.0,8.61447,7281.3115;0.76914907,0.423032,12.729417,0.76914907,0.15382981,12.729417,7314.866;0.76914907,0.423032,10.7296295,-0.07691491,0.26920217,10.7296295,7314.866;0.76914907,0.423032,10.7296295,0.19228727,0.19228727,10.0373955,7314.866;0.76914907,-1.0768087,7.306916,-0.15382981,-1.0768087,7.306916,7314.866;-0.69223416,-1.0768087,7.306916,-0.69223416,-1.5382981,8.076065,7348.4204;-0.69223416,0.19228727,9.768193,0.07691491,0.19228727,9.768193,7348.4204;-0.69223416,0.19228727,9.768193,-0.46148944,-0.423032,8.845214,7348.4204;-0.69223416,0.19228727,11.729524,0.038457453,0.07691491,11.729524,7381.975;0.38457453,-1.0383513,8.191438,0.38457453,-1.0383513,8.191438,7381.975;0.38457453,0.69223416,6.9992566,-0.53840435,0.69223416,6.9992566,7381.975;0.38457453,0.69223416,8.2683525,-0.19228727,0.8845214,8.2683525,7415.5293;-0.846064,0.69223416,8.2683525,-0.846064,0.6537767,9.037501,7415.5293;-0.846064,0.69223416,13.460109,-0.846064,1.4229257,13.460109,7415.5293;-0.846064,0.69223416,8.729842,0.11537236,0.19228727,8.729842,7415.5293;-0.846064,0.69223416,8.729842,-0.15382981,1.0383513,9.268247,7449.084;-0.846064,0.69223416,8.729842,-1.1152661,0.038457453,9.191331,7449.084;-0.846064,0.69223416,8.729842,-0.423032,1.4998407,9.152874,7449.084;0.423032,0.69223416,12.460215,0.423032,1.0383513,12.460215,7482.638;0.423032,-0.9229789,11.268034,0.69223416,-0.9229789,11.268034,7482.638;-1.4613832,0.8076065,11.268034,-1.4613832,0.8076065,10.3835125,7482.638;-1.4613832,0.8076065,8.2683525,-0.8076065,0.7306916,8.2683525,7482.638;0.07691491,-0.61531925,6.307022,0.07691491,-0.61531925,6.307022,7516.193;0.07691491,0.46148944,12.652502,-0.038457453,0.46148944,12.652502,7516.193;-1.3460109,-1.2690959,9.383618,-1.3460109,-1.2690959,9.383618,7516.193;-1.3460109,0.61531925,9.383618,-0.34611708,0.61531925,10.0373955,7549.747;0.0,-0.6537767,6.883884,0.0,-0.6537767,6.883884,7549.747;0.0,-0.6537767,6.883884,-0.5768618,-1.615213,6.460852,7549.747;-1.4229257,0.46148944,11.383406,-1.4229257,0.46148944,11.383406,7583.302;-1.4229257,0.46148944,8.537555,-1.2690959,0.15382981,8.537555,7583.302;0.6537767,0.46148944,10.460427,0.6537767,-0.038457453,10.460427,7583.302;0.6537767,0.46148944,10.460427,0.69223416,0.61531925,11.037289,7583.302;-0.38457453,0.46148944,6.460852,-0.38457453,-0.34611708,6.460852,7616.856;-0.38457453,0.46148944,9.422076,-0.61531925,0.61531925,9.422076,7616.856;-0.38457453,0.46148944,9.422076,-1.3844683,0.0,8.806757,7616.856;-0.38457453,0.46148944,13.229364,-1.0768087,1.2690959,13.229364,7650.4106;-0.38457453,0.46148944,11.114204,0.11537236,1.3844683,11.114204,7650.4106;-0.38457453,0.46148944,7.960693,0.23074472,0.53840435,7.960693,7650.4106;-0.38457453,0.46148944,9.691278,-0.423032,0.6537767,9.691278,7683.965;-2.11516,0.46148944,9.691278,-2.11516,0.69223416,9.498991,7683.965;0.11537236,0.46148944,9.691278,0.11537236,0.38457453,9.998938,7683.965;1.1921811,0.46148944,9.691278,1.1921811,0.4999469,10.460427,7683.965;-0.038457453,0.46148944,9.691278,-0.038457453,-0.07691491,8.960587,7717.5195;-0.038457453,0.46148944,9.691278,-0.23074472,1.1152661,9.422076,7717.5195;-0.038457453,-0.8076065,4.4610643,0.53840435,-0.8076065,4.4610643,7717.5195;-0.038457453,-0.8076065,11.344949,-0.038457453,0.07691491,11.344949,7751.0737;-0.038457453,-0.8076065,11.344949,-0.23074472,-0.8845214,11.075747,7751.0737;-1.4613832,-0.8076065,10.306598,-1.4613832,-0.4999469,10.306598,7751.0737;0.8076065,-0.8076065,8.768299,0.8076065,-0.6537767,8.768299,7784.6284;-0.61531925,-0.8076065,6.4223948,-0.61531925,-0.11537236,6.4223948,7784.6284;-0.61531925,0.26920217,10.537342,-1.4998407,0.26920217,10.537342,7784.6284;-0.61531925,0.26920217,10.537342,-1.0768087,0.26920217,9.80665,7784.6284;-0.61531925,0.26920217,9.075959,-1.0383513,-0.26920217,9.075959,7818.1826;-0.61531925,0.26920217,13.383194,-0.07691491,0.9229789,13.383194,7818.1826;-0.61531925,-1.4613832,6.0762777,-1.4229257,-1.4613832,6.0762777,7818.1826;-0.61531925,1.0768087,9.383618,0.19228727,1.0768087,9.383618,7851.7373;-0.61531925,1.0768087,9.383618,-0.53840435,1.4229257,8.61447,7851.7373;-0.61531925,1.0768087,12.4986725,-1.4998407,0.61531925,12.4986725,7851.7373;0.423032,1.0768087,12.4986725,0.423032,0.9229789,12.421758,7885.2915;0.423032,-0.15382981,6.9223413,0.30765963,-0.15382981,6.9223413,7885.2915;0.423032,-0.15382981,9.729735,-0.15382981,0.46148944,9.729735,7885.2915;-0.9229789,-0.15382981,8.229895,-0.9229789,0.5768618,8.229895,7885.2915;0.11537236,-0.15382981,8.229895,0.11537236,-0.38457453,8.729842,7918.846;0.11537236,-0.15382981,11.383406,0.9998938,0.7306916,11.383406,7918.846;-1.8844151,-0.15382981,11.383406,-1.8844151,-0.96143633,10.3835125,7918.846;-0.5768618,-0.15382981,10.152767,-0.5768618,0.30765963,10.152767,7952.4004;0.8845214,-0.15382981,6.5762243,0.8845214,0.53840435,6.5762243,7952.4004;-0.9229789,-0.15382981,9.498991,-0.9229789,-0.30765963,9.498991,7952.4004;-0.9229789,-0.15382981,11.998726,-0.15382981,0.7306916,11.998726,7985.9546;-0.9229789,-0.15382981,9.537449,-0.6537767,0.53840435,9.537449,7985.9546;-0.9229789,-0.15382981,9.537449,-0.8076065,0.11537236,8.652927,7985.9546;-0.9229789,-0.15382981,7.9991503,-0.69223416,-0.7306916,7.9991503,7985.9546;-0.9229789,-1.7690428,7.9991503,-0.96143633,-1.7690428,8.191438,8019.5093;-0.9229789,0.34611708,9.460533,-1.4998407,0.34611708,9.460533,8019.5093;-0.9229789,0.34611708,9.460533,-0.4999469,-0.038457453,9.306704,8019.5093;-0.9229789,0.34611708,11.383406,-0.8845214,-0.038457453,11.383406,8053.0635;-0.9229789,-1.1537236,6.4223948,-0.7306916,-1.1537236,6.4223948,8053.0635;-0.9229789,-1.1537236,7.499203,-0.4999469,-0.23074472,7.499203,8053.0635;-0.9229789,0.38457453,7.499203,-0.846064,0.38457453,8.383725,8053.0635;-0.9229789,0.38457453,10.075852,-0.15382981,-0.30765963,10.075852,8086.618;0.96143633,0.38457453,11.92181,0.96143633,0.7306916,11.92181,8086.618;0.96143633,0.38457453,8.883672,0.11537236,0.46148944,8.883672,8086.618;0.96143633,0.38457453,8.883672,0.30765963,0.7306916,9.229789,8120.1724;-0.8845214,0.38457453,8.883672,-0.8845214,0.23074472,8.345267,8120.1724;-2.2689898,0.38457453,8.883672,-2.2689898,0.846064,8.768299,8120.1724;0.846064,1.692128,12.69096,0.846064,1.692128,12.69096,8153.727;-0.9229789,-0.46148944,9.691278,-0.9229789,-0.46148944,9.691278,8153.727;-0.9229789,1.3844683,10.806544,-1.2690959,1.3844683,10.806544,8153.727;0.15382981,1.3844683,7.9991503,0.15382981,0.76914907,7.9991503,8153.727;0.15382981,-0.30765963,7.9991503,-0.53840435,-0.30765963,7.383831,8187.2813;0.15382981,-0.30765963,12.614044,0.26920217,0.19228727,12.614044,8187.2813;-0.96143633,-0.30765963,10.075852,-0.96143633,0.0,10.075852,8187.2813;-0.96143633,-0.30765963,10.075852,-0.53840435,0.30765963,10.460427,8220.836;0.19228727,-0.30765963,7.4222884,0.19228727,-0.6537767,7.4222884,8220.836;0.19228727,-1.7305853,7.4222884,-0.61531925,-1.7305853,7.9222355,8220.836;0.19228727,-0.34611708,9.652821,-0.6537767,-0.34611708,9.652821,8254.391;0.19228727,-0.34611708,8.61447,-0.76914907,-0.07691491,8.61447,8254.391;0.19228727,-0.34611708,11.306491,-0.7306916,-0.6537767,11.306491,8254.391;0.19228727,0.7306916,9.268247,0.23074472,0.7306916,9.268247,8254.391;-1.4998407,-0.46148944,7.5376606,-1.4998407,-0.46148944,7.5376606,8287.944;-0.19228727,0.76914907,9.922023,-0.19228727,0.76914907,9.922023,8287.944;-1.8844151,-0.423032,8.61447,-1.8844151,-0.423032,8.61447,8287.944;-0.46148944,2.3843622,13.652396,-0.46148944,2.3843622,13.652396,8321.499;0.9998938,-0.038457453,9.883566,0.9998938,-0.038457453,9.883566,8321.499;-0.76914907,-0.038457453,8.422182,-0.76914907,0.8845214,8.422182,8321.499;-0.76914907,-0.038457453,8.422182,-0.9229789,0.38457453,9.037501,8355.054;-0.76914907,-0.038457453,8.422182,-1.1921811,0.8076065,8.537555,8355.054;-0.76914907,-0.038457453,11.652608,-0.19228727,-0.07691491,11.652608,8355.054;1.3844683,-0.038457453,10.11431,1.3844683,-0.30765963,10.11431,8355.054;-0.61531925,-0.038457453,10.11431,-0.61531925,-0.11537236,9.922023,8388.608;-0.61531925,1.3075534,10.11431,-0.6537767,1.3075534,9.345161,8388.608;-0.61531925,-1.4613832,6.0762777,0.0,-1.4613832,6.0762777,8388.608;-0.61531925,0.07691491,12.3833,0.11537236,0.07691491,12.3833,8422.162;-0.61531925,-1.2690959,9.614364,0.38457453,-1.2690959,9.614364,8422.162;-0.61531925,-1.2690959,9.614364,-1.3075534,-0.30765963,9.152874,8422.162;0.96143633,0.038457453,9.614364,0.96143633,0.038457453,8.652927,8455.717;-0.61531925,-0.9998938,6.0762777,-0.61531925,-0.9998938,6.0762777,8455.717;-0.61531925,0.19228727,10.306598,-0.96143633,0.19228727,10.306598,8455.717;-0.61531925,0.19228727,8.191438,-0.38457453,-0.23074472,8.191438,8455.717;-0.61531925,0.19228727,10.691172,0.0,-0.19228727,10.691172,8489.271;-0.61531925,0.19228727,11.844895,-0.46148944,0.5768618,11.844895,8489.271;-0.61531925,0.19228727,5.5378733,-1.0768087,-0.61531925,5.5378733,8489.271;0.53840435,0.19228727,9.614364,0.53840435,0.15382981,9.614364,8522.826;-1.1537236,0.19228727,9.614364,-1.1537236,0.34611708,9.037501,8522.826;-1.1537236,0.19228727,12.152555,-1.5767555,1.1152661,12.152555,8522.826;0.26920217,1.3844683,12.152555,0.26920217,1.3844683,11.614151,8522.826;0.26920217,-0.8076065,6.307022,-0.4999469,-0.8076065,6.307022,8556.38;-0.96143633,-0.8076065,9.845108,-0.96143633,-0.07691491,9.845108,8556.38;-0.96143633,0.9998938,7.9991503,-0.8845214,0.9998938,7.9991503,8556.38;0.26920217,-0.11537236,10.152767,0.26920217,-0.11537236,10.152767,8589.935;1.4229257,-0.11537236,12.3833,1.4229257,0.53840435,12.3833,8589.935;-0.26920217,-0.11537236,9.191331,-0.26920217,0.38457453,9.191331,8589.935;-0.26920217,1.2306385,9.191331,-0.19228727,1.2306385,9.614364,8623.489;-0.26920217,-1.3075534,4.345692,0.0,-1.3075534,4.345692,8623.489;-0.26920217,-1.3075534,8.691384,0.0,-0.7306916,8.691384,8623.489;-0.26920217,0.19228727,12.421758,-0.53840435,0.19228727,12.421758,8623.489;-0.26920217,0.19228727,9.306704,-0.846064,0.4999469,9.306704,8657.043;-1.8075004,0.19228727,9.306704,-1.8075004,-0.26920217,9.652821,8657.043;-0.53840435,-1.0768087,7.037714,-0.53840435,-1.0768087,7.037714,8657.043;-0.53840435,-1.0768087,9.075959,-0.5768618,-0.38457453,9.075959,8690.598;-0.53840435,0.53840435,10.191225,-0.8845214,0.53840435,10.191225,8690.598;-0.53840435,0.53840435,10.191225,-0.846064,-0.23074472,9.575906,8690.598;-0.53840435,0.53840435,12.960162,-0.38457453,0.30765963,12.960162,8724.152;-0.53840435,-0.8076065,7.6530333,-1.0383513,-0.8076065,7.6530333,8724.152;-0.53840435,-0.8076065,7.6530333,-0.69223416,0.038457453,7.6530333,8724.152;-0.53840435,0.38457453,8.999044,-1.1152661,0.38457453,8.999044,8724.152;-0.53840435,0.38457453,8.999044,-1.2306385,-0.19228727,9.306704,8757.707;0.96143633,0.38457453,12.114098,0.96143633,1.0383513,12.114098,8757.707;0.96143633,0.38457453,7.614576,0.846064,-0.15382981,7.614576,8757.707;0.96143633,0.38457453,9.383618,0.9998938,0.26920217,9.383618,8791.261;-1.1537236,0.38457453,9.383618,-1.1537236,0.53840435,8.768299,8791.261;-1.1537236,0.38457453,6.691597,-0.5768618,0.11537236,6.691597,8791.261;1.1921811,0.38457453,12.421758,1.1921811,1.1152661,12.421758,8824.815;-0.4999469,0.38457453,9.614364,-0.4999469,-0.46148944,9.614364,8824.815;-0.4999469,0.38457453,9.614364,-1.2306385,0.69223416,10.229683,8824.815;0.9229789,0.38457453,9.614364,0.9229789,0.26920217,9.152874,8824.815;-0.6537767,-0.9229789,7.0761714,-0.6537767,-0.9229789,7.0761714,8858.37;-0.6537767,-0.9229789,12.152555,0.0,-0.38457453,12.152555,8858.37;-1.9613302,-0.9229789,9.575906,-1.9613302,-0.423032,9.575906,8858.37;-0.4999469,-0.9229789,10.883459,-0.4999469,-0.23074472,10.883459,8891.925;-0.4999469,-0.9229789,8.922129,-0.7306916,-1.0768087,8.922129,8891.925;-0.4999469,-0.9229789,7.037714,-1.1152661,-0.61531925,7.037714,8891.925;0.76914907,0.11537236,10.11431,0.76914907,0.11537236,10.11431,8925.479;-0.76914907,0.11537236,10.11431,-0.76914907,-0.61531925,9.152874,8925.479;-0.76914907,0.11537236,12.421758,-0.23074472,0.846064,12.421758,8925.479;-0.76914907,0.11537236,9.460533,0.19228727,0.0,9.460533,8925.479;-0.76914907,0.11537236,6.34548,-0.46148944,0.19228727,6.34548,8959.033;-0.76914907,0.11537236,9.575906,-0.9229789,-0.423032,9.575906,8959.033;-0.76914907,0.11537236,9.575906,-0.53840435,0.5768618,9.306704,8959.033;1.1921811,0.11537236,12.22947,1.1921811,0.846064,12.22947,8992.588;1.1921811,0.11537236,7.6530333,0.30765963,-0.34611708,7.6530333,8992.588;-1.1921811,0.11537236,9.229789,-1.1921811,0.30765963,9.229789,8992.588;-1.1921811,1.1921811,9.229789,-0.846064,1.1921811,9.498991,9026.143;-1.1921811,0.0,6.806969,-1.9228727,0.0,6.806969,9026.143;0.38457453,0.0,11.421864,0.38457453,0.61531925,11.421864,9026.143;0.38457453,0.0,11.421864,0.7306916,-0.5768618,11.383406,9026.143;0.38457453,1.0768087,11.421864,0.0,1.0768087,10.691172,9059.696;-0.8845214,1.0768087,9.345161,-0.8845214,0.846064,9.345161,9059.696;-0.8845214,-1.1921811,5.7301607,-0.96143633,-1.1921811,5.7301607,9059.696;0.9998938,0.11537236,11.883353,0.9998938,0.11537236,11.883353,9093.251;-0.61531925,0.11537236,10.0373955,-0.61531925,0.46148944,10.0373955,9093.251;0.61531925,-1.0383513,8.999044,0.61531925,-1.0383513,8.999044,9093.251;-0.7306916,-1.0383513,7.0761714,-0.7306916,-1.3075534,7.0761714,9126.806;-0.7306916,0.30765963,9.460533,-0.9229789,0.30765963,9.460533,9126.806;-0.7306916,0.30765963,9.460533,-1.1152661,-0.23074472,8.537555,9126.806;-2.6535642,0.30765963,9.460533,-2.6535642,0.11537236,9.422076,9160.36;0.38457453,0.30765963,11.998726,0.38457453,0.7306916,11.998726,9160.36;-0.9229789,0.30765963,7.460746,-0.9229789,-0.23074472,7.460746,9160.36;0.38457453,0.30765963,9.614364,0.38457453,0.69223416,9.614364,9193.914;-1.1537236,0.30765963,9.614364,-1.1537236,0.07691491,9.075959,9193.914;-1.1537236,1.692128,11.575693,-0.19228727,1.692128,11.575693,9193.914;0.9998938,1.692128,11.575693,0.9998938,0.8076065,11.344949,9193.914;-0.61531925,-0.53840435,7.1915436,-0.61531925,-0.53840435,7.1915436,9227.469;-0.61531925,1.1152661,9.922023,-0.61531925,1.1152661,9.922023,9227.469;0.423032,1.1152661,7.8453207,0.423032,0.53840435,7.8453207,9227.469;0.423032,1.1152661,9.037501,0.19228727,0.4999469,9.037501,9261.023;0.423032,-0.26920217,11.652608,1.1152661,-0.26920217,11.652608,9261.023;-0.69223416,0.76914907,8.999044,-0.69223416,0.76914907,8.999044,9294.578;-0.69223416,-0.69223416,4.9610114,0.23074472,-0.69223416,4.9610114,9294.578;-0.69223416,-0.69223416,9.075959,-0.96143633,-1.3075534,9.075959,9294.578;-0.69223416,0.4999469,10.7296295,-0.07691491,0.4999469,10.7296295,9294.578;-0.69223416,0.4999469,9.460533,-0.5768618,-0.11537236,9.460533,9328.132;-0.69223416,0.4999469,10.998832,0.11537236,0.38457453,10.998832,9328.132;-0.69223416,-1.7305853,6.7300544,-0.38457453,-1.7305853,6.7300544,9328.132;-0.69223416,-0.038457453,9.537449,-1.2690959,-0.038457453,9.537449,9361.687;-0.69223416,-0.038457453,9.537449,-0.11537236,0.30765963,8.883672,9361.687;-0.69223416,-0.038457453,9.537449,-0.4999469,0.34611708,10.11431,9361.687;-0.69223416,-0.038457453,13.190907,0.0,0.76914907,13.190907,9395.241;-0.69223416,-0.038457453,6.806969,-0.34611708,-0.8845214,6.806969,9395.241;0.61531925,-0.038457453,10.421969,0.61531925,0.76914907,10.421969,9395.241;-0.6537767,-0.038457453,8.383725,-0.6537767,-0.15382981,8.383725,9395.241;-2.1920748,-0.038457453,8.383725,-2.1920748,0.26920217,9.345161,9428.795;-0.423032,1.1537236,12.037183,-0.423032,1.1537236,12.037183,9428.795;-0.423032,-0.7306916,6.768512,0.26920217,-0.7306916,6.768512,9428.795;-0.423032,-0.7306916,9.729735,-0.46148944,-0.23074472,9.729735,9462.35;-0.423032,1.4229257,9.729735,-0.4999469,1.4229257,9.191331,9462.35;-0.423032,1.4229257,9.729735,-0.23074472,0.8076065,9.306704,9462.35;1.2306385,1.4229257,12.421758,1.2306385,0.9998938,12.421758,9495.904;-1.1921811,-0.9998938,9.075959,-1.1921811,-0.9998938,9.075959,9495.904;-1.1921811,0.53840435,10.191225,-0.96143633,0.53840435,10.191225,9495.904;-1.1921811,0.53840435,7.729948,-0.26920217,-0.38457453,7.729948,9495.904;0.15382981,0.53840435,7.729948,0.15382981,-0.038457453,8.576012,9529.459;0.15382981,-0.61531925,11.498778,0.423032,-0.61531925,11.498778,9529.459;0.15382981,-0.61531925,9.614364,-0.4999469,0.34611708,9.614364,9529.459;-1.0383513,-0.61531925,9.614364,-1.0383513,0.11537236,8.960587,9563.013;-1.0383513,-0.61531925,6.6531396,-1.3844683,-1.3075534,6.6531396,9563.013;-1.0383513,-0.61531925,8.30681,-0.846064,-1.5767555,8.30681,9563.013;-1.0383513,-0.61531925,8.30681,-0.4999469,0.30765963,9.268247,9563.013;-1.0383513,0.61531925,8.30681,-0.8845214,0.61531925,9.268247,9596.567;0.26920217,0.61531925,12.344843,0.26920217,0.53840435,12.344843,9596.567;0.26920217,-0.4999469,7.883778,-0.5768618,-0.4999469,7.883778,9596.567;0.26920217,-0.4999469,7.883778,-0.7306916,-0.23074472,7.9991503,9630.122;-1.1152661,0.96143633,7.883778,-1.1152661,0.96143633,8.768299,9630.122;-2.3843622,-0.07691491,7.883778,-2.3843622,-0.07691491,8.61447,9630.122;0.26920217,1.6536705,12.960162,0.26920217,1.6536705,12.960162,9663.677;-0.846064,-0.26920217,7.383831,-0.846064,-0.26920217,7.383831,9663.677;-0.846064,-0.26920217,9.537449,-0.07691491,0.07691491,9.537449,9663.677;-0.846064,-0.26920217,9.537449,-1.1152661,0.23074472,8.652927,9663.677;-2.0767026,1.5767555,9.537449,-2.0767026,1.5767555,10.306598,9697.23;1.3075534,1.5767555,11.537236,1.3075534,1.2306385,11.537236,9697.23;0.11537236,0.07691491,9.268247,0.11537236,0.07691491,9.268247,9697.23;0.11537236,0.07691491,10.614257,-0.8076065,0.15382981,10.614257,9730.785;0.11537236,0.07691491,8.999044,0.11537236,-0.07691491,8.999044,9730.785;0.11537236,0.07691491,6.5762243,-0.19228727,-0.61531925,6.5762243,9730.785;1.1921811,0.07691491,11.498778,1.1921811,0.038457453,11.498778,9764.34;-0.96143633,0.07691491,9.498991,-0.96143633,0.5768618,9.498991,9764.34;0.07691491,0.07691491,9.498991,0.07691491,0.6537767,10.26814,9764.34;0.07691491,-1.3460109,6.0762777,-0.846064,-1.3460109,6.0762777,9764.34;-1.3460109,-1.3460109,8.576012,-1.3460109,-1.4229257,8.576012,9797.895;0.46148944,0.11537236,10.691172,0.46148944,0.11537236,10.691172,9797.895;-1.3075534,0.11537236,9.037501,-1.3075534,-0.4999469,9.037501,9797.895;0.07691491,1.4229257,11.191119,0.07691491,1.4229257,11.191119,9831.448;0.07691491,-0.11537236,11.191119,-0.15382981,-0.11537236,10.26814,9831.448;-1.9228727,-0.11537236,8.422182,-1.9228727,-0.4999469,8.422182,9831.448;-0.53840435,1.5382981,9.652821,-0.53840435,1.5382981,9.652821,9865.003;-0.53840435,-0.69223416,9.652821,-0.8845214,-0.69223416,9.268247,9865.003;-0.53840435,1.4229257,13.613938,-0.23074472,1.4229257,13.613938,9865.003;-0.53840435,0.30765963,8.537555,0.423032,0.30765963,8.537555,9865.003;-0.53840435,0.30765963,7.0761714,0.19228727,0.8845214,7.0761714,9898.558;-0.53840435,0.30765963,8.768299,-0.76914907,0.76914907,8.768299,9898.558;-0.53840435,0.30765963,8.768299,-1.1537236,0.07691491,8.883672,9898.558;-0.53840435,0.30765963,11.652608,0.46148944,0.6537767,11.652608,9932.112;-0.53840435,0.30765963,8.652927,0.23074472,0.07691491,8.652927,9932.112;-0.53840435,0.30765963,10.614257,-0.30765963,1.0383513,10.614257,9932.112;-0.53840435,0.30765963,9.345161,-0.846064,0.5768618,9.345161,9965.666;-0.53840435,0.30765963,6.19165,-0.76914907,-0.15382981,6.19165,9965.666;-0.53840435,0.30765963,12.306385,0.11537236,0.11537236,12.306385,9965.666;-0.53840435,-1.0383513,9.960481,-0.19228727,-1.0383513,9.960481,9965.666;-0.53840435,0.6537767,9.960481,-0.69223416,0.6537767,10.075852,9999.221;1.0383513,0.6537767,9.960481,1.0383513,-0.34611708,9.037501,9999.221;-0.423032,-0.6537767,6.0762777,-0.423032,-0.6537767,6.0762777,9999.221;-0.423032,-0.6537767,12.767875,-0.846064,0.11537236,12.767875,10032.775;-0.423032,-0.6537767,7.9222355,-0.6537767,0.19228727,7.9222355,10032.775;-0.423032,-0.6537767,10.3835125,-0.15382981,0.26920217,10.3835125,10032.775;-0.423032,-0.6537767,9.075959,-0.96143633,-0.96143633,9.075959,10032.775;-0.423032,-0.6537767,6.6531396,-1.0768087,-0.9998938,6.6531396,10066.33;-0.423032,-0.6537767,9.960481,0.30765963,0.0,9.960481,10066.33;-0.423032,-0.6537767,8.345267,-1.2690959,0.23074472,8.345267,10066.33;-0.423032,0.96143633,11.460321,-0.96143633,0.96143633,11.460321,10099.884;-0.423032,0.96143633,9.998938,0.07691491,0.19228727,9.998938,10099.884;-0.423032,0.96143633,7.383831,-0.8076065,1.1152661,7.383831,10099.884;-0.423032,0.96143633,9.575906,-0.9229789,0.26920217,9.575906,10133.438;-0.423032,0.96143633,9.575906,-1.2690959,0.038457453,8.845214,10133.438;-0.423032,0.96143633,12.652502,-0.07691491,1.3075534,12.652502,10133.438;0.61531925,-0.07691491,9.845108,0.61531925,-0.07691491,9.845108,10133.438;-0.6537767,-0.07691491,9.845108,-0.6537767,-0.46148944,9.845108,10166.993;-0.6537767,-0.07691491,9.845108,-0.76914907,0.846064,9.383618,10166.993;-2.5381918,-0.07691491,6.7300544,-2.5381918,-0.11537236,6.7300544,10166.993;0.7306916,-0.07691491,11.498778,0.7306916,-0.038457453,11.498778,10200.547;0.7306916,-0.07691491,9.960481,0.423032,-0.23074472,9.960481,10200.547;-0.76914907,-0.07691491,9.960481,-0.76914907,-0.69223416,9.691278,10200.547;0.76914907,-0.07691491,9.960481,0.76914907,0.69223416,9.691278,10234.102;-0.8076065,-1.9997876,4.9610114,-0.8076065,-1.9997876,4.9610114,10234.102;-0.8076065,0.15382981,11.537236,0.07691491,0.15382981,11.537236,10234.102;-0.8076065,0.15382981,8.383725,-0.038457453,-0.423032,8.383725,10234.102;-0.8076065,0.15382981,9.845108,-0.69223416,-0.15382981,9.845108,10267.656;0.46148944,-0.9998938,9.845108,0.46148944,-0.9998938,8.845214,10267.656;-1.2690959,-0.9998938,7.383831,-1.2690959,-0.8845214,7.383831,10267.656;-1.2690959,1.0768087,10.345055,-0.53840435,1.0768087,10.345055,10301.211;-1.2690959,1.0768087,8.499097,-1.1537236,0.34611708,8.499097,10301.211;-1.2690959,-0.8845214,10.345055,-0.4999469,-0.8845214,10.345055,10301.211;0.26920217,0.8845214,10.345055,0.26920217,0.8845214,10.883459,10334.765;-1.4229257,-1.4613832,6.2685647,-1.4229257,-1.4613832,6.2685647,10334.765;-1.4229257,0.34611708,9.460533,-0.8845214,0.34611708,9.460533,10334.765;-1.4229257,0.34611708,9.460533,-0.61531925,0.26920217,9.498991,10334.765;-1.4229257,0.34611708,12.3833,-0.53840435,1.0768087,12.3833,10368.319;1.3844683,0.34611708,10.11431,1.3844683,0.846064,10.11431,10368.319;1.3844683,0.34611708,8.960587,0.53840435,0.4999469,8.960587,10368.319;-0.07691491,0.34611708,8.960587,-0.07691491,0.846064,9.768193,10401.874;-0.07691491,0.34611708,7.729948,-0.6537767,0.6537767,7.729948,10401.874;-0.07691491,0.34611708,9.80665,-0.26920217,-0.38457453,9.80665,10401.874;0.9998938,0.34611708,8.61447,0.9998938,0.11537236,8.61447,10435.429;0.9998938,0.34611708,10.921917,0.15382981,0.69223416,10.921917,10435.429;-0.96143633,0.34611708,9.191331,-0.96143633,0.4999469,9.191331,10435.429;-0.96143633,-0.7306916,5.037926,-0.15382981,-0.7306916,5.037926,10435.429;0.61531925,-0.7306916,10.537342,0.61531925,-0.7306916,10.537342,10468.982;0.61531925,-0.7306916,9.345161,-0.34611708,-0.76914907,9.345161,10468.982;-0.76914907,0.46148944,9.345161,-0.76914907,0.46148944,9.960481,10468.982;0.8845214,0.46148944,9.345161,0.8845214,0.30765963,9.460533,10502.537;-0.76914907,-0.9229789,7.4222884,-0.76914907,-0.9229789,7.4222884,10502.537;-0.76914907,0.15382981,11.306491,-0.76914907,0.15382981,11.306491,10502.537;-0.76914907,-0.9229789,6.883884,-1.4613832,-0.9229789,6.883884,10536.092;-0.76914907,-0.9229789,10.345055,-1.0383513,-0.11537236,10.345055,10536.092;-0.76914907,-0.9229789,10.345055,-0.8845214,0.038457453,11.114204,10536.092;-0.76914907,-0.9229789,6.2685647,-0.76914907,-1.3075534,6.2685647,10536.092;-0.76914907,-0.9229789,9.691278,-0.61531925,-0.26920217,9.691278,10569.646;-0.76914907,0.11537236,7.960693,-1.2690959,0.11537236,7.960693,10569.646;-0.76914907,0.11537236,10.998832,-1.1921811,0.69223416,10.998832,10569.646;0.8845214,0.11537236,10.998832,0.8845214,0.4999469,11.152661,10603.2;-0.61531925,0.11537236,6.3839374,-0.61531925,-0.61531925,6.3839374,10603.2;-0.61531925,0.11537236,9.960481,-1.5382981,0.61531925,9.960481,10603.2;-0.61531925,0.11537236,8.537555,-0.96143633,0.6537767,8.537555,10603.2;0.8845214,1.3844683,9.575906,0.8845214,1.3844683,9.575906,10636.755;0.8845214,1.3844683,12.22947,1.5767555,0.8076065,12.22947,10636.755;0.8845214,-0.38457453,10.11431,0.30765963,-0.38457453,10.11431,10636.755;-0.61531925,0.9229789,10.11431,-0.61531925,0.9229789,9.575906,10670.31;-0.61531925,-0.5768618,6.34548,-1.4613832,-0.5768618,6.34548,10670.31;-0.61531925,-0.5768618,8.191438,-0.7306916,-0.38457453,8.191438,10670.31;-0.61531925,-0.5768618,11.229576,-0.38457453,-0.11537236,11.229576,10703.864;-0.61531925,0.96143633,10.152767,0.34611708,0.96143633,10.152767,10703.864;-0.61531925,-0.07691491,10.152767,-1.4998407,-0.07691491,9.729735,10703.864;-0.61531925,-1.2306385,6.2301073,-1.4613832,-1.2306385,6.2301073,10703.864;-0.61531925,-1.2306385,9.998938,-0.61531925,-0.8845214,9.998938,10737.418;-0.61531925,-0.07691491,8.883672,-0.07691491,-0.07691491,8.883672,10737.418;-0.61531925,-0.07691491,8.883672,-0.8076065,0.23074472,9.845108,10737.418;-0.61531925,-0.07691491,11.498778,0.30765963,0.23074472,11.498778,10770.973;-0.61531925,-0.07691491,6.691597,0.11537236,-0.69223416,6.691597,10770.973;-0.61531925,-0.07691491,9.345161,0.26920217,-0.38457453,9.345161,10770.973;-1.692128,-0.07691491,9.345161,-1.692128,0.038457453,8.691384,10804.527;-1.692128,-0.07691491,10.691172,-1.4998407,0.26920217,10.691172,10804.527;0.07691491,1.615213,12.537129,0.07691491,1.615213,12.537129,10804.527;-0.9998938,-0.8076065,7.4222884,-0.9998938,-0.8076065,7.4222884,10804.527;0.7306916,-0.8076065,7.4222884,0.7306916,-0.30765963,6.6531396,10838.081;-0.8076065,0.46148944,8.46064,-0.8076065,0.46148944,8.46064,10838.081;-0.8076065,1.615213,11.152661,-1.2306385,1.615213,11.152661,10838.081;1.2690959,1.615213,11.152661,1.2690959,1.1921811,11.268034,10871.636;1.2690959,0.11537236,8.883672,0.61531925,0.11537236,8.883672,10871.636;0.07691491,0.11537236,10.5758,0.07691491,0.38457453,10.5758,10871.636;0.07691491,0.11537236,7.5761185,-0.4999469,0.46148944,7.5761185,10905.19;0.07691491,-0.9998938,7.5761185,-0.26920217,-0.9998938,7.9991503,10905.19;1.3075534,0.53840435,12.037183,1.3075534,0.53840435,12.037183,10905.19;-0.96143633,0.53840435,12.037183,-0.96143633,-0.30765963,12.191012,10905.19;-0.96143633,0.53840435,9.768193,-1.1152661,1.0768087,9.768193,10938.745;0.46148944,-1.0383513,5.0763836,0.46148944,-1.0383513,5.0763836,10938.745;-1.0383513,-1.0383513,9.883566,-1.0383513,-0.8845214,9.883566,10938.745;0.11537236,0.34611708,9.883566,0.11537236,0.34611708,10.614257,10972.299;0.11537236,-0.8076065,9.883566,-0.8076065,-0.8076065,9.537449,10972.299;0.11537236,-0.8076065,11.037289,0.8076065,-0.15382981,11.037289,10972.299;0.11537236,-0.8076065,7.9222355,-0.19228727,-0.34611708,7.9222355,11005.854;0.11537236,-0.8076065,7.9222355,-0.8845214,-1.692128,8.15298,11005.854;-1.1152661,-0.8076065,6.614682,-1.1152661,-0.4999469,6.614682,11005.854;0.15382981,-0.8076065,10.191225,0.15382981,-0.38457453,10.191225,11005.854;0.15382981,0.5768618,12.652502,-0.11537236,0.5768618,12.652502,11039.408;-0.9229789,-1.1921811,6.6531396,-0.9229789,-1.1921811,6.6531396,11039.408;-0.9229789,-1.1921811,8.845214,-0.15382981,-0.19228727,8.845214,11039.408;-0.9229789,0.61531925,8.845214,-0.46148944,0.61531925,8.806757,11072.963;-0.9229789,0.61531925,11.652608,-1.3075534,0.7306916,11.652608,11072.963;1.1537236,0.61531925,11.652608,1.1537236,0.8076065,11.575693,11072.963;-0.11537236,0.61531925,7.883778,-0.11537236,0.76914907,7.883778,11072.963;-1.7690428,0.61531925,10.191225,-1.7690428,0.9998938,10.191225,11106.517;-1.7690428,0.61531925,8.46064,-0.8076065,1.3075534,8.46064,11106.517;-0.26920217,0.61531925,8.46064,-0.26920217,0.6537767,8.845214,11106.517;1.3075534,0.61531925,12.306385,1.3075534,0.23074472,12.306385,11140.071;-0.38457453,0.61531925,9.037501,-0.38457453,0.0,9.037501,11140.071;-0.38457453,0.61531925,9.037501,-0.8845214,0.7306916,9.652821,11140.071;-0.38457453,0.61531925,5.0763836,-0.038457453,-0.07691491,5.0763836,11173.626;-0.38457453,-0.423032,8.537555,-1.0383513,-0.423032,8.537555,11173.626;-0.38457453,-0.423032,12.267927,0.19228727,-0.9998938,12.267927,11173.626;-0.38457453,0.8845214,10.191225,0.038457453,0.8845214,10.191225,11173.626;-0.38457453,0.8845214,10.191225,-0.46148944,0.34611708,9.998938,11207.181;-0.38457453,-0.5768618,7.960693,-0.46148944,-0.5768618,7.960693,11207.181;-0.38457453,-0.5768618,7.960693,-0.53840435,-0.4999469,8.46064,11207.181;-0.38457453,-0.5768618,9.845108,-0.7306916,-0.53840435,9.845108,11240.734;-0.38457453,-0.5768618,9.845108,-0.8845214,-0.34611708,9.152874,11240.734;-0.38457453,-0.5768618,12.306385,-0.11537236,-0.07691491,12.306385,11240.734;-0.38457453,-0.5768618,8.191438,0.19228727,-0.34611708,8.191438,11274.289;-0.38457453,1.4229257,8.191438,0.07691491,1.4229257,9.037501,11274.289;-0.38457453,-0.6537767,8.191438,-1.3460109,-0.6537767,8.30681,11274.289;-0.38457453,-0.6537767,9.998938,-1.0768087,-0.23074472,9.998938,11274.289;-0.38457453,1.3844683,11.037289,0.61531925,1.3844683,11.037289,11307.844;-0.38457453,-0.5768618,7.960693,-0.07691491,-0.5768618,7.960693,11307.844;-0.38457453,0.9229789,9.768193,0.19228727,0.9229789,9.768193,11307.844;-0.38457453,0.9229789,9.768193,-0.8076065,0.34611708,8.960587,11341.398;-0.38457453,0.9229789,9.768193,-1.0383513,0.8845214,8.806757,11341.398;1.2306385,0.9229789,13.421651,1.2306385,1.4613832,13.421651,11341.398;-0.038457453,-1.0768087,8.576012,-0.038457453,-1.0768087,8.576012,11374.952;-0.038457453,0.11537236,10.0373955,-0.038457453,0.11537236,10.0373955,11374.952;-1.3460109,1.1921811,8.499097,-1.3460109,1.1921811,8.499097,11374.952;-1.3460109,-0.96143633,7.4222884,-1.0768087,-0.96143633,7.4222884,11374.952;1.4229257,0.38457453,12.267927,1.4229257,0.38457453,12.267927,11408.507;-1.4998407,0.38457453,9.768193,-1.4998407,-0.34611708,9.768193,11408.507;-1.4998407,0.38457453,9.768193,-1.0768087,0.6537767,9.652821,11408.507;0.6537767,-1.615213,6.768512,0.6537767,-1.615213,6.768512,11442.062;-1.3460109,-1.615213,7.9222355,-1.3460109,-1.3075534,7.9222355,11442.062;-1.3460109,0.30765963,10.306598,-0.34611708,0.30765963,10.306598,11442.062;-1.3460109,-0.76914907,10.306598,-0.38457453,-0.76914907,9.460533,11475.616;0.5768618,-0.76914907,10.306598,0.5768618,-0.4999469,10.306598,11475.616;0.5768618,-0.76914907,10.306598,0.0,0.19228727,9.306704,11475.616;-1.692128,-0.76914907,8.422182,-1.692128,-0.846064,8.422182,11475.616;-0.5768618,-0.76914907,8.422182,-0.5768618,-0.423032,8.2683525,11509.17;-0.5768618,-0.76914907,8.422182,-0.30765963,0.11537236,8.960587,11509.17;-0.5768618,0.5768618,13.498566,-0.8845214,0.5768618,13.498566,11509.17;0.4999469,0.5768618,8.114523,0.4999469,-0.038457453,8.114523,11542.725;-0.5768618,0.5768618,9.152874,-0.5768618,0.46148944,9.152874,11542.725;-0.5768618,0.5768618,9.152874,-0.53840435,0.9998938,8.46064,11542.725;-0.5768618,0.5768618,11.421864,-1.4229257,1.0383513,11.421864,11576.279;-0.5768618,0.5768618,12.537129,0.34611708,0.96143633,12.537129,11576.279;1.5382981,0.5768618,8.383725,1.5382981,0.19228727,8.383725,11576.279;-1.3075534,0.5768618,9.883566,-1.3075534,0.8845214,9.883566,11576.279;-1.3075534,0.5768618,9.883566,-0.7306916,0.69223416,8.960587,11609.833;-0.19228727,0.5768618,6.2301073,-0.19228727,-0.38457453,6.2301073,11609.833;1.1152661,0.5768618,12.652502,1.1152661,0.38457453,12.652502,11609.833;-1.3844683,-0.5768618,8.999044,-1.3844683,-0.5768618,8.999044,11643.388;-1.3844683,0.6537767,8.999044,-0.6537767,0.6537767,9.498991,11643.388;1.3844683,0.6537767,5.6532454,1.3844683,0.15382981,5.6532454,11643.388;-0.96143633,-0.9998938,6.960799,-0.96143633,-0.9998938,6.960799,11643.388;-0.96143633,-0.9998938,11.960268,-0.07691491,-0.26920217,11.960268,11676.942;-0.96143633,0.19228727,9.614364,-0.423032,0.19228727,9.614364,11676.942;0.19228727,0.19228727,9.614364,0.19228727,0.15382981,10.498885,11676.942;0.19228727,0.19228727,9.614364,0.26920217,-0.34611708,9.729735,11710.497;-1.3075534,-1.615213,6.9223413,-1.3075534,-1.615213,6.9223413,11710.497;-1.3075534,0.8076065,10.306598,-0.34611708,0.8076065,10.306598,11710.497;-1.3075534,0.8076065,8.768299,-0.46148944,0.96143633,8.768299,11744.051;-1.3075534,0.8076065,13.267821,-2.0767026,0.8845214,13.267821,11744.051;0.4999469,0.8076065,9.075959,0.4999469,0.53840435,9.075959,11744.051;0.4999469,0.8076065,9.075959,-0.07691491,0.19228727,8.114523,11744.051;-1.4229257,0.8076065,9.075959,-1.4229257,0.11537236,8.960587,11777.605;-1.4229257,0.8076065,9.075959,-1.2690959,-0.15382981,9.306704,11777.605;-0.038457453,0.8076065,12.152555,-0.038457453,1.5767555,12.152555,11777.605;-0.038457453,0.8076065,9.960481,0.96143633,0.8845214,9.960481,11811.16;-0.038457453,-0.69223416,9.960481,0.5768618,-0.69223416,9.80665,11811.16;-1.1921811,-0.69223416,8.46064,-1.1921811,0.038457453,8.46064,11811.16;-1.1921811,0.8845214,6.8454266,-0.8076065,0.8845214,6.8454266,11844.715;0.9229789,0.8845214,11.998726,0.9229789,1.1537236,11.998726,11844.715;0.9229789,-1.4613832,8.960587,0.038457453,-1.4613832,8.960587,11844.715;-0.69223416,1.1537236,10.26814,-0.69223416,1.1537236,10.26814,11844.715;-0.69223416,1.1537236,8.652927,-1.4613832,0.846064,8.652927,11878.269;-0.69223416,-0.53840435,6.691597,-1.3075534,-0.53840435,6.691597,11878.269;0.61531925,-0.53840435,11.92181,0.61531925,-0.15382981,11.92181,11878.269;-0.61531925,-0.53840435,10.5758,-0.61531925,-0.53840435,10.5758,11911.823;-0.61531925,-0.53840435,10.5758,-0.76914907,-0.15382981,10.306598,11911.823;0.9229789,-0.53840435,9.114416,0.9229789,-0.9998938,9.114416,11911.823;-1.9228727,-0.53840435,5.8070755,-1.9228727,-1.4613832,5.8070755,11945.378;0.038457453,-0.53840435,11.306491,0.038457453,-0.38457453,11.306491,11945.378;0.038457453,-0.53840435,9.268247,-0.6537767,0.34611708,9.268247,11945.378;0.038457453,-0.53840435,9.268247,0.46148944,-0.46148944,9.691278,11945.378;0.038457453,-0.53840435,10.5758,0.26920217,-0.6537767,10.5758,11978.933;-1.4613832,-0.53840435,7.2300014,-1.4613832,-0.5768618,7.2300014,11978.933;1.0383513,-0.53840435,7.2300014,1.0383513,-0.5768618,7.6914907,11978.933;-1.7305853,-0.53840435,9.575906,-1.7305853,0.423032,9.575906,12012.486;-0.53840435,1.9613302,12.575587,-0.53840435,1.9613302,12.575587,12012.486;1.0383513,1.9613302,10.614257,1.0383513,0.9998938,10.614257,12012.486;-0.5768618,0.53840435,8.076065,-0.5768618,0.53840435,8.076065,12046.041;-0.5768618,0.53840435,8.076065,-0.9998938,1.0383513,8.806757,12046.041;-0.5768618,0.53840435,9.998938,-0.7306916,0.6537767,9.998938,12046.041;-0.5768618,0.53840435,11.460321,-0.19228727,0.8845214,11.460321,12046.041;1.7690428,0.53840435,9.306704,1.7690428,0.23074472,9.306704,12079.596;-1.3075534,-0.53840435,10.460427,-1.3075534,-0.53840435,10.460427,12079.596;-1.3075534,0.9998938,9.037501,-0.96143633,0.9998938,9.037501,12079.596;-1.3075534,-1.3844683,5.3840437,-0.423032,-1.3844683,5.3840437,12113.15;-1.3075534,-1.3844683,11.344949,-0.5768618,-0.46148944,11.344949,12113.15;-1.3075534,-1.3844683,8.61447,-1.3844683,-1.5382981,8.61447,12113.15;-1.3075534,0.23074472,9.960481,-1.2306385,0.23074472,9.960481,12113.15;1.3075534,0.23074472,7.9222355,1.3075534,-0.30765963,7.9222355,12146.704;-0.15382981,-0.8076065,5.9224477,-0.15382981,-0.8076065,5.9224477,12146.704;-0.15382981,-0.8076065,11.306491,-0.76914907,-0.15382981,11.306491,12146.704;-0.15382981,-0.8076065,8.61447,-0.7306916,-0.8845214,8.61447,12180.259;0.9229789,-0.8076065,10.191225,0.9229789,0.038457453,10.191225,12180.259;0.9229789,0.8076065,11.383406,1.3075534,0.8076065,11.383406,12180.259;-1.0768087,-1.0768087,6.4993095,-1.0768087,-1.0768087,6.4993095,12213.813;0.11537236,0.8845214,10.845002,0.11537236,0.8845214,10.845002,12213.813;0.11537236,-0.26920217,9.268247,-0.34611708,-0.26920217,9.268247,12213.813;-2.9227664,-0.26920217,12.614044,-2.9227664,0.26920217,12.614044,12213.813;0.15382981,0.846064,10.691172,0.15382981,0.846064,10.691172,12247.368;0.15382981,-0.61531925,6.2301073,-0.11537236,-0.61531925,6.2301073,12247.368;-0.96143633,1.1921811,9.768193,-0.96143633,1.1921811,9.768193,12247.368;-0.96143633,1.1921811,8.345267,-1.0383513,0.34611708,8.345267,12280.922;-0.96143633,1.1921811,9.383618,-0.4999469,0.7306916,9.383618,12280.922;0.8845214,1.1921811,11.652608,0.8845214,0.69223416,11.652608,12280.922;0.8845214,1.1921811,9.460533,0.26920217,0.423032,9.460533,12314.477;-1.1152661,1.1921811,9.460533,-1.1152661,0.5768618,9.922023,12314.477;-0.038457453,-0.19228727,5.614788,-0.038457453,-0.19228727,5.614788,12314.477;-0.038457453,-0.19228727,10.345055,-0.11537236,-0.07691491,10.345055,12314.477;1.0383513,-0.19228727,10.345055,1.0383513,-0.34611708,11.114204,12348.031;-0.26920217,-0.19228727,10.345055,-0.26920217,-0.34611708,10.306598,12348.031;-2.6535642,-0.19228727,10.345055,-2.6535642,0.26920217,9.498991,12348.031;-0.46148944,-0.19228727,6.4223948,-0.46148944,-0.34611708,6.4223948,12381.585;-0.46148944,-0.19228727,10.345055,-0.11537236,-0.26920217,10.345055,12381.585;-0.46148944,-0.19228727,10.345055,-1.4613832,-0.8076065,9.575906,12381.585;-0.46148944,-0.19228727,9.152874,-0.19228727,0.23074472,9.152874,12415.14;-0.46148944,-0.19228727,11.691066,-0.038457453,0.26920217,11.691066,12415.14;-0.46148944,-1.4229257,6.0378203,-1.1152661,-1.4229257,6.0378203,12415.14;-0.46148944,1.0383513,9.998938,-1.0768087,1.0383513,9.998938,12415.14;-0.46148944,1.0383513,9.998938,-1.1921811,0.8845214,9.191331,12448.694;-0.46148944,-0.61531925,9.998938,-0.038457453,-0.61531925,9.460533,12448.694;1.1152661,0.4999469,12.806332,1.1152661,0.4999469,12.806332,12448.694;-0.26920217,0.4999469,7.383831,-0.26920217,0.07691491,7.383831,12482.249;0.8845214,0.4999469,7.383831,0.8845214,-0.19228727,8.076065,12482.249;-0.46148944,0.4999469,8.537555,-0.46148944,0.6537767,8.537555,12482.249;-0.46148944,0.4999469,8.537555,-1.0768087,-0.23074472,9.152874,12515.803;1.8075004,0.4999469,13.152449,1.8075004,1.4229257,13.152449,12515.803;-0.19228727,-1.2306385,9.229789,-0.19228727,-1.2306385,9.229789,12515.803;-0.19228727,0.46148944,9.229789,-0.76914907,0.46148944,9.191331,12515.803;-0.19228727,1.6536705,9.229789,-0.53840435,1.6536705,9.998938,12549.357;-0.19228727,-0.038457453,9.229789,0.19228727,-0.038457453,8.768299,12549.357;1.2690959,-0.038457453,11.767981,1.2690959,0.38457453,11.767981,12549.357;-1.3460109,-0.038457453,11.767981,-1.3460109,0.11537236,11.383406,12582.912;-1.3460109,-0.038457453,9.345161,-0.53840435,0.23074472,9.345161,12582.912;-1.3460109,-0.038457453,6.5762243,-0.38457453,-0.46148944,6.5762243,12582.912;-1.3460109,-0.038457453,8.076065,-1.1152661,-0.96143633,8.076065,12582.912;-1.3460109,-0.038457453,9.460533,-0.423032,-0.9229789,9.460533,12616.467;-1.3460109,-0.038457453,9.460533,-0.53840435,0.07691491,9.960481,12616.467;-1.3460109,-0.038457453,8.30681,-0.8845214,-0.30765963,8.30681,12616.467;-0.23074472,-0.038457453,7.0761714,-0.23074472,0.11537236,7.0761714,12650.0205;-1.5767555,-0.038457453,9.575906,-1.5767555,-0.5768618,9.575906,12650.0205;-1.5767555,-0.038457453,6.806969,-0.7306916,-0.846064,6.806969,12650.0205;-1.5767555,-0.038457453,10.3835125,-0.846064,0.038457453,10.3835125,12683.575;1.0383513,1.3844683,12.998619,1.0383513,1.3844683,12.998619,12683.575;1.0383513,-0.11537236,7.883778,0.46148944,-0.11537236,7.883778,12683.575;1.0383513,-0.11537236,9.691278,0.30765963,0.7306916,9.691278,12683.575;-1.2306385,1.1921811,9.691278,-1.2306385,1.1921811,9.075959,12717.13;-2.4997344,-0.38457453,9.691278,-2.4997344,-0.38457453,9.80665,12717.13;1.1921811,1.1537236,13.229364,1.1921811,1.1537236,13.229364,12750.685;-0.46148944,1.1537236,10.152767,-0.46148944,1.615213,10.152767,12750.685;-1.8844151,1.1537236,8.229895,-1.8844151,0.46148944,8.229895,12750.685;-0.61531925,0.07691491,6.614682,-0.61531925,0.07691491,6.614682,12784.238;1.4998407,0.07691491,11.729524,1.4998407,0.5768618,11.729524,12784.238;0.0,0.07691491,9.460533,0.0,-0.53840435,9.460533,12784.238;0.0,0.07691491,9.460533,-0.53840435,0.76914907,10.11431,12784.238;1.2690959,0.07691491,9.460533,1.2690959,0.34611708,8.499097,12817.793;-0.34611708,-1.4229257,6.9992566,-0.34611708,-1.4229257,6.9992566,12817.793;-0.34611708,0.15382981,12.537129,-0.38457453,0.15382981,12.537129,12817.793;-0.34611708,-1.3075534,8.46064,-0.38457453,-1.3075534,8.46064,12851.348;-0.34611708,0.15382981,8.46064,-1.3075534,0.15382981,9.229789,12851.348;-0.34611708,0.15382981,10.0373955,0.30765963,-0.23074472,10.0373955,12851.348;-1.3844683,0.15382981,7.2300014,-1.3844683,-0.76914907,7.2300014,12884.902;-1.3844683,0.15382981,8.46064,-0.76914907,-0.4999469,8.46064,12884.902;-0.23074472,0.15382981,7.1915436,-0.23074472,0.26920217,7.1915436,12918.456;-0.23074472,0.15382981,9.383618,-1.1921811,0.846064,9.383618,12918.456;-0.23074472,0.15382981,10.421969,-0.61531925,0.4999469,10.421969,12952.011;-0.23074472,0.15382981,11.460321,0.15382981,0.69223416,11.460321,12952.011;1.0383513,0.15382981,9.191331,1.0383513,0.53840435,9.191331,12952.011;-0.07691491,0.15382981,11.691066,-0.07691491,0.76914907,11.691066,12985.565;-0.07691491,0.15382981,8.30681,-0.4999469,0.61531925,8.30681,12985.565;-0.07691491,0.15382981,6.19165,-0.07691491,-0.61531925,6.19165,12985.565;-0.07691491,0.15382981,12.344843,0.07691491,0.53840435,12.344843,12985.565;-0.07691491,0.15382981,9.498991,-0.5768618,-0.46148944,9.498991,13019.119;-0.07691491,0.15382981,9.498991,-0.4999469,0.8076065,9.845108,13019.119;-0.07691491,0.15382981,9.498991,0.07691491,1.0768087,8.61447,13019.119;-0.07691491,-1.2306385,4.691809,0.423032,-1.2306385,4.691809,13052.674;-0.07691491,-0.11537236,12.575587,-0.6537767,-0.11537236,12.575587,13052.674;-0.07691491,-0.11537236,8.499097,-0.23074472,-0.423032,8.499097,13052.674;-0.07691491,-0.11537236,10.229683,-0.61531925,-0.11537236,10.229683,13052.674;-0.07691491,-0.11537236,11.306491,0.846064,0.46148944,11.306491,13086.229;-0.07691491,-1.6536705,5.422501,-0.96143633,-1.6536705,5.422501,13086.229;-0.07691491,0.038457453,10.421969,-0.7306916,0.038457453,10.421969,13086.229;-0.07691491,0.038457453,9.191331,-0.96143633,0.15382981,9.191331,13119.783;-2.3459046,0.038457453,10.421969,-2.3459046,-0.96143633,10.421969,13119.783;0.46148944,1.0768087,12.767875,0.46148944,1.0768087,12.767875,13119.783;0.46148944,-0.9229789,7.2300014,-0.34611708,-0.9229789,7.2300014,13153.337;-1.4229257,0.53840435,7.2300014,-1.4229257,0.53840435,7.960693,13153.337;-1.4229257,0.53840435,8.652927,-1.3075534,0.34611708,8.652927,13153.337;-0.15382981,1.5767555,10.460427,-0.15382981,1.5767555,10.460427,13153.337;0.8845214,1.5767555,10.460427,0.8845214,1.3460109,11.421864,13186.892;0.8845214,1.5767555,8.46064,-0.11537236,0.6537767,8.46064,13186.892;-0.46148944,1.5767555,8.46064,-0.46148944,1.2306385,8.537555,13186.892;-0.46148944,1.5767555,8.46064,-0.38457453,1.3844683,8.191438,13220.446;-0.46148944,0.34611708,8.46064,-0.11537236,0.34611708,9.152874,13220.446;0.5768618,0.34611708,10.421969,0.5768618,-0.038457453,10.421969,13220.446;0.5768618,0.34611708,10.421969,0.038457453,-0.07691491,11.344949,13254.001;-1.1537236,0.34611708,9.306704,-1.1537236,0.846064,9.306704,13254.001;-1.1537236,-1.4229257,6.2301073,-0.846064,-1.4229257,6.2301073,13254.001;-1.1537236,-1.4229257,9.960481,-0.19228727,-0.46148944,9.960481,13254.001;-1.1537236,0.038457453,9.960481,-0.61531925,0.038457453,10.191225,13287.555;-1.1537236,0.038457453,9.960481,-0.69223416,-0.15382981,9.729735,13287.555;-0.11537236,0.038457453,9.960481,-0.11537236,-0.61531925,10.421969,13287.555;-0.11537236,-1.4613832,5.5378733,-0.423032,-1.4613832,5.5378733,13321.109;-0.11537236,-1.4613832,11.152661,-0.9229789,-0.5768618,11.152661,13321.109;-0.11537236,-0.23074472,8.922129,-1.0383513,-0.23074472,8.922129,13321.109;-0.11537236,-0.23074472,8.922129,-0.61531925,0.19228727,9.883566,13354.664;-0.11537236,1.3460109,12.152555,0.11537236,1.3460109,12.152555,13354.664;-1.2306385,-0.46148944,7.153086,-1.2306385,-0.46148944,7.153086,13354.664;0.69223416,0.69223416,7.153086,0.69223416,0.69223416,7.4222884,13354.664;-1.3844683,0.69223416,9.152874,-1.3844683,-0.038457453,9.152874,13388.219;-1.3844683,0.69223416,9.152874,-1.7305853,0.423032,9.845108,13388.219;0.96143633,0.69223416,11.460321,0.96143633,1.3075534,11.460321,13388.219;-0.69223416,0.69223416,7.9222355,-0.69223416,0.23074472,7.9222355,13421.772;-0.69223416,0.69223416,9.768193,-0.423032,1.4998407,9.768193,13421.772;-0.69223416,0.69223416,9.768193,-0.46148944,1.1921811,9.152874,13421.772;-0.69223416,-0.6537767,7.614576,-0.30765963,-0.6537767,7.614576,13455.327;1.1537236,1.0383513,12.306385,1.1537236,1.0383513,12.306385,13455.327;-0.46148944,1.0383513,11.191119,-0.46148944,0.69223416,11.191119,13455.327;-0.46148944,1.0383513,9.498991,-0.38457453,0.38457453,9.498991,13455.327;-0.46148944,-0.423032,6.883884,0.38457453,-0.423032,6.883884,13488.882;-0.46148944,-0.423032,9.037501,-1.0768087,-1.3460109,9.037501,13488.882;0.8076065,-0.423032,10.806544,0.8076065,-0.38457453,10.806544,13488.882;-0.4999469,-0.423032,9.422076,-0.4999469,-0.30765963,9.422076,13522.437;-0.4999469,-0.423032,9.422076,-0.07691491,-0.11537236,8.883672,13522.437;-0.4999469,-0.423032,9.422076,-0.038457453,-0.61531925,8.922129,13522.437;-1.5382981,-1.6536705,9.422076,-1.5382981,-1.6536705,8.768299,13555.99;-1.5382981,-0.53840435,6.614682,-0.96143633,-0.53840435,6.614682,13555.99;0.038457453,-0.53840435,9.845108,0.038457453,-0.19228727,9.845108,13555.99;0.038457453,0.76914907,12.806332,-0.23074472,0.76914907,12.806332,13555.99;0.038457453,-0.46148944,7.1915436,-0.46148944,-0.46148944,7.1915436,13589.545;0.038457453,1.615213,9.691278,-0.26920217,1.615213,9.691278,13589.545;0.038457453,-0.07691491,9.691278,-0.96143633,-0.07691491,9.345161,13589.545;-1.2690959,-0.07691491,11.306491,-1.2690959,0.19228727,11.306491,13623.1;1.1152661,1.3075534,11.306491,1.1152661,1.3075534,11.460321,13623.1;1.1152661,0.038457453,8.845214,0.26920217,0.038457453,8.845214,13623.1;-0.23074472,0.038457453,10.652715,-0.23074472,0.96143633,10.652715,13623.1;-0.23074472,1.2690959,8.922129,-0.423032,1.2690959,8.922129,13656.654;-0.23074472,0.0,6.34548,-0.038457453,0.0,6.34548,13656.654;-0.23074472,0.0,12.806332,0.76914907,0.7306916,12.806332,13656.654;-0.23074472,-1.615213,7.7684054,-0.6537767,-1.615213,7.7684054,13690.208;-1.2690959,-0.34611708,9.922023,-1.2690959,-0.34611708,9.922023,13690.208;0.7306916,-0.34611708,7.729948,0.7306916,-0.23074472,7.729948,13690.208;-0.4999469,-0.34611708,7.729948,-0.4999469,-0.53840435,6.7300544,13723.763;-0.4999469,-0.34611708,11.806438,-0.4999469,-0.30765963,11.806438,13723.763;-0.4999469,-0.34611708,10.0373955,0.26920217,0.423032,10.0373955,13723.763;-0.4999469,-0.34611708,10.0373955,-0.38457453,-0.038457453,9.652821,13723.763;-0.4999469,-0.34611708,10.0373955,0.38457453,-0.11537236,9.80665,13757.317;-0.4999469,-0.34611708,7.268459,-0.53840435,-0.423032,7.268459,13757.317;-0.4999469,-0.34611708,10.768087,-0.34611708,0.23074472,10.768087,13757.317;-0.4999469,-0.34611708,8.729842,-0.38457453,0.34611708,8.729842,13790.871;-1.6536705,-0.34611708,12.152555,-1.6536705,-0.11537236,12.152555,13790.871;0.07691491,-0.34611708,9.922023,0.07691491,-0.038457453,9.922023,13790.871;-0.96143633,1.0383513,8.422182,-0.96143633,1.0383513,8.422182,13824.426;-0.96143633,-0.76914907,8.422182,-1.2690959,-0.76914907,9.345161,13824.426;-0.96143633,0.30765963,8.422182,-1.0768087,0.30765963,9.075959,13824.426;0.96143633,0.30765963,11.960268,0.96143633,0.96143633,11.960268,13824.426;0.96143633,0.30765963,9.652821,0.07691491,0.11537236,9.652821,13857.98;0.96143633,0.30765963,9.652821,0.15382981,0.53840435,9.152874,13857.98;-0.5768618,0.30765963,9.652821,-0.5768618,