999,999,999,999,999,999,999;-3.4996283,0.8845214,8.922129,-3.0765963,0.07691491,9.306704,0.0;0.8076065,0.8845214,10.306598,0.8076065,0.9229789,10.306598,100.6633;-3.7688303,0.8845214,8.768299,-3.7688303,0.96143633,8.768299,134.21773;-3.7688303,-0.23074472,8.768299,-4.7302666,-0.23074472,8.999044,134.21773;-0.6537767,-0.23074472,10.26814,-0.6537767,0.46148944,10.26814,134.21773;-0.6537767,-0.23074472,10.26814,-0.7306916,0.7306916,9.422076,167.77216;-4.4610643,-0.23074472,8.15298,-4.4610643,0.46148944,8.15298,167.77216;-2.9996815,-0.23074472,9.306704,-2.9996815,-0.34611708,9.306704,167.77216;-0.038457453,-0.23074472,10.652715,-0.038457453,0.76914907,10.652715,167.77216;-1.3460109,-0.23074472,9.345161,-1.3460109,0.76914907,9.345161,201.3266;-4.999469,-0.23074472,9.345161,-4.999469,0.76914907,8.806757,201.3266;-1.1537236,-0.23074472,10.3835125,-1.1537236,-0.19228727,10.3835125,201.3266;0.53840435,1.0768087,10.3835125,0.53840435,1.0768087,9.845108,234.88103;-2.807394,1.0768087,8.345267,-2.807394,0.7306916,8.345267,234.88103;-2.807394,-0.26920217,8.345267,-3.6919155,-0.26920217,8.422182,234.88103;-0.53840435,-0.26920217,10.075852,-0.53840435,0.30765963,10.075852,234.88103;-0.53840435,-0.26920217,10.075852,-0.46148944,0.5768618,9.537449,268.43546;-4.0380325,1.0768087,7.806863,-4.0380325,1.0768087,7.806863,268.43546;-4.0380325,1.0768087,9.883566,-3.1150537,0.15382981,9.883566,268.43546;0.34611708,1.0768087,9.883566,0.34611708,0.76914907,10.306598,301.9899;-1.9613302,1.0768087,9.883566,-1.9613302,1.1152661,9.037501,301.9899;-4.345692,1.0768087,8.691384,-4.345692,0.26920217,8.691384,301.9899;-2.11516,-0.15382981,10.345055,-2.11516,-0.15382981,10.345055,335.5443;-0.038457453,0.8845214,10.345055,-0.038457453,0.8845214,9.345161,335.5443;-3.384256,0.8845214,8.691384,-3.384256,0.30765963,8.691384,335.5443;-3.384256,0.8845214,8.691384,-3.8842027,-0.11537236,8.845214,335.5443;-0.6537767,0.8845214,10.152767,-0.6537767,0.26920217,10.152767,369.09875;-0.6537767,0.8845214,10.152767,-0.8076065,0.9229789,9.268247,369.09875;-5.268671,-0.4999469,8.922129,-5.268671,-0.4999469,8.922129,369.09875;-2.2305322,-0.4999469,8.922129,-2.2305322,0.038457453,9.80665,402.6532;0.6537767,0.61531925,10.152767,0.6537767,0.61531925,10.152767,402.6532;-3.2688835,0.61531925,9.114416,-3.2688835,0.8845214,9.114416,402.6532;-3.2688835,0.61531925,9.114416,-4.23032,0.23074472,8.15298,436.2076;-1.5767555,0.61531925,10.460427,-1.5767555,0.15382981,10.460427,436.2076;-0.30765963,0.61531925,10.460427,-0.30765963,0.9229789,9.883566,436.2076;-3.9995751,0.61531925,8.15298,-3.9995751,0.69223416,8.15298,436.2076;-3.9995751,0.61531925,8.15298,-3.807288,0.0,8.691384,469.76205;0.0,0.61531925,9.998938,0.0,0.4999469,9.998938,469.76205;-1.9228727,0.61531925,9.998938,-1.9228727,1.3075534,9.383618,469.76205;-4.307235,0.61531925,8.46064,-4.307235,0.96143633,8.46064,503.31647;-1.5767555,-0.4999469,9.922023,-1.5767555,-0.4999469,9.922023,503.31647;0.07691491,1.3844683,9.922023,0.07691491,1.3844683,9.229789,503.31647;-3.0381389,1.3844683,9.922023,-3.0381389,0.96143633,8.999044,536.8709;-4.6148944,-0.38457453,8.845214,-4.6148944,-0.38457453,8.845214,536.8709;-0.30765963,-0.38457453,10.498885,-0.30765963,0.423032,10.498885,536.8709;-0.30765963,0.76914907,10.498885,-0.46148944,0.76914907,9.652821,536.8709;-4.1149473,0.76914907,9.383618,-4.1149473,1.0383513,9.383618,570.42535;-2.9612238,-0.46148944,9.383618,-2.9612238,-0.46148944,9.268247,570.42535;1.1152661,-0.46148944,9.383618,1.1152661,0.26920217,10.306598,570.42535;-2.884309,1.4229257,9.383618,-2.884309,1.4229257,8.960587,603.9798;-5.268671,-0.8076065,9.383618,-5.268671,-0.8076065,9.114416,603.9798;-1.4998407,-0.8076065,9.383618,-1.4998407,-0.46148944,8.729842,603.9798;0.38457453,0.61531925,9.383618,0.38457453,0.61531925,9.960481,637.5342;-4.3841496,0.61531925,9.383618,-4.3841496,0.76914907,8.883672,637.5342;-4.3841496,-0.4999469,9.383618,-3.730373,-0.4999469,9.575906,637.5342;-0.07691491,-0.4999469,9.383618,-0.07691491,0.26920217,9.883566,637.5342;-0.07691491,0.8076065,9.383618,-0.19228727,0.8076065,9.883566,671.0886;-3.9226604,0.8076065,7.883778,-3.9226604,0.07691491,7.883778,671.0886;-1.8075004,0.8076065,7.883778,-1.8075004,0.07691491,8.537555,671.0886;0.8076065,0.8076065,10.0373955,0.8076065,0.38457453,10.0373955,704.64307;-2.0767026,0.8076065,8.691384,-2.0767026,1.692128,8.691384,704.64307;-4.153405,0.8076065,8.691384,-4.153405,0.38457453,7.883778,704.64307;-0.846064,0.8076065,8.691384,-0.846064,0.07691491,9.537449,704.64307;-0.846064,0.8076065,8.691384,-0.5768618,0.9998938,8.960587,738.1975;-3.730373,0.8076065,8.691384,-3.730373,1.4229257,7.9991503,738.1975;-3.730373,0.8076065,8.691384,-3.6150007,0.4999469,9.152874,738.1975;0.46148944,0.8076065,9.80665,0.46148944,0.6537767,9.80665,771.75195;-1.692128,0.8076065,9.80665,-1.692128,0.96143633,9.114416,771.75195;-4.5379796,0.8076065,8.61447,-4.5379796,1.3075534,8.61447,771.75195;-1.692128,-0.23074472,10.306598,-1.692128,-0.23074472,10.306598,805.3064;0.19228727,1.2306385,8.883672,0.19228727,1.2306385,8.883672,805.3064;-3.4996283,1.2306385,8.883672,-3.4996283,1.2690959,9.575906,805.3064;-3.4996283,-0.15382981,9.960481,-4.1918626,-0.15382981,9.960481,805.3064;-0.19228727,-0.15382981,9.960481,-0.19228727,-0.69223416,9.922023,838.8608;-2.5381918,1.3075534,9.960481,-2.5381918,1.3075534,9.037501,838.8608;-4.4610643,1.3075534,9.960481,-4.4610643,0.9998938,9.306704,838.8608;-2.7304792,-0.846064,9.960481,-2.7304792,-0.846064,9.498991,872.4152;0.7306916,0.38457453,9.960481,0.7306916,0.38457453,10.7296295,872.4152;-1.7305853,1.7305853,9.960481,-1.7305853,1.7305853,8.960587,872.4152;-5.0763836,0.11537236,9.960481,-5.0763836,0.11537236,9.037501,905.96967;-0.8076065,0.11537236,7.8453207,-0.8076065,-0.07691491,7.8453207,905.96967;0.30765963,0.11537236,10.768087,0.30765963,0.423032,10.768087,905.96967;-4.153405,0.11537236,9.268247,-4.153405,1.0383513,9.268247,905.96967;-4.153405,0.11537236,9.268247,-4.6148944,0.9229789,9.422076,939.5241;0.96143633,0.11537236,9.268247,0.96143633,-0.30765963,10.0373955,939.5241;-0.423032,0.11537236,9.268247,-0.423032,0.8076065,9.537449,939.5241;-4.8840966,0.11537236,7.8453207,-4.8840966,0.96143633,7.8453207,973.07855;-2.1920748,0.11537236,7.8453207,-2.1920748,-0.38457453,8.30681,973.07855;0.76914907,0.11537236,9.691278,0.76914907,-0.07691491,9.691278,973.07855;-3.3457985,0.11537236,9.691278,-3.3457985,0.7306916,9.114416,1006.63293;-5.1148415,0.11537236,8.422182,-5.1148415,0.846064,8.422182,1006.63293;-0.76914907,0.11537236,8.422182,-0.76914907,-0.38457453,9.306704,1006.63293;-0.76914907,0.11537236,8.422182,0.19228727,0.9998938,9.345161,1006.63293;-4.1918626,1.5767555,8.422182,-4.1918626,1.5767555,7.614576,1040.1874;-4.1918626,-0.15382981,9.922023,-4.153405,-0.15382981,9.922023,1040.1874;1.2306385,-0.15382981,9.922023,1.2306385,-0.8076065,9.114416,1040.1874;-2.1920748,1.3460109,9.922023,-2.1920748,1.3460109,9.883566,1073.7418;-5.614788,1.3460109,7.9222355,-5.614788,1.4613832,7.9222355,1073.7418;-1.5767555,-0.07691491,10.11431,-1.5767555,-0.07691491,10.11431,1073.7418;0.038457453,-0.07691491,10.11431,0.038457453,0.4999469,10.421969,1107.2963;-3.1919687,1.1921811,10.11431,-3.1919687,1.1921811,9.537449,1107.2963;-4.807182,-0.19228727,10.11431,-4.807182,-0.19228727,9.498991,1107.2963;-0.23074472,-0.19228727,11.229576,-0.23074472,-0.9229789,11.229576,1107.2963;-0.23074472,1.0383513,10.075852,-0.46148944,1.0383513,10.075852,1140.8507;-4.307235,1.0383513,10.075852,-4.307235,1.6536705,9.191331,1140.8507;-4.307235,-1.2306385,10.075852,-3.4611707,-1.2306385,10.345055,1140.8507;0.8076065,-1.2306385,10.075852,0.8076065,-1.1537236,10.883459,1174.4052;-1.7305853,1.8075004,10.075852,-1.7305853,1.8075004,9.614364,1174.4052;-4.845639,1.8075004,8.691384,-4.845639,0.9229789,8.691384,1174.4052;-1.8844151,-1.2690959,8.691384,-1.8844151,-1.2690959,8.537555,1207.9596;0.6537767,0.76914907,10.191225,0.6537767,0.76914907,10.191225,1207.9596;-3.2688835,0.76914907,8.46064,-3.2688835,1.7305853,8.46064,1207.9596;-4.807182,0.76914907,8.46064,-4.807182,0.76914907,7.5761185,1207.9596;0.4999469,-0.6537767,9.498991,0.4999469,-0.6537767,9.498991,1241.514;0.4999469,1.1537236,9.498991,0.0,1.1537236,9.383618,1241.514;-5.037926,1.1537236,8.15298,-5.037926,0.6537767,8.15298,1241.514;-2.884309,-0.34611708,8.15298,-2.884309,-0.34611708,8.114523,1275.0684;1.3460109,-0.34611708,9.575906,1.3460109,-0.30765963,9.575906,1275.0684;-2.1536174,1.3075534,9.575906,-2.1536174,1.3075534,8.768299,1275.0684;-4.345692,1.3075534,7.9991503,-4.345692,0.61531925,7.9991503,1275.0684;-1.4613832,0.038457453,7.9991503,-1.4613832,0.038457453,8.845214,1308.6228;0.46148944,1.1921811,9.037501,0.46148944,1.1921811,9.037501,1308.6228;-3.0765963,2.3459046,9.037501,-3.0765963,2.3459046,8.30681,1308.6228;-4.23032,-0.19228727,9.037501,-4.23032,-0.19228727,8.960587,1342.1772;0.53840435,-0.19228727,9.037501,0.53840435,-0.4999469,9.691278,1342.1772;-1.3075534,1.1921811,9.037501,-1.3075534,1.1921811,9.80665,1342.1772;-4.7302666,2.6535642,9.037501,-4.7302666,2.6535642,9.075959,1375.7317;-2.5381918,-0.38457453,10.345055,-2.5381918,-0.38457453,10.345055,1375.7317;0.96143633,-0.38457453,10.345055,0.96143633,0.53840435,9.998938,1375.7317;-2.6920218,1.0383513,10.345055,-2.6920218,1.0383513,9.575906,1375.7317;-3.9611177,1.0383513,9.114416,-3.9611177,0.846064,9.114416,1409.2861;-1.0768087,-1.5767555,10.498885,-1.0768087,-1.5767555,10.498885,1409.2861;0.76914907,0.23074472,10.498885,0.76914907,0.23074472,10.11431,1409.2861;-3.8457453,2.11516,10.498885,-3.8457453,2.11516,9.729735,1442.8406;-3.8457453,-0.30765963,9.383618,-3.8457453,-0.30765963,9.383618,1442.8406;0.9229789,-1.4613832,9.383618,0.9229789,-1.4613832,10.152767,1442.8406;-1.1921811,1.1921811,9.383618,-1.1921811,1.1921811,9.037501,1476.395;-3.9226604,1.1921811,9.383618,-3.9226604,0.8076065,10.0373955,1476.395;-3.9226604,-1.1152661,9.383618,-3.2688835,-1.1152661,8.46064,1476.395;0.8845214,0.38457453,9.383618,0.8845214,0.38457453,10.306598,1476.395;-2.0767026,0.38457453,9.383618,-2.0767026,1.2306385,8.383725,1509.9495;-4.2687774,0.38457453,9.383618,-4.2687774,0.61531925,9.268247,1509.9495;-1.3075534,0.38457453,9.383618,-1.3075534,-0.46148944,8.422182,1509.9495;-0.11537236,0.38457453,9.383618,-0.11537236,0.23074472,8.960587,1543.5039;-4.845639,1.9997876,7.1915436,-4.845639,1.9997876,7.1915436,1543.5039;-3.1150537,-0.76914907,7.1915436,-3.1150537,-0.76914907,8.191438,1543.5039;0.34611708,-0.76914907,10.191225,0.34611708,-0.038457453,10.191225,1577.0583;-0.8076065,1.6536705,9.037501,-0.8076065,1.6536705,9.037501,1577.0583;-4.8840966,1.6536705,7.383831,-4.8840966,1.615213,7.383831,1577.0583;-2.6151068,0.53840435,7.383831,-2.6151068,0.53840435,7.614576,1577.0583;0.9229789,0.53840435,9.883566,0.9229789,0.23074472,9.883566,1610.6128;-2.2305322,1.692128,9.883566,-2.2305322,1.692128,8.999044,1610.6128;-4.2687774,0.61531925,7.383831,-4.2687774,0.61531925,7.383831,1610.6128;-0.26920217,0.61531925,10.421969,-0.26920217,0.53840435,10.421969,1644.1671;-0.26920217,0.61531925,10.421969,0.07691491,0.846064,10.498885,1644.1671;-2.7689366,2.3074472,10.421969,-2.7689366,2.3074472,9.729735,1644.1671;-2.7689366,0.11537236,8.922129,-3.1919687,0.11537236,8.922129,1677.7216;0.53840435,0.11537236,10.883459,0.53840435,0.19228727,10.883459,1677.7216;-0.7306916,0.11537236,10.883459,-0.7306916,0.76914907,9.922023,1677.7216;-6.34548,0.11537236,8.46064,-6.34548,0.8076065,8.46064,1677.7216;-2.461277,-1.2306385,12.037183,-2.461277,-1.2306385,12.037183,1711.276;0.8845214,0.15382981,10.306598,0.8845214,0.15382981,10.306598,1711.276;-4.307235,1.1921811,10.306598,-4.307235,1.1921811,9.345161,1711.276;-4.307235,1.1921811,8.806757,-4.6148944,0.6537767,8.806757,1744.8304;-0.76914907,-1.2306385,8.806757,-0.76914907,-1.2306385,8.383725,1744.8304;-0.76914907,0.34611708,8.806757,0.07691491,0.34611708,9.537449,1744.8304;-4.4610643,1.615213,8.806757,-4.4610643,1.615213,8.537555,1744.8304;-4.4610643,-0.30765963,8.806757,-3.807288,-0.30765963,9.345161,1778.3849;0.6537767,-0.30765963,9.960481,0.6537767,-0.26920217,9.960481,1778.3849;-1.615213,1.9613302,9.960481,-1.615213,1.9613302,9.268247,1811.9393;-4.9610114,1.9613302,8.691384,-4.9610114,0.9998938,8.691384,1811.9393;-1.4613832,-0.6537767,7.268459,-1.4613832,-0.6537767,7.268459,1811.9393;0.4999469,0.4999469,9.114416,0.4999469,0.4999469,9.114416,1811.9393;-2.4228196,1.5767555,9.114416,-2.4228196,1.5767555,8.61447,1845.4938;-4.807182,0.07691491,9.114416,-4.807182,0.07691491,8.999044,1845.4938;-0.30765963,0.07691491,9.114416,-0.30765963,0.6537767,8.383725,1845.4938;-0.30765963,1.4613832,10.421969,-0.15382981,1.4613832,10.421969,1845.4938;-5.0763836,1.4613832,8.61447,-5.0763836,1.0768087,8.61447,1879.0482;-2.7304792,-0.07691491,8.61447,-2.7304792,-0.07691491,8.806757,1879.0482;1.3075534,-0.07691491,11.92181,1.3075534,0.46148944,11.92181,1879.0482;-2.3459046,1.0768087,8.30681,-2.3459046,1.0768087,8.30681,1912.6027;-5.614788,1.0768087,8.30681,-5.614788,0.30765963,7.499203,1912.6027;-1.5767555,-0.07691491,11.075747,-1.5767555,-0.07691491,11.075747,1912.6027;0.69223416,1.2306385,11.075747,0.69223416,1.2306385,10.845002,1946.1571;-3.653458,1.2306385,8.960587,-3.653458,1.3844683,8.960587,1946.1571;-5.1917562,1.2306385,8.960587,-5.1917562,0.69223416,8.61447,1946.1571;-0.19228727,-1.0768087,11.498778,-0.19228727,-1.0768087,11.498778,1946.1571;-0.19228727,1.0383513,9.152874,-0.15382981,1.0383513,9.152874,1979.7115;-3.6150007,1.0383513,7.9222355,-3.6150007,1.5767555,7.9222355,1979.7115;-3.6150007,-0.9229789,10.652715,-2.6535642,-0.9229789,10.652715,1979.7115;-0.34611708,-0.9229789,10.652715,-0.34611708,-0.9229789,10.421969,2013.2659;-1.9228727,1.7690428,8.999044,-1.9228727,1.7690428,8.999044,2013.2659;-5.3840437,1.7690428,8.999044,-5.3840437,0.8845214,9.306704,2013.2659;-1.8459578,-1.6536705,8.999044,-1.8459578,-1.6536705,9.152874,2046.8203;-0.15382981,-0.038457453,8.999044,-0.15382981,-0.038457453,9.768193,2046.8203;-3.1150537,1.3075534,8.999044,-3.1150537,1.3075534,8.576012,2046.8203;-4.845639,0.19228727,8.999044,-4.845639,0.19228727,8.960587,2046.8203;0.26920217,0.19228727,8.999044,0.26920217,-0.76914907,8.729842,2080.3748;-1.0768087,1.4229257,8.999044,-1.0768087,1.4229257,9.075959,2080.3748;-4.1918626,1.4229257,8.999044,-4.1918626,1.9613302,8.422182,2080.3748;-2.7304792,-0.9229789,8.999044,-2.7304792,-0.9229789,8.229895,2113.9292;1.0383513,0.15382981,8.999044,1.0383513,0.15382981,8.883672,2113.9292;-1.3460109,1.3075534,8.999044,-1.3460109,1.3075534,9.80665,2113.9292;-4.7687244,0.23074472,8.999044,-4.7687244,0.23074472,8.537555,2147.4836;-0.8845214,0.23074472,6.883884,-0.8845214,0.9998938,6.883884,2147.4836;0.4999469,1.7690428,10.345055,0.4999469,1.7690428,10.345055,2147.4836;-4.653352,1.7690428,8.46064,-4.653352,1.8844151,8.46064,2147.4836;-4.653352,0.53840435,8.46064,-3.6919155,0.53840435,8.499097,2181.038;0.8845214,0.53840435,10.768087,0.8845214,0.61531925,10.768087,2181.038;-0.23074472,0.53840435,9.229789,-0.23074472,0.5768618,9.229789,2181.038;-4.4610643,0.53840435,9.229789,-4.4610643,0.9998938,9.845108,2214.5925;-2.6151068,-0.5768618,10.806544,-2.6151068,-0.5768618,10.806544,2214.5925;0.8076065,1.1921811,10.806544,0.8076065,1.1921811,11.075747,2214.5925;-1.7305853,1.1921811,8.076065,-1.7305853,2.1536174,8.076065,2248.147;-4.845639,1.1921811,9.498991,-4.845639,0.8076065,9.498991,2248.147;-0.46148944,-1.0383513,12.114098,-0.46148944,-1.0383513,12.114098,2248.147;0.846064,-1.0383513,9.037501,0.846064,-0.038457453,9.037501,2248.147;-3.4996283,2.038245,10.11431,-3.4996283,2.038245,10.11431,2281.7014;-3.4996283,-1.1537236,10.11431,-4.2687774,-1.1537236,9.652821,2281.7014;-0.76914907,-1.1537236,8.422182,-0.76914907,-1.5767555,8.422182,2281.7014;-0.76914907,1.5382981,8.422182,-0.423032,1.5382981,8.922129,2315.2559;-5.1917562,0.423032,8.422182,-5.1917562,0.423032,7.9222355,2315.2559;-2.7304792,-1.615213,8.422182,-2.7304792,-1.615213,8.076065,2315.2559;0.23074472,0.0,9.691278,0.23074472,0.0,9.691278,2315.2559;-3.0381389,1.4229257,9.691278,-3.0381389,1.4229257,10.0373955,2348.8103;-5.268671,1.4229257,8.652927,-5.268671,0.46148944,8.652927,2348.8103;-0.4999469,-0.11537236,8.652927,-0.4999469,-0.11537236,8.114523,2348.8103;-0.4999469,1.8075004,10.421969,0.26920217,1.8075004,10.421969,2382.3647;-4.845639,1.8075004,7.883778,-4.845639,0.8845214,7.883778,2382.3647;-4.845639,0.423032,7.883778,-3.9995751,0.423032,8.46064,2382.3647;0.61531925,0.423032,10.0373955,0.61531925,0.846064,10.0373955,2415.9192;-1.1152661,0.423032,10.0373955,-1.1152661,0.19228727,9.960481,2415.9192;-5.1917562,0.423032,7.960693,-5.1917562,1.3075534,7.960693,2415.9192;-1.7305853,0.423032,10.306598,-1.7305853,0.038457453,10.306598,2415.9192;1.3075534,0.423032,11.575693,1.3075534,0.69223416,11.575693,2449.4736;-2.6920218,1.8075004,6.8454266,-2.6920218,1.8075004,6.8454266,2449.4736;-5.3071284,0.46148944,9.422076,-5.3071284,0.46148944,9.422076,2449.4736;-0.4999469,-0.96143633,12.037183,-0.4999469,-0.96143633,12.037183,2483.028;-0.4999469,0.61531925,9.075959,0.38457453,0.61531925,9.075959,2483.028;-3.230426,1.9228727,9.075959,-3.230426,1.9228727,9.229789,2483.028;-4.922554,-1.1152661,9.075959,-4.922554,-1.1152661,9.306704,2516.5825;0.26920217,-1.1152661,10.691172,0.26920217,-0.23074472,10.691172,2516.5825;-1.3075534,2.3843622,9.075959,-1.3075534,2.3843622,9.075959,2516.5825;-4.7302666,2.3843622,7.9991503,-4.7302666,1.4998407,7.9991503,2516.5825;-2.3459046,-1.9997876,7.9991503,-2.3459046,-1.9997876,8.422182,2550.1367;0.46148944,-0.038457453,9.537449,0.46148944,-0.038457453,9.537449,2550.1367;-2.3074472,2.3459046,9.537449,-2.3074472,2.3459046,9.575906,2550.1367;-4.307235,-0.30765963,9.537449,-4.307235,-0.30765963,8.652927,2583.6912;-0.7306916,-0.30765963,9.537449,-0.7306916,0.23074472,8.652927,2583.6912;-0.7306916,0.96143633,9.537449,0.15382981,0.96143633,9.960481,2583.6912;-3.2688835,0.96143633,8.499097,-3.2688835,0.53840435,8.499097,2617.2456;-3.2688835,0.96143633,8.499097,-2.7304792,0.61531925,8.537555,2617.2456;1.0768087,0.96143633,10.460427,1.0768087,0.15382981,10.460427,2617.2456;-1.2690959,0.96143633,10.460427,-1.2690959,1.1152661,10.460427,2617.2456;-5.1917562,0.96143633,8.691384,-5.1917562,0.4999469,8.691384,2650.8;-1.9997876,0.96143633,9.960481,-1.9997876,0.38457453,9.960481,2650.8;1.0768087,0.96143633,9.960481,1.0768087,0.61531925,10.614257,2650.8;-2.7689366,0.96143633,7.306916,-2.7689366,1.4613832,7.306916,2684.3545;-4.922554,0.96143633,9.114416,-4.922554,0.26920217,9.114416,2684.3545;-0.30765963,-0.61531925,11.268034,-0.30765963,-0.61531925,11.268034,2684.3545;-0.30765963,0.9998938,8.422182,-0.26920217,0.9998938,8.422182,2717.909;-5.5378733,0.9998938,9.460533,-5.5378733,1.5382981,9.460533,2717.909;-2.884309,-0.7306916,9.460533,-2.884309,-0.7306916,10.421969,2717.909;0.15382981,-0.7306916,9.460533,0.15382981,-1.0768087,10.26814,2717.909;-2.6920218,2.11516,6.9223413,-2.6920218,2.11516,6.9223413,2751.4634;-5.1917562,0.7306916,8.768299,-5.1917562,0.7306916,8.768299,2751.4634;-1.9613302,-1.6536705,8.768299,-1.9613302,-1.6536705,8.537555,2751.4634;0.11537236,0.34611708,8.768299,0.11537236,0.34611708,8.691384,2785.0178;-3.2688835,0.34611708,10.0373955,-3.2688835,0.8845214,10.0373955,2785.0178;-3.2688835,0.34611708,10.0373955,-4.0380325,0.53840435,9.037501,2785.0178;-0.38457453,0.34611708,10.0373955,-0.38457453,-0.07691491,9.537449,2785.0178;-0.38457453,1.9613302,10.0373955,-1.1152661,1.9613302,10.26814,2818.5723;-4.3841496,0.9229789,6.960799,-4.3841496,0.9229789,6.960799,2818.5723;-2.9996815,-0.8845214,8.576012,-2.9996815,-0.8845214,8.576012,2818.5723;0.53840435,0.96143633,10.614257,0.53840435,0.96143633,10.614257,2852.1267;-1.4229257,0.96143633,9.498991,-1.4229257,0.69223416,9.498991,2852.1267;-5.268671,-0.38457453,9.498991,-5.268671,-0.38457453,9.191331,2852.1267;-1.5382981,-0.38457453,9.498991,-1.5382981,0.038457453,9.729735,2885.6812;1.1152661,0.69223416,10.7296295,1.1152661,0.69223416,10.7296295,2885.6812;-4.422607,0.69223416,7.114629,-4.422607,1.5767555,7.114629,2885.6812;-4.422607,0.69223416,7.114629,-4.4610643,-0.19228727,7.6530333,2885.6812;-0.5768618,0.69223416,10.421969,-0.5768618,-0.15382981,10.421969,2919.2356;-0.5768618,0.69223416,8.61447,-0.61531925,1.2306385,8.61447,2919.2356;-6.2685647,0.69223416,8.61447,-6.2685647,1.1152661,8.15298,2919.2356;-3.576543,0.69223416,8.61447,-3.576543,-0.19228727,9.306704,2952.79;0.7306916,0.69223416,9.768193,0.7306916,0.38457453,9.768193,2952.79;-2.6920218,0.69223416,9.768193,-2.6920218,0.7306916,9.383618,2952.79;-5.8839903,0.69223416,8.729842,-5.8839903,0.6537767,8.729842,2986.3445;-1.0768087,0.69223416,10.0373955,-1.0768087,-0.15382981,10.0373955,2986.3445;-1.0768087,0.69223416,10.0373955,-0.07691491,1.1921811,9.306704,2986.3445;-3.576543,0.69223416,10.0373955,-3.576543,1.4613832,10.152767,2986.3445;-3.576543,0.69223416,10.0373955,-3.9611177,-0.038457453,9.922023,3019.899;0.46148944,0.69223416,10.0373955,0.46148944,0.038457453,9.460533,3019.899;-1.0383513,0.69223416,10.0373955,-1.0383513,1.4613832,10.498885,3019.899;-3.8842027,0.69223416,10.0373955,-3.8842027,1.0768087,9.152874,3053.4534;-2.6151068,-1.0768087,10.0373955,-2.6151068,-1.0768087,10.075852,3053.4534;1.1537236,0.53840435,10.0373955,1.1537236,0.53840435,9.460533,3053.4534;-1.2690959,1.5767555,8.922129,-1.2690959,1.5767555,8.922129,3087.0078;-4.4610643,-0.26920217,8.922129,-4.4610643,-0.26920217,9.229789,3087.0078;-1.2690959,-0.26920217,8.922129,-1.2690959,-0.53840435,9.152874,3087.0078;0.4999469,0.96143633,10.845002,0.4999469,0.96143633,10.845002,3087.0078;-3.5380857,0.96143633,7.729948,-3.5380857,1.3460109,7.729948,3120.5623;-3.5380857,-0.30765963,9.037501,-3.3457985,-0.30765963,9.037501,3120.5623;0.76914907,-0.30765963,10.306598,0.76914907,-0.19228727,10.306598,3120.5623;-0.30765963,1.615213,8.383725,-0.30765963,1.615213,8.383725,3154.1167;-5.3840437,1.615213,8.383725,-5.3840437,0.8845214,8.691384,3154.1167;-2.3843622,-0.26920217,8.383725,-2.3843622,-0.26920217,8.61447,3154.1167;0.9229789,-0.26920217,10.152767,0.9229789,-0.038457453,10.152767,3187.6711;-2.3074472,1.4613832,8.883672,-2.3074472,1.4613832,8.883672,3187.6711;-4.691809,1.4613832,7.1915436,-4.691809,1.2306385,7.1915436,3187.6711;-1.3075534,-0.8845214,10.652715,-1.3075534,-0.8845214,10.652715,3187.6711;0.34611708,1.1921811,8.960587,0.34611708,1.1921811,8.960587,3221.2256;-2.9996815,1.1921811,8.960587,-2.9996815,1.3844683,9.883566,3221.2256;-4.576437,1.1921811,8.960587,-4.576437,1.0383513,8.806757,3221.2256;0.9998938,1.1921811,10.26814,0.9998938,0.19228727,10.26814,3254.7798;-0.8845214,1.1921811,10.26814,-0.8845214,1.4613832,9.883566,3254.7798;-4.422607,1.1921811,10.26814,-4.422607,0.8845214,9.268247,3254.7798;-1.4998407,-0.38457453,10.26814,-1.4998407,-0.38457453,10.921917,3254.7798;0.53840435,-0.38457453,10.26814,0.53840435,0.038457453,10.3835125,3288.3342;-1.615213,1.5382981,10.26814,-1.615213,1.5382981,9.345161,3288.3342;-3.2688835,0.15382981,10.26814,-3.2688835,0.15382981,9.922023,3288.3342;-0.76914907,0.15382981,10.26814,-0.76914907,-0.19228727,9.383618,3321.8887;-0.76914907,1.5382981,10.26814,-0.19228727,1.5382981,10.652715,3321.8887;-5.499416,1.5382981,7.5376606,-5.499416,1.3844683,7.5376606,3321.8887;-3.6150007,-1.4229257,9.691278,-3.6150007,-1.4229257,9.691278,3355.443;0.8076065,0.46148944,9.691278,0.8076065,0.46148944,9.922023,3355.443;-1.4998407,1.9228727,9.691278,-1.4998407,1.9228727,8.999044,3355.443;-5.1917562,-0.19228727,8.229895,-5.1917562,-0.19228727,8.229895,3355.443;-1.5767555,-0.19228727,8.229895,-1.5767555,-0.34611708,7.960693,3388.9976;0.9998938,-0.19228727,10.345055,0.9998938,0.19228727,10.345055,3388.9976;-2.7304792,1.4613832,8.537555,-2.7304792,1.4613832,8.537555,3388.9976;-5.1917562,-1.0383513,8.537555,-5.1917562,-1.0383513,8.191438,3422.552;-0.038457453,-1.0383513,10.537342,-0.038457453,-0.4999469,10.537342,3422.552;-0.038457453,1.3844683,9.037501,0.46148944,1.3844683,9.037501,3422.552;-4.153405,1.3844683,9.037501,-4.153405,1.3075534,9.575906,3456.1064;-4.153405,0.30765963,7.5761185,-3.6919155,0.30765963,7.5761185,3456.1064;0.8076065,0.30765963,10.498885,0.8076065,-0.11537236,10.498885,3456.1064;-2.4228196,0.30765963,9.383618,-2.4228196,1.2306385,9.383618,3456.1064;-4.922554,0.30765963,8.037608,-4.922554,1.1537236,8.037608,3489.661;-1.692128,-0.76914907,10.537342,-1.692128,-0.76914907,10.537342,3489.661;0.7306916,0.846064,9.268247,0.7306916,0.846064,9.268247,3489.661;-4.1918626,0.846064,9.268247,-4.1918626,1.2690959,8.806757,3523.2153;-4.1918626,0.846064,9.268247,-4.7302666,0.23074472,8.691384,3523.2153;-0.34611708,0.846064,9.268247,-0.34611708,-0.038457453,9.883566,3523.2153;-0.34611708,0.846064,10.421969,-0.53840435,1.3075534,10.421969,3556.7698;-4.7687244,0.846064,8.422182,-4.7687244,1.4613832,8.422182,3556.7698;-2.4228196,-0.46148944,10.3835125,-2.4228196,-0.46148944,10.3835125,3556.7698;1.2690959,-0.46148944,10.3835125,1.2690959,-0.07691491,10.498885,3556.7698;-0.9998938,0.9998938,9.229789,-0.9998938,0.9998938,9.229789,3590.3242;-5.1917562,0.9998938,9.229789,-5.1917562,0.8845214,8.922129,3590.3242;-0.8076065,-0.53840435,8.191438,-0.8076065,-0.53840435,8.191438,3590.3242;1.2306385,-0.53840435,11.037289,1.2306385,0.0,11.037289,3623.8787;-3.3457985,0.8076065,8.960587,-3.3457985,0.8076065,8.960587,3623.8787;-3.3457985,-0.46148944,8.960587,-4.307235,-0.46148944,8.229895,3623.8787;0.69223416,-0.46148944,8.960587,0.69223416,-0.30765963,9.191331,3657.433;0.69223416,1.5382981,8.960587,-0.07691491,1.5382981,8.960587,3657.433;-4.23032,1.5382981,8.960587,-4.23032,0.8076065,8.499097,3657.433;-4.23032,-0.038457453,8.960587,-3.653458,-0.038457453,8.229895,3657.433;0.7306916,-0.038457453,8.960587,0.7306916,0.15382981,9.883566,3690.9875;-1.9228727,1.8075004,8.960587,-1.9228727,1.8075004,9.345161,3690.9875;-4.576437,-0.46148944,8.960587,-4.576437,-0.46148944,8.30681,3690.9875;-1.3075534,-0.46148944,10.11431,-1.3075534,-0.6537767,10.11431,3724.542;0.61531925,0.76914907,10.11431,0.61531925,0.76914907,9.614364,3724.542;-4.576437,1.8844151,10.11431,-4.576437,1.8844151,9.229789,3724.542;-4.576437,0.15382981,7.729948,-4.807182,0.15382981,7.729948,3758.0964;-0.5768618,0.15382981,9.614364,-0.5768618,-0.038457453,9.614364,3758.0964;-0.5768618,1.8459578,9.614364,-1.3075534,1.8459578,9.691278,3758.0964;-5.153299,1.8459578,9.614364,-5.153299,1.5382981,8.61447,3758.0964;-1.9997876,-0.7306916,9.614364,-1.9997876,-0.7306916,10.345055,3791.651;0.4999469,0.8845214,9.614364,0.4999469,0.8845214,9.575906,3791.651;-2.2689898,0.8845214,9.614364,-2.2689898,1.1152661,9.460533,3791.651;-4.9610114,0.8845214,9.614364,-4.9610114,1.1921811,8.806757,3825.2053;-1.0768087,-1.0383513,9.614364,-1.0768087,-1.0383513,10.345055,3825.2053;-1.0768087,0.846064,9.614364,-0.38457453,0.846064,10.5758,3825.2053;-3.230426,0.846064,9.614364,-3.230426,0.846064,9.268247,3825.2053;-3.230426,-1.4229257,9.614364,-4.1918626,-1.4229257,10.0373955,3858.7598;0.30765963,-1.4229257,9.614364,0.30765963,-0.46148944,10.345055,3858.7598;0.30765963,0.61531925,9.614364,-0.23074472,0.61531925,9.80665,3858.7598;-4.807182,0.61531925,9.614364,-4.807182,0.9998938,9.691278,3892.3142;-2.6920218,-1.4229257,8.422182,-2.6920218,-1.4229257,8.422182,3892.3142;0.34611708,0.30765963,10.460427,0.34611708,0.30765963,10.460427,3892.3142;-3.153511,1.3460109,9.075959,-3.153511,1.3460109,9.075959,3925.8687;-5.345586,0.15382981,9.075959,-5.345586,0.15382981,9.075959,3925.8687;-1.4998407,0.15382981,9.075959,-1.4998407,-0.11537236,8.729842,3925.8687;-0.07691491,0.15382981,9.075959,-0.07691491,1.0383513,9.537449,3925.8687;-3.8457453,1.2690959,7.6530333,-3.8457453,1.2690959,7.6530333,3959.423;-3.8457453,1.2690959,7.6530333,-4.576437,0.846064,7.268459,3959.423;0.8076065,0.23074472,9.498991,0.8076065,0.23074472,9.498991,3959.423;-1.4613832,1.4613832,9.498991,-1.4613832,1.4613832,9.80665,3992.9773;-5.3840437,1.4613832,8.076065,-5.3840437,0.69223416,8.076065,3992.9773;-2.1536174,-0.038457453,9.152874,-2.1536174,-0.038457453,9.152874,3992.9773;0.61531925,-0.038457453,9.152874,0.61531925,0.69223416,9.652821,4026.5317;-3.0381389,1.5767555,9.152874,-3.0381389,1.5767555,8.499097,4026.5317;-5.3840437,0.46148944,6.883884,-5.3840437,0.46148944,6.883884,4026.5317;-0.4999469,0.46148944,10.998832,-0.4999469,-0.19228727,10.998832,4026.5317;-0.4999469,1.8459578,10.998832,-0.76914907,1.8459578,10.3835125,4060.0862;-4.307235,1.8459578,9.152874,-4.307235,2.7304792,9.152874,4060.0862;-4.307235,-0.34611708,10.998832,-3.8842027,-0.34611708,10.998832,4060.0862;0.4999469,-0.34611708,9.960481,0.4999469,0.46148944,9.960481,4093.6406;-1.9228727,1.3075534,9.960481,-1.9228727,1.3075534,9.498991,4093.6406;-5.7301607,1.3075534,9.960481,-5.7301607,1.1921811,9.268247,4093.6406;-1.3844683,-0.61531925,9.960481,-1.3844683,-0.61531925,10.421969,4127.1953;0.8845214,0.6537767,9.960481,0.8845214,0.6537767,10.11431,4127.1953;-3.1919687,0.6537767,8.729842,-3.1919687,1.1921811,8.729842,4127.1953;-4.23032,-0.38457453,8.729842,-4.23032,-0.38457453,8.768299,4127.1953;0.23074472,-1.7690428,8.729842,0.23074472,-1.7690428,9.691278,4160.7495;0.23074472,1.1921811,9.960481,0.15382981,1.1921811,9.960481,4160.7495;-3.9226604,1.1921811,9.960481,-3.9226604,0.38457453,9.152874,4160.7495;-3.9226604,-0.6537767,8.037608,-3.5380857,-0.6537767,8.037608,4194.304;1.2306385,-0.6537767,8.037608,1.2306385,-0.23074472,9.037501,4194.304;-2.3459046,1.9997876,8.037608,-2.3459046,1.9997876,8.576012,4194.304;-4.3841496,0.846064,8.037608,-4.3841496,0.846064,8.15298,4227.8584;-2.3843622,0.846064,8.037608,-2.3843622,0.038457453,8.46064,4227.8584;0.53840435,0.846064,9.498991,0.53840435,1.0383513,9.498991,4227.8584;-3.153511,0.846064,8.15298,-3.153511,1.8075004,8.15298,4227.8584;-4.845639,0.846064,8.15298,-4.845639,0.46148944,8.691384,4261.413;0.423032,0.846064,8.15298,0.423032,0.34611708,8.922129,4261.413;0.423032,0.846064,9.768193,-0.34611708,1.6536705,9.768193,4261.413;-5.3840437,0.846064,8.15298,-5.3840437,1.4998407,8.15298,4294.9673;-2.4997344,0.846064,8.15298,-2.4997344,0.11537236,8.845214,4294.9673;1.5767555,0.846064,8.15298,1.5767555,0.9998938,9.075959,4294.9673;-2.1920748,1.9228727,9.845108,-2.1920748,1.9228727,9.845108,4294.9673;-5.422501,1.9228727,8.345267,-5.422501,1.1921811,8.345267,4328.5215;-0.9998938,-0.7306916,11.537236,-0.9998938,-0.7306916,11.537236,4328.5215;0.6537767,1.4229257,10.152767,0.6537767,1.4229257,10.152767,4328.5215;-2.6920218,1.4229257,10.152767,-2.6920218,1.615213,9.537449,4362.076;-4.7302666,-0.15382981,10.152767,-4.7302666,-0.15382981,9.845108,4362.076;0.34611708,-0.15382981,11.460321,0.34611708,0.30765963,11.460321,4362.076;0.34611708,1.3844683,9.191331,-0.30765963,1.3844683,9.191331,4395.6304;-4.7687244,1.3844683,9.191331,-4.7687244,1.0768087,8.999044,4395.6304;-3.153511,-1.615213,9.191331,-3.153511,-1.615213,10.191225,4395.6304;0.11537236,0.0,10.921917,0.11537236,0.0,10.921917,4395.6304;-2.3074472,1.3844683,9.575906,-2.3074472,1.3844683,9.575906,4429.185;-5.1148415,-0.038457453,9.575906,-5.1148415,-0.038457453,9.614364,4429.185;-1.4229257,-1.1921811,9.575906,-1.4229257,-1.1921811,8.845214,4429.185;0.34611708,0.5768618,9.575906,0.34611708,0.5768618,9.152874,4462.7393;-4.345692,0.5768618,8.422182,-4.345692,1.4613832,8.422182,4462.7393;-3.2688835,0.5768618,8.422182,-3.2688835,-0.30765963,7.614576,4462.7393;0.23074472,0.5768618,8.422182,0.23074472,0.11537236,8.422182,4496.294;0.23074472,1.692128,9.922023,-0.7306916,1.692128,9.922023,4496.294;-2.5381918,-0.15382981,8.576012,-2.5381918,-0.15382981,8.576012,4496.294;0.46148944,-0.15382981,8.576012,0.46148944,0.69223416,9.075959,4529.848;-2.6151068,1.2690959,8.576012,-2.6151068,1.2690959,9.345161,4529.848;-5.037926,0.23074472,8.576012,-5.037926,0.23074472,8.499097,4529.848;-0.5768618,0.23074472,8.576012,-0.5768618,0.46148944,9.422076,4563.403;-0.5768618,0.23074472,10.998832,0.19228727,0.9229789,10.998832,4563.403;-2.884309,1.9613302,8.845214,-2.884309,1.9613302,8.845214,4563.403;-2.884309,-0.038457453,8.845214,-3.4227133,-0.038457453,8.537555,4596.957;0.038457453,-0.038457453,11.575693,0.038457453,0.53840435,11.575693,4596.957;0.038457453,1.1921811,8.883672,-0.38457453,1.1921811,8.883672,4596.957;-5.691703,1.1921811,8.883672,-5.691703,1.3844683,8.883672,4596.957;-1.9228727,-0.8845214,10.5758,-1.9228727,-0.8845214,10.5758,4630.5117;0.96143633,0.4999469,10.5758,0.96143633,0.4999469,10.421969,4630.5117;-4.07649,2.6151068,8.037608,-4.07649,2.6151068,8.037608,4630.5117;-4.07649,-0.15382981,8.037608,-4.999469,-0.15382981,8.806757,4664.066;-1.5382981,-0.15382981,10.768087,-1.5382981,-0.76914907,10.768087,4664.066;-0.07691491,1.3460109,7.806863,-0.07691491,1.3460109,7.806863,4664.066;-3.653458,1.3460109,7.806863,-3.653458,1.1921811,8.768299,4697.6206;-2.6151068,-1.4998407,9.114416,-2.6151068,-1.4998407,9.114416,4697.6206;-0.26920217,-0.34611708,10.614257,-0.26920217,-0.34611708,10.614257,4697.6206;-2.3459046,1.2306385,9.383618,-2.3459046,1.2306385,9.383618,4697.6206;-4.807182,1.2306385,7.729948,-4.807182,0.423032,7.729948,4731.175;-2.3843622,-1.3460109,7.729948,-2.3843622,-1.3460109,8.383725,4731.175;0.07691491,-0.23074472,8.922129,0.07691491,-0.23074472,8.922129,4731.175;-3.4996283,0.9998938,8.922129,-3.4996283,0.9998938,9.075959,4764.7295;-4.576437,0.9998938,8.922129,-4.576437,0.69223416,8.806757,4764.7295;-0.46148944,0.9998938,8.922129,-0.46148944,0.46148944,9.075959,4764.7295;-0.46148944,0.9998938,10.421969,0.11537236,1.615213,10.421969,4764.7295;-4.9610114,0.9998938,8.46064,-4.9610114,1.0768087,8.46064,4798.2837;-3.8842027,-0.15382981,8.46064,-3.8842027,-0.15382981,7.883778,4798.2837;1.1537236,-0.15382981,9.652821,1.1537236,0.7306916,9.652821,4798.2837;-0.8845214,1.3075534,9.652821,-0.8845214,1.3075534,9.268247,4831.8384;-4.691809,1.3075534,8.576012,-4.691809,0.61531925,8.576012,4831.8384;-1.0768087,0.07691491,11.152661,-1.0768087,0.07691491,11.152661,4831.8384;1.2306385,1.3075534,10.0373955,1.2306385,1.3075534,10.0373955,4865.3926;-3.4996283,1.3075534,7.614576,-3.4996283,2.1536174,7.614576,4865.3926;-4.845639,1.3075534,8.845214,-4.845639,0.6537767,8.845214,4865.3926;-0.423032,-0.46148944,11.421864,-0.423032,-0.46148944,11.421864,4865.3926;-0.423032,-0.46148944,9.268247,-0.11537236,0.53840435,9.268247,4898.9473;-4.7687244,1.4613832,9.268247,-4.7687244,1.4613832,8.46064,4898.9473;-2.7304792,-1.1537236,10.3835125,-2.7304792,-1.1537236,10.3835125,4898.9473;-0.07691491,-1.1537236,10.3835125,-0.07691491,-0.9998938,10.152767,4932.5015;-1.3460109,2.0767026,8.652927,-1.3460109,2.0767026,8.652927,4932.5015;-4.7687244,0.30765963,8.652927,-4.7687244,0.30765963,8.2683525,4932.5015;-1.8459578,-1.8459578,10.768087,-1.8459578,-1.8459578,10.768087,4966.056;0.23074472,0.038457453,8.999044,0.23074472,0.038457453,8.999044,4966.056;-2.6535642,1.692128,8.999044,-2.6535642,1.692128,9.383618,4966.056;-4.1918626,-0.846064,8.999044,-4.1918626,-0.846064,9.614364,4966.056;-0.38457453,-0.846064,8.999044,-0.38457453,-0.61531925,8.46064,4999.6104;-0.38457453,1.8844151,10.5758,-0.423032,1.8844151,10.5758,4999.6104;-4.576437,0.61531925,7.8453207,-4.576437,0.61531925,7.8453207,4999.6104;-2.9612238,-1.5382981,7.8453207,-2.9612238,-1.5382981,7.8453207,5033.165;0.46148944,0.53840435,9.152874,0.46148944,0.53840435,9.152874,5033.165;-2.6920218,0.53840435,9.152874,-2.6920218,1.3075534,9.998938,5033.165;-4.8840966,0.53840435,9.152874,-4.8840966,0.6537767,8.46064,5066.719;-0.9229789,0.53840435,9.152874,-0.9229789,1.0383513,8.729842,5066.719;-0.9229789,0.53840435,9.152874,0.0,1.4613832,9.922023,5066.719;-4.345692,0.53840435,9.152874,-4.345692,1.0383513,8.383725,5066.719;-4.345692,0.53840435,9.152874,-4.6148944,0.76914907,8.15298,5100.2734;0.9998938,0.53840435,10.845002,0.9998938,0.423032,10.845002,5100.2734;-0.53840435,0.53840435,10.845002,-0.53840435,1.0383513,10.152767,5100.2734;-5.4609585,0.53840435,8.191438,-5.4609585,1.1152661,8.191438,5133.828;-1.8459578,0.53840435,10.652715,-1.8459578,0.07691491,10.652715,5133.828;0.8845214,0.53840435,10.652715,0.8845214,0.07691491,11.075747,5133.828;-1.9613302,0.53840435,8.383725,-1.9613302,1.0383513,8.383725,5167.3823;-4.845639,0.53840435,8.383725,-4.845639,0.38457453,9.152874,5167.3823;-0.9229789,-2.038245,11.498778,-0.9229789,-2.038245,11.498778,5167.3823;0.61531925,0.23074472,10.229683,0.61531925,0.23074472,10.229683,5167.3823;-3.5380857,1.615213,7.9991503,-3.5380857,1.615213,7.9991503,5200.937;-3.5380857,-0.9229789,9.191331,-4.4610643,-0.9229789,9.191331,5200.937;-0.423032,-0.9229789,9.191331,-0.423032,-0.8076065,8.422182,5200.937;-0.423032,1.9228727,9.191331,-1.1152661,1.9228727,9.075959,5234.491;-5.5763307,0.7306916,7.6914907,-5.5763307,0.7306916,7.6914907,5234.491;-2.9996815,-0.96143633,7.6914907,-2.9996815,-0.96143633,7.5761185,5234.491;0.15382981,0.07691491,8.845214,0.15382981,0.07691491,8.845214,5268.046;-1.7305853,1.1921811,10.345055,-1.7305853,1.1921811,10.345055,5268.046;-6.3839374,1.1921811,8.499097,-6.3839374,0.423032,8.499097,5268.046;-1.8844151,-0.846064,6.614682,-1.8844151,-0.846064,6.614682,5268.046;0.23074472,1.3844683,9.845108,0.23074472,1.3844683,9.845108,5301.6;-3.384256,1.3844683,7.883778,-3.384256,1.4998407,7.883778,5301.6;-3.384256,0.0,7.883778,-3.3457985,0.0,8.2683525,5301.6;0.19228727,1.1537236,10.421969,0.19228727,1.1537236,10.421969,5335.155;0.19228727,1.1537236,10.421969,0.23074472,0.61531925,9.922023,5335.155;-5.5763307,1.1537236,9.191331,-5.5763307,0.9998938,9.191331,5335.155;-2.3074472,0.11537236,10.921917,-2.3074472,0.11537236,10.921917,5335.155;1.3460109,0.11537236,10.921917,1.3460109,1.0768087,10.652715,5368.709;-3.0765963,1.615213,7.614576,-3.0765963,1.615213,7.614576,5368.709;-4.845639,-0.23074472,7.614576,-4.845639,-0.23074472,8.537555,5368.709;0.53840435,-0.23074472,11.498778,0.53840435,-0.34611708,11.498778,5402.2637;0.53840435,1.2690959,8.15298,0.76914907,1.2690959,8.15298,5402.2637;-2.4997344,1.2690959,9.422076,-2.4997344,1.2690959,9.422076,5402.2637;-2.4997344,-0.7306916,9.422076,-3.1919687,-0.7306916,9.845108,5435.818;0.15382981,-0.7306916,9.422076,0.15382981,-0.9998938,10.0373955,5435.818;-1.692128,1.5382981,9.422076,-1.692128,1.5382981,10.3835125,5435.818;-5.7301607,1.5382981,8.383725,-5.7301607,0.9229789,8.383725,5435.818;-2.461277,-1.0768087,8.383725,-2.461277,-1.0768087,8.729842,5469.3726;-0.61531925,-1.0768087,8.383725,-0.61531925,-0.423032,8.576012,5469.3726;-3.6919155,1.1537236,8.383725,-3.6919155,1.1537236,9.075959,5469.3726;-3.6919155,1.1537236,8.383725,-4.691809,0.30765963,9.268247,5502.927;-0.5768618,-0.07691491,8.383725,-0.5768618,-0.07691491,8.729842,5502.927;-0.5768618,-0.07691491,11.114204,-0.53840435,0.46148944,11.114204,5502.927;-3.9995751,1.5767555,8.076065,-3.9995751,1.5767555,8.076065,5536.4814;-3.9995751,-0.846064,8.076065,-3.4996283,-0.846064,8.61447,5536.4814;0.9229789,0.53840435,9.614364,0.9229789,0.53840435,9.614364,5536.4814;-0.34611708,0.53840435,9.614364,-0.34611708,0.7306916,9.845108,5536.4814;-5.2302136,0.53840435,8.537555,-5.2302136,0.96143633,8.537555,5570.0356;-1.2306385,0.53840435,9.575906,-1.2306385,0.26920217,9.575906,5570.0356;1.615213,0.53840435,10.7296295,1.615213,0.846064,10.7296295,5570.0356;-2.6535642,1.9613302,10.7296295,-2.6535642,1.9613302,9.768193,5603.5903;-4.845639,0.038457453,7.2300014,-4.845639,0.038457453,7.2300014,5603.5903;-0.26920217,0.038457453,10.921917,-0.26920217,-0.9229789,10.921917,5603.5903;-0.26920217,2.4228196,7.9222355,-0.038457453,2.4228196,7.9222355,5637.1445;-5.9224477,2.4228196,7.9222355,-5.9224477,1.8075004,8.422182,5637.1445;-3.2688835,-0.423032,9.614364,-3.2688835,-0.423032,9.614364,5637.1445;-0.69223416,-0.423032,9.614364,-0.69223416,-0.11537236,9.768193,5637.1445;-2.3459046,1.3844683,9.614364,-2.3459046,1.3844683,9.922023,5670.699;-5.7301607,1.3844683,9.614364,-5.7301607,0.9998938,9.460533,5670.699;-1.692128,-0.46148944,9.614364,-1.692128,-0.46148944,9.960481,5670.699;0.19228727,0.9998938,9.614364,0.19228727,0.9998938,9.575906,5704.2534;-3.9995751,0.9998938,8.076065,-3.9995751,0.9998938,8.076065,5704.2534;-3.9995751,-0.26920217,9.498991,-4.23032,-0.26920217,9.498991,5704.2534;0.30765963,-0.26920217,9.498991,0.30765963,-0.76914907,8.883672,5737.808;0.30765963,0.76914907,9.498991,-0.15382981,0.76914907,10.3835125,5737.808;-3.9611177,0.76914907,9.498991,-3.9611177,0.423032,9.383618,5737.808;-2.9227664,-0.69223416,8.345267,-2.9227664,-0.69223416,8.345267,5737.808;0.76914907,0.5768618,10.998832,0.76914907,0.5768618,10.998832,5771.3623;-1.4998407,0.5768618,9.460533,-1.4998407,1.2690959,9.460533,5771.3623;-4.653352,0.5768618,7.5761185,-4.653352,0.30765963,7.5761185,5771.3623;-2.0767026,-0.8076065,9.306704,-2.0767026,-0.8076065,9.306704,5804.9165;0.8076065,0.5768618,10.460427,0.8076065,0.5768618,10.460427,5804.9165;-2.2689898,1.7305853,7.9991503,-2.2689898,1.7305853,7.9991503,5804.9165;-4.999469,0.423032,7.9991503,-4.999469,0.423032,7.9222355,5804.9165;0.15382981,0.423032,10.26814,0.15382981,-0.23074472,10.26814,5838.471;0.15382981,1.7305853,9.037501,-0.7306916,1.7305853,9.037501,5838.471;-4.691809,1.7305853,7.960693,-4.691809,2.038245,7.960693,5838.471;-2.9227664,-0.34611708,9.614364,-2.9227664,-0.34611708,9.614364,5872.0254;0.8076065,0.69223416,9.614364,0.8076065,0.69223416,9.575906,5872.0254;-1.9228727,0.69223416,9.614364,-1.9228727,1.3075534,9.075959,5872.0254;-4.1918626,0.69223416,9.614364,-4.1918626,0.9229789,8.61447,5905.58;-1.5767555,-0.4999469,9.614364,-1.5767555,-0.4999469,10.26814,5905.58;0.46148944,0.8076065,9.614364,0.46148944,0.8076065,9.845108,5905.58;-4.4610643,0.8076065,9.614364,-4.4610643,0.8845214,9.614364,5939.1343;-4.4610643,-0.53840435,9.614364,-4.23032,-0.53840435,9.691278,5939.1343;0.07691491,-0.53840435,9.614364,0.07691491,-0.53840435,10.26814,5939.1343;0.07691491,1.7305853,9.614364,-0.15382981,1.7305853,10.3835125,5939.1343;-4.07649,0.4999469,9.614364,-4.07649,0.4999469,9.422076,5972.689;-4.07649,-0.76914907,9.614364,-3.153511,-0.76914907,8.999044,5972.689;0.34611708,-0.76914907,9.614364,0.34611708,0.07691491,10.306598,5972.689;-1.1152661,1.8075004,9.614364,-1.1152661,1.8075004,9.691278,6006.243;-4.8840966,0.423032,9.614364,-4.8840966,0.423032,8.806757,6006.243;-0.8076065,-0.8845214,9.614364,-0.8076065,-0.8845214,9.345161,6006.243;0.96143633,0.38457453,9.614364,0.96143633,0.38457453,10.0373955,6006.243;-1.8844151,0.38457453,7.883778,-1.8844151,0.46148944,7.883778,6039.798;-4.1149473,0.38457453,7.883778,-4.1149473,-0.26920217,8.46064,6039.798;-0.34611708,0.38457453,10.460427,-0.34611708,-0.19228727,10.460427,6039.798;-0.34611708,1.4229257,9.268247,-1.1921811,1.4229257,9.268247,6073.352;-5.6532454,1.4229257,7.883778,-5.6532454,0.8845214,7.883778,6073.352;-2.6151068,-0.23074472,7.883778,-2.6151068,-0.23074472,8.845214,6073.352;0.8845214,-0.23074472,9.80665,0.8845214,0.46148944,9.80665,6106.9067;-2.9227664,0.96143633,9.80665,-2.9227664,0.96143633,8.999044,6106.9067;-4.6148944,0.96143633,8.076065,-4.6148944,0.7306916,8.076065,6106.9067;0.46148944,-0.23074472,10.229683,0.46148944,-0.23074472,10.229683,6140.461;0.46148944,0.9229789,8.922129,-0.38457453,0.9229789,8.922129,6140.461;-4.1149473,0.9229789,8.922129,-4.1149473,1.7305853,7.9991503,6140.461;-2.2305322,0.9229789,8.922129,-2.2305322,0.11537236,8.845214,6140.461;0.423032,0.9229789,10.345055,0.423032,0.38457453,10.345055,6174.0156;-0.7306916,0.9229789,10.345055,-0.7306916,1.1152661,9.883566,6174.0156;-4.7687244,0.9229789,10.345055,-4.7687244,1.1152661,9.422076,6174.0156;-2.6535642,-0.9229789,10.345055,-2.6535642,-0.9229789,10.614257,6207.57;0.8076065,0.46148944,10.345055,0.8076065,0.46148944,10.421969,6207.57;-3.5380857,0.46148944,8.999044,-3.5380857,1.3460109,8.999044,6207.57;-4.6148944,0.46148944,8.999044,-4.6148944,-0.34611708,9.114416,6207.57;-0.8845214,-0.76914907,8.999044,-0.8845214,-0.76914907,9.998938,6241.1245;-0.8845214,1.1537236,10.691172,-0.11537236,1.1537236,10.691172,6241.1245;-5.0763836,1.1537236,8.845214,-5.0763836,0.846064,8.845214,6241.1245;-5.0763836,-1.2690959,8.845214,-4.5379796,-1.2690959,8.729842,6274.6787;0.19228727,-0.19228727,10.614257,0.19228727,-0.19228727,10.614257,6274.6787;-1.1921811,1.615213,9.075959,-1.1921811,1.615213,9.075959,6274.6787;-4.499522,1.615213,9.075959,-4.499522,1.0768087,8.191438,6274.6787;-1.9997876,-0.846064,7.499203,-1.9997876,-0.846064,7.499203,6308.2334;0.846064,-0.846064,9.845108,0.846064,-0.038457453,9.845108,6308.2334;-2.6151068,0.9998938,9.845108,-2.6151068,0.9998938,8.960587,6308.2334;-4.307235,-0.15382981,7.7684054,-4.307235,-0.15382981,7.7684054,6341.7876;-0.30765963,-0.15382981,9.345161,-0.30765963,-0.19228727,9.345161,6341.7876;0.846064,1.4229257,9.345161,0.846064,1.4229257,8.729842,6341.7876;-4.9610114,1.4229257,8.15298,-4.9610114,1.3844683,8.15298,6375.3423;-3.6919155,0.19228727,8.15298,-3.6919155,0.19228727,7.806863,6375.3423;0.07691491,0.19228727,9.498991,0.07691491,0.46148944,9.498991,6375.3423;-2.1536174,1.9228727,9.498991,-2.1536174,1.9228727,9.460533,6375.3423;-4.9610114,1.9228727,9.498991,-4.9610114,0.9229789,8.652927,6408.8965;-1.1537236,0.34611708,9.498991,-1.1537236,0.34611708,10.11431,6408.8965;0.38457453,0.34611708,9.498991,0.38457453,0.8076065,10.0373955,6408.8965;-3.653458,1.8075004,9.498991,-3.653458,1.8075004,9.229789,6442.451;-3.653458,0.19228727,8.345267,-4.422607,0.19228727,8.345267,6442.451;-0.26920217,0.19228727,9.729735,-0.26920217,-0.61531925,9.729735,6442.451;-0.26920217,0.19228727,9.729735,-0.34611708,0.9229789,10.306598,6476.0054;-4.7687244,0.19228727,9.729735,-4.7687244,1.0383513,9.191331,6476.0054;-2.807394,0.19228727,9.729735,-2.807394,-0.34611708,10.075852,6476.0054;0.4999469,0.19228727,9.729735,0.4999469,0.038457453,10.498885,6476.0054;-1.9997876,1.4613832,9.729735,-1.9997876,1.4613832,8.999044,6509.5596;-5.268671,0.38457453,9.729735,-5.268671,0.38457453,9.075959,6509.5596;-0.8076065,0.38457453,8.229895,-0.8076065,-0.4999469,8.229895,6509.5596;-0.8076065,0.38457453,10.0373955,0.07691491,0.6537767,10.0373955,6543.1143;-3.384256,0.38457453,10.0373955,-3.384256,1.0383513,9.306704,6543.1143;-3.384256,0.38457453,8.922129,-4.2687774,-0.23074472,8.922129,6543.1143;0.26920217,0.38457453,8.922129,0.26920217,-0.4999469,9.883566,6576.6685;0.26920217,1.4229257,8.922129,0.30765963,1.4229257,9.383618,6576.6685;-4.307235,1.4229257,8.922129,-4.307235,0.69223416,8.114523,6576.6685;-2.807394,-1.692128,8.922129,-2.807394,-1.692128,8.576012,6576.6685;0.8076065,0.0,10.3835125,0.8076065,0.0,10.3835125,6610.223;-1.692128,1.3844683,8.999044,-1.692128,1.3844683,8.999044,6610.223;-5.3071284,-0.34611708,8.999044,-5.3071284,-0.34611708,7.9991503,6610.223;-1.5382981,-0.34611708,8.999044,-1.5382981,-0.11537236,9.268247,6643.7773;0.34611708,0.9998938,8.999044,0.34611708,0.9998938,9.460533,6643.7773;-3.807288,0.9998938,8.999044,-3.807288,1.3460109,8.383725,6643.7773;-3.807288,-0.11537236,8.999044,-4.653352,-0.11537236,8.806757,6677.332;-0.07691491,-0.11537236,8.999044,-0.07691491,0.423032,9.845108,6677.332;-0.07691491,1.4229257,8.999044,-1.0383513,1.4229257,9.383618,6677.332;-5.2302136,1.4229257,8.999044,-5.2302136,0.61531925,8.229895,6677.332;-2.884309,1.4229257,8.999044,-2.884309,0.4999469,9.80665,6710.886;1.0768087,1.4229257,10.191225,1.0768087,0.53840435,10.191225,6710.886;-3.384256,1.4229257,10.191225,-3.384256,1.4998407,10.614257,6710.886;-4.9610114,0.30765963,7.5376606,-4.9610114,0.30765963,7.5376606,6744.441;-1.692128,-1.0383513,11.114204,-1.692128,-1.0383513,11.114204,6744.441;0.30765963,0.53840435,11.114204,0.30765963,0.53840435,10.421969,6744.441;-4.23032,0.53840435,8.2683525,-4.23032,1.3075534,8.2683525,6777.995;-4.23032,0.53840435,8.2683525,-4.307235,-0.26920217,9.268247,6777.995;-0.4999469,0.53840435,10.691172,-0.4999469,0.11537236,10.691172,6777.995;-0.4999469,0.53840435,10.691172,-1.1537236,0.846064,9.883566,6777.995;-4.999469,1.6536705,8.768299,-4.999469,1.6536705,8.768299,6811.55;-2.2689898,-1.2690959,8.768299,-2.2689898,-1.2690959,9.729735,6811.55;0.61531925,0.53840435,10.229683,0.61531925,0.53840435,10.229683,6811.55;-3.1150537,0.53840435,8.537555,-3.1150537,1.1921811,8.537555,6845.104;-4.807182,0.53840435,8.537555,-4.807182,-0.038457453,8.61447,6845.104;0.30765963,-1.0383513,8.537555,0.30765963,-1.0383513,8.46064,6845.104;0.30765963,0.9229789,9.575906,0.07691491,0.9229789,9.575906,6845.104;-4.691809,0.9229789,7.5376606,-4.691809,1.7690428,7.5376606,6878.6587;-3.4227133,-0.53840435,9.691278,-3.4227133,-0.53840435,9.691278,6878.6587;0.61531925,-0.53840435,9.691278,0.61531925,-0.15382981,9.614364,6878.6587;-1.2690959,1.615213,9.691278,-1.2690959,1.615213,9.691278,6912.213;-3.9226604,0.11537236,8.61447,-3.9226604,0.11537236,8.61447,6912.213;-2.0767026,0.11537236,7.5761185,-2.0767026,0.6537767,7.5761185,6912.213;0.8845214,0.11537236,10.075852,0.8845214,0.38457453,10.075852,6945.7676;-2.6535642,2.1536174,8.076065,-2.6535642,2.1536174,8.076065,6945.7676;-5.2302136,-0.46148944,8.076065,-5.2302136,-0.46148944,8.652927,6945.7676;-0.423032,-0.46148944,11.844895,-0.423032,-0.19228727,11.844895,6945.7676;-0.423032,1.3460109,9.845108,-0.38457453,1.3460109,9.845108,6979.322;-4.2687774,1.3460109,9.845108,-4.2687774,1.3844683,9.306704,6979.322;-4.2687774,1.3460109,9.845108,-4.3841496,0.61531925,9.075959,6979.322;0.846064,1.3460109,9.845108,0.846064,0.5768618,9.691278,7012.8765;-1.0383513,1.3460109,9.845108,-1.0383513,1.8844151,9.498991,7012.8765;-5.037926,1.3460109,7.7684054,-5.037926,0.6537767,7.7684054,7012.8765;-1.3075534,-0.846064,11.614151,-1.3075534,-0.846064,11.614151,7046.4307;0.8076065,0.30765963,10.345055,0.8076065,0.30765963,10.345055,7046.4307;-3.384256,0.30765963,10.345055,-3.384256,1.0768087,9.80665,7046.4307;-3.384256,0.30765963,8.422182,-4.345692,0.11537236,8.422182,7046.4307;-0.46148944,-0.76914907,9.80665,-0.46148944,-0.76914907,9.80665,7079.9854;-0.46148944,1.0768087,9.80665,-0.4999469,1.0768087,9.152874,7079.9854;-3.8842027,1.0768087,8.61447,-3.8842027,0.96143633,8.61447,7079.9854;-3.8842027,-1.1152661,8.61447,-3.4996283,-1.1152661,9.345161,7113.5396;0.53840435,-1.1152661,10.0373955,0.53840435,-0.423032,10.0373955,7113.5396;-1.3075534,1.8075004,8.499097,-1.3075534,1.8075004,8.499097,7113.5396;-4.499522,0.30765963,8.499097,-4.499522,0.30765963,9.229789,7147.094;-1.615213,0.30765963,8.499097,-1.615213,-0.5768618,7.8453207,7147.094;0.6537767,0.30765963,8.499097,0.6537767,0.69223416,9.383618,7147.094;-2.8458514,1.9997876,8.499097,-2.8458514,1.9997876,8.61447,7147.094;-4.307235,-0.8845214,8.499097,-4.307235,-0.8845214,8.037608,7180.6484;-1.2306385,0.30765963,7.4222884,-1.2306385,0.30765963,7.4222884,7180.6484;-0.19228727,1.7690428,11.344949,-0.19228727,1.7690428,11.344949,7180.6484;-5.1148415,0.69223416,8.46064,-5.1148415,0.69223416,8.46064,7214.2026;-3.1919687,0.69223416,8.46064,-3.1919687,0.76914907,9.229789,7214.2026;1.1152661,0.69223416,10.152767,1.1152661,1.3075534,10.152767,7214.2026;-2.2689898,0.69223416,10.152767,-2.2689898,1.2306385,9.152874,7247.7573;-5.268671,0.69223416,7.9222355,-5.268671,0.7306916,7.9222355,7247.7573;-0.846064,0.69223416,10.998832,-0.846064,0.23074472,10.998832,7247.7573;-0.846064,0.69223416,10.998832,0.0,0.6537767,10.960374,7247.7573;-2.7689366,0.69223416,9.614364,-2.7689366,1.0383513,9.614364,7281.3115;-4.3841496,0.69223416,9.614364,-4.3841496,-0.11537236,8.691384,7281.3115;-0.15382981,-0.53840435,11.537236,-0.15382981,-0.53840435,11.537236,7281.3115;-0.15382981,-0.53840435,9.037501,0.423032,0.46148944,9.037501,7314.866;-3.730373,0.8845214,9.037501,-3.730373,0.8845214,8.883672,7314.866;-2.6151068,-0.846064,10.883459,-2.6151068,-0.846064,10.883459,7314.866;0.46148944,-0.846064,10.883459,0.46148944,-0.76914907,10.845002,7314.866;-2.6535642,1.1537236,9.152874,-2.6535642,1.1537236,9.152874,7348.4204;-4.7687244,1.1537236,9.152874,-4.7687244,0.6537767,8.46064,7348.4204;-1.1921811,-1.4229257,8.037608,-1.1921811,-1.4229257,8.037608,7348.4204;0.038457453,0.9998938,8.037608,0.038457453,0.9998938,8.2683525,7381.975;-3.384256,0.9998938,8.037608,-3.384256,0.9229789,8.15298,7381.975;-3.384256,-0.846064,8.037608,-4.2687774,-0.846064,8.229895,7381.975;-0.26920217,-0.846064,9.652821,-0.26920217,-1.4613832,9.652821,7415.5293;-0.26920217,1.4613832,9.652821,-1.1537236,1.4613832,9.998938,7415.5293;-4.9610114,1.4613832,7.5376606,-4.9610114,1.3460109,7.5376606,7415.5293;-2.3074472,-0.7306916,7.5376606,-2.3074472,-0.7306916,6.960799,7415.5293;-0.11537236,0.423032,8.806757,-0.11537236,0.423032,8.806757,7449.084;-1.8844151,0.423032,8.806757,-1.8844151,0.9998938,9.152874,7449.084;-5.0763836,0.423032,8.806757,-5.0763836,-0.38457453,7.9222355,7449.084;-0.7306916,0.423032,8.806757,-0.7306916,1.0768087,9.075959,7482.638;0.61531925,1.7305853,10.960374,0.61531925,1.7305853,10.960374,7482.638;-5.1148415,1.7305853,7.960693,-5.1148415,1.4613832,7.960693,7482.638;-3.7688303,0.423032,7.960693,-3.7688303,0.423032,8.960587,7516.193;0.6537767,0.423032,11.229576,0.6537767,0.6537767,11.229576,7516.193;-0.8076065,1.5767555,8.922129,-0.8076065,1.5767555,8.922129,7516.193;-5.691703,1.5767555,8.922129,-5.691703,0.9998938,8.691384,7516.193;-2.2305322,-1.0768087,11.498778,-2.2305322,-1.0768087,11.498778,7549.747;1.0383513,0.9998938,10.460427,1.0383513,0.9998938,10.460427,7549.747;-3.0381389,2.4228196,8.2683525,-3.0381389,2.4228196,8.2683525,7549.747;-5.153299,-0.46148944,9.460533,-5.153299,-0.46148944,9.460533,7583.302;-0.15382981,-0.46148944,10.845002,-0.15382981,-1.1152661,10.845002,7583.302;-0.15382981,1.1152661,8.537555,0.4999469,1.1152661,8.537555,7583.302;-3.3457985,1.1152661,8.537555,-3.3457985,1.0383513,8.537555,7616.856;-3.3457985,-1.4613832,9.691278,-3.2688835,-1.4613832,9.691278,7616.856;0.26920217,-0.23074472,9.691278,0.26920217,-0.23074472,9.998938,7616.856;-1.5382981,2.038245,8.576012,-1.5382981,2.038245,8.576012,7616.856;-4.6148944,0.46148944,8.576012,-4.6148944,0.46148944,7.5761185,7650.4106;-2.9612238,-0.69223416,8.576012,-2.9612238,-0.69223416,8.422182,7650.4106;-0.07691491,0.423032,9.768193,-0.07691491,0.423032,9.768193,7650.4106;-2.9227664,0.423032,9.768193,-2.9227664,0.96143633,9.883566,7683.965;-4.653352,0.423032,8.422182,-4.653352,0.7306916,8.422182,7683.965;-0.4999469,0.423032,8.422182,-0.4999469,0.11537236,9.114416,7683.965;-0.4999469,0.423032,11.306491,-1.2306385,1.1537236,11.306491,7717.5195;-3.807288,0.423032,7.9991503,-3.807288,1.0768087,7.9991503,7717.5195;-2.7304792,0.423032,7.9991503,-2.7304792,0.423032,8.537555,7717.5195;0.8845214,0.423032,9.729735,0.8845214,0.46148944,9.729735,7717.5195;-0.38457453,0.423032,9.729735,-0.38457453,1.2690959,9.922023,7751.0737;-5.1148415,0.423032,9.729735,-5.1148415,0.8845214,8.999044,7751.0737;-1.3844683,0.423032,10.806544,-1.3844683,0.038457453,10.806544,7751.0737;1.1152661,0.423032,10.806544,1.1152661,0.76914907,9.998938,7784.6284;-3.1919687,0.423032,8.114523,-3.1919687,0.9998938,8.114523,7784.6284;-4.807182,0.423032,8.114523,-4.807182,-0.11537236,8.999044,7784.6284;-0.11537236,-0.69223416,10.998832,-0.11537236,-0.69223416,10.998832,7818.1826;-0.11537236,0.69223416,8.922129,-0.15382981,0.69223416,8.922129,7818.1826;-4.4610643,0.69223416,8.922129,-4.4610643,1.0383513,9.460533,7818.1826;-4.4610643,-0.846064,8.922129,-3.4611707,-0.846064,8.537555,7818.1826;0.34611708,-0.846064,10.614257,0.34611708,-0.07691491,10.614257,7851.7373;-1.8844151,1.5382981,7.9222355,-1.8844151,1.5382981,7.9222355,7851.7373;-4.8840966,1.5382981,7.9222355,-4.8840966,0.8076065,7.3453736,7851.7373;-1.692128,-1.4613832,9.768193,-1.692128,-1.4613832,9.768193,7885.2915;0.0,0.4999469,9.768193,0.0,0.4999469,9.729735,7885.2915;-3.3457985,1.692128,8.61447,-3.3457985,1.692128,8.61447,7885.2915;-4.7687244,0.038457453,8.61447,-4.7687244,0.038457453,8.15298,7885.2915;-1.0768087,0.038457453,8.61447,-1.0768087,-0.38457453,8.960587,7918.846;-1.0768087,0.038457453,11.460321,-0.6537767,0.76914907,11.460321,7918.846;-5.1148415,0.038457453,7.114629,-5.1148415,0.7306916,7.114629,7918.846;-3.5380857,0.038457453,8.229895,-3.5380857,0.07691491,8.229895,7952.4004;0.8845214,0.038457453,8.229895,0.8845214,0.8076065,8.922129,7952.4004;-5.614788,0.038457453,8.229895,-5.614788,0.5768618,8.691384,7985.9546;-0.846064,0.038457453,9.614364,-0.846064,0.07691491,9.614364,7985.9546;0.8076065,0.038457453,10.998832,0.8076065,0.76914907,10.998832,7985.9546;-3.4227133,1.5382981,7.4222884,-3.4227133,1.5382981,7.4222884,7985.9546;-3.4227133,0.23074472,8.729842,-3.4227133,0.23074472,8.729842,8019.5093;0.15382981,0.23074472,10.768087,0.15382981,0.23074472,10.768087,8019.5093;0.15382981,1.2690959,8.30681,0.38457453,1.2690959,8.30681,8019.5093;-4.576437,1.2690959,8.30681,-4.576437,0.69223416,8.383725,8053.0635;-2.3843622,-0.846064,11.037289,-2.3843622,-0.846064,11.037289,8053.0635;0.9229789,-0.846064,11.037289,0.9229789,-0.19228727,10.421969,8053.0635;-2.9996815,1.5382981,8.537555,-2.9996815,1.5382981,8.537555,8086.618;-4.6148944,0.15382981,8.537555,-4.6148944,0.15382981,7.806863,8086.618;-1.8459578,-1.0768087,8.537555,-1.8459578,-1.0768087,9.345161,8086.618;-0.23074472,0.69223416,8.537555,-0.23074472,0.69223416,8.383725,8086.618;-4.07649,0.69223416,8.537555,-4.07649,1.5382981,9.191331,8120.1724;-4.07649,0.69223416,8.537555,-4.2687774,-0.15382981,8.46064,8120.1724;-0.61531925,-0.46148944,9.729735,-0.61531925,-0.46148944,9.729735,8120.1724;-0.61531925,1.4998407,10.998832,-1.4998407,1.4998407,10.998832,8153.727;-4.807182,1.4998407,8.806757,-4.807182,1.5767555,8.806757,8153.727;-2.461277,-0.23074472,7.7684054,-2.461277,-0.23074472,7.7684054,8153.727;0.46148944,-0.23074472,9.960481,0.46148944,0.4999469,9.960481,8187.2813;-1.7690428,1.0383513,9.960481,-1.7690428,1.0383513,9.922023,8187.2813;-3.9995751,1.0383513,9.960481,-3.9995751,0.038457453,9.306704,8187.2813;-0.846064,1.0383513,9.960481,-0.846064,0.846064,10.3835125,8187.2813;0.69223416,1.0383513,11.575693,0.69223416,0.9998938,11.575693,8220.836;-5.422501,1.0383513,8.576012,-5.422501,0.846064,8.576012,8220.836;-3.3457985,1.0383513,8.576012,-3.3457985,0.038457453,8.729842,8220.836;0.26920217,-0.34611708,10.7296295,0.26920217,-0.34611708,10.7296295,8254.391;0.26920217,1.2690959,9.460533,-0.19228727,1.2690959,9.460533,8254.391;-5.8070755,1.2690959,7.114629,-5.8070755,1.0768087,7.114629,8254.391;-2.6920218,-0.19228727,9.729735,-2.6920218,-0.19228727,9.729735,8287.944;0.69223416,-0.19228727,9.729735,0.69223416,0.423032,10.229683,8287.944;-2.3843622,1.5382981,9.729735,-2.3843622,1.5382981,9.883566,8287.944;-4.345692,-0.30765963,7.5761185,-4.345692,-0.30765963,7.5761185,8287.944;0.038457453,-0.30765963,10.537342,0.038457453,-0.76914907,10.537342,8321.499;0.038457453,0.9998938,8.883672,0.038457453,0.9998938,8.883672,8321.499;-4.2687774,0.9998938,8.883672,-4.2687774,1.1152661,9.460533,8321.499;-4.2687774,-0.6537767,8.883672,-3.384256,-0.6537767,8.922129,8355.054;0.19228727,-0.6537767,8.883672,0.19228727,-0.7306916,9.768193,8355.054;-2.4228196,1.3844683,10.0373955,-2.4228196,1.3844683,10.0373955,8355.054;-5.3071284,1.3844683,10.0373955,-5.3071284,0.6537767,9.037501,8355.054;-2.1920748,-0.11537236,10.0373955,-2.1920748,-0.11537236,9.075959,8388.608;0.038457453,-0.11537236,10.0373955,0.038457453,0.76914907,9.114416,8388.608;-2.9227664,1.1537236,8.537555,-2.9227664,1.1537236,8.537555,8388.608;-4.3841496,1.1537236,8.537555,-4.3841496,0.7306916,8.345267,8422.162;-0.038457453,1.1537236,9.922023,-0.038457453,0.38457453,9.922023,8422.162;1.3075534,1.1537236,11.075747,1.3075534,0.53840435,11.075747,8422.162;-4.653352,1.1537236,9.422076,-4.653352,0.61531925,9.422076,8455.717;-2.5766494,-0.038457453,9.422076,-2.5766494,-0.038457453,8.883672,8455.717;0.846064,-0.038457453,9.422076,0.846064,0.5768618,10.152767,8455.717;-1.2690959,1.0383513,9.422076,-1.2690959,1.0383513,8.806757,8455.717;-4.499522,-0.30765963,8.191438,-4.499522,-0.30765963,8.191438,8489.271;-1.692128,-0.30765963,8.191438,-1.692128,-0.30765963,8.576012,8489.271;0.9229789,-0.30765963,10.11431,0.9229789,0.0,10.11431,8489.271;-2.461277,1.7305853,10.11431,-2.461277,1.7305853,9.345161,8522.826;-4.8840966,-0.423032,7.306916,-4.8840966,-0.423032,7.306916,8522.826;-0.6537767,-0.423032,10.768087,-0.6537767,-1.1152661,10.768087,8522.826;-0.6537767,1.4229257,8.768299,-0.423032,1.4229257,8.768299,8556.38;-5.768618,1.4229257,8.768299,-5.768618,0.846064,7.883778,8556.38;-4.345692,1.4229257,8.768299,-4.345692,0.96143633,8.46064,8556.38;0.76914907,0.30765963,8.768299,0.76914907,0.30765963,9.229789,8556.38;-1.4229257,0.30765963,8.768299,-1.4229257,1.1921811,9.652821,8589.935;-4.576437,0.30765963,9.845108,-4.576437,0.76914907,9.845108,8589.935;-1.3075534,-1.0383513,11.152661,-1.3075534,-1.0383513,11.152661,8589.935;0.38457453,0.61531925,8.999044,0.38457453,0.61531925,8.999044,8623.489;-2.6920218,0.61531925,8.999044,-2.6920218,0.76914907,8.922129,8623.489;-3.8842027,0.61531925,10.3835125,-3.8842027,0.30765963,10.3835125,8623.489;0.07691491,-0.5768618,10.3835125,0.07691491,-0.5768618,9.460533,8657.043;0.07691491,1.3460109,10.3835125,-0.26920217,1.3460109,10.229683,8657.043;-5.3840437,0.26920217,10.3835125,-5.3840437,0.26920217,9.575906,8657.043;-2.8458514,-1.1152661,9.306704,-2.8458514,-1.1152661,9.306704,8657.043;1.0768087,0.4999469,9.306704,1.0768087,0.4999469,10.075852,8690.598;-1.615213,1.6536705,9.306704,-1.615213,1.6536705,9.152874,8690.598;-4.307235,-0.07691491,8.15298,-4.307235,-0.07691491,8.15298,8690.598;-0.8845214,-0.07691491,9.614364,-0.8845214,-0.30765963,9.614364,8724.152;0.61531925,-0.07691491,9.614364,0.61531925,0.30765963,9.960481,8724.152;-2.9227664,1.7690428,9.614364,-2.9227664,1.7690428,9.268247,8724.152;-4.576437,-1.3460109,7.614576,-4.576437,-1.3460109,7.614576,8757.707;-0.11537236,-0.26920217,10.11431,-0.11537236,-0.26920217,10.11431,8757.707;-0.11537236,1.2306385,10.11431,-0.34611708,1.2306385,9.652821,8757.707;-5.768618,1.2306385,7.8453207,-5.768618,0.7306916,7.8453207,8757.707;-2.7689366,0.19228727,9.383618,-2.7689366,0.19228727,9.383618,8791.261;0.423032,0.19228727,9.383618,0.423032,0.53840435,10.229683,8791.261;-3.4996283,0.19228727,9.383618,-3.4996283,0.6537767,9.075959,8791.261;-5.3071284,0.19228727,7.0761714,-5.3071284,0.96143633,7.0761714,8824.815;-1.5767555,-0.846064,10.460427,-1.5767555,-0.846064,10.460427,8824.815;0.30765963,1.7690428,9.345161,0.30765963,1.7690428,9.345161,8824.815;-4.922554,1.7690428,9.345161,-4.922554,0.96143633,9.037501,8824.815;-4.922554,-0.07691491,9.345161,-4.1149473,-0.07691491,10.11431,8858.37;0.9229789,-0.07691491,9.345161,0.9229789,0.07691491,10.0373955,8858.37;-0.19228727,1.2690959,9.345161,-0.19228727,1.2690959,10.229683,8858.37;-4.07649,1.2690959,9.345161,-4.07649,1.615213,9.075959,8891.925;-1.8844151,-0.69223416,9.345161,-1.8844151,-0.69223416,9.268247,8891.925;0.26920217,-0.69223416,9.345161,0.26920217,0.07691491,10.0373955,8891.925;-1.3460109,1.615213,9.345161,-1.3460109,1.615213,9.575906,8925.479;-4.922554,-0.8076065,9.345161,-4.922554,-0.8076065,9.345161,8925.479;-0.8076065,-0.8076065,9.345161,-0.8076065,-0.6537767,9.960481,8925.479;0.7306916,-0.8076065,10.806544,0.7306916,0.11537236,10.806544,8925.479;-5.0763836,0.53840435,10.806544,-5.0763836,0.53840435,10.11431,8959.033;-3.9611177,-1.0768087,7.7684054,-3.9611177,-1.0768087,7.7684054,8959.033;0.15382981,0.07691491,10.537342,0.15382981,0.07691491,10.537342,8959.033;-1.5767555,0.07691491,8.922129,-1.5767555,0.96143633,8.922129,8992.588;-5.268671,1.3075534,7.5761185,-5.268671,1.3075534,7.5761185,8992.588;-1.8075004,-0.38457453,7.5761185,-1.8075004,-0.38457453,8.499097,8992.588;0.6537767,-0.38457453,9.383618,0.6537767,0.423032,9.383618,9026.143;-2.5766494,1.1537236,9.383618,-2.5766494,1.1537236,9.152874,9026.143;-5.2302136,0.038457453,7.499203,-5.2302136,0.038457453,7.499203,9026.143;-0.38457453,0.038457453,9.652821,-0.38457453,-0.30765963,9.652821,9026.143;-0.38457453,0.038457453,9.652821,0.11537236,0.9229789,8.768299,9059.696;-4.07649,1.4613832,8.037608,-4.07649,1.4613832,8.037608,9059.696;-4.07649,0.26920217,9.268247,-3.4611707,0.26920217,9.268247,9059.696;-0.07691491,0.26920217,9.268247,-0.07691491,-0.038457453,10.191225,9093.251;-2.461277,0.26920217,9.268247,-2.461277,0.96143633,9.768193,9093.251;-4.807182,0.26920217,9.268247,-4.807182,0.96143633,8.922129,9093.251;-2.1920748,0.26920217,9.268247,-2.1920748,-0.5768618,9.691278,9126.806;0.07691491,0.26920217,9.268247,0.07691491,1.0383513,9.498991,9126.806;-3.1150537,0.26920217,9.268247,-3.1150537,1.1152661,8.922129,9126.806;-4.576437,0.26920217,9.268247,-4.576437,0.07691491,9.229789,9126.806;-1.1152661,0.26920217,10.7296295,-1.1152661,-0.30765963,10.7296295,9160.36;-1.1152661,0.26920217,10.7296295,-0.46148944,1.0383513,10.652715,9160.36;-3.5380857,0.26920217,8.30681,-3.5380857,1.1152661,8.30681,9160.36;-3.5380857,-1.1537236,8.30681,-3.3457985,-1.1537236,8.806757,9193.914;0.423032,-0.038457453,10.806544,0.423032,-0.038457453,10.806544,9193.914;0.423032,1.3844683,8.729842,-0.53840435,1.3844683,8.729842,9193.914;-4.7302666,0.30765963,8.729842,-4.7302666,0.30765963,8.30681,9227.469;-1.7305853,0.30765963,8.729842,-1.7305853,-0.53840435,8.922129,9227.469;0.6537767,0.30765963,10.306598,0.6537767,0.76914907,10.306598,9227.469;-2.5766494,0.30765963,8.499097,-2.5766494,0.76914907,8.499097,9227.469;-4.5379796,0.30765963,8.499097,-4.5379796,0.23074472,8.191438,9261.023;0.11537236,0.30765963,10.152767,0.11537236,0.0,10.152767,9261.023;0.11537236,0.30765963,10.152767,-0.038457453,1.0383513,9.460533,9261.023;-4.576437,0.30765963,7.806863,-4.576437,0.846064,7.806863,9294.578;-3.230426,0.30765963,7.806863,-3.230426,-0.34611708,8.499097,9294.578;0.23074472,0.30765963,9.498991,0.23074472,0.4999469,9.498991,9294.578;-2.11516,1.3844683,9.498991,-2.11516,1.3844683,9.345161,9328.132;-4.7302666,-0.23074472,6.8454266,-4.7302666,-0.23074472,6.8454266,9328.132;-1.9613302,-0.23074472,9.998938,-1.9613302,0.07691491,9.998938,9328.132;1.0768087,-0.23074472,9.998938,1.0768087,0.7306916,9.998938,9328.132;-3.4227133,2.11516,7.883778,-3.4227133,2.11516,7.883778,9361.687;-3.4227133,0.4999469,9.383618,-4.2687774,0.4999469,9.383618,9361.687;-1.1152661,-0.5768618,9.383618,-1.1152661,-0.5768618,10.229683,9361.687;-1.1152661,1.4613832,9.383618,-1.3844683,1.4613832,10.11431,9395.241;-5.0763836,1.4613832,9.383618,-5.0763836,2.1536174,9.268247,9395.241;-2.5381918,-1.4229257,9.383618,-2.5381918,-1.4229257,9.922023,9395.241;0.9229789,0.76914907,9.383618,0.9229789,0.76914907,9.960481,9395.241;-1.6536705,0.76914907,9.383618,-1.6536705,0.8845214,8.922129,9428.795;-5.1148415,0.76914907,9.383618,-5.1148415,-0.19228727,9.191331,9428.795;-1.1152661,-0.69223416,10.537342,-1.1152661,-0.69223416,10.537342,9428.795;0.4999469,0.38457453,10.537342,0.4999469,0.38457453,10.3835125,9462.35;-3.1919687,0.38457453,9.191331,-3.1919687,0.4999469,9.191331,9462.35;-4.4610643,-0.7306916,9.191331,-4.4610643,-0.7306916,9.037501,9462.35;-0.19228727,-0.7306916,9.191331,-0.19228727,-0.7306916,9.845108,9495.904;-0.19228727,1.7305853,9.191331,-0.038457453,1.7305853,9.114416,9495.904;-4.999469,1.7305853,7.883778,-4.999469,0.8076065,7.883778,9495.904;-3.153511,-0.423032,7.883778,-3.153511,-0.423032,8.114523,9495.904;0.5768618,-0.423032,9.575906,0.5768618,0.07691491,9.575906,9529.459;-2.4997344,1.6536705,8.037608,-2.4997344,1.6536705,8.037608,9529.459;-5.345586,1.6536705,8.037608,-5.345586,0.6537767,7.883778,9529.459;-2.4228196,0.19228727,9.652821,-2.4228196,0.19228727,9.652821,9563.013;0.61531925,0.19228727,9.652821,0.61531925,0.9229789,9.191331,9563.013;-4.23032,1.4998407,7.268459,-4.23032,1.4998407,7.268459,9563.013;-5.3840437,0.11537236,7.268459,-5.3840437,0.11537236,7.960693,9596.567;0.8845214,0.11537236,9.460533,0.8845214,0.53840435,9.460533,9596.567;-0.8845214,1.2306385,9.460533,-0.8845214,1.2306385,10.075852,9596.567;-4.9610114,1.2306385,6.7300544,-4.9610114,1.7305853,6.7300544,9596.567;-2.11516,0.0,9.691278,-2.11516,0.0,9.691278,9630.122;0.5768618,0.0,9.691278,0.5768618,0.8845214,9.883566,9630.122;-2.0767026,2.2305322,9.691278,-2.0767026,2.2305322,8.883672,9630.122;-4.1918626,-0.19228727,9.691278,-4.1918626,-0.19228727,9.422076,9663.677;-0.61531925,-0.19228727,11.421864,-0.61531925,-0.53840435,11.421864,9663.677;-0.61531925,1.3460109,11.421864,-0.9229789,1.3460109,10.5758,9663.677;-3.653458,1.3460109,9.306704,-3.653458,2.038245,9.306704,9697.23;-3.653458,-1.4229257,9.306704,-4.4610643,-1.4229257,9.922023,9697.23;0.38457453,0.53840435,9.306704,0.38457453,0.53840435,9.614364,9697.23;-1.3460109,0.53840435,9.306704,-1.3460109,1.1152661,9.306704,9697.23;-5.345586,0.53840435,9.306704,-5.345586,0.0,8.883672,9730.785;-0.9998938,-1.1921811,10.3835125,-0.9998938,-1.1921811,10.3835125,9730.785;0.34611708,0.46148944,10.3835125,0.34611708,0.46148944,10.345055,9730.785;-2.9612238,0.46148944,8.499097,-2.9612238,0.9998938,8.499097,9764.34;-4.6148944,-0.69223416,8.499097,-4.6148944,-0.69223416,8.383725,9764.34;-0.34611708,-0.69223416,8.499097,-0.34611708,-0.96143633,8.845214,9764.34;-0.34611708,0.9229789,8.499097,-0.26920217,0.9229789,9.191331,9797.895;-3.0765963,0.9229789,8.499097,-3.0765963,1.1921811,8.30681,9797.895;-3.0765963,-0.11537236,8.499097,-3.384256,-0.11537236,8.229895,9797.895;0.76914907,-0.11537236,8.499097,0.76914907,-0.19228727,9.383618,9797.895;-1.1921811,1.2306385,8.499097,-1.1921811,1.2306385,8.806757,9831.448;-4.07649,1.2306385,8.499097,-4.07649,0.76914907,8.345267,9831.448;-1.7690428,1.2306385,8.499097,-1.7690428,0.8076065,9.037501,9831.448;0.038457453,1.2306385,8.499097,0.038457453,1.0768087,9.383618,9865.003;-3.1150537,2.2689898,8.499097,-3.1150537,2.2689898,8.883672,9865.003;-4.5379796,0.19228727,8.499097,-4.5379796,0.19228727,8.2683525,9865.003;-0.34611708,0.19228727,10.11431,-0.34611708,0.7306916,10.11431,9865.003;-0.34611708,0.19228727,10.11431,-0.38457453,0.9229789,10.845002,9898.558;-3.9995751,0.19228727,10.11431,-3.9995751,0.9998938,9.229789,9898.558;-3.9995751,0.19228727,10.11431,-3.0381389,0.0,9.960481,9898.558;0.07691491,0.19228727,10.11431,0.07691491,0.69223416,9.729735,9932.112;-1.4613832,0.19228727,8.845214,-1.4613832,0.9229789,8.845214,9932.112;-5.422501,0.19228727,8.845214,-5.422501,0.30765963,9.422076,9932.112;-1.8459578,-1.3075534,11.152661,-1.8459578,-1.3075534,11.152661,9965.666;0.96143633,0.6537767,11.152661,0.96143633,0.6537767,10.883459,9965.666;-3.230426,0.6537767,9.383618,-3.230426,1.3075534,9.383618,9965.666;-4.7302666,0.6537767,9.383618,-4.7302666,-0.19228727,8.691384,9965.666;0.30765963,-0.69223416,9.383618,0.30765963,-0.69223416,10.229683,9999.221;0.30765963,1.7305853,8.229895,-0.23074472,1.7305853,8.229895,9999.221;-3.807288,1.7305853,8.229895,-3.807288,0.8845214,8.345267,9999.221;-3.807288,-1.8459578,10.3835125,-2.9227664,-1.8459578,10.3835125,10032.775;0.34611708,-0.5768618,10.3835125,0.34611708,-0.5768618,10.306598,10032.775;-1.9228727,1.9997876,10.3835125,-1.9228727,1.9997876,9.575906,10032.775;-4.499522,0.26920217,8.729842,-4.499522,0.26920217,8.729842,10066.33;-2.1536174,0.26920217,8.729842,-2.1536174,-0.23074472,8.537555,10066.33;0.23074472,0.26920217,8.729842,0.23074472,0.9229789,9.306704,10066.33;-4.307235,0.26920217,8.729842,-4.307235,0.6537767,8.2683525,10066.33;-4.307235,0.26920217,7.460746,-4.07649,0.11537236,7.460746,10099.884;-0.61531925,0.26920217,9.691278,-0.61531925,0.38457453,9.691278,10099.884;-0.61531925,1.4229257,9.691278,-0.76914907,1.4229257,10.306598,10099.884;-5.037926,1.4229257,8.15298,-5.037926,1.1537236,8.15298,10133.438;-3.0381389,1.4229257,9.268247,-3.0381389,0.61531925,9.268247,10133.438;0.4999469,1.4229257,9.268247,0.4999469,1.4998407,9.383618,10133.438;-2.8458514,1.4229257,9.268247,-2.8458514,1.0768087,8.345267,10166.993;-5.2302136,1.4229257,9.268247,-5.2302136,0.53840435,8.422182,10166.993;-0.9998938,0.15382981,10.421969,-0.9998938,0.15382981,10.421969,10166.993;1.0768087,1.3460109,10.421969,1.0768087,1.3460109,10.614257,10166.993;-3.4611707,1.3460109,9.229789,-3.4611707,1.3844683,9.229789,10200.547;-3.4611707,-0.038457453,9.229789,-3.4996283,-0.038457453,8.883672,10200.547;0.15382981,-0.038457453,10.883459,0.15382981,0.07691491,10.883459,10200.547;0.15382981,1.4229257,8.61447,0.0,1.4229257,8.61447,10234.102;-5.7301607,1.4229257,8.61447,-5.7301607,1.0768087,7.960693,10234.102;-2.7304792,-1.0383513,10.7296295,-2.7304792,-1.0383513,10.7296295,10234.102;1.0383513,-1.0383513,10.7296295,1.0383513,-0.11537236,10.26814,10267.656;-1.8459578,2.1536174,9.191331,-1.8459578,2.1536174,9.191331,10267.656;-4.807182,0.07691491,9.191331,-4.807182,0.07691491,9.037501,10267.656;-1.9997876,-0.96143633,9.191331,-1.9997876,-0.96143633,9.998938,10267.656;-0.038457453,0.96143633,9.191331,-0.038457453,0.96143633,8.806757,10301.211;-4.07649,0.96143633,7.883778,-4.07649,1.5382981,7.883778,10301.211;-4.07649,-1.3075534,9.229789,-3.9611177,-1.3075534,9.229789,10301.211;0.038457453,-0.23074472,9.229789,0.038457453,-0.23074472,9.037501,10334.765;-1.3460109,1.4998407,10.306598,-1.3460109,1.4998407,10.306598,10334.765;-4.3841496,1.4998407,8.768299,-4.3841496,1.3075534,8.768299,10334.765;-2.038245,-0.5768618,6.9992566,-2.038245,-0.5768618,6.9992566,10334.765;1.1921811,1.0383513,9.075959,1.1921811,1.0383513,9.075959,10368.319;-4.3841496,1.0383513,9.075959,-4.3841496,0.34611708,8.691384,10368.319;-4.3841496,1.0383513,9.075959,-3.7688303,0.53840435,8.191438,10368.319;-0.6537767,1.0383513,9.075959,-0.6537767,0.61531925,9.922023,10401.874;-0.6537767,1.0383513,10.537342,0.34611708,0.96143633,10.537342,10401.874;-4.23032,1.0383513,8.037608,-4.23032,1.1152661,8.037608,10401.874;-4.23032,1.0383513,8.037608,-3.8457453,0.38457453,9.037501,10435.429;0.26920217,1.0383513,9.537449,0.26920217,0.8845214,9.537449,10435.429;0.26920217,1.0383513,9.537449,-0.26920217,0.61531925,9.537449,10435.429;-5.1148415,1.0383513,8.46064,-5.1148415,1.1152661,8.46064,10435.429;-1.8075004,1.0383513,11.075747,-1.8075004,0.5768618,11.075747,10468.982;1.3844683,1.0383513,11.075747,1.3844683,0.46148944,10.075852,10468.982;-2.0767026,1.0383513,8.2683525,-2.0767026,2.038245,8.2683525,10468.982;-4.9610114,-0.038457453,9.460533,-4.9610114,-0.038457453,9.460533,10502.537;-0.11537236,-1.2306385,10.845002,-0.11537236,-1.2306385,10.845002,10502.537;-0.11537236,1.0768087,8.537555,-0.11537236,1.0768087,8.537555,10502.537;-4.8840966,1.0768087,8.537555,-4.8840966,0.76914907,9.306704,10536.092;-3.4996283,-1.1152661,8.537555,-3.4996283,-1.1152661,9.498991,10536.092;-0.19228727,-1.1152661,8.537555,-0.19228727,-0.53840435,8.383725,10536.092;-2.3843622,1.8459578,8.537555,-2.3843622,1.8459578,9.075959,10536.092;-5.4609585,-0.23074472,8.537555,-5.4609585,-0.23074472,8.652927,10569.646;-2.6920218,-0.23074472,9.652821,-2.6920218,-1.1152661,9.652821,10569.646;0.76914907,-0.23074472,8.537555,0.76914907,0.4999469,8.537555,10569.646;-3.0765963,0.96143633,8.537555,-3.0765963,0.96143633,8.999044,10603.2;-4.3841496,0.96143633,8.537555,-4.3841496,0.038457453,8.499097,10603.2;-0.8076065,-0.423032,8.537555,-0.8076065,-0.423032,7.8453207,10603.2;-0.8076065,0.6537767,11.998726,-0.19228727,0.6537767,11.998726,10636.755;-4.845639,1.8075004,7.806863,-4.845639,1.8075004,7.806863,10636.755;-3.576543,0.34611708,7.806863,-3.576543,0.34611708,8.037608,10636.755;0.4999469,0.34611708,10.229683,0.4999469,1.3460109,10.229683,10636.755;-2.3074472,0.34611708,9.114416,-2.3074472,0.8845214,9.114416,10670.31;-5.3840437,0.34611708,9.114416,-5.3840437,0.8845214,8.652927,10670.31;-1.3844683,0.34611708,10.883459,-1.3844683,0.30765963,10.883459,10670.31;0.8845214,0.34611708,10.883459,0.8845214,0.30765963,11.498778,10703.864;-2.1920748,2.2689898,8.114523,-2.1920748,2.2689898,8.114523,10703.864;-5.1148415,0.07691491,8.114523,-5.1148415,0.07691491,8.999044,10703.864;1.1921811,0.07691491,11.806438,1.1921811,-0.6537767,11.806438,10737.418;-0.5768618,1.6536705,7.8453207,-0.5768618,1.6536705,7.8453207,10737.418;-3.6919155,1.6536705,7.8453207,-3.6919155,1.1152661,8.806757,10737.418;-2.6535642,-0.846064,10.998832,-2.6535642,-0.846064,10.998832,10737.418;0.69223416,-0.846064,10.998832,0.69223416,-0.4999469,10.152767,10770.973;-0.9229789,2.7689366,10.998832,-0.9229789,2.7689366,10.652715,10770.973;-4.345692,0.6537767,7.7684054,-4.345692,0.6537767,7.7684054,10770.973;-1.9997876,-0.8845214,7.7684054,-1.9997876,-0.8845214,7.8453207,10804.527;0.34611708,0.8076065,9.345161,0.34611708,0.8076065,9.345161,10804.527;-4.07649,0.8076065,9.345161,-4.07649,0.34611708,8.537555,10804.527;-4.07649,0.8076065,8.114523,-4.1918626,-0.038457453,8.114523,10838.081;0.0,0.8076065,8.114523,0.0,0.846064,8.845214,10838.081;-1.3075534,0.8076065,12.22947,-1.3075534,1.0768087,12.22947,10838.081;-5.0763836,0.8076065,7.7684054,-5.0763836,1.5382981,7.7684054,10838.081;-3.3457985,0.8076065,7.7684054,-3.3457985,-0.11537236,8.191438,10871.636;1.4229257,0.8076065,10.306598,1.4229257,0.61531925,10.306598,10871.636;-1.4229257,0.8076065,8.2683525,-1.4229257,1.0383513,8.2683525,10871.636;-5.1917562,0.8076065,8.2683525,-5.1917562,0.46148944,8.383725,10905.19;0.19228727,0.8076065,10.460427,0.19228727,0.038457453,10.460427,10905.19;1.3844683,0.8076065,10.460427,1.3844683,0.34611708,10.960374,10905.19;-4.5379796,0.8076065,8.652927,-4.5379796,1.7305853,8.652927,10905.19;-4.5379796,0.8076065,8.652927,-4.422607,0.038457453,9.075959,10938.745;-0.61531925,-0.9229789,10.191225,-0.61531925,-0.9229789,10.191225,10938.745;-0.61531925,2.0767026,8.15298,-0.423032,2.0767026,8.15298,10938.745;-5.499416,0.46148944,8.15298,-5.499416,0.46148944,9.075959,10972.299;-3.0381389,-0.846064,9.922023,-3.0381389,-0.846064,9.922023,10972.299;0.34611708,0.53840435,9.922023,0.34611708,0.53840435,9.191331,10972.299;-2.9996815,1.8844151,9.922023,-2.9996815,1.8844151,10.5758,11005.854;-5.5763307,0.423032,8.46064,-5.5763307,0.423032,8.46064,11005.854;-0.23074472,0.423032,8.46064,-0.23074472,-0.38457453,8.960587,11005.854;-0.23074472,1.615213,9.922023,-0.07691491,1.615213,9.922023,11005.854;-4.999469,0.0,7.729948,-4.999469,0.0,7.729948,11039.408;-3.653458,0.0,7.729948,-3.653458,-0.30765963,8.383725,11039.408;0.26920217,0.0,9.768193,0.26920217,0.0,9.768193,11039.408;0.26920217,1.0383513,9.768193,0.0,1.0383513,9.537449,11072.963;-3.807288,1.0383513,7.7684054,-3.807288,0.69223416,7.7684054,11072.963;-3.807288,-0.423032,9.114416,-2.9227664,-0.423032,9.114416,11072.963;1.1537236,-0.423032,10.691172,1.1537236,-0.34611708,10.691172,11106.517;-2.0767026,2.5381918,9.037501,-2.0767026,2.5381918,9.037501,11106.517;-5.422501,0.4999469,9.037501,-5.422501,0.4999469,8.345267,11106.517;-1.1537236,0.4999469,9.037501,-1.1537236,0.34611708,9.575906,11106.517;1.3460109,0.4999469,9.037501,1.3460109,0.7306916,9.345161,11140.071;-3.0381389,0.4999469,9.037501,-3.0381389,1.3075534,8.729842,11140.071;-3.0381389,0.4999469,9.037501,-3.5380857,-0.423032,8.960587,11140.071;-0.15382981,0.4999469,9.037501,-0.15382981,-0.19228727,9.998938,11173.626;-0.15382981,1.7305853,9.037501,-1.1152661,1.7305853,9.114416,11173.626;-5.8070755,1.7305853,7.7684054,-5.8070755,0.846064,7.7684054,11173.626;-2.038245,-0.4999469,9.80665,-2.038245,-0.4999469,9.80665,11207.181;0.34611708,-0.4999469,9.80665,0.34611708,0.4999469,9.729735,11207.181;-3.7688303,1.3844683,9.80665,-3.7688303,1.3844683,9.114416,11207.181;-4.8840966,0.11537236,9.80665,-4.8840966,0.11537236,9.383618,11207.181;-1.4613832,0.11537236,9.80665,-1.4613832,-0.30765963,9.729735,11240.734;-0.19228727,2.0767026,9.80665,-0.19228727,2.0767026,9.998938,11240.734;-3.9611177,0.5768618,8.652927,-3.9611177,0.5768618,8.652927,11240.734;-3.9611177,-0.69223416,8.652927,-3.5380857,-0.69223416,8.576012,11274.289;0.53840435,0.423032,10.421969,0.53840435,0.423032,10.421969,11274.289;-0.8076065,0.423032,10.421969,-0.8076065,1.3075534,9.575906,11274.289;-4.4610643,0.423032,8.114523,-4.4610643,0.61531925,8.114523,11307.844;-1.4229257,-0.69223416,8.114523,-1.4229257,-0.69223416,8.999044,11307.844;1.0383513,0.53840435,10.345055,1.0383513,0.53840435,10.345055,11307.844;-1.8459578,1.8459578,10.345055,-1.8459578,1.8459578,9.460533,11307.844;-4.0380325,-0.038457453,7.8453207,-4.0380325,-0.038457453,7.8453207,11341.398;-0.30765963,-0.038457453,9.960481,-0.30765963,-0.69223416,9.960481,11341.398;-0.30765963,-0.038457453,9.960481,0.53840435,0.61531925,9.345161,11341.398;-5.8070755,-0.038457453,8.537555,-5.8070755,0.8076065,8.537555,11374.952;-3.3457985,-0.038457453,8.537555,-3.3457985,0.07691491,8.345267,11374.952;0.69223416,-0.038457453,9.998938,0.69223416,-0.15382981,9.998938,11374.952;-3.384256,-0.038457453,8.922129,-3.384256,0.5768618,8.922129,11408.507;-5.0763836,1.0768087,8.922129,-5.0763836,1.0768087,8.691384,11408.507;-1.0768087,-0.423032,8.922129,-1.0768087,-0.423032,9.845108,11408.507;1.3844683,-0.423032,8.922129,1.3844683,0.53840435,9.498991,11408.507;-4.345692,0.8076065,8.922129,-4.345692,0.8076065,9.075959,11442.062;-4.345692,0.8076065,8.922129,-4.153405,0.26920217,9.345161,11442.062;0.23074472,-0.61531925,8.922129,0.23074472,-0.61531925,9.845108,11442.062;0.23074472,1.8459578,10.0373955,0.34611708,1.8459578,10.0373955,11475.616;-3.8842027,0.4999469,10.0373955,-3.8842027,0.4999469,9.191331,11475.616;-3.8842027,-0.61531925,10.0373955,-3.6919155,-0.61531925,9.998938,11475.616;0.76914907,-0.61531925,11.152661,0.76914907,0.19228727,11.152661,11475.616;-1.6536705,1.4613832,8.61447,-1.6536705,1.4613832,8.61447,11509.17;-5.268671,0.23074472,8.61447,-5.268671,0.23074472,8.499097,11509.17;-1.3844683,0.23074472,8.61447,-1.3844683,-0.76914907,8.191438,11509.17;0.19228727,0.23074472,10.075852,0.19228727,0.96143633,10.075852,11542.725;-3.6150007,1.4613832,8.076065,-3.6150007,1.4613832,8.076065,11542.725;-4.7302666,-0.11537236,8.076065,-4.7302666,-0.11537236,7.883778,11542.725;-0.38457453,-0.11537236,10.229683,-0.38457453,-0.34611708,10.229683,11576.279;-0.38457453,1.0383513,10.229683,-0.8845214,1.0383513,9.383618,11576.279;-5.499416,1.0383513,8.114523,-5.499416,1.4229257,8.114523,11576.279;-2.9227664,-0.5768618,8.114523,-2.9227664,-0.5768618,7.7684054,11576.279;0.46148944,0.6537767,9.960481,0.46148944,0.6537767,9.960481,11609.833;-1.7305853,0.6537767,9.960481,-1.7305853,1.1537236,9.998938,11609.833;-5.268671,0.6537767,7.306916,-5.268671,0.5768618,7.306916,11609.833;-0.53840435,0.6537767,9.883566,-0.53840435,-0.34611708,9.883566,11643.388;0.6537767,0.6537767,9.883566,0.6537767,1.0383513,9.345161,11643.388;-3.5380857,1.8459578,9.883566,-3.5380857,1.8459578,9.114416,11643.388;-4.653352,1.8459578,8.037608,-4.653352,0.9229789,8.037608,11676.942;-0.38457453,-0.46148944,10.345055,-0.38457453,-0.46148944,10.345055,11676.942;-0.38457453,0.9229789,9.306704,-0.9998938,0.9229789,9.306704,11676.942;-4.922554,0.9229789,9.306704,-4.922554,1.615213,9.152874,11676.942;-2.461277,-0.61531925,10.614257,-2.461277,-0.61531925,10.614257,11710.497;0.38457453,0.5768618,10.614257,0.38457453,0.5768618,10.3835125,11710.497;-2.2689898,2.038245,8.768299,-2.2689898,2.038245,8.768299,11710.497;-4.07649,0.9229789,8.768299,-4.07649,0.9229789,8.576012,11744.051;-1.3844683,-0.34611708,10.306598,-1.3844683,-0.34611708,10.306598,11744.051;0.34611708,1.1537236,10.306598,0.34611708,1.1537236,9.960481,11744.051;-4.499522,1.1537236,8.114523,-4.499522,1.692128,8.114523,11777.605;-4.499522,-0.61531925,9.883566,-3.9226604,-0.61531925,9.883566,11777.605;-0.5768618,-0.61531925,9.883566,-0.5768618,-0.34611708,10.11431,11777.605;-0.5768618,1.0383513,9.883566,-0.46148944,1.0383513,9.229789,11777.605;-5.3840437,1.0383513,9.883566,-5.3840437,0.8076065,9.345161,11811.16;-3.384256,-0.9229789,8.845214,-3.384256,-0.9229789,8.845214,11811.16;0.9229789,0.15382981,10.345055,0.9229789,0.15382981,10.345055,11811.16;-2.2689898,1.3075534,8.999044,-2.2689898,1.3075534,8.999044,11844.715;-5.345586,0.11537236,8.999044,-5.345586,0.11537236,8.076065,11844.715;0.4999469,0.11537236,8.999044,0.4999469,0.0,9.80665,11844.715;0.4999469,0.11537236,8.999044,0.4999469,1.1152661,9.268247,11844.715;-3.4996283,1.5382981,8.999044,-3.4996283,1.5382981,8.576012,11878.269;-3.4996283,-0.26920217,8.999044,-3.6150007,-0.26920217,8.383725,11878.269;0.6537767,-0.26920217,8.999044,0.6537767,0.0,9.729735,11878.269;-0.9229789,2.1536174,8.999044,-0.9229789,2.1536174,9.575906,11911.823;-4.8840966,2.1536174,7.806863,-4.8840966,1.1537236,7.806863,11911.823;-2.11516,-0.34611708,10.345055,-2.11516,-0.34611708,10.345055,11911.823;1.0383513,-0.34611708,10.345055,1.0383513,0.26920217,10.921917,11945.378;-3.384256,2.11516,8.845214,-3.384256,2.11516,8.845214,11945.378;-4.7687244,0.34611708,8.845214,-4.7687244,0.34611708,8.15298,11945.378;-1.1921811,-1.3075534,8.845214,-1.1921811,-1.3075534,9.537449,11945.378;-1.1921811,1.692128,10.537342,-0.423032,1.692128,10.537342,11978.933;-4.3841496,1.692128,9.114416,-4.3841496,1.3460109,9.114416,11978.933;-4.3841496,0.38457453,10.191225,-3.8457453,0.38457453,10.191225,11978.933;0.423032,0.38457453,10.191225,0.423032,0.46148944,9.652821,12012.486;-1.2306385,0.38457453,10.191225,-1.2306385,1.3460109,9.229789,12012.486;-4.1918626,0.38457453,8.2683525,-4.1918626,1.2306385,8.2683525,12012.486;-0.9229789,-1.2306385,8.2683525,-0.9229789,-1.2306385,9.268247,12046.041;1.2306385,0.46148944,10.11431,1.2306385,0.46148944,10.11431,12046.041;-3.0381389,0.46148944,9.037501,-3.0381389,1.2306385,9.037501,12046.041;-3.0381389,0.46148944,9.037501,-4.0380325,0.0,9.768193,12046.041;0.846064,0.46148944,10.460427,0.846064,-0.46148944,10.460427,12079.596;0.846064,0.46148944,10.460427,0.34611708,0.69223416,9.883566,12079.596;-4.2687774,0.46148944,9.229789,-4.2687774,0.96143633,9.229789,12079.596;-4.2687774,-0.7306916,9.229789,-3.307341,-0.7306916,8.345267,12113.15;0.846064,0.423032,9.229789,0.846064,0.423032,9.768193,12113.15;-1.1921811,1.615213,9.229789,-1.1921811,1.615213,8.691384,12146.704;-1.1921811,0.26920217,7.729948,-1.0768087,0.26920217,7.729948,12146.704;0.96143633,1.3460109,9.114416,0.96143633,1.3460109,9.114416,12146.704;-2.4997344,1.3460109,9.114416,-2.4997344,1.9997876,8.383725,12146.704;-4.345692,-0.53840435,9.114416,-4.345692,-0.53840435,8.768299,12180.259;0.38457453,-0.53840435,9.114416,0.38457453,0.38457453,9.229789,12180.259;-0.76914907,1.2306385,9.114416,-0.76914907,1.2306385,9.652821,12180.259;-5.345586,1.2306385,9.114416,-5.345586,0.423032,8.499097,12213.813;-2.807394,1.2306385,9.114416,-2.807394,0.23074472,8.806757,12213.813;0.846064,1.2306385,9.114416,0.846064,0.38457453,9.729735,12213.813;-2.461277,1.2306385,9.114416,-2.461277,1.7305853,10.11431,12247.368;-4.807182,1.2306385,7.7684054,-4.807182,1.1537236,7.7684054,12247.368;-0.9998938,-0.6537767,11.498778,-0.9998938,-0.6537767,11.498778,12247.368;0.23074472,0.4999469,10.460427,0.23074472,0.4999469,10.460427,12247.368;-3.0381389,0.4999469,9.152874,-3.0381389,1.1152661,9.152874,12280.922;-4.6148944,0.4999469,9.152874,-4.6148944,0.7306916,9.191331,12280.922;-0.19228727,0.4999469,10.806544,-0.19228727,-0.23074472,10.806544,12280.922;-0.19228727,0.4999469,9.306704,-0.38457453,1.0768087,9.306704,12314.477;-3.730373,0.4999469,9.306704,-3.730373,0.8076065,8.691384,12314.477;-3.730373,-1.8075004,10.460427,-2.8458514,-1.8075004,10.460427,12314.477;0.61531925,0.11537236,10.460427,0.61531925,0.11537236,9.691278,12348.031;-1.0768087,1.4229257,8.768299,-1.0768087,1.4229257,8.768299,12348.031;-5.1917562,1.4229257,8.768299,-5.1917562,0.8076065,9.075959,12348.031;-1.1152661,-0.76914907,8.768299,-1.1152661,-0.76914907,8.076065,12348.031;0.8076065,0.6537767,8.768299,0.8076065,0.6537767,9.498991,12381.585;-4.807182,0.6537767,8.768299,-4.807182,1.0383513,8.345267,12381.585;-3.4996283,-0.7306916,8.768299,-3.4996283,-0.7306916,8.537555,12381.585;0.34611708,-0.7306916,10.229683,0.34611708,-0.7306916,10.229683,12415.14;0.34611708,1.3075534,9.114416,-0.23074472,1.3075534,9.114416,12415.14;-3.9995751,1.3075534,9.114416,-3.9995751,1.2690959,8.652927,12415.14;-2.461277,-0.07691491,9.114416,-2.461277,-0.07691491,8.345267,12415.14;0.6537767,-0.07691491,9.114416,0.6537767,0.23074472,9.883566,12448.694;-1.3075534,2.2305322,9.114416,-1.3075534,2.2305322,9.268247,12448.694;-4.653352,-0.11537236,9.114416,-4.653352,-0.11537236,8.691384,12448.694;-1.3075534,-0.11537236,9.114416,-1.3075534,0.8845214,8.845214,12482.249;0.76914907,1.4613832,11.037289,0.76914907,1.4613832,11.037289,12482.249;-5.268671,1.4613832,9.075959,-5.268671,1.4229257,9.075959,12482.249;-3.4996283,0.07691491,9.075959,-3.4996283,0.07691491,8.845214,12515.803;-0.11537236,0.07691491,10.652715,-0.11537236,0.76914907,10.652715,12515.803;-1.8459578,1.4229257,9.575906,-1.8459578,1.4229257,9.575906,12515.803;-5.768618,1.4229257,8.2683525,-5.768618,0.76914907,8.2683525,12515.803;-2.2689898,-0.846064,12.152555,-2.2689898,-0.846064,12.152555,12549.357;0.9998938,1.0768087,10.191225,0.9998938,1.0768087,10.191225,12549.357;-2.9612238,1.0768087,8.422182,-2.9612238,0.96143633,8.422182,12549.357;-5.3840437,-0.26920217,8.422182,-5.3840437,-0.26920217,8.30681,12582.912;-0.4999469,-0.26920217,11.075747,-0.4999469,-1.0383513,11.075747,12582.912;-0.4999469,0.9229789,9.345161,0.423032,0.9229789,9.345161,12582.912;-4.576437,0.9229789,8.229895,-4.576437,0.6537767,8.229895,12616.467;-3.2688835,-0.8076065,10.3835125,-3.2688835,-0.8076065,10.3835125,12616.467;-0.53840435,-0.8076065,10.3835125,-0.53840435,-0.9998938,10.460427,12616.467;-0.53840435,0.846064,10.3835125,-0.11537236,0.846064,9.691278,12616.467;-5.268671,0.846064,8.922129,-5.268671,0.19228727,8.922129,12650.0205;-2.884309,-0.7306916,8.922129,-2.884309,-0.7306916,8.229895,12650.0205;0.23074472,0.46148944,8.922129,0.23074472,0.46148944,9.845108,12650.0205;-4.07649,0.46148944,8.922129,-4.07649,0.846064,8.61447,12683.575;-4.07649,0.46148944,8.922129,-4.7302666,0.11537236,8.845214,12683.575;-0.96143633,0.46148944,8.922129,-0.96143633,0.53840435,9.422076,12683.575;-0.96143633,0.46148944,8.922129,-0.19228727,1.3844683,9.306704,12717.13;-5.345586,0.46148944,8.922129,-5.345586,0.76914907,8.499097,12717.13;-3.576543,0.46148944,7.614576,-3.576543,0.15382981,7.614576,12717.13;0.4999469,0.46148944,8.922129,0.4999469,1.0383513,8.922129,12717.13;-0.61531925,1.7305853,8.922129,-0.61531925,1.7305853,9.268247,12750.685;-4.922554,0.15382981,8.922129,-4.922554,0.15382981,8.229895,12750.685;-1.692128,0.15382981,8.922129,-1.692128,0.61531925,9.229789,12750.685;1.0383513,0.15382981,10.306598,1.0383513,1.1152661,10.306598,12784.238;-3.9226604,2.3843622,8.383725,-3.9226604,2.3843622,8.383725,12784.238;-3.9226604,0.38457453,8.383725,-4.153405,0.38457453,8.691384,12784.238;-0.23074472,0.38457453,11.268034,-0.23074472,0.53840435,11.268034,12817.793;-0.23074472,0.38457453,8.960587,0.07691491,1.0383513,8.960587,12817.793;-4.4610643,1.4229257,8.960587,-4.4610643,1.4229257,8.999044,12817.793;-3.153511,-0.76914907,10.345055,-3.153511,-0.76914907,10.345055,12817.793;1.2690959,0.61531925,10.345055,1.2690959,0.61531925,10.998832,12851.348;-1.7305853,0.61531925,8.691384,-1.7305853,1.2690959,8.691384,12851.348;-4.999469,0.61531925,8.691384,-4.999469,-0.26920217,8.960587,12851.348;-0.76914907,-1.2690959,9.922023,-0.76914907,-1.2690959,9.922023,12884.902;-0.76914907,1.0768087,9.922023,0.19228727,1.0768087,9.460533,12884.902;-2.7689366,1.0768087,9.922023,-2.7689366,1.2690959,9.729735,12884.902;-4.07649,-0.4999469,9.922023,-4.07649,-0.4999469,8.999044,12884.902;0.07691491,-0.4999469,9.922023,0.07691491,-0.53840435,9.498991,12918.456;0.07691491,1.9228727,9.922023,-0.30765963,1.9228727,9.960481,12918.456;-4.4610643,1.9228727,7.499203,-4.4610643,1.6536705,7.499203,12918.456;-3.4227133,-1.0383513,7.499203,-3.4227133,-1.0383513,7.960693,12952.011;0.23074472,0.46148944,9.498991,0.23074472,0.46148944,9.498991,12952.011;-2.2689898,0.46148944,9.498991,-2.2689898,1.2306385,10.306598,12952.011;-4.1149473,1.615213,9.498991,-4.1149473,1.615213,8.922129,12985.565;-1.1152661,1.615213,9.498991,-1.1152661,0.61531925,9.345161,12985.565;0.19228727,1.615213,9.498991,0.19228727,1.5382981,9.460533,12985.565;-3.3457985,1.615213,8.037608,-3.3457985,1.1152661,8.037608,12985.565;-3.3457985,1.615213,8.037608,-3.9995751,0.7306916,8.691384,13019.119;0.26920217,0.423032,10.3835125,0.26920217,0.423032,10.3835125,13019.119;0.26920217,0.423032,10.3835125,0.46148944,1.1537236,9.729735,13019.119;-5.0763836,0.423032,9.268247,-5.0763836,0.6537767,9.268247,13052.674;-1.9613302,0.423032,9.268247,-1.9613302,0.76914907,8.922129,13052.674;1.3075534,0.423032,11.114204,1.3075534,0.4999469,11.114204,13052.674;-1.4229257,0.423032,8.383725,-1.4229257,1.3075534,8.383725,13086.229;-4.7687244,0.423032,10.26814,-4.7687244,-0.38457453,10.26814,13086.229;-0.46148944,0.423032,10.26814,-0.46148944,-0.4999469,10.229683,13086.229;1.1152661,0.423032,10.26814,1.1152661,1.0768087,9.883566,13086.229;-4.9610114,0.423032,8.076065,-4.9610114,0.9998938,8.076065,13119.783;-4.9610114,-0.8845214,8.076065,-4.7302666,-0.8845214,8.960587,13119.783;0.038457453,-0.8845214,10.306598,0.038457453,-0.23074472,10.306598,13119.783;0.038457453,1.3075534,9.152874,-0.46148944,1.3075534,9.152874,13153.337;-4.422607,1.3075534,9.152874,-4.422607,0.8845214,8.383725,13153.337;-1.7690428,-1.692128,9.152874,-1.7690428,-1.692128,9.998938,13153.337;0.423032,0.038457453,9.152874,0.423032,0.038457453,10.0373955,13186.892;-2.1920748,1.7690428,9.152874,-2.1920748,1.7690428,9.652821,13186.892;-5.153299,0.0,8.114523,-5.153299,0.0,8.114523,13186.892;-0.6537767,0.0,8.114523,-0.6537767,-0.30765963,8.768299,13186.892;-0.6537767,0.0,9.922023,0.11537236,0.76914907,9.922023,13220.446;-3.307341,0.0,8.652927,-3.307341,0.76914907,8.652927,13220.446;-3.307341,0.0,8.652927,-4.1918626,0.30765963,8.729842,13220.446;0.07691491,0.0,10.191225,0.07691491,0.8845214,10.191225,13254.001;-1.4998407,1.3075534,10.191225,-1.4998407,1.3075534,10.7296295,13254.001;-5.268671,1.3075534,8.499097,-5.268671,0.9998938,8.499097,13254.001;-2.5381918,1.3075534,9.652821,-2.5381918,0.38457453,9.652821,13287.555;1.0383513,1.3075534,9.652821,1.0383513,0.9998938,10.3835125,13287.555;-2.7689366,1.3075534,8.422182,-2.7689366,1.3844683,8.422182,13287.555;-5.5763307,1.3075534,8.422182,-5.5763307,0.8076065,9.345161,13287.555;0.038457453,-0.07691491,11.191119,0.038457453,-0.07691491,11.191119,13321.109;0.038457453,-0.07691491,11.191119,0.8845214,0.5768618,10.229683,13321.109;-3.4227133,1.3460109,8.383725,-3.4227133,1.3460109,8.383725,13321.109;-3.4227133,-0.8845214,9.729735,-3.4227133,-0.8845214,9.729735,13354.664;0.76914907,-0.8845214,9.729735,0.76914907,-0.4999469,10.614257,13354.664;-0.38457453,1.6536705,8.691384,-0.38457453,1.6536705,8.691384,13354.664;-4.845639,0.34611708,8.691384,-4.845639,0.34611708,9.114416,13354.664;-2.3074472,-1.615213,9.845108,-2.3074472,-1.615213,9.845108,13388.219;0.30765963,0.6537767,9.845108,0.30765963,0.6537767,10.26814,13388.219;-3.4996283,0.6537767,9.845108,-3.4996283,1.2306385,9.422076,13388.219;-3.4996283,0.6537767,8.345267,-4.1918626,-0.34611708,8.345267,13421.772;-0.46148944,-1.0768087,9.575906,-0.46148944,-1.0768087,9.575906,13421.772;-0.46148944,1.6536705,9.575906,-0.96143633,1.6536705,9.883566,13421.772;-3.5380857,1.6536705,8.537555,-3.5380857,0.8845214,8.537555,13455.327;-3.5380857,-1.4613832,8.537555,-3.230426,-1.4613832,8.691384,13455.327;-0.038457453,0.23074472,8.537555,-0.038457453,0.23074472,9.075959,13455.327;-1.1921811,0.23074472,10.498885,-1.1921811,0.9998938,10.498885,13455.327;-5.768618,0.23074472,8.922129,-5.768618,0.0,8.922129,13488.882;-1.2690959,0.23074472,8.922129,-1.2690959,0.8076065,8.61447,13488.882;0.76914907,1.7690428,8.922129,0.76914907,1.7690428,9.729735,13488.882;-4.345692,1.7690428,8.922129,-4.345692,1.1921811,9.191331,13522.437;-4.345692,-0.61531925,8.922129,-3.653458,-0.61531925,8.30681,13522.437;-0.34611708,-0.61531925,11.191119,-0.34611708,0.23074472,11.191119,13522.437;-0.34611708,0.8845214,9.80665,0.038457453,0.8845214,9.80665,13555.99;-5.037926,0.8845214,8.422182,-5.037926,0.7306916,8.422182,13555.99;-2.5381918,0.8845214,8.422182,-2.5381918,0.07691491,8.922129,13555.99;1.1152661,0.8845214,11.114204,1.1152661,0.53840435,11.114204,13555.99;-1.8844151,0.8845214,8.576012,-1.8844151,1.5382981,8.576012,13589.545;-5.268671,0.8845214,8.576012,-5.268671,0.423032,8.229895,13589.545;-1.0768087,-0.846064,10.806544,-1.0768087,-0.846064,10.806544,13589.545;0.30765963,-0.846064,10.806544,0.30765963,0.07691491,9.883566,13623.1;-2.5766494,1.615213,8.499097,-2.5766494,1.615213,8.499097,13623.1;-4.307235,-0.46148944,8.499097,-4.307235,-0.46148944,9.383618,13623.1;-1.1152661,-0.46148944,8.499097,-1.1152661,-0.46148944,8.883672,13656.654;-1.1152661,1.615213,10.26814,-0.9998938,1.615213,10.26814,13656.654;-4.1149473,1.615213,9.191331,-4.1149473,1.4998407,9.191331,13656.654;-2.9227664,-0.61531925,9.191331,-2.9227664,-0.61531925,9.306704,13656.654;-0.423032,0.69223416,9.191331,-0.423032,0.69223416,9.768193,13690.208;-1.4613832,0.69223416,9.191331,-1.4613832,1.615213,9.460533,13690.208;-5.0763836,0.69223416,9.191331,-5.0763836,0.34611708,9.152874,13690.208;-0.5768618,0.69223416,9.191331,-0.5768618,-0.15382981,8.30681,13723.763;-0.5768618,0.69223416,10.5758,0.19228727,1.0383513,10.5758,13723.763;-3.4611707,0.69223416,8.922129,-3.4611707,0.76914907,8.922129,13723.763;-3.4611707,0.69223416,8.922129,-3.7688303,-0.038457453,9.306704,13757.317;0.4999469,0.69223416,10.306598,0.4999469,0.76914907,10.306598,13757.317;0.4999469,0.69223416,8.845214,0.7306916,0.9229789,8.845214,13757.317;-4.6148944,0.69223416,8.845214,-4.6148944,0.38457453,7.9991503,13757.317;-2.461277,-0.69223416,8.845214,-2.461277,-0.69223416,9.768193,13790.871;0.9229789,-0.69223416,10.306598,0.9229789,-0.07691491,10.306598,13790.871;-1.9228727,1.9613302,10.306598,-1.9228727,1.9613302,9.652821,13790.871;-4.999469,0.46148944,7.7684054,-4.999469,0.46148944,7.7684054,13824.426;-1.7690428,-0.846064,10.152767,-1.7690428,-0.846064,10.152767,13824.426;0.46148944,1.3460109,8.46064,0.46148944,1.3460109,8.46064,13824.426;-2.8458514,1.3460109,8.46064,-2.8458514,1.7305853,8.499097,13857.98;-4.7302666,1.3460109,8.46064,-4.7302666,0.96143633,8.576012,13857.98;-0.7306916,1.3460109,9.537449,-0.7306916,0.423032,9.537449,13857.98;-0.7306916,1.3460109,9.537449,-0.6537767,1.3075534,10.0373955,13857.98;-4.07649,1.3460109,9.537449,-4.07649,1.1537236,8.922129,13891.535;-2.0767026,-0.038457453,9.537449,-2.0767026,-0.038457453,10.11431,13891.535;0.53840435,1.0768087,9.537449,0.53840435,1.0768087,9.652821,13891.535;-1.3075534,1.0768087,9.537449,-1.3075534,1.9997876,9.037501,13925.089;-5.3071284,1.0768087,9.537449,-5.3071284,0.61531925,9.537449,13925.089;-0.9229789,-0.61531925,9.537449,-0.9229789,-0.61531925,9.422076,13925.089;0.7306916,0.9229789,9.537449,0.7306916,0.9229789,10.498885,13925.089;-5.1148415,0.9229789,9.537449,-5.1148415,0.4999469,8.999044,13958.644;-3.730373,-0.61531925,9.537449,-3.730373,-0.61531925,9.114416,13958.644;-0.07691491,-0.61531925,9.537449,-0.07691491,-0.4999469,10.3835125,13958.644;-0.07691491,0.846064,9.537449,-1.0383513,0.846064,8.652927,13992.198;-5.3071284,0.846064,7.7684054,-5.3071284,0.23074472,7.7684054,13992.198;-2.7689366,0.846064,7.7684054,-2.7689366,0.07691491,7.883778,13992.198;1.2306385,0.846064,10.998832,1.2306385,0.5768618,10.998832,14025.753;-3.1150537,0.846064,9.460533,-3.1150537,1.4998407,9.460533,14025.753;-5.3840437,-1.3075534,8.15298,-5.3840437,-1.3075534,8.15298,14025.753;-0.76914907,0.53840435,10.229683,-0.76914907,0.53840435,10.229683,14025.753;0.26920217,0.53840435,10.229683,0.26920217,1.1537236,9.498991,14059.307;-4.7687244,1.9997876,8.076065,-4.7687244,1.9997876,8.076065,14059.307;-3.653458,0.38457453,9.691278,-3.653458,0.38457453,9.691278,14059.307;0.46148944,0.38457453,9.691278,0.46148944,-0.26920217,9.652821,14092.861;-1.8459578,0.38457453,9.691278,-1.8459578,1.1152661,8.922129,14092.861;-6.2301073,0.38457453,9.691278,-6.2301073,0.9229789,8.768299,14092.861;-2.0767026,-0.846064,9.691278,-2.0767026,-0.846064,10.537342,14126.416;0.7306916,0.61531925,9.691278,0.7306916,0.61531925,10.191225,14126.416;-2.884309,0.61531925,7.7684054,-2.884309,1.4613832,7.7684054,14126.416;-4.7687244,0.61531925,10.421969,-4.7687244,-0.11537236,10.421969,14126.416;-0.30765963,-0.7306916,10.421969,-0.30765963,-0.7306916,10.883459,14159.971;-0.30765963,1.3460109,10.421969,0.30765963,1.3460109,11.114204,14159.971;-4.8840966,1.3460109,8.422182,-4.8840966,0.76914907,8.422182,14159.971;-3.230426,-1.0768087,8.422182,-3.230426,-1.0768087,8.729842,14193.524;0.69223416,0.6537767,10.537342,0.69223416,0.6537767,10.537342,14193.524;-0.5768618,0.6537767,9.268247,-0.5768618,0.8845214,9.268247,14193.524;-4.691809,-0.38457453,9.268247,-4.691809,-0.38457453,8.845214,14227.079;-1.8459578,-0.38457453,9.268247,-1.8459578,0.038457453,9.075959,14227.079;1.0383513,-0.38457453,9.268247,1.0383513,0.5768618,10.152767,14227.079;-2.11516,1.7690428,9.268247,-2.11516,1.7690428,9.306704,14227.079;-5.268671,0.07691491,6.768512,-5.268671,0.07691491,6.768512,14260.634;-0.11537236,0.07691491,