999,999,999,999,999,999,999;-0.76914907,8.537555,4.1149473,-0.26920217,8.422182,4.1149473,0.0;-0.76914907,8.537555,4.1149473,-0.5768618,7.960693,4.0380325,16.777216;-0.76914907,8.537555,4.1149473,0.0,8.114523,3.8457453,33.554432;-0.76914907,8.537555,4.1149473,-0.26920217,8.383725,4.153405,33.554432;-0.76914907,8.537555,4.1149473,-0.11537236,8.61447,4.6148944,50.33165;-0.76914907,8.537555,4.1149473,-0.34611708,8.537555,4.691809,50.33165;-0.76914907,8.537555,4.1149473,-0.76914907,8.46064,4.691809,50.33165;-0.76914907,8.537555,4.1149473,-0.11537236,8.037608,4.691809,67.108864;-0.76914907,8.537555,4.1149473,-0.5768618,8.076065,5.1148415,83.88608;-0.76914907,8.537555,4.1149473,0.038457453,8.345267,5.0763836,83.88608;-0.76914907,8.537555,4.1149473,-0.34611708,8.114523,5.0763836,100.6633;-0.76914907,8.537555,5.153299,-0.8076065,8.576012,5.153299,100.6633;-0.76914907,8.537555,5.153299,-0.34611708,7.883778,5.1148415,117.44051;-0.76914907,8.537555,5.153299,0.07691491,8.15298,4.691809,134.21773;-0.76914907,8.537555,5.153299,0.0,8.61447,5.153299,134.21773;0.30765963,8.537555,5.153299,0.30765963,8.576012,4.499522,150.99495;0.30765963,8.537555,5.153299,-0.26920217,8.2683525,4.5379796,150.99495;0.30765963,8.537555,5.153299,-0.423032,8.999044,4.499522,167.77216;0.30765963,8.537555,5.153299,0.07691491,8.15298,4.422607,184.54938;0.30765963,8.537555,5.153299,-0.19228727,8.691384,4.576437,184.54938;0.30765963,8.537555,5.153299,-0.4999469,8.537555,4.345692,201.3266;0.30765963,8.537555,4.07649,-0.07691491,8.191438,4.07649,201.3266;0.30765963,8.537555,4.07649,-0.53840435,8.768299,4.23032,218.1038;0.30765963,8.537555,4.07649,-0.30765963,8.883672,4.4610643,234.88103;0.30765963,8.537555,4.07649,-0.38457453,8.845214,4.1918626,234.88103;0.30765963,8.537555,4.07649,-0.53840435,9.037501,4.0380325,251.65823;0.30765963,8.537555,4.07649,-0.19228727,8.576012,3.8842027,251.65823;0.30765963,8.537555,4.07649,-0.53840435,9.114416,3.9995751,268.43546;0.30765963,8.537555,4.07649,-0.38457453,9.229789,4.2687774,285.21268;0.30765963,8.537555,4.07649,-0.30765963,8.883672,3.8457453,285.21268;0.30765963,8.537555,4.07649,-0.11537236,8.537555,4.1918626,301.9899;0.30765963,8.537555,4.07649,0.19228727,8.922129,4.1918626,301.9899;0.30765963,8.537555,4.07649,-0.6537767,8.537555,4.345692,318.7671;0.30765963,8.537555,4.07649,-0.26920217,8.383725,4.23032,335.5443;0.30765963,8.537555,4.07649,-0.23074472,8.422182,4.5379796,335.5443;0.30765963,8.537555,4.07649,-0.34611708,8.037608,4.1918626,352.32153;0.30765963,8.537555,4.07649,-0.4999469,8.768299,4.499522,352.32153;0.30765963,8.537555,4.07649,-0.15382981,8.229895,4.307235,369.09875;0.30765963,8.537555,4.07649,-0.53840435,8.729842,4.153405,369.09875;-0.8845214,8.537555,4.07649,-0.8845214,8.499097,4.345692,385.87598;-0.8845214,8.537555,4.07649,-0.53840435,8.999044,4.0380325,402.6532;-0.8845214,8.537555,4.07649,-0.11537236,9.152874,4.1918626,402.6532;-0.8845214,8.537555,4.07649,-0.038457453,8.652927,4.0380325,419.4304;-0.8845214,8.537555,4.07649,-0.038457453,8.768299,3.230426,419.4304;-0.8845214,8.537555,4.07649,-0.19228727,8.999044,3.653458,436.2076;-0.8845214,8.537555,4.07649,-0.423032,8.15298,3.576543,452.98483;-0.8845214,8.537555,4.07649,-0.30765963,8.537555,3.653458,452.98483;-0.8845214,8.537555,4.07649,-0.6537767,8.768299,3.730373,469.76205;-0.8845214,8.537555,4.07649,-0.30765963,8.691384,3.653458,469.76205;-0.8845214,8.537555,4.07649,0.07691491,9.229789,3.4996283,486.53928;0.19228727,8.537555,4.07649,0.19228727,9.537449,3.9226604,503.31647;0.19228727,8.537555,4.07649,-0.38457453,9.152874,3.230426,503.31647;0.19228727,8.537555,4.07649,-0.69223416,9.037501,3.0765963,520.0937;-1.1537236,8.537555,4.07649,-1.1537236,8.845214,3.307341,520.0937;-1.1537236,8.537555,4.07649,-0.8076065,9.306704,3.0765963,536.8709;-1.1537236,8.537555,2.9227664,-0.46148944,8.960587,2.9227664,553.64813;-1.1537236,8.537555,2.9227664,-0.46148944,9.268247,2.5381918,553.64813;-1.1537236,8.537555,2.9227664,-0.846064,9.075959,3.153511,570.42535;-1.1537236,8.537555,2.9227664,-0.96143633,9.460533,3.1150537,587.2026;-1.1537236,8.537555,2.9227664,-0.61531925,9.345161,3.1150537,587.2026;-1.1537236,8.537555,2.9227664,-0.846064,9.345161,2.5766494,603.9798;-0.038457453,8.537555,2.9227664,-0.038457453,9.229789,2.4997344,603.9798;-0.038457453,8.537555,2.9227664,-0.15382981,9.075959,3.0765963,620.757;-0.038457453,8.537555,2.9227664,0.07691491,8.883672,2.9996815,620.757;-0.038457453,9.691278,2.9227664,0.11537236,9.691278,2.5766494,637.5342;-0.038457453,9.691278,2.9227664,0.0,9.229789,2.807394,654.3114;-0.038457453,9.691278,2.9227664,0.15382981,9.383618,3.230426,654.3114;-0.038457453,9.691278,2.9227664,0.53840435,9.460533,2.6920218,671.0886;-0.038457453,9.691278,2.9227664,0.34611708,9.075959,2.5381918,671.0886;-0.038457453,9.691278,1.7305853,0.4999469,9.114416,1.7305853,687.86584;1.1921811,9.691278,1.7305853,1.1921811,9.614364,2.0767026,704.64307;1.1921811,9.691278,1.7305853,0.30765963,9.345161,1.8459578,704.64307;1.1921811,9.691278,1.7305853,0.26920217,9.268247,1.8075004,721.4203;1.1921811,9.691278,1.7305853,0.34611708,9.229789,1.692128,721.4203;1.1921811,9.691278,1.7305853,0.30765963,8.845214,2.11516,738.1975;-0.038457453,9.691278,1.7305853,-0.038457453,8.922129,1.615213,754.97473;-0.038457453,9.691278,1.7305853,0.0,9.691278,1.3844683,754.97473;-0.038457453,9.691278,1.7305853,0.4999469,9.845108,1.4998407,771.75195;-0.038457453,9.691278,1.7305853,0.6537767,9.191331,2.7304792,771.75195;-0.038457453,9.691278,2.7689366,0.46148944,9.191331,2.7689366,788.5292;-0.038457453,9.691278,2.7689366,0.96143633,9.268247,2.6151068,805.3064;-0.038457453,9.691278,2.7689366,0.8845214,8.691384,2.3843622,805.3064;1.1537236,9.691278,2.7689366,1.1537236,9.152874,2.0767026,822.08356;1.1537236,8.61447,1.5382981,1.3460109,8.61447,1.5382981,822.08356;1.1537236,8.61447,1.5382981,1.2690959,9.075959,0.96143633,838.8608;1.1537236,8.61447,1.5382981,1.1152661,9.268247,1.4229257,855.638;1.1537236,8.61447,1.5382981,1.4229257,8.652927,2.3843622,855.638;1.1537236,8.61447,2.9612238,0.53840435,8.806757,2.9612238,872.4152;1.1537236,8.61447,2.9612238,0.61531925,9.614364,2.7304792,872.4152;-0.07691491,8.61447,1.3460109,-0.07691491,9.075959,1.3460109,889.19244;-0.07691491,8.61447,1.3460109,-0.23074472,9.460533,1.5382981,889.19244;-0.07691491,9.998938,1.3460109,-0.38457453,9.998938,2.038245,905.96967;-0.07691491,9.998938,2.9612238,-0.46148944,9.691278,2.9612238,922.7469;-0.07691491,9.998938,2.9612238,-0.19228727,9.998938,2.8458514,922.7469;-0.07691491,9.998938,2.9612238,0.6537767,9.729735,3.576543,939.5241;-0.07691491,9.998938,2.9612238,0.76914907,9.998938,3.576543,939.5241;-0.07691491,9.998938,2.9612238,0.30765963,9.460533,2.3459046,956.30133;-0.07691491,9.998938,2.9612238,0.38457453,9.691278,2.7304792,973.07855;-0.07691491,9.998938,1.8844151,0.5768618,9.691278,1.8844151,973.07855;-0.07691491,9.998938,1.8844151,-0.8076065,9.575906,1.5767555,989.8558;-0.07691491,9.998938,0.846064,0.07691491,9.729735,0.846064,989.8558;-0.07691491,9.998938,0.846064,0.8845214,9.306704,0.53840435,1006.63293;-0.07691491,9.998938,0.846064,0.19228727,9.498991,1.5382981,1023.41016;-0.07691491,9.998938,1.9997876,-0.23074472,9.268247,1.9997876,1023.41016;-0.07691491,9.998938,1.9997876,-0.15382981,9.345161,1.7305853,1040.1874;-0.07691491,9.998938,1.9997876,0.038457453,10.0373955,1.3460109,1040.1874;-0.07691491,9.998938,1.9997876,-0.9998938,9.537449,0.9998938,1056.9646;-0.07691491,9.998938,0.5768618,-0.6537767,9.614364,0.5768618,1073.7418;-0.07691491,9.998938,0.5768618,-0.61531925,9.998938,1.0383513,1073.7418;-0.07691491,9.998938,0.5768618,-0.53840435,9.768193,0.69223416,1090.519;-0.07691491,9.998938,0.5768618,-0.9229789,9.960481,0.5768618,1090.519;-0.07691491,9.998938,0.5768618,-0.76914907,9.960481,0.423032,1107.2963;-0.07691491,9.998938,0.5768618,-0.96143633,10.11431,0.53840435,1124.0735;-0.07691491,9.998938,0.5768618,-0.8076065,10.26814,-0.15382981,1124.0735;-1.1921811,9.998938,-0.9229789,-1.1921811,10.152767,-0.9229789,1140.8507;-1.1921811,9.998938,-0.9229789,-1.1921811,10.345055,0.07691491,1140.8507;-1.1921811,9.998938,0.76914907,-1.4998407,10.191225,0.76914907,1157.6279;-1.1921811,9.998938,0.76914907,-0.846064,9.998938,1.7690428,1174.4052;-1.1921811,9.998938,0.76914907,-0.9998938,9.960481,1.3460109,1174.4052;-1.1921811,9.998938,0.76914907,-1.0768087,10.921917,0.96143633,1191.1824;-1.1921811,9.998938,0.76914907,-0.8845214,9.998938,0.26920217,1191.1824;-1.1921811,9.998938,0.76914907,-0.4999469,9.845108,0.5768618,1207.9596;-1.1921811,9.998938,0.76914907,-0.61531925,9.691278,0.69223416,1224.7368;-1.1921811,9.998938,0.76914907,-0.61531925,9.922023,0.61531925,1224.7368;-1.1921811,9.998938,0.76914907,-0.26920217,9.498991,0.69223416,1241.514;-1.1921811,9.998938,0.76914907,-0.38457453,9.537449,1.3460109,1241.514;-1.1921811,9.998938,0.76914907,-0.38457453,9.768193,1.0383513,1258.2913;-1.1921811,9.998938,0.76914907,-0.30765963,10.152767,0.7306916,1275.0684;-1.1921811,9.998938,0.76914907,-0.4999469,10.0373955,0.5768618,1275.0684;-1.1921811,9.998938,0.76914907,-0.8845214,9.768193,0.7306916,1291.8456;-1.1921811,9.998938,0.76914907,-0.34611708,9.537449,1.2306385,1291.8456;-1.1921811,9.998938,0.76914907,-0.53840435,9.768193,0.4999469,1308.6228;-1.1921811,9.998938,0.76914907,-0.4999469,9.768193,0.30765963,1325.4;-1.1921811,9.998938,0.76914907,-0.846064,9.306704,0.69223416,1325.4;-0.07691491,9.998938,0.76914907,-0.07691491,9.575906,0.8845214,1342.1772;-0.07691491,9.998938,0.76914907,-0.6537767,10.26814,0.5768618,1342.1772;-0.07691491,9.998938,0.76914907,-0.34611708,9.845108,0.34611708,1358.9545;-0.07691491,9.998938,0.76914907,-0.11537236,9.422076,1.2306385,1358.9545;-0.07691491,9.998938,0.76914907,0.0,10.075852,0.96143633,1375.7317;-0.07691491,9.998938,0.76914907,-0.11537236,9.537449,0.423032,1392.5089;-0.07691491,9.998938,0.76914907,0.038457453,9.80665,0.46148944,1392.5089;-0.07691491,9.998938,0.76914907,-0.38457453,9.422076,1.3075534,1409.2861;-0.07691491,9.998938,0.76914907,-0.9998938,9.845108,0.30765963,1409.2861;-0.07691491,9.998938,0.76914907,-1.0383513,9.768193,0.76914907,1426.0634;-0.07691491,9.998938,0.76914907,-0.846064,9.883566,0.34611708,1442.8406;-0.07691491,9.998938,0.76914907,-0.8076065,9.652821,0.69223416,1442.8406;-0.07691491,9.998938,0.76914907,-0.8076065,9.729735,0.9229789,1459.6178;-0.07691491,9.998938,0.76914907,-0.38457453,9.345161,0.19228727,1459.6178;-0.07691491,9.998938,0.76914907,-0.423032,9.652821,-0.15382981,1476.395;-1.1537236,5.1148415,0.76914907,-1.1537236,5.1148415,1.615213,1493.1722;-1.1537236,8.806757,0.76914907,-1.7690428,8.806757,1.5382981,1493.1722;-1.1537236,9.922023,0.76914907,-0.15382981,9.922023,0.38457453,1509.9495;0.30765963,9.922023,0.76914907,0.30765963,9.845108,0.69223416,1509.9495;0.30765963,9.922023,0.76914907,0.15382981,9.80665,0.69223416,1526.7267;0.30765963,9.922023,0.76914907,-0.26920217,9.460533,1.0383513,1543.5039;0.30765963,9.922023,0.76914907,-0.07691491,9.883566,0.8076065,1543.5039;0.30765963,9.922023,0.76914907,-0.07691491,9.922023,0.423032,1560.2811;0.30765963,9.922023,0.76914907,-0.26920217,10.229683,0.53840435,1560.2811;-0.7306916,9.922023,0.76914907,-0.7306916,9.768193,0.96143633,1577.0583;-0.7306916,9.922023,0.76914907,-0.69223416,9.768193,0.7306916,1593.8356;-0.7306916,9.922023,0.76914907,-0.38457453,9.422076,1.1537236,1593.8356;-0.7306916,9.922023,0.76914907,-0.34611708,10.191225,0.15382981,1610.6128;-0.7306916,9.922023,0.76914907,-0.4999469,10.0373955,-0.19228727,1610.6128;-0.7306916,9.922023,-0.5768618,-0.61531925,9.652821,-0.5768618,1627.3899;-0.7306916,9.922023,-0.5768618,-1.2306385,9.922023,-0.76914907,1644.1671;-0.7306916,9.922023,-0.5768618,-0.8076065,9.652821,0.19228727,1644.1671;-0.7306916,9.922023,0.9229789,-0.46148944,10.498885,0.9229789,1660.9443;-0.7306916,9.922023,0.9229789,-0.30765963,9.498991,0.7306916,1660.9443;-0.7306916,9.922023,0.9229789,-0.30765963,10.075852,0.38457453,1677.7216;-0.7306916,9.922023,0.9229789,-0.07691491,9.922023,0.9998938,1694.4988;-0.7306916,9.922023,0.9229789,-0.23074472,10.421969,0.0,1694.4988;-0.7306916,9.922023,-0.8076065,-0.7306916,9.729735,-0.8076065,1711.276;-0.7306916,9.922023,0.30765963,-1.2690959,9.075959,0.30765963,1711.276;-0.7306916,9.922023,0.30765963,-1.1537236,9.306704,1.3075534,1728.0532;-0.7306916,9.922023,0.30765963,-0.7306916,9.460533,0.15382981,1744.8304;-0.7306916,9.922023,0.30765963,-0.6537767,9.729735,-0.61531925,1744.8304;-0.7306916,9.922023,0.30765963,-1.692128,8.999044,1.0768087,1761.6077;-0.7306916,9.922023,0.30765963,-0.23074472,9.306704,0.423032,1761.6077;-0.7306916,9.922023,0.30765963,0.07691491,10.075852,0.46148944,1778.3849;-0.7306916,9.922023,0.30765963,-0.15382981,9.691278,0.15382981,1795.1621;-0.7306916,9.922023,0.30765963,-0.76914907,9.460533,0.11537236,1795.1621;-0.7306916,9.922023,0.30765963,-0.46148944,9.652821,0.11537236,1811.9393;0.34611708,9.922023,0.30765963,0.34611708,10.7296295,0.8076065,1811.9393;0.34611708,9.922023,0.30765963,0.15382981,10.652715,0.15382981,1828.7166;-0.9229789,9.922023,0.30765963,-0.9229789,9.80665,1.1537236,1845.4938;-0.9229789,9.922023,0.30765963,-0.5768618,9.998938,1.3075534,1845.4938;0.11537236,9.922023,0.30765963,0.11537236,10.614257,0.11537236,1862.271;0.11537236,9.922023,0.30765963,-0.19228727,9.614364,0.76914907,1862.271;0.11537236,9.922023,0.30765963,-0.30765963,9.345161,0.34611708,1879.0482;0.11537236,9.922023,0.30765963,-0.4999469,9.960481,0.26920217,1879.0482;0.11537236,9.922023,0.30765963,0.15382981,10.075852,0.5768618,1895.8254;0.11537236,9.922023,0.30765963,-0.6537767,9.152874,0.7306916,1912.6027;-1.1537236,9.922023,0.30765963,-1.1537236,9.614364,0.34611708,1912.6027;-1.1537236,9.922023,0.30765963,-0.9998938,9.268247,-0.53840435,1929.3799;-1.1537236,9.922023,0.30765963,-0.5768618,10.191225,-0.23074472,1929.3799;-1.1537236,9.922023,0.30765963,-0.9229789,9.729735,-0.6537767,1946.1571;-1.1537236,8.806757,0.30765963,-1.3844683,8.806757,-0.19228727,1962.9343;-1.1537236,10.306598,0.30765963,-0.15382981,10.306598,-0.23074472,1962.9343;-1.1537236,10.306598,0.30765963,-0.846064,10.229683,0.19228727,1979.7115;-1.1537236,10.306598,0.30765963,-0.6537767,9.883566,0.34611708,1979.7115;-1.1537236,9.268247,0.30765963,-0.96143633,9.268247,0.96143633,1996.4886;-1.1537236,9.268247,0.30765963,-0.5768618,9.422076,0.26920217,2013.2659;-0.11537236,11.191119,0.30765963,-0.11537236,11.191119,0.0,2013.2659;-0.11537236,11.191119,0.30765963,0.0,10.345055,-0.26920217,2030.0431;-0.11537236,9.460533,0.30765963,-0.9229789,9.460533,0.038457453,2030.0431;-0.11537236,9.460533,0.30765963,-0.53840435,10.0373955,0.53840435,2046.8203;-0.11537236,10.537342,0.30765963,-0.11537236,10.537342,0.46148944,2063.5977;-0.11537236,10.537342,0.30765963,-0.8076065,10.421969,0.8076065,2063.5977;-0.11537236,10.537342,0.30765963,-0.69223416,9.883566,0.423032,2080.3748;-1.1537236,10.537342,0.30765963,-1.1537236,10.3835125,1.1921811,2080.3748;-1.1537236,10.537342,0.30765963,-0.9229789,9.614364,0.11537236,2097.152;-1.1537236,10.537342,0.30765963,-0.26920217,10.498885,-0.038457453,2113.9292;-1.1537236,9.306704,0.30765963,-1.3075534,9.306704,0.26920217,2113.9292;-1.1537236,9.306704,0.30765963,-0.8076065,9.037501,0.038457453,2130.7065;-1.1537236,9.306704,0.30765963,-0.46148944,10.191225,0.30765963,2130.7065;-1.1537236,9.306704,0.30765963,-0.46148944,9.845108,0.61531925,2147.4836;-1.1537236,9.306704,0.30765963,-0.96143633,9.729735,0.846064,2164.2607;-1.1537236,9.306704,0.30765963,-0.46148944,9.537449,0.19228727,2164.2607;-1.1537236,9.306704,0.30765963,-0.76914907,9.845108,0.5768618,2181.038;-1.1537236,9.306704,0.30765963,-0.846064,10.11431,0.038457453,2181.038;-1.1537236,9.306704,0.30765963,-1.0768087,9.845108,0.19228727,2197.8152;-1.1537236,9.306704,0.30765963,-1.692128,8.883672,-0.038457453,2214.5925;-1.1537236,9.306704,0.30765963,-0.26920217,9.768193,-0.23074472,2214.5925;-0.11537236,9.306704,0.30765963,-0.11537236,9.922023,0.07691491,2231.3696;-0.11537236,9.306704,0.30765963,-0.34611708,10.26814,0.34611708,2231.3696;-1.1537236,9.306704,0.30765963,-1.1537236,9.306704,0.4999469,2248.147;-1.1537236,9.306704,0.30765963,-0.8076065,9.691278,0.30765963,2264.924;-1.1537236,10.5758,0.30765963,-0.34611708,10.5758,0.30765963,2264.924;0.53840435,10.5758,0.30765963,0.53840435,10.191225,0.23074472,2281.7014;0.53840435,10.5758,0.30765963,-0.34611708,9.652821,0.76914907,2281.7014;0.53840435,10.5758,0.30765963,-0.38457453,10.345055,0.8076065,2298.4785;0.53840435,10.5758,0.30765963,0.038457453,10.7296295,-0.038457453,2315.2559;-0.69223416,10.5758,0.30765963,-0.69223416,9.922023,0.038457453,2315.2559;-0.69223416,10.5758,0.30765963,-1.2690959,10.11431,0.34611708,2332.033;-0.69223416,10.5758,0.30765963,-0.23074472,10.11431,0.34611708,2332.033;-0.69223416,9.537449,0.30765963,-0.7306916,9.537449,0.30765963,2348.8103;-0.69223416,10.691172,0.30765963,-0.4999469,10.691172,0.11537236,2348.8103;-0.69223416,9.537449,0.30765963,-0.69223416,9.537449,0.423032,2365.5874;-0.69223416,9.537449,0.30765963,-0.8076065,9.498991,-0.38457453,2382.3647;-0.69223416,9.537449,0.30765963,-0.6537767,10.26814,0.19228727,2382.3647;-0.69223416,9.537449,0.30765963,-0.15382981,9.80665,-0.038457453,2399.1418;-0.69223416,9.537449,0.30765963,-0.8076065,9.075959,0.07691491,2399.1418;-0.69223416,9.537449,0.30765963,-0.38457453,9.037501,0.11537236,2415.9192;-0.69223416,9.537449,0.30765963,-0.4999469,9.768193,0.15382981,2432.6963;-0.69223416,9.537449,0.30765963,-0.30765963,9.614364,-0.23074472,2432.6963;-0.69223416,9.537449,0.30765963,-1.4613832,9.652821,0.30765963,2449.4736;-0.69223416,9.537449,0.30765963,-1.3075534,9.422076,0.26920217,2449.4736;-0.69223416,10.5758,0.30765963,-0.038457453,10.5758,-0.26920217,2466.2507;-0.69223416,10.5758,0.30765963,-0.69223416,10.460427,0.76914907,2483.028;-0.69223416,10.5758,0.30765963,-0.23074472,9.614364,0.26920217,2483.028;-0.69223416,10.5758,0.30765963,-0.5768618,10.075852,0.38457453,2499.8052;-0.69223416,10.5758,0.30765963,-0.4999469,9.614364,0.26920217,2499.8052;-0.69223416,10.5758,0.30765963,-0.30765963,10.498885,-0.038457453,2516.5825;-0.69223416,10.5758,0.30765963,-0.6537767,10.306598,0.46148944,2533.3596;-0.69223416,10.5758,0.30765963,-0.26920217,9.883566,0.15382981,2533.3596;-0.69223416,9.498991,0.30765963,-0.34611708,9.498991,0.34611708,2550.1367;-0.69223416,9.498991,0.30765963,0.038457453,9.960481,-0.11537236,2550.1367;-0.69223416,9.498991,-0.7306916,-0.61531925,9.422076,-0.7306916,2566.914;-0.69223416,9.498991,0.46148944,-0.53840435,9.922023,0.46148944,2583.6912;-0.69223416,9.498991,0.46148944,-0.76914907,9.922023,0.5768618,2583.6912;-0.69223416,9.498991,0.46148944,-0.423032,9.652821,0.423032,2600.4685;-0.69223416,9.498991,0.46148944,-0.46148944,9.768193,-0.11537236,2600.4685;-0.69223416,9.498991,0.46148944,-0.53840435,9.345161,0.038457453,2617.2456;-0.69223416,9.498991,0.46148944,-0.46148944,9.498991,0.11537236,2634.023;-0.69223416,9.498991,0.46148944,-0.38457453,9.537449,0.69223416,2634.023;-0.69223416,9.498991,0.46148944,-0.846064,9.729735,0.6537767,2650.8;-0.69223416,9.498991,0.46148944,-1.2306385,8.845214,0.46148944,2650.8;0.46148944,9.498991,0.46148944,0.46148944,10.229683,0.15382981,2667.5774;0.46148944,9.498991,0.46148944,-0.34611708,9.652821,0.46148944,2684.3545;0.46148944,9.498991,0.46148944,-0.34611708,9.614364,0.8076065,2684.3545;0.46148944,9.498991,0.46148944,-0.30765963,9.691278,0.34611708,2701.1318;0.46148944,9.498991,-0.61531925,-0.15382981,10.191225,-0.61531925,2717.909;0.46148944,9.498991,-0.61531925,-0.23074472,10.0373955,0.038457453,2734.6863;0.46148944,9.498991,-0.61531925,-0.423032,9.537449,0.34611708,2734.6863;0.46148944,9.498991,0.7306916,-0.038457453,10.075852,0.7306916,2751.4634;0.46148944,9.498991,0.7306916,-0.038457453,9.960481,0.038457453,2751.4634;0.46148944,9.498991,0.7306916,-0.38457453,9.883566,0.19228727,2768.2407;-0.7306916,9.498991,0.7306916,-0.7306916,9.922023,0.19228727,2785.0178;-0.7306916,9.498991,0.7306916,-1.3844683,10.345055,0.4999469,2785.0178;-0.7306916,9.498991,0.7306916,-0.34611708,9.729735,0.6537767,2801.7952;-0.7306916,9.498991,0.7306916,-0.23074472,10.152767,0.07691491,2801.7952;-0.7306916,9.498991,0.7306916,-0.69223416,8.999044,0.07691491,2818.5723;-0.7306916,9.498991,-0.46148944,-0.53840435,9.383618,-0.46148944,2835.3496;-0.7306916,9.498991,-0.46148944,-1.1152661,9.998938,-0.15382981,2835.3496;-0.7306916,9.498991,-0.46148944,0.19228727,10.0373955,0.26920217,2852.1267;-0.7306916,9.498991,-0.46148944,-0.15382981,9.998938,-0.07691491,2852.1267;-0.7306916,9.498991,-0.46148944,-0.5768618,9.152874,0.038457453,2868.904;-0.7306916,9.498991,-0.46148944,-0.69223416,9.537449,-0.23074472,2868.904;-0.7306916,9.498991,0.61531925,0.038457453,9.922023,0.61531925,2885.6812;-0.7306916,9.498991,0.61531925,-0.5768618,9.114416,0.15382981,2902.4583;-0.7306916,9.498991,0.61531925,-0.61531925,10.191225,0.26920217,2902.4583;-0.7306916,9.498991,0.61531925,-0.846064,9.768193,-0.15382981,2919.2356;-0.7306916,9.498991,0.61531925,-0.61531925,10.191225,0.26920217,2919.2356;-0.7306916,9.498991,0.61531925,-0.34611708,9.768193,0.4999469,2936.0127;-0.7306916,9.498991,0.61531925,-0.7306916,9.460533,0.6537767,2952.79;-0.7306916,9.498991,0.61531925,-0.11537236,10.345055,0.6537767,2952.79;-0.7306916,9.498991,0.61531925,0.038457453,10.191225,-0.38457453,2969.5671;-0.7306916,9.498991,0.61531925,-0.423032,9.922023,0.19228727,2969.5671;-0.7306916,9.498991,0.61531925,-0.9229789,9.883566,0.9229789,2986.3445;-0.7306916,9.498991,0.61531925,-0.76914907,10.191225,0.26920217,3003.1216;-0.7306916,9.498991,0.61531925,-0.23074472,10.11431,0.46148944,3003.1216;-0.7306916,9.498991,0.61531925,-1.0768087,9.768193,0.15382981,3019.899;-0.7306916,9.498991,0.61531925,-0.61531925,9.922023,0.19228727,3019.899;-0.7306916,9.498991,0.61531925,-0.30765963,10.26814,0.5768618,3036.676;-0.7306916,9.498991,0.61531925,-0.61531925,10.421969,0.6537767,3053.4534;-0.7306916,9.498991,0.61531925,-0.19228727,10.152767,0.07691491,3053.4534;-0.7306916,9.498991,0.61531925,-1.1152661,9.691278,0.30765963,3070.2305;-0.7306916,9.498991,0.61531925,-0.4999469,9.460533,-0.038457453,3070.2305;-0.7306916,9.498991,0.61531925,-0.15382981,10.306598,0.19228727,3087.0078;-0.7306916,9.498991,0.61531925,-0.46148944,9.614364,-0.38457453,3103.785;-0.7306916,9.498991,0.61531925,-0.8076065,9.691278,0.038457453,3103.785;-0.7306916,9.498991,-0.46148944,-0.7306916,9.075959,-0.46148944,3120.5623;-0.7306916,9.498991,-0.46148944,-0.34611708,9.229789,-0.34611708,3120.5623;-0.7306916,9.498991,-0.46148944,-0.4999469,9.960481,0.15382981,3137.3394;-0.7306916,9.498991,-0.46148944,-0.7306916,9.614364,0.53840435,3154.1167;-0.7306916,9.498991,-0.46148944,-0.7306916,9.229789,0.38457453,3154.1167;-0.7306916,11.191119,-0.46148944,0.26920217,11.191119,-0.23074472,3170.8938;-0.7306916,11.191119,-0.46148944,-0.23074472,10.537342,0.23074472,3170.8938;-0.7306916,9.845108,-0.46148944,0.038457453,9.845108,0.30765963,3187.6711;-0.7306916,9.845108,-0.46148944,-0.34611708,9.960481,0.423032,3204.4482;-0.7306916,9.845108,-0.46148944,-0.53840435,9.537449,0.38457453,3204.4482;-0.7306916,9.845108,-0.46148944,-0.34611708,10.614257,0.26920217,3221.2256;-0.7306916,9.845108,-0.46148944,-0.23074472,10.11431,0.19228727,3221.2256;-0.7306916,9.845108,-0.46148944,-0.4999469,9.998938,0.26920217,3238.0027;-0.7306916,9.845108,1.0768087,-0.6537767,9.883566,1.0768087,3254.7798;-0.7306916,9.845108,1.0768087,-0.46148944,9.883566,0.53840435,3254.7798;-0.7306916,9.845108,-0.19228727,-0.34611708,10.075852,-0.19228727,3271.5571;-0.7306916,9.845108,-0.19228727,-0.96143633,9.422076,0.19228727,3271.5571;-0.7306916,8.576012,-0.19228727,-1.6536705,8.576012,0.30765963,3288.3342;-0.7306916,10.191225,-0.19228727,-0.38457453,10.191225,0.30765963,3305.1116;-0.7306916,10.191225,-0.19228727,-0.5768618,9.575906,0.34611708,3305.1116;-0.7306916,8.883672,-0.19228727,-1.4613832,8.883672,0.0,3321.8887;-0.7306916,8.883672,-0.19228727,-0.69223416,9.768193,0.15382981,3321.8887;-0.7306916,8.883672,-0.19228727,-1.3844683,9.268247,0.4999469,3338.666;-0.7306916,8.883672,-0.19228727,-0.61531925,9.729735,0.38457453,3355.443;-0.7306916,8.883672,-0.19228727,-0.26920217,9.614364,0.11537236,3355.443;-0.7306916,8.883672,-0.19228727,-0.76914907,8.883672,0.15382981,3372.2205;-0.7306916,10.498885,-0.19228727,-0.5768618,10.498885,0.0,3372.2205;0.6537767,10.498885,-0.19228727,0.6537767,10.229683,-0.19228727,3388.9976;-0.846064,9.422076,-0.19228727,-0.846064,9.422076,0.23074472,3388.9976;-0.846064,9.422076,-0.19228727,-0.6537767,9.691278,0.0,3405.775;-0.846064,9.422076,-0.19228727,0.11537236,10.3835125,0.23074472,3422.552;-0.846064,9.422076,-0.19228727,-0.34611708,10.3835125,0.23074472,3422.552;-0.846064,10.652715,-0.19228727,0.038457453,10.652715,-0.15382981,3439.3293;-0.846064,9.575906,-0.19228727,-0.9229789,9.575906,-0.23074472,3439.3293;-0.846064,9.575906,-0.19228727,-0.9998938,9.614364,0.23074472,3456.1064;-0.846064,9.575906,-0.19228727,0.07691491,10.460427,-0.34611708,3472.8838;-0.846064,9.575906,-0.19228727,-0.30765963,10.11431,0.23074472,3472.8838;-0.846064,9.575906,-0.19228727,0.038457453,10.498885,0.0,3489.661;-0.846064,9.575906,-0.19228727,-0.61531925,9.498991,0.7306916,3489.661;-0.846064,9.575906,-0.19228727,-0.69223416,10.11431,0.38457453,3506.4382;-0.846064,9.575906,-0.19228727,-1.2690959,10.11431,0.11537236,3523.2153;-0.846064,9.575906,-0.19228727,-0.8845214,9.768193,0.4999469,3523.2153;-0.846064,9.575906,1.1537236,-1.1921811,8.845214,1.1537236,3539.9927;-0.846064,9.575906,1.1537236,-0.15382981,10.498885,0.9998938,3539.9927;-0.846064,9.575906,1.1537236,-0.30765963,10.3835125,0.6537767,3556.7698;-0.846064,9.575906,1.1537236,-1.4229257,8.845214,0.26920217,3573.547;-0.846064,9.575906,1.1537236,-0.53840435,9.268247,0.30765963,3573.547;-0.846064,8.422182,1.1537236,-1.615213,8.422182,0.53840435,3590.3242;-0.846064,10.614257,1.1537236,-0.423032,10.614257,0.61531925,3590.3242;-0.846064,10.614257,-0.34611708,-0.423032,9.922023,-0.34611708,3607.1013;-0.846064,9.383618,-0.34611708,-0.7306916,9.383618,0.46148944,3623.8787;-0.846064,9.383618,-0.34611708,-0.53840435,10.075852,0.19228727,3623.8787;-0.846064,9.383618,-0.34611708,-0.11537236,10.3835125,-0.07691491,3640.6558;-0.846064,9.383618,-0.34611708,-0.5768618,9.306704,0.11537236,3640.6558;-0.846064,9.383618,-0.34611708,-0.8076065,9.460533,0.53840435,3657.433;-0.846064,10.421969,-0.34611708,-0.23074472,10.421969,-0.19228727,3674.2102;-0.846064,10.421969,-0.34611708,-0.46148944,10.0373955,0.38457453,3674.2102;0.76914907,10.421969,-0.34611708,0.76914907,11.421864,-0.07691491,3690.9875;-1.3844683,9.268247,-0.34611708,-1.3844683,9.268247,0.5768618,3690.9875;-1.3844683,10.345055,-0.34611708,-0.38457453,10.345055,0.61531925,3707.7646;-0.11537236,10.345055,-0.34611708,-0.11537236,10.652715,0.23074472,3724.542;-0.11537236,10.345055,-0.34611708,-0.9229789,10.075852,0.038457453,3724.542;-0.11537236,10.345055,-0.34611708,0.23074472,10.768087,0.15382981,3741.319;-0.11537236,10.345055,-0.34611708,-0.846064,9.537449,0.6537767,3741.319;-0.11537236,10.345055,-0.34611708,-0.15382981,10.075852,0.038457453,3758.0964;-0.11537236,10.345055,-0.34611708,-0.5768618,10.614257,0.6537767,3774.8735;-0.11537236,9.229789,-0.34611708,-0.7306916,9.229789,0.53840435,3774.8735;-1.6536705,8.076065,-0.34611708,-1.6536705,8.076065,0.38457453,3791.651;0.07691491,10.152767,-0.34611708,0.07691491,10.152767,0.53840435,3791.651;0.07691491,10.152767,-0.34611708,-0.9229789,9.383618,0.46148944,3808.428;-1.3844683,8.883672,-0.34611708,-1.3844683,8.883672,0.38457453,3825.2053;-1.3844683,8.883672,-0.34611708,-0.96143633,9.729735,-0.11537236,3825.2053;-1.3844683,8.883672,0.8076065,-0.96143633,9.729735,0.8076065,3841.9824;-1.3844683,10.11431,0.8076065,-0.53840435,10.11431,1.1152661,3841.9824;-1.3844683,10.11431,0.8076065,-0.46148944,9.537449,0.69223416,3858.7598;-1.3844683,10.11431,0.8076065,-1.1152661,9.80665,0.038457453,3875.5369;-0.23074472,10.11431,0.8076065,-0.23074472,10.152767,0.11537236,3875.5369;-0.23074472,10.11431,0.8076065,-0.4999469,10.5758,0.19228727,3892.3142;-0.23074472,10.11431,0.8076065,-0.4999469,9.960481,0.34611708,3892.3142;-0.23074472,10.11431,0.8076065,-0.846064,9.729735,0.46148944,3909.0913;-0.23074472,10.11431,0.8076065,-0.19228727,9.960481,0.30765963,3909.0913;-0.23074472,10.11431,0.8076065,0.23074472,10.191225,-0.07691491,3925.8687;-0.23074472,10.11431,0.8076065,0.423032,11.037289,0.38457453,3942.6458;-0.23074472,10.11431,0.8076065,-0.46148944,9.614364,0.11537236,3942.6458;-0.23074472,10.11431,0.8076065,-0.38457453,9.306704,0.69223416,3959.423;-0.23074472,10.11431,0.8076065,0.11537236,10.26814,0.38457453,3959.423;-0.23074472,10.11431,0.8076065,-0.30765963,10.537342,0.61531925,3976.2002;-0.23074472,10.11431,0.8076065,-0.8845214,9.152874,0.4999469,3992.9773;-0.23074472,10.11431,0.8076065,-0.23074472,9.498991,0.4999469,3992.9773;-0.23074472,10.11431,0.8076065,-0.07691491,9.845108,0.23074472,4009.7546;-0.23074472,10.11431,0.8076065,-1.0383513,9.614364,0.53840435,4009.7546;-0.23074472,10.11431,0.8076065,-1.0768087,9.460533,0.69223416,4026.5317;-0.23074472,8.960587,0.8076065,-0.34611708,8.960587,0.26920217,4043.309;-0.23074472,10.0373955,0.8076065,-0.76914907,10.0373955,0.8845214,4043.309;-0.23074472,10.0373955,0.8076065,-0.26920217,10.152767,0.76914907,4060.0862;-1.615213,8.691384,0.8076065,-1.615213,8.691384,0.9229789,4060.0862;0.30765963,8.691384,0.8076065,0.30765963,9.652821,-0.07691491,4076.8635;-1.5382981,8.691384,0.8076065,-1.5382981,9.691278,0.76914907,4093.6406;-0.30765963,8.691384,0.8076065,-0.30765963,9.498991,0.61531925,4093.6406;-0.30765963,9.922023,0.8076065,0.0,9.922023,0.23074472,4110.418;-0.30765963,9.922023,0.8076065,-1.1921811,9.498991,0.4999469,4110.418;-0.30765963,9.922023,0.8076065,-0.38457453,9.960481,0.8076065,4127.1953;-0.30765963,9.922023,-0.38457453,0.0,10.26814,-0.38457453,4143.972;-0.30765963,9.922023,-0.38457453,-0.9998938,9.80665,0.26920217,4143.972;-0.30765963,9.922023,0.7306916,-0.423032,9.652821,0.7306916,4160.7495;-0.30765963,9.922023,0.7306916,0.15382981,10.537342,0.07691491,4160.7495;-0.30765963,9.922023,0.7306916,0.0,10.191225,0.423032,4177.527;-0.30765963,9.922023,0.7306916,-0.5768618,10.306598,0.846064,4194.304;-0.30765963,9.922023,0.7306916,-0.30765963,9.729735,0.46148944,4194.304;-0.30765963,9.922023,0.7306916,-0.61531925,10.3835125,0.8076065,4211.081;-0.30765963,11.037289,0.7306916,-0.07691491,11.037289,0.15382981,4211.081;-0.30765963,9.922023,0.7306916,-0.8076065,9.922023,0.61531925,4227.8584;-0.30765963,9.922023,0.7306916,-0.38457453,9.80665,0.53840435,4244.6357;-0.30765963,9.922023,0.7306916,-0.6537767,10.498885,0.5768618,4244.6357;-0.30765963,9.922023,0.7306916,-0.5768618,9.922023,0.9998938,4261.413;-0.30765963,9.922023,0.7306916,-0.30765963,10.3835125,0.53840435,4261.413;-0.30765963,9.922023,0.7306916,-0.76914907,9.345161,0.34611708,4278.19;-0.30765963,9.922023,0.7306916,-0.69223416,9.729735,0.038457453,4294.9673;-0.30765963,9.922023,0.7306916,-0.34611708,10.11431,0.23074472,4294.9673;-0.30765963,9.922023,0.7306916,-0.46148944,9.691278,0.34611708,4311.7446;-0.30765963,9.922023,0.7306916,-0.8076065,9.037501,0.26920217,4311.7446;-0.30765963,9.922023,0.7306916,-0.53840435,10.11431,0.26920217,4328.5215;-0.30765963,9.922023,0.7306916,-0.30765963,9.883566,0.76914907,4345.299;-0.30765963,9.922023,0.7306916,-0.6537767,9.998938,0.423032,4345.299;-0.30765963,9.922023,0.7306916,-0.69223416,10.306598,0.19228727,4362.076;-0.30765963,8.845214,0.7306916,-1.2690959,8.845214,0.76914907,4362.076;-0.30765963,10.075852,0.7306916,-0.76914907,10.075852,0.38457453,4378.8535;-0.30765963,10.075852,0.7306916,-0.34611708,10.229683,0.15382981,4378.8535;-0.30765963,10.075852,0.7306916,-0.4999469,9.80665,1.0768087,4395.6304;-0.30765963,10.075852,0.7306916,-0.61531925,9.845108,0.38457453,4412.4077;-0.30765963,10.075852,0.7306916,-0.8076065,9.960481,0.61531925,4412.4077;-0.30765963,10.075852,0.7306916,-0.07691491,10.806544,-0.23074472,4429.185;-0.30765963,10.075852,0.7306916,-0.38457453,10.075852,0.7306916,4429.185;-0.30765963,10.075852,0.7306916,-0.76914907,9.152874,0.8845214,4445.9624;-0.30765963,10.075852,0.7306916,-0.38457453,9.960481,0.96143633,4462.7393;-0.30765963,11.152661,0.7306916,-0.038457453,11.152661,0.34611708,4462.7393;-0.30765963,9.998938,0.7306916,-0.61531925,9.998938,0.423032,4479.5166;-1.3460109,8.806757,0.7306916,-1.3460109,8.806757,0.6537767,4479.5166;-1.3460109,8.806757,0.7306916,-1.0768087,9.614364,1.1152661,4496.294;-1.3460109,9.960481,0.7306916,-0.423032,9.960481,0.53840435,4513.0713;-0.30765963,9.960481,0.7306916,-0.30765963,10.075852,-0.07691491,4513.0713;-1.3460109,9.960481,0.7306916,-1.3460109,9.268247,0.46148944,4529.848;-1.3460109,8.883672,0.7306916,-1.1152661,8.883672,0.423032,4529.848;-0.26920217,10.075852,0.7306916,-0.26920217,10.075852,0.61531925,4546.6255;-0.26920217,10.075852,0.7306916,-0.15382981,9.306704,0.61531925,4563.403;-0.26920217,10.075852,0.7306916,-0.53840435,9.422076,0.61531925,4563.403;-0.26920217,10.075852,0.7306916,-0.7306916,9.537449,0.0,4580.18;-0.26920217,10.075852,0.7306916,-0.53840435,9.768193,0.19228727,4580.18;-0.26920217,10.075852,0.7306916,-0.53840435,10.152767,-0.19228727,4596.957;-0.26920217,10.075852,0.7306916,-0.6537767,9.652821,0.8845214,4613.7344;-0.26920217,8.422182,0.7306916,-0.8076065,8.422182,0.7306916,4613.7344;-0.26920217,10.075852,0.7306916,0.11537236,10.075852,0.15382981,4630.5117;-0.26920217,10.075852,0.7306916,-0.23074472,10.652715,0.15382981,4630.5117;-0.26920217,10.075852,0.7306916,-0.423032,9.845108,0.61531925,4647.289;-0.26920217,10.075852,0.7306916,-0.15382981,9.922023,0.61531925,4664.066;-0.26920217,8.999044,0.7306916,-0.9998938,8.999044,0.53840435,4664.066;-0.26920217,8.999044,0.7306916,-0.38457453,9.922023,0.0,4680.8433;-0.26920217,10.421969,0.7306916,-0.69223416,10.421969,0.34611708,4680.8433;-0.26920217,10.421969,0.7306916,-0.23074472,9.729735,0.9229789,4697.6206;-0.26920217,10.421969,0.7306916,-0.6537767,9.729735,1.1921811,4714.3975;-0.26920217,10.421969,0.7306916,-0.4999469,10.883459,0.423032,4714.3975;-0.26920217,10.421969,0.7306916,-1.2306385,10.152767,0.23074472,4731.175;-0.26920217,9.191331,0.7306916,-1.1152661,9.191331,0.61531925,4747.952;-0.26920217,9.191331,0.7306916,-0.53840435,9.729735,0.23074472,4764.7295;-0.26920217,9.191331,0.7306916,-0.6537767,10.11431,0.038457453,4764.7295;-0.26920217,9.191331,0.7306916,-1.0768087,9.114416,0.8076065,4781.5063;-0.26920217,9.191331,0.7306916,-0.7306916,9.075959,0.07691491,4781.5063;-0.26920217,9.191331,0.7306916,-0.6537767,9.80665,0.61531925,4798.2837;-0.26920217,9.191331,0.7306916,-0.76914907,9.691278,0.38457453,4815.061;-0.26920217,9.191331,0.7306916,-0.423032,9.268247,0.76914907,4815.061;-0.26920217,9.191331,0.7306916,-0.69223416,9.768193,0.038457453,4831.8384;-0.26920217,10.3835125,0.7306916,-0.7306916,10.3835125,0.15382981,4831.8384;-0.26920217,10.3835125,0.7306916,-0.23074472,9.960481,0.423032,4848.615;-0.26920217,9.191331,-0.30765963,-0.7306916,9.191331,-0.30765963,4865.3926;-0.26920217,9.191331,0.9998938,-0.76914907,9.306704,0.9998938,4865.3926;-0.26920217,9.191331,-0.34611708,0.11537236,10.0373955,-0.34611708,4882.17;-0.26920217,10.26814,-0.34611708,-0.76914907,10.26814,-0.11537236,4882.17;-0.26920217,10.26814,0.69223416,-1.1152661,9.652821,0.69223416,4898.9473;-0.26920217,10.26814,0.69223416,-0.69223416,9.345161,0.30765963,4898.9473;-0.26920217,10.26814,0.69223416,-0.76914907,9.498991,0.46148944,4915.724;-0.26920217,10.26814,0.69223416,-0.26920217,10.306598,-0.038457453,4932.5015;-0.26920217,10.26814,0.69223416,-0.53840435,10.960374,0.61531925,4932.5015;-0.26920217,10.26814,0.69223416,-0.4999469,9.80665,0.5768618,4949.279;-0.26920217,10.26814,0.69223416,-0.26920217,10.11431,0.8845214,4966.056;-0.26920217,10.26814,0.69223416,-0.15382981,10.306598,0.61531925,4966.056;-0.26920217,10.26814,0.69223416,-0.69223416,10.152767,0.15382981,4982.833;-0.26920217,9.152874,0.69223416,-0.8076065,9.152874,0.38457453,4982.833;-0.26920217,9.152874,0.69223416,-0.15382981,9.768193,0.61531925,4999.6104;-0.26920217,9.152874,0.69223416,-0.7306916,9.845108,0.96143633,4999.6104;-0.26920217,10.460427,0.69223416,-0.26920217,10.460427,0.23074472,5016.3877;-0.26920217,8.691384,0.69223416,-1.0768087,8.691384,0.34611708,5033.165;-0.26920217,9.768193,0.69223416,-0.69223416,9.768193,0.15382981,5033.165;-0.26920217,9.768193,0.69223416,-0.9998938,9.845108,0.76914907,5049.942;-0.26920217,9.768193,0.69223416,-0.8845214,9.075959,0.8845214,5049.942;-0.26920217,9.768193,0.69223416,-0.8076065,9.460533,0.11537236,5066.719;-0.26920217,9.768193,0.69223416,-0.26920217,9.537449,0.23074472,5083.4966;-0.26920217,9.768193,0.69223416,-0.46148944,9.768193,0.23074472,5083.4966;-0.26920217,9.768193,0.69223416,-0.38457453,10.537342,0.26920217,5100.2734;-0.26920217,9.768193,0.69223416,-0.9229789,9.268247,0.69223416,5100.2734;-0.26920217,9.768193,0.69223416,-1.1537236,9.268247,-0.038457453,5117.051;-0.26920217,9.768193,0.69223416,-0.7306916,10.306598,0.19228727,5133.828;-0.26920217,9.768193,0.69223416,-0.4999469,10.345055,-0.11537236,5133.828;-0.26920217,9.768193,0.69223416,-0.23074472,9.729735,0.34611708,5150.6055;-0.26920217,9.768193,0.69223416,-0.30765963,9.614364,0.423032,5150.6055;-0.26920217,9.768193,0.69223416,-0.26920217,9.652821,1.0383513,5167.3823;-0.26920217,9.768193,0.69223416,-0.23074472,10.5758,0.30765963,5184.1597;-0.26920217,9.768193,0.69223416,-0.6537767,9.229789,0.7306916,5184.1597;-0.26920217,9.768193,0.69223416,-0.61531925,9.960481,0.8076065,5200.937;-0.26920217,9.768193,0.69223416,-0.4999469,10.191225,0.8076065,5200.937;-0.26920217,9.768193,0.69223416,-0.38457453,10.26814,0.4999469,5217.7144;-0.26920217,9.768193,0.69223416,-0.8845214,10.11431,0.0,5234.491;-1.5382981,9.768193,0.69223416,-1.5382981,8.883672,0.53840435,5234.491;-1.5382981,9.768193,0.69223416,-0.69223416,10.691172,1.0383513,5251.2686;-0.23074472,9.768193,0.69223416,-0.23074472,9.80665,0.9229789,5251.2686;-0.23074472,9.768193,0.69223416,-0.69223416,9.422076,0.53840435,5268.046;-0.23074472,9.768193,0.69223416,-0.846064,9.614364,0.5768618,5284.823;-0.23074472,9.768193,0.69223416,-1.1152661,9.80665,0.34611708,5284.823;-0.23074472,9.768193,0.69223416,-0.07691491,10.229683,0.23074472,5301.6;-0.23074472,9.768193,0.69223416,-0.23074472,9.460533,0.61531925,5301.6;-0.23074472,9.768193,0.69223416,-0.23074472,9.575906,0.19228727,5318.3774;-0.23074472,9.768193,0.69223416,-0.34611708,10.11431,-0.07691491,5335.155;-0.23074472,9.768193,0.69223416,-0.6537767,10.345055,-0.19228727,5335.155;-0.23074472,9.768193,0.69223416,-0.038457453,10.11431,0.07691491,5351.932;-0.23074472,9.768193,0.69223416,-0.26920217,9.845108,0.4999469,5351.932;-0.23074472,9.768193,0.69223416,-0.11537236,10.191225,1.2690959,5368.709;-0.23074472,9.768193,0.69223416,-0.34611708,10.3835125,0.38457453,5385.4863;-0.23074472,9.768193,0.69223416,-0.30765963,10.191225,0.423032,5385.4863;-0.23074472,9.768193,0.69223416,-0.8076065,9.422076,0.76914907,5402.2637;-0.23074472,9.768193,0.69223416,-0.23074472,10.191225,0.6537767,5402.2637;-0.23074472,9.768193,0.69223416,0.07691491,9.729735,1.0383513,5419.0405;-1.3460109,9.768193,0.69223416,-1.3460109,9.268247,0.46148944,5419.0405;-1.3460109,9.768193,0.69223416,-0.76914907,9.422076,0.23074472,5435.818;-1.3460109,9.768193,0.69223416,-0.7306916,9.80665,1.1152661,5452.595;-0.07691491,9.768193,0.69223416,-0.07691491,9.422076,0.5768618,5452.595;-0.07691491,9.768193,0.69223416,-0.76914907,9.960481,0.8845214,5469.3726;-1.2306385,9.768193,0.69223416,-1.2306385,9.460533,-0.038457453,5469.3726;-1.2306385,9.768193,0.69223416,-1.615213,9.037501,-0.19228727,5486.1494;-1.2306385,9.768193,0.69223416,-0.38457453,10.152767,0.11537236,5502.927;-1.2306385,9.768193,0.69223416,-0.30765963,9.191331,0.8845214,5502.927;-1.2306385,9.768193,0.69223416,-0.5768618,9.422076,-0.11537236,5519.704;-1.2306385,9.768193,0.69223416,-0.5768618,9.80665,0.34611708,5519.704;-1.2306385,9.768193,0.69223416,-0.76914907,10.421969,0.038457453,5536.4814;-1.2306385,9.768193,0.69223416,-0.30765963,10.191225,0.61531925,5553.2583;-1.2306385,9.768193,0.69223416,-0.26920217,9.037501,1.1537236,5553.2583;-1.2306385,9.768193,0.69223416,-1.2306385,9.191331,0.8845214,5570.0356;0.11537236,9.768193,0.69223416,0.11537236,10.537342,-0.07691491,5570.0356;0.11537236,9.768193,0.69223416,-0.7306916,10.11431,-0.038457453,5586.813;0.11537236,9.768193,0.69223416,0.15382981,10.498885,0.53840435,5603.5903;0.11537236,9.768193,0.69223416,-0.6537767,10.0373955,0.76914907,5603.5903;0.11537236,9.768193,0.69223416,-0.26920217,9.998938,0.96143633,5620.367;0.11537236,9.768193,0.69223416,-0.26920217,10.0373955,0.30765963,5620.367;-0.9998938,9.768193,0.69223416,-0.9998938,10.229683,0.423032,5637.1445;-0.9998938,9.768193,0.69223416,-0.34611708,9.383618,0.5768618,5653.922;-0.9998938,9.768193,0.69223416,-0.4999469,9.883566,0.38457453,5653.922;-0.9998938,9.768193,0.69223416,-0.34611708,10.345055,0.6537767,5670.699;-0.9998938,9.768193,0.69223416,-0.6537767,9.652821,0.34611708,5670.699;-0.9998938,9.768193,0.69223416,-0.76914907,9.537449,-0.19228727,5687.476;-0.9998938,8.729842,0.69223416,-1.3460109,8.729842,0.423032,5704.2534;-0.9998938,8.729842,0.69223416,-0.26920217,9.652821,0.9229789,5704.2534;-0.9998938,9.845108,0.69223416,0.0,9.845108,0.15382981,5721.031;-0.9998938,9.845108,0.69223416,-0.69223416,9.383618,0.4999469,5721.031;-0.9998938,9.845108,0.69223416,-0.6537767,9.614364,0.19228727,5737.808;-0.9998938,9.845108,0.69223416,-1.2690959,9.729735,0.7306916,5754.585;-0.9998938,9.845108,0.69223416,-0.23074472,9.614364,0.7306916,5754.585;-0.9998938,9.845108,0.69223416,-0.61531925,9.229789,0.9229789,5771.3623;-0.9998938,9.845108,0.69223416,-0.423032,9.575906,0.23074472,5771.3623;-0.9998938,9.845108,0.69223416,-0.96143633,9.845108,0.46148944,5788.1396;-0.9998938,10.921917,0.69223416,0.0,10.921917,0.0,5804.9165;-0.9998938,9.691278,0.69223416,-0.9229789,9.691278,0.30765963,5804.9165;-0.9998938,9.691278,0.69223416,-0.9229789,9.268247,0.846064,5821.694;0.038457453,9.691278,0.69223416,0.038457453,10.229683,0.26920217,5821.694;0.038457453,9.691278,0.69223416,-0.423032,10.306598,0.9229789,5838.471;0.038457453,9.691278,0.69223416,0.6537767,10.421969,0.26920217,5855.2485;0.038457453,9.691278,0.69223416,-0.38457453,9.691278,0.423032,5855.2485;0.038457453,9.691278,0.69223416,-0.96143633,10.0373955,0.53840435,5872.0254;0.038457453,9.691278,0.69223416,-0.5768618,10.5758,0.23074472,5872.0254;-1.3075534,9.691278,0.69223416,-1.3075534,9.306704,0.26920217,5888.8027;-1.3075534,9.691278,0.69223416,-0.6537767,9.729735,0.38457453,5905.58;-1.3075534,9.691278,0.69223416,-0.34611708,10.152767,0.46148944,5905.58;-0.038457453,9.691278,0.69223416,-0.038457453,9.883566,0.53840435,5922.3574;-1.5382981,9.691278,0.69223416,-1.5382981,8.999044,0.19228727,5922.3574;-1.5382981,9.691278,0.69223416,-1.2306385,9.114416,0.38457453,5939.1343;-1.5382981,9.691278,0.69223416,-0.6537767,9.922023,0.46148944,5939.1343;-1.5382981,9.691278,0.69223416,-0.6537767,9.845108,1.0768087,5955.9116;0.23074472,9.691278,0.69223416,0.23074472,9.460533,-0.23074472,5972.689;-1.0383513,9.691278,0.69223416,-1.0383513,8.806757,0.4999469,5972.689;-1.0383513,9.691278,0.69223416,-1.0383513,9.422076,0.4999469,5989.4663;-1.0383513,9.691278,0.69223416,-1.1537236,9.422076,0.23074472,5989.4663;0.038457453,9.691278,0.69223416,0.038457453,9.883566,0.846064,6006.243;0.038457453,9.691278,0.69223416,-0.23074472,9.345161,0.15382981,6023.0205;0.038457453,9.691278,0.69223416,-0.53840435,9.998938,0.38457453,6023.0205;0.038457453,9.691278,0.69223416,0.30765963,10.460427,0.26920217,6039.798;0.038457453,10.845002,0.69223416,-0.15382981,10.845002,0.7306916,6039.798;0.038457453,9.537449,0.69223416,-0.5768618,9.537449,0.5768618,6056.575;0.038457453,9.537449,0.69223416,0.11537236,9.998938,0.11537236,6073.352;0.038457453,9.537449,0.69223416,-0.11537236,10.306598,0.038457453,6073.352;0.038457453,9.537449,0.69223416,-0.6537767,9.998938,0.38457453,6090.1294;0.038457453,9.537449,0.69223416,-0.8076065,9.80665,0.6537767,6090.1294;0.038457453,9.537449,0.69223416,-0.846064,9.498991,0.46148944,6106.9067;0.038457453,9.537449,0.69223416,-0.4999469,9.652821,0.7306916,6123.684;-1.1152661,9.537449,0.69223416,-1.1152661,9.80665,0.11537236,6123.684;-1.1152661,9.537449,0.69223416,-1.3460109,9.768193,0.34611708,6140.461;-1.1152661,9.537449,0.69223416,-0.53840435,9.229789,0.11537236,6140.461;-1.1152661,9.537449,0.69223416,-0.6537767,9.652821,0.69223416,6157.2383;-1.1152661,9.537449,0.69223416,-0.26920217,10.152767,0.423032,6174.0156;-1.1152661,9.537449,0.69223416,-1.7690428,9.383618,0.30765963,6174.0156;-1.1152661,9.537449,0.69223416,-0.53840435,9.652821,0.26920217,6190.7925;-1.1152661,9.537449,0.69223416,-1.0383513,9.229789,0.46148944,6190.7925;-1.1152661,9.537449,0.69223416,-0.46148944,10.075852,0.5768618,6207.57;-1.1152661,9.537449,0.69223416,-0.38457453,9.691278,0.07691491,6224.347;-1.1152661,8.422182,0.69223416,-1.4229257,8.422182,0.23074472,6224.347;-1.1152661,9.922023,0.69223416,-0.53840435,9.922023,0.38457453,6241.1245;-1.1152661,9.922023,0.69223416,-0.38457453,10.3835125,0.423032,6241.1245;-1.1152661,9.922023,0.69223416,-0.30765963,9.652821,0.9229789,6257.9014;-1.1152661,9.922023,0.69223416,-0.38457453,9.383618,0.5768618,6274.6787;-1.1152661,9.922023,0.69223416,-0.46148944,10.0373955,0.4999469,6274.6787;-1.1152661,9.922023,0.69223416,-0.4999469,10.537342,0.0,6291.456;-1.1152661,9.922023,0.69223416,-0.4999469,10.26814,0.9998938,6291.456;-1.1152661,9.922023,0.69223416,-0.53840435,9.652821,0.8845214,6308.2334;-1.1152661,9.922023,0.69223416,-0.38457453,10.26814,0.19228727,6325.0103;0.23074472,9.922023,0.69223416,0.23074472,10.7296295,0.0,6325.0103;-0.9998938,9.922023,0.69223416,-0.9998938,9.768193,0.34611708,6341.7876;-0.9998938,9.922023,0.69223416,-0.8845214,9.80665,0.61531925,6341.7876;-0.9998938,9.922023,0.69223416,-0.23074472,9.922023,0.9229789,6358.565;-0.9998938,9.922023,0.69223416,-1.1152661,9.729735,0.46148944,6375.3423;-0.9998938,9.922023,0.69223416,-0.30765963,10.0373955,0.4999469,6375.3423;-0.9998938,9.922023,0.69223416,-0.96143633,9.729735,0.38457453,6392.119;-0.9998938,9.922023,0.69223416,-0.46148944,9.229789,0.69223416,6392.119;-0.9998938,9.922023,0.69223416,-0.038457453,10.191225,0.61531925,6408.8965;-0.9998938,9.922023,0.69223416,-0.53840435,9.575906,0.11537236,6408.8965;-0.9998938,8.883672,0.69223416,-1.0768087,8.883672,-0.038457453,6425.674;-0.9998938,8.883672,0.69223416,-0.69223416,9.152874,0.23074472,6442.451;-0.9998938,8.883672,0.69223416,-0.46148944,9.460533,-0.07691491,6442.451;-0.9998938,8.883672,0.69223416,-0.7306916,9.883566,0.11537236,6459.228;-0.9998938,8.883672,0.69223416,0.0,9.691278,0.5768618,6459.228;-0.9998938,8.883672,0.69223416,-1.4613832,8.806757,0.69223416,6476.0054;-0.9998938,10.11431,0.69223416,-0.96143633,10.11431,-0.11537236,6492.7827;-0.9998938,10.11431,0.69223416,-0.19228727,10.5758,-0.11537236,6492.7827;-0.9998938,10.11431,0.69223416,-0.46148944,9.537449,0.6537767,6509.5596;-0.9998938,10.11431,0.69223416,-0.7306916,9.498991,0.38457453,6526.337;-0.9998938,10.11431,0.69223416,-0.15382981,10.306598,0.76914907,6526.337;-0.9998938,10.11431,0.69223416,-0.6537767,10.11431,0.46148944,6543.1143;0.15382981,10.11431,0.69223416,0.15382981,10.614257,0.46148944,6543.1143;0.15382981,10.11431,0.69223416,-0.61531925,9.229789,0.5768618,6559.8916;0.15382981,10.11431,0.69223416,-0.15382981,9.768193,0.423032,6559.8916;0.15382981,10.11431,0.69223416,-0.34611708,10.652715,0.07691491,6576.6685;0.15382981,10.11431,0.69223416,-0.7306916,9.998938,0.38457453,6593.446;0.15382981,10.11431,0.69223416,-0.38457453,9.498991,0.15382981,6593.446;0.15382981,10.11431,0.69223416,-0.26920217,10.152767,0.9229789,6610.223;0.15382981,10.11431,0.69223416,-0.76914907,9.691278,0.61531925,6610.223;0.15382981,10.11431,0.69223416,-0.5768618,9.845108,-0.11537236,6627.0005;-1.1152661,8.806757,0.69223416,-1.1152661,8.806757,0.038457453,6643.7773;-1.1152661,8.806757,0.69223416,-0.61531925,8.691384,0.30765963,6643.7773;-1.1152661,9.998938,0.69223416,-0.30765963,9.998938,-0.038457453,6660.5547;-1.1152661,9.998938,0.69223416,-0.4999469,9.729735,0.5768618,6660.5547;-1.1152661,8.883672,0.69223416,-1.0768087,8.883672,0.846064,6677.332;0.0,8.883672,0.69223416,0.0,9.537449,0.038457453,6694.1094;0.0,9.998938,0.69223416,-0.8076065,9.998938,0.0,6694.1094;0.0,9.998938,0.69223416,-0.30765963,9.80665,-0.038457453,6710.886;0.0,9.998938,0.69223416,-0.423032,9.845108,0.8076065,6710.886;-1.4998407,8.960587,0.69223416,-1.4998407,8.960587,0.4999469,6727.6636;-1.4998407,9.998938,0.69223416,-0.4999469,9.998938,-0.19228727,6744.441;0.23074472,11.114204,0.69223416,0.23074472,11.114204,0.46148944,6744.441;-1.0383513,9.614364,0.69223416,-1.0383513,9.614364,0.61531925,6761.2183;0.038457453,9.614364,0.69223416,0.038457453,10.152767,0.53840435,6761.2183;0.038457453,9.614364,0.69223416,-0.423032,10.075852,0.8845214,6777.995;0.038457453,10.691172,0.69223416,0.15382981,10.691172,0.0,6794.7725;0.038457453,10.691172,0.69223416,-0.46148944,10.0373955,0.76914907,6794.7725;0.038457453,10.691172,0.69223416,-0.76914907,9.883566,0.4999469,6811.55;0.038457453,10.691172,0.69223416,-0.5768618,9.768193,0.46148944,6828.327;0.038457453,10.691172,0.69223416,-0.46148944,10.7296295,0.5768618,6828.327;-0.9998938,9.652821,0.69223416,-0.9998938,9.652821,0.038457453,6845.104;-0.9998938,9.652821,0.69223416,-0.69223416,9.191331,0.07691491,6845.104;-0.9998938,9.652821,0.69223416,-0.53840435,9.729735,0.8076065,6861.8813;-0.9998938,9.652821,0.69223416,-0.26920217,10.152767,0.38457453,6861.8813;0.07691491,9.652821,0.69223416,0.07691491,10.460427,-0.11537236,6878.6587;0.07691491,9.652821,0.69223416,-0.53840435,9.075959,0.11537236,6895.4355;0.07691491,9.652821,0.69223416,-0.4999469,9.768193,-0.07691491,6895.4355;0.07691491,9.652821,0.69223416,-0.423032,9.652821,0.34611708,6912.213;0.07691491,9.652821,0.69223416,-0.53840435,9.498991,0.69223416,6912.213;0.07691491,9.652821,0.69223416,-0.9229789,9.152874,0.4999469,6928.99;0.07691491,9.652821,0.69223416,-0.61531925,9.575906,0.26920217,6928.99;0.07691491,9.652821,0.69223416,-0.34611708,10.345055,0.26920217,6945.7676;0.07691491,9.652821,0.69223416,-0.38457453,9.80665,0.69223416,6962.5444;-1.0383513,9.652821,0.69223416,-1.0383513,9.729735,0.69223416,6962.5444;-1.0383513,9.652821,0.69223416,-0.9998938,9.537449,0.11537236,6979.322;-1.0383513,9.652821,0.69223416,-0.07691491,9.845108,-0.07691491,6979.322;-1.0383513,9.652821,0.69223416,-0.5768618,10.614257,0.23074472,6996.099;-1.0383513,9.652821,0.69223416,-0.26920217,10.152767,0.76914907,7012.8765;-1.0383513,9.652821,0.69223416,-1.0383513,9.960481,0.69223416,7012.8765;-1.0383513,9.652821,0.69223416,-0.846064,9.80665,0.46148944,7029.6533;-1.0383513,9.652821,0.69223416,-0.9229789,9.729735,0.0,7029.6533;-1.0383513,9.652821,0.69223416,-0.46148944,10.345055,0.07691491,7046.4307;-1.0383513,9.652821,0.69223416,-0.7306916,9.960481,0.96143633,7063.208;-1.0383513,9.652821,0.69223416,-0.26920217,10.11431,0.38457453,7063.208;0.07691491,9.652821,0.69223416,0.07691491,10.075852,0.30765963,7079.9854;0.07691491,9.652821,0.69223416,-0.53840435,9.383618,0.46148944,7079.9854;-1.0768087,9.652821,0.69223416,-1.0768087,9.460533,0.8845214,7096.762;-1.0768087,9.652821,0.69223416,-0.53840435,9.537449,0.61531925,7113.5396;-1.0768087,9.652821,0.69223416,-0.7306916,9.883566,-0.07691491,7113.5396;-1.0768087,9.652821,0.69223416,-0.5768618,9.729735,0.07691491,7130.317;-1.0768087,9.652821,0.69223416,-0.8845214,8.999044,0.26920217,7130.317;-1.0768087,9.652821,0.69223416,-0.46148944,9.960481,0.30765963,7147.094;0.038457453,9.652821,0.69223416,0.038457453,9.768193,0.34611708,7163.871;0.038457453,9.652821,0.69223416,-0.19228727,9.729735,0.69223416,7163.871;0.038457453,9.652821,0.69223416,-0.4999469,9.268247,0.69223416,7180.6484;0.038457453,9.652821,0.69223416,-0.07691491,10.537342,0.0,7180.6484;0.038457453,9.652821,0.69223416,-0.6537767,10.0373955,0.19228727,7197.426;0.038457453,9.652821,0.69223416,-0.7306916,9.498991,0.53840435,7214.2026;0.038457453,9.652821,0.69223416,-0.423032,9.306704,0.8076065,7214.2026;0.038457453,9.652821,0.69223416,-0.76914907,9.191331,0.038457453,7230.98;0.038457453,9.652821,0.69223416,-0.038457453,10.229683,0.11537236,7230.98;0.038457453,10.768087,0.69223416,-0.38457453,10.768087,0.15382981,7247.7573;0.038457453,10.768087,0.69223416,-0.07691491,10.26814,0.4999469,7264.5347;0.038457453,10.768087,0.69223416,-0.26920217,10.075852,0.7306916,7264.5347;0.038457453,10.768087,0.69223416,0.15382981,10.11431,0.30765963,7281.3115;0.038457453,10.768087,0.69223416,-0.5768618,10.345055,-0.19228727,7281.3115;-1.0383513,9.498991,0.69223416,-1.0383513,9.498991,0.69223416,7298.089;-1.0383513,9.498991,0.69223416,-0.9229789,9.614364,0.38457453,7314.866;-1.0383513,9.498991,0.69223416,-0.53840435,10.229683,0.7306916,7314.866;0.11537236,9.498991,0.69223416,0.11537236,10.152767,0.23074472,7331.6436;-1.5767555,9.498991,0.69223416,-1.5767555,9.075959,0.423032,7331.6436;-1.5767555,9.498991,0.69223416,-0.96143633,9.575906,0.07691491,7348.4204;-0.34611708,9.498991,0.69223416,-0.34611708,9.729735,0.53840435,7365.1978;-0.34611708,9.498991,0.69223416,-0.53840435,9.422076,1.0383513,7365.1978;-0.34611708,9.498991,0.69223416,-0.846064,9.229789,0.0,7381.975;-0.34611708,9.498991,0.69223416,-0.61531925,10.075852,-0.038457453,7381.975;-0.34611708,10.5758,0.69223416,-0.423032,10.5758,0.5768618,7398.7524;-0.34611708,10.5758,0.69223416,-0.76914907,10.075852,0.96143633,7415.5293;-0.34611708,9.114416,0.69223416,-0.6537767,9.114416,0.038457453,7415.5293;-0.34611708,9.114416,0.69223416,-0.8076065,9.422076,0.5768618,7432.3066;-0.34611708,9.114416,0.69223416,-0.30765963,10.11431,0.0,7432.3066;-0.34611708,10.460427,0.69223416,-0.5768618,10.460427,0.34611708,7449.084;-0.34611708,10.460427,0.69223416,-0.5768618,9.960481,0.34611708,7449.084;-0.34611708,10.460427,0.69223416,-0.34611708,9.460533,0.19228727,7465.8613;-0.34611708,10.460427,0.69223416,-0.9998938,10.498885,0.61531925,7482.638;-0.34611708,10.460427,0.69223416,-1.1152661,10.0373955,0.0,7482.638;-0.34611708,10.460427,0.69223416,-0.53840435,10.191225,0.423032,7499.4155;-0.34611708,10.460427,0.69223416,-0.6537767,9.575906,0.4999469,7499.4155;-0.34611708,10.460427,0.69223416,-0.15382981,9.652821,0.96143633,7516.193;-0.34611708,10.460427,0.69223416,-0.5768618,10.075852,0.6537767,7532.97;-0.34611708,10.460427,0.69223416,-1.0383513,9.498991,0.5768618,7532.97;-0.34611708,10.460427,0.69223416,-0.9229789,9.729735,0.15382981,7549.747;-0.34611708,10.460427,0.69223416,-0.11537236,9.922023,0.30765963,7549.747;-0.34611708,10.460427,0.69223416,-0.846064,10.11431,0.8076065,7566.5244;-0.34611708,10.460427,0.69223416,-0.23074472,10.11431,-0.19228727,7583.302;-0.34611708,9.075959,0.69223416,-0.5768618,9.075959,0.19228727,7583.302;-0.34611708,9.075959,0.69223416,-0.423032,9.383618,0.19228727,7600.0786;-0.34611708,9.075959,0.69223416,-0.23074472,9.729735,0.19228727,7600.0786;-0.34611708,9.075959,0.69223416,-0.11537236,9.922023,0.34611708,7616.856;-0.34611708,9.075959,0.69223416,-0.61531925,9.922023,0.4999469,7633.6333;-0.34611708,9.075959,0.69223416,-1.0768087,9.152874,-0.11537236,7633.6333;-0.34611708,9.075959,0.69223416,-0.4999469,9.768193,-0.23074472,7650.4106;-0.34611708,10.998832,0.69223416,0.4999469,10.998832,-0.15382981,7650.4106;-0.34611708,9.537449,0.69223416,-0.34611708,9.537449,0.423032,7667.1875;-0.34611708,9.537449,0.69223416,-0.423032,10.498885,0.11537236,7683.965;-0.34611708,9.537449,0.69223416,-0.8076065,9.729735,0.34611708,7683.965;-0.34611708,9.537449,0.69223416,-0.5768618,10.075852,0.26920217,7700.742;-0.34611708,9.537449,0.69223416,-0.038457453,10.537342,0.19228727,7700.742;-0.34611708,9.537449,0.69223416,-0.9229789,9.575906,0.34611708,7717.5195;-0.34611708,9.537449,0.69223416,-0.8845214,9.883566,0.46148944,7734.2964;-0.34611708,9.537449,0.69223416,-0.4999469,10.0373955,-0.038457453,7734.2964;-0.34611708,9.537449,0.69223416,-0.846064,10.229683,0.11537236,7751.0737;-0.34611708,9.537449,0.69223416,-0.846064,9.229789,0.423032,7751.0737;-0.34611708,9.537449,0.69223416,-0.423032,10.306598,1.1152661,7767.851;-0.34611708,9.537449,0.69223416,-0.26920217,9.922023,0.9229789,7784.6284;-0.34611708,9.537449,0.69223416,-0.5768618,9.922023,0.423032,7784.6284;-0.34611708,9.537449,0.69223416,-0.6537767,10.229683,-0.038457453,7801.4053;-0.34611708,9.537449,0.69223416,-0.96143633,8.806757,1.0768087,7801.4053;-0.34611708,10.7296295,0.69223416,-0.46148944,10.7296295,0.5768618,7818.1826;-0.34611708,9.652821,0.69223416,-0.76914907,9.652821,0.0,7834.96;-0.34611708,9.652821,-0.34611708,-1.0768087,9.075959,-0.34611708,7834.96;-0.34611708,9.652821,-0.34611708,-1.1537236,9.114416,-0.11537236,7851.7373;-0.34611708,9.652821,-0.34611708,-0.4999469,8.729842,0.61531925,7851.7373;-0.34611708,9.652821,0.8845214,0.19228727,9.922023,0.8845214,7868.514;-0.34611708,9.652821,0.8845214,-0.7306916,9.652821,0.423032,7885.2915;-0.34611708,9.652821,-0.26920217,-0.4999469,9.729735,-0.26920217,7885.2915;-0.34611708,9.652821,-0.26920217,-1.1152661,9.80665,0.30765963,7902.069;-0.34611708,9.652821,-0.26920217,0.30765963,10.614257,0.46148944,7902.069;-0.34611708,9.652821,-0.26920217,-0.7306916,9.268247,0.4999469,7918.846;-0.34611708,9.652821,-0.26920217,-0.96143633,8.960587,0.34611708,7918.846;-0.34611708,9.652821,-0.26920217,-0.6537767,10.11431,-0.038457453,7935.623;-0.34611708,9.652821,-0.26920217,-0.5768618,10.3835125,0.0,7952.4004;0.8845214,10.998832,-0.26920217,0.8845214,10.998832,0.26920217,7952.4004;-0.7306916,9.575906,-0.26920217,-0.7306916,9.575906,0.19228727,7969.1777;-0.7306916,9.575906,0.9229789,-0.46148944,10.191225,0.9229789,7969.1777;-0.7306916,9.575906,0.9229789,-0.46148944,9.845108,0.38457453,7985.9546;-0.7306916,9.575906,0.9229789,-0.61531925,9.960481,0.6537767,8002.732;-0.7306916,9.575906,0.9229789,-0.15382981,10.0373955,0.11537236,8002.732;-0.7306916,9.575906,0.9229789,-0.30765963,9.537449,1.1152661,8019.5093;-0.7306916,9.575906,0.9229789,-0.038457453,9.922023,0.423032,8019.5093;-0.7306916,9.575906,0.9229789,-1.3844683,9.152874,0.423032,8036.2866;-0.7306916,9.575906,0.9229789,-0.9998938,9.152874,0.69223416,8053.0635;-0.7306916,9.575906,0.9229789,-0.846064,9.075959,0.23074472,8053.0635;-0.7306916,9.575906,0.9229789,0.07691491,9.729735,0.4999469,8069.841;-0.7306916,9.575906,0.9229789,-0.4999469,9.960481,0.69223416,8069.841;-0.7306916,9.575906,0.9229789,-1.6536705,9.152874,0.38457453,8086.618;-0.7306916,9.575906,-0.15382981,-0.5768618,8.999044,-0.15382981,8103.3955;-0.7306916,9.575906,-0.15382981,-1.1921811,8.845214,0.423032,8103.3955;-0.7306916,9.575906,-0.15382981,-0.423032,9.729735,0.53840435,8120.1724;-0.7306916,9.575906,-0.15382981,-0.423032,9.614364,-0.07691491,8120.1724;-0.7306916,9.575906,-0.15382981,-0.30765963,9.729735,0.11537236,8136.9497;-0.7306916,9.575906,-0.15382981,-0.53840435,9.537449,-0.30765963,8153.727;-0.7306916,9.575906,-0.15382981,-0.53840435,10.498885,0.69223416,8153.727;-0.7306916,9.575906,1.1152661,-0.07691491,9.460533,1.1152661,8170.5044;-0.7306916,9.575906,1.1152661,-0.9229789,10.229683,0.61531925,8170.5044;-0.7306916,10.7296295,1.1152661,0.26920217,10.7296295,0.11537236,8187.2813;-0.7306916,10.7296295,0.07691491,-0.53840435,9.883566,0.07691491,8204.059;-0.7306916,10.7296295,0.07691491,-0.7306916,10.960374,0.423032,8204.059;-0.7306916,9.152874,0.07691491,-0.5768618,9.152874,0.5768618,8220.836;-0.7306916,9.152874,0.07691491,-0.53840435,9.80665,0.61531925,8220.836;-0.7306916,10.498885,0.07691491,-0.19228727,10.498885,0.038457453,8237.613;-0.7306916,10.498885,0.07691491,-0.8076065,9.498991,-0.11537236,8254.391;-0.7306916,10.498885,0.07691491,0.0,10.537342,0.0,8254.391;-0.7306916,10.498885,0.07691491,-0.7306916,9.845108,1.0768087,8271.168;-0.7306916,10.498885,0.07691491,-0.19228727,9.691278,0.23074472,8271.168;-0.7306916,9.345161,0.07691491,-0.9998938,9.345161,0.26920217,8287.944;-0.7306916,9.345161,0.07691491,-0.76914907,9.114416,-0.038457453,8304.722;-0.7306916,9.345161,0.07691491,-0.15382981,10.0373955,0.038457453,8304.722;-0.7306916,9.345161,0.07691491,0.15382981,10.191225,0.30765963,8321.499;-0.7306916,9.345161,0.07691491,-0.46148944,9.460533,0.4999469,8321.499;-1.8844151,9.345161,0.07691491,-1.8844151,8.806757,0.5768618,8338.276;-1.8844151,9.345161,0.07691491,-1.0768087,9.729735,0.038457453,8355.054;-0.53840435,9.345161,0.07691491,-0.53840435,9.498991,0.4999469,8355.054;-0.53840435,9.345161,0.07691491,0.0,10.229683,0.4999469,8371.831;-0.53840435,9.345161,0.07691491,-0.8076065,9.383618,0.07691491,8371.831;-0.53840435,9.345161,0.07691491,-0.8845214,9.498991,0.19228727,8388.608;-0.53840435,9.345161,0.07691491,-0.96143633,9.345161,-0.30765963,8405.385;-0.53840435,10.3835125,0.07691491,-0.07691491,10.3835125,0.4999469,8405.385;-0.53840435,9.268247,0.07691491,-0.7306916,9.268247,0.9229789,8422.162;-0.53840435,9.268247,0.07691491,0.0,9.691278,-0.26920217,8422.162;-0.53840435,10.498885,0.07691491,0.0,10.498885,0.0,8438.939;-0.53840435,10.498885,0.07691491,-0.19228727,10.306598,0.38457453,8438.939;-0.53840435,10.498885,0.07691491,-0.46148944,10.806544,0.038457453,8455.717;-0.53840435,9.037501,1.1152661,-1.1537236,9.037501,1.1152661,8472.494;-0.53840435,10.229683,1.1152661,-0.19228727,10.229683,0.423032,8472.494;-0.53840435,10.229683,1.1152661,-0.07691491,10.421969,0.11537236,8489.271;-0.53840435,10.229683,-0.23074472,-0.8076065,10.191225,-0.23074472,8489.271;-0.53840435,10.229683,-0.23074472,-0.23074472,9.614364,0.15382981,8522.826;-0.53840435,10.229683,-0.23074472,-0.69223416,10.191225,0.6537767,8522.826;-0.53840435,8.922129,-0.23074472,-1.0768087,8.922129,0.0,8539.603;-0.53840435,8.922129,-0.23074472,-1.0383513,9.575906,0.15382981,8539.603;-0.53840435,8.922129,-0.23074472,-1.1921811,9.268247,0.038457453,8556.38;-0.53840435,8.922129,-0.23074472,-0.5768618,9.883566,0.38457453,8573.157;-0.53840435,8.922129,-0.23074472,-0.96143633,9.191331,0.34611708,8573.157;-1.8844151,8.922129,-0.23074472,-1.8844151,8.922129,0.15382981,8589.935;-0.11537236,8.922129,-0.23074472,-0.11537236,9.768193,-0.15382981,8589.935;-0.11537236,8.922129,-0.23074472,-0.53840435,9.383618,0.038457453,8606.712;-0.11537236,8.922129,0.9229789,-0.5768618,9.537449,0.9229789,8623.489;-0.11537236,8.922129,0.9229789,-0.30765963,9.498991,0.53840435,8623.489;-1.2306385,8.922129,0.9229789,-1.2306385,9.152874,-0.038457453,8640.267;0.23074472,8.922129,-0.61531925,0.23074472,9.80665,-0.61531925,8640.267;-0.8076065,10.229683,0.423032,-0.8076065,10.229683,0.423032,8657.043;-0.8076065,10.229683,0.423032,-0.30765963,9.845108,0.15382981,8673.82;-0.8076065,10.229683,0.423032,0.038457453,9.691278,0.53840435,8673.82;-0.8076065,10.229683,0.423032,-0.23074472,9.883566,0.19228727,8690.598;-0.8076065,10.229683,0.423032,-0.61531925,10.229683,0.34611708,8690.598;-0.8076065,10.229683,0.423032,0.07691491,10.306598,0.53840435,8707.375;-0.8076065,10.229683,0.423032,-0.76914907,9.652821,0.53840435,8724.152;-0.8076065,10.229683,0.423032,-0.9998938,10.191225,0.4999469,8724.152;0.23074472,10.229683,0.423032,0.23074472,10.498885,-0.15382981,8740.93;0.23074472,10.229683,0.423032,-0.34611708,10.498885,0.26920217,8740.93;0.23074472,10.229683,0.423032,-0.69223416,9.652821,0.69223416,8757.707;-0.8076065,10.229683,0.423032,-0.8076065,10.345055,0.46148944,8774.484;-0.8076065,10.229683,0.423032,-0.76914907,10.0373955,0.5768618,8774.484;-0.8076065,10.229683,0.423032,-0.7306916,9.575906,-0.23074472,8791.261;-0.8076065,10.229683,0.423032,-0.8845214,9.345161,0.0,8791.261;-0.8076065,9.152874,0.423032,-0.07691491,9.152874,0.11537236,8808.038;-0.8076065,9.152874,0.423032,-0.53840435,9.922023,-0.26920217,8824.815;-0.8076065,10.26814,0.423032,0.11537236,10.26814,0.4999469,8824.815;-0.8076065,8.806757,0.423032,-1.1921811,8.806757,0.38457453,8841.593;-0.8076065,8.806757,-0.61531925,-0.34611708,9.575906,-0.61531925,8841.593;-0.8076065,10.345055,-0.61531925,-0.26920217,10.345055,0.26920217,8858.37;-0.8076065,10.345055,0.846064,-0.38457453,9.922023,0.846064,8875.147;-0.8076065,10.345055,0.846064,-0.69223416,9.883566,0.46148944,8875.147;-0.8076065,9.075959,0.846064,-1.1921811,9.075959,0.76914907,8891.925;-0.8076065,9.075959,-0.34611708,-0.26920217,9.845108,-0.34611708,8891.925;-0.8076065,9.075959,-0.34611708,-0.26920217,9.768193,0.038457453,8908.702;-0.8076065,9.075959,-0.34611708,-0.11537236,9.845108,0.15382981,8925.479;-0.8076065,10.152767,-0.34611708,0.07691491,10.152767,0.5768618,8925.479;-0.8076065,10.152767,-0.34611708,-0.23074472,10.11431,0.38457453,8942.256;-0.8076065,10.152767,-0.34611708,-0.423032,10.768087,0.07691491,8959.033;-0.8076065,8.999044,-0.34611708,-0.8076065,8.999044,0.15382981,8959.033;-0.8076065,10.614257,-0.34611708,0.038457453,10.614257,0.423032,8975.811;0.53840435,10.614257,-0.34611708,0.53840435,10.998832,-0.038457453,8992.588;-1.2306385,9.460533,-0.34611708,-1.2306385,9.460533,0.34611708,8992.588;-1.2306385,9.460533,-0.34611708,-0.6537767,10.0373955,0.23074472,9009.365;-1.2306385,9.460533,0.69223416,-0.5768618,10.229683,0.69223416,9009.365;-1.2306385,9.460533,0.69223416,-0.53840435,10.191225,0.6537767,9026.143;0.11537236,9.460533,0.69223416,0.11537236,10.421969,0.0,9042.919;-0.9998938,9.460533,0.69223416,-0.9998938,9.114416,0.30765963,9042.919;-0.9998938,9.460533,0.69223416,-0.7306916,9.075959,0.26920217,9059.696;-0.9998938,9.460533,0.69223416,-0.26920217,9.498991,0.61531925,9059.696;-0.9998938,9.460533,0.69223416,-0.846064,9.691278,0.7306916,9076.474;-0.9998938,9.460533,0.69223416,-1.0383513,9.383618,0.96143633,9093.251;-0.9998938,9.460533,0.69223416,-0.7306916,9.268247,-0.038457453,9093.251;-0.9998938,9.460533,0.69223416,-1.4229257,10.11431,-0.07691491,9110.028;-0.9998938,9.460533,0.69223416,-0.07691491,9.960481,-0.11537236,9110.028;-0.9998938,9.460533,0.69223416,-0.38457453,9.575906,0.6537767,9126.806;-0.9998938,9.460533,0.69223416,-1.2690959,9.075959,0.6537767,9143.583;-0.9998938,9.460533,0.69223416,-0.11537236,10.345055,0.23074472,9143.583;-0.9998938,9.460533,0.69223416,-0.53840435,10.191225,0.5768618,9160.36;0.15382981,9.460533,0.69223416,0.15382981,9.537449,0.6537767,9160.36;0.15382981,9.460533,0.69223416,-0.30765963,9.960481,0.34611708,9177.137;-1.4229257,9.460533,0.69223416,-1.4229257,9.229789,0.46148944,9193.914;-0.19228727,10.7296295,0.69223416,-0.19228727,10.7296295,-0.11537236,9193.914;-0.19228727,10.7296295,0.69223416,-0.61531925,10.421969,0.11537236,9210.691;-0.19228727,10.7296295,0.69223416,-0.30765963,9.922023,0.46148944,9210.691;-0.19228727,10.7296295,0.69223416,-0.07691491,10.11431,0.69223416,9227.469;-0.19228727,10.7296295,0.69223416,-0.11537236,9.998938,0.07691491,9244.246;-0.19228727,10.7296295,0.69223416,-0.19228727,10.5758,0.4999469,9244.246;-0.19228727,9.306704,0.69223416,-0.9229789,9.306704,0.38457453,9261.023;-0.19228727,9.306704,0.69223416,-0.30765963,9.998938,0.76914907,9261.023;-0.19228727,9.306704,0.69223416,-0.30765963,9.383618,0.6537767,9277.801;-0.19228727,9.306704,0.69223416,-0.34611708,9.845108,0.26920217,9294.578;-1.2690959,9.306704,0.69223416,-1.2690959,9.075959,-0.07691491,9294.578;-1.2690959,9.306704,0.69223416,-1.615213,9.383618,0.15382981,9311.3545;0.07691491,9.306704,0.69223416,0.07691491,9.998938,0.61531925,9311.3545;0.07691491,9.306704,0.69223416,-0.61531925,9.498991,0.96143633,9328.132;0.07691491,9.306704,0.69223416,-0.5768618,9.652821,0.61531925,9344.909;0.07691491,9.306704,0.69223416,-0.4999469,9.306704,0.38457453,9344.909;0.07691491,9.306704,0.69223416,-0.7306916,10.191225,0.0,9361.687;0.07691491,9.306704,0.69223416,-0.34611708,9.80665,0.4999469,9361.687;0.07691491,9.306704,0.69223416,-0.11537236,9.537449,0.4999469,9378.464;-1.3844683,9.306704,0.69223416,-1.3844683,9.80665,0.46148944,9395.241;-0.26920217,9.306704,0.69223416,-0.26920217,9.768193,0.26920217,9395.241;-0.26920217,9.306704,0.69223416,-0.7306916,10.306598,0.0,9412.019;-0.26920217,9.306704,0.69223416,-0.53840435,9.691278,0.34611708,9412.019;-0.26920217,9.306704,0.69223416,-0.46148944,9.998938,0.34611708,9428.795;-0.26920217,9.306704,0.69223416,-0.38457453,9.691278,0.5768618,9428.795;-0.26920217,9.306704,0.69223416,-0.23074472,10.229683,0.07691491,9445.572;-0.26920217,10.3835125,0.69223416,-0.15382981,10.3835125,0.4999469,9462.35;-0.26920217,10.3835125,0.69223416,-0.96143633,9.575906,0.61531925,9462.35;-0.26920217,10.3835125,0.69223416,-0.30765963,9.960481,0.038457453,9479.127;-0.26920217,10.3835125,0.69223416,-0.38457453,10.11431,0.5768618,9479.127;-0.26920217,10.3835125,0.69223416,-0.53840435,9.883566,-0.07691491,9495.904;-0.26920217,10.3835125,0.69223416,-0.26920217,9.614364,0.30765963,9512.682;-0.26920217,10.3835125,0.69223416,-0.7306916,9.691278,0.846064,9512.682;-0.26920217,10.3835125,0.69223416,-0.6537767,9.960481,1.2690959,9529.459;-0.26920217,10.3835125,-0.4999469,-0.19228727,10.191225,-0.4999469,9529.459;-0.26920217,10.3835125,-0.4999469,-0.9998938,9.575906,0.07691491,9546.236;-0.26920217,10.3835125,-0.4999469,-0.9229789,9.691278,0.038457453,9563.013;-0.26920217,10.3835125,-0.4999469,-0.30765963,9.922023,0.423032,9563.013;-0.26920217,10.3835125,0.7306916,-0.26920217,9.998938,0.7306916,9579.79;-0.26920217,10.3835125,0.7306916,-0.8845214,9.498991,0.4999469,9579.79;-0.26920217,10.3835125,0.7306916,-0.76914907,9.652821,0.30765963,9596.567;-0.26920217,10.3835125,0.7306916,-0.26920217,9.845108,-0.038457453,9613.345;-0.26920217,10.3835125,0.7306916,0.5768618,10.921917,0.23074472,9613.345;-0.26920217,10.3835125,0.7306916,-0.5768618,9.498991,0.11537236,9630.122;-0.26920217,9.037501,0.7306916,-0.9229789,9.037501,1.1537236,9630.122;-0.26920217,10.229683,0.7306916,0.19228727,10.229683,0.38457453,9646.899;-0.26920217,10.229683,-0.30765963,-0.19228727,10.306598,-0.30765963,9663.677;-0.26920217,10.229683,-0.30765963,0.15382981,10.229683,0.34611708,9663.677;-0.26920217,10.229683,-0.30765963,-0.26920217,9.883566,0.11537236,9680.454;-0.26920217,10.229683,-0.30765963,-0.46148944,9.383618,0.46148944,9680.454;-0.26920217,10.229683,-0.30765963,-0.69223416,10.191225,0.23074472,9697.23;-0.26920217,10.229683,-0.30765963,-0.46148944,9.614364,0.038457453,9714.008;-0.26920217,10.229683,-0.30765963,-0.96143633,9.691278,0.6537767,9714.008;-0.26920217,10.229683,-0.30765963,-0.11537236,10.460427,0.11537236,9730.785;-0.26920217,10.229683,-0.30765963,-0.23074472,10.152767,0.34611708,9730.785;-0.26920217,10.229683,-0.30765963,-0.38457453,9.729735,0.423032,9747.5625;-0.26920217,9.075959,-0.30765963,-1.2690959,9.075959,0.15382981,9764.34;-0.26920217,9.075959,-0.30765963,-1.0383513,9.114416,0.69223416,9764.34;-0.26920217,10.152767,-0.30765963,-0.15382981,10.152767,0.26920217,9781.117;-0.26920217,10.152767,-0.30765963,-0.34611708,9.960481,0.11537236,9781.117;-0.26920217,9.075959,-0.30765963,-1.1537236,9.075959,0.4999469,9797.895;-0.26920217,9.075959,-0.30765963,-0.8076065,9.383618,0.38457453,9814.671;-0.26920217,10.26814,-0.30765963,-0.07691491,10.26814,0.07691491,9814.671;-0.26920217,10.26814,-0.30765963,-0.423032,9.460533,0.53840435,9831.448;-0.26920217,10.26814,-0.30765963,-0.26920217,9.268247,-0.423032,9831.448;-0.26920217,10.26814,-0.30765963,-0.30765963,9.768193,0.0,9848.226;-0.26920217,10.26814,-0.30765963,-0.46148944,10.229683,0.15382981,9865.003;-0.26920217,10.26814,-0.30765963,0.6537767,10.883459,0.11537236,9865.003;-0.26920217,10.26814,-0.30765963,-0.6537767,9.498991,0.4999469,9881.78;-0.26920217,10.26814,-0.30765963,-0.61531925,9.998938,0.6537767,9881.78;-0.26920217,10.26814,-0.30765963,-0.07691491,10.152767,0.19228727,9898.558;-0.26920217,10.26814,-0.30765963,-0.07691491,10.26814,0.26920217,9915.335;-0.26920217,10.26814,-0.30765963,0.038457453,10.229683,0.26920217,9915.335;-0.26920217,10.26814,-0.30765963,-0.30765963,9.768193,0.26920217,9932.112;-0.26920217,10.26814,-0.30765963,-0.5768618,10.26814,0.46148944,9932.112;-0.26920217,10.26814,-0.30765963,-0.69223416,10.691172,0.26920217,9948.889;-0.26920217,10.26814,-0.30765963,-0.61531925,9.729735,0.30765963,9965.666;-0.26920217,9.114416,-0.30765963,-1.0383513,9.114416,0.26920217,9965.666;-0.26920217,9.114416,-0.30765963,-0.69223416,9.614364,0.19228727,9982.443;-0.26920217,9.114416,-0.30765963,-0.7306916,9.960481,0.46148944,9982.443;-0.26920217,9.114416,-0.30765963,-0.9998938,9.306704,-0.038457453,9999.221;-0.26920217,9.114416,-0.30765963,-0.846064,9.422076,-0.038457453,9999.221;-0.26920217,9.114416,-0.30765963,-0.9229789,8.960587,0.69223416,10015.998;-0.26920217,9.114416,-0.30765963,-0.26920217,9.960481,0.38457453,10032.775;-0.26920217,9.114416,-0.30765963,-0.4999469,9.691278,0.23074472,10032.775;-0.26920217,9.114416,-0.30765963,-1.0383513,9.075959,-0.26920217,10049.553;-0.26920217,9.114416,-0.30765963,-0.34611708,9.845108,0.15382981,10049.553;-0.26920217,10.191225,-0.30765963,-0.4999469,10.191225,0.23074472,10066.33;-0.26920217,10.191225,-0.30765963,-0.61531925,9.498991,0.69223416,10083.106;-0.26920217,10.191225,0.96143633,-0.76914907,9.537449,0.96143633,10083.106;-0.26920217,9.075959,0.96143633,-0.846064,9.075959,0.4999469,10099.884;-0.26920217,9.075959,-0.07691491,-0.38457453,10.075852,-0.07691491,10099.884;0.8076065,10.883459,-0.07691491,0.8076065,10.883459,0.46148944,10116.661;-0.76914907,9.229789,-0.07691491,-0.76914907,9.229789,0.4999469,10133.438;-0.76914907,9.229789,-0.07691491,-0.7306916,10.075852,0.69223416,10133.438;-0.76914907,10.26814,-0.07691491,-0.423032,10.26814,-0.38457453,10150.216;-0.76914907,10.26814,-0.07691491,-0.15382981,10.921917,-0.15382981,10150.216;-0.76914907,10.26814,-0.07691491,0.19228727,9.998938,-0.423032,10166.993;-0.76914907,10.26814,-0.07691491,-0.26920217,9.845108,0.61531925,10183.7705;-0.76914907,10.26814,-0.07691491,-0.34611708,10.306598,0.46148944,10183.7705;-0.76914907,10.26814,-0.07691491,-0.96143633,10.152767,0.11537236,10200.547;-0.76914907,9.191331,-0.07691491,-0.61531925,9.191331,0.46148944,10200.547;-0.76914907,9.191331,-0.07691491,-1.1537236,9.306704,0.11537236,10217.324;-0.76914907,9.191331,-0.07691491,-0.11537236,9.80665,0.6537767,10234.102;-0.76914907,9.191331,-0.07691491,0.19228727,9.768193,0.26920217,10234.102;-0.76914907,9.191331,-0.07691491,-0.38457453,9.575906,0.19228727,10250.879;-0.76914907,9.191331,-0.07691491,-1.0383513,9.114416,0.53840435,10250.879;-0.76914907,9.191331,-0.07691491,-1.3075534,9.729735,0.34611708,10267.656;-0.76914907,9.191331,-0.07691491,-0.4999469,9.268247,0.4999469,10284.434;-0.76914907,9.191331,-0.07691491,0.07691491,9.575906,-0.038457453,10284.434;-0.76914907,9.191331,0.96143633,-0.76914907,9.383618,0.96143633,10301.211;-0.76914907,9.191331,0.96143633,-0.76914907,9.845108,0.38457453,10301.211;-0.76914907,10.768087,0.96143633,-0.23074472,10.768087,0.30765963,10317.988;-0.76914907,10.768087,0.96143633,-0.8076065,9.845108,0.46148944,10334.765;-0.76914907,9.614364,0.96143633,-0.9229789,9.614364,0.5768618,10334.765;0.4999469,10.7296295,-0.11537236,0.4999469,10.7296295,-0.11537236,10351.542;0.4999469,10.7296295,-0.11537236,0.038457453,10.421969,0.19228727,10351.542;0.4999469,10.7296295,-0.11537236,0.5768618,11.383406,-0.5768618,10368.319;-0.5768618,10.7296295,-0.11537236,-0.5768618,9.729735,0.76914907,10385.097;-0.5768618,10.7296295,-0.11537236,-0.69223416,10.345055,0.8076065,10385.097;-0.5768618,10.7296295,-0.11537236,-0.07691491,10.11431,-0.30765963,10401.874;-0.5768618,9.652821,-0.11537236,-0.69223416,9.652821,-0.846064,10401.874;-0.5768618,9.652821,-0.11537236,-0.5768618,10.11431,0.46148944,10418.651;-0.5768618,9.652821,-0.11537236,-0.46148944,9.575906,0.30765963,10435.429;-0.5768618,9.652821,-0.11537236,-1.1921811,9.883566,0.53840435,10435.429;-0.5768618,9.652821,-0.11537236,-1.4613832,9.191331,0.30765963,10452.206;-0.5768618,9.652821,-0.11537236,-0.76914907,8.960587,-0.15382981,10452.206;-0.5768618,9.652821,-0.11537236,-0.76914907,9.652821,0.34611708,10468.982;-0.5768618,9.652821,-0.11537236,-0.9229789,10.345055,0.7306916,10468.982;-0.5768618,9.652821,-0.11537236,-0.53840435,9.922023,0.53840435,10485.76;-0.5768618,9.652821,-0.11537236,-1.5767555,8.652927,0.8845214,10502.537;-0.5768618,9.652821,-0.11537236,-0.6537767,9.960481,0.15382981,10502.537;-0.5768618,9.652821,-0.11537236,-1.3844683,9.037501,0.15382981,10519.314;-0.5768618,9.652821,-0.11537236,-0.5768618,9.960481,0.4999469,10519.314;-0.5768618,9.652821,-0.11537236,-0.9998938,9.691278,-0.038457453,10536.092;-0.5768618,9.652821,-0.11537236,-0.846064,9.152874,0.46148944,10552.869;-0.5768618,9.652821,-0.11537236,0.038457453,10.0373955,-0.15382981,10552.869;-0.5768618,9.652821,-0.11537236,-0.38457453,10.26814,0.23074472,10569.646;-0.5768618,9.652821,-0.11537236,-0.46148944,9.691278,0.76914907,10569.646;-0.5768618,9.652821,-0.11537236,-0.4999469,10.0373955,0.34611708,10586.423;-0.5768618,9.652821,-0.11537236,-0.26920217,10.152767,-0.26920217,10603.2;-0.5768618,9.652821,-0.11537236,-0.46148944,10.3835125,0.38457453,10603.2;-0.5768618,9.652821,-0.11537236,-0.846064,10.5758,0.846064,10619.978;-0.5768618,9.652821,1.0768087,-0.61531925,9.614364,1.0768087,10619.978;-0.5768618,9.652821,1.0768087,-0.4999469,9.922023,0.7306916,10636.755;-0.5768618,10.691172,0.0,0.07691491,10.691172,0.0,10653.532;-0.5768618,10.691172,0.0,-0.8845214,9.960481,-0.53840435,10653.532;-0.5768618,10.691172,0.0,-0.9998938,9.883566,-0.11537236,10670.31;-0.5768618,10.691172,0.0,-0.30765963,10.152767,0.6537767,10670.31;-0.5768618,10.691172,0.0,-0.4999469,10.421969,0.4999469,10687.087;-0.5768618,9.345161,0.0,-0.6537767,9.345161,0.15382981,10703.864;-0.5768618,9.345161,0.0,-0.8076065,9.383618,0.26920217,10703.864;-0.5768618,9.345161,0.0,-0.5768618,10.11431,0.26920217,10720.641;-0.5768618,9.345161,0.0,0.038457453,9.960481,0.423032,10720.641;-0.5768618,9.345161,0.0,-0.8076065,9.229789,-0.11537236,10737.418;-1.7690428,8.076065,0.0,-1.7690428,8.076065,0.19228727,10754.195;-0.61531925,10.0373955,0.0,-0.61531925,10.0373955,-0.23074472,10754.195;-0.61531925,10.0373955,0.0,-0.5768618,10.191225,-0.46148944,10770.973;-0.61531925,10.0373955,0.0,-0.7306916,9.768193,0.0,10770.973;-0.61531925,10.0373955,0.0,-0.69223416,9.729735,0.46148944,10787.75;-0.61531925,10.0373955,0.0,-1.2306385,9.075959,0.423032,10804.527;-0.61531925,10.0373955,0.0,0.07691491,10.26814,0.0,10804.527;-0.61531925,10.0373955,0.0,-0.34611708,10.460427,0.07691491,10821.305;-0.61531925,10.0373955,0.0,-0.69223416,9.80665,0.8076065,10821.305;-0.61531925,10.0373955,1.2690959,-0.8076065,10.152767,1.2690959,10838.081;0.423032,10.0373955,1.2690959,0.423032,9.845108,2.1920748,10854.858;0.423032,10.0373955,1.2690959,0.46148944,10.768087,1.7690428,10854.858;0.423032,10.0373955,2.9996815,-0.423032,9.845108,2.9996815,10871.636;0.423032,10.0373955,2.9996815,0.0,9.652821,2.6535642,10871.636;0.423032,10.0373955,0.15382981,0.5768618,10.3835125,0.15382981,10888.413;0.423032,12.114098,2.6151068,-0.19228727,12.114098,2.6151068,10905.19;0.423032,12.114098,2.6151068,0.34611708,12.075641,2.8458514,10905.19;0.423032,12.114098,2.6151068,0.07691491,11.691066,2.9996815,10921.968;0.423032,12.114098,2.6151068,-0.11537236,12.114098,2.9996815,10921.968;0.423032,12.114098,2.6151068,-0.423032,11.460321,2.884309,10938.745;0.423032,12.114098,2.6151068,-0.46148944,12.191012,2.5381918,10955.522;0.423032,12.114098,2.6151068,0.30765963,11.575693,3.307341,10955.522;0.423032,12.114098,2.6151068,-0.38457453,11.767981,2.5381918,10972.299;0.423032,12.114098,2.6151068,-0.30765963,11.767981,2.3074472,10972.299;-0.6537767,12.114098,2.6151068,-0.6537767,12.114098,1.692128,10989.076;-0.6537767,12.114098,1.3844683,-0.8845214,11.306491,1.3844683,10989.076;-0.6537767,10.652715,1.3844683,-0.9998938,10.652715,1.1921811,11005.854;-0.6537767,10.652715,1.3844683,-0.61531925,10.229683,1.7305853,11022.631;-0.6537767,10.652715,1.3844683,-0.5768618,9.998938,2.2305322,11022.631;-0.6537767,10.652715,1.3844683,-0.6537767,9.845108,2.0767026,11039.408;-0.6537767,9.114416,1.3844683,-0.7306916,9.114416,2.1536174,11039.408;-0.6537767,9.114416,1.3844683,-0.9998938,9.152874,1.4998407,11056.186;-0.6537767,7.9222355,1.3844683,-1.1537236,7.9222355,1.9613302,11072.963;-0.6537767,7.9222355,1.3844683,-0.5768618,7.8453207,2.3459046,11072.963;-0.6537767,7.9222355,3.730373,-1.1537236,7.6530333,3.730373,11089.74;-0.6537767,6.8454266,3.730373,-0.8845214,6.8454266,3.2688835,11089.74;-0.6537767,6.8454266,3.730373,-0.7306916,6.9992566,2.7304792,11106.517;-0.6537767,6.8454266,2.4228196,-0.26920217,6.4223948,2.4228196,11123.294;-0.6537767,5.8070755,2.4228196,-0.19228727,5.8070755,2.3843622,11123.294;-0.6537767,5.8070755,2.4228196,-0.038457453,6.34548,2.4997344,11140.071;-0.6537767,5.8070755,3.9995751,-0.07691491,6.5762243,3.9995751,11140.071;-0.6537767,7.1915436,3.9995751,-0.4999469,7.1915436,4.422607,11156.849;-0.6537767,8.2683525,3.9995751,-0.19228727,8.2683525,4.7687244,11173.626;-0.6537767,8.2683525,3.9995751,-0.8076065,8.499097,4.999469,11173.626;-0.6537767,8.2683525,3.9995751,-1.5382981,8.037608,4.999469,11190.403;-0.6537767,8.2683525,5.037926,-1.2690959,8.46064,5.037926,11190.403;-0.6537767,8.2683525,3.8842027,-1.1537236,8.037608,3.8842027,11207.181;-0.6537767,8.2683525,3.8842027,-1.3075534,8.345267,3.730373,11223.957;-0.6537767,8.2683525,3.8842027,-1.5382981,7.883778,3.2688835,11223.957;-0.6537767,8.2683525,3.8842027,-1.0768087,8.15298,2.884309,11240.734;-0.6537767,8.2683525,2.6151068,-1.1921811,8.2683525,2.6151068,11240.734;-0.6537767,8.2683525,2.6151068,-1.0768087,8.61447,1.9997876,11257.512;-0.6537767,8.2683525,2.6151068,-0.61531925,7.806863,2.1536174,11274.289;-0.6537767,8.2683525,2.6151068,-0.846064,8.46064,3.1150537,11274.289;-0.6537767,8.2683525,2.6151068,-0.4999469,8.191438,3.6150007,11291.066;-0.6537767,8.2683525,2.6151068,0.038457453,8.46064,3.4996283,11291.066;-0.6537767,8.2683525,2.6151068,0.0,8.806757,3.6150007,11307.844;-0.6537767,8.2683525,3.7688303,-0.5768618,8.537555,3.7688303,11324.621;-0.6537767,8.2683525,3.7688303,-0.9998938,8.037608,3.9226604,11324.621;-0.6537767,8.2683525,3.7688303,-1.1921811,8.30681,4.23032,11341.398;-0.6537767,8.2683525,3.7688303,-0.69223416,8.652927,4.653352,11341.398;-0.6537767,9.383618,4.922554,-1.1537236,9.383618,4.922554,11358.175;-2.7304792,9.383618,4.922554,-2.7304792,9.729735,5.2302136,11374.952;-2.7304792,8.229895,4.922554,-2.5766494,8.229895,5.5378733,11374.952;-1.3460109,9.998938,6.0378203,-1.3460109,9.998938,6.0378203,11391.7295;-1.3460109,7.4222884,6.0378203,-1.9228727,7.4222884,6.691597,11391.7295;-1.3460109,7.4222884,6.0378203,-0.61531925,7.883778,5.7301607,11408.507;-1.3460109,7.4222884,6.0378203,-0.5768618,7.460746,6.19165,11425.284;0.038457453,7.4222884,6.0378203,0.038457453,7.5761185,6.2301073,11425.284;0.038457453,7.4222884,6.0378203,0.26920217,6.614682,6.6531396,11442.062;0.038457453,7.4222884,6.0378203,0.4999469,6.8454266,6.460852,11442.062;0.038457453,7.4222884,6.0378203,1.0383513,6.7300544,6.883884,11458.839;1.1537236,7.4222884,7.2300014,1.1537236,6.4223948,7.2300014,11458.839;1.1537236,6.0378203,7.2300014,1.8075004,6.0378203,7.5376606,11475.616;1.1537236,6.0378203,7.2300014,0.61531925,6.34548,7.6530333,11492.393;1.1537236,6.0378203,7.2300014,1.1537236,6.5762243,6.9223413,11492.393;1.1537236,6.0378203,7.2300014,0.19228727,6.460852,7.114629,11509.17;1.1537236,6.0378203,7.2300014,0.423032,6.5762243,6.614682,11509.17;1.1537236,6.0378203,7.2300014,0.5768618,6.7300544,6.960799,11525.947;1.1537236,7.114629,7.2300014,0.423032,7.114629,6.4993095,11542.725;0.038457453,7.114629,7.2300014,0.038457453,7.306916,6.537767,11542.725;0.038457453,7.114629,7.2300014,-0.34611708,7.5376606,6.537767,11559.502;0.038457453,7.114629,7.2300014,-0.15382981,7.9222355,6.614682,11559.502;0.038457453,7.114629,7.2300014,-0.34611708,7.3453736,6.960799,11576.279;0.038457453,7.114629,7.2300014,-0.53840435,7.037714,6.6531396,11593.057;0.038457453,7.114629,7.2300014,-0.38457453,7.614576,6.460852,11593.057;0.038457453,7.114629,7.2300014,0.15382981,7.4222884,6.460852,11609.833;0.038457453,7.114629,7.2300014,0.423032,7.5761185,6.768512,11609.833;0.038457453,7.114629,7.2300014,0.5768618,6.9992566,6.6531396,11626.61;0.038457453,7.114629,7.2300014,0.53840435,6.5762243,6.4993095,11643.388;0.038457453,7.114629,7.2300014,0.53840435,6.307022,6.537767,11643.388;0.038457453,7.114629,7.2300014,0.46148944,6.537767,7.037714,11660.165;0.038457453,7.114629,7.2300014,-0.07691491,6.6531396,6.537767,11660.165;0.038457453,7.114629,7.2300014,0.11537236,6.7300544,6.5762243,11676.942;0.038457453,7.114629,7.2300014,-0.19228727,6.6531396,6.806969,11693.72;0.038457453,7.114629,7.2300014,-0.19228727,6.614682,6.537767,11693.72;0.038457453,7.114629,7.2300014,-0.30765963,6.9992566,6.768512,11710.497;0.038457453,7.114629,7.2300014,0.07691491,6.4993095,6.4993095,11710.497;0.038457453,7.114629,7.2300014,-0.038457453,6.9992566,6.9992566,11727.274;0.038457453,7.114629,7.2300014,-0.038457453,6.883884,6.537767,11744.051;0.038457453,7.114629,7.2300014,-0.26920217,6.7300544,6.537767,11744.051;0.038457453,5.8839903,7.2300014,-0.38457453,5.8839903,6.9992566,11760.828;0.038457453,6.9992566,7.2300014,0.19228727,6.9992566,6.691597,11760.828;0.038457453,6.9992566,7.2300014,-0.423032,6.806969,7.114629,11777.605;0.038457453,6.9992566,7.2300014,0.07691491,6.768512,6.537767,11794.383;0.038457453,6.9992566,7.2300014,-0.46148944,6.691597,6.806969,11794.383;0.038457453,6.9992566,7.2300014,-0.38457453,6.1531925,6.3839374,11811.16;0.038457453,6.9992566,7.2300014,0.26920217,6.5762243,6.9223413,11811.16;0.038457453,6.9992566,7.2300014,-0.53840435,6.537767,7.037714,11827.9375;0.038457453,6.9992566,7.2300014,0.0,6.2685647,6.4223948,11844.715;0.038457453,6.9992566,7.2300014,-0.76914907,6.614682,6.2685647,11844.715;0.038457453,6.9992566,7.2300014,-0.46148944,7.268459,6.2301073,11861.492;111,111,111,111,111,111,111;