999,999,999,999,999,999,999;-0.46148944,0.07691491,9.498991,-0.38457453,0.15382981,9.498991,0.0;-0.46148944,0.07691491,9.498991,0.15382981,-0.07691491,8.999044,100.6633;-0.46148944,0.07691491,9.498991,-0.4999469,0.07691491,8.922129,100.6633;-0.46148944,0.07691491,9.498991,-0.846064,-0.07691491,9.460533,117.44051;-0.46148944,0.07691491,9.498991,0.07691491,-0.15382981,9.306704,117.44051;-0.46148944,0.07691491,9.498991,-0.9998938,0.34611708,10.0373955,134.21773;-0.46148944,0.07691491,9.498991,-0.19228727,0.26920217,9.422076,150.99495;-0.46148944,0.07691491,9.498991,-0.846064,0.26920217,9.191331,150.99495;-0.46148944,0.07691491,9.498991,-0.26920217,0.15382981,8.806757,167.77216;-0.46148944,0.07691491,9.498991,-0.26920217,0.0,9.152874,167.77216;-0.46148944,0.07691491,9.498991,0.423032,0.423032,9.229789,184.54938;-0.46148944,0.07691491,9.498991,-0.34611708,-0.23074472,9.191331,201.3266;-0.46148944,0.07691491,9.498991,-0.15382981,0.038457453,9.037501,201.3266;-0.46148944,0.07691491,9.498991,-0.30765963,0.26920217,9.845108,218.1038;-0.46148944,0.07691491,9.498991,-0.38457453,0.11537236,9.729735,218.1038;-0.46148944,0.07691491,9.498991,-0.38457453,-0.07691491,9.460533,234.88103;-0.46148944,0.07691491,9.498991,-0.19228727,-0.23074472,8.960587,251.65823;-0.46148944,0.07691491,9.498991,-0.9229789,0.5768618,9.268247,251.65823;-0.46148944,0.07691491,9.498991,-0.38457453,-0.07691491,9.229789,268.43546;-0.46148944,0.07691491,9.498991,-0.96143633,0.07691491,9.537449,268.43546;-0.46148944,0.07691491,9.498991,-1.2306385,0.61531925,9.845108,285.21268;-0.46148944,0.07691491,9.498991,-0.34611708,-0.038457453,9.768193,301.9899;-0.46148944,0.07691491,9.498991,-0.423032,-0.423032,9.80665,301.9899;-0.46148944,0.07691491,9.498991,-0.30765963,0.38457453,9.460533,318.7671;-0.46148944,0.07691491,9.498991,-0.8845214,0.07691491,9.383618,318.7671;-0.46148944,0.07691491,9.498991,-0.46148944,0.26920217,9.306704,335.5443;-0.46148944,0.07691491,9.498991,-0.19228727,0.46148944,9.152874,352.32153;-0.46148944,0.07691491,9.498991,-0.76914907,0.0,9.229789,352.32153;-0.46148944,0.07691491,9.498991,-1.0383513,0.61531925,9.691278,369.09875;-0.46148944,0.07691491,9.498991,-0.15382981,0.423032,9.306704,369.09875;-0.46148944,0.07691491,9.498991,-0.26920217,0.23074472,9.306704,385.87598;-0.46148944,0.07691491,9.498991,0.11537236,0.0,8.691384,385.87598;-0.46148944,0.07691491,9.498991,0.30765963,0.23074472,9.845108,402.6532;-0.46148944,0.07691491,9.498991,-0.38457453,0.69223416,9.960481,419.4304;-0.46148944,0.07691491,9.498991,-0.34611708,0.423032,9.114416,419.4304;-0.46148944,0.07691491,9.498991,-0.46148944,-0.038457453,9.80665,436.2076;-0.46148944,0.07691491,9.498991,0.26920217,-0.4999469,9.614364,436.2076;-0.46148944,0.07691491,9.498991,-0.4999469,0.423032,9.345161,452.98483;-0.46148944,0.07691491,9.498991,-0.61531925,0.23074472,9.537449,469.76205;-0.46148944,0.07691491,9.498991,-0.6537767,-0.30765963,9.383618,469.76205;-0.46148944,0.07691491,9.498991,-0.30765963,0.5768618,9.537449,486.53928;-0.46148944,0.07691491,9.498991,-0.6537767,0.07691491,9.960481,486.53928;-0.46148944,0.07691491,9.498991,-0.23074472,0.423032,9.537449,503.31647;-0.46148944,0.07691491,9.498991,-0.69223416,-0.11537236,9.652821,520.0937;-0.46148944,0.07691491,9.498991,-0.69223416,0.038457453,9.614364,520.0937;-0.46148944,0.07691491,9.498991,-0.5768618,-0.26920217,9.614364,536.8709;-0.46148944,0.07691491,9.498991,0.0,0.30765963,9.037501,536.8709;-0.46148944,0.07691491,9.498991,0.46148944,0.07691491,9.575906,553.64813;-0.46148944,0.07691491,9.498991,-0.8076065,-0.07691491,9.460533,570.42535;-0.46148944,0.07691491,9.498991,-0.30765963,0.0,9.575906,570.42535;-0.46148944,0.07691491,9.498991,-0.6537767,0.07691491,9.460533,587.2026;-0.46148944,0.07691491,9.498991,-0.4999469,-0.30765963,9.614364,587.2026;-0.46148944,0.07691491,9.498991,-0.53840435,-0.7306916,8.960587,603.9798;-0.46148944,0.07691491,9.498991,0.11537236,0.19228727,9.191331,620.757;-0.46148944,0.07691491,9.498991,0.07691491,-0.34611708,8.537555,620.757;-0.46148944,0.07691491,9.498991,0.15382981,0.423032,8.999044,637.5342;-0.46148944,0.07691491,9.498991,-0.07691491,-0.26920217,8.652927,637.5342;-0.46148944,0.07691491,9.498991,-0.6537767,0.34611708,10.11431,654.3114;-0.46148944,0.07691491,9.498991,0.0,0.6537767,10.0373955,671.0886;-0.46148944,0.07691491,9.498991,-1.0383513,0.038457453,9.152874,671.0886;-0.46148944,0.07691491,9.498991,-0.07691491,-0.46148944,9.383618,687.86584;-0.46148944,0.07691491,9.498991,-0.7306916,0.8845214,10.075852,687.86584;-0.46148944,0.07691491,9.498991,-0.9998938,0.11537236,9.768193,704.64307;-0.46148944,0.07691491,9.498991,0.26920217,0.23074472,9.383618,721.4203;-0.46148944,0.07691491,9.498991,-0.423032,0.61531925,9.229789,721.4203;-0.46148944,0.07691491,9.498991,-0.34611708,-0.23074472,9.768193,738.1975;-0.46148944,0.07691491,8.383725,-0.4999469,0.423032,8.383725,738.1975;-0.46148944,0.07691491,8.383725,-0.34611708,-0.23074472,9.152874,754.97473;-0.46148944,0.07691491,9.691278,-0.61531925,0.26920217,9.691278,771.75195;-0.46148944,0.07691491,9.691278,-0.38457453,-0.19228727,9.114416,771.75195;-0.46148944,0.07691491,9.691278,-0.76914907,0.15382981,9.652821,788.5292;-0.46148944,0.07691491,9.691278,-0.07691491,0.19228727,8.845214,788.5292;-0.46148944,0.07691491,7.3453736,0.4999469,0.23074472,7.3453736,805.3064;-0.46148944,0.07691491,8.768299,-0.69223416,0.69223416,8.768299,822.08356;-0.46148944,0.07691491,8.768299,-0.38457453,0.8076065,9.575906,822.08356;-0.46148944,0.07691491,8.768299,-0.846064,0.34611708,8.922129,838.8608;-0.46148944,0.07691491,8.768299,-0.61531925,-0.15382981,8.345267,838.8608;-0.46148944,0.07691491,8.768299,0.30765963,0.34611708,9.268247,855.638;-0.46148944,0.07691491,10.0373955,-0.34611708,-0.19228727,10.0373955,855.638;-0.46148944,0.07691491,10.0373955,-0.69223416,-0.11537236,9.614364,872.4152;-0.46148944,0.07691491,8.345267,-0.53840435,0.38457453,8.345267,889.19244;-0.46148944,0.07691491,9.614364,-0.9998938,0.4999469,9.614364,889.19244;-0.46148944,0.07691491,9.614364,-0.11537236,0.15382981,10.306598,905.96967;-0.46148944,0.07691491,9.614364,-1.3844683,0.15382981,8.806757,905.96967;-0.46148944,0.07691491,9.614364,-0.038457453,-0.30765963,9.460533,922.7469;-0.46148944,0.07691491,9.614364,-1.4613832,-0.07691491,8.806757,939.5241;-0.46148944,0.07691491,9.614364,0.19228727,0.46148944,8.845214,939.5241;-0.46148944,0.07691491,9.614364,0.0,0.38457453,9.614364,956.30133;-0.46148944,0.07691491,9.614364,-0.26920217,0.69223416,10.460427,956.30133;-0.46148944,0.07691491,9.614364,-0.34611708,0.38457453,8.652927,973.07855;0.5768618,0.07691491,9.614364,0.5768618,0.8845214,8.960587,989.8558;-0.7306916,0.07691491,9.614364,-0.7306916,0.69223416,9.422076,989.8558;-0.7306916,0.07691491,9.614364,-0.19228727,0.038457453,9.383618,1006.63293;-0.7306916,0.07691491,9.614364,-1.0768087,-0.11537236,8.729842,1006.63293;-0.7306916,0.07691491,9.614364,-0.19228727,0.038457453,9.575906,1023.41016;-0.7306916,0.07691491,9.614364,-0.038457453,-0.19228727,9.306704,1040.1874;-0.7306916,0.07691491,9.614364,-0.96143633,-0.19228727,8.729842,1040.1874;-0.7306916,0.07691491,9.614364,-0.07691491,0.9229789,10.3835125,1056.9646;-0.7306916,0.07691491,9.614364,-0.5768618,0.5768618,10.421969,1056.9646;-0.7306916,0.07691491,9.614364,-0.26920217,-0.34611708,10.460427,1073.7418;-1.9997876,0.07691491,9.614364,-1.9997876,-0.34611708,8.845214,1090.519;-0.34611708,0.07691491,9.614364,-0.34611708,-0.46148944,9.652821,1090.519;-0.34611708,0.07691491,10.691172,-0.15382981,0.23074472,10.691172,1107.2963;-1.4613832,0.07691491,9.422076,-1.4613832,-0.423032,9.422076,1107.2963;-0.15382981,0.07691491,9.422076,-0.15382981,-0.07691491,9.383618,1124.0735;-0.15382981,0.07691491,9.422076,0.038457453,0.38457453,8.499097,1140.8507;-0.15382981,0.07691491,9.422076,0.30765963,0.23074472,9.729735,1140.8507;-0.15382981,0.07691491,9.422076,0.15382981,0.11537236,9.498991,1157.6279;-0.15382981,0.07691491,9.422076,-0.4999469,-0.23074472,9.575906,1157.6279;-0.15382981,0.07691491,9.422076,-0.9998938,-0.46148944,10.3835125,1174.4052;-0.15382981,1.1152661,9.422076,0.30765963,1.1152661,9.345161,1191.1824;-0.15382981,-0.19228727,8.2683525,-0.69223416,-0.19228727,8.2683525,1191.1824;-0.15382981,-0.19228727,8.2683525,-0.038457453,0.7306916,9.037501,1207.9596;-1.3075534,-0.19228727,8.2683525,-1.3075534,-0.4999469,8.46064,1207.9596;0.7306916,-0.19228727,8.2683525,0.7306916,0.8076065,8.537555,1224.7368;0.7306916,0.846064,8.2683525,0.19228727,0.846064,8.922129,1241.514;-1.1152661,0.846064,8.2683525,-1.1152661,0.34611708,8.768299,1241.514;-1.1152661,0.846064,10.845002,-0.6537767,0.96143633,10.845002,1258.2913;-1.1152661,0.846064,9.575906,-0.34611708,0.34611708,9.575906,1258.2913;0.038457453,0.846064,9.575906,0.038457453,0.30765963,9.152874,1275.0684;-1.8844151,0.846064,9.575906,-1.8844151,0.26920217,9.768193,1291.8456;-0.69223416,0.846064,9.575906,-0.69223416,0.9229789,10.11431,1291.8456;-0.69223416,-0.19228727,9.575906,-0.46148944,-0.19228727,9.845108,1308.6228;-0.69223416,-0.19228727,9.575906,-0.6537767,-0.4999469,9.922023,1308.6228;-0.69223416,-0.19228727,9.575906,-0.23074472,0.69223416,9.422076,1325.4;-0.69223416,-0.19228727,9.575906,-0.96143633,-0.19228727,9.075959,1342.1772;-0.69223416,-0.19228727,9.575906,-0.26920217,0.423032,9.422076,1342.1772;-0.69223416,-0.19228727,9.575906,-0.26920217,0.26920217,10.075852,1358.9545;-0.69223416,-0.19228727,9.575906,0.038457453,-0.46148944,9.537449,1358.9545;-0.69223416,-0.19228727,9.575906,-0.23074472,-0.4999469,9.729735,1375.7317;-0.69223416,-0.19228727,10.614257,-1.1152661,0.26920217,10.614257,1375.7317;-0.69223416,-0.19228727,8.691384,-1.1152661,0.6537767,8.691384,1392.5089;-0.69223416,-0.19228727,8.691384,-0.8076065,-0.23074472,9.345161,1409.2861;-0.69223416,-0.19228727,8.691384,-0.846064,-0.15382981,9.652821,1409.2861;-0.69223416,-0.19228727,8.691384,-0.15382981,0.5768618,9.575906,1426.0634;-0.69223416,-0.19228727,10.152767,-0.6537767,0.34611708,10.152767,1426.0634;-0.69223416,-0.19228727,10.152767,-0.8076065,0.30765963,9.383618,1442.8406;-0.69223416,-0.19228727,10.152767,-0.07691491,0.53840435,9.652821,1459.6178;-0.69223416,-0.19228727,10.152767,-0.46148944,-0.11537236,9.768193,1459.6178;-0.69223416,-0.19228727,10.152767,-0.19228727,0.07691491,9.998938,1476.395;-0.69223416,-0.19228727,10.152767,0.19228727,0.07691491,9.575906,1476.395;-0.69223416,-0.19228727,10.152767,-0.8076065,-0.26920217,9.960481,1493.1722;-0.69223416,-0.19228727,10.152767,0.038457453,0.15382981,10.191225,1509.9495;-0.69223416,-0.19228727,10.152767,0.30765963,0.53840435,10.691172,1509.9495;-0.69223416,-0.19228727,10.152767,-0.5768618,-0.15382981,9.383618,1526.7267;-0.69223416,-0.19228727,10.152767,-0.6537767,0.07691491,9.498991,1526.7267;-0.69223416,-0.19228727,8.845214,-0.19228727,0.11537236,8.845214,1543.5039;-0.69223416,-0.19228727,11.498778,0.26920217,0.30765963,11.498778,1560.2811;-0.69223416,-0.19228727,9.575906,-0.11537236,-0.11537236,9.575906,1560.2811;-0.69223416,-0.19228727,9.575906,-0.11537236,0.07691491,10.0373955,1577.0583;0.9229789,-0.19228727,9.575906,0.9229789,0.11537236,10.191225,1577.0583;-0.61531925,-0.19228727,9.575906,-0.61531925,0.0,9.460533,1593.8356;-0.61531925,-0.19228727,9.575906,-0.19228727,-0.38457453,9.883566,1610.6128;-0.61531925,-0.19228727,9.575906,-1.0383513,0.23074472,8.999044,1610.6128;-0.61531925,-0.19228727,9.575906,-0.423032,0.30765963,9.460533,1627.3899;-0.61531925,-0.19228727,8.15298,-0.34611708,0.30765963,8.15298,1627.3899;-0.61531925,-0.19228727,11.229576,-0.11537236,0.6537767,11.229576,1644.1671;-0.61531925,-0.19228727,9.422076,-0.61531925,-0.34611708,9.422076,1660.9443;-0.61531925,-0.19228727,9.422076,-0.423032,0.46148944,9.80665,1660.9443;-0.61531925,-0.19228727,9.422076,-0.11537236,0.11537236,8.61447,1677.7216;0.5768618,-0.19228727,10.460427,0.5768618,0.15382981,10.460427,1677.7216;0.5768618,-0.19228727,9.075959,-0.15382981,0.07691491,9.075959,1694.4988;0.5768618,-0.19228727,9.075959,-0.11537236,-0.38457453,9.460533,1711.276;0.5768618,-0.19228727,9.075959,0.61531925,-0.38457453,9.768193,1711.276;-0.8845214,-0.19228727,9.075959,-0.8845214,0.61531925,9.306704,1728.0532;-0.8845214,-0.19228727,9.075959,-0.23074472,0.423032,8.960587,1728.0532;-0.8845214,-0.19228727,9.075959,-0.61531925,0.038457453,8.883672,1744.8304;0.26920217,0.8845214,9.075959,0.26920217,0.8845214,9.652821,1761.6077;0.26920217,0.8845214,9.075959,-0.423032,0.038457453,9.537449,1761.6077;0.26920217,0.8845214,9.075959,-0.11537236,0.38457453,8.2683525,1778.3849;0.26920217,0.8845214,9.075959,1.2306385,0.15382981,9.614364,1778.3849;0.26920217,-0.23074472,9.075959,-0.61531925,-0.23074472,9.537449,1795.1621;0.26920217,-0.23074472,10.306598,-0.423032,0.46148944,10.306598,1811.9393;-0.9229789,-0.23074472,10.306598,-0.9229789,-0.038457453,9.383618,1811.9393;-0.9229789,-0.23074472,10.306598,-0.8076065,-0.26920217,9.422076,1828.7166;-0.9229789,-0.23074472,10.306598,-0.846064,0.0,10.537342,1828.7166;-0.9229789,-0.23074472,10.306598,-1.2306385,0.30765963,10.345055,1845.4938;-0.9229789,-0.23074472,8.999044,-0.5768618,-0.4999469,8.999044,1862.271;-0.9229789,-0.23074472,8.999044,-0.23074472,-0.423032,9.306704,1862.271;-0.9229789,-0.23074472,8.999044,0.0,0.46148944,9.768193,1879.0482;-0.9229789,-0.23074472,8.999044,-0.5768618,0.6537767,9.306704,1879.0482;-0.9229789,-0.23074472,8.999044,-0.11537236,-0.69223416,9.191331,1895.8254;-0.9229789,-0.23074472,8.999044,-0.30765963,-0.53840435,9.422076,1895.8254;0.30765963,-0.23074472,10.652715,0.30765963,0.0,10.652715,1912.6027;0.30765963,-0.23074472,9.614364,-0.46148944,-0.11537236,9.614364,1929.3799;0.30765963,-0.23074472,9.614364,-0.26920217,0.15382981,9.80665,1929.3799;0.30765963,-0.23074472,9.614364,0.0,0.76914907,9.075959,1946.1571;0.30765963,-0.23074472,7.114629,-0.6537767,-0.423032,7.114629,1946.1571;0.30765963,-0.23074472,9.229789,0.38457453,0.423032,9.229789,1962.9343;-1.0383513,-0.23074472,9.229789,-1.0383513,0.6537767,9.229789,1979.7115;-1.0383513,-0.23074472,9.229789,-0.26920217,0.15382981,9.152874,1979.7115;-1.0383513,-0.23074472,9.229789,-0.038457453,0.19228727,9.191331,1996.4886;-1.0383513,-0.23074472,9.229789,-0.15382981,0.4999469,8.960587,1996.4886;-1.0383513,-0.23074472,9.229789,-0.46148944,0.11537236,9.345161,2013.2659;-1.0383513,-0.23074472,9.229789,-1.5382981,-0.53840435,9.152874,2030.0431;0.038457453,-0.23074472,9.229789,0.038457453,0.19228727,8.806757,2030.0431;0.038457453,-0.23074472,9.229789,-0.846064,0.46148944,9.460533,2046.8203;-1.692128,-0.23074472,9.229789,-1.692128,-0.30765963,9.114416,2046.8203;-0.423032,-0.23074472,9.229789,-0.423032,-0.15382981,8.729842,2063.5977;-0.423032,-0.23074472,9.229789,-0.46148944,-0.23074472,9.652821,2080.3748;-0.423032,-0.23074472,9.229789,-1.2690959,0.38457453,8.61447,2080.3748;-0.423032,-0.23074472,9.229789,0.19228727,0.11537236,8.960587,2097.152;1.1537236,-0.23074472,9.229789,1.1537236,-0.11537236,9.037501,2097.152;-0.8076065,-0.23074472,9.229789,-0.8076065,0.0,9.229789,2113.9292;-0.8076065,-0.23074472,9.229789,-0.34611708,-0.26920217,9.306704,2130.7065;-0.8076065,-0.23074472,9.229789,-0.53840435,0.30765963,10.0373955,2130.7065;-0.8076065,-0.23074472,9.229789,-0.34611708,0.34611708,9.845108,2147.4836;-2.4997344,-0.23074472,9.229789,-2.4997344,0.4999469,9.998938,2147.4836;-0.38457453,0.8076065,9.229789,-0.38457453,0.8076065,9.229789,2164.2607;-0.38457453,0.8076065,9.229789,-0.69223416,0.23074472,9.652821,2181.038;-1.7305853,-0.4999469,9.229789,-1.7305853,-0.4999469,8.537555,2181.038;-0.61531925,0.69223416,9.229789,-0.61531925,0.69223416,9.614364,2197.8152;-0.61531925,0.69223416,9.229789,-0.7306916,-0.15382981,8.960587,2197.8152;-0.61531925,0.69223416,10.537342,0.07691491,0.07691491,10.537342,2214.5925;-0.61531925,0.69223416,7.6914907,-0.76914907,0.34611708,7.6914907,2231.3696;-0.61531925,-0.4999469,9.998938,-0.07691491,-0.4999469,9.998938,2231.3696;-0.61531925,-0.4999469,9.998938,-0.46148944,-0.30765963,10.152767,2248.147;-0.61531925,-0.4999469,8.499097,-1.5767555,0.23074472,8.499097,2248.147;-0.61531925,0.8845214,8.499097,-0.7306916,0.8845214,9.191331,2264.924;-0.61531925,-0.23074472,8.499097,-0.7306916,-0.23074472,8.30681,2281.7014;-0.61531925,-0.23074472,8.499097,0.11537236,0.4999469,9.037501,2281.7014;-0.61531925,-0.23074472,8.499097,0.23074472,0.5768618,8.922129,2298.4785;-0.61531925,-0.23074472,9.768193,-0.76914907,-0.26920217,9.768193,2298.4785;-0.61531925,-0.23074472,9.768193,-0.34611708,-0.5768618,9.960481,2315.2559;-0.61531925,-0.23074472,9.768193,-0.19228727,0.19228727,9.998938,2332.033;-0.61531925,-0.23074472,9.768193,-0.15382981,0.11537236,9.614364,2332.033;-0.61531925,-0.23074472,9.768193,-0.53840435,0.07691491,9.537449,2348.8103;-0.61531925,-0.23074472,9.768193,-0.5768618,0.07691491,9.075959,2348.8103;-0.61531925,-0.23074472,9.768193,-0.69223416,0.34611708,9.383618,2365.5874;-0.61531925,-0.23074472,9.768193,-0.9229789,0.23074472,10.26814,2365.5874;-0.61531925,-0.23074472,9.768193,-1.2306385,0.38457453,8.960587,2382.3647;-0.61531925,-0.23074472,9.768193,-0.30765963,-0.11537236,9.037501,2399.1418;-0.61531925,-0.23074472,9.768193,-0.19228727,0.34611708,10.0373955,2399.1418;-0.61531925,-0.23074472,9.768193,0.07691491,0.69223416,9.729735,2415.9192;0.423032,-0.23074472,9.768193,0.423032,0.38457453,10.652715,2415.9192;0.423032,-0.23074472,9.768193,0.0,-0.19228727,9.383618,2432.6963;0.423032,-0.23074472,9.768193,-0.23074472,-0.38457453,10.460427,2449.4736;-1.3460109,-0.23074472,9.768193,-1.3460109,0.34611708,9.960481,2449.4736;-0.26920217,-0.23074472,9.768193,-0.26920217,0.38457453,9.691278,2466.2507;-0.26920217,-0.23074472,9.768193,-0.34611708,-0.23074472,9.268247,2466.2507;-0.26920217,-0.23074472,9.768193,-0.46148944,-0.07691491,9.575906,2483.028;-0.26920217,1.4229257,9.768193,0.15382981,1.4229257,9.383618,2499.8052;-0.26920217,0.26920217,9.768193,0.38457453,0.26920217,9.268247,2499.8052;-0.26920217,0.26920217,8.2683525,-0.15382981,-0.7306916,8.2683525,2516.5825;-0.26920217,0.26920217,10.075852,-0.038457453,0.23074472,10.075852,2533.3596;-0.26920217,0.26920217,10.075852,-0.5768618,0.423032,9.691278,2533.3596;-0.26920217,0.26920217,10.075852,-0.38457453,-0.15382981,9.422076,2550.1367;-0.26920217,0.26920217,10.075852,0.11537236,-0.19228727,10.345055,2550.1367;-0.26920217,0.26920217,10.075852,-0.9998938,-0.11537236,9.998938,2566.914;-0.26920217,0.26920217,10.075852,-0.76914907,0.53840435,9.152874,2566.914;-0.26920217,0.26920217,8.652927,-0.07691491,0.4999469,8.652927,2583.6912;-0.26920217,0.26920217,8.652927,-0.53840435,0.11537236,9.306704,2600.4685;-0.26920217,0.26920217,8.652927,-0.46148944,0.69223416,8.999044,2600.4685;-0.26920217,0.26920217,8.652927,-0.26920217,0.4999469,9.498991,2617.2456;-0.26920217,0.26920217,11.652608,-0.30765963,0.423032,11.652608,2617.2456;-0.26920217,0.26920217,9.152874,-0.30765963,-0.038457453,9.152874,2634.023;-0.26920217,0.26920217,9.152874,-0.07691491,-0.423032,9.614364,2650.8;-0.26920217,0.26920217,11.152661,0.07691491,0.76914907,11.152661,2650.8;-0.26920217,0.26920217,9.537449,-0.61531925,0.30765963,9.537449,2667.5774;-0.26920217,0.26920217,9.537449,-0.53840435,0.19228727,9.883566,2667.5774;-0.26920217,0.26920217,9.537449,-1.1921811,0.8076065,9.422076,2684.3545;0.9229789,0.26920217,9.537449,0.9229789,0.61531925,9.729735,2701.1318;-0.26920217,0.26920217,9.537449,-0.26920217,0.423032,9.652821,2701.1318;-0.26920217,0.26920217,9.537449,-0.26920217,0.6537767,8.576012,2717.909;-0.26920217,0.26920217,9.537449,-0.11537236,0.38457453,9.460533,2717.909;-0.26920217,0.26920217,9.537449,-0.34611708,0.5768618,10.3835125,2734.6863;-0.26920217,0.26920217,9.537449,0.15382981,-0.30765963,10.229683,2751.4634;-0.26920217,0.26920217,9.537449,0.53840435,-0.038457453,9.537449,2751.4634;-0.26920217,0.26920217,9.537449,-1.1152661,-0.423032,10.191225,2768.2407;-0.26920217,0.26920217,11.152661,0.26920217,0.5768618,11.152661,2785.0178;-0.26920217,0.26920217,11.152661,-0.96143633,-0.07691491,10.191225,2801.7952;-0.26920217,0.26920217,8.15298,-0.19228727,-0.15382981,8.15298,2801.7952;-0.26920217,0.26920217,8.15298,-0.46148944,0.0,8.691384,2818.5723;-0.26920217,0.26920217,9.498991,0.5768618,0.96143633,9.498991,2818.5723;-0.26920217,0.26920217,9.498991,0.19228727,-0.46148944,9.960481,2835.3496;-0.26920217,0.26920217,9.498991,0.0,0.23074472,8.61447,2852.1267;1.3075534,0.26920217,9.498991,1.3075534,0.038457453,9.729735,2852.1267;-0.26920217,0.26920217,9.498991,-0.26920217,0.23074472,9.075959,2868.904;-0.26920217,0.26920217,9.498991,-0.61531925,-0.15382981,9.729735,2868.904;-0.26920217,0.26920217,9.498991,-0.8076065,-0.11537236,8.999044,2885.6812;-0.26920217,0.26920217,9.498991,0.5768618,0.23074472,9.883566,2885.6812;-0.26920217,0.26920217,9.498991,-0.6537767,0.23074472,9.960481,2902.4583;-0.26920217,0.26920217,9.498991,-0.23074472,0.46148944,8.652927,2919.2356;-0.26920217,0.26920217,9.498991,0.0,-0.38457453,10.229683,2919.2356;-0.26920217,0.26920217,8.422182,-0.4999469,-0.15382981,8.422182,2936.0127;-0.26920217,0.26920217,10.152767,-0.6537767,0.34611708,10.152767,2936.0127;-0.26920217,0.26920217,10.152767,-0.07691491,-0.26920217,9.80665,2952.79;-0.26920217,0.26920217,10.152767,-0.30765963,-0.11537236,9.575906,2969.5671;-0.26920217,0.26920217,10.152767,-0.23074472,0.11537236,10.11431,2969.5671;-0.26920217,0.26920217,10.152767,-0.53840435,0.423032,9.422076,2986.3445;-0.26920217,0.26920217,10.152767,-0.61531925,-0.11537236,9.268247,2986.3445;-0.26920217,0.26920217,9.114416,0.423032,0.38457453,9.114416,3003.1216;-0.26920217,0.26920217,9.114416,-0.07691491,0.07691491,9.383618,3019.899;-0.26920217,0.26920217,7.729948,-0.07691491,0.61531925,7.729948,3019.899;-0.26920217,0.26920217,9.80665,-0.38457453,-0.26920217,9.80665,3036.676;-0.26920217,0.26920217,7.614576,-0.15382981,0.15382981,7.614576,3036.676;-0.26920217,0.26920217,9.460533,0.23074472,0.07691491,9.460533,3053.4534;-0.26920217,0.26920217,9.460533,-0.5768618,0.038457453,9.960481,3070.2305;-0.26920217,0.26920217,9.460533,-0.11537236,0.30765963,9.652821,3070.2305;-0.26920217,0.26920217,9.460533,-0.38457453,0.11537236,8.499097,3087.0078;-1.7690428,0.26920217,9.460533,-1.7690428,-0.26920217,9.80665,3087.0078;-1.7690428,0.26920217,9.460533,-1.2306385,0.0,9.883566,3103.785;-1.7690428,0.26920217,9.460533,-0.8845214,-0.15382981,9.422076,3120.5623;-1.7690428,0.26920217,9.460533,-0.8845214,0.038457453,9.268247,3120.5623;0.15382981,0.26920217,7.383831,0.15382981,0.26920217,7.383831,3137.3394;0.15382981,0.26920217,8.576012,-0.30765963,-0.038457453,8.576012,3137.3394;0.15382981,0.26920217,8.576012,0.61531925,0.53840435,9.345161,3154.1167;0.15382981,0.26920217,8.576012,-0.69223416,-0.61531925,8.576012,3170.8938;0.15382981,0.26920217,8.576012,-0.6537767,-0.38457453,9.575906,3170.8938;0.15382981,0.26920217,10.998832,0.8845214,0.61531925,10.998832,3187.6711;0.15382981,0.26920217,9.614364,-0.46148944,-0.38457453,9.614364,3187.6711;-0.8845214,0.26920217,9.614364,-0.8845214,0.30765963,8.960587,3204.4482;-0.8845214,0.26920217,9.614364,-0.46148944,0.038457453,9.306704,3221.2256;-0.8845214,0.26920217,7.883778,-1.3460109,0.423032,7.883778,3221.2256;-0.8845214,0.26920217,7.883778,0.0,0.30765963,8.30681,3238.0027;0.423032,0.26920217,9.498991,0.423032,-0.11537236,9.498991,3238.0027;-1.0768087,0.26920217,8.345267,-1.0768087,-0.5768618,8.345267,3254.7798;-0.038457453,0.26920217,9.537449,-0.038457453,0.30765963,9.537449,3271.5571;-0.038457453,0.26920217,9.537449,-0.4999469,0.19228727,9.845108,3271.5571;-0.038457453,0.26920217,10.921917,0.15382981,-0.07691491,10.921917,3288.3342;-1.2306385,-0.76914907,9.498991,-1.2306385,-0.76914907,9.498991,3288.3342;-1.2306385,0.8076065,9.498991,-0.61531925,0.8076065,8.960587,3305.1116;-1.2306385,0.8076065,9.498991,-0.6537767,-0.07691491,10.229683,3321.8887;-1.2306385,0.8076065,8.076065,-1.3460109,0.38457453,8.076065,3321.8887;-1.2306385,0.8076065,9.80665,-0.96143633,0.15382981,9.80665,3338.666;-1.2306385,0.8076065,9.80665,-0.5768618,0.11537236,8.999044,3338.666;-1.2306385,0.8076065,9.80665,-0.34611708,0.423032,10.421969,3355.443;-1.2306385,-0.30765963,7.960693,-0.8076065,-0.30765963,7.960693,3372.2205;-0.07691491,-0.30765963,10.229683,-0.07691491,0.19228727,10.229683,3372.2205;-0.07691491,-0.30765963,10.229683,-0.61531925,0.46148944,10.5758,3388.9976;-0.07691491,-0.30765963,9.152874,-0.07691491,0.30765963,9.152874,3388.9976;-0.07691491,-0.30765963,9.152874,-0.6537767,0.30765963,9.191331,3405.775;-0.07691491,-0.30765963,9.152874,-0.9229789,-0.61531925,8.2683525,3405.775;-2.11516,-0.30765963,9.152874,-2.11516,-0.23074472,9.614364,3422.552;-0.96143633,-0.30765963,9.152874,-0.96143633,0.15382981,9.152874,3439.3293;-0.96143633,-0.30765963,9.152874,-0.34611708,-0.11537236,9.498991,3439.3293;-2.0767026,-0.30765963,8.037608,-2.0767026,-0.23074472,8.037608,3456.1064;-0.19228727,-0.30765963,9.652821,-0.19228727,-0.07691491,9.652821,3456.1064;-0.19228727,-0.30765963,9.652821,0.23074472,0.4999469,9.268247,3472.8838;-0.19228727,-0.30765963,9.652821,0.423032,0.69223416,10.229683,3489.661;-0.19228727,-0.30765963,8.191438,-1.1537236,-0.7306916,8.191438,3489.661;-0.19228727,-0.30765963,9.537449,-1.1921811,0.38457453,9.537449,3506.4382;-0.19228727,-0.30765963,9.537449,-0.34611708,0.423032,9.883566,3506.4382;-1.692128,-0.30765963,9.537449,-1.692128,-0.15382981,10.498885,3523.2153;0.19228727,-0.30765963,9.537449,0.19228727,0.11537236,9.845108,3539.9927;0.19228727,-0.30765963,9.537449,-0.423032,0.23074472,8.999044,3539.9927;0.19228727,1.0383513,9.537449,0.26920217,1.0383513,8.999044,3556.7698;0.19228727,1.0383513,9.537449,-0.61531925,0.07691491,9.075959,3556.7698;0.19228727,-0.23074472,9.537449,-0.53840435,-0.23074472,9.191331,3573.547;0.19228727,-0.23074472,9.537449,-0.8076065,0.038457453,9.729735,3590.3242;0.19228727,-0.23074472,9.537449,-0.15382981,0.15382981,8.806757,3590.3242;0.19228727,-0.23074472,9.537449,0.23074472,0.69223416,9.922023,3607.1013;0.19228727,-0.23074472,9.537449,-0.15382981,0.19228727,9.268247,3607.1013;0.19228727,-0.23074472,9.537449,-0.6537767,0.69223416,8.652927,3623.8787;0.19228727,0.8076065,9.537449,-0.8076065,0.8076065,8.845214,3640.6558;0.19228727,0.8076065,9.537449,-0.423032,0.46148944,9.460533,3640.6558;-0.9229789,-0.34611708,8.46064,-0.9229789,-0.34611708,8.46064,3657.433;-0.9229789,-0.34611708,10.075852,-1.0383513,0.46148944,10.075852,3657.433;-0.9229789,-0.34611708,10.075852,-0.9229789,-0.19228727,9.922023,3674.2102;-0.9229789,-0.34611708,10.075852,-0.30765963,-0.038457453,9.998938,3690.9875;-0.9229789,-0.34611708,10.075852,0.07691491,0.19228727,9.768193,3690.9875;-0.9229789,-0.34611708,10.075852,-0.34611708,0.11537236,9.614364,3707.7646;-0.9229789,-0.34611708,10.075852,-0.7306916,0.46148944,10.152767,3707.7646;0.9998938,-0.34611708,10.075852,0.9998938,0.53840435,10.152767,3724.542;-0.30765963,-0.34611708,10.075852,-0.30765963,0.0,9.114416,3741.319;-0.30765963,-0.34611708,8.383725,-0.4999469,-0.46148944,8.383725,3741.319;-1.9613302,-0.34611708,8.383725,-1.9613302,0.07691491,8.729842,3758.0964;-0.11537236,-0.34611708,9.998938,-0.11537236,0.30765963,9.998938,3758.0964;-0.11537236,0.76914907,8.30681,0.15382981,0.76914907,8.30681,3774.8735;-0.11537236,0.76914907,8.30681,-0.038457453,-0.19228727,9.268247,3791.651;-0.11537236,0.76914907,10.921917,0.61531925,0.423032,10.921917,3791.651;-0.11537236,0.76914907,10.921917,-1.0768087,0.0,10.691172,3808.428;-0.11537236,0.76914907,9.845108,-0.8076065,0.15382981,9.845108,3808.428;-1.3460109,-0.53840435,8.652927,-1.3460109,-0.53840435,8.652927,3825.2053;-1.3460109,-0.53840435,10.498885,-1.2306385,0.038457453,10.498885,3841.9824;-1.3460109,-0.53840435,9.191331,-0.76914907,-0.038457453,9.191331,3841.9824;-1.3460109,0.69223416,9.191331,-0.7306916,0.69223416,8.537555,3858.7598;-1.3460109,0.69223416,9.191331,-0.8076065,0.19228727,9.460533,3858.7598;0.038457453,0.69223416,9.191331,0.038457453,0.15382981,9.306704,3875.5369;0.038457453,0.69223416,10.845002,0.30765963,1.2690959,10.845002,3892.3142;0.038457453,0.69223416,10.845002,-0.26920217,0.15382981,10.498885,3892.3142;0.038457453,-0.423032,9.652821,-0.8845214,-0.423032,9.652821,3909.0913;0.038457453,-0.423032,9.652821,-0.846064,-0.19228727,10.460427,3909.0913;0.038457453,-0.423032,9.652821,0.46148944,-0.07691491,10.152767,3925.8687;0.038457453,-0.423032,9.652821,-0.4999469,0.19228727,9.652821,3925.8687;0.038457453,0.69223416,9.652821,-0.23074472,0.69223416,9.460533,3942.6458;-1.0383513,0.69223416,8.037608,-1.0383513,0.038457453,8.037608,3959.423;0.53840435,0.69223416,9.191331,0.53840435,0.9229789,9.191331,3959.423;0.53840435,0.69223416,9.191331,0.0,-0.07691491,9.460533,3976.2002;-0.8845214,0.69223416,9.191331,-0.8845214,0.30765963,8.652927,3976.2002;0.46148944,0.69223416,9.191331,0.46148944,-0.30765963,9.80665,3992.9773;0.46148944,0.69223416,9.191331,-0.46148944,0.423032,9.306704,4009.7546;0.46148944,0.69223416,9.191331,-0.038457453,0.07691491,8.960587,4009.7546;-0.69223416,0.69223416,9.191331,-0.69223416,0.0,8.883672,4026.5317;-0.69223416,0.69223416,9.191331,-0.11537236,1.0383513,8.806757,4026.5317;-0.69223416,0.69223416,9.191331,-0.846064,-0.11537236,9.80665,4043.309;-0.69223416,0.69223416,9.191331,-0.34611708,0.9998938,9.229789,4060.0862;-0.69223416,0.69223416,9.191331,-0.5768618,0.4999469,9.960481,4060.0862;-0.69223416,-0.46148944,9.191331,-0.4999469,-0.46148944,9.229789,4076.8635;-0.69223416,0.69223416,9.191331,-0.23074472,0.69223416,9.691278,4076.8635;0.76914907,0.69223416,9.191331,0.76914907,1.1921811,10.11431,4093.6406;0.76914907,0.69223416,9.191331,0.4999469,0.34611708,9.460533,4110.418;0.76914907,0.69223416,9.191331,0.15382981,0.0,9.845108,4110.418;0.76914907,0.69223416,10.306598,-0.19228727,0.38457453,10.306598,4127.1953;-0.34611708,0.69223416,10.306598,-0.34611708,0.23074472,9.845108,4127.1953;-0.34611708,0.69223416,9.114416,-0.423032,-0.30765963,9.114416,4143.972;-0.34611708,0.69223416,10.152767,-0.38457453,-0.23074472,10.152767,4160.7495;-0.34611708,0.69223416,10.152767,-0.19228727,0.9229789,9.191331,4160.7495;-0.34611708,0.69223416,9.075959,-0.11537236,0.30765963,9.075959,4177.527;-0.34611708,0.69223416,9.075959,-0.69223416,0.61531925,9.768193,4177.527;-0.34611708,0.69223416,9.075959,-0.53840435,0.34611708,8.345267,4194.304;-0.34611708,0.69223416,9.075959,-0.6537767,0.11537236,9.229789,4211.081;-0.34611708,0.69223416,10.152767,-0.8076065,-0.07691491,10.152767,4211.081;-0.34611708,0.69223416,10.152767,0.038457453,0.07691491,10.3835125,4227.8584;-0.34611708,0.69223416,10.152767,-1.0383513,0.423032,9.998938,4227.8584;-0.34611708,0.69223416,10.152767,-0.5768618,0.038457453,9.691278,4244.6357;-0.34611708,0.69223416,10.152767,0.07691491,0.6537767,10.498885,4261.413;-0.34611708,0.69223416,10.152767,-1.0383513,-0.15382981,9.575906,4261.413;-0.34611708,0.69223416,8.768299,-0.5768618,0.15382981,8.768299,4278.19;-0.34611708,0.69223416,8.768299,-0.38457453,0.0,8.922129,4278.19;-0.34611708,0.69223416,9.845108,0.4999469,0.46148944,9.845108,4294.9673;-0.34611708,0.69223416,9.845108,0.038457453,-0.038457453,9.845108,4311.7446;-0.34611708,0.69223416,9.845108,0.23074472,-0.23074472,9.229789,4311.7446;-0.34611708,-0.46148944,11.306491,0.0,-0.46148944,11.306491,4328.5215;-0.34611708,0.5768618,9.422076,-0.5768618,0.5768618,9.422076,4328.5215;-0.34611708,0.5768618,9.422076,-0.53840435,0.26920217,8.422182,4345.299;-0.34611708,0.5768618,9.422076,0.038457453,0.8845214,8.806757,4362.076;-0.34611708,0.5768618,9.422076,-0.69223416,-0.07691491,9.537449,4362.076;-0.34611708,-0.46148944,9.422076,-0.5768618,-0.46148944,9.037501,4378.8535;-0.34611708,-0.46148944,9.422076,-0.30765963,0.46148944,9.80665,4378.8535;-1.5767555,-0.46148944,9.422076,-1.5767555,0.26920217,9.152874,4395.6304;-1.5767555,-0.46148944,9.422076,-0.7306916,0.34611708,9.345161,4395.6304;-0.53840435,0.6537767,9.422076,-0.53840435,0.6537767,10.3835125,4412.4077;1.4229257,0.6537767,9.422076,1.4229257,0.30765963,10.11431,4429.185;-0.846064,0.6537767,9.422076,-0.846064,-0.07691491,9.691278,4429.185;-0.846064,0.6537767,9.422076,0.11537236,0.07691491,10.191225,4445.9624;-0.846064,0.6537767,10.806544,-1.0383513,0.15382981,10.806544,4445.9624;-0.846064,0.6537767,8.883672,-1.0768087,0.0,8.883672,4462.7393;-0.846064,0.6537767,8.883672,-0.19228727,0.07691491,9.306704,4479.5166;-0.846064,0.6537767,8.883672,-0.5768618,0.15382981,8.61447,4479.5166;0.53840435,0.6537767,10.0373955,0.53840435,0.76914907,10.0373955,4496.294;0.53840435,0.6537767,8.768299,0.11537236,0.61531925,8.768299,4513.0713;0.53840435,0.6537767,8.768299,0.4999469,0.19228727,9.152874,4513.0713;0.53840435,0.6537767,8.768299,0.26920217,0.4999469,8.922129,4529.848;0.53840435,0.6537767,8.768299,0.23074472,0.7306916,9.652821,4529.848;-0.61531925,0.6537767,8.768299,-0.61531925,0.07691491,9.383618,4546.6255;-0.61531925,0.6537767,8.768299,-0.6537767,-0.30765963,8.768299,4546.6255;-0.61531925,-0.6537767,8.768299,-1.4613832,-0.6537767,8.883672,4563.403;-0.61531925,-0.6537767,10.537342,-0.8076065,-0.15382981,10.537342,4580.18;-0.61531925,0.4999469,9.075959,-0.7306916,0.4999469,9.075959,4580.18;-0.61531925,0.4999469,9.075959,-0.96143633,0.23074472,9.345161,4596.957;-0.61531925,0.4999469,9.075959,-0.61531925,0.11537236,9.152874,4596.957;-0.61531925,0.4999469,9.075959,-0.23074472,0.30765963,9.422076,4613.7344;-0.61531925,0.4999469,9.075959,-0.53840435,0.38457453,9.845108,4630.5117;-0.61531925,-0.53840435,9.075959,-0.9998938,-0.53840435,9.422076,4630.5117;-0.61531925,-0.53840435,9.075959,-0.9998938,0.038457453,9.883566,4647.289;-0.61531925,-0.53840435,9.075959,-0.11537236,-0.15382981,9.268247,4647.289;-0.61531925,-0.53840435,9.075959,-0.53840435,0.23074472,9.80665,4664.066;-0.61531925,-0.53840435,9.075959,0.07691491,0.26920217,9.306704,4680.8433;-0.61531925,-0.53840435,9.075959,-0.30765963,0.38457453,9.691278,4680.8433;-0.61531925,0.76914907,9.075959,-0.6537767,0.76914907,8.61447,4697.6206;-0.61531925,-0.46148944,9.075959,-0.11537236,-0.46148944,9.268247,4697.6206;-0.61531925,0.76914907,9.075959,-0.38457453,0.76914907,9.498991,4714.3975;-0.61531925,0.76914907,9.075959,-1.0768087,0.038457453,8.999044,4731.175;-0.61531925,0.76914907,10.768087,-0.19228727,0.30765963,10.768087,4731.175;-0.61531925,0.76914907,9.422076,-0.26920217,-0.11537236,9.422076,4747.952;-0.61531925,0.76914907,9.422076,-0.26920217,0.26920217,8.922129,4747.952;-0.61531925,-0.5768618,9.422076,-0.423032,-0.5768618,8.46064,4764.7295;-0.61531925,-0.5768618,9.422076,-1.1921811,0.34611708,10.26814,4781.5063;-0.61531925,-0.5768618,9.422076,-1.1921811,0.0,8.999044,4781.5063;0.423032,-0.5768618,9.422076,0.423032,-0.23074472,10.345055,4798.2837;0.423032,0.846064,9.422076,0.53840435,0.846064,9.575906,4798.2837;0.423032,0.846064,9.422076,0.19228727,0.53840435,9.537449,4815.061;0.423032,0.846064,8.15298,-0.5768618,0.38457453,8.15298,4831.8384;0.423032,0.846064,8.15298,-0.46148944,0.11537236,8.729842,4831.8384;0.423032,-0.19228727,8.15298,-0.34611708,-0.19228727,8.229895,4848.615;0.423032,-0.19228727,9.498991,-0.53840435,-0.6537767,9.498991,4848.615;-0.8076065,-0.19228727,9.498991,-0.8076065,-0.038457453,9.075959,4882.17;-0.8076065,-0.19228727,9.498991,-0.53840435,0.19228727,8.652927,4882.17;-0.8076065,-0.19228727,8.114523,-1.2690959,0.0,8.114523,4898.9473;-0.8076065,-0.19228727,9.998938,-1.1152661,0.11537236,9.998938,4898.9473;-0.8076065,1.1152661,9.998938,-0.38457453,1.1152661,9.114416,4915.724;-0.8076065,1.1152661,8.30681,-0.26920217,0.30765963,8.30681,4932.5015;0.423032,1.1152661,10.306598,0.423032,0.8076065,10.306598,4932.5015;0.423032,-0.038457453,10.306598,-0.4999469,-0.038457453,10.075852,4949.279;-0.7306916,-0.038457453,10.306598,-0.7306916,0.5768618,10.0373955,4949.279;-2.6535642,-0.038457453,9.268247,-2.6535642,-0.15382981,9.268247,4966.056;-0.038457453,-0.038457453,9.268247,-0.038457453,0.38457453,9.037501,4966.056;-0.038457453,-0.038457453,10.7296295,-0.76914907,0.15382981,10.7296295,4982.833;-0.038457453,-0.038457453,8.229895,-0.69223416,0.11537236,8.229895,4999.6104;-0.038457453,-0.038457453,9.422076,0.07691491,-0.34611708,9.422076,4999.6104;-0.038457453,-0.038457453,9.422076,-0.5768618,0.423032,10.191225,5016.3877;-0.038457453,-0.038457453,9.422076,-1.0383513,-0.07691491,8.61447,5016.3877;-0.038457453,-0.038457453,9.422076,0.5768618,0.9229789,9.268247,5033.165;-0.038457453,-0.038457453,9.422076,0.038457453,-0.26920217,9.652821,5049.942;-0.038457453,-0.038457453,9.422076,-0.38457453,-0.38457453,9.80665,5049.942;1.8459578,-0.038457453,9.422076,1.8459578,0.30765963,10.11431,5066.719;-0.11537236,-0.038457453,9.422076,-0.11537236,0.19228727,9.498991,5066.719;-0.11537236,-0.038457453,9.422076,-0.53840435,0.46148944,9.383618,5083.4966;-0.11537236,-0.038457453,9.422076,-1.0768087,-0.23074472,8.652927,5100.2734;-0.11537236,1.3844683,9.422076,-0.38457453,1.3844683,8.46064,5100.2734;-0.11537236,-0.07691491,9.422076,0.30765963,-0.07691491,9.575906,5117.051;-0.11537236,-0.07691491,9.422076,-0.07691491,0.46148944,9.922023,5117.051;-0.11537236,-0.07691491,11.114204,-0.34611708,-0.69223416,11.114204,5133.828;-0.11537236,-0.07691491,9.037501,-0.9998938,0.07691491,9.037501,5150.6055;-0.11537236,-0.07691491,9.037501,0.19228727,0.4999469,9.037501,5150.6055;-0.11537236,-0.07691491,9.037501,-0.38457453,-0.19228727,9.422076,5167.3823;-0.11537236,-0.07691491,9.037501,-0.4999469,-0.4999469,9.268247,5167.3823;-0.11537236,-0.07691491,9.037501,-0.69223416,-0.34611708,9.614364,5184.1597;-0.11537236,-0.07691491,10.806544,-0.9229789,0.423032,10.806544,5200.937;-0.11537236,-0.07691491,9.191331,-1.1152661,-0.5768618,9.191331,5200.937;-0.11537236,-0.07691491,9.191331,-0.5768618,-0.11537236,8.229895,5217.7144;-0.11537236,-0.07691491,9.191331,-0.96143633,0.038457453,8.806757,5217.7144;-0.11537236,1.1152661,9.191331,0.6537767,1.1152661,8.922129,5234.491;-0.11537236,-0.23074472,9.191331,0.69223416,-0.23074472,9.422076,5251.2686;-0.11537236,-0.23074472,9.191331,0.69223416,-0.23074472,9.729735,5251.2686;-0.11537236,-0.23074472,9.191331,-0.53840435,0.15382981,8.922129,5268.046;-0.11537236,-0.23074472,9.191331,-0.23074472,-0.11537236,9.498991,5268.046;-0.11537236,-0.23074472,9.191331,0.038457453,-0.038457453,9.883566,5284.823;-0.11537236,-0.23074472,9.191331,0.34611708,0.34611708,9.768193,5301.6;-0.11537236,-0.23074472,9.191331,-0.8845214,0.11537236,9.729735,5301.6;-0.11537236,-0.23074472,9.191331,-0.5768618,0.6537767,9.152874,5318.3774;-0.11537236,0.9998938,10.614257,-0.26920217,0.9998938,10.614257,5318.3774;-0.11537236,-0.07691491,8.576012,-1.1152661,-0.07691491,8.576012,5335.155;-0.11537236,-0.07691491,9.80665,-0.53840435,0.23074472,9.80665,5351.932;-0.11537236,-0.07691491,9.80665,-0.5768618,0.19228727,9.845108,5351.932;-0.11537236,-0.07691491,10.845002,0.19228727,0.0,10.845002,5368.709;-0.11537236,-0.07691491,10.845002,-0.53840435,-0.46148944,10.345055,5368.709;-0.11537236,-0.07691491,9.306704,-0.5768618,0.038457453,9.306704,5385.4863;-0.11537236,-0.07691491,10.691172,0.61531925,0.7306916,10.691172,5402.2637;-0.11537236,-0.07691491,9.191331,-0.46148944,0.8076065,9.191331,5402.2637;-0.11537236,-0.07691491,9.191331,-0.76914907,-0.30765963,9.229789,5419.0405;-0.11537236,-0.07691491,9.191331,-0.19228727,-0.26920217,9.075959,5419.0405;-1.4998407,-0.07691491,9.191331,-1.4998407,-0.4999469,9.268247,5435.818;-0.34611708,-0.07691491,9.191331,-0.34611708,-0.11537236,8.999044,5435.818;-0.34611708,-0.07691491,9.191331,-0.61531925,0.26920217,8.883672,5452.595;-0.34611708,-0.07691491,9.191331,-0.61531925,-0.038457453,8.229895,5469.3726;-0.34611708,-0.07691491,9.191331,0.15382981,-0.038457453,9.498991,5469.3726;-0.34611708,-0.07691491,9.191331,0.0,-0.038457453,8.960587,5486.1494;-0.34611708,-0.07691491,10.306598,-0.34611708,-0.26920217,10.306598,5486.1494;-0.34611708,-0.07691491,8.383725,-0.5768618,-0.8076065,8.383725,5502.927;-1.5382981,-0.07691491,8.383725,-1.5382981,0.34611708,9.075959,5519.704;-1.5382981,-0.07691491,10.11431,-0.61531925,-0.19228727,10.11431,5519.704;-1.5382981,-0.07691491,8.768299,-1.7690428,0.5768618,8.768299,5536.4814;-0.46148944,-0.07691491,8.768299,-0.46148944,-0.26920217,9.229789,5536.4814;-0.46148944,-0.07691491,8.768299,-0.11537236,0.46148944,8.922129,5553.2583;-0.46148944,-0.07691491,8.768299,0.038457453,0.30765963,8.652927,5570.0356;-0.46148944,-0.07691491,10.075852,-0.15382981,-0.5768618,10.075852,5570.0356;-0.46148944,-0.07691491,10.075852,-0.5768618,0.8076065,10.26814,5586.813;-0.46148944,-0.07691491,10.075852,-0.61531925,-0.6537767,9.383618,5586.813;-0.46148944,-0.07691491,8.960587,-0.61531925,0.5768618,8.960587,5603.5903;-0.46148944,-0.07691491,10.691172,0.0,0.5768618,10.691172,5620.367;-0.46148944,-0.07691491,8.922129,-0.53840435,0.19228727,8.922129,5620.367;-0.46148944,-0.07691491,6.9992566,-0.61531925,-0.30765963,6.9992566,5637.1445;-0.46148944,-0.07691491,8.652927,-1.1152661,0.5768618,8.652927,5637.1445;-0.46148944,-0.07691491,8.652927,0.038457453,0.19228727,8.537555,5653.922;-0.46148944,-0.07691491,10.614257,-1.2306385,0.23074472,10.614257,5670.699;-0.46148944,-0.07691491,8.345267,-0.30765963,0.8076065,8.345267,5670.699;-0.46148944,-0.07691491,10.845002,-0.7306916,-0.7306916,10.845002,5687.476;-0.46148944,-0.07691491,10.845002,0.23074472,0.15382981,10.614257,5687.476;-0.46148944,-1.1152661,9.422076,-1.1152661,-1.1152661,9.422076,5704.2534;-0.46148944,-1.1152661,9.422076,-0.11537236,-0.19228727,9.960481,5721.031;-0.46148944,0.46148944,9.422076,0.15382981,0.46148944,9.345161,5721.031;-0.46148944,0.46148944,9.422076,-0.8845214,-0.34611708,9.960481,5737.808;-0.46148944,0.46148944,9.422076,-0.76914907,0.0,8.922129,5737.808;-0.46148944,0.46148944,9.422076,-0.4999469,-0.23074472,8.691384,5754.585;-0.46148944,0.46148944,9.422076,-1.2690959,-0.11537236,8.729842,5771.3623;-0.46148944,0.46148944,9.422076,-0.7306916,0.9229789,8.922129,5771.3623;-0.46148944,0.46148944,9.422076,0.11537236,0.38457453,8.883672,5788.1396;-0.46148944,0.46148944,8.114523,-0.61531925,-0.07691491,8.114523,5788.1396;-0.46148944,0.46148944,8.114523,0.4999469,0.4999469,7.9991503,5804.9165;-0.46148944,0.46148944,9.691278,-0.9998938,0.23074472,9.691278,5821.694;-0.46148944,0.46148944,9.691278,-0.30765963,0.38457453,10.191225,5821.694;-2.6535642,0.46148944,9.691278,-2.6535642,0.423032,9.037501,5838.471;-0.69223416,0.46148944,9.691278,-0.69223416,0.46148944,9.998938,5838.471;-0.69223416,0.46148944,9.691278,-0.46148944,0.69223416,9.652821,5855.2485;-0.69223416,0.46148944,7.9991503,-1.1152661,0.34611708,7.9991503,5872.0254;-0.69223416,0.46148944,10.421969,-1.0768087,0.8845214,10.421969,5872.0254;-0.69223416,0.46148944,10.421969,-0.38457453,0.8845214,10.960374,5888.8027;-0.69223416,0.46148944,10.421969,0.30765963,0.19228727,9.614364,5888.8027;0.46148944,0.46148944,10.421969,0.46148944,0.6537767,9.652821,5905.58;0.46148944,0.46148944,9.152874,0.30765963,0.23074472,9.152874,5905.58;-0.96143633,0.46148944,10.26814,-0.96143633,-0.07691491,10.26814,5922.3574;0.76914907,0.46148944,10.26814,0.76914907,0.423032,11.268034,5939.1343;-0.26920217,0.46148944,10.26814,-0.26920217,-0.30765963,9.268247,5939.1343;-0.26920217,0.46148944,9.037501,-0.30765963,0.4999469,9.037501,5955.9116;-0.26920217,0.46148944,9.037501,-1.0383513,-0.07691491,8.845214,5955.9116;-0.26920217,1.9997876,9.037501,0.53840435,1.9997876,9.306704,5989.4663;-0.26920217,0.11537236,9.037501,-0.9998938,0.11537236,9.037501,5989.4663;-0.26920217,0.11537236,9.037501,0.53840435,0.26920217,8.883672,6006.243;-0.26920217,0.11537236,9.037501,-0.26920217,-0.11537236,8.806757,6006.243;-0.26920217,0.11537236,9.037501,-0.30765963,0.4999469,9.883566,6023.0205;-1.3075534,0.11537236,9.037501,-1.3075534,-0.8076065,8.999044,6039.798;-1.3075534,0.11537236,9.037501,-0.46148944,-0.34611708,8.345267,6039.798;-1.3075534,0.11537236,9.037501,-0.38457453,0.23074472,9.537449,6056.575;-1.3075534,0.11537236,9.037501,-0.5768618,0.4999469,8.806757,6056.575;-1.3075534,0.11537236,9.037501,-0.4999469,-0.038457453,9.268247,6073.352;-1.3075534,0.11537236,9.037501,-0.76914907,0.038457453,8.61447,6090.1294;-1.3075534,0.11537236,10.075852,-1.0768087,0.38457453,10.075852,6090.1294;0.5768618,0.11537236,10.075852,0.5768618,1.0768087,9.768193,6106.9067;0.5768618,0.11537236,10.075852,0.23074472,-0.46148944,10.11431,6106.9067;0.5768618,0.11537236,10.075852,0.46148944,0.038457453,10.26814,6123.684;1.7690428,0.11537236,10.075852,1.7690428,0.9998938,9.960481,6140.461;-0.5768618,0.11537236,10.075852,-0.5768618,0.23074472,10.421969,6140.461;-0.5768618,0.11537236,10.075852,-0.07691491,0.19228727,9.152874,6157.2383;-0.5768618,0.11537236,8.806757,-1.2690959,-0.19228727,8.806757,6157.2383;-0.5768618,0.11537236,9.922023,-0.53840435,0.8076065,9.922023,6174.0156;-0.5768618,0.11537236,9.922023,0.038457453,0.038457453,9.383618,6190.7925;-0.5768618,0.11537236,9.922023,-0.19228727,0.76914907,8.960587,6190.7925;-0.5768618,0.11537236,9.922023,-0.846064,-0.15382981,10.806544,6207.57;-0.5768618,0.11537236,9.922023,-0.26920217,0.5768618,9.498991,6207.57;-0.5768618,0.11537236,9.922023,0.07691491,-0.11537236,10.306598,6224.347;-0.5768618,0.11537236,9.922023,-0.23074472,-0.8076065,9.960481,6241.1245;-0.5768618,0.11537236,9.922023,-0.7306916,0.07691491,9.614364,6241.1245;-0.5768618,0.11537236,9.922023,-0.4999469,-0.15382981,9.729735,6257.9014;-0.5768618,0.11537236,9.922023,-0.53840435,0.23074472,10.421969,6257.9014;-0.5768618,0.11537236,9.922023,-0.15382981,-0.11537236,9.345161,6274.6787;-0.5768618,0.11537236,8.345267,-0.8076065,-0.19228727,8.345267,6291.456;-0.5768618,0.11537236,8.345267,-0.96143633,0.34611708,8.46064,6291.456;1.1921811,0.11537236,8.345267,1.1921811,0.8845214,8.61447,6308.2334;-0.07691491,0.11537236,8.345267,-0.07691491,-0.07691491,8.922129,6308.2334;-0.07691491,0.11537236,9.383618,-0.46148944,-0.53840435,9.383618,6325.0103;-0.07691491,0.11537236,9.383618,0.07691491,-0.11537236,8.845214,6341.7876;-0.07691491,0.11537236,9.383618,-0.19228727,0.038457453,9.460533,6341.7876;-0.07691491,0.11537236,9.383618,-0.69223416,-0.38457453,8.691384,6358.565;-0.07691491,0.11537236,9.383618,-0.34611708,0.038457453,9.114416,6358.565;-0.07691491,0.11537236,8.30681,-0.8076065,-0.11537236,8.30681,6375.3423;-0.07691491,0.11537236,9.575906,-0.53840435,0.7306916,9.575906,6392.119;-1.2690959,0.11537236,9.575906,-1.2690959,0.76914907,9.575906,6392.119;-1.2690959,0.11537236,8.15298,-0.4999469,0.11537236,8.15298,6408.8965;-1.2690959,0.11537236,9.960481,-0.61531925,0.15382981,9.960481,6408.8965;0.19228727,0.11537236,9.960481,0.19228727,0.11537236,8.999044,6425.674;0.19228727,0.11537236,9.960481,0.4999469,0.7306916,10.26814,6425.674;-1.1921811,-1.1152661,9.960481,-1.1921811,-1.1152661,9.768193,6442.451;0.38457453,-1.1152661,9.960481,0.38457453,-0.19228727,10.229683,6459.228;0.38457453,-1.1152661,9.960481,-0.34611708,-0.23074472,10.0373955,6459.228;0.38457453,-0.07691491,9.960481,-0.30765963,-0.07691491,9.037501,6476.0054;0.38457453,-0.07691491,9.960481,-0.423032,0.34611708,10.11431,6476.0054;0.38457453,-0.07691491,9.960481,-0.423032,-0.11537236,9.306704,6492.7827;0.38457453,-0.07691491,9.960481,-0.23074472,0.0,9.037501,6509.5596;-1.0383513,0.9998938,9.960481,-1.0383513,0.9998938,9.229789,6509.5596;-1.0383513,0.9998938,8.806757,-0.15382981,0.07691491,8.806757,6526.337;0.07691491,-0.07691491,10.229683,0.07691491,-0.07691491,10.229683,6526.337;0.07691491,-0.07691491,9.114416,-0.69223416,0.07691491,9.114416,6543.1143;0.07691491,-0.07691491,9.114416,-0.423032,0.19228727,9.422076,6559.8916;0.07691491,-0.07691491,9.114416,-0.5768618,0.15382981,8.845214,6559.8916;-1.9228727,-0.07691491,9.114416,-1.9228727,-0.6537767,9.460533,6576.6685;-1.9228727,-0.07691491,9.114416,-1.0768087,-0.23074472,9.229789,6576.6685;-0.46148944,-0.07691491,9.114416,-0.46148944,0.5768618,9.80665,6593.446;-0.46148944,-0.07691491,9.114416,-1.0768087,0.038457453,8.845214,6610.223;-0.46148944,-0.07691491,9.114416,-0.07691491,-0.53840435,9.037501,6610.223;-0.46148944,-0.07691491,9.114416,-0.26920217,-0.26920217,9.306704,6627.0005;-0.46148944,-0.07691491,9.114416,-0.38457453,0.15382981,8.999044,6627.0005;-0.46148944,-0.07691491,9.114416,-0.07691491,-0.19228727,8.345267,6643.7773;-0.46148944,-0.07691491,9.114416,0.15382981,-0.46148944,9.768193,6660.5547;-0.46148944,-0.07691491,9.114416,-1.1537236,-0.15382981,9.729735,6660.5547;-0.46148944,-0.07691491,9.114416,-1.2690959,-0.34611708,9.883566,6677.332;-0.46148944,-0.07691491,10.191225,-0.11537236,0.5768618,10.191225,6677.332;-0.46148944,-0.07691491,8.46064,-0.423032,0.07691491,8.46064,6694.1094;-2.0767026,-0.07691491,8.46064,-2.0767026,0.30765963,9.191331,6710.886;-0.46148944,-0.07691491,8.46064,-0.46148944,0.4999469,9.460533,6710.886;-0.46148944,-0.07691491,8.46064,-0.15382981,0.38457453,9.460533,6727.6636;-0.46148944,-0.07691491,8.46064,-0.53840435,-0.30765963,8.691384,6727.6636;-0.46148944,-0.07691491,9.575906,-0.34611708,0.038457453,9.575906,6744.441;-0.46148944,-0.07691491,10.998832,-0.69223416,0.8076065,10.998832,6761.2183;-0.46148944,-0.07691491,10.998832,0.15382981,0.15382981,11.383406,6761.2183;0.8845214,-0.07691491,10.998832,0.8845214,0.846064,10.3835125,6777.995;-0.9998938,-0.07691491,10.998832,-0.9998938,-0.38457453,10.229683,6777.995;0.07691491,-0.07691491,10.998832,0.07691491,0.26920217,10.306598,6794.7725;-1.3075534,-0.07691491,10.998832,-1.3075534,-0.07691491,10.191225,6811.55;-1.3075534,-0.07691491,9.422076,-0.34611708,0.30765963,9.422076,6811.55;-1.3075534,0.96143633,9.422076,-0.46148944,0.96143633,9.498991,6828.327;-1.3075534,0.96143633,9.422076,-1.2690959,0.11537236,9.152874,6828.327;-0.11537236,0.96143633,10.652715,-0.11537236,0.11537236,10.652715,6845.104;-0.11537236,-0.6537767,10.652715,0.38457453,-0.6537767,9.845108,6861.8813;-0.11537236,-0.6537767,8.729842,-0.423032,-0.11537236,8.729842,6861.8813;-0.11537236,0.8845214,8.729842,0.11537236,0.8845214,8.960587,6878.6587;-0.11537236,0.8845214,8.729842,-0.423032,0.26920217,8.768299,6878.6587;-0.11537236,0.8845214,10.845002,-0.46148944,0.11537236,10.845002,6895.4355;-0.11537236,-0.38457453,8.768299,-0.76914907,-0.38457453,8.768299,6912.213;-0.11537236,-0.38457453,10.26814,-0.69223416,-0.26920217,10.26814,6912.213;-1.2690959,-0.38457453,10.26814,-1.2690959,0.11537236,9.306704,6928.99;-1.2690959,-0.38457453,8.15298,-1.6536705,0.038457453,8.15298,6928.99;-0.15382981,1.1537236,8.15298,-0.15382981,1.1537236,9.075959,6945.7676;-0.15382981,1.1537236,8.15298,0.07691491,0.19228727,8.960587,6962.5444;-0.15382981,1.1537236,10.498885,0.34611708,0.46148944,10.498885,6979.322;-0.15382981,0.0,9.268247,-0.53840435,0.0,9.268247,6979.322;-0.15382981,0.0,10.691172,-1.0768087,-0.19228727,10.691172,6996.099;-0.15382981,0.0,10.691172,0.07691491,0.4999469,10.537342,7012.8765;-0.15382981,0.0,10.691172,-0.4999469,-0.19228727,10.152767,7012.8765;-0.15382981,0.0,9.422076,0.34611708,0.69223416,9.422076,7029.6533;-0.15382981,0.0,9.422076,-1.0768087,0.423032,8.652927,7029.6533;-0.15382981,1.0383513,9.422076,0.19228727,1.0383513,8.883672,7046.4307;-0.15382981,-0.038457453,9.422076,0.6537767,-0.038457453,8.61447,7046.4307;-0.15382981,-0.038457453,9.422076,-0.96143633,0.7306916,9.114416,7063.208;-0.15382981,1.2690959,9.422076,0.46148944,1.2690959,9.691278,7079.9854;-0.15382981,1.2690959,9.422076,-0.76914907,0.30765963,9.191331,7079.9854;-0.15382981,1.2690959,9.422076,0.15382981,0.30765963,10.0373955,7096.762;-0.15382981,-0.34611708,9.422076,0.23074472,-0.34611708,9.768193,7096.762;-0.15382981,0.8076065,9.422076,-0.038457453,0.8076065,9.922023,7113.5396;-0.15382981,-0.61531925,9.422076,-0.96143633,-0.61531925,9.229789,7130.317;-0.15382981,-0.61531925,9.422076,-0.96143633,0.19228727,9.883566,7130.317;-0.15382981,0.5768618,9.422076,-0.15382981,0.5768618,9.460533,7147.094;-0.15382981,-0.46148944,8.15298,-0.5768618,-0.46148944,8.15298,7147.094;-0.15382981,-0.46148944,9.883566,-0.96143633,0.038457453,9.883566,7163.871;0.96143633,-0.46148944,8.537555,0.96143633,0.11537236,8.537555,7180.6484;0.96143633,-0.46148944,9.614364,0.11537236,0.38457453,9.614364,7180.6484;-0.26920217,-0.46148944,9.614364,-0.26920217,0.26920217,9.652821,7197.426;-0.26920217,-0.46148944,9.614364,0.4999469,0.11537236,9.80665,7197.426;-0.26920217,-0.46148944,9.614364,-0.9998938,0.30765963,9.460533,7214.2026;-1.3844683,-0.46148944,9.614364,-1.3844683,-0.07691491,8.806757,7230.98;-1.3844683,-0.46148944,9.614364,-0.4999469,-0.4999469,8.883672,7230.98;-1.3844683,-0.46148944,8.576012,-0.6537767,0.26920217,8.576012,7247.7573;-1.3844683,-0.46148944,8.576012,-0.6537767,0.038457453,8.999044,7247.7573;-1.3844683,-0.46148944,8.576012,-1.4998407,0.11537236,8.30681,7264.5347;0.38457453,-0.46148944,10.498885,0.38457453,-0.6537767,10.498885,7281.3115;0.38457453,-0.46148944,9.383618,0.0,0.15382981,9.383618,7281.3115;-0.8845214,-0.46148944,9.383618,-0.8845214,-0.038457453,9.460533,7298.089;-0.8845214,0.69223416,9.383618,-0.11537236,0.69223416,9.922023,7298.089;-0.8845214,0.69223416,9.383618,-1.4998407,-0.26920217,9.652821,7314.866;0.9998938,0.69223416,9.383618,0.9998938,-0.19228727,10.26814,7331.6436;-0.15382981,0.69223416,9.383618,-0.15382981,0.46148944,9.729735,7331.6436;-0.15382981,0.69223416,9.383618,-0.19228727,0.19228727,10.075852,7348.4204;-0.15382981,0.69223416,9.383618,-0.61531925,0.19228727,8.499097,7348.4204;-0.15382981,0.69223416,9.383618,-0.30765963,0.423032,9.498991,7365.1978;-0.15382981,0.69223416,9.383618,0.19228727,0.11537236,8.46064,7381.975;-0.15382981,0.69223416,9.383618,0.26920217,0.423032,9.460533,7381.975;-0.15382981,-0.34611708,9.383618,-0.23074472,-0.34611708,9.306704,7398.7524;-0.15382981,-0.34611708,11.460321,0.11537236,-0.15382981,11.460321,7398.7524;-0.15382981,-0.34611708,9.883566,-0.30765963,0.61531925,9.883566,7415.5293;-0.15382981,-0.34611708,8.768299,-0.11537236,-0.038457453,8.768299,7432.3066;-0.15382981,-0.34611708,8.768299,-0.46148944,0.07691491,7.806863,7432.3066;-1.6536705,-0.34611708,8.768299,-1.6536705,-0.15382981,9.229789,7449.084;-1.6536705,0.96143633,8.768299,-0.9998938,0.96143633,9.383618,7449.084;-1.6536705,0.96143633,10.691172,-0.69223416,0.7306916,10.691172,7465.8613;-1.6536705,0.96143633,8.999044,-1.1537236,0.0,8.999044,7465.8613;-1.6536705,0.96143633,8.999044,-0.8076065,0.19228727,9.345161,7482.638;-1.6536705,0.96143633,8.999044,-0.9998938,0.15382981,8.345267,7499.4155;0.34611708,0.96143633,8.999044,0.34611708,0.5768618,8.806757,7499.4155;0.34611708,-0.46148944,8.999044,-0.4999469,-0.46148944,9.614364,7516.193;0.34611708,-0.46148944,8.999044,-0.038457453,-0.46148944,9.229789,7516.193;0.34611708,-0.46148944,8.999044,-0.07691491,-0.11537236,9.575906,7532.97;0.34611708,-0.46148944,8.999044,-0.6537767,-0.11537236,8.922129,7549.747;-0.8845214,-0.46148944,10.498885,-0.8845214,-0.26920217,10.498885,7549.747;-0.8845214,-0.46148944,8.576012,-0.96143633,-0.423032,8.576012,7566.5244;-0.8845214,1.0768087,8.576012,-1.4998407,1.0768087,8.999044,7566.5244;-0.8845214,1.0768087,8.576012,-0.8845214,0.61531925,9.037501,7583.302;-0.8845214,1.0768087,8.576012,-0.23074472,0.46148944,9.383618,7600.0786;-0.8845214,-0.23074472,8.576012,-0.11537236,-0.23074472,9.306704,7600.0786;-0.8845214,-0.23074472,8.576012,-0.4999469,0.61531925,8.845214,7616.856;-0.8845214,-0.23074472,10.883459,-0.46148944,0.6537767,10.883459,7616.856;-0.8845214,0.96143633,9.845108,-0.6537767,0.96143633,9.845108,7633.6333;-0.8845214,0.96143633,9.845108,-0.8845214,-0.038457453,9.422076,7650.4106;-0.8845214,0.96143633,9.845108,-0.9998938,0.38457453,10.26814,7650.4106;-0.8845214,-0.23074472,9.845108,-0.5768618,-0.23074472,9.422076,7667.1875;-0.8845214,-0.23074472,8.2683525,-0.69223416,0.423032,8.2683525,7667.1875;-0.8845214,-0.23074472,8.2683525,-1.1537236,0.46148944,9.114416,7683.965;-0.8845214,-0.23074472,9.422076,-0.7306916,-0.15382981,9.422076,7700.742;0.19228727,-0.23074472,9.422076,0.19228727,0.26920217,10.191225,7700.742;0.19228727,-0.23074472,9.422076,-0.423032,0.23074472,10.11431,7717.5195;-0.8845214,-0.23074472,9.422076,-0.8845214,-0.23074472,9.114416,7717.5195;-0.8845214,-0.23074472,9.422076,0.0,-0.19228727,9.80665,7734.2964;-0.8845214,-0.23074472,9.422076,-1.1921811,-0.46148944,9.575906,7751.0737;-0.8845214,-0.23074472,9.422076,-0.11537236,0.0,9.80665,7751.0737;-0.8845214,-0.23074472,9.422076,-0.53840435,0.0,8.806757,7767.851;-0.8845214,-0.23074472,9.422076,-0.26920217,0.46148944,8.845214,7767.851;-0.8845214,-0.23074472,9.422076,-0.11537236,0.5768618,9.152874,7784.6284;-0.8845214,-0.23074472,8.30681,-0.46148944,0.423032,8.30681,7801.4053;-0.8845214,-0.23074472,8.30681,-0.9998938,-0.07691491,9.229789,7801.4053;-0.8845214,0.846064,8.30681,-0.19228727,0.846064,8.960587,7818.1826;-0.8845214,0.846064,9.614364,-0.15382981,0.30765963,9.614364,7818.1826;-0.8845214,-0.26920217,9.614364,-0.9998938,-0.26920217,10.191225,7834.96;0.26920217,-0.26920217,9.614364,0.26920217,-0.038457453,9.652821,7851.7373;-0.9229789,-0.26920217,9.614364,-0.9229789,-0.19228727,8.999044,7851.7373;-0.9229789,-0.26920217,9.614364,-0.8076065,0.4999469,10.306598,7868.514;-0.9229789,-0.26920217,9.614364,-1.6536705,0.5768618,10.537342,7868.514;-0.9229789,-0.26920217,9.614364,-0.61531925,0.19228727,8.691384,7885.2915;-0.9229789,-0.26920217,9.614364,-0.30765963,0.0,9.614364,7902.069;-0.9229789,-0.26920217,8.30681,-0.4999469,0.34611708,8.30681,7902.069;0.23074472,1.0383513,9.768193,0.23074472,1.0383513,9.768193,7918.846;0.23074472,1.0383513,9.768193,0.38457453,0.61531925,9.575906,7918.846;-1.0383513,1.0383513,9.768193,-1.0383513,0.038457453,9.652821,7935.623;0.8845214,1.0383513,8.691384,0.8845214,0.19228727,8.691384,7952.4004;-0.8076065,1.0383513,10.691172,-0.8076065,0.30765963,10.691172,7952.4004;-0.8076065,-0.15382981,10.691172,-0.34611708,-0.15382981,10.3835125,7969.1777;-0.8076065,-0.15382981,9.152874,-0.46148944,0.07691491,9.152874,7969.1777;-0.8076065,-0.15382981,9.152874,0.11537236,0.26920217,9.575906,7985.9546;-0.8076065,-0.15382981,9.152874,-0.846064,0.11537236,9.652821,7985.9546;-0.8076065,-0.15382981,7.9222355,-0.846064,0.423032,7.9222355,8002.732;-0.8076065,-0.15382981,9.575906,-0.038457453,0.30765963,9.575906,8019.5093;-0.8076065,-0.15382981,9.575906,-0.8076065,0.11537236,9.498991,8019.5093;-0.8076065,-0.15382981,9.575906,0.038457453,0.846064,10.191225,8036.2866;-0.8076065,-0.15382981,10.7296295,-1.4229257,-0.46148944,10.7296295,8036.2866;-0.8076065,-0.15382981,9.306704,-0.30765963,-0.8076065,9.306704,8053.0635;-0.8076065,-0.15382981,10.5758,-0.46148944,-0.423032,10.5758,8069.841;-0.8076065,-0.15382981,8.999044,-0.9998938,0.6537767,8.999044,8069.841;0.26920217,-0.15382981,8.999044,0.26920217,0.46148944,9.460533,8086.618;0.26920217,-0.15382981,8.999044,-0.38457453,-0.46148944,8.845214,8086.618;0.26920217,-0.15382981,8.999044,-0.69223416,0.23074472,9.80665,8103.3955;0.26920217,-0.15382981,8.999044,-0.11537236,0.30765963,9.152874,8120.1724;0.26920217,-0.15382981,8.999044,-0.38457453,0.26920217,9.306704,8120.1724;0.26920217,-0.15382981,8.999044,-0.46148944,0.38457453,8.345267,8136.9497;0.26920217,-0.15382981,11.575693,0.53840435,-0.7306916,11.575693,8136.9497;0.26920217,-0.15382981,9.998938,-0.26920217,-0.07691491,9.998938,8153.727;0.26920217,-0.15382981,9.998938,-0.5768618,0.61531925,9.652821,8170.5044;0.26920217,-0.15382981,9.998938,0.038457453,-0.53840435,9.268247,8170.5044;0.26920217,-0.15382981,9.998938,-0.423032,0.846064,9.614364,8187.2813;0.26920217,-0.15382981,9.998938,-0.61531925,0.07691491,10.229683,8187.2813;-1.4229257,-0.15382981,9.998938,-1.4229257,-0.26920217,9.152874,8204.059;-0.038457453,-0.15382981,9.998938,-0.038457453,0.6537767,10.26814,8220.836;-0.038457453,0.8845214,9.998938,-0.038457453,0.8845214,9.498991,8220.836;-0.038457453,0.8845214,9.998938,-0.11537236,0.61531925,9.80665,8237.613;-0.038457453,0.8845214,9.998938,0.7306916,0.11537236,10.191225,8237.613;-0.038457453,0.8845214,9.998938,0.15382981,0.15382981,9.306704,8254.391;-0.038457453,0.8845214,9.998938,-0.6537767,0.0,10.11431,8271.168;-0.038457453,0.8845214,9.998938,0.30765963,0.76914907,10.229683,8271.168;-0.038457453,-0.69223416,9.998938,-0.6537767,-0.69223416,10.652715,8287.944;-0.038457453,0.34611708,9.998938,-0.9998938,0.34611708,9.729735,8287.944;-0.038457453,0.34611708,9.998938,-1.0383513,0.038457453,9.460533,8304.722;-0.038457453,0.34611708,8.383725,-0.9998938,0.34611708,8.383725,8321.499;-0.038457453,0.34611708,8.383725,-0.07691491,0.9998938,8.883672,8321.499;-0.038457453,0.34611708,9.652821,-0.038457453,-0.23074472,9.652821,8338.276;-0.038457453,0.34611708,9.652821,-0.07691491,-0.30765963,8.806757,8338.276;-0.038457453,0.34611708,8.61447,-0.30765963,0.38457453,8.61447,8355.054;-0.038457453,0.34611708,8.61447,-0.423032,-0.07691491,9.268247,8371.831;-0.038457453,0.34611708,8.61447,-0.30765963,-0.15382981,9.345161,8371.831;-0.038457453,0.34611708,10.0373955,-0.69223416,-0.23074472,10.0373955,8388.608;-0.038457453,0.34611708,8.15298,-0.11537236,0.07691491,8.15298,8388.608;-0.038457453,0.34611708,9.268247,-0.4999469,0.07691491,9.268247,8405.385;-0.038457453,0.34611708,9.268247,-0.8845214,-0.53840435,8.768299,8422.162;-0.038457453,0.34611708,9.268247,-0.38457453,-0.38457453,9.383618,8422.162;-0.038457453,0.34611708,9.268247,-0.46148944,-0.07691491,8.576012,8438.939;-0.038457453,0.34611708,9.268247,0.15382981,0.30765963,9.114416,8438.939;-0.038457453,-1.3075534,9.268247,-1.0383513,-1.3075534,9.729735,8455.717;-0.038457453,-0.23074472,9.268247,0.5768618,-0.23074472,9.80665,8455.717;-0.038457453,-0.23074472,9.268247,0.4999469,-0.11537236,9.883566,8472.494;-0.038457453,-0.23074472,9.268247,-0.11537236,0.34611708,9.229789,8489.271;-0.038457453,-0.23074472,9.268247,-0.26920217,0.423032,9.306704,8489.271;-0.038457453,-0.23074472,9.268247,-0.53840435,0.26920217,8.768299,8506.049;-2.1920748,-0.23074472,10.345055,-2.1920748,-0.423032,10.345055,8522.826;-0.8845214,-0.23074472,9.306704,-0.8845214,0.07691491,9.306704,8522.826;-0.8845214,-0.23074472,9.306704,-0.26920217,0.38457453,9.614364,8539.603;-0.8845214,-0.23074472,7.6530333,-0.8076065,-0.6537767,7.6530333,8539.603;-0.8845214,-0.23074472,9.998938,-0.53840435,0.61531925,9.998938,8556.38;-0.8845214,-0.23074472,9.998938,0.11537236,-0.4999469,9.922023,8556.38;0.423032,-0.23074472,9.998938,0.423032,0.11537236,10.7296295,8573.157;-1.1537236,-0.23074472,8.960587,-1.1537236,-0.76914907,8.960587,8589.935;-1.1537236,-0.23074472,8.960587,-0.9998938,-0.423032,8.999044,8589.935;-1.1537236,-0.23074472,10.806544,-0.15382981,0.46148944,10.806544,8606.712;-1.1537236,-0.23074472,9.345161,-1.4613832,-0.038457453,9.345161,8606.712;0.15382981,-0.23074472,9.345161,0.15382981,0.46148944,8.422182,8623.489;0.15382981,-0.23074472,9.345161,-0.5768618,0.26920217,8.652927,8640.267;-1.3460109,-0.23074472,9.345161,-1.3460109,0.19228727,9.998938,8640.267;0.423032,-0.23074472,9.345161,0.423032,0.34611708,8.652927,8657.043;0.423032,-0.23074472,8.2683525,-0.11537236,0.30765963,8.2683525,8657.043;-0.8845214,-0.23074472,10.3835125,-0.8845214,-0.423032,10.3835125,8673.82;-0.8845214,1.0383513,10.3835125,-0.9229789,1.0383513,9.80665,8690.598;-0.8845214,-0.30765963,9.345161,-0.07691491,-0.30765963,9.345161,8690.598;-0.8845214,-0.30765963,9.345161,-0.46148944,-0.34611708,9.075959,8707.375;-0.8845214,-0.30765963,7.114629,0.0,0.26920217,7.114629,8707.375;-0.8845214,-0.30765963,9.114416,-1.3460109,0.30765963,9.114416,8724.152;-0.8845214,-0.30765963,9.114416,-0.8845214,0.34611708,8.229895,8740.93;-0.8845214,-0.30765963,9.114416,-1.3844683,0.0,9.80665,8740.93;0.4999469,-0.30765963,9.114416,0.4999469,0.5768618,8.768299,8757.707;-0.53840435,-0.30765963,9.114416,-0.53840435,0.34611708,9.691278,8757.707;-0.53840435,1.3844683,9.114416,-0.07691491,1.3844683,9.114416,8774.484;-0.53840435,-0.30765963,9.114416,-0.11537236,-0.30765963,9.345161,8791.261;-0.53840435,-0.30765963,9.114416,-0.46148944,-0.423032,9.922023,8791.261;-0.53840435,-0.30765963,9.114416,-0.61531925,-0.038457453,9.768193,8808.038;-0.53840435,-0.30765963,10.191225,-0.30765963,-0.15382981,10.191225,8808.038;-0.53840435,-0.30765963,10.191225,-0.7306916,0.19228727,9.614364,8824.815;-0.53840435,-0.30765963,10.191225,-0.53840435,-0.11537236,9.345161,8841.593;-0.53840435,-0.30765963,10.191225,-1.0768087,-0.038457453,9.575906,8841.593;-0.53840435,-0.30765963,10.191225,-0.8076065,-0.23074472,9.883566,8858.37;-0.53840435,0.846064,8.999044,-0.423032,0.846064,8.999044,8858.37;-0.53840435,0.846064,8.999044,0.23074472,0.26920217,8.114523,8875.147;-0.53840435,0.846064,8.999044,0.038457453,0.53840435,9.845108,8891.925;-0.53840435,0.846064,10.229683,-1.1537236,-0.11537236,10.229683,8891.925;-0.53840435,-0.423032,8.845214,-0.7306916,-0.423032,8.845214,8908.702;-0.53840435,-0.423032,8.845214,-0.7306916,-0.34611708,8.191438,8908.702;-0.53840435,-0.423032,8.845214,-0.5768618,-0.30765963,9.80665,8925.479;-0.53840435,-0.423032,8.845214,-1.3460109,0.53840435,9.345161,8942.256;-0.53840435,-0.423032,8.845214,-1.3460109,0.038457453,8.46064,8942.256;-0.53840435,0.6537767,8.845214,-0.07691491,0.6537767,9.037501,8959.033;-0.53840435,0.6537767,8.845214,-0.46148944,-0.23074472,8.845214,8959.033;0.5768618,-0.6537767,8.845214,0.5768618,-0.6537767,9.037501,8975.811;0.5768618,-0.6537767,8.845214,0.0,0.0,9.729735,8975.811;0.5768618,-0.6537767,10.460427,-0.11537236,0.07691491,10.460427,8992.588;-0.76914907,-0.6537767,10.460427,-0.76914907,-0.15382981,9.768193,9009.365;0.38457453,-0.6537767,10.460427,0.38457453,0.23074472,9.922023,9009.365;0.38457453,-0.6537767,9.306704,-0.423032,-0.038457453,9.306704,9026.143;0.38457453,-0.6537767,9.306704,-0.53840435,0.15382981,8.729842,9026.143;0.38457453,-0.6537767,9.306704,-0.46148944,0.038457453,8.46064,9042.919;0.38457453,0.846064,9.306704,0.15382981,0.846064,8.922129,9059.696;0.38457453,0.846064,9.306704,1.1152661,0.61531925,9.498991,9059.696;-1.1152661,0.846064,9.306704,-1.1152661,-0.07691491,8.922129,9076.474;-1.1152661,0.846064,9.306704,-0.61531925,0.0,9.845108,9076.474;-1.1152661,0.846064,9.306704,-0.61531925,0.38457453,9.883566,9093.251;-1.1152661,0.846064,10.845002,-0.53840435,0.8845214,10.845002,9110.028;-1.1152661,0.846064,10.845002,-1.8075004,-0.11537236,10.768087,9110.028;-1.1152661,0.846064,9.729735,-0.34611708,0.30765963,9.729735,9126.806;-1.1152661,-0.23074472,10.883459,-1.0383513,-0.23074472,10.883459,9126.806;-1.1152661,-0.23074472,8.960587,-0.4999469,0.6537767,8.960587,9143.583;-1.1152661,-0.23074472,8.960587,-0.26920217,-0.19228727,9.306704,9160.36;-1.1152661,-0.23074472,8.960587,-0.8845214,-0.19228727,8.768299,9160.36;-1.1152661,-0.23074472,10.306598,-0.46148944,-0.19228727,10.306598,9177.137;0.07691491,1.4998407,10.306598,0.07691491,1.4998407,9.691278,9177.137;0.07691491,-0.19228727,10.306598,-0.26920217,-0.19228727,9.460533,9193.914;0.07691491,-0.19228727,10.306598,-0.23074472,-0.15382981,9.845108,9210.691;0.07691491,-0.19228727,8.345267,0.38457453,0.69223416,8.345267,9210.691;0.07691491,-0.19228727,9.575906,-0.69223416,0.0,9.575906,9227.469;0.07691491,-0.19228727,9.575906,-0.76914907,0.11537236,9.383618,9227.469;0.07691491,-0.19228727,9.575906,-0.6537767,-0.15382981,9.075959,9244.246;0.07691491,0.846064,9.575906,-0.7306916,0.846064,10.229683,9261.023;0.07691491,0.846064,9.575906,0.07691491,0.11537236,9.498991,9261.023;0.07691491,0.846064,8.499097,-0.26920217,0.38457453,8.499097,9277.801;0.07691491,0.846064,8.499097,-0.15382981,-0.11537236,8.999044,9277.801;0.07691491,0.846064,9.998938,0.07691491,0.61531925,9.998938,9294.578;0.07691491,0.846064,9.998938,-0.53840435,0.11537236,9.306704,9311.3545;0.07691491,0.846064,9.998938,0.19228727,0.038457453,9.729735,9311.3545;0.07691491,0.846064,9.998938,-0.69223416,0.423032,9.460533,9328.132;0.07691491,-0.423032,9.998938,-0.11537236,-0.423032,9.614364,9328.132;0.07691491,-0.423032,9.998938,0.11537236,0.07691491,10.191225,9344.909;0.07691491,-0.423032,9.998938,-0.76914907,-0.07691491,9.383618,9361.687;0.07691491,-0.423032,9.998938,0.26920217,0.07691491,9.460533,9361.687;0.07691491,-0.423032,9.998938,-0.23074472,0.53840435,9.498991,9378.464;0.07691491,-0.423032,9.998938,-0.30765963,0.0,9.037501,9378.464;0.07691491,-0.423032,8.845214,-0.15382981,-0.11537236,8.845214,9395.241;0.07691491,-0.423032,10.11431,-0.5768618,0.15382981,10.11431,9412.019;0.07691491,-0.423032,10.11431,-0.30765963,0.19228727,9.268247,9412.019;0.07691491,-0.423032,10.11431,-0.26920217,0.07691491,9.229789,9428.795;0.07691491,-0.423032,10.11431,-0.6537767,0.23074472,9.652821,9428.795;0.07691491,-0.423032,10.11431,-0.15382981,0.5768618,10.11431,9445.572;0.07691491,-0.423032,10.11431,-0.38457453,0.23074472,9.152874,9462.35;0.07691491,-0.423032,7.729948,-0.61531925,0.5768618,7.729948,9462.35;0.07691491,0.61531925,11.306491,-0.34611708,0.61531925,11.306491,9479.127;0.07691491,-0.61531925,9.383618,-0.9229789,-0.61531925,9.383618,9479.127;0.07691491,-0.61531925,9.383618,-0.26920217,0.30765963,8.922129,9495.904;-1.0768087,-0.61531925,9.383618,-1.0768087,0.15382981,9.037501,9495.904;0.23074472,-0.61531925,9.383618,0.23074472,-0.038457453,8.960587,9512.682;0.23074472,-0.61531925,10.883459,-0.4999469,-0.61531925,10.883459,9529.459;0.23074472,-0.61531925,9.114416,0.07691491,-0.423032,9.114416,9529.459;0.23074472,-0.61531925,10.691172,0.0,0.23074472,10.691172,9546.236;0.23074472,-0.61531925,9.075959,-0.76914907,-0.038457453,9.075959,9563.013;-1.2690959,-0.61531925,9.075959,-1.2690959,-1.0383513,8.768299,9563.013;-1.2690959,-0.61531925,9.075959,-1.4613832,-0.423032,8.2683525,9579.79;-1.2690959,-0.61531925,10.306598,-0.6537767,-0.038457453,10.306598,9579.79;-1.2690959,0.4999469,10.306598,-0.5768618,0.4999469,9.460533,9596.567;-1.2690959,0.4999469,8.46064,-0.76914907,-0.038457453,8.46064,9596.567;-1.2690959,0.4999469,8.46064,-0.46148944,0.07691491,9.152874,9613.345;-1.2690959,0.4999469,9.922023,-0.26920217,0.38457453,9.922023,9630.122;0.038457453,0.4999469,9.922023,0.038457453,0.30765963,10.11431,9630.122;0.038457453,0.4999469,9.922023,-0.26920217,0.0,9.075959,9646.899;-1.0383513,-0.76914907,9.922023,-1.0383513,-0.76914907,10.5758,9646.899;-1.0383513,-0.76914907,9.922023,-1.1921811,0.23074472,9.768193,9663.677;-1.0383513,0.96143633,9.922023,-1.1152661,0.96143633,9.422076,9680.454;-1.0383513,0.96143633,7.6530333,-0.11537236,0.61531925,7.6530333,9680.454;-1.0383513,0.96143633,9.729735,-0.15382981,0.4999469,9.729735,9697.23;-1.0383513,0.96143633,8.652927,-0.19228727,0.11537236,8.652927,9697.23;-1.0383513,0.96143633,8.652927,-1.2306385,0.423032,9.575906,9714.008;0.0,-0.19228727,8.652927,0.0,-0.19228727,9.037501,9730.785;0.0,-0.19228727,8.652927,-0.26920217,0.038457453,8.652927,9730.785;0.0,-0.19228727,9.691278,-0.26920217,0.038457453,9.691278,9747.5625;0.0,-0.19228727,9.691278,-0.76914907,-0.15382981,9.883566,9747.5625;0.0,-0.19228727,9.691278,-0.30765963,0.69223416,10.11431,9764.34;0.0,-0.19228727,8.499097,-0.61531925,-0.38457453,8.499097,9781.117;0.0,-0.19228727,7.460746,-0.15382981,0.69223416,7.460746,9781.117;0.0,-0.19228727,8.922129,-0.76914907,0.4999469,8.922129,9797.895;0.0,-0.19228727,8.922129,-0.7306916,0.26920217,8.46064,9797.895;0.0,-0.19228727,8.922129,-0.76914907,-0.30765963,8.30681,9814.671;0.0,-0.19228727,8.922129,-0.19228727,0.15382981,9.768193,9831.448;0.0,-0.19228727,8.922129,0.07691491,0.0,8.999044,9831.448;0.0,-0.19228727,8.922129,-0.19228727,0.07691491,9.306704,9848.226;0.0,-0.19228727,8.922129,0.11537236,0.0,9.191331,9848.226;0.0,-0.19228727,10.306598,-0.11537236,0.0,10.306598,9865.003;0.0,-0.19228727,10.306598,-0.30765963,0.34611708,9.537449,9881.78;0.0,-0.19228727,10.306598,-0.76914907,0.038457453,9.998938,9881.78;0.0,-0.19228727,10.306598,-0.53840435,0.07691491,9.345161,9898.558;0.0,-0.19228727,10.306598,-0.7306916,-0.30765963,9.383618,9898.558;-1.0768087,-0.19228727,10.306598,-1.0768087,0.423032,9.498991,9915.335;-1.0768087,-0.19228727,9.075959,-0.4999469,-0.11537236,9.075959,9932.112;1.1921811,-0.19228727,9.075959,1.1921811,0.26920217,9.80665,9932.112;-0.846064,-0.19228727,9.075959,-0.846064,0.26920217,9.268247,9948.889;-0.846064,-0.19228727,9.075959,0.0,0.53840435,8.845214,9948.889;-0.846064,-0.19228727,10.5758,-0.38457453,0.30765963,10.5758,9965.666;-0.846064,-0.19228727,10.5758,-0.61531925,0.15382981,10.614257,9965.666;-0.846064,-0.19228727,8.806757,-1.7305853,0.26920217,8.806757,9982.443;-0.846064,-0.19228727,8.806757,0.07691491,0.23074472,9.345161,9999.221;-0.846064,-0.19228727,8.806757,-1.0383513,0.423032,9.80665,9999.221;-0.846064,-0.19228727,8.806757,-1.0383513,-0.15382981,8.768299,10015.998;-0.846064,1.1152661,8.806757,-0.53840435,1.1152661,9.575906,10015.998;0.423032,1.1152661,10.652715,0.423032,0.34611708,10.652715,10032.775;0.423032,-0.11537236,10.652715,0.26920217,-0.11537236,10.229683,10049.553;-0.61531925,-0.11537236,9.460533,-0.61531925,0.5768618,9.460533,10049.553;-0.61531925,-0.11537236,9.460533,-0.30765963,0.0,10.075852,10066.33;-0.61531925,-0.11537236,9.460533,-0.76914907,-0.34611708,10.229683,10066.33;-0.61531925,-0.11537236,10.691172,-0.038457453,0.5768618,10.691172,10083.106;-0.61531925,-0.11537236,10.691172,-0.53840435,0.23074472,10.191225,10099.884;-0.61531925,1.1537236,8.2683525,-0.46148944,1.1537236,8.2683525,10099.884;-0.61531925,1.1537236,8.2683525,-1.2690959,0.15382981,8.691384,10116.661;-0.61531925,1.1537236,8.2683525,-0.26920217,0.34611708,8.537555,10116.661;-0.61531925,0.0,10.075852,-0.5768618,0.0,10.075852,10133.438;-0.61531925,0.0,8.191438,-0.15382981,-0.07691491,8.191438,10150.216;0.61531925,0.0,8.191438,0.61531925,0.07691491,8.422182,10150.216;0.61531925,0.0,8.191438,-0.11537236,0.07691491,9.075959,10166.993;0.61531925,0.0,9.691278,0.34611708,0.7306916,9.691278,10166.993;-0.69223416,0.0,9.691278,-0.69223416,-0.30765963,9.998938,10183.7705;-0.69223416,0.0,9.691278,-0.7306916,0.19228727,9.345161,10200.547;-0.69223416,0.0,9.691278,-0.61531925,-0.23074472,10.0373955,10200.547;-0.69223416,0.0,9.691278,-0.61531925,0.11537236,8.845214,10217.324;-0.69223416,0.0,9.691278,-0.30765963,0.38457453,9.998938,10217.324;-0.69223416,0.0,9.691278,0.0,-0.23074472,9.114416,10234.102;-0.69223416,0.0,9.691278,0.19228727,0.61531925,9.922023,10250.879;-0.69223416,0.0,9.691278,0.26920217,0.23074472,10.191225,10250.879;0.9998938,0.0,9.691278,0.9998938,-0.038457453,9.383618,10267.656;0.9998938,0.0,9.691278,0.26920217,-0.38457453,10.11431,10267.656;0.9998938,0.0,9.691278,0.23074472,-0.038457453,10.191225,10284.434;-0.07691491,0.0,9.691278,-0.07691491,-0.26920217,9.575906,10301.211;-0.07691491,0.0,9.691278,-0.69223416,0.23074472,8.922129,10301.211;-0.07691491,0.0,8.422182,-0.5768618,0.53840435,8.422182,10317.988;-0.07691491,0.0,8.422182,-0.15382981,0.846064,9.152874,10317.988;-0.07691491,0.0,8.422182,-0.46148944,0.4999469,8.729842,10334.765;-0.07691491,0.0,8.422182,-0.19228727,0.6537767,9.114416,10351.542;-1.1152661,0.0,10.345055,-1.1152661,-0.34611708,10.345055,10351.542;-1.1152661,0.0,10.345055,-0.846064,0.15382981,9.960481,10368.319;0.11537236,0.0,10.345055,0.11537236,0.23074472,10.075852,10368.319;0.11537236,0.0,10.345055,-0.23074472,-0.5768618,10.152767,10385.097;-1.6536705,0.0,10.345055,-1.6536705,-0.30765963,9.614364,10401.874;0.11537236,0.0,10.345055,0.11537236,-0.30765963,9.729735,10401.874;0.11537236,0.0,10.345055,0.15382981,-0.038457453,9.998938,10418.651;0.11537236,0.0,9.037501,0.53840435,0.0,9.037501,10418.651;0.11537236,0.0,9.037501,-0.6537767,0.038457453,8.61447,10435.429;0.11537236,0.0,9.037501,-0.23074472,-0.11537236,9.075959,10452.206;0.11537236,0.0,9.037501,0.38457453,0.26920217,9.922023,10452.206;0.11537236,0.0,9.037501,-0.11537236,0.19228727,9.960481,10468.982;0.11537236,0.0,9.037501,-0.11537236,0.07691491,9.345161,10468.982;0.11537236,0.0,10.075852,-0.11537236,0.07691491,10.075852,10485.76;0.11537236,0.0,10.075852,0.19228727,0.46148944,9.768193,10485.76;0.11537236,0.0,9.037501,-0.423032,0.76914907,9.037501,10502.537;-1.4229257,0.0,9.037501,-1.4229257,0.11537236,8.15298,10519.314;-1.4229257,0.0,9.037501,-1.0383513,-0.23074472,9.537449,10519.314;-1.4229257,1.0383513,9.037501,-1.1921811,1.0383513,8.999044,10536.092;-1.4229257,1.0383513,9.037501,-0.46148944,0.846064,8.845214,10536.092;-1.4229257,-0.11537236,10.498885,-1.1921811,-0.11537236,10.498885,10552.869;-0.30765963,-0.11537236,9.460533,-0.30765963,-0.15382981,9.460533,10569.646;-0.30765963,-0.11537236,9.460533,0.15382981,0.11537236,9.960481,10569.646;-0.30765963,-0.11537236,9.460533,-0.5768618,0.0,9.768193,10586.423;-0.30765963,-0.11537236,9.460533,-0.15382981,0.4999469,8.537555,10586.423;-0.30765963,-0.11537236,9.460533,-0.96143633,0.0,9.652821,10603.2;-0.30765963,-0.11537236,11.344949,-0.46148944,-0.38457453,11.344949,10619.978;-0.30765963,-0.11537236,9.152874,0.30765963,0.19228727,9.152874,10619.978;-0.30765963,-0.11537236,9.152874,-0.4999469,-0.11537236,9.306704,10636.755;-0.30765963,-0.11537236,9.152874,-1.1152661,-0.038457453,9.075959,10636.755;-0.30765963,-0.11537236,9.152874,0.19228727,0.76914907,9.575906,10653.532;-0.30765963,-0.11537236,9.152874,-0.11537236,-0.30765963,8.422182,10670.31;-0.30765963,-0.11537236,9.152874,-0.15382981,0.69223416,9.075959,10670.31;-0.30765963,-0.11537236,9.152874,0.19228727,0.0,9.845108,10687.087;-0.30765963,-0.11537236,9.152874,-0.4999469,-0.11537236,8.845214,10687.087;-0.30765963,-0.11537236,9.152874,-0.53840435,0.26920217,9.883566,10703.864;-0.30765963,-0.11537236,9.152874,-1.1921811,0.0,8.383725,10720.641;-0.30765963,-0.11537236,9.152874,-0.7306916,0.0,9.498991,10720.641;-0.30765963,-0.11537236,10.421969,-0.46148944,0.34611708,10.421969,10737.418;-0.30765963,1.0768087,7.883778,-0.6537767,1.0768087,7.883778,10737.418;-0.30765963,1.0768087,7.883778,-0.61531925,0.07691491,8.15298,10754.195;-0.30765963,-0.07691491,9.229789,-1.0383513,-0.07691491,9.229789,10770.973;-0.30765963,-0.07691491,9.229789,0.07691491,0.30765963,9.383618,10770.973;-0.30765963,-0.07691491,9.229789,0.0,0.61531925,9.883566,10787.75;-0.30765963,-0.07691491,9.229789,-0.53840435,-0.6537767,9.883566,10787.75;-0.30765963,-0.07691491,10.26814,-1.1152661,0.11537236,10.26814,10804.527;-0.30765963,-0.07691491,10.26814,0.6537767,0.26920217,9.422076,10821.305;-0.30765963,-0.07691491,10.26814,-0.6537767,-0.07691491,10.0373955,10821.305;-0.30765963,-0.07691491,8.652927,0.53840435,-0.46148944,8.652927,10838.081;-0.30765963,-0.07691491,8.652927,-0.61531925,-0.11537236,8.768299,10838.081;-0.30765963,-0.07691491,8.652927,0.38457453,0.69223416,8.037608,10854.858;-0.30765963,-0.07691491,8.652927,-0.38457453,0.15382981,9.537449,10871.636;-0.30765963,-0.07691491,8.652927,-0.46148944,0.61531925,8.729842,10871.636;-0.30765963,-0.07691491,9.691278,-0.6537767,-0.11537236,9.691278,10888.413;-0.30765963,-0.07691491,9.691278,-0.53840435,0.0,9.883566,10888.413;-0.30765963,-0.07691491,11.114204,-0.96143633,0.07691491,11.114204,10905.19;-0.30765963,-0.07691491,9.498991,-0.38457453,0.23074472,9.498991,10921.968;-0.30765963,-0.07691491,9.498991,-1.1537236,0.038457453,9.422076,10921.968;-0.30765963,-0.07691491,9.498991,-1.1152661,0.30765963,9.883566,10938.745;-0.30765963,-0.07691491,9.498991,-1.1152661,0.11537236,9.537449,10938.745;-0.30765963,-0.07691491,9.498991,-0.423032,-0.23074472,9.114416,10955.522;-0.30765963,-0.07691491,9.498991,-0.6537767,0.07691491,9.537449,10972.299;-0.30765963,-0.07691491,9.498991,-0.53840435,0.30765963,9.114416,10972.299;-0.30765963,-0.07691491,9.498991,-0.15382981,0.4999469,8.652927,10989.076;-0.30765963,-0.07691491,9.498991,0.26920217,0.26920217,8.960587,10989.076;-0.30765963,-0.07691491,9.498991,0.07691491,0.30765963,10.152767,11005.854;-0.30765963,-0.07691491,9.498991,0.38457453,0.038457453,8.999044,11005.854;-0.30765963,-0.07691491,9.498991,-0.69223416,-0.34611708,9.191331,11022.631;-0.30765963,-0.07691491,9.498991,-0.53840435,-0.26920217,8.691384,11039.408;-0.30765963,-0.07691491,9.498991,-0.846064,-0.30765963,8.729842,11039.408;-2.3843622,-0.07691491,9.498991,-2.3843622,-0.23074472,8.922129,11056.186;-0.19228727,-0.07691491,9.498991,-0.19228727,-0.11537236,8.652927,11056.186;-0.19228727,-0.07691491,9.498991,-0.11537236,0.7306916,8.922129,11072.963;-0.19228727,-0.07691491,9.498991,-0.07691491,-0.19228727,8.652927,11089.74;-0.19228727,-0.07691491,9.498991,0.34611708,0.07691491,8.883672,11089.74;-0.19228727,-0.07691491,9.498991,-0.23074472,0.34611708,9.345161,11106.517;-0.19228727,-0.07691491,9.498991,-0.15382981,0.26920217,9.960481,11106.517;-1.4229257,-0.07691491,9.498991,-1.4229257,-0.23074472,9.768193,11123.294;0.26920217,1.0383513,9.498991,0.26920217,1.0383513,10.345055,11140.071;0.26920217,1.0383513,9.498991,0.07691491,0.38457453,9.845108,11156.849;0.26920217,1.0383513,9.498991,-0.19228727,0.23074472,9.575906,11156.849;0.26920217,-0.23074472,9.498991,-0.15382981,-0.23074472,8.537555,11173.626;0.26920217,-0.23074472,9.498991,0.5768618,0.38457453,9.845108,11190.403;0.26920217,-0.23074472,9.498991,-0.23074472,0.38457453,9.614364,11190.403;0.26920217,-0.23074472,9.498991,0.23074472,0.15382981,9.383618,11207.181;0.26920217,-0.23074472,10.768087,-0.423032,0.15382981,10.768087,11207.181;0.26920217,-0.23074472,9.229789,-0.11537236,0.23074472,9.229789,11223.957;0.26920217,1.4613832,9.229789,-0.34611708,1.4613832,9.652821,11240.734;0.26920217,0.07691491,8.15298,-0.19228727,0.07691491,8.15298,11240.734;-2.0767026,0.07691491,8.15298,-2.0767026,-0.5768618,9.152874,11257.512;-0.26920217,0.07691491,8.15298,-0.26920217,0.8845214,8.46064,11257.512;-0.26920217,0.07691491,8.15298,-0.846064,0.61531925,9.075959,11274.289;-0.26920217,0.07691491,8.15298,-1.1537236,0.19228727,8.806757,11291.066;-0.26920217,0.07691491,9.537449,-0.5768618,0.19228727,9.537449,11291.066;-0.26920217,0.07691491,9.537449,-0.53840435,0.4999469,9.998938,11307.844;-0.26920217,0.07691491,9.537449,-0.07691491,0.11537236,8.922129,11307.844;-0.26920217,0.07691491,9.537449,-0.19228727,0.38457453,8.806757,11324.621;-0.26920217,0.07691491,9.537449,-0.61531925,0.26920217,8.845214,11341.398;-0.26920217,0.07691491,10.691172,-0.19228727,0.038457453,10.691172,11341.398;-0.26920217,0.07691491,9.575906,-0.76914907,0.26920217,9.575906,11358.175;-0.26920217,0.07691491,9.575906,-0.4999469,-0.30765963,10.306598,11358.175;-0.26920217,0.07691491,9.575906,-0.6537767,0.038457453,8.729842,11374.952;-0.26920217,0.07691491,9.575906,-0.19228727,0.34611708,8.576012,11391.7295;-0.26920217,0.07691491,9.575906,0.15382981,0.9998938,9.152874,11391.7295;-0.26920217,0.07691491,9.575906,-0.423032,0.26920217,9.422076,11408.507;-0.26920217,0.07691491,9.575906,0.38457453,0.23074472,9.845108,11408.507;-0.26920217,0.07691491,9.575906,-0.23074472,0.26920217,10.306598,11425.284;-0.26920217,0.07691491,9.575906,-0.23074472,0.9229789,9.422076,11442.062;-0.26920217,0.07691491,9.575906,-0.53840435,-0.038457453,10.306598,11442.062;-0.26920217,0.07691491,9.575906,0.07691491,-0.038457453,10.075852,11458.839;-0.26920217,0.07691491,9.575906,-0.34611708,1.0383513,9.922023,11458.839;-0.26920217,0.07691491,9.575906,-1.0383513,0.5768618,8.61447,11475.616;-0.26920217,0.07691491,9.575906,-0.4999469,-0.19228727,10.5758,11475.616;-0.26920217,0.07691491,9.575906,-0.69223416,0.69223416,9.152874,11492.393;-0.26920217,0.07691491,10.691172,-1.2306385,0.07691491,10.691172,11509.17;-0.26920217,0.07691491,10.691172,-0.4999469,0.0,9.998938,11509.17;-0.26920217,0.07691491,10.691172,-0.07691491,-0.30765963,11.614151,11525.947;-0.26920217,0.07691491,9.614364,-1.0768087,-0.46148944,9.614364,11525.947;-0.26920217,0.07691491,9.614364,0.038457453,-0.11537236,9.460533,11542.725;-0.26920217,0.07691491,9.614364,0.5768618,0.423032,10.229683,11559.502;-0.26920217,0.07691491,9.614364,-0.38457453,0.0,9.460533,11559.502;-0.26920217,0.07691491,9.614364,-1.0768087,-0.26920217,8.845214,11576.279;-1.4998407,0.07691491,9.614364,-1.4998407,-0.19228727,8.652927,11576.279;0.7306916,0.07691491,9.614364,0.7306916,0.5768618,8.806757,11593.057;-0.30765963,0.07691491,8.229895,-0.30765963,0.07691491,8.229895,11609.833;-0.30765963,0.07691491,8.229895,-0.6537767,0.26920217,8.114523,11609.833;-0.30765963,0.07691491,9.960481,0.038457453,-0.34611708,9.960481,11626.61;-0.30765963,0.07691491,9.960481,-0.61531925,-0.07691491,9.575906,11626.61;-0.30765963,0.07691491,9.960481,0.038457453,0.8845214,9.729735,11643.388;-0.30765963,0.07691491,9.960481,-0.846064,0.423032,9.306704,11660.165;-0.30765963,0.07691491,9.960481,-0.61531925,-0.46148944,9.768193,11660.165;-1.3844683,0.07691491,9.960481,-1.3844683,-0.26920217,10.691172,11676.942;0.26920217,0.07691491,9.960481,0.26920217,0.19228727,10.614257,11676.942;0.26920217,0.07691491,9.960481,-0.61531925,0.038457453,9.152874,11693.72;0.26920217,0.07691491,9.960481,0.11537236,-0.11537236,9.114416,11710.497;0.26920217,0.07691491,7.9222355,-0.61531925,0.11537236,7.9222355,11710.497;1.8844151,0.07691491,7.9222355,1.8844151,0.4999469,7.806863,11727.274;-0.30765963,0.07691491,9.614364,-0.30765963,0.07691491,9.614364,11727.274;-0.30765963,0.07691491,9.614364,-0.11537236,-0.15382981,9.652821,11744.051;-0.30765963,0.07691491,9.614364,0.11537236,0.23074472,10.075852,11760.828;-0.30765963,0.07691491,9.614364,-0.19228727,0.30765963,10.306598,11760.828;-0.30765963,0.07691491,9.614364,-0.23074472,0.423032,9.768193,11777.605;-0.30765963,0.07691491,9.614364,-0.26920217,0.19228727,9.306704,11777.605;-0.30765963,0.07691491,9.614364,-0.96143633,-0.07691491,10.460427,11794.383;-0.30765963,0.07691491,9.614364,-1.2306385,0.4999469,9.729735,11811.16;-0.30765963,0.07691491,8.076065,-0.8076065,0.11537236,8.076065,11811.16;-0.30765963,0.07691491,8.076065,-0.46148944,0.69223416,8.845214,11827.9375;-0.30765963,0.07691491,9.152874,0.07691491,0.07691491,9.152874,11827.9375;-0.30765963,0.07691491,9.152874,-0.38457453,0.11537236,9.922023,11844.715;-0.30765963,0.07691491,9.152874,-0.53840435,-0.038457453,9.614364,11861.492;-0.30765963,0.07691491,9.152874,-0.15382981,-0.423032,8.806757,11861.492;-0.30765963,0.07691491,9.152874,-0.11537236,-0.30765963,9.922023,11878.269;-0.30765963,0.07691491,9.152874,-0.34611708,0.46148944,9.691278,11878.269;-0.30765963,0.07691491,9.152874,0.0,0.15382981,8.845214,11895.046;-0.30765963,0.07691491,9.152874,0.15382981,-0.038457453,8.691384,11911.823;-0.30765963,0.07691491,9.152874,-1.0768087,0.15382981,8.806757,11911.823;-2.6920218,0.07691491,9.152874,-2.6920218,-0.038457453,9.422076,11928.601;-0.46148944,0.07691491,9.152874,-0.46148944,-0.26920217,9.883566,11928.601;-0.46148944,0.07691491,8.114523,-0.96143633,0.38457453,8.114523,11945.378;-0.46148944,0.07691491,8.114523,-0.8845214,-0.11537236,8.46064,11962.155;-0.46148944,0.07691491,9.306704,-0.26920217,-0.19228727,9.306704,11962.155;-0.46148944,0.07691491,9.306704,-0.69223416,0.26920217,9.729735,11978.933;-0.46148944,0.07691491,9.306704,-0.038457453,-0.19228727,10.075852,11978.933;-0.46148944,0.07691491,7.9991503,-0.69223416,-0.38457453,7.9991503,11995.709;-0.46148944,0.07691491,9.998938,-0.8845214,0.07691491,9.998938,11995.709;-0.46148944,0.07691491,9.998938,-0.76914907,0.8845214,10.075852,12012.486;-0.46148944,0.07691491,9.998938,-0.9229789,0.23074472,9.075959,12029.264;-0.46148944,0.07691491,9.998938,-0.423032,0.11537236,10.191225,12029.264;-0.46148944,0.07691491,9.998938,-0.30765963,0.423032,9.460533,12046.041;-0.46148944,0.07691491,9.998938,0.46148944,0.7306916,10.460427,12046.041;-0.46148944,0.07691491,9.998938,0.11537236,0.07691491,9.614364,12062.818;-0.46148944,0.07691491,9.998938,0.038457453,0.038457453,9.460533,12079.596;-0.46148944,0.07691491,9.998938,-0.038457453,0.19228727,10.960374,12079.596;-0.46148944,0.07691491,9.998938,-0.07691491,-0.19228727,9.575906,12096.373;-0.46148944,0.07691491,9.998938,0.038457453,-0.038457453,9.729735,12096.373;-0.46148944,0.07691491,8.15298,-0.846064,-0.11537236,8.15298,12113.15;-0.46148944,0.07691491,8.15298,-1.3844683,0.11537236,8.729842,12129.927;-0.46148944,0.07691491,8.15298,0.30765963,0.8845214,8.652927,12129.927;-0.46148944,0.07691491,8.15298,0.11537236,0.07691491,8.229895,12146.704;-0.46148944,0.07691491,8.15298,-1.4613832,0.15382981,8.806757,12146.704;-0.46148944,0.07691491,8.15298,0.11537236,0.38457453,8.999044,12163.481;-0.46148944,0.07691491,9.575906,-0.423032,0.423032,9.575906,12180.259;-0.46148944,0.07691491,9.575906,-0.15382981,0.46148944,9.652821,12180.259;-0.46148944,0.07691491,9.575906,-0.69223416,-0.6537767,9.845108,12197.036;-0.46148944,0.07691491,9.575906,-0.5768618,0.23074472,9.037501,12197.036;-0.46148944,0.07691491,9.575906,-0.423032,-0.15382981,9.80665,12213.813;-0.46148944,0.07691491,8.229895,-0.8076065,0.53840435,8.229895,12230.591;-0.46148944,0.07691491,9.345161,-0.26920217,0.07691491,9.345161,12230.591;-0.46148944,-0.96143633,8.2683525,-0.7306916,-0.96143633,8.2683525,12247.368;-0.46148944,0.19228727,9.422076,-0.30765963,0.19228727,9.422076,12247.368;-0.46148944,1.3075534,9.422076,-0.07691491,1.3075534,9.575906,12264.145;-0.46148944,-0.11537236,9.422076,-0.26920217,-0.11537236,9.037501,12280.922;-0.46148944,-0.11537236,9.422076,0.26920217,-0.34611708,9.80665,12280.922;-0.46148944,-0.11537236,9.422076,0.46148944,0.423032,9.075959,12297.699;-0.46148944,-0.11537236,9.422076,-0.19228727,0.11537236,9.960481,12297.699;-0.46148944,-0.11537236,9.422076,-0.46148944,0.07691491,9.268247,12314.477;-0.46148944,-0.11537236,9.422076,-0.7306916,-0.6537767,9.268247,12331.254;-0.46148944,-0.11537236,9.422076,-0.9998938,0.6537767,9.883566,12331.254;-0.46148944,-0.11537236,8.383725,-0.11537236,0.23074472,8.383725,12348.031;-0.46148944,-0.11537236,9.691278,-0.69223416,0.423032,9.691278,12348.031;-0.46148944,-0.11537236,9.691278,-0.34611708,-0.038457453,9.960481,12364.809;-0.46148944,-0.11537236,9.691278,-0.8076065,0.30765963,10.0373955,12381.585;-0.46148944,-0.11537236,9.691278,-0.38457453,0.07691491,9.998938,12381.585;-0.46148944,-0.11537236,11.306491,0.26920217,-0.23074472,11.306491,12398.362;-0.46148944,-0.11537236,8.922129,-0.423032,0.23074472,8.922129,12398.362;-0.46148944,-0.11537236,10.460427,-0.46148944,-0.23074472,10.460427,12415.14;-0.46148944,-0.11537236,10.460427,-0.53840435,0.846064,11.152661,12431.917;-0.46148944,-0.11537236,10.460427,-0.8076065,-0.38457453,9.691278,12431.917;-0.46148944,-0.11537236,9.422076,-0.846064,0.0,9.422076,12448.694;-0.46148944,-0.11537236,9.422076,-0.038457453,-0.038457453,9.075959,12448.694;0.7306916,-0.11537236,9.422076,0.7306916,0.69223416,9.80665,12465.472;-0.4999469,-0.11537236,7.883778,-0.4999469,0.38457453,7.883778,12482.249;-0.4999469,-0.11537236,7.883778,-0.46148944,-0.19228727,8.499097,12482.249;-0.4999469,-0.11537236,9.845108,-0.11537236,-0.423032,9.845108,12499.026;-0.4999469,-0.11537236,8.61447,-0.038457453,0.7306916,8.61447,12499.026;-0.4999469,-0.11537236,9.729735,-0.5768618,0.15382981,9.729735,12515.803;-0.4999469,-0.11537236,9.729735,0.23074472,0.038457453,9.229789,12515.803;-0.4999469,-0.11537236,9.729735,-0.9998938,-0.15382981,9.652821,12532.58;-0.4999469,-0.11537236,9.729735,-1.3075534,0.15382981,9.883566,12549.357;-0.4999469,-0.11537236,9.729735,0.07691491,0.11537236,10.0373955,12549.357;-0.4999469,-0.11537236,9.729735,-0.15382981,-0.07691491,9.075959,12566.135;-0.4999469,-0.11537236,9.729735,-0.423032,-0.53840435,9.768193,12566.135;-0.4999469,-0.11537236,8.2683525,-0.38457453,0.5768618,8.2683525,12582.912;1.615213,1.0383513,8.2683525,1.615213,1.0383513,8.960587,12599.689;-0.6537767,-0.26920217,9.960481,-0.6537767,-0.26920217,9.960481,12599.689;0.423032,-0.26920217,9.960481,0.423032,0.07691491,9.691278,12616.467;0.423032,-0.26920217,9.960481,0.26920217,-0.11537236,10.191225,12616.467;0.423032,-0.26920217,9.960481,-0.30765963,-0.23074472,9.460533,12633.243;-0.6537767,-0.26920217,9.960481,-0.6537767,0.7306916,10.152767,12650.0205;-0.6537767,-0.26920217,9.960481,-0.30765963,0.19228727,9.729735,12650.0205;0.6537767,-0.26920217,9.960481,0.6537767,0.38457453,9.80665,12666.798;-0.846064,-0.26920217,9.960481,-0.846064,0.423032,9.998938,12666.798;-0.846064,-0.26920217,7.9222355,-0.423032,0.34611708,7.9222355,12683.575;-0.846064,-0.26920217,9.345161,-0.23074472,-0.07691491,9.345161,12700.353;-0.846064,-0.26920217,10.691172,-0.9229789,0.6537767,10.691172,12700.353;0.19228727,0.9229789,9.537449,0.19228727,0.9229789,9.537449,12717.13;0.19228727,-0.34611708,9.537449,-0.423032,-0.34611708,10.3835125,12717.13;0.19228727,-0.34611708,9.537449,-0.69223416,-1.1152661,9.037501,12733.907;-0.9998938,-0.34611708,9.537449,-0.9998938,-0.26920217,9.80665,12750.685;-0.9998938,-0.34611708,9.537449,-1.0383513,0.61531925,10.3835125,12750.685;-0.9998938,-0.34611708,9.537449,-0.61531925,-0.23074472,10.0373955,12767.461;0.15382981,-0.34611708,9.537449,0.15382981,-0.07691491,9.845108,12767.461;0.15382981,-0.34611708,9.537449,-0.69223416,0.07691491,8.729842,12784.238;0.15382981,-0.34611708,8.422182,0.11537236,0.423032,8.422182,12801.016;0.15382981,-0.34611708,8.422182,0.23074472,-0.26920217,9.037501,12801.016;-0.8845214,-0.34611708,8.422182,-0.8845214,-0.23074472,9.114416,12817.793;-0.8845214,-0.34611708,9.537449,-1.3460109,-0.30765963,9.537449,12817.793;-0.8845214,-0.34611708,9.537449,-0.5768618,0.038457453,9.498991,12834.57;0.23074472,-0.34611708,9.537449,0.23074472,0.46148944,9.498991,12851.348;0.23074472,-0.34611708,9.537449,-0.38457453,0.07691491,8.845214,12851.348;0.23074472,-0.34611708,7.153086,-0.53840435,-0.11537236,7.153086,12868.125;-1.1537236,-0.34611708,9.537449,-1.1537236,-0.19228727,9.537449,12868.125;-1.1537236,1.2690959,9.537449,-0.9229789,1.2690959,9.268247,12884.902;-1.1537236,1.2690959,8.46064,-1.0383513,0.7306916,8.46064,12901.679;-1.1537236,0.23074472,8.46064,-0.46148944,0.23074472,8.999044,12901.679;-1.1537236,0.23074472,8.46064,-0.423032,0.11537236,9.345161,12918.456;-1.1537236,0.23074472,10.5758,-0.34611708,0.8845214,10.5758,12918.456;0.38457453,0.23074472,10.5758,0.38457453,0.23074472,9.691278,12935.233;0.38457453,0.23074472,10.5758,0.846064,0.0,9.960481,12952.011;0.38457453,0.23074472,9.537449,-0.34611708,0.46148944,9.537449,12952.011;0.38457453,0.23074472,9.537449,0.0,0.19228727,10.152767,12968.788;0.38457453,0.23074472,9.537449,0.15382981,0.46148944,9.306704,12968.788;0.38457453,0.23074472,9.537449,-0.26920217,-0.15382981,9.422076,12985.565;-1.9228727,0.23074472,9.537449,-1.9228727,0.11537236,9.191331,12985.565;-0.4999469,0.23074472,9.537449,-0.4999469,0.4999469,9.575906,13002.343;-0.4999469,0.23074472,9.537449,-0.19228727,-0.26920217,9.422076,13019.119;-0.4999469,0.23074472,8.2683525,-0.5768618,-0.11537236,8.2683525,13019.119;-0.4999469,0.23074472,8.2683525,0.19228727,0.7306916,9.037501,13035.896;-0.4999469,0.23074472,10.191225,-1.1537236,-0.15382981,10.191225,13052.674;-0.4999469,0.23074472,10.191225,-0.846064,-0.423032,9.845108,13052.674;-1.9997876,0.23074472,8.845214,-1.9997876,0.11537236,8.845214,13069.451;-1.9997876,0.23074472,10.191225,-1.1152661,-0.4999469,10.191225,13069.451;-0.69223416,0.23074472,10.191225,-0.69223416,0.038457453,9.768193,13086.229;-0.69223416,0.23074472,8.576012,-0.96143633,-0.19228727,8.576012,13086.229;-0.69223416,0.23074472,8.576012,-0.5768618,0.69223416,9.575906,13103.006;-0.69223416,0.23074472,9.998938,-0.423032,-0.38457453,9.998938,13119.783;-0.69223416,0.23074472,9.998938,-0.423032,0.30765963,9.152874,13119.783;-0.69223416,0.23074472,9.998938,-0.15382981,0.4999469,9.652821,13136.561;-0.69223416,0.23074472,9.998938,-0.46148944,-0.38457453,8.999044,13136.561;-0.69223416,0.23074472,9.998938,-0.038457453,-0.7306916,10.768087,13153.337;-0.69223416,0.23074472,8.960587,0.30765963,0.15382981,8.960587,13170.114;-0.69223416,0.23074472,8.960587,-0.423032,0.19228727,9.075959,13170.114;-0.69223416,0.23074472,8.960587,-0.5768618,0.0,9.075959,13186.892;-0.69223416,0.23074472,8.960587,-1.1537236,-0.19228727,8.576012,13186.892;-0.69223416,0.23074472,8.960587,-0.038457453,1.1537236,8.845214,13203.669;-0.69223416,0.23074472,8.960587,-0.26920217,0.30765963,8.883672,13220.446;-0.69223416,0.23074472,8.960587,-0.15382981,0.07691491,9.768193,13220.446;-0.69223416,0.23074472,10.26814,-0.4999469,0.11537236,10.26814,13237.224;-0.69223416,0.23074472,10.26814,-0.61531925,0.07691491,9.960481,13237.224;-0.69223416,0.23074472,10.26814,-0.19228727,-0.23074472,10.537342,13254.001;-0.69223416,0.23074472,10.26814,-1.2306385,0.61531925,9.922023,13270.778;-0.69223416,0.23074472,10.26814,-0.96143633,-0.76914907,10.421969,13287.555;-0.69223416,0.23074472,10.26814,-0.23074472,0.07691491,10.652715,13287.555;-0.69223416,0.23074472,10.26814,-0.46148944,0.15382981,9.575906,13304.332;-0.69223416,0.23074472,8.845214,-0.30765963,-0.15382981,8.845214,13321.109;-0.69223416,0.23074472,8.845214,-0.34611708,0.6537767,8.61447,13321.109;-0.69223416,0.23074472,8.845214,-0.07691491,0.19228727,9.614364,13337.887;0.423032,0.23074472,8.845214,0.423032,-0.26920217,8.768299,13337.887;0.423032,0.23074472,8.845214,-0.23074472,0.30765963,9.383618,13354.664;-1.1152661,-0.8845214,10.498885,-1.1152661,-0.8845214,10.498885,13371.441;-1.1152661,-0.8845214,9.114416,-0.6537767,0.0,9.114416,13371.441;-1.1152661,-0.8845214,9.114416,-0.846064,-0.46148944,9.422076,13388.219;-1.1152661,-0.8845214,9.114416,-1.4613832,-0.46148944,9.422076,13388.219;-1.1152661,0.30765963,9.114416,-0.6537767,0.30765963,9.537449,13404.995;-1.1152661,0.30765963,9.114416,-0.34611708,0.26920217,8.652927,13421.772;-0.07691491,0.30765963,9.114416,-0.07691491,0.26920217,9.960481,13421.772;-0.07691491,0.30765963,9.114416,-0.26920217,-0.61531925,9.229789,13438.55;-0.07691491,0.30765963,9.114416,-0.19228727,0.423032,9.498991,13438.55;-0.07691491,0.30765963,9.114416,0.19228727,0.15382981,9.729735,13455.327;-0.07691491,0.30765963,10.845002,-0.53840435,0.15382981,10.845002,13472.1045;-1.4613832,0.30765963,10.845002,-1.4613832,-0.19228727,10.345055,13472.1045;0.19228727,0.30765963,10.845002,0.19228727,-0.30765963,10.0373955,13488.882;0.19228727,0.30765963,10.845002,0.423032,-0.46148944,10.11431,13488.882;0.19228727,0.30765963,9.422076,-0.8076065,0.423032,9.422076,13505.659;0.19228727,0.30765963,9.422076,-0.038457453,0.038457453,9.80665,13505.659;0.19228727,0.30765963,9.422076,-0.53840435,-0.15382981,9.345161,13522.437;0.19228727,0.30765963,9.422076,0.76914907,0.61531925,10.191225,13539.213;0.19228727,0.30765963,9.422076,-0.46148944,0.34611708,8.576012,13539.213;0.19228727,0.30765963,9.422076,-0.76914907,0.07691491,9.845108,13555.99;0.19228727,0.30765963,10.614257,0.30765963,0.15382981,10.614257,13572.768;0.19228727,0.30765963,10.614257,0.0,0.61531925,9.883566,13572.768;0.19228727,0.30765963,10.614257,-0.15382981,0.23074472,10.345055,13589.545;0.19228727,0.30765963,8.691384,-0.23074472,0.0,8.691384,13589.545;-1.1537236,0.30765963,8.691384,-1.1537236,0.11537236,9.306704,13606.322;-1.1537236,0.30765963,8.691384,-1.4229257,-0.23074472,9.114416,13606.322;-1.1537236,0.30765963,9.922023,-1.1537236,0.19228727,9.922023,13623.1;-1.1537236,0.30765963,9.922023,-0.76914907,-0.30765963,9.498991,13639.877;-1.1537236,-0.7306916,9.922023,-0.846064,-0.7306916,9.460533,13639.877;-1.1537236,0.46148944,9.922023,-0.846064,0.46148944,9.191331,13656.654;0.5768618,0.46148944,9.922023,0.5768618,0.23074472,9.922023,13656.654;0.5768618,0.46148944,9.922023,0.26920217,0.038457453,10.11431,13673.431;-0.46148944,0.46148944,9.922023,-0.46148944,0.26920217,9.075959,13690.208;-0.46148944,0.46148944,9.922023,0.19228727,0.423032,9.460533,13690.208;-0.46148944,0.46148944,8.883672,-0.07691491,0.23074472,8.883672,13706.985;-0.46148944,0.46148944,10.421969,-0.53840435,-0.30765963,10.421969,13706.985;-0.46148944,-0.61531925,9.037501,-1.0383513,-0.61531925,9.037501,13723.763;-0.46148944,-0.61531925,9.037501,-0.53840435,0.34611708,9.652821,13740.54;-0.46148944,-0.61531925,9.037501,-0.76914907,-0.038457453,8.883672,13740.54;-0.46148944,-0.61531925,9.037501,-0.5768618,0.34611708,8.768299,13757.317;-0.46148944,-0.61531925,9.037501,-1.0768087,0.07691491,9.306704,13757.317;-0.46148944,-0.61531925,9.037501,-0.11537236,0.23074472,8.960587,13774.095;-0.46148944,-0.61531925,9.037501,-0.46148944,0.19228727,9.383618,13790.871;-0.46148944,-0.61531925,9.037501,-0.53840435,-0.07691491,9.614364,13790.871;-0.46148944,-0.61531925,9.037501,-0.34611708,-0.5768618,8.652927,13807.648;-0.46148944,-0.61531925,9.037501,-0.61531925,-0.23074472,9.80665,13807.648;-0.46148944,0.5768618,10.460427,-0.846064,0.5768618,10.460427,13824.426;-0.46148944,0.5768618,9.114416,0.19228727,0.5768618,9.114416,13841.203;-0.46148944,0.5768618,9.114416,-0.15382981,-0.038457453,9.460533,13841.203;-0.46148944,0.5768618,10.460427,-0.46148944,0.69223416,10.460427,13857.98;0.6537767,0.5768618,9.114416,0.6537767,0.8076065,9.114416,13857.98;0.6537767,0.5768618,9.114416,0.19228727,0.0,9.345161,13874.758;-0.46148944,0.5768618,10.998832,-0.46148944,-0.34611708,10.998832,13891.535;-0.46148944,0.5768618,9.883566,0.26920217,-0.26920217,9.883566,13891.535;-0.46148944,0.5768618,9.883566,-0.34611708,0.61531925,10.768087,13908.3125;-0.46148944,0.5768618,9.883566,0.23074472,0.846064,8.922129,13908.3125;-0.46148944,0.5768618,9.883566,-0.6537767,0.53840435,9.268247,13925.089;-1.5767555,0.5768618,8.30681,