999,999,999,999,999,999,999;0.038457453,9.037501,3.4227133,0.19228727,8.845214,3.4227133,0.0;0.038457453,9.037501,3.4227133,0.038457453,9.229789,3.1150537,16.777216;0.038457453,9.037501,3.4227133,-0.07691491,8.729842,3.2688835,33.554432;0.038457453,9.037501,3.4227133,0.15382981,9.306704,3.384256,33.554432;0.038457453,9.037501,3.4227133,-0.34611708,9.614364,3.230426,50.33165;0.038457453,9.037501,3.4227133,-0.038457453,9.191331,3.153511,50.33165;0.038457453,9.037501,3.4227133,0.30765963,9.075959,2.9612238,67.108864;0.038457453,9.037501,3.4227133,0.07691491,8.845214,2.6920218,83.88608;0.038457453,9.037501,3.4227133,0.15382981,9.037501,3.153511,83.88608;0.038457453,9.037501,3.4227133,0.4999469,9.460533,2.8458514,100.6633;0.038457453,9.037501,3.4227133,-0.30765963,9.229789,3.230426,100.6633;0.038457453,9.037501,3.4227133,-0.69223416,9.306704,3.1919687,117.44051;0.038457453,9.037501,3.4227133,-0.53840435,9.345161,3.7688303,134.21773;0.038457453,9.037501,3.4227133,-0.26920217,9.383618,3.153511,134.21773;0.038457453,9.037501,3.4227133,-0.038457453,9.229789,3.0381389,150.99495;0.038457453,9.037501,3.4227133,-0.53840435,9.498991,3.153511,150.99495;0.038457453,9.037501,3.4227133,0.423032,8.806757,3.307341,167.77216;0.038457453,9.037501,3.4227133,0.34611708,8.845214,3.5380857,167.77216;0.038457453,9.037501,3.4227133,0.34611708,9.422076,3.5380857,184.54938;0.038457453,9.037501,3.4227133,0.038457453,9.075959,3.1919687,201.3266;0.038457453,9.037501,3.4227133,0.23074472,9.460533,3.6919155,201.3266;0.038457453,9.037501,3.4227133,0.11537236,9.268247,3.5380857,218.1038;0.038457453,9.037501,3.4227133,0.11537236,9.268247,3.7688303,218.1038;0.038457453,9.037501,3.4227133,-0.34611708,9.037501,3.5380857,234.88103;0.038457453,9.037501,3.4227133,0.0,9.460533,3.230426,251.65823;0.038457453,9.037501,3.4227133,0.46148944,9.383618,3.153511,251.65823;0.038457453,9.037501,3.4227133,0.19228727,9.191331,3.384256,268.43546;0.038457453,9.037501,3.4227133,0.4999469,9.229789,3.4611707,268.43546;0.038457453,9.037501,3.4227133,0.423032,9.191331,3.6150007,285.21268;0.038457453,9.037501,3.4227133,0.19228727,9.614364,2.9996815,301.9899;0.038457453,9.037501,3.4227133,-0.38457453,8.768299,3.5380857,301.9899;0.038457453,9.037501,3.4227133,-0.30765963,8.845214,3.0765963,318.7671;0.038457453,9.037501,3.4227133,0.38457453,9.191331,2.6920218,318.7671;0.038457453,9.037501,3.4227133,0.07691491,8.999044,2.8458514,335.5443;0.038457453,9.037501,3.4227133,0.34611708,9.383618,3.0765963,352.32153;0.038457453,9.037501,3.4227133,0.19228727,9.306704,2.9996815,352.32153;0.038457453,9.037501,3.4227133,0.30765963,8.922129,2.6920218,369.09875;0.038457453,9.037501,3.4227133,-0.30765963,9.306704,3.0765963,369.09875;0.038457453,9.037501,3.4227133,-0.61531925,9.037501,2.5766494,385.87598;0.038457453,9.037501,3.4227133,0.11537236,9.498991,2.9612238,402.6532;0.038457453,9.037501,3.4227133,-0.15382981,9.037501,2.6535642,402.6532;0.038457453,9.037501,3.4227133,-0.46148944,9.268247,3.1919687,419.4304;0.038457453,9.037501,3.4227133,0.38457453,9.306704,3.230426,419.4304;0.038457453,9.037501,3.4227133,-0.38457453,9.575906,3.4227133,436.2076;0.038457453,9.037501,3.4227133,0.0,8.999044,2.9996815,452.98483;0.038457453,9.037501,3.4227133,0.30765963,9.114416,3.1919687,452.98483;0.038457453,9.037501,3.4227133,-0.5768618,8.922129,3.384256,469.76205;0.038457453,9.037501,3.4227133,0.46148944,9.268247,3.4611707,469.76205;0.038457453,9.037501,3.4227133,-0.07691491,9.537449,2.884309,486.53928;0.038457453,9.037501,3.4227133,0.07691491,8.576012,2.7689366,503.31647;0.038457453,9.037501,3.4227133,-0.038457453,8.883672,3.384256,503.31647;0.038457453,9.037501,3.4227133,0.11537236,8.768299,3.0381389,520.0937;0.038457453,9.037501,3.4227133,-0.038457453,9.152874,2.7689366,520.0937;0.038457453,9.037501,3.4227133,0.423032,9.152874,2.807394,536.8709;0.038457453,9.037501,3.4227133,0.11537236,9.268247,2.9996815,553.64813;0.038457453,9.037501,3.4227133,0.07691491,9.152874,3.4227133,553.64813;0.038457453,9.037501,3.4227133,-0.26920217,8.729842,3.153511,570.42535;0.038457453,9.037501,3.4227133,0.26920217,8.768299,3.2688835,570.42535;0.038457453,9.037501,3.4227133,0.26920217,9.306704,3.5380857,587.2026;0.038457453,9.037501,3.4227133,0.38457453,9.037501,3.4996283,603.9798;0.038457453,9.037501,3.4227133,0.53840435,9.191331,3.3457985,603.9798;0.038457453,9.037501,3.4227133,-0.15382981,9.537449,3.0765963,620.757;0.038457453,9.037501,3.4227133,-0.11537236,9.460533,2.9612238,620.757;0.038457453,9.037501,3.4227133,0.34611708,9.268247,3.230426,637.5342;0.038457453,9.037501,3.4227133,0.15382981,9.614364,3.153511,654.3114;0.038457453,9.037501,3.4227133,-0.07691491,9.768193,2.807394,654.3114;0.038457453,9.037501,3.4227133,0.0,8.960587,3.384256,671.0886;0.038457453,9.037501,3.4227133,-0.07691491,9.922023,2.9227664,671.0886;0.038457453,9.037501,3.4227133,-0.4999469,9.80665,2.9227664,687.86584;0.038457453,9.037501,3.4227133,0.038457453,9.652821,2.5381918,687.86584;0.038457453,10.26814,3.4227133,0.46148944,10.26814,3.0381389,704.64307;0.038457453,10.26814,3.4227133,0.038457453,9.729735,2.4997344,721.4203;0.038457453,10.26814,2.2689898,-0.26920217,9.498991,2.2689898,721.4203;0.038457453,10.26814,2.2689898,-0.61531925,10.306598,1.615213,738.1975;0.038457453,10.26814,2.2689898,-0.8076065,9.845108,1.692128,738.1975;0.038457453,10.26814,2.2689898,0.11537236,10.421969,1.4998407,754.97473;0.038457453,10.26814,2.2689898,-0.23074472,9.883566,1.3844683,771.75195;0.038457453,10.26814,2.2689898,-0.19228727,9.729735,1.3844683,771.75195;0.038457453,10.26814,0.69223416,-0.38457453,10.229683,0.69223416,788.5292;0.038457453,10.26814,0.69223416,-0.07691491,9.768193,1.3075534,788.5292;0.038457453,10.26814,0.69223416,-0.53840435,9.960481,1.3075534,805.3064;0.038457453,10.26814,0.69223416,0.19228727,10.26814,1.0768087,822.08356;0.038457453,10.26814,0.69223416,-0.11537236,9.537449,1.0383513,822.08356;0.038457453,10.26814,0.69223416,0.23074472,9.614364,1.3460109,838.8608;0.038457453,10.26814,0.69223416,0.38457453,9.537449,1.3075534,838.8608;1.1921811,8.806757,0.69223416,1.1921811,8.806757,1.0768087,855.638;-0.038457453,8.806757,2.0767026,-0.038457453,9.422076,2.0767026,872.4152;-0.038457453,8.806757,2.0767026,0.8845214,9.114416,1.8075004,872.4152;1.0383513,8.806757,2.0767026,1.0383513,9.306704,1.7690428,889.19244;-0.26920217,8.806757,2.0767026,-0.26920217,9.422076,1.615213,889.19244;-0.26920217,8.806757,2.0767026,0.61531925,8.576012,1.1537236,905.96967;-0.26920217,8.806757,2.0767026,0.5768618,8.537555,1.1537236,922.7469;-0.26920217,8.806757,2.0767026,0.69223416,8.61447,1.6536705,922.7469;-0.26920217,8.806757,2.0767026,0.46148944,8.729842,2.1920748,939.5241;-0.26920217,8.806757,2.0767026,0.38457453,8.922129,2.3074472,939.5241;-0.26920217,8.806757,2.0767026,0.0,9.614364,2.3843622,956.30133;-0.26920217,8.806757,2.0767026,0.46148944,9.345161,2.3843622,973.07855;-0.26920217,8.806757,2.0767026,0.30765963,8.845214,1.9613302,973.07855;-0.26920217,8.806757,2.0767026,0.15382981,8.768299,1.8844151,989.8558;-0.26920217,8.806757,2.0767026,-0.7306916,9.152874,2.0767026,989.8558;-0.26920217,8.806757,2.0767026,0.53840435,9.422076,1.9228727,1006.63293;-0.26920217,8.806757,2.0767026,0.38457453,9.498991,1.8459578,1023.41016;-0.26920217,8.806757,2.0767026,0.53840435,9.652821,1.7305853,1023.41016;-0.26920217,8.806757,2.0767026,0.38457453,9.498991,2.3074472,1040.1874;-0.26920217,8.806757,2.0767026,0.38457453,9.383618,1.9997876,1040.1874;-0.26920217,8.806757,2.0767026,0.4999469,9.460533,2.0767026,1056.9646;0.8076065,8.806757,2.0767026,0.8076065,9.383618,2.1536174,1073.7418;0.8076065,8.806757,2.0767026,0.15382981,9.229789,1.8459578,1073.7418;0.8076065,8.806757,2.0767026,0.38457453,9.114416,1.3460109,1090.519;0.8076065,8.806757,2.0767026,0.846064,9.729735,1.3075534,1090.519;0.8076065,8.806757,2.0767026,0.19228727,9.114416,1.1537236,1107.2963;-0.34611708,8.806757,0.846064,-0.34611708,9.498991,0.846064,1124.0735;-0.34611708,8.806757,0.846064,-0.15382981,9.575906,1.4229257,1124.0735;-0.34611708,8.806757,0.846064,-0.15382981,9.498991,1.692128,1140.8507;-0.34611708,8.806757,0.846064,0.26920217,8.999044,1.3844683,1140.8507;0.846064,8.806757,0.846064,0.846064,9.075959,1.8075004,1157.6279;0.846064,8.806757,2.4228196,0.9998938,9.037501,2.4228196,1157.6279;0.846064,8.806757,2.4228196,0.46148944,9.037501,2.5381918,1174.4052;0.846064,8.806757,2.4228196,-0.07691491,9.345161,2.0767026,1191.1824;0.846064,8.806757,2.4228196,0.26920217,9.729735,1.4613832,1191.1824;-0.423032,10.191225,0.9229789,-0.423032,10.191225,0.9229789,1207.9596;-0.423032,10.191225,0.9229789,-0.423032,9.575906,0.53840435,1207.9596;-0.423032,10.191225,0.9229789,-0.34611708,9.960481,0.53840435,1224.7368;-0.423032,10.191225,1.9613302,-0.11537236,9.80665,1.9613302,1241.514;-0.423032,10.191225,1.9613302,-0.19228727,9.883566,1.3460109,1241.514;-0.423032,10.191225,1.9613302,0.19228727,9.691278,1.8075004,1258.2913;0.69223416,10.191225,1.9613302,0.69223416,10.11431,1.9997876,1258.2913;0.69223416,10.191225,1.9613302,0.26920217,9.80665,1.7305853,1275.0684;0.69223416,10.191225,1.9613302,0.15382981,10.0373955,1.4998407,1291.8456;0.69223416,10.191225,1.9613302,-0.19228727,9.652821,1.3460109,1291.8456;0.69223416,10.191225,1.9613302,-0.19228727,9.768193,1.3075534,1308.6228;0.69223416,10.191225,1.9613302,-0.30765963,9.845108,0.9998938,1308.6228;-0.7306916,10.191225,1.9613302,-0.7306916,10.075852,0.9998938,1325.4;-0.7306916,10.191225,1.9613302,0.11537236,10.229683,1.0383513,1342.1772;0.38457453,10.191225,0.4999469,0.38457453,10.26814,0.4999469,1342.1772;0.38457453,10.191225,0.4999469,-0.23074472,10.26814,1.3075534,1358.9545;0.38457453,10.191225,0.4999469,0.11537236,9.498991,1.1921811,1358.9545;0.38457453,10.191225,0.4999469,-0.15382981,9.691278,1.1921811,1375.7317;0.38457453,10.191225,1.5382981,-0.23074472,9.922023,1.5382981,1392.5089;-0.96143633,10.191225,0.46148944,-0.96143633,10.0373955,0.46148944,1392.5089;-0.96143633,10.191225,0.46148944,-1.4998407,10.229683,0.6537767,1409.2861;-2.11516,10.191225,0.46148944,-2.11516,10.345055,0.23074472,1409.2861;-2.11516,10.191225,0.46148944,-1.3075534,10.691172,-0.30765963,1426.0634;-0.846064,10.191225,0.46148944,-0.846064,10.498885,0.11537236,1442.8406;1.1537236,14.421545,0.46148944,1.1537236,14.421545,0.23074472,1442.8406;-0.26920217,9.652821,0.46148944,-0.26920217,9.652821,1.2690959,1459.6178;-0.26920217,9.652821,2.9612238,-0.423032,10.152767,2.9612238,1459.6178;-0.26920217,9.652821,1.9228727,-0.5768618,10.191225,1.9228727,1476.395;-0.26920217,9.652821,0.53840435,-0.07691491,10.5758,0.53840435,1493.1722;-0.26920217,9.652821,0.53840435,0.19228727,10.0373955,0.26920217,1493.1722;-0.26920217,9.652821,0.53840435,-1.1152661,9.614364,0.46148944,1509.9495;-0.26920217,9.652821,0.53840435,-0.7306916,9.460533,-0.11537236,1509.9495;-0.26920217,9.652821,0.53840435,-0.8076065,9.80665,0.19228727,1526.7267;-0.26920217,9.652821,0.53840435,-0.7306916,9.383618,0.34611708,1543.5039;-0.26920217,9.652821,0.53840435,-0.30765963,9.422076,0.53840435,1543.5039;-0.26920217,9.652821,0.53840435,-0.53840435,9.768193,0.46148944,1560.2811;-0.26920217,9.652821,0.53840435,0.23074472,9.075959,0.423032,1560.2811;-0.26920217,9.652821,0.53840435,-0.26920217,9.422076,0.76914907,1577.0583;-0.26920217,9.652821,0.53840435,-0.19228727,10.537342,0.038457453,1593.8356;-0.26920217,9.652821,0.53840435,-0.6537767,9.998938,0.46148944,1593.8356;-0.26920217,9.652821,0.53840435,-0.038457453,9.537449,1.5382981,1610.6128;-0.26920217,9.652821,2.2689898,0.46148944,10.3835125,2.2689898,1610.6128;0.96143633,9.652821,1.1921811,0.96143633,9.691278,1.1921811,1627.3899;0.96143633,9.652821,1.1921811,0.23074472,9.729735,0.19228727,1644.1671;-0.46148944,9.652821,1.1921811,-0.46148944,9.652821,0.46148944,1644.1671;-0.46148944,9.652821,1.1921811,0.11537236,9.652821,0.30765963,1660.9443;-0.46148944,9.652821,1.1921811,0.34611708,10.0373955,1.3844683,1660.9443;-0.46148944,9.652821,1.1921811,-0.96143633,9.922023,1.2306385,1677.7216;-0.46148944,9.652821,1.1921811,-0.038457453,9.883566,0.53840435,1677.7216;-0.46148944,9.652821,1.1921811,0.0,9.960481,0.19228727,1694.4988;-0.46148944,9.652821,1.1921811,0.19228727,10.191225,0.4999469,1711.276;-0.46148944,9.652821,1.1921811,-0.26920217,9.498991,0.34611708,1711.276;-0.46148944,9.652821,1.1921811,-0.26920217,9.575906,0.423032,1728.0532;-0.46148944,9.652821,1.1921811,0.038457453,9.845108,1.1537236,1728.0532;-0.46148944,9.652821,1.1921811,-0.53840435,9.652821,0.5768618,1744.8304;-0.46148944,9.652821,0.15382981,0.0,9.998938,0.15382981,1761.6077;-0.46148944,9.652821,0.15382981,-0.6537767,9.575906,0.34611708,1761.6077;-0.46148944,9.652821,0.15382981,-0.15382981,10.0373955,0.8076065,1778.3849;-0.46148944,9.652821,1.4998407,-0.7306916,9.691278,1.4998407,1778.3849;-0.46148944,9.652821,1.4998407,-1.0768087,9.883566,0.76914907,1795.1621;-0.46148944,9.652821,1.4998407,-0.9229789,9.768193,1.2306385,1811.9393;-0.46148944,9.652821,1.4998407,-0.5768618,9.614364,0.4999469,1828.7166;-0.46148944,9.652821,1.4998407,-0.76914907,10.0373955,0.6537767,1845.4938;-0.46148944,9.652821,-0.15382981,-0.4999469,9.191331,-0.15382981,1862.271;-0.46148944,9.652821,-0.15382981,-0.38457453,10.11431,0.5768618,1862.271;-0.46148944,9.652821,-0.15382981,-0.19228727,9.768193,0.15382981,1879.0482;-0.46148944,9.652821,-0.15382981,-0.34611708,9.883566,0.46148944,1879.0482;-0.46148944,9.652821,-0.15382981,-0.15382981,9.922023,0.8076065,1895.8254;-0.46148944,9.652821,1.2306385,-0.7306916,9.691278,1.2306385,1912.6027;-0.46148944,9.652821,1.2306385,-0.30765963,9.998938,1.0383513,1912.6027;-0.46148944,9.652821,1.2306385,0.038457453,9.960481,0.8845214,1929.3799;-0.46148944,9.652821,1.2306385,-0.038457453,9.422076,1.0768087,1929.3799;-0.46148944,9.652821,1.2306385,-0.26920217,9.922023,0.4999469,1946.1571;-0.46148944,9.652821,1.2306385,-0.19228727,10.075852,0.26920217,1962.9343;-0.46148944,9.652821,0.0,-0.423032,9.691278,0.0,1962.9343;-0.46148944,9.652821,0.0,-1.0768087,10.0373955,-0.34611708,1979.7115;-0.46148944,9.652821,0.0,-0.96143633,9.652821,-0.53840435,1996.4886;-0.46148944,9.652821,0.0,-1.0383513,9.768193,-0.34611708,1996.4886;-0.46148944,9.652821,0.0,-0.53840435,10.152767,0.26920217,2013.2659;-0.46148944,9.652821,0.0,-0.6537767,9.845108,0.6537767,2013.2659;-0.46148944,9.652821,1.0768087,-0.5768618,10.0373955,1.0768087,2030.0431;-0.46148944,9.652821,1.0768087,-0.26920217,9.768193,1.3844683,2030.0431;-0.46148944,9.652821,1.0768087,-0.26920217,9.768193,1.6536705,2046.8203;-0.46148944,9.652821,1.0768087,-0.07691491,10.229683,1.1921811,2063.5977;-0.46148944,9.652821,1.0768087,-0.4999469,9.80665,1.615213,2063.5977;-0.46148944,9.652821,1.0768087,-0.38457453,9.998938,0.26920217,2080.3748;-0.46148944,9.652821,-0.19228727,-0.4999469,9.614364,-0.19228727,2080.3748;-0.46148944,9.652821,-0.19228727,-0.8076065,9.80665,-0.26920217,2097.152;-0.46148944,9.652821,-0.19228727,-0.7306916,10.11431,0.23074472,2113.9292;-0.46148944,9.652821,-0.19228727,-0.8845214,9.768193,-0.07691491,2113.9292;-0.46148944,9.652821,-0.19228727,0.0,9.960481,-0.6537767,2130.7065;-0.46148944,9.652821,-0.19228727,-0.5768618,9.614364,0.0,2130.7065;-0.46148944,9.652821,-0.19228727,-0.69223416,10.0373955,0.4999469,2147.4836;-0.46148944,9.652821,-0.19228727,-0.46148944,9.960481,-0.19228727,2164.2607;-0.46148944,9.652821,-0.19228727,-0.23074472,9.575906,0.07691491,2164.2607;-0.46148944,9.652821,-0.19228727,-0.61531925,9.960481,0.53840435,2181.038;-0.46148944,9.652821,-0.19228727,-0.76914907,9.729735,0.69223416,2181.038;-0.46148944,9.652821,-0.19228727,-0.61531925,9.768193,0.19228727,2197.8152;-0.46148944,9.652821,-0.19228727,-0.7306916,9.652821,0.23074472,2197.8152;-0.46148944,9.652821,-0.19228727,-0.96143633,9.537449,0.53840435,2214.5925;-0.46148944,9.652821,-0.19228727,-0.5768618,10.26814,0.46148944,2231.3696;-0.46148944,9.652821,-0.19228727,0.0,10.345055,0.38457453,2231.3696;-0.46148944,9.652821,-0.19228727,-0.69223416,10.345055,-0.4999469,2248.147;-0.46148944,9.652821,-0.19228727,-0.26920217,9.422076,-0.8845214,2248.147;-0.46148944,9.652821,-0.19228727,-0.846064,10.152767,0.038457453,2264.924;-0.46148944,9.652821,-0.19228727,-0.15382981,9.537449,0.5768618,2281.7014;-0.46148944,9.652821,-0.19228727,-0.30765963,10.306598,0.69223416,2281.7014;-0.46148944,9.652821,1.0383513,-0.9998938,9.614364,1.0383513,2298.4785;-0.46148944,9.652821,1.0383513,-0.423032,9.845108,0.96143633,2298.4785;-0.46148944,9.652821,1.0383513,-0.4999469,9.498991,0.69223416,2315.2559;-0.46148944,9.652821,1.0383513,-0.9998938,10.11431,0.423032,2332.033;-0.46148944,9.652821,0.0,-0.4999469,10.075852,0.0,2332.033;-0.46148944,9.652821,0.0,-0.4999469,9.652821,-0.23074472,2348.8103;-0.46148944,9.652821,0.0,-0.4999469,9.883566,-0.6537767,2348.8103;-0.46148944,9.652821,0.0,0.19228727,9.883566,0.038457453,2365.5874;-0.46148944,9.652821,0.0,-0.76914907,9.80665,0.07691491,2382.3647;-0.46148944,9.652821,0.0,-0.07691491,9.960481,0.26920217,2382.3647;-0.46148944,9.652821,0.0,-0.423032,9.998938,0.46148944,2399.1418;-0.46148944,9.652821,0.0,-0.38457453,10.229683,0.423032,2399.1418;-0.46148944,9.652821,0.0,-0.61531925,9.575906,0.11537236,2415.9192;-0.46148944,9.652821,0.0,-0.34611708,9.922023,-0.46148944,2432.6963;-0.46148944,9.652821,0.0,-0.846064,9.614364,-0.34611708,2432.6963;-0.46148944,9.652821,0.0,-0.53840435,10.075852,0.038457453,2449.4736;-0.46148944,9.652821,0.0,-0.26920217,9.960481,0.0,2449.4736;-0.46148944,9.652821,0.0,-0.19228727,9.383618,-0.15382981,2466.2507;-0.46148944,9.652821,0.0,-0.46148944,9.537449,0.038457453,2483.028;-0.46148944,9.652821,0.0,-1.2306385,9.652821,0.07691491,2483.028;-0.46148944,9.652821,0.0,-0.5768618,9.768193,-0.46148944,2499.8052;-0.46148944,9.652821,0.0,-0.53840435,9.960481,0.46148944,2499.8052;-0.46148944,9.652821,0.0,-0.61531925,9.422076,0.11537236,2516.5825;-0.46148944,9.652821,0.0,-1.0383513,10.5758,0.61531925,2533.3596;-0.46148944,9.652821,0.0,-0.8076065,9.845108,-0.423032,2533.3596;-0.46148944,9.652821,0.0,-0.76914907,9.268247,0.19228727,2550.1367;-0.46148944,9.652821,0.0,-0.76914907,9.922023,-0.15382981,2550.1367;-0.46148944,9.652821,0.0,-0.8076065,9.998938,0.38457453,2566.914;-0.46148944,9.652821,0.0,-1.1537236,10.0373955,0.23074472,2583.6912;-0.46148944,9.652821,0.0,-0.30765963,10.152767,-0.26920217,2583.6912;-0.46148944,9.652821,0.0,-0.34611708,9.691278,-0.038457453,2600.4685;-0.46148944,9.652821,0.0,-0.9229789,9.883566,-0.23074472,2600.4685;-0.46148944,9.652821,0.0,-0.7306916,9.729735,-0.423032,2617.2456;-0.46148944,9.652821,0.0,-1.1921811,9.883566,0.19228727,2634.023;-0.46148944,9.652821,0.0,-0.26920217,10.0373955,0.11537236,2634.023;-0.46148944,9.652821,0.0,-0.846064,9.614364,-0.15382981,2650.8;-0.46148944,9.652821,0.0,-0.19228727,9.768193,0.11537236,2650.8;-0.46148944,9.652821,0.0,-0.53840435,9.652821,0.19228727,2667.5774;-0.46148944,9.652821,0.0,-0.5768618,10.152767,0.4999469,2684.3545;-0.46148944,9.652821,0.0,-0.15382981,10.229683,0.76914907,2684.3545;-0.46148944,9.652821,0.0,-0.846064,10.075852,0.19228727,2701.1318;-0.46148944,9.652821,0.0,-0.6537767,9.691278,0.15382981,2701.1318;-0.46148944,9.652821,0.0,-0.46148944,9.845108,-0.38457453,2717.909;-0.46148944,9.652821,0.0,-0.423032,9.998938,-0.423032,2717.909;-0.46148944,9.652821,0.0,-0.5768618,10.0373955,0.11537236,2734.6863;-0.46148944,9.652821,0.0,-0.69223416,9.883566,-0.15382981,2751.4634;-0.46148944,9.652821,0.0,-0.26920217,9.960481,0.5768618,2751.4634;-0.46148944,9.652821,0.0,-0.4999469,10.26814,0.07691491,2768.2407;-0.46148944,9.652821,0.0,-0.38457453,9.537449,-0.423032,2768.2407;-0.46148944,9.652821,0.0,-0.76914907,9.768193,0.4999469,2785.0178;-0.46148944,9.652821,0.0,-0.846064,9.575906,-0.11537236,2801.7952;-0.46148944,9.652821,0.0,-0.6537767,9.922023,-0.11537236,2801.7952;-0.46148944,9.652821,0.0,-0.5768618,9.652821,-0.4999469,2818.5723;-0.46148944,9.652821,0.0,-0.96143633,9.960481,-0.61531925,2818.5723;-0.46148944,9.652821,0.0,-0.76914907,10.11431,-0.038457453,2835.3496;-0.46148944,9.652821,0.0,-0.46148944,9.460533,-0.53840435,2852.1267;-0.46148944,9.652821,0.0,-0.30765963,9.729735,-0.46148944,2852.1267;-0.46148944,9.652821,0.0,-0.7306916,9.80665,0.38457453,2868.904;-0.46148944,9.652821,0.0,-0.61531925,10.229683,0.53840435,2868.904;-0.46148944,9.652821,0.0,-0.4999469,10.0373955,0.46148944,2885.6812;-0.46148944,9.652821,0.0,-0.46148944,9.422076,0.07691491,2902.4583;-0.46148944,9.652821,0.0,-0.69223416,10.0373955,0.038457453,2902.4583;-0.46148944,9.652821,0.0,-0.23074472,10.345055,0.46148944,2919.2356;-0.46148944,9.652821,0.0,-0.8076065,9.922023,0.15382981,2919.2356;-0.46148944,9.652821,0.0,-0.4999469,9.537449,0.76914907,2936.0127;-0.46148944,9.652821,0.0,-0.30765963,9.883566,0.61531925,2952.79;-0.46148944,9.652821,0.0,-0.38457453,9.729735,-0.26920217,2952.79;-0.46148944,9.652821,0.0,-0.9998938,10.11431,-0.07691491,2969.5671;-0.46148944,9.652821,0.0,-1.2306385,10.191225,-0.26920217,2969.5671;-0.46148944,9.652821,0.0,-0.846064,9.768193,-0.423032,2986.3445;-0.46148944,9.652821,0.0,-0.61531925,9.883566,-0.11537236,3003.1216;-0.46148944,9.652821,0.0,-0.76914907,9.922023,0.15382981,3003.1216;-0.46148944,9.652821,0.0,-0.423032,10.191225,0.15382981,3019.899;-0.46148944,9.652821,0.0,-0.7306916,9.729735,0.26920217,3019.899;-0.46148944,9.652821,0.0,-0.423032,9.922023,0.0,3036.676;-0.46148944,9.652821,0.0,-0.6537767,9.883566,0.30765963,3053.4534;-0.46148944,9.652821,0.0,-0.61531925,9.80665,0.34611708,3053.4534;-0.46148944,9.652821,0.0,-0.6537767,10.0373955,0.15382981,3070.2305;-0.46148944,9.652821,0.0,-0.19228727,10.0373955,-0.11537236,3070.2305;-0.46148944,9.652821,0.0,-0.6537767,9.960481,0.30765963,3087.0078;-0.46148944,9.652821,0.0,-0.8845214,9.575906,0.15382981,3103.785;-0.46148944,9.652821,0.0,-0.61531925,9.922023,0.038457453,3103.785;-0.46148944,9.652821,0.0,-0.6537767,9.922023,-0.69223416,3120.5623;-0.46148944,9.652821,0.0,-0.34611708,9.922023,-0.038457453,3120.5623;-0.46148944,9.652821,0.0,-0.61531925,9.922023,-0.15382981,3137.3394;-0.46148944,9.652821,0.0,-0.69223416,9.998938,0.15382981,3154.1167;-0.46148944,9.652821,0.0,-1.0383513,9.80665,0.15382981,3154.1167;-0.46148944,9.652821,0.0,-0.423032,9.691278,0.5768618,3170.8938;-0.46148944,9.652821,0.0,-0.61531925,9.998938,0.15382981,3170.8938;-0.46148944,9.652821,0.0,-0.4999469,9.575906,-0.30765963,3187.6711;-0.46148944,9.652821,0.0,-0.038457453,9.922023,-0.038457453,3204.4482;-0.46148944,9.652821,0.0,-0.8845214,9.460533,0.23074472,3204.4482;-0.46148944,9.652821,0.0,-0.4999469,9.960481,0.23074472,3221.2256;-0.46148944,9.652821,0.0,-0.23074472,9.729735,0.34611708,3221.2256;-0.46148944,9.652821,0.0,-0.19228727,9.422076,-0.30765963,3238.0027;-0.46148944,9.652821,0.0,-0.76914907,9.80665,0.53840435,3238.0027;-0.46148944,9.652821,0.0,-0.38457453,9.729735,0.07691491,3254.7798;-0.46148944,9.652821,0.0,0.07691491,9.691278,0.26920217,3271.5571;-0.46148944,9.652821,0.0,-0.61531925,9.691278,0.15382981,3271.5571;-0.46148944,9.652821,0.0,-0.53840435,10.11431,0.0,3288.3342;-0.46148944,9.652821,0.0,-0.7306916,10.11431,-0.26920217,3288.3342;-0.46148944,9.652821,0.0,-0.30765963,9.691278,0.11537236,3305.1116;-0.46148944,9.652821,0.0,-0.6537767,9.191331,0.30765963,3321.8887;-0.46148944,9.652821,0.0,-0.23074472,10.229683,0.0,3321.8887;-0.46148944,9.652821,0.0,-0.7306916,9.998938,-0.4999469,3338.666;-0.46148944,9.652821,0.0,-0.4999469,9.80665,-0.19228727,3338.666;-0.46148944,9.652821,0.0,-0.19228727,10.11431,-0.07691491,3355.443;-0.46148944,9.652821,0.0,-0.15382981,9.922023,-0.19228727,3372.2205;-0.46148944,9.652821,0.0,-0.53840435,10.229683,-0.07691491,3372.2205;-0.46148944,9.652821,0.0,-0.4999469,10.152767,-0.038457453,3388.9976;-0.46148944,9.652821,0.0,-0.53840435,9.114416,-0.07691491,3388.9976;-0.46148944,9.652821,0.0,-0.23074472,10.152767,-0.26920217,3405.775;-0.46148944,9.652821,0.0,-0.7306916,9.80665,-0.423032,3422.552;-0.46148944,9.652821,0.0,-0.61531925,9.383618,0.0,3422.552;-0.46148944,9.652821,0.0,-0.846064,9.883566,-0.30765963,3439.3293;-0.46148944,9.652821,0.0,-0.7306916,9.191331,-0.46148944,3439.3293;-0.46148944,9.652821,0.0,-0.6537767,9.922023,-0.11537236,3456.1064;-0.46148944,9.652821,0.0,-0.34611708,9.883566,0.46148944,3472.8838;-0.46148944,9.652821,0.0,-0.7306916,9.460533,-0.07691491,3472.8838;-0.46148944,9.652821,0.0,-0.5768618,9.960481,-0.26920217,3489.661;-0.46148944,9.652821,0.0,-0.69223416,10.26814,0.07691491,3489.661;-0.46148944,9.652821,0.0,-0.15382981,9.883566,0.0,3506.4382;-0.46148944,9.652821,0.0,-0.69223416,9.80665,-0.038457453,3523.2153;-0.46148944,9.652821,0.0,-0.07691491,9.80665,0.15382981,3523.2153;-0.46148944,9.652821,0.0,-0.5768618,10.11431,-0.19228727,3539.9927;-0.46148944,9.652821,0.0,-0.15382981,9.306704,-0.07691491,3539.9927;-0.46148944,9.652821,0.0,-0.5768618,9.537449,-0.19228727,3556.7698;-0.46148944,9.652821,0.0,-0.38457453,9.537449,-0.6537767,3573.547;-0.46148944,9.652821,0.0,-0.53840435,10.152767,0.26920217,3573.547;-0.46148944,9.652821,0.0,-0.423032,10.075852,0.19228727,3590.3242;-0.46148944,9.652821,0.0,-0.46148944,10.11431,0.38457453,3590.3242;-0.46148944,9.652821,0.0,-0.46148944,9.845108,-0.038457453,3607.1013;-0.46148944,9.652821,0.0,-0.4999469,9.80665,-0.5768618,3623.8787;-0.46148944,9.652821,0.0,-0.46148944,9.498991,-0.61531925,3623.8787;-0.46148944,9.652821,0.0,-0.23074472,10.229683,-0.19228727,3640.6558;-0.46148944,9.652821,0.0,-0.38457453,10.26814,0.0,3640.6558;-0.46148944,9.652821,0.0,-1.1537236,9.691278,0.11537236,3657.433;-0.46148944,9.652821,0.0,-0.8076065,10.11431,-0.11537236,3674.2102;-0.46148944,9.652821,0.0,-0.69223416,10.0373955,0.07691491,3674.2102;-0.46148944,9.652821,0.0,-0.9229789,9.652821,-0.4999469,3690.9875;-0.46148944,9.652821,0.0,-0.8845214,9.998938,-0.26920217,3690.9875;-0.46148944,9.652821,0.0,-0.7306916,10.075852,0.07691491,3707.7646;-0.46148944,9.652821,0.0,-1.0383513,9.845108,0.26920217,3707.7646;-0.46148944,9.652821,0.0,-0.5768618,9.614364,-0.23074472,3724.542;-0.46148944,9.652821,0.0,-1.2690959,9.998938,0.11537236,3741.319;-0.46148944,9.652821,0.0,-0.46148944,9.883566,-0.038457453,3741.319;-0.46148944,9.652821,0.0,-0.038457453,9.691278,0.038457453,3758.0964;-0.46148944,9.652821,0.0,-0.7306916,10.306598,0.19228727,3758.0964;-0.46148944,9.652821,0.0,-0.23074472,9.845108,0.19228727,3774.8735;-0.46148944,9.652821,0.0,-0.53840435,9.575906,0.0,3791.651;-0.46148944,9.652821,0.0,-0.34611708,9.729735,-0.38457453,3791.651;-0.46148944,9.652821,0.0,-0.4999469,10.0373955,0.11537236,3808.428;-0.46148944,9.652821,0.0,-0.038457453,10.152767,0.038457453,3808.428;-0.46148944,9.652821,0.0,-0.8076065,9.652821,-0.4999469,3825.2053;-0.46148944,9.652821,0.0,-0.5768618,9.883566,0.038457453,3841.9824;-0.46148944,9.652821,0.0,-0.5768618,9.845108,0.038457453,3841.9824;-0.46148944,9.652821,0.0,-0.6537767,10.152767,0.19228727,3858.7598;-0.46148944,9.652821,0.0,-0.34611708,9.729735,0.26920217,3858.7598;-0.46148944,9.652821,0.0,-1.2306385,10.152767,0.46148944,3875.5369;-0.46148944,9.652821,0.0,-0.30765963,9.922023,0.0,3892.3142;-0.46148944,9.652821,0.0,-0.53840435,9.729735,0.30765963,3892.3142;-0.46148944,9.652821,0.0,-0.8845214,9.229789,0.11537236,3909.0913;-0.46148944,9.652821,0.0,-0.30765963,10.0373955,-0.46148944,3909.0913;-0.46148944,9.652821,0.0,-0.6537767,9.652821,0.23074472,3925.8687;-0.46148944,9.652821,0.0,-0.34611708,9.575906,0.11537236,3942.6458;-0.46148944,9.652821,0.0,-0.38457453,9.729735,0.11537236,3942.6458;-0.46148944,9.652821,0.0,-0.38457453,9.691278,-0.15382981,3959.423;-0.46148944,9.652821,0.0,-0.423032,10.075852,-0.6537767,3959.423;-0.46148944,9.652821,0.0,-0.15382981,9.80665,0.23074472,3976.2002;-0.46148944,9.652821,0.0,-0.5768618,9.922023,0.5768618,3992.9773;-0.46148944,9.652821,0.0,-0.46148944,9.80665,0.53840435,3992.9773;-0.46148944,9.652821,0.0,-0.69223416,9.575906,0.07691491,4009.7546;-0.46148944,9.652821,0.0,-0.61531925,10.152767,0.423032,4009.7546;-0.46148944,9.652821,0.0,-0.5768618,9.960481,-0.15382981,4026.5317;-0.46148944,9.652821,0.0,-0.69223416,9.383618,-0.53840435,4043.309;-0.46148944,9.652821,0.0,-0.69223416,9.922023,0.15382981,4043.309;-0.46148944,9.652821,0.0,-0.26920217,9.960481,-0.23074472,4060.0862;-0.46148944,9.652821,0.0,-0.69223416,9.652821,0.26920217,4060.0862;-0.46148944,9.652821,0.0,-0.61531925,9.845108,-0.11537236,4076.8635;-0.46148944,9.652821,0.0,-0.6537767,9.768193,-0.423032,4093.6406;-0.46148944,9.652821,0.0,-0.53840435,9.845108,-0.26920217,4093.6406;-0.46148944,9.652821,0.0,-0.423032,9.883566,0.038457453,4110.418;-0.46148944,9.652821,0.0,-0.46148944,9.922023,-0.038457453,4110.418;-0.46148944,9.652821,0.0,-0.6537767,9.998938,-0.038457453,4127.1953;-0.46148944,9.652821,0.0,-0.53840435,10.11431,-0.46148944,4143.972;-0.46148944,9.652821,0.0,-0.4999469,9.575906,-0.53840435,4143.972;-0.46148944,9.652821,0.0,-0.61531925,9.960481,-0.38457453,4160.7495;-0.46148944,9.652821,0.0,-0.34611708,9.652821,0.038457453,4160.7495;-0.46148944,9.652821,0.0,0.30765963,10.152767,-0.11537236,4177.527;-0.46148944,9.652821,0.0,-0.423032,9.422076,-0.15382981,4194.304;-0.46148944,9.652821,0.0,-0.46148944,10.345055,0.07691491,4194.304;-0.46148944,9.652821,0.0,-0.76914907,9.768193,-0.30765963,4211.081;-0.46148944,9.652821,0.0,-0.4999469,10.191225,0.15382981,4211.081;-0.46148944,9.652821,0.0,-0.46148944,9.80665,-0.4999469,4227.8584;-0.46148944,9.652821,0.0,-0.07691491,9.960481,-0.19228727,4227.8584;-0.46148944,9.652821,0.0,-0.423032,10.0373955,0.07691491,4244.6357;-0.46148944,9.652821,0.0,-0.9998938,9.729735,0.61531925,4261.413;-0.46148944,9.652821,0.0,-0.423032,9.922023,0.423032,4261.413;-0.46148944,9.652821,0.0,-0.23074472,9.845108,-0.53840435,4278.19;-0.46148944,9.652821,0.0,-0.46148944,10.421969,0.0,4278.19;-0.46148944,9.652821,0.0,-0.96143633,9.768193,-0.30765963,4294.9673;-0.46148944,9.652821,0.0,-0.038457453,9.768193,0.30765963,4311.7446;-0.46148944,9.652821,0.0,-0.46148944,9.845108,0.11537236,4311.7446;-0.46148944,9.652821,0.0,-0.9229789,9.460533,0.0,4328.5215;-0.46148944,9.652821,0.0,-0.4999469,9.998938,0.23074472,4328.5215;-0.46148944,9.652821,0.0,-0.38457453,10.075852,-0.26920217,4345.299;-0.46148944,9.652821,0.0,-0.38457453,9.883566,-0.423032,4362.076;-0.46148944,9.652821,0.0,-0.23074472,9.80665,-0.038457453,4362.076;-0.46148944,9.652821,0.0,-0.34611708,10.191225,0.0,4378.8535;-0.46148944,9.652821,0.0,-0.26920217,9.80665,0.26920217,4378.8535;-0.46148944,9.652821,0.0,-0.4999469,9.883566,-0.07691491,4395.6304;-0.46148944,9.652821,0.0,-0.8845214,9.845108,-0.15382981,4412.4077;-0.46148944,9.652821,0.0,-0.8076065,9.460533,0.11537236,4412.4077;-0.46148944,9.652821,0.0,-0.96143633,10.0373955,0.07691491,4429.185;-0.46148944,9.652821,0.0,-0.19228727,9.652821,-0.38457453,4429.185;-0.46148944,9.652821,0.0,-0.9229789,10.11431,0.19228727,4445.9624;-0.46148944,9.652821,0.0,-0.8845214,9.845108,0.38457453,4462.7393;-0.46148944,9.652821,0.0,-0.9229789,10.152767,0.19228727,4462.7393;-0.46148944,9.652821,0.0,-0.38457453,10.152767,-0.15382981,4479.5166;-0.46148944,9.652821,0.0,-0.5768618,9.922023,-0.11537236,4479.5166;-0.46148944,9.652821,0.0,-0.38457453,9.691278,0.07691491,4496.294;-0.46148944,9.652821,0.0,-0.76914907,10.11431,-0.038457453,4513.0713;-0.46148944,9.652821,0.0,-0.038457453,9.998938,-0.38457453,4513.0713;-0.46148944,9.652821,0.0,-0.5768618,9.80665,-0.11537236,4529.848;-0.46148944,9.652821,0.0,-0.5768618,9.80665,-0.26920217,4529.848;-0.46148944,9.652821,0.0,-0.4999469,9.960481,-0.038457453,4546.6255;-0.46148944,9.652821,0.0,-0.4999469,9.498991,-0.34611708,4563.403;-0.46148944,9.652821,0.0,-0.23074472,9.922023,0.15382981,4563.403;-0.46148944,9.652821,0.0,-0.38457453,9.537449,0.0,4580.18;-0.46148944,9.652821,0.0,-0.5768618,9.883566,-0.34611708,4580.18;-0.46148944,9.652821,0.0,-0.34611708,9.960481,0.19228727,4596.957;-0.46148944,9.652821,0.0,-0.69223416,10.229683,0.30765963,4613.7344;-0.46148944,9.652821,0.0,-0.46148944,9.80665,0.23074472,4613.7344;-0.46148944,9.652821,0.0,-0.23074472,10.152767,0.30765963,4630.5117;-0.46148944,9.652821,0.0,-0.4999469,9.922023,-0.26920217,4630.5117;-0.46148944,9.652821,0.0,-0.9998938,9.575906,-0.61531925,4647.289;-0.46148944,9.652821,0.0,-0.53840435,9.960481,0.5768618,4664.066;-0.46148944,9.652821,0.0,-0.8076065,9.614364,0.0,4664.066;-0.46148944,9.652821,0.0,-0.6537767,9.960481,-0.07691491,4680.8433;-0.46148944,9.652821,0.0,-0.8076065,9.922023,-0.26920217,4680.8433;-0.46148944,9.652821,0.0,-0.6537767,9.575906,-0.423032,4697.6206;-0.46148944,9.652821,0.0,-0.5768618,9.729735,-0.53840435,4697.6206;-0.46148944,9.652821,0.0,-0.34611708,9.883566,-0.11537236,4714.3975;-0.46148944,9.652821,0.0,-0.30765963,10.229683,-0.11537236,4731.175;-0.46148944,9.652821,0.0,-0.53840435,9.537449,-0.53840435,4731.175;-0.46148944,9.652821,0.0,-0.423032,9.768193,0.038457453,4747.952;-0.46148944,9.652821,0.0,-0.07691491,10.11431,0.11537236,4747.952;-0.46148944,9.652821,0.0,-0.38457453,9.845108,-0.19228727,4764.7295;-0.46148944,9.652821,0.0,-0.46148944,10.0373955,-0.15382981,4781.5063;-0.46148944,9.652821,0.0,-0.23074472,9.729735,-0.07691491,4781.5063;-0.46148944,9.652821,0.0,-0.61531925,9.922023,-0.11537236,4798.2837;-0.46148944,9.652821,0.0,-0.26920217,9.80665,-0.34611708,4798.2837;-0.46148944,9.652821,0.0,-0.5768618,9.80665,-0.15382981,4815.061;-0.46148944,9.652821,0.0,-1.1537236,9.614364,-0.07691491,4831.8384;-0.46148944,9.652821,0.0,-0.6537767,9.691278,0.0,4831.8384;-0.46148944,9.652821,0.0,-0.5768618,9.845108,-0.07691491,4848.615;-0.46148944,9.652821,0.0,-0.23074472,9.768193,-0.038457453,4848.615;-0.46148944,9.652821,0.0,-0.423032,9.652821,-0.07691491,4865.3926;-0.46148944,9.652821,0.0,-0.30765963,10.11431,-0.038457453,4882.17;-0.46148944,9.652821,0.0,-0.8076065,9.460533,0.19228727,4882.17;-0.46148944,9.652821,0.0,-0.4999469,9.729735,-0.11537236,4898.9473;-0.46148944,9.652821,0.0,-0.5768618,9.845108,-0.4999469,4898.9473;-0.46148944,9.652821,0.0,-0.96143633,9.729735,-0.30765963,4915.724;-0.46148944,9.652821,0.0,-0.53840435,10.11431,-0.46148944,4932.5015;-0.46148944,9.652821,0.0,-0.15382981,10.152767,0.26920217,4932.5015;-0.46148944,9.652821,0.0,-0.19228727,9.922023,0.07691491,4949.279;-0.46148944,9.652821,0.0,-0.61531925,9.768193,-0.38457453,4949.279;-0.46148944,9.652821,0.0,-0.30765963,9.998938,-0.038457453,4966.056;-0.46148944,9.652821,0.0,-0.26920217,9.883566,0.15382981,4982.833;-0.46148944,9.652821,0.0,-0.8845214,9.998938,0.11537236,4982.833;-0.46148944,9.652821,0.0,-0.46148944,10.306598,0.34611708,4999.6104;-0.46148944,9.652821,0.0,-0.423032,10.11431,0.61531925,4999.6104;-0.46148944,9.652821,0.0,-0.96143633,9.345161,0.5768618,5016.3877;-0.46148944,9.652821,0.0,-0.61531925,10.152767,-0.11537236,5033.165;-0.46148944,9.652821,0.0,-0.9229789,9.768193,0.34611708,5033.165;-0.46148944,9.652821,0.0,-0.46148944,9.883566,-0.34611708,5049.942;-0.46148944,9.652821,0.0,-0.7306916,9.498991,0.11537236,5049.942;-0.46148944,9.652821,0.0,-0.69223416,9.883566,0.07691491,5066.719;-0.46148944,9.652821,0.0,-0.6537767,10.306598,-0.038457453,5083.4966;-0.46148944,9.652821,0.0,-0.4999469,9.998938,-0.30765963,5083.4966;-0.46148944,9.652821,0.0,-0.8845214,9.998938,-0.07691491,5100.2734;-0.46148944,9.652821,0.0,-0.9229789,9.768193,0.11537236,5100.2734;-0.46148944,9.652821,0.0,-0.38457453,10.345055,-0.34611708,5117.051;-0.46148944,9.652821,0.0,-0.38457453,9.883566,-0.5768618,5133.828;-0.46148944,9.652821,0.0,-0.34611708,9.960481,-0.423032,5133.828;-0.46148944,9.652821,0.0,-0.6537767,9.922023,-0.30765963,5150.6055;-0.46148944,9.652821,0.0,-0.53840435,9.614364,0.11537236,5150.6055;-0.46148944,9.652821,0.0,-0.69223416,10.0373955,-0.34611708,5167.3823;-0.46148944,9.652821,0.0,-0.61531925,9.537449,0.15382981,5184.1597;-0.46148944,9.652821,0.0,-0.5768618,10.191225,-0.34611708,5184.1597;-0.46148944,9.652821,0.0,-0.5768618,9.729735,-0.23074472,5200.937;-0.46148944,9.652821,0.0,-0.61531925,10.26814,-0.038457453,5200.937;-0.46148944,9.652821,0.0,-0.26920217,9.845108,0.11537236,5217.7144;-0.46148944,9.652821,0.0,-0.8845214,10.0373955,-0.23074472,5217.7144;-0.46148944,9.652821,0.0,-0.69223416,9.960481,0.0,5234.491;-0.46148944,9.652821,0.0,-0.34611708,9.960481,-0.4999469,5251.2686;-0.46148944,9.652821,0.0,-0.38457453,9.383618,-0.23074472,5251.2686;-0.46148944,9.652821,0.0,-0.53840435,10.0373955,-0.038457453,5268.046;-0.46148944,9.652821,0.0,-0.11537236,10.152767,-0.46148944,5268.046;-0.46148944,9.652821,0.0,-0.30765963,9.845108,0.038457453,5284.823;-0.46148944,9.652821,0.0,-0.53840435,9.614364,-0.423032,5301.6;-0.46148944,9.652821,0.0,-0.38457453,9.80665,-0.38457453,5301.6;-0.46148944,9.652821,0.0,-0.53840435,10.0373955,-0.11537236,5318.3774;-0.46148944,9.652821,0.0,-0.69223416,9.652821,-0.07691491,5318.3774;-0.46148944,9.652821,0.0,-0.96143633,9.537449,-0.11537236,5335.155;-0.46148944,9.652821,0.0,-0.19228727,9.537449,0.23074472,5351.932;-0.46148944,9.652821,0.0,-0.26920217,9.652821,-0.07691491,5351.932;-0.46148944,9.652821,0.0,-0.38457453,9.691278,0.07691491,5368.709;-0.46148944,9.652821,0.0,-1.0768087,9.883566,-0.69223416,5368.709;-0.46148944,9.652821,0.0,-0.38457453,9.575906,-0.423032,5385.4863;-0.46148944,9.652821,0.0,-0.8076065,10.075852,-0.53840435,5402.2637;-0.46148944,9.652821,0.0,-0.76914907,10.5758,0.15382981,5402.2637;-0.46148944,9.652821,0.0,-0.34611708,10.11431,0.26920217,5419.0405;-0.46148944,9.652821,0.0,-0.846064,9.614364,-0.6537767,5435.818;-0.46148944,9.652821,0.0,-0.53840435,10.152767,-0.30765963,5435.818;-0.46148944,9.652821,0.0,-0.15382981,10.191225,-0.69223416,5452.595;-0.46148944,9.652821,0.0,-0.8076065,10.11431,-0.423032,5469.3726;-0.46148944,9.652821,0.0,-0.38457453,10.191225,0.11537236,5469.3726;-0.46148944,9.652821,0.0,-0.38457453,9.960481,-0.038457453,5486.1494;-0.46148944,9.652821,0.0,-1.1921811,9.768193,0.07691491,5502.927;-0.46148944,9.652821,0.0,-0.9229789,9.729735,0.30765963,5502.927;-0.46148944,9.652821,0.0,-0.8845214,9.998938,0.038457453,5519.704;-0.46148944,9.652821,0.0,-0.8845214,9.729735,0.07691491,5519.704;-0.46148944,9.652821,0.0,-0.23074472,9.998938,-0.26920217,5536.4814;-0.46148944,9.652821,0.0,-0.5768618,9.768193,-0.34611708,5553.2583;-0.46148944,9.652821,0.0,-0.61531925,9.729735,-0.11537236,5553.2583;-0.46148944,9.652821,0.0,-0.23074472,10.075852,-0.30765963,5570.0356;-0.46148944,9.652821,0.0,-0.38457453,9.883566,0.0,5570.0356;-0.46148944,9.652821,0.0,-0.34611708,9.575906,-0.26920217,5586.813;-0.46148944,9.652821,0.0,-0.4999469,9.691278,0.30765963,5603.5903;-0.46148944,9.652821,0.0,-0.8076065,9.922023,-0.07691491,5603.5903;-0.46148944,9.652821,0.0,-0.15382981,9.922023,-0.26920217,5620.367;-0.46148944,9.652821,0.0,-0.46148944,10.0373955,-0.038457453,5620.367;-0.46148944,9.652821,0.0,-0.846064,9.883566,-0.8076065,5637.1445;-0.46148944,9.652821,0.0,-1.0383513,9.883566,0.11537236,5653.922;-0.46148944,9.652821,0.0,-0.23074472,9.729735,0.23074472,5653.922;-0.46148944,9.652821,0.0,-0.4999469,9.691278,0.07691491,5670.699;-0.46148944,9.652821,0.0,-0.76914907,9.691278,-0.19228727,5670.699;-0.46148944,9.652821,0.0,-0.5768618,9.80665,-0.11537236,5687.476;-0.46148944,9.652821,0.0,-0.15382981,9.845108,-0.07691491,5704.2534;-0.46148944,9.652821,0.0,-0.69223416,10.191225,0.11537236,5704.2534;-0.46148944,9.652821,0.0,-0.46148944,10.191225,-0.26920217,5721.031;-0.46148944,9.652821,0.0,-0.423032,9.922023,-0.07691491,5721.031;-0.46148944,9.652821,0.0,-0.46148944,9.729735,-0.11537236,5737.808;-0.46148944,9.652821,0.0,-0.6537767,9.845108,0.15382981,5754.585;-0.46148944,9.652821,0.0,-0.53840435,10.152767,0.11537236,5754.585;-0.46148944,9.652821,0.0,-0.846064,10.26814,0.07691491,5771.3623;-0.46148944,9.652821,0.0,-0.7306916,9.691278,-0.34611708,5771.3623;-0.46148944,9.652821,0.0,-0.34611708,10.3835125,-0.038457453,5788.1396;-0.46148944,9.652821,0.0,-0.8845214,9.614364,0.0,5804.9165;-0.46148944,9.652821,0.0,-0.8845214,10.075852,0.038457453,5804.9165;-0.46148944,9.652821,0.0,-0.61531925,10.229683,0.15382981,5821.694;-0.46148944,9.652821,0.0,-1.3460109,9.460533,0.26920217,5821.694;-0.46148944,9.652821,0.0,-0.4999469,9.960481,0.34611708,5838.471;-0.46148944,9.652821,0.0,-0.9229789,9.883566,-0.038457453,5838.471;-0.46148944,9.652821,0.0,-0.5768618,9.883566,0.61531925,5855.2485;-0.46148944,9.652821,0.0,-0.8845214,10.191225,-0.11537236,5872.0254;-0.46148944,9.652821,0.0,-0.8076065,9.768193,-0.11537236,5872.0254;-0.46148944,9.652821,0.0,-0.34611708,9.152874,0.038457453,5888.8027;-0.46148944,9.652821,0.0,-0.9998938,9.537449,-0.26920217,5888.8027;-0.46148944,9.652821,0.0,0.0,10.11431,-0.15382981,5905.58;-0.46148944,9.652821,0.0,-0.61531925,9.998938,0.38457453,5922.3574;-0.46148944,9.652821,0.0,-0.7306916,10.075852,0.30765963,5922.3574;-0.46148944,9.652821,0.0,-0.46148944,10.075852,0.30765963,5939.1343;-0.46148944,9.652821,0.0,-0.30765963,9.845108,0.19228727,5939.1343;-0.46148944,9.652821,0.0,-0.69223416,9.768193,-0.07691491,5955.9116;-0.46148944,9.652821,0.0,-0.6537767,10.152767,0.038457453,5972.689;-0.46148944,9.652821,0.0,-0.96143633,10.191225,0.038457453,5972.689;-0.46148944,9.652821,0.0,-0.4999469,9.80665,0.0,5989.4663;-0.46148944,9.652821,0.0,-0.4999469,10.11431,0.23074472,5989.4663;-0.46148944,9.652821,0.0,-0.19228727,10.191225,0.38457453,6006.243;-0.46148944,9.652821,0.0,-0.4999469,9.498991,0.15382981,6023.0205;-0.46148944,9.652821,0.0,-0.7306916,9.883566,-0.23074472,6023.0205;-0.46148944,9.652821,0.0,-0.9229789,9.998938,0.4999469,6039.798;-0.46148944,9.652821,0.0,-0.46148944,9.998938,0.038457453,6039.798;-0.46148944,9.652821,0.0,-0.4999469,9.883566,0.19228727,6056.575;-0.46148944,9.652821,0.0,-0.53840435,9.922023,-0.07691491,6073.352;-0.46148944,9.652821,0.0,-0.96143633,9.922023,-0.038457453,6073.352;-0.46148944,9.652821,0.0,-0.76914907,10.0373955,0.07691491,6090.1294;-0.46148944,9.652821,0.0,-0.26920217,9.960481,-0.30765963,6090.1294;-0.46148944,9.652821,0.0,0.07691491,10.0373955,-0.07691491,6106.9067;-0.46148944,9.652821,0.0,-0.7306916,9.998938,-0.53840435,6123.684;-0.46148944,9.652821,0.0,-0.9229789,9.960481,-0.15382981,6123.684;-0.46148944,9.652821,0.0,-0.4999469,10.3835125,0.19228727,6140.461;-0.46148944,9.652821,0.0,0.07691491,9.460533,-0.53840435,6140.461;-0.46148944,9.652821,0.0,-0.5768618,10.0373955,-0.34611708,6157.2383;-0.46148944,9.652821,0.0,-0.4999469,9.80665,0.07691491,6174.0156;-0.46148944,9.652821,0.0,-0.8076065,9.768193,-0.038457453,6174.0156;-0.46148944,9.652821,0.0,-0.423032,9.922023,-0.38457453,6190.7925;-0.46148944,9.652821,0.0,-0.69223416,9.152874,0.0,6190.7925;-0.46148944,9.652821,0.0,-0.6537767,9.883566,-0.11537236,6207.57;-0.46148944,9.652821,0.0,-0.9229789,10.0373955,-0.4999469,6224.347;-0.46148944,9.652821,0.0,-1.0768087,9.845108,0.23074472,6224.347;-0.46148944,9.652821,0.0,-0.53840435,10.191225,0.23074472,6241.1245;-0.46148944,9.652821,0.0,-0.96143633,9.652821,-0.038457453,6241.1245;-0.46148944,9.652821,0.0,-0.19228727,10.152767,-0.15382981,6257.9014;-0.46148944,9.652821,0.0,-1.0768087,9.383618,0.53840435,6257.9014;-0.46148944,9.652821,0.0,-0.4999469,9.922023,-0.19228727,6274.6787;-0.46148944,9.652821,0.0,-0.6537767,9.575906,-0.23074472,6291.456;-0.46148944,9.652821,0.0,0.0,9.460533,-0.38457453,6291.456;-0.46148944,9.652821,0.0,-0.34611708,9.498991,0.15382981,6308.2334;-0.46148944,9.652821,0.0,-0.76914907,9.845108,0.11537236,6308.2334;-0.46148944,9.652821,0.0,-0.6537767,10.229683,-0.46148944,6325.0103;-0.46148944,9.652821,0.0,-0.19228727,9.883566,0.30765963,6341.7876;-0.46148944,9.652821,0.0,-0.69223416,10.075852,0.038457453,6341.7876;-0.46148944,9.652821,0.0,-0.69223416,9.768193,-0.23074472,6358.565;-0.46148944,9.652821,0.0,-0.9229789,9.768193,-0.038457453,6358.565;-0.46148944,9.652821,0.0,-0.38457453,9.960481,-0.26920217,6375.3423;-0.46148944,9.652821,0.0,-0.423032,9.614364,0.038457453,6392.119;-0.46148944,9.652821,0.0,-0.7306916,9.883566,-0.26920217,6392.119;-0.46148944,9.652821,0.0,-0.34611708,9.152874,-0.6537767,6408.8965;-0.46148944,9.652821,0.0,-0.9229789,9.691278,-0.23074472,6408.8965;-0.46148944,9.652821,0.0,-0.61531925,9.845108,-0.23074472,6425.674;-0.46148944,9.652821,0.0,-0.34611708,9.652821,-0.69223416,6442.451;-0.46148944,9.652821,0.0,-0.846064,9.729735,0.26920217,6442.451;-0.46148944,9.652821,0.0,-0.30765963,9.614364,-0.96143633,6459.228;-0.46148944,9.652821,0.0,-1.2306385,9.729735,0.038457453,6459.228;-0.46148944,9.652821,0.0,-0.846064,10.152767,0.423032,6476.0054;-0.46148944,9.652821,0.0,-0.423032,10.0373955,0.23074472,6492.7827;-0.46148944,9.652821,0.0,-0.46148944,9.229789,0.11537236,6492.7827;-0.46148944,9.652821,0.0,-0.07691491,10.229683,-0.07691491,6509.5596;-0.46148944,9.652821,0.0,-0.9229789,9.998938,-0.07691491,6509.5596;-0.46148944,9.652821,0.0,-0.30765963,9.729735,-0.34611708,6526.337;-0.46148944,9.652821,0.0,-0.76914907,9.268247,-0.4999469,6543.1143;-0.46148944,9.652821,0.0,-0.8076065,9.998938,-0.23074472,6543.1143;-0.46148944,9.652821,0.0,-0.4999469,9.998938,-0.15382981,6559.8916;-0.46148944,9.652821,0.0,-0.23074472,9.768193,0.30765963,6559.8916;-0.46148944,9.652821,0.0,-0.8076065,10.075852,0.53840435,6576.6685;-0.46148944,9.652821,0.0,-0.6537767,10.11431,-0.07691491,6593.446;-0.46148944,9.652821,0.0,-0.53840435,9.768193,-0.11537236,6593.446;-0.46148944,9.652821,0.0,-0.30765963,9.883566,0.30765963,6610.223;-0.46148944,9.652821,0.0,-0.423032,10.306598,-0.11537236,6610.223;-0.46148944,9.652821,0.0,-0.8845214,9.80665,0.26920217,6627.0005;-0.46148944,9.652821,0.0,-0.846064,9.537449,-0.15382981,6643.7773;-0.46148944,9.652821,0.0,-0.38457453,9.537449,-0.15382981,6643.7773;-0.46148944,9.652821,0.0,-0.7306916,9.845108,0.0,6660.5547;-0.46148944,9.652821,0.0,-0.53840435,10.152767,-0.23074472,6660.5547;-0.46148944,9.652821,0.0,-0.46148944,9.691278,0.038457453,6677.332;-0.46148944,9.652821,0.0,-0.4999469,9.883566,-0.15382981,6694.1094;-0.46148944,9.652821,0.0,-0.69223416,9.306704,0.11537236,6694.1094;-0.46148944,9.652821,0.0,-0.19228727,9.845108,0.15382981,6710.886;-0.46148944,9.652821,0.0,-1.0383513,10.191225,0.11537236,6710.886;-0.46148944,9.652821,0.0,-0.30765963,10.152767,-0.038457453,6727.6636;-0.46148944,9.652821,0.0,-0.34611708,9.691278,-0.07691491,6727.6636;-0.46148944,9.652821,0.0,-1.1921811,9.691278,0.07691491,6744.441;-0.46148944,9.652821,0.0,-0.4999469,10.075852,0.423032,6761.2183;-0.46148944,9.652821,0.0,-0.46148944,10.152767,-0.15382981,6761.2183;-0.46148944,9.652821,0.0,-0.07691491,10.0373955,-0.038457453,6777.995;-0.46148944,9.652821,0.0,-0.9998938,9.845108,-0.30765963,6794.7725;-0.46148944,9.652821,0.0,-0.5768618,9.614364,0.07691491,6794.7725;-0.46148944,9.652821,0.0,-0.7306916,10.421969,-0.11537236,6811.55;-0.46148944,9.652821,0.0,-0.423032,9.883566,-0.76914907,6811.55;-0.46148944,9.652821,0.0,-0.11537236,10.0373955,-0.4999469,6828.327;-0.46148944,9.652821,0.0,-0.15382981,9.80665,0.23074472,6828.327;-0.46148944,9.652821,0.0,-0.423032,9.691278,0.34611708,6845.104;-0.46148944,9.652821,0.0,-0.38457453,9.229789,0.038457453,6861.8813;-0.46148944,9.652821,0.0,-0.7306916,9.652821,-0.34611708,6861.8813;-0.46148944,9.652821,0.0,-0.15382981,10.11431,0.30765963,6878.6587;-0.46148944,9.652821,0.0,-0.34611708,9.460533,-0.15382981,6878.6587;-0.46148944,9.652821,0.0,-0.6537767,9.80665,-0.038457453,6895.4355;-0.46148944,9.652821,0.0,-0.7306916,9.537449,-0.19228727,6912.213;-0.46148944,9.652821,0.0,-0.53840435,9.845108,0.038457453,6912.213;-0.46148944,9.652821,0.0,-0.4999469,10.075852,-0.15382981,6928.99;-0.46148944,9.652821,0.0,-0.38457453,9.80665,-0.30765963,6928.99;-0.46148944,9.652821,0.0,-0.76914907,10.0373955,-0.11537236,6945.7676;-0.46148944,9.652821,0.0,-0.8076065,10.0373955,0.423032,6962.5444;-0.46148944,9.652821,0.0,-0.46148944,9.729735,-0.30765963,6962.5444;-0.46148944,9.652821,0.0,-0.26920217,9.845108,-0.46148944,6979.322;-0.46148944,9.652821,0.0,-0.30765963,9.80665,-0.07691491,6979.322;-0.46148944,9.652821,0.0,-0.61531925,9.922023,-0.038457453,6996.099;-0.46148944,9.652821,0.0,-0.4999469,10.075852,-0.38457453,7012.8765;-0.46148944,9.652821,0.0,-0.6537767,10.11431,-0.15382981,7012.8765;-0.46148944,9.652821,0.0,-0.8845214,9.191331,0.15382981,7029.6533;-0.46148944,9.652821,0.0,-0.7306916,10.0373955,-0.11537236,7029.6533;-0.46148944,9.652821,0.0,-0.5768618,9.883566,-0.038457453,7046.4307;-0.46148944,9.652821,0.0,-0.07691491,9.652821,-0.15382981,7063.208;-0.46148944,9.652821,0.0,-0.07691491,9.883566,0.23074472,7063.208;-0.46148944,9.652821,0.0,-0.53840435,9.768193,-0.23074472,7079.9854;-0.46148944,9.652821,0.0,-0.846064,10.460427,0.11537236,7079.9854;-0.46148944,9.652821,0.0,-0.8076065,9.729735,-0.07691491,7096.762;-0.46148944,9.652821,0.0,-0.15382981,9.845108,-0.11537236,7113.5396;-0.46148944,9.652821,0.0,-0.9229789,9.80665,0.38457453,7113.5396;-0.46148944,9.652821,0.0,-0.30765963,9.80665,0.19228727,7130.317;-0.46148944,9.652821,0.0,-0.38457453,10.191225,-0.038457453,7130.317;-0.46148944,9.652821,0.0,-0.34611708,9.883566,-0.19228727,7147.094;-0.46148944,9.652821,0.0,-0.5768618,9.729735,0.26920217,7163.871;-0.46148944,9.652821,0.0,-0.8076065,9.575906,0.30765963,7163.871;-0.46148944,9.652821,0.0,-0.6537767,9.998938,0.11537236,7180.6484;-0.46148944,9.652821,0.0,-0.76914907,9.306704,-0.15382981,7180.6484;-0.46148944,9.652821,0.0,-0.11537236,10.26814,0.038457453,7197.426;-0.46148944,9.652821,0.0,-1.3460109,9.80665,0.30765963,7214.2026;-0.46148944,9.652821,0.0,-0.5768618,9.614364,0.46148944,7214.2026;-0.46148944,9.652821,0.0,-0.423032,9.652821,-0.30765963,7230.98;-0.46148944,9.652821,0.0,-0.423032,9.80665,-0.30765963,7230.98;-0.46148944,9.652821,0.0,-0.7306916,10.26814,-0.11537236,7247.7573;-0.46148944,9.652821,0.0,-0.7306916,9.768193,-0.4999469,7247.7573;-0.46148944,9.652821,0.0,-0.46148944,9.998938,0.0,7264.5347;-0.46148944,9.652821,0.0,-0.8845214,9.537449,0.19228727,7281.3115;-0.46148944,9.652821,0.0,-0.46148944,9.960481,-0.19228727,7281.3115;-0.46148944,9.652821,0.0,-0.38457453,10.0373955,0.38457453,7298.089;-0.46148944,9.652821,0.0,-0.30765963,10.191225,-0.53840435,7298.089;-0.46148944,9.652821,0.0,-0.19228727,9.537449,-0.11537236,7314.866;-0.46148944,9.652821,0.0,-0.19228727,9.922023,-0.34611708,7331.6436;-0.46148944,9.652821,0.0,-0.46148944,10.11431,-0.11537236,7331.6436;-0.46148944,9.652821,0.0,-0.34611708,10.11431,-0.19228727,7348.4204;-0.46148944,9.652821,0.0,-0.53840435,10.0373955,0.15382981,7348.4204;-0.46148944,9.652821,0.0,-0.34611708,9.575906,-0.38457453,7365.1978;-0.46148944,9.652821,0.0,-0.5768618,9.537449,0.38457453,7381.975;-0.46148944,9.652821,0.0,-0.4999469,10.0373955,0.07691491,7381.975;-0.46148944,9.652821,0.0,-0.4999469,9.575906,-0.23074472,7398.7524;-0.46148944,9.652821,0.0,-0.76914907,9.614364,-0.38457453,7415.5293;-0.46148944,9.652821,0.0,-0.8076065,9.768193,0.11537236,7415.5293;-0.46148944,9.652821,0.0,-0.11537236,9.883566,0.30765963,7432.3066;-0.46148944,9.652821,0.0,-1.1537236,9.652821,0.038457453,7432.3066;-0.46148944,9.652821,0.0,-0.69223416,10.191225,0.15382981,7449.084;-0.46148944,9.652821,0.0,-0.7306916,9.80665,0.0,7449.084;-0.46148944,9.652821,0.0,-0.96143633,9.691278,0.53840435,7465.8613;-0.46148944,9.652821,0.0,-0.61531925,9.883566,-0.53840435,7482.638;-0.46148944,9.652821,0.0,-0.423032,9.652821,0.26920217,7482.638;-0.46148944,9.652821,0.0,-0.76914907,9.537449,0.34611708,7499.4155;-0.46148944,9.652821,0.0,-0.26920217,9.960481,0.11537236,7499.4155;-0.46148944,9.652821,0.0,-0.53840435,9.498991,0.30765963,7516.193;-0.46148944,9.652821,0.0,-0.5768618,9.845108,0.34611708,7532.97;-0.46148944,9.652821,0.0,-0.846064,9.998938,0.15382981,7532.97;-0.46148944,9.652821,0.0,-0.76914907,10.0373955,-0.07691491,7549.747;-0.46148944,9.652821,0.0,-0.423032,9.998938,-0.19228727,7549.747;-0.46148944,9.652821,0.0,0.0,9.729735,-0.11537236,7566.5244;-0.46148944,9.652821,0.0,-0.96143633,9.729735,0.038457453,7583.302;-0.46148944,9.652821,0.0,-0.8076065,9.845108,-0.038457453,7583.302;-0.46148944,9.652821,0.0,-0.846064,9.768193,-0.15382981,7600.0786;-0.46148944,9.652821,0.0,-0.4999469,10.075852,-0.19228727,7600.0786;-0.46148944,9.652821,0.0,-1.0383513,9.80665,-0.23074472,7616.856;-0.46148944,9.652821,0.0,-0.76914907,10.3835125,-0.19228727,7633.6333;-0.46148944,9.652821,0.0,-0.8845214,9.768193,0.0,7633.6333;-0.46148944,9.652821,0.0,-0.5768618,9.960481,-0.38457453,7650.4106;-0.46148944,9.652821,0.0,-0.69223416,10.11431,-0.07691491,7650.4106;-0.46148944,9.652821,0.0,-0.38457453,9.729735,0.26920217,7667.1875;-0.46148944,9.652821,0.0,-0.8845214,9.883566,-0.19228727,7683.965;-0.46148944,9.652821,0.0,-0.46148944,9.922023,0.07691491,7683.965;-0.46148944,9.652821,0.0,-0.23074472,9.729735,0.07691491,7700.742;-0.46148944,9.652821,0.0,-0.38457453,10.306598,-0.30765963,7700.742;-0.46148944,9.652821,0.0,-0.5768618,9.498991,0.038457453,7717.5195;-0.46148944,9.652821,0.0,-0.038457453,9.883566,-0.07691491,7734.2964;-0.46148944,9.652821,0.0,-1.0383513,10.152767,0.38457453,7734.2964;-0.46148944,9.652821,0.0,-0.46148944,10.3835125,0.23074472,7751.0737;-0.46148944,9.652821,0.0,-0.5768618,9.575906,0.19228727,7751.0737;-0.46148944,9.652821,0.0,-0.423032,9.768193,-0.30765963,7767.851;-0.46148944,9.652821,0.0,-0.23074472,10.498885,0.038457453,7767.851;-0.46148944,9.652821,0.0,-0.7306916,9.422076,0.19228727,7784.6284;-0.46148944,9.652821,0.0,-0.46148944,9.922023,0.423032,7801.4053;-0.46148944,9.652821,0.0,-0.46148944,10.306598,0.07691491,7801.4053;-0.46148944,9.652821,0.0,-0.69223416,9.883566,0.038457453,7818.1826;-0.46148944,9.652821,0.0,-0.23074472,9.922023,0.30765963,7818.1826;-0.46148944,9.652821,0.0,-1.1152661,9.960481,-0.15382981,7834.96;-0.46148944,9.652821,0.0,-0.76914907,9.80665,-0.5768618,7851.7373;-0.46148944,9.652821,0.0,-0.8076065,9.883566,0.34611708,7851.7373;-0.46148944,9.652821,0.0,-0.69223416,10.460427,0.11537236,7868.514;-0.46148944,9.652821,0.0,-0.07691491,9.80665,-0.23074472,7868.514;-0.46148944,9.652821,0.0,-0.4999469,9.883566,0.30765963,7885.2915;-0.46148944,9.652821,0.0,-0.423032,9.80665,-0.26920217,7902.069;-0.46148944,9.652821,0.0,-0.61531925,9.729735,0.19228727,7902.069;-0.46148944,9.652821,0.0,-0.038457453,9.998938,-0.15382981,7918.846;-0.46148944,9.652821,0.0,-1.2306385,9.575906,-0.30765963,7918.846;-0.46148944,9.652821,0.0,-0.34611708,9.960481,0.07691491,7935.623;-0.46148944,9.652821,0.0,-0.61531925,9.575906,-0.38457453,7952.4004;-0.46148944,9.652821,0.0,-0.53840435,9.575906,-0.19228727,7952.4004;-0.46148944,9.652821,0.0,-0.30765963,9.922023,-0.038457453,7969.1777;-0.46148944,9.652821,0.0,-0.61531925,10.11431,0.11537236,7969.1777;-0.46148944,9.652821,0.0,-0.7306916,10.191225,-0.07691491,7985.9546;-0.46148944,9.652821,0.0,-0.53840435,9.691278,0.23074472,8002.732;-0.46148944,9.652821,0.0,-0.6537767,9.80665,-0.53840435,8019.5093;-0.46148944,9.652821,0.0,-0.7306916,9.922023,-0.11537236,8019.5093;-0.46148944,9.652821,0.0,-0.46148944,10.26814,-0.23074472,8036.2866;-0.46148944,9.652821,0.0,-0.76914907,9.691278,0.423032,8053.0635;-0.46148944,9.652821,0.0,-0.34611708,9.460533,-0.038457453,8053.0635;-0.46148944,9.652821,0.0,-0.423032,9.960481,0.26920217,8069.841;-0.46148944,9.652821,0.0,-0.61531925,9.729735,0.15382981,8069.841;-0.46148944,9.652821,0.0,-0.19228727,9.845108,0.19228727,8086.618;-0.46148944,9.652821,0.0,-0.19228727,9.998938,0.34611708,8103.3955;-0.46148944,9.652821,0.0,-0.26920217,10.075852,-0.38457453,8103.3955;-0.46148944,9.652821,0.0,-0.8076065,9.883566,0.423032,8120.1724;-0.46148944,9.652821,0.0,-0.19228727,10.075852,0.26920217,8120.1724;-0.46148944,9.652821,0.0,-1.0383513,9.922023,-0.46148944,8136.9497;-0.46148944,9.652821,0.0,-0.4999469,10.0373955,-0.07691491,8153.727;-0.46148944,9.652821,0.0,-0.46148944,9.460533,-0.34611708,8153.727;-0.46148944,9.652821,0.0,-0.23074472,9.691278,0.038457453,8170.5044;-0.46148944,9.652821,0.0,-0.38457453,10.11431,0.038457453,8170.5044;-0.46148944,9.652821,0.0,-0.423032,10.075852,0.15382981,8187.2813;-0.46148944,9.652821,0.0,-0.07691491,9.845108,0.038457453,8204.059;-0.46148944,9.652821,0.0,-0.6537767,10.11431,-0.26920217,8204.059;-0.46148944,9.652821,0.0,-0.15382981,9.80665,0.038457453,8220.836;-0.46148944,9.652821,0.0,-0.9998938,9.729735,-0.038457453,8220.836;-0.46148944,9.652821,0.0,-0.4999469,9.575906,0.19228727,8237.613;-0.46148944,9.652821,0.0,-0.69223416,10.306598,0.07691491,8254.391;-0.46148944,9.652821,0.0,-0.5768618,9.575906,-0.038457453,8254.391;-0.46148944,9.652821,0.0,-0.6537767,9.652821,0.11537236,8271.168;-0.46148944,9.652821,0.0,-0.9998938,10.0373955,0.0,8271.168;-0.46148944,9.652821,0.0,-0.30765963,10.075852,-0.11537236,8287.944;-0.46148944,9.652821,0.0,-0.38457453,9.691278,0.34611708,8287.944;-0.46148944,9.652821,0.0,-1.1152661,9.80665,0.15382981,8304.722;-0.46148944,9.652821,0.0,-0.8076065,9.652821,-0.26920217,8321.499;-0.46148944,9.652821,0.0,-0.9998938,9.845108,-0.038457453,8321.499;-0.46148944,9.652821,0.0,-0.15382981,9.768193,0.30765963,8338.276;-0.46148944,9.652821,0.0,-0.9998938,9.537449,0.53840435,8338.276;-0.46148944,9.652821,0.0,-0.61531925,9.960481,-0.53840435,8355.054;-0.46148944,9.652821,0.0,-0.69223416,9.537449,-0.19228727,8371.831;-0.46148944,9.652821,0.0,-0.4999469,10.229683,0.11537236,8371.831;-0.46148944,9.652821,0.0,-0.19228727,9.960481,-0.30765963,8388.608;-0.46148944,9.652821,0.0,-0.61531925,9.575906,-0.11537236,8388.608;-0.46148944,9.652821,0.0,-0.61531925,9.614364,0.07691491,8405.385;-0.46148944,9.652821,0.0,-0.69223416,10.3835125,-0.19228727,8422.162;-0.46148944,9.652821,0.0,-0.23074472,9.614364,-0.11537236,8422.162;-0.46148944,9.652821,0.0,-0.6537767,9.575906,0.07691491,8438.939;-0.46148944,9.652821,0.0,-0.6537767,10.11431,0.34611708,8438.939;-0.46148944,9.652821,0.0,-0.46148944,9.883566,-0.34611708,8455.717;-0.46148944,9.652821,0.0,-0.5768618,10.0373955,0.6537767,8472.494;-0.46148944,9.652821,0.0,-0.6537767,9.80665,0.15382981,8472.494;-0.46148944,9.652821,0.0,-0.30765963,9.729735,0.26920217,8489.271;-0.46148944,9.652821,0.0,-0.11537236,10.306598,0.423032,8489.271;-0.46148944,9.652821,0.0,-0.76914907,10.191225,0.0,8506.049;-0.46148944,9.652821,0.0,-0.423032,9.768193,0.038457453,8522.826;-0.46148944,9.652821,0.0,-0.38457453,9.960481,-0.26920217,8522.826;-0.46148944,9.652821,0.0,-0.23074472,9.998938,-0.26920217,8539.603;-0.46148944,9.652821,0.0,-0.8076065,9.537449,0.038457453,8539.603;-0.46148944,9.652821,0.0,-0.53840435,10.152767,0.15382981,8556.38;-0.46148944,9.652821,0.0,0.11537236,9.960481,0.11537236,8573.157;-0.46148944,9.652821,0.0,-0.69223416,9.960481,0.34611708,8573.157;-0.46148944,9.652821,0.0,-1.2306385,9.575906,0.23074472,8589.935;-0.46148944,9.652821,0.0,-0.6537767,10.11431,0.38457453,8589.935;-0.46148944,9.652821,0.0,-0.34611708,10.0373955,-0.30765963,8606.712;-0.46148944,9.652821,0.0,-0.8845214,10.229683,0.4999469,8623.489;-0.46148944,9.652821,0.0,-0.4999469,9.768193,-0.038457453,8623.489;-0.46148944,9.652821,0.0,-0.15382981,9.768193,-0.26920217,8640.267;-0.46148944,9.652821,0.0,-0.5768618,9.498991,-0.038457453,8640.267;-0.46148944,9.652821,0.0,-0.8845214,10.0373955,0.23074472,8657.043;-0.46148944,9.652821,0.0,-0.846064,9.845108,0.15382981,8673.82;-0.46148944,9.652821,0.0,-0.038457453,9.883566,-0.07691491,8673.82;-0.46148944,9.652821,0.0,-0.96143633,9.768193,0.26920217,8690.598;-0.46148944,9.652821,0.0,-1.1152661,9.614364,-0.038457453,8690.598;-0.46148944,9.652821,0.0,-0.5768618,10.11431,-0.11537236,8707.375;-0.46148944,9.652821,0.0,-0.6537767,9.960481,0.0,8724.152;-0.46148944,9.652821,0.0,-0.5768618,9.80665,-0.23074472,8724.152;-0.46148944,9.652821,0.0,0.038457453,9.575906,-0.038457453,8740.93;-0.46148944,9.652821,0.0,-0.4999469,9.691278,0.423032,8740.93;-0.46148944,9.652821,0.0,-0.8845214,9.498991,-0.38457453,8757.707;-0.46148944,9.652821,0.0,-0.6537767,9.998938,-0.15382981,8757.707;-0.46148944,9.652821,0.0,-0.423032,9.729735,-0.53840435,8774.484;-0.46148944,9.652821,0.0,-0.53840435,10.075852,-0.23074472,8791.261;-0.46148944,9.652821,0.0,-0.76914907,9.80665,0.23074472,8791.261;-0.46148944,9.652821,0.0,-0.69223416,10.191225,0.15382981,8808.038;-0.46148944,9.652821,0.0,-0.5768618,10.191225,0.26920217,8808.038;-0.46148944,9.652821,0.0,-0.34611708,9.998938,0.038457453,8824.815;-0.46148944,9.652821,0.0,-0.34611708,9.845108,-0.7306916,8841.593;-0.46148944,9.652821,0.0,-0.53840435,9.498991,-0.15382981,8841.593;-0.46148944,9.652821,0.0,-0.76914907,9.652821,0.423032,8858.37;-0.46148944,9.652821,0.0,-0.34611708,9.652821,0.26920217,8858.37;-0.46148944,9.652821,0.0,-0.69223416,9.845108,0.038457453,8875.147;-0.46148944,9.652821,0.0,-0.26920217,10.0373955,0.30765963,8891.925;-0.46148944,9.652821,0.0,-0.61531925,10.26814,0.23074472,8891.925;-0.46148944,9.652821,0.0,-0.6537767,9.883566,0.61531925,8908.702;-0.46148944,9.652821,0.0,-1.0768087,9.883566,0.038457453,8908.702;-0.46148944,9.652821,0.0,-0.38457453,10.075852,-0.26920217,8925.479;-0.46148944,9.652821,0.0,-0.9229789,9.498991,0.07691491,8942.256;-0.46148944,9.652821,0.0,-0.53840435,9.652821,-0.19228727,8942.256;-0.46148944,9.652821,0.0,-0.4999469,10.306598,-0.19228727,8959.033;-0.46148944,9.652821,0.0,-0.7306916,9.537449,-0.038457453,8959.033;-0.46148944,9.652821,0.0,-0.423032,9.652821,0.07691491,8975.811;-0.46148944,9.652821,0.0,-0.69223416,9.883566,-0.07691491,8992.588;-0.46148944,9.652821,0.0,-0.46148944,10.421969,0.0,8992.588;-0.46148944,9.652821,0.0,-0.423032,9.960481,0.0,9009.365;-0.46148944,9.652821,0.0,-0.8076065,10.075852,-0.26920217,9009.365;-0.46148944,9.652821,0.0,-0.34611708,10.229683,-0.19228727,9026.143;-0.46148944,9.652821,0.0,-0.8076065,10.075852,-0.11537236,9042.919;-0.46148944,9.652821,0.0,-0.38457453,9.960481,-0.07691491,9042.919;-0.46148944,9.652821,0.0,-0.30765963,10.075852,0.07691491,9059.696;-0.46148944,9.652821,0.0,-0.6537767,10.152767,0.038457453,9059.696;-0.46148944,9.652821,0.0,-0.76914907,9.845108,0.26920217,9076.474;-0.46148944,9.652821,0.0,-0.423032,9.768193,0.23074472,9093.251;-0.46148944,9.652821,0.0,-0.61531925,9.80665,0.46148944,9093.251;-0.46148944,9.652821,0.0,-0.38457453,9.922023,-0.15382981,9110.028;-0.46148944,9.652821,0.0,-0.76914907,10.11431,-0.30765963,9110.028;-0.46148944,9.652821,0.0,-0.23074472,9.80665,0.38457453,9126.806;-0.46148944,9.652821,0.0,-0.53840435,10.26814,-0.30765963,9143.583;-0.46148944,9.652821,0.0,-0.76914907,9.768193,-0.07691491,9143.583;-0.46148944,9.652821,0.0,-0.15382981,9.768193,0.26920217,9160.36;-0.46148944,9.652821,0.0,-0.5768618,9.383618,0.34611708,9160.36;-0.46148944,9.652821,0.0,-1.1537236,9.691278,0.30765963,9177.137;-0.46148944,9.652821,0.0,-0.5768618,9.80665,-0.15382981,9193.914;-0.46148944,9.652821,0.0,-0.23074472,9.537449,0.46148944,9193.914;-0.46148944,9.652821,0.0,-1.0768087,9.537449,-0.11537236,9210.691;-0.46148944,9.652821,0.0,-0.5768618,9.845108,-0.038457453,9210.691;-0.46148944,9.652821,0.0,-0.4999469,9.922023,0.038457453,9227.469;-0.46148944,9.652821,0.0,-0.53840435,9.922023,0.4999469,9244.246;-0.46148944,9.652821,0.0,-0.23074472,9.729735,0.423032,9244.246;-0.46148944,9.652821,0.0,-0.8076065,9.998938,-0.07691491,9261.023;-0.46148944,9.652821,0.0,-0.8845214,10.075852,-0.423032,9261.023;-0.46148944,9.652821,0.0,-0.8845214,9.729735,-0.07691491,9277.801;-0.46148944,9.652821,0.0,-0.19228727,9.729735,0.46148944,9277.801;-0.46148944,9.652821,0.0,-0.23074472,9.575906,0.0,9294.578;-0.46148944,9.652821,0.0,-0.38457453,10.306598,-0.15382981,9311.3545;-0.46148944,9.652821,0.0,-0.6537767,10.460427,0.15382981,9311.3545;-0.46148944,9.652821,0.0,-0.15382981,9.998938,0.0,9328.132;-0.46148944,9.652821,0.0,-0.53840435,9.768193,0.15382981,9328.132;-0.46148944,9.652821,0.0,-0.9229789,9.845108,0.038457453,9344.909;-0.46148944,9.652821,0.0,-0.61531925,9.845108,0.15382981,9361.687;-0.46148944,9.652821,0.0,-0.5768618,9.575906,0.61531925,9361.687;-0.46148944,9.652821,0.0,-0.38457453,9.998938,0.038457453,9378.464;-0.46148944,9.652821,0.0,-0.76914907,10.3835125,-0.4999469,9378.464;-0.46148944,9.652821,0.0,-0.846064,9.575906,0.23074472,9395.241;-0.46148944,9.652821,0.0,-0.30765963,10.0373955,0.423032,9412.019;-0.46148944,9.652821,0.0,-1.0383513,9.883566,0.26920217,9412.019;-0.46148944,9.652821,0.0,-0.46148944,9.883566,0.30765963,9428.795;-0.46148944,9.652821,0.0,-0.423032,9.460533,-0.038457453,9428.795;-0.46148944,9.652821,0.0,-1.1537236,10.306598,0.19228727,9445.572;-0.46148944,9.652821,0.0,0.0,9.614364,-0.38457453,9462.35;-0.46148944,9.652821,0.0,-0.26920217,10.11431,-0.26920217,9462.35;-0.46148944,9.652821,0.0,-0.4999469,9.575906,0.15382981,9479.127;-0.46148944,9.652821,0.0,-0.69223416,9.537449,-0.26920217,9479.127;-0.46148944,9.652821,0.0,-0.8076065,9.960481,-0.46148944,9495.904;-0.46148944,9.652821,0.0,-0.26920217,9.883566,0.23074472,9512.682;-0.46148944,9.652821,0.0,-0.69223416,9.691278,-0.11537236,9512.682;-0.46148944,9.652821,0.0,-0.96143633,9.883566,0.6537767,9529.459;-0.46148944,9.652821,0.0,-0.30765963,9.691278,0.11537236,9529.459;-0.46148944,9.652821,0.0,-0.6537767,9.998938,0.11537236,9546.236;-0.46148944,9.652821,0.0,-0.8076065,9.422076,-0.15382981,9563.013;-0.46148944,9.652821,0.0,-0.7306916,10.0373955,0.19228727,9563.013;-0.46148944,9.652821,0.0,-0.26920217,9.80665,-0.15382981,9579.79;-0.46148944,9.652821,0.0,-0.9229789,9.729735,0.23074472,9579.79;-0.46148944,9.652821,0.0,-0.61531925,9.614364,-0.11537236,9596.567;-0.46148944,9.652821,0.0,-0.76914907,9.652821,0.0,9613.345;-0.46148944,9.652821,0.0,-0.423032,10.306598,0.15382981,9613.345;-0.46148944,9.652821,0.0,-0.4999469,9.691278,-0.61531925,9630.122;-0.46148944,9.652821,0.0,-0.11537236,9.691278,-0.34611708,9630.122;-0.46148944,9.652821,0.0,-0.7306916,9.614364,-0.19228727,9646.899;-0.46148944,9.652821,0.0,-0.61531925,10.152767,0.34611708,9663.677;-0.46148944,9.652821,0.0,-0.6537767,9.883566,-0.38457453,9663.677;-0.46148944,9.652821,0.0,-0.9998938,9.883566,-0.53840435,9680.454;-0.46148944,9.652821,0.0,-0.5768618,10.075852,-0.30765963,9680.454;-0.46148944,9.652821,0.0,-0.69223416,9.691278,0.07691491,9697.23;-0.46148944,9.652821,0.0,-0.8076065,9.691278,-0.5768618,9714.008;-0.46148944,9.652821,0.0,-0.9998938,9.845108,-0.19228727,9714.008;-0.46148944,9.652821,0.0,-0.69223416,10.229683,-0.34611708,9730.785;-0.46148944,9.652821,0.0,-1.0768087,9.960481,-0.34611708,9730.785;-0.46148944,9.652821,0.0,-0.69223416,9.729735,0.61531925,9747.5625;-0.46148944,9.652821,0.0,-0.23074472,9.652821,-0.07691491,9764.34;-0.46148944,9.652821,0.0,-0.4999469,9.845108,0.26920217,9764.34;-0.46148944,9.652821,0.0,-0.23074472,10.152767,0.53840435,9781.117;-0.46148944,9.652821,0.0,-0.15382981,9.80665,-0.11537236,9781.117;-0.46148944,9.652821,0.0,-0.61531925,9.729735,0.15382981,9797.895;-0.46148944,9.652821,0.0,-0.69223416,9.960481,0.07691491,9797.895;-0.46148944,9.652821,0.0,-1.0768087,9.768193,0.5768618,9814.671;-0.46148944,9.652821,0.0,-0.8076065,10.075852,0.15382981,9831.448;-0.46148944,9.652821,0.0,0.0,10.0373955,-0.19228727,9831.448;-0.46148944,9.652821,0.0,-0.846064,10.26814,0.07691491,9848.226;-0.46148944,9.652821,0.0,-0.23074472,9.729735,0.26920217,9848.226;-0.46148944,9.652821,0.0,-0.6537767,9.614364,-0.19228727,9865.003;-0.46148944,9.652821,0.0,-0.8845214,10.229683,-0.34611708,9881.78;-0.46148944,9.652821,0.0,-0.6537767,9.883566,-0.53840435,9881.78;-0.46148944,9.652821,0.0,-0.9229789,9.883566,-0.26920217,9898.558;-0.46148944,9.652821,0.0,-0.53840435,9.691278,-0.26920217,9898.558;-0.46148944,9.652821,0.0,-0.76914907,9.922023,-0.15382981,9915.335;-0.46148944,9.652821,0.0,-0.61531925,9.883566,-0.26920217,9932.112;-0.46148944,9.652821,0.0,-1.0768087,9.422076,0.15382981,9932.112;-0.46148944,9.652821,0.0,-0.34611708,9.883566,0.23074472,9948.889;-0.46148944,9.652821,0.0,-0.4999469,9.691278,-0.53840435,9948.889;-0.46148944,9.652821,0.0,-0.53840435,9.422076,0.0,9965.666;-0.46148944,9.652821,0.0,-0.8845214,9.883566,0.19228727,9982.443;-0.46148944,9.652821,0.0,-0.69223416,10.421969,0.30765963,9982.443;-0.46148944,9.652821,0.0,-0.7306916,9.960481,0.26920217,9999.221;-0.46148944,9.652821,0.0,-0.4999469,9.845108,0.11537236,9999.221;-0.46148944,9.652821,0.0,-0.76914907,9.998938,0.423032,10015.998;-0.46148944,9.652821,0.0,0.0,10.614257,0.30765963,10032.775;-0.46148944,9.652821,0.0,-0.4999469,9.460533,0.423032,10032.775;-0.46148944,9.652821,0.0,-0.7306916,10.229683,-0.19228727,10049.553;-0.46148944,9.652821,0.0,0.30765963,9.922023,0.11537236,10049.553;-0.46148944,9.652821,0.0,-0.423032,9.575906,0.038457453,10066.33;-0.46148944,9.652821,0.0,-0.5768618,9.883566,0.11537236,10083.106;-0.46148944,9.652821,0.0,-0.46148944,9.80665,-0.07691491,10083.106;-0.46148944,9.652821,0.0,-0.34611708,9.422076,0.34611708,10099.884;-0.46148944,9.652821,0.0,-0.9229789,10.152767,0.38457453,10099.884;-0.46148944,9.652821,0.0,-0.46148944,9.691278,-0.423032,10116.661;-0.46148944,9.652821,0.0,-0.5768618,9.422076,-0.19228727,10133.438;-0.46148944,9.652821,0.0,-0.9229789,9.845108,-0.53840435,10133.438;-0.46148944,9.652821,0.0,-0.8076065,10.26814,-0.11537236,10150.216;-0.46148944,9.652821,0.0,-0.15382981,10.152767,0.0,10150.216;-0.46148944,9.652821,0.0,-0.38457453,9.691278,-0.19228727,10166.993;-0.46148944,9.652821,0.0,-0.5768618,9.537449,-0.23074472,10183.7705;-0.46148944,9.652821,0.0,-0.61531925,9.575906,-0.23074472,10183.7705;-0.46148944,9.652821,0.0,-0.76914907,9.652821,0.26920217,10200.547;-0.46148944,9.652821,0.0,-0.423032,9.960481,0.0,10200.547;-0.46148944,9.652821,0.0,-0.96143633,9.729735,-0.34611708,10217.324;-0.46148944,9.652821,0.0,-0.423032,9.575906,-0.07691491,10234.102;-0.46148944,9.652821,0.0,-0.53840435,10.11431,-0.26920217,10234.102;-0.46148944,9.652821,0.0,-0.6537767,10.075852,0.07691491,10250.879;-0.46148944,9.652821,0.0,-0.38457453,9.998938,0.38457453,10250.879;-0.46148944,9.652821,0.0,-0.30765963,9.383618,0.23074472,10267.656;-0.46148944,9.652821,0.0,-0.7306916,9.691278,0.11537236,10267.656;-0.46148944,9.652821,0.0,-0.4999469,9.883566,0.15382981,10284.434;-0.46148944,9.652821,0.0,-0.9229789,9.537449,0.26920217,10301.211;-0.46148944,9.652821,0.0,-0.11537236,10.498885,-0.07691491,10301.211;-0.46148944,9.652821,0.0,-0.26920217,9.922023,-0.038457453,10317.988;-0.46148944,9.652821,0.0,-0.26920217,9.537449,-0.26920217,10317.988;-0.46148944,9.652821,0.0,-0.9229789,10.460427,0.07691491,10334.765;-0.46148944,9.652821,0.0,-0.53840435,9.922023,-0.07691491,10351.542;-0.46148944,9.652821,0.0,-0.8076065,9.575906,0.34611708,10351.542;-0.46148944,9.652821,0.0,-0.23074472,10.229683,0.30765963,10368.319;-0.46148944,9.652821,0.0,-0.5768618,9.768193,-0.11537236,10368.319;-0.46148944,9.652821,0.0,-0.69223416,10.152767,0.4999469,10385.097;-0.46148944,9.652821,0.0,-0.26920217,9.960481,-0.07691491,10401.874;-0.46148944,9.652821,0.0,-0.69223416,10.191225,0.46148944,10401.874;-0.46148944,9.652821,0.0,-0.8076065,9.614364,0.19228727,10418.651;-0.46148944,9.652821,0.0,-0.11537236,9.229789,-0.038457453,10418.651;-0.46148944,9.652821,0.0,-0.30765963,9.768193,0.423032,10435.429;-0.46148944,9.652821,0.0,-0.4999469,9.575906,-0.30765963,10452.206;-0.46148944,9.652821,0.0,-0.76914907,9.883566,-0.07691491,10452.206;-0.46148944,9.652821,0.0,-0.53840435,9.922023,-0.15382981,10468.982;-0.46148944,9.652821,0.0,-0.8076065,9.575906,-0.23074472,10468.982;-0.46148944,9.652821,0.0,-0.6537767,9.80665,0.30765963,10485.76;-0.46148944,9.652821,0.0,-1.0383513,10.26814,0.23074472,10502.537;-0.46148944,9.652821,0.0,-0.8076065,10.0373955,-0.46148944,10502.537;-0.46148944,9.652821,0.0,-0.96143633,9.883566,-0.11537236,10519.314;-0.46148944,9.652821,0.0,-0.8076065,9.998938,-0.038457453,10519.314;-0.46148944,9.652821,0.0,-0.4999469,9.845108,0.0,10536.092;-0.46148944,9.652821,0.0,-0.34611708,9.883566,-0.038457453,10552.869;-0.46148944,9.652821,0.0,-0.5768618,9.575906,0.07691491,10552.869;-0.46148944,9.652821,0.0,-0.423032,9.614364,0.07691491,10569.646;-0.46148944,9.652821,0.0,-0.61531925,10.152767,0.4999469,10569.646;-0.46148944,9.652821,0.0,-0.96143633,9.306704,0.23074472,10586.423;-0.46148944,10.691172,0.0,-0.5768618,10.691172,0.76914907,10603.2;-0.46148944,10.691172,0.0,-0.53840435,10.152767,0.423032,10603.2;-0.46148944,10.691172,0.0,-0.6537767,9.922023,0.46148944,10619.978;-0.46148944,10.691172,0.0,-0.9229789,9.729735,0.038457453,10619.978;-0.46148944,10.691172,0.0,-0.23074472,9.998938,0.30765963,10636.755;-0.46148944,9.614364,0.0,-0.4999469,9.614364,0.038457453,10653.532;-0.46148944,9.614364,0.0,0.23074472,9.575906,-0.46148944,10653.532;-0.46148944,9.614364,0.0,-0.5768618,9.998938,-0.038457453,10670.31;-0.46148944,9.614364,0.0,-0.69223416,10.460427,-0.23074472,10670.31;-0.46148944,9.614364,0.0,-0.23074472,9.691278,-0.07691491,10687.087;-0.46148944,9.614364,0.0,-0.6537767,9.652821,-0.11537236,10703.864;-0.46148944,9.614364,0.0,-0.846064,9.960481,0.07691491,10703.864;-0.46148944,9.614364,0.0,-0.8076065,9.883566,-0.15382981,10720.641;-0.46148944,9.614364,0.0,-0.423032,9.537449,0.34611708,10720.641;-0.46148944,9.614364,0.0,-0.69223416,9.80665,-0.11537236,10737.418;-0.46148944,9.614364,0.0,-0.423032,9.614364,-0.11537236,10754.195;-0.46148944,9.614364,0.0,-0.69223416,10.0373955,-0.07691491,10754.195;-0.46148944,9.614364,0.0,-0.61531925,9.960481,-0.23074472,10770.973;-0.46148944,9.614364,0.0,-0.8845214,9.768193,0.07691491,10770.973;-0.46148944,9.614364,0.0,-0.46148944,9.537449,-0.15382981,10787.75;-0.46148944,9.614364,0.0,-0.8845214,10.075852,0.19228727,10787.75;-0.46148944,9.614364,0.0,-0.6537767,9.845108,0.6537767,10804.527;-0.46148944,9.614364,0.0,-0.8845214,9.691278,0.0,10821.305;-0.46148944,9.614364,0.0,-0.46148944,9.845108,-0.11537236,10821.305;-0.46148944,9.614364,0.0,-0.46148944,9.998938,0.26920217,10838.081;-0.46148944,9.614364,0.0,-0.11537236,10.0373955,0.19228727,10838.081;-0.46148944,9.614364,0.0,-0.30765963,9.652821,-0.30765963,10854.858;-0.46148944,9.614364,0.0,-0.30765963,9.883566,0.0,10871.636;-0.46148944,9.614364,0.0,-0.69223416,10.229683,0.26920217,10871.636;-0.46148944,9.614364,0.0,-0.34611708,9.845108,0.34611708,10888.413;-0.46148944,9.614364,0.0,-0.4999469,9.652821,0.23074472,10888.413;-0.46148944,9.614364,0.0,-0.07691491,9.729735,-0.423032,10905.19;-0.46148944,9.614364,0.0,-0.4999469,9.498991,-0.19228727,10921.968;-0.46148944,9.614364,0.0,-0.46148944,9.691278,-0.38457453,10921.968;-0.46148944,9.614364,0.0,-0.76914907,10.11431,-0.26920217,10938.745;-0.46148944,9.614364,0.0,-0.53840435,9.80665,0.11537236,10938.745;-0.46148944,9.614364,0.0,-0.26920217,9.960481,0.53840435,10955.522;-0.46148944,9.614364,0.0,-0.423032,9.537449,-0.15382981,10972.299;-0.46148944,9.614364,0.0,-0.19228727,9.960481,-0.30765963,10972.299;-0.46148944,9.614364,0.0,0.0,9.768193,0.23074472,10989.076;-0.46148944,9.614364,0.0,-0.9998938,10.152767,0.23074472,10989.076;-0.46148944,9.614364,0.0,-0.423032,9.422076,0.34611708,11005.854;-0.46148944,9.614364,0.0,-0.846064,10.229683,0.4999469,11022.631;-0.46148944,9.614364,0.0,-0.46148944,10.11431,-0.15382981,11022.631;-0.46148944,9.614364,0.0,-0.53840435,9.960481,0.19228727,11039.408;-0.46148944,9.614364,0.0,-0.76914907,9.922023,-0.07691491,11039.408;-0.46148944,9.614364,0.0,-0.34611708,9.998938,-0.19228727,11056.186;-0.46148944,9.614364,0.0,-0.23074472,10.306598,0.15382981,11072.963;-0.46148944,9.614364,0.0,-0.61531925,10.0373955,-0.34611708,11072.963;-0.46148944,9.614364,0.0,-0.8076065,10.191225,0.26920217,11089.74;-0.46148944,9.614364,0.0,-0.69223416,9.691278,0.30765963,11089.74;-0.46148944,9.614364,0.0,-0.38457453,9.652821,0.5768618,11106.517;-0.46148944,9.614364,0.0,-0.5768618,9.883566,-0.038457453,11123.294;-0.46148944,9.614364,0.0,-0.34611708,9.883566,0.038457453,11123.294;-0.46148944,9.614364,0.0,-0.423032,9.614364,0.26920217,11140.071;-0.46148944,9.614364,0.0,-0.5768618,10.075852,0.0,11140.071;-0.46148944,9.614364,0.0,-0.69223416,9.883566,0.34611708,11156.849;-0.46148944,9.614364,0.0,-0.61531925,9.460533,-0.11537236,11173.626;-0.46148944,9.614364,0.0,-0.96143633,9.268247,0.46148944,11173.626;-0.46148944,9.614364,0.0,-0.96143633,9.998938,-0.11537236,11190.403;-0.46148944,9.614364,0.0,-0.53840435,9.768193,-0.15382981,11190.403;-0.46148944,9.614364,0.0,-0.9229789,9.845108,-0.23074472,11207.181;-0.46148944,9.614364,0.0,-0.9998938,10.152767,-0.07691491,11223.957;-0.46148944,9.614364,0.0,-0.46148944,10.345055,0.07691491,11223.957;-0.46148944,9.614364,0.0,-0.26920217,9.537449,-0.07691491,11240.734;-0.46148944,9.614364,0.0,-0.38457453,9.575906,-0.38457453,11240.734;-0.46148944,9.614364,0.0,-0.23074472,10.229683,-0.07691491,11257.512;-0.46148944,9.614364,0.0,-0.423032,9.998938,0.11537236,11274.289;-0.46148944,9.614364,0.0,-0.30765963,10.075852,0.5768618,11274.289;-0.46148944,9.614364,0.0,-0.5768618,10.152767,0.6537767,11291.066;-0.46148944,9.614364,0.0,-0.8076065,10.152767,0.6537767,11291.066;-0.46148944,9.614364,0.0,-0.7306916,9.729735,0.19228727,11307.844;-0.46148944,9.614364,0.0,-0.53840435,9.768193,0.46148944,11307.844;-0.46148944,9.614364,0.0,-1.1152661,9.80665,-0.11537236,11324.621;-0.46148944,9.614364,0.0,-1.2306385,10.0373955,0.0,11341.398;-0.46148944,9.614364,0.0,-0.7306916,9.652821,-0.4999469,11341.398;-0.46148944,9.614364,0.0,-0.846064,10.3835125,0.11537236,11358.175;-0.46148944,9.614364,0.0,-0.5768618,9.80665,0.038457453,11358.175;-0.46148944,9.614364,0.0,-0.9229789,9.883566,0.15382981,11374.952;-0.46148944,9.614364,0.0,-0.15382981,9.998938,-0.46148944,11391.7295;-0.46148944,9.614364,0.0,-0.8845214,10.11431,0.23074472,11391.7295;-0.46148944,9.614364,0.0,-0.15382981,10.0373955,-0.4999469,11408.507;-0.46148944,9.614364,0.0,-0.7306916,9.768193,0.19228727,11408.507;-0.46148944,9.614364,0.0,-0.7306916,10.306598,-0.07691491,11425.284;-0.46148944,9.614364,0.0,-0.6537767,9.845108,-0.07691491,11442.062;-0.46148944,9.614364,0.0,-0.61531925,9.998938,-0.19228727,11442.062;-0.46148944,9.614364,0.0,-0.4999469,9.845108,0.26920217,11458.839;-0.46148944,9.614364,0.0,-0.76914907,10.229683,-0.23074472,11458.839;-0.46148944,9.614364,0.0,-0.8076065,9.883566,0.423032,11475.616;-0.46148944,9.614364,0.0,-1.1921811,10.152767,0.76914907,11492.393;-0.46148944,9.614364,0.0,-0.423032,9.652821,0.19228727,11492.393;-0.46148944,9.614364,0.0,-0.34611708,10.11431,0.38457453,11509.17;-0.46148944,9.614364,0.0,-0.34611708,9.998938,0.07691491,11509.17;-0.46148944,9.614364,0.0,-0.96143633,9.960481,0.19228727,11525.947;-0.46148944,9.614364,0.0,-0.76914907,10.0373955,-0.34611708,11542.725;-0.46148944,9.614364,0.0,-0.30765963,10.0373955,-0.07691491,11542.725;-0.46148944,9.614364,0.0,-0.30765963,9.845108,-0.038457453,11559.502;-0.46148944,9.614364,0.0,-0.53840435,9.922023,-0.46148944,11559.502;-0.46148944,9.614364,0.0,-0.53840435,9.845108,0.53840435,11576.279;-0.46148944,9.614364,0.0,-0.96143633,9.614364,0.34611708,11593.057;-0.46148944,9.614364,0.0,-0.96143633,10.345055,0.038457453,11593.057;-0.46148944,9.614364,0.0,-0.5768618,9.883566,0.38457453,11609.833;-0.46148944,9.614364,0.0,-0.26920217,10.191225,0.30765963,11609.833;-0.46148944,9.614364,0.0,-0.69223416,9.768193,-0.11537236,11626.61;-0.46148944,9.614364,0.0,-0.96143633,9.80665,0.0,11643.388;-0.46148944,9.614364,0.0,-0.8845214,9.960481,0.38457453,11643.388;-0.46148944,9.614364,0.0,-0.7306916,9.575906,-0.23074472,11660.165;-0.46148944,9.614364,0.0,-0.7306916,10.152767,0.0,11660.165;-0.46148944,9.614364,0.0,0.19228727,10.306598,0.11537236,11676.942;-0.46148944,9.614364,0.0,-0.7306916,9.729735,-0.15382981,11693.72;-0.46148944,9.614364,0.0,-1.2306385,9.652821,0.11537236,11693.72;-0.46148944,9.614364,0.0,-0.4999469,9.998938,0.4999469,11710.497;-0.46148944,9.614364,0.0,-0.8845214,9.614364,0.11537236,11727.274;-0.46148944,9.614364,0.0,-0.6537767,10.075852,-0.19228727,11727.274;-0.46148944,9.614364,0.0,-1.0383513,9.691278,0.0,11744.051;-0.46148944,9.614364,0.0,-0.9998938,9.922023,-0.11537236,11744.051;-0.46148944,9.614364,0.0,-0.30765963,9.537449,0.07691491,11760.828;-0.46148944,9.614364,0.0,-0.38457453,9.575906,0.11537236,11760.828;-0.46148944,9.614364,0.0,-0.26920217,9.845108,0.038457453,11777.605;-0.46148944,9.614364,0.0,-0.26920217,9.422076,0.038457453,11777.605;-0.46148944,9.614364,0.0,-0.61531925,9.883566,0.38457453,11794.383;-0.46148944,9.614364,0.0,-0.61531925,9.922023,0.15382981,11811.16;-0.46148944,9.614364,0.0,-0.96143633,9.691278,0.11537236,11811.16;-0.46148944,9.614364,0.0,-0.46148944,10.075852,0.15382981,11827.9375;-0.46148944,9.614364,0.0,-0.38457453,10.152767,0.19228727,11827.9375;-0.46148944,9.614364,0.0,-0.30765963,9.845108,0.38457453,11844.715;-0.46148944,9.614364,0.0,-0.19228727,10.421969,0.23074472,11861.492;-0.46148944,9.614364,0.0,-0.69223416,9.960481,0.15382981,11861.492;-0.46148944,9.614364,0.0,-0.61531925,9.537449,0.15382981,11878.269;-0.46148944,9.614364,0.0,-0.423032,10.0373955,-0.038457453,11878.269;-0.46148944,9.614364,0.0,-0.38457453,9.575906,0.23074472,11895.046;-0.46148944,9.614364,0.0,-0.26920217,9.80665,0.23074472,11911.823;-0.46148944,9.614364,0.0,-0.76914907,9.922023,0.30765963,11911.823;-0.46148944,9.614364,0.0,-1.0383513,9.691278,0.34611708,11928.601;-0.46148944,9.614364,0.0,-0.9229789,10.11431,0.15382981,11928.601;-0.46148944,9.614364,0.0,-0.8845214,9.883566,0.19228727,11945.378;-0.46148944,9.614364,0.0,-0.8076065,10.075852,0.46148944,11962.155;-0.46148944,9.614364,0.0,-0.46148944,9.883566,0.38457453,11962.155;-0.46148944,9.614364,0.0,-0.5768618,9.537449,0.19228727,11978.933;-0.46148944,9.614364,0.0,0.07691491,9.80665,0.38457453,11978.933;-0.46148944,9.614364,0.0,-0.6537767,9.80665,0.038457453,11995.709;-0.46148944,9.614364,0.0,-0.96143633,9.768193,-0.07691491,12012.486;-0.46148944,9.614364,0.0,-0.34611708,9.845108,-0.038457453,12012.486;-0.46148944,9.614364,0.0,-0.4999469,10.191225,0.30765963,12029.264;-0.46148944,9.614364,0.0,-0.4999469,9.652821,0.46148944,12029.264;-0.46148944,9.614364,0.0,-0.76914907,9.460533,0.30765963,12046.041;-0.46148944,9.614364,0.0,-0.76914907,9.729735,0.11537236,12062.818;-0.46148944,9.614364,0.0,-0.53840435,9.729735,-0.26920217,12062.818;-0.46148944,9.614364,0.0,-0.7306916,9.575906,0.11537236,12079.596;-0.46148944,9.614364,0.0,-0.423032,9.998938,0.26920217,12079.596;-0.46148944,9.614364,0.0,-0.8845214,10.152767,0.30765963,12096.373;-0.46148944,9.614364,0.0,-0.423032,9.845108,-0.19228727,12113.15;-0.46148944,9.614364,0.0,-0.6537767,10.26814,0.30765963,12113.15;-0.46148944,9.614364,0.0,-0.46148944,10.11431,0.46148944,12129.927;-0.46148944,9.614364,0.0,0.07691491,9.960481,0.038457453,12129.927;-0.46148944,9.614364,0.0,-0.38457453,10.0373955,-0.15382981,12146.704;-0.46148944,9.614364,0.0,-0.6537767,9.691278,0.038457453,12163.481;-0.46148944,9.614364,0.0,-0.61531925,9.691278,-0.23074472,12163.481;-0.46148944,9.614364,0.0,-0.53840435,9.537449,0.15382981,12180.259;-0.46148944,9.614364,0.0,-0.30765963,9.883566,0.26920217,12180.259;-0.46148944,9.614364,0.0,-0.61531925,10.11431,0.34611708,12197.036;-0.46148944,9.614364,0.0,-0.9998938,9.383618,-0.11537236,12213.813;-0.46148944,9.614364,0.0,-0.15382981,10.191225,0.11537236,12213.813;-0.46148944,9.614364,0.0,-0.8076065,9.922023,0.4999469,12230.591;-0.46148944,9.614364,0.0,-0.7306916,8.922129,0.46148944,12230.591;-0.46148944,9.614364,0.0,-0.96143633,9.883566,-0.038457453,12247.368;-0.46148944,9.614364,0.0,-0.6537767,9.691278,0.34611708,12264.145;-0.46148944,9.614364,0.0,-0.61531925,10.0373955,0.53840435,12264.145;-0.46148944,9.614364,0.0,-0.4999469,9.729735,-0.11537236,12280.922;-0.46148944,9.614364,0.0,-0.15382981,9.960481,-0.69223416,12280.922;-0.46148944,9.614364,0.0,-0.69223416,9.998938,0.423032,12297.699;-0.46148944,9.614364,0.0,-0.4999469,9.652821,-0.23074472,12297.699;-0.46148944,9.614364,0.0,-0.26920217,9.652821,-0.19228727,12314.477;-0.46148944,9.614364,0.0,-0.61531925,9.537449,-0.15382981,12331.254;-0.46148944,9.614364,0.0,-0.4999469,10.3835125,0.61531925,12331.254;-0.46148944,9.614364,0.0,-0.9229789,9.768193,0.5768618,12348.031;-0.46148944,9.614364,0.0,-0.53840435,9.306704,0.11537236,12348.031;-0.46148944,9.614364,0.0,-0.038457453,9.537449,0.15382981,12364.809;-0.46148944,9.614364,0.0,-0.4999469,9.845108,0.4999469,12381.585;-0.46148944,9.614364,0.0,-0.8076065,9.268247,0.11537236,12381.585;-0.46148944,9.614364,0.0,-1.0383513,9.575906,0.26920217,12398.362;-0.46148944,9.614364,0.0,-0.11537236,9.883566,-0.19228727,12398.362;-0.46148944,9.614364,0.0,-0.30765963,9.575906,0.19228727,12415.14;-0.46148944,9.614364,0.0,-0.30765963,9.883566,0.26920217,12431.917;-0.46148944,9.614364,0.0,-0.423032,9.883566,-0.423032,12431.917;-0.46148944,9.614364,0.0,-0.53840435,10.11431,-0.07691491,12448.694;-0.46148944,9.614364,0.0,-0.23074472,9.537449,0.0,12448.694;-0.46148944,9.614364,0.0,-0.038457453,9.960481,-0.8076065,12465.472;-0.46148944,9.614364,0.0,-0.26920217,10.460427,0.423032,12482.249;-0.46148944,9.614364,0.0,-0.4999469,9.460533,0.19228727,12482.249;-0.46148944,9.614364,0.0,-0.53840435,10.152767,0.11537236,12499.026;-0.46148944,9.614364,0.0,-0.7306916,9.960481,0.26920217,12499.026;-0.46148944,9.614364,0.0,-0.6537767,9.614364,0.19228727,12515.803;-0.46148944,9.614364,0.0,-0.96143633,10.537342,-0.19228727,12532.58;-0.46148944,9.614364,0.0,-0.8076065,9.922023,-0.038457453,12532.58;-0.46148944,9.614364,0.0,-0.07691491,10.075852,0.11537236,12549.357;-0.46148944,9.614364,0.0,-0.15382981,9.845108,0.11537236,12549.357;-0.46148944,9.614364,0.0,-0.26920217,9.922023,-0.038457453,12566.135;-0.46148944,9.614364,0.0,-0.4999469,9.652821,0.038457453,12582.912;-0.46148944,9.614364,0.0,-0.23074472,9.845108,0.61531925,12582.912;-0.46148944,9.614364,0.0,-0.5768618,9.691278,0.11537236,12599.689;-0.46148944,9.614364,0.0,-0.46148944,9.768193,-0.15382981,12599.689;-0.46148944,9.614364,0.0,-0.76914907,9.537449,-0.038457453,12616.467;-0.46148944,9.614364,0.0,-0.69223416,9.998938,0.30765963,12633.243;-0.46148944,9.614364,0.0,-0.26920217,9.729735,0.038457453,12633.243;-0.46148944,9.614364,0.0,-0.26920217,9.922023,0.15382981,12650.0205;-0.46148944,9.614364,0.0,-0.26920217,9.614364,0.34611708,12650.0205;-0.46148944,9.614364,0.0,-0.96143633,10.075852,0.61531925,12666.798;-0.46148944,9.614364,0.0,-0.6537767,10.0373955,0.34611708,12683.575;-0.46148944,9.614364,0.0,-0.34611708,9.652821,0.53840435,12683.575;-0.46148944,9.614364,0.0,-0.4999469,9.922023,0.423032,12700.353;-0.46148944,9.614364,0.0,-0.9229789,9.80665,0.46148944,12700.353;-0.46148944,9.614364,0.0,-0.15382981,9.922023,0.23074472,12717.13;-0.46148944,9.614364,0.0,-0.6537767,9.652821,0.15382981,12733.907;111,111,111,111,111,111,111;