999,999,999,999,999,999,999;-0.38457453,8.845214,3.6919155,-0.846064,9.075959,3.5380857,0.0;-0.38457453,8.845214,3.6919155,-0.8076065,9.537449,4.23032,33.554432;-0.38457453,8.845214,3.6919155,-0.8076065,9.037501,3.9226604,50.33165;-0.38457453,8.845214,3.6919155,-0.34611708,9.037501,4.691809,50.33165;-0.38457453,8.845214,3.6919155,-0.30765963,8.922129,3.730373,67.108864;-0.38457453,8.845214,3.6919155,-0.423032,8.960587,3.6150007,67.108864;-0.38457453,8.845214,3.6919155,0.38457453,9.345161,3.6150007,83.88608;-0.38457453,8.845214,3.6919155,-0.11537236,8.845214,3.6919155,100.6633;-0.38457453,8.845214,3.6919155,-0.69223416,9.537449,4.1149473,100.6633;-0.38457453,8.845214,4.807182,-0.69223416,8.576012,4.807182,100.6633;-0.38457453,8.845214,4.807182,-0.4999469,8.960587,4.345692,117.44051;-0.38457453,8.845214,4.807182,0.038457453,8.960587,3.9611177,117.44051;-0.38457453,8.845214,3.230426,-0.23074472,9.345161,3.230426,134.21773;-0.38457453,8.845214,3.230426,0.30765963,8.845214,3.230426,150.99495;-0.38457453,8.845214,3.230426,0.34611708,9.037501,3.8842027,150.99495;-0.38457453,8.845214,4.499522,0.5768618,8.576012,4.499522,167.77216;-0.38457453,8.845214,4.499522,-0.23074472,9.345161,4.153405,167.77216;-0.38457453,8.845214,4.499522,-0.23074472,8.422182,3.8842027,184.54938;-0.38457453,8.845214,3.0381389,0.19228727,8.691384,3.0381389,201.3266;-0.38457453,8.845214,3.0381389,0.15382981,9.306704,2.9996815,201.3266;-0.38457453,8.845214,3.0381389,-0.038457453,8.883672,2.9996815,201.3266;-0.38457453,8.845214,3.0381389,0.26920217,9.191331,2.6920218,218.1038;-0.38457453,8.845214,3.0381389,0.19228727,9.422076,3.3457985,218.1038;-0.38457453,8.845214,3.0381389,0.5768618,9.075959,2.807394,234.88103;-0.38457453,8.845214,3.0381389,-0.15382981,9.114416,2.9996815,251.65823;-0.38457453,8.845214,3.0381389,-0.15382981,9.229789,3.230426,251.65823;0.6537767,8.845214,3.0381389,0.6537767,8.960587,3.4611707,268.43546;0.6537767,8.845214,3.0381389,-0.038457453,8.691384,2.8458514,268.43546;-0.38457453,8.845214,3.0381389,-0.38457453,9.268247,3.3457985,285.21268;-0.38457453,8.845214,3.0381389,0.038457453,9.268247,2.1920748,301.9899;-0.38457453,8.845214,3.0381389,0.11537236,9.345161,2.4997344,301.9899;-0.38457453,8.845214,3.0381389,0.46148944,8.999044,2.1536174,318.7671;-0.38457453,8.845214,3.0381389,0.34611708,9.498991,2.3843622,318.7671;-0.38457453,8.845214,3.0381389,0.26920217,9.383618,2.1536174,335.5443;-0.38457453,8.845214,1.615213,0.26920217,9.537449,1.615213,335.5443;-0.38457453,10.0373955,1.615213,0.61531925,10.0373955,1.1152661,352.32153;-0.38457453,10.0373955,1.615213,0.423032,9.960481,1.8844151,369.09875;-0.38457453,10.0373955,1.615213,0.038457453,9.80665,1.615213,369.09875;-0.38457453,10.0373955,1.615213,-0.26920217,9.575906,0.8076065,385.87598;-0.38457453,10.0373955,1.615213,-0.61531925,9.80665,0.69223416,385.87598;-0.38457453,10.0373955,0.30765963,-0.6537767,10.614257,0.30765963,402.6532;-0.38457453,10.0373955,0.30765963,0.0,9.691278,0.038457453,419.4304;-0.38457453,10.0373955,0.30765963,-0.19228727,9.691278,0.846064,419.4304;-0.38457453,10.0373955,0.30765963,0.07691491,9.498991,0.846064,436.2076;-0.38457453,8.845214,0.30765963,-0.11537236,8.845214,0.4999469,436.2076;0.846064,8.845214,0.30765963,0.846064,8.806757,1.1537236,452.98483;0.846064,8.845214,1.4613832,0.34611708,8.845214,1.4613832,469.76205;0.846064,8.845214,1.4613832,1.2690959,8.768299,0.61531925,469.76205;0.846064,8.845214,0.34611708,0.8845214,8.037608,0.34611708,486.53928;0.846064,8.845214,0.34611708,1.0383513,8.15298,1.2690959,486.53928;0.846064,8.845214,0.34611708,1.0383513,8.076065,0.9998938,503.31647;0.846064,8.845214,0.34611708,0.8845214,8.46064,0.69223416,520.0937;0.846064,8.845214,0.34611708,0.61531925,8.576012,0.0,520.0937;0.846064,8.845214,0.34611708,0.423032,8.652927,0.38457453,536.8709;0.846064,8.845214,1.4613832,0.34611708,8.883672,1.4613832,536.8709;-0.26920217,8.845214,1.4613832,-0.26920217,9.152874,1.3460109,553.64813;-0.26920217,8.845214,1.4613832,-1.0383513,9.537449,1.0383513,570.42535;-0.26920217,10.229683,1.4613832,-1.0768087,10.229683,1.615213,570.42535;-1.3460109,10.229683,1.4613832,-1.3460109,10.421969,1.1921811,587.2026;-1.3460109,10.229683,1.4613832,-1.7690428,10.7296295,1.3460109,587.2026;-1.3460109,10.229683,1.4613832,-1.8075004,11.114204,1.9997876,603.9798;-1.3460109,10.229683,1.4613832,-1.4229257,10.3835125,1.6536705,620.757;-1.3460109,10.229683,1.4613832,-1.5767555,10.691172,1.4998407,620.757;-1.3460109,10.229683,1.4613832,-1.3460109,10.26814,1.8844151,637.5342;-1.3460109,10.229683,2.5766494,-0.46148944,10.3835125,2.5766494,637.5342;-1.3460109,10.229683,2.5766494,-0.423032,10.460427,2.6151068,654.3114;-0.038457453,10.229683,2.5766494,-0.038457453,9.80665,2.8458514,671.0886;-0.038457453,10.229683,2.5766494,0.26920217,9.998938,2.461277,671.0886;-0.038457453,10.229683,2.5766494,0.423032,10.11431,2.11516,687.86584;-0.038457453,10.229683,2.5766494,0.0,9.845108,2.038245,687.86584;-0.038457453,10.229683,1.3844683,-0.5768618,9.691278,1.3844683,704.64307;-0.038457453,10.229683,1.3844683,-0.34611708,9.691278,1.8075004,721.4203;-0.038457453,10.229683,1.3844683,-0.23074472,9.652821,2.3074472,721.4203;-0.038457453,10.229683,1.3844683,-0.7306916,9.691278,1.5382981,738.1975;-0.038457453,10.229683,1.3844683,-0.38457453,9.575906,1.3075534,738.1975;-0.038457453,10.229683,1.3844683,-0.6537767,10.152767,1.1152661,754.97473;-0.038457453,10.229683,1.3844683,-0.038457453,10.0373955,1.8844151,771.75195;-0.038457453,10.229683,1.3844683,-0.9229789,9.691278,1.8844151,771.75195;-0.038457453,10.229683,1.3844683,-0.23074472,9.575906,1.2690959,788.5292;-1.2306385,10.229683,1.3844683,-1.2306385,9.768193,1.1537236,788.5292;-1.2306385,10.229683,1.3844683,-1.5382981,10.229683,0.7306916,805.3064;-1.2306385,10.229683,1.3844683,-1.692128,10.26814,1.6536705,822.08356;-1.2306385,10.229683,1.3844683,-1.4998407,10.229683,1.4229257,822.08356;-1.2306385,10.229683,1.3844683,-1.4613832,10.7296295,0.96143633,838.8608;-1.2306385,10.229683,1.3844683,-1.692128,10.845002,0.846064,838.8608;-1.2306385,10.229683,1.3844683,-0.8845214,10.191225,0.69223416,855.638;-1.2306385,10.229683,1.3844683,-1.2690959,9.845108,1.8459578,855.638;-1.2306385,10.229683,1.3844683,-0.7306916,9.998938,1.4229257,872.4152;-1.2306385,10.229683,1.3844683,-0.34611708,9.729735,0.8076065,889.19244;-1.2306385,10.229683,1.3844683,-0.26920217,9.729735,1.1152661,889.19244;0.0,10.229683,1.3844683,0.0,9.922023,0.69223416,905.96967;0.0,10.229683,0.07691491,-0.4999469,9.652821,0.07691491,905.96967;0.0,10.229683,0.07691491,-0.61531925,9.268247,-0.38457453,922.7469;0.0,10.229683,0.07691491,-0.61531925,9.652821,-0.61531925,939.5241;0.0,10.229683,0.07691491,-0.5768618,9.80665,-0.53840435,939.5241;0.0,10.229683,0.07691491,-0.69223416,9.652821,-0.34611708,956.30133;0.0,10.229683,0.07691491,-0.30765963,9.998938,-0.23074472,956.30133;0.0,10.229683,0.07691491,-0.846064,9.422076,0.30765963,973.07855;0.0,10.229683,0.07691491,-0.15382981,9.691278,-0.15382981,989.8558;0.0,10.229683,0.07691491,-0.423032,9.80665,0.19228727,989.8558;0.0,8.999044,0.07691491,0.038457453,8.999044,0.69223416,1006.63293;0.0,8.999044,0.07691491,-0.6537767,9.768193,0.9998938,1006.63293;0.0,10.26814,0.07691491,-0.038457453,10.26814,0.46148944,1023.41016;0.0,10.26814,0.07691491,-0.4999469,10.7296295,0.30765963,1040.1874;0.0,10.26814,0.07691491,-0.4999469,10.229683,0.8076065,1040.1874;0.0,10.26814,0.07691491,-0.30765963,10.229683,0.23074472,1056.9646;0.0,10.26814,0.07691491,-0.23074472,10.152767,-0.26920217,1056.9646;0.0,10.26814,0.07691491,-0.8845214,10.229683,-0.11537236,1073.7418;0.0,10.26814,1.1537236,0.11537236,9.845108,1.1537236,1090.519;0.0,10.26814,1.1537236,-0.7306916,10.11431,0.15382981,1090.519;0.0,10.26814,0.11537236,-0.34611708,9.80665,0.11537236,1107.2963;0.0,10.26814,0.11537236,-0.19228727,9.729735,0.6537767,1107.2963;0.0,10.26814,0.11537236,-0.7306916,10.191225,1.0383513,1124.0735;0.0,10.26814,1.3844683,-0.11537236,9.922023,1.3844683,1140.8507;0.0,10.26814,1.3844683,-0.5768618,10.460427,0.8845214,1140.8507;0.0,10.26814,0.34611708,-0.423032,9.80665,0.34611708,1157.6279;0.0,10.26814,0.34611708,-0.30765963,10.26814,-0.19228727,1157.6279;0.0,10.26814,0.34611708,-0.11537236,9.960481,0.46148944,1174.4052;0.0,10.26814,0.34611708,-0.69223416,9.960481,0.7306916,1191.1824;0.0,10.26814,0.34611708,-0.30765963,10.421969,0.6537767,1191.1824;0.0,10.26814,0.34611708,-0.7306916,10.152767,0.53840435,1207.9596;0.0,10.26814,0.34611708,-0.61531925,10.806544,-0.23074472,1207.9596;-1.1152661,10.26814,0.34611708,-1.1152661,10.11431,-0.34611708,1224.7368;-1.1152661,10.26814,0.34611708,-0.38457453,9.460533,-0.038457453,1241.514;-1.1152661,10.26814,0.34611708,-0.26920217,9.960481,0.15382981,1241.514;-1.1152661,10.26814,0.34611708,-0.19228727,9.998938,0.9229789,1258.2913;0.19228727,10.26814,0.34611708,0.19228727,9.383618,0.07691491,1258.2913;0.19228727,10.26814,0.34611708,-0.69223416,9.575906,0.07691491,1275.0684;-0.846064,10.26814,0.34611708,-0.846064,9.845108,-0.423032,1291.8456;-0.846064,10.26814,0.34611708,-0.423032,9.498991,-0.46148944,1291.8456;-0.846064,10.26814,0.34611708,-0.6537767,9.768193,0.15382981,1308.6228;-0.846064,10.26814,0.34611708,-0.846064,9.460533,0.30765963,1308.6228;-0.846064,10.26814,0.34611708,0.038457453,9.614364,0.5768618,1325.4;-0.846064,10.26814,0.34611708,-0.53840435,9.575906,0.53840435,1342.1772;-0.846064,10.26814,0.34611708,-0.46148944,9.422076,0.15382981,1342.1772;-0.846064,10.26814,0.34611708,-0.30765963,9.960481,0.19228727,1358.9545;-0.846064,10.26814,0.34611708,-0.038457453,9.80665,0.6537767,1358.9545;0.30765963,10.26814,0.34611708,0.30765963,9.652821,0.19228727,1375.7317;0.30765963,10.26814,0.34611708,-0.34611708,10.0373955,0.5768618,1392.5089;0.30765963,10.26814,0.34611708,-0.11537236,10.11431,0.7306916,1392.5089;0.30765963,10.26814,0.34611708,0.423032,9.80665,0.53840435,1409.2861;0.30765963,10.26814,0.34611708,-0.4999469,9.729735,0.19228727,1409.2861;1.4613832,16.498247,-0.76914907,1.4613832,16.498247,-0.76914907,1426.0634;-1.4229257,10.7296295,-0.76914907,-1.4229257,10.7296295,-0.69223416,1426.0634;-1.4229257,10.7296295,-0.76914907,-2.2689898,9.845108,0.11537236,1442.8406;-0.15382981,10.7296295,0.423032,-0.15382981,9.922023,0.423032,1459.6178;-0.15382981,10.7296295,0.423032,-0.11537236,10.0373955,0.7306916,1459.6178;-0.15382981,9.575906,0.423032,-0.30765963,9.575906,-0.038457453,1476.395;-0.15382981,9.575906,0.423032,-0.5768618,9.383618,0.15382981,1476.395;-0.15382981,9.575906,0.423032,0.15382981,9.575906,0.34611708,1493.1722;-0.15382981,9.575906,0.423032,-0.26920217,9.729735,0.76914907,1509.9495;-0.15382981,9.575906,0.423032,0.15382981,10.421969,-0.038457453,1509.9495;-0.15382981,9.575906,0.423032,-0.423032,9.729735,0.846064,1526.7267;-0.15382981,9.575906,0.423032,0.19228727,10.152767,0.46148944,1526.7267;-0.15382981,9.575906,0.423032,0.0,9.960481,0.9998938,1543.5039;-1.4998407,9.575906,0.423032,-1.4998407,9.998938,0.6537767,1560.2811;-1.4998407,9.575906,-1.692128,-0.5768618,9.345161,-1.692128,1560.2811;-1.4998407,10.7296295,-0.23074472,-0.61531925,10.7296295,-0.23074472,1577.0583;-1.4998407,10.7296295,-0.23074472,-0.846064,10.152767,0.0,1577.0583;-1.4998407,9.537449,-0.23074472,-1.1921811,9.537449,-0.23074472,1593.8356;-1.4998407,9.537449,-0.23074472,-0.76914907,10.075852,-0.30765963,1610.6128;0.07691491,9.537449,-0.23074472,0.07691491,9.883566,0.4999469,1610.6128;-1.8459578,9.537449,-0.23074472,-1.8459578,9.152874,0.53840435,1627.3899;-0.5768618,9.537449,-0.23074472,-0.5768618,10.11431,0.19228727,1627.3899;-0.5768618,9.537449,-0.23074472,-0.46148944,10.191225,0.34611708,1644.1671;-0.5768618,9.537449,-0.23074472,-0.30765963,9.652821,0.7306916,1660.9443;-0.5768618,10.768087,-0.23074472,-0.11537236,10.768087,0.46148944,1660.9443;-0.5768618,8.768299,-0.23074472,-1.2690959,8.768299,0.26920217,1677.7216;-0.5768618,8.768299,-0.23074472,-0.96143633,9.691278,-0.53840435,1677.7216;-0.5768618,9.883566,-0.23074472,-0.61531925,9.883566,0.38457453,1694.4988;-0.5768618,9.883566,-0.23074472,-1.2306385,9.845108,0.76914907,1711.276;-0.5768618,9.883566,-0.23074472,-0.4999469,9.614364,-1.1152661,1711.276;-0.5768618,9.883566,-0.23074472,-0.6537767,9.345161,-0.8076065,1728.0532;-0.5768618,9.883566,-0.23074472,-0.846064,9.614364,0.26920217,1728.0532;-1.8844151,9.883566,-0.23074472,-1.8844151,9.152874,-0.07691491,1744.8304;-0.34611708,9.883566,-0.23074472,-0.34611708,9.575906,-0.19228727,1761.6077;-0.34611708,9.883566,-0.23074472,-0.11537236,10.229683,0.11537236,1761.6077;-0.34611708,9.883566,-0.23074472,-0.11537236,10.306598,0.15382981,1778.3849;-0.34611708,10.960374,-0.23074472,0.26920217,10.960374,0.11537236,1778.3849;-0.34611708,9.575906,-0.23074472,-0.61531925,9.575906,0.69223416,1795.1621;-0.34611708,9.575906,-0.23074472,-1.0768087,9.306704,0.5768618,1811.9393;-0.34611708,9.575906,0.9998938,0.0,9.691278,0.9998938,1811.9393;-2.11516,8.383725,0.9998938,-2.11516,8.383725,1.3844683,1828.7166;0.038457453,10.3835125,-0.4999469,0.038457453,10.3835125,-0.4999469,1828.7166;0.038457453,10.3835125,-0.4999469,-0.34611708,9.960481,-0.38457453,1845.4938;0.038457453,10.3835125,0.9229789,-0.4999469,9.460533,0.9229789,1845.4938;0.038457453,11.460321,0.9229789,0.5768618,11.460321,0.07691491,1862.271;-1.4229257,9.075959,0.9229789,-1.4229257,9.075959,0.4999469,1879.0482;-1.4229257,9.075959,0.9229789,-0.61531925,9.729735,0.07691491,1879.0482;-0.19228727,9.075959,0.9229789,-0.19228727,9.422076,0.46148944,1895.8254;-2.0767026,9.075959,0.9229789,-2.0767026,8.845214,0.7306916,1912.6027;-0.26920217,10.229683,-0.53840435,-0.26920217,10.229683,-0.53840435,1912.6027;-0.26920217,10.229683,-0.53840435,0.26920217,9.883566,0.26920217,1929.3799;-0.26920217,10.229683,0.76914907,-0.9998938,9.229789,0.76914907,1929.3799;-0.26920217,10.229683,0.76914907,-0.8845214,10.960374,0.23074472,1946.1571;-1.5382981,10.229683,0.76914907,-1.5382981,9.229789,-0.19228727,1946.1571;0.423032,10.229683,0.76914907,0.423032,10.26814,0.07691491,1962.9343;0.423032,10.229683,0.76914907,0.23074472,9.845108,0.07691491,1979.7115;-1.0768087,10.229683,0.76914907,-1.0768087,9.998938,0.53840435,1979.7115;-1.0768087,10.229683,0.76914907,-0.15382981,10.460427,-0.11537236,1996.4886;-1.0768087,9.152874,0.76914907,-1.1537236,9.152874,0.15382981,1996.4886;-1.0768087,9.152874,0.76914907,-0.423032,10.075852,0.7306916,2013.2659;-1.0768087,9.152874,0.76914907,-1.8459578,8.999044,0.61531925,2030.0431;-1.0768087,9.152874,-0.61531925,-0.30765963,9.729735,-0.61531925,2030.0431;-1.0768087,10.652715,-0.61531925,-0.11537236,10.652715,-0.46148944,2046.8203;-1.0768087,10.652715,-0.61531925,-0.15382981,9.845108,0.038457453,2046.8203;-1.0768087,10.652715,-0.61531925,-0.53840435,11.152661,0.15382981,2063.5977;-1.0768087,10.652715,0.7306916,-1.0383513,10.26814,0.7306916,2080.3748;-1.0768087,9.306704,0.7306916,-1.3075534,9.306704,-0.19228727,2080.3748;-1.0768087,9.306704,0.7306916,-0.23074472,10.26814,0.6537767,2097.152;-1.0768087,9.306704,0.7306916,-1.5382981,8.61447,0.96143633,2097.152;-1.0768087,9.306704,-0.30765963,-0.76914907,9.768193,-0.30765963,2113.9292;0.38457453,9.306704,-0.30765963,0.38457453,9.998938,0.30765963,2130.7065;0.38457453,9.306704,0.8845214,-0.19228727,10.075852,0.8845214,2130.7065;0.38457453,11.344949,0.8845214,-0.11537236,11.344949,0.8076065,2147.4836;-1.4998407,9.268247,0.8845214,-1.4998407,9.268247,0.61531925,2147.4836;-1.4998407,9.268247,0.8845214,-0.61531925,9.691278,-0.038457453,2164.2607;0.30765963,10.5758,0.8845214,0.30765963,10.5758,0.34611708,2181.038;-1.9997876,9.037501,0.8845214,-1.9997876,9.037501,1.2690959,2181.038;-0.23074472,9.037501,0.8845214,-0.23074472,10.0373955,0.0,2197.8152;-0.23074472,10.421969,0.8845214,0.15382981,10.421969,0.23074472,2197.8152;-0.23074472,10.421969,0.8845214,-0.26920217,9.922023,-0.11537236,2214.5925;-0.23074472,10.421969,-0.15382981,-0.8076065,10.460427,-0.15382981,2231.3696;-0.23074472,8.691384,-0.15382981,-1.2306385,8.691384,-0.038457453,2231.3696;-0.23074472,9.960481,-0.15382981,0.26920217,9.960481,0.038457453,2248.147;-0.23074472,9.960481,-0.15382981,-0.423032,9.768193,-0.038457453,2248.147;-0.23074472,9.960481,-0.15382981,-1.0768087,10.3835125,0.6537767,2264.924;-0.23074472,11.229576,-0.15382981,-0.15382981,11.229576,0.61531925,2281.7014;-0.23074472,9.614364,-0.15382981,-0.7306916,9.614364,-0.11537236,2281.7014;-0.23074472,9.614364,-0.15382981,-0.34611708,9.998938,0.30765963,2298.4785;-0.23074472,9.614364,-0.15382981,-0.6537767,9.960481,0.423032,2298.4785;-0.23074472,9.614364,-0.15382981,-0.19228727,10.229683,-0.7306916,2315.2559;-0.23074472,9.614364,-0.15382981,-0.423032,10.26814,0.23074472,2332.033;-0.23074472,9.614364,-0.15382981,-0.19228727,9.614364,0.15382981,2332.033;-0.23074472,10.921917,-0.15382981,-0.34611708,10.921917,0.11537236,2348.8103;-0.23074472,9.691278,-0.15382981,-1.1152661,9.691278,0.07691491,2348.8103;-0.23074472,9.691278,-0.15382981,-1.2306385,8.806757,0.15382981,2365.5874;-0.23074472,9.691278,-0.15382981,-0.26920217,10.26814,0.19228727,2365.5874;-0.23074472,9.691278,-0.15382981,-1.1921811,8.806757,0.61531925,2382.3647;-0.23074472,9.691278,-0.15382981,-0.23074472,10.537342,-0.038457453,2399.1418;-0.23074472,9.691278,-0.15382981,0.15382981,10.191225,-0.15382981,2399.1418;-0.23074472,9.691278,-0.15382981,0.38457453,9.575906,0.423032,2415.9192;-0.23074472,9.691278,-0.15382981,-0.15382981,10.614257,-0.53840435,2432.6963;-1.7305853,9.691278,-0.15382981,-1.7305853,9.383618,0.19228727,2432.6963;-1.7305853,9.691278,-0.15382981,-1.2690959,9.037501,0.4999469,2449.4736;-0.46148944,9.691278,1.1537236,-0.46148944,9.768193,1.1537236,2449.4736;-1.9997876,9.691278,1.1537236,-1.9997876,9.191331,1.2690959,2466.2507;0.38457453,11.191119,-0.4999469,0.38457453,11.191119,-0.4999469,2483.028;0.38457453,11.191119,-0.4999469,-0.23074472,10.229683,-0.23074472,2483.028;0.38457453,10.0373955,-0.4999469,-0.038457453,10.0373955,0.19228727,2499.8052;0.38457453,10.0373955,-0.4999469,-0.423032,10.691172,-0.61531925,2499.8052;-1.3844683,10.0373955,-0.4999469,-1.3844683,9.729735,0.07691491,2516.5825;-1.3844683,10.0373955,-0.4999469,-0.846064,9.383618,0.34611708,2516.5825;-1.3844683,10.0373955,0.9229789,-0.9229789,9.268247,0.9229789,2533.3596;-1.3844683,10.0373955,0.9229789,-1.615213,9.460533,0.846064,2550.1367;-1.3844683,10.0373955,-0.34611708,-0.423032,10.806544,-0.34611708,2550.1367;-0.19228727,10.0373955,-0.34611708,-0.19228727,10.498885,-0.6537767,2566.914;-0.19228727,10.0373955,-0.34611708,0.038457453,9.652821,0.34611708,2566.914;-0.19228727,10.0373955,0.846064,-0.5768618,10.306598,0.846064,2583.6912;-1.5767555,8.15298,0.846064,-1.5767555,8.15298,0.9998938,2600.4685;-0.07691491,9.383618,0.846064,-0.07691491,9.383618,0.5768618,2600.4685;-0.07691491,9.383618,0.846064,-0.11537236,9.614364,0.30765963,2617.2456;-0.07691491,10.691172,0.846064,-1.0383513,10.691172,0.8845214,2617.2456;-0.07691491,10.691172,0.846064,-0.61531925,10.306598,0.38457453,2634.023;-1.2306385,9.460533,-1.1152661,-1.2306385,9.460533,-1.1152661,2650.8;-0.07691491,9.460533,-0.07691491,-0.07691491,10.191225,-0.07691491,2650.8;-1.615213,9.460533,-0.07691491,-1.615213,8.729842,0.9229789,2667.5774;-1.615213,9.460533,-0.07691491,-0.69223416,9.229789,0.30765963,2667.5774;-0.5768618,9.460533,-0.07691491,-0.5768618,10.460427,0.53840435,2684.3545;-0.5768618,9.460533,-0.07691491,-0.23074472,9.537449,0.34611708,2701.1318;-0.5768618,11.498778,-0.07691491,0.11537236,11.498778,0.61531925,2701.1318;-1.8075004,8.922129,-0.07691491,-1.8075004,8.922129,0.0,2717.909;-1.8075004,8.922129,-0.07691491,-1.5382981,8.960587,0.11537236,2734.6863;-1.8075004,8.922129,1.1152661,-1.4998407,8.845214,1.1152661,2751.4634;0.11537236,11.037289,-0.30765963,0.11537236,11.037289,-0.30765963,2751.4634;0.11537236,11.037289,-0.30765963,0.0,10.691172,-0.423032,2768.2407;0.11537236,9.537449,-0.30765963,-0.19228727,9.537449,0.5768618,2768.2407;-1.1921811,9.537449,-0.30765963,-1.1921811,9.845108,0.46148944,2785.0178;-2.4228196,8.229895,-0.30765963,-2.4228196,8.229895,0.46148944,2801.7952;-0.69223416,9.922023,-0.30765963,-0.69223416,9.922023,0.4999469,2801.7952;-0.69223416,9.922023,0.7306916,-0.423032,9.691278,0.7306916,2818.5723;-0.69223416,9.922023,0.7306916,-1.3460109,9.191331,1.3075534,2818.5723;0.38457453,11.498778,0.7306916,0.38457453,11.498778,-0.19228727,2835.3496;0.38457453,10.306598,0.7306916,0.19228727,10.306598,0.11537236,2852.1267;0.38457453,10.306598,0.7306916,-0.34611708,9.422076,0.23074472,2852.1267;0.38457453,10.306598,0.7306916,0.11537236,10.421969,0.46148944,2868.904;-2.11516,8.2683525,0.7306916,-2.11516,8.2683525,0.6537767,2868.904;-0.6537767,9.845108,0.7306916,-0.6537767,9.845108,0.53840435,2885.6812;-0.6537767,9.845108,0.7306916,-0.96143633,8.883672,0.61531925,2885.6812;-0.6537767,9.845108,0.7306916,-0.61531925,10.537342,0.846064,2902.4583;-0.6537767,9.845108,-0.34611708,-0.9998938,10.0373955,-0.34611708,2919.2356;-0.6537767,9.845108,-0.34611708,-0.4999469,9.729735,-0.038457453,2919.2356;-0.6537767,9.845108,-0.34611708,0.11537236,10.152767,0.15382981,2936.0127;-0.6537767,9.845108,1.0383513,-0.7306916,9.614364,1.0383513,2936.0127;-0.6537767,9.845108,1.0383513,-1.1152661,9.422076,0.423032,2952.79;-0.6537767,9.845108,1.0383513,-0.8076065,9.922023,0.07691491,2969.5671;-0.6537767,9.845108,1.0383513,-1.3844683,9.191331,0.30765963,2969.5671;-0.6537767,9.845108,1.0383513,-0.26920217,10.652715,0.4999469,2986.3445;-2.1536174,9.845108,1.0383513,-2.1536174,9.614364,0.07691491,2986.3445;-0.846064,9.845108,1.0383513,-0.846064,9.80665,0.038457453,3003.1216;-0.846064,9.845108,1.0383513,-0.038457453,9.998938,0.23074472,3019.899;-0.846064,9.845108,1.0383513,-1.692128,9.114416,1.4229257,3019.899;-0.846064,9.845108,1.0383513,-0.4999469,10.075852,0.34611708,3036.676;-0.846064,9.845108,-0.07691491,-0.38457453,10.345055,-0.07691491,3036.676;-0.846064,9.845108,-0.07691491,-0.4999469,9.383618,0.30765963,3053.4534;-0.846064,9.845108,-0.07691491,-0.26920217,10.614257,0.5768618,3070.2305;-2.0767026,8.114523,-0.07691491,-2.0767026,8.114523,0.61531925,3070.2305;-0.53840435,9.691278,-0.07691491,-0.53840435,9.691278,-0.46148944,3087.0078;0.4999469,9.691278,-0.07691491,0.4999469,10.345055,0.30765963,3087.0078;-1.4613832,9.691278,-0.07691491,-1.4613832,9.345161,0.8845214,3103.785;-0.038457453,10.768087,-0.07691491,-0.038457453,10.768087,-0.5768618,3120.5623;-0.038457453,9.114416,-0.07691491,-0.76914907,9.114416,-0.11537236,3120.5623;-0.038457453,9.114416,-0.07691491,-0.9229789,10.075852,0.26920217,3137.3394;-0.038457453,10.460427,-0.07691491,0.0,10.460427,0.7306916,3137.3394;-2.5381918,8.345267,-0.07691491,-2.5381918,8.345267,0.76914907,3154.1167;-0.61531925,10.0373955,-0.07691491,-0.61531925,10.0373955,0.07691491,3170.8938;-0.61531925,10.0373955,-0.07691491,0.07691491,9.922023,0.23074472,3170.8938;-0.61531925,10.0373955,1.2690959,-0.8845214,10.075852,1.2690959,3187.6711;-0.61531925,11.306491,-0.46148944,0.07691491,11.306491,-0.46148944,3187.6711;-0.61531925,9.614364,-0.46148944,-1.4613832,9.614364,0.038457453,3204.4482;-0.61531925,9.614364,-0.46148944,0.038457453,9.883566,-0.11537236,3221.2256;-0.61531925,9.614364,0.61531925,-0.6537767,9.768193,0.61531925,3221.2256;-2.2305322,8.576012,0.61531925,-2.2305322,8.576012,0.8845214,3238.0027;-0.30765963,9.768193,0.61531925,-0.30765963,9.768193,0.038457453,3238.0027;-0.30765963,9.768193,0.61531925,-0.5768618,9.152874,0.6537767,3254.7798;-0.30765963,9.768193,0.61531925,-0.26920217,10.11431,0.69223416,3271.5571;-0.30765963,9.768193,0.61531925,-1.2306385,9.922023,0.7306916,3271.5571;-0.30765963,9.768193,0.61531925,-0.9229789,9.691278,0.07691491,3288.3342;-0.30765963,9.768193,0.61531925,-0.038457453,10.26814,0.26920217,3288.3342;-1.8459578,9.768193,0.61531925,-1.8459578,9.075959,1.2306385,3305.1116;-1.8459578,9.768193,0.61531925,-1.3460109,9.306704,0.5768618,3321.8887;-1.8459578,9.768193,0.61531925,-0.8845214,9.268247,-0.30765963,3321.8887;-0.53840435,9.768193,0.61531925,-0.53840435,9.114416,0.23074472,3338.666;-0.53840435,9.768193,0.61531925,0.26920217,10.537342,0.76914907,3338.666;-0.53840435,9.768193,0.61531925,-1.4998407,9.460533,0.76914907,3355.443;-0.53840435,9.768193,0.61531925,-0.76914907,10.0373955,0.11537236,3355.443;-0.53840435,9.768193,0.61531925,0.07691491,10.11431,0.0,3372.2205;-0.53840435,9.768193,0.61531925,-0.96143633,9.306704,0.9998938,3388.9976;-0.53840435,9.768193,0.61531925,-0.19228727,10.537342,-0.11537236,3388.9976;-0.53840435,8.652927,0.61531925,-0.5768618,8.652927,0.11537236,3405.775;-0.53840435,9.845108,0.61531925,-0.15382981,9.845108,1.1152661,3405.775;-0.53840435,11.306491,0.61531925,0.34611708,11.306491,0.5768618,3422.552;-2.7689366,8.499097,0.61531925,-2.7689366,8.499097,1.1152661,3439.3293;0.30765963,10.460427,-0.76914907,0.30765963,10.460427,-0.76914907,3439.3293;-0.7306916,8.61447,-0.76914907,-0.7306916,8.61447,0.15382981,3456.1064;-0.7306916,8.61447,0.9998938,-1.0383513,9.383618,0.9998938,3456.1064;-0.7306916,11.229576,-0.23074472,-0.15382981,11.229576,-0.23074472,3472.8838;-0.7306916,9.537449,-0.23074472,-0.9998938,9.537449,0.26920217,3489.661;-0.7306916,9.537449,-0.23074472,-0.26920217,9.960481,0.23074472,3489.661;-0.7306916,9.537449,-0.23074472,0.26920217,10.421969,0.38457453,3506.4382;-0.7306916,8.345267,-0.23074472,-1.615213,8.345267,0.38457453,3506.4382;-0.7306916,9.960481,-0.23074472,-0.38457453,9.960481,-0.53840435,3523.2153;-0.7306916,9.960481,-0.23074472,-0.7306916,9.383618,0.423032,3539.9927;-0.7306916,9.960481,1.0768087,-0.07691491,10.191225,1.0768087,3539.9927;-0.7306916,9.960481,1.0768087,-1.1537236,10.345055,0.4999469,3556.7698;-0.7306916,9.960481,1.0768087,-1.1152661,9.845108,0.6537767,3556.7698;-0.7306916,9.960481,1.0768087,0.11537236,10.614257,0.15382981,3573.547;-0.7306916,9.960481,1.0768087,-0.4999469,9.498991,0.8076065,3590.3242;-0.7306916,9.960481,1.0768087,-1.1921811,9.729735,0.34611708,3590.3242;-0.7306916,9.960481,-0.46148944,-0.8845214,9.575906,-0.46148944,3607.1013;-0.7306916,8.652927,-0.46148944,-0.53840435,8.652927,0.423032,3607.1013;-0.7306916,10.191225,0.9998938,-0.53840435,10.191225,0.9998938,3623.8787;-1.9228727,10.191225,0.9998938,-1.9228727,9.575906,0.15382981,3640.6558;0.0,10.191225,-0.423032,0.0,10.652715,-0.423032,3640.6558;0.0,10.191225,-0.423032,0.34611708,10.26814,0.30765963,3657.433;-1.0383513,10.191225,0.9229789,-1.0383513,9.575906,0.9229789,3657.433;0.07691491,10.191225,0.9229789,0.07691491,10.883459,0.26920217,3674.2102;-1.4998407,10.191225,0.9229789,-1.4998407,10.229683,0.61531925,3690.9875;-0.46148944,10.191225,-0.19228727,-0.46148944,9.614364,-0.19228727,3690.9875;-0.46148944,10.191225,0.96143633,0.19228727,10.3835125,0.96143633,3707.7646;-2.5381918,8.499097,0.96143633,-2.5381918,8.499097,0.8845214,3707.7646;-0.038457453,10.306598,-0.53840435,-0.038457453,10.306598,-0.53840435,3724.542;-0.038457453,10.306598,-0.53840435,0.0,9.883566,0.26920217,3741.319;-1.3075534,10.306598,1.3075534,-1.3075534,9.691278,1.3075534,3741.319;-0.19228727,10.306598,-0.23074472,-0.19228727,10.614257,-0.23074472,3758.0964;-1.6536705,10.306598,0.846064,-1.6536705,9.691278,0.846064,3758.0964;-0.07691491,10.306598,0.846064,-0.07691491,10.075852,0.19228727,3774.8735;-0.07691491,10.306598,0.846064,-0.038457453,10.191225,1.1921811,3791.651;-1.3075534,10.306598,0.846064,-1.3075534,9.691278,1.4613832,3791.651;0.07691491,10.306598,-1.0768087,0.07691491,9.998938,-1.0768087,3808.428;0.07691491,10.306598,0.038457453,-0.8845214,9.652821,0.038457453,3808.428;-0.9998938,10.306598,1.7305853,-0.9998938,9.460533,1.7305853,3825.2053;-0.9998938,10.306598,0.69223416,-1.1921811,10.7296295,0.69223416,3841.9824;-0.9998938,10.306598,0.69223416,-1.2306385,9.422076,0.46148944,3841.9824;0.38457453,10.306598,0.69223416,0.38457453,10.075852,0.46148944,3858.7598;0.38457453,8.999044,0.69223416,-0.4999469,8.999044,0.6537767,3858.7598;-0.6537767,10.0373955,0.69223416,-0.6537767,10.0373955,0.69223416,3875.5369;-0.6537767,10.0373955,0.69223416,-0.30765963,11.037289,0.38457453,3875.5369;-0.6537767,10.0373955,0.69223416,-0.53840435,9.652821,0.8076065,3892.3142;-0.6537767,10.0373955,0.69223416,-0.76914907,9.768193,1.0383513,3909.0913;-1.692128,10.0373955,0.69223416,-1.692128,9.460533,1.1152661,3909.0913;0.038457453,10.0373955,-0.7306916,0.038457453,10.460427,-0.7306916,3925.8687;0.038457453,10.0373955,-0.7306916,0.26920217,10.26814,0.07691491,3925.8687;0.038457453,10.0373955,0.5768618,-0.61531925,9.614364,0.5768618,3942.6458;0.038457453,10.0373955,0.5768618,0.11537236,10.768087,0.19228727,3959.423;-1.1921811,10.0373955,0.5768618,-1.1921811,10.075852,0.423032,3959.423;-1.1921811,10.0373955,0.5768618,-0.9998938,9.498991,0.38457453,3976.2002;-0.038457453,10.0373955,0.5768618,-0.038457453,10.537342,0.23074472,3976.2002;-2.6535642,8.652927,0.5768618,-2.6535642,8.652927,1.3844683,3992.9773;-0.15382981,8.652927,0.5768618,-0.15382981,9.422076,-0.26920217,4009.7546;-0.15382981,8.652927,0.5768618,-0.038457453,9.498991,0.15382981,4009.7546;-1.4613832,8.652927,0.5768618,-1.4613832,9.422076,1.2690959,4026.5317;0.61531925,11.344949,0.5768618,0.61531925,11.344949,-0.38457453,4026.5317;-1.6536705,9.498991,0.5768618,-1.6536705,9.498991,0.423032,4043.309;-0.5768618,9.498991,0.5768618,-0.5768618,9.922023,0.46148944,4060.0862;-0.5768618,9.498991,0.5768618,-0.46148944,10.0373955,0.6537767,4060.0862;-1.692128,9.498991,0.5768618,-1.692128,9.345161,0.69223416,4076.8635;0.0,10.883459,0.5768618,0.0,10.883459,-0.26920217,4076.8635;0.0,9.614364,0.5768618,-0.15382981,9.614364,0.26920217,4093.6406;0.0,9.614364,0.5768618,-0.5768618,10.421969,1.3844683,4110.418;0.0,9.614364,0.5768618,-0.76914907,10.0373955,-0.038457453,4110.418;-1.1921811,9.614364,0.5768618,-1.1921811,8.883672,0.11537236,4127.1953;0.46148944,9.614364,0.5768618,0.46148944,10.191225,0.53840435,4127.1953;0.46148944,9.614364,0.5768618,-0.30765963,10.075852,-0.038457453,4143.972;-1.3460109,9.614364,0.5768618,-1.3460109,9.614364,0.9998938,4160.7495;-1.3460109,9.614364,0.5768618,-1.1152661,10.345055,0.19228727,4160.7495;-1.3460109,9.614364,0.5768618,-0.69223416,9.075959,0.9229789,4177.527;-1.3460109,9.614364,0.5768618,-1.0768087,9.422076,1.3844683,4177.527;-1.3460109,9.614364,0.5768618,-1.9613302,9.729735,0.8076065,4194.304;-1.3460109,9.614364,0.5768618,-0.6537767,8.960587,-0.30765963,4211.081;0.19228727,9.614364,-0.4999469,0.19228727,10.229683,-0.4999469,4211.081;0.19228727,9.614364,0.76914907,-0.61531925,9.537449,0.76914907,4227.8584;0.19228727,11.037289,0.76914907,0.038457453,11.037289,-0.19228727,4227.8584;-0.846064,11.037289,0.76914907,-0.846064,10.345055,0.4999469,4244.6357;-0.846064,9.422076,0.76914907,-0.96143633,9.422076,-0.07691491,4261.413;-0.846064,9.422076,0.76914907,-0.23074472,9.998938,0.6537767,4261.413;-2.6920218,9.422076,0.76914907,-2.6920218,8.537555,1.4613832,4278.19;-0.23074472,9.422076,-0.9229789,-0.23074472,9.922023,-0.9229789,4278.19;-0.23074472,9.422076,-0.9229789,0.26920217,10.0373955,-0.23074472,4294.9673;-0.23074472,9.422076,0.61531925,-0.6537767,9.537449,0.61531925,4311.7446;-0.23074472,11.614151,0.61531925,0.423032,11.614151,-0.07691491,4311.7446;-0.23074472,9.306704,0.61531925,-1.1921811,9.306704,0.38457453,4328.5215;-0.23074472,9.306704,0.61531925,-0.7306916,9.883566,-0.15382981,4328.5215;-0.23074472,9.306704,0.61531925,0.0,9.845108,0.846064,4345.299;-2.1920748,8.037608,0.61531925,-2.1920748,8.037608,1.5767555,4362.076;0.11537236,10.614257,-0.69223416,0.11537236,10.614257,-0.69223416,4362.076;0.11537236,10.614257,-0.69223416,-0.19228727,9.691278,0.0,4378.8535;0.11537236,9.229789,1.4998407,-0.6537767,9.229789,1.4998407,4378.8535;0.11537236,10.768087,0.11537236,-0.7306916,10.768087,0.11537236,4395.6304;-1.3844683,8.30681,0.11537236,-1.3844683,8.30681,0.15382981,4395.6304;-0.26920217,10.460427,0.11537236,-0.26920217,10.460427,0.038457453,4412.4077;-0.26920217,10.460427,0.11537236,-0.07691491,9.922023,0.4999469,4429.185;-1.6536705,9.114416,0.11537236,-1.6536705,9.114416,0.61531925,4429.185;0.19228727,10.960374,0.11537236,0.19228727,10.960374,-0.19228727,4445.9624;0.19228727,8.768299,0.11537236,-0.5768618,8.768299,0.846064,4445.9624;0.19228727,9.998938,1.1537236,-0.26920217,9.998938,1.1537236,4462.7393;0.19228727,9.998938,1.1537236,-0.53840435,10.652715,0.5768618,4479.5166;-0.846064,9.998938,-0.07691491,-0.846064,9.460533,-0.07691491,4479.5166;0.5768618,9.998938,-0.07691491,0.5768618,9.845108,-0.53840435,4496.294;0.5768618,9.998938,-0.07691491,-0.30765963,9.960481,0.11537236,4496.294;0.5768618,11.306491,-0.07691491,-0.23074472,11.306491,0.38457453,4513.0713;0.5768618,10.075852,-0.07691491,-0.07691491,10.075852,0.38457453,4529.848;-0.8076065,10.075852,-0.07691491,-0.8076065,9.075959,0.11537236,4529.848;-0.8076065,10.075852,1.3075534,-0.423032,10.345055,1.3075534,4546.6255;-2.038245,8.883672,1.3075534,-2.038245,8.883672,1.2690959,4546.6255;-0.96143633,8.883672,-0.61531925,-0.96143633,9.845108,-0.61531925,4563.403;0.23074472,9.998938,-0.61531925,0.23074472,9.998938,-0.23074472,4580.18;0.23074472,9.998938,0.9229789,0.15382981,10.345055,0.9229789,4580.18;0.23074472,11.229576,0.9229789,0.5768618,11.229576,-0.07691491,4596.957;-0.9229789,9.614364,0.9229789,-0.9229789,9.614364,0.30765963,4596.957;-0.9229789,9.614364,0.9229789,-0.6537767,9.537449,0.38457453,4613.7344;-0.9229789,9.614364,0.9229789,-0.4999469,9.883566,0.8076065,4630.5117;-2.1920748,8.383725,0.9229789,-2.1920748,8.383725,1.3075534,4630.5117;-0.26920217,10.537342,0.9229789,-0.26920217,10.537342,0.11537236,4647.289;0.76914907,10.537342,0.9229789,0.76914907,9.768193,0.23074472,4647.289;-0.96143633,10.537342,0.9229789,-0.96143633,10.0373955,0.846064,4664.066;0.15382981,10.537342,0.9229789,0.15382981,10.7296295,0.46148944,4680.8433;0.15382981,9.037501,0.9229789,-0.7306916,9.037501,0.38457453,4680.8433;0.15382981,10.5758,0.9229789,-0.53840435,10.5758,0.11537236,4697.6206;0.15382981,10.5758,0.9229789,-0.26920217,9.691278,-0.038457453,4697.6206;-0.9998938,9.114416,0.9229789,-0.9998938,9.114416,1.2306385,4714.3975;-0.9998938,10.652715,-0.69223416,-0.5768618,10.652715,-0.69223416,4731.175;-0.9998938,10.652715,-0.69223416,-0.5768618,9.922023,-0.9229789,4731.175;-0.9998938,10.652715,0.846064,-0.76914907,10.11431,0.846064,4747.952;-0.9998938,10.652715,0.846064,0.0,9.960481,0.76914907,4747.952;-0.9998938,9.537449,0.846064,-0.76914907,9.537449,0.26920217,4764.7295;0.34611708,9.537449,0.846064,0.34611708,10.460427,-0.07691491,4781.5063;0.34611708,9.537449,0.846064,-0.23074472,10.075852,0.5768618,4781.5063;0.34611708,9.537449,0.846064,-0.61531925,10.0373955,1.3460109,4798.2837;0.34611708,9.537449,0.846064,-0.26920217,10.191225,0.61531925,4815.061;0.34611708,9.537449,0.846064,-0.30765963,10.075852,0.76914907,4831.8384;-2.038245,9.537449,0.846064,-2.038245,9.229789,0.8845214,4831.8384;-0.15382981,9.537449,0.846064,-0.15382981,10.0373955,-0.038457453,4848.615;-0.15382981,10.921917,-0.46148944,0.46148944,10.921917,-0.46148944,4848.615;-0.15382981,9.691278,1.1537236,-0.4999469,9.691278,1.1537236,4865.3926;-0.15382981,11.268034,1.1537236,0.38457453,11.268034,0.423032,4865.3926;-1.5382981,8.922129,1.1537236,-1.5382981,8.922129,1.1537236,4882.17;-1.5382981,8.922129,-0.15382981,-1.0768087,9.268247,-0.15382981,4898.9473;-0.423032,8.922129,-0.15382981,-0.423032,9.729735,0.7306916,4898.9473;-1.7690428,8.922129,1.4998407,-1.7690428,8.46064,1.4998407,4915.724;-0.26920217,8.922129,-0.07691491,-0.26920217,9.922023,-0.07691491,4915.724;-0.26920217,10.5758,-0.07691491,0.53840435,10.5758,-0.19228727,4932.5015;-0.26920217,10.5758,-0.07691491,0.0,9.652821,0.423032,4949.279;-0.26920217,10.5758,-0.07691491,0.4999469,11.498778,-0.19228727,4949.279;-1.4229257,8.922129,-0.07691491,-1.4229257,8.922129,0.30765963,4966.056;-1.4229257,8.922129,-0.07691491,-1.615213,9.191331,0.4999469,4966.056;-0.34611708,8.922129,-0.07691491,-0.34611708,9.345161,0.5768618,4982.833;-1.692128,8.922129,0.96143633,-1.692128,9.383618,0.96143633,4999.6104;0.0,10.11431,0.96143633,0.0,10.11431,-0.038457453,4999.6104;0.0,10.11431,0.96143633,-0.4999469,9.922023,0.30765963,5016.3877;0.0,10.11431,0.96143633,-0.69223416,10.191225,0.34611708,5016.3877;0.0,10.11431,0.96143633,-0.7306916,9.845108,0.26920217,5033.165;-1.2306385,10.11431,0.96143633,-1.2306385,9.652821,0.34611708,5049.942;-1.2306385,10.11431,-0.11537236,-0.76914907,9.960481,-0.11537236,5049.942;-1.2306385,10.11431,-0.11537236,-0.4999469,9.229789,0.26920217,5066.719;-1.2306385,10.11431,-0.11537236,-0.61531925,10.537342,0.8076065,5066.719;-1.2306385,10.11431,-0.11537236,-0.96143633,10.075852,0.26920217,5083.4966;-1.2306385,10.11431,-0.11537236,-0.8076065,9.191331,-0.15382981,5100.2734;-1.2306385,10.11431,-0.11537236,-0.5768618,10.460427,0.53840435,5100.2734;-1.2306385,10.11431,-0.11537236,-1.1152661,9.152874,0.76914907,5117.051;-1.2306385,10.11431,-0.11537236,-0.423032,10.191225,-0.5768618,5117.051;0.53840435,11.152661,-0.11537236,0.53840435,11.152661,-0.61531925,5133.828;-0.4999469,11.152661,-0.11537236,-0.4999469,10.191225,0.46148944,5150.6055;-0.4999469,11.152661,-0.11537236,-0.038457453,11.537236,0.5768618,5150.6055;-0.4999469,8.883672,1.1537236,-1.0383513,8.883672,1.1537236,5167.3823;-1.5382981,8.883672,1.1537236,-1.5382981,9.037501,0.61531925,5167.3823;-0.23074472,10.075852,1.1537236,-0.23074472,10.075852,0.76914907,5184.1597;-1.6536705,8.729842,1.1537236,-1.6536705,8.729842,0.8845214,5200.937;0.61531925,11.037289,-0.69223416,0.61531925,11.037289,-0.69223416,5200.937;0.61531925,11.037289,-0.69223416,0.23074472,10.229683,-0.69223416,5217.7144;0.61531925,11.037289,-0.69223416,0.38457453,10.0373955,0.038457453,5217.7144;0.61531925,11.037289,0.96143633,0.15382981,10.768087,0.96143633,5234.491;-1.7690428,9.268247,0.96143633,-1.7690428,9.268247,0.61531925,5251.2686;-1.7690428,9.268247,0.96143633,-1.4229257,9.037501,0.846064,5251.2686;-0.34611708,9.268247,0.96143633,-0.34611708,9.383618,0.8076065,5268.046;-0.34611708,9.268247,0.96143633,-1.3460109,9.152874,0.8845214,5268.046;-0.34611708,10.960374,-1.1537236,0.07691491,10.960374,-1.1537236,5284.823;-0.34611708,9.691278,-1.1537236,0.0,9.691278,-0.26920217,5301.6;-0.34611708,9.691278,0.9998938,-0.46148944,10.498885,0.9998938,5301.6;-0.34611708,9.691278,0.9998938,-0.07691491,9.960481,0.5768618,5318.3774;-1.9228727,8.422182,0.9998938,-1.9228727,8.422182,1.0383513,5318.3774;0.15382981,10.152767,-0.07691491,0.15382981,10.152767,-0.07691491,5335.155;-1.1921811,10.152767,-0.07691491,-1.1921811,9.268247,0.4999469,5351.932;-1.1921811,10.152767,0.9998938,-0.96143633,9.691278,0.9998938,5351.932;-1.1921811,10.152767,0.9998938,-1.0768087,9.768193,0.61531925,5368.709;-1.1921811,8.845214,0.9998938,-1.3460109,8.845214,0.15382981,5368.709;-0.11537236,10.229683,0.9998938,-0.11537236,10.229683,0.11537236,5385.4863;-1.5767555,10.229683,0.9998938,-1.5767555,9.268247,1.1152661,5385.4863;-1.5767555,10.229683,-0.07691491,-0.7306916,9.960481,-0.07691491,5402.2637;-0.46148944,10.229683,-0.07691491,-0.46148944,9.691278,-0.07691491,5419.0405;-0.46148944,10.229683,-0.07691491,0.23074472,9.575906,0.69223416,5419.0405;-0.46148944,10.229683,-0.07691491,0.4999469,10.998832,0.5768618,5435.818;-2.2305322,8.999044,-0.07691491,-2.2305322,8.999044,0.5768618,5435.818;-2.2305322,8.999044,-0.07691491,-1.8459578,8.345267,0.76914907,5452.595;0.0,10.0373955,-0.07691491,0.0,10.0373955,0.4999469,5469.3726;-1.4613832,8.960587,1.1921811,-1.4613832,8.960587,1.1921811,5469.3726;0.34611708,10.498885,-0.34611708,0.34611708,10.498885,-0.34611708,5486.1494;0.34611708,10.498885,-0.34611708,0.69223416,10.537342,-0.8845214,5486.1494;0.34611708,10.498885,0.76914907,-0.34611708,10.0373955,0.76914907,5502.927;0.34611708,10.498885,0.76914907,0.07691491,11.114204,0.8845214,5519.704;-2.2689898,8.229895,0.76914907,-2.2689898,8.229895,1.3460109,5519.704;-0.9998938,9.575906,0.76914907,-0.9998938,9.575906,0.4999469,5536.4814;-0.9998938,9.575906,0.76914907,-0.26920217,9.075959,0.26920217,5536.4814;-0.9998938,9.575906,0.76914907,-1.6536705,9.229789,1.2690959,5553.2583;0.19228727,10.998832,-0.5768618,0.19228727,10.998832,-0.5768618,5570.0356;0.19228727,9.883566,-0.5768618,-0.23074472,9.883566,-0.46148944,5570.0356;0.19228727,9.883566,-0.5768618,0.34611708,9.960481,0.15382981,5586.813;0.19228727,9.883566,-0.5768618,-0.53840435,9.922023,0.19228727,5586.813;-1.4998407,8.652927,0.96143633,-1.4998407,8.652927,0.96143633,5603.5903;-1.4998407,10.0373955,0.96143633,-0.8076065,10.0373955,0.38457453,5620.367;-1.4998407,8.999044,0.96143633,-0.96143633,8.999044,0.96143633,5620.367;-1.4998407,10.0373955,0.96143633,-1.1921811,10.0373955,1.2306385,5637.1445;-0.26920217,10.0373955,-0.23074472,-0.26920217,10.652715,-0.23074472,5637.1445;-0.26920217,10.0373955,-0.23074472,-0.26920217,9.729735,-0.38457453,5653.922;-0.26920217,10.0373955,-0.23074472,0.0,10.537342,-0.11537236,5670.699;-1.3075534,10.0373955,-0.23074472,-1.3075534,9.575906,0.6537767,5670.699;-1.3075534,10.0373955,-0.23074472,-0.4999469,9.80665,0.23074472,5687.476;-1.3075534,10.0373955,-0.23074472,-0.46148944,10.075852,-0.423032,5687.476;-1.3075534,10.0373955,-0.23074472,-0.61531925,9.229789,0.7306916,5704.2534;-1.3075534,10.0373955,0.8076065,-0.53840435,10.883459,0.8076065,5721.031;-1.3075534,10.0373955,0.8076065,-1.5382981,9.306704,0.23074472,5721.031;-1.3075534,10.0373955,0.8076065,-0.8076065,9.537449,-0.19228727,5737.808;0.07691491,10.0373955,0.8076065,0.07691491,10.5758,0.11537236,5737.808;-1.4998407,8.576012,0.8076065,-1.4998407,8.576012,1.0768087,5754.585;-0.26920217,8.576012,0.8076065,-0.26920217,9.422076,0.07691491,5771.3623;-0.26920217,10.768087,0.8076065,-0.23074472,10.768087,0.30765963,5771.3623;-0.26920217,9.422076,0.8076065,-0.9229789,9.422076,0.53840435,5788.1396;-0.26920217,10.7296295,0.8076065,-0.38457453,10.7296295,0.76914907,5788.1396;-2.4228196,8.383725,0.8076065,-2.4228196,8.383725,1.1152661,5804.9165;-0.8076065,9.652821,0.8076065,-0.8076065,9.652821,0.34611708,5821.694;-0.8076065,9.652821,0.8076065,0.15382981,10.11431,0.46148944,5821.694;-0.8076065,9.652821,0.8076065,-1.5767555,8.960587,1.1921811,5838.471;-0.8076065,11.229576,-0.30765963,0.15382981,11.229576,-0.30765963,5838.471;-0.8076065,9.729735,-0.30765963,-0.846064,9.729735,0.423032,5855.2485;-0.8076065,9.729735,0.7306916,-0.423032,9.652821,0.7306916,5872.0254;-0.8076065,9.729735,0.7306916,-0.07691491,10.3835125,0.7306916,5872.0254;-2.5381918,8.383725,0.7306916,-2.5381918,8.383725,0.9998938,5888.8027;-1.1537236,8.383725,0.7306916,-1.1537236,9.191331,0.11537236,5888.8027;-1.1537236,9.460533,0.7306916,-0.5768618,9.460533,0.26920217,5905.58;-1.1537236,9.460533,0.7306916,-1.3844683,10.0373955,1.1537236,5905.58;0.23074472,11.268034,-0.8076065,0.23074472,11.268034,-0.8076065,5922.3574;0.23074472,9.845108,-0.8076065,-0.30765963,9.845108,-0.34611708,5939.1343;0.23074472,9.845108,0.26920217,0.5768618,10.0373955,0.26920217,5939.1343;-1.2690959,9.845108,0.26920217,-1.2690959,9.998938,0.61531925,5955.9116;-1.2690959,8.537555,0.26920217,-1.7690428,8.537555,1.0383513,5955.9116;-1.2690959,9.998938,0.26920217,-0.30765963,9.998938,0.53840435,5972.689;-1.2690959,9.998938,0.26920217,-0.8076065,8.999044,0.61531925,5989.4663;-1.2690959,9.998938,0.26920217,-0.7306916,9.960481,1.0768087,5989.4663;-1.2690959,9.998938,0.26920217,-0.61531925,10.26814,0.34611708,6006.243;-1.2690959,9.998938,0.26920217,-0.6537767,10.0373955,-0.5768618,6006.243;0.30765963,9.998938,0.26920217,0.30765963,10.3835125,0.423032,6023.0205;-1.2690959,9.998938,0.26920217,-1.2690959,9.114416,0.9229789,6039.798;-1.2690959,9.998938,0.26920217,-0.7306916,9.845108,0.26920217,6039.798;-1.2690959,9.998938,0.26920217,-0.8076065,10.11431,-0.15382981,6056.575;-1.2690959,8.537555,0.26920217,-0.8845214,8.537555,0.23074472,6073.352;-0.07691491,10.691172,0.26920217,-0.07691491,10.691172,0.846064,6073.352;-0.07691491,10.691172,0.26920217,-1.0383513,9.845108,-0.038457453,6090.1294;-0.07691491,10.691172,0.26920217,-0.8076065,10.11431,0.15382981,6090.1294;-0.07691491,10.691172,0.26920217,0.0,9.845108,0.46148944,6106.9067;-0.07691491,9.306704,0.26920217,-0.7306916,9.306704,0.6537767,6106.9067;-0.07691491,11.537236,0.26920217,0.038457453,11.537236,-0.038457453,6123.684;-0.07691491,10.152767,0.26920217,-0.61531925,10.152767,0.38457453,6140.461;-0.07691491,10.152767,0.26920217,-0.53840435,9.152874,-0.19228727,6140.461;-0.07691491,10.152767,0.26920217,0.423032,10.768087,0.423032,6157.2383;-2.2689898,8.845214,1.3844683,-2.2689898,8.845214,1.3844683,6157.2383;-0.9229789,8.845214,-0.423032,-0.9229789,9.80665,-0.423032,6174.0156;-0.9229789,8.845214,-0.423032,-0.46148944,9.191331,0.07691491,6190.7925;-0.9229789,8.845214,1.3460109,-0.9229789,9.460533,1.3460109,6190.7925;0.7306916,11.191119,-0.038457453,0.7306916,11.191119,-0.038457453,6207.57;-0.7306916,11.191119,-0.038457453,-0.7306916,10.191225,-0.11537236,6207.57;-0.7306916,9.075959,-0.038457453,-0.69223416,9.075959,0.0,6224.347;0.34611708,10.883459,-0.038457453,0.34611708,10.883459,0.6537767,6241.1245;-2.038245,8.422182,1.3844683,-2.038245,8.422182,1.3844683,6241.1245;-0.8076065,9.922023,-0.26920217,-0.8076065,9.922023,-0.26920217,6257.9014;-0.8076065,8.652927,-0.26920217,-0.46148944,8.652927,0.34611708,6257.9014;-0.8076065,8.652927,1.3075534,-1.5767555,9.345161,1.3075534,6274.6787;0.30765963,11.152661,0.15382981,0.30765963,11.152661,0.15382981,6291.456;0.30765963,9.691278,0.15382981,-0.69223416,9.691278,-0.23074472,6291.456;0.30765963,9.691278,0.15382981,-0.61531925,9.537449,0.0,6308.2334;0.30765963,9.691278,0.15382981,-0.4999469,9.960481,0.76914907,6308.2334;-1.2306385,9.691278,1.3460109,-1.2306385,9.229789,1.3460109,6325.0103;-1.2306385,9.691278,0.26920217,-0.96143633,9.998938,0.26920217,6341.7876;-1.2306385,9.691278,0.26920217,-0.26920217,9.422076,0.30765963,6341.7876;0.11537236,9.691278,0.26920217,0.11537236,10.614257,1.1152661,6358.565;-0.9998938,9.691278,0.26920217,-0.9998938,10.11431,0.11537236,6358.565;-0.9998938,9.691278,0.26920217,-0.30765963,9.383618,-0.423032,6375.3423;-0.9998938,9.691278,0.26920217,-0.76914907,9.652821,0.0,6392.119;-0.9998938,9.691278,0.26920217,-0.34611708,9.460533,0.9998938,6392.119;-0.9998938,9.691278,0.26920217,-0.38457453,10.191225,-0.38457453,6408.8965;-0.9998938,9.691278,0.26920217,-0.69223416,10.11431,0.07691491,6408.8965;-0.9998938,9.691278,0.26920217,-0.46148944,9.229789,-0.15382981,6425.674;0.07691491,9.691278,0.26920217,0.07691491,10.152767,0.846064,6425.674;-2.11516,8.652927,0.26920217,-2.11516,8.652927,1.1537236,6442.451;-0.423032,8.652927,0.26920217,-0.423032,9.575906,-0.69223416,6459.228;-0.423032,9.729735,0.26920217,-0.23074472,9.729735,0.19228727,6459.228;-0.423032,9.729735,0.26920217,-1.4229257,9.229789,1.1921811,6476.0054;-0.423032,10.960374,0.26920217,0.34611708,10.960374,0.30765963,6476.0054;-0.423032,9.114416,0.26920217,-1.3460109,9.114416,-0.19228727,6492.7827;-0.423032,9.114416,0.26920217,-0.38457453,9.883566,0.34611708,6509.5596;-0.423032,10.7296295,0.26920217,0.11537236,10.7296295,0.30765963,6509.5596;-2.4997344,8.499097,0.26920217,-2.4997344,8.499097,1.1921811,6526.337;-0.6537767,9.883566,0.26920217,-0.6537767,9.883566,-0.07691491,6526.337;-0.6537767,9.883566,0.26920217,-0.038457453,9.460533,0.19228727,6543.1143;-0.6537767,9.883566,0.26920217,-0.9229789,9.306704,1.0383513,6559.8916;-0.6537767,11.537236,0.26920217,-0.26920217,11.537236,0.0,6559.8916;-0.6537767,9.422076,0.26920217,-1.5382981,9.422076,-0.38457453,6576.6685;-0.6537767,9.422076,0.26920217,-0.07691491,9.998938,0.69223416,6576.6685;-0.6537767,9.422076,0.26920217,-0.4999469,9.922023,0.8076065,6593.446;-1.7305853,9.422076,1.615213,-1.7305853,9.075959,1.615213,6610.223;-0.38457453,11.152661,-0.19228727,-0.38457453,11.152661,-0.19228727,6610.223;-0.38457453,9.422076,-0.19228727,-0.423032,9.422076,0.30765963,6627.0005;-0.38457453,9.422076,1.2690959,-0.7306916,9.575906,1.2690959,6627.0005;-0.38457453,10.806544,1.2690959,-0.23074472,10.806544,0.8076065,6643.7773;-0.38457453,10.806544,-0.61531925,-0.8076065,9.80665,-0.61531925,6660.5547;-0.38457453,10.806544,-0.61531925,-0.038457453,9.998938,0.34611708,6660.5547;-0.38457453,9.306704,1.2690959,-0.9229789,9.306704,1.2690959,6677.332;-0.38457453,9.306704,1.2690959,-0.23074472,9.922023,0.46148944,6677.332;-0.38457453,9.306704,0.038457453,-0.846064,10.229683,0.038457453,6694.1094;-0.38457453,9.306704,0.038457453,-0.9229789,9.498991,0.11537236,6710.886;-0.38457453,10.537342,0.038457453,-0.7306916,10.537342,0.96143633,6710.886;-1.9997876,10.537342,0.038457453,-1.9997876,9.614364,0.38457453,6727.6636;-0.846064,10.537342,0.038457453,-0.846064,9.80665,-0.53840435,6727.6636;0.34611708,10.537342,0.038457453,0.34611708,9.922023,0.038457453,6744.441;-0.69223416,9.075959,0.038457453,-0.69223416,9.075959,0.846064,6761.2183;-0.69223416,10.768087,0.038457453,0.038457453,10.768087,-0.19228727,6761.2183;-0.69223416,9.652821,0.038457453,-1.0383513,9.652821,0.07691491,6777.995;-0.69223416,9.652821,0.038457453,-0.5768618,9.383618,0.30765963,6777.995;-0.69223416,9.652821,0.038457453,0.23074472,10.614257,0.61531925,6794.7725;-1.9228727,8.383725,1.1537236,-1.9228727,8.383725,1.1537236,6811.55;0.11537236,10.075852,-0.19228727,0.11537236,10.075852,-0.19228727,6811.55;0.11537236,10.075852,-0.19228727,-0.19228727,9.729735,0.19228727,6828.327;-1.1537236,10.075852,1.2690959,-1.1537236,9.191331,1.2690959,6828.327;-1.1537236,11.191119,1.2690959,-0.15382981,11.191119,0.423032,6845.104;-1.1537236,9.614364,-0.11537236,-1.4613832,9.614364,-0.11537236,6861.8813;-0.07691491,9.614364,-0.11537236,-0.07691491,9.80665,-0.038457453,6861.8813;-0.07691491,9.614364,-0.11537236,-0.11537236,9.998938,0.69223416,6878.6587;-2.2305322,9.614364,1.3460109,-2.2305322,8.61447,1.3460109,6895.4355;-0.46148944,11.383406,0.07691491,-0.46148944,11.383406,0.07691491,6895.4355;-0.46148944,9.845108,0.07691491,0.11537236,9.845108,-0.26920217,6895.4355;-0.46148944,9.845108,1.692128,-0.76914907,9.460533,1.692128,6912.213;-0.46148944,11.075747,0.19228727,0.0,11.075747,0.19228727,6928.99;-0.46148944,9.152874,0.19228727,-1.0768087,9.152874,0.96143633,6928.99;-0.46148944,9.152874,0.19228727,0.23074472,10.152767,-0.30765963,6945.7676;-0.46148944,9.152874,0.19228727,0.0,9.652821,0.11537236,6945.7676;-1.7690428,9.152874,0.19228727,-1.7690428,8.960587,1.0768087,6962.5444;-1.7690428,10.26814,0.19228727,-1.0383513,10.26814,0.0,6979.322;-0.69223416,8.999044,0.19228727,-0.69223416,8.999044,0.11537236,6979.322;-0.69223416,8.999044,1.3075534,-0.61531925,9.306704,1.3075534,6996.099;-0.69223416,8.999044,1.3075534,-1.4998407,9.729735,0.53840435,6996.099;-0.69223416,8.999044,0.038457453,-0.96143633,9.460533,0.038457453,7012.8765;0.423032,10.537342,0.038457453,0.423032,10.537342,0.038457453,7029.6533;-1.0383513,9.075959,0.038457453,-1.0383513,9.075959,0.69223416,7029.6533;-1.0383513,10.5758,0.038457453,-0.34611708,10.5758,0.4999469,7046.4307;-1.0383513,10.5758,0.038457453,-0.30765963,9.998938,0.5768618,7046.4307;-1.0383513,9.191331,0.038457453,-0.9998938,9.191331,0.4999469,7063.208;-1.0383513,9.191331,0.038457453,-0.46148944,10.152767,0.53840435,7079.9854;-1.0383513,9.191331,0.038457453,-1.9613302,8.383725,0.8076065,7079.9854;-1.0383513,9.191331,0.038457453,-0.76914907,9.845108,-0.07691491,7096.762;-1.0383513,9.191331,0.038457453,-0.26920217,9.80665,0.11537236,7096.762;-1.0383513,9.191331,0.038457453,-0.6537767,9.460533,0.9998938,7113.5396;0.53840435,11.652608,0.038457453,0.53840435,11.652608,-0.038457453,7130.317;-0.846064,9.652821,0.038457453,-0.846064,9.652821,-0.038457453,7130.317;-0.846064,9.652821,0.038457453,-0.9229789,9.498991,0.61531925,7147.094;-0.846064,9.652821,0.038457453,-0.30765963,10.191225,0.8076065,7147.094;-1.8844151,9.652821,1.4229257,-1.8844151,8.845214,1.4229257,7163.871;0.26920217,9.652821,-0.6537767,0.26920217,10.26814,-0.6537767,7180.6484;-0.76914907,9.652821,-0.6537767,-0.76914907,8.999044,0.15382981,7180.6484;-0.76914907,9.652821,0.8845214,-0.8076065,9.729735,0.8845214,7197.426;-0.76914907,10.883459,0.8845214,-0.11537236,10.883459,-0.038457453,7197.426;-0.76914907,8.729842,0.8845214,-1.2690959,8.729842,0.0,7214.2026;-0.76914907,9.845108,0.8845214,-1.0383513,9.845108,0.9229789,7230.98;-0.76914907,9.845108,0.8845214,-0.07691491,10.152767,0.7306916,7230.98;-0.76914907,9.845108,0.8845214,-0.9998938,8.845214,1.0383513,7247.7573;-0.76914907,9.845108,-0.61531925,0.0,9.922023,-0.61531925,7247.7573;-0.76914907,9.845108,-0.61531925,-0.76914907,9.268247,0.30765963,7264.5347;-0.76914907,9.845108,0.9229789,-0.423032,10.3835125,0.9229789,7281.3115;-0.76914907,9.845108,0.9229789,-0.15382981,10.845002,0.0,7281.3115;-0.76914907,9.845108,-0.15382981,-0.9229789,9.268247,-0.15382981,7298.089;0.4999469,9.845108,-0.15382981,0.4999469,10.498885,-0.34611708,7298.089;0.4999469,9.845108,-0.15382981,0.53840435,10.537342,0.6537767,7314.866;-0.846064,9.845108,0.8845214,-0.846064,9.729735,0.8845214,7331.6436;-0.846064,9.845108,-0.15382981,-0.61531925,9.80665,-0.15382981,7331.6436;-0.846064,9.845108,-0.15382981,-1.0768087,9.614364,0.07691491,7348.4204;-0.846064,9.845108,-0.15382981,0.15382981,9.998938,0.846064,7348.4204;-0.846064,9.845108,-0.15382981,-1.1537236,9.422076,0.61531925,7365.1978;-0.846064,9.845108,-0.15382981,-0.038457453,9.80665,-0.46148944,7381.975;0.26920217,9.845108,-0.15382981,0.26920217,9.845108,-0.038457453,7381.975;0.26920217,9.845108,1.0383513,0.423032,10.0373955,1.0383513,7398.7524;0.26920217,11.498778,1.0383513,-0.30765963,11.498778,0.038457453,7398.7524;-0.846064,9.460533,1.0383513,-0.846064,9.460533,0.19228727,7415.5293;-0.846064,9.460533,1.0383513,-1.3075534,9.037501,0.61531925,7415.5293;0.23074472,9.460533,1.0383513,0.23074472,9.960481,0.15382981,7432.3066;-2.1536174,8.30681,1.0383513,-2.1536174,8.30681,1.5767555,7449.084;-0.07691491,9.422076,-0.6537767,-0.07691491,9.422076,-0.6537767,7449.084;-0.07691491,9.422076,-0.6537767,-0.23074472,10.11431,0.07691491,7465.8613;-0.07691491,9.422076,0.96143633,-0.8076065,9.614364,0.96143633,7465.8613;-0.07691491,10.921917,0.96143633,0.07691491,10.921917,0.61531925,7482.638;-1.1921811,9.229789,0.96143633,-1.1921811,9.229789,0.07691491,7499.4155;-1.1921811,9.229789,0.96143633,-0.96143633,9.998938,0.4999469,7499.4155;-0.07691491,10.26814,0.96143633,-0.07691491,10.26814,1.1537236,7516.193;-2.0767026,8.2683525,0.96143633,-2.0767026,8.2683525,1.1537236,7516.193;-0.46148944,10.345055,-0.5768618,-0.46148944,10.345055,-0.5768618,7532.97;-0.46148944,10.345055,-0.5768618,0.038457453,10.3835125,-0.53840435,7549.747;-0.46148944,10.345055,0.8845214,-0.96143633,9.614364,0.8845214,7549.747;-0.46148944,10.345055,0.8845214,0.038457453,10.537342,0.4999469,7566.5244;-1.8844151,9.114416,0.8845214,-1.8844151,9.114416,0.30765963,7566.5244;0.5768618,9.114416,-0.423032,0.5768618,10.075852,-0.423032,7583.302;0.5768618,9.114416,0.76914907,-0.15382981,9.537449,0.76914907,7600.0786;-1.6536705,9.114416,0.76914907,-1.6536705,9.229789,1.1921811,7600.0786;-1.6536705,10.26814,0.76914907,-0.8076065,10.26814,0.11537236,7616.856;-0.53840435,10.26814,-0.30765963,-0.53840435,9.768193,-0.30765963,7616.856;-0.53840435,9.152874,0.9229789,-0.34611708,9.152874,0.9229789,7633.6333;-0.53840435,9.152874,0.9229789,-0.8845214,9.460533,0.53840435,7650.4106;-0.53840435,9.152874,-0.11537236,0.23074472,9.729735,-0.11537236,7650.4106;-0.53840435,10.691172,-0.11537236,0.15382981,10.691172,0.0,7667.1875;-0.53840435,10.691172,-0.11537236,-0.038457453,9.691278,0.8845214,7667.1875;-0.53840435,10.691172,0.9998938,0.19228727,10.3835125,0.9998938,7683.965;-0.53840435,10.691172,0.9998938,-0.7306916,9.922023,0.26920217,7700.742;-0.53840435,9.152874,0.9998938,-1.3844683,9.152874,0.8845214,7700.742;-0.53840435,9.152874,0.9998938,-0.30765963,9.422076,0.846064,7717.5195;-1.6536705,9.152874,0.9998938,-1.6536705,9.075959,1.0383513,7717.5195;-0.19228727,9.152874,-0.53840435,-0.19228727,9.960481,-0.53840435,7734.2964;-0.19228727,11.152661,-0.53840435,0.76914907,11.152661,-0.5768618,7751.0737;-0.19228727,11.152661,1.1152661,-0.5768618,10.306598,1.1152661,7751.0737;-0.19228727,11.152661,1.1152661,0.38457453,11.344949,0.6537767,7767.851;-1.3844683,8.845214,1.1152661,-1.3844683,8.845214,0.61531925,7767.851;-1.3844683,8.845214,1.1152661,-1.0768087,9.114416,0.11537236,7784.6284;-0.19228727,8.845214,1.1152661,-0.19228727,9.383618,0.846064,7801.4053;-1.8075004,8.845214,1.1152661,-1.8075004,8.537555,0.846064,7801.4053;0.5768618,10.460427,-0.07691491,0.5768618,10.460427,-0.07691491,7818.1826;0.5768618,10.460427,-0.07691491,0.19228727,10.345055,0.038457453,7834.96;0.5768618,10.460427,-0.07691491,0.23074472,9.845108,0.6537767,7834.96;0.5768618,10.460427,-0.07691491,0.61531925,10.768087,0.46148944,7851.7373;-1.1921811,9.422076,-0.07691491,-1.1921811,9.422076,0.46148944,7851.7373;-1.1921811,9.422076,-0.07691491,-1.3460109,9.229789,-0.30765963,7868.514;0.61531925,9.422076,-0.07691491,0.61531925,9.229789,0.423032,7868.514;-1.692128,9.422076,1.4998407,-1.692128,9.845108,1.4998407,7885.2915;0.23074472,9.422076,-0.8076065,0.23074472,10.421969,-0.8076065,7902.069;0.23074472,9.422076,-0.8076065,0.19228727,9.691278,-0.11537236,7902.069;0.23074472,9.422076,0.61531925,-0.038457453,9.998938,0.61531925,7918.846;0.23074472,9.422076,0.61531925,-0.53840435,10.421969,0.76914907,7918.846;-0.8845214,9.422076,0.61531925,-0.8845214,9.345161,0.30765963,7935.623;-0.8845214,10.691172,0.61531925,0.0,10.691172,0.038457453,7935.623;-0.8845214,9.268247,0.61531925,-0.53840435,9.268247,0.9998938,7952.4004;-0.8845214,10.345055,0.61531925,-0.423032,10.345055,1.0768087,7969.1777;-0.8845214,10.345055,0.61531925,-0.7306916,10.11431,0.0,7969.1777;-0.8845214,10.345055,0.61531925,-1.4613832,9.383618,0.11537236,7985.9546;-0.8845214,10.345055,0.61531925,-0.11537236,9.652821,0.4999469,7985.9546;-0.8845214,10.345055,0.61531925,-1.3460109,9.575906,0.69223416,8002.732;-0.8845214,10.345055,0.61531925,-0.53840435,10.0373955,0.8845214,8019.5093;0.23074472,10.345055,0.61531925,0.23074472,10.691172,-0.26920217,8019.5093;0.23074472,10.345055,0.61531925,-0.53840435,9.845108,0.5768618,8036.2866;0.23074472,10.345055,0.61531925,0.15382981,10.768087,0.9229789,8036.2866;-1.5767555,10.345055,0.61531925,-1.5767555,9.460533,0.846064,8053.0635;-1.5767555,8.729842,0.61531925,-1.692128,8.729842,0.34611708,8069.841;-1.5767555,8.729842,0.61531925,-0.7306916,9.729735,0.61531925,8069.841;-1.5767555,8.729842,0.61531925,-1.8844151,8.768299,1.5382981,8086.618;0.038457453,10.537342,-0.8076065,0.038457453,10.537342,-0.8076065,8086.618;0.038457453,10.537342,-0.8076065,0.19228727,10.421969,-0.8076065,8103.3955;0.038457453,10.537342,0.53840435,-0.34611708,10.0373955,0.53840435,8120.1724;0.038457453,10.537342,0.53840435,0.30765963,10.998832,0.34611708,8120.1724;-2.2689898,8.61447,0.53840435,-2.2689898,8.61447,0.53840435,8136.9497;-1.0768087,8.61447,0.53840435,-1.0768087,9.306704,0.5768618,8136.9497;-1.0768087,9.768193,0.53840435,-0.15382981,9.768193,1.0383513,8153.727;-1.0768087,9.768193,0.53840435,-1.9228727,9.037501,1.3075534,8170.5044;0.53840435,9.768193,-0.5768618,0.53840435,10.421969,-0.5768618,8170.5044;0.53840435,9.768193,-0.5768618,-0.38457453,10.11431,-0.7306916,8187.2813;0.53840435,9.768193,0.96143633,0.46148944,9.998938,0.96143633,8187.2813;0.53840435,9.768193,0.96143633,-0.30765963,10.345055,0.846064,8204.059;-2.11516,8.076065,0.96143633,-2.11516,8.076065,0.846064,8220.836;0.26920217,10.537342,-0.61531925,0.26920217,10.537342,-0.61531925,8220.836;0.26920217,10.537342,0.76914907,-0.53840435,9.614364,0.76914907,8237.613;-0.9998938,10.537342,0.76914907,-0.9998938,9.537449,1.3844683,8237.613;-0.9998938,10.537342,0.76914907,-1.3844683,10.26814,-0.07691491,8254.391;-0.9998938,9.075959,0.76914907,-0.9998938,9.075959,0.07691491,8271.168;0.5768618,10.614257,0.76914907,0.5768618,10.614257,0.61531925,8271.168;-1.4998407,9.345161,0.76914907,-1.4998407,9.345161,0.9998938,8287.944;-1.4998407,9.345161,0.76914907,-0.8076065,9.383618,-0.11537236,8287.944;-1.4998407,9.345161,0.76914907,-0.69223416,9.998938,-0.23074472,8304.722;-1.4998407,9.345161,0.76914907,-0.5768618,9.345161,1.0768087,8321.499;0.23074472,10.498885,0.76914907,0.23074472,10.498885,0.8076065,8321.499;0.23074472,9.383618,0.76914907,-0.6537767,9.383618,0.34611708,8338.276;-1.7305853,9.383618,0.76914907,-1.7305853,8.576012,0.30765963,8338.276;-0.11537236,9.383618,0.76914907,-0.11537236,10.345055,0.26920217,8355.054;-1.1537236,9.383618,0.76914907,-1.1537236,8.729842,0.61531925,8371.831;-1.1537236,9.383618,-0.38457453,-0.34611708,9.845108,-0.38457453,8371.831;-1.1537236,9.383618,-0.38457453,-0.15382981,10.306598,-0.7306916,8388.608;-1.1537236,9.383618,-0.38457453,-0.9229789,9.306704,0.19228727,8388.608;0.34611708,11.537236,-0.38457453,0.34611708,11.537236,0.11537236,8405.385;-2.1536174,7.806863,0.69223416,-2.1536174,7.806863,0.69223416,8405.385;-2.1536174,9.229789,0.69223416,-1.5767555,9.229789,0.19228727,8422.162;-0.423032,9.229789,0.69223416,-0.423032,9.422076,0.46148944,8438.939;-0.423032,9.229789,0.69223416,-1.3075534,8.806757,1.4613832,8438.939;-0.423032,11.037289,-0.61531925,0.5768618,11.037289,-0.61531925,8455.717;-0.423032,11.037289,-0.61531925,-0.07691491,10.11431,-0.423032,8472.494;-0.423032,9.80665,0.61531925,-0.423032,9.80665,0.61531925,8472.494;-0.423032,9.80665,0.61531925,-0.19228727,10.614257,0.53840435,8489.271;-1.7690428,8.768299,0.61531925,-1.7690428,8.768299,0.5768618,8489.271;-1.7690428,8.768299,0.61531925,-0.96143633,9.268247,-0.23074472,8506.049;-0.30765963,8.768299,0.61531925,-0.30765963,9.383618,0.11537236,8506.049;-0.30765963,9.960481,0.61531925,-0.6537767,9.960481,1.2690959,8522.826;-0.30765963,11.114204,0.61531925,0.038457453,11.114204,-0.038457453,8539.603;-0.30765963,9.422076,-0.53840435,-1.3075534,9.422076,-0.53840435,8539.603;-0.30765963,9.422076,-0.53840435,0.53840435,10.229683,0.07691491,8556.38;-0.30765963,9.422076,0.846064,-0.9998938,9.306704,0.846064,8556.38;-0.30765963,9.422076,0.846064,-0.53840435,9.383618,0.5768618,8573.157;-0.30765963,9.422076,-0.46148944,-0.11537236,10.075852,-0.46148944,8589.935;-0.30765963,9.422076,-0.46148944,-0.96143633,9.037501,0.23074472,8589.935;-0.30765963,10.498885,1.0768087,0.11537236,10.498885,1.0768087,8606.712;-0.30765963,10.498885,1.0768087,-1.2690959,9.883566,0.26920217,8623.489;-1.7305853,10.498885,-0.23074472,-1.7305853,9.498991,-0.23074472,8623.489;-0.30765963,10.498885,0.846064,-0.30765963,10.3835125,0.846064,8640.267;-1.615213,8.576012,0.846064,-1.615213,8.576012,0.96143633,8640.267;-1.615213,10.652715,0.846064,-0.6537767,10.652715,-0.07691491,8657.043;-1.615213,10.652715,-0.38457453,-0.96143633,10.652715,-0.38457453,8657.043;-1.615213,9.498991,0.7306916,-1.0383513,9.498991,0.7306916,8673.82;0.038457453,9.498991,0.7306916,0.038457453,10.498885,0.7306916,8690.598;-1.8075004,9.498991,0.7306916,-1.8075004,8.806757,0.96143633,8690.598;-1.8075004,9.498991,0.7306916,-1.1921811,9.614364,-0.07691491,8707.375;-0.038457453,9.498991,0.7306916,-0.038457453,9.498991,0.4999469,8707.375;-1.2690959,9.498991,0.7306916,-1.2690959,9.191331,1.4613832,8724.152;0.4999469,11.229576,0.7306916,0.4999469,11.229576,-0.07691491,8740.93;0.4999469,9.614364,0.7306916,-0.23074472,9.614364,-0.23074472,8740.93;0.4999469,9.614364,0.7306916,0.038457453,10.075852,0.69223416,8757.707;0.4999469,9.614364,0.7306916,-0.038457453,10.191225,0.9229789,8757.707;-1.692128,9.614364,0.7306916,-1.692128,8.883672,1.7305853,8774.484;-0.38457453,9.614364,-0.61531925,-0.38457453,9.80665,-0.61531925,8791.261;-0.38457453,9.614364,0.53840435,-0.38457453,8.999044,0.53840435,8791.261;-0.38457453,9.614364,0.53840435,-0.30765963,9.268247,0.9229789,8808.038;-0.38457453,10.7296295,0.53840435,0.0,10.7296295,-0.30765963,8808.038;-0.38457453,10.7296295,0.53840435,-1.1921811,9.998938,0.038457453,8824.815;-0.38457453,10.7296295,0.53840435,-0.15382981,10.075852,0.15382981,8841.593;-0.38457453,10.7296295,0.53840435,-1.2306385,9.80665,0.76914907,8841.593;-0.38457453,9.614364,0.53840435,-0.846064,9.614364,-0.07691491,8858.37;-0.38457453,10.652715,0.53840435,-1.1921811,10.652715,0.0,8858.37;-0.38457453,8.61447,0.53840435,-0.69223416,8.61447,0.38457453,8875.147;-0.38457453,10.421969,0.53840435,0.53840435,10.421969,0.9229789,8891.925;-0.38457453,10.421969,0.53840435,-0.8076065,9.845108,0.8076065,8891.925;-0.38457453,9.383618,0.53840435,-1.3460109,9.383618,-0.07691491,8908.702;-0.38457453,9.383618,0.53840435,-0.23074472,10.0373955,0.69223416,8908.702;-0.38457453,9.383618,0.53840435,-0.23074472,9.152874,0.46148944,8925.479;-0.38457453,10.883459,0.53840435,0.19228727,10.883459,-0.423032,8942.256;-0.38457453,9.383618,0.53840435,-0.4999469,9.383618,0.038457453,8959.033;-0.38457453,10.652715,0.53840435,0.30765963,10.652715,0.76914907,8959.033;-1.615213,9.268247,0.53840435,-1.615213,9.268247,0.7306916,8975.811;-1.615213,9.268247,0.53840435,-0.6537767,10.11431,-0.15382981,8975.811;-0.38457453,9.268247,0.53840435,-0.38457453,9.306704,0.30765963,8992.588;-0.38457453,9.268247,0.53840435,-0.846064,9.075959,0.9998938,9009.365;-0.38457453,10.883459,0.53840435,0.46148944,10.883459,-0.15382981,9009.365;-0.38457453,9.80665,0.53840435,-0.46148944,9.80665,-0.19228727,9026.143;-0.38457453,9.80665,0.53840435,-0.46148944,9.691278,-0.038457453,9042.919;-1.692128,9.80665,0.53840435,-1.692128,8.999044,1.2690959,9059.696;-1.692128,9.80665,0.53840435,-0.69223416,9.998938,0.07691491,9059.696;-0.26920217,9.80665,0.53840435,-0.26920217,9.614364,0.11537236,9076.474;-0.26920217,9.80665,1.5767555,-0.61531925,9.922023,1.5767555,9076.474;-0.26920217,10.921917,0.0,0.11537236,10.921917,0.0,9093.251;-0.26920217,9.422076,0.0,-0.846064,9.422076,-0.38457453,9110.028;-0.26920217,9.422076,0.0,0.423032,9.998938,0.23074472,9110.028;-0.26920217,9.422076,0.0,-0.07691491,9.883566,0.6537767,9126.806;-1.7305853,9.422076,0.0,-1.7305853,8.768299,0.9229789,9126.806;-1.7305853,9.422076,0.0,-0.846064,10.345055,-0.38457453,9143.583;-1.7305853,9.422076,0.0,-0.8076065,9.922023,0.8076065,9160.36;-0.34611708,10.614257,0.0,-0.34611708,10.614257,0.846064,9160.36;-1.8844151,10.614257,0.0,-1.8844151,9.652821,0.15382981,9177.137;-1.8844151,10.614257,0.0,-0.8845214,9.922023,0.11537236,9177.137;-0.19228727,10.614257,0.0,-0.19228727,9.768193,0.19228727,9193.914;-0.19228727,9.075959,1.0768087,-0.8845214,9.075959,1.0768087,9210.691;-0.19228727,10.768087,1.0768087,-0.61531925,10.768087,0.4999469,9210.691;-0.19228727,10.768087,-0.19228727,-0.7306916,9.960481,-0.19228727,9227.469;-0.19228727,9.191331,-0.19228727,-1.1152661,9.191331,0.53840435,9227.469;-0.19228727,11.037289,1.0768087,0.30765963,11.037289,1.0768087,9244.246;-2.11516,8.652927,1.0768087,-2.11516,8.652927,0.8845214,9261.023;-2.11516,9.883566,-0.26920217,-1.1152661,9.883566,-0.26920217,9261.023;-0.30765963,9.883566,-0.26920217,-0.30765963,9.922023,0.0,9277.801;-0.30765963,9.883566,1.1921811,-1.2306385,9.729735,1.1921811,9277.801;-0.30765963,11.383406,-0.4999469,0.34611708,11.383406,-0.4999469,9294.578;-1.6536705,9.575906,-0.4999469,-1.6536705,9.575906,0.07691491,9311.3545;-0.30765963,9.575906,-0.4999469,-0.30765963,9.922023,0.46148944,9311.3545;-0.30765963,10.768087,0.8076065,0.30765963,10.768087,0.8076065,9328.132;-1.7690428,8.191438,0.8076065,-1.7690428,8.191438,1.0768087,9328.132;-0.53840435,10.0373955,0.8076065,-0.53840435,10.0373955,0.19228727,9344.909;-0.53840435,10.0373955,0.8076065,-0.07691491,9.768193,0.6537767,9361.687;-0.53840435,10.0373955,0.8076065,-0.5768618,9.691278,1.2306385,9361.687;-0.53840435,10.0373955,0.8076065,-0.4999469,10.921917,0.11537236,9378.464;-0.53840435,10.0373955,-0.26920217,-1.1537236,9.729735,-0.26920217,9378.464;-0.53840435,10.0373955,-0.26920217,-0.34611708,10.152767,0.19228727,9395.241;-0.53840435,10.0373955,1.0383513,-0.7306916,9.422076,1.0383513,9412.019;-0.53840435,10.0373955,1.0383513,-0.8845214,9.652821,0.846064,9412.019;-0.53840435,10.0373955,-0.26920217,-0.6537767,10.7296295,-0.26920217,9428.795;-0.53840435,10.0373955,-0.26920217,-0.8076065,9.345161,0.0,9428.795;-0.53840435,10.0373955,1.1152661,0.038457453,10.5758,1.1152661,9445.572;-0.53840435,10.0373955,1.1152661,-0.76914907,9.998938,0.8076065,9445.572;-0.53840435,10.0373955,-0.26920217,-0.46148944,9.345161,-0.26920217,9462.35;-0.53840435,10.0373955,-0.26920217,-0.34611708,9.80665,0.0,9479.127;-0.53840435,8.922129,1.2690959,-0.7306916,8.922129,1.2690959,9479.127;-0.53840435,11.114204,1.2690959,-0.038457453,11.114204,0.26920217,9495.904;-0.53840435,9.691278,-0.23074472,-0.69223416,9.691278,-0.23074472,9495.904;-0.53840435,9.691278,-0.23074472,-0.69223416,9.191331,0.07691491,9512.682;-0.53840435,10.845002,-0.23074472,0.0,10.845002,0.46148944,9529.459;-0.53840435,8.114523,1.3460109,-1.4613832,8.114523,1.3460109,9529.459;-0.53840435,9.922023,-0.69223416,0.038457453,9.922023,-0.69223416,9546.236;-0.53840435,9.922023,-0.69223416,-0.46148944,10.345055,0.30765963,9546.236;-0.53840435,9.922023,1.1921811,-0.6537767,9.922023,1.1921811,9563.013;-0.53840435,11.344949,-0.038457453,0.15382981,11.344949,-0.038457453,9579.79;-0.53840435,9.345161,-0.038457453,-1.4998407,9.345161,0.15382981,9579.79;-0.53840435,9.345161,-0.038457453,-0.9229789,9.845108,0.6537767,9596.567;-0.53840435,10.652715,-0.038457453,0.46148944,10.652715,0.9229789,9596.567;-1.7690428,8.422182,1.1152661,-1.7690428,8.422182,1.1152661,9613.345;0.038457453,10.306598,-0.34611708,0.038457453,10.306598,-0.34611708,9630.122;0.038457453,9.114416,-0.34611708,-0.15382981,9.114416,-0.26920217,9630.122;0.038457453,9.114416,1.692128,-0.38457453,9.998938,1.692128,9646.899;0.038457453,11.037289,0.0,0.38457453,11.037289,0.0,9646.899;-1.3460109,9.383618,-1.0768087,-1.3460109,9.383618,-1.0768087,9663.677;0.038457453,10.5758,-1.0768087,0.038457453,10.5758,-0.23074472,9680.454;0.038457453,9.422076,0.4999469,-0.26920217,9.422076,0.4999469,9680.454;-1.2690959,9.422076,0.4999469,-1.2690959,9.152874,0.423032,9697.23;-1.2690959,9.422076,0.4999469,-0.846064,10.0373955,-0.07691491,9697.23;-1.2690959,9.422076,0.4999469,-0.5768618,9.306704,0.07691491,9714.008;-1.2690959,10.960374,0.4999469,-0.38457453,10.960374,1.0383513,9730.785;-1.2690959,9.114416,0.4999469,-1.3844683,9.114416,1.1921811,9730.785;-1.2690959,9.114416,0.4999469,-0.8845214,9.998938,0.038457453,9747.5625;0.30765963,10.152767,0.4999469,0.30765963,10.152767,0.4999469,9747.5625;0.30765963,10.152767,0.4999469,-0.38457453,9.883566,1.0383513,9764.34;0.30765963,11.460321,0.4999469,0.07691491,11.460321,0.8845214,9781.117;-1.2306385,9.883566,0.4999469,-1.2306385,9.883566,0.11537236,9781.117;-1.2306385,9.883566,0.4999469,-0.69223416,9.614364,0.30765963,9797.895;0.38457453,9.883566,0.4999469,0.38457453,9.845108,1.0768087,9797.895;-2.5766494,8.383725,0.4999469,-2.5766494,8.383725,1.2690959,9814.671;-0.07691491,10.537342,-1.0383513,-0.07691491,10.537342,-1.0383513,9831.448;-0.07691491,10.537342,-1.0383513,-0.11537236,9.768193,-0.69223416,9831.448;-0.07691491,10.537342,0.76914907,-0.5768618,9.729735,0.76914907,9848.226;-0.07691491,10.537342,0.76914907,0.38457453,11.191119,0.30765963,9848.226;-1.5382981,10.537342,0.76914907,-1.5382981,9.575906,0.15382981,9865.003;-1.5382981,10.537342,0.76914907,-0.53840435,10.537342,0.038457453,9881.78;-0.15382981,10.537342,0.76914907,-0.15382981,10.191225,1.3075534,9881.78;-2.0767026,8.806757,0.76914907,-2.0767026,8.806757,1.4613832,9898.558;0.07691491,9.845108,-0.26920217,0.07691491,9.845108,-0.26920217,9898.558;0.07691491,9.845108,-0.26920217,-0.4999469,9.768193,-0.038457453,9915.335;0.07691491,9.845108,1.1537236,-0.53840435,9.768193,1.1537236,9932.112;-1.1152661,9.845108,1.1537236,-1.1152661,10.075852,0.4999469,9932.112;-1.1152661,9.845108,0.0,-1.2306385,9.729735,0.0,9948.889;0.19228727,9.845108,0.0,0.19228727,10.26814,-0.34611708,9948.889;0.19228727,9.845108,0.0,0.38457453,9.768193,0.96143633,9965.666;0.19228727,9.845108,0.0,-0.61531925,9.729735,0.8845214,9965.666;0.19228727,9.845108,0.0,-0.46148944,10.498885,0.038457453,9982.443;-1.1152661,9.845108,0.0,-1.1152661,9.460533,0.26920217,9999.221;-1.1152661,9.845108,1.1921811,-0.423032,9.268247,1.1921811,9999.221;-1.1152661,9.845108,1.1921811,-0.96143633,9.998938,0.846064,10015.998;-1.1152661,9.845108,-0.53840435,-0.38457453,9.729735,-0.53840435,10015.998;-1.1152661,9.845108,-0.53840435,-0.15382981,10.345055,-0.038457453,10032.775;0.423032,9.845108,0.846064,0.423032,9.960481,0.846064,10049.553;0.423032,11.306491,0.846064,0.23074472,11.306491,0.5768618,10049.553;-0.8845214,9.537449,0.846064,-0.8845214,9.537449,0.423032,10066.33;-0.8845214,9.537449,0.846064,-1.6536705,9.152874,0.76914907,10066.33;-0.8845214,9.537449,0.846064,-0.19228727,10.498885,0.76914907,10083.106;-1.9997876,9.537449,0.846064,-1.9997876,8.691384,1.3075534,10099.884;-0.19228727,9.537449,-0.53840435,-0.19228727,9.960481,-0.53840435,10099.884;-0.19228727,9.537449,-0.53840435,-0.34611708,9.768193,-0.30765963,10116.661;-0.19228727,9.537449,1.1921811,-0.423032,9.498991,1.1921811,10116.661;-0.19228727,11.229576,0.15382981,0.26920217,11.229576,0.15382981,10133.438;-1.6536705,9.075959,0.15382981,-1.6536705,9.075959,0.038457453,10150.216;-1.6536705,9.075959,0.15382981,-0.7306916,9.845108,0.46148944,10150.216;0.19228727,10.191225,0.15382981,0.19228727,10.191225,1.1152661,10166.993;-1.1921811,9.152874,0.15382981,-1.1921811,9.152874,1.0383513,10166.993;-0.11537236,10.3835125,0.15382981,-0.11537236,10.3835125,-0.38457453,10183.7705;-0.11537236,10.3835125,0.15382981,-0.30765963,9.845108,-0.61531925,10200.547;-0.11537236,10.3835125,1.5767555,0.46148944,9.691278,1.5767555,10200.547;-0.11537236,10.3835125,1.5767555,-0.4999469,10.345055,0.8845214,10217.324;-0.11537236,9.114416,-0.07691491,-1.1152661,9.114416,-0.07691491,10217.324;-0.11537236,10.537342,-0.07691491,-0.34611708,10.537342,-0.61531925,10234.102;-0.11537236,10.537342,-0.07691491,-0.07691491,9.883566,0.19228727,10250.879;-0.11537236,10.537342,-0.07691491,-0.4999469,10.345055,0.8845214,10250.879;-0.11537236,10.537342,-0.07691491,-0.61531925,10.152767,0.30765963,10267.656;-1.4998407,9.268247,-0.07691491,-1.4998407,9.268247,0.30765963,10267.656;-0.34611708,9.268247,1.3844683,-0.34611708,10.075852,1.3844683,10284.434;-1.5767555,9.268247,1.3844683,-1.5767555,9.268247,0.96143633,10301.211;-0.11537236,9.268247,-0.26920217,-0.11537236,9.537449,-0.26920217,10301.211;-0.11537236,9.268247,-0.26920217,0.0,10.075852,-0.7306916,10317.988;-0.11537236,9.268247,-0.26920217,0.0,9.729735,0.34611708,10317.988;-0.11537236,11.037289,-0.26920217,0.07691491,11.037289,0.61531925,10334.765;-1.1921811,9.537449,-0.26920217,-1.1921811,9.537449,0.38457453,10351.542;-1.1921811,9.537449,0.846064,-1.2690959,9.075959,0.846064,10351.542;-0.11537236,9.537449,0.846064,-0.11537236,9.845108,0.846064,10368.319;-2.2305322,9.537449,0.846064,-2.2305322,8.537555,1.7690428,10368.319;-0.11537236,9.537449,-1.3460109,-0.11537236,10.537342,-1.3460109,10385.097;-0.11537236,9.537449,-1.3460109,0.26920217,10.345055,-0.46148944,10401.874;-0.11537236,9.537449,0.69223416,-0.26920217,9.575906,0.69223416,10401.874;-0.11537236,10.921917,0.69223416,0.15382981,10.921917,0.038457453,10418.651;-1.4998407,9.422076,0.69223416,-1.4998407,9.422076,0.5768618,10418.651;-1.4998407,9.422076,-0.34611708,-0.9229789,10.26814,-0.34611708,10435.429;0.07691491,9.422076,0.846064,0.07691491,9.845108,0.846064,10435.429;-1.5382981,9.422076,0.846064,-1.5382981,9.152874,1.3075534,10452.206;-1.5382981,9.422076,-0.26920217,-0.61531925,9.652821,-0.26920217,10468.982;-0.23074472,9.422076,-0.26920217,-0.23074472,10.306598,-0.11537236,10468.982;-0.23074472,9.422076,-0.26920217,-0.038457453,10.26814,0.53840435,10485.76;-0.23074472,9.422076,-0.26920217,-1.0383513,9.922023,0.07691491,10485.76;-0.23074472,9.422076,-0.26920217,-0.30765963,9.498991,-0.30765963,10502.537;-0.23074472,10.460427,-0.26920217,-0.61531925,10.460427,-0.53840435,10519.314;-0.23074472,10.460427,-0.26920217,-0.30765963,9.614364,-0.34611708,10519.314;-0.23074472,10.460427,-0.26920217,0.11537236,10.845002,0.19228727,10536.092;-0.23074472,10.460427,-0.26920217,-0.9229789,10.0373955,-0.26920217,10536.092;-0.23074472,8.922129,0.8076065,-1.1921811,8.922129,0.8076065,10552.869;-0.23074472,10.306598,0.8076065,-0.26920217,10.306598,1.1537236,10569.646;-1.3460109,8.845214,0.8076065,-1.3460109,8.845214,0.76914907,10569.646;0.07691491,10.075852,-0.8076065,0.07691491,10.075852,-0.8076065,10586.423;0.07691491,10.075852,-0.8076065,0.423032,10.845002,-0.5768618,10586.423;0.07691491,10.075852,0.26920217,-0.46148944,9.383618,0.26920217,10603.2;0.07691491,11.114204,0.26920217,-0.53840435,11.114204,0.30765963,10619.978;-2.11516,9.037501,0.26920217,-2.11516,9.037501,0.9998938,10619.978;-2.11516,9.037501,0.26920217,-1.8075004,8.883672,0.38457453,10636.755;-0.5768618,9.037501,0.26920217,-0.5768618,9.960481,0.96143633,10636.755;-2.461277,9.037501,0.26920217,-2.461277,8.652927,0.846064,10653.532;0.34611708,11.306491,0.26920217,0.34611708,11.306491,-0.4999469,10670.31;0.34611708,10.152767,0.26920217,0.7306916,10.152767,-0.38457453,10670.31;0.34611708,10.152767,0.26920217,-0.19228727,9.883566,0.46148944,10687.087;0.34611708,10.152767,0.26920217,0.15382981,11.037289,-0.23074472,10687.087;-1.2306385,10.152767,0.26920217,-1.2306385,9.383618,-0.07691491,10703.864;-1.2306385,10.152767,0.26920217,-1.3075534,9.691278,-0.38457453,10720.641;-1.2306385,10.152767,0.26920217,-1.0383513,9.229789,-0.4999469,10720.641;-1.2306385,10.152767,0.26920217,-1.2690959,9.729735,0.38457453,10737.418;0.4999469,10.152767,-1.1152661,0.4999469,10.806544,-1.1152661,10737.418;0.4999469,10.152767,0.38457453,0.26920217,10.306598,0.38457453,10754.195;0.4999469,10.152767,1.7690428,0.038457453,10.421969,1.7690428,10770.973;0.4999469,11.460321,3.4996283,0.8845214,11.460321,3.4996283,10770.973;0.4999469,11.460321,5.999363,0.53840435,10.691172,5.999363,10787.75;2.3843622,11.460321,5.999363,2.3843622,10.998832,6.460852,10787.75;2.3843622,11.460321,3.8842027,2.3459046,12.114098,3.8842027,10804.527;0.30765963,14.229258,5.1917562,0.30765963,14.229258,5.1917562,10821.305;-0.846064,12.767875,5.1917562,-0.846064,12.767875,5.0763836,10821.305;-0.846064,13.998513,5.1917562,-0.8845214,13.998513,4.6148944,10838.081;-0.846064,13.998513,5.1917562,0.07691491,13.383194,4.4610643,10838.081;-0.846064,13.998513,5.1917562,-0.19228727,12.998619,5.1148415,10854.858;-0.846064,12.191012,5.1917562,-0.038457453,12.191012,4.845639,10871.636;-0.846064,11.114204,4.07649,-0.30765963,11.114204,4.07649,10871.636;-0.846064,11.114204,4.07649,-0.4999469,10.806544,3.576543,10888.413;-0.846064,11.114204,4.07649,-0.11537236,10.7296295,3.153511,10888.413;-0.846064,9.614364,2.6535642,-1.3844683,9.614364,2.6535642,10905.19;-0.846064,9.614364,1.3460109,-1.8459578,8.729842,1.3460109,10921.968;-0.846064,9.614364,1.3460109,-1.3075534,9.191331,0.8076065,10921.968;-0.846064,8.229895,-0.846064,-1.692128,8.229895,-0.846064,10938.745;-0.846064,8.229895,-0.846064,-1.692128,8.037608,-1.3844683,10938.745;-0.846064,8.229895,-1.9613302,-1.4613832,7.5376606,-1.9613302,10955.522;-0.846064,6.4993095,-0.8845214,-0.61531925,6.4993095,-0.8845214,10955.522;0.30765963,6.4993095,-0.8845214,0.30765963,5.999363,-0.846064,10972.299;0.30765963,6.4993095,-0.8845214,-0.038457453,6.5762243,-1.0383513,10989.076;0.30765963,6.4993095,-0.8845214,0.19228727,6.806969,-0.15382981,10989.076;0.30765963,6.4993095,-0.8845214,-0.53840435,6.9992566,-0.11537236,11005.854;-0.76914907,6.4993095,0.5768618,-0.76914907,6.768512,0.5768618,11005.854;-0.76914907,6.4993095,0.5768618,-1.0383513,6.6531396,0.15382981,11022.631;-0.76914907,6.4993095,0.5768618,-0.7306916,5.8839903,1.5382981,11039.408;0.4999469,5.3840437,3.1150537,0.4999469,5.3840437,3.1150537,11039.408;0.4999469,5.3840437,4.307235,1.4229257,6.2301073,4.307235,11056.186;0.4999469,7.0761714,4.307235,1.1537236,7.0761714,3.8842027,11056.186;0.4999469,7.0761714,2.4997344,0.96143633,7.460746,2.4997344,11072.963;0.4999469,7.0761714,2.4997344,0.07691491,7.9991503,2.6920218,11089.74;-0.846064,8.30681,3.5380857,-0.846064,8.30681,3.5380857,11089.74;-0.846064,8.30681,3.5380857,-1.0768087,8.883672,3.730373,11106.517;-0.846064,8.30681,3.5380857,-0.34611708,8.537555,3.9226604,11106.517;-0.846064,8.30681,3.5380857,-0.5768618,8.960587,3.2688835,11123.294;-0.846064,9.460533,3.5380857,-0.6537767,9.460533,2.9612238,11140.071;-0.846064,9.460533,3.5380857,-1.7690428,8.691384,3.2688835,11140.071;-0.846064,9.460533,3.5380857,-1.3460109,9.268247,4.0380325,11156.849;-0.846064,9.460533,3.5380857,-1.4998407,8.999044,4.422607,11156.849;-0.846064,9.460533,4.691809,-1.1921811,8.999044,4.691809,11173.626;-0.846064,9.460533,4.691809,-1.5767555,9.383618,3.9995751,11190.403;-0.846064,9.460533,4.691809,-1.1537236,9.80665,4.345692,11190.403;-0.846064,9.460533,4.691809,-1.5382981,9.460533,4.499522,11207.181;-0.846064,9.460533,4.691809,-1.3075534,9.152874,5.0763836,11207.181;-0.846064,9.460533,4.691809,-0.8845214,9.306704,5.691703,11223.957;-0.846064,9.460533,4.691809,-0.423032,8.768299,5.153299,11240.734;-0.846064,8.422182,5.768618,-1.0768087,8.422182,5.768618,11240.734;-0.846064,8.422182,5.768618,-1.2306385,8.114523,5.768618,11257.512;-0.846064,8.422182,5.768618,-0.38457453,8.229895,6.3839374,11257.512;-0.846064,8.422182,5.768618,0.07691491,7.4222884,6.6531396,11274.289;0.26920217,7.306916,7.0761714,0.26920217,7.306916,7.0761714,11291.066;0.26920217,7.306916,7.0761714,0.038457453,7.8453207,6.768512,11291.066;0.26920217,7.306916,7.0761714,0.30765963,6.806969,6.768512,11307.844;0.26920217,7.306916,7.0761714,0.34611708,7.383831,7.3453736,11307.844;0.26920217,7.306916,7.0761714,0.26920217,7.114629,6.9992566,11324.621;0.26920217,7.306916,7.0761714,0.23074472,6.8454266,7.306916,11341.398;0.26920217,7.306916,7.0761714,-0.07691491,7.4222884,7.037714,11341.398;0.26920217,7.306916,7.0761714,-0.15382981,6.806969,6.8454266,11358.175;0.26920217,7.306916,7.0761714,0.038457453,7.153086,7.153086,11358.175;0.26920217,7.306916,7.0761714,0.34611708,6.4993095,7.306916,11374.952;0.26920217,7.306916,7.0761714,0.11537236,6.8454266,7.2300014,11391.7295;0.26920217,7.306916,7.0761714,0.19228727,6.4993095,7.3453736,11391.7295;0.26920217,7.306916,7.0761714,-0.15382981,6.614682,7.0761714,11408.507;0.26920217,7.306916,7.0761714,0.038457453,6.4993095,7.5376606,11408.507;0.26920217,7.306916,7.0761714,0.6537767,6.6531396,7.0761714,11425.284;0.26920217,7.306916,7.0761714,-0.11537236,6.4223948,7.1915436,11442.062;0.26920217,7.306916,7.0761714,0.8845214,6.4223948,7.268459,11442.062;0.26920217,7.306916,7.0761714,0.19228727,6.5762243,7.383831,11458.839;0.26920217,7.306916,7.0761714,0.30765963,7.114629,6.883884,11458.839;0.26920217,7.306916,7.0761714,-0.19228727,6.691597,7.5761185,11475.616;0.26920217,6.2685647,7.0761714,-0.26920217,6.2685647,7.729948,11475.616;0.26920217,6.2685647,7.0761714,-0.34611708,6.4223948,7.6914907,11492.393;0.26920217,6.2685647,7.0761714,-0.19228727,5.960905,7.306916,11509.17;0.26920217,6.2685647,7.0761714,-0.34611708,5.8839903,7.383831,11509.17;0.26920217,6.2685647,7.0761714,-0.38457453,5.999363,7.499203,11525.947;0.26920217,6.2685647,7.0761714,-0.19228727,5.9224477,7.614576,11525.947;0.26920217,6.2685647,7.0761714,-0.423032,6.0762777,7.7684054,11542.725;0.26920217,6.2685647,7.0761714,-0.38457453,5.845533,6.9992566,11559.502;0.26920217,6.2685647,7.0761714,-0.61531925,5.4609585,7.153086,11559.502;0.26920217,6.2685647,5.6532454,0.07691491,6.8454266,5.6532454,11576.279;0.26920217,6.2685647,5.6532454,-0.53840435,6.1531925,5.960905,11576.279;0.26920217,6.2685647,5.6532454,-0.6537767,6.4993095,5.960905,11593.057;-0.9998938,6.2685647,5.6532454,-0.9998938,6.5762243,5.8839903,11609.833;-0.9998938,6.2685647,5.6532454,-0.26920217,6.2301073,6.307022,11609.833;-0.9998938,6.2685647,6.9223413,-0.34611708,6.19165,6.9223413,11626.61;-0.9998938,6.2685647,6.9223413,-0.8076065,6.0378203,6.883884,11626.61;-0.9998938,6.2685647,6.9223413,-0.4999469,6.114735,7.153086,11643.388;0.11537236,6.2685647,6.9223413,0.11537236,5.768618,7.4222884,11660.165;0.11537236,6.2685647,6.9223413,-0.46148944,6.537767,7.614576,11660.165;0.11537236,6.2685647,6.9223413,-0.6537767,6.19165,6.7300544,11676.942;0.11537236,6.2685647,6.9223413,-0.38457453,5.960905,7.1915436,11676.942;0.11537236,6.2685647,6.9223413,-0.8845214,6.114735,6.691597,11693.72;0.11537236,6.2685647,6.9223413,-0.7306916,6.3839374,6.7300544,11710.497;0.11537236,6.2685647,6.9223413,-0.4999469,6.960799,6.114735,11710.497;111,111,111,111,111,111,111;