999,999,999,999,999,999,999;-2.6535642,9.652821,0.423032,-2.5766494,9.498991,0.34611708,0.0;-2.6535642,9.652821,0.423032,-2.1536174,9.998938,0.8845214,67.108864;-2.6535642,9.652821,0.423032,-2.1536174,9.575906,0.5768618,67.108864;-2.6535642,9.652821,0.423032,-2.1920748,9.691278,0.23074472,67.108864;-2.6535642,9.652821,0.423032,-2.8458514,9.268247,0.76914907,100.6633;-2.6535642,9.652821,0.423032,-2.3843622,9.460533,0.26920217,100.6633;-2.6535642,9.652821,0.423032,-2.4228196,9.575906,0.423032,100.6633;-2.6535642,9.652821,0.423032,-2.807394,9.345161,0.07691491,134.21773;-2.6535642,9.652821,0.423032,-2.6151068,9.191331,0.34611708,134.21773;-2.6535642,9.652821,0.423032,-2.4997344,9.229789,0.07691491,134.21773;-2.6535642,9.652821,0.423032,-2.1536174,9.383618,0.53840435,167.77216;-2.6535642,9.652821,0.423032,-2.1920748,9.460533,0.423032,167.77216;-2.6535642,9.652821,0.423032,-2.2305322,10.26814,0.11537236,167.77216;-2.6535642,9.652821,0.423032,-2.7304792,9.345161,-0.07691491,201.3266;-2.6535642,9.652821,-0.6537767,-2.2305322,9.80665,-0.6537767,201.3266;-2.6535642,9.652821,-0.6537767,-1.9997876,9.345161,-0.34611708,201.3266;-2.6535642,9.652821,-0.6537767,-2.6920218,9.80665,-0.07691491,201.3266;-2.6535642,9.652821,-0.6537767,-2.6535642,9.614364,-0.11537236,234.88103;-2.6535642,9.652821,-0.6537767,-2.8458514,9.422076,0.15382981,234.88103;-2.6535642,9.652821,0.423032,-2.3074472,9.460533,0.423032,234.88103;-2.6535642,9.652821,0.423032,-2.3843622,8.960587,0.5768618,268.43546;-2.6535642,9.652821,0.423032,-2.1920748,9.575906,0.8076065,268.43546;-2.6535642,9.652821,0.423032,-2.6535642,9.80665,1.2306385,268.43546;-2.6535642,9.652821,0.423032,-2.884309,9.80665,0.6537767,268.43546;-2.6535642,9.652821,0.423032,-2.3459046,9.80665,0.6537767,301.9899;-2.6535642,9.652821,0.423032,-2.4228196,9.345161,0.30765963,301.9899;-2.6535642,9.652821,0.423032,-2.4228196,9.460533,0.4999469,301.9899;-2.6535642,9.652821,0.423032,-2.8458514,9.652821,0.61531925,335.5443;-2.6535642,9.652821,0.423032,-2.5381918,10.075852,0.11537236,335.5443;-2.6535642,9.652821,0.423032,-2.4228196,9.306704,0.15382981,335.5443;-2.6535642,9.652821,0.423032,-2.6535642,9.614364,0.19228727,369.09875;-2.6535642,9.652821,0.423032,-2.3074472,9.614364,0.34611708,369.09875;-2.6535642,9.652821,0.423032,-3.230426,9.691278,0.26920217,369.09875;-2.6535642,9.652821,0.423032,-2.461277,9.691278,0.38457453,369.09875;-2.6535642,9.652821,0.423032,-2.3074472,9.652821,0.8076065,402.6532;-2.6535642,9.652821,0.423032,-2.1920748,9.614364,0.53840435,402.6532;-2.6535642,9.652821,0.423032,-2.6535642,9.306704,0.96143633,402.6532;-2.6535642,9.652821,0.423032,-3.1150537,9.498991,0.61531925,436.2076;-2.6535642,9.652821,0.423032,-2.6920218,9.460533,-0.038457453,436.2076;-2.6535642,9.652821,0.423032,-2.7689366,9.191331,0.19228727,436.2076;-2.6535642,9.652821,0.423032,-2.6535642,9.537449,0.46148944,469.76205;-2.6535642,9.652821,0.423032,-2.6535642,9.075959,0.34611708,469.76205;-2.6535642,9.652821,0.423032,-2.884309,9.575906,0.38457453,469.76205;-2.6535642,9.652821,0.423032,-2.4228196,9.883566,0.846064,469.76205;-2.6535642,9.652821,0.423032,-2.9227664,9.383618,0.61531925,503.31647;-2.6535642,9.652821,0.423032,-2.2305322,9.383618,0.7306916,503.31647;-2.6535642,9.652821,0.423032,-2.5766494,9.114416,0.8076065,503.31647;-2.6535642,9.652821,0.423032,-2.8458514,9.80665,-0.038457453,536.8709;-2.6535642,9.652821,0.423032,-2.4228196,9.345161,-0.19228727,536.8709;-2.6535642,9.652821,0.423032,-2.6920218,9.460533,-0.11537236,536.8709;-2.6535642,9.652821,0.423032,-2.5381918,9.614364,0.423032,570.42535;-2.6535642,9.652821,0.423032,-2.5381918,9.114416,0.26920217,570.42535;-2.6535642,9.652821,0.423032,-2.7304792,9.652821,0.15382981,570.42535;-2.6535642,9.652821,0.423032,-2.6535642,9.306704,0.46148944,570.42535;-2.6535642,9.652821,0.423032,-2.461277,9.80665,0.53840435,603.9798;-2.6535642,9.652821,0.423032,-2.3843622,9.845108,0.53840435,603.9798;-2.6535642,9.652821,0.423032,-2.461277,9.729735,0.6537767,603.9798;-2.6535642,9.652821,0.423032,-2.4997344,9.768193,1.4229257,637.5342;-2.6535642,9.652821,0.423032,-2.9227664,9.383618,0.846064,637.5342;-2.6535642,9.652821,0.423032,-2.3459046,9.306704,0.61531925,637.5342;-2.6535642,9.652821,0.423032,-2.2305322,9.845108,0.6537767,637.5342;-2.6535642,9.652821,0.423032,-2.3459046,9.922023,0.30765963,671.0886;-2.6535642,9.652821,0.423032,-2.1536174,9.80665,0.26920217,671.0886;-2.6535642,9.652821,0.423032,-2.6920218,9.691278,0.11537236,671.0886;-2.6535642,9.652821,0.423032,-2.6151068,9.075959,0.11537236,704.64307;-2.6535642,9.652821,0.423032,-2.5766494,9.268247,0.6537767,704.64307;-2.6535642,9.652821,0.423032,-2.5381918,9.922023,0.9229789,704.64307;-2.6535642,9.652821,0.423032,-2.6535642,9.345161,0.30765963,738.1975;-2.6535642,9.652821,0.423032,-2.3843622,9.537449,0.038457453,738.1975;-2.6535642,9.652821,0.423032,-2.807394,9.575906,0.26920217,738.1975;-2.6535642,9.652821,0.423032,-2.038245,9.845108,0.07691491,738.1975;-2.6535642,9.652821,0.423032,-3.0765963,9.960481,0.5768618,771.75195;-2.6535642,9.652821,0.423032,-2.4997344,9.152874,0.46148944,771.75195;-2.6535642,9.652821,0.423032,-2.2689898,9.883566,0.0,771.75195;-2.6535642,9.652821,0.423032,-2.4228196,9.691278,-0.07691491,805.3064;-2.6535642,9.652821,0.423032,-2.3459046,9.652821,0.34611708,805.3064;-2.6535642,9.652821,0.423032,-2.8458514,9.80665,0.6537767,805.3064;-2.6535642,9.652821,0.423032,-2.4997344,9.80665,0.6537767,838.8608;-2.6535642,9.652821,0.423032,-2.9996815,9.652821,0.15382981,838.8608;-2.6535642,9.652821,0.423032,-3.0381389,9.498991,-0.34611708,838.8608;-2.6535642,9.652821,0.423032,-2.884309,9.422076,0.61531925,838.8608;-2.6535642,9.652821,0.423032,-2.5381918,9.80665,0.61531925,872.4152;-2.6535642,9.652821,0.423032,-2.5381918,9.537449,0.11537236,872.4152;-2.6535642,9.652821,0.423032,-2.461277,10.075852,0.0,872.4152;-2.6535642,9.652821,0.423032,-2.0767026,9.845108,-0.26920217,905.96967;-2.6535642,9.652821,0.423032,-2.461277,9.498991,0.23074472,905.96967;-2.6535642,9.652821,0.423032,-2.6535642,9.652821,0.9998938,905.96967;-2.6535642,9.652821,0.423032,-2.4228196,9.306704,0.11537236,939.5241;-2.6535642,9.652821,0.423032,-2.8458514,9.768193,-0.30765963,939.5241;-2.6535642,9.652821,0.423032,-2.7689366,9.498991,0.0,939.5241;-2.6535642,9.652821,0.423032,-2.4228196,8.922129,-0.038457453,939.5241;-2.6535642,9.652821,0.423032,-2.5381918,10.11431,0.4999469,973.07855;-2.6535642,9.652821,0.423032,-3.1150537,9.268247,0.69223416,973.07855;-2.6535642,9.652821,0.423032,-2.8458514,9.152874,0.4999469,1006.63293;-2.6535642,9.652821,0.423032,-2.0767026,9.498991,0.34611708,1006.63293;-2.6535642,9.652821,0.423032,-2.461277,10.11431,0.5768618,1006.63293;-2.6535642,9.652821,0.423032,-2.8458514,9.537449,0.38457453,1040.1874;-2.6535642,9.652821,0.423032,-2.9996815,9.460533,0.30765963,1040.1874;-2.6535642,9.652821,0.423032,-2.884309,9.575906,0.34611708,1040.1874;-2.6535642,9.652821,0.423032,-2.7689366,9.345161,0.11537236,1073.7418;-2.6535642,9.652821,0.423032,-2.4228196,9.614364,0.61531925,1073.7418;-2.6535642,9.652821,0.423032,-2.6535642,9.652821,0.38457453,1073.7418;-2.6535642,9.652821,0.423032,-2.5766494,9.729735,0.26920217,1073.7418;-2.6535642,9.652821,0.423032,-2.3459046,9.691278,0.15382981,1107.2963;-2.6535642,9.652821,0.423032,-2.3074472,9.729735,0.8845214,1107.2963;-2.6535642,9.652821,0.423032,-2.5766494,9.460533,0.9229789,1107.2963;-2.6535642,9.652821,0.423032,-2.461277,9.383618,0.61531925,1107.2963;-2.6535642,9.652821,0.423032,-2.3459046,9.768193,0.34611708,1140.8507;-2.6535642,9.652821,0.423032,-2.9227664,9.575906,0.30765963,1140.8507;-2.6535642,9.652821,0.423032,-2.8458514,9.498991,-0.15382981,1140.8507;-2.6535642,9.652821,0.423032,-2.6920218,9.268247,0.69223416,1174.4052;-2.6535642,9.652821,0.423032,-2.3459046,9.575906,0.34611708,1174.4052;-2.6535642,9.652821,0.423032,-2.461277,9.498991,0.26920217,1174.4052;-2.6535642,9.652821,0.423032,-2.6920218,9.768193,0.07691491,1207.9596;-2.6535642,9.652821,0.423032,-2.11516,9.152874,0.34611708,1207.9596;-2.6535642,9.652821,0.423032,-2.4228196,9.960481,0.69223416,1207.9596;-2.6535642,9.652821,0.423032,-2.5766494,9.922023,0.38457453,1207.9596;-2.6535642,9.652821,0.423032,-3.0381389,9.460533,0.23074472,1241.514;-2.6535642,9.652821,0.423032,-2.4997344,9.345161,0.07691491,1241.514;-2.6535642,9.652821,0.423032,-2.7689366,9.229789,0.53840435,1241.514;-2.6535642,9.652821,0.423032,-2.4228196,9.80665,0.46148944,1275.0684;-2.6535642,9.652821,0.423032,-2.1536174,9.383618,0.34611708,1275.0684;-2.6535642,9.652821,0.423032,-2.7689366,9.80665,0.53840435,1275.0684;-2.6535642,9.652821,0.423032,-2.3843622,9.691278,0.53840435,1308.6228;-2.6535642,9.652821,0.423032,-2.4997344,9.575906,0.6537767,1308.6228;-2.6535642,9.652821,0.423032,-2.1536174,9.922023,0.423032,1308.6228;-2.6535642,9.652821,0.423032,-2.3074472,9.960481,0.07691491,1308.6228;-2.6535642,9.652821,0.423032,-2.6535642,9.614364,0.26920217,1342.1772;-2.6535642,9.652821,0.423032,-2.9996815,9.229789,0.0,1342.1772;-2.6535642,9.652821,0.423032,-2.1536174,9.422076,0.423032,1342.1772;-2.6535642,9.652821,0.423032,-2.1536174,9.729735,0.76914907,1375.7317;-2.6535642,9.652821,0.423032,-2.5381918,9.845108,0.423032,1375.7317;-2.6535642,9.652821,0.423032,-2.8458514,9.691278,0.4999469,1375.7317;-2.6535642,9.652821,0.423032,-2.2689898,9.229789,0.423032,1409.2861;-2.6535642,9.652821,0.423032,-1.9228727,9.345161,0.6537767,1409.2861;-2.6535642,9.652821,0.423032,-2.3074472,9.768193,0.5768618,1409.2861;-2.6535642,9.652821,0.423032,-2.2305322,9.729735,0.7306916,1409.2861;-2.6535642,9.652821,0.423032,-2.5381918,9.614364,0.26920217,1442.8406;-2.6535642,9.652821,0.423032,-2.5381918,9.845108,0.34611708,1442.8406;-2.6535642,9.652821,0.423032,-2.5766494,9.383618,0.423032,1442.8406;-2.6535642,9.652821,0.423032,-1.8459578,9.729735,0.61531925,1476.395;-2.6535642,9.652821,0.423032,-2.2689898,9.691278,0.61531925,1476.395;-2.6535642,9.652821,0.423032,-2.4997344,9.80665,0.53840435,1476.395;-2.6535642,9.652821,0.423032,-2.9612238,9.614364,0.423032,1509.9495;-2.6535642,9.652821,0.423032,-2.1920748,9.845108,0.34611708,1509.9495;-2.6535642,9.652821,0.423032,-2.4997344,9.306704,0.5768618,1509.9495;-2.6535642,9.652821,0.423032,-2.4228196,9.306704,0.76914907,1509.9495;-2.6535642,9.652821,0.423032,-2.7689366,9.345161,0.11537236,1543.5039;-2.6535642,9.652821,0.423032,-2.3843622,9.768193,-0.11537236,1543.5039;-2.6535642,9.652821,0.423032,-2.6535642,9.306704,0.5768618,1543.5039;-2.6535642,9.652821,0.423032,-1.9613302,9.691278,0.69223416,1577.0583;-2.6535642,9.652821,0.423032,-2.6920218,9.383618,0.34611708,1577.0583;-2.6535642,9.652821,0.423032,-2.6535642,9.845108,0.07691491,1577.0583;-2.6535642,9.652821,0.423032,-3.230426,9.345161,0.11537236,1577.0583;-2.6535642,9.652821,0.423032,-2.6151068,9.80665,1.0768087,1610.6128;-2.6535642,9.652821,0.423032,-2.5766494,9.460533,0.26920217,1610.6128;-2.6535642,9.652821,0.423032,-2.9227664,9.80665,0.23074472,1610.6128;-2.6535642,9.652821,0.423032,-3.153511,9.114416,0.19228727,1644.1671;-2.6535642,9.652821,0.423032,-2.807394,9.460533,-0.30765963,1644.1671;-2.6535642,9.652821,0.423032,-1.9997876,9.922023,0.30765963,1644.1671;-2.6535642,9.652821,0.423032,-2.1536174,9.691278,0.846064,1677.7216;-2.6535642,9.652821,0.423032,-2.7304792,9.575906,0.34611708,1677.7216;-2.6535642,9.652821,0.423032,-2.2689898,9.422076,0.15382981,1677.7216;-2.6535642,9.652821,0.423032,-2.3459046,9.383618,0.19228727,1711.276;-2.6535642,9.652821,0.423032,-2.7689366,8.922129,0.23074472,1711.276;-2.6535642,9.652821,0.423032,-1.7305853,9.537449,0.038457453,1711.276;-2.6535642,9.652821,0.423032,-2.3459046,9.614364,0.7306916,1711.276;-2.6535642,9.652821,0.423032,-2.6151068,9.80665,0.5768618,1744.8304;-2.6535642,9.652821,0.423032,-2.5381918,9.80665,0.15382981,1744.8304;-2.6535642,9.652821,0.423032,-2.8458514,10.11431,0.34611708,1744.8304;-2.6535642,9.652821,0.423032,-2.3843622,9.729735,0.61531925,1778.3849;-2.6535642,9.652821,0.423032,-2.461277,9.460533,-0.038457453,1778.3849;-2.6535642,9.652821,0.423032,-2.5381918,9.845108,0.46148944,1778.3849;-2.6535642,9.652821,0.423032,-2.4997344,9.422076,-0.07691491,1778.3849;-2.6535642,9.652821,0.423032,-2.1536174,9.768193,0.38457453,1811.9393;-2.6535642,9.652821,0.423032,-2.3074472,9.498991,0.7306916,1811.9393;-2.6535642,9.652821,0.423032,-2.2305322,9.075959,1.0383513,1811.9393;-2.6535642,9.652821,0.423032,-2.807394,9.729735,0.30765963,1845.4938;-2.6535642,9.652821,0.423032,-2.2305322,9.845108,0.7306916,1845.4938;-2.6535642,9.652821,0.423032,-2.2305322,9.575906,0.96143633,1845.4938;-2.6535642,9.652821,0.423032,-2.5381918,9.614364,0.38457453,1879.0482;-2.6535642,9.652821,0.423032,-2.9612238,9.345161,0.7306916,1879.0482;-2.6535642,9.652821,0.423032,-2.3843622,9.229789,0.38457453,1879.0482;-2.6535642,9.652821,0.423032,-2.2689898,9.614364,0.07691491,1879.0482;-2.6535642,9.652821,0.423032,-2.7304792,9.537449,-0.07691491,1912.6027;-2.6535642,9.652821,0.423032,-1.9997876,9.729735,0.8845214,1912.6027;-2.6535642,9.652821,0.423032,-2.3459046,9.306704,0.53840435,1912.6027;-2.6535642,9.652821,0.423032,-2.807394,9.614364,0.38457453,1946.1571;-2.6535642,9.652821,0.423032,-2.9227664,9.998938,0.34611708,1946.1571;-2.6535642,9.652821,0.423032,-2.5766494,9.498991,0.46148944,1946.1571;-2.6535642,9.652821,0.423032,-2.6920218,9.652821,0.8076065,1979.7115;-2.6535642,9.652821,0.423032,-2.9996815,9.80665,0.61531925,1979.7115;-2.6535642,9.652821,0.423032,-2.7689366,9.460533,0.8845214,1979.7115;-2.6535642,9.652821,0.423032,-2.5766494,9.498991,-0.038457453,1979.7115;-2.6535642,9.652821,0.423032,-2.807394,9.691278,0.11537236,2013.2659;-2.6535642,9.652821,0.423032,-1.9997876,9.998938,0.6537767,2013.2659;-2.6535642,9.652821,0.423032,-2.461277,9.460533,0.6537767,2013.2659;-2.6535642,9.652821,0.423032,-2.7304792,9.845108,0.11537236,2046.8203;-2.6535642,9.652821,0.423032,-3.0381389,9.768193,0.61531925,2046.8203;-2.6535642,9.652821,0.423032,-2.884309,9.845108,0.53840435,2046.8203;-2.6535642,9.652821,0.423032,-2.4228196,9.306704,0.8845214,2080.3748;-2.6535642,9.652821,0.423032,-2.2305322,9.998938,0.7306916,2080.3748;-2.6535642,9.652821,0.423032,-2.7304792,9.575906,0.15382981,2080.3748;-2.6535642,9.652821,0.423032,-3.1150537,9.114416,-0.26920217,2080.3748;-2.6535642,9.652821,0.423032,-2.5381918,9.037501,0.19228727,2113.9292;-1.5382981,9.652821,0.423032,-1.5382981,9.229789,0.34611708,2113.9292;-2.9612238,9.652821,0.423032,-2.9612238,9.152874,0.15382981,2113.9292;-2.9612238,9.652821,0.423032,-2.4997344,9.498991,0.11537236,2147.4836;-2.9612238,9.652821,0.423032,-2.5766494,10.075852,0.34611708,2147.4836;-2.9612238,9.652821,0.423032,-2.4228196,9.768193,0.5768618,2147.4836;-1.8075004,9.652821,0.423032,-1.8075004,9.845108,0.9998938,2147.4836;-1.8075004,9.652821,0.423032,-2.461277,9.614364,0.846064,2181.038;-2.8458514,9.652821,0.423032,-2.8458514,9.883566,0.5768618,2181.038;-2.8458514,9.652821,0.423032,-2.3459046,9.422076,-0.30765963,2181.038;-2.8458514,9.652821,0.423032,-2.4228196,9.614364,-0.30765963,2214.5925;-2.8458514,9.652821,0.423032,-2.038245,9.498991,0.30765963,2214.5925;-2.8458514,9.652821,0.423032,-1.9613302,9.306704,0.5768618,2214.5925;-2.8458514,9.652821,0.423032,-2.5766494,9.498991,0.46148944,2248.147;-2.8458514,9.652821,0.423032,-2.5766494,9.922023,0.07691491,2248.147;-2.8458514,9.652821,0.423032,-2.6535642,9.345161,0.9229789,2248.147;-2.8458514,9.652821,0.423032,-2.2305322,9.152874,0.46148944,2248.147;-2.8458514,9.652821,0.423032,-2.6535642,10.11431,0.5768618,2281.7014;-2.8458514,9.652821,0.423032,-2.0767026,9.691278,0.61531925,2281.7014;-2.8458514,9.652821,0.423032,-2.807394,8.768299,0.30765963,2281.7014;-2.8458514,9.652821,0.423032,-3.1150537,9.306704,0.34611708,2315.2559;-2.8458514,9.652821,0.423032,-2.3843622,8.768299,0.4999469,2315.2559;-2.8458514,9.652821,0.423032,-2.4228196,10.26814,0.8845214,2315.2559;-2.8458514,9.652821,0.423032,-2.5766494,9.460533,0.5768618,2348.8103;-2.8458514,9.652821,0.423032,-2.8458514,9.537449,0.5768618,2348.8103;-2.8458514,9.652821,0.423032,-2.461277,9.537449,0.38457453,2348.8103;-2.8458514,9.652821,0.423032,-2.3843622,9.460533,1.0383513,2348.8103;-2.8458514,9.652821,0.423032,-2.0767026,9.614364,0.53840435,2382.3647;-2.8458514,9.652821,0.423032,-2.4997344,9.80665,0.423032,2382.3647;-2.8458514,9.652821,0.423032,-3.4227133,9.383618,0.11537236,2382.3647;-2.8458514,9.652821,0.423032,-2.6535642,9.575906,0.038457453,2415.9192;-2.8458514,9.652821,0.423032,-1.8844151,9.729735,0.34611708,2415.9192;-2.8458514,9.652821,0.423032,-2.1536174,9.306704,0.23074472,2415.9192;-2.8458514,9.652821,0.423032,-2.1536174,9.460533,0.5768618,2449.4736;-2.8458514,9.652821,0.423032,-2.6151068,9.306704,0.61531925,2449.4736;-2.8458514,9.652821,0.423032,-2.6151068,9.575906,0.69223416,2449.4736;-2.8458514,9.652821,0.423032,-2.4997344,9.114416,0.5768618,2449.4736;-2.8458514,9.652821,0.423032,-2.7304792,9.383618,0.8076065,2483.028;-2.8458514,9.652821,0.423032,-2.6920218,9.498991,0.423032,2483.028;-2.8458514,9.652821,0.423032,-2.6920218,9.537449,-0.038457453,2483.028;-2.8458514,9.652821,0.423032,-2.3074472,9.614364,0.23074472,2516.5825;-2.8458514,9.652821,0.423032,-2.038245,9.537449,0.11537236,2516.5825;-2.8458514,9.652821,0.423032,-2.2689898,9.498991,0.46148944,2516.5825;-2.8458514,9.652821,0.423032,-2.4997344,9.075959,0.07691491,2550.1367;-2.8458514,9.652821,0.423032,-2.0767026,9.691278,0.15382981,2550.1367;-2.8458514,9.652821,0.423032,-2.038245,9.306704,0.34611708,2550.1367;-2.8458514,9.652821,0.423032,-2.2305322,9.575906,0.5768618,2550.1367;-2.8458514,9.652821,0.423032,-2.6920218,9.960481,0.96143633,2583.6912;-2.8458514,9.652821,0.423032,-2.7304792,9.537449,0.4999469,2583.6912;-2.8458514,9.652821,0.423032,-3.153511,9.422076,0.8076065,2583.6912;-2.8458514,9.652821,0.423032,-2.4228196,9.460533,0.30765963,2617.2456;-2.8458514,9.652821,0.423032,-2.3843622,10.0373955,0.07691491,2617.2456;-2.8458514,9.652821,0.423032,-2.807394,9.80665,0.8076065,2617.2456;-2.8458514,9.652821,0.423032,-2.4997344,9.268247,-0.19228727,2617.2456;-2.8458514,9.652821,0.423032,-2.7304792,9.614364,0.19228727,2650.8;-2.8458514,9.652821,0.423032,-2.5381918,9.652821,-0.11537236,2650.8;-2.8458514,9.652821,0.423032,-2.5766494,9.691278,0.5768618,2650.8;-2.8458514,9.652821,0.423032,-2.2689898,9.575906,0.6537767,2684.3545;-2.8458514,9.652821,0.423032,-2.4228196,9.729735,0.19228727,2684.3545;-2.8458514,9.652821,0.423032,-2.4228196,9.383618,0.19228727,2684.3545;-2.8458514,9.652821,0.423032,-2.6151068,9.229789,0.61531925,2717.909;-2.8458514,9.652821,0.423032,-2.461277,9.229789,0.61531925,2717.909;-2.8458514,9.652821,0.423032,-2.2689898,9.229789,0.76914907,2717.909;-2.8458514,9.652821,0.423032,-2.5766494,9.729735,0.8845214,2717.909;-2.8458514,9.652821,0.423032,-2.3074472,9.422076,0.38457453,2751.4634;-2.8458514,9.652821,0.423032,-2.6920218,9.422076,0.423032,2751.4634;-2.8458514,9.652821,0.423032,-2.3459046,9.537449,0.5768618,2751.4634;-2.8458514,9.652821,0.423032,-2.11516,9.729735,0.26920217,2785.0178;-2.8458514,9.652821,0.423032,-2.2305322,9.537449,0.423032,2785.0178;-2.8458514,9.652821,0.423032,-2.461277,10.345055,0.30765963,2785.0178;-2.8458514,9.652821,0.423032,-2.5766494,9.729735,0.07691491,2818.5723;-2.8458514,9.652821,0.423032,-2.2305322,9.191331,0.6537767,2818.5723;-2.8458514,9.652821,0.423032,-2.4228196,9.652821,0.53840435,2818.5723;-2.8458514,9.652821,0.423032,-2.5381918,9.922023,0.53840435,2818.5723;-2.8458514,9.652821,0.423032,-2.6151068,9.575906,0.69223416,2852.1267;-2.8458514,9.652821,0.423032,-2.4228196,9.998938,0.61531925,2852.1267;-2.8458514,9.652821,0.423032,-2.4228196,10.0373955,0.69223416,2852.1267;-2.8458514,9.652821,0.423032,-2.5381918,9.306704,0.6537767,2885.6812;-2.8458514,9.652821,0.423032,-2.4997344,9.422076,0.34611708,2885.6812;-2.8458514,9.652821,0.423032,-2.8458514,9.498991,-0.038457453,2885.6812;-2.8458514,9.652821,0.423032,-2.6151068,9.691278,-0.11537236,2919.2356;-2.8458514,9.652821,0.423032,-2.5381918,9.614364,0.7306916,2919.2356;-2.8458514,9.652821,0.423032,-2.5766494,9.80665,0.61531925,2919.2356;-2.8458514,9.652821,0.423032,-2.3459046,9.345161,0.46148944,2919.2356;-2.8458514,9.652821,0.423032,-2.3459046,9.575906,0.53840435,2952.79;-2.8458514,9.652821,0.423032,-2.6535642,9.729735,0.4999469,2952.79;-2.8458514,9.652821,0.423032,-2.11516,9.80665,0.26920217,2952.79;-2.8458514,9.652821,0.423032,-2.1536174,10.075852,0.4999469,2986.3445;-2.8458514,9.652821,0.423032,-2.9996815,9.614364,0.61531925,2986.3445;-2.8458514,9.652821,0.423032,-2.4997344,9.768193,0.07691491,2986.3445;-2.8458514,9.652821,0.423032,-2.4997344,9.345161,0.07691491,3019.899;-2.8458514,9.652821,0.423032,-2.6920218,9.80665,0.46148944,3019.899;-2.8458514,9.652821,0.423032,-2.0767026,9.460533,0.23074472,3019.899;-2.8458514,9.652821,0.423032,-2.4228196,9.383618,0.23074472,3019.899;-2.8458514,9.652821,0.423032,-2.6920218,9.345161,0.19228727,3053.4534;-2.8458514,9.652821,0.423032,-3.153511,9.383618,0.4999469,3053.4534;-2.8458514,9.652821,0.423032,-2.7689366,9.114416,0.5768618,3053.4534;-2.8458514,9.652821,0.423032,-2.3074472,9.460533,0.423032,3087.0078;-2.8458514,9.652821,0.423032,-2.1536174,9.498991,0.8076065,3087.0078;-2.8458514,9.652821,0.423032,-2.884309,9.152874,0.6537767,3087.0078;-2.8458514,9.652821,0.423032,-2.6535642,9.306704,0.26920217,3087.0078;-2.8458514,9.652821,0.423032,-2.1920748,9.191331,0.53840435,3120.5623;-2.8458514,9.652821,0.423032,-2.461277,9.960481,0.423032,3120.5623;-2.8458514,9.652821,0.423032,-3.230426,9.80665,0.69223416,3120.5623;-2.8458514,9.652821,0.423032,-2.7689366,9.537449,0.26920217,3154.1167;-2.8458514,9.652821,0.423032,-2.7689366,9.075959,0.23074472,3154.1167;-2.8458514,9.652821,0.423032,-2.1536174,9.498991,-0.11537236,3154.1167;-2.8458514,9.652821,0.423032,-2.4997344,10.0373955,0.69223416,3187.6711;-2.8458514,9.652821,0.423032,-2.3459046,9.575906,0.34611708,3187.6711;-2.8458514,9.652821,0.423032,-2.6920218,9.152874,0.34611708,3187.6711;-2.8458514,9.652821,0.423032,-2.6151068,10.11431,0.6537767,3187.6711;-2.8458514,9.652821,0.423032,-2.6151068,9.845108,0.61531925,3221.2256;-2.8458514,9.652821,0.423032,-2.1536174,9.422076,0.15382981,3221.2256;-2.8458514,9.652821,0.423032,-2.9996815,9.191331,0.96143633,3221.2256;-2.8458514,9.652821,0.423032,-2.5766494,9.80665,0.30765963,3254.7798;-2.8458514,9.652821,0.423032,-2.7304792,10.306598,0.46148944,3254.7798;-2.8458514,9.652821,0.423032,-2.9612238,9.614364,0.15382981,3254.7798;-2.8458514,9.652821,0.423032,-2.11516,9.537449,0.15382981,3288.3342;-2.8458514,9.652821,0.423032,-2.0767026,8.806757,0.9229789,3288.3342;-2.8458514,9.652821,0.423032,-2.807394,9.729735,0.07691491,3288.3342;-2.8458514,9.652821,0.423032,-2.9996815,9.075959,-0.07691491,3288.3342;-2.8458514,9.652821,0.423032,-2.11516,9.383618,-0.07691491,3321.8887;-2.8458514,9.652821,0.423032,-2.4997344,9.575906,0.46148944,3321.8887;-2.8458514,9.652821,0.423032,-2.4228196,10.075852,0.61531925,3321.8887;-2.8458514,9.652821,0.423032,-2.461277,9.883566,0.7306916,3355.443;-2.8458514,9.652821,0.423032,-2.3459046,9.80665,-0.26920217,3355.443;-2.8458514,9.652821,0.423032,-2.4997344,8.999044,0.23074472,3355.443;-2.8458514,9.652821,0.423032,-2.8458514,9.845108,1.3844683,3388.9976;-2.8458514,9.652821,0.423032,-2.3459046,9.229789,0.23074472,3388.9976;-2.8458514,9.652821,0.423032,-2.7304792,9.614364,0.53840435,3388.9976;-2.8458514,9.652821,0.423032,-3.230426,9.845108,-0.038457453,3388.9976;-2.8458514,9.652821,0.423032,-2.5381918,10.229683,0.9229789,3422.552;-2.8458514,9.652821,0.423032,-2.3843622,9.729735,0.6537767,3422.552;-2.8458514,9.652821,0.423032,-2.807394,9.691278,0.4999469,3422.552;-2.8458514,9.652821,0.423032,-2.5381918,9.422076,1.1537236,3456.1064;-2.8458514,9.652821,0.423032,-2.6151068,9.306704,0.26920217,3456.1064;-2.8458514,9.652821,0.423032,-2.3459046,9.575906,0.69223416,3456.1064;-2.8458514,9.652821,0.423032,-2.1920748,9.114416,0.76914907,3489.661;-2.8458514,9.652821,0.423032,-2.038245,9.960481,0.26920217,3489.661;-2.8458514,9.652821,0.423032,-2.2305322,10.0373955,0.34611708,3489.661;-2.8458514,9.652821,0.423032,-2.807394,9.306704,0.26920217,3489.661;-2.8458514,9.652821,0.423032,-2.5381918,9.422076,0.61531925,3523.2153;-2.8458514,9.652821,0.423032,-2.2305322,10.345055,0.53840435,3523.2153;-2.8458514,9.652821,0.423032,-2.1920748,10.306598,0.7306916,3523.2153;-2.8458514,9.652821,0.423032,-2.884309,9.691278,0.23074472,3556.7698;-2.8458514,9.652821,0.423032,-2.4997344,9.537449,0.4999469,3556.7698;-2.8458514,9.652821,0.423032,-2.461277,9.383618,0.38457453,3556.7698;-2.8458514,9.652821,0.423032,-2.7304792,9.575906,0.8845214,3590.3242;-2.8458514,9.652821,0.423032,-2.3074472,9.229789,0.34611708,3590.3242;-2.8458514,9.652821,0.423032,-2.6920218,9.229789,0.423032,3590.3242;-2.8458514,9.652821,0.423032,-2.884309,9.768193,0.4999469,3590.3242;-2.8458514,9.652821,0.423032,-2.0767026,8.999044,0.34611708,3623.8787;-2.8458514,9.652821,0.423032,-2.1536174,9.691278,0.846064,3623.8787;-2.8458514,9.652821,0.423032,-2.3459046,9.960481,0.96143633,3623.8787;-2.8458514,9.652821,0.423032,-2.461277,9.883566,0.7306916,3657.433;-2.8458514,9.652821,0.423032,-2.9996815,9.614364,0.19228727,3657.433;-2.8458514,9.652821,0.423032,-2.6151068,9.422076,0.4999469,3657.433;-2.8458514,9.652821,0.423032,-2.2689898,9.498991,0.5768618,3657.433;-2.8458514,9.652821,0.423032,-2.461277,9.768193,0.4999469,3690.9875;-2.8458514,9.652821,0.423032,-2.4997344,9.768193,0.26920217,3690.9875;-2.8458514,9.652821,0.423032,-2.6151068,8.960587,-0.15382981,3690.9875;-2.8458514,9.652821,0.423032,-2.3074472,9.537449,0.4999469,3724.542;-2.8458514,9.652821,0.423032,-2.461277,9.614364,0.34611708,3724.542;-2.8458514,9.652821,0.423032,-2.5381918,9.537449,0.5768618,3724.542;-2.8458514,9.652821,0.423032,-2.6920218,9.768193,0.69223416,3758.0964;-2.8458514,9.652821,0.423032,-2.8458514,9.306704,0.30765963,3758.0964;-2.8458514,9.652821,0.423032,-2.4228196,9.768193,0.53840435,3758.0964;-2.8458514,9.652821,0.423032,-2.3843622,9.691278,0.6537767,3758.0964;-2.8458514,9.652821,0.423032,-2.5766494,9.498991,0.5768618,3791.651;-2.8458514,9.652821,0.423032,-2.7304792,9.768193,0.30765963,3791.651;-2.8458514,9.652821,0.423032,-2.2689898,9.652821,0.423032,3791.651;-2.8458514,9.652821,0.423032,-2.5381918,9.229789,0.26920217,3825.2053;-2.8458514,9.652821,0.423032,-2.3459046,9.498991,0.6537767,3825.2053;-2.8458514,9.652821,0.423032,-2.6151068,9.345161,0.30765963,3825.2053;-2.8458514,9.652821,0.423032,-2.3843622,9.691278,0.23074472,3858.7598;-2.8458514,9.652821,0.423032,-2.9227664,9.037501,0.23074472,3858.7598;-2.8458514,9.652821,0.423032,-2.6535642,9.306704,0.423032,3858.7598;-2.8458514,9.652821,0.423032,-2.6535642,9.306704,0.5768618,3858.7598;-2.8458514,9.652821,0.423032,-2.4997344,10.075852,0.53840435,3892.3142;-2.8458514,9.652821,0.423032,-3.230426,9.768193,0.038457453,3892.3142;-2.8458514,9.652821,0.423032,-3.1150537,9.652821,0.11537236,3892.3142;-2.8458514,9.652821,0.423032,-2.5381918,9.845108,0.30765963,3925.8687;-2.8458514,9.652821,0.423032,-2.038245,9.191331,0.46148944,3925.8687;-2.8458514,9.652821,0.423032,-2.461277,9.614364,0.38457453,3925.8687;-2.8458514,9.652821,0.423032,-2.4228196,9.652821,0.34611708,3959.423;-2.8458514,9.652821,0.423032,-2.6535642,9.306704,0.19228727,3959.423;-2.8458514,9.652821,0.423032,-2.6151068,9.80665,0.423032,3959.423;-2.8458514,9.652821,0.423032,-1.8844151,10.0373955,0.69223416,3959.423;-2.8458514,9.652821,0.423032,-2.11516,9.883566,0.4999469,3992.9773;-2.8458514,9.652821,0.423032,-2.461277,9.883566,-0.038457453,3992.9773;-2.8458514,9.652821,0.423032,-2.9227664,9.575906,-0.11537236,3992.9773;-2.8458514,9.652821,0.423032,-2.6535642,9.498991,-0.15382981,4026.5317;-2.8458514,9.652821,0.423032,-2.3843622,9.729735,0.61531925,4026.5317;-2.8458514,9.652821,0.423032,-2.461277,9.460533,0.46148944,4026.5317;-2.8458514,9.652821,0.423032,-2.7689366,9.652821,0.61531925,4060.0862;-2.8458514,9.652821,0.423032,-2.461277,8.806757,-0.038457453,4060.0862;-2.8458514,9.652821,0.423032,-2.461277,8.922129,0.38457453,4060.0862;-2.8458514,9.652821,0.423032,-2.7304792,9.268247,0.423032,4060.0862;-2.8458514,9.652821,0.423032,-2.3074472,9.460533,0.34611708,4093.6406;-2.8458514,9.652821,0.423032,-2.4228196,9.614364,0.38457453,4093.6406;-2.8458514,9.652821,0.423032,-2.6920218,9.652821,0.30765963,4093.6406;-2.8458514,9.652821,0.423032,-2.4228196,9.383618,0.038457453,4127.1953;-2.8458514,9.652821,0.423032,-2.1536174,9.422076,0.4999469,4127.1953;-2.8458514,9.652821,0.423032,-2.6535642,9.768193,0.53840435,4127.1953;-2.8458514,9.652821,0.423032,-2.6535642,9.845108,0.5768618,4160.7495;-2.8458514,9.652821,0.423032,-2.461277,9.614364,0.0,4160.7495;-2.8458514,9.652821,0.423032,-2.5766494,9.845108,0.423032,4160.7495;-2.8458514,9.652821,0.423032,-2.4997344,9.998938,0.423032,4160.7495;-2.8458514,9.652821,0.423032,-2.3074472,9.614364,0.76914907,4194.304;-2.8458514,9.652821,0.423032,-2.3843622,9.498991,0.6537767,4194.304;-2.8458514,9.652821,0.423032,-2.807394,9.998938,0.19228727,4194.304;-2.8458514,9.652821,0.423032,-2.8458514,9.537449,0.15382981,4227.8584;-2.8458514,9.652821,0.423032,-2.11516,9.422076,0.7306916,4227.8584;-2.8458514,9.652821,0.423032,-2.7689366,9.960481,0.46148944,4227.8584;-2.8458514,9.652821,0.423032,-2.461277,10.0373955,0.23074472,4227.8584;-2.8458514,9.652821,0.423032,-2.7304792,9.345161,0.30765963,4261.413;-2.8458514,9.652821,0.423032,-2.2305322,9.460533,-0.23074472,4261.413;-2.8458514,9.652821,0.423032,-2.1920748,9.80665,0.038457453,4261.413;-2.8458514,9.652821,0.423032,-2.6151068,9.575906,0.53840435,4294.9673;-2.8458514,9.652821,0.423032,-2.4228196,9.80665,0.30765963,4294.9673;-2.8458514,9.652821,0.423032,-2.2305322,10.229683,0.38457453,4328.5215;-2.8458514,9.652821,0.423032,-2.1536174,9.729735,0.53840435,4328.5215;-2.8458514,9.652821,0.423032,-2.807394,9.768193,0.76914907,4328.5215;-2.8458514,9.652821,0.423032,-2.6151068,9.229789,0.4999469,4328.5215;-2.8458514,9.652821,0.423032,-2.6920218,9.537449,-0.19228727,4362.076;-2.8458514,9.652821,0.423032,-2.5766494,9.422076,0.0,4362.076;-2.8458514,9.652821,0.423032,-2.4997344,9.075959,0.4999469,4362.076;-2.8458514,9.652821,0.423032,-2.6920218,9.729735,0.6537767,4395.6304;-2.8458514,9.652821,0.423032,-2.4228196,9.845108,0.30765963,4395.6304;-2.8458514,9.652821,0.423032,-2.8458514,9.537449,0.76914907,4395.6304;-2.8458514,9.652821,0.423032,-2.7304792,9.845108,0.6537767,4429.185;-2.8458514,9.652821,0.423032,-2.1536174,9.152874,0.423032,4429.185;-2.8458514,9.652821,0.423032,-2.11516,10.152767,0.7306916,4429.185;-2.8458514,9.652821,0.423032,-2.5766494,9.537449,0.4999469,4429.185;-2.8458514,9.652821,0.423032,-2.884309,9.80665,0.23074472,4462.7393;-2.8458514,9.652821,0.423032,-2.884309,9.537449,0.423032,4462.7393;-2.8458514,9.652821,0.423032,-2.5766494,9.306704,0.4999469,4462.7393;-2.8458514,9.652821,0.423032,-1.9997876,9.768193,0.5768618,4496.294;-2.8458514,9.652821,0.423032,-2.1920748,9.422076,0.61531925,4496.294;-2.8458514,9.652821,0.423032,-2.9612238,9.460533,0.23074472,4496.294;-2.8458514,9.652821,0.423032,-2.4228196,9.229789,0.15382981,4529.848;-2.8458514,9.652821,0.423032,-2.7689366,9.575906,0.30765963,4529.848;-2.8458514,9.652821,0.423032,-2.4228196,9.191331,0.53840435,4529.848;-2.8458514,9.652821,0.423032,-2.7689366,9.460533,0.11537236,4529.848;-2.8458514,9.652821,0.423032,-2.1920748,9.422076,0.34611708,4563.403;-2.8458514,9.652821,0.423032,-3.1150537,9.422076,0.34611708,4563.403;-2.8458514,9.652821,0.423032,-2.4997344,9.575906,0.69223416,4563.403;-2.8458514,9.652821,0.423032,-2.3843622,9.422076,1.0383513,4596.957;-2.8458514,9.652821,0.423032,-2.3074472,9.460533,0.423032,4596.957;-2.8458514,9.652821,0.423032,-3.1919687,9.614364,-0.038457453,4596.957;-2.8458514,9.652821,0.423032,-2.6920218,9.422076,0.19228727,4630.5117;-2.8458514,9.652821,0.423032,-2.461277,9.422076,0.6537767,4630.5117;-2.8458514,9.652821,0.423032,-2.3074472,9.960481,0.7306916,4630.5117;-2.8458514,9.652821,0.423032,-2.4997344,9.614364,0.23074472,4630.5117;-2.8458514,9.652821,0.423032,-2.7689366,9.575906,0.26920217,4664.066;-2.8458514,9.652821,0.423032,-2.884309,9.575906,0.846064,4664.066;-2.8458514,9.652821,0.423032,-1.8459578,9.845108,0.19228727,4664.066;-2.8458514,9.652821,0.423032,-2.5381918,9.652821,0.846064,4697.6206;-2.8458514,9.652821,0.423032,-3.3457985,9.922023,0.9998938,4697.6206;-2.8458514,9.652821,0.423032,-2.3843622,9.614364,0.30765963,4697.6206;-2.8458514,9.652821,0.423032,-2.5381918,9.575906,0.46148944,4697.6206;-2.8458514,9.652821,0.423032,-3.0381389,9.960481,0.23074472,4731.175;-2.8458514,9.652821,0.423032,-2.3074472,9.537449,0.76914907,4731.175;-2.8458514,9.652821,0.423032,-2.1920748,9.652821,-0.11537236,4731.175;-2.8458514,9.652821,0.423032,-2.6535642,9.575906,0.4999469,4764.7295;-2.8458514,9.652821,0.423032,-2.4228196,9.537449,-0.19228727,4764.7295;-2.8458514,9.652821,0.423032,-2.1920748,9.691278,0.19228727,4764.7295;-2.8458514,9.652821,0.423032,-2.4228196,9.575906,0.46148944,4798.2837;-2.8458514,9.652821,0.423032,-2.7689366,9.191331,0.96143633,4798.2837;-2.8458514,9.652821,0.423032,-2.3459046,9.575906,-0.07691491,4798.2837;-2.8458514,9.652821,0.423032,-2.5766494,9.614364,-0.11537236,4798.2837;-2.8458514,9.652821,0.423032,-1.8844151,9.383618,0.4999469,4831.8384;-2.8458514,9.652821,0.423032,-2.038245,9.537449,0.46148944,4831.8384;-2.8458514,9.652821,0.423032,-2.038245,9.498991,0.7306916,4831.8384;-2.8458514,9.652821,0.423032,-2.9612238,9.345161,0.11537236,4865.3926;-2.8458514,9.652821,0.423032,-2.461277,9.960481,0.8076065,4865.3926;-2.8458514,9.652821,0.423032,-2.5381918,9.614364,0.7306916,4865.3926;-2.8458514,9.652821,0.423032,-2.3074472,9.845108,0.19228727,4898.9473;-2.8458514,9.652821,0.423032,-2.5766494,9.768193,0.46148944,4898.9473;-2.8458514,9.652821,0.423032,-2.5381918,9.306704,0.38457453,4898.9473;-2.8458514,9.652821,0.423032,-2.3074472,9.729735,0.11537236,4898.9473;-2.8458514,9.652821,0.423032,-2.2305322,9.922023,0.26920217,4932.5015;-2.8458514,9.652821,0.423032,-2.3074472,9.883566,1.1921811,4932.5015;-2.8458514,9.652821,0.423032,-2.6535642,9.460533,0.423032,4932.5015;-2.8458514,9.652821,0.423032,-2.807394,9.152874,0.0,4966.056;-2.8458514,9.652821,0.423032,-2.884309,9.498991,0.11537236,4966.056;-2.8458514,9.652821,0.423032,-2.884309,9.114416,0.7306916,4966.056;-2.8458514,9.652821,0.423032,-2.7689366,9.922023,0.6537767,4999.6104;-2.8458514,9.652821,0.423032,-2.4228196,9.114416,-0.07691491,4999.6104;-2.8458514,9.652821,0.423032,-2.9227664,9.268247,0.038457453,4999.6104;-2.8458514,9.652821,0.423032,-2.3074472,9.306704,0.30765963,4999.6104;-2.8458514,9.652821,0.423032,-2.3843622,9.80665,0.8076065,5033.165;-2.8458514,9.652821,0.423032,-2.1920748,9.575906,0.69223416,5033.165;-2.8458514,9.652821,0.423032,-2.4228196,9.998938,0.53840435,5033.165;-2.8458514,9.652821,0.423032,-2.7689366,9.460533,0.26920217,5066.719;-2.8458514,9.652821,0.423032,-2.6920218,9.729735,0.5768618,5066.719;-2.8458514,9.652821,0.423032,-2.3459046,9.883566,0.26920217,5066.719;-1.7305853,9.652821,0.423032,-1.7305853,9.691278,0.53840435,5100.2734;-1.7305853,9.652821,0.423032,-2.7304792,9.768193,0.11537236,5100.2734;-1.7305853,9.652821,0.423032,-2.3843622,9.383618,0.23074472,5100.2734;-2.7689366,9.652821,0.423032,-2.7689366,9.575906,0.26920217,5100.2734;-2.7689366,9.652821,0.423032,-2.6151068,9.498991,0.4999469,5133.828;-2.7689366,9.652821,0.423032,-2.1920748,9.922023,0.23074472,5133.828;-2.7689366,9.652821,0.423032,-2.807394,9.614364,0.23074472,5133.828;-2.7689366,9.652821,0.423032,-2.4997344,9.383618,0.19228727,5167.3823;-2.7689366,9.652821,0.423032,-2.461277,9.845108,0.19228727,5167.3823;-2.7689366,9.652821,0.423032,-2.4997344,9.422076,0.34611708,5167.3823;-2.7689366,9.652821,0.423032,-2.2305322,9.614364,0.69223416,5200.937;-2.7689366,9.652821,0.423032,-2.5381918,8.922129,0.46148944,5200.937;-2.7689366,9.652821,0.423032,-2.9996815,9.191331,0.46148944,5200.937;-2.7689366,9.652821,0.423032,-2.11516,9.537449,0.76914907,5234.491;-2.7689366,9.652821,0.423032,-2.4228196,9.498991,0.7306916,5234.491;-2.7689366,9.652821,0.423032,-2.4228196,9.460533,0.07691491,5234.491;-2.7689366,9.652821,0.423032,-3.384256,9.075959,0.53840435,5268.046;-2.7689366,9.652821,0.423032,-2.6151068,9.268247,-0.038457453,5268.046;-2.7689366,9.652821,0.423032,-2.807394,9.80665,0.5768618,5268.046;-2.7689366,9.652821,0.423032,-2.8458514,9.614364,0.8845214,5268.046;-2.7689366,9.652821,0.423032,-2.4997344,9.883566,0.23074472,5301.6;-2.7689366,9.652821,0.423032,-2.7304792,9.345161,0.038457453,5301.6;-2.7689366,9.652821,0.423032,-2.3843622,8.999044,0.8076065,5301.6;-2.7689366,9.652821,0.423032,-2.4997344,9.922023,0.19228727,5335.155;-2.7689366,9.652821,0.423032,-2.4997344,9.498991,0.4999469,5335.155;-2.7689366,9.652821,0.423032,-2.3074472,10.152767,0.6537767,5335.155;-2.7689366,9.652821,0.423032,-2.3074472,9.652821,0.23074472,5368.709;-2.7689366,9.652821,0.423032,-2.807394,10.26814,0.7306916,5368.709;-2.7689366,9.652821,0.423032,-2.7304792,9.345161,0.76914907,5368.709;-2.7689366,9.652821,0.423032,-2.4228196,9.498991,0.34611708,5368.709;-2.7689366,9.652821,0.423032,-2.6535642,10.229683,0.423032,5402.2637;-2.7689366,9.652821,0.423032,-3.0765963,9.652821,0.5768618,5402.2637;-2.7689366,9.652821,0.423032,-2.4997344,9.691278,-0.19228727,5402.2637;-2.7689366,9.652821,0.423032,-2.1536174,9.614364,-0.038457453,5435.818;-2.7689366,9.652821,0.423032,-2.038245,9.498991,0.34611708,5435.818;-2.7689366,9.652821,0.423032,-2.6151068,9.729735,0.8076065,5435.818;-2.7689366,9.652821,0.423032,-2.3459046,9.575906,0.11537236,5469.3726;-2.7689366,9.652821,0.423032,-2.7304792,9.345161,-0.07691491,5469.3726;-2.7689366,9.652821,0.423032,-2.6920218,9.922023,0.7306916,5469.3726;-2.7689366,9.652821,0.423032,-2.6920218,9.229789,0.8845214,5469.3726;-2.7689366,9.652821,0.423032,-2.461277,9.729735,0.4999469,5502.927;-2.7689366,9.652821,0.423032,-2.6151068,9.80665,0.46148944,5502.927;-2.7689366,9.652821,0.423032,-2.6151068,9.691278,0.34611708,5502.927;-2.7689366,9.652821,0.423032,-2.6535642,9.652821,0.38457453,5536.4814;-2.7689366,9.652821,0.423032,-2.038245,9.268247,0.4999469,5536.4814;-2.7689366,9.652821,0.423032,-2.7689366,9.768193,0.76914907,5536.4814;-2.7689366,9.652821,0.423032,-2.2305322,9.537449,0.23074472,5570.0356;-2.7689366,9.652821,0.423032,-2.5766494,9.191331,0.53840435,5570.0356;-2.7689366,9.652821,0.423032,-2.461277,9.998938,0.26920217,5570.0356;-2.7689366,9.652821,0.423032,-2.1536174,9.729735,0.76914907,5570.0356;-2.7689366,9.652821,0.423032,-2.6535642,9.768193,0.61531925,5603.5903;-2.7689366,9.652821,0.423032,-2.4228196,9.460533,0.38457453,5603.5903;-2.7689366,9.652821,0.423032,-1.9997876,9.191331,0.46148944,5603.5903;-2.7689366,9.652821,0.423032,-2.4997344,9.152874,0.46148944,5637.1445;-2.7689366,9.652821,0.423032,-2.884309,9.883566,1.0383513,5637.1445;-2.7689366,9.652821,0.423032,-2.3459046,9.768193,0.6537767,5637.1445;-2.7689366,9.652821,0.423032,-2.4228196,9.652821,0.69223416,5637.1445;-2.7689366,9.652821,0.423032,-2.6920218,9.229789,0.423032,5670.699;-2.7689366,9.652821,0.423032,-2.5766494,9.460533,0.11537236,5670.699;-2.7689366,9.652821,0.423032,-2.8458514,9.80665,0.8845214,5670.699;-2.7689366,9.652821,0.423032,-2.461277,9.075959,0.46148944,5704.2534;-2.7689366,9.652821,0.423032,-2.461277,9.614364,0.23074472,5704.2534;-2.7689366,9.652821,0.423032,-2.5766494,9.075959,-0.038457453,5704.2534;-2.7689366,9.652821,0.423032,-2.038245,9.652821,0.53840435,5737.808;-2.7689366,9.652821,0.423032,-2.461277,9.768193,0.30765963,5737.808;-2.7689366,9.652821,0.423032,-2.1920748,9.922023,0.423032,5737.808;-2.7689366,9.652821,0.423032,-2.5381918,9.268247,0.19228727,5737.808;-2.7689366,9.652821,0.423032,-2.9996815,9.729735,0.30765963,5771.3623;-2.7689366,9.652821,0.423032,-2.5766494,9.652821,1.1152661,5771.3623;-2.7689366,9.652821,0.423032,-2.2689898,9.883566,0.61531925,5771.3623;-2.7689366,9.652821,0.423032,-2.5766494,9.114416,0.76914907,5804.9165;-2.7689366,9.652821,0.423032,-2.2689898,9.345161,0.8845214,5804.9165;-2.7689366,9.652821,0.423032,-2.4228196,9.075959,0.846064,5804.9165;-2.7689366,9.652821,0.423032,-2.6151068,9.306704,0.19228727,5838.471;-2.7689366,9.652821,0.423032,-2.4997344,9.498991,0.11537236,5838.471;-2.7689366,9.652821,0.423032,-2.6920218,9.191331,0.07691491,5838.471;-2.7689366,9.652821,0.423032,-2.3843622,9.422076,0.4999469,5838.471;-2.7689366,9.652821,0.423032,-3.0381389,9.537449,0.423032,5872.0254;-2.7689366,9.652821,0.423032,-1.9997876,9.691278,0.423032,5872.0254;-2.7689366,9.652821,0.423032,-2.3459046,9.768193,0.53840435,5905.58;-2.7689366,9.652821,0.423032,-2.3074472,10.152767,0.846064,5905.58;-2.7689366,9.652821,0.423032,-2.5381918,9.960481,0.46148944,5905.58;-2.7689366,9.652821,0.423032,-2.8458514,8.960587,0.19228727,5905.58;-2.7689366,9.652821,0.423032,-2.5381918,9.345161,0.30765963,5939.1343;-2.7689366,9.652821,0.423032,-2.5766494,9.229789,0.5768618,5939.1343;-2.7689366,9.652821,0.423032,-2.3074472,9.306704,0.4999469,5939.1343;-2.7689366,9.652821,0.423032,-2.5381918,9.191331,-0.23074472,5939.1343;-2.7689366,9.652821,0.423032,-2.9996815,10.0373955,0.423032,5972.689;-2.7689366,9.652821,0.423032,-2.461277,9.383618,0.61531925,5972.689;-2.7689366,9.652821,0.423032,-2.11516,9.80665,0.11537236,5972.689;-2.7689366,9.652821,0.423032,-2.5381918,9.537449,0.8076065,6006.243;-2.7689366,9.652821,0.423032,-3.4227133,9.152874,0.69223416,6006.243;-2.7689366,9.652821,0.423032,-2.4997344,9.114416,0.30765963,6006.243;-2.7689366,9.652821,0.423032,-2.5766494,9.80665,0.30765963,6039.798;-2.7689366,9.652821,0.423032,-2.11516,9.383618,0.53840435,6039.798;-2.7689366,9.652821,0.423032,-2.1920748,9.460533,0.26920217,6039.798;-2.7689366,9.652821,0.423032,-2.807394,9.537449,0.46148944,6039.798;-2.7689366,9.652821,0.423032,-2.6920218,9.152874,0.19228727,6073.352;-2.7689366,9.652821,0.423032,-2.5766494,9.306704,0.5768618,6073.352;-2.7689366,9.652821,0.423032,-2.11516,9.422076,0.76914907,6073.352;-2.7689366,9.652821,0.423032,-2.1536174,10.075852,0.7306916,6106.9067;-2.7689366,9.652821,0.423032,-2.461277,9.80665,0.15382981,6106.9067;-2.7689366,9.652821,0.423032,-2.6151068,9.575906,0.5768618,6106.9067;-2.7689366,9.652821,0.423032,-2.884309,9.422076,0.38457453,6140.461;-2.7689366,9.652821,0.423032,-2.2689898,9.191331,0.7306916,6140.461;-2.7689366,9.652821,0.423032,-2.2305322,9.883566,0.8076065,6140.461;-2.7689366,9.652821,0.423032,-2.5766494,9.537449,0.6537767,6140.461;-2.7689366,9.652821,0.423032,-2.4997344,9.80665,0.15382981,6174.0156;-2.7689366,9.652821,0.423032,-2.8458514,9.268247,0.19228727,6174.0156;-2.7689366,9.652821,0.423032,-2.4997344,9.537449,0.34611708,6174.0156;-2.7689366,9.652821,0.423032,-2.5381918,9.537449,-0.038457453,6207.57;-2.7689366,9.652821,0.423032,-1.9997876,9.345161,0.6537767,6207.57;-2.7689366,9.652821,0.423032,-2.9612238,9.883566,0.0,6207.57;-2.7689366,9.652821,0.423032,-2.461277,9.422076,0.6537767,6207.57;-2.7689366,9.652821,0.423032,-2.4228196,9.537449,0.4999469,6241.1245;-2.7689366,9.652821,0.423032,-2.6920218,9.80665,0.9998938,6241.1245;-2.7689366,9.652821,0.423032,-2.8458514,9.691278,0.423032,6241.1245;-2.7689366,9.652821,0.423032,-2.807394,9.575906,-0.30765963,6274.6787;-2.7689366,9.652821,0.423032,-2.3074472,9.229789,0.0,6274.6787;-2.7689366,9.652821,0.423032,-1.9997876,9.883566,0.46148944,6274.6787;-2.7689366,9.652821,0.423032,-2.4997344,9.575906,0.5768618,6308.2334;-2.7689366,9.652821,0.423032,-2.461277,9.575906,0.46148944,6308.2334;-2.7689366,9.652821,0.423032,-2.884309,9.575906,-0.30765963,6308.2334;-2.7689366,9.652821,0.423032,-2.2689898,9.614364,0.30765963,6308.2334;-2.7689366,9.652821,0.423032,-2.3074472,9.268247,0.61531925,6341.7876;-2.7689366,9.652821,0.423032,-2.8458514,9.652821,0.76914907,6341.7876;-2.7689366,9.652821,0.423032,-2.884309,9.729735,0.423032,6341.7876;-2.7689366,9.652821,0.423032,-2.807394,9.575906,0.11537236,6375.3423;-2.7689366,9.652821,0.423032,-2.4228196,9.268247,0.34611708,6375.3423;-2.7689366,9.652821,0.423032,-1.9228727,9.960481,0.38457453,6375.3423;-2.7689366,9.652821,0.423032,-2.7689366,9.306704,0.69223416,6408.8965;-2.7689366,9.652821,0.423032,-2.7689366,9.345161,0.38457453,6408.8965;-2.7689366,9.652821,0.423032,-2.5381918,9.498991,0.61531925,6408.8965;-2.7689366,9.652821,0.423032,-2.4228196,9.383618,0.19228727,6408.8965;-2.7689366,9.652821,0.423032,-2.3459046,9.845108,0.61531925,6442.451;-2.7689366,9.652821,0.423032,-2.0767026,9.268247,0.61531925,6442.451;-2.7689366,9.652821,0.423032,-2.5766494,9.498991,-0.038457453,6442.451;-2.7689366,9.652821,0.423032,-2.5381918,9.075959,0.038457453,6476.0054;-2.7689366,9.652821,0.423032,-2.3843622,9.498991,0.07691491,6476.0054;-2.7689366,9.652821,0.423032,-1.9613302,9.575906,0.46148944,6476.0054;-2.7689366,9.652821,0.423032,-1.9228727,9.922023,0.5768618,6509.5596;-2.7689366,9.652821,0.423032,-2.5766494,9.383618,0.76914907,6509.5596;-2.7689366,9.652821,0.423032,-2.807394,9.652821,0.34611708,6509.5596;-2.7689366,9.652821,0.423032,-2.3074472,9.306704,0.15382981,6509.5596;-2.7689366,9.652821,0.423032,-2.2689898,9.575906,0.53840435,6543.1143;-2.7689366,9.652821,0.423032,-2.0767026,9.652821,0.846064,6543.1143;-2.7689366,9.652821,0.423032,-2.5766494,9.498991,0.11537236,6543.1143;-2.7689366,9.652821,0.423032,-2.4997344,9.575906,0.46148944,6576.6685;-2.7689366,9.652821,0.423032,-2.7304792,9.229789,0.26920217,6576.6685;-2.7689366,9.652821,0.423032,-2.1920748,9.152874,0.5768618,6576.6685;-2.7689366,9.652821,0.423032,-2.1920748,9.383618,0.423032,6610.223;-2.7689366,9.652821,0.423032,-3.0765963,9.498991,0.0,6610.223;-2.7689366,9.652821,0.423032,-2.6535642,10.075852,-0.038457453,6610.223;-2.7689366,9.652821,0.423032,-2.5381918,9.114416,0.11537236,6610.223;-2.7689366,9.652821,0.423032,-1.8075004,9.922023,0.07691491,6643.7773;-2.7689366,9.652821,0.423032,-2.3074472,10.075852,0.53840435,6643.7773;-2.7689366,9.652821,0.423032,-2.3074472,9.80665,0.07691491,6643.7773;-2.7689366,9.652821,0.423032,-2.8458514,9.575906,1.0383513,6677.332;-2.7689366,9.652821,0.423032,-2.6535642,9.80665,0.11537236,6677.332;-2.7689366,9.652821,0.423032,-2.038245,9.306704,0.4999469,6677.332;-2.7689366,9.652821,0.423032,-2.3459046,9.575906,0.423032,6677.332;-2.7689366,9.652821,0.423032,-2.4228196,9.498991,0.07691491,6710.886;-2.7689366,9.652821,0.423032,-2.8458514,9.922023,0.26920217,6710.886;-2.7689366,9.652821,0.423032,-2.9612238,9.306704,0.15382981,6710.886;-2.7689366,9.652821,0.423032,-2.1536174,9.537449,0.69223416,6744.441;-2.7689366,9.652821,0.423032,-2.7304792,9.537449,0.76914907,6744.441;-2.7689366,9.652821,0.423032,-2.6535642,9.383618,0.5768618,6744.441;-2.7689366,9.652821,0.423032,-2.3459046,9.460533,0.0,6777.995;-2.7689366,9.652821,0.423032,-2.6535642,9.652821,0.038457453,6777.995;-2.7689366,9.652821,0.423032,-2.5381918,9.191331,0.53840435,6777.995;-2.7689366,9.652821,0.423032,-2.3459046,9.498991,0.61531925,6777.995;-2.7689366,9.652821,0.423032,-2.4228196,9.691278,0.846064,6811.55;-2.7689366,9.652821,0.423032,-2.9996815,9.422076,0.19228727,6811.55;-2.7689366,9.652821,0.423032,-2.6920218,10.0373955,0.6537767,6811.55;-2.7689366,9.652821,0.423032,-2.2689898,9.845108,0.7306916,6845.104;-2.7689366,9.652821,0.423032,-2.2305322,9.537449,0.38457453,6845.104;-2.7689366,9.652821,0.423032,-2.3459046,9.922023,1.2306385,6845.104;-2.7689366,9.652821,0.423032,-2.5381918,9.575906,0.038457453,6878.6587;-2.7689366,9.652821,0.423032,-2.5766494,9.306704,0.61531925,6878.6587;-2.7689366,9.652821,0.423032,-2.3843622,9.80665,0.53840435,6878.6587;-2.7689366,9.652821,0.423032,-1.8459578,9.614364,0.6537767,6878.6587;-2.7689366,9.652821,0.423032,-2.6151068,10.152767,0.30765963,6912.213;-2.7689366,9.652821,0.423032,-3.1150537,8.883672,-0.038457453,6912.213;-2.7689366,9.652821,0.423032,-2.9612238,9.422076,0.69223416,6912.213;-1.692128,9.652821,0.423032,-1.692128,9.80665,0.9998938,6945.7676;-2.7689366,9.652821,0.423032,-2.7689366,9.498991,0.846064,6945.7676;-2.7689366,9.652821,0.423032,-2.2305322,9.498991,0.61531925,6945.7676;-2.7689366,9.652821,0.423032,-2.7304792,10.11431,0.30765963,6979.322;-2.7689366,9.652821,0.423032,-3.0765963,9.614364,0.423032,6979.322;-2.7689366,9.652821,0.423032,-2.7689366,9.575906,0.38457453,6979.322;-2.7689366,9.652821,0.423032,-2.1920748,9.729735,1.1921811,6979.322;-2.7689366,9.652821,0.423032,-2.807394,9.575906,0.5768618,7012.8765;-2.7689366,9.652821,0.423032,-2.6151068,10.229683,0.34611708,7012.8765;-2.7689366,9.652821,0.423032,-2.7304792,9.691278,0.30765963,7012.8765;-2.7689366,9.652821,0.423032,-2.4997344,9.80665,0.9229789,7046.4307;-1.692128,9.652821,0.423032,-1.692128,9.652821,0.53840435,7046.4307;-2.7304792,9.652821,0.423032,-2.7304792,9.652821,0.46148944,7046.4307;-2.7304792,9.652821,0.423032,-2.7689366,9.960481,0.30765963,7079.9854;-2.7304792,9.652821,0.423032,-2.5381918,9.691278,0.26920217,7079.9854;-2.7304792,9.652821,0.423032,-2.2305322,9.498991,-0.07691491,7079.9854;-2.7304792,9.652821,0.423032,-2.5766494,9.537449,0.5768618,7079.9854;-2.7304792,9.652821,0.423032,-2.038245,9.768193,0.23074472,7113.5396;-2.7304792,9.652821,0.423032,-2.5766494,9.345161,0.15382981,7113.5396;-2.7304792,9.652821,0.423032,-3.0381389,9.460533,0.11537236,7113.5396;-2.7304792,9.652821,0.423032,-2.6151068,9.998938,0.69223416,7147.094;-2.7304792,9.652821,0.423032,-2.3459046,9.614364,0.15382981,7147.094;-2.7304792,9.652821,0.423032,-2.9227664,9.268247,0.19228727,7147.094;-2.7304792,9.652821,0.423032,-2.7689366,9.460533,0.26920217,7147.094;-2.7304792,9.652821,0.423032,-3.0765963,9.460533,-0.07691491,7180.6484;-2.7304792,9.652821,0.423032,-2.7689366,9.345161,0.38457453,7180.6484;-2.7304792,9.652821,0.423032,-2.461277,9.268247,1.1921811,7180.6484;-2.7304792,9.652821,0.423032,-1.9613302,9.422076,0.96143633,7214.2026;-2.7304792,9.652821,0.423032,-2.9227664,9.614364,0.30765963,7214.2026;-2.7304792,9.652821,0.423032,-3.153511,9.460533,0.038457453,7214.2026;-2.7304792,9.652821,0.423032,-2.4997344,9.422076,0.9229789,7247.7573;-2.7304792,9.652821,0.423032,-2.6535642,9.845108,-0.038457453,7247.7573;-2.7304792,9.652821,0.423032,-2.5381918,9.498991,0.76914907,7247.7573;-2.7304792,9.652821,0.423032,-2.5766494,9.998938,0.0,7247.7573;-2.7304792,9.652821,0.423032,-2.3843622,9.498991,0.423032,7281.3115;-2.7304792,9.652821,0.423032,-2.2689898,9.229789,0.5768618,7281.3115;-2.7304792,9.652821,0.423032,-2.5766494,9.306704,0.846064,7314.866;-2.7304792,9.652821,0.423032,-2.8458514,9.383618,0.423032,7314.866;-2.7304792,9.652821,0.423032,-2.7689366,9.575906,0.61531925,7314.866;-2.7304792,9.652821,0.423032,-2.2689898,9.614364,0.23074472,7348.4204;-2.7304792,9.652821,0.423032,-2.3459046,9.575906,0.19228727,7348.4204;-2.7304792,9.652821,0.423032,-2.461277,9.80665,0.4999469,7348.4204;-2.7304792,9.652821,0.423032,-2.6920218,9.383618,0.19228727,7348.4204;-2.7304792,9.652821,0.423032,-2.2305322,9.883566,0.423032,7381.975;-2.7304792,9.652821,0.423032,-1.9228727,9.498991,0.5768618,7381.975;-2.7304792,9.652821,0.423032,-1.9228727,10.075852,1.2306385,7381.975;-2.7304792,9.652821,0.423032,-2.3843622,9.691278,0.38457453,7415.5293;-2.7304792,9.652821,0.423032,-3.0381389,9.845108,0.15382981,7415.5293;-2.7304792,9.652821,0.423032,-2.807394,9.191331,-0.038457453,7415.5293;-2.7304792,9.652821,0.423032,-3.1919687,9.345161,0.61531925,7449.084;-2.7304792,9.652821,0.423032,-2.4997344,9.422076,0.26920217,7449.084;-2.7304792,9.652821,0.423032,-2.7304792,9.845108,0.5768618,7449.084;-2.7304792,9.652821,0.423032,-2.7689366,9.883566,0.0,7449.084;-2.7304792,9.652821,0.423032,-2.9996815,9.537449,0.7306916,7482.638;-2.7304792,9.652821,0.423032,-2.2305322,9.345161,0.53840435,7482.638;-2.7304792,9.652821,0.423032,-2.11516,10.075852,1.0768087,7482.638;-2.7304792,9.652821,0.423032,-2.9996815,9.422076,0.0,7516.193;-2.7304792,9.652821,0.423032,-2.461277,9.80665,0.038457453,7516.193;-2.7304792,9.652821,0.423032,-3.0765963,9.229789,0.23074472,7516.193;-2.7304792,9.652821,0.423032,-2.6151068,9.498991,0.5768618,7549.747;-2.7304792,9.652821,0.423032,-2.5381918,9.575906,0.4999469,7549.747;-2.7304792,9.652821,0.423032,-2.807394,9.768193,0.69223416,7549.747;-2.7304792,9.652821,0.423032,-2.3459046,9.960481,0.38457453,7549.747;-2.7304792,9.652821,0.423032,-2.6535642,9.729735,0.53840435,7583.302;-2.7304792,9.652821,0.423032,-2.5766494,9.537449,0.38457453,7583.302;-1.6536705,9.652821,0.423032,-1.6536705,9.652821,0.69223416,7583.302;-1.6536705,9.652821,0.423032,-2.5766494,9.691278,1.1537236,7616.856;-1.6536705,9.652821,0.423032,-2.1920748,9.768193,0.34611708,7616.856;-2.884309,9.652821,0.423032,-2.884309,9.614364,0.423032,7616.856;-2.884309,9.652821,0.423032,-2.3843622,9.191331,0.38457453,7650.4106;-2.884309,9.652821,0.423032,-1.9613302,9.652821,0.4999469,7650.4106;-2.884309,9.652821,0.423032,-2.461277,9.537449,0.38457453,7650.4106;-2.884309,9.652821,0.423032,-2.6535642,9.460533,0.8076065,7650.4106;-2.884309,9.652821,0.423032,-2.7689366,9.268247,0.46148944,7683.965;-2.884309,9.652821,0.423032,-2.2305322,9.345161,0.61531925,7683.965;-2.884309,9.652821,0.423032,-2.2689898,9.652821,1.1537236,7683.965;-2.884309,9.652821,0.423032,-3.1150537,9.306704,0.69223416,7717.5195;-2.884309,9.652821,0.423032,-2.461277,9.537449,0.07691491,7717.5195;-2.884309,9.652821,0.423032,-2.8458514,9.614364,0.15382981,7717.5195;-2.884309,9.652821,0.423032,-2.2689898,9.498991,0.0,7717.5195;-2.884309,9.652821,0.423032,-2.0767026,9.729735,1.0383513,7751.0737;-2.884309,9.652821,0.423032,-2.5381918,8.922129,0.8076065,7751.0737;-2.884309,9.652821,0.423032,-2.6920218,9.422076,0.26920217,7751.0737;-2.884309,9.652821,0.423032,-2.461277,9.114416,0.19228727,7784.6284;-2.884309,9.652821,0.423032,-2.3074472,9.845108,0.61531925,7784.6284;-2.884309,9.652821,0.423032,-2.3459046,10.306598,0.9229789,7784.6284;-2.884309,9.652821,0.423032,-3.1150537,9.537449,0.846064,7818.1826;-2.884309,9.652821,0.423032,-3.0765963,9.075959,0.53840435,7818.1826;-2.884309,9.652821,0.423032,-2.461277,10.0373955,0.15382981,7818.1826;-2.884309,9.652821,0.423032,-2.5381918,9.383618,0.53840435,7818.1826;-2.884309,9.652821,0.423032,-2.3074472,9.960481,0.9229789,7851.7373;-2.884309,9.652821,0.423032,-2.2305322,9.652821,0.38457453,7851.7373;-2.884309,9.652821,0.423032,-2.4228196,9.80665,0.15382981,7851.7373;-2.884309,9.652821,0.423032,-2.461277,9.498991,0.4999469,7885.2915;-2.884309,9.652821,0.423032,-2.2689898,9.498991,0.46148944,7885.2915;-2.884309,9.652821,0.423032,-2.3459046,9.498991,0.61531925,7885.2915;-2.884309,9.652821,0.423032,-2.461277,9.960481,0.423032,7918.846;-2.884309,9.652821,0.423032,-2.884309,10.191225,0.38457453,7918.846;-2.884309,9.652821,0.423032,-2.8458514,9.460533,0.61531925,7918.846;-2.884309,9.652821,0.423032,-2.884309,9.652821,0.76914907,7918.846;-2.884309,9.652821,0.423032,-2.3459046,9.498991,1.1152661,7952.4004;-2.884309,9.652821,0.423032,-2.5766494,9.652821,0.6537767,7952.4004;-2.884309,9.652821,0.423032,-2.4997344,9.460533,0.69223416,7952.4004;-2.884309,9.652821,0.423032,-2.7304792,9.345161,0.38457453,7985.9546;-2.884309,9.652821,0.423032,-2.3459046,9.883566,0.8845214,7985.9546;-2.884309,9.652821,0.423032,-2.5381918,9.922023,1.1537236,7985.9546;-2.884309,9.652821,0.423032,-1.9997876,9.883566,1.2690959,8019.5093;-2.884309,9.652821,0.423032,-2.8458514,9.575906,0.8076065,8019.5093;-2.884309,9.652821,0.423032,-2.5381918,9.883566,0.15382981,8019.5093;-2.884309,9.652821,0.423032,-2.4997344,8.652927,0.6537767,8019.5093;-2.884309,9.652821,0.423032,-2.7689366,10.0373955,0.46148944,8053.0635;-2.884309,9.652821,0.423032,-2.3459046,9.037501,0.46148944,8053.0635;-2.884309,9.652821,0.423032,-2.038245,9.152874,0.46148944,8053.0635;-2.884309,9.652821,0.423032,-2.807394,9.652821,0.23074472,8086.618;-2.884309,9.652821,0.423032,-2.3843622,9.652821,0.6537767,8086.618;-2.884309,9.652821,0.423032,-2.461277,9.075959,0.46148944,8086.618;-2.884309,9.652821,0.423032,-2.4997344,9.768193,0.15382981,8120.1724;-2.884309,9.652821,0.423032,-2.4228196,9.075959,0.6537767,8120.1724;-2.884309,9.652821,0.423032,-2.5766494,9.768193,0.34611708,8120.1724;-2.884309,9.652821,0.423032,-2.9996815,9.422076,0.34611708,8120.1724;-1.692128,9.652821,0.423032,-1.692128,9.614364,0.9229789,8153.727;-1.692128,9.652821,0.423032,-2.038245,10.11431,0.46148944,8153.727;-1.692128,9.652821,0.423032,-2.5766494,9.614364,0.7306916,8153.727;-2.9996815,9.652821,0.423032,-2.9996815,9.498991,0.26920217,8187.2813;-2.9996815,9.652821,0.423032,-2.2305322,9.345161,0.7306916,8187.2813;-2.9996815,9.652821,0.423032,-3.0765963,9.460533,0.4999469,8187.2813;-2.9996815,9.652821,0.423032,-2.11516,9.768193,-0.038457453,8187.2813;-2.9996815,9.652821,0.423032,-2.6535642,9.729735,0.19228727,8220.836;-2.9996815,9.652821,0.423032,-2.6535642,9.691278,0.30765963,8220.836;-2.9996815,9.652821,0.423032,-2.2689898,9.422076,0.30765963,8220.836;-2.9996815,9.652821,0.423032,-2.4997344,8.883672,0.61531925,8254.391;-2.9996815,9.652821,0.423032,-2.11516,9.768193,1.4229257,8254.391;-2.9996815,9.652821,0.423032,-2.8458514,9.075959,1.1537236,8254.391;-2.9996815,9.652821,0.423032,-2.461277,10.075852,0.46148944,8287.944;-2.9996815,9.652821,0.423032,-2.461277,9.422076,0.69223416,8287.944;-2.9996815,9.652821,0.423032,-2.2305322,9.114416,0.23074472,8287.944;-2.9996815,9.652821,0.423032,-2.1920748,10.0373955,0.61531925,8287.944;-2.9996815,9.652821,0.423032,-2.4228196,9.768193,0.38457453,8321.499;-2.9996815,9.652821,0.423032,-2.807394,9.306704,0.26920217,8321.499;-2.9996815,9.652821,0.423032,-2.8458514,9.152874,0.4999469,8321.499;-2.9996815,9.652821,0.423032,-2.8458514,9.691278,0.6537767,8355.054;-2.9996815,9.652821,0.423032,-2.6151068,9.845108,0.6537767,8355.054;-2.9996815,9.652821,0.423032,-2.6151068,9.268247,0.5768618,8355.054;-2.9996815,9.652821,0.423032,-2.9612238,10.345055,-0.19228727,8388.608;-2.9996815,9.652821,0.423032,-2.0767026,9.960481,0.423032,8388.608;-2.9996815,9.652821,0.423032,-2.3459046,9.537449,0.53840435,8388.608;-2.9996815,9.652821,0.423032,-2.884309,9.883566,0.5768618,8388.608;-2.9996815,9.652821,0.423032,-2.038245,9.768193,0.8845214,8422.162;-2.9996815,9.652821,0.423032,-2.5381918,9.498991,0.46148944,8422.162;-2.9996815,9.652821,0.423032,-2.7304792,9.883566,0.38457453,8422.162;-2.9996815,9.652821,0.423032,-2.3459046,9.80665,0.11537236,8455.717;-2.9996815,9.652821,0.423032,-2.461277,9.998938,0.8076065,8455.717;-2.9996815,9.652821,0.423032,-2.5766494,10.191225,0.19228727,8455.717;-2.9996815,9.652821,0.423032,-2.884309,9.152874,0.8845214,8489.271;-2.9996815,9.652821,0.423032,-2.6151068,9.191331,0.6537767,8489.271;-2.9996815,9.652821,0.423032,-2.4997344,9.652821,0.30765963,8489.271;-2.9996815,9.652821,0.423032,-2.461277,9.768193,0.69223416,8489.271;-2.9996815,9.652821,0.423032,-2.1536174,9.268247,0.61531925,8522.826;-2.9996815,9.652821,0.423032,-2.3843622,9.229789,-0.038457453,8522.826;-2.9996815,9.652821,0.423032,-2.6920218,9.460533,0.53840435,8522.826;-2.9996815,9.652821,0.423032,-2.3459046,9.306704,0.61531925,8556.38;-2.9996815,9.652821,0.423032,-2.6920218,9.845108,1.3075534,8556.38;-2.9996815,9.652821,0.423032,-2.461277,9.729735,0.8076065,8556.38;-2.9996815,9.652821,0.423032,-2.2305322,9.691278,0.9229789,8589.935;-2.9996815,9.652821,0.423032,-2.4997344,9.537449,-0.19228727,8589.935;-2.9996815,9.652821,0.423032,-2.038245,9.383618,0.9998938,8589.935;-1.9228727,9.652821,0.423032,-1.9228727,9.537449,0.423032,8589.935;-1.9228727,9.652821,0.423032,-2.6151068,9.268247,0.69223416,8623.489;-1.9228727,9.652821,0.423032,-2.8458514,9.768193,-0.11537236,8623.489;-1.9228727,9.652821,0.423032,-2.9227664,9.460533,0.423032,8623.489;-1.9228727,9.652821,0.423032,-2.4228196,9.383618,0.69223416,8657.043;-1.9228727,9.652821,0.423032,-2.2689898,9.383618,0.76914907,8657.043;-2.9612238,9.652821,0.423032,-2.9612238,9.614364,0.53840435,8657.043;-2.9612238,9.652821,0.423032,-2.5766494,9.383618,0.4999469,8657.043;-2.9612238,9.652821,0.423032,-2.5381918,9.152874,-0.11537236,8690.598;-2.9612238,9.652821,0.423032,-2.2689898,10.075852,-0.07691491,8690.598;-2.9612238,9.652821,0.423032,-2.4997344,9.383618,0.9229789,8690.598;-2.9612238,9.652821,0.423032,-2.3843622,9.345161,0.38457453,8724.152;-2.9612238,9.652821,0.423032,-2.7304792,9.998938,0.423032,8724.152;-2.9612238,9.652821,0.423032,-2.6151068,9.614364,0.8845214,8724.152;-2.9612238,9.652821,0.423032,-2.4228196,9.80665,0.846064,8757.707;-1.8075004,9.652821,0.423032,-1.8075004,9.422076,0.38457453,8757.707;-1.8075004,9.652821,0.423032,-2.7689366,9.80665,0.53840435,8757.707;-3.1919687,9.652821,0.423032,-3.1919687,9.652821,0.53840435,8757.707;-3.1919687,9.652821,0.423032,-2.3459046,9.422076,0.69223416,8791.261;-3.1919687,9.652821,0.423032,-2.4228196,9.268247,0.61531925,8791.261;-3.1919687,9.652821,0.423032,-2.3843622,9.422076,0.30765963,8791.261;-3.1919687,9.652821,0.423032,-2.3074472,9.614364,0.46148944,8824.815;-3.1919687,9.652821,0.423032,-2.5766494,9.691278,0.423032,8824.815;-3.1919687,9.652821,0.423032,-2.3459046,9.498991,0.34611708,8824.815;-3.1919687,9.652821,0.423032,-2.3459046,9.652821,0.53840435,8858.37;-3.1919687,9.652821,0.423032,-2.4997344,9.345161,1.0768087,8858.37;-3.1919687,9.652821,0.423032,-2.7304792,9.652821,0.61531925,8858.37;-3.1919687,9.652821,0.423032,-2.2305322,9.729735,0.15382981,8858.37;-2.1536174,9.652821,0.423032,-2.1536174,9.460533,0.61531925,8891.925;-2.1536174,9.652821,0.423032,-2.4228196,9.845108,0.61531925,8891.925;-2.1536174,9.652821,0.423032,-2.4997344,9.652821,0.46148944,8891.925;-2.1536174,9.652821,0.423032,-2.3843622,9.960481,0.34611708,8925.479;-2.1536174,9.652821,0.423032,-2.9227664,9.614364,-0.15382981,8925.479;-2.1536174,9.652821,0.423032,-2.9227664,9.152874,0.11537236,8925.479;-2.1536174,9.652821,0.423032,-2.7304792,9.345161,0.34611708,8959.033;-2.1536174,9.652821,0.423032,-2.5766494,9.652821,0.76914907,8959.033;-2.1536174,9.652821,0.423032,-2.2689898,9.460533,0.9229789,8959.033;-2.1536174,9.652821,0.423032,-2.3459046,9.652821,0.07691491,8959.033;-2.1536174,9.652821,0.423032,-2.461277,9.383618,0.19228727,8992.588;-2.1536174,9.652821,0.423032,-2.4228196,9.729735,0.38457453,8992.588;-2.1536174,9.652821,0.423032,-2.884309,9.922023,1.1152661,8992.588;-2.1536174,9.652821,0.423032,-3.0381389,8.960587,0.26920217,9026.143;-2.1536174,9.652821,0.423032,-2.3074472,8.922129,-0.07691491,9026.143;-2.1536174,9.652821,0.423032,-2.807394,9.614364,-0.11537236,9026.143;-2.1536174,9.652821,0.423032,-2.3843622,9.575906,-0.11537236,9059.696;-2.1536174,9.652821,0.423032,-2.3074472,9.537449,0.69223416,9059.696;-2.1536174,9.652821,0.423032,-2.8458514,9.422076,0.23074472,9059.696;-2.1536174,9.652821,0.423032,-2.5766494,9.345161,0.46148944,9059.696;-2.1536174,9.652821,0.423032,-3.1150537,9.80665,0.423032,9093.251;-2.1536174,9.652821,0.423032,-2.038245,9.768193,0.69223416,9093.251;-2.1536174,9.652821,0.423032,-1.8844151,9.537449,0.7306916,9093.251;-2.1536174,9.652821,0.423032,-2.807394,9.537449,0.423032,9126.806;-2.1536174,9.652821,0.423032,-2.3843622,9.460533,-0.30765963,9126.806;-2.1536174,9.652821,0.423032,-3.1150537,9.383618,0.30765963,9126.806;-2.1536174,9.652821,0.423032,-2.6151068,9.498991,0.53840435,9160.36;-2.1536174,9.652821,0.423032,-2.2305322,9.575906,0.7306916,9160.36;-2.1536174,9.652821,0.423032,-2.4228196,9.114416,0.61531925,9160.36;-2.1536174,9.652821,0.423032,-2.6920218,9.460533,-0.07691491,9160.36;-2.1536174,9.652821,0.423032,-2.6151068,9.498991,0.4999469,9193.914;-2.1536174,9.652821,0.423032,-2.4997344,9.498991,0.6537767,9193.914;-2.1536174,9.652821,0.423032,-2.6535642,9.960481,1.0768087,9193.914;-2.1536174,9.652821,0.423032,-2.4997344,9.80665,0.11537236,9227.469;-2.1536174,9.652821,0.423032,-3.1150537,9.114416,-0.07691491,9227.469;-2.1536174,9.652821,0.423032,-2.4228196,9.498991,0.0,9227.469;-2.1536174,9.652821,0.423032,-2.807394,9.729735,0.19228727,9227.469;-2.1536174,9.652821,0.423032,-2.3843622,9.460533,0.61531925,9261.023;-2.1536174,9.652821,0.423032,-2.3074472,9.345161,0.846064,9261.023;-2.1536174,9.652821,0.423032,-2.884309,9.691278,0.4999469,9261.023;-2.1536174,9.652821,0.423032,-3.0765963,9.575906,0.76914907,9294.578;-2.1536174,9.652821,0.423032,-2.2689898,9.575906,0.34611708,9294.578;-2.1536174,9.652821,0.423032,-2.2689898,9.845108,0.6537767,9294.578;-2.1536174,9.652821,0.423032,-2.3074472,9.80665,0.7306916,9328.132;-2.1536174,9.652821,0.423032,-2.7304792,9.691278,0.38457453,9328.132;-2.1536174,9.652821,0.423032,-2.6920218,9.422076,-0.34611708,9328.132;-2.1536174,9.652821,0.423032,-2.6920218,9.80665,0.26920217,9361.687;-2.1536174,9.652821,0.423032,-3.1150537,9.460533,0.423032,9361.687;-2.1536174,9.652821,0.423032,-2.6151068,9.845108,0.34611708,9361.687;-2.1536174,9.652821,0.423032,-2.9612238,9.460533,0.46148944,9395.241;-2.1536174,9.652821,0.423032,-2.3074472,9.268247,0.34611708,9395.241;-2.1536174,9.652821,0.423032,-2.4997344,9.345161,0.8076065,9395.241;-2.1536174,9.652821,0.423032,-2.3843622,9.729735,0.0,9428.795;-2.1536174,9.652821,0.423032,-2.7689366,9.883566,-0.07691491,9428.795;-2.1536174,9.652821,0.423032,-2.1920748,9.960481,-0.38457453,9428.795;-2.1536174,9.652821,0.423032,-2.3074472,9.345161,0.9229789,9462.35;-2.1536174,9.652821,0.423032,-2.3074472,9.614364,0.53840435,9462.35;-2.1536174,9.652821,0.423032,-2.6535642,9.922023,0.038457453,9462.35;-2.1536174,9.652821,0.423032,-2.461277,9.80665,0.0,9495.904;-2.1536174,9.652821,0.423032,-2.6151068,9.883566,0.69223416,9495.904;-2.1536174,9.652821,0.423032,-2.1920748,9.883566,0.96143633,9495.904;-2.1536174,9.652821,0.423032,-2.1920748,9.575906,0.53840435,9529.459;-2.1536174,9.652821,0.423032,-2.4228196,9.768193,0.61531925,9529.459;-2.1536174,9.652821,0.423032,-2.7689366,9.152874,0.34611708,9529.459;-2.1536174,9.652821,0.423032,-2.5381918,9.345161,0.19228727,9529.459;-2.1536174,9.652821,0.423032,-2.5766494,9.729735,0.423032,9563.013;-2.1536174,9.652821,0.423032,-2.3843622,9.191331,0.19228727,9563.013;-2.1536174,9.652821,0.423032,-2.6151068,9.768193,0.7306916,9563.013;-2.1536174,9.652821,0.423032,-3.0765963,9.422076,0.11537236,9596.567;-2.1536174,9.652821,0.423032,-2.4228196,9.114416,0.15382981,9596.567;-2.1536174,9.652821,0.423032,-2.5766494,9.922023,0.8845214,9596.567;-2.1536174,9.652821,0.423032,-2.6920218,9.768193,0.34611708,9630.122;-2.1536174,9.652821,0.423032,-1.9997876,9.383618,0.23074472,9630.122;-2.1536174,9.652821,0.423032,-2.6920218,10.075852,0.23074472,9630.122;-2.1536174,9.652821,0.423032,-2.11516,9.498991,0.26920217,9630.122;-2.1536174,9.652821,0.423032,-2.461277,9.498991,0.19228727,9663.677;-2.1536174,9.652821,0.423032,-2.6151068,9.498991,0.8845214,9663.677;-2.1536174,9.652821,0.423032,-2.9227664,9.729735,0.23074472,9663.677;-2.1536174,9.652821,0.423032,-2.6920218,9.345161,0.423032,9697.23;-2.1536174,9.652821,0.423032,-2.3843622,10.11431,0.19228727,9697.23;-2.1536174,9.652821,0.423032,-2.4997344,9.422076,0.15382981,9697.23;-2.1536174,9.652821,0.423032,-2.5766494,9.306704,0.4999469,9697.23;-2.1536174,9.652821,0.423032,-2.3459046,9.652821,0.26920217,9730.785;-2.1536174,9.652821,0.423032,-2.461277,9.537449,0.61531925,9730.785;-2.1536174,9.652821,0.423032,-2.884309,9.845108,0.6537767,9730.785;-2.1536174,9.652821,0.423032,-2.5766494,9.768193,0.8076065,9764.34;-2.1536174,9.652821,0.423032,-2.2689898,9.537449,0.7306916,9764.34;-2.1536174,9.652821,0.423032,-2.8458514,9.383618,0.423032,9764.34;-2.1536174,9.652821,0.423032,-2.6535642,9.383618,0.23074472,9797.895;-2.1536174,9.652821,0.423032,-2.3843622,9.614364,0.34611708,9797.895;-2.1536174,9.652821,0.423032,-2.5381918,9.229789,0.11537236,9797.895;-2.1536174,9.652821,0.423032,-2.7304792,9.845108,1.0383513,9797.895;-2.1536174,9.652821,0.423032,-2.6535642,9.422076,0.23074472,9831.448;-2.1536174,9.652821,0.423032,-2.8458514,9.075959,0.8076065,9831.448;-2.1536174,9.652821,0.423032,-2.038245,9.345161,0.61531925,9831.448;-2.1536174,9.652821,0.423032,-2.6151068,9.498991,0.46148944,9865.003;-2.1536174,9.652821,0.423032,-2.3459046,9.460533,0.46148944,9865.003;-2.1536174,9.652821,0.423032,-2.4228196,9.229789,0.4999469,9865.003;-2.1536174,9.652821,0.423032,-2.807394,9.268247,0.0,9898.558;-2.1536174,9.652821,0.423032,-2.461277,9.498991,0.7306916,9898.558;-2.1536174,9.652821,0.423032,-2.5766494,9.652821,0.5768618,9898.558;-2.1536174,9.652821,0.423032,-3.0765963,9.960481,0.19228727,9898.558;-2.1536174,9.652821,0.423032,-2.3459046,9.883566,0.34611708,9932.112;-2.1536174,9.652821,0.423032,-3.0381389,9.729735,0.11537236,9932.112;-2.1536174,9.652821,0.423032,-2.5381918,9.80665,0.76914907,9932.112;-2.1536174,9.652821,0.423032,-2.3843622,9.691278,0.96143633,9965.666;-2.1536174,9.652821,0.423032,-2.6920218,9.691278,0.69223416,9965.666;-2.1536174,9.652821,0.423032,-2.1920748,9.345161,0.846064,9965.666;-2.1536174,9.652821,0.423032,-2.3843622,9.768193,0.5768618,9999.221;-2.1536174,9.652821,0.423032,-2.461277,9.460533,0.07691491,9999.221;-2.1536174,9.652821,0.423032,-2.2305322,9.614364,0.76914907,9999.221;-2.1536174,9.652821,0.423032,-2.9996815,9.537449,0.69223416,9999.221;-2.1536174,9.652821,0.423032,-2.884309,9.460533,0.46148944,10032.775;-2.1536174,9.652821,0.423032,-2.807394,9.729735,-0.038457453,10032.775;-2.1536174,9.652821,0.423032,-2.3843622,9.691278,0.5768618,10032.775;-2.1536174,9.652821,0.423032,-2.3074472,9.537449,0.423032,10066.33;-2.1536174,9.652821,0.423032,-2.2305322,9.80665,0.8845214,10066.33;-2.1536174,9.652821,0.423032,-2.0767026,9.614364,0.423032,10066.33;-2.1536174,9.652821,0.423032,-2.9227664,9.306704,0.23074472,10099.884;-2.1536174,9.652821,0.423032,-2.6151068,9.575906,0.15382981,10099.884;-2.1536174,9.652821,0.423032,-2.5381918,9.537449,0.46148944,10099.884;-2.1536174,9.652821,0.423032,-2.461277,9.575906,0.5768618,10099.884;-2.1536174,9.652821,0.423032,-2.6920218,9.575906,0.4999469,10133.438;-2.1536174,9.652821,0.423032,-2.2689898,9.729735,-0.26920217,10133.438;-2.1536174,9.652821,0.423032,-2.461277,9.998938,0.46148944,10133.438;-2.1536174,9.652821,0.423032,-2.1920748,9.460533,0.34611708,10166.993;-2.1536174,9.652821,0.423032,-2.9996815,9.691278,0.69223416,10166.993;-2.1536174,9.652821,0.423032,-2.9227664,9.037501,0.6537767,10166.993;-2.1536174,9.652821,0.423032,-2.461277,9.691278,0.5768618,10200.547;-2.1536174,9.652821,0.423032,-2.3843622,9.614364,0.69223416,10200.547;-2.1536174,9.652821,0.423032,-2.3074472,9.768193,1.0383513,10200.547;-2.1536174,9.652821,0.423032,-2.807394,9.80665,0.38457453,10200.547;-2.1536174,9.652821,0.423032,-2.884309,9.768193,0.423032,10234.102;-2.1536174,9.652821,0.423032,-2.2689898,9.345161,0.4999469,10234.102;-2.1536174,9.652821,0.423032,-2.461277,9.575906,0.423032,10234.102;-2.1536174,9.652821,0.423032,-1.692128,9.845108,0.5768618,10267.656;-2.1536174,9.652821,0.423032,-2.884309,9.691278,0.76914907,10267.656;-2.1536174,9.652821,0.423032,-2.9227664,9.575906,0.38457453,10267.656;-2.1536174,9.652821,0.423032,-2.7304792,9.460533,0.53840435,10267.656;-2.1536174,9.652821,0.423032,-1.8459578,9.460533,0.34611708,10301.211;-2.1536174,9.652821,0.423032,-2.461277,9.498991,0.34611708,10301.211;-2.1536174,9.652821,0.423032,-2.461277,9.191331,0.6537767,10301.211;-2.1536174,9.652821,0.423032,-2.5766494,9.498991,0.26920217,10334.765;-2.1536174,9.652821,0.423032,-2.2305322,9.614364,0.46148944,10334.765;-2.1536174,9.652821,0.423032,-2.1536174,9.460533,0.23074472,10334.765;-2.1536174,9.652821,0.423032,-2.6920218,9.460533,0.38457453,10368.319;-2.1536174,9.652821,0.423032,-2.461277,9.922023,0.4999469,10368.319;-2.1536174,9.652821,0.423032,-2.807394,9.652821,0.61531925,10368.319;-2.1536174,9.652821,0.423032,-2.9996815,9.498991,-0.19228727,10368.319;-2.1536174,9.652821,0.423032,-2.6535642,9.537449,0.26920217,10401.874;-2.1536174,9.652821,0.423032,-2.5766494,9.768193,0.6537767,10401.874;-2.1536174,9.652821,0.423032,-1.7305853,9.460533,0.61531925,10401.874;-2.1536174,9.652821,0.423032,-2.807394,9.691278,0.38457453,10435.429;-2.1536174,9.652821,0.423032,-2.9612238,9.498991,0.11537236,10435.429;-2.1536174,9.652821,0.423032,-2.5381918,10.0373955,0.53840435,10435.429;-2.1536174,9.652821,0.423032,-2.4228196,9.80665,1.0383513,10468.982;-2.1536174,9.652821,0.423032,-1.9228727,9.575906,0.53840435,10468.982;-2.1536174,9.652821,0.423032,-2.4228196,9.652821,0.11537236,10468.982;-2.1536174,9.652821,0.423032,-2.5766494,9.075959,0.423032,10468.982;-2.1536174,9.652821,0.423032,-2.1536174,9.883566,0.30765963,10502.537;-2.1536174,9.652821,0.423032,-2.3843622,9.614364,0.7306916,10502.537;-2.1536174,9.652821,0.423032,-2.3459046,9.652821,0.8845214,10502.537;-2.1536174,9.652821,0.423032,-2.6535642,9.306704,0.7306916,10536.092;-2.1536174,9.652821,0.423032,-2.5381918,9.114416,0.7306916,10536.092;-2.1536174,9.652821,0.423032,-2.3074472,9.345161,0.7306916,10536.092;-2.1536174,9.652821,0.423032,-2.0767026,9.191331,0.11537236,10569.646;-2.1536174,9.652821,1.4613832,-2.5766494,9.883566,1.4613832,10569.646;-2.1536174,9.652821,0.11537236,-2.5381918,9.422076,0.11537236,10569.646;-2.1536174,9.652821,0.11537236,-2.884309,9.960481,0.4999469,10569.646;-2.1536174,9.652821,0.11537236,-2.5381918,9.460533,0.23074472,10603.2;-2.1536174,9.652821,0.11537236,-2.9612238,10.0373955,0.9229789,10603.2;-2.1536174,9.652821,0.11537236,-2.3843622,9.383618,0.5768618,10603.2;-2.1536174,9.652821,0.11537236,-2.2689898,9.537449,0.34611708,10636.755;-2.1536174,9.652821,0.11537236,-2.3459046,9.422076,0.38457453,10636.755;-2.1536174,9.652821,0.11537236,-2.7304792,9.383618,0.30765963,10636.755;-2.1536174,9.652821,0.11537236,-2.6151068,9.729735,0.46148944,10670.31;-2.1536174,9.652821,0.11537236,-2.8458514,9.345161,0.4999469,10670.31;-2.1536174,9.652821,0.11537236,-2.6920218,9.345161,0.69223416,10670.31;-2.1536174,9.652821,0.11537236,-2.3843622,9.691278,-0.11537236,10670.31;-2.1536174,9.652821,0.11537236,-2.2305322,9.691278,0.4999469,10703.864;-2.1536174,9.652821,0.11537236,-2.2689898,9.80665,0.76914907,10703.864;-2.1536174,9.652821,0.11537236,-2.1536174,9.345161,0.038457453,10703.864;-2.1536174,9.652821,0.11537236,-2.9227664,9.845108,0.38457453,10737.418;-2.1536174,9.652821,0.11537236,-2.461277,9.152874,0.038457453,10737.418;-2.1536174,9.652821,0.11537236,-2.3074472,9.498991,-0.11537236,10737.418;-2.1536174,9.652821,0.11537236,-2.0767026,9.652821,0.423032,10737.418;-2.1536174,9.652821,0.11537236,-2.3843622,9.345161,0.8076065,10770.973;-2.1536174,9.652821,0.11537236,-2.6535642,9.460533,0.23074472,10770.973;-2.1536174,9.652821,0.11537236,-3.0765963,9.229789,0.30765963,10770.973;-2.1536174,9.652821,0.11537236,-1.9228727,9.614364,0.30765963,10804.527;-2.1536174,9.652821,0.11537236,-2.5766494,9.422076,0.30765963,10804.527;-2.1536174,9.652821,0.11537236,-2.038245,9.268247,0.9229789,10804.527;-2.1536174,9.652821,0.11537236,-2.5766494,9.768193,0.6537767,10838.081;-2.1536174,9.652821,0.11537236,-2.9612238,9.960481,0.19228727,10838.081;-2.1536174,9.652821,0.11537236,-2.6920218,9.268247,0.46148944,10838.081;-2.1536174,9.652821,0.11537236,-2.4228196,9.345161,0.846064,10838.081;-2.1536174,9.652821,0.11537236,-2.9996815,9.80665,0.34611708,10871.636;-2.1536174,9.652821,0.11537236,-2.7689366,9.498991,0.423032,10871.636;-2.1536174,9.652821,0.11537236,-2.7304792,9.80665,0.38457453,10871.636;-2.1536174,9.652821,0.11537236,-3.1150537,9.345161,0.34611708,10905.19;-2.1536174,9.652821,0.11537236,-2.807394,9.883566,0.23074472,10905.19;-2.1536174,9.652821,0.11537236,-2.1536174,9.422076,0.38457453,10905.19;-2.1536174,9.652821,0.11537236,-2.4228196,9.691278,0.61531925,10938.745;-2.1536174,9.652821,0.11537236,-3.1150537,9.114416,0.9998938,10938.745;-2.1536174,9.652821,0.11537236,-2.5381918,9.614364,0.4999469,10938.745;-2.1536174,9.652821,0.11537236,-2.6535642,9.537449,0.53840435,10938.745;-2.1536174,9.652821,0.11537236,-1.9228727,9.537449,0.23074472,10972.299;-2.1536174,9.652821,0.11537236,-2.4228196,9.652821,0.6537767,10972.299;-2.1536174,9.652821,0.11537236,-2.4228196,9.614364,0.69223416,10972.299;-2.1536174,9.652821,0.11537236,-2.9612238,9.498991,-0.038457453,11005.854;-2.1536174,9.652821,0.11537236,-1.9613302,9.729735,0.76914907,11005.854;-2.1536174,9.652821,0.11537236,-2.4228196,9.575906,0.5768618,11005.854;-2.1536174,9.652821,0.11537236,-2.6535642,9.537449,0.46148944,11039.408;-2.1536174,9.652821,0.11537236,-2.3074472,9.80665,0.23074472,11039.408;-2.1536174,9.652821,0.11537236,-3.0381389,9.345161,0.11537236,11039.408;-2.1536174,9.652821,0.11537236,-2.1536174,9.268247,1.0768087,11039.408;-2.1536174,9.652821,0.11537236,-2.3843622,9.652821,0.8076065,11072.963;-2.1536174,9.652821,0.11537236,-2.2689898,9.729735,0.46148944,11072.963;-2.1536174,9.652821,0.11537236,-2.1920748,9.422076,0.5768618,11072.963;-2.1536174,9.652821,0.11537236,-2.884309,9.614364,0.26920217,11106.517;-2.1536174,9.652821,0.11537236,-2.3074472,9.768193,0.53840435,11106.517;-2.1536174,9.652821,0.11537236,-2.4997344,9.537449,0.69223416,11106.517;-2.1536174,9.652821,0.11537236,-2.7304792,9.998938,0.846064,11140.071;-2.1536174,9.652821,0.11537236,-2.7689366,9.422076,0.46148944,11140.071;-2.1536174,9.652821,0.11537236,-2.5381918,9.845108,0.11537236,11140.071;-2.1536174,9.652821,0.11537236,-2.5766494,9.383618,0.846064,11140.071;-2.1536174,9.652821,0.11537236,-2.2305322,9.422076,0.9998938,11173.626;-2.1536174,9.652821,0.11537236,-2.5381918,9.229789,0.0,11173.626;-2.1536174,9.652821,0.11537236,-2.7304792,9.114416,0.26920217,11173.626;-2.1536174,9.652821,0.11537236,-2.7304792,9.614364,0.26920217,11207.181;-2.1536174,9.652821,0.11537236,-2.3459046,9.691278,0.46148944,11207.181;-2.1536174,9.652821,0.11537236,-2.11516,9.960481,0.6537767,11207.181;-2.1536174,9.652821,0.11537236,-2.461277,9.037501,0.8076065,11207.181;-2.1536174,9.652821,0.11537236,-2.2305322,9.306704,0.23074472,11240.734;-2.1536174,9.652821,0.11537236,-2.461277,9.80665,0.76914907,11240.734;-2.1536174,9.652821,0.11537236,-2.2689898,9.575906,0.53840435,11240.734;-2.1536174,9.652821,0.11537236,-2.1920748,9.614364,0.53840435,11274.289;-2.1536174,9.652821,0.11537236,-2.5381918,9.729735,0.34611708,11274.289;-2.1536174,9.652821,0.11537236,-2.9612238,9.191331,0.9229789,11274.289;-2.1536174,9.652821,0.11537236,-2.0767026,9.268247,0.26920217,11307.844;-2.1536174,9.652821,0.11537236,-2.3843622,9.575906,0.4999469,11307.844;-2.1536174,9.652821,0.11537236,-2.2689898,10.152767,0.8076065,11307.844;-2.1536174,9.652821,0.11537236,-2.4997344,9.883566,0.69223416,11307.844;-2.1536174,9.652821,0.11537236,-2.4997344,9.460533,-0.19228727,11341.398;-2.1536174,9.652821,0.11537236,-2.807394,9.037501,0.26920217,11341.398;-2.1536174,9.652821,0.11537236,-3.0765963,9.191331,0.15382981,11341.398;-2.1536174,9.652821,0.11537236,-1.9613302,9.691278,0.9998938,11374.952;-2.1536174,9.652821,0.11537236,-2.9227664,9.498991,0.8076065,11374.952;-2.1536174,9.652821,0.11537236,-2.6151068,9.460533,0.11537236,11374.952;-2.1536174,9.652821,0.11537236,-2.3843622,10.306598,0.26920217,11408.507;-2.1536174,9.652821,0.11537236,-2.884309,9.614364,0.19228727,11408.507;-2.1536174,9.652821,0.11537236,-2.6920218,9.729735,0.34611708,11408.507;-2.1536174,9.652821,0.11537236,-2.5766494,9.768193,0.23074472,11408.507;-2.1536174,9.652821,0.11537236,-2.5381918,9.960481,0.46148944,11442.062;-2.1536174,9.652821,0.11537236,-2.2689898,9.883566,-0.038457453,11442.062;-2.1536174,9.652821,0.11537236,-1.8459578,9.614364,0.8845214,11442.062;-2.1536174,9.652821,0.11537236,-2.2689898,9.768193,0.34611708,11475.616;-2.1536174,9.652821,0.11537236,-2.461277,9.191331,0.61531925,11475.616;-2.1536174,9.652821,0.11537236,-2.4997344,9.691278,0.423032,11475.616;-2.1536174,9.652821,0.11537236,-2.3459046,9.229789,0.53840435,11509.17;-2.1536174,9.652821,0.11537236,-2.6920218,9.383618,0.76914907,11509.17;-2.1536174,9.652821,0.11537236,-2.3074472,9.152874,0.7306916,11509.17;-2.1536174,9.652821,0.11537236,-2.9612238,9.845108,0.9998938,11509.17;-2.1536174,9.652821,0.11537236,-2.5766494,9.883566,0.69223416,11542.725;-2.1536174,9.652821,0.11537236,-2.9612238,9.691278,-0.038457453,11542.725;-2.1536174,9.652821,0.11537236,-2.5381918,9.845108,0.38457453,11542.725;-2.1536174,9.652821,0.11537236,-2.3074472,9.383618,0.53840435,11576.279;-2.1536174,9.652821,0.11537236,-2.3843622,9.575906,0.53840435,11576.279;-2.1536174,9.652821,0.11537236,-2.2305322,9.614364,0.61531925,11576.279;-2.1536174,9.652821,0.11537236,-2.7304792,9.614364,0.34611708,11609.833;-2.1536174,9.652821,0.11537236,-2.1536174,10.306598,0.53840435,11609.833;-2.1536174,9.652821,0.11537236,-2.4997344,9.614364,0.53840435,11609.833;-2.1536174,9.652821,0.11537236,-2.5766494,9.845108,0.76914907,11609.833;-2.1536174,9.652821,0.11537236,-2.1536174,10.26814,0.34611708,11643.388;-2.1536174,9.652821,0.11537236,-2.461277,9.306704,0.6537767,11643.388;-2.1536174,9.652821,0.11537236,-2.4228196,9.383618,0.38457453,11643.388;-2.1536174,9.652821,0.11537236,-1.6536705,9.922023,0.8845214,11676.942;-2.1536174,9.652821,1.1537236,-2.5381918,9.383618,1.1537236,11676.942;-2.1536174,9.652821,1.1537236,-2.3843622,9.498991,0.53840435,11676.942;-2.1536174,9.652821,-0.11537236,-2.4997344,9.575906,-0.11537236,11710.497;-2.1536174,9.652821,0.9998938,-2.461277,9.614364,0.9998938,11710.497;-2.1536174,9.652821,0.9998938,-2.461277,9.652821,0.5768618,11710.497;-3.230426,9.652821,0.9998938,-3.230426,9.383618,1.2690959,11710.497;-3.230426,9.652821,0.9998938,-3.0765963,9.922023,0.5768618,11744.051;-1.9997876,9.652821,0.9998938,-1.9997876,9.537449,0.23074472,11744.051;-1.9997876,9.652821,0.9998938,-2.1920748,9.768193,0.11537236,11744.051;-1.9997876,9.652821,0.9998938,-2.1536174,9.883566,1.0383513,11777.605;-1.9997876,9.652821,0.9998938,-2.5381918,10.191225,0.30765963,11777.605;-1.9997876,9.652821,0.9998938,-2.7304792,9.460533,0.5768618,11777.605;-3.230426,9.652821,0.9998938,-3.230426,8.845214,0.61531925,11777.605;-1.9228727,9.652821,0.9998938,-1.9228727,9.614364,0.6537767,11811.16;-1.9228727,9.652821,0.9998938,-2.2689898,9.537449,0.6537767,11811.16;-1.9228727,9.652821,0.9998938,-1.8075004,9.575906,0.8845214,11811.16;-1.9228727,9.652821,0.9998938,-2.5766494,9.306704,0.5768618,11844.715;-1.9228727,9.652821,0.9998938,-2.4228196,9.845108,0.19228727,11844.715;-1.9228727,9.652821,0.9998938,-2.6535642,9.922023,0.69223416,11844.715;-1.9228727,9.652821,0.9998938,-2.7304792,9.922023,0.69223416,11878.269;-1.9228727,9.652821,0.9998938,-2.3459046,9.652821,0.9998938,11878.269;-1.9228727,9.652821,0.9998938,-2.3843622,9.268247,0.38457453,11878.269;-1.9228727,9.652821,0.9998938,-2.7304792,9.075959,0.34611708,11878.269;-1.9228727,9.652821,0.9998938,-2.1536174,9.845108,0.69223416,11911.823;-1.9228727,9.652821,0.9998938,-2.7689366,9.575906,0.846064,11911.823;-1.9228727,9.652821,0.9998938,-2.3459046,9.422076,0.61531925,11911.823;-1.9228727,9.652821,0.9998938,-2.807394,9.845108,0.5768618,11945.378;-1.9228727,9.652821,0.9998938,-2.6920218,9.383618,0.53840435,11945.378;-1.9228727,9.652821,0.9998938,-2.7689366,9.845108,0.34611708,11945.378;-1.9228727,9.652821,0.9998938,-2.8458514,9.80665,0.6537767,11978.933;-1.9228727,9.652821,0.9998938,-2.6535642,9.922023,1.0768087,11978.933;-1.9228727,9.652821,0.9998938,-2.6535642,9.768193,0.19228727,11978.933;-1.9228727,9.652821,0.9998938,-2.3843622,9.768193,0.46148944,11978.933;-1.9228727,9.652821,0.9998938,-2.5381918,9.883566,0.5768618,12012.486;-1.9228727,9.652821,0.9998938,-2.3459046,9.575906,0.69223416,12012.486;-1.9228727,9.652821,0.9998938,-2.6535642,9.729735,0.846064,12012.486;-1.9228727,9.652821,0.9998938,-2.3843622,9.383618,0.9229789,12046.041;-1.9228727,9.652821,0.9998938,-2.3843622,9.229789,0.46148944,12046.041;-1.9228727,9.652821,0.9998938,-2.3459046,9.114416,0.76914907,12046.041;-1.9228727,9.652821,0.9998938,-2.4228196,9.422076,0.8076065,12079.596;-1.9228727,9.652821,0.9998938,-2.1536174,9.80665,0.53840435,12079.596;-1.9228727,9.652821,0.9998938,-2.3843622,8.960587,0.61531925,12079.596;-2.9996815,9.652821,-0.23074472,-2.9996815,9.422076,-0.23074472,12079.596;-2.9996815,9.652821,-0.23074472,-2.7689366,9.80665,0.07691491,12113.15;-2.9996815,9.652821,-0.23074472,-2.11516,9.691278,0.76914907,12113.15;-2.9996815,9.652821,0.8076065,-2.0767026,9.768193,0.8076065,12113.15;-2.9996815,9.652821,0.8076065,-2.6920218,9.537449,0.11537236,12146.704;-2.9996815,9.652821,0.8076065,-2.5766494,9.460533,0.34611708,12146.704;-2.9996815,9.652821,0.8076065,-2.1536174,9.768193,0.038457453,12146.704;-2.9996815,9.652821,0.8076065,-2.5766494,9.268247,0.38457453,12180.259;-2.9996815,9.652821,0.8076065,-2.8458514,10.0373955,0.8076065,12180.259;-2.9996815,9.652821,0.8076065,-2.4997344,9.422076,0.11537236,12180.259;-2.9996815,9.652821,0.8076065,-2.6535642,9.845108,0.26920217,12180.259;-2.9996815,9.652821,0.8076065,-2.3843622,9.268247,0.423032,12213.813;-2.9996815,9.652821,0.8076065,-2.807394,9.575906,0.46148944,12213.813;-2.9996815,9.652821,0.8076065,-2.4228196,9.460533,0.61531925,12213.813;-2.9996815,9.652821,0.8076065,-2.6920218,9.306704,0.53840435,12247.368;-2.9996815,9.652821,0.8076065,-2.7689366,9.229789,0.46148944,12247.368;-2.9996815,9.652821,0.8076065,-2.5766494,9.537449,0.23074472,12247.368;-2.9996815,9.652821,0.8076065,-2.3459046,9.729735,0.5768618,12247.368;-2.9996815,9.652821,0.8076065,-2.6920218,9.460533,0.8076065,12280.922;-2.9996815,9.652821,0.8076065,-2.8458514,9.460533,0.423032,12280.922;-2.9996815,9.652821,0.8076065,-2.3843622,9.152874,0.15382981,12280.922;-2.9996815,9.652821,0.8076065,-2.3074472,9.191331,0.34611708,12314.477;-2.9996815,9.652821,0.8076065,-2.807394,9.075959,0.61531925,12314.477;-2.9996815,9.652821,0.8076065,-2.461277,9.268247,0.76914907,12314.477;-2.9996815,9.652821,0.8076065,-2.807394,9.460533,0.7306916,12348.031;-2.9996815,9.652821,0.8076065,-2.6151068,8.922129,0.11537236,12348.031;-2.9996815,9.652821,0.8076065,-2.8458514,9.498991,0.46148944,12348.031;-2.9996815,9.652821,0.8076065,-2.7304792,9.575906,0.0,12348.031;-2.9996815,9.652821,0.8076065,-2.8458514,9.345161,0.7306916,12381.585;-2.9996815,9.652821,0.8076065,-2.807394,9.498991,0.26920217,12381.585;-2.9996815,9.652821,0.8076065,-2.9996815,9.614364,0.34611708,12381.585;-2.9996815,9.652821,0.8076065,-2.5381918,9.306704,0.76914907,12415.14;-1.8844151,9.652821,0.8076065,-1.8844151,9.498991,0.846064,12415.14;-1.8844151,9.652821,0.8076065,-1.9228727,10.0373955,0.61531925,12415.14;-1.8844151,9.652821,0.8076065,-2.7304792,9.80665,0.7306916,12448.694;-2.9612238,9.652821,0.8076065,-2.9612238,8.768299,0.4999469,12448.694;-2.9612238,9.652821,0.8076065,-2.4228196,9.537449,0.0,12448.694;-2.9612238,9.652821,0.8076065,-2.461277,9.729735,0.53840435,12448.694;-2.9612238,9.652821,0.8076065,-2.4997344,9.383618,0.76914907,12482.249;-2.9612238,9.652821,0.8076065,-2.5766494,9.768193,0.53840435,12482.249;-2.9612238,9.652821,0.8076065,-2.9227664,9.306704,0.19228727,12482.249;-2.9612238,8.61447,0.8076065,-2.4228196,8.61447,0.61531925,12515.803;-2.9612238,8.61447,0.8076065,-2.3074472,8.768299,0.846064,12515.803;-2.9612238,9.80665,0.8076065,-2.1920748,9.80665,0.4999469,12515.803;-2.9612238,9.80665,0.8076065,-2.3459046,9.768193,0.26920217,12549.357;-2.9612238,9.80665,0.8076065,-2.4997344,9.498991,-0.15382981,12549.357;-2.9612238,9.80665,0.8076065,-2.8458514,9.037501,0.0,12549.357;-2.9612238,9.80665,0.8076065,-2.2689898,9.922023,0.34611708,12549.357;-2.9612238,9.80665,0.8076065,-2.461277,9.922023,0.4999469,12582.912;-2.9612238,9.80665,0.8076065,-2.8458514,9.460533,0.69223416,12582.912;-2.9612238,9.80665,0.8076065,-2.7304792,9.845108,0.30765963,12582.912;-2.9612238,9.80665,0.8076065,-2.6151068,9.537449,0.69223416,12616.467;-2.9612238,9.80665,0.8076065,-2.2305322,9.80665,0.38457453,12616.467;-2.9612238,9.80665,0.8076065,-2.5381918,9.729735,0.9998938,12616.467;-2.9612238,9.80665,0.8076065,-2.6920218,9.498991,0.6537767,12650.0205;-2.9612238,9.80665,0.8076065,-2.9996815,9.768193,0.34611708,12650.0205;-2.9612238,9.80665,0.8076065,-2.3843622,9.998938,0.8845214,12650.0205;-2.9612238,9.80665,0.8076065,-2.5381918,9.306704,0.26920217,12650.0205;-1.8844151,9.80665,0.8076065,-1.8844151,9.537449,0.38457453,12683.575;-1.8844151,9.80665,0.8076065,-2.6920218,9.575906,0.5768618,12683.575;-1.8844151,9.80665,0.8076065,-2.7689366,9.152874,0.5768618,12683.575;-1.8844151,9.80665,0.8076065,-2.4228196,9.498991,0.846064,12717.13;-1.8844151,9.80665,0.8076065,-2.5381918,9.306704,0.5768618,12717.13;-1.8844151,9.80665,0.8076065,-2.4997344,9.652821,0.8076065,12717.13;-1.8844151,9.80665,0.8076065,-2.7304792,9.460533,0.34611708,12717.13;-1.8844151,9.80665,0.8076065,-2.6920218,9.268247,0.30765963,12750.685;-1.8844151,9.80665,0.8076065,-2.4997344,9.345161,0.15382981,12750.685;-1.8844151,9.80665,0.8076065,-2.3074472,9.152874,0.6537767,12750.685;-1.8844151,9.80665,0.8076065,-2.6151068,9.537449,0.9229789,12784.238;-1.8844151,9.80665,0.8076065,-2.4228196,9.306704,0.69223416,12784.238;-1.8844151,9.80665,0.8076065,-2.5381918,9.383618,0.23074472,12784.238;-1.8844151,9.80665,0.8076065,-2.461277,9.422076,0.61531925,12817.793;-1.8844151,9.80665,0.8076065,-2.807394,10.0373955,0.5768618,12817.793;-1.8844151,9.80665,0.8076065,-2.2305322,9.691278,0.46148944,12817.793;-1.8844151,9.80665,0.8076065,-2.7689366,9.845108,0.61531925,12817.793;-1.8844151,9.80665,0.8076065,-2.884309,9.691278,0.30765963,12851.348;-1.8844151,9.80665,0.8076065,-2.4228196,9.691278,0.26920217,12851.348;-1.8844151,9.80665,0.8076065,-2.3459046,9.691278,0.38457453,12851.348;-1.8844151,9.80665,0.8076065,-2.4228196,9.845108,0.53840435,12884.902;-3.153511,9.80665,0.8076065,-3.153511,9.729735,0.5768618,12884.902;-3.153511,9.80665,0.8076065,-2.1536174,9.498991,0.423032,12884.902;-3.153511,9.80665,0.8076065,-2.5766494,9.537449,0.38457453,12918.456;-3.153511,9.80665,0.8076065,-2.4228196,9.229789,0.4999469,12918.456;-1.9997876,9.80665,0.8076065,-1.9997876,9.345161,0.9998938,12918.456;-1.9997876,9.80665,0.8076065,-2.5381918,9.345161,0.6537767,12918.456;-1.9997876,9.80665,0.8076065,-2.1920748,9.845108,0.038457453,12952.011;-1.9997876,9.80665,0.8076065,-2.8458514,9.268247,0.34611708,12952.011;-1.9997876,9.80665,0.8076065,-2.1920748,9.537449,0.61531925,12952.011;-1.9997876,9.80665,0.8076065,-2.6151068,9.575906,0.19228727,12985.565;-1.9997876,9.80665,0.8076065,-2.2689898,9.460533,0.4999469,12985.565;-1.9997876,9.80665,0.8076065,-2.7689366,9.614364,0.07691491,12985.565;-1.9997876,9.80665,0.8076065,-2.6151068,9.383618,0.19228727,13019.119;-1.9997876,9.80665,0.8076065,-2.7304792,9.575906,0.61531925,13019.119;-1.9997876,9.80665,0.8076065,-2.0767026,9.575906,0.61531925,13019.119;-1.9997876,9.80665,0.8076065,-2.4997344,9.652821,0.846064,13019.119;-3.1150537,9.80665,0.8076065,-3.1150537,9.383618,-0.038457453,13052.674;-3.1150537,9.80665,0.8076065,-3.1919687,9.075959,0.19228727,13052.674;-3.1150537,9.80665,0.8076065,-2.3459046,9.80665,0.76914907,13052.674;-3.1150537,9.80665,0.8076065,-2.1536174,9.345161,0.38457453,13086.229;-3.1150537,9.80665,0.8076065,-2.9996815,9.498991,0.6537767,13086.229;-3.1150537,9.80665,0.8076065,-2.5381918,9.306704,0.038457453,13086.229;-3.1150537,9.80665,0.8076065,-2.1920748,9.922023,0.61531925,13119.783;-3.1150537,9.80665,0.8076065,-2.4228196,9.268247,0.8845214,13119.783;-1.8075004,9.80665,0.8076065,-1.8075004,10.11431,0.423032,13119.783;-1.8075004,9.80665,0.8076065,-2.1920748,9.460533,0.53840435,13119.783;-2.8458514,9.80665,0.8076065,-2.8458514,9.037501,0.61531925,13153.337;-2.8458514,9.80665,0.8076065,-3.2688835,9.80665,0.69223416,13153.337;-2.8458514,9.80665,0.8076065,-2.0767026,9.845108,0.38457453,13153.337;-2.8458514,9.80665,0.8076065,-2.038245,9.306704,0.96143633,13186.892;-2.8458514,9.80665,0.8076065,-2.5766494,9.883566,0.9998938,13186.892;-2.8458514,9.80665,0.8076065,-2.884309,9.229789,0.11537236,13186.892;-2.8458514,9.80665,0.8076065,-2.9227664,9.998938,0.4999469,13220.446;-2.8458514,9.80665,0.8076065,-3.1150537,9.306704,0.34611708,13220.446;-2.8458514,9.80665,0.8076065,-2.6535642,9.652821,0.53840435,13220.446;-2.8458514,9.80665,0.8076065,-2.5766494,9.883566,0.846064,13220.446;-2.8458514,9.80665,0.8076065,-2.7689366,9.114416,0.038457453,13254.001;-2.8458514,9.80665,0.8076065,-2.6151068,9.575906,0.38457453,13254.001;-2.8458514,9.80665,0.8076065,-2.5381918,9.498991,1.1537236,13254.001;-2.8458514,9.80665,0.8076065,-2.4228196,9.845108,0.9998938,13287.555;-2.8458514,9.80665,0.8076065,-2.4997344,9.114416,0.5768618,13287.555;-2.8458514,9.80665,0.8076065,-2.6535642,9.729735,0.4999469,13287.555;-2.8458514,9.80665,0.8076065,-2.461277,9.537449,0.423032,13287.555;-2.8458514,9.80665,0.8076065,-2.5381918,9.537449,0.53840435,13321.109;-2.8458514,9.80665,0.8076065,-2.0767026,9.498991,0.53840435,13321.109;-2.8458514,9.80665,0.8076065,-2.3074472,9.768193,0.69223416,13321.109;-2.8458514,9.80665,0.8076065,-2.4997344,9.383618,0.8845214,13354.664;-2.8458514,9.80665,0.8076065,-2.6535642,9.460533,0.61531925,13354.664;-2.8458514,9.80665,0.8076065,-2.4228196,9.537449,0.6537767,13354.664;-2.8458514,9.80665,0.8076065,-2.4997344,9.80665,1.1537236,13388.219;-2.8458514,9.80665,0.8076065,-2.4997344,9.498991,0.4999469,13388.219;-2.8458514,9.80665,0.8076065,-1.9613302,10.0373955,0.34611708,13388.219;-2.8458514,9.80665,0.8076065,-2.807394,9.575906,0.34611708,13388.219;-2.8458514,9.80665,0.8076065,-2.3843622,9.306704,0.4999469,13421.772;-2.8458514,9.80665,0.8076065,-2.3074472,9.191331,0.5768618,13421.772;-2.8458514,9.80665,0.8076065,-2.3843622,9.845108,0.6537767,13421.772;-2.8458514,9.80665,0.8076065,-2.3074472,8.999044,0.38457453,13455.327;-2.8458514,9.80665,0.8076065,-2.1536174,9.383618,0.34611708,13455.327;-2.8458514,9.80665,0.8076065,-3.0765963,9.460533,0.8845214,13455.327;-2.8458514,9.80665,0.8076065,-2.1536174,9.960481,0.69223416,13488.882;-2.8458514,9.80665,0.8076065,-2.1920748,9.537449,0.19228727,13488.882;-2.8458514,9.80665,0.8076065,-2.3843622,9.383618,0.423032,13488.882;-2.8458514,9.80665,0.8076065,-1.9613302,9.691278,0.30765963,13488.882;-2.8458514,9.80665,0.8076065,-2.5381918,9.691278,0.038457453,13522.437;-2.8458514,9.80665,0.8076065,-2.3843622,9.80665,0.6537767,13522.437;-2.8458514,9.80665,0.8076065,-2.1536174,10.11431,0.69223416,13522.437;-2.8458514,9.80665,0.8076065,-2.4997344,9.537449,0.61531925,13555.99;-1.8075004,9.80665,0.8076065,-1.8075004,9.537449,0.61531925,13555.99;-1.8075004,9.80665,0.8076065,-2.4228196,9.537449,0.4999469,13589.545;-1.8075004,9.80665,0.8076065,-2.6535642,9.614364,0.423032,13589.545;-3.307341,9.80665,0.8076065,-3.307341,9.268247,0.38457453,13589.545;-3.307341,9.80665,0.8076065,-2.7689366,9.498991,-0.07691491,13589.545;-3.307341,9.80665,0.8076065,-2.6920218,9.383618,-0.07691491,13623.1;-3.307341,9.80665,0.8076065,-2.6151068,8.999044,0.846064,13623.1;-3.307341,9.80665,0.8076065,-2.3843622,9.729735,0.23074472,13623.1;-3.307341,9.80665,0.8076065,-2.461277,9.306704,-0.038457453,13656.654;-2.2689898,9.80665,0.8076065,-2.2689898,9.614364,0.34611708,13656.654;-2.2689898,9.80665,0.8076065,-2.7304792,9.383618,0.6537767,13656.654;-2.2689898,9.80665,0.8076065,-1.9228727,9.845108,0.5768618,13690.208;-2.2689898,9.80665,0.8076065,-2.1920748,9.691278,0.19228727,13690.208;-2.2689898,9.80665,0.8076065,-2.3843622,9.075959,0.34611708,13690.208;-2.2689898,9.80665,0.8076065,-3.0381389,9.460533,0.0,13690.208;-2.2689898,9.80665,0.8076065,-2.9612238,9.845108,0.9229789,13723.763;-2.2689898,9.80665,0.8076065,-2.2305322,9.306704,0.8845214,13723.763;-2.2689898,9.80665,0.8076065,-3.0381389,9.652821,0.7306916,13723.763;-2.2689898,9.80665,0.8076065,-2.2689898,9.498991,0.34611708,13757.317;-2.2689898,9.80665,0.8076065,-2.6535642,9.268247,0.23074472,13757.317;-2.2689898,9.80665,0.8076065,-2.3843622,9.845108,0.30765963,13757.317;-2.2689898,9.80665,0.8076065,-2.6151068,10.075852,0.4999469,13757.317;-2.2689898,9.80665,0.8076065,-2.6535642,9.80665,0.423032,13790.871;-2.2689898,9.80665,0.8076065,-2.884309,9.883566,0.46148944,13790.871;-2.2689898,9.80665,-0.26920217,-2.9227664,9.691278,-0.26920217,13790.871;-2.2689898,9.80665,-0.26920217,-2.8458514,9.575906,0.11537236,13824.426;-2.2689898,9.80665,-0.26920217,-2.5766494,9.691278,0.69223416,13824.426;-2.2689898,9.80665,-0.26920217,-2.5381918,9.575906,0.30765963,13824.426;-2.2689898,9.80665,-0.26920217,-2.2689898,9.768193,-0.11537236,13857.98;-2.2689898,9.80665,-0.26920217,-2.6920218,9.422076,0.423032,13857.98;-2.2689898,9.80665,-0.26920217,-2.6920218,9.306704,0.34611708,13857.98;-2.2689898,9.80665,-0.26920217,-2.038245,9.191331,0.11537236,13857.98;-2.2689898,9.80665,-0.26920217,-2.7304792,9.652821,0.19228727,13891.535;-2.2689898,9.80665,0.846064,-2.807394,9.537449,0.846064,13891.535;-2.2689898,9.80665,0.846064,-2.7689366,9.152874,-0.15382981,13891.535;-2.2689898,9.80665,0.846064,-2.3074472,9.922023,-0.11537236,13925.089;-2.2689898,9.80665,0.846064,-2.3074472,10.075852,0.846064,13925.089;-2.2689898,9.80665,0.846064,-2.11516,9.845108,0.76914907,13925.089;-2.2689898,9.80665,0.846064,-2.1536174,10.075852,0.34611708,13958.644;-2.2689898,9.80665,0.846064,-2.3459046,9.614364,0.6537767,13958.644;-2.2689898,9.80665,0.846064,-2.9996815,9.268247,0.7306916,13958.644;-2.2689898,9.80665,0.846064,-2.461277,9.768193,0.69223416,13958.644;-2.2689898,9.80665,0.846064,-1.8844151,9.575906,0.46148944,13992.198;-2.2689898,9.80665,-0.23074472,-2.884309,9.537449,-0.23074472,13992.198;-2.2689898,9.80665,-0.23074472,-2.7304792,9.383618,0.53840435,13992.198;-2.2689898,9.80665,-0.23074472,-2.9227664,9.306704,0.46148944,14025.753;-2.2689898,9.80665,-0.23074472,-2.1920748,10.075852,0.34611708,14025.753;-2.2689898,9.80665,-0.23074472,-2.7689366,9.152874,0.6537767,14025.753;-2.2689898,9.80665,-0.23074472,-2.884309,9.729735,0.4999469,14059.307;-2.2689898,9.80665,-0.23074472,-2.5381918,9.614364,0.423032,14059.307;-2.2689898,9.80665,0.8845214,-2.3074472,9.537449,0.8845214,14059.307;-2.2689898,9.80665,0.8845214,-2.3459046,8.845214,0.38457453,14059.307;-2.2689898,9.80665,0.8845214,-2.5766494,9.883566,0.34611708,14092.861;-2.2689898,9.80665,0.8845214,-2.9227664,9.960481,0.19228727,14092.861;-2.2689898,9.80665,0.8845214,-2.461277,9.768193,0.38457453,14092.861;-2.2689898,9.80665,0.8845214,-2.2305322,9.229789,0.26920217,14126.416;-2.2689898,9.80665,0.8845214,-2.1536174,9.768193,0.69223416,14126.416;-2.2689898,9.80665,0.8845214,-2.4228196,10.0373955,0.19228727,14126.416;-2.2689898,9.80665,0.8845214,-3.153511,9.845108,0.6537767,14159.971;-2.2689898,9.80665,0.8845214,-2.3459046,9.614364,0.46148944,14159.971;-2.2689898,9.80665,0.8845214,-2.884309,9.422076,0.8845214,14159.971;-2.2689898,9.80665,0.8845214,-2.8458514,9.498991,0.26920217,14159.971;-2.2689898,9.80665,0.8845214,-2.9996815,9.729735,0.8845214,14193.524;-2.2689898,9.80665,0.8845214,-2.5766494,9.729735,0.26920217,14193.524;-2.2689898,9.80665,0.8845214,-2.9612238,9.537449,0.15382981,14193.524;-2.2689898,9.80665,-0.23074472,-2.461277,9.652821,-0.23074472,14227.079;-2.2689898,9.80665,-0.23074472,-2.2689898,9.537449,0.38457453,14227.079;-2.2689898,9.80665,-0.23074472,-2.1536174,9.460533,0.30765963,14227.079;-2.2689898,9.80665,-0.23074472,-2.6920218,9.80665,0.423032,14227.079;-2.2689898,9.80665,-0.23074472,-2.3843622,9.114416,0.4999469,14260.634;-2.2689898,9.80665,-0.23074472,-2.6535642,9.114416,0.07691491,14260.634;-2.2689898,9.80665,-0.23074472,-2.1920748,9.460533,0.53840435,14260.634;-2.2689898,9.80665,-0.23074472,-2.4997344,9.383618,0.6537767,14294.188;-2.2689898,9.80665,-0.23074472,-2.3074472,9.652821,0.15382981,14294.188;-2.2689898,9.80665,-0.23074472,-2.9227664,9.960481,0.07691491,14294.188;-2.2689898,9.80665,1.1152661,-1.9613302,9.614364,1.1152661,14327.742;-2.2689898,9.80665,1.1152661,-2.1536174,10.26814,0.5768618,14327.742;-2.2689898,9.80665,1.1152661,-2.4997344,9.883566,0.9998938,14327.742;-2.2689898,9.80665,1.1152661,-2.4997344,9.537449,0.19228727,14327.742;-2.2689898,9.80665,1.1152661,-2.2689898,9.460533,0.19228727,14361.297;-2.2689898,9.80665,1.1152661,-2.7304792,9.383618,0.38457453,14361.297;-2.2689898,9.80665,1.1152661,-2.038245,9.422076,0.423032,14361.297;-2.2689898,9.80665,1.1152661,-2.8458514,9.729735,0.5768618,14394.852;-2.2689898,9.80665,1.1152661,-2.461277,9.691278,0.34611708,14394.852;-2.2689898,9.80665,-0.07691491,-2.7304792,9.460533,-0.07691491,14394.852;-2.2689898,9.80665,-0.07691491,-2.5381918,9.345161,-0.11537236,14428.405;-2.2689898,9.80665,-0.07691491,-2.3843622,9.460533,0.4999469,14428.405;-2.2689898,9.80665,-0.07691491,-2.1536174,9.383618,0.26920217,14428.405;-2.2689898,9.80665,-0.07691491,-2.7304792,9.922023,0.76914907,14428.405;-2.2689898,9.80665,-0.07691491,-2.5766494,9.614364,0.34611708,14461.96;-2.2689898,9.80665,-0.07691491,-2.3459046,9.768193,0.038457453,14461.96;-2.2689898,9.80665,-0.07691491,-2.11516,9.268247,0.53840435,14461.96;-2.2689898,9.80665,-0.07691491,-2.4997344,9.80665,0.7306916,14495.515;-2.2689898,9.80665,-0.07691491,-2.3459046,9.268247,0.69223416,14495.515;-2.2689898,9.80665,-0.07691491,-2.4228196,9.80665,0.30765963,14495.515;-2.2689898,9.80665,-0.07691491,-2.5381918,9.537449,0.46148944,14529.069;-2.2689898,9.80665,-0.07691491,-2.3074472,9.460533,0.8076065,14529.069;-2.2689898,9.80665,-0.07691491,-2.1536174,9.845108,0.46148944,14529.069;-2.2689898,9.80665,-0.07691491,-2.9612238,9.922023,0.69223416,14529.069;-2.2689898,9.80665,-0.07691491,-2.8458514,9.691278,