999,999,999,999,999,999,999;-2.2689898,0.30765963,9.345161,-2.1536174,0.30765963,9.383618,0.0;-2.2689898,0.30765963,9.345161,-2.1920748,0.07691491,9.575906,0.0;-2.2689898,0.30765963,9.345161,-1.9613302,-0.11537236,9.422076,0.0;-2.2689898,0.30765963,9.345161,-2.4228196,0.07691491,9.691278,33.554432;-2.2689898,0.30765963,9.345161,-2.6920218,0.423032,9.075959,33.554432;-2.2689898,0.30765963,9.345161,-1.7305853,0.15382981,9.498991,33.554432;-2.2689898,0.30765963,9.345161,-2.7304792,0.30765963,9.191331,33.554432;-2.2689898,0.30765963,9.345161,-2.884309,0.30765963,8.729842,67.108864;-2.2689898,0.30765963,9.345161,-2.6920218,0.46148944,9.422076,67.108864;-2.2689898,0.30765963,9.345161,-1.5767555,0.846064,9.383618,67.108864;-2.2689898,0.30765963,9.345161,-1.7305853,0.23074472,8.960587,100.6633;-2.2689898,0.30765963,9.345161,-1.692128,0.69223416,9.268247,100.6633;-2.2689898,0.30765963,9.345161,-2.3074472,0.423032,9.537449,100.6633;-2.2689898,0.30765963,9.345161,-2.4228196,0.4999469,9.306704,134.21773;-2.2689898,0.30765963,9.345161,-2.2305322,0.76914907,9.883566,134.21773;-2.2689898,0.30765963,9.345161,-2.7689366,0.26920217,10.0373955,134.21773;-2.2689898,0.30765963,9.345161,-2.0767026,0.6537767,9.229789,134.21773;-2.2689898,0.30765963,9.345161,-2.4228196,0.30765963,9.152874,167.77216;-2.2689898,0.30765963,9.345161,-2.0767026,0.76914907,8.883672,167.77216;-2.2689898,0.30765963,9.345161,-2.1536174,0.423032,9.614364,201.3266;-2.2689898,0.30765963,9.345161,-2.6920218,0.8076065,9.498991,201.3266;-2.2689898,0.30765963,9.345161,-2.3459046,0.4999469,9.229789,201.3266;-2.2689898,0.30765963,9.345161,-2.807394,0.34611708,9.037501,201.3266;-2.2689898,0.30765963,9.345161,-2.038245,-0.11537236,9.691278,234.88103;-2.2689898,0.30765963,9.345161,-2.5766494,-0.34611708,9.037501,234.88103;-2.2689898,0.30765963,9.345161,-2.038245,0.15382981,9.460533,234.88103;-2.2689898,0.30765963,9.345161,-1.9613302,0.26920217,9.268247,234.88103;-2.2689898,0.30765963,9.345161,-2.3459046,0.26920217,9.422076,268.43546;-2.2689898,0.30765963,9.345161,-2.1920748,0.5768618,9.537449,268.43546;-2.2689898,0.30765963,9.345161,-2.884309,0.5768618,9.422076,268.43546;-2.2689898,0.30765963,9.345161,-1.9228727,0.46148944,9.383618,301.9899;-2.2689898,0.30765963,9.345161,-2.3459046,0.69223416,8.960587,301.9899;-2.2689898,0.30765963,9.345161,-1.9228727,0.61531925,9.075959,301.9899;-2.2689898,0.30765963,9.345161,-2.4228196,0.6537767,9.037501,301.9899;-2.2689898,0.30765963,9.345161,-2.3074472,0.61531925,9.614364,335.5443;-2.2689898,0.30765963,9.345161,-1.8844151,0.038457453,9.383618,335.5443;-2.2689898,0.30765963,9.345161,-1.7690428,0.038457453,9.729735,335.5443;-2.2689898,0.30765963,9.345161,-1.9997876,0.26920217,9.652821,369.09875;-2.2689898,0.30765963,9.345161,-1.8844151,0.26920217,9.383618,369.09875;-2.2689898,0.30765963,9.345161,-2.3074472,0.26920217,9.268247,369.09875;-2.2689898,0.30765963,9.345161,-2.7304792,0.19228727,8.883672,402.6532;-2.2689898,0.30765963,9.345161,-1.7690428,0.19228727,9.575906,402.6532;-2.2689898,0.30765963,9.345161,-1.7305853,0.423032,9.229789,402.6532;-2.2689898,0.30765963,9.345161,-1.9613302,0.11537236,9.383618,402.6532;-2.2689898,0.30765963,9.345161,-2.2305322,0.53840435,8.999044,436.2076;-2.2689898,0.30765963,9.345161,-2.2689898,0.038457453,9.575906,436.2076;-2.2689898,0.30765963,9.345161,-2.2305322,0.53840435,9.422076,436.2076;-2.2689898,0.30765963,9.345161,-2.038245,0.46148944,8.806757,469.76205;-2.2689898,0.30765963,9.345161,-2.7304792,0.38457453,9.075959,469.76205;-2.2689898,0.30765963,9.345161,-2.1920748,0.38457453,9.229789,469.76205;-2.2689898,0.30765963,9.345161,-1.8844151,0.30765963,10.11431,503.31647;-2.2689898,0.30765963,9.345161,-1.9228727,0.69223416,9.306704,503.31647;-2.2689898,0.30765963,9.345161,-2.3074472,0.5768618,9.80665,503.31647;-2.2689898,0.30765963,9.345161,-2.2305322,0.69223416,9.075959,503.31647;-2.2689898,0.30765963,9.345161,-2.4997344,0.11537236,9.229789,536.8709;-2.2689898,0.30765963,9.345161,-2.3459046,0.46148944,9.652821,536.8709;-2.2689898,0.30765963,9.345161,-2.11516,0.4999469,9.229789,536.8709;-2.2689898,0.30765963,9.345161,-2.1536174,0.4999469,8.960587,570.42535;-2.2689898,0.30765963,9.345161,-2.3459046,0.46148944,9.152874,570.42535;-2.2689898,0.30765963,9.345161,-2.1536174,0.4999469,8.845214,570.42535;-2.2689898,0.30765963,9.345161,-2.038245,0.34611708,9.383618,603.9798;-2.2689898,0.30765963,9.345161,-2.0767026,0.038457453,9.191331,603.9798;-2.2689898,0.30765963,9.345161,-2.3459046,0.23074472,9.152874,603.9798;-2.2689898,0.30765963,9.345161,-2.1536174,1.0383513,9.460533,603.9798;-2.2689898,0.30765963,9.345161,-2.5381918,-0.038457453,9.460533,637.5342;-2.2689898,0.30765963,9.345161,-1.7690428,0.0,8.806757,637.5342;-2.2689898,0.30765963,9.345161,-2.807394,0.038457453,9.191331,637.5342;-2.2689898,0.30765963,9.345161,-2.3843622,0.34611708,9.075959,671.0886;-2.2689898,0.30765963,9.345161,-2.461277,-0.15382981,9.498991,671.0886;-2.2689898,0.30765963,9.345161,-2.1920748,0.46148944,9.845108,671.0886;-2.2689898,0.30765963,9.345161,-2.1536174,0.96143633,9.652821,704.64307;-2.2689898,0.30765963,9.345161,-2.1920748,0.34611708,9.383618,704.64307;-2.2689898,0.30765963,9.345161,-2.3843622,0.30765963,9.306704,704.64307;-2.2689898,0.30765963,9.345161,-2.4228196,0.23074472,8.960587,704.64307;-2.2689898,0.30765963,9.345161,-2.6151068,0.11537236,9.037501,738.1975;-2.2689898,0.30765963,9.345161,-2.1920748,0.4999469,9.498991,738.1975;-2.2689898,0.30765963,9.345161,-2.11516,0.46148944,9.652821,738.1975;-2.2689898,0.30765963,9.345161,-2.5381918,0.15382981,9.229789,771.75195;-2.2689898,0.30765963,9.345161,-2.3459046,0.07691491,9.229789,771.75195;-2.2689898,0.30765963,9.345161,-2.3459046,0.34611708,9.306704,771.75195;-2.2689898,0.30765963,9.345161,-2.807394,0.07691491,8.883672,805.3064;-2.2689898,0.30765963,9.345161,-2.3843622,0.038457453,9.268247,805.3064;-2.2689898,0.30765963,9.345161,-2.4228196,0.8845214,9.383618,805.3064;-2.2689898,0.30765963,9.345161,-2.2305322,0.15382981,9.498991,805.3064;-2.2689898,0.30765963,9.345161,-2.7304792,0.61531925,9.383618,838.8608;-2.2689898,0.30765963,9.345161,-2.2305322,0.19228727,9.306704,838.8608;-2.2689898,0.30765963,9.345161,-2.2305322,0.61531925,9.652821,838.8608;-2.2689898,0.30765963,9.345161,-2.6535642,0.26920217,9.652821,872.4152;-2.2689898,0.30765963,9.345161,-2.1920748,0.5768618,8.61447,872.4152;-2.2689898,0.30765963,9.345161,-2.2689898,0.846064,9.460533,872.4152;-2.2689898,0.30765963,9.345161,-2.038245,0.53840435,9.075959,872.4152;-2.2689898,0.30765963,9.345161,-2.1920748,-0.19228727,9.229789,905.96967;-2.2689898,0.30765963,9.345161,-2.7304792,0.23074472,9.652821,905.96967;-2.2689898,0.30765963,9.345161,-2.1536174,0.30765963,9.652821,905.96967;-2.2689898,0.30765963,9.345161,-2.038245,0.69223416,9.422076,939.5241;-2.2689898,0.30765963,9.345161,-1.9613302,0.5768618,9.114416,939.5241;-2.2689898,0.30765963,9.345161,-2.884309,0.15382981,9.575906,939.5241;-2.2689898,0.30765963,9.345161,-2.807394,0.11537236,8.806757,973.07855;-2.2689898,0.30765963,9.345161,-2.038245,0.38457453,8.883672,973.07855;-2.2689898,0.30765963,9.345161,-1.9997876,0.7306916,9.422076,973.07855;-2.2689898,0.30765963,9.345161,-2.3843622,0.19228727,9.114416,973.07855;-2.2689898,0.30765963,9.345161,-2.0767026,0.46148944,9.460533,1006.63293;-2.2689898,0.30765963,9.345161,-2.6920218,0.038457453,9.114416,1006.63293;-2.2689898,0.30765963,9.345161,-1.8844151,0.846064,9.229789,1006.63293;-2.2689898,0.30765963,9.345161,-2.8458514,0.19228727,8.999044,1040.1874;-2.2689898,0.30765963,9.345161,-2.3074472,0.46148944,9.460533,1040.1874;-2.2689898,0.30765963,9.345161,-2.461277,0.96143633,9.268247,1040.1874;-2.2689898,0.30765963,9.345161,-2.2689898,0.07691491,9.306704,1073.7418;-2.2689898,0.30765963,9.345161,-2.6535642,0.19228727,9.191331,1073.7418;-2.2689898,0.30765963,9.345161,-2.884309,0.07691491,9.345161,1073.7418;-2.2689898,0.30765963,9.345161,-1.9613302,0.19228727,9.075959,1073.7418;-2.2689898,0.30765963,9.345161,-2.2689898,0.38457453,9.306704,1107.2963;-2.2689898,0.30765963,9.345161,-2.3843622,0.11537236,9.498991,1107.2963;-2.2689898,0.30765963,9.345161,-2.11516,0.46148944,9.268247,1107.2963;-2.2689898,0.30765963,9.345161,-1.615213,0.26920217,8.806757,1140.8507;-2.2689898,0.30765963,9.345161,-2.4228196,0.53840435,9.691278,1140.8507;-2.2689898,0.30765963,9.345161,-2.4997344,0.19228727,9.652821,1140.8507;-2.2689898,0.30765963,9.345161,-2.1536174,0.423032,9.691278,1174.4052;-2.2689898,0.30765963,9.345161,-2.7689366,0.15382981,9.498991,1174.4052;-2.2689898,0.30765963,9.345161,-1.9228727,0.38457453,9.268247,1174.4052;-2.2689898,0.30765963,9.345161,-2.4228196,0.423032,8.922129,1174.4052;-2.2689898,0.30765963,9.345161,-2.2305322,0.6537767,8.922129,1207.9596;-2.2689898,0.30765963,9.345161,-2.5381918,0.5768618,9.345161,1207.9596;-2.2689898,0.30765963,9.345161,-1.9613302,0.423032,8.999044,1207.9596;-2.2689898,0.30765963,9.345161,-2.1536174,0.19228727,9.345161,1241.514;-2.2689898,0.30765963,9.345161,-2.884309,0.46148944,9.383618,1241.514;-2.2689898,0.30765963,9.345161,-2.1920748,0.30765963,9.345161,1241.514;-2.2689898,0.30765963,9.345161,-2.11516,0.423032,8.768299,1275.0684;-2.2689898,0.30765963,9.345161,-2.3459046,0.46148944,8.999044,1275.0684;-2.2689898,0.30765963,9.345161,-2.884309,0.38457453,8.960587,1275.0684;-2.2689898,0.30765963,9.345161,-2.461277,-0.23074472,9.114416,1275.0684;-2.2689898,0.30765963,9.345161,-2.461277,0.5768618,8.883672,1308.6228;-2.2689898,0.30765963,9.345161,-2.3074472,0.4999469,9.191331,1308.6228;-2.2689898,0.30765963,9.345161,-2.1536174,0.6537767,9.268247,1308.6228;-2.2689898,0.30765963,9.345161,-1.7305853,-0.038457453,9.383618,1342.1772;-2.2689898,0.30765963,9.345161,-1.9997876,0.6537767,9.345161,1342.1772;-2.2689898,0.30765963,9.345161,-2.4997344,-0.23074472,9.268247,1342.1772;-2.2689898,0.30765963,9.345161,-2.6535642,0.53840435,9.152874,1342.1772;-2.2689898,0.30765963,9.345161,-2.038245,0.26920217,8.922129,1375.7317;-2.2689898,0.30765963,9.345161,-2.461277,0.0,9.229789,1375.7317;-2.2689898,0.30765963,9.345161,-2.461277,0.53840435,9.422076,1375.7317;-2.2689898,0.30765963,9.345161,-2.11516,0.23074472,9.498991,1409.2861;-2.2689898,0.30765963,9.345161,-2.884309,0.30765963,9.575906,1409.2861;-2.2689898,0.30765963,9.345161,-2.1536174,0.11537236,9.498991,1409.2861;-2.2689898,0.30765963,9.345161,-1.8459578,-0.038457453,9.383618,1442.8406;-2.2689898,0.30765963,9.345161,-2.4228196,0.30765963,9.114416,1442.8406;-2.2689898,0.30765963,9.345161,-2.4228196,0.96143633,8.999044,1442.8406;-2.2689898,0.30765963,9.345161,-1.9228727,0.38457453,8.729842,1442.8406;-2.2689898,0.30765963,9.345161,-2.2689898,0.76914907,9.383618,1476.395;-2.2689898,0.30765963,9.345161,-2.2689898,0.34611708,9.498991,1476.395;-2.2689898,0.30765963,9.345161,-2.7304792,0.6537767,9.345161,1476.395;-2.2689898,0.30765963,9.345161,-2.4997344,0.4999469,9.460533,1509.9495;-2.2689898,0.30765963,9.345161,-1.9997876,0.34611708,8.537555,1509.9495;-2.2689898,0.30765963,9.345161,-1.9997876,0.4999469,9.422076,1509.9495;-2.2689898,0.30765963,9.345161,-2.6920218,0.07691491,9.268247,1543.5039;-2.2689898,0.30765963,9.345161,-2.3074472,0.0,9.537449,1543.5039;-2.2689898,0.30765963,9.345161,-2.3074472,0.423032,9.575906,1543.5039;-2.2689898,0.30765963,9.345161,-3.230426,0.26920217,9.345161,1543.5039;-2.2689898,0.30765963,9.345161,-2.3459046,0.423032,9.191331,1577.0583;-2.2689898,0.30765963,9.345161,-1.8459578,0.8076065,9.498991,1577.0583;-2.2689898,0.30765963,9.345161,-1.7305853,0.53840435,9.691278,1577.0583;-2.2689898,0.30765963,9.345161,-1.7690428,0.46148944,9.037501,1610.6128;-2.2689898,0.30765963,9.345161,-2.461277,0.34611708,8.922129,1610.6128;-2.2689898,0.30765963,9.345161,-2.1536174,0.0,8.729842,1610.6128;-2.2689898,0.30765963,9.345161,-2.5766494,-0.53840435,9.152874,1644.1671;-2.2689898,0.30765963,9.345161,-2.3843622,0.15382981,9.652821,1644.1671;-2.2689898,0.30765963,9.345161,-2.7689366,0.07691491,9.460533,1644.1671;-2.2689898,0.30765963,9.345161,-2.2305322,0.4999469,9.191331,1644.1671;-2.2689898,0.30765963,9.345161,-2.4997344,0.30765963,9.037501,1677.7216;-2.2689898,0.30765963,9.345161,-2.461277,-0.34611708,8.652927,1677.7216;-2.2689898,0.30765963,9.345161,-2.7689366,0.23074472,9.229789,1677.7216;-2.2689898,0.30765963,9.345161,-1.9228727,0.423032,9.114416,1711.276;-2.2689898,0.30765963,9.345161,-2.2689898,0.423032,9.345161,1711.276;-2.2689898,0.30765963,9.345161,-2.1920748,0.34611708,9.998938,1711.276;-2.2689898,0.30765963,9.345161,-2.7304792,0.19228727,9.537449,1744.8304;-2.2689898,0.30765963,9.345161,-2.461277,0.4999469,9.498991,1744.8304;-2.2689898,0.30765963,9.345161,-2.4997344,0.4999469,9.768193,1744.8304;-2.2689898,0.30765963,9.345161,-2.8458514,0.34611708,9.268247,1744.8304;-2.2689898,0.30765963,9.345161,-2.461277,0.26920217,9.075959,1778.3849;-2.2689898,0.30765963,9.345161,-2.4997344,0.7306916,9.152874,1778.3849;-2.2689898,0.30765963,9.345161,-2.7689366,0.19228727,9.498991,1778.3849;-2.2689898,0.30765963,9.345161,-2.5381918,1.1152661,9.575906,1811.9393;-2.2689898,0.30765963,9.345161,-2.807394,-0.038457453,9.614364,1811.9393;-2.2689898,0.30765963,9.345161,-2.7304792,-0.07691491,9.575906,1811.9393;-2.2689898,0.30765963,9.345161,-2.038245,0.7306916,9.152874,1811.9393;-2.2689898,0.30765963,9.345161,-1.8075004,0.7306916,9.345161,1845.4938;-2.2689898,0.30765963,9.345161,-2.884309,0.69223416,9.152874,1845.4938;-2.2689898,0.30765963,9.345161,-2.2689898,0.8076065,8.922129,1845.4938;-2.2689898,0.30765963,9.345161,-2.2689898,0.23074472,9.268247,1879.0482;-2.2689898,0.30765963,9.345161,-3.0381389,0.15382981,9.652821,1879.0482;-2.2689898,0.30765963,9.345161,-2.4997344,0.11537236,9.306704,1879.0482;-2.2689898,0.30765963,9.345161,-1.7305853,0.30765963,9.422076,1912.6027;-2.2689898,0.30765963,9.345161,-2.5766494,0.19228727,9.537449,1912.6027;-2.2689898,0.30765963,9.345161,-2.1536174,0.5768618,8.845214,1912.6027;-2.2689898,0.30765963,9.345161,-1.9228727,0.34611708,9.460533,1912.6027;-2.2689898,0.30765963,9.345161,-1.8459578,0.23074472,9.883566,1946.1571;-2.2689898,0.30765963,9.345161,-2.3843622,-0.07691491,9.345161,1946.1571;-2.2689898,0.30765963,9.345161,-2.5766494,0.30765963,9.345161,1946.1571;-2.2689898,0.30765963,9.345161,-2.2689898,0.23074472,9.460533,1979.7115;-2.2689898,0.30765963,9.345161,-2.1536174,0.61531925,9.075959,1979.7115;-2.2689898,0.30765963,9.345161,-2.2305322,-0.19228727,9.075959,1979.7115;-2.2689898,0.30765963,9.345161,-2.1536174,0.26920217,9.306704,2013.2659;-2.2689898,0.30765963,9.345161,-2.4228196,0.0,8.845214,2013.2659;-2.2689898,0.30765963,9.345161,-2.5766494,0.5768618,9.883566,2013.2659;-2.2689898,0.30765963,9.345161,-2.2305322,0.53840435,9.383618,2013.2659;-2.2689898,0.30765963,9.345161,-2.4997344,0.4999469,9.575906,2046.8203;-2.2689898,0.30765963,9.345161,-2.3459046,0.423032,9.652821,2046.8203;-2.2689898,0.30765963,9.345161,-2.7304792,0.846064,9.268247,2046.8203;-2.2689898,0.30765963,9.345161,-2.2305322,0.61531925,8.999044,2080.3748;-2.2689898,0.30765963,9.345161,-2.2689898,0.5768618,9.652821,2080.3748;-2.2689898,0.30765963,9.345161,-2.9227664,0.5768618,9.075959,2080.3748;-2.2689898,0.30765963,9.345161,-2.461277,0.038457453,9.037501,2113.9292;-2.2689898,0.30765963,9.345161,-2.11516,0.69223416,9.306704,2113.9292;-2.2689898,0.30765963,9.345161,-2.6535642,0.6537767,9.537449,2113.9292;-2.2689898,0.30765963,9.345161,-2.3459046,0.19228727,9.575906,2113.9292;-2.2689898,0.30765963,9.345161,-2.2689898,0.4999469,9.460533,2147.4836;-2.2689898,0.30765963,9.345161,-2.6535642,0.15382981,9.306704,2147.4836;-2.2689898,0.30765963,9.345161,-1.8844151,0.4999469,8.960587,2147.4836;-2.2689898,0.30765963,9.345161,-1.9997876,0.038457453,9.422076,2181.038;-2.2689898,0.30765963,9.345161,-2.1536174,0.46148944,9.306704,2181.038;-2.2689898,0.30765963,9.345161,-2.1536174,0.34611708,9.498991,2181.038;-2.2689898,0.30765963,9.345161,-2.8458514,0.53840435,9.845108,2214.5925;-2.2689898,0.30765963,9.345161,-2.2689898,0.53840435,9.845108,2214.5925;-2.2689898,0.30765963,9.345161,-2.7304792,0.26920217,9.191331,2214.5925;-2.2689898,0.30765963,9.345161,-2.5381918,0.8076065,9.306704,2214.5925;-2.2689898,0.30765963,9.345161,-2.4228196,0.15382981,9.229789,2248.147;-2.2689898,0.30765963,9.345161,-2.4228196,0.23074472,9.383618,2248.147;-2.2689898,0.30765963,9.345161,-2.3843622,0.38457453,9.652821,2248.147;-2.2689898,0.30765963,9.345161,-2.5766494,0.07691491,9.268247,2281.7014;-2.2689898,0.30765963,9.345161,-2.1536174,0.76914907,9.345161,2281.7014;-2.2689898,0.30765963,9.345161,-2.3074472,0.34611708,9.460533,2281.7014;-2.2689898,0.30765963,9.345161,-2.2305322,0.38457453,9.037501,2315.2559;-2.2689898,0.30765963,9.345161,-2.2689898,0.5768618,9.345161,2315.2559;-2.2689898,0.30765963,9.345161,-1.692128,0.4999469,9.306704,2315.2559;-2.2689898,0.30765963,9.345161,-1.8844151,0.34611708,8.999044,2315.2559;-2.2689898,0.30765963,9.345161,-2.6151068,0.8076065,9.229789,2348.8103;-2.2689898,0.30765963,9.345161,-2.5766494,0.423032,9.306704,2348.8103;-2.2689898,0.30765963,9.345161,-2.1920748,0.5768618,9.845108,2348.8103;-2.2689898,0.30765963,9.345161,-1.8459578,-0.07691491,9.498991,2382.3647;-2.2689898,0.30765963,9.345161,-2.3843622,0.23074472,9.729735,2382.3647;-2.2689898,0.30765963,9.345161,-2.6535642,0.19228727,9.460533,2382.3647;-2.2689898,0.30765963,9.345161,-1.615213,0.30765963,9.191331,2382.3647;-2.2689898,0.30765963,9.345161,-2.1536174,0.26920217,9.152874,2415.9192;-2.2689898,0.30765963,9.345161,-2.2689898,0.07691491,9.229789,2415.9192;-2.2689898,0.30765963,9.345161,-2.6535642,0.26920217,9.575906,2415.9192;-2.2689898,0.30765963,9.345161,-2.3843622,0.07691491,8.883672,2449.4736;-2.2689898,0.30765963,9.345161,-2.8458514,-0.19228727,9.614364,2449.4736;-2.2689898,0.30765963,9.345161,-1.9228727,-0.038457453,9.075959,2449.4736;-2.2689898,0.30765963,9.345161,-2.7304792,0.19228727,9.268247,2483.028;-2.2689898,0.30765963,9.345161,-2.7304792,0.61531925,9.498991,2483.028;-2.2689898,0.30765963,9.345161,-2.2689898,0.4999469,9.075959,2483.028;-2.2689898,0.30765963,9.345161,-2.1920748,0.19228727,9.229789,2483.028;-2.2689898,0.30765963,9.345161,-1.5767555,0.30765963,9.306704,2516.5825;-2.2689898,0.30765963,9.345161,-2.3074472,0.6537767,9.191331,2516.5825;-2.2689898,0.30765963,9.345161,-1.9613302,0.423032,9.575906,2516.5825;-2.2689898,0.30765963,9.345161,-2.3074472,0.423032,9.422076,2550.1367;-2.2689898,0.30765963,9.345161,-1.9613302,0.76914907,9.191331,2550.1367;-2.2689898,0.30765963,9.345161,-2.5381918,0.38457453,9.191331,2550.1367;-2.2689898,0.30765963,9.345161,-2.4228196,0.19228727,9.191331,2583.6912;-2.2689898,0.30765963,9.345161,-2.038245,0.4999469,8.960587,2583.6912;-2.2689898,0.30765963,9.345161,-2.3074472,-0.07691491,9.268247,2583.6912;-2.2689898,0.30765963,9.345161,-2.3459046,0.8076065,9.768193,2583.6912;-2.2689898,0.30765963,9.345161,-2.2689898,-0.38457453,9.345161,2617.2456;-2.2689898,0.30765963,9.345161,-2.3074472,-0.07691491,9.80665,2617.2456;-2.2689898,0.30765963,9.345161,-2.2689898,0.19228727,9.037501,2617.2456;-2.2689898,0.30765963,9.345161,-2.461277,-0.038457453,8.768299,2650.8;-2.2689898,0.30765963,9.345161,-2.4997344,0.0,9.345161,2650.8;-2.2689898,0.30765963,9.345161,-2.9996815,0.23074472,8.883672,2650.8;-2.2689898,0.30765963,9.345161,-2.6151068,0.11537236,9.383618,2684.3545;-2.2689898,0.30765963,9.345161,-2.2305322,0.423032,9.268247,2684.3545;-2.2689898,0.30765963,9.345161,-2.2689898,0.53840435,9.460533,2684.3545;-2.2689898,0.30765963,9.345161,-1.9997876,0.53840435,9.306704,2684.3545;-2.2689898,0.30765963,9.345161,-1.7690428,0.5768618,9.114416,2717.909;-2.2689898,0.30765963,9.345161,-2.461277,0.30765963,8.691384,2717.909;-2.2689898,0.30765963,9.345161,-2.11516,0.4999469,8.999044,2717.909;-2.2689898,0.30765963,9.345161,-1.8075004,0.5768618,9.345161,2751.4634;-2.2689898,0.30765963,9.345161,-2.6151068,0.038457453,9.383618,2751.4634;-2.2689898,0.30765963,9.345161,-2.11516,0.46148944,9.575906,2751.4634;-2.2689898,0.30765963,9.345161,-2.2689898,0.038457453,9.075959,2785.0178;-2.2689898,0.30765963,9.345161,-1.9228727,0.19228727,9.498991,2785.0178;-2.2689898,0.30765963,9.345161,-2.6920218,0.61531925,8.883672,2785.0178;-2.2689898,0.30765963,9.345161,-2.6535642,0.53840435,8.960587,2785.0178;-2.2689898,0.30765963,9.345161,-2.038245,0.4999469,9.152874,2818.5723;-2.2689898,0.30765963,9.345161,-2.4997344,0.69223416,8.960587,2818.5723;-2.2689898,0.30765963,9.345161,-2.9227664,0.5768618,9.191331,2818.5723;-2.2689898,0.30765963,9.345161,-1.9997876,0.4999469,9.268247,2852.1267;-2.2689898,0.30765963,9.345161,-1.8459578,0.7306916,9.306704,2852.1267;-2.2689898,0.30765963,9.345161,-2.7304792,0.4999469,9.80665,2852.1267;-2.2689898,0.30765963,9.345161,-2.3843622,0.6537767,9.191331,2852.1267;-2.2689898,0.30765963,9.345161,-2.461277,0.26920217,8.729842,2885.6812;-2.2689898,0.30765963,9.345161,-2.4228196,0.11537236,8.922129,2885.6812;-2.2689898,0.30765963,9.345161,-2.3074472,0.69223416,9.268247,2885.6812;-2.2689898,0.30765963,9.345161,-2.6920218,0.34611708,9.960481,2919.2356;-2.2689898,0.30765963,9.345161,-2.3843622,0.8845214,9.691278,2919.2356;-2.2689898,0.30765963,9.345161,-2.5766494,0.38457453,9.80665,2919.2356;-2.2689898,0.30765963,9.345161,-2.4997344,0.19228727,9.075959,2952.79;-2.2689898,0.30765963,9.345161,-1.7305853,0.19228727,9.191331,2952.79;-2.2689898,0.30765963,9.345161,-2.1920748,0.846064,8.499097,2952.79;-2.2689898,0.30765963,9.345161,-2.6920218,0.11537236,9.383618,2952.79;-2.2689898,0.30765963,9.345161,-2.5766494,0.38457453,9.191331,2986.3445;-2.2689898,0.30765963,9.345161,-1.8844151,0.46148944,10.075852,2986.3445;-2.2689898,0.30765963,9.345161,-2.6920218,0.8845214,9.537449,2986.3445;-2.2689898,0.30765963,9.345161,-2.1920748,0.38457453,9.691278,3019.899;-2.2689898,0.30765963,9.345161,-2.038245,0.5768618,9.152874,3019.899;-2.2689898,0.30765963,9.345161,-2.3074472,0.46148944,9.498991,3019.899;-2.2689898,0.30765963,9.345161,-1.8075004,0.26920217,8.960587,3053.4534;-2.2689898,0.30765963,9.345161,-2.1920748,0.38457453,9.383618,3053.4534;-2.2689898,0.30765963,9.345161,-2.0767026,0.34611708,8.729842,3053.4534;-2.2689898,0.30765963,9.345161,-1.9613302,0.0,9.498991,3053.4534;-2.2689898,0.30765963,9.345161,-2.11516,0.11537236,9.191331,3087.0078;-2.2689898,0.30765963,9.345161,-2.461277,0.61531925,9.768193,3087.0078;-2.2689898,0.30765963,9.345161,-2.1536174,-0.15382981,9.191331,3087.0078;-2.2689898,0.30765963,9.345161,-2.6535642,0.38457453,9.845108,3120.5623;-2.2689898,0.30765963,9.345161,-2.461277,0.19228727,9.575906,3120.5623;-2.2689898,0.30765963,9.345161,-2.3459046,0.038457453,9.537449,3120.5623;-2.2689898,0.30765963,9.345161,-2.0767026,0.26920217,9.152874,3154.1167;-2.2689898,0.30765963,9.345161,-2.807394,0.26920217,9.652821,3154.1167;-2.2689898,0.30765963,9.345161,-2.2305322,0.07691491,9.191331,3154.1167;-2.2689898,0.30765963,9.345161,-2.1536174,0.38457453,9.306704,3154.1167;-2.2689898,0.30765963,9.345161,-2.11516,0.6537767,9.191331,3187.6711;-2.2689898,0.30765963,9.345161,-1.9228727,0.53840435,9.075959,3187.6711;-2.2689898,0.30765963,9.345161,-1.8844151,0.423032,8.999044,3187.6711;-2.2689898,0.30765963,9.345161,-1.8844151,0.4999469,9.075959,3221.2256;-2.2689898,0.30765963,9.345161,-2.4228196,0.23074472,9.229789,3221.2256;-2.2689898,0.30765963,9.345161,-2.3459046,0.46148944,9.460533,3221.2256;-2.2689898,0.30765963,9.345161,-1.9613302,0.19228727,9.498991,3254.7798;-2.2689898,0.30765963,9.345161,-2.4997344,0.46148944,9.383618,3254.7798;-2.2689898,0.30765963,9.345161,-1.9997876,0.5768618,9.306704,3254.7798;-2.2689898,0.30765963,9.345161,-2.038245,-0.423032,9.191331,3254.7798;-2.2689898,0.30765963,9.345161,-2.0767026,0.0,8.806757,3288.3342;-2.2689898,0.30765963,9.345161,-2.3074472,0.423032,9.229789,3288.3342;-2.2689898,0.30765963,9.345161,-2.4228196,0.7306916,9.037501,3288.3342;-2.2689898,0.30765963,9.345161,-2.3843622,0.423032,9.614364,3321.8887;-2.2689898,0.30765963,9.345161,-2.0767026,0.30765963,8.960587,3321.8887;-2.2689898,0.30765963,9.345161,-2.4997344,0.46148944,9.075959,3321.8887;-2.2689898,0.30765963,9.345161,-2.4997344,0.423032,9.114416,3321.8887;-2.2689898,0.30765963,9.345161,-2.2689898,0.15382981,8.806757,3355.443;-2.2689898,0.30765963,9.345161,-1.9228727,0.7306916,9.306704,3355.443;-2.2689898,0.30765963,9.345161,-2.3459046,1.0768087,9.191331,3355.443;-2.2689898,0.30765963,9.345161,-2.461277,-0.11537236,9.152874,3388.9976;-2.2689898,0.30765963,9.345161,-2.1920748,0.61531925,8.960587,3388.9976;-2.2689898,0.30765963,9.345161,-2.3843622,0.038457453,9.037501,3388.9976;-2.2689898,0.30765963,9.345161,-2.6151068,0.19228727,8.960587,3422.552;-2.2689898,0.30765963,9.345161,-2.1536174,-0.11537236,9.191331,3422.552;-2.2689898,0.30765963,9.345161,-2.5766494,0.26920217,9.345161,3422.552;-2.2689898,0.30765963,9.345161,-2.1536174,-0.038457453,9.345161,3422.552;-2.2689898,0.30765963,9.345161,-2.3843622,-0.07691491,9.037501,3456.1064;-2.2689898,0.30765963,9.345161,-2.5381918,-0.53840435,9.114416,3456.1064;-2.2689898,0.30765963,9.345161,-2.1536174,0.19228727,9.383618,3456.1064;-2.2689898,0.30765963,9.345161,-2.461277,0.34611708,9.383618,3489.661;-2.2689898,0.30765963,9.345161,-2.5381918,0.69223416,9.422076,3489.661;-2.2689898,0.30765963,9.345161,-2.3074472,0.038457453,9.498991,3489.661;-2.2689898,0.30765963,9.345161,-2.7304792,1.1152661,9.075959,3523.2153;-2.2689898,0.30765963,9.345161,-2.4228196,0.26920217,9.114416,3523.2153;-2.2689898,0.30765963,9.345161,-2.2305322,0.23074472,8.806757,3523.2153;-2.2689898,0.30765963,9.345161,-2.3843622,0.7306916,9.460533,3523.2153;-2.2689898,0.30765963,9.345161,-2.461277,0.7306916,9.191331,3556.7698;-2.2689898,0.30765963,9.345161,-2.3459046,0.26920217,9.845108,3556.7698;-2.2689898,0.30765963,9.345161,-2.884309,0.61531925,9.614364,3556.7698;-2.2689898,0.30765963,9.345161,-2.0767026,0.53840435,9.229789,3590.3242;-2.2689898,0.30765963,9.345161,-1.9613302,-0.038457453,9.460533,3590.3242;-2.2689898,0.30765963,9.345161,-2.4997344,0.38457453,9.345161,3590.3242;-2.2689898,0.30765963,9.345161,-2.2689898,0.7306916,9.460533,3623.8787;-2.2689898,0.30765963,9.345161,-2.6535642,0.23074472,8.960587,3623.8787;-2.2689898,0.30765963,9.345161,-2.8458514,0.0,9.268247,3623.8787;-2.2689898,0.30765963,9.345161,-2.6151068,0.7306916,9.883566,3623.8787;-2.2689898,0.30765963,9.345161,-2.5766494,0.5768618,9.037501,3657.433;-2.2689898,0.30765963,9.345161,-1.9997876,0.423032,9.729735,3657.433;-2.2689898,0.30765963,9.345161,-2.2305322,-0.15382981,9.114416,3690.9875;-2.2689898,0.30765963,9.345161,-2.5381918,0.46148944,8.922129,3690.9875;-2.2689898,0.30765963,9.345161,-2.2689898,-0.11537236,9.037501,3690.9875;-2.2689898,0.30765963,9.345161,-2.3459046,0.23074472,9.383618,3724.542;-2.2689898,0.30765963,9.345161,-1.9997876,0.76914907,9.075959,3724.542;-2.2689898,0.30765963,9.345161,-2.7304792,0.7306916,9.075959,3724.542;-2.2689898,0.30765963,9.345161,-2.3074472,0.46148944,9.652821,3724.542;-2.2689898,0.30765963,9.345161,-2.3074472,0.4999469,8.883672,3758.0964;-2.2689898,0.30765963,9.345161,-2.461277,-0.15382981,9.80665,3758.0964;-2.2689898,0.30765963,9.345161,-2.5766494,0.38457453,9.075959,3758.0964;-2.2689898,0.30765963,9.345161,-2.3843622,0.19228727,9.075959,3791.651;-2.2689898,0.30765963,9.345161,-2.6151068,-0.038457453,8.999044,3791.651;-2.2689898,0.30765963,9.345161,-2.4228196,0.4999469,9.037501,3791.651;-2.2689898,0.30765963,9.345161,-2.5766494,0.4999469,9.883566,3825.2053;-2.2689898,0.30765963,9.345161,-2.1920748,0.30765963,9.229789,3825.2053;-2.2689898,0.30765963,9.345161,-2.3459046,0.26920217,9.575906,3825.2053;-2.2689898,0.30765963,9.345161,-2.5766494,0.46148944,9.383618,3825.2053;-2.2689898,0.30765963,9.345161,-2.2689898,0.69223416,8.999044,3858.7598;-2.2689898,0.30765963,9.345161,-2.1536174,-0.19228727,8.652927,3858.7598;-2.2689898,0.30765963,9.345161,-2.6920218,0.26920217,9.575906,3858.7598;-2.2689898,0.30765963,9.345161,-2.5381918,-0.30765963,9.306704,3892.3142;-2.2689898,0.30765963,9.345161,-2.2689898,0.23074472,9.652821,3892.3142;-2.2689898,0.30765963,9.345161,-2.9612238,1.0383513,9.229789,3892.3142;-2.2689898,0.30765963,9.345161,-2.3074472,0.5768618,9.498991,3892.3142;-2.2689898,0.30765963,9.345161,-2.3843622,0.4999469,9.652821,3925.8687;-2.2689898,0.30765963,9.345161,-2.6151068,0.15382981,9.268247,3925.8687;-2.2689898,0.30765963,9.345161,-2.3074472,0.61531925,8.652927,3925.8687;-2.2689898,0.30765963,9.345161,-2.2305322,0.30765963,8.576012,3959.423;-2.2689898,0.30765963,9.345161,-1.9997876,0.6537767,9.345161,3959.423;-2.2689898,0.30765963,9.345161,-3.153511,0.38457453,9.652821,3959.423;-2.2689898,0.30765963,9.345161,-2.5381918,0.19228727,9.383618,3992.9773;-2.2689898,0.30765963,9.345161,-2.6151068,0.23074472,10.0373955,3992.9773;-2.2689898,0.30765963,9.345161,-1.7690428,-0.19228727,8.999044,3992.9773;-2.2689898,0.30765963,9.345161,-2.0767026,0.30765963,8.729842,3992.9773;-2.2689898,0.30765963,9.345161,-2.3459046,-0.038457453,9.114416,4026.5317;-2.2689898,0.30765963,9.345161,-2.5766494,0.4999469,9.229789,4026.5317;-2.2689898,0.30765963,9.345161,-2.6535642,-0.26920217,9.152874,4026.5317;-2.2689898,0.30765963,9.345161,-2.6151068,0.61531925,9.345161,4060.0862;-2.2689898,0.30765963,9.345161,-2.4228196,0.34611708,9.460533,4060.0862;-2.2689898,0.30765963,9.345161,-2.2689898,0.23074472,9.691278,4060.0862;-2.2689898,0.30765963,9.345161,-2.1536174,-0.23074472,9.229789,4093.6406;-2.2689898,0.30765963,9.345161,-1.9997876,0.07691491,8.960587,4093.6406;-2.2689898,0.30765963,9.345161,-2.2689898,0.7306916,9.114416,4093.6406;-2.2689898,0.30765963,9.345161,-2.2689898,0.846064,9.268247,4093.6406;-2.2689898,0.30765963,9.345161,-2.3074472,0.34611708,9.80665,4127.1953;-2.2689898,0.30765963,9.345161,-2.038245,0.61531925,9.422076,4127.1953;-2.2689898,0.30765963,9.345161,-2.1920748,0.15382981,9.498991,4127.1953;-2.2689898,0.30765963,9.345161,-2.3459046,0.38457453,9.229789,4160.7495;-2.2689898,0.30765963,9.345161,-2.0767026,0.46148944,8.883672,4160.7495;-2.2689898,0.30765963,9.345161,-2.4997344,0.53840435,9.306704,4160.7495;-2.2689898,0.30765963,9.345161,-2.4997344,0.5768618,9.383618,4194.304;-2.2689898,0.30765963,9.345161,-2.1920748,0.9229789,9.075959,4194.304;-2.2689898,0.30765963,9.345161,-1.9613302,0.53840435,9.229789,4194.304;-2.2689898,0.30765963,9.345161,-2.3843622,0.6537767,9.383618,4194.304;-2.2689898,0.30765963,9.345161,-2.038245,0.423032,9.768193,4227.8584;-2.2689898,0.30765963,9.345161,-1.9228727,0.6537767,9.691278,4227.8584;-2.2689898,0.30765963,9.345161,-2.4997344,0.8076065,9.114416,4227.8584;-2.2689898,0.30765963,9.345161,-2.7304792,0.423032,9.268247,4261.413;-2.2689898,0.30765963,9.345161,-1.9228727,0.0,9.306704,4261.413;-2.2689898,0.30765963,9.345161,-2.2689898,0.11537236,9.152874,4261.413;-2.2689898,0.30765963,9.345161,-2.3843622,0.26920217,9.306704,4294.9673;-2.2689898,0.30765963,9.345161,-2.3843622,0.46148944,8.999044,4294.9673;-2.2689898,0.30765963,9.345161,-2.3459046,0.4999469,9.691278,4294.9673;-2.2689898,0.30765963,9.345161,-3.0381389,0.38457453,9.537449,4294.9673;-2.2689898,0.30765963,9.345161,-2.4228196,-0.11537236,9.268247,4328.5215;-2.2689898,0.30765963,9.345161,-2.461277,0.46148944,9.422076,4328.5215;-2.2689898,0.30765963,9.345161,-1.8075004,0.38457453,9.422076,4328.5215;-2.2689898,0.30765963,9.345161,-1.9228727,0.15382981,9.537449,4362.076;-2.2689898,0.30765963,9.345161,-2.038245,0.69223416,9.498991,4362.076;-2.2689898,0.30765963,9.345161,-2.8458514,0.61531925,9.498991,4362.076;-2.2689898,0.30765963,9.345161,-2.5766494,0.9229789,9.152874,4362.076;-2.2689898,0.30765963,9.345161,-1.9997876,0.69223416,9.037501,4395.6304;-2.2689898,0.30765963,9.345161,-2.4997344,0.4999469,9.498991,4395.6304;-2.2689898,0.30765963,9.345161,-1.9997876,0.23074472,8.999044,4395.6304;-2.2689898,0.30765963,9.345161,-2.0767026,0.30765963,8.883672,4429.185;-2.2689898,0.30765963,9.345161,-2.2305322,0.07691491,9.422076,4429.185;-2.2689898,0.30765963,9.345161,-2.461277,0.23074472,9.191331,4429.185;-2.2689898,0.30765963,9.345161,-1.9613302,0.26920217,9.306704,4462.7393;-2.2689898,0.30765963,9.345161,-2.461277,0.38457453,9.114416,4462.7393;-2.2689898,0.30765963,9.345161,-2.038245,0.15382981,9.268247,4462.7393;-2.2689898,0.30765963,9.345161,-1.7690428,0.11537236,8.999044,4462.7393;-2.2689898,0.30765963,9.345161,-2.1920748,0.5768618,8.883672,4496.294;-2.2689898,0.30765963,9.345161,-1.8075004,0.15382981,8.652927,4496.294;-2.2689898,0.30765963,9.345161,-2.3843622,0.6537767,8.960587,4496.294;-2.2689898,0.30765963,9.345161,-2.3074472,0.15382981,9.498991,4529.848;-2.2689898,0.30765963,9.345161,-2.7304792,0.423032,9.345161,4529.848;-2.2689898,0.30765963,9.345161,-2.6151068,0.15382981,9.422076,4529.848;-2.2689898,0.30765963,9.345161,-2.0767026,0.038457453,9.383618,4563.403;-2.2689898,0.30765963,9.345161,-2.11516,0.6537767,9.152874,4563.403;-2.2689898,0.30765963,9.345161,-2.1536174,0.038457453,9.345161,4563.403;-2.2689898,0.30765963,9.345161,-2.461277,0.19228727,8.768299,4563.403;-2.2689898,0.30765963,9.345161,-2.461277,0.15382981,8.845214,4596.957;-2.2689898,0.30765963,9.345161,-2.4997344,0.4999469,9.691278,4596.957;-2.2689898,0.30765963,9.345161,-1.9997876,0.30765963,9.268247,4596.957;-2.2689898,0.30765963,9.345161,-2.5381918,0.46148944,9.114416,4630.5117;-2.2689898,0.30765963,9.345161,-1.7690428,0.23074472,9.498991,4630.5117;-2.2689898,0.30765963,9.345161,-2.3843622,0.4999469,8.883672,4630.5117;-2.2689898,0.30765963,9.345161,-2.5381918,0.23074472,9.152874,4664.066;-2.2689898,0.30765963,9.345161,-2.5766494,0.23074472,8.922129,4664.066;-2.2689898,0.30765963,9.345161,-2.4228196,0.423032,9.383618,4664.066;-2.2689898,0.30765963,9.345161,-1.9613302,0.4999469,9.229789,4664.066;-2.2689898,0.30765963,9.345161,-2.3459046,0.38457453,10.075852,4697.6206;-2.2689898,0.30765963,9.345161,-1.9997876,0.5768618,9.229789,4697.6206;-2.2689898,0.30765963,9.345161,-2.4997344,0.07691491,9.960481,4697.6206;-2.2689898,0.30765963,9.345161,-2.11516,0.11537236,8.999044,4731.175;-2.2689898,0.30765963,9.345161,-2.3459046,0.53840435,9.268247,4731.175;-2.2689898,0.30765963,9.345161,-2.3459046,0.61531925,9.268247,4731.175;-2.2689898,0.30765963,9.345161,-2.1536174,0.19228727,9.152874,4764.7295;-2.2689898,0.30765963,9.345161,-2.1920748,0.07691491,8.999044,4764.7295;-2.2689898,0.30765963,9.345161,-1.9997876,-0.15382981,9.614364,4764.7295;-2.2689898,0.30765963,9.345161,-2.3843622,0.07691491,9.152874,4764.7295;-2.2689898,0.30765963,9.345161,-2.6151068,-0.038457453,9.229789,4798.2837;-2.2689898,0.30765963,9.345161,-2.2305322,0.26920217,9.498991,4798.2837;-2.2689898,0.30765963,9.345161,-2.4228196,0.423032,8.960587,4798.2837;-2.2689898,0.30765963,9.345161,-2.5766494,-0.23074472,8.999044,4831.8384;-2.2689898,0.30765963,9.345161,-2.5381918,0.46148944,8.691384,4831.8384;-2.2689898,0.30765963,9.345161,-1.8459578,-0.23074472,9.537449,4831.8384;-2.2689898,0.30765963,9.345161,-2.2689898,1.0383513,9.306704,4865.3926;-2.2689898,0.30765963,9.345161,-1.9613302,0.96143633,9.345161,4865.3926;-2.2689898,0.30765963,9.345161,-2.6920218,0.6537767,9.191331,4865.3926;-2.2689898,0.30765963,9.345161,-1.9997876,0.26920217,9.268247,4865.3926;-2.2689898,0.30765963,9.345161,-2.1920748,0.7306916,8.845214,4898.9473;-2.2689898,0.30765963,9.345161,-2.4228196,0.423032,8.691384,4898.9473;-2.2689898,0.30765963,9.345161,-2.7304792,0.0,8.922129,4898.9473;-2.2689898,0.30765963,9.345161,-2.2305322,0.30765963,9.345161,4932.5015;-2.2689898,0.30765963,9.345161,-1.9228727,1.1152661,9.768193,4932.5015;-2.2689898,0.30765963,9.345161,-2.1920748,0.34611708,9.422076,4932.5015;-2.2689898,0.30765963,9.345161,-2.4228196,0.61531925,9.268247,4932.5015;-2.2689898,0.30765963,9.345161,-2.2305322,0.4999469,9.075959,4966.056;-2.2689898,0.30765963,9.345161,-2.461277,0.8076065,9.152874,4966.056;-2.2689898,0.30765963,9.345161,-1.9997876,-0.07691491,9.345161,4966.056;-2.2689898,0.30765963,9.345161,-2.0767026,0.69223416,9.229789,4999.6104;-2.2689898,0.30765963,9.345161,-1.9613302,0.46148944,9.075959,4999.6104;-2.2689898,0.30765963,9.345161,-2.1536174,-0.038457453,9.383618,4999.6104;-2.2689898,0.30765963,9.345161,-2.4228196,0.9998938,9.191331,5033.165;-2.2689898,0.30765963,9.345161,-2.3459046,0.69223416,9.268247,5033.165;-2.2689898,0.30765963,9.345161,-1.8075004,0.6537767,9.306704,5033.165;-2.2689898,0.30765963,9.345161,-1.8844151,0.9998938,9.575906,5033.165;-2.2689898,0.30765963,9.345161,-2.1536174,0.423032,9.268247,5066.719;-2.2689898,0.30765963,9.345161,-2.2689898,0.23074472,9.498991,5066.719;-2.2689898,0.30765963,9.345161,-1.8459578,0.5768618,8.806757,5066.719;-2.2689898,0.30765963,9.345161,-2.3843622,0.23074472,9.345161,5100.2734;-2.2689898,0.30765963,9.345161,-1.8459578,0.69223416,9.460533,5100.2734;-2.2689898,0.30765963,9.345161,-2.3843622,0.53840435,9.498991,5100.2734;-2.2689898,0.30765963,9.345161,-2.3074472,0.61531925,9.114416,5133.828;-2.2689898,0.30765963,9.345161,-2.461277,0.4999469,9.152874,5133.828;-2.2689898,0.30765963,9.345161,-1.8844151,0.423032,9.152874,5133.828;-2.2689898,0.30765963,9.345161,-2.461277,0.69223416,8.729842,5133.828;-2.2689898,0.30765963,9.345161,-1.8844151,0.7306916,8.922129,5167.3823;-2.2689898,0.30765963,9.345161,-2.0767026,0.15382981,8.922129,5167.3823;-2.2689898,0.30765963,9.345161,-2.3843622,0.5768618,9.80665,5167.3823;-2.2689898,0.30765963,9.345161,-2.3074472,0.8076065,9.422076,5200.937;-2.2689898,0.30765963,9.345161,-2.5381918,0.61531925,9.229789,5200.937;-2.2689898,0.30765963,9.345161,-1.9997876,0.19228727,9.345161,5200.937;-2.2689898,0.30765963,9.345161,-2.3074472,0.26920217,8.922129,5234.491;-2.2689898,0.30765963,9.345161,-2.884309,0.26920217,9.114416,5234.491;-2.2689898,0.30765963,9.345161,-1.6536705,0.34611708,9.229789,5234.491;-2.2689898,0.30765963,9.345161,-2.6151068,-0.11537236,9.614364,5234.491;-2.2689898,0.30765963,9.345161,-1.8844151,0.07691491,9.691278,5268.046;-2.2689898,0.30765963,9.345161,-2.1536174,0.846064,9.268247,5268.046;-2.2689898,0.30765963,9.345161,-2.884309,0.30765963,9.383618,5268.046;-2.2689898,0.30765963,9.345161,-2.3074472,0.423032,9.306704,5301.6;-2.2689898,0.30765963,9.345161,-2.038245,0.423032,9.229789,5301.6;-2.2689898,0.30765963,9.345161,-2.2689898,0.423032,9.268247,5301.6;-2.2689898,0.30765963,9.345161,-2.0767026,0.19228727,9.422076,5335.155;-2.2689898,0.30765963,9.345161,-2.1920748,0.30765963,8.922129,5335.155;-2.2689898,0.30765963,9.345161,-2.6535642,0.038457453,9.80665,5335.155;-2.2689898,0.30765963,9.345161,-2.3074472,0.7306916,9.883566,5335.155;-2.2689898,0.30765963,9.345161,-1.7690428,0.07691491,9.191331,5368.709;-2.2689898,0.30765963,9.345161,-2.3843622,0.423032,9.229789,5368.709;-2.2689898,0.30765963,9.345161,-2.5766494,0.07691491,8.999044,5368.709;-2.2689898,0.30765963,9.345161,-2.1536174,0.07691491,8.999044,5402.2637;-2.2689898,0.30765963,9.345161,-2.1536174,0.53840435,8.768299,5402.2637;-2.2689898,0.30765963,9.345161,-2.7689366,0.7306916,8.806757,5402.2637;-2.2689898,0.30765963,9.345161,-2.4228196,0.19228727,9.537449,5402.2637;-2.2689898,0.30765963,9.345161,-2.2305322,0.76914907,9.768193,5435.818;-2.2689898,0.30765963,9.345161,-2.9996815,0.19228727,9.383618,5435.818;-2.2689898,0.30765963,9.345161,-1.9997876,0.30765963,9.652821,5435.818;-2.2689898,0.30765963,9.345161,-1.8844151,0.34611708,8.883672,5469.3726;-2.2689898,0.30765963,9.345161,-2.9227664,0.5768618,8.845214,5469.3726;-2.2689898,0.30765963,9.345161,-2.5381918,-0.038457453,9.152874,5469.3726;-2.2689898,0.30765963,9.345161,-2.3074472,0.11537236,8.960587,5502.927;-2.2689898,0.30765963,9.345161,-1.6536705,0.23074472,9.383618,5502.927;-2.2689898,0.30765963,9.345161,-2.7304792,0.96143633,9.422076,5502.927;-2.2689898,0.30765963,9.345161,-2.6535642,0.9998938,9.537449,5536.4814;-2.2689898,0.30765963,9.345161,-2.7304792,0.6537767,9.460533,5536.4814;-2.2689898,0.30765963,9.345161,-2.6535642,0.26920217,9.229789,5536.4814;-2.2689898,0.30765963,9.345161,-2.1920748,0.34611708,8.960587,5536.4814;-2.2689898,0.30765963,9.345161,-2.1536174,0.46148944,9.575906,5570.0356;-2.2689898,0.30765963,9.345161,-2.807394,0.038457453,9.345161,5570.0356;-2.2689898,0.30765963,9.345161,-2.807394,0.38457453,9.883566,5570.0356;-2.2689898,0.30765963,9.345161,-2.038245,0.19228727,9.191331,5603.5903;-2.2689898,0.30765963,9.345161,-2.884309,0.26920217,9.114416,5603.5903;-2.2689898,0.30765963,9.345161,-2.8458514,0.38457453,8.922129,5603.5903;-2.2689898,0.30765963,9.345161,-2.3459046,-0.07691491,9.306704,5603.5903;-2.2689898,0.30765963,9.345161,-2.3074472,0.30765963,8.922129,5637.1445;-2.2689898,0.30765963,9.345161,-2.4228196,-0.11537236,9.191331,5637.1445;-2.2689898,0.30765963,9.345161,-2.8458514,0.76914907,8.691384,5637.1445;-2.2689898,0.30765963,9.345161,-2.9612238,0.846064,9.422076,5670.699;-2.2689898,0.30765963,9.345161,-2.11516,0.15382981,9.768193,5670.699;-2.2689898,0.30765963,9.345161,-2.3459046,0.4999469,8.999044,5670.699;-2.2689898,0.30765963,9.345161,-2.6920218,0.69223416,9.729735,5704.2534;-2.2689898,0.30765963,9.345161,-2.4997344,0.30765963,9.306704,5704.2534;-2.2689898,0.30765963,9.345161,-2.11516,0.26920217,9.460533,5704.2534;-2.2689898,0.30765963,9.345161,-2.6151068,0.07691491,9.345161,5704.2534;-2.2689898,0.30765963,9.345161,-2.9612238,0.46148944,9.422076,5737.808;-2.2689898,0.30765963,9.345161,-2.7689366,0.46148944,9.922023,5737.808;-2.2689898,0.30765963,9.345161,-2.11516,0.19228727,9.960481,5737.808;-2.2689898,0.30765963,9.345161,-2.038245,0.53840435,9.383618,5771.3623;-2.2689898,0.30765963,9.345161,-2.3074472,0.07691491,9.80665,5771.3623;-2.2689898,0.30765963,9.345161,-2.4228196,0.15382981,9.075959,5771.3623;-2.2689898,0.30765963,9.345161,-2.3843622,-0.26920217,9.306704,5804.9165;-2.2689898,0.30765963,9.345161,-2.1920748,-0.11537236,9.075959,5804.9165;-2.2689898,0.30765963,9.345161,-2.2689898,0.38457453,9.922023,5804.9165;-2.2689898,0.30765963,9.345161,-2.5381918,0.4999469,9.922023,5804.9165;-2.2689898,0.30765963,9.345161,-2.884309,0.46148944,9.191331,5838.471;-2.2689898,0.30765963,9.345161,-2.7304792,0.34611708,9.152874,5838.471;-2.2689898,0.30765963,9.345161,-1.9997876,0.423032,9.922023,5838.471;-2.2689898,0.30765963,9.345161,-2.4997344,0.038457453,9.729735,5872.0254;-2.2689898,0.30765963,9.345161,-2.461277,0.61531925,8.960587,5872.0254;-2.2689898,0.30765963,9.345161,-2.038245,0.19228727,9.498991,5872.0254;-2.2689898,0.30765963,9.345161,-2.4997344,0.4999469,9.152874,5872.0254;-2.2689898,0.30765963,9.345161,-2.1536174,-0.11537236,9.498991,5905.58;-2.2689898,0.30765963,9.345161,-2.6151068,0.423032,9.729735,5905.58;-2.2689898,0.30765963,9.345161,-2.8458514,0.19228727,9.306704,5905.58;-2.2689898,0.30765963,9.345161,-2.4228196,0.038457453,9.422076,5939.1343;-2.2689898,0.30765963,9.345161,-2.038245,0.07691491,9.729735,5939.1343;-2.2689898,0.30765963,9.345161,-2.6151068,0.34611708,9.114416,5939.1343;-2.2689898,0.30765963,9.345161,-2.3074472,0.6537767,9.383618,5972.689;-2.2689898,0.30765963,9.345161,-2.6535642,-0.11537236,8.960587,5972.689;-2.2689898,0.30765963,9.345161,-2.6535642,0.19228727,9.306704,5972.689;-2.2689898,0.30765963,9.345161,-2.0767026,0.07691491,9.422076,5972.689;-2.2689898,0.30765963,9.345161,-2.2689898,0.69223416,9.268247,6006.243;-2.2689898,0.30765963,9.345161,-2.461277,0.11537236,9.422076,6006.243;-2.2689898,0.30765963,9.345161,-2.4228196,0.423032,9.229789,6006.243;-2.2689898,0.30765963,9.345161,-2.0767026,0.38457453,8.652927,6039.798;-2.2689898,0.30765963,9.345161,-1.6536705,-0.038457453,9.229789,6039.798;-2.2689898,0.30765963,9.345161,-2.3074472,0.19228727,9.345161,6039.798;-2.2689898,0.30765963,9.345161,-2.2305322,0.69223416,9.268247,6073.352;-2.2689898,0.30765963,9.345161,-2.0767026,0.46148944,9.229789,6073.352;-2.2689898,0.30765963,9.345161,-2.038245,0.34611708,8.960587,6073.352;-2.2689898,0.30765963,9.345161,-2.5381918,0.53840435,9.652821,6073.352;-2.2689898,0.30765963,9.345161,-2.2305322,0.11537236,8.999044,6106.9067;-2.2689898,0.30765963,9.345161,-2.3074472,0.07691491,9.306704,6106.9067;-2.2689898,0.30765963,9.345161,-2.461277,0.19228727,9.268247,6106.9067;-2.2689898,0.30765963,9.345161,-2.2689898,0.23074472,8.806757,6140.461;-2.2689898,0.30765963,9.345161,-2.6151068,0.53840435,9.306704,6140.461;-2.2689898,0.30765963,9.345161,-1.8075004,0.61531925,8.691384,6140.461;-2.2689898,0.30765963,9.345161,-2.6920218,0.53840435,9.498991,6174.0156;-2.2689898,0.30765963,9.345161,-2.0767026,0.61531925,9.345161,6174.0156;-2.2689898,0.30765963,9.345161,-2.461277,0.0,9.191331,6174.0156;-2.2689898,0.30765963,9.345161,-2.3843622,-0.038457453,8.960587,6174.0156;-2.2689898,0.30765963,9.345161,-2.3074472,0.4999469,8.999044,6207.57;-2.2689898,0.30765963,9.345161,-2.3074472,0.11537236,9.114416,6207.57;-2.2689898,0.30765963,9.345161,-2.4228196,0.53840435,9.845108,6207.57;-2.2689898,0.30765963,9.345161,-2.2689898,0.34611708,9.614364,6241.1245;-2.2689898,0.30765963,9.345161,-2.0767026,-0.19228727,9.729735,6241.1245;-2.2689898,0.30765963,9.345161,-2.6151068,0.46148944,9.306704,6241.1245;-2.2689898,0.30765963,9.345161,-2.11516,-0.038457453,8.845214,6274.6787;-2.2689898,0.30765963,9.345161,-2.6535642,0.038457453,9.537449,6274.6787;-2.2689898,0.30765963,9.345161,-1.9997876,0.23074472,9.268247,6274.6787;-2.2689898,0.30765963,9.345161,-1.615213,0.07691491,9.229789,6274.6787;-2.2689898,0.30765963,9.345161,-2.461277,0.53840435,9.075959,6308.2334;-2.2689898,0.30765963,9.345161,-2.6535642,0.15382981,9.422076,6308.2334;-2.2689898,0.30765963,9.345161,-1.9997876,0.8076065,9.268247,6308.2334;-2.2689898,0.30765963,9.345161,-2.5381918,0.07691491,9.383618,6341.7876;-2.2689898,0.30765963,9.345161,-2.2689898,0.46148944,9.114416,6341.7876;-2.2689898,0.30765963,9.345161,-2.4997344,0.19228727,8.883672,6341.7876;-2.2689898,0.30765963,9.345161,-2.3074472,0.46148944,9.460533,6375.3423;-2.2689898,0.30765963,9.345161,-2.11516,0.038457453,9.152874,6375.3423;-2.2689898,0.30765963,9.345161,-2.9227664,0.423032,9.498991,6375.3423;-2.2689898,0.30765963,9.345161,-2.6535642,0.038457453,9.422076,6375.3423;-2.2689898,0.30765963,9.345161,-2.3843622,0.15382981,9.383618,6408.8965;-2.2689898,0.30765963,9.345161,-2.3843622,0.0,9.460533,6408.8965;-2.2689898,0.30765963,9.345161,-2.2689898,0.23074472,9.191331,6408.8965;-2.2689898,0.30765963,9.345161,-2.4228196,0.30765963,9.114416,6442.451;-2.2689898,0.30765963,9.345161,-2.11516,0.38457453,9.152874,6442.451;-2.2689898,0.30765963,9.345161,-2.6535642,0.4999469,9.922023,6442.451;-2.2689898,0.30765963,9.345161,-2.7304792,-0.30765963,9.614364,6476.0054;-2.2689898,0.30765963,9.345161,-2.5381918,0.6537767,9.691278,6476.0054;-2.2689898,0.30765963,9.345161,-2.6151068,0.46148944,9.152874,6476.0054;-2.2689898,0.30765963,9.345161,-3.0381389,0.15382981,9.460533,6476.0054;-2.2689898,0.30765963,9.345161,-1.7690428,0.038457453,8.960587,6509.5596;-2.2689898,0.30765963,9.345161,-2.3843622,0.4999469,9.306704,6509.5596;-2.2689898,0.30765963,9.345161,-2.3843622,0.26920217,9.114416,6509.5596;-2.2689898,0.30765963,9.345161,-2.3074472,0.19228727,9.422076,6543.1143;-2.2689898,0.30765963,9.345161,-2.3074472,0.46148944,9.383618,6543.1143;-2.2689898,0.30765963,9.345161,-2.1536174,0.69223416,9.191331,6543.1143;-2.2689898,0.30765963,9.345161,-2.4228196,0.53840435,9.268247,6543.1143;-2.2689898,0.30765963,9.345161,-2.2689898,0.23074472,9.422076,6576.6685;-2.2689898,0.30765963,9.345161,-2.4997344,0.61531925,9.075959,6576.6685;-2.2689898,0.30765963,9.345161,-2.2689898,0.19228727,9.191331,6576.6685;-2.2689898,0.30765963,9.345161,-2.0767026,0.26920217,8.845214,6610.223;-2.2689898,0.30765963,9.345161,-2.2305322,0.5768618,9.498991,6610.223;-2.2689898,0.30765963,9.345161,-1.9997876,0.30765963,9.229789,6610.223;-2.2689898,0.30765963,9.345161,-2.4228196,0.53840435,9.537449,6643.7773;-2.2689898,0.30765963,9.345161,-2.3074472,0.30765963,9.614364,6643.7773;-2.2689898,0.30765963,9.345161,-2.4997344,0.423032,9.845108,6643.7773;-2.2689898,0.30765963,9.345161,-1.9997876,0.30765963,9.075959,6643.7773;-2.2689898,0.30765963,9.345161,-2.0767026,0.30765963,8.883672,6677.332;-2.2689898,0.30765963,9.345161,-2.3074472,0.423032,8.652927,6677.332;-2.2689898,0.30765963,9.345161,-2.1920748,0.846064,8.883672,6677.332;-2.2689898,0.30765963,9.345161,-1.9997876,0.34611708,9.768193,6710.886;-2.2689898,0.30765963,9.345161,-2.1920748,0.6537767,9.460533,6710.886;-2.2689898,0.30765963,9.345161,-2.3074472,0.69223416,8.61447,6710.886;-2.2689898,0.30765963,9.345161,-2.807394,0.38457453,9.422076,6744.441;-2.2689898,0.30765963,9.345161,-2.2689898,0.07691491,9.306704,6744.441;-2.2689898,0.30765963,9.345161,-2.3459046,0.26920217,9.345161,6744.441;-2.2689898,0.30765963,9.345161,-2.3843622,0.19228727,9.268247,6744.441;-2.2689898,0.30765963,9.345161,-2.1536174,0.34611708,8.845214,6777.995;-2.2689898,0.30765963,9.345161,-2.6151068,0.53840435,8.576012,6777.995;-2.2689898,0.30765963,9.345161,-2.4997344,0.423032,9.498991,6777.995;-2.2689898,0.30765963,9.345161,-2.2689898,0.61531925,9.652821,6811.55;-2.2689898,0.30765963,9.345161,-2.3843622,0.6537767,9.306704,6811.55;-2.2689898,0.30765963,9.345161,-2.6535642,0.0,8.576012,6811.55;-2.2689898,0.30765963,9.345161,-2.11516,0.4999469,9.306704,6845.104;-2.2689898,0.30765963,9.345161,-2.4997344,0.61531925,8.960587,6845.104;-2.2689898,0.30765963,9.345161,-2.2689898,0.846064,9.345161,6845.104;-2.2689898,0.30765963,9.345161,-1.9613302,0.0,9.537449,6845.104;-2.2689898,0.30765963,9.345161,-2.038245,0.423032,9.922023,6878.6587;-2.2689898,0.30765963,9.345161,-2.6920218,0.8076065,9.883566,6878.6587;-2.2689898,0.30765963,9.345161,-2.1536174,-0.38457453,9.498991,6878.6587;-2.2689898,0.30765963,9.345161,-2.3459046,0.423032,9.537449,6912.213;-2.2689898,0.30765963,9.345161,-2.8458514,0.4999469,9.383618,6912.213;-2.2689898,0.30765963,9.345161,-2.5766494,0.46148944,8.960587,6912.213;-2.2689898,0.30765963,9.345161,-1.7690428,0.07691491,9.345161,6912.213;-2.2689898,0.30765963,9.345161,-1.9997876,-0.15382981,8.922129,6945.7676;-2.2689898,0.30765963,9.345161,-2.2689898,0.96143633,8.845214,6945.7676;-2.2689898,0.30765963,9.345161,-2.2305322,0.34611708,9.614364,6945.7676;-2.2689898,0.30765963,9.345161,-1.9613302,0.9229789,8.652927,6979.322;-2.2689898,0.30765963,9.345161,-2.3843622,0.23074472,9.845108,6979.322;-2.2689898,0.30765963,9.345161,-2.1920748,0.423032,8.61447,6979.322;-2.2689898,0.30765963,9.345161,-2.1920748,0.07691491,9.306704,7012.8765;-2.2689898,0.30765963,9.345161,-1.9228727,0.038457453,9.345161,7012.8765;-2.2689898,0.30765963,9.345161,-2.3074472,0.19228727,9.345161,7012.8765;-2.2689898,0.30765963,9.345161,-2.3074472,0.423032,9.268247,7012.8765;-2.2689898,0.30765963,9.345161,-2.2689898,0.38457453,9.345161,7046.4307;-2.2689898,0.30765963,9.345161,-2.3459046,0.30765963,9.191331,7046.4307;-2.2689898,0.30765963,9.345161,-2.461277,0.46148944,9.768193,7079.9854;-2.2689898,0.30765963,9.345161,-2.4228196,0.38457453,9.114416,7079.9854;-2.2689898,0.30765963,9.345161,-2.4228196,-0.15382981,8.922129,7079.9854;-2.2689898,0.30765963,9.345161,-1.9997876,0.19228727,9.152874,7113.5396;-2.2689898,0.30765963,9.345161,-2.6920218,0.038457453,9.768193,7113.5396;-2.2689898,0.30765963,9.345161,-2.4228196,0.23074472,9.537449,7113.5396;-2.2689898,0.30765963,9.345161,-2.3843622,0.76914907,9.306704,7113.5396;-2.2689898,0.30765963,9.345161,-2.9227664,0.038457453,9.537449,7147.094;-2.2689898,0.30765963,9.345161,-2.7689366,0.38457453,9.345161,7147.094;-2.2689898,0.30765963,9.345161,-2.2689898,-0.30765963,9.345161,7147.094;-2.2689898,0.30765963,9.345161,-2.6535642,0.23074472,9.075959,7180.6484;-2.2689898,0.30765963,9.345161,-2.3459046,0.423032,9.498991,7180.6484;-2.2689898,0.30765963,9.345161,-2.3074472,0.038457453,9.306704,7180.6484;-2.2689898,0.30765963,9.345161,-2.6151068,-0.11537236,9.80665,7214.2026;-2.2689898,0.30765963,9.345161,-2.7689366,0.4999469,9.498991,7214.2026;-2.2689898,0.30765963,9.345161,-2.2689898,0.46148944,8.922129,7214.2026;-2.2689898,0.30765963,9.345161,-2.2305322,0.38457453,9.268247,7247.7573;-2.2689898,0.30765963,9.345161,-2.7689366,0.7306916,8.999044,7247.7573;-2.2689898,0.30765963,9.345161,-2.4997344,0.46148944,9.575906,7281.3115;-2.2689898,0.30765963,9.345161,-2.2305322,0.846064,9.345161,7281.3115;-2.2689898,0.30765963,9.345161,-2.6535642,0.15382981,9.383618,7281.3115;-2.2689898,0.30765963,9.345161,-2.4228196,0.038457453,8.652927,7314.866;-2.2689898,0.30765963,9.345161,-2.4997344,0.26920217,8.499097,7314.866;-2.2689898,0.30765963,9.345161,-2.2305322,0.423032,9.075959,7314.866;-2.2689898,0.30765963,9.345161,-2.5381918,0.0,9.498991,7314.866;-2.2689898,0.30765963,9.345161,-2.3843622,0.30765963,9.345161,7348.4204;-2.2689898,0.30765963,9.345161,-2.11516,0.53840435,9.460533,7348.4204;-2.2689898,0.30765963,9.345161,-2.1920748,0.846064,9.229789,7348.4204;-2.2689898,0.30765963,9.345161,-2.3459046,0.07691491,9.306704,7381.975;-2.2689898,0.30765963,9.345161,-2.2689898,1.1152661,9.422076,7381.975;-2.2689898,0.30765963,9.345161,-2.6151068,1.2690959,9.229789,7381.975;-2.2689898,0.30765963,9.345161,-2.4997344,0.46148944,9.306704,7381.975;-2.2689898,0.30765963,9.345161,-2.884309,0.34611708,9.422076,7415.5293;-2.2689898,0.30765963,9.345161,-2.4997344,0.19228727,8.999044,7415.5293;-2.2689898,0.30765963,9.345161,-2.6151068,0.38457453,9.383618,7415.5293;-2.2689898,0.30765963,9.345161,-2.3459046,0.423032,9.652821,7449.084;-2.2689898,0.30765963,9.345161,-2.7304792,0.46148944,9.383618,7449.084;-2.2689898,0.30765963,9.345161,-2.4997344,0.15382981,9.075959,7449.084;-2.2689898,0.30765963,9.345161,-2.6920218,0.69223416,9.037501,7482.638;-2.2689898,0.30765963,9.345161,-2.3459046,0.30765963,8.922129,7482.638;-2.2689898,0.30765963,9.345161,-2.5381918,0.46148944,9.037501,7482.638;-2.2689898,0.30765963,9.345161,-2.4228196,0.4999469,9.306704,7482.638;-2.2689898,0.30765963,9.345161,-1.9613302,-0.07691491,9.460533,7516.193;-2.2689898,0.30765963,9.345161,-2.4228196,0.53840435,9.80665,7516.193;-2.2689898,0.30765963,9.345161,-2.461277,0.846064,9.614364,7516.193;-2.2689898,0.30765963,9.345161,-2.6920218,0.30765963,9.268247,7549.747;-2.2689898,0.30765963,9.345161,-2.4997344,0.038457453,8.729842,7549.747;-2.2689898,0.30765963,9.345161,-2.8458514,0.34611708,9.652821,7549.747;-2.2689898,0.30765963,9.345161,-2.7689366,0.5768618,9.037501,7583.302;-2.2689898,0.30765963,9.345161,-2.6151068,0.6537767,9.422076,7583.302;-2.2689898,0.30765963,9.345161,-2.2689898,0.8076065,9.729735,7583.302;-2.2689898,0.30765963,9.345161,-2.4228196,0.423032,9.345161,7583.302;-2.2689898,0.30765963,9.345161,-2.4228196,0.53840435,9.80665,7616.856;-2.2689898,0.30765963,9.345161,-2.2305322,0.26920217,9.691278,7616.856;-2.2689898,0.30765963,9.345161,-2.461277,0.423032,9.268247,7616.856;-2.2689898,0.30765963,9.345161,-2.0767026,-0.07691491,8.883672,7650.4106;-2.2689898,0.30765963,9.345161,-2.3459046,0.30765963,9.383618,7650.4106;-2.2689898,0.30765963,9.345161,-2.2305322,0.19228727,9.498991,7650.4106;-2.2689898,0.30765963,9.345161,-2.3459046,0.23074472,8.999044,7683.965;-2.2689898,0.30765963,9.345161,-2.1536174,0.7306916,9.460533,7683.965;-2.2689898,0.30765963,9.345161,-2.0767026,0.423032,9.306704,7683.965;-2.2689898,0.30765963,9.345161,-2.3074472,0.4999469,8.922129,7683.965;-2.2689898,0.30765963,9.345161,-2.2689898,0.76914907,9.152874,7717.5195;-2.2689898,0.30765963,9.345161,-2.1536174,0.34611708,9.114416,7717.5195;-2.2689898,0.30765963,9.345161,-2.461277,0.4999469,9.383618,7717.5195;-2.2689898,0.30765963,9.345161,-1.7690428,0.61531925,9.268247,7751.0737;-2.2689898,0.30765963,9.345161,-2.884309,0.23074472,9.883566,7751.0737;-2.2689898,0.30765963,9.345161,-2.5766494,0.96143633,9.422076,7751.0737;-2.2689898,0.30765963,9.345161,-1.8844151,0.38457453,9.537449,7784.6284;-2.2689898,0.30765963,9.345161,-2.11516,0.38457453,9.152874,7784.6284;-2.2689898,0.30765963,9.345161,-2.807394,0.34611708,8.768299,7784.6284;-2.2689898,0.30765963,9.345161,-2.7689366,0.19228727,8.999044,7784.6284;-2.2689898,0.30765963,9.345161,-2.5766494,0.46148944,9.345161,7818.1826;-2.2689898,0.30765963,9.345161,-2.038245,0.15382981,9.422076,7818.1826;-2.2689898,0.30765963,9.345161,-2.11516,0.038457453,9.537449,7818.1826;-2.2689898,0.30765963,9.345161,-2.4997344,-0.11537236,9.614364,7851.7373;-2.2689898,0.30765963,9.345161,-1.8075004,0.038457453,9.691278,7851.7373;-2.2689898,0.30765963,9.345161,-2.3074472,0.61531925,9.075959,7851.7373;-2.2689898,0.30765963,9.345161,-2.5766494,0.26920217,9.575906,7885.2915;-2.2689898,0.30765963,9.345161,-2.6151068,0.423032,9.229789,7885.2915;-2.2689898,0.30765963,9.345161,-2.2689898,0.4999469,8.922129,7885.2915;-2.2689898,0.30765963,9.345161,-2.5766494,0.5768618,9.383618,7885.2915;-2.2689898,0.30765963,9.345161,-1.8844151,0.38457453,9.537449,7918.846;-2.2689898,0.30765963,9.345161,-2.3843622,0.19228727,9.845108,7918.846;-2.2689898,0.30765963,9.345161,-2.0767026,0.53840435,9.845108,7918.846;-2.2689898,0.30765963,9.345161,-2.5381918,0.4999469,9.152874,7952.4004;-2.2689898,0.30765963,9.345161,-2.3459046,0.53840435,9.614364,7952.4004;-2.2689898,0.30765963,9.345161,-2.038245,0.5768618,9.422076,7952.4004;-2.2689898,0.30765963,9.345161,-2.461277,0.15382981,8.960587,7952.4004;-2.2689898,0.30765963,9.345161,-2.6920218,0.53840435,9.037501,7985.9546;-2.2689898,0.30765963,9.345161,-2.2305322,0.38457453,9.575906,7985.9546;-2.2689898,0.30765963,9.345161,-1.9228727,0.46148944,9.998938,7985.9546;-2.2689898,0.30765963,9.345161,-2.7304792,0.0,9.268247,8019.5093;-2.2689898,0.30765963,9.345161,-2.3074472,0.38457453,9.729735,8019.5093;-2.2689898,0.30765963,9.345161,-2.7304792,0.34611708,9.383618,8019.5093;-2.2689898,0.30765963,9.345161,-2.461277,-0.23074472,8.768299,8053.0635;-2.2689898,0.30765963,9.345161,-2.5381918,-0.11537236,9.075959,8053.0635;-2.2689898,0.30765963,9.345161,-2.461277,0.96143633,9.383618,8053.0635;-2.2689898,0.30765963,9.345161,-2.461277,0.4999469,9.422076,8053.0635;-2.2689898,0.30765963,9.345161,-2.5766494,0.0,9.422076,8086.618;-2.2689898,0.30765963,9.345161,-2.3074472,0.5768618,9.80665,8086.618;-2.2689898,0.30765963,9.345161,-2.6920218,0.423032,9.191331,8086.618;-2.2689898,0.30765963,9.345161,-2.3074472,0.15382981,9.075959,8120.1724;-2.2689898,0.30765963,9.345161,-2.4997344,0.26920217,8.960587,8120.1724;-2.2689898,0.30765963,9.345161,-2.3074472,1.0383513,9.383618,8120.1724;-2.2689898,0.30765963,9.345161,-2.9612238,-0.15382981,9.306704,8153.727;-2.2689898,0.30765963,9.345161,-2.807394,0.15382981,10.0373955,8153.727;-2.2689898,0.30765963,9.345161,-2.6535642,0.23074472,9.575906,8153.727;-2.2689898,0.30765963,9.345161,-2.5381918,0.30765963,9.537449,8153.727;-2.2689898,0.30765963,9.345161,-2.3843622,0.46148944,9.345161,8187.2813;-2.2689898,0.30765963,9.345161,-2.6535642,-0.038457453,9.345161,8187.2813;-2.2689898,0.30765963,9.345161,-1.8459578,0.15382981,8.960587,8187.2813;-2.2689898,0.30765963,9.345161,-2.2689898,0.23074472,9.268247,8220.836;-2.2689898,0.30765963,9.345161,-2.461277,-0.038457453,9.229789,8220.836;-2.2689898,0.30765963,9.345161,-2.461277,0.15382981,9.80665,8220.836;-2.2689898,0.30765963,9.345161,-2.2305322,0.38457453,9.191331,8254.391;-2.2689898,0.30765963,9.345161,-2.6920218,0.11537236,9.383618,8254.391;-2.2689898,0.30765963,9.345161,-2.4997344,0.11537236,9.460533,8254.391;-2.2689898,0.30765963,9.345161,-2.3459046,0.34611708,9.191331,8254.391;-2.2689898,0.30765963,9.345161,-2.2689898,-0.07691491,9.498991,8287.944;-2.2689898,0.30765963,9.345161,-1.8459578,0.26920217,8.883672,8287.944;-2.2689898,0.30765963,9.345161,-2.2305322,0.038457453,9.614364,8287.944;-2.2689898,0.30765963,9.345161,-2.6535642,0.5768618,9.345161,8321.499;-2.2689898,0.30765963,9.345161,-2.3459046,0.423032,8.922129,8321.499;-2.2689898,0.30765963,9.345161,-2.461277,0.4999469,10.075852,8321.499;-2.2689898,0.30765963,9.345161,-2.6151068,0.30765963,9.268247,8355.054;-2.2689898,0.30765963,9.345161,-2.0767026,0.23074472,9.345161,8355.054;-2.2689898,0.30765963,9.345161,-1.9228727,0.8845214,9.498991,8355.054;-2.2689898,0.30765963,9.345161,-2.3843622,0.4999469,8.960587,8355.054;-2.2689898,0.30765963,9.345161,-2.11516,0.15382981,9.345161,8388.608;-2.2689898,0.30765963,9.345161,-2.461277,-0.11537236,9.460533,8388.608;-2.2689898,0.30765963,9.345161,-2.6920218,0.5768618,9.537449,8388.608;-2.2689898,0.30765963,9.345161,-2.11516,0.038457453,9.498991,8422.162;-2.2689898,0.30765963,9.345161,-2.2689898,0.53840435,9.345161,8422.162;-2.2689898,0.30765963,9.345161,-2.6920218,0.8076065,9.229789,8422.162;-2.2689898,0.30765963,9.345161,-2.6920218,0.26920217,9.037501,8455.717;-2.2689898,0.30765963,9.345161,-1.9997876,0.5768618,8.845214,8455.717;-2.2689898,0.30765963,9.345161,-2.038245,0.423032,9.229789,8455.717;-2.2689898,0.30765963,9.345161,-2.3843622,0.30765963,9.537449,8455.717;-2.2689898,0.30765963,9.345161,-2.2305322,0.0,9.422076,8489.271;-2.2689898,0.30765963,9.345161,-2.5766494,0.4999469,9.345161,8489.271;-2.2689898,0.30765963,9.345161,-2.7304792,0.19228727,9.037501,8489.271;-2.2689898,0.30765963,9.345161,-2.6920218,0.53840435,9.037501,8522.826;-2.2689898,0.30765963,9.345161,-2.5381918,0.53840435,8.806757,8522.826;-2.2689898,0.30765963,9.345161,-2.5766494,0.26920217,9.152874,8522.826;-2.2689898,0.30765963,9.345161,-2.3074472,0.23074472,9.537449,8522.826;-2.2689898,0.30765963,9.345161,-2.3843622,0.15382981,9.075959,8556.38;-2.2689898,0.30765963,9.345161,-2.1536174,0.15382981,9.229789,8556.38;-2.2689898,0.30765963,9.345161,-2.461277,0.46148944,9.422076,8556.38;-2.2689898,0.30765963,9.345161,-1.9997876,0.53840435,9.422076,8589.935;-2.2689898,0.30765963,9.345161,-1.5382981,0.6537767,9.268247,8589.935;-2.2689898,0.30765963,9.345161,-2.3459046,-0.11537236,8.883672,8589.935;-2.2689898,0.30765963,9.345161,-2.3843622,0.61531925,8.691384,8623.489;-2.2689898,0.30765963,9.345161,-2.807394,0.38457453,9.306704,8623.489;-2.2689898,0.30765963,9.345161,-2.0767026,0.423032,9.883566,8623.489;-2.2689898,0.30765963,9.345161,-2.2689898,0.26920217,9.614364,8623.489;-2.2689898,0.30765963,9.345161,-2.461277,0.30765963,9.383618,8657.043;-2.2689898,0.30765963,9.345161,-2.5381918,0.34611708,9.614364,8657.043;-2.2689898,0.30765963,9.345161,-2.3843622,0.53840435,9.652821,8657.043;-2.2689898,0.30765963,9.345161,-2.2305322,0.0,9.306704,8690.598;-2.2689898,0.30765963,9.345161,-2.3843622,0.30765963,9.345161,8690.598;-2.2689898,0.30765963,9.345161,-1.6536705,0.53840435,9.498991,8690.598;-2.2689898,0.30765963,9.345161,-2.1920748,0.23074472,9.575906,8724.152;-2.2689898,0.30765963,9.345161,-2.1536174,0.26920217,9.729735,8724.152;-2.2689898,0.30765963,9.345161,-2.5766494,-0.34611708,9.229789,8724.152;-2.2689898,0.30765963,9.345161,-2.2689898,0.34611708,9.075959,8724.152;-2.2689898,0.30765963,9.345161,-2.3074472,0.23074472,9.037501,8757.707;-2.2689898,0.30765963,9.345161,-2.3459046,0.34611708,9.037501,8757.707;-2.2689898,0.30765963,9.345161,-2.5381918,0.46148944,9.152874,8757.707;-2.2689898,0.30765963,9.345161,-2.3074472,0.5768618,9.229789,8791.261;-2.2689898,0.30765963,9.345161,-1.9613302,-0.15382981,9.383618,8791.261;-2.2689898,0.30765963,9.345161,-2.3074472,0.23074472,9.345161,8791.261;-2.2689898,0.30765963,9.345161,-2.807394,0.46148944,9.345161,8824.815;-2.2689898,0.30765963,9.345161,-1.8459578,0.9998938,9.498991,8824.815;-2.2689898,0.30765963,9.345161,-2.461277,0.46148944,9.075959,8824.815;-2.2689898,0.30765963,9.345161,-2.9996815,0.38457453,9.345161,8824.815;-2.2689898,0.30765963,9.345161,-2.6151068,0.11537236,9.191331,8858.37;-2.2689898,0.30765963,9.345161,-2.1536174,-0.11537236,9.768193,8858.37;-2.2689898,0.30765963,9.345161,-2.5381918,0.46148944,9.729735,8858.37;-2.2689898,0.30765963,9.345161,-1.9613302,0.46148944,9.114416,8891.925;-2.2689898,0.30765963,9.345161,-2.3074472,0.34611708,10.11431,8891.925;-2.2689898,0.30765963,9.345161,-2.3459046,0.34611708,9.652821,8891.925;-2.2689898,0.30765963,9.345161,-2.6151068,0.26920217,9.306704,8891.925;-2.2689898,0.30765963,9.345161,-2.9996815,0.69223416,8.729842,8925.479;-2.2689898,0.30765963,9.345161,-2.11516,0.15382981,8.922129,8925.479;-2.2689898,0.30765963,9.345161,-2.0767026,0.4999469,9.537449,8925.479;-2.2689898,0.30765963,9.345161,-2.2305322,0.5768618,9.460533,8959.033;-2.2689898,0.30765963,9.345161,-1.9228727,0.07691491,9.345161,8959.033;-2.2689898,0.30765963,9.345161,-2.884309,0.423032,9.422076,8959.033;-2.2689898,0.30765963,9.345161,-2.4997344,0.9229789,10.075852,8992.588;-2.2689898,0.30765963,9.345161,-2.461277,0.61531925,9.075959,8992.588;-2.2689898,0.30765963,9.345161,-2.7689366,0.4999469,9.075959,8992.588;-2.2689898,0.30765963,9.345161,-2.4228196,0.30765963,9.075959,8992.588;-2.2689898,0.30765963,9.345161,-2.3459046,0.76914907,9.537449,9026.143;-2.2689898,0.30765963,9.345161,-1.9997876,0.23074472,9.345161,9026.143;-2.2689898,0.30765963,9.345161,-3.1150537,0.8845214,9.422076,9026.143;-2.2689898,0.30765963,9.345161,-2.6920218,0.038457453,9.498991,9059.696;-2.2689898,0.30765963,9.345161,-2.11516,0.15382981,9.998938,9059.696;-2.2689898,0.30765963,9.345161,-2.1920748,0.46148944,9.268247,9059.696;-2.2689898,0.30765963,9.345161,-2.3843622,0.46148944,9.229789,9093.251;-2.2689898,0.30765963,9.345161,-2.4228196,0.0,9.268247,9093.251;-2.2689898,0.30765963,9.345161,-1.8844151,0.61531925,9.037501,9093.251;-2.2689898,0.30765963,9.345161,-1.8844151,0.423032,8.883672,9093.251;-2.2689898,0.30765963,9.345161,-2.6151068,-0.423032,9.575906,9126.806;-2.2689898,0.30765963,9.345161,-2.038245,0.30765963,9.575906,9126.806;-2.2689898,0.30765963,9.345161,-2.3843622,0.38457453,9.614364,9126.806;-2.2689898,0.30765963,9.345161,-2.4997344,0.11537236,9.383618,9160.36;-2.2689898,0.30765963,9.345161,-2.4228196,0.11537236,8.806757,9160.36;-2.2689898,0.30765963,9.345161,-2.461277,0.46148944,9.075959,9160.36;-2.2689898,0.30765963,9.345161,-2.1536174,0.7306916,9.80665,9193.914;-2.2689898,0.30765963,9.345161,-2.038245,0.26920217,9.229789,9193.914;-2.2689898,0.30765963,9.345161,-2.4228196,0.4999469,8.999044,9193.914;-2.2689898,0.30765963,9.345161,-2.461277,0.46148944,9.652821,9193.914;-2.2689898,0.30765963,9.345161,-2.5381918,0.07691491,9.575906,9227.469;-2.2689898,0.30765963,9.345161,-2.3074472,0.19228727,9.114416,9227.469;-2.2689898,0.30765963,9.345161,-1.9997876,0.423032,9.114416,9227.469;-2.2689898,0.30765963,9.345161,-2.4228196,0.4999469,9.229789,9261.023;-2.2689898,0.30765963,9.345161,-2.7689366,0.0,9.306704,9261.023;-2.2689898,0.30765963,9.345161,-2.038245,0.423032,9.498991,9261.023;-2.2689898,0.30765963,9.345161,-2.2305322,0.23074472,9.422076,9294.578;-2.2689898,0.30765963,9.345161,-1.9613302,0.53840435,9.498991,9294.578;-2.2689898,0.30765963,9.345161,-2.1920748,0.9229789,9.498991,9294.578;-2.2689898,0.30765963,9.345161,-2.807394,0.423032,9.460533,9294.578;-2.2689898,0.30765963,9.345161,-1.9228727,0.11537236,9.460533,9328.132;-2.2689898,0.30765963,9.345161,-2.3459046,0.07691491,9.268247,9328.132;-2.2689898,0.30765963,9.345161,-1.9228727,0.34611708,9.268247,9328.132;-2.2689898,0.30765963,9.345161,-2.3843622,0.34611708,9.114416,9361.687;-2.2689898,0.30765963,9.345161,-2.5381918,0.76914907,9.729735,9361.687;-2.2689898,0.30765963,9.345161,-2.4997344,0.26920217,9.614364,9361.687;-2.2689898,0.30765963,9.345161,-2.461277,0.38457453,9.268247,9395.241;-2.2689898,0.30765963,9.345161,-2.3843622,0.61531925,9.345161,9395.241;-2.2689898,0.30765963,9.345161,-2.3074472,0.11537236,8.883672,9395.241;-2.2689898,0.30765963,9.345161,-1.9613302,0.038457453,8.883672,9395.241;-2.2689898,0.30765963,9.345161,-2.5381918,-0.038457453,9.345161,9428.795;-2.2689898,0.30765963,9.345161,-2.5381918,0.4999469,9.229789,9428.795;-2.2689898,0.30765963,9.345161,-2.461277,0.30765963,9.229789,9428.795;-2.2689898,0.30765963,9.345161,-2.3843622,0.46148944,9.537449,9462.35;-2.2689898,0.30765963,9.345161,-1.9997876,0.61531925,9.729735,9462.35;-2.2689898,0.30765963,9.345161,-1.9997876,0.9229789,9.575906,9462.35;-2.2689898,0.30765963,9.345161,-2.6151068,0.69223416,8.845214,9462.35;-2.2689898,0.30765963,9.345161,-2.4997344,0.15382981,9.152874,9495.904;-2.2689898,0.30765963,9.345161,-2.2689898,0.4999469,8.652927,9495.904;-2.2689898,0.30765963,9.345161,-2.2689898,0.4999469,9.383618,9495.904;-2.2689898,0.30765963,9.345161,-2.461277,-0.11537236,9.460533,9529.459;-2.2689898,0.30765963,9.345161,-2.3459046,0.38457453,9.422076,9529.459;-2.2689898,0.30765963,9.345161,-2.4997344,0.423032,9.306704,9529.459;-2.2689898,0.30765963,9.345161,-2.038245,-0.11537236,9.191331,9563.013;-2.2689898,0.30765963,9.345161,-2.4997344,0.15382981,9.229789,9563.013;-2.2689898,0.30765963,9.345161,-2.1536174,-0.26920217,9.614364,9563.013;-2.2689898,0.30765963,9.345161,-2.1536174,0.4999469,9.268247,9563.013;-2.2689898,0.30765963,9.345161,-2.2305322,0.23074472,9.614364,9596.567;-2.2689898,0.30765963,9.345161,-2.2305322,0.30765963,8.960587,9596.567;-2.2689898,0.30765963,9.345161,-2.1536174,-0.038457453,9.729735,9596.567;-2.2689898,0.30765963,9.345161,-2.2305322,0.11537236,9.498991,9630.122;-2.2689898,0.30765963,9.345161,-2.6535642,0.11537236,9.306704,9630.122;-2.2689898,0.30765963,9.345161,-1.8844151,0.34611708,9.422076,9630.122;-2.2689898,0.30765963,9.345161,-2.3074472,0.69223416,9.229789,9663.677;-2.2689898,0.30765963,9.345161,-2.4997344,-0.15382981,9.114416,9663.677;-2.2689898,0.30765963,9.345161,-2.3843622,-0.07691491,9.691278,9663.677;-2.2689898,0.30765963,9.345161,-2.6920218,0.15382981,9.498991,9663.677;-2.2689898,0.30765963,9.345161,-2.1920748,0.46148944,9.498991,9697.23;-2.2689898,0.30765963,9.345161,-2.5381918,0.423032,9.152874,9697.23;-2.2689898,0.30765963,9.345161,-2.6151068,0.4999469,9.652821,9697.23;-2.2689898,0.30765963,9.345161,-2.6920218,0.30765963,9.191331,9730.785;-2.2689898,0.30765963,9.345161,-2.5766494,0.11537236,9.306704,9730.785;-2.2689898,0.30765963,9.345161,-3.153511,0.53840435,9.075959,9730.785;-2.2689898,0.30765963,9.345161,-1.9997876,-0.07691491,9.575906,9764.34;-2.2689898,0.30765963,9.345161,-2.884309,0.53840435,9.075959,9764.34;-2.2689898,0.30765963,9.345161,-2.0767026,0.19228727,9.306704,9764.34;-2.2689898,0.30765963,9.345161,-2.2305322,0.46148944,9.229789,9764.34;-2.2689898,0.30765963,9.345161,-2.4228196,0.46148944,9.306704,9797.895;-2.2689898,0.30765963,9.345161,-2.3074472,0.6537767,9.306704,9797.895;-2.2689898,0.30765963,9.345161,-2.0767026,0.07691491,8.960587,9797.895;-2.2689898,0.30765963,9.345161,-2.2305322,0.15382981,9.614364,9831.448;-2.2689898,0.30765963,9.345161,-2.5766494,0.23074472,9.268247,9831.448;-2.2689898,0.30765963,9.345161,-1.9613302,-0.5768618,9.075959,9831.448;-2.2689898,0.30765963,9.345161,-2.1920748,0.8845214,9.306704,9865.003;-2.2689898,0.30765963,9.345161,-2.6535642,0.8076065,9.114416,9865.003;-2.2689898,0.30765963,9.345161,-2.2689898,0.423032,9.229789,9865.003;-2.2689898,0.30765963,9.345161,-2.6535642,0.038457453,9.575906,9865.003;-2.2689898,0.30765963,9.345161,-1.9997876,0.15382981,8.883672,9898.558;-2.2689898,0.30765963,9.345161,-2.2689898,0.26920217,8.845214,9898.558;-2.2689898,0.30765963,9.345161,-2.3074472,0.23074472,9.922023,9898.558;-2.2689898,0.30765963,9.345161,-2.2305322,0.38457453,9.191331,9932.112;-2.2689898,0.30765963,9.345161,-2.4228196,0.5768618,9.614364,9932.112;-2.2689898,0.30765963,9.345161,-2.461277,0.846064,9.191331,9932.112;-2.2689898,0.30765963,9.345161,-2.1920748,-0.30765963,8.999044,9932.112;-2.2689898,0.30765963,9.345161,-2.11516,0.11537236,9.306704,9965.666;-2.2689898,0.30765963,9.345161,-2.1920748,0.38457453,9.037501,9965.666;-2.2689898,0.30765963,9.345161,-2.1536174,0.38457453,9.498991,9965.666;-2.2689898,0.30765963,9.345161,-2.4228196,0.46148944,9.268247,9999.221;-2.2689898,0.30765963,9.345161,-2.6920218,0.423032,9.345161,9999.221;-2.2689898,0.30765963,9.345161,-2.807394,0.19228727,9.422076,9999.221;-2.2689898,0.30765963,9.345161,-2.5381918,0.15382981,9.768193,10032.775;-2.2689898,0.30765963,9.345161,-2.3843622,0.61531925,9.691278,10032.775;-2.2689898,0.30765963,9.345161,-2.461277,0.11537236,9.345161,10032.775;-2.2689898,0.30765963,9.345161,-2.6151068,0.30765963,9.537449,10032.775;-2.2689898,0.30765963,9.345161,-1.9997876,0.23074472,9.306704,10066.33;-2.2689898,0.30765963,9.345161,-2.461277,0.26920217,9.075959,10066.33;-2.2689898,0.30765963,9.345161,-2.3459046,0.38457453,9.075959,10066.33;-2.2689898,0.30765963,9.345161,-1.9613302,0.4999469,9.383618,10099.884;-2.2689898,0.30765963,9.345161,-2.4228196,0.19228727,9.614364,10099.884;-2.2689898,0.30765963,9.345161,-2.3459046,0.15382981,9.152874,10099.884;-2.2689898,0.30765963,9.345161,-2.5381918,0.19228727,9.114416,10133.438;-2.2689898,0.30765963,9.345161,-2.4228196,0.423032,9.306704,10133.438;-2.2689898,0.30765963,9.345161,-2.2305322,0.15382981,9.229789,10133.438;-2.2689898,0.30765963,9.345161,-2.6151068,0.5768618,9.229789,10133.438;-2.2689898,0.30765963,9.345161,-2.3074472,0.23074472,9.075959,10166.993;-2.2689898,0.30765963,9.345161,-2.4228196,0.19228727,8.883672,10166.993;-2.2689898,0.30765963,9.345161,-2.5381918,0.0,9.614364,10166.993;-2.2689898,0.30765963,9.345161,-2.4228196,0.423032,9.229789,10200.547;-2.2689898,0.30765963,9.345161,-2.0767026,0.69223416,8.922129,10200.547;-2.2689898,0.30765963,9.345161,-2.11516,0.038457453,8.999044,10200.547;-2.2689898,0.30765963,9.345161,-2.4228196,0.96143633,9.037501,10234.102;-2.2689898,0.30765963,9.345161,-2.1920748,0.38457453,9.768193,10234.102;-2.2689898,0.30765963,9.345161,-2.1536174,0.038457453,8.883672,10234.102;-2.2689898,0.30765963,9.345161,-2.0767026,0.38457453,9.345161,10234.102;-2.2689898,0.30765963,9.345161,-2.4997344,0.76914907,9.383618,10267.656;-2.2689898,0.30765963,9.345161,-2.0767026,0.34611708,9.537449,10267.656;-2.2689898,0.30765963,9.345161,-2.038245,-0.07691491,8.960587,10267.656;-2.2689898,0.30765963,9.345161,-2.8458514,-0.07691491,9.152874,10301.211;-2.2689898,0.30765963,9.345161,-2.4997344,-0.11537236,9.152874,10301.211;-2.2689898,0.30765963,9.345161,-2.1536174,0.19228727,9.768193,10301.211;-2.2689898,0.30765963,9.345161,-2.6535642,0.19228727,9.152874,10334.765;-2.2689898,0.30765963,9.345161,-2.1536174,0.61531925,9.575906,10334.765;-2.2689898,0.30765963,9.345161,-2.3843622,0.26920217,9.652821,10334.765;-2.2689898,0.30765963,9.345161,-2.3843622,0.23074472,8.729842,10334.765;-2.2689898,0.30765963,9.345161,-2.1920748,0.34611708,9.498991,10368.319;-2.2689898,0.30765963,9.345161,-1.9613302,0.4999469,9.422076,10368.319;-2.2689898,0.30765963,9.345161,-1.9997876,1.1921811,9.114416,10401.874;-2.2689898,0.30765963,9.345161,-2.1536174,0.69223416,9.229789,10401.874;-2.2689898,0.30765963,9.345161,-2.6151068,0.30765963,9.422076,10401.874;-2.2689898,0.30765963,9.345161,-2.038245,0.6537767,9.652821,10401.874;-2.2689898,0.30765963,9.345161,-2.8458514,-0.07691491,9.575906,10435.429;-2.2689898,0.30765963,9.345161,-2.3074472,-0.26920217,9.037501,10435.429;-2.2689898,0.30765963,9.345161,-2.5381918,0.5768618,8.883672,10435.429;-2.2689898,0.30765963,9.345161,-2.2305322,0.23074472,9.191331,10468.982;-2.2689898,0.30765963,9.345161,-2.4228196,0.38457453,9.345161,10468.982;-2.2689898,0.30765963,9.345161,-2.4228196,0.7306916,9.345161,10468.982;-2.2689898,0.30765963,9.345161,-2.5766494,0.07691491,9.075959,10502.537;-2.2689898,0.30765963,9.345161,-2.6920218,0.07691491,9.422076,10502.537;-2.2689898,0.30765963,9.345161,-2.9227664,0.07691491,9.729735,10502.537;-2.2689898,0.30765963,9.345161,-1.9613302,0.76914907,8.999044,10502.537;-2.2689898,0.30765963,9.345161,-2.1536174,0.26920217,9.037501,10536.092;-2.2689898,0.30765963,9.345161,-2.1536174,0.6537767,8.960587,10536.092;-2.2689898,0.30765963,9.345161,-2.2305322,-0.07691491,9.075959,10536.092;-2.2689898,0.30765963,9.345161,-2.3843622,0.38457453,9.422076,10569.646;-2.2689898,0.30765963,9.345161,-2.7689366,0.6537767,9.229789,10569.646;-2.2689898,0.30765963,9.345161,-2.0767026,0.15382981,9.729735,10569.646;-2.2689898,0.30765963,9.345161,-2.2689898,0.30765963,9.729735,10603.2;-2.2689898,0.30765963,9.345161,-2.1920748,0.15382981,9.614364,10603.2;-2.2689898,0.30765963,9.345161,-2.3843622,0.07691491,9.075959,10603.2;-2.2689898,0.30765963,9.345161,-2.2305322,0.30765963,9.229789,10603.2;-2.2689898,0.30765963,9.345161,-1.7690428,0.8845214,8.960587,10636.755;-2.2689898,0.30765963,9.345161,-2.6151068,0.07691491,9.691278,10636.755;-2.2689898,0.30765963,9.345161,-2.4997344,0.7306916,9.498991,10636.755;-2.2689898,0.30765963,9.345161,-2.3074472,0.07691491,9.229789,10670.31;-2.2689898,0.30765963,9.345161,-2.9612238,0.30765963,9.229789,10670.31;-2.2689898,0.30765963,9.345161,-2.9996815,0.38457453,9.652821,10670.31;-2.2689898,0.30765963,9.345161,-2.3074472,0.15382981,8.922129,10703.864;-2.2689898,0.30765963,9.345161,-2.2305322,0.11537236,9.345161,10703.864;-2.2689898,0.30765963,9.345161,-2.3843622,0.7306916,9.114416,10703.864;-2.2689898,0.30765963,9.345161,-1.615213,0.11537236,9.306704,10703.864;-2.2689898,0.30765963,9.345161,-2.2305322,0.6537767,9.268247,10737.418;-2.2689898,0.30765963,9.345161,-2.4228196,0.5768618,9.652821,10737.418;-2.2689898,0.30765963,9.345161,-2.2305322,0.26920217,9.152874,10737.418;-2.2689898,0.30765963,9.345161,-1.6536705,0.53840435,9.460533,10770.973;-2.2689898,0.30765963,9.345161,-2.4997344,0.34611708,9.691278,10770.973;-2.2689898,0.30765963,9.345161,-2.3074472,0.07691491,9.460533,10770.973;-2.2689898,0.30765963,9.345161,-2.6920218,0.19228727,9.114416,10804.527;-2.2689898,0.30765963,9.345161,-2.4228196,0.46148944,9.575906,10804.527;-2.2689898,0.30765963,9.345161,-2.3459046,0.15382981,9.922023,10804.527;-2.2689898,0.30765963,9.345161,-2.1920748,0.26920217,9.460533,10804.527;-2.2689898,0.30765963,9.345161,-2.11516,0.4999469,8.768299,10838.081;-2.2689898,0.30765963,9.345161,-1.9997876,-0.038457453,9.422076,10838.081;-2.2689898,0.30765963,9.345161,-2.11516,0.038457453,9.229789,10838.081;-2.2689898,0.30765963,9.345161,-1.8075004,0.0,8.845214,10871.636;-2.2689898,0.30765963,9.345161,-1.8844151,0.423032,8.960587,10871.636;-2.2689898,0.30765963,9.345161,-2.5766494,0.23074472,9.306704,10871.636;-2.2689898,0.30765963,9.345161,-2.4228196,0.53840435,9.575906,10905.19;-2.2689898,0.30765963,9.345161,-2.3459046,0.15382981,9.422076,10905.19;-2.2689898,0.30765963,9.345161,-2.6535642,0.9229789,9.922023,10905.19;-2.2689898,0.30765963,9.345161,-2.2689898,0.30765963,9.575906,10905.19;-2.2689898,0.30765963,9.345161,-2.6920218,0.7306916,8.922129,10938.745;-2.2689898,0.30765963,9.345161,-2.5381918,0.30765963,9.345161,10938.745;-2.2689898,0.30765963,9.345161,-1.9228727,-0.26920217,9.345161,10938.745;-2.2689898,0.30765963,9.345161,-2.4997344,-0.30765963,9.575906,10972.299;-2.2689898,0.30765963,9.345161,-2.4228196,0.38457453,9.345161,10972.299;-2.2689898,0.30765963,9.345161,-2.5381918,0.23074472,9.268247,10972.299;-2.2689898,0.30765963,9.345161,-2.1920748,0.07691491,9.422076,10972.299;-2.2689898,0.30765963,9.345161,-2.3074472,0.8076065,9.037501,11005.854;-2.2689898,0.30765963,9.345161,-2.3074472,0.26920217,8.768299,11005.854;-2.2689898,0.30765963,9.345161,-2.6151068,0.53840435,8.883672,11005.854;-2.2689898,0.30765963,9.345161,-2.3459046,0.423032,8.999044,11039.408;-2.2689898,0.30765963,9.345161,-2.2689898,0.34611708,9.191331,11039.408;-2.2689898,0.30765963,9.345161,-2.3843622,0.07691491,9.498991,11039.408;-2.2689898,0.30765963,9.345161,-2.6920218,0.34611708,9.575906,11072.963;-2.2689898,0.30765963,9.345161,-2.461277,0.423032,9.498991,11072.963;-2.2689898,0.30765963,9.345161,-2.3843622,0.61531925,9.537449,11072.963;-2.2689898,0.30765963,9.345161,-2.4228196,0.34611708,9.345161,11072.963;-2.2689898,0.30765963,9.345161,-1.9997876,0.423032,9.152874,11106.517;-2.2689898,0.30765963,9.345161,-2.6151068,0.46148944,9.152874,11106.517;-2.2689898,0.30765963,9.345161,-1.9997876,0.26920217,9.691278,11106.517;-2.2689898,0.30765963,9.345161,-2.461277,0.15382981,9.729735,11140.071;-2.2689898,0.30765963,9.345161,-1.8844151,0.38457453,9.383618,11140.071;-2.2689898,0.30765963,9.345161,-2.4228196,0.07691491,9.922023,11140.071;-2.2689898,0.30765963,9.345161,-2.461277,0.8845214,9.383618,11173.626;-2.2689898,0.30765963,9.345161,-2.4228196,0.53840435,9.114416,11173.626;-2.2689898,0.30765963,9.345161,-2.3074472,0.30765963,9.152874,11173.626;-2.2689898,0.30765963,9.345161,-2.3459046,0.19228727,9.460533,11173.626;-2.2689898,0.30765963,9.345161,-2.5381918,0.7306916,9.229789,11207.181;-2.2689898,0.30765963,9.345161,-1.8459578,0.6537767,9.229789,11207.181;-2.2689898,0.30765963,9.345161,-2.038245,0.61531925,9.922023,11207.181;-2.2689898,0.30765963,9.345161,-2.5381918,0.26920217,9.383618,11240.734;-2.2689898,0.30765963,9.345161,-2.4228196,-0.15382981,8.922129,11240.734;-2.2689898,0.30765963,9.345161,-2.3843622,0.30765963,8.999044,11240.734;-2.2689898,0.30765963,9.345161,-2.4997344,0.38457453,8.845214,11274.289;-2.2689898,0.30765963,9.345161,-2.2689898,0.07691491,8.960587,11274.289;-2.2689898,0.30765963,9.345161,-2.6535642,0.0,8.999044,11274.289;-2.2689898,0.30765963,9.345161,-2.461277,0.4999469,9.575906,11274.289;-2.2689898,0.30765963,9.345161,-2.6535642,0.4999469,9.306704,11307.844;-2.2689898,0.30765963,9.345161,-2.461277,0.19228727,9.498991,11307.844;-2.2689898,0.30765963,9.345161,-2.11516,0.4999469,9.268247,11307.844;-2.2689898,0.30765963,9.345161,-2.4997344,0.76914907,9.268247,11341.398;-2.2689898,0.30765963,9.345161,-2.1920748,0.46148944,9.345161,11341.398;-2.2689898,0.30765963,9.345161,-2.7304792,0.19228727,9.345161,11341.398;-2.2689898,0.30765963,9.345161,-2.461277,0.15382981,9.037501,11374.952;-2.2689898,0.30765963,9.345161,-2.5381918,0.11537236,9.498991,11374.952;-2.2689898,0.30765963,9.345161,-2.6151068,0.34611708,9.575906,11374.952;-2.2689898,0.30765963,9.345161,-1.9997876,0.61531925,9.614364,11374.952;-2.2689898,0.30765963,9.345161,-2.4228196,0.61531925,9.537449,11408.507;-2.2689898,0.30765963,9.345161,-1.8459578,0.19228727,9.268247,11408.507;-2.2689898,0.30765963,9.345161,-2.5381918,0.23074472,8.883672,11408.507;-2.2689898,0.30765963,9.345161,-2.461277,0.69223416,9.229789,11442.062;-2.2689898,0.30765963,9.345161,-2.4228196,0.07691491,8.922129,11442.062;-2.2689898,0.30765963,9.345161,-2.2689898,-0.11537236,9.960481,11442.062;-2.2689898,0.30765963,9.345161,-2.2305322,0.61531925,9.80665,11442.062;-2.2689898,0.30765963,9.345161,-2.6920218,0.30765963,9.498991,11475.616;-2.2689898,0.30765963,9.345161,-1.9997876,0.46148944,9.422076,11475.616;-2.2689898,0.30765963,9.345161,-2.3459046,0.4999469,9.229789,11475.616;-2.2689898,0.30765963,9.345161,-1.8075004,-0.07691491,9.191331,11509.17;-2.2689898,0.30765963,9.345161,-2.461277,0.26920217,9.268247,11509.17;-2.2689898,0.30765963,9.345161,-2.4997344,-0.038457453,9.268247,11509.17;-2.2689898,0.30765963,9.345161,-2.2689898,0.26920217,9.422076,11542.725;-2.2689898,0.30765963,9.345161,-2.3843622,0.23074472,9.691278,11542.725;-2.2689898,0.30765963,9.345161,-2.1920748,0.07691491,9.229789,11542.725;-2.2689898,0.30765963,9.345161,-2.3074472,0.69223416,9.268247,11542.725;-2.2689898,0.30765963,9.345161,-1.8844151,-0.15382981,8.691384,11576.279;-2.2689898,0.30765963,9.345161,-2.3843622,0.46148944,9.037501,11576.279;-2.2689898,0.30765963,9.345161,-3.230426,0.0,9.268247,11576.279;-2.2689898,0.30765963,9.345161,-2.4997344,0.11537236,9.114416,11609.833;-2.2689898,0.30765963,9.345161,-2.3074472,0.38457453,9.152874,11609.833;-2.2689898,0.30765963,9.345161,-2.8458514,0.23074472,9.498991,11609.833;-2.2689898,0.30765963,9.345161,-2.3459046,0.6537767,9.345161,11643.388;-2.2689898,0.30765963,9.345161,-3.153511,0.0,9.498991,11643.388;-2.2689898,0.30765963,9.345161,-2.5766494,0.23074472,9.037501,11643.388;-2.2689898,0.30765963,9.345161,-2.6535642,-0.07691491,9.075959,11643.388;-2.2689898,0.30765963,9.345161,-2.4228196,0.4999469,8.883672,11676.942;-2.2689898,0.30765963,9.345161,-2.0767026,0.61531925,9.152874,11676.942;-2.2689898,0.30765963,9.345161,-2.038245,0.61531925,8.768299,11676.942;-2.2689898,0.30765963,9.345161,-2.8458514,0.30765963,9.498991,11710.497;-2.2689898,0.30765963,9.345161,-2.2305322,0.15382981,9.229789,11710.497;-2.2689898,0.30765963,9.345161,-2.3843622,0.53840435,8.999044,11710.497;-2.2689898,0.30765963,9.345161,-2.7689366,0.038457453,9.345161,11744.051;-2.2689898,0.30765963,9.345161,-1.9228727,1.0383513,8.806757,11744.051;-2.2689898,0.30765963,9.345161,-2.1536174,0.11537236,9.460533,11744.051;-2.2689898,0.30765963,9.345161,-1.9613302,-0.26920217,8.922129,11744.051;-2.2689898,0.30765963,9.345161,-2.7689366,0.23074472,9.037501,11777.605;-2.2689898,0.30765963,9.345161,-3.0765963,0.38457453,9.537449,11777.605;-2.2689898,0.30765963,9.345161,-2.4228196,0.423032,9.345161,11777.605;-2.2689898,0.30765963,9.345161,-1.7690428,0.11537236,9.114416,11811.16;-2.2689898,0.30765963,9.345161,-2.1920748,0.38457453,9.422076,11811.16;-2.2689898,0.30765963,9.345161,-1.8844151,0.46148944,9.345161,11811.16;-2.2689898,0.30765963,9.345161,-2.4228196,0.61531925,9.229789,11844.715;-2.2689898,0.30765963,9.345161,-2.11516,0.34611708,9.268247,11844.715;-2.2689898,0.30765963,9.345161,-1.9997876,0.846064,8.845214,11844.715;-2.2689898,0.30765963,9.345161,-2.6151068,0.19228727,9.345161,11844.715;-2.2689898,0.30765963,9.345161,-2.2305322,0.4999469,9.306704,11878.269;-2.2689898,0.30765963,9.345161,-2.884309,0.846064,9.537449,11878.269;-2.2689898,0.30765963,9.345161,-1.7305853,0.19228727,9.152874,11878.269;-2.2689898,0.30765963,9.345161,-2.3843622,0.0,9.114416,11911.823;-2.2689898,0.30765963,9.345161,-2.807394,0.30765963,8.960587,11911.823;-2.2689898,0.30765963,9.345161,-2.3459046,0.07691491,9.075959,11911.823;-2.2689898,0.30765963,9.345161,-2.461277,0.34611708,9.152874,11911.823;-2.2689898,0.30765963,9.345161,-2.3843622,0.423032,9.922023,11945.378;-2.2689898,0.30765963,9.345161,-2.3074472,0.15382981,9.268247,11945.378;-2.2689898,0.30765963,9.345161,-2.0767026,0.8845214,9.306704,11945.378;-2.2689898,0.30765963,9.345161,-2.4228196,0.23074472,9.268247,11978.933;-2.2689898,0.30765963,9.345161,-2.2305322,0.30765963,9.575906,11978.933;-2.2689898,0.30765963,9.345161,-2.1536174,0.19228727,9.460533,11978.933;-2.2689898,0.30765963,9.345161,-1.9228727,-0.07691491,8.845214,12012.486;-2.2689898,0.30765963,9.345161,-2.3074472,0.4999469,9.460533,12012.486;-2.2689898,0.30765963,9.345161,-2.3074472,0.34611708,9.922023,12012.486;-2.2689898,0.30765963,9.345161,-2.3843622,0.61531925,9.229789,12012.486;-2.2689898,0.30765963,9.345161,-2.2689898,0.4999469,9.729735,12046.041;-2.2689898,0.30765963,9.345161,-2.807394,0.53840435,9.652821,12046.041;-2.2689898,0.30765963,9.345161,-2.11516,-0.11537236,9.152874,12046.041;-2.2689898,0.30765963,9.345161,-2.7304792,0.30765963,8.537555,12079.596;-2.2689898,0.30765963,9.345161,-2.3459046,0.76914907,9.306704,12079.596;-2.2689898,0.30765963,9.345161,-2.3074472,0.30765963,9.614364,12079.596;-2.2689898,0.30765963,9.345161,-2.11516,0.19228727,9.614364,12113.15;-2.2689898,0.30765963,9.345161,-2.5766494,0.61531925,9.498991,12113.15;-2.2689898,0.30765963,9.345161,-2.4997344,0.30765963,9.152874,12113.15;-2.2689898,0.30765963,9.345161,-2.461277,0.96143633,8.922129,12113.15;-2.2689898,0.30765963,9.345161,-2.1536174,0.038457453,9.075959,12146.704;-2.2689898,0.30765963,9.345161,-2.1536174,0.46148944,9.306704,12146.704;-2.2689898,0.30765963,9.345161,-1.5382981,0.9229789,9.345161,12146.704;-2.2689898,0.30765963,9.345161,-2.6151068,0.9229789,9.229789,12180.259;-2.2689898,0.30765963,9.345161,-1.9997876,0.26920217,9.80665,12180.259;-2.2689898,0.30765963,9.345161,-2.6920218,0.038457453,9.537449,12180.259;-2.2689898,0.30765963,9.345161,-2.4997344,0.53840435,9.037501,12213.813;-2.2689898,0.30765963,9.345161,-2.5381918,0.423032,9.345161,12213.813;-2.2689898,0.30765963,9.345161,-2.3459046,0.4999469,9.152874,12213.813;-2.2689898,0.30765963,9.345161,-2.5381918,0.8845214,9.114416,12213.813;-2.2689898,0.30765963,9.345161,-2.3843622,0.19228727,9.460533,12247.368;-2.2689898,0.30765963,9.345161,-1.9997876,0.26920217,9.229789,12247.368;-2.2689898,0.30765963,9.345161,-2.1920748,0.34611708,9.960481,12247.368;-2.2689898,0.30765963,9.345161,-2.1920748,0.26920217,9.306704,12280.922;-2.2689898,0.30765963,9.345161,-1.8459578,0.46148944,8.883672,12280.922;-2.2689898,0.30765963,9.345161,-2.4228196,0.46148944,9.537449,12280.922;-2.2689898,0.30765963,9.345161,-2.6535642,0.30765963,9.537449,12314.477;-2.2689898,0.30765963,9.345161,-2.461277,-0.038457453,8.806757,12314.477;-2.2689898,0.30765963,9.345161,-2.038245,0.4999469,9.537449,12314.477;-2.2689898,0.30765963,9.345161,-2.1920748,0.34611708,8.883672,12314.477;-2.2689898,0.30765963,9.345161,-2.9996815,0.4999469,9.345161,12348.031;-2.2689898,0.30765963,9.345161,-1.6536705,0.23074472,9.614364,12348.031;-2.2689898,0.30765963,9.345161,-2.3459046,0.34611708,9.152874,12348.031;-2.2689898,0.30765963,9.345161,-2.4228196,0.7306916,9.498991,12381.585;-2.2689898,0.30765963,9.345161,-2.2305322,0.4999469,9.268247,12381.585;-2.2689898,0.30765963,9.345161,-2.3074472,0.8845214,9.383618,12381.585;-2.2689898,0.30765963,9.345161,-2.1920748,-0.07691491,8.768299,12415.14;-2.2689898,0.30765963,9.345161,-2.5766494,0.07691491,9.075959,12415.14;-2.2689898,0.30765963,9.345161,-2.1536174,0.19228727,9.460533,12415.14;-2.2689898,0.30765963,9.345161,-2.2689898,0.423032,9.383618,12415.14;-2.2689898,0.30765963,9.345161,-1.9228727,0.46148944,9.729735,12448.694;-2.2689898,0.30765963,9.345161,-1.9228727,-0.11537236,8.806757,12448.694;-2.2689898,0.30765963,9.345161,-2.11516,0.38457453,9.229789,12448.694;-2.2689898,0.30765963,9.345161,-2.6151068,0.5768618,9.229789,12482.249;-2.2689898,0.30765963,9.345161,-2.461277,0.5768618,9.306704,12482.249;-2.2689898,0.30765963,9.345161,-2.4997344,0.7306916,8.576012,12482.249;-2.2689898,0.30765963,9.345161,-2.3843622,0.15382981,9.152874,12482.249;-2.2689898,0.30765963,9.345161,-2.7304792,0.23074472,9.575906,12515.803;-2.2689898,0.30765963,9.345161,-1.9613302,0.26920217,9.229789,12515.803;-2.2689898,0.30765963,9.345161,-2.6151068,-0.26920217,9.306704,12515.803;-2.2689898,0.30765963,9.345161,-2.6920218,1.0383513,9.268247,12549.357;-2.2689898,0.30765963,9.345161,-2.3843622,0.34611708,8.999044,12549.357;-2.2689898,0.30765963,9.345161,-1.692128,0.9998938,9.152874,12549.357;-2.2689898,0.30765963,9.345161,-2.2305322,0.34611708,9.422076,12582.912;-2.2689898,0.30765963,9.345161,-1.9997876,0.07691491,9.575906,12582.912;-2.2689898,0.30765963,9.345161,-2.4228196,0.423032,9.229789,12582.912;-2.2689898,0.30765963,9.345161,-2.3074472,0.038457453,10.075852,12582.912;-2.2689898,0.30765963,9.345161,-2.5766494,0.26920217,9.075959,12616.467;-2.2689898,0.30765963,9.345161,-2.4228196,0.19228727,9.460533,12616.467;-2.2689898,0.30765963,9.345161,-2.5381918,0.38457453,9.229789,12616.467;-2.2689898,0.30765963,9.345161,-2.3459046,0.7306916,9.614364,12650.0205;-2.2689898,0.30765963,9.345161,-2.7304792,0.4999469,9.152874,12650.0205;-2.2689898,0.30765963,9.345161,-2.038245,0.46148944,9.152874,12650.0205;-2.2689898,0.30765963,9.345161,-2.038245,0.38457453,9.383618,12683.575;-2.2689898,0.30765963,9.345161,-2.5766494,0.07691491,9.575906,12683.575;-2.2689898,0.30765963,9.345161,-2.6535642,0.038457453,9.191331,12683.575;-2.2689898,0.30765963,9.345161,-1.9997876,-0.07691491,9.306704,12683.575;-2.2689898,0.30765963,9.345161,-2.461277,0.46148944,8.999044,12717.13;-2.2689898,0.30765963,9.345161,-2.038245,0.30765963,9.268247,12717.13;-2.2689898,0.30765963,9.345161,-2.2305322,0.9998938,9.345161,12717.13;-2.2689898,0.30765963,9.345161,-2.2689898,0.34611708,9.652821,12750.685;-2.2689898,0.30765963,9.345161,-2.3843622,0.30765963,9.498991,12750.685;-2.2689898,0.30765963,9.345161,-2.4997344,0.53840435,9.383618,12750.685;-2.2689898,0.30765963,9.345161,-2.2689898,0.038457453,9.229789,12784.238;-2.2689898,0.30765963,9.345161,-2.2689898,0.15382981,9.845108,12784.238;-2.2689898,0.30765963,9.345161,-2.3074472,-0.038457453,8.576012,12784.238;-2.2689898,0.30765963,9.345161,-2.6151068,0.61531925,9.152874,12784.238;-2.2689898,0.30765963,9.345161,-2.3843622,0.96143633,9.075959,12817.793;-2.2689898,0.30765963,9.345161,-2.1536174,0.9998938,9.306704,12817.793;-2.2689898,0.30765963,9.345161,-2.7689366,0.11537236,9.152874,12817.793;-2.2689898,0.30765963,9.345161,-2.3074472,0.23074472,9.152874,12851.348;-2.2689898,0.30765963,9.345161,-2.3843622,-0.11537236,9.114416,12851.348;-2.2689898,0.30765963,9.345161,-2.2689898,0.038457453,9.422076,12851.348;-2.2689898,0.30765963,9.345161,-2.4228196,0.26920217,9.037501,12884.902;-2.2689898,0.30765963,9.345161,-2.0767026,0.11537236,9.383618,12884.902;-2.2689898,0.30765963,9.345161,-2.7304792,0.0,9.422076,12884.902;-2.2689898,0.30765963,9.345161,-2.3459046,0.07691491,8.922129,12884.902;-2.2689898,0.30765963,9.345161,-2.6535642,0.30765963,9.575906,12918.456;-2.2689898,0.30765963,9.345161,-1.7690428,0.15382981,9.691278,12918.456;-2.2689898,0.30765963,9.345161,-2.5766494,0.15382981,9.383618,12918.456;-2.2689898,0.30765963,9.345161,-2.1920748,0.34611708,9.152874,12952.011;-2.2689898,0.30765963,9.345161,-2.3843622,-0.038457453,9.345161,12952.011;-2.2689898,0.30765963,9.345161,-2.3843622,0.9229789,9.229789,12952.011;-2.2689898,0.30765963,9.345161,-2.1920748,0.61531925,9.306704,12952.011;-2.2689898,0.30765963,9.345161,-2.4228196,0.34611708,9.114416,12985.565;-2.2689898,0.30765963,9.345161,-2.7304792,0.038457453,9.537449,12985.565;-2.2689898,0.30765963,9.345161,-2.0767026,0.61531925,9.422076,12985.565;-2.2689898,0.30765963,9.345161,-2.807394,0.15382981,9.383618,13019.119;-2.2689898,0.30765963,9.345161,-2.0767026,0.15382981,9.229789,13019.119;-2.2689898,0.30765963,9.345161,-2.1536174,0.15382981,9.422076,13019.119;-3.307341,0.30765963,9.345161,-3.307341,0.423032,8.768299,13052.674;-2.2689898,0.30765963,9.345161,-2.2689898,-0.07691491,9.152874,13052.674;-2.2689898,0.30765963,9.345161,-2.2305322,1.0383513,9.691278,13052.674;-2.2689898,0.30765963,9.345161,-2.5381918,0.15382981,9.922023,13052.674;-2.2689898,0.30765963,9.345161,-2.1920748,0.846064,9.191331,13086.229;-2.2689898,0.30765963,9.345161,-1.9613302,0.30765963,9.537449,13086.229;-2.2689898,0.30765963,9.345161,-1.9613302,0.4999469,9.306704,13086.229;-2.2689898,0.30765963,9.345161,-2.11516,0.19228727,9.306704,13119.783;-2.2689898,0.30765963,9.345161,-2.5381918,0.846064,9.268247,13119.783;-2.2689898,0.30765963,9.345161,-2.6151068,-0.07691491,9.229789,13119.783;-2.2689898,0.30765963,9.345161,-2.5381918,0.38457453,9.306704,13153.337;-2.2689898,0.30765963,9.345161,-2.3459046,0.30765963,9.383618,13153.337;-2.2689898,0.30765963,9.345161,-2.8458514,0.9229789,9.422076,13153.337;-2.2689898,0.30765963,9.345161,-2.11516,0.34611708,9.268247,13153.337;-2.2689898,0.30765963,9.345161,-2.4997344,0.4999469,9.229789,13186.892;-2.2689898,0.30765963,9.345161,-2.2689898,0.6537767,9.075959,13186.892;-2.2689898,0.30765963,9.345161,-2.3459046,0.30765963,8.922129,13186.892;-2.2689898,0.30765963,9.345161,-2.6151068,0.11537236,9.383618,13220.446;-2.2689898,0.30765963,9.345161,-2.2689898,0.15382981,9.383618,13220.446;-2.2689898,0.30765963,9.345161,-2.7689366,0.423032,9.691278,13220.446;-2.2689898,0.30765963,9.345161,-2.5381918,0.30765963,9.229789,13254.001;-2.2689898,0.30765963,9.345161,-2.1536174,0.46148944,9.306704,13254.001;-2.2689898,0.30765963,9.345161,-2.3459046,0.23074472,9.537449,13254.001;-2.2689898,0.30765963,9.345161,-2.6151068,0.07691491,8.960587,13254.001;-2.2689898,0.30765963,9.345161,-2.2305322,0.423032,9.229789,13287.555;-2.2689898,0.30765963,9.345161,-2.11516,0.19228727,9.614364,13287.555;-2.2689898,0.30765963,9.345161,-2.11516,0.34611708,9.575906,13287.555;-2.2689898,0.30765963,9.345161,-2.2305322,0.26920217,9.306704,13321.109;-2.2689898,0.30765963,9.345161,-2.4997344,0.423032,9.345161,13321.109;-2.2689898,0.30765963,9.345161,-2.5381918,0.38457453,9.422076,13321.109;-2.2689898,0.30765963,9.345161,-2.3074472,0.26920217,9.729735,13354.664;-2.2689898,0.30765963,9.345161,-2.6151068,0.19228727,9.114416,13354.664;-2.2689898,0.30765963,9.345161,-2.11516,0.30765963,9.498991,13354.664;-2.2689898,0.30765963,9.345161,-2.3074472,0.9229789,9.114416,13354.664;-2.2689898,0.30765963,9.345161,-2.4228196,0.11537236,9.114416,13388.219;-2.2689898,0.30765963,9.345161,-2.0767026,0.4999469,9.575906,13388.219;-2.2689898,0.30765963,9.345161,-2.1536174,0.34611708,9.191331,13388.219;-2.2689898,0.30765963,9.345161,-2.884309,0.26920217,9.422076,13421.772;-2.2689898,0.30765963,9.345161,-2.1920748,0.5768618,9.614364,13421.772;-2.2689898,0.30765963,9.345161,-2.5766494,0.38457453,9.537449,13421.772;-2.2689898,0.30765963,9.345161,-2.6151068,0.34611708,9.460533,13455.327;-2.2689898,0.30765963,9.345161,-2.6920218,0.26920217,9.114416,13455.327;-2.2689898,0.30765963,9.345161,-2.038245,0.46148944,9.575906,13455.327;-2.2689898,0.30765963,9.345161,-2.3459046,0.423032,9.729735,13488.882;-2.2689898,0.30765963,9.345161,-2.4228196,0.23074472,9.268247,13488.882;-2.2689898,0.30765963,9.345161,-2.3843622,0.76914907,8.960587,13488.882;-2.2689898,0.30765963,9.345161,-2.038245,0.23074472,9.152874,13522.437;-2.2689898,0.30765963,9.345161,-2.4228196,0.038457453,9.229789,13522.437;-2.2689898,0.30765963,9.345161,-2.3459046,0.61531925,8.922129,13522.437;-2.2689898,0.30765963,9.345161,-2.2305322,0.30765963,9.575906,13522.437;-2.2689898,0.30765963,9.345161,-2.038245,0.423032,9.268247,13555.99;-2.2689898,0.30765963,9.345161,-2.5766494,0.46148944,9.498991,13555.99;-2.2689898,0.30765963,9.345161,-2.3074472,0.15382981,9.229789,13555.99;-2.2689898,0.30765963,9.345161,-2.5381918,0.38457453,8.960587,13589.545;-2.2689898,0.30765963,9.345161,-2.1920748,0.76914907,9.191331,13589.545;-2.2689898,0.30765963,9.345161,-1.8844151,0.61531925,9.614364,13589.545;-2.2689898,0.30765963,9.345161,-2.3843622,0.423032,9.191331,13623.1;-2.2689898,0.30765963,9.345161,-2.3074472,0.8845214,9.537449,13623.1;-2.2689898,0.30765963,9.345161,-2.6920218,0.19228727,9.768193,13623.1;-2.2689898,0.30765963,9.345161,-2.3459046,0.15382981,9.306704,13623.1;-2.2689898,0.30765963,9.345161,-2.461277,-0.07691491,9.383618,13656.654;-2.2689898,0.30765963,9.345161,-2.3843622,0.5768618,9.422076,13656.654;-2.2689898,0.30765963,9.345161,-2.3843622,0.34611708,9.114416,13656.654;-2.2689898,0.30765963,9.345161,-2.11516,0.46148944,8.883672,13690.208;-2.2689898,0.30765963,9.345161,-2.1920748,0.846064,8.922129,13690.208;-2.2689898,0.30765963,9.345161,-2.2305322,0.11537236,10.0373955,13690.208;-2.2689898,0.30765963,9.345161,-2.7304792,0.53840435,9.383618,13723.763;-2.2689898,0.30765963,9.345161,-1.9997876,0.38457453,9.114416,13723.763;-2.2689898,0.30765963,9.345161,-2.6535642,0.5768618,9.652821,13723.763;-2.2689898,0.30765963,9.345161,-2.6920218,0.4999469,9.229789,13723.763;-2.2689898,0.30765963,9.345161,-2.8458514,0.26920217,9.383618,13757.317;-2.2689898,0.30765963,9.345161,-2.6920218,0.8076065,8.922129,13757.317;-2.2689898,0.30765963,9.345161,-2.7304792,0.69223416,9.037501,13757.317;-2.2689898,0.30765963,9.345161,-2.3074472,0.69223416,9.268247,13790.871;-2.2689898,0.30765963,9.345161,-2.6920218,0.19228727,9.460533,13790.871;-2.2689898,0.30765963,9.345161,-2.461277,0.19228727,9.80665,13790.871;-2.2689898,0.30765963,9.345161,-1.9997876,0.26920217,9.268247,13824.426;-2.2689898,0.30765963,9.345161,-2.6151068,0.38457453,9.80665,13824.426;-2.2689898,0.30765963,9.345161,-2.2305322,0.8845214,9.422076,13824.426;-2.2689898,0.30765963,9.345161,-2.6151068,0.76914907,9.037501,13824.426;-2.2689898,0.30765963,9.345161,-3.1150537,0.6537767,9.537449,13857.98;-2.2689898,0.30765963,9.345161,-2.5381918,0.34611708,9.729735,13857.98;-2.2689898,0.30765963,9.345161,-2.6535642,0.11537236,9.498991,13857.98;-2.2689898,0.30765963,9.345161,-2.3843622,0.34611708,9.498991,13891.535;-2.2689898,0.30765963,9.345161,-2.884309,0.423032,9.652821,13891.535;-2.2689898,0.30765963,9.345161,-2.461277,0.61531925,9.460533,13891.535;-2.2689898,0.30765963,9.345161,-2.1920748,0.4999469,8.922129,13925.089;-2.2689898,0.30765963,9.345161,-2.1536174,0.423032,9.152874,13925.089;-2.2689898,0.30765963,9.345161,-2.1920748,0.6537767,9.383618,13925.089;-2.2689898,0.30765963,9.345161,-2.11516,0.53840435,9.383618,13925.089;-2.2689898,0.30765963,9.345161,-2.6151068,-0.07691491,9.383618,13958.644;-2.2689898,0.30765963,9.345161,-2.3843622,0.46148944,10.075852,13958.644;-2.2689898,0.30765963,9.345161,-2.461277,0.34611708,9.229789,13958.644;-2.2689898,0.30765963,9.345161,-2.3843622,0.07691491,9.152874,13992.198;-2.2689898,0.30765963,9.345161,-2.5766494,0.34611708,9.191331,13992.198;-2.2689898,0.30765963,9.345161,-2.1536174,0.8076065,9.537449,13992.198;-2.2689898,0.30765963,9.345161,-2.038245,0.38457453,9.075959,13992.198;-2.2689898,0.30765963,9.345161,-2.6151068,0.34611708,9.922023,14025.753;-2.2689898,0.30765963,9.345161,-2.461277,-0.34611708,9.075959,14025.753;-2.2689898,0.30765963,9.345161,-2.2305322,0.5768618,9.498991,14025.753;-2.2689898,0.30765963,9.345161,-2.884309,0.61531925,8.999044,14059.307;-2.2689898,0.30765963,9.345161,-2.2305322,0.0,9.306704,14059.307;-2.2689898,0.30765963,9.345161,-2.038245,-0.30765963,8.768299,14059.307;-2.2689898,0.30765963,9.345161,-1.8075004,0.423032,9.306704,14092.861;-2.2689898,0.30765963,9.345161,-2.0767026,-0.30765963,9.075959,14092.861;-2.2689898,0.30765963,9.345161,-2.4997344,0.5768618,9.922023,14092.861;-2.2689898,0.30765963,9.345161,-2.6535642,0.23074472,9.80665,