999,999,999,999,999,999,999;-2.4228196,9.422076,0.30765963,-2.461277,9.498991,0.15382981,0.0;-2.4228196,9.422076,0.30765963,-2.3459046,9.306704,0.23074472,33.554432;-2.4228196,9.422076,0.30765963,-2.1536174,9.768193,-0.19228727,67.108864;-2.4228196,9.422076,0.30765963,-2.6535642,9.691278,0.038457453,67.108864;-2.4228196,9.422076,0.30765963,-2.2689898,9.268247,-0.038457453,67.108864;-2.4228196,9.422076,0.30765963,-2.8458514,9.422076,-0.19228727,100.6633;-2.4228196,9.422076,0.30765963,-2.8458514,9.537449,0.15382981,100.6633;-2.4228196,9.422076,0.30765963,-2.3074472,9.614364,0.30765963,100.6633;-2.4228196,9.422076,0.30765963,-2.6535642,9.191331,0.15382981,134.21773;-2.4228196,9.422076,0.30765963,-2.4228196,9.998938,0.34611708,134.21773;-2.4228196,9.422076,0.30765963,-2.8458514,9.652821,0.8076065,134.21773;-2.4228196,9.422076,0.30765963,-1.9613302,9.691278,0.69223416,134.21773;-2.4228196,9.422076,0.30765963,-3.0381389,9.883566,0.7306916,167.77216;-2.4228196,9.422076,0.30765963,-2.9996815,9.614364,-0.26920217,167.77216;-2.4228196,9.422076,0.30765963,-2.9996815,9.729735,-0.23074472,167.77216;-2.4228196,9.422076,0.30765963,-2.2689898,9.460533,0.0,201.3266;-2.4228196,9.422076,0.30765963,-2.3843622,9.075959,0.38457453,201.3266;-2.4228196,9.422076,0.30765963,-2.5381918,9.306704,0.46148944,201.3266;-2.4228196,9.422076,0.30765963,-2.6151068,9.306704,0.46148944,201.3266;-2.4228196,9.422076,0.30765963,-2.4228196,9.80665,0.0,234.88103;-2.4228196,9.422076,0.30765963,-2.6151068,9.652821,0.15382981,234.88103;-2.4228196,9.422076,0.30765963,-3.230426,9.498991,-0.19228727,234.88103;-2.4228196,9.422076,0.30765963,-2.3843622,9.614364,0.38457453,268.43546;-2.4228196,9.422076,0.30765963,-1.8459578,9.80665,0.23074472,268.43546;-2.4228196,9.422076,0.30765963,-2.6920218,9.114416,0.8845214,268.43546;-2.4228196,9.422076,0.30765963,-2.11516,9.883566,0.23074472,301.9899;-2.4228196,9.422076,0.30765963,-2.7689366,9.460533,0.53840435,301.9899;-2.4228196,9.422076,0.30765963,-2.6151068,9.575906,0.38457453,301.9899;-2.4228196,9.422076,0.30765963,-2.3459046,9.537449,0.38457453,301.9899;-2.4228196,9.422076,0.30765963,-2.5381918,9.768193,0.07691491,335.5443;-2.4228196,9.422076,0.30765963,-2.1920748,9.768193,-0.11537236,335.5443;-2.4228196,9.422076,0.30765963,-2.0767026,9.229789,-0.34611708,335.5443;-2.4228196,9.422076,0.30765963,-2.3843622,10.26814,-0.46148944,369.09875;-2.4228196,9.422076,0.30765963,-2.461277,9.845108,-0.61531925,369.09875;-2.4228196,9.422076,0.30765963,-2.461277,9.80665,-0.23074472,369.09875;-2.4228196,9.422076,0.30765963,-2.884309,9.575906,-0.11537236,402.6532;-2.4228196,9.422076,0.30765963,-2.7689366,9.075959,0.69223416,402.6532;-2.4228196,9.422076,0.30765963,-2.11516,9.998938,0.4999469,402.6532;-2.4228196,9.422076,0.30765963,-2.9612238,9.845108,0.46148944,402.6532;-2.4228196,9.422076,0.30765963,-2.9996815,9.306704,0.26920217,436.2076;-2.4228196,9.422076,0.30765963,-2.4997344,9.191331,0.038457453,436.2076;-2.4228196,9.422076,0.30765963,-2.5381918,9.575906,-0.07691491,436.2076;-2.4228196,9.422076,0.30765963,-2.4228196,9.614364,0.46148944,469.76205;-2.4228196,9.422076,0.30765963,-1.9228727,9.306704,0.0,469.76205;-2.4228196,9.422076,0.30765963,-2.807394,9.460533,0.23074472,469.76205;-2.4228196,9.422076,0.30765963,-2.6920218,9.191331,-0.26920217,503.31647;-2.4228196,9.422076,0.30765963,-2.8458514,9.729735,0.34611708,503.31647;-2.4228196,9.422076,0.30765963,-2.9612238,9.998938,0.23074472,503.31647;-2.4228196,9.422076,0.30765963,-2.461277,9.383618,0.26920217,503.31647;-2.4228196,9.422076,0.30765963,-2.3843622,8.806757,0.23074472,536.8709;-2.4228196,9.422076,0.30765963,-2.5381918,9.498991,0.26920217,536.8709;-2.4228196,9.422076,0.30765963,-2.2305322,9.306704,-0.07691491,536.8709;-2.4228196,9.422076,0.30765963,-2.884309,8.999044,0.15382981,570.42535;-2.4228196,9.422076,0.30765963,-2.2689898,9.845108,-0.038457453,570.42535;-2.4228196,9.422076,0.30765963,-2.3843622,9.422076,-0.53840435,570.42535;-2.4228196,9.422076,0.30765963,-2.11516,8.960587,-0.53840435,603.9798;-2.4228196,9.422076,0.30765963,-2.6151068,9.960481,0.11537236,603.9798;-2.4228196,9.422076,0.30765963,-2.3459046,9.345161,0.15382981,603.9798;-2.4228196,9.422076,0.30765963,-2.4228196,9.575906,0.11537236,603.9798;-2.4228196,9.422076,0.30765963,-2.7304792,9.998938,0.38457453,637.5342;-2.4228196,9.422076,0.30765963,-2.9996815,9.998938,0.26920217,637.5342;-2.4228196,9.422076,0.30765963,-2.8458514,9.80665,0.30765963,637.5342;-2.4228196,9.422076,0.30765963,-2.3843622,9.845108,0.61531925,671.0886;-2.4228196,9.422076,0.30765963,-2.038245,9.191331,0.53840435,671.0886;-2.4228196,9.422076,0.30765963,-2.0767026,9.268247,0.5768618,671.0886;-2.4228196,9.422076,0.30765963,-2.3843622,9.998938,0.38457453,704.64307;-2.4228196,9.422076,0.30765963,-2.2689898,10.11431,0.19228727,704.64307;-2.4228196,9.422076,0.30765963,-3.0765963,9.883566,0.0,704.64307;-2.4228196,9.422076,0.30765963,-2.3074472,10.152767,0.15382981,704.64307;-2.4228196,9.422076,0.30765963,-2.3843622,9.537449,-0.11537236,738.1975;-2.4228196,9.422076,0.30765963,-2.461277,9.229789,0.8076065,738.1975;-2.4228196,9.422076,0.30765963,-2.3843622,9.075959,0.96143633,738.1975;-2.4228196,9.422076,0.30765963,-2.1920748,9.345161,0.4999469,771.75195;-2.4228196,9.422076,0.30765963,-2.9996815,9.614364,0.26920217,771.75195;-2.4228196,9.422076,0.30765963,-2.9612238,9.80665,-0.038457453,771.75195;-2.4228196,9.422076,0.30765963,-2.6920218,9.652821,0.038457453,771.75195;-2.4228196,9.422076,0.30765963,-2.3459046,9.691278,0.15382981,805.3064;-2.4228196,9.422076,0.30765963,-2.5766494,9.306704,0.9229789,805.3064;-2.4228196,9.422076,0.30765963,-2.4997344,9.498991,0.26920217,805.3064;-2.4228196,9.422076,0.30765963,-2.7689366,9.191331,0.038457453,838.8608;-2.4228196,9.422076,0.30765963,-2.6920218,9.845108,0.26920217,838.8608;-2.4228196,9.422076,0.30765963,-3.0381389,9.729735,0.76914907,838.8608;-2.4228196,9.422076,0.30765963,-2.6920218,9.498991,0.38457453,872.4152;-2.4228196,9.422076,0.30765963,-2.8458514,9.614364,0.69223416,872.4152;-2.4228196,9.422076,0.30765963,-2.0767026,9.075959,0.23074472,872.4152;-2.4228196,9.422076,0.30765963,-2.8458514,9.729735,-0.11537236,872.4152;-2.4228196,9.422076,0.30765963,-2.6151068,9.652821,-0.11537236,905.96967;-2.4228196,9.422076,0.30765963,-3.1150537,9.768193,-0.23074472,905.96967;-2.4228196,9.422076,0.30765963,-2.5381918,9.614364,-0.34611708,905.96967;-2.4228196,9.422076,0.30765963,-2.8458514,9.460533,0.038457453,939.5241;-2.4228196,9.422076,0.30765963,-2.2305322,10.0373955,0.038457453,939.5241;-2.4228196,9.422076,0.30765963,-1.615213,9.80665,0.38457453,939.5241;-2.4228196,9.422076,0.30765963,-2.038245,9.845108,0.423032,973.07855;-2.4228196,9.422076,0.30765963,-2.6920218,9.80665,0.23074472,973.07855;-2.4228196,9.422076,0.30765963,-2.3843622,9.768193,0.11537236,973.07855;-2.4228196,9.422076,0.30765963,-2.1920748,9.575906,-0.15382981,973.07855;-2.4228196,9.422076,0.30765963,-2.1920748,9.268247,0.30765963,1006.63293;-2.4228196,9.422076,0.30765963,-2.1920748,9.229789,0.30765963,1006.63293;-2.4228196,9.422076,0.30765963,-2.2689898,9.152874,0.19228727,1006.63293;-2.4228196,9.422076,0.30765963,-2.4997344,9.537449,0.423032,1040.1874;-2.4228196,9.422076,0.30765963,-2.4997344,9.691278,0.34611708,1040.1874;-2.4228196,9.422076,0.30765963,-2.2305322,9.460533,-0.11537236,1040.1874;-2.4228196,9.422076,0.30765963,-2.0767026,9.883566,0.4999469,1073.7418;-2.4228196,9.422076,0.30765963,-2.1536174,9.537449,0.19228727,1073.7418;-2.4228196,9.422076,0.30765963,-1.8075004,9.998938,0.423032,1073.7418;-2.4228196,9.422076,0.30765963,-2.461277,9.729735,0.38457453,1073.7418;-2.4228196,9.422076,0.30765963,-2.7689366,9.306704,0.19228727,1107.2963;-2.4228196,9.422076,0.30765963,-2.6535642,9.575906,-0.19228727,1107.2963;-2.4228196,9.422076,0.30765963,-2.5766494,9.883566,0.0,1107.2963;-2.4228196,9.422076,0.30765963,-2.1536174,9.845108,0.61531925,1140.8507;-2.4228196,9.422076,0.30765963,-2.4228196,9.729735,0.15382981,1140.8507;-2.4228196,9.422076,0.30765963,-2.3459046,9.537449,0.8076065,1140.8507;-2.4228196,9.422076,0.30765963,-2.6151068,9.691278,-0.07691491,1174.4052;-2.4228196,9.422076,0.30765963,-3.0765963,9.383618,-0.038457453,1174.4052;-2.4228196,9.422076,0.30765963,-2.9227664,9.575906,-0.61531925,1174.4052;-2.4228196,9.422076,0.30765963,-2.3843622,9.575906,0.26920217,1174.4052;-2.4228196,9.422076,0.30765963,-3.0381389,9.960481,0.07691491,1207.9596;-2.4228196,9.422076,0.30765963,-2.4228196,9.691278,0.38457453,1207.9596;-2.4228196,9.422076,0.30765963,-2.3074472,9.345161,0.423032,1207.9596;-2.4228196,9.422076,0.30765963,-2.807394,9.729735,0.38457453,1241.514;-2.4228196,9.422076,0.30765963,-2.5766494,9.80665,0.76914907,1241.514;-2.4228196,9.422076,0.30765963,-3.0381389,9.691278,0.34611708,1241.514;-2.4228196,9.422076,0.30765963,-2.5766494,9.114416,0.30765963,1241.514;-2.4228196,9.422076,0.30765963,-2.6920218,9.114416,0.423032,1275.0684;-2.4228196,9.422076,0.30765963,-2.807394,9.845108,0.76914907,1275.0684;-2.4228196,9.422076,0.30765963,-2.461277,9.652821,-0.11537236,1275.0684;-2.4228196,9.422076,0.30765963,-2.8458514,9.498991,0.0,1308.6228;-2.4228196,9.422076,0.30765963,-2.9227664,10.152767,-0.07691491,1308.6228;-2.4228196,9.422076,0.30765963,-2.461277,8.999044,0.07691491,1308.6228;-2.4228196,9.422076,0.30765963,-2.461277,9.268247,0.46148944,1342.1772;-2.4228196,9.422076,0.30765963,-2.0767026,9.345161,0.6537767,1342.1772;-2.4228196,9.422076,0.30765963,-2.038245,9.691278,1.0383513,1342.1772;-2.4228196,9.422076,0.30765963,-2.6151068,9.575906,0.61531925,1342.1772;-2.4228196,9.422076,0.30765963,-2.3459046,9.575906,0.38457453,1375.7317;-2.4228196,9.422076,0.30765963,-2.4228196,9.845108,-0.34611708,1375.7317;-2.4228196,9.422076,0.30765963,-2.884309,9.383618,0.0,1375.7317;-2.4228196,9.422076,0.30765963,-2.6920218,9.960481,-0.19228727,1409.2861;-2.4228196,9.422076,0.30765963,-2.1536174,9.229789,-0.07691491,1409.2861;-2.4228196,9.422076,0.30765963,-2.5766494,9.614364,-0.30765963,1409.2861;-2.4228196,9.422076,0.30765963,-2.6535642,9.306704,0.26920217,1442.8406;-2.4228196,9.422076,0.30765963,-2.7689366,9.191331,0.23074472,1442.8406;-2.4228196,9.422076,0.30765963,-2.807394,9.229789,0.34611708,1442.8406;-2.4228196,9.422076,0.30765963,-2.3074472,9.960481,-0.19228727,1442.8406;-2.4228196,9.422076,0.30765963,-2.3074472,9.075959,0.423032,1476.395;-2.4228196,9.422076,0.30765963,-2.9612238,9.229789,0.4999469,1476.395;-2.4228196,9.422076,0.30765963,-2.11516,9.922023,0.7306916,1476.395;-2.4228196,9.422076,0.30765963,-2.7304792,9.652821,0.34611708,1509.9495;-2.4228196,9.422076,0.30765963,-2.9227664,10.152767,0.30765963,1509.9495;-2.4228196,9.422076,0.30765963,-2.8458514,9.614364,-0.30765963,1509.9495;-2.4228196,9.422076,0.30765963,-2.7689366,9.498991,-0.30765963,1543.5039;-2.4228196,9.422076,0.30765963,-2.3074472,9.152874,0.34611708,1543.5039;-2.4228196,9.422076,0.30765963,-2.11516,9.460533,0.53840435,1543.5039;-2.4228196,9.422076,0.30765963,-2.461277,9.345161,0.26920217,1543.5039;-2.4228196,9.422076,0.30765963,-2.3843622,9.383618,0.0,1577.0583;-2.4228196,9.422076,0.30765963,-2.807394,9.80665,0.30765963,1577.0583;-2.4228196,9.422076,0.30765963,-2.9996815,9.883566,0.38457453,1577.0583;-2.4228196,9.422076,0.30765963,-2.2305322,9.306704,0.23074472,1610.6128;-2.4228196,9.422076,0.30765963,-2.3843622,9.537449,0.23074472,1610.6128;-2.4228196,9.422076,0.30765963,-2.9612238,9.229789,0.19228727,1610.6128;-2.4228196,9.422076,0.30765963,-2.6920218,9.460533,0.07691491,1644.1671;-2.4228196,9.422076,0.30765963,-2.7689366,9.922023,0.26920217,1644.1671;-2.4228196,9.422076,0.30765963,-3.0765963,9.422076,0.19228727,1644.1671;-2.4228196,9.422076,0.30765963,-2.3843622,9.80665,0.11537236,1644.1671;-2.4228196,9.422076,0.30765963,-2.4997344,9.191331,0.423032,1677.7216;-2.4228196,9.422076,0.30765963,-2.5381918,9.460533,0.96143633,1677.7216;-2.4228196,9.422076,0.30765963,-2.3843622,9.575906,0.4999469,1677.7216;-2.4228196,9.422076,0.30765963,-2.7304792,10.11431,0.5768618,1711.276;-2.4228196,9.422076,0.30765963,-2.461277,10.152767,0.46148944,1711.276;-2.4228196,9.422076,0.30765963,-3.0381389,9.652821,0.6537767,1711.276;-2.4228196,9.422076,0.30765963,-2.3074472,10.152767,0.26920217,1711.276;-2.4228196,9.422076,0.30765963,-2.4228196,9.152874,1.1152661,1744.8304;-2.4228196,9.422076,0.30765963,-2.2689898,9.037501,0.5768618,1744.8304;-2.4228196,9.422076,0.30765963,-2.3843622,9.729735,0.11537236,1744.8304;-2.4228196,9.422076,0.30765963,-2.6920218,9.652821,0.11537236,1778.3849;-2.4228196,9.422076,0.30765963,-2.6920218,9.729735,0.53840435,1778.3849;-2.4228196,9.422076,0.30765963,-2.6920218,9.960481,-0.038457453,1778.3849;-2.4228196,9.422076,0.30765963,-2.3843622,10.11431,0.19228727,1811.9393;-2.4228196,9.422076,0.30765963,-2.5766494,9.883566,0.5768618,1811.9393;-2.4228196,9.422076,0.30765963,-2.4228196,9.883566,0.8845214,1811.9393;-2.4228196,9.422076,0.30765963,-2.4228196,9.768193,0.46148944,1811.9393;-2.4228196,9.422076,0.30765963,-2.7304792,9.883566,-0.38457453,1845.4938;-2.4228196,9.422076,0.30765963,-3.1150537,8.922129,-0.15382981,1845.4938;-2.4228196,9.422076,0.30765963,-2.7689366,9.345161,0.19228727,1845.4938;-2.4228196,9.422076,0.30765963,-1.6536705,9.80665,0.26920217,1879.0482;-2.4228196,9.422076,0.30765963,-2.6920218,9.460533,0.0,1879.0482;-2.4228196,9.422076,0.30765963,-2.3459046,9.268247,0.26920217,1879.0482;-2.4228196,9.422076,0.30765963,-2.5381918,9.383618,0.46148944,1912.6027;-2.4228196,9.422076,0.30765963,-3.1150537,9.422076,0.0,1912.6027;-2.4228196,9.422076,0.30765963,-2.5381918,9.691278,-0.038457453,1912.6027;-2.4228196,9.422076,0.30765963,-2.4997344,9.537449,0.0,1912.6027;-2.4228196,9.422076,0.30765963,-1.8459578,9.768193,0.76914907,1946.1571;-2.4228196,9.422076,0.30765963,-2.11516,9.998938,0.4999469,1946.1571;-2.4228196,9.422076,0.30765963,-2.6151068,9.537449,0.53840435,1946.1571;-2.4228196,9.422076,0.30765963,-2.2305322,9.498991,0.11537236,1979.7115;-2.4228196,9.422076,0.30765963,-2.9227664,9.845108,0.38457453,1979.7115;-2.4228196,9.422076,0.30765963,-2.9612238,9.845108,0.0,1979.7115;-2.4228196,9.422076,0.30765963,-2.6535642,9.614364,0.34611708,2013.2659;-2.4228196,9.422076,0.30765963,-2.3074472,9.075959,0.15382981,2013.2659;-2.4228196,9.422076,0.30765963,-2.461277,9.498991,0.53840435,2013.2659;-2.4228196,9.422076,0.30765963,-2.0767026,9.575906,0.26920217,2013.2659;-2.4228196,9.422076,0.30765963,-2.6151068,9.652821,-0.038457453,2046.8203;-2.4228196,9.422076,0.30765963,-2.6535642,9.768193,0.15382981,2046.8203;-2.4228196,9.422076,0.30765963,-2.7689366,9.152874,0.19228727,2046.8203;-2.4228196,9.422076,0.30765963,-2.3843622,9.768193,0.11537236,2080.3748;-2.4228196,9.422076,0.30765963,-2.1920748,9.537449,0.19228727,2080.3748;-2.4228196,9.422076,0.30765963,-2.5766494,9.422076,0.61531925,2080.3748;-2.4228196,9.422076,0.30765963,-1.7305853,9.306704,0.423032,2113.9292;-2.4228196,9.422076,0.30765963,-3.0381389,9.575906,-0.11537236,2113.9292;-2.4228196,9.422076,0.30765963,-2.8458514,9.537449,0.26920217,2113.9292;-2.4228196,9.422076,0.30765963,-2.3843622,9.729735,0.19228727,2113.9292;-2.4228196,9.422076,0.30765963,-2.4228196,9.268247,0.23074472,2147.4836;-2.4228196,9.422076,0.30765963,-2.11516,9.422076,-0.038457453,2147.4836;-2.4228196,9.422076,0.30765963,-2.4997344,9.537449,0.34611708,2147.4836;-2.4228196,9.422076,0.30765963,-2.6151068,9.614364,0.11537236,2181.038;-2.4228196,9.422076,0.30765963,-2.807394,9.652821,0.07691491,2181.038;-2.4228196,9.422076,0.30765963,-2.7689366,9.652821,0.423032,2181.038;-2.4228196,9.422076,0.30765963,-2.3843622,9.152874,0.846064,2214.5925;-2.4228196,9.422076,0.30765963,-2.461277,9.152874,0.846064,2214.5925;-2.4228196,9.422076,0.30765963,-2.038245,9.575906,0.5768618,2214.5925;-2.4228196,9.422076,0.30765963,-2.5381918,9.883566,0.61531925,2214.5925;-2.4228196,9.422076,0.30765963,-2.5766494,9.498991,0.423032,2248.147;-2.4228196,9.422076,0.30765963,-3.0765963,9.268247,-0.34611708,2248.147;-2.4228196,9.422076,0.30765963,-2.3459046,9.652821,-0.23074472,2248.147;-2.4228196,9.422076,0.30765963,-2.6151068,9.498991,0.07691491,2281.7014;-2.4228196,9.422076,0.30765963,-2.038245,9.422076,0.46148944,2281.7014;-2.4228196,9.422076,0.30765963,-2.5766494,9.498991,0.7306916,2281.7014;-2.4228196,9.422076,0.30765963,-2.8458514,9.614364,0.76914907,2281.7014;-2.4228196,9.422076,0.30765963,-3.0765963,9.537449,0.19228727,2315.2559;-2.4228196,9.422076,0.30765963,-3.1919687,9.422076,0.34611708,2315.2559;-2.4228196,9.422076,0.30765963,-3.0381389,9.345161,0.53840435,2315.2559;-2.4228196,9.422076,0.30765963,-2.4997344,8.922129,0.34611708,2348.8103;-2.4228196,9.422076,0.30765963,-2.4228196,9.229789,0.423032,2348.8103;-2.4228196,9.422076,0.30765963,-2.3843622,9.383618,-0.038457453,2348.8103;-2.4228196,9.422076,0.30765963,-2.6920218,9.845108,0.11537236,2382.3647;-2.4228196,9.422076,0.30765963,-2.5766494,9.80665,0.15382981,2382.3647;-2.4228196,9.422076,0.30765963,-2.7304792,9.768193,0.46148944,2382.3647;-2.4228196,9.422076,0.30765963,-2.7304792,9.652821,0.15382981,2415.9192;-2.4228196,9.422076,0.30765963,-2.4228196,9.306704,0.34611708,2415.9192;-2.4228196,9.422076,0.30765963,-2.038245,9.652821,0.7306916,2415.9192;-2.4228196,9.422076,0.30765963,-2.1920748,9.575906,0.5768618,2415.9192;-2.4228196,9.422076,0.30765963,-2.7689366,9.537449,0.26920217,2449.4736;-2.4228196,9.422076,0.30765963,-2.6151068,9.460533,-0.07691491,2449.4736;-2.4228196,9.422076,0.30765963,-2.3843622,9.422076,-0.07691491,2449.4736;-2.4228196,9.422076,0.30765963,-2.3074472,9.191331,-0.19228727,2483.028;-2.4228196,9.422076,0.30765963,-2.2305322,9.652821,0.0,2483.028;-2.4228196,9.422076,0.30765963,-2.3074472,8.999044,0.4999469,2483.028;-2.4228196,9.422076,0.30765963,-2.11516,9.768193,0.423032,2483.028;-2.4228196,9.422076,0.30765963,-2.884309,9.998938,0.46148944,2516.5825;-2.4228196,9.422076,0.30765963,-2.3843622,9.80665,0.4999469,2516.5825;-2.4228196,9.422076,0.30765963,-2.6920218,9.960481,0.23074472,2516.5825;-2.4228196,9.422076,0.30765963,-2.807394,10.075852,0.53840435,2550.1367;-2.4228196,9.422076,0.30765963,-2.884309,9.152874,0.30765963,2550.1367;-2.4228196,9.422076,0.30765963,-2.2305322,9.460533,0.34611708,2550.1367;-2.4228196,9.422076,0.30765963,-2.6151068,9.998938,0.26920217,2583.6912;-2.4228196,9.422076,0.30765963,-2.6151068,9.729735,-0.423032,2583.6912;-2.4228196,9.422076,0.30765963,-2.6535642,9.845108,0.11537236,2583.6912;-2.4228196,9.422076,0.30765963,-2.6151068,9.652821,0.19228727,2583.6912;-2.4228196,9.422076,0.30765963,-2.3074472,9.614364,0.69223416,2617.2456;-2.4228196,9.422076,0.30765963,-2.3843622,9.306704,0.5768618,2617.2456;-2.4228196,9.422076,0.30765963,-2.9227664,9.652821,0.30765963,2617.2456;-2.4228196,9.422076,0.30765963,-1.8844151,9.383618,0.34611708,2650.8;-2.4228196,9.422076,0.30765963,-3.1919687,9.729735,0.46148944,2650.8;-2.4228196,9.422076,0.30765963,-2.7689366,9.575906,0.26920217,2650.8;-2.4228196,9.422076,0.30765963,-2.7304792,9.460533,0.5768618,2684.3545;-2.4228196,9.422076,0.30765963,-2.2305322,9.80665,0.76914907,2684.3545;-2.4228196,9.422076,0.30765963,-2.5766494,9.80665,0.26920217,2684.3545;-2.4228196,9.422076,0.30765963,-2.3843622,9.998938,0.30765963,2684.3545;-2.4228196,9.422076,0.30765963,-2.807394,9.691278,-0.15382981,2717.909;-2.4228196,9.422076,0.30765963,-3.0381389,9.537449,-0.15382981,2717.909;-2.4228196,9.422076,0.30765963,-2.6151068,9.80665,-0.26920217,2717.909;-2.4228196,9.422076,0.30765963,-2.1536174,9.306704,0.46148944,2751.4634;-2.4228196,9.422076,0.30765963,-2.807394,9.306704,0.5768618,2751.4634;-2.4228196,9.422076,0.30765963,-2.1536174,9.383618,0.61531925,2751.4634;-2.4228196,9.422076,0.30765963,-2.6535642,9.537449,0.38457453,2751.4634;-2.4228196,9.422076,0.30765963,-2.461277,9.152874,-0.038457453,2785.0178;-2.4228196,9.422076,0.30765963,-2.3843622,10.191225,0.038457453,2785.0178;-2.4228196,9.422076,0.30765963,-2.4228196,9.460533,0.07691491,2785.0178;-2.4228196,9.422076,0.30765963,-2.6151068,9.845108,0.30765963,2818.5723;-2.4228196,9.422076,0.30765963,-2.2305322,9.537449,0.38457453,2818.5723;-2.4228196,9.422076,0.30765963,-2.3074472,9.537449,-0.07691491,2818.5723;-2.4228196,9.422076,0.30765963,-2.9612238,9.537449,0.26920217,2852.1267;-2.4228196,9.422076,0.30765963,-2.5381918,9.268247,0.34611708,2852.1267;-2.4228196,9.422076,0.30765963,-2.6920218,9.691278,0.0,2852.1267;-2.4228196,9.422076,0.30765963,-2.0767026,9.652821,0.19228727,2852.1267;-2.4228196,9.422076,0.30765963,-2.7304792,9.383618,0.07691491,2885.6812;-2.4228196,9.422076,0.30765963,-2.3074472,9.114416,0.8076065,2885.6812;-2.4228196,9.422076,0.30765963,-2.2305322,9.229789,0.19228727,2885.6812;-2.4228196,9.422076,0.30765963,-2.3074472,9.229789,0.30765963,2919.2356;-2.4228196,9.422076,0.30765963,-1.9613302,9.729735,0.19228727,2919.2356;-2.4228196,9.422076,0.30765963,-2.807394,9.383618,0.07691491,2919.2356;-2.4228196,9.422076,0.30765963,-2.4997344,9.729735,-0.19228727,2952.79;-2.4228196,9.422076,0.30765963,-2.11516,9.614364,-0.34611708,2952.79;-2.4228196,9.422076,0.30765963,-2.3459046,9.614364,-0.11537236,2952.79;-2.4228196,9.422076,0.30765963,-2.9996815,9.80665,0.46148944,2952.79;-2.4228196,9.422076,0.30765963,-2.8458514,9.460533,-0.46148944,2986.3445;-2.4228196,9.422076,0.30765963,-2.6920218,9.575906,0.07691491,2986.3445;-2.4228196,9.422076,0.30765963,-2.6920218,9.575906,0.38457453,2986.3445;-2.4228196,9.422076,0.30765963,-2.2689898,9.306704,-0.11537236,3019.899;-2.4228196,9.422076,0.30765963,-2.3074472,10.0373955,0.6537767,3019.899;-2.4228196,9.422076,0.30765963,-2.038245,9.652821,0.76914907,3019.899;-2.4228196,9.422076,0.30765963,-3.1919687,9.768193,0.38457453,3053.4534;-2.4228196,9.422076,0.30765963,-2.7304792,10.345055,0.19228727,3053.4534;-2.4228196,9.422076,0.30765963,-2.461277,10.075852,0.26920217,3053.4534;-2.4228196,9.422076,0.30765963,-2.3074472,9.614364,0.15382981,3053.4534;-2.4228196,9.422076,0.30765963,-2.4228196,9.652821,-0.038457453,3087.0078;-2.4228196,9.422076,0.30765963,-2.461277,9.960481,0.11537236,3087.0078;-2.4228196,9.422076,0.30765963,-2.2689898,9.306704,0.46148944,3087.0078;-2.4228196,9.422076,0.30765963,-2.807394,9.960481,-0.23074472,3120.5623;-2.4228196,9.422076,0.30765963,-3.1919687,10.152767,0.38457453,3120.5623;-2.4228196,9.422076,0.30765963,-2.5381918,10.152767,0.15382981,3120.5623;-2.4228196,9.422076,0.30765963,-2.2689898,9.383618,0.34611708,3154.1167;-2.4228196,9.422076,0.30765963,-1.9613302,9.114416,0.423032,3154.1167;-2.4228196,9.422076,0.30765963,-2.4997344,9.80665,0.26920217,3154.1167;-2.4228196,9.422076,0.30765963,-2.8458514,9.691278,0.5768618,3154.1167;-2.4228196,9.422076,0.30765963,-2.7304792,9.614364,0.30765963,3187.6711;-2.4228196,9.422076,0.30765963,-2.9227664,9.383618,0.0,3187.6711;-2.4228196,9.422076,0.30765963,-2.4228196,9.614364,0.30765963,3187.6711;-2.4228196,9.422076,0.30765963,-2.1536174,9.306704,0.69223416,3221.2256;-2.4228196,9.422076,0.30765963,-2.0767026,9.383618,0.423032,3221.2256;-2.4228196,9.422076,0.30765963,-2.4997344,9.268247,0.8076065,3221.2256;-2.4228196,9.422076,0.30765963,-2.5381918,9.498991,0.23074472,3254.7798;-2.4228196,9.422076,0.30765963,-2.6151068,9.922023,0.0,3254.7798;-2.4228196,9.422076,0.30765963,-2.3074472,9.729735,0.23074472,3254.7798;-2.4228196,9.422076,0.30765963,-1.9228727,9.268247,0.7306916,3254.7798;-2.4228196,9.422076,0.30765963,-2.3459046,9.422076,0.69223416,3288.3342;-2.4228196,9.422076,0.30765963,-2.4228196,9.075959,0.38457453,3288.3342;-2.4228196,9.422076,0.30765963,-2.3459046,9.537449,0.76914907,3288.3342;-2.4228196,9.422076,0.30765963,-2.6535642,9.883566,0.11537236,3321.8887;-2.4228196,9.422076,0.30765963,-2.6535642,9.614364,-0.15382981,3321.8887;-2.4228196,9.422076,0.30765963,-2.6535642,9.845108,0.8076065,3321.8887;-2.4228196,9.422076,0.30765963,-2.461277,9.80665,0.6537767,3321.8887;-2.4228196,9.422076,0.30765963,-2.4228196,9.268247,0.5768618,3355.443;-2.4228196,9.422076,0.30765963,-2.4228196,9.498991,0.69223416,3355.443;-2.4228196,9.422076,0.30765963,-2.1920748,9.729735,0.46148944,3355.443;-2.4228196,9.422076,0.30765963,-2.884309,9.614364,0.038457453,3388.9976;-2.4228196,9.422076,0.30765963,-2.7304792,9.922023,-0.30765963,3388.9976;-2.4228196,9.422076,0.30765963,-2.4228196,9.652821,0.34611708,3388.9976;-2.4228196,9.422076,0.30765963,-2.4228196,9.460533,0.423032,3422.552;-2.4228196,9.422076,0.30765963,-2.1536174,9.845108,0.423032,3422.552;-2.4228196,9.422076,0.30765963,-2.3074472,9.537449,0.69223416,3422.552;-2.4228196,9.422076,0.30765963,-2.461277,9.460533,0.038457453,3422.552;-2.4228196,9.422076,0.30765963,-2.461277,10.0373955,-0.38457453,3456.1064;-2.4228196,9.422076,0.30765963,-2.3843622,9.537449,0.30765963,3456.1064;-2.4228196,9.422076,0.30765963,-2.4228196,9.383618,0.23074472,3456.1064;-2.4228196,9.422076,0.30765963,-2.0767026,9.191331,0.423032,3489.661;-2.4228196,9.422076,0.30765963,-2.2689898,8.729842,0.61531925,3489.661;-2.4228196,9.422076,0.30765963,-2.6151068,9.575906,0.846064,3489.661;-2.4228196,9.422076,0.30765963,-2.4997344,9.691278,0.038457453,3523.2153;-2.4228196,9.422076,0.30765963,-2.807394,9.922023,0.11537236,3523.2153;-2.4228196,9.422076,0.30765963,-2.6151068,9.691278,0.038457453,3523.2153;-2.4228196,9.422076,0.30765963,-2.7689366,9.229789,-0.38457453,3523.2153;-2.4228196,9.422076,0.30765963,-2.461277,9.537449,0.30765963,3556.7698;-2.4228196,9.422076,0.30765963,-1.8844151,9.80665,0.9229789,3556.7698;-2.4228196,9.422076,0.30765963,-2.4228196,10.152767,0.4999469,3556.7698;-2.4228196,9.422076,0.30765963,-2.4997344,9.575906,0.26920217,3590.3242;-2.4228196,9.422076,0.30765963,-2.6151068,9.383618,-0.19228727,3590.3242;-2.4228196,9.422076,0.30765963,-2.884309,9.691278,0.4999469,3590.3242;-2.4228196,9.422076,0.30765963,-2.807394,9.460533,0.53840435,3623.8787;-2.4228196,9.422076,0.30765963,-1.9997876,9.614364,0.46148944,3623.8787;-2.4228196,9.422076,0.30765963,-2.6535642,9.537449,0.6537767,3623.8787;-2.4228196,9.422076,0.30765963,-2.2689898,9.422076,0.19228727,3623.8787;-2.4228196,9.422076,0.30765963,-2.6920218,9.729735,0.038457453,3657.433;-2.4228196,9.422076,0.30765963,-2.3459046,9.652821,0.34611708,3657.433;-2.4228196,9.422076,0.30765963,-2.5766494,10.075852,0.11537236,3657.433;-2.4228196,9.422076,0.30765963,-2.3843622,9.960481,0.26920217,3690.9875;-2.4228196,9.422076,0.30765963,-2.4997344,9.460533,0.7306916,3690.9875;-2.4228196,9.422076,0.30765963,-2.2305322,9.691278,0.46148944,3690.9875;-2.4228196,9.422076,0.30765963,-2.1920748,9.922023,0.26920217,3724.542;-2.4228196,9.422076,0.30765963,-2.9227664,9.229789,0.19228727,3724.542;-2.4228196,9.422076,0.30765963,-2.6535642,9.383618,0.0,3724.542;-2.4228196,9.422076,0.30765963,-2.9996815,9.422076,0.038457453,3724.542;-2.4228196,9.422076,0.30765963,-2.3074472,9.729735,0.34611708,3758.0964;-2.4228196,9.422076,0.30765963,-2.461277,9.268247,0.69223416,3758.0964;-2.4228196,9.422076,0.30765963,-2.2689898,9.729735,0.8845214,3758.0964;-2.4228196,9.422076,0.30765963,-2.038245,9.422076,0.19228727,3791.651;-2.4228196,9.422076,0.30765963,-2.2689898,10.152767,0.07691491,3791.651;-2.4228196,9.422076,0.30765963,-2.5381918,9.575906,0.4999469,3791.651;-2.4228196,9.422076,0.30765963,-2.6920218,9.383618,-0.07691491,3791.651;-2.4228196,9.422076,0.30765963,-2.1536174,9.960481,0.26920217,3825.2053;-2.4228196,9.422076,0.30765963,-2.3843622,9.306704,0.6537767,3825.2053;-2.4228196,9.422076,0.30765963,-2.038245,9.537449,0.7306916,3825.2053;-2.4228196,9.422076,0.30765963,-2.7304792,9.691278,0.38457453,3858.7598;-2.4228196,9.422076,0.30765963,-2.884309,9.537449,0.19228727,3858.7598;-2.4228196,9.422076,0.30765963,-2.6920218,9.614364,-0.11537236,3858.7598;-2.4228196,9.422076,0.30765963,-2.2689898,9.652821,0.19228727,3892.3142;-2.4228196,9.422076,0.30765963,-2.3843622,9.268247,1.0768087,3892.3142;-2.4228196,9.422076,0.30765963,-2.1920748,9.614364,0.53840435,3892.3142;-2.4228196,9.422076,0.30765963,-2.3074472,9.691278,0.53840435,3892.3142;-2.4228196,9.422076,0.30765963,-2.6151068,9.575906,-0.34611708,3925.8687;-2.4228196,9.422076,0.30765963,-2.5766494,9.729735,0.38457453,3925.8687;-2.4228196,9.422076,0.30765963,-2.6151068,9.498991,-0.26920217,3925.8687;-2.4228196,9.422076,0.30765963,-2.1536174,9.729735,0.76914907,3959.423;-2.4228196,9.422076,0.30765963,-1.9613302,9.460533,0.34611708,3959.423;-2.4228196,9.422076,0.30765963,-2.4228196,10.0373955,0.34611708,3959.423;-2.4228196,9.422076,0.30765963,-2.5381918,9.460533,0.23074472,3992.9773;-2.4228196,9.422076,0.30765963,-2.2305322,9.883566,0.423032,3992.9773;-2.4228196,9.422076,0.30765963,-2.461277,9.652821,0.6537767,3992.9773;-2.4228196,9.422076,0.30765963,-2.884309,9.537449,0.23074472,3992.9773;-2.4228196,9.422076,0.30765963,-2.807394,9.537449,0.846064,4026.5317;-2.4228196,9.422076,0.30765963,-2.3459046,9.498991,0.61531925,4026.5317;-2.4228196,9.422076,0.30765963,-2.461277,10.075852,0.30765963,4026.5317;-2.4228196,9.422076,0.30765963,-2.807394,9.614364,0.4999469,4060.0862;-2.4228196,9.422076,0.30765963,-2.5766494,9.922023,0.26920217,4060.0862;-2.4228196,9.422076,0.30765963,-2.884309,9.383618,0.23074472,4060.0862;-2.4228196,9.422076,0.30765963,-2.6920218,9.306704,0.34611708,4093.6406;-2.4228196,9.422076,0.30765963,-2.5381918,9.537449,0.07691491,4093.6406;-2.4228196,9.422076,0.30765963,-2.2305322,9.80665,0.53840435,4093.6406;-2.4228196,9.422076,0.30765963,-2.5766494,9.229789,0.8076065,4093.6406;-2.4228196,9.422076,0.30765963,-2.807394,9.652821,0.26920217,4127.1953;-2.4228196,9.422076,0.30765963,-3.4227133,9.729735,0.46148944,4127.1953;-2.4228196,9.422076,0.30765963,-2.2689898,9.80665,0.6537767,4127.1953;-2.4228196,9.422076,0.30765963,-2.2305322,9.537449,0.38457453,4160.7495;-2.4228196,9.422076,0.30765963,-1.8844151,9.729735,0.38457453,4160.7495;-2.4228196,9.422076,0.30765963,-2.5766494,9.691278,0.46148944,4160.7495;-2.4228196,9.422076,0.30765963,-2.7689366,9.498991,0.15382981,4194.304;-2.4228196,9.422076,0.30765963,-2.4228196,9.729735,-0.038457453,4194.304;-2.4228196,9.422076,0.30765963,-2.6920218,9.729735,0.4999469,4194.304;-2.4228196,9.422076,0.30765963,-1.9613302,9.460533,0.7306916,4227.8584;-2.4228196,9.422076,0.30765963,-1.7690428,9.422076,0.846064,4227.8584;-2.4228196,9.422076,0.30765963,-2.6151068,10.191225,1.1921811,4227.8584;-2.4228196,9.422076,0.30765963,-2.6535642,9.80665,1.0383513,4261.413;-2.4228196,9.422076,0.30765963,-2.4997344,9.575906,0.4999469,4261.413;-2.4228196,9.422076,0.30765963,-2.7304792,9.652821,0.53840435,4261.413;-2.4228196,9.422076,0.30765963,-2.5766494,9.383618,0.4999469,4261.413;-2.4228196,9.422076,0.30765963,-2.11516,9.229789,0.23074472,4294.9673;-2.4228196,9.422076,0.30765963,-2.1920748,9.575906,0.26920217,4294.9673;-2.4228196,9.422076,0.30765963,-2.3843622,9.80665,0.53840435,4294.9673;-2.4228196,9.422076,0.30765963,-2.8458514,9.229789,0.46148944,4328.5215;-2.4228196,9.422076,0.30765963,-2.6151068,9.883566,0.34611708,4328.5215;-2.4228196,9.422076,0.30765963,-2.9612238,9.345161,0.38457453,4328.5215;-2.4228196,9.422076,0.30765963,-2.461277,9.075959,0.07691491,4362.076;-2.4228196,9.422076,0.30765963,-2.461277,9.383618,0.53840435,4362.076;-2.4228196,9.422076,0.30765963,-2.1920748,9.614364,0.76914907,4362.076;-2.4228196,9.422076,0.30765963,-3.0381389,9.537449,0.6537767,4362.076;-2.4228196,9.422076,0.30765963,-2.5766494,9.537449,0.23074472,4395.6304;-2.4228196,9.422076,0.30765963,-2.7689366,9.845108,0.61531925,4395.6304;-2.4228196,9.422076,0.30765963,-2.5766494,9.960481,-0.26920217,4395.6304;-2.4228196,9.422076,0.30765963,-2.5381918,9.345161,0.11537236,4429.185;-2.4228196,9.422076,0.30765963,-2.4228196,9.498991,0.6537767,4429.185;-2.4228196,9.422076,0.30765963,-2.5766494,9.460533,0.9229789,4429.185;-2.4228196,9.422076,0.30765963,-2.7304792,9.691278,0.423032,4462.7393;-2.4228196,9.422076,0.30765963,-2.4228196,9.845108,0.61531925,4462.7393;-2.4228196,9.422076,0.30765963,-2.6151068,9.422076,0.07691491,4462.7393;-2.4228196,9.422076,0.30765963,-3.0381389,9.114416,0.07691491,4462.7393;-2.4228196,9.422076,0.30765963,-2.4228196,8.883672,0.26920217,4496.294;-2.4228196,9.422076,0.30765963,-2.11516,9.845108,0.423032,4496.294;-2.4228196,9.422076,0.30765963,-2.3843622,9.614364,0.23074472,4496.294;-2.4228196,9.422076,0.30765963,-2.9612238,10.0373955,0.0,4529.848;-2.4228196,9.422076,0.30765963,-2.3074472,9.614364,0.23074472,4529.848;-2.4228196,9.422076,0.30765963,-2.884309,9.229789,0.38457453,4529.848;-2.4228196,9.422076,0.30765963,-1.9613302,9.460533,0.9229789,4563.403;-2.4228196,9.422076,0.30765963,-2.1536174,9.075959,1.1152661,4563.403;-2.4228196,9.422076,0.30765963,-2.3459046,9.537449,0.8076065,4563.403;-2.4228196,9.422076,0.30765963,-2.4997344,9.229789,0.4999469,4563.403;-2.4228196,9.422076,0.30765963,-2.5381918,9.729735,0.69223416,4596.957;-2.4228196,9.422076,0.30765963,-2.807394,9.306704,0.6537767,4596.957;-2.4228196,9.422076,0.30765963,-2.4228196,9.460533,-0.30765963,4596.957;-2.4228196,9.422076,0.30765963,-2.461277,9.268247,-0.038457453,4630.5117;-2.4228196,9.422076,0.30765963,-1.8075004,9.614364,0.53840435,4630.5117;-2.4228196,9.422076,0.30765963,-2.6535642,9.460533,0.15382981,4664.066;-2.4228196,9.422076,0.30765963,-2.6535642,9.768193,0.46148944,4664.066;-2.4228196,9.422076,0.30765963,-2.461277,9.306704,-0.11537236,4664.066;-2.4228196,9.422076,0.30765963,-2.5766494,9.845108,0.15382981,4664.066;-2.4228196,9.422076,0.30765963,-2.11516,9.422076,0.423032,4697.6206;-2.4228196,9.422076,0.30765963,-2.1536174,9.691278,0.846064,4697.6206;-2.4228196,9.422076,0.30765963,-2.038245,10.0373955,0.61531925,4697.6206;-2.4228196,9.422076,0.30765963,-2.2689898,9.268247,0.0,4731.175;-2.4228196,9.422076,0.30765963,-2.4228196,9.922023,0.0,4731.175;-2.4228196,9.422076,0.30765963,-2.3843622,9.345161,0.30765963,4731.175;-2.4228196,9.422076,0.30765963,-2.3459046,9.537449,0.34611708,4731.175;-2.4228196,9.422076,0.30765963,-2.4228196,9.691278,0.0,4764.7295;-2.4228196,9.422076,0.30765963,-2.11516,9.422076,0.69223416,4764.7295;-2.4228196,9.422076,0.30765963,-2.807394,9.498991,0.07691491,4764.7295;-2.4228196,9.422076,0.30765963,-2.461277,9.652821,0.19228727,4798.2837;-2.4228196,9.422076,0.30765963,-2.7304792,9.614364,0.07691491,4798.2837;-2.4228196,9.422076,0.30765963,-2.7304792,9.268247,0.19228727,4798.2837;-2.4228196,9.422076,0.30765963,-2.6151068,9.037501,0.7306916,4831.8384;-2.4228196,9.422076,0.30765963,-2.5766494,9.845108,0.423032,4831.8384;-2.4228196,9.422076,0.30765963,-2.1536174,9.575906,0.30765963,4831.8384;-2.4228196,9.422076,0.30765963,-2.807394,9.498991,0.038457453,4831.8384;-2.4228196,9.422076,0.30765963,-2.4997344,9.922023,0.46148944,4865.3926;-2.4228196,9.422076,0.30765963,-2.9996815,9.383618,0.19228727,4865.3926;-2.4228196,9.422076,0.30765963,-2.8458514,9.768193,0.23074472,4865.3926;-2.4228196,9.422076,0.30765963,-2.11516,9.498991,0.423032,4898.9473;-2.4228196,9.422076,0.30765963,-2.1536174,9.306704,0.96143633,4898.9473;-2.4228196,9.422076,0.30765963,-2.9227664,9.652821,0.53840435,4898.9473;-2.4228196,9.422076,0.30765963,-2.8458514,9.229789,0.038457453,4932.5015;-2.4228196,9.422076,0.30765963,-2.807394,9.306704,0.53840435,4932.5015;-2.4228196,9.422076,0.30765963,-3.0381389,9.729735,0.30765963,4932.5015;-2.4228196,9.422076,0.30765963,-2.6151068,9.383618,0.46148944,4932.5015;-2.4228196,9.422076,0.30765963,-2.1536174,9.498991,0.26920217,4966.056;-2.4228196,9.422076,0.30765963,-2.6151068,9.422076,0.5768618,4966.056;-2.4228196,9.422076,0.30765963,-2.4997344,10.306598,0.53840435,4966.056;-2.4228196,9.422076,0.30765963,-2.6535642,9.537449,0.6537767,4999.6104;-2.4228196,9.422076,0.30765963,-2.5381918,9.460533,-0.15382981,4999.6104;-2.4228196,9.422076,0.30765963,-2.3459046,9.575906,-0.11537236,4999.6104;-2.4228196,9.422076,0.30765963,-2.2305322,9.614364,0.38457453,5033.165;-2.4228196,9.422076,0.30765963,-2.038245,9.460533,0.8845214,5033.165;-2.4228196,9.422076,0.30765963,-2.1920748,9.768193,1.1921811,5033.165;-2.4228196,9.422076,0.30765963,-2.5381918,9.729735,0.46148944,5033.165;-2.4228196,9.422076,0.30765963,-2.7304792,9.845108,0.30765963,5066.719;-2.4228196,9.422076,0.30765963,-2.6920218,9.460533,0.038457453,5066.719;-2.4228196,9.422076,0.30765963,-2.8458514,9.575906,0.26920217,5066.719;-2.4228196,9.422076,0.30765963,-2.2305322,9.306704,-0.19228727,5100.2734;-2.4228196,9.422076,0.30765963,-2.1536174,9.537449,0.76914907,5100.2734;-2.4228196,9.422076,0.30765963,-2.461277,9.383618,1.0383513,5100.2734;-2.4228196,9.422076,0.30765963,-2.3074472,10.075852,0.11537236,5133.828;-2.4228196,9.422076,0.30765963,-2.7304792,9.998938,0.23074472,5133.828;-2.4228196,9.422076,0.30765963,-2.5766494,9.729735,-0.07691491,5133.828;-2.4228196,9.422076,0.30765963,-2.3843622,9.80665,0.38457453,5133.828;-2.4228196,9.422076,0.30765963,-2.3459046,9.075959,0.5768618,5167.3823;-2.4228196,9.422076,0.30765963,-2.038245,9.883566,0.69223416,5167.3823;-2.4228196,9.422076,0.30765963,-2.7689366,9.614364,0.8076065,5167.3823;-2.4228196,9.422076,0.30765963,-2.7304792,9.998938,0.9229789,5200.937;-2.4228196,9.422076,0.30765963,-2.5381918,9.614364,0.15382981,5200.937;-2.4228196,9.422076,0.30765963,-2.7689366,9.80665,-0.038457453,5200.937;-2.4228196,9.422076,0.30765963,-2.8458514,9.80665,0.11537236,5234.491;-2.4228196,9.422076,0.30765963,-2.2689898,9.575906,0.07691491,5234.491;-2.4228196,9.422076,0.30765963,-2.3074472,9.345161,0.7306916,5234.491;-2.4228196,9.422076,0.30765963,-2.5766494,9.460533,0.76914907,5234.491;-2.4228196,9.422076,0.30765963,-3.0381389,9.883566,0.11537236,5268.046;-2.4228196,9.422076,0.30765963,-3.0765963,9.768193,0.19228727,5268.046;-2.4228196,9.422076,0.30765963,-2.807394,9.768193,0.9998938,5268.046;-2.4228196,9.422076,0.30765963,-2.2305322,9.691278,0.846064,5301.6;-2.4228196,9.422076,0.30765963,-1.9997876,9.498991,0.96143633,5301.6;-2.4228196,9.422076,0.30765963,-2.6535642,9.575906,0.26920217,5301.6;-2.4228196,9.422076,0.30765963,-2.6535642,9.575906,0.46148944,5301.6;-2.4228196,9.422076,0.30765963,-2.6920218,9.960481,0.23074472,5335.155;-2.4228196,9.422076,0.30765963,-2.5766494,9.691278,0.038457453,5335.155;-2.4228196,9.422076,0.30765963,-2.5381918,9.614364,-0.07691491,5335.155;-2.4228196,9.422076,0.30765963,-2.11516,9.614364,0.38457453,5368.709;-2.4228196,9.422076,0.30765963,-2.3074472,9.268247,0.69223416,5368.709;-2.4228196,9.422076,0.30765963,-2.6535642,9.498991,0.846064,5368.709;-2.4228196,9.422076,0.30765963,-2.9227664,10.191225,0.5768618,5402.2637;-2.4228196,9.422076,0.30765963,-2.461277,9.614364,0.423032,5402.2637;-2.4228196,9.422076,0.30765963,-2.3074472,9.768193,0.23074472,5402.2637;-2.4228196,9.422076,0.30765963,-2.3843622,9.037501,0.7306916,5435.818;-2.4228196,9.422076,0.30765963,-2.5381918,8.999044,0.34611708,5435.818;-2.4228196,9.422076,0.30765963,-2.2689898,9.191331,0.46148944,5435.818;-2.4228196,9.422076,0.30765963,-2.807394,9.191331,0.5768618,5435.818;-2.4228196,9.422076,0.30765963,-2.5381918,10.152767,0.38457453,5469.3726;-2.4228196,9.422076,0.30765963,-2.4997344,9.691278,0.11537236,5469.3726;-2.4228196,9.422076,0.30765963,-2.4228196,9.152874,-0.07691491,5469.3726;-2.4228196,9.422076,0.30765963,-1.9228727,9.345161,0.4999469,5502.927;-2.4228196,9.422076,0.30765963,-2.5381918,9.768193,0.11537236,5502.927;-2.4228196,9.422076,0.30765963,-2.4228196,10.075852,0.34611708,5502.927;-2.4228196,9.422076,0.30765963,-2.1920748,9.729735,0.53840435,5502.927;-2.4228196,10.498885,0.30765963,-2.807394,10.498885,0.46148944,5536.4814;-2.4228196,10.498885,0.30765963,-2.6535642,9.691278,0.07691491,5536.4814;-2.4228196,10.498885,0.30765963,-2.1536174,9.537449,-0.038457453,5536.4814;-2.4228196,9.306704,0.30765963,-2.884309,9.306704,0.15382981,5570.0356;-2.4228196,9.306704,0.30765963,-2.3074472,9.691278,0.9229789,5570.0356;-2.4228196,9.306704,0.30765963,-2.1536174,9.768193,0.46148944,5570.0356;-2.4228196,9.306704,0.30765963,-2.7304792,9.152874,0.46148944,5603.5903;-2.4228196,9.306704,0.30765963,-2.9612238,9.229789,0.4999469,5603.5903;-2.4228196,9.306704,0.30765963,-3.153511,9.575906,0.07691491,5603.5903;-2.4228196,9.306704,0.30765963,-2.11516,9.614364,0.6537767,5603.5903;-2.4228196,9.306704,0.30765963,-2.5381918,9.575906,0.5768618,5637.1445;-2.4228196,9.306704,0.30765963,-2.038245,9.268247,0.6537767,5637.1445;-2.4228196,9.306704,0.30765963,-2.5766494,9.229789,0.15382981,5637.1445;-2.4228196,9.306704,0.30765963,-2.8458514,9.422076,0.038457453,5670.699;-2.4228196,9.306704,0.30765963,-2.807394,9.422076,0.38457453,5670.699;-2.4228196,9.306704,0.30765963,-2.6920218,9.883566,0.30765963,5670.699;-2.4228196,9.306704,0.30765963,-2.3843622,9.037501,0.38457453,5704.2534;-2.4228196,9.306704,0.30765963,-2.038245,9.383618,0.96143633,5704.2534;-2.4228196,9.306704,0.30765963,-2.7304792,9.460533,0.9229789,5704.2534;-2.4228196,9.306704,0.30765963,-2.807394,9.691278,0.7306916,5704.2534;-2.4228196,9.306704,0.30765963,-2.2689898,9.652821,0.5768618,5737.808;-2.4228196,9.306704,0.30765963,-2.884309,9.652821,0.6537767,5737.808;-2.4228196,9.306704,0.30765963,-2.6535642,9.691278,0.07691491,5737.808;-2.4228196,9.306704,0.30765963,-2.5766494,9.845108,0.34611708,5771.3623;-2.4228196,9.306704,0.30765963,-2.4228196,9.845108,0.61531925,5771.3623;-2.4228196,9.306704,0.30765963,-2.2689898,9.460533,0.5768618,5771.3623;-2.4228196,9.306704,0.30765963,-2.5381918,9.498991,0.30765963,5771.3623;-2.4228196,9.306704,0.30765963,-3.1919687,9.460533,-0.53840435,5804.9165;-2.4228196,9.306704,0.30765963,-2.8458514,9.498991,0.5768618,5804.9165;-2.4228196,9.306704,0.30765963,-2.3459046,9.80665,0.23074472,5804.9165;-2.4228196,9.306704,0.30765963,-1.8075004,9.80665,0.34611708,5838.471;-2.4228196,9.306704,0.30765963,-2.3843622,9.498991,0.30765963,5838.471;-2.4228196,9.306704,0.30765963,-2.5766494,9.960481,0.5768618,5838.471;-2.4228196,9.306704,0.30765963,-2.4228196,9.729735,-0.15382981,5872.0254;-2.4228196,9.306704,0.30765963,-2.5766494,9.460533,0.23074472,5872.0254;-2.4228196,9.306704,0.30765963,-2.5381918,9.768193,0.19228727,5872.0254;-2.4228196,9.306704,0.30765963,-2.0767026,9.729735,0.46148944,5872.0254;-2.4228196,9.306704,0.30765963,-2.3074472,9.768193,0.9229789,5905.58;-2.4228196,9.306704,0.30765963,-2.4997344,9.422076,1.2306385,5905.58;-2.4228196,9.306704,0.30765963,-2.7689366,9.306704,0.46148944,5905.58;-2.4228196,9.306704,0.30765963,-2.9612238,10.191225,0.46148944,5939.1343;-2.4228196,9.306704,0.30765963,-2.807394,9.614364,0.30765963,5939.1343;-2.4228196,9.306704,0.30765963,-2.9996815,9.460533,0.19228727,5939.1343;-2.4228196,9.306704,0.30765963,-2.5766494,9.114416,0.15382981,5972.689;-2.4228196,9.306704,0.30765963,-2.1920748,9.268247,0.423032,5972.689;-2.4228196,9.306704,0.30765963,-2.11516,9.422076,0.38457453,5972.689;-2.4228196,9.306704,0.30765963,-2.3459046,9.345161,0.8845214,5972.689;-2.4228196,9.306704,0.30765963,-2.6151068,9.768193,0.34611708,6006.243;-2.4228196,9.306704,0.30765963,-2.7689366,9.383618,0.34611708,6006.243;-2.4228196,9.306704,0.30765963,-1.8459578,9.383618,0.53840435,6006.243;-2.4228196,9.306704,0.30765963,-2.6151068,9.460533,0.11537236,6039.798;-2.4228196,9.306704,0.30765963,-2.1920748,9.498991,0.76914907,6039.798;-2.4228196,9.306704,0.30765963,-2.3843622,9.768193,0.61531925,6039.798;-2.4228196,9.306704,0.30765963,-2.6920218,9.383618,0.5768618,6073.352;-2.4228196,9.306704,0.30765963,-2.9227664,9.614364,-0.07691491,6073.352;-2.4228196,9.306704,0.30765963,-2.3459046,10.075852,0.23074472,6073.352;-2.4228196,9.306704,0.30765963,-2.807394,9.614364,0.34611708,6073.352;-2.4228196,9.306704,0.30765963,-2.4997344,9.80665,0.96143633,6106.9067;-2.4228196,9.306704,0.30765963,-2.5766494,9.691278,0.8076065,6106.9067;-2.4228196,9.306704,0.30765963,-2.884309,9.537449,0.46148944,6106.9067;-2.4228196,9.306704,0.30765963,-2.5381918,9.768193,0.7306916,6140.461;-2.4228196,9.306704,0.30765963,-2.2689898,9.537449,0.76914907,6140.461;-2.4228196,9.306704,0.30765963,-2.807394,9.306704,0.38457453,6140.461;-2.4228196,9.306704,0.30765963,-2.6535642,9.422076,-0.038457453,6174.0156;-2.4228196,9.306704,0.30765963,-2.2305322,9.422076,0.15382981,6174.0156;-2.4228196,9.306704,0.30765963,-2.4228196,9.691278,0.23074472,6174.0156;-2.4228196,9.306704,0.30765963,-2.6151068,9.422076,0.46148944,6174.0156;-2.4228196,9.306704,0.30765963,-2.807394,9.960481,0.038457453,6207.57;-2.4228196,9.306704,0.30765963,-2.807394,9.80665,0.4999469,6207.57;-2.4228196,9.306704,0.30765963,-2.884309,9.729735,0.8076065,6207.57;-2.4228196,9.306704,0.30765963,-2.4997344,9.498991,0.5768618,6241.1245;-2.4228196,9.306704,0.30765963,-2.5381918,10.075852,0.38457453,6241.1245;-2.4228196,9.306704,0.30765963,-2.5381918,9.80665,1.0768087,6241.1245;-2.4228196,9.306704,0.30765963,-2.6535642,9.498991,0.38457453,6241.1245;-2.4228196,9.306704,0.30765963,-2.9612238,9.80665,0.26920217,6274.6787;-2.4228196,9.306704,0.30765963,-2.7304792,9.845108,-0.30765963,6274.6787;-2.4228196,9.306704,0.30765963,-2.9996815,9.845108,0.8076065,6274.6787;-2.4228196,9.306704,0.30765963,-2.2689898,9.883566,0.4999469,6308.2334;-2.4228196,9.306704,0.30765963,-1.9228727,9.768193,0.26920217,6308.2334;-2.4228196,9.306704,0.30765963,-2.461277,9.614364,0.6537767,6308.2334;-2.4228196,9.306704,0.30765963,-2.2689898,9.729735,0.61531925,6341.7876;-2.4228196,9.306704,0.30765963,-2.807394,9.537449,-0.23074472,6341.7876;-2.4228196,9.306704,0.30765963,-2.6535642,9.922023,0.19228727,6341.7876;-2.4228196,9.306704,0.30765963,-2.4997344,9.345161,0.26920217,6341.7876;-2.4228196,9.306704,0.30765963,-2.461277,9.268247,0.69223416,6375.3423;-2.4228196,9.306704,0.30765963,-2.11516,9.460533,0.69223416,6375.3423;-2.4228196,9.306704,0.30765963,-2.4997344,9.422076,0.53840435,6375.3423;-2.4228196,9.306704,0.30765963,-2.3074472,9.652821,0.61531925,6408.8965;-2.4228196,9.306704,0.30765963,-2.9227664,9.845108,0.23074472,6408.8965;-2.4228196,9.306704,0.30765963,-2.4228196,9.729735,0.4999469,6408.8965;-2.4228196,9.306704,0.30765963,-3.1150537,9.537449,0.61531925,6442.451;-2.4228196,9.306704,0.30765963,-2.0767026,9.345161,0.8076065,6442.451;-2.4228196,9.306704,0.30765963,-2.8458514,9.80665,0.96143633,6442.451;-2.4228196,9.306704,0.30765963,-2.461277,9.652821,0.846064,6442.451;-2.4228196,9.306704,0.30765963,-2.807394,9.575906,0.11537236,6476.0054;-2.4228196,9.306704,0.30765963,-2.8458514,9.729735,-0.19228727,6476.0054;-2.4228196,9.306704,0.30765963,-3.0765963,9.575906,0.15382981,6476.0054;-2.4228196,9.306704,0.30765963,-2.2689898,9.691278,-0.26920217,6509.5596;-2.4228196,9.306704,0.30765963,-2.3459046,9.768193,0.0,6509.5596;-2.4228196,9.306704,0.30765963,-2.461277,9.383618,0.423032,6509.5596;-2.4228196,9.306704,0.30765963,-2.9227664,9.575906,0.53840435,6543.1143;-2.4228196,9.306704,0.30765963,-3.0765963,9.537449,0.30765963,6543.1143;-2.4228196,9.306704,0.30765963,-2.3843622,9.652821,0.38457453,6543.1143;-2.4228196,9.306704,0.30765963,-2.5766494,9.075959,0.26920217,6543.1143;-2.4228196,9.306704,0.30765963,-2.2305322,9.498991,0.9998938,6576.6685;-2.4228196,9.306704,0.30765963,-2.3459046,9.537449,0.38457453,6576.6685;-2.4228196,9.306704,0.30765963,-2.4228196,9.537449,0.38457453,6576.6685;-3.4611707,9.306704,0.30765963,-3.4611707,9.80665,0.53840435,6610.223;-3.4611707,9.306704,0.30765963,-2.6535642,9.883566,0.11537236,6610.223;-2.3843622,9.306704,0.30765963,-2.3843622,9.614364,-0.423032,6610.223;-2.3843622,9.306704,0.30765963,-2.807394,9.537449,0.9229789,6643.7773;-2.3843622,9.306704,0.30765963,-1.9997876,9.345161,0.5768618,6643.7773;-2.3843622,9.306704,0.30765963,-2.4997344,9.498991,0.69223416,6643.7773;-2.3843622,9.306704,0.30765963,-2.3459046,9.191331,0.76914907,6643.7773;-2.3843622,9.306704,0.30765963,-3.0765963,9.614364,0.61531925,6677.332;-2.3843622,9.306704,0.30765963,-2.9612238,9.383618,0.34611708,6677.332;-2.3843622,9.306704,0.30765963,-2.461277,9.383618,0.26920217,6677.332;-2.3843622,9.306704,0.30765963,-2.461277,9.229789,0.7306916,6710.886;-2.3843622,9.306704,0.30765963,-2.4228196,9.652821,0.19228727,6710.886;-2.3843622,9.306704,0.30765963,-2.3843622,9.460533,0.34611708,6710.886;-2.3843622,9.306704,0.30765963,-2.6151068,9.729735,0.07691491,6744.441;-2.3843622,9.306704,0.30765963,-2.7304792,9.845108,0.07691491,6744.441;-2.3843622,9.306704,0.30765963,-3.0765963,9.345161,0.038457453,6744.441;-2.3843622,9.306704,0.30765963,-2.4228196,9.345161,0.5768618,6744.441;-2.3843622,9.306704,0.30765963,-2.3459046,9.729735,0.26920217,6777.995;-2.3843622,9.306704,0.30765963,-2.1536174,9.614364,0.423032,6777.995;-2.3843622,9.306704,0.30765963,-2.4228196,9.152874,0.038457453,6777.995;-2.3843622,9.306704,0.30765963,-2.6920218,9.960481,0.11537236,6811.55;-2.3843622,9.306704,0.30765963,-2.9227664,9.575906,-0.15382981,6811.55;-2.3843622,9.306704,0.30765963,-3.153511,9.229789,-0.07691491,6811.55;-2.3843622,9.306704,0.30765963,-2.3459046,9.383618,0.19228727,6811.55;-2.3843622,9.306704,0.30765963,-2.1536174,9.306704,0.76914907,6845.104;-2.3843622,9.306704,0.30765963,-1.8844151,9.768193,0.8845214,6845.104;-2.3843622,9.306704,0.30765963,-2.3459046,10.075852,0.26920217,6845.104;-2.3843622,9.306704,0.30765963,-2.5766494,9.537449,0.846064,6878.6587;-2.3843622,9.306704,0.30765963,-2.9227664,9.883566,0.5768618,6878.6587;-2.3843622,9.306704,0.30765963,-2.461277,9.537449,0.23074472,6878.6587;-2.3843622,9.306704,0.30765963,-2.5381918,9.575906,0.19228727,6912.213;-2.3843622,9.306704,0.30765963,-2.807394,9.422076,0.6537767,6912.213;-2.3843622,9.306704,0.30765963,-1.692128,9.691278,0.69223416,6912.213;-2.3843622,9.306704,0.30765963,-2.6920218,9.383618,0.423032,6912.213;-2.3843622,9.306704,0.30765963,-2.3459046,9.460533,0.15382981,6945.7676;-2.3843622,9.306704,0.30765963,-3.0381389,9.191331,0.34611708,6945.7676;-2.3843622,9.306704,0.30765963,-2.884309,9.652821,0.53840435,6945.7676;-2.3843622,9.306704,0.30765963,-1.9613302,9.460533,0.34611708,6979.322;-2.3843622,9.306704,0.30765963,-2.3459046,9.614364,0.53840435,6979.322;-2.3843622,9.306704,0.30765963,-2.4997344,9.652821,0.46148944,6979.322;-2.3843622,9.306704,0.30765963,-2.6151068,9.845108,0.11537236,7012.8765;-2.3843622,9.306704,0.30765963,-2.9612238,9.652821,0.38457453,7012.8765;-2.3843622,9.306704,0.30765963,-2.9996815,9.691278,-0.15382981,7012.8765;-2.3843622,9.306704,0.30765963,-2.6920218,9.614364,0.38457453,7012.8765;-2.3843622,9.306704,0.30765963,-1.9228727,9.845108,0.23074472,7046.4307;-2.3843622,9.306704,0.30765963,-2.461277,9.422076,0.4999469,7046.4307;-2.3843622,9.306704,0.30765963,-2.9996815,9.422076,0.4999469,7046.4307;-2.3843622,9.306704,0.30765963,-2.4997344,9.306704,0.61531925,7079.9854;-2.3843622,9.306704,0.30765963,-3.0381389,9.537449,0.9229789,7079.9854;-2.3843622,9.306704,0.30765963,-3.1150537,9.422076,0.46148944,7079.9854;-2.3843622,9.306704,0.30765963,-2.6151068,9.306704,0.34611708,7113.5396;-2.3843622,9.306704,0.30765963,-1.9228727,9.306704,0.34611708,7113.5396;-2.3843622,9.306704,0.30765963,-2.5766494,9.460533,0.8076065,7113.5396;-2.3843622,9.306704,0.30765963,-2.4228196,9.845108,0.38457453,7113.5396;-2.3843622,9.306704,0.30765963,-2.6151068,9.768193,0.11537236,7147.094;-2.3843622,9.306704,0.30765963,-2.9996815,9.729735,-0.11537236,7147.094;-2.3843622,9.306704,0.30765963,-2.6920218,9.114416,0.11537236,7147.094;-2.3843622,9.306704,0.30765963,-1.9997876,9.383618,0.69223416,7180.6484;-2.3843622,9.306704,0.30765963,-1.9997876,9.537449,0.5768618,7180.6484;-2.3843622,9.306704,0.30765963,-2.4228196,9.575906,0.46148944,7180.6484;-2.3843622,9.306704,0.30765963,-2.807394,9.80665,0.4999469,7214.2026;-2.3843622,9.306704,0.30765963,-2.2689898,9.729735,0.038457453,7214.2026;-2.3843622,9.306704,0.30765963,-2.5381918,9.80665,0.19228727,7214.2026;-2.3843622,9.306704,0.30765963,-2.2689898,9.037501,0.07691491,7214.2026;-2.3843622,9.306704,0.30765963,-2.3459046,9.345161,0.30765963,7247.7573;-2.3843622,9.306704,0.30765963,-2.461277,9.498991,0.7306916,7247.7573;-2.3843622,9.306704,0.30765963,-2.8458514,9.691278,0.30765963,7247.7573;-2.3843622,9.306704,0.30765963,-2.807394,9.306704,0.69223416,7281.3115;-2.3843622,9.306704,0.30765963,-2.7689366,9.575906,-0.30765963,7281.3115;-2.3843622,9.306704,0.30765963,-2.5766494,9.691278,0.34611708,7281.3115;-2.3843622,9.306704,0.30765963,-2.1920748,8.960587,-0.19228727,7281.3115;-2.3843622,9.306704,0.30765963,-2.11516,9.268247,0.34611708,7314.866;-2.3843622,9.306704,0.30765963,-2.5766494,9.80665,0.96143633,7314.866;-2.3843622,9.306704,0.30765963,-2.6151068,9.652821,0.11537236,7314.866;-2.3843622,9.306704,0.30765963,-2.884309,10.11431,0.07691491,7348.4204;-2.3843622,9.306704,0.30765963,-3.1919687,9.575906,-0.11537236,7348.4204;-2.3843622,9.306704,0.30765963,-2.3459046,9.845108,-0.30765963,7348.4204;-2.3843622,9.306704,0.30765963,-2.6151068,9.345161,0.423032,7381.975;-2.3843622,9.306704,0.30765963,-2.6920218,9.998938,0.846064,7381.975;-2.3843622,9.306704,0.30765963,-2.2305322,9.80665,0.76914907,7381.975;-2.3843622,9.306704,0.30765963,-2.6535642,9.383618,0.30765963,7381.975;-2.3843622,9.306704,0.30765963,-2.884309,9.80665,0.5768618,7415.5293;-2.3843622,9.306704,0.30765963,-2.807394,9.614364,0.15382981,7415.5293;-2.3843622,9.306704,0.30765963,-2.461277,9.768193,0.4999469,7415.5293;-2.3843622,9.306704,0.30765963,-1.692128,9.268247,0.423032,7449.084;-2.3843622,9.306704,0.30765963,-2.2689898,9.460533,0.23074472,7449.084;-2.3843622,9.306704,0.30765963,-2.1920748,9.537449,0.6537767,7449.084;-2.3843622,9.306704,0.30765963,-2.9227664,9.691278,0.61531925,7482.638;-2.3843622,9.306704,0.30765963,-2.461277,9.729735,0.11537236,7482.638;-2.3843622,9.306704,0.30765963,-2.6151068,9.537449,0.38457453,7482.638;-2.3843622,9.306704,0.30765963,-2.6920218,9.460533,0.34611708,7482.638;-2.3843622,9.306704,0.30765963,-2.3074472,9.575906,0.61531925,7516.193;-2.3843622,9.306704,0.30765963,-2.038245,9.114416,1.0383513,7516.193;-2.3843622,9.306704,0.30765963,-2.0767026,9.575906,0.38457453,7516.193;-2.3843622,9.306704,0.30765963,-2.4228196,9.729735,0.5768618,7549.747;-2.3843622,9.306704,0.30765963,-2.2689898,9.768193,0.9998938,7549.747;-2.3843622,9.306704,0.30765963,-2.6535642,9.691278,0.6537767,7549.747;-2.3843622,9.306704,0.30765963,-2.2305322,9.229789,0.07691491,7583.302;-2.3843622,9.306704,0.30765963,-1.9228727,9.229789,0.5768618,7583.302;-2.3843622,9.306704,0.30765963,-2.3843622,9.575906,0.19228727,7583.302;-2.3843622,9.306704,0.30765963,-2.7689366,8.922129,0.26920217,7583.302;-2.3843622,9.306704,0.30765963,-3.0765963,9.80665,0.61531925,7616.856;-2.3843622,9.306704,0.30765963,-2.7689366,9.498991,0.26920217,7616.856;-2.3843622,9.306704,0.30765963,-2.4997344,9.691278,0.69223416,7616.856;-2.3843622,9.306704,0.30765963,-1.7305853,9.345161,0.38457453,7650.4106;-2.3843622,9.306704,0.30765963,-2.3459046,9.152874,0.61531925,7650.4106;-2.3843622,9.306704,0.30765963,-2.3459046,9.422076,0.30765963,7650.4106;-2.3843622,9.306704,0.30765963,-2.6920218,10.11431,0.11537236,7683.965;-2.3843622,9.306704,0.30765963,-2.6535642,9.998938,-0.23074472,7683.965;-2.3843622,9.306704,0.30765963,-2.1920748,9.691278,0.11537236,7683.965;-2.3843622,9.306704,0.30765963,-2.2305322,9.575906,0.5768618,7683.965;-2.3843622,9.306704,0.30765963,-1.692128,9.422076,0.61531925,7717.5195;-2.3843622,9.306704,0.30765963,-2.6535642,9.922023,0.53840435,7717.5195;-2.3843622,9.306704,0.30765963,-1.9228727,10.152767,0.8076065,7717.5195;-2.3843622,9.306704,0.30765963,-2.5381918,9.922023,0.26920217,7751.0737;-2.3843622,9.306704,0.30765963,-2.6535642,9.614364,0.61531925,7751.0737;-2.3843622,9.306704,0.30765963,-2.5381918,9.998938,0.53840435,7751.0737;-2.3843622,9.306704,0.30765963,-2.7304792,9.037501,0.423032,7784.6284;-2.3843622,9.306704,0.30765963,-2.3074472,9.768193,0.5768618,7784.6284;-2.3843622,9.306704,0.30765963,-1.8844151,9.498991,0.38457453,7784.6284;-2.3843622,9.306704,0.30765963,-2.4228196,9.345161,0.7306916,7784.6284;-2.3843622,9.306704,0.30765963,-2.807394,9.652821,0.19228727,7818.1826;-2.3843622,9.306704,0.30765963,-3.0381389,9.460533,0.4999469,7818.1826;-2.3843622,9.306704,0.30765963,-3.153511,9.652821,0.38457453,7818.1826;-2.3843622,9.306704,0.30765963,-2.6535642,9.498991,0.61531925,7851.7373;-2.3843622,9.306704,0.30765963,-1.9613302,9.345161,0.6537767,7851.7373;-2.3843622,9.306704,0.30765963,-2.2305322,9.575906,0.7306916,7851.7373;-2.3843622,9.306704,0.30765963,-2.6151068,9.729735,0.7306916,7851.7373;-2.3843622,9.306704,0.30765963,-2.7689366,9.614364,0.0,7885.2915;-2.3843622,9.306704,0.30765963,-2.3074472,9.345161,0.07691491,7885.2915;-2.3843622,9.306704,0.30765963,-2.11516,9.460533,0.6537767,7885.2915;-2.3843622,9.306704,0.30765963,-2.3074472,9.037501,-0.07691491,7918.846;-2.3843622,9.306704,0.30765963,-2.11516,9.191331,0.15382981,7918.846;-2.3843622,9.306704,0.30765963,-2.3459046,9.460533,0.0,7918.846;-2.3843622,9.306704,0.30765963,-3.0381389,9.691278,0.26920217,7952.4004;-2.3843622,9.306704,0.30765963,-2.5766494,9.768193,0.61531925,7952.4004;-2.3843622,9.306704,0.30765963,-2.9996815,9.537449,0.07691491,7952.4004;-2.3843622,9.306704,0.30765963,-2.7304792,9.498991,0.9229789,7985.9546;-2.3843622,9.306704,0.30765963,-1.9228727,9.345161,0.9229789,7985.9546;-2.3843622,9.306704,0.30765963,-2.3459046,9.729735,0.8076065,7985.9546;-2.3843622,9.306704,0.30765963,-2.6920218,9.498991,0.423032,7985.9546;-2.3843622,9.306704,0.30765963,-2.7304792,10.0373955,0.0,8019.5093;-2.3843622,9.306704,0.30765963,-2.6151068,9.422076,0.0,8019.5093;-2.3843622,9.306704,0.30765963,-3.153511,9.268247,-0.038457453,8019.5093;-2.3843622,9.306704,0.30765963,-2.461277,9.652821,0.038457453,8053.0635;-2.3843622,9.306704,0.30765963,-2.1920748,9.883566,0.69223416,8053.0635;-2.3843622,9.306704,0.30765963,-1.9997876,9.537449,0.76914907,8053.0635;-2.3843622,9.306704,0.30765963,-2.4997344,9.575906,0.61531925,8053.0635;-2.3843622,9.306704,0.30765963,-2.807394,9.729735,0.0,8086.618;-2.3843622,9.306704,0.30765963,-2.807394,9.614364,0.46148944,8086.618;-2.3843622,9.306704,0.30765963,-2.807394,9.883566,0.7306916,8086.618;-2.3843622,9.306704,0.30765963,-2.4228196,9.460533,0.76914907,8120.1724;-2.3843622,9.306704,0.30765963,-2.038245,9.537449,0.5768618,8120.1724;-2.3843622,9.306704,0.30765963,-2.6151068,9.422076,0.19228727,8120.1724;-2.3843622,9.306704,0.30765963,-2.461277,9.537449,0.5768618,8153.727;-2.3843622,9.306704,0.30765963,-2.9996815,9.498991,0.5768618,8153.727;-2.3843622,9.306704,0.30765963,-2.8458514,9.729735,-0.11537236,8153.727;-2.3843622,9.306704,0.30765963,-2.8458514,9.614364,0.26920217,8153.727;-2.3843622,9.306704,0.30765963,-1.9997876,9.268247,1.2690959,8187.2813;-2.3843622,9.306704,0.30765963,-2.2689898,9.80665,1.0383513,8187.2813;-2.3843622,9.306704,0.30765963,-2.884309,9.883566,1.2690959,8187.2813;-2.3843622,9.306704,0.30765963,-2.9612238,9.998938,0.9998938,8220.836;-2.3843622,9.306704,0.30765963,-3.1150537,9.80665,0.30765963,8220.836;-2.3843622,9.306704,0.30765963,-2.6151068,9.114416,-0.34611708,8220.836;-2.3843622,9.306704,0.30765963,-2.6920218,9.191331,-0.423032,8254.391;-2.3843622,9.306704,0.30765963,-2.11516,9.229789,0.30765963,8254.391;-2.3843622,9.306704,0.30765963,-2.3459046,9.345161,0.26920217,8254.391;-2.3843622,9.306704,0.30765963,-2.2689898,9.960481,0.23074472,8254.391;-2.3843622,9.306704,0.30765963,-2.6920218,9.575906,0.30765963,8287.944;-2.3843622,9.306704,0.30765963,-2.807394,9.268247,0.30765963,8287.944;-2.3843622,9.306704,0.30765963,-2.5766494,9.768193,0.8845214,8287.944;-2.3843622,9.306704,0.30765963,-2.7304792,9.422076,0.4999469,8321.499;-2.3843622,9.306704,0.30765963,-2.0767026,9.460533,0.7306916,8321.499;-2.3843622,9.306704,0.30765963,-2.3459046,10.075852,0.26920217,8321.499;-2.3843622,9.306704,0.30765963,-2.2689898,9.422076,0.19228727,8321.499;-2.3843622,9.306704,0.30765963,-2.6535642,9.652821,-0.11537236,8355.054;-2.3843622,10.3835125,0.30765963,-2.2689898,10.3835125,0.15382981,8355.054;-2.3843622,9.345161,0.30765963,-2.2689898,9.345161,-0.038457453,8355.054;-2.3843622,9.345161,0.30765963,-2.2689898,9.652821,0.69223416,8388.608;-2.3843622,9.345161,0.30765963,-1.8844151,9.306704,0.6537767,8388.608;-2.3843622,9.345161,0.30765963,-3.0765963,9.729735,0.76914907,8388.608;-2.3843622,9.345161,0.30765963,-3.153511,9.652821,0.34611708,8422.162;-2.3843622,9.345161,0.30765963,-2.9996815,9.498991,-0.11537236,8422.162;-2.3843622,9.345161,0.30765963,-2.1536174,9.498991,-0.038457453,8422.162;-2.3843622,9.345161,0.30765963,-2.461277,9.268247,0.26920217,8422.162;-2.3843622,9.345161,0.30765963,-2.1920748,9.80665,0.26920217,8455.717;-2.3843622,9.345161,0.30765963,-2.1536174,9.345161,0.5768618,8455.717;-2.3843622,9.345161,0.30765963,-2.5381918,9.152874,0.15382981,8455.717;-2.3843622,9.345161,0.30765963,-2.3843622,9.652821,0.34611708,8489.271;-2.3843622,9.345161,0.30765963,-2.9612238,9.383618,0.5768618,8489.271;-2.3843622,9.345161,0.30765963,-3.307341,9.691278,0.30765963,8489.271;-2.3843622,9.345161,0.30765963,-2.4997344,9.80665,0.69223416,8522.826;-2.3843622,9.345161,0.30765963,-2.11516,9.652821,0.26920217,8522.826;-2.3843622,9.345161,0.30765963,-2.3843622,9.537449,0.8076065,8522.826;-2.3843622,9.345161,0.30765963,-2.5381918,9.229789,0.26920217,8522.826;-2.3843622,9.345161,0.30765963,-2.6920218,10.0373955,0.038457453,8556.38;-2.3843622,9.345161,0.30765963,-2.6535642,10.0373955,0.038457453,8556.38;-2.3843622,9.345161,0.30765963,-2.6151068,9.652821,0.34611708,8556.38;-2.3843622,9.345161,0.30765963,-2.2689898,10.0373955,0.6537767,8589.935;-2.3843622,9.345161,0.30765963,-2.2305322,8.883672,1.1152661,8589.935;-2.3843622,9.345161,0.30765963,-2.4228196,9.922023,0.30765963,8589.935;-2.3843622,9.345161,0.30765963,-2.2305322,10.0373955,0.423032,8623.489;-2.3843622,9.345161,0.30765963,-2.884309,9.152874,-0.038457453,8623.489;-2.3843622,9.345161,0.30765963,-2.7689366,9.422076,0.19228727,8623.489;-2.3843622,9.345161,0.30765963,-2.6535642,8.999044,0.23074472,8623.489;-2.3843622,9.345161,0.30765963,-2.2305322,9.729735,0.53840435,8657.043;-2.3843622,9.345161,0.30765963,-2.9612238,9.498991,0.23074472,8657.043;-2.3843622,9.345161,0.30765963,-2.1920748,9.114416,0.7306916,8657.043;-2.3843622,9.345161,0.30765963,-2.461277,9.960481,0.34611708,8690.598;-2.3843622,9.345161,0.30765963,-2.9612238,9.498991,-0.038457453,8690.598;-2.3843622,9.345161,0.30765963,-2.5381918,9.729735,-0.19228727,8690.598;-2.3843622,9.345161,0.30765963,-2.7689366,9.345161,-0.30765963,8724.152;-2.3843622,9.345161,0.30765963,-2.4997344,9.460533,0.46148944,8724.152;-2.3843622,9.345161,0.30765963,-2.5381918,9.845108,0.96143633,8724.152;-2.3843622,9.345161,0.30765963,-2.5766494,9.191331,0.6537767,8724.152;-2.3843622,9.345161,0.30765963,-2.8458514,9.729735,0.38457453,8757.707;-2.3843622,9.345161,0.30765963,-2.9227664,9.383618,-0.23074472,8757.707;-2.3843622,9.345161,0.30765963,-2.5766494,9.345161,-0.30765963,8757.707;-2.3843622,9.345161,0.30765963,-2.3074472,9.460533,-0.19228727,8791.261;-2.3843622,9.345161,0.30765963,-2.2305322,9.422076,0.038457453,8791.261;-2.3843622,9.345161,0.30765963,-2.5766494,9.729735,0.6537767,8791.261;-2.3843622,9.345161,0.30765963,-2.3843622,9.80665,0.11537236,8791.261;-2.3843622,9.345161,0.30765963,-2.9996815,9.383618,-0.34611708,8824.815;-2.3843622,9.345161,0.30765963,-2.884309,9.575906,0.038457453,8824.815;-2.3843622,9.345161,0.30765963,-2.7689366,9.460533,0.7306916,8824.815;-2.3843622,9.345161,0.30765963,-2.4228196,9.460533,0.7306916,8858.37;-2.3843622,9.345161,0.30765963,-2.3074472,9.229789,0.53840435,8858.37;-2.3843622,9.345161,0.30765963,-2.5766494,9.383618,0.38457453,8858.37;-2.3843622,9.345161,0.30765963,-2.461277,9.422076,0.34611708,8891.925;-2.3843622,9.345161,0.30765963,-2.7689366,9.845108,0.76914907,8891.925;-2.3843622,9.345161,0.30765963,-2.3074472,9.460533,0.19228727,8891.925;-2.3843622,9.345161,0.30765963,-2.2305322,9.845108,0.15382981,8891.925;-2.3843622,9.345161,0.30765963,-2.3459046,8.999044,0.9229789,8925.479;-2.3843622,9.345161,0.30765963,-2.461277,9.460533,0.46148944,8925.479;-2.3843622,9.345161,0.30765963,-2.3074472,9.80665,0.5768618,8925.479;-2.3843622,9.345161,0.30765963,-2.9612238,9.614364,0.34611708,8959.033;-2.3843622,9.345161,0.30765963,-2.6535642,9.960481,0.19228727,8959.033;-2.3843622,9.345161,0.30765963,-2.2305322,9.614364,0.69223416,8959.033;-2.3843622,9.345161,0.30765963,-2.1920748,9.460533,0.6537767,8992.588;-2.3843622,9.345161,0.30765963,-1.8844151,8.999044,0.6537767,8992.588;-2.3843622,9.345161,0.30765963,-2.3843622,9.729735,0.5768618,8992.588;-2.3843622,9.345161,0.30765963,-2.3843622,9.729735,0.07691491,8992.588;-2.3843622,9.345161,0.30765963,-2.3843622,9.729735,0.423032,9026.143;-2.3843622,9.345161,0.30765963,-3.307341,9.191331,-0.6537767,9026.143;-2.3843622,9.345161,0.30765963,-2.5381918,9.460533,0.423032,9026.143;-2.3843622,9.345161,0.30765963,-2.3074472,9.460533,0.11537236,9059.696;-2.3843622,9.345161,0.30765963,-1.9228727,9.883566,0.6537767,9059.696;-2.3843622,9.345161,0.30765963,-1.9997876,9.883566,0.61531925,9059.696;-2.3843622,9.345161,0.30765963,-2.461277,9.614364,0.38457453,9093.251;-2.3843622,9.345161,0.30765963,-2.6151068,9.768193,0.07691491,9093.251;-2.3843622,9.345161,0.30765963,-3.0381389,9.075959,0.4999469,9093.251;-2.3843622,9.345161,0.30765963,-2.807394,9.537449,0.7306916,9093.251;-2.3843622,9.345161,0.30765963,-1.9997876,8.960587,0.61531925,9126.806;-2.3843622,9.345161,0.30765963,-1.8075004,9.268247,0.61531925,9126.806;-2.3843622,9.345161,0.30765963,-2.6920218,9.268247,0.4999469,9126.806;-2.3843622,9.345161,0.30765963,-3.0765963,9.498991,0.15382981,9160.36;-2.3843622,9.345161,0.30765963,-2.6535642,9.345161,0.30765963,9160.36;-2.3843622,9.345161,0.30765963,-2.6151068,9.80665,0.26920217,9160.36;-2.3843622,9.345161,0.30765963,-2.3843622,9.460533,0.423032,9193.914;-2.3843622,9.345161,0.30765963,-1.7690428,9.152874,0.76914907,9193.914;-2.3843622,9.345161,0.30765963,-2.461277,9.575906,0.9229789,9193.914;-2.3843622,9.345161,0.30765963,-2.4997344,9.537449,0.6537767,9193.914;-2.3843622,9.345161,0.30765963,-2.807394,9.383618,0.34611708,9227.469;-2.3843622,9.345161,0.30765963,-3.0381389,9.691278,-0.07691491,9227.469;-2.3843622,9.345161,0.30765963,-2.3074472,9.537449,-0.15382981,9227.469;-2.3843622,9.345161,0.30765963,-2.2305322,9.575906,0.19228727,9261.023;-2.3843622,9.345161,0.30765963,-1.9613302,9.306704,0.53840435,9261.023;-2.3843622,9.345161,0.30765963,-2.6920218,9.498991,0.846064,9261.023;-2.3843622,9.345161,0.30765963,-2.3843622,9.575906,0.5768618,9294.578;-2.3843622,9.345161,0.30765963,-2.807394,9.575906,0.6537767,9294.578;-2.3843622,9.345161,0.30765963,-2.7304792,9.883566,0.23074472,9294.578;-2.3843622,9.345161,0.30765963,-2.4228196,9.345161,0.7306916,9294.578;-2.3843622,9.345161,0.30765963,-2.1536174,9.460533,0.9998938,9328.132;-2.3843622,9.345161,0.30765963,-2.6151068,9.229789,1.1537236,9328.132;-2.3843622,9.345161,0.30765963,-2.1536174,9.922023,1.0383513,9328.132;-2.3843622,9.345161,0.30765963,-2.884309,9.383618,0.46148944,9361.687;-2.3843622,9.345161,0.30765963,-2.5381918,9.80665,0.423032,9361.687;-2.3843622,9.345161,0.30765963,-2.3074472,9.575906,0.11537236,9361.687;-2.3843622,9.345161,0.30765963,-2.4997344,9.729735,0.53840435,9361.687;-2.3843622,9.345161,0.30765963,-2.5381918,9.422076,0.61531925,9395.241;-2.3843622,9.345161,0.30765963,-2.461277,9.345161,0.46148944,9395.241;-2.3843622,9.345161,0.30765963,-2.4228196,9.614364,0.7306916,9395.241;-2.3843622,9.345161,0.30765963,-2.2305322,9.922023,0.34611708,9428.795;-2.3843622,9.345161,0.30765963,-2.9227664,9.729735,0.38457453,9428.795;-2.3843622,9.345161,0.30765963,-2.5766494,9.306704,1.0768087,9428.795;-2.3843622,9.345161,0.30765963,-2.3843622,9.922023,0.9229789,9462.35;-2.3843622,9.345161,0.30765963,-1.7690428,9.460533,0.5768618,9462.35;-2.3843622,9.345161,0.30765963,-2.3459046,9.191331,0.7306916,9462.35;-2.3843622,9.345161,0.30765963,-2.6535642,9.729735,0.30765963,9462.35;-2.3843622,9.345161,0.30765963,-2.9227664,9.768193,0.038457453,9495.904;-2.3843622,9.345161,0.30765963,-2.7304792,9.652821,0.53840435,9495.904;-2.3843622,9.345161,0.30765963,-2.1536174,9.768193,0.30765963,9495.904;-2.3843622,9.345161,0.30765963,-2.5381918,8.960587,0.61531925,9529.459;-2.3843622,9.345161,0.30765963,-2.2305322,9.422076,0.8076065,9529.459;-2.3843622,9.345161,0.30765963,-2.5766494,10.26814,0.15382981,9529.459;-2.3843622,9.345161,0.30765963,-3.1150537,9.191331,0.5768618,9563.013;-2.3843622,9.345161,0.30765963,-2.461277,9.960481,0.19228727,9563.013;-2.3843622,9.345161,0.30765963,-3.0381389,9.268247,0.038457453,9563.013;-2.3843622,9.345161,0.30765963,-2.3074472,9.422076,0.15382981,9563.013;-2.3843622,9.345161,0.30765963,-2.3843622,9.383618,0.46148944,9596.567;-2.3843622,9.345161,0.30765963,-1.9228727,10.11431,0.19228727,9596.567;-2.3843622,9.345161,0.30765963,-2.2689898,9.422076,0.61531925,9596.567;-2.3843622,9.345161,0.30765963,-2.807394,9.460533,-0.19228727,9630.122;-2.3843622,9.345161,0.30765963,-2.884309,9.614364,0.5768618,9630.122;-2.3843622,9.345161,0.30765963,-2.2305322,9.152874,0.96143633,9630.122;-2.3843622,9.345161,0.30765963,-2.3074472,9.922023,0.8076065,9663.677;-2.3843622,9.345161,0.30765963,-1.5382981,9.575906,0.76914907,9663.677;-2.3843622,9.345161,0.30765963,-2.0767026,9.345161,0.61531925,9663.677;-2.3843622,9.345161,0.30765963,-2.6535642,10.075852,0.07691491,9663.677;-2.3843622,9.345161,0.30765963,-2.4997344,10.075852,-0.07691491,9697.23;-2.3843622,9.345161,-0.7306916,-3.153511,10.0373955,-0.7306916,9697.23;-2.3843622,9.345161,0.423032,-2.4997344,9.652821,0.423032,9697.23;-2.3843622,9.345161,0.423032,-2.038245,9.152874,0.423032,9730.785;-2.3843622,9.345161,0.423032,-1.4613832,9.691278,0.96143633,9730.785;-2.3843622,9.345161,0.423032,-1.8459578,9.691278,0.8076065,9730.785;-2.3843622,9.345161,0.423032,-2.2305322,9.845108,0.76914907,9764.34;-2.3843622,9.345161,0.423032,-2.4228196,9.768193,0.26920217,9764.34;-2.3843622,9.345161,0.423032,-2.807394,9.922023,0.69223416,9764.34;-2.3843622,9.345161,0.423032,-2.4228196,9.883566,0.038457453,9764.34;-2.3843622,9.345161,0.423032,-2.5381918,9.306704,0.9229789,9797.895;-2.3843622,9.345161,0.423032,-2.4997344,9.729735,0.76914907,9797.895;-2.3843622,9.345161,0.423032,-2.2305322,9.575906,-0.07691491,9797.895;-2.3843622,9.345161,0.423032,-2.461277,9.268247,0.07691491,9831.448;-2.3843622,9.345161,0.423032,-2.6920218,9.575906,0.26920217,9831.448;-2.3843622,9.345161,0.423032,-2.4228196,9.460533,0.61531925,9831.448;-2.3843622,9.345161,0.423032,-2.6535642,9.614364,0.38457453,9865.003;-2.3843622,9.345161,0.423032,-2.2689898,9.460533,0.8845214,9865.003;-2.3843622,9.345161,0.423032,-2.7689366,9.729735,0.846064,9865.003;-2.3843622,9.345161,0.423032,-2.461277,9.729735,0.15382981,9865.003;-2.3843622,9.345161,0.423032,-2.6920218,9.922023,0.34611708,9898.558;-2.3843622,9.345161,0.423032,-2.807394,9.498991,-0.07691491,9898.558;-2.3843622,9.345161,0.423032,-2.3459046,9.768193,-0.26920217,9898.558;-2.3843622,9.345161,0.423032,-2.6920218,9.268247,0.34611708,9932.112;-2.3843622,9.345161,0.423032,-2.2305322,9.498991,0.846064,9932.112;-2.3843622,9.345161,0.423032,-2.6151068,9.883566,1.1152661,9932.112;-2.3843622,9.345161,0.423032,-2.5381918,9.614364,0.6537767,9932.112;-2.3843622,9.345161,0.423032,-2.9227664,9.80665,0.11537236,9965.666;-2.3843622,9.345161,0.423032,-2.6920218,9.691278,0.11537236,9965.666;-2.3843622,9.345161,0.423032,-2.7689366,9.422076,0.19228727,9965.666;-2.3843622,9.345161,0.423032,-2.9227664,9.306704,0.46148944,9999.221;-2.3843622,9.345161,0.423032,-2.2689898,9.383618,0.69223416,9999.221;-2.3843622,9.345161,0.423032,-2.4997344,9.460533,0.34611708,9999.221;-2.3843622,9.345161,0.423032,-2.6920218,9.575906,0.4999469,10032.775;-2.3843622,9.345161,0.423032,-2.884309,9.383618,-0.038457453,10032.775;-2.3843622,9.345161,0.423032,-2.6535642,9.922023,0.6537767,10032.775;-2.3843622,9.345161,0.423032,-2.7689366,9.422076,0.38457453,10032.775;-2.3843622,9.345161,0.423032,-2.461277,9.498991,0.423032,10066.33;-2.3843622,9.345161,0.423032,-2.11516,8.883672,0.038457453,10066.33;-2.3843622,9.345161,0.423032,-2.6535642,9.691278,0.423032,10066.33;-2.3843622,9.345161,0.423032,-2.9227664,9.575906,0.07691491,10099.884;-2.3843622,9.345161,0.423032,-2.8458514,9.229789,0.038457453,10099.884;-2.3843622,9.345161,0.423032,-2.7304792,9.422076,0.26920217,10099.884;-2.3843622,9.345161,0.423032,-2.5766494,8.768299,0.423032,10133.438;-2.3843622,9.345161,0.423032,-2.0767026,9.575906,0.69223416,10133.438;-2.3843622,9.345161,0.423032,-2.4997344,9.498991,1.0768087,10133.438;-2.3843622,9.345161,0.423032,-2.1920748,9.498991,0.96143633,10133.438;-2.3843622,9.345161,0.423032,-2.807394,9.460533,0.34611708,10166.993;-2.3843622,9.345161,0.423032,-2.3074472,9.614364,0.23074472,10166.993;-2.3843622,9.345161,0.423032,-2.4228196,9.652821,0.30765963,10166.993;-2.3843622,9.345161,0.423032,-2.6151068,8.806757,0.5768618,10200.547;-2.3843622,9.345161,0.423032,-2.3843622,9.306704,0.7306916,10200.547;-2.3843622,9.345161,0.423032,-2.1920748,9.460533,0.8076065,10200.547;-2.3843622,9.345161,0.423032,-2.4228196,9.960481,0.15382981,10234.102;-2.3843622,9.345161,0.423032,-2.461277,10.229683,0.76914907,10234.102;-2.3843622,9.345161,0.423032,-2.6535642,10.075852,0.846064,10234.102;-2.3843622,9.345161,0.423032,-2.3459046,9.306704,0.69223416,10234.102;-2.3843622,9.345161,0.423032,-2.0767026,9.422076,0.69223416,10267.656;-2.3843622,9.345161,0.423032,-2.038245,9.229789,0.846064,10267.656;-2.3843622,9.345161,0.423032,-2.2305322,9.229789,0.61531925,10267.656;-2.3843622,9.345161,0.423032,-2.6920218,9.998938,0.30765963,10301.211;-2.3843622,9.345161,0.423032,-2.7689366,9.383618,0.69223416,10301.211;-2.3843622,9.345161,0.423032,-2.0767026,9.383618,0.4999469,10301.211;-2.3843622,9.345161,0.423032,-2.7689366,9.152874,0.038457453,10301.211;-2.3843622,9.345161,0.423032,-2.5766494,9.383618,0.5768618,10334.765;-2.3843622,9.345161,0.423032,-2.11516,9.729735,0.69223416,10334.765;-2.3843622,9.345161,0.423032,-2.1920748,9.729735,0.846064,10334.765;-2.3843622,9.345161,0.423032,-2.461277,9.614364,-0.07691491,10368.319;-2.3843622,9.345161,0.423032,-2.5766494,9.691278,0.26920217,10368.319;-2.3843622,9.345161,0.423032,-2.7304792,9.537449,0.8076065,10368.319;-2.3843622,9.345161,0.423032,-2.6920218,9.922023,0.38457453,10401.874;-2.3843622,9.345161,0.423032,-2.2689898,9.229789,0.53840435,10401.874;-2.3843622,9.345161,0.423032,-2.1920748,9.383618,0.11537236,10401.874;-2.3843622,9.345161,0.423032,-2.461277,9.652821,0.38457453,10401.874;-2.3843622,9.345161,0.423032,-2.5766494,9.575906,0.23074472,10435.429;-2.3843622,9.345161,0.423032,-2.5766494,9.729735,0.6537767,10435.429;-2.3843622,9.345161,0.423032,-2.2305322,9.345161,0.8845214,10435.429;-2.3843622,9.345161,0.423032,-2.2305322,10.0373955,0.34611708,10468.982;-2.3843622,9.345161,0.423032,-2.2305322,9.114416,0.9229789,10468.982;-2.3843622,9.345161,0.423032,-2.9612238,9.191331,0.30765963,10468.982;-2.3843622,9.345161,0.423032,-2.9227664,9.652821,-0.038457453,10502.537;-2.3843622,9.345161,0.423032,-2.5381918,9.422076,0.0,10502.537;-2.3843622,9.345161,0.423032,-2.4228196,9.268247,0.19228727,10502.537;-2.3843622,9.345161,0.423032,-2.11516,9.422076,0.19228727,10502.537;-2.3843622,9.345161,0.423032,-2.4997344,9.075959,0.30765963,10536.092;-2.3843622,9.345161,0.423032,-2.038245,9.537449,1.0768087,10536.092;-2.3843622,9.345161,0.423032,-2.884309,9.652821,0.6537767,10536.092;-2.3843622,9.345161,0.423032,-2.5381918,9.691278,0.26920217,10569.646;-2.3843622,9.345161,0.423032,-3.230426,9.575906,0.23074472,10569.646;-2.3843622,9.345161,0.423032,-2.6151068,9.614364,0.19228727,10569.646;-2.3843622,9.345161,0.423032,-2.11516,9.229789,0.38457453,10603.2;-2.3843622,9.345161,0.423032,-2.1536174,10.0373955,0.61531925,10603.2;-2.3843622,9.345161,0.423032,-2.3843622,9.268247,0.61531925,10603.2;-2.3843622,9.345161,0.423032,-2.5381918,9.498991,0.53840435,10603.2;-2.3843622,9.345161,0.423032,-2.884309,9.922023,-0.15382981,10636.755;-2.3843622,9.345161,0.423032,-1.8075004,9.614364,0.26920217,10636.755;-2.3843622,9.345161,0.423032,-2.7689366,9.729735,0.6537767,10636.755;-2.3843622,9.345161,0.423032,-2.7304792,9.998938,0.6537767,10670.31;-2.3843622,9.345161,0.423032,-2.1536174,9.691278,0.5768618,10670.31;-2.3843622,9.345161,0.423032,-2.6535642,9.306704,1.1152661,10670.31;-2.3843622,9.345161,0.423032,-2.5766494,9.422076,0.7306916,10703.864;-2.3843622,9.345161,0.423032,-2.1920748,9.422076,0.34611708,10703.864;-2.3843622,9.345161,0.423032,-2.2305322,9.614364,0.15382981,10703.864;-2.3843622,9.345161,0.423032,-2.5766494,9.537449,0.30765963,10703.864;-2.3843622,9.345161,0.423032,-2.1536174,9.075959,1.2690959,10737.418;-2.3843622,9.345161,0.423032,-2.038245,9.80665,1.0383513,10737.418;-2.3843622,9.345161,0.423032,-2.5766494,9.422076,1.0768087,10737.418;-2.3843622,9.345161,0.423032,-2.461277,9.268247,0.038457453,10770.973;-2.3843622,9.345161,0.423032,-2.6920218,9.498991,0.26920217,10770.973;-2.3843622,9.345161,0.423032,-2.5766494,9.345161,-0.38457453,10770.973;-2.3843622,9.345161,0.423032,-2.5766494,9.345161,0.4999469,10804.527;-2.3843622,9.345161,0.423032,-2.6151068,9.460533,0.846064,10804.527;-2.3843622,9.345161,0.423032,-2.3843622,9.075959,0.5768618,10804.527;-2.3843622,9.345161,0.423032,-2.5381918,9.345161,0.423032,10804.527;-2.3843622,9.345161,0.423032,-2.6920218,9.575906,0.23074472,10838.081;-2.3843622,9.345161,0.423032,-2.807394,9.383618,0.76914907,10838.081;-2.3843622,9.345161,0.423032,-2.6920218,9.575906,1.1537236,10838.081;-2.3843622,9.345161,0.423032,-2.0767026,9.422076,0.8845214,10871.636;-2.3843622,9.345161,0.423032,-2.3459046,9.152874,0.846064,10871.636;-2.3843622,9.345161,0.423032,-2.1920748,9.80665,0.6537767,10871.636;-2.3843622,9.345161,0.423032,-2.6151068,10.11431,0.26920217,10871.636;-2.3843622,9.345161,0.423032,-2.6920218,9.191331,0.0,10905.19;-2.3843622,9.345161,0.423032,-2.7304792,9.729735,-0.23074472,10905.19;-2.3843622,9.345161,0.423032,-2.807394,9.383618,-0.15382981,10905.19;-2.3843622,9.345161,0.423032,-2.6920218,9.383618,0.61531925,10938.745;-2.3843622,9.345161,0.423032,-2.0767026,9.422076,0.38457453,10938.745;-2.3843622,9.345161,0.423032,-2.461277,9.229789,0.15382981,10938.745;-2.3843622,9.345161,0.423032,-2.8458514,9.922023,0.38457453,10972.299;-2.3843622,9.345161,0.423032,-2.6920218,10.11431,0.61531925,10972.299;-2.3843622,9.345161,0.423032,-2.8458514,9.729735,0.423032,10972.299;-2.3843622,9.345161,0.423032,-2.11516,9.691278,0.46148944,10972.299;-2.3843622,9.345161,0.423032,-2.3459046,9.537449,0.5768618,11005.854;-2.3843622,9.345161,0.423032,-2.5766494,9.575906,0.69223416,11005.854;-2.3843622,9.345161,0.423032,-2.3459046,10.0373955,-0.23074472,11005.854;-2.3843622,9.345161,0.423032,-2.5381918,9.845108,0.038457453,11039.408;-2.3843622,9.345161,0.423032,-2.5381918,9.883566,0.0,11039.408;-2.3843622,9.345161,0.423032,-3.1150537,10.0373955,0.38457453,11039.408;-2.3843622,9.345161,0.423032,-2.4228196,9.498991,0.5768618,11072.963;-2.3843622,9.345161,0.423032,-2.2305322,9.422076,0.8845214,11072.963;-2.3843622,9.345161,0.423032,-2.884309,8.960587,0.4999469,11072.963;-2.3843622,9.345161,0.423032,-2.5381918,9.960481,-0.038457453,11106.517;-2.3843622,9.345161,0.423032,-2.5381918,10.0373955,0.26920217,11106.517;-2.3843622,9.345161,0.423032,-2.8458514,9.922023,1.1152661,11106.517;-2.3843622,9.345161,0.423032,-2.6535642,9.691278,0.76914907,11140.071;-2.3843622,9.345161,0.423032,-2.3074472,9.575906,0.34611708,11140.071;-2.3843622,9.345161,0.423032,-2.2689898,9.422076,0.76914907,11140.071;-2.3843622,9.345161,0.423032,-2.807394,9.922023,0.5768618,11173.626;-2.3843622,9.345161,0.423032,-2.4228196,9.498991,0.76914907,11173.626;-2.3843622,9.345161,0.423032,-2.2689898,9.652821,0.26920217,11173.626;-2.3843622,9.345161,0.423032,-2.3843622,9.537449,0.8845214,11173.626;-2.3843622,9.345161,0.423032,-2.461277,9.422076,0.4999469,11207.181;-2.3843622,9.345161,0.423032,-1.8459578,9.614364,0.846064,11207.181;-2.3843622,9.345161,0.423032,-2.8458514,9.652821,0.61531925,11207.181;-2.3843622,9.345161,0.423032,-2.7689366,9.922023,0.5768618,11240.734;-3.4611707,9.345161,0.423032,-3.4611707,9.268247,0.38457453,11240.734;-3.4611707,9.345161,0.423032,-2.6920218,9.729735,-0.423032,11240.734;-2.1920748,9.345161,0.423032,-2.1920748,9.691278,0.38457453,11274.289;-2.1920748,9.345161,0.423032,-2.1920748,9.306704,0.69223416,11274.289;-2.1920748,9.345161,0.423032,-2.4997344,9.80665,0.8076065,11274.289;-2.1920748,9.345161,0.423032,-2.807394,9.691278,0.5768618,11274.289;-2.1920748,9.345161,0.423032,-2.7304792,9.614364,0.423032,11307.844;-2.1920748,9.345161,0.423032,-2.8458514,9.691278,0.423032,11307.844;-2.1920748,9.345161,0.423032,-1.9997876,9.460533,0.423032,11307.844;-2.1920748,9.345161,0.423032,-1.9228727,9.575906,0.6537767,11341.398;-2.1920748,9.345161,0.423032,-2.6535642,9.768193,0.76914907,11341.398;-2.1920748,9.345161,0.423032,-1.8459578,9.422076,0.5768618,11341.398;-2.1920748,9.345161,0.423032,-2.3843622,9.768193,0.6537767,11341.398;-2.1920748,9.345161,0.423032,-2.5381918,9.614364,0.23074472,11374.952;-2.1920748,9.345161,0.423032,-2.3459046,9.80665,0.23074472,11374.952;-2.1920748,9.345161,0.423032,-2.3843622,9.422076,0.4999469,11374.952;-2.1920748,9.345161,0.423032,-2.4997344,9.383618,0.8076065,11408.507;-2.1920748,9.345161,0.423032,-1.9997876,9.80665,0.9998938,11408.507;-2.1920748,9.345161,0.423032,-2.5766494,9.345161,0.69223416,11408.507;-2.1920748,9.345161,0.423032,-2.4228196,10.0373955,0.30765963,11442.062;-2.1920748,9.345161,0.423032,-2.4228196,9.960481,0.23074472,11442.062;-2.1920748,9.345161,0.423032,-2.3459046,9.191331,-0.23074472,11442.062;-2.1920748,9.345161,0.423032,-2.11516,9.537449,0.19228727,11442.062;-2.1920748,9.345161,0.423032,-2.1536174,9.691278,0.69223416,11475.616;-2.1920748,9.345161,0.423032,-2.0767026,9.575906,0.423032,11475.616;-2.1920748,9.345161,0.423032,-2.9996815,9.768193,0.6537767,11475.616;-2.1920748,9.345161,0.423032,-2.6535642,9.729735,0.15382981,11509.17;-2.1920748,9.345161,0.423032,-2.9996815,9.229789,0.11537236,11509.17;-2.1920748,9.345161,0.423032,-2.4228196,9.845108,0.07691491,11509.17;-2.1920748,9.345161,0.423032,-2.11516,9.383618,0.423032,11542.725;-2.1920748,9.345161,0.423032,-2.5766494,9.460533,0.423032,11542.725;-2.1920748,9.345161,0.423032,-2.4228196,9.306704,0.423032,11542.725;-2.1920748,9.345161,0.423032,-2.4997344,9.345161,0.34611708,11542.725;-2.1920748,9.345161,0.423032,-2.807394,9.229789,0.0,11576.279;-2.1920748,9.345161,0.423032,-2.8458514,9.306704,0.30765963,11576.279;-2.1920748,9.345161,0.423032,-2.5766494,9.498991,0.34611708,11576.279;-2.1920748,9.345161,0.423032,-2.4228196,9.422076,0.34611708,11609.833;-2.1920748,9.345161,0.423032,-2.11516,9.229789,0.5768618,11609.833;-2.1920748,9.345161,0.423032,-2.1920748,9.691278,0.9998938,11609.833;-2.1920748,9.345161,0.423032,-2.038245,10.075852,0.038457453,11643.388;-2.1920748,9.345161,0.423032,-2.3843622,10.191225,-0.07691491,11643.388;-2.1920748,9.345161,0.423032,-1.8459578,9.229789,0.0,11643.388;-2.1920748,9.345161,0.423032,-2.4997344,9.575906,0.69223416,11643.388;-2.1920748,9.345161,0.423032,-2.1536174,9.460533,0.423032,11676.942;-2.1920748,9.345161,0.423032,-2.6535642,9.691278,0.5768618,11676.942;-2.1920748,9.345161,0.423032,-1.9613302,10.075852,0.34611708,11676.942;-2.1920748,9.345161,0.423032,-2.461277,9.80665,0.7306916,11710.497;-2.1920748,9.345161,0.423032,-2.6535642,9.152874,0.46148944,11710.497;-2.1920748,9.345161,0.423032,-2.3459046,9.998938,0.34611708,11710.497;-2.1920748,9.345161,0.423032,-2.3459046,10.191225,0.76914907,11744.051;-2.1920748,9.345161,0.423032,-2.11516,9.652821,0.76914907,11744.051;-2.1920748,9.345161,0.423032,-2.4228196,9.229789,0.6537767,11744.051;-2.1920748,9.345161,0.423032,-2.884309,10.26814,0.53840435,11744.051;-2.1920748,9.345161,0.423032,-2.1920748,9.422076,0.34611708,11777.605;-2.1920748,9.345161,0.423032,-2.2305322,8.883672,0.15382981,11777.605;-2.1920748,9.345161,0.423032,-2.7689366,9.422076,0.69223416,11777.605;-2.1920748,9.345161,0.423032,-2.9612238,9.537449,0.30765963,11811.16;-2.1920748,9.345161,0.423032,-2.3843622,9.152874,0.26920217,11811.16;-2.1920748,9.345161,0.423032,-2.807394,9.345161,0.6537767,11811.16;-2.1920748,9.345161,0.423032,-2.3074472,9.614364,0.19228727,11811.16;-2.1920748,9.345161,0.423032,-2.6151068,9.960481,0.23074472,11844.715;-2.1920748,9.345161,0.423032,-2.7304792,9.845108,0.30765963,11844.715;-2.1920748,9.345161,0.423032,-2.3459046,9.152874,0.61531925,11844.715;-2.1920748,9.345161,0.423032,-2.6920218,9.614364,0.30765963,11878.269;-2.1920748,9.345161,0.423032,-2.1920748,9.729735,0.846064,11878.269;-2.1920748,9.345161,0.423032,-2.0767026,9.960481,0.19228727,11878.269;-2.1920748,9.345161,0.423032,-2.3074472,9.80665,0.07691491,11911.823;-2.1920748,9.345161,0.423032,-2.4228196,9.960481,0.038457453,11911.823;-2.1920748,9.345161,0.423032,-2.5766494,9.306704,0.38457453,11911.823;-2.1920748,9.345161,0.423032,-2.6920218,9.383618,0.69223416,11911.823;-2.1920748,9.345161,0.423032,-2.4228196,9.498991,0.9998938,11945.378;-2.1920748,9.345161,0.423032,-2.3074472,10.0373955,0.423032,11945.378;-2.1920748,9.345161,0.423032,-2.3843622,9.498991,0.6537767,11945.378;-2.1920748,9.345161,0.423032,-2.3843622,9.998938,1.2306385,11978.933;-2.1920748,9.345161,0.423032,-2.6920218,9.345161,0.15382981,11978.933;-2.1920748,9.345161,0.423032,-2.4997344,9.691278,0.23074472,11978.933;-2.1920748,9.345161,0.423032,-2.3074472,9.460533,0.038457453,12012.486;-2.1920748,9.345161,0.423032,-2.2305322,9.652821,0.423032,12012.486;-2.1920748,9.345161,0.423032,-2.4228196,9.652821,0.423032,12012.486;-2.1920748,9.345161,0.423032,-2.2689898,9.845108,0.4999469,12012.486;-2.1920748,9.345161,0.423032,-2.6920218,9.191331,0.30765963,12046.041;-2.1920748,9.345161,0.423032,-2.6920218,9.883566,0.61531925,12046.041;-2.1920748,9.345161,0.423032,-2.11516,8.960587,0.34611708,12046.041;-2.1920748,9.345161,0.423032,-2.5766494,9.268247,0.7306916,12079.596;-2.1920748,9.345161,0.423032,-2.2305322,9.422076,0.846064,12079.596;-2.1920748,9.345161,0.423032,-2.6920218,9.922023,0.8076065,12079.596;-2.1920748,9.345161,0.423032,-2.4997344,9.960481,0.38457453,12113.15;-2.1920748,9.345161,0.423032,-2.1920748,9.768193,0.46148944,12113.15;-2.1920748,9.345161,0.423032,-2.7304792,9.960481,0.15382981,12113.15;-2.1920748,9.345161,0.423032,-2.884309,9.960481,0.34611708,12113.15;-2.1920748,9.345161,0.423032,-2.0767026,8.922129,0.46148944,12146.704;-2.1920748,9.345161,0.423032,-2.4997344,9.345161,0.34611708,12146.704;-2.1920748,9.345161,0.423032,-2.461277,9.575906,0.26920217,12146.704;-2.1920748,9.345161,0.423032,-2.461277,9.614364,0.38457453,12180.259;-2.1920748,9.345161,0.423032,-2.8458514,9.498991,0.0,12180.259;-2.1920748,9.345161,0.423032,-2.5766494,9.537449,0.23074472,12180.259;-2.1920748,9.345161,0.423032,-2.5381918,9.268247,0.8076065,12213.813;-2.1920748,9.345161,0.423032,-2.1920748,9.422076,0.7306916,12213.813;-2.1920748,9.345161,0.423032,-2.2689898,9.768193,0.6537767,12213.813;-2.1920748,9.345161,0.423032,-2.4228196,9.422076,0.61531925,12213.813;-2.1920748,9.345161,0.423032,-2.8458514,10.152767,0.038457453,12247.368;-2.1920748,9.345161,0.423032,-2.461277,9.152874,0.038457453,12247.368;-2.1920748,9.345161,0.423032,-2.5766494,9.306704,0.846064,12247.368;-2.1920748,9.345161,0.423032,-2.038245,9.729735,0.8076065,12280.922;-2.1920748,9.345161,0.423032,-2.2305322,9.191331,0.19228727,12280.922;-2.1920748,9.345161,0.423032,-2.2305322,9.575906,0.23074472,12280.922;-2.1920748,9.345161,0.423032,-2.7689366,10.075852,0.07691491,12314.477;-2.1920748,9.345161,0.423032,-2.9996815,9.768193,0.038457453,12314.477;-2.1920748,9.345161,0.423032,-2.11516,9.498991,0.53840435,12314.477;-2.1920748,9.345161,0.423032,-2.4228196,9.768193,0.8076065,12314.477;-2.1920748,9.345161,0.423032,-2.3074472,9.883566,0.23074472,12348.031;-2.1920748,9.345161,0.423032,-2.5381918,9.345161,0.46148944,12348.031;-2.1920748,9.345161,0.423032,-2.4228196,9.537449,0.46148944,12348.031;-2.1920748,9.345161,0.423032,-2.4997344,9.960481,-0.038457453,12381.585;-2.1920748,9.345161,0.423032,-2.5381918,9.768193,0.30765963,12381.585;-2.1920748,9.345161,0.423032,-2.6920218,9.768193,0.23074472,12381.585;-2.1920748,9.345161,0.423032,-2.5766494,9.229789,0.34611708,12381.585;-2.1920748,9.345161,0.423032,-2.6535642,9.80665,1.1152661,12415.14;-2.1920748,9.345161,0.423032,-2.3459046,10.075852,0.9998938,12415.14;-2.1920748,9.345161,0.423032,-3.153511,9.345161,0.5768618,12415.14;-2.1920748,9.345161,0.423032,-2.884309,10.075852,0.23074472,12448.694;-2.1920748,9.345161,0.423032,-2.9227664,9.498991,0.30765963,12448.694;-2.1920748,9.345161,0.423032,-2.3459046,9.691278,0.19228727,12448.694;-2.1920748,9.345161,0.423032,-2.461277,8.960587,0.23074472,12482.249;-2.1920748,9.345161,0.423032,-2.461277,9.537449,0.0,12482.249;-2.1920748,9.345161,0.423032,-2.5381918,9.614364,0.8845214,12482.249;-2.1920748,9.345161,0.423032,-2.3843622,9.960481,0.5768618,12482.249;-3.2688835,9.345161,0.423032,-3.2688835,9.691278,0.5768618,12515.803;-3.2688835,9.345161,0.423032,-2.6920218,9.422076,0.46148944,12515.803;-3.2688835,9.345161,0.423032,-2.3074472,9.729735,0.8076065,12515.803;-3.2688835,9.345161,0.423032,-2.3459046,9.422076,0.53840435,12549.357;-3.2688835,9.345161,0.423032,-2.461277,9.345161,0.46148944,12549.357;-3.2688835,9.345161,0.423032,-3.0381389,9.306704,0.5768618,12549.357;-3.2688835,9.345161,0.423032,-2.6535642,9.729735,0.26920217,12582.912;-3.2688835,9.345161,0.423032,-2.7689366,9.575906,0.26920217,12582.912;-3.2688835,9.345161,0.423032,-2.3074472,9.729735,0.038457453,12582.912;-3.2688835,9.345161,0.423032,-2.3074472,9.652821,0.76914907,12582.912;-2.1536174,9.345161,0.423032,-2.1536174,8.922129,0.9229789,12616.467;-2.1536174,9.345161,0.423032,-2.038245,9.306704,0.8076065,12616.467;-2.1536174,9.345161,0.423032,-2.1920748,9.498991,0.15382981,12616.467;-2.1536174,9.345161,0.423032,-2.6920218,9.191331,0.26920217,12650.0205;-2.1536174,9.345161,0.423032,-2.9612238,9.922023,0.34611708,12650.0205;-2.1536174,9.345161,0.423032,-2.7304792,9.498991,0.423032,12650.0205;-2.1536174,9.345161,0.423032,-2.4997344,8.999044,0.23074472,12683.575;-2.1536174,9.345161,0.423032,-2.6920218,9.383618,0.30765963,12683.575;-2.1536174,9.345161,0.423032,-2.5766494,8.845214,0.07691491,12683.575;-2.1536174,9.345161,0.423032,-2.9227664,9.729735,0.61531925,12683.575;-2.1536174,9.345161,0.423032,-2.7689366,9.80665,-0.038457453,12717.13;-2.1536174,9.345161,0.423032,-2.2689898,9.422076,0.5768618,12717.13;-2.1536174,9.345161,0.423032,-2.6151068,9.345161,0.5768618,12717.13;-2.1536174,9.345161,0.423032,-2.461277,9.345161,0.38457453,12750.685;-2.1536174,9.345161,0.423032,-2.1536174,9.268247,0.76914907,12750.685;-2.1536174,9.345161,0.423032,-2.3074472,9.614364,0.4999469,12750.685;-2.1536174,9.345161,0.423032,-2.807394,9.460533,0.34611708,12784.238;-2.1536174,9.345161,0.423032,-3.0765963,9.383618,0.038457453,12784.238;-2.1536174,9.345161,0.423032,-2.6151068,9.883566,0.53840435,12784.238;-2.1536174,9.345161,0.423032,-2.4997344,9.268247,0.38457453,12784.238;-2.1536174,9.345161,0.423032,-2.3074472,9.460533,0.26920217,12817.793;-2.1536174,9.345161,0.423032,-2.0767026,9.422076,-0.038457453,12817.793;-2.1536174,9.345161,0.423032,-2.5381918,9.614364,0.7306916,12817.793;-2.1536174,9.345161,0.423032,-3.153511,9.729735,0.46148944,12851.348;-2.1536174,9.345161,0.423032,-2.9996815,10.152767,0.23074472,12851.348;-2.1536174,9.345161,0.423032,-3.0765963,9.960481,0.46148944,12851.348;-2.1536174,9.345161,0.423032,-2.807394,9.998938,0.5768618,12851.348;-2.1536174,9.345161,0.423032,-2.5766494,9.383618,0.61531925,12884.902;-2.1536174,9.345161,0.423032,-2.6151068,8.960587,0.8845214,12884.902;-3.1919687,9.345161,0.423032,-3.1919687,9.80665,0.46148944,12918.456;-3.1919687,9.345161,0.423032,-2.5381918,9.114416,0.53840435,12918.456;-3.1919687,9.345161,0.423032,-2.2689898,9.268247,0.38457453,12952.011;-2.038245,9.345161,0.423032,-2.038245,9.80665,0.69223416,12952.011;-2.038245,9.345161,0.423032,-2.1536174,9.998938,0.846064,12952.011;-2.038245,9.345161,0.423032,-2.3074472,9.652821,0.26920217,12952.011;-2.038245,9.345161,0.423032,-2.6535642,9.80665,-0.07691491,12985.565;-2.038245,9.345161,0.423032,-2.4997344,9.345161,0.4999469,12985.565;-2.038245,9.345161,0.423032,-2.461277,9.80665,0.26920217,12985.565;-2.038245,9.345161,0.423032,-2.4228196,9.498991,0.38457453,13019.119;-2.038245,9.345161,0.423032,-2.2305322,9.114416,0.61531925,13019.119;-2.038245,9.345161,0.423032,-2.1920748,9.652821,0.8076065,13019.119;-2.038245,9.345161,0.423032,-2.6535642,9.229789,0.8076065,13052.674;-2.038245,9.345161,0.423032,-2.6920218,9.383618,0.0,13052.674;-2.038245,9.345161,0.423032,-2.6920218,9.883566,0.38457453,13052.674;-2.038245,9.345161,0.423032,-2.807394,9.460533,0.07691491,13052.674;-2.038245,9.345161,0.423032,-2.5381918,9.422076,0.69223416,13086.229;-2.038245,9.345161,0.423032,-2.1920748,9.652821,0.5768618,13086.229;-2.038245,9.345161,0.423032,-2.7304792,9.960481,0.5768618,13086.229;-2.038245,9.345161,0.423032,-2.7304792,9.537449,0.7306916,13119.783;-2.038245,9.345161,0.423032,-2.807394,9.691278,0.53840435,13119.783;-2.038245,9.345161,0.423032,-2.461277,9.845108,0.07691491,13119.783;-2.038245,9.345161,0.423032,-2.1536174,9.575906,0.46148944,13153.337;-2.038245,9.345161,0.423032,-2.461277,9.652821,0.61531925,13153.337;-2.038245,9.345161,0.423032,-2.4997344,9.691278,0.8845214,13153.337;-2.038245,9.345161,0.423032,-2.884309,9.345161,0.038457453,13153.337;-2.038245,9.345161,0.423032,-2.461277,9.768193,0.23074472,13186.892;-2.038245,9.345161,0.423032,-2.9227664,9.575906,-0.23074472,13186.892;-2.038245,9.345161,0.423032,-2.4997344,9.383618,0.53840435,13186.892;-2.038245,9.345161,0.423032,-1.9613302,9.460533,0.5768618,13220.446;-2.038245,9.345161,0.423032,-2.3074472,9.614364,0.69223416,13220.446;-2.038245,9.345161,0.423032,-2.2305322,9.614364,0.26920217,13220.446;-2.038245,9.345161,0.423032,-2.4228196,9.652821,0.30765963,13254.001;-2.038245,9.345161,0.423032,-2.3459046,9.729735,0.30765963,13254.001;-2.038245,9.345161,0.423032,-2.6151068,9.614364,-0.11537236,13254.001;-2.038245,9.345161,0.423032,-2.7304792,9.498991,0.53840435,13254.001;-2.038245,9.345161,0.423032,-2.5381918,9.960481,0.4999469,13287.555;-2.038245,9.345161,0.423032,-2.4997344,9.383618,0.34611708,13287.555;-2.038245,9.345161,0.423032,-2.807394,9.498991,0.34611708,13287.555;-2.038245,9.345161,0.423032,-3.0381389,9.883566,0.423032,13321.109;-2.038245,9.345161,0.423032,-2.9996815,9.422076,0.96143633,13321.109;-2.038245,9.345161,0.423032,-2.884309,9.614364,-0.11537236,13321.109;-2.038245,9.345161,0.423032,-2.461277,9.422076,0.26920217,13354.664;-2.038245,9.345161,0.423032,-2.2689898,9.537449,0.8845214,13354.664;-2.038245,9.345161,0.423032,-2.038245,9.498991,0.9229789,13354.664;-2.038245,9.345161,0.423032,-2.1536174,9.80665,0.38457453,13354.664;-2.038245,9.345161,0.423032,-2.1536174,9.691278,0.4999469,13388.219;-2.038245,9.345161,0.423032,-3.0381389,9.691278,0.19228727,13388.219;-2.038245,9.345161,0.423032,-2.7304792,9.383618,-0.038457453,13388.219;-2.038245,9.345161,0.423032,-2.2305322,9.460533,0.23074472,13421.772;-2.038245,9.345161,0.423032,-2.6151068,9.152874,0.38457453,13421.772;-2.038245,9.345161,0.423032,-2.5381918,9.345161,0.69223416,13421.772;-2.038245,9.345161,0.423032,-2.038245,9.383618,0.46148944,13421.772;-2.038245,9.345161,0.423032,-2.9612238,9.80665,0.53840435,13455.327;-2.038245,9.345161,0.423032,-2.807394,9.960481,0.038457453,13455.327;-2.038245,9.345161,0.423032,-2.5381918,9.845108,0.038457453,13455.327;-2.038245,9.345161,0.423032,-2.3074472,9.537449,0.11537236,13488.882;-2.038245,9.345161,0.423032,-2.884309,9.537449,0.26920217,13488.882;-2.038245,9.345161,0.423032,-2.5381918,9.268247,0.26920217,13488.882;-2.038245,9.345161,0.423032,-2.461277,9.998938,-0.038457453,13522.437;-2.038245,9.345161,0.423032,-2.9227664,9.729735,0.038457453,13522.437;-2.038245,9.345161,0.423032,-2.7689366,9.80665,0.07691491,13522.437;-2.038245,9.345161,0.423032,-2.2305322,9.537449,0.46148944,13522.437;-2.038245,9.345161,0.423032,-2.11516,9.345161,0.6537767,13555.99;-2.038245,9.345161,0.423032,-2.2689898,9.422076,0.9229789,13555.99;-2.038245,9.345161,0.423032,-1.8459578,9.460533,0.9998938,13555.99;-2.038245,9.345161,0.423032,-2.5766494,9.883566,0.846064,13589.545;-2.038245,9.345161,0.423032,-2.7689366,9.80665,0.96143633,13589.545;-2.038245,9.345161,0.423032,-2.6920218,9.460533,0.46148944,13589.545;-2.038245,9.345161,0.423032,-2.1920748,9.614364,0.46148944,13623.1;-2.038245,9.345161,0.423032,-2.5381918,9.229789,0.30765963,13623.1;-2.038245,9.345161,0.423032,-2.6535642,9.614364,0.69223416,13623.1;-2.038245,9.345161,0.423032,-2.2689898,9.652821,0.6537767,13623.1;-2.038245,9.345161,0.423032,-2.5766494,10.0373955,0.30765963,13656.654;-2.038245,9.345161,0.423032,-2.4997344,9.768193,0.30765963,13656.654;-2.038245,9.345161,0.423032,-2.2305322,9.306704,0.4999469,13656.654;-2.038245,9.345161,0.423032,-2.5381918,9.537449,0.9229789,13690.208;-2.038245,9.345161,0.423032,-1.615213,9.729735,0.9998938,13690.208;-2.038245,9.345161,0.423032,-2.2689898,9.652821,0.5768618,13690.208;-2.038245,9.345161,0.423032,-2.4228196,10.152767,0.23074472,13723.763;-2.038245,9.345161,0.423032,-2.9227664,9.960481,0.0,13723.763;-2.038245,9.345161,0.423032,-2.1536174,9.80665,0.23074472,13723.763;-2.038245,9.345161,0.423032,-2.4228196,9.652821,0.5768618,13723.763;-2.038245,9.345161,0.423032,-2.3843622,9.268247,0.07691491,13757.317;-2.038245,9.345161,0.423032,-2.6535642,9.460533,0.15382981,13757.317;-2.038245,9.345161,0.423032,-2.11516,9.383618,0.69223416,13757.317;-2.038245,9.345161,0.423032,-2.884309,9.268247,0.38457453,13790.871;-2.038245,9.345161,0.423032,-2.6535642,9.498991,0.23074472,13790.871;-2.038245,9.345161,0.423032,-2.5766494,9.691278,0.46148944,13790.871;-2.038245,9.345161,0.423032,-2.7304792,9.575906,0.53840435,13824.426;-2.038245,9.345161,0.423032,-2.11516,9.229789,0.46148944,13824.426;-2.038245,9.345161,0.423032,-2.4228196,9.922023,0.61531925,13824.426;-2.038245,9.345161,0.423032,-2.4228196,9.80665,0.30765963,13824.426;-2.038245,9.345161,0.423032,-2.3074472,9.422076,-0.07691491,13857.98;-2.038245,9.345161,0.423032,-1.9613302,9.460533,0.23074472,13857.98;-2.038245,9.345161,0.423032,-2.461277,9.691278,-0.15382981,13857.98;-2.038245,9.345161,0.423032,-2.5766494,9.691278,0.11537236,13891.535;-2.038245,9.345161,0.423032,-2.038245,9.229789,0.8076065,13891.535;-2.038245,9.345161,0.423032,-2.4997344,9.729735,0.8076065,13891.535;-2.038245,9.345161,0.423032,-2.7689366,9.422076,0.6537767,13891.535;-2.038245,9.345161,0.423032,-2.6535642,9.80665,0.846064,13925.089;-2.038245,9.345161,0.423032,-2.4228196,9.614364,0.61531925,13925.089;-2.038245,9.345161,0.423032,-2.7689366,9.460533,0.6537767,13925.089;-2.038245,9.345161,0.423032,-2.1920748,9.191331,0.8845214,13958.644;-2.038245,9.345161,0.423032,-2.3843622,9.383618,0.4999469,13958.644;-2.038245,9.345161,0.423032,-2.6920218,9.537449,0.30765963,13958.644;-2.038245,9.345161,0.423032,-2.9227664,9.883566,0.26920217,13992.198;-2.038245,9.345161,0.423032,-2.6535642,9.652821,0.07691491,13992.198;-2.038245,9.345161,0.423032,-2.461277,9.498991,0.30765963,13992.198;-2.038245,9.345161,0.423032,-2.3459046,9.575906,0.26920217,13992.198;-2.038245,9.345161,0.423032,-2.4997344,9.498991,0.11537236,14025.753;-2.038245,9.345161,0.423032,-2.1536174,9.460533,0.53840435,14025.753;-2.038245,9.345161,0.423032,-2.4997344,9.498991,0.4999469,14025.753;-2.038245,9.345161,0.423032,-2.5381918,9.922023,0.7306916,14059.307;-2.038245,9.345161,0.423032,-2.9227664,9.575906,0.4999469,14059.307;-2.038245,9.345161,0.423032,-2.6535642,9.537449,0.34611708,14059.307;-2.038245,9.345161,0.423032,-1.9228727,9.383618,-0.07691491,14092.861;-2.038245,9.345161,0.423032,-2.1920748,9.498991,0.76914907,14092.861;-2.038245,9.345161,0.423032,-2.3459046,9.691278,0.423032,14092.861;-2.038245,9.345161,0.423032,-2.9996815,9.537449,0.07691491,14092.861;-2.038245,9.345161,0.423032,-2.5766494,9.998938,0.19228727,14126.416;-2.038245,9.345161,0.423032,-2.9996815,9.614364,0.6537767,14126.416;-2.038245,9.345161,0.423032,-2.3459046,9.268247,0.23074472,14126.416;-2.038245,9.345161,0.423032,-2.4228196,9.114416,0.0,14159.971;-2.038245,9.345161,0.423032,-1.9613302,9.691278,-0.038457453,14159.971;-2.038245,9.345161,0.423032,-2.1920748,9.614364,0.26920217,14159.971;-2.038245,9.345161,0.423032,-2.5766494,9.729735,0.07691491,14193.524;-2.038245,9.345161,0.423032,-2.3459046,9.845108,0.38457453,14193.524;-2.038245,9.345161,0.423032,-2.3459046,9.460533,0.34611708,14193.524;-2.038245,9.345161,0.423032,-2.5766494,9.075959,0.38457453,14193.524;-2.038245,9.345161,0.423032,-2.038245,9.614364,0.846064,14227.079;-2.038245,9.345161,0.423032,-2.461277,9.768193,0.53840435,14227.079;-2.038245,9.345161,0.423032,-2.7304792,9.883566,0.69223416,14227.079;-2.038245,9.345161,0.423032,-2.7304792,10.0373955,0.53840435,14260.634;-2.038245,9.345161,0.423032,-2.3459046,10.26814,0.26920217,14260.634;-2.038245,9.345161,0.423032,-2.9227664,9.614364,0.07691491,14260.634;-2.038245,9.345161,0.423032,-2.0767026,9.422076,0.5768618,14294.188;-2.038245,9.345161,0.423032,-2.2689898,9.80665,0.69223416,14294.188;-2.038245,9.345161,0.423032,-2.3074472,8.999044,0.5768618,